genomestart  3
trait 1 0.0 0.0 0.0 0.0 0.0 0.0 0.0 0.0 0.0 0.0 0.0 0.0 0.0 0.0 0.0 0.0 0.0 0.0 0.0 0.0 
node 1 1 1 1
node 2 1 1 1
node 3 1 1 1
node 4 1 1 3
node 5 1 0 0
node 6 1 0 0
node 7 1 0 0
node 8 1 0 0
node 9 1 0 0
node 10 1 0 0
node 11 1 0 0
node 12 1 0 0
node 13 1 0 0
node 14 1 0 0
node 15 1 0 0
node 16 1 0 0
node 17 1 0 0
node 18 1 0 0
node 19 1 0 0
node 20 1 0 0
node 21 1 0 0
node 22 1 0 0
node 23 1 0 0
node 24 1 0 0
node 25 1 0 0
node 26 1 0 0
node 27 1 0 0
node 28 1 0 0
node 29 1 0 0
node 30 1 0 0
node 31 1 0 0
node 32 1 0 0
node 33 1 0 0
node 34 1 0 0
node 35 1 0 0
node 36 1 0 0
node 37 1 0 0
node 38 1 0 0
node 39 1 0 0
node 40 1 0 0
node 41 1 0 0
node 42 1 0 0
node 43 1 0 0
node 44 1 0 0
node 105 1 0 2
gene  1 1 5 -0.6131647402024694 0 420.0 -0.6131647402024694 1
gene  1 2 5 0.2476290762211525 0 421.0 0.2476290762211525 1
gene  1 1 6 -0.6968722685209829 0 525.0 -0.6968722685209829 1
gene  1 2 7 -0.5501429744938405 0 631.0 -0.5501429744938405 1
gene  1 5 7 0.4798363673000138 0 634.0 0.4798363673000138 1
gene  1 1 8 0.12152425059324878 0 735.0 0.12152425059324878 1
gene  1 3 8 0.3697620297764218 0 737.0 0.3697620297764218 1
gene  1 4 8 -0.9060076914322338 0 738.0 -0.9060076914322338 1
gene  1 1 9 -0.25789138843792925 0 840.0 -0.25789138843792925 1
gene  1 2 9 -0.36300039618503044 0 841.0 -0.36300039618503044 1
gene  1 5 9 -0.41861268861341605 0 844.0 -0.41861268861341605 1
gene  1 6 9 0.033079037721832405 0 845.0 0.033079037721832405 1
gene  1 7 9 -0.8085866329451838 0 846.0 -0.8085866329451838 1
gene  1 8 9 0.09233889769463344 0 847.0 0.09233889769463344 1
gene  1 1 10 -0.28727727008830306 0 945.0 -0.28727727008830306 1
gene  1 2 10 0.2662138081437255 0 946.0 0.2662138081437255 1
gene  1 8 10 -0.19837371533884662 0 952.0 -0.19837371533884662 1
gene  1 1 11 0.762899556314105 0 1050.0 0.762899556314105 1
gene  1 2 11 -0.8915295196662313 0 1051.0 -0.8915295196662313 1
gene  1 4 11 0.9481560945361636 0 1053.0 0.9481560945361636 1
gene  1 7 11 0.4047824327532501 0 1056.0 0.4047824327532501 1
gene  1 8 11 0.2710420278481075 0 1057.0 0.2710420278481075 1
gene  1 9 11 -0.7603662490095484 0 1058.0 -0.7603662490095484 1
gene  1 1 13 0.2133011578660402 0 1260.0 0.2133011578660402 1
gene  1 5 13 -0.2303626803169585 0 1264.0 -0.2303626803169585 1
gene  1 7 13 -0.5621304863350006 0 1266.0 -0.5621304863350006 1
gene  1 8 13 0.9537207120824907 0 1267.0 0.9537207120824907 1
gene  1 9 13 0.3452924099758945 0 1268.0 0.3452924099758945 1
gene  1 10 13 0.21452005707267008 0 1269.0 0.21452005707267008 1
gene  1 11 13 -0.20728639192197795 0 1270.0 -0.20728639192197795 1
gene  1 12 13 -0.5280298826839894 0 1271.0 -0.5280298826839894 1
gene  1 1 14 0.23882762154925385 0 1365.0 0.23882762154925385 1
gene  1 2 14 -0.04109294418733578 0 1366.0 -0.04109294418733578 1
gene  1 3 14 -0.26706423778716026 0 1367.0 -0.26706423778716026 1
gene  1 7 14 -0.779079835387148 0 1371.0 -0.779079835387148 1
gene  1 8 14 -0.5507875920091296 0 1372.0 -0.5507875920091296 1
gene  1 10 14 -0.8352126629302301 0 1374.0 -0.8352126629302301 1
gene  1 2 15 -0.7578785725823143 0 1471.0 -0.7578785725823143 1
gene  1 4 15 -0.5107530647427853 0 1473.0 -0.5107530647427853 1
gene  1 7 15 -0.44854326614603046 0 1476.0 -0.44854326614603046 1
gene  1 8 15 0.5851562425023139 0 1477.0 0.5851562425023139 1
gene  1 9 15 0.5356256036988062 0 1478.0 0.5356256036988062 1
gene  1 11 15 -0.8471953529438895 0 1480.0 -0.8471953529438895 1
gene  1 12 15 -0.0683024821518261 0 1481.0 -0.0683024821518261 1
gene  1 1 16 0.8942030764097784 0 1575.0 0.8942030764097784 1
gene  1 2 16 0.10871559085134397 0 1576.0 0.10871559085134397 1
gene  1 3 16 -0.3598606570899475 0 1577.0 -0.3598606570899475 1
gene  1 5 16 -0.9822593288573472 0 1579.0 -0.9822593288573472 1
gene  1 7 16 -0.21648693277931974 0 1581.0 -0.21648693277931974 1
gene  1 9 16 0.0992336084721469 0 1583.0 0.0992336084721469 1
gene  1 11 16 0.5521058639358399 0 1585.0 0.5521058639358399 1
gene  1 14 16 0.973114920744072 0 1588.0 0.973114920744072 1
gene  1 1 17 -0.4339007048610528 0 1680.0 -0.4339007048610528 1
gene  1 2 17 -0.9551201189465475 0 1681.0 -0.9551201189465475 1
gene  1 3 17 -0.6115955885962228 0 1682.0 -0.6115955885962228 1
gene  1 7 17 0.04562974798121411 0 1686.0 0.04562974798121411 1
gene  1 8 17 0.03455898881929009 0 1687.0 0.03455898881929009 1
gene  1 9 17 -0.3564311507007162 0 1688.0 -0.3564311507007162 1
gene  1 10 17 -0.18071570267266335 0 1689.0 -0.18071570267266335 1
gene  1 13 17 0.9190050923457257 0 1692.0 0.9190050923457257 1
gene  1 14 17 0.6253114513152473 0 1693.0 0.6253114513152473 1
gene  1 15 17 -0.19259473180314746 0 1694.0 -0.19259473180314746 1
gene  1 1 18 0.1303368029576456 0 1785.0 0.1303368029576456 1
gene  1 3 18 -0.7772038070384393 0 1787.0 -0.7772038070384393 1
gene  1 5 18 0.09137029336837277 0 1789.0 0.09137029336837277 1
gene  1 6 18 -0.26219644642295237 0 1790.0 -0.26219644642295237 1
gene  1 10 18 0.672339283598093 0 1794.0 0.672339283598093 1
gene  1 11 18 0.0773206064891363 0 1795.0 0.0773206064891363 1
gene  1 12 18 -0.3671811478732536 0 1796.0 -0.3671811478732536 1
gene  1 13 18 -0.06864787222782642 0 1797.0 -0.06864787222782642 1
gene  1 14 18 -0.8779134411511653 0 1798.0 -0.8779134411511653 1
gene  1 16 18 0.9836778883538252 0 1800.0 0.9836778883538252 1
gene  1 1 19 -0.6380170081432258 0 1890.0 -0.6380170081432258 1
gene  1 3 19 0.4699372662456881 0 1892.0 0.4699372662456881 1
gene  1 7 19 0.8452571556377589 0 1896.0 0.8452571556377589 1
gene  1 9 19 0.9967156850253029 0 1898.0 0.9967156850253029 1
gene  1 11 19 -0.40707424642479884 0 1900.0 -0.40707424642479884 1
gene  1 13 19 -0.06372797221735527 0 1902.0 -0.06372797221735527 1
gene  1 15 19 0.4922617963727528 0 1904.0 0.4922617963727528 1
gene  1 3 20 -0.5545955736635897 0 1997.0 -0.5545955736635897 1
gene  1 4 20 -0.46563661740568607 0 1998.0 -0.46563661740568607 1
gene  1 6 20 -0.23492640930279196 0 2000.0 -0.23492640930279196 1
gene  1 7 20 -0.644329914794077 0 2001.0 -0.644329914794077 1
gene  1 8 20 0.5097549520440804 0 2002.0 0.5097549520440804 1
gene  1 9 20 0.5435618437704073 0 2003.0 0.5435618437704073 1
gene  1 11 20 0.8054338744225404 0 2005.0 0.8054338744225404 1
gene  1 15 20 -0.6987092465621081 0 2009.0 -0.6987092465621081 1
gene  1 16 20 0.1148148063215888 0 2010.0 0.1148148063215888 1
gene  1 17 20 -0.6152258386611303 0 2011.0 -0.6152258386611303 1
gene  1 18 20 0.3584446767465126 0 2012.0 0.3584446767465126 1
gene  1 1 21 -0.4256309739009605 0 2100.0 -0.4256309739009605 1
gene  1 2 21 0.41901725639738086 0 2101.0 0.41901725639738086 1
gene  1 3 21 -0.2352935789198568 0 2102.0 -0.2352935789198568 1
gene  1 4 21 -0.07505346066713225 0 2103.0 -0.07505346066713225 1
gene  1 5 21 0.21095966270079636 0 2104.0 0.21095966270079636 1
gene  1 6 21 -0.1888817907412298 0 2105.0 -0.1888817907412298 1
gene  1 9 21 -0.2943149334518296 0 2108.0 -0.2943149334518296 1
gene  1 10 21 0.4411556930939666 0 2109.0 0.4411556930939666 1
gene  1 11 21 0.34972294648139135 0 2110.0 0.34972294648139135 1
gene  1 14 21 0.7705302946309991 0 2113.0 0.7705302946309991 1
gene  1 15 21 0.5530806655533741 0 2114.0 0.5530806655533741 1
gene  1 18 21 0.43911470216905557 0 2117.0 0.43911470216905557 1
gene  1 19 21 0.506393016151579 0 2118.0 0.506393016151579 1
gene  1 20 21 0.8360210825289439 0 2119.0 0.8360210825289439 1
gene  1 1 22 0.745707681784276 0 2205.0 0.745707681784276 1
gene  1 2 22 -0.9222444110013578 0 2206.0 -0.9222444110013578 1
gene  1 5 22 -0.6046161703913764 0 2209.0 -0.6046161703913764 1
gene  1 6 22 -0.06631206679854074 0 2210.0 -0.06631206679854074 1
gene  1 8 22 -0.8652180953266193 0 2212.0 -0.8652180953266193 1
gene  1 9 22 -0.23101607620382947 0 2213.0 -0.23101607620382947 1
gene  1 11 22 0.6815814032459676 0 2215.0 0.6815814032459676 1
gene  1 14 22 -0.36777227172220006 0 2218.0 -0.36777227172220006 1
gene  1 18 22 -0.0644721884392423 0 2222.0 -0.0644721884392423 1
gene  1 20 22 0.8076091564021549 0 2224.0 0.8076091564021549 1
gene  1 21 22 -0.422612749268117 0 2225.0 -0.422612749268117 1
gene  1 3 23 -0.7804909554340924 0 2312.0 -0.7804909554340924 1
gene  1 4 23 -0.9441256543946728 0 2313.0 -0.9441256543946728 1
gene  1 6 23 -0.5189367295193925 0 2315.0 -0.5189367295193925 1
gene  1 10 23 -0.508962681985284 0 2319.0 -0.508962681985284 1
gene  1 13 23 -0.3823731143324439 0 2322.0 -0.3823731143324439 1
gene  1 15 23 -0.5540940779451825 0 2324.0 -0.5540940779451825 1
gene  1 16 23 0.6359049111668506 0 2325.0 0.6359049111668506 1
gene  1 17 23 0.692152460397261 0 2326.0 0.692152460397261 1
gene  1 18 23 0.024920636055907885 0 2327.0 0.024920636055907885 1
gene  1 20 23 0.32398958290403046 0 2329.0 0.32398958290403046 1
gene  1 22 23 0.32610862998009715 0 2331.0 0.32610862998009715 1
gene  1 1 24 -0.8244019254407092 0 2415.0 -0.8244019254407092 1
gene  1 2 24 0.9408103214757847 0 2416.0 0.9408103214757847 1
gene  1 4 24 0.1511809543843542 0 2418.0 0.1511809543843542 1
gene  1 5 24 -0.0954929809048276 0 2419.0 -0.0954929809048276 1
gene  1 7 24 0.39644209409553477 0 2421.0 0.39644209409553477 1
gene  1 14 24 -0.16040239911811716 0 2428.0 -0.16040239911811716 1
gene  1 15 24 0.7244373741913045 0 2429.0 0.7244373741913045 1
gene  1 16 24 0.7181667513594052 0 2430.0 0.7181667513594052 1
gene  1 17 24 -0.4779098200106727 0 2431.0 -0.4779098200106727 1
gene  1 19 24 0.26902831332774546 0 2433.0 0.26902831332774546 1
gene  1 21 24 0.7303328831620888 0 2435.0 0.7303328831620888 1
gene  1 22 24 0.7883606271400927 0 2436.0 0.7883606271400927 1
gene  1 2 25 0.13506291583296615 0 2521.0 0.13506291583296615 1
gene  1 4 25 -0.5685718842170682 0 2523.0 -0.5685718842170682 1
gene  1 7 25 -0.1843807246953365 0 2526.0 -0.1843807246953365 1
gene  1 10 25 0.4396753417243574 0 2529.0 0.4396753417243574 1
gene  1 12 25 0.27607665957287486 0 2531.0 0.27607665957287486 1
gene  1 14 25 0.8991080490496397 0 2533.0 0.8991080490496397 1
gene  1 15 25 -0.72677043388528 0 2534.0 -0.72677043388528 1
gene  1 17 25 0.9388314355791826 0 2536.0 0.9388314355791826 1
gene  1 22 25 0.602915524569661 0 2541.0 0.602915524569661 1
gene  1 23 25 -0.6872031993662612 0 2542.0 -0.6872031993662612 1
gene  1 4 26 -0.2230121030315474 0 2628.0 -0.2230121030315474 1
gene  1 6 26 -0.5680616776052135 0 2630.0 -0.5680616776052135 1
gene  1 7 26 -0.6348191292301651 0 2631.0 -0.6348191292301651 1
gene  1 8 26 0.6592966081397955 0 2632.0 0.6592966081397955 1
gene  1 10 26 0.4840384336827861 0 2634.0 0.4840384336827861 1
gene  1 11 26 0.3653954254290749 0 2635.0 0.3653954254290749 1
gene  1 13 26 0.1127752733884918 0 2637.0 0.1127752733884918 1
gene  1 17 26 -0.7681281496629515 0 2641.0 -0.7681281496629515 1
gene  1 23 26 -0.8615433074442242 0 2647.0 -0.8615433074442242 1
gene  1 8 27 -0.15807119874890774 0 2737.0 -0.15807119874890774 1
gene  1 9 27 0.044826288823318405 0 2738.0 0.044826288823318405 1
gene  1 10 27 -0.3885901841819934 0 2739.0 -0.3885901841819934 1
gene  1 12 27 0.04758022727430922 0 2741.0 0.04758022727430922 1
gene  1 14 27 0.7732454948842242 0 2743.0 0.7732454948842242 1
gene  1 15 27 -0.05339561984487373 0 2744.0 -0.05339561984487373 1
gene  1 18 27 0.6421640509533966 0 2747.0 0.6421640509533966 1
gene  1 21 27 0.6996245691423361 0 2750.0 0.6996245691423361 1
gene  1 22 27 -0.0734909971277693 0 2751.0 -0.0734909971277693 1
gene  1 26 27 -0.9296306245357693 0 2755.0 -0.9296306245357693 1
gene  1 4 28 0.6861422257025953 0 2838.0 0.6861422257025953 1
gene  1 5 28 -0.7822034321171054 0 2839.0 -0.7822034321171054 1
gene  1 6 28 -0.3831147731650122 0 2840.0 -0.3831147731650122 1
gene  1 7 28 -0.5745104490630388 0 2841.0 -0.5745104490630388 1
gene  1 11 28 -0.06938876073815836 0 2845.0 -0.06938876073815836 1
gene  1 12 28 0.4444854353426101 0 2846.0 0.4444854353426101 1
gene  1 14 28 0.14527107712011378 0 2848.0 0.14527107712011378 1
gene  1 16 28 -0.04751841054225481 0 2850.0 -0.04751841054225481 1
gene  1 17 28 0.40908961269592503 0 2851.0 0.40908961269592503 1
gene  1 20 28 0.19243519553145483 0 2854.0 0.19243519553145483 1
gene  1 21 28 -0.08876710950038347 0 2855.0 -0.08876710950038347 1
gene  1 23 28 -0.7832510376998092 0 2857.0 -0.7832510376998092 1
gene  1 2 29 0.01579685070074388 0 2941.0 0.01579685070074388 1
gene  1 3 29 0.338689330039323 0 2942.0 0.338689330039323 1
gene  1 5 29 -0.4563059823036302 0 2944.0 -0.4563059823036302 1
gene  1 8 29 0.2535331469292369 0 2947.0 0.2535331469292369 1
gene  1 9 29 0.004459310747698564 0 2948.0 0.004459310747698564 1
gene  1 10 29 0.6694913604135447 0 2949.0 0.6694913604135447 1
gene  1 11 29 0.7310006914377419 0 2950.0 0.7310006914377419 1
gene  1 13 29 0.32340705372784406 0 2952.0 0.32340705372784406 1
gene  1 15 29 -0.4288160344735932 0 2954.0 -0.4288160344735932 1
gene  1 16 29 0.8239963361047595 0 2955.0 0.8239963361047595 1
gene  1 18 29 0.9330222103212202 0 2957.0 0.9330222103212202 1
gene  1 19 29 0.19661505472615026 0 2958.0 0.19661505472615026 1
gene  1 22 29 -0.10163908642719288 0 2961.0 -0.10163908642719288 1
gene  1 24 29 -0.5770601740231276 0 2963.0 -0.5770601740231276 1
gene  1 26 29 0.6902829766588491 0 2965.0 0.6902829766588491 1
gene  1 28 29 -0.38962479903732317 0 2967.0 -0.38962479903732317 1
gene  1 5 30 -0.7843585423133215 0 3049.0 -0.7843585423133215 1
gene  1 11 30 -0.5141788989492087 0 3055.0 -0.5141788989492087 1
gene  1 12 30 0.5225490276700187 0 3056.0 0.5225490276700187 1
gene  1 14 30 -0.37945788798416147 0 3058.0 -0.37945788798416147 1
gene  1 15 30 -0.10146531947491844 0 3059.0 -0.10146531947491844 1
gene  1 17 30 -0.12032837777242433 0 3061.0 -0.12032837777242433 1
gene  1 20 30 0.8331425668897752 0 3064.0 0.8331425668897752 1
gene  1 25 30 0.0030507974958280393 0 3069.0 0.0030507974958280393 1
gene  1 28 30 -0.8470273710853051 0 3072.0 -0.8470273710853051 1
gene  1 1 31 -0.12873794563415586 0 3150.0 -0.12873794563415586 1
gene  1 2 31 0.05163407130075459 0 3151.0 0.05163407130075459 1
gene  1 3 31 -0.954954527446194 0 3152.0 -0.954954527446194 1
gene  1 5 31 0.7763021663532238 0 3154.0 0.7763021663532238 1
gene  1 6 31 0.8186534895703865 0 3155.0 0.8186534895703865 1
gene  1 8 31 0.899201303190203 0 3157.0 0.899201303190203 1
gene  1 10 31 -0.7430918152074045 0 3159.0 -0.7430918152074045 1
gene  1 13 31 -0.7227924419724076 0 3162.0 -0.7227924419724076 1
gene  1 16 31 0.46231805250256386 0 3165.0 0.46231805250256386 1
gene  1 17 31 -0.3995971755386244 0 3166.0 -0.3995971755386244 1
gene  1 18 31 -0.6731408079456508 0 3167.0 -0.6731408079456508 1
gene  1 21 31 0.14255568006917785 0 3170.0 0.14255568006917785 1
gene  1 22 31 0.12201303946447717 0 3171.0 0.12201303946447717 1
gene  1 24 31 0.6862384341483316 0 3173.0 0.6862384341483316 1
gene  1 25 31 -0.09187736147649506 0 3174.0 -0.09187736147649506 1
gene  1 28 31 0.3898972209668492 0 3177.0 0.3898972209668492 1
gene  1 29 31 0.7312214032923832 0 3178.0 0.7312214032923832 1
gene  1 30 31 0.8724989626644094 0 3179.0 0.8724989626644094 1
gene  1 5 32 0.5263366318499819 0 3259.0 0.5263366318499819 1
gene  1 6 32 -0.08288765340906212 0 3260.0 -0.08288765340906212 1
gene  1 11 32 -0.7748378794486426 0 3265.0 -0.7748378794486426 1
gene  1 12 32 -0.8799355349844 0 3266.0 -0.8799355349844 1
gene  1 13 32 -0.10367436525399332 0 3267.0 -0.10367436525399332 1
gene  1 14 32 0.4689516577280026 0 3268.0 0.4689516577280026 1
gene  1 17 32 0.7487726696358905 0 3271.0 0.7487726696358905 1
gene  1 18 32 -0.6393335722235166 0 3272.0 -0.6393335722235166 1
gene  1 22 32 -0.8677227262803654 0 3276.0 -0.8677227262803654 1
gene  1 24 32 -0.37996379759800736 0 3278.0 -0.37996379759800736 1
gene  1 25 32 -0.9380631448245516 0 3279.0 -0.9380631448245516 1
gene  1 26 32 0.08295963176643673 0 3280.0 0.08295963176643673 1
gene  1 27 32 -0.2609176023418778 0 3281.0 -0.2609176023418778 1
gene  1 28 32 0.03711258540848639 0 3282.0 0.03711258540848639 1
gene  1 31 32 -0.33538786010327715 0 3285.0 -0.33538786010327715 1
gene  1 1 33 0.7834375522667301 0 3360.0 0.7834375522667301 1
gene  1 7 33 -0.0998796823333985 0 3366.0 -0.0998796823333985 1
gene  1 8 33 0.9768910648467878 0 3367.0 0.9768910648467878 1
gene  1 9 33 -0.8312076083610723 0 3368.0 -0.8312076083610723 1
gene  1 10 33 -0.5247987769596844 0 3369.0 -0.5247987769596844 1
gene  1 11 33 0.1216841892084668 0 3370.0 0.1216841892084668 1
gene  1 12 33 0.8039478187524183 0 3371.0 0.8039478187524183 1
gene  1 13 33 0.1670519471052776 0 3372.0 0.1670519471052776 1
gene  1 14 33 0.9334402148336296 0 3373.0 0.9334402148336296 1
gene  1 15 33 0.4448557331045535 0 3374.0 0.4448557331045535 1
gene  1 17 33 -0.4015699183053667 0 3376.0 -0.4015699183053667 1
gene  1 18 33 0.7510177896190117 0 3377.0 0.7510177896190117 1
gene  1 20 33 -0.07927327288905428 0 3379.0 -0.07927327288905428 1
gene  1 22 33 -0.7003536608313832 0 3381.0 -0.7003536608313832 1
gene  1 23 33 -0.9480260289262162 0 3382.0 -0.9480260289262162 1
gene  1 24 33 -0.907511888363803 0 3383.0 -0.907511888363803 1
gene  1 27 33 -0.5679626415099136 0 3386.0 -0.5679626415099136 1
gene  1 28 33 0.8161184166583918 0 3387.0 0.8161184166583918 1
gene  1 29 33 0.3830067624236907 0 3388.0 0.3830067624236907 1
gene  1 30 33 -0.7616905384498096 0 3389.0 -0.7616905384498096 1
gene  1 31 33 0.5809024972528706 0 3390.0 0.5809024972528706 1
gene  1 32 33 -0.45385991198132547 0 3391.0 -0.45385991198132547 1
gene  1 3 34 -0.3634690643983083 0 3467.0 -0.3634690643983083 1
gene  1 8 34 0.954842691727686 0 3472.0 0.954842691727686 1
gene  1 10 34 -0.9369064251891814 0 3474.0 -0.9369064251891814 1
gene  1 11 34 -0.41528449913720045 0 3475.0 -0.41528449913720045 1
gene  1 12 34 -0.747202655164813 0 3476.0 -0.747202655164813 1
gene  1 13 34 0.13391405771638254 0 3477.0 0.13391405771638254 1
gene  1 14 34 -0.014315798393785384 0 3478.0 -0.014315798393785384 1
gene  1 15 34 0.2703550258858465 0 3479.0 0.2703550258858465 1
gene  1 17 34 0.9846496185647972 0 3481.0 0.9846496185647972 1
gene  1 18 34 -0.4621463660036921 0 3482.0 -0.4621463660036921 1
gene  1 19 34 -0.10955530674849967 0 3483.0 -0.10955530674849967 1
gene  1 22 34 -0.3728112290642086 0 3486.0 -0.3728112290642086 1
gene  1 25 34 -0.7085547745634488 0 3489.0 -0.7085547745634488 1
gene  1 27 34 0.7359438068261439 0 3491.0 0.7359438068261439 1
gene  1 28 34 0.9526534557954203 0 3492.0 0.9526534557954203 1
gene  1 32 34 0.9752688588556129 0 3496.0 0.9752688588556129 1
gene  1 33 34 0.24491115732278101 0 3497.0 0.24491115732278101 1
gene  1 3 35 -0.4649945720051226 0 3572.0 -0.4649945720051226 1
gene  1 6 35 0.9458459861293982 0 3575.0 0.9458459861293982 1
gene  1 7 35 0.5418717510041129 0 3576.0 0.5418717510041129 1
gene  1 10 35 -0.669776905774529 0 3579.0 -0.669776905774529 1
gene  1 12 35 -0.04965656882085845 0 3581.0 -0.04965656882085845 1
gene  1 15 35 -0.6414115992366877 0 3584.0 -0.6414115992366877 1
gene  1 18 35 -0.5816630882857501 0 3587.0 -0.5816630882857501 1
gene  1 19 35 -0.5816339692234245 0 3588.0 -0.5816339692234245 1
gene  1 21 35 -0.9648277574646458 0 3590.0 -0.9648277574646458 1
gene  1 22 35 -0.7920469618775776 0 3591.0 -0.7920469618775776 1
gene  1 26 35 0.43842576209255935 0 3595.0 0.43842576209255935 1
gene  1 28 35 -0.609165970929663 0 3597.0 -0.609165970929663 1
gene  1 31 35 -0.29800206684946684 0 3600.0 -0.29800206684946684 1
gene  1 32 35 -0.3634425627464516 0 3601.0 -0.3634425627464516 1
gene  1 33 35 0.8174414630435415 0 3602.0 0.8174414630435415 1
gene  1 34 35 -0.22516503732155535 0 3603.0 -0.22516503732155535 1
gene  1 4 36 0.6778749919948346 0 3678.0 0.6778749919948346 1
gene  1 6 36 -0.42571748852961044 0 3680.0 -0.42571748852961044 1
gene  1 10 36 0.2980361840662483 0 3684.0 0.2980361840662483 1
gene  1 11 36 0.06861206131478115 0 3685.0 0.06861206131478115 1
gene  1 12 36 0.32749892231744826 0 3686.0 0.32749892231744826 1
gene  1 13 36 0.17883048984280925 0 3687.0 0.17883048984280925 1
gene  1 15 36 -0.3613928853066223 0 3689.0 -0.3613928853066223 1
gene  1 17 36 0.30307560920254795 0 3691.0 0.30307560920254795 1
gene  1 19 36 0.8632602248568835 0 3693.0 0.8632602248568835 1
gene  1 20 36 0.21720105782019739 0 3694.0 0.21720105782019739 1
gene  1 23 36 -0.2912713621306666 0 3697.0 -0.2912713621306666 1
gene  1 25 36 -0.6590690429601276 0 3699.0 -0.6590690429601276 1
gene  1 26 36 0.3903968805809709 0 3700.0 0.3903968805809709 1
gene  1 27 36 -0.810119241868662 0 3701.0 -0.810119241868662 1
gene  1 28 36 0.7132076019813399 0 3702.0 0.7132076019813399 1
gene  1 29 36 0.5539052687306684 0 3703.0 0.5539052687306684 1
gene  1 32 36 0.191812298717429 0 3706.0 0.191812298717429 1
gene  1 34 36 -0.636041010559609 0 3708.0 -0.636041010559609 1
gene  1 35 36 0.10457159531037497 0 3709.0 0.10457159531037497 1
gene  1 4 37 -0.8722740215834848 0 3783.0 -0.8722740215834848 1
gene  1 5 37 -0.8158557680784367 0 3784.0 -0.8158557680784367 1
gene  1 10 37 -0.33887763929238024 0 3789.0 -0.33887763929238024 1
gene  1 11 37 -0.7095209502461854 0 3790.0 -0.7095209502461854 1
gene  1 14 37 0.6759969716803653 0 3793.0 0.6759969716803653 1
gene  1 18 37 0.008697647626036531 0 3797.0 0.008697647626036531 1
gene  1 20 37 0.11058834697121955 0 3799.0 0.11058834697121955 1
gene  1 22 37 -0.3522473395351181 0 3801.0 -0.3522473395351181 1
gene  1 24 37 -0.8283235075947346 0 3803.0 -0.8283235075947346 1
gene  1 25 37 0.7479660025750053 0 3804.0 0.7479660025750053 1
gene  1 26 37 0.49384533959442956 0 3805.0 0.49384533959442956 1
gene  1 27 37 -0.3787032043848253 0 3806.0 -0.3787032043848253 1
gene  1 31 37 0.5372223478624094 0 3810.0 0.5372223478624094 1
gene  1 33 37 -0.5783461424282431 0 3812.0 -0.5783461424282431 1
gene  1 36 37 -0.8477051783124288 0 3815.0 -0.8477051783124288 1
gene  1 2 38 -0.6378164099956225 0 3886.0 -0.6378164099956225 1
gene  1 3 38 -0.3982849371821874 0 3887.0 -0.3982849371821874 1
gene  1 8 38 -0.6606640450910385 0 3892.0 -0.6606640450910385 1
gene  1 12 38 -0.6439096601858679 0 3896.0 -0.6439096601858679 1
gene  1 14 38 0.10152800558917152 0 3898.0 0.10152800558917152 1
gene  1 15 38 0.1403423380761848 0 3899.0 0.1403423380761848 1
gene  1 16 38 0.9792420217410672 0 3900.0 0.9792420217410672 1
gene  1 19 38 -0.5368492122464544 0 3903.0 -0.5368492122464544 1
gene  1 21 38 0.5291755904945431 0 3905.0 0.5291755904945431 1
gene  1 24 38 -0.9193422100971331 0 3908.0 -0.9193422100971331 1
gene  1 26 38 -0.23557132869860697 0 3910.0 -0.23557132869860697 1
gene  1 27 38 0.1609220878128469 0 3911.0 0.1609220878128469 1
gene  1 28 38 -0.9130160996622666 0 3912.0 -0.9130160996622666 1
gene  1 29 38 -0.37644322647543893 0 3913.0 -0.37644322647543893 1
gene  1 32 38 -0.2390036786921278 0 3916.0 -0.2390036786921278 1
gene  1 33 38 -0.8989584222394408 0 3917.0 -0.8989584222394408 1
gene  1 36 38 0.25214179599814235 0 3920.0 0.25214179599814235 1
gene  1 37 38 -0.4670444248361454 0 3921.0 -0.4670444248361454 1
gene  1 7 39 0.40851240932856414 0 3996.0 0.40851240932856414 1
gene  1 12 39 0.587870916424258 0 4001.0 0.587870916424258 1
gene  1 14 39 0.24266507838824525 0 4003.0 0.24266507838824525 1
gene  1 15 39 0.20533370373306636 0 4004.0 0.20533370373306636 1
gene  1 16 39 -0.0667772048775056 0 4005.0 -0.0667772048775056 1
gene  1 19 39 0.7954371154541953 0 4008.0 0.7954371154541953 1
gene  1 20 39 0.5406866183515807 0 4009.0 0.5406866183515807 1
gene  1 21 39 0.3650471036187847 0 4010.0 0.3650471036187847 1
gene  1 22 39 0.9539445109124328 0 4011.0 0.9539445109124328 1
gene  1 24 39 -0.037183959959277924 0 4013.0 -0.037183959959277924 1
gene  1 25 39 0.44593971247736375 0 4014.0 0.44593971247736375 1
gene  1 26 39 -0.9769835467369912 0 4015.0 -0.9769835467369912 1
gene  1 27 39 0.15032054334567768 0 4016.0 0.15032054334567768 1
gene  1 29 39 -0.08617790482621701 0 4018.0 -0.08617790482621701 1
gene  1 30 39 -0.8097275171956965 0 4019.0 -0.8097275171956965 1
gene  1 36 39 -0.29730582674351835 0 4025.0 -0.29730582674351835 1
gene  1 1 40 0.8837573991755567 0 4095.0 0.8837573991755567 1
gene  1 3 40 -0.4519435188197676 0 4097.0 -0.4519435188197676 1
gene  1 7 40 -0.12931197779263348 0 4101.0 -0.12931197779263348 1
gene  1 9 40 -0.15203028675770525 0 4103.0 -0.15203028675770525 1
gene  1 10 40 -0.4392566052665542 0 4104.0 -0.4392566052665542 1
gene  1 12 40 0.6179366273850929 0 4106.0 0.6179366273850929 1
gene  1 15 40 0.6376273550799659 0 4109.0 0.6376273550799659 1
gene  1 16 40 0.04100204217586034 0 4110.0 0.04100204217586034 1
gene  1 18 40 -0.18787846781122797 0 4112.0 -0.18787846781122797 1
gene  1 20 40 -0.7895532786154786 0 4114.0 -0.7895532786154786 1
gene  1 22 40 0.5143033579920715 0 4116.0 0.5143033579920715 1
gene  1 23 40 0.6920752060696389 0 4117.0 0.6920752060696389 1
gene  1 24 40 0.1338249540109453 0 4118.0 0.1338249540109453 1
gene  1 27 40 0.6355101798142074 0 4121.0 0.6355101798142074 1
gene  1 29 40 0.4605940551105193 0 4123.0 0.4605940551105193 1
gene  1 30 40 -0.46055156541115927 0 4124.0 -0.46055156541115927 1
gene  1 32 40 -0.03884529277399351 0 4126.0 -0.03884529277399351 1
gene  1 35 40 0.8329047941018691 0 4129.0 0.8329047941018691 1
gene  1 36 40 -0.922896720753477 0 4130.0 -0.922896720753477 1
gene  1 37 40 0.8719352704703575 0 4131.0 0.8719352704703575 1
gene  1 2 41 -0.2400636540244825 0 4201.0 -0.2400636540244825 1
gene  1 5 41 -0.5380500123810904 0 4204.0 -0.5380500123810904 1
gene  1 7 41 0.38995978338430004 0 4206.0 0.38995978338430004 1
gene  1 8 41 -0.9938664466440038 0 4207.0 -0.9938664466440038 1
gene  1 9 41 -0.5209839930227319 0 4208.0 -0.5209839930227319 1
gene  1 10 41 -0.1983490342222618 0 4209.0 -0.1983490342222618 1
gene  1 11 41 0.8973481950675082 0 4210.0 0.8973481950675082 1
gene  1 15 41 0.2162133657387083 0 4214.0 0.2162133657387083 1
gene  1 21 41 0.5377041896196373 0 4220.0 0.5377041896196373 1
gene  1 22 41 0.2514770211497903 0 4221.0 0.2514770211497903 1
gene  1 24 41 0.1658599042831128 0 4223.0 0.1658599042831128 1
gene  1 27 41 0.4216110233109954 0 4226.0 0.4216110233109954 1
gene  1 30 41 -0.22705810874346166 0 4229.0 -0.22705810874346166 1
gene  1 31 41 0.19278606131228337 0 4230.0 0.19278606131228337 1
gene  1 32 41 -0.49184489799156905 0 4231.0 -0.49184489799156905 1
gene  1 33 41 0.6814938653812197 0 4232.0 0.6814938653812197 1
gene  1 34 41 -0.6361638299962149 0 4233.0 -0.6361638299962149 1
gene  1 36 41 0.5553458968345901 0 4235.0 0.5553458968345901 1
gene  1 37 41 -0.4571190357898123 0 4236.0 -0.4571190357898123 1
gene  1 38 41 0.23851352828734296 0 4237.0 0.23851352828734296 1
gene  1 40 41 0.6912300414404454 0 4239.0 0.6912300414404454 1
gene  1 1 42 0.47394404878423 0 4305.0 0.47394404878423 1
gene  1 3 42 0.8916169894556507 0 4307.0 0.8916169894556507 1
gene  1 4 42 0.09316642471527659 0 4308.0 0.09316642471527659 1
gene  1 5 42 -0.4668717941612487 0 4309.0 -0.4668717941612487 1
gene  1 7 42 0.4886405192186378 0 4311.0 0.4886405192186378 1
gene  1 12 42 -0.007192652551705869 0 4316.0 -0.007192652551705869 1
gene  1 13 42 0.4428649168580888 0 4317.0 0.4428649168580888 1
gene  1 15 42 0.5969027418953079 0 4319.0 0.5969027418953079 1
gene  1 18 42 -0.9884264191974316 0 4322.0 -0.9884264191974316 1
gene  1 19 42 0.727027454497791 0 4323.0 0.727027454497791 1
gene  1 20 42 -0.20232603527690574 0 4324.0 -0.20232603527690574 1
gene  1 21 42 0.0767667267502471 0 4325.0 0.0767667267502471 1
gene  1 25 42 -0.4638640465326358 0 4329.0 -0.4638640465326358 1
gene  1 29 42 -0.5097996955181971 0 4333.0 -0.5097996955181971 1
gene  1 32 42 -0.026156683557615468 0 4336.0 -0.026156683557615468 1
gene  1 38 42 0.01148647070606601 0 4342.0 0.01148647070606601 1
gene  1 40 42 0.40136383240984674 0 4344.0 0.40136383240984674 1
gene  1 1 43 -0.2558271093385056 0 4410.0 -0.2558271093385056 1
gene  1 3 43 0.5533924989761319 0 4412.0 0.5533924989761319 1
gene  1 4 43 -0.9481544953438154 0 4413.0 -0.9481544953438154 1
gene  1 8 43 -0.9424208452940575 0 4417.0 -0.9424208452940575 1
gene  1 9 43 0.5754226697536514 0 4418.0 0.5754226697536514 1
gene  1 11 43 -0.8793798846170172 0 4420.0 -0.8793798846170172 1
gene  1 13 43 0.5573620206697961 0 4422.0 0.5573620206697961 1
gene  1 16 43 0.18951534133910175 0 4425.0 0.18951534133910175 1
gene  1 17 43 -0.9861757052885505 0 4426.0 -0.9861757052885505 1
gene  1 19 43 0.6470379658828477 0 4428.0 0.6470379658828477 1
gene  1 20 43 -0.2742174895523375 0 4429.0 -0.2742174895523375 1
gene  1 24 43 0.4666696854397353 0 4433.0 0.4666696854397353 1
gene  1 25 43 -0.7211390723743828 0 4434.0 -0.7211390723743828 1
gene  1 26 43 0.23582812465940006 0 4435.0 0.23582812465940006 1
gene  1 33 43 0.4292879296757238 0 4442.0 0.4292879296757238 1
gene  1 34 43 0.7464213038192721 0 4443.0 0.7464213038192721 1
gene  1 36 43 -0.3061949723026818 0 4445.0 -0.3061949723026818 1
gene  1 38 43 0.6457066653831086 0 4447.0 0.6457066653831086 1
gene  1 39 43 0.6673174302498963 0 4448.0 0.6673174302498963 1
gene  1 41 43 -0.5051607147020227 0 4450.0 -0.5051607147020227 1
gene  1 1 44 0.981288217189168 0 4515.0 0.981288217189168 1
gene  1 2 44 -0.14231692396153628 0 4516.0 -0.14231692396153628 1
gene  1 4 44 -0.5132262234308568 0 4518.0 -0.5132262234308568 1
gene  1 7 44 -0.2437177602800803 0 4521.0 -0.2437177602800803 1
gene  1 8 44 0.27273257477659596 0 4522.0 0.27273257477659596 1
gene  1 9 44 -0.10045580694978129 0 4523.0 -0.10045580694978129 1
gene  1 10 44 0.6688356574696942 0 4524.0 0.6688356574696942 1
gene  1 11 44 0.9474514478893307 0 4525.0 0.9474514478893307 1
gene  1 12 44 -0.4952662007920574 0 4526.0 -0.4952662007920574 1
gene  1 14 44 -0.7915531584516432 0 4528.0 -0.7915531584516432 1
gene  1 19 44 -0.5500376787364072 0 4533.0 -0.5500376787364072 1
gene  1 20 44 -0.6069807003114939 0 4534.0 -0.6069807003114939 1
gene  1 21 44 0.8926809861264454 0 4535.0 0.8926809861264454 1
gene  1 24 44 0.8780423836433082 0 4538.0 0.8780423836433082 1
gene  1 27 44 -0.1646465271154376 0 4541.0 -0.1646465271154376 1
gene  1 29 44 0.1835300613902643 0 4543.0 0.1835300613902643 1
gene  1 30 44 -0.2812804958898957 0 4544.0 -0.2812804958898957 1
gene  1 36 44 -0.8579575227540337 0 4550.0 -0.8579575227540337 1
gene  1 37 44 -0.3197238477980431 0 4551.0 -0.3197238477980431 1
gene  1 38 44 -0.7974753852314357 0 4552.0 -0.7974753852314357 1
gene  1 40 44 0.00460841109293797 0 4554.0 0.00460841109293797 1
gene  1 42 44 0.6361256544714358 0 4556.0 0.6361256544714358 1
gene  1 43 44 -0.3894206713778777 0 4557.0 -0.3894206713778777 1
gene  1 1 105 0.5202563893269614 0 10920.0 0.5202563893269614 1
gene  1 3 105 -0.35118535561454833 0 10922.0 -0.35118535561454833 1
gene  1 4 105 0.25756414092857094 0 10923.0 0.25756414092857094 1
gene  1 7 105 -0.19787017526773898 0 10926.0 -0.19787017526773898 1
gene  1 8 105 -0.642944781267953 0 10927.0 -0.642944781267953 1
gene  1 11 105 -0.23662365695259802 0 10930.0 -0.23662365695259802 1
gene  1 12 105 0.8321507221932651 0 10931.0 0.8321507221932651 1
gene  1 14 105 -0.6258068513809664 0 10933.0 -0.6258068513809664 1
gene  1 15 105 0.22336496185471633 0 10934.0 0.22336496185471633 1
gene  1 16 105 0.36155773660531476 0 10935.0 0.36155773660531476 1
gene  1 17 105 0.999691261830768 0 10936.0 0.999691261830768 1
gene  1 18 105 -0.15567060973453362 0 10937.0 -0.15567060973453362 1
gene  1 20 105 0.7310780910804013 0 10939.0 0.7310780910804013 1
gene  1 23 105 0.47831050528127816 0 10942.0 0.47831050528127816 1
gene  1 24 105 -0.35792323682635874 0 10943.0 -0.35792323682635874 1
gene  1 25 105 -0.9711426269145227 0 10944.0 -0.9711426269145227 1
gene  1 26 105 -0.728456006014096 0 10945.0 -0.728456006014096 1
gene  1 28 105 0.12996272100017325 0 10947.0 0.12996272100017325 1
gene  1 29 105 0.013897542201915969 0 10948.0 0.013897542201915969 1
gene  1 33 105 0.3383910377521413 0 10952.0 0.3383910377521413 1
gene  1 34 105 -0.36855882204754786 0 10953.0 -0.36855882204754786 1
gene  1 35 105 0.8602315272446485 0 10954.0 0.8602315272446485 1
gene  1 36 105 -0.46708158381953435 0 10955.0 -0.46708158381953435 1
gene  1 37 105 0.6546953702619934 0 10956.0 0.6546953702619934 1
gene  1 39 105 0.5380342391543004 0 10958.0 0.5380342391543004 1
genomeend 3
