genomestart  12
trait 1 0.0 0.0 0.0 0.0 0.0 0.0 0.0 0.0 0.0 0.0 0.0 0.0 0.0 0.0 0.0 0.0 0.0 0.0 0.0 0.0 
node 1 1 1 1
node 2 1 1 1
node 3 1 1 1
node 4 1 1 3
node 5 1 0 0
node 6 1 0 0
node 7 1 0 0
node 105 1 0 2
gene  1 3 5 -0.773387294251712 0 422.0 -0.773387294251712 1
gene  1 4 5 0.05901096364863667 0 423.0 0.05901096364863667 1
gene  1 2 6 -0.8475120016936855 0 526.0 -0.8475120016936855 1
gene  1 3 6 0.2792645919425768 0 527.0 0.2792645919425768 1
gene  1 4 6 0.4280513506658803 0 528.0 0.4280513506658803 1
gene  1 5 6 -0.46556353873746403 0 529.0 -0.46556353873746403 1
gene  1 3 7 0.1577143373828186 0 632.0 0.1577143373828186 1
gene  1 5 7 0.21127482785460894 0 634.0 0.21127482785460894 1
gene  1 1 105 0.672966852163444 0 10920.0 0.672966852163444 1
gene  1 2 105 0.31022989342278484 0 10921.0 0.31022989342278484 1
gene  1 4 105 0.126572924991034 0 10923.0 0.126572924991034 1
gene  1 6 105 -0.24423700676633642 0 10925.0 -0.24423700676633642 1
gene  1 7 105 0.8437794082431703 0 10926.0 0.8437794082431703 1
genomeend 12
