genomestart  63
trait 1 0.0 0.0 0.0 0.0 0.0 0.0 0.0 0.0 0.0 0.0 0.0 0.0 0.0 0.0 0.0 0.0 0.0 0.0 0.0 0.0 
node 1 1 1 1
node 2 1 1 1
node 3 1 1 1
node 4 1 1 3
node 5 1 0 0
node 6 1 0 0
node 7 1 0 0
node 8 1 0 0
node 9 1 0 0
node 10 1 0 0
node 11 1 0 0
node 12 1 0 0
node 13 1 0 0
node 14 1 0 0
node 15 1 0 0
node 16 1 0 0
node 17 1 0 0
node 18 1 0 0
node 19 1 0 0
node 20 1 0 0
node 21 1 0 0
node 22 1 0 0
node 23 1 0 0
node 24 1 0 0
node 25 1 0 0
node 26 1 0 0
node 27 1 0 0
node 28 1 0 0
node 29 1 0 0
node 30 1 0 0
node 31 1 0 0
node 32 1 0 0
node 33 1 0 0
node 34 1 0 0
node 35 1 0 0
node 36 1 0 0
node 37 1 0 0
node 38 1 0 0
node 39 1 0 0
node 40 1 0 0
node 41 1 0 0
node 42 1 0 0
node 43 1 0 0
node 44 1 0 0
node 45 1 0 0
node 46 1 0 0
node 47 1 0 0
node 48 1 0 0
node 49 1 0 0
node 50 1 0 0
node 51 1 0 0
node 52 1 0 0
node 53 1 0 0
node 54 1 0 0
node 55 1 0 0
node 56 1 0 0
node 57 1 0 0
node 58 1 0 0
node 59 1 0 0
node 60 1 0 0
node 61 1 0 0
node 105 1 0 2
gene  1 1 5 0.8670295235250104 0 420.0 0.8670295235250104 1
gene  1 2 5 0.204029280026658 0 421.0 0.204029280026658 1
gene  1 3 5 0.29434230675820283 0 422.0 0.29434230675820283 1
gene  1 1 6 -0.6950712335651295 0 525.0 -0.6950712335651295 1
gene  1 3 6 0.7684231750312922 0 527.0 0.7684231750312922 1
gene  1 4 6 -0.35797552550642786 0 528.0 -0.35797552550642786 1
gene  1 1 7 -0.9838822454592857 0 630.0 -0.9838822454592857 1
gene  1 2 7 0.7682063795934834 0 631.0 0.7682063795934834 1
gene  1 4 7 0.27229497057283725 0 633.0 0.27229497057283725 1
gene  1 5 7 -0.10881550231388604 0 634.0 -0.10881550231388604 1
gene  1 1 8 -0.8098108309778931 0 735.0 -0.8098108309778931 1
gene  1 3 8 -0.3425054157661874 0 737.0 -0.3425054157661874 1
gene  1 4 8 -0.46302351996489577 0 738.0 -0.46302351996489577 1
gene  1 6 8 0.06516471485934483 0 740.0 0.06516471485934483 1
gene  1 7 8 -0.49894440590771516 0 741.0 -0.49894440590771516 1
gene  1 1 9 0.7208507911380463 0 840.0 0.7208507911380463 1
gene  1 2 9 -0.8728969654443127 0 841.0 -0.8728969654443127 1
gene  1 6 9 -0.3497375426564151 0 845.0 -0.3497375426564151 1
gene  1 7 9 0.4331087733575357 0 846.0 0.4331087733575357 1
gene  1 2 10 -0.26616533970127887 0 946.0 -0.26616533970127887 1
gene  1 4 10 -0.5329618535486839 0 948.0 -0.5329618535486839 1
gene  1 5 10 -0.8822039981477529 0 949.0 -0.8822039981477529 1
gene  1 7 10 -0.10086491645784867 0 951.0 -0.10086491645784867 1
gene  1 8 10 -0.9434324654678622 0 952.0 -0.9434324654678622 1
gene  1 9 10 -0.7471051652707266 0 953.0 -0.7471051652707266 1
gene  1 5 11 0.692650802369516 0 1054.0 0.692650802369516 1
gene  1 6 11 -0.9968888244099975 0 1055.0 -0.9968888244099975 1
gene  1 7 11 0.040214920024969514 0 1056.0 0.040214920024969514 1
gene  1 10 11 -0.4730682710673768 0 1059.0 -0.4730682710673768 1
gene  1 3 12 -0.7989389289432004 0 1157.0 -0.7989389289432004 1
gene  1 4 12 0.9017631123431276 0 1158.0 0.9017631123431276 1
gene  1 6 12 -0.30870493864052184 0 1160.0 -0.30870493864052184 1
gene  1 7 12 -0.9505200711221097 0 1161.0 -0.9505200711221097 1
gene  1 9 12 -0.11420540717740058 0 1163.0 -0.11420540717740058 1
gene  1 11 12 -0.8752568248093728 0 1165.0 -0.8752568248093728 1
gene  1 2 13 -0.09320494484914765 0 1261.0 -0.09320494484914765 1
gene  1 4 13 -0.5469015231656713 0 1263.0 -0.5469015231656713 1
gene  1 6 13 -0.6437610986394108 0 1265.0 -0.6437610986394108 1
gene  1 8 13 0.05238381029075212 0 1267.0 0.05238381029075212 1
gene  1 11 13 -0.18247815261358113 0 1270.0 -0.18247815261358113 1
gene  1 4 14 0.006067671650098694 0 1368.0 0.006067671650098694 1
gene  1 5 14 -0.9159115783453655 0 1369.0 -0.9159115783453655 1
gene  1 9 14 -0.2766480278179225 0 1373.0 -0.2766480278179225 1
gene  1 2 15 -0.9310395141628053 0 1471.0 -0.9310395141628053 1
gene  1 3 15 0.551739860150982 0 1472.0 0.551739860150982 1
gene  1 6 15 -0.7478791772778188 0 1475.0 -0.7478791772778188 1
gene  1 8 15 0.5562885157419727 0 1477.0 0.5562885157419727 1
gene  1 11 15 0.5734652849124403 0 1480.0 0.5734652849124403 1
gene  1 13 15 0.8957613568922089 0 1482.0 0.8957613568922089 1
gene  1 14 15 0.4520058015327383 0 1483.0 0.4520058015327383 1
gene  1 1 16 -0.3387862702390432 0 1575.0 -0.3387862702390432 1
gene  1 2 16 0.9793512950118057 0 1576.0 0.9793512950118057 1
gene  1 3 16 -0.7678192403594514 0 1577.0 -0.7678192403594514 1
gene  1 5 16 0.8616201298451631 0 1579.0 0.8616201298451631 1
gene  1 6 16 -0.20252071738785782 0 1580.0 -0.20252071738785782 1
gene  1 7 16 -0.4036826553388345 0 1581.0 -0.4036826553388345 1
gene  1 8 16 0.3657239201736572 0 1582.0 0.3657239201736572 1
gene  1 9 16 0.8200866613717774 0 1583.0 0.8200866613717774 1
gene  1 10 16 -0.03277583367363712 0 1584.0 -0.03277583367363712 1
gene  1 11 16 -0.04000555420499685 0 1585.0 -0.04000555420499685 1
gene  1 15 16 0.22997128602909356 0 1589.0 0.22997128602909356 1
gene  1 1 17 -0.2972178903391818 0 1680.0 -0.2972178903391818 1
gene  1 3 17 0.3371738156105666 0 1682.0 0.3371738156105666 1
gene  1 5 17 -0.5157051860604142 0 1684.0 -0.5157051860604142 1
gene  1 6 17 -0.6889702606294698 0 1685.0 -0.6889702606294698 1
gene  1 7 17 -0.1379026972587616 0 1686.0 -0.1379026972587616 1
gene  1 13 17 -0.552320679309302 0 1692.0 -0.552320679309302 1
gene  1 2 18 -0.4355555814167884 0 1786.0 -0.4355555814167884 1
gene  1 3 18 -0.7771975102388213 0 1787.0 -0.7771975102388213 1
gene  1 4 18 0.71883463357263 0 1788.0 0.71883463357263 1
gene  1 5 18 0.9726099826964408 0 1789.0 0.9726099826964408 1
gene  1 7 18 0.9090562897326363 0 1791.0 0.9090562897326363 1
gene  1 8 18 0.5822096381627284 0 1792.0 0.5822096381627284 1
gene  1 9 18 0.897838849290508 0 1793.0 0.897838849290508 1
gene  1 12 18 -0.0017614022800128692 0 1796.0 -0.0017614022800128692 1
gene  1 14 18 -0.8383225767237099 0 1798.0 -0.8383225767237099 1
gene  1 15 18 -0.3718481144246306 0 1799.0 -0.3718481144246306 1
gene  1 16 18 -0.540600476840279 0 1800.0 -0.540600476840279 1
gene  1 17 18 -0.4801497264446166 0 1801.0 -0.4801497264446166 1
gene  1 2 19 0.9177380169428097 0 1891.0 0.9177380169428097 1
gene  1 3 19 -0.7434334222302152 0 1892.0 -0.7434334222302152 1
gene  1 5 19 -0.35256258546001695 0 1894.0 -0.35256258546001695 1
gene  1 8 19 0.8030650664730243 0 1897.0 0.8030650664730243 1
gene  1 9 19 0.5473753999593531 0 1898.0 0.5473753999593531 1
gene  1 11 19 -0.9349568377681726 0 1900.0 -0.9349568377681726 1
gene  1 13 19 0.5272445776100897 0 1902.0 0.5272445776100897 1
gene  1 15 19 0.8278708931035657 0 1904.0 0.8278708931035657 1
gene  1 16 19 -0.6043836171397489 0 1905.0 -0.6043836171397489 1
gene  1 17 19 0.46631288301225404 0 1906.0 0.46631288301225404 1
gene  1 18 19 -0.9409538589006411 0 1907.0 -0.9409538589006411 1
gene  1 4 20 0.3170994168141932 0 1998.0 0.3170994168141932 1
gene  1 6 20 0.5870369931824984 0 2000.0 0.5870369931824984 1
gene  1 8 20 0.4179166309672928 0 2002.0 0.4179166309672928 1
gene  1 10 20 0.9194315304920277 0 2004.0 0.9194315304920277 1
gene  1 11 20 0.0097273817239788 0 2005.0 0.0097273817239788 1
gene  1 13 20 -0.5537410566756699 0 2007.0 -0.5537410566756699 1
gene  1 14 20 -0.9954387776516233 0 2008.0 -0.9954387776516233 1
gene  1 15 20 -0.41285825812129473 0 2009.0 -0.41285825812129473 1
gene  1 16 20 -0.7184667108123372 0 2010.0 -0.7184667108123372 1
gene  1 17 20 -0.45464532846892547 0 2011.0 -0.45464532846892547 1
gene  1 18 20 -0.02306273311863416 0 2012.0 -0.02306273311863416 1
gene  1 19 20 0.22720461393326497 0 2013.0 0.22720461393326497 1
gene  1 3 21 0.9655171369446239 0 2102.0 0.9655171369446239 1
gene  1 6 21 -0.4991730449826619 0 2105.0 -0.4991730449826619 1
gene  1 8 21 -0.7131925801158667 0 2107.0 -0.7131925801158667 1
gene  1 10 21 -0.5543659859864437 0 2109.0 -0.5543659859864437 1
gene  1 11 21 0.17586934613813754 0 2110.0 0.17586934613813754 1
gene  1 12 21 -0.643149234001246 0 2111.0 -0.643149234001246 1
gene  1 13 21 0.3968634342326508 0 2112.0 0.3968634342326508 1
gene  1 14 21 -0.7499772482117866 0 2113.0 -0.7499772482117866 1
gene  1 15 21 -0.9133001536487512 0 2114.0 -0.9133001536487512 1
gene  1 18 21 0.8105852253158631 0 2117.0 0.8105852253158631 1
gene  1 2 22 0.8945470732610433 0 2206.0 0.8945470732610433 1
gene  1 4 22 -0.2522335552915136 0 2208.0 -0.2522335552915136 1
gene  1 5 22 -0.8714236406901468 0 2209.0 -0.8714236406901468 1
gene  1 6 22 -0.2057201486887723 0 2210.0 -0.2057201486887723 1
gene  1 9 22 -0.24930136742449982 0 2213.0 -0.24930136742449982 1
gene  1 10 22 0.8903029764159881 0 2214.0 0.8903029764159881 1
gene  1 11 22 0.6066868971798383 0 2215.0 0.6066868971798383 1
gene  1 13 22 -0.8106711333552035 0 2217.0 -0.8106711333552035 1
gene  1 15 22 0.6303515019401843 0 2219.0 0.6303515019401843 1
gene  1 18 22 0.06672935159146776 0 2222.0 0.06672935159146776 1
gene  1 19 22 -0.3425338672964299 0 2223.0 -0.3425338672964299 1
gene  1 20 22 -0.6149128487424644 0 2224.0 -0.6149128487424644 1
gene  1 2 23 -0.20166042854528654 0 2311.0 -0.20166042854528654 1
gene  1 4 23 -0.43119299505444963 0 2313.0 -0.43119299505444963 1
gene  1 6 23 -0.5889881308750878 0 2315.0 -0.5889881308750878 1
gene  1 7 23 0.16858884005230257 0 2316.0 0.16858884005230257 1
gene  1 8 23 -0.602664768599345 0 2317.0 -0.602664768599345 1
gene  1 9 23 -0.5065980404227978 0 2318.0 -0.5065980404227978 1
gene  1 12 23 0.04888410917125052 0 2321.0 0.04888410917125052 1
gene  1 13 23 -0.9980097055202222 0 2322.0 -0.9980097055202222 1
gene  1 15 23 -0.7323174083961147 0 2324.0 -0.7323174083961147 1
gene  1 16 23 0.14303991792947035 0 2325.0 0.14303991792947035 1
gene  1 17 23 0.04453765018530409 0 2326.0 0.04453765018530409 1
gene  1 18 23 0.24616072380501253 0 2327.0 0.24616072380501253 1
gene  1 19 23 -0.6974574346976575 0 2328.0 -0.6974574346976575 1
gene  1 21 23 0.8180030057808894 0 2330.0 0.8180030057808894 1
gene  1 2 24 -0.9548003715676364 0 2416.0 -0.9548003715676364 1
gene  1 3 24 0.5030345642834952 0 2417.0 0.5030345642834952 1
gene  1 4 24 -0.8762688670690889 0 2418.0 -0.8762688670690889 1
gene  1 5 24 0.37624477605246076 0 2419.0 0.37624477605246076 1
gene  1 7 24 -0.3445691045425314 0 2421.0 -0.3445691045425314 1
gene  1 8 24 -0.24141469544962302 0 2422.0 -0.24141469544962302 1
gene  1 11 24 -0.9605118076493722 0 2425.0 -0.9605118076493722 1
gene  1 12 24 0.31122000362925006 0 2426.0 0.31122000362925006 1
gene  1 13 24 -0.2736810604477692 0 2427.0 -0.2736810604477692 1
gene  1 14 24 -0.0665238633662455 0 2428.0 -0.0665238633662455 1
gene  1 15 24 -0.8390077626807765 0 2429.0 -0.8390077626807765 1
gene  1 22 24 0.6794342477134856 0 2436.0 0.6794342477134856 1
gene  1 23 24 0.8508492689932722 0 2437.0 0.8508492689932722 1
gene  1 1 25 0.28776141440093794 0 2520.0 0.28776141440093794 1
gene  1 2 25 0.14160617848446466 0 2521.0 0.14160617848446466 1
gene  1 4 25 0.05451916223716402 0 2523.0 0.05451916223716402 1
gene  1 8 25 0.34638922834104446 0 2527.0 0.34638922834104446 1
gene  1 9 25 -0.21449405324471704 0 2528.0 -0.21449405324471704 1
gene  1 10 25 -0.9089962931481996 0 2529.0 -0.9089962931481996 1
gene  1 14 25 -0.9606931255566388 0 2533.0 -0.9606931255566388 1
gene  1 16 25 -0.9748396185867297 0 2535.0 -0.9748396185867297 1
gene  1 18 25 -0.32432876273502853 0 2537.0 -0.32432876273502853 1
gene  1 19 25 -0.030078323571159027 0 2538.0 -0.030078323571159027 1
gene  1 21 25 -0.16408694141327662 0 2540.0 -0.16408694141327662 1
gene  1 22 25 -0.9194449802813133 0 2541.0 -0.9194449802813133 1
gene  1 2 26 0.7321465744774579 0 2626.0 0.7321465744774579 1
gene  1 4 26 0.9953649853908262 0 2628.0 0.9953649853908262 1
gene  1 6 26 0.28052701046522677 0 2630.0 0.28052701046522677 1
gene  1 8 26 0.8934790186405079 0 2632.0 0.8934790186405079 1
gene  1 9 26 0.5539513410403986 0 2633.0 0.5539513410403986 1
gene  1 12 26 -0.9616201794868501 0 2636.0 -0.9616201794868501 1
gene  1 13 26 -0.9120030509978241 0 2637.0 -0.9120030509978241 1
gene  1 14 26 -0.8515523656066168 0 2638.0 -0.8515523656066168 1
gene  1 16 26 0.08570194515172547 0 2640.0 0.08570194515172547 1
gene  1 18 26 -0.7785999782676523 0 2642.0 -0.7785999782676523 1
gene  1 19 26 0.030308613848409105 0 2643.0 0.030308613848409105 1
gene  1 20 26 0.6947500463880478 0 2644.0 0.6947500463880478 1
gene  1 24 26 0.6500395817046983 0 2648.0 0.6500395817046983 1
gene  1 25 26 0.27166376444556284 0 2649.0 0.27166376444556284 1
gene  1 1 27 -0.46120205418499827 0 2730.0 -0.46120205418499827 1
gene  1 6 27 0.5084393616646181 0 2735.0 0.5084393616646181 1
gene  1 8 27 -0.3713577203010343 0 2737.0 -0.3713577203010343 1
gene  1 9 27 -0.8418642997573208 0 2738.0 -0.8418642997573208 1
gene  1 13 27 -0.008750726468114145 0 2742.0 -0.008750726468114145 1
gene  1 14 27 -0.06701252674717006 0 2743.0 -0.06701252674717006 1
gene  1 16 27 0.5620288412468355 0 2745.0 0.5620288412468355 1
gene  1 17 27 -0.08497667109040052 0 2746.0 -0.08497667109040052 1
gene  1 18 27 -0.21701310388695272 0 2747.0 -0.21701310388695272 1
gene  1 19 27 0.8061863256177346 0 2748.0 0.8061863256177346 1
gene  1 22 27 -0.3017150337672645 0 2751.0 -0.3017150337672645 1
gene  1 6 28 -0.24923075675126127 0 2840.0 -0.24923075675126127 1
gene  1 9 28 0.7614872208450133 0 2843.0 0.7614872208450133 1
gene  1 15 28 -0.9556572721016796 0 2849.0 -0.9556572721016796 1
gene  1 19 28 0.8013368861096251 0 2853.0 0.8013368861096251 1
gene  1 22 28 -0.6640922591188082 0 2856.0 -0.6640922591188082 1
gene  1 27 28 -0.559285291724413 0 2861.0 -0.559285291724413 1
gene  1 4 29 -0.032162066956352486 0 2943.0 -0.032162066956352486 1
gene  1 5 29 0.31912134585482654 0 2944.0 0.31912134585482654 1
gene  1 11 29 0.8544876371511746 0 2950.0 0.8544876371511746 1
gene  1 12 29 -0.495133286360375 0 2951.0 -0.495133286360375 1
gene  1 13 29 -0.8889542201274944 0 2952.0 -0.8889542201274944 1
gene  1 14 29 0.46573274434545364 0 2953.0 0.46573274434545364 1
gene  1 15 29 -0.5909588021206892 0 2954.0 -0.5909588021206892 1
gene  1 16 29 0.0872703548299325 0 2955.0 0.0872703548299325 1
gene  1 17 29 -0.21038313844772283 0 2956.0 -0.21038313844772283 1
gene  1 19 29 -0.3482274142365538 0 2958.0 -0.3482274142365538 1
gene  1 20 29 0.16031086301638642 0 2959.0 0.16031086301638642 1
gene  1 21 29 0.9172346649095805 0 2960.0 0.9172346649095805 1
gene  1 22 29 -0.9220388120599018 0 2961.0 -0.9220388120599018 1
gene  1 24 29 -0.9797484243385643 0 2963.0 -0.9797484243385643 1
gene  1 25 29 -0.32669815027385396 0 2964.0 -0.32669815027385396 1
gene  1 26 29 -0.4713483000251304 0 2965.0 -0.4713483000251304 1
gene  1 2 30 0.8845567506366104 0 3046.0 0.8845567506366104 1
gene  1 3 30 0.9666592386998133 0 3047.0 0.9666592386998133 1
gene  1 4 30 0.8024788117935153 0 3048.0 0.8024788117935153 1
gene  1 6 30 -0.4873048379092909 0 3050.0 -0.4873048379092909 1
gene  1 7 30 0.3638010795867266 0 3051.0 0.3638010795867266 1
gene  1 8 30 -0.5922401995435091 0 3052.0 -0.5922401995435091 1
gene  1 10 30 -0.18362383021545847 0 3054.0 -0.18362383021545847 1
gene  1 11 30 0.5613458366582293 0 3055.0 0.5613458366582293 1
gene  1 12 30 0.7672629857352179 0 3056.0 0.7672629857352179 1
gene  1 15 30 0.8830561086010165 0 3059.0 0.8830561086010165 1
gene  1 16 30 -0.7074397385583535 0 3060.0 -0.7074397385583535 1
gene  1 17 30 -0.7916883016660826 0 3061.0 -0.7916883016660826 1
gene  1 22 30 0.6360121855600733 0 3066.0 0.6360121855600733 1
gene  1 23 30 -0.07943338959809854 0 3067.0 -0.07943338959809854 1
gene  1 24 30 -0.4516750742368215 0 3068.0 -0.4516750742368215 1
gene  1 25 30 -0.5506113600850885 0 3069.0 -0.5506113600850885 1
gene  1 27 30 -0.7476777207943378 0 3071.0 -0.7476777207943378 1
gene  1 29 30 0.5658284799837584 0 3073.0 0.5658284799837584 1
gene  1 1 31 0.6639232627488834 0 3150.0 0.6639232627488834 1
gene  1 4 31 0.07627687014963924 0 3153.0 0.07627687014963924 1
gene  1 5 31 -0.7673434495747528 0 3154.0 -0.7673434495747528 1
gene  1 6 31 0.8527607187481162 0 3155.0 0.8527607187481162 1
gene  1 7 31 0.34818176169922244 0 3156.0 0.34818176169922244 1
gene  1 9 31 0.7381744170095526 0 3158.0 0.7381744170095526 1
gene  1 10 31 -0.2629323475166606 0 3159.0 -0.2629323475166606 1
gene  1 11 31 0.6638402336990199 0 3160.0 0.6638402336990199 1
gene  1 12 31 -0.46042131762660965 0 3161.0 -0.46042131762660965 1
gene  1 17 31 0.38614539025841577 0 3166.0 0.38614539025841577 1
gene  1 19 31 -0.1470031245598602 0 3168.0 -0.1470031245598602 1
gene  1 20 31 0.7655315778696862 0 3169.0 0.7655315778696862 1
gene  1 22 31 0.6053828052170405 0 3171.0 0.6053828052170405 1
gene  1 24 31 0.7682315007197178 0 3173.0 0.7682315007197178 1
gene  1 27 31 0.01965233643897879 0 3176.0 0.01965233643897879 1
gene  1 28 31 0.5018217626670116 0 3177.0 0.5018217626670116 1
gene  1 29 31 0.870246276357345 0 3178.0 0.870246276357345 1
gene  1 1 32 -0.2699618397028051 0 3255.0 -0.2699618397028051 1
gene  1 2 32 0.25353664309216006 0 3256.0 0.25353664309216006 1
gene  1 3 32 0.3509450103717019 0 3257.0 0.3509450103717019 1
gene  1 5 32 -0.8743785532133636 0 3259.0 -0.8743785532133636 1
gene  1 7 32 0.15686430941556928 0 3261.0 0.15686430941556928 1
gene  1 8 32 -0.5024114479787797 0 3262.0 -0.5024114479787797 1
gene  1 11 32 0.41867214334876324 0 3265.0 0.41867214334876324 1
gene  1 13 32 0.6145065874020402 0 3267.0 0.6145065874020402 1
gene  1 15 32 -0.6095663941076901 0 3269.0 -0.6095663941076901 1
gene  1 16 32 -0.13390640924155173 0 3270.0 -0.13390640924155173 1
gene  1 18 32 0.006186859207054973 0 3272.0 0.006186859207054973 1
gene  1 19 32 0.707205176433723 0 3273.0 0.707205176433723 1
gene  1 20 32 -0.4403103751518649 0 3274.0 -0.4403103751518649 1
gene  1 21 32 -0.624784281494691 0 3275.0 -0.624784281494691 1
gene  1 23 32 -0.04590920126087672 0 3277.0 -0.04590920126087672 1
gene  1 24 32 7.235612834018967E-4 0 3278.0 7.235612834018967E-4 1
gene  1 25 32 -0.8314024477775448 0 3279.0 -0.8314024477775448 1
gene  1 27 32 -0.43628707106859455 0 3281.0 -0.43628707106859455 1
gene  1 28 32 0.7633276162342092 0 3282.0 0.7633276162342092 1
gene  1 29 32 0.6804773980336378 0 3283.0 0.6804773980336378 1
gene  1 30 32 0.3972704861156777 0 3284.0 0.3972704861156777 1
gene  1 3 33 0.2663745216659962 0 3362.0 0.2663745216659962 1
gene  1 5 33 -0.7963795913813426 0 3364.0 -0.7963795913813426 1
gene  1 9 33 0.22094541592526407 0 3368.0 0.22094541592526407 1
gene  1 10 33 -0.5465222849703274 0 3369.0 -0.5465222849703274 1
gene  1 11 33 0.7970833138477167 0 3370.0 0.7970833138477167 1
gene  1 12 33 -0.7574636559707142 0 3371.0 -0.7574636559707142 1
gene  1 15 33 -0.2445531393656325 0 3374.0 -0.2445531393656325 1
gene  1 17 33 -0.5096506438696844 0 3376.0 -0.5096506438696844 1
gene  1 18 33 -0.29564199883392783 0 3377.0 -0.29564199883392783 1
gene  1 19 33 -0.8499403909365781 0 3378.0 -0.8499403909365781 1
gene  1 22 33 -0.29809754544538536 0 3381.0 -0.29809754544538536 1
gene  1 26 33 0.5496789052182941 0 3385.0 0.5496789052182941 1
gene  1 27 33 0.34849671856553877 0 3386.0 0.34849671856553877 1
gene  1 28 33 -0.31602208427437073 0 3387.0 -0.31602208427437073 1
gene  1 31 33 -0.12143192175551609 0 3390.0 -0.12143192175551609 1
gene  1 32 33 -0.13180125104075757 0 3391.0 -0.13180125104075757 1
gene  1 1 34 0.003547051251740152 0 3465.0 0.003547051251740152 1
gene  1 4 34 -0.7831774442766771 0 3468.0 -0.7831774442766771 1
gene  1 5 34 -0.3929409890999187 0 3469.0 -0.3929409890999187 1
gene  1 7 34 0.08555418207492183 0 3471.0 0.08555418207492183 1
gene  1 8 34 -0.04753908467161527 0 3472.0 -0.04753908467161527 1
gene  1 9 34 -0.7503751700251382 0 3473.0 -0.7503751700251382 1
gene  1 10 34 0.5326064896435929 0 3474.0 0.5326064896435929 1
gene  1 11 34 0.737729639771326 0 3475.0 0.737729639771326 1
gene  1 12 34 0.6669754538453854 0 3476.0 0.6669754538453854 1
gene  1 15 34 0.6943254626869921 0 3479.0 0.6943254626869921 1
gene  1 16 34 -0.6263935277735375 0 3480.0 -0.6263935277735375 1
gene  1 22 34 -0.3614634356630352 0 3486.0 -0.3614634356630352 1
gene  1 23 34 -0.43070967467163135 0 3487.0 -0.43070967467163135 1
gene  1 26 34 0.4318870856821232 0 3490.0 0.4318870856821232 1
gene  1 28 34 0.21484490713682525 0 3492.0 0.21484490713682525 1
gene  1 31 34 -0.10892625165946634 0 3495.0 -0.10892625165946634 1
gene  1 6 35 -0.2236033121440969 0 3575.0 -0.2236033121440969 1
gene  1 8 35 0.2224077441011656 0 3577.0 0.2224077441011656 1
gene  1 9 35 0.7331010660875883 0 3578.0 0.7331010660875883 1
gene  1 12 35 -0.4509146453177486 0 3581.0 -0.4509146453177486 1
gene  1 14 35 -0.2706243079447489 0 3583.0 -0.2706243079447489 1
gene  1 16 35 -0.5792424175738455 0 3585.0 -0.5792424175738455 1
gene  1 17 35 -0.0773882090634973 0 3586.0 -0.0773882090634973 1
gene  1 19 35 -0.4123591549451755 0 3588.0 -0.4123591549451755 1
gene  1 20 35 0.7713055183436911 0 3589.0 0.7713055183436911 1
gene  1 22 35 -0.2512139743555609 0 3591.0 -0.2512139743555609 1
gene  1 23 35 -0.7420293595342732 0 3592.0 -0.7420293595342732 1
gene  1 25 35 0.9911903318248726 0 3594.0 0.9911903318248726 1
gene  1 27 35 -0.45170436707929795 0 3596.0 -0.45170436707929795 1
gene  1 28 35 -0.37238261894641966 0 3597.0 -0.37238261894641966 1
gene  1 32 35 -0.4683066335484396 0 3601.0 -0.4683066335484396 1
gene  1 34 35 -0.7988550763722927 0 3603.0 -0.7988550763722927 1
gene  1 1 36 -0.8054082334737401 0 3675.0 -0.8054082334737401 1
gene  1 7 36 0.32408700067704543 0 3681.0 0.32408700067704543 1
gene  1 12 36 0.47847937206664504 0 3686.0 0.47847937206664504 1
gene  1 13 36 -0.4306588127338463 0 3687.0 -0.4306588127338463 1
gene  1 14 36 -0.191604163199667 0 3688.0 -0.191604163199667 1
gene  1 15 36 -0.5406022697655414 0 3689.0 -0.5406022697655414 1
gene  1 16 36 0.35076504909720907 0 3690.0 0.35076504909720907 1
gene  1 17 36 -0.42649986433415166 0 3691.0 -0.42649986433415166 1
gene  1 22 36 0.7760292262722189 0 3696.0 0.7760292262722189 1
gene  1 23 36 -0.8745901830488784 0 3697.0 -0.8745901830488784 1
gene  1 24 36 0.9993120505613444 0 3698.0 0.9993120505613444 1
gene  1 26 36 -0.02781050948552921 0 3700.0 -0.02781050948552921 1
gene  1 27 36 -0.5133755434869439 0 3701.0 -0.5133755434869439 1
gene  1 28 36 0.4483349851019901 0 3702.0 0.4483349851019901 1
gene  1 29 36 -0.2417061900521622 0 3703.0 -0.2417061900521622 1
gene  1 30 36 -0.6818548279046427 0 3704.0 -0.6818548279046427 1
gene  1 32 36 -0.6854472013072145 0 3706.0 -0.6854472013072145 1
gene  1 1 37 0.3009792380108427 0 3780.0 0.3009792380108427 1
gene  1 4 37 -0.10930113650598028 0 3783.0 -0.10930113650598028 1
gene  1 9 37 -0.34405454476136654 0 3788.0 -0.34405454476136654 1
gene  1 16 37 -0.6204388312545446 0 3795.0 -0.6204388312545446 1
gene  1 17 37 -0.9218838483191923 0 3796.0 -0.9218838483191923 1
gene  1 19 37 0.5359680893121764 0 3798.0 0.5359680893121764 1
gene  1 20 37 0.8336994715019814 0 3799.0 0.8336994715019814 1
gene  1 22 37 0.051885020643054225 0 3801.0 0.051885020643054225 1
gene  1 23 37 -0.6790035909014327 0 3802.0 -0.6790035909014327 1
gene  1 26 37 0.8614156978377215 0 3805.0 0.8614156978377215 1
gene  1 28 37 0.6060992839968447 0 3807.0 0.6060992839968447 1
gene  1 29 37 -0.5422493155393502 0 3808.0 -0.5422493155393502 1
gene  1 35 37 0.6238290731722805 0 3814.0 0.6238290731722805 1
gene  1 1 38 -0.828109735797839 0 3885.0 -0.828109735797839 1
gene  1 2 38 -0.40967584173591254 0 3886.0 -0.40967584173591254 1
gene  1 4 38 -0.6412877018748161 0 3888.0 -0.6412877018748161 1
gene  1 5 38 -0.5179138154719135 0 3889.0 -0.5179138154719135 1
gene  1 7 38 -0.41746653551015156 0 3891.0 -0.41746653551015156 1
gene  1 8 38 -0.041280085891079454 0 3892.0 -0.041280085891079454 1
gene  1 13 38 0.10311929826681343 0 3897.0 0.10311929826681343 1
gene  1 14 38 -0.6890714519494581 0 3898.0 -0.6890714519494581 1
gene  1 16 38 -0.05222711214399178 0 3900.0 -0.05222711214399178 1
gene  1 17 38 -0.23562290548543863 0 3901.0 -0.23562290548543863 1
gene  1 18 38 0.9126216976509101 0 3902.0 0.9126216976509101 1
gene  1 19 38 0.4186536598862791 0 3903.0 0.4186536598862791 1
gene  1 20 38 0.8379337964927834 0 3904.0 0.8379337964927834 1
gene  1 27 38 -0.11048618721861536 0 3911.0 -0.11048618721861536 1
gene  1 29 38 -0.9199754192092318 0 3913.0 -0.9199754192092318 1
gene  1 30 38 -0.5874468114554738 0 3914.0 -0.5874468114554738 1
gene  1 31 38 -0.6867993722326509 0 3915.0 -0.6867993722326509 1
gene  1 33 38 0.3205538878617601 0 3917.0 0.3205538878617601 1
gene  1 35 38 -0.1349163039962611 0 3919.0 -0.1349163039962611 1
gene  1 37 38 0.7910664667920829 0 3921.0 0.7910664667920829 1
gene  1 2 39 -0.2809255620991824 0 3991.0 -0.2809255620991824 1
gene  1 5 39 0.47837808584376473 0 3994.0 0.47837808584376473 1
gene  1 7 39 -0.7569019218599049 0 3996.0 -0.7569019218599049 1
gene  1 8 39 -0.7725733851920917 0 3997.0 -0.7725733851920917 1
gene  1 12 39 -0.9171125199821359 0 4001.0 -0.9171125199821359 1
gene  1 13 39 -0.6071438104126604 0 4002.0 -0.6071438104126604 1
gene  1 14 39 -0.6157145043033443 0 4003.0 -0.6157145043033443 1
gene  1 18 39 0.928547043747747 0 4007.0 0.928547043747747 1
gene  1 19 39 0.7201002636034062 0 4008.0 0.7201002636034062 1
gene  1 21 39 0.5693754081278298 0 4010.0 0.5693754081278298 1
gene  1 23 39 -0.15514020849827637 0 4012.0 -0.15514020849827637 1
gene  1 26 39 0.6150707185315943 0 4015.0 0.6150707185315943 1
gene  1 27 39 0.5120665039570766 0 4016.0 0.5120665039570766 1
gene  1 28 39 0.03825777905736727 0 4017.0 0.03825777905736727 1
gene  1 29 39 -0.43079493064745733 0 4018.0 -0.43079493064745733 1
gene  1 30 39 0.7239225848279586 0 4019.0 0.7239225848279586 1
gene  1 33 39 0.6400184480579915 0 4022.0 0.6400184480579915 1
gene  1 36 39 0.6604347665388588 0 4025.0 0.6604347665388588 1
gene  1 37 39 0.816785859209357 0 4026.0 0.816785859209357 1
gene  1 38 39 -0.40051476855318546 0 4027.0 -0.40051476855318546 1
gene  1 1 40 -0.25517841994630097 0 4095.0 -0.25517841994630097 1
gene  1 2 40 0.4144656047174644 0 4096.0 0.4144656047174644 1
gene  1 5 40 0.46397250528601197 0 4099.0 0.46397250528601197 1
gene  1 7 40 -0.13944644881679102 0 4101.0 -0.13944644881679102 1
gene  1 9 40 0.23477243602921982 0 4103.0 0.23477243602921982 1
gene  1 10 40 -0.657925771885186 0 4104.0 -0.657925771885186 1
gene  1 11 40 -0.7487442755903022 0 4105.0 -0.7487442755903022 1
gene  1 12 40 0.7984710445591504 0 4106.0 0.7984710445591504 1
gene  1 22 40 -0.07135324096176476 0 4116.0 -0.07135324096176476 1
gene  1 24 40 -0.13565126783129144 0 4118.0 -0.13565126783129144 1
gene  1 26 40 0.4534802839300185 0 4120.0 0.4534802839300185 1
gene  1 29 40 0.21664138142144174 0 4123.0 0.21664138142144174 1
gene  1 32 40 -0.42187485574488226 0 4126.0 -0.42187485574488226 1
gene  1 34 40 0.9959528460290883 0 4128.0 0.9959528460290883 1
gene  1 39 40 0.670576685839441 0 4133.0 0.670576685839441 1
gene  1 1 41 -0.17867364942780795 0 4200.0 -0.17867364942780795 1
gene  1 8 41 -0.5115008034792081 0 4207.0 -0.5115008034792081 1
gene  1 10 41 0.13174118026642545 0 4209.0 0.13174118026642545 1
gene  1 12 41 -0.0978807871640125 0 4211.0 -0.0978807871640125 1
gene  1 13 41 0.9283297623577339 0 4212.0 0.9283297623577339 1
gene  1 14 41 -0.48827024601075153 0 4213.0 -0.48827024601075153 1
gene  1 15 41 -0.47725895235265003 0 4214.0 -0.47725895235265003 1
gene  1 16 41 0.6556882068842714 0 4215.0 0.6556882068842714 1
gene  1 17 41 0.4638952504748022 0 4216.0 0.4638952504748022 1
gene  1 23 41 0.996335711629226 0 4222.0 0.996335711629226 1
gene  1 27 41 -0.09323770075228044 0 4226.0 -0.09323770075228044 1
gene  1 31 41 0.09964975498864437 0 4230.0 0.09964975498864437 1
gene  1 32 41 0.5355396299250481 0 4231.0 0.5355396299250481 1
gene  1 38 41 -0.40896632857252 0 4237.0 -0.40896632857252 1
gene  1 40 41 -0.355387206830138 0 4239.0 -0.355387206830138 1
gene  1 4 42 0.4098803720717854 0 4308.0 0.4098803720717854 1
gene  1 5 42 -0.8662787832845554 0 4309.0 -0.8662787832845554 1
gene  1 7 42 0.17870455789202366 0 4311.0 0.17870455789202366 1
gene  1 8 42 -0.5116599280105688 0 4312.0 -0.5116599280105688 1
gene  1 9 42 0.3185212505596159 0 4313.0 0.3185212505596159 1
gene  1 10 42 -0.3160781355239165 0 4314.0 -0.3160781355239165 1
gene  1 11 42 0.8211649624205954 0 4315.0 0.8211649624205954 1
gene  1 15 42 0.5280645869787881 0 4319.0 0.5280645869787881 1
gene  1 18 42 0.9946105841066355 0 4322.0 0.9946105841066355 1
gene  1 20 42 -0.8548789787661819 0 4324.0 -0.8548789787661819 1
gene  1 21 42 -0.9605430702025822 0 4325.0 -0.9605430702025822 1
gene  1 24 42 -0.03315652840548544 0 4328.0 -0.03315652840548544 1
gene  1 25 42 -0.9693779439083283 0 4329.0 -0.9693779439083283 1
gene  1 26 42 0.5794137314862676 0 4330.0 0.5794137314862676 1
gene  1 30 42 -0.29790482367005455 0 4334.0 -0.29790482367005455 1
gene  1 32 42 0.37681168885208427 0 4336.0 0.37681168885208427 1
gene  1 33 42 -0.17437119174631277 0 4337.0 -0.17437119174631277 1
gene  1 36 42 -0.046888099087757595 0 4340.0 -0.046888099087757595 1
gene  1 38 42 0.09607284210751621 0 4342.0 0.09607284210751621 1
gene  1 39 42 0.21547064638837643 0 4343.0 0.21547064638837643 1
gene  1 40 42 0.030915729770780387 0 4344.0 0.030915729770780387 1
gene  1 1 43 -0.7741118756378391 0 4410.0 -0.7741118756378391 1
gene  1 2 43 -0.9451113959225218 0 4411.0 -0.9451113959225218 1
gene  1 4 43 0.5465711306066586 0 4413.0 0.5465711306066586 1
gene  1 6 43 -0.9084216728755242 0 4415.0 -0.9084216728755242 1
gene  1 7 43 0.4034966003296794 0 4416.0 0.4034966003296794 1
gene  1 9 43 0.927105926544254 0 4418.0 0.927105926544254 1
gene  1 11 43 0.9590999235936118 0 4420.0 0.9590999235936118 1
gene  1 12 43 0.7315074266103212 0 4421.0 0.7315074266103212 1
gene  1 13 43 -0.2294190734278999 0 4422.0 -0.2294190734278999 1
gene  1 15 43 -0.44458204640781507 0 4424.0 -0.44458204640781507 1
gene  1 19 43 0.811686255131962 0 4428.0 0.811686255131962 1
gene  1 20 43 0.8166770819554535 0 4429.0 0.8166770819554535 1
gene  1 22 43 -0.14356640471837323 0 4431.0 -0.14356640471837323 1
gene  1 24 43 0.6293328692108661 0 4433.0 0.6293328692108661 1
gene  1 25 43 0.6579094139727358 0 4434.0 0.6579094139727358 1
gene  1 27 43 0.14763530222945653 0 4436.0 0.14763530222945653 1
gene  1 30 43 -0.6516927380157649 0 4439.0 -0.6516927380157649 1
gene  1 32 43 -0.48281741041408355 0 4441.0 -0.48281741041408355 1
gene  1 33 43 -0.12085131828667373 0 4442.0 -0.12085131828667373 1
gene  1 34 43 -0.7278766918494167 0 4443.0 -0.7278766918494167 1
gene  1 35 43 0.16427073695248207 0 4444.0 0.16427073695248207 1
gene  1 38 43 0.4002277509188219 0 4447.0 0.4002277509188219 1
gene  1 40 43 -0.4826189711178889 0 4449.0 -0.4826189711178889 1
gene  1 41 43 0.5879575585026847 0 4450.0 0.5879575585026847 1
gene  1 1 44 0.9192251153447865 0 4515.0 0.9192251153447865 1
gene  1 6 44 0.04174250715078387 0 4520.0 0.04174250715078387 1
gene  1 8 44 -0.9536927243096825 0 4522.0 -0.9536927243096825 1
gene  1 9 44 -0.6652267958217561 0 4523.0 -0.6652267958217561 1
gene  1 11 44 0.4775811750019665 0 4525.0 0.4775811750019665 1
gene  1 13 44 0.2897116057015242 0 4527.0 0.2897116057015242 1
gene  1 16 44 0.1725008559286576 0 4530.0 0.1725008559286576 1
gene  1 17 44 -0.5425194602088645 0 4531.0 -0.5425194602088645 1
gene  1 19 44 -0.9856116136133964 0 4533.0 -0.9856116136133964 1
gene  1 20 44 -0.2822442739291837 0 4534.0 -0.2822442739291837 1
gene  1 23 44 -0.25543058936147955 0 4537.0 -0.25543058936147955 1
gene  1 24 44 -0.8405323358008047 0 4538.0 -0.8405323358008047 1
gene  1 26 44 0.23495910470100223 0 4540.0 0.23495910470100223 1
gene  1 29 44 -0.8639733616025549 0 4543.0 -0.8639733616025549 1
gene  1 30 44 -0.26628731667594974 0 4544.0 -0.26628731667594974 1
gene  1 31 44 -0.5518147954421713 0 4545.0 -0.5518147954421713 1
gene  1 35 44 0.8121651936056205 0 4549.0 0.8121651936056205 1
gene  1 36 44 0.7250846697449842 0 4550.0 0.7250846697449842 1
gene  1 38 44 0.4436083403984127 0 4552.0 0.4436083403984127 1
gene  1 43 44 -0.41240182316747265 0 4557.0 -0.41240182316747265 1
gene  1 1 45 0.3198351941716341 0 4620.0 0.3198351941716341 1
gene  1 2 45 -0.6008553331984859 0 4621.0 -0.6008553331984859 1
gene  1 6 45 -0.8527017889168429 0 4625.0 -0.8527017889168429 1
gene  1 8 45 -0.394348791111901 0 4627.0 -0.394348791111901 1
gene  1 13 45 0.20398007605272972 0 4632.0 0.20398007605272972 1
gene  1 17 45 -0.1261317435302246 0 4636.0 -0.1261317435302246 1
gene  1 19 45 -0.30216776758835573 0 4638.0 -0.30216776758835573 1
gene  1 23 45 0.9174304979015502 0 4642.0 0.9174304979015502 1
gene  1 27 45 -0.23843748915911278 0 4646.0 -0.23843748915911278 1
gene  1 28 45 0.8419679809986179 0 4647.0 0.8419679809986179 1
gene  1 31 45 -0.6641918797725362 0 4650.0 -0.6641918797725362 1
gene  1 32 45 0.5040488507544855 0 4651.0 0.5040488507544855 1
gene  1 33 45 0.22209963634244778 0 4652.0 0.22209963634244778 1
gene  1 35 45 -0.8539834324779578 0 4654.0 -0.8539834324779578 1
gene  1 38 45 0.993185515352662 0 4657.0 0.993185515352662 1
gene  1 40 45 -0.40533757756843125 0 4659.0 -0.40533757756843125 1
gene  1 42 45 0.13425464950511323 0 4661.0 0.13425464950511323 1
gene  1 44 45 0.2722066495476029 0 4663.0 0.2722066495476029 1
gene  1 1 46 0.6743558304721203 0 4725.0 0.6743558304721203 1
gene  1 4 46 0.5103151442236672 0 4728.0 0.5103151442236672 1
gene  1 6 46 -0.48584482155959796 0 4730.0 -0.48584482155959796 1
gene  1 7 46 -0.707941767543591 0 4731.0 -0.707941767543591 1
gene  1 8 46 -0.9253762229063166 0 4732.0 -0.9253762229063166 1
gene  1 10 46 -0.3998525441854842 0 4734.0 -0.3998525441854842 1
gene  1 12 46 -0.18989789070231988 0 4736.0 -0.18989789070231988 1
gene  1 13 46 -0.2616006774878046 0 4737.0 -0.2616006774878046 1
gene  1 14 46 0.29021865974114724 0 4738.0 0.29021865974114724 1
gene  1 16 46 -0.24369772928540911 0 4740.0 -0.24369772928540911 1
gene  1 17 46 -0.16471111256131277 0 4741.0 -0.16471111256131277 1
gene  1 18 46 0.9629282886657258 0 4742.0 0.9629282886657258 1
gene  1 20 46 0.8210067840171908 0 4744.0 0.8210067840171908 1
gene  1 23 46 -0.8667170705099363 0 4747.0 -0.8667170705099363 1
gene  1 25 46 -0.46235173853658695 0 4749.0 -0.46235173853658695 1
gene  1 26 46 0.9874328774350387 0 4750.0 0.9874328774350387 1
gene  1 29 46 0.7549278606342861 0 4753.0 0.7549278606342861 1
gene  1 33 46 -0.4691328632050503 0 4757.0 -0.4691328632050503 1
gene  1 36 46 0.7883435175260738 0 4760.0 0.7883435175260738 1
gene  1 40 46 -0.9953140365664156 0 4764.0 -0.9953140365664156 1
gene  1 41 46 -0.019154727657025306 0 4765.0 -0.019154727657025306 1
gene  1 42 46 0.39848839094875066 0 4766.0 0.39848839094875066 1
gene  1 44 46 -0.3235799876496226 0 4768.0 -0.3235799876496226 1
gene  1 45 46 -0.05632595436529242 0 4769.0 -0.05632595436529242 1
gene  1 1 47 -0.4946029342987436 0 4830.0 -0.4946029342987436 1
gene  1 2 47 0.9963660242850713 0 4831.0 0.9963660242850713 1
gene  1 4 47 0.17595071059911704 0 4833.0 0.17595071059911704 1
gene  1 5 47 0.12977008723243977 0 4834.0 0.12977008723243977 1
gene  1 7 47 -0.8432835826314689 0 4836.0 -0.8432835826314689 1
gene  1 8 47 0.8229010719481062 0 4837.0 0.8229010719481062 1
gene  1 9 47 -0.1481801109109332 0 4838.0 -0.1481801109109332 1
gene  1 10 47 -0.36649916688284934 0 4839.0 -0.36649916688284934 1
gene  1 11 47 -0.8549869591132672 0 4840.0 -0.8549869591132672 1
gene  1 17 47 -0.6736348163411898 0 4846.0 -0.6736348163411898 1
gene  1 19 47 -0.8031209069627275 0 4848.0 -0.8031209069627275 1
gene  1 20 47 -0.35212791479889083 0 4849.0 -0.35212791479889083 1
gene  1 21 47 -0.7448962999219298 0 4850.0 -0.7448962999219298 1
gene  1 22 47 0.4073637604051843 0 4851.0 0.4073637604051843 1
gene  1 25 47 -0.7032554993715692 0 4854.0 -0.7032554993715692 1
gene  1 26 47 0.18965725093920105 0 4855.0 0.18965725093920105 1
gene  1 27 47 -0.9792122150077551 0 4856.0 -0.9792122150077551 1
gene  1 29 47 0.09587980867048751 0 4858.0 0.09587980867048751 1
gene  1 34 47 0.7843537515165295 0 4863.0 0.7843537515165295 1
gene  1 36 47 -0.25687115021705165 0 4865.0 -0.25687115021705165 1
gene  1 37 47 0.912567540295508 0 4866.0 0.912567540295508 1
gene  1 40 47 0.7667384324798051 0 4869.0 0.7667384324798051 1
gene  1 41 47 0.852902348841964 0 4870.0 0.852902348841964 1
gene  1 43 47 0.9099808632278212 0 4872.0 0.9099808632278212 1
gene  1 45 47 0.477406653612081 0 4874.0 0.477406653612081 1
gene  1 46 47 0.6526972136036922 0 4875.0 0.6526972136036922 1
gene  1 4 48 -0.35372397512755316 0 4938.0 -0.35372397512755316 1
gene  1 7 48 -0.04026376706323642 0 4941.0 -0.04026376706323642 1
gene  1 10 48 -0.10694420953182959 0 4944.0 -0.10694420953182959 1
gene  1 11 48 -0.4848694257729732 0 4945.0 -0.4848694257729732 1
gene  1 12 48 -0.6906833066236169 0 4946.0 -0.6906833066236169 1
gene  1 13 48 -0.534446064987386 0 4947.0 -0.534446064987386 1
gene  1 14 48 -0.032030953593696676 0 4948.0 -0.032030953593696676 1
gene  1 16 48 -0.8039420817855545 0 4950.0 -0.8039420817855545 1
gene  1 17 48 0.2739440338176933 0 4951.0 0.2739440338176933 1
gene  1 18 48 0.5112515707156619 0 4952.0 0.5112515707156619 1
gene  1 20 48 0.6473432149467652 0 4954.0 0.6473432149467652 1
gene  1 22 48 0.33240030565425993 0 4956.0 0.33240030565425993 1
gene  1 24 48 0.0581878295941457 0 4958.0 0.0581878295941457 1
gene  1 28 48 -0.984207883067166 0 4962.0 -0.984207883067166 1
gene  1 29 48 -0.16975124415054021 0 4963.0 -0.16975124415054021 1
gene  1 35 48 0.20233654765965525 0 4969.0 0.20233654765965525 1
gene  1 43 48 -0.9956948393320458 0 4977.0 -0.9956948393320458 1
gene  1 44 48 -0.9721578926886235 0 4978.0 -0.9721578926886235 1
gene  1 45 48 -0.7343636554781182 0 4979.0 -0.7343636554781182 1
gene  1 46 48 -0.8042364395080827 0 4980.0 -0.8042364395080827 1
gene  1 47 48 0.5962547994245991 0 4981.0 0.5962547994245991 1
gene  1 4 49 0.2910405436046376 0 5043.0 0.2910405436046376 1
gene  1 5 49 0.11131557955947713 0 5044.0 0.11131557955947713 1
gene  1 7 49 -0.4826323490727875 0 5046.0 -0.4826323490727875 1
gene  1 9 49 0.6244449562930223 0 5048.0 0.6244449562930223 1
gene  1 10 49 -0.41982600860961816 0 5049.0 -0.41982600860961816 1
gene  1 12 49 -0.6454709110998745 0 5051.0 -0.6454709110998745 1
gene  1 13 49 0.5095821169928711 0 5052.0 0.5095821169928711 1
gene  1 14 49 -0.007660047289474559 0 5053.0 -0.007660047289474559 1
gene  1 15 49 -0.15583578153091227 0 5054.0 -0.15583578153091227 1
gene  1 18 49 -0.8853168378475003 0 5057.0 -0.8853168378475003 1
gene  1 19 49 0.20582284905204262 0 5058.0 0.20582284905204262 1
gene  1 21 49 0.831080116057176 0 5060.0 0.831080116057176 1
gene  1 23 49 0.8352446106143857 0 5062.0 0.8352446106143857 1
gene  1 24 49 -0.7867978208953333 0 5063.0 -0.7867978208953333 1
gene  1 25 49 -0.725800686474114 0 5064.0 -0.725800686474114 1
gene  1 26 49 -0.0860478387406245 0 5065.0 -0.0860478387406245 1
gene  1 29 49 0.8779170802733608 0 5068.0 0.8779170802733608 1
gene  1 33 49 -0.7598888108906438 0 5072.0 -0.7598888108906438 1
gene  1 34 49 0.5845943777323703 0 5073.0 0.5845943777323703 1
gene  1 35 49 -0.7655168933786675 0 5074.0 -0.7655168933786675 1
gene  1 36 49 0.36582461970130986 0 5075.0 0.36582461970130986 1
gene  1 37 49 0.12444832463438948 0 5076.0 0.12444832463438948 1
gene  1 38 49 0.1744169064916008 0 5077.0 0.1744169064916008 1
gene  1 44 49 -0.2856118790200307 0 5083.0 -0.2856118790200307 1
gene  1 5 50 -0.4344365886407212 0 5149.0 -0.4344365886407212 1
gene  1 6 50 -0.5082959260598245 0 5150.0 -0.5082959260598245 1
gene  1 7 50 0.22265274914666 0 5151.0 0.22265274914666 1
gene  1 8 50 0.7990755828419395 0 5152.0 0.7990755828419395 1
gene  1 9 50 -0.9593793269112065 0 5153.0 -0.9593793269112065 1
gene  1 10 50 0.15237731353315997 0 5154.0 0.15237731353315997 1
gene  1 11 50 -0.7934009867320737 0 5155.0 -0.7934009867320737 1
gene  1 12 50 -0.1695080795878967 0 5156.0 -0.1695080795878967 1
gene  1 15 50 -0.4783788918497771 0 5159.0 -0.4783788918497771 1
gene  1 16 50 -0.08004172143509891 0 5160.0 -0.08004172143509891 1
gene  1 22 50 0.17575548971596822 0 5166.0 0.17575548971596822 1
gene  1 24 50 -0.5317388749481746 0 5168.0 -0.5317388749481746 1
gene  1 25 50 0.48249166819792855 0 5169.0 0.48249166819792855 1
gene  1 26 50 -0.2814598083444879 0 5170.0 -0.2814598083444879 1
gene  1 30 50 0.964443868820703 0 5174.0 0.964443868820703 1
gene  1 31 50 0.9822077310068538 0 5175.0 0.9822077310068538 1
gene  1 32 50 0.2317033903098097 0 5176.0 0.2317033903098097 1
gene  1 33 50 -0.8985343544027015 0 5177.0 -0.8985343544027015 1
gene  1 35 50 0.18622608658485762 0 5179.0 0.18622608658485762 1
gene  1 36 50 0.9545248220220004 0 5180.0 0.9545248220220004 1
gene  1 38 50 -0.5483362557324869 0 5182.0 -0.5483362557324869 1
gene  1 40 50 0.35565146691951877 0 5184.0 0.35565146691951877 1
gene  1 41 50 -0.307254007783339 0 5185.0 -0.307254007783339 1
gene  1 42 50 -0.8419765857071637 0 5186.0 -0.8419765857071637 1
gene  1 44 50 0.6769152995632398 0 5188.0 0.6769152995632398 1
gene  1 46 50 -0.24951264831256148 0 5190.0 -0.24951264831256148 1
gene  1 48 50 0.9554215170872619 0 5192.0 0.9554215170872619 1
gene  1 2 51 0.9550537735665583 0 5251.0 0.9550537735665583 1
gene  1 4 51 -0.19015582324358882 0 5253.0 -0.19015582324358882 1
gene  1 5 51 0.9161818619747878 0 5254.0 0.9161818619747878 1
gene  1 7 51 -0.7749757552490839 0 5256.0 -0.7749757552490839 1
gene  1 8 51 -0.6443913254571432 0 5257.0 -0.6443913254571432 1
gene  1 10 51 -0.0958626928686036 0 5259.0 -0.0958626928686036 1
gene  1 11 51 0.06134915247103945 0 5260.0 0.06134915247103945 1
gene  1 13 51 -0.8000699606191461 0 5262.0 -0.8000699606191461 1
gene  1 16 51 -0.49599064142936666 0 5265.0 -0.49599064142936666 1
gene  1 21 51 -0.14647476645660984 0 5270.0 -0.14647476645660984 1
gene  1 22 51 -0.8435103238683715 0 5271.0 -0.8435103238683715 1
gene  1 23 51 0.37565015879523245 0 5272.0 0.37565015879523245 1
gene  1 24 51 0.7062823865657355 0 5273.0 0.7062823865657355 1
gene  1 27 51 -0.8688152779387702 0 5276.0 -0.8688152779387702 1
gene  1 35 51 0.8090113558820848 0 5284.0 0.8090113558820848 1
gene  1 36 51 0.9885907885472318 0 5285.0 0.9885907885472318 1
gene  1 37 51 -0.7813956844216666 0 5286.0 -0.7813956844216666 1
gene  1 40 51 0.8727658160999514 0 5289.0 0.8727658160999514 1
gene  1 44 51 -0.10931399063351577 0 5293.0 -0.10931399063351577 1
gene  1 50 51 0.404209073266767 0 5299.0 0.404209073266767 1
gene  1 2 52 0.46171760937501405 0 5356.0 0.46171760937501405 1
gene  1 4 52 -0.5298877792610047 0 5358.0 -0.5298877792610047 1
gene  1 6 52 -0.2978763196557326 0 5360.0 -0.2978763196557326 1
gene  1 8 52 -0.47245385531213757 0 5362.0 -0.47245385531213757 1
gene  1 9 52 -0.5551179516800335 0 5363.0 -0.5551179516800335 1
gene  1 11 52 0.4616676331515368 0 5365.0 0.4616676331515368 1
gene  1 12 52 -0.5670662618216139 0 5366.0 -0.5670662618216139 1
gene  1 14 52 0.5978138980058447 0 5368.0 0.5978138980058447 1
gene  1 15 52 -0.14761863116829832 0 5369.0 -0.14761863116829832 1
gene  1 16 52 -0.3766292565107262 0 5370.0 -0.3766292565107262 1
gene  1 22 52 -0.7017574278641967 0 5376.0 -0.7017574278641967 1
gene  1 23 52 0.615331339211377 0 5377.0 0.615331339211377 1
gene  1 25 52 0.34821802296022575 0 5379.0 0.34821802296022575 1
gene  1 29 52 0.43998506379496927 0 5383.0 0.43998506379496927 1
gene  1 30 52 0.9998031106240824 0 5384.0 0.9998031106240824 1
gene  1 32 52 0.12442056166823312 0 5386.0 0.12442056166823312 1
gene  1 33 52 0.3863279110562565 0 5387.0 0.3863279110562565 1
gene  1 34 52 -0.45210716285111874 0 5388.0 -0.45210716285111874 1
gene  1 40 52 0.4414170115227837 0 5394.0 0.4414170115227837 1
gene  1 41 52 0.8792396113161307 0 5395.0 0.8792396113161307 1
gene  1 42 52 0.009006962215759695 0 5396.0 0.009006962215759695 1
gene  1 43 52 -0.9155855689043844 0 5397.0 -0.9155855689043844 1
gene  1 44 52 0.027463686797915554 0 5398.0 0.027463686797915554 1
gene  1 45 52 -0.7802724842764867 0 5399.0 -0.7802724842764867 1
gene  1 47 52 0.8859212651039451 0 5401.0 0.8859212651039451 1
gene  1 48 52 0.45707270098480934 0 5402.0 0.45707270098480934 1
gene  1 49 52 -0.29550155001513057 0 5403.0 -0.29550155001513057 1
gene  1 50 52 -0.25206473478863844 0 5404.0 -0.25206473478863844 1
gene  1 2 53 -0.209641450126533 0 5461.0 -0.209641450126533 1
gene  1 3 53 -0.7709391966102206 0 5462.0 -0.7709391966102206 1
gene  1 5 53 0.9537307732461748 0 5464.0 0.9537307732461748 1
gene  1 7 53 0.20659404843346618 0 5466.0 0.20659404843346618 1
gene  1 8 53 0.13628687767639636 0 5467.0 0.13628687767639636 1
gene  1 9 53 0.10780198028467936 0 5468.0 0.10780198028467936 1
gene  1 15 53 0.5352511411926882 0 5474.0 0.5352511411926882 1
gene  1 17 53 0.49481012998407337 0 5476.0 0.49481012998407337 1
gene  1 18 53 -0.8273152937705256 0 5477.0 -0.8273152937705256 1
gene  1 19 53 0.5424312242898689 0 5478.0 0.5424312242898689 1
gene  1 27 53 0.20358574798729778 0 5486.0 0.20358574798729778 1
gene  1 28 53 0.33907667104363504 0 5487.0 0.33907667104363504 1
gene  1 30 53 0.9799689076623938 0 5489.0 0.9799689076623938 1
gene  1 31 53 0.6319654661669017 0 5490.0 0.6319654661669017 1
gene  1 32 53 -0.8674985133886814 0 5491.0 -0.8674985133886814 1
gene  1 33 53 -0.0496003371707644 0 5492.0 -0.0496003371707644 1
gene  1 34 53 -0.1459399788678345 0 5493.0 -0.1459399788678345 1
gene  1 37 53 -0.28571022188631945 0 5496.0 -0.28571022188631945 1
gene  1 38 53 -0.6678315867730976 0 5497.0 -0.6678315867730976 1
gene  1 41 53 0.6758209382014762 0 5500.0 0.6758209382014762 1
gene  1 42 53 0.2814998354147654 0 5501.0 0.2814998354147654 1
gene  1 45 53 -0.49038557252824533 0 5504.0 -0.49038557252824533 1
gene  1 47 53 0.5573868774409704 0 5506.0 0.5573868774409704 1
gene  1 49 53 -0.6809202214507706 0 5508.0 -0.6809202214507706 1
gene  1 52 53 -0.7158079662853863 0 5511.0 -0.7158079662853863 1
gene  1 2 54 0.10721680155226931 0 5566.0 0.10721680155226931 1
gene  1 4 54 -0.029626790336951814 0 5568.0 -0.029626790336951814 1
gene  1 7 54 -0.2902172022753996 0 5571.0 -0.2902172022753996 1
gene  1 8 54 -0.6074225648741692 0 5572.0 -0.6074225648741692 1
gene  1 9 54 -0.02680045476651971 0 5573.0 -0.02680045476651971 1
gene  1 10 54 -0.2829004888244503 0 5574.0 -0.2829004888244503 1
gene  1 13 54 -0.622763931573108 0 5577.0 -0.622763931573108 1
gene  1 14 54 0.44408434945261344 0 5578.0 0.44408434945261344 1
gene  1 15 54 -0.14067088153725704 0 5579.0 -0.14067088153725704 1
gene  1 18 54 6.11861287315163E-4 0 5582.0 6.11861287315163E-4 1
gene  1 20 54 0.8248187421469336 0 5584.0 0.8248187421469336 1
gene  1 21 54 -0.8614297090209071 0 5585.0 -0.8614297090209071 1
gene  1 23 54 -0.5807597139285973 0 5587.0 -0.5807597139285973 1
gene  1 24 54 0.0477150018032102 0 5588.0 0.0477150018032102 1
gene  1 25 54 0.17331378690887644 0 5589.0 0.17331378690887644 1
gene  1 27 54 0.06807377798588188 0 5591.0 0.06807377798588188 1
gene  1 28 54 -0.5646787692485982 0 5592.0 -0.5646787692485982 1
gene  1 29 54 0.34049929600141193 0 5593.0 0.34049929600141193 1
gene  1 31 54 0.9805809141581812 0 5595.0 0.9805809141581812 1
gene  1 32 54 0.19502422038616862 0 5596.0 0.19502422038616862 1
gene  1 34 54 -0.6505354924369882 0 5598.0 -0.6505354924369882 1
gene  1 43 54 -0.8470396634683287 0 5607.0 -0.8470396634683287 1
gene  1 44 54 0.3164641771571446 0 5608.0 0.3164641771571446 1
gene  1 47 54 -0.5860612135303407 0 5611.0 -0.5860612135303407 1
gene  1 48 54 -0.7937532263258086 0 5612.0 -0.7937532263258086 1
gene  1 50 54 0.5740369683396319 0 5614.0 0.5740369683396319 1
gene  1 52 54 0.26291060648204356 0 5616.0 0.26291060648204356 1
gene  1 3 55 0.23383180698990047 0 5672.0 0.23383180698990047 1
gene  1 6 55 -0.9634405074474116 0 5675.0 -0.9634405074474116 1
gene  1 8 55 -0.7430368224722907 0 5677.0 -0.7430368224722907 1
gene  1 10 55 -0.05595073926795835 0 5679.0 -0.05595073926795835 1
gene  1 11 55 -0.4871269526893296 0 5680.0 -0.4871269526893296 1
gene  1 12 55 0.229923612860797 0 5681.0 0.229923612860797 1
gene  1 15 55 -0.4530439202438765 0 5684.0 -0.4530439202438765 1
gene  1 17 55 -0.961790130755193 0 5686.0 -0.961790130755193 1
gene  1 18 55 -0.7231726196524214 0 5687.0 -0.7231726196524214 1
gene  1 20 55 0.8002019457095424 0 5689.0 0.8002019457095424 1
gene  1 23 55 -0.5620685887983101 0 5692.0 -0.5620685887983101 1
gene  1 24 55 -0.723041047144861 0 5693.0 -0.723041047144861 1
gene  1 25 55 0.7316870133132365 0 5694.0 0.7316870133132365 1
gene  1 26 55 -0.9357449121367936 0 5695.0 -0.9357449121367936 1
gene  1 27 55 0.43875644756454457 0 5696.0 0.43875644756454457 1
gene  1 29 55 -0.5278105280657774 0 5698.0 -0.5278105280657774 1
gene  1 30 55 0.10372546769189428 0 5699.0 0.10372546769189428 1
gene  1 31 55 0.6280483388584123 0 5700.0 0.6280483388584123 1
gene  1 32 55 0.5754343763032048 0 5701.0 0.5754343763032048 1
gene  1 35 55 -0.5626875618485269 0 5704.0 -0.5626875618485269 1
gene  1 37 55 0.38861293613461323 0 5706.0 0.38861293613461323 1
gene  1 39 55 0.2818982029821918 0 5708.0 0.2818982029821918 1
gene  1 40 55 0.801011752641404 0 5709.0 0.801011752641404 1
gene  1 42 55 0.6592691052084522 0 5711.0 0.6592691052084522 1
gene  1 43 55 -0.2790954607148177 0 5712.0 -0.2790954607148177 1
gene  1 44 55 0.023924224151461115 0 5713.0 0.023924224151461115 1
gene  1 48 55 0.26842732351090326 0 5717.0 0.26842732351090326 1
gene  1 50 55 -0.4157395191896276 0 5719.0 -0.4157395191896276 1
gene  1 51 55 -0.6326351181603387 0 5720.0 -0.6326351181603387 1
gene  1 52 55 0.033707174245099614 0 5721.0 0.033707174245099614 1
gene  1 53 55 -0.345835300063142 0 5722.0 -0.345835300063142 1
gene  1 1 56 -0.5375568929676225 0 5775.0 -0.5375568929676225 1
gene  1 4 56 0.9318213718113367 0 5778.0 0.9318213718113367 1
gene  1 5 56 -0.014755168832399801 0 5779.0 -0.014755168832399801 1
gene  1 6 56 -0.639451519855603 0 5780.0 -0.639451519855603 1
gene  1 8 56 -0.29625527437777033 0 5782.0 -0.29625527437777033 1
gene  1 9 56 0.44733667450940817 0 5783.0 0.44733667450940817 1
gene  1 10 56 0.4707787240366055 0 5784.0 0.4707787240366055 1
gene  1 12 56 -0.29178699939884156 0 5786.0 -0.29178699939884156 1
gene  1 15 56 0.7388811574730093 0 5789.0 0.7388811574730093 1
gene  1 16 56 -0.18283649331813012 0 5790.0 -0.18283649331813012 1
gene  1 17 56 -0.3259434922397596 0 5791.0 -0.3259434922397596 1
gene  1 18 56 0.4016058921045834 0 5792.0 0.4016058921045834 1
gene  1 19 56 0.11315252555151223 0 5793.0 0.11315252555151223 1
gene  1 23 56 -0.8643952465054558 0 5797.0 -0.8643952465054558 1
gene  1 25 56 -0.9826080518704831 0 5799.0 -0.9826080518704831 1
gene  1 27 56 -0.41796056774130874 0 5801.0 -0.41796056774130874 1
gene  1 28 56 -0.409939331941774 0 5802.0 -0.409939331941774 1
gene  1 29 56 0.17162303215345276 0 5803.0 0.17162303215345276 1
gene  1 31 56 -0.6122831459154251 0 5805.0 -0.6122831459154251 1
gene  1 33 56 -0.9835550356701944 0 5807.0 -0.9835550356701944 1
gene  1 39 56 -0.7043783557615995 0 5813.0 -0.7043783557615995 1
gene  1 41 56 0.8988326955517117 0 5815.0 0.8988326955517117 1
gene  1 46 56 -0.1503717376847825 0 5820.0 -0.1503717376847825 1
gene  1 47 56 0.30281941878989005 0 5821.0 0.30281941878989005 1
gene  1 48 56 0.32348056562882943 0 5822.0 0.32348056562882943 1
gene  1 49 56 0.2602761659393982 0 5823.0 0.2602761659393982 1
gene  1 50 56 -0.5472395311148709 0 5824.0 -0.5472395311148709 1
gene  1 52 56 -0.34467098605336655 0 5826.0 -0.34467098605336655 1
gene  1 3 57 -0.7394770869433185 0 5882.0 -0.7394770869433185 1
gene  1 4 57 0.512883623650592 0 5883.0 0.512883623650592 1
gene  1 5 57 0.6112648115654752 0 5884.0 0.6112648115654752 1
gene  1 7 57 -0.26309155645822146 0 5886.0 -0.26309155645822146 1
gene  1 8 57 -0.4267614318013805 0 5887.0 -0.4267614318013805 1
gene  1 15 57 -0.034421467339129985 0 5894.0 -0.034421467339129985 1
gene  1 19 57 0.6670483036132465 0 5898.0 0.6670483036132465 1
gene  1 20 57 -0.33134412374118305 0 5899.0 -0.33134412374118305 1
gene  1 24 57 0.9028788473851558 0 5903.0 0.9028788473851558 1
gene  1 25 57 0.9576952136419112 0 5904.0 0.9576952136419112 1
gene  1 26 57 0.00662121211781419 0 5905.0 0.00662121211781419 1
gene  1 27 57 0.4857347427830687 0 5906.0 0.4857347427830687 1
gene  1 29 57 0.4617226009887697 0 5908.0 0.4617226009887697 1
gene  1 30 57 -0.0874048365660599 0 5909.0 -0.0874048365660599 1
gene  1 33 57 0.10534464940055077 0 5912.0 0.10534464940055077 1
gene  1 34 57 0.6070255401656521 0 5913.0 0.6070255401656521 1
gene  1 36 57 0.09542703609828218 0 5915.0 0.09542703609828218 1
gene  1 37 57 -0.7024228810146814 0 5916.0 -0.7024228810146814 1
gene  1 39 57 0.03868901506853828 0 5918.0 0.03868901506853828 1
gene  1 40 57 -0.8235227798211555 0 5919.0 -0.8235227798211555 1
gene  1 41 57 0.17028400607612404 0 5920.0 0.17028400607612404 1
gene  1 42 57 0.7314015927975083 0 5921.0 0.7314015927975083 1
gene  1 44 57 -0.8120428402995974 0 5923.0 -0.8120428402995974 1
gene  1 47 57 -0.08797715851169141 0 5926.0 -0.08797715851169141 1
gene  1 49 57 -0.1856086723263306 0 5928.0 -0.1856086723263306 1
gene  1 50 57 -0.8643873184919362 0 5929.0 -0.8643873184919362 1
gene  1 51 57 -0.10331533726137987 0 5930.0 -0.10331533726137987 1
gene  1 53 57 -0.7960922157053029 0 5932.0 -0.7960922157053029 1
gene  1 1 58 -0.5014756373881972 0 5985.0 -0.5014756373881972 1
gene  1 5 58 0.28006720915464256 0 5989.0 0.28006720915464256 1
gene  1 6 58 0.5269429946585663 0 5990.0 0.5269429946585663 1
gene  1 7 58 -0.3098699396580624 0 5991.0 -0.3098699396580624 1
gene  1 11 58 -0.10464611336467589 0 5995.0 -0.10464611336467589 1
gene  1 12 58 -0.6018102740190864 0 5996.0 -0.6018102740190864 1
gene  1 16 58 -0.12692833663099246 0 6000.0 -0.12692833663099246 1
gene  1 17 58 -0.5033283018565534 0 6001.0 -0.5033283018565534 1
gene  1 18 58 -0.1091921419455828 0 6002.0 -0.1091921419455828 1
gene  1 19 58 -0.39207929832453003 0 6003.0 -0.39207929832453003 1
gene  1 20 58 0.6740502294491437 0 6004.0 0.6740502294491437 1
gene  1 22 58 0.2372846252467381 0 6006.0 0.2372846252467381 1
gene  1 27 58 -0.8110546550047671 0 6011.0 -0.8110546550047671 1
gene  1 28 58 -0.32224801274011183 0 6012.0 -0.32224801274011183 1
gene  1 31 58 -0.11608656220971902 0 6015.0 -0.11608656220971902 1
gene  1 34 58 -0.4167578778816722 0 6018.0 -0.4167578778816722 1
gene  1 35 58 0.2701791495577871 0 6019.0 0.2701791495577871 1
gene  1 38 58 0.15339660182246562 0 6022.0 0.15339660182246562 1
gene  1 39 58 -0.45684952974285364 0 6023.0 -0.45684952974285364 1
gene  1 42 58 0.7088336917051039 0 6026.0 0.7088336917051039 1
gene  1 43 58 -0.8504656077880555 0 6027.0 -0.8504656077880555 1
gene  1 44 58 0.7951930081328639 0 6028.0 0.7951930081328639 1
gene  1 48 58 -0.5264986574062429 0 6032.0 -0.5264986574062429 1
gene  1 51 58 -0.36715598169866703 0 6035.0 -0.36715598169866703 1
gene  1 55 58 0.1614298998172069 0 6039.0 0.1614298998172069 1
gene  1 1 59 -0.10828761895687611 0 6090.0 -0.10828761895687611 1
gene  1 2 59 0.7677862789330471 0 6091.0 0.7677862789330471 1
gene  1 5 59 -0.985036691427627 0 6094.0 -0.985036691427627 1
gene  1 6 59 -0.905459462915408 0 6095.0 -0.905459462915408 1
gene  1 8 59 -0.33641559926471576 0 6097.0 -0.33641559926471576 1
gene  1 11 59 -0.8757992784101795 0 6100.0 -0.8757992784101795 1
gene  1 12 59 0.49286210670585373 0 6101.0 0.49286210670585373 1
gene  1 17 59 0.2144910764796275 0 6106.0 0.2144910764796275 1
gene  1 18 59 -0.3251579098698405 0 6107.0 -0.3251579098698405 1
gene  1 19 59 -0.07696194366531806 0 6108.0 -0.07696194366531806 1
gene  1 20 59 0.7342462052356674 0 6109.0 0.7342462052356674 1
gene  1 25 59 0.8678497075882107 0 6114.0 0.8678497075882107 1
gene  1 26 59 0.15446952593073293 0 6115.0 0.15446952593073293 1
gene  1 28 59 -0.06050022153486445 0 6117.0 -0.06050022153486445 1
gene  1 30 59 -0.45334078281346624 0 6119.0 -0.45334078281346624 1
gene  1 31 59 0.011246545643031514 0 6120.0 0.011246545643031514 1
gene  1 32 59 0.8029313335079946 0 6121.0 0.8029313335079946 1
gene  1 34 59 0.2355603645262706 0 6123.0 0.2355603645262706 1
gene  1 35 59 0.2538344089787007 0 6124.0 0.2538344089787007 1
gene  1 37 59 -0.5723024259778386 0 6126.0 -0.5723024259778386 1
gene  1 38 59 0.716386339987045 0 6127.0 0.716386339987045 1
gene  1 39 59 -0.5924179218155834 0 6128.0 -0.5924179218155834 1
gene  1 41 59 0.8463107210826303 0 6130.0 0.8463107210826303 1
gene  1 42 59 0.9015687893112652 0 6131.0 0.9015687893112652 1
gene  1 44 59 0.08721816025786644 0 6133.0 0.08721816025786644 1
gene  1 46 59 0.11877954517112488 0 6135.0 0.11877954517112488 1
gene  1 47 59 0.7795155499900963 0 6136.0 0.7795155499900963 1
gene  1 53 59 0.40537274094213405 0 6142.0 0.40537274094213405 1
gene  1 54 59 -0.5999353286199116 0 6143.0 -0.5999353286199116 1
gene  1 55 59 -0.44351168698787746 0 6144.0 -0.44351168698787746 1
gene  1 56 59 0.49430549343693 0 6145.0 0.49430549343693 1
gene  1 57 59 0.20779776766086444 0 6146.0 0.20779776766086444 1
gene  1 58 59 0.8727279728325521 0 6147.0 0.8727279728325521 1
gene  1 2 60 -0.24105045555344495 0 6196.0 -0.24105045555344495 1
gene  1 5 60 -0.38509307002554294 0 6199.0 -0.38509307002554294 1
gene  1 8 60 0.547984103351001 0 6202.0 0.547984103351001 1
gene  1 9 60 0.7539273265612546 0 6203.0 0.7539273265612546 1
gene  1 14 60 0.3804501782955768 0 6208.0 0.3804501782955768 1
gene  1 18 60 -0.08781773701390394 0 6212.0 -0.08781773701390394 1
gene  1 20 60 0.5343267597982082 0 6214.0 0.5343267597982082 1
gene  1 23 60 -0.619363125758535 0 6217.0 -0.619363125758535 1
gene  1 24 60 0.9030828482199083 0 6218.0 0.9030828482199083 1
gene  1 26 60 0.21808380135593675 0 6220.0 0.21808380135593675 1
gene  1 27 60 -0.6220718509596795 0 6221.0 -0.6220718509596795 1
gene  1 31 60 -0.38589226684514355 0 6225.0 -0.38589226684514355 1
gene  1 32 60 0.5813556099326104 0 6226.0 0.5813556099326104 1
gene  1 33 60 0.5872180430971572 0 6227.0 0.5872180430971572 1
gene  1 34 60 -0.32264612273251836 0 6228.0 -0.32264612273251836 1
gene  1 35 60 -0.8041546690235631 0 6229.0 -0.8041546690235631 1
gene  1 36 60 -0.07578564373236807 0 6230.0 -0.07578564373236807 1
gene  1 38 60 0.6535868833589336 0 6232.0 0.6535868833589336 1
gene  1 39 60 -0.993558009352143 0 6233.0 -0.993558009352143 1
gene  1 40 60 0.8380617769166149 0 6234.0 0.8380617769166149 1
gene  1 41 60 -0.9570585796142657 0 6235.0 -0.9570585796142657 1
gene  1 43 60 -0.7944290281155226 0 6237.0 -0.7944290281155226 1
gene  1 45 60 -0.3830152358147456 0 6239.0 -0.3830152358147456 1
gene  1 47 60 -0.36967882834701615 0 6241.0 -0.36967882834701615 1
gene  1 48 60 -0.09036738348068707 0 6242.0 -0.09036738348068707 1
gene  1 49 60 0.379427819644356 0 6243.0 0.379427819644356 1
gene  1 52 60 -0.9340189206847775 0 6246.0 -0.9340189206847775 1
gene  1 55 60 -0.7979398518763392 0 6249.0 -0.7979398518763392 1
gene  1 57 60 -0.947829441552645 0 6251.0 -0.947829441552645 1
gene  1 58 60 0.6078735309314138 0 6252.0 0.6078735309314138 1
gene  1 59 60 0.693503798886378 0 6253.0 0.693503798886378 1
gene  1 3 61 -0.21181931189626702 0 6302.0 -0.21181931189626702 1
gene  1 6 61 -0.28692983039486075 0 6305.0 -0.28692983039486075 1
gene  1 9 61 0.45002305471938797 0 6308.0 0.45002305471938797 1
gene  1 10 61 -0.26235364400106265 0 6309.0 -0.26235364400106265 1
gene  1 11 61 0.018846092930221325 0 6310.0 0.018846092930221325 1
gene  1 12 61 -0.6339340790299558 0 6311.0 -0.6339340790299558 1
gene  1 14 61 -0.6705054333217758 0 6313.0 -0.6705054333217758 1
gene  1 15 61 0.2854635191424988 0 6314.0 0.2854635191424988 1
gene  1 17 61 0.17571692904406122 0 6316.0 0.17571692904406122 1
gene  1 18 61 -0.0756258548188471 0 6317.0 -0.0756258548188471 1
gene  1 19 61 0.9645741671828928 0 6318.0 0.9645741671828928 1
gene  1 23 61 -0.9754554335699075 0 6322.0 -0.9754554335699075 1
gene  1 24 61 0.39866757414221776 0 6323.0 0.39866757414221776 1
gene  1 25 61 0.7844955835368197 0 6324.0 0.7844955835368197 1
gene  1 27 61 -0.41077053064716273 0 6326.0 -0.41077053064716273 1
gene  1 29 61 -0.531562140402549 0 6328.0 -0.531562140402549 1
gene  1 30 61 0.9984745871462369 0 6329.0 0.9984745871462369 1
gene  1 32 61 -0.3849605737166951 0 6331.0 -0.3849605737166951 1
gene  1 35 61 0.2371146839457441 0 6334.0 0.2371146839457441 1
gene  1 40 61 -0.7333342919825744 0 6339.0 -0.7333342919825744 1
gene  1 41 61 -0.7816570943614815 0 6340.0 -0.7816570943614815 1
gene  1 42 61 -0.9740258847515207 0 6341.0 -0.9740258847515207 1
gene  1 43 61 -0.8601339769689983 0 6342.0 -0.8601339769689983 1
gene  1 47 61 -0.6183313549144425 0 6346.0 -0.6183313549144425 1
gene  1 49 61 0.9506623643918186 0 6348.0 0.9506623643918186 1
gene  1 50 61 -0.21107206312426807 0 6349.0 -0.21107206312426807 1
gene  1 53 61 0.13159706404058846 0 6352.0 0.13159706404058846 1
gene  1 56 61 -0.8893342268177266 0 6355.0 -0.8893342268177266 1
gene  1 57 61 0.208466772763793 0 6356.0 0.208466772763793 1
gene  1 58 61 -0.11962403727640081 0 6357.0 -0.11962403727640081 1
gene  1 59 61 0.10834969098064762 0 6358.0 0.10834969098064762 1
gene  1 1 105 -0.4197510742019409 0 10920.0 -0.4197510742019409 1
gene  1 3 105 0.5858939809339819 0 10922.0 0.5858939809339819 1
gene  1 7 105 0.9398366691799304 0 10926.0 0.9398366691799304 1
gene  1 8 105 -0.6346208675764317 0 10927.0 -0.6346208675764317 1
gene  1 11 105 -0.05003340027212977 0 10930.0 -0.05003340027212977 1
gene  1 12 105 0.5437081906317042 0 10931.0 0.5437081906317042 1
gene  1 13 105 0.7342208050310868 0 10932.0 0.7342208050310868 1
gene  1 14 105 0.828936317209846 0 10933.0 0.828936317209846 1
gene  1 15 105 0.3917124674180634 0 10934.0 0.3917124674180634 1
gene  1 18 105 0.008722278925061056 0 10937.0 0.008722278925061056 1
gene  1 19 105 0.2904005599967654 0 10938.0 0.2904005599967654 1
gene  1 20 105 -0.7315678100896807 0 10939.0 -0.7315678100896807 1
gene  1 21 105 -0.9121115175637527 0 10940.0 -0.9121115175637527 1
gene  1 22 105 -0.45818087168773547 0 10941.0 -0.45818087168773547 1
gene  1 23 105 -0.852382034901009 0 10942.0 -0.852382034901009 1
gene  1 24 105 0.9723637718189811 0 10943.0 0.9723637718189811 1
gene  1 27 105 -0.47927260820605033 0 10946.0 -0.47927260820605033 1
gene  1 28 105 -0.4158283327341076 0 10947.0 -0.4158283327341076 1
gene  1 30 105 0.12424823393137396 0 10949.0 0.12424823393137396 1
gene  1 31 105 -0.2388228015486985 0 10950.0 -0.2388228015486985 1
gene  1 35 105 0.3549133930982943 0 10954.0 0.3549133930982943 1
gene  1 36 105 -0.6345134196701793 0 10955.0 -0.6345134196701793 1
gene  1 38 105 0.9650661372583986 0 10957.0 0.9650661372583986 1
gene  1 40 105 -0.4832425291561374 0 10959.0 -0.4832425291561374 1
gene  1 44 105 -0.36943398265339555 0 10963.0 -0.36943398265339555 1
gene  1 46 105 -0.35395490439376376 0 10965.0 -0.35395490439376376 1
gene  1 47 105 0.9781755355943096 0 10966.0 0.9781755355943096 1
gene  1 48 105 -0.42542476048442424 0 10967.0 -0.42542476048442424 1
gene  1 50 105 -0.46763337536083516 0 10969.0 -0.46763337536083516 1
gene  1 52 105 0.8003127272391309 0 10971.0 0.8003127272391309 1
gene  1 53 105 0.3983636433000243 0 10972.0 0.3983636433000243 1
gene  1 54 105 0.7503478873479498 0 10973.0 0.7503478873479498 1
gene  1 56 105 -0.7317520545188574 0 10975.0 -0.7317520545188574 1
gene  1 58 105 -0.1702617306286498 0 10977.0 -0.1702617306286498 1
gene  1 59 105 0.012542980019213612 0 10978.0 0.012542980019213612 1
gene  1 61 105 0.03190468236636179 0 10980.0 0.03190468236636179 1
genomeend 63
