genomestart  55
trait 1 0.0 0.0 0.0 0.0 0.0 0.0 0.0 0.0 0.0 0.0 0.0 0.0 0.0 0.0 0.0 0.0 0.0 0.0 0.0 0.0 
node 1 1 1 1
node 2 1 1 1
node 3 1 1 1
node 4 1 1 3
node 5 1 0 0
node 6 1 0 0
node 7 1 0 0
node 8 1 0 0
node 9 1 0 0
node 10 1 0 0
node 11 1 0 0
node 12 1 0 0
node 13 1 0 0
node 14 1 0 0
node 15 1 0 0
node 16 1 0 0
node 17 1 0 0
node 18 1 0 0
node 19 1 0 0
node 20 1 0 0
node 21 1 0 0
node 22 1 0 0
node 23 1 0 0
node 24 1 0 0
node 25 1 0 0
node 26 1 0 0
node 27 1 0 0
node 28 1 0 0
node 29 1 0 0
node 30 1 0 0
node 31 1 0 0
node 32 1 0 0
node 33 1 0 0
node 34 1 0 0
node 35 1 0 0
node 36 1 0 0
node 37 1 0 0
node 38 1 0 0
node 39 1 0 0
node 40 1 0 0
node 41 1 0 0
node 42 1 0 0
node 43 1 0 0
node 44 1 0 0
node 45 1 0 0
node 46 1 0 0
node 47 1 0 0
node 48 1 0 0
node 49 1 0 0
node 50 1 0 0
node 51 1 0 0
node 52 1 0 0
node 53 1 0 0
node 54 1 0 0
node 55 1 0 0
node 56 1 0 0
node 57 1 0 0
node 58 1 0 0
node 105 1 0 2
gene  1 2 5 0.3178728872566855 0 421.0 0.3178728872566855 1
gene  1 3 5 0.31294691823511445 0 422.0 0.31294691823511445 1
gene  1 3 6 -0.7320434076315362 0 527.0 -0.7320434076315362 1
gene  1 1 7 -0.7884073545285751 0 630.0 -0.7884073545285751 1
gene  1 2 7 0.8818184556928482 0 631.0 0.8818184556928482 1
gene  1 5 7 -0.8417518636541577 0 634.0 -0.8417518636541577 1
gene  1 6 7 0.881009589867251 0 635.0 0.881009589867251 1
gene  1 4 8 -0.547322445269527 0 738.0 -0.547322445269527 1
gene  1 5 8 0.8136762068047586 0 739.0 0.8136762068047586 1
gene  1 7 8 0.49491792783305544 0 741.0 0.49491792783305544 1
gene  1 3 9 0.39702038116600014 0 842.0 0.39702038116600014 1
gene  1 4 9 0.6303307950160298 0 843.0 0.6303307950160298 1
gene  1 1 10 0.7342929735333069 0 945.0 0.7342929735333069 1
gene  1 2 10 -0.9976687780071021 0 946.0 -0.9976687780071021 1
gene  1 3 10 -0.4859875347059923 0 947.0 -0.4859875347059923 1
gene  1 7 10 0.5998836790181136 0 951.0 0.5998836790181136 1
gene  1 2 11 0.9746461238705639 0 1051.0 0.9746461238705639 1
gene  1 3 11 0.6522943863322221 0 1052.0 0.6522943863322221 1
gene  1 4 11 0.3216312493517879 0 1053.0 0.3216312493517879 1
gene  1 5 11 -0.8945683854123443 0 1054.0 -0.8945683854123443 1
gene  1 7 11 0.1989569233006111 0 1056.0 0.1989569233006111 1
gene  1 8 11 -0.35980540410314754 0 1057.0 -0.35980540410314754 1
gene  1 9 11 0.7369603415245678 0 1058.0 0.7369603415245678 1
gene  1 1 12 -0.1541330413344092 0 1155.0 -0.1541330413344092 1
gene  1 4 12 0.781253055363641 0 1158.0 0.781253055363641 1
gene  1 6 12 0.7702338259121402 0 1160.0 0.7702338259121402 1
gene  1 9 12 -0.940955504876525 0 1163.0 -0.940955504876525 1
gene  1 10 12 -0.8570314896767555 0 1164.0 -0.8570314896767555 1
gene  1 4 13 0.22258299545189808 0 1263.0 0.22258299545189808 1
gene  1 7 13 0.31649015146828996 0 1266.0 0.31649015146828996 1
gene  1 9 13 0.24368933779088797 0 1268.0 0.24368933779088797 1
gene  1 12 13 0.33719104851097825 0 1271.0 0.33719104851097825 1
gene  1 7 14 -0.7706764667455941 0 1371.0 -0.7706764667455941 1
gene  1 10 14 0.20733885764805093 0 1374.0 0.20733885764805093 1
gene  1 1 15 0.3462873570937369 0 1470.0 0.3462873570937369 1
gene  1 2 15 -0.8537040895164598 0 1471.0 -0.8537040895164598 1
gene  1 4 15 -0.5244701595299306 0 1473.0 -0.5244701595299306 1
gene  1 10 15 -0.2451285152392232 0 1479.0 -0.2451285152392232 1
gene  1 12 15 0.9780744888173257 0 1481.0 0.9780744888173257 1
gene  1 13 15 -0.5831930445359864 0 1482.0 -0.5831930445359864 1
gene  1 14 15 0.23214491691947525 0 1483.0 0.23214491691947525 1
gene  1 1 16 0.875632807269325 0 1575.0 0.875632807269325 1
gene  1 3 16 -0.6249709335838027 0 1577.0 -0.6249709335838027 1
gene  1 6 16 -0.21411209824349542 0 1580.0 -0.21411209824349542 1
gene  1 9 16 0.14209732079377158 0 1583.0 0.14209732079377158 1
gene  1 11 16 -0.999830730269554 0 1585.0 -0.999830730269554 1
gene  1 15 16 -0.8580830278982811 0 1589.0 -0.8580830278982811 1
gene  1 1 17 0.4415146034530386 0 1680.0 0.4415146034530386 1
gene  1 2 17 -0.16991214666252852 0 1681.0 -0.16991214666252852 1
gene  1 4 17 -0.40665077249038184 0 1683.0 -0.40665077249038184 1
gene  1 6 17 0.6412344508204436 0 1685.0 0.6412344508204436 1
gene  1 11 17 -0.7079997875313304 0 1690.0 -0.7079997875313304 1
gene  1 12 17 0.18861173059168224 0 1691.0 0.18861173059168224 1
gene  1 15 17 0.8944779290996008 0 1694.0 0.8944779290996008 1
gene  1 1 18 0.7570367579731333 0 1785.0 0.7570367579731333 1
gene  1 2 18 0.3016926413435327 0 1786.0 0.3016926413435327 1
gene  1 9 18 -0.9313000704517608 0 1793.0 -0.9313000704517608 1
gene  1 10 18 -0.20730223836919925 0 1794.0 -0.20730223836919925 1
gene  1 11 18 0.6635104484078637 0 1795.0 0.6635104484078637 1
gene  1 12 18 0.6171218722462425 0 1796.0 0.6171218722462425 1
gene  1 17 18 -0.17124292787336692 0 1801.0 -0.17124292787336692 1
gene  1 3 19 -0.3353711030786455 0 1892.0 -0.3353711030786455 1
gene  1 4 19 -0.18212404241719493 0 1893.0 -0.18212404241719493 1
gene  1 5 19 0.3935320786481582 0 1894.0 0.3935320786481582 1
gene  1 6 19 -0.9802465251809831 0 1895.0 -0.9802465251809831 1
gene  1 7 19 -0.8335749379595022 0 1896.0 -0.8335749379595022 1
gene  1 9 19 -0.16267451866467242 0 1898.0 -0.16267451866467242 1
gene  1 10 19 0.8731602936892453 0 1899.0 0.8731602936892453 1
gene  1 12 19 0.7871155833580968 0 1901.0 0.7871155833580968 1
gene  1 17 19 0.9538964429382983 0 1906.0 0.9538964429382983 1
gene  1 18 19 -0.8943230175240745 0 1907.0 -0.8943230175240745 1
gene  1 1 20 0.5468646532080704 0 1995.0 0.5468646532080704 1
gene  1 2 20 -0.09855424481540442 0 1996.0 -0.09855424481540442 1
gene  1 8 20 -0.22831474186353407 0 2002.0 -0.22831474186353407 1
gene  1 9 20 -0.4933302275329158 0 2003.0 -0.4933302275329158 1
gene  1 12 20 0.875627247936093 0 2006.0 0.875627247936093 1
gene  1 13 20 0.3990673512273748 0 2007.0 0.3990673512273748 1
gene  1 19 20 -0.87967917032698 0 2013.0 -0.87967917032698 1
gene  1 1 21 -0.7389921442780669 0 2100.0 -0.7389921442780669 1
gene  1 3 21 0.665152938130699 0 2102.0 0.665152938130699 1
gene  1 5 21 -0.3175444892201078 0 2104.0 -0.3175444892201078 1
gene  1 6 21 -0.08122905335523267 0 2105.0 -0.08122905335523267 1
gene  1 12 21 0.026713054279263515 0 2111.0 0.026713054279263515 1
gene  1 13 21 -0.6202165895992132 0 2112.0 -0.6202165895992132 1
gene  1 15 21 0.39896086970843914 0 2114.0 0.39896086970843914 1
gene  1 16 21 -0.6784875235654712 0 2115.0 -0.6784875235654712 1
gene  1 17 21 -0.9222055841361381 0 2116.0 -0.9222055841361381 1
gene  1 19 21 0.6806093773177339 0 2118.0 0.6806093773177339 1
gene  1 20 21 -0.12207727688259684 0 2119.0 -0.12207727688259684 1
gene  1 2 22 0.8749266313304106 0 2206.0 0.8749266313304106 1
gene  1 4 22 0.6289819212887258 0 2208.0 0.6289819212887258 1
gene  1 5 22 0.628418336162833 0 2209.0 0.628418336162833 1
gene  1 7 22 -0.38961166140112957 0 2211.0 -0.38961166140112957 1
gene  1 8 22 0.4566873112303468 0 2212.0 0.4566873112303468 1
gene  1 10 22 0.9024799647287631 0 2214.0 0.9024799647287631 1
gene  1 11 22 0.9157263658673573 0 2215.0 0.9157263658673573 1
gene  1 13 22 -0.9269077069285184 0 2217.0 -0.9269077069285184 1
gene  1 14 22 0.0802195821320052 0 2218.0 0.0802195821320052 1
gene  1 17 22 0.17261179601654508 0 2221.0 0.17261179601654508 1
gene  1 1 23 -0.8733116105498869 0 2310.0 -0.8733116105498869 1
gene  1 2 23 -0.5588365223265672 0 2311.0 -0.5588365223265672 1
gene  1 4 23 -0.7053368415285345 0 2313.0 -0.7053368415285345 1
gene  1 5 23 -0.9708607246235439 0 2314.0 -0.9708607246235439 1
gene  1 7 23 -0.277090443486111 0 2316.0 -0.277090443486111 1
gene  1 9 23 -0.5021053593779563 0 2318.0 -0.5021053593779563 1
gene  1 10 23 -0.4570783408754713 0 2319.0 -0.4570783408754713 1
gene  1 11 23 0.03129619145984297 0 2320.0 0.03129619145984297 1
gene  1 12 23 -0.4443037001556446 0 2321.0 -0.4443037001556446 1
gene  1 13 23 0.7802600405405481 0 2322.0 0.7802600405405481 1
gene  1 15 23 -0.6220505836761101 0 2324.0 -0.6220505836761101 1
gene  1 18 23 -0.4644053251803435 0 2327.0 -0.4644053251803435 1
gene  1 22 23 0.5520797483785447 0 2331.0 0.5520797483785447 1
gene  1 2 24 0.9197723813967585 0 2416.0 0.9197723813967585 1
gene  1 3 24 0.5045437650472692 0 2417.0 0.5045437650472692 1
gene  1 4 24 0.24021405012790875 0 2418.0 0.24021405012790875 1
gene  1 7 24 0.08518377547873668 0 2421.0 0.08518377547873668 1
gene  1 9 24 0.855399241786706 0 2423.0 0.855399241786706 1
gene  1 10 24 0.9075496014921872 0 2424.0 0.9075496014921872 1
gene  1 12 24 0.39892185612512265 0 2426.0 0.39892185612512265 1
gene  1 14 24 0.2675207253596932 0 2428.0 0.2675207253596932 1
gene  1 19 24 0.7085526658344643 0 2433.0 0.7085526658344643 1
gene  1 20 24 0.7835650575073491 0 2434.0 0.7835650575073491 1
gene  1 21 24 0.20371045614972583 0 2435.0 0.20371045614972583 1
gene  1 7 25 0.9752122256310942 0 2526.0 0.9752122256310942 1
gene  1 8 25 0.910179689994401 0 2527.0 0.910179689994401 1
gene  1 13 25 0.38635524987975434 0 2532.0 0.38635524987975434 1
gene  1 14 25 0.11639130389837626 0 2533.0 0.11639130389837626 1
gene  1 19 25 0.10160663717402008 0 2538.0 0.10160663717402008 1
gene  1 21 25 -0.23543323189781673 0 2540.0 -0.23543323189781673 1
gene  1 23 25 0.1111460960366335 0 2542.0 0.1111460960366335 1
gene  1 24 25 0.5013859388418956 0 2543.0 0.5013859388418956 1
gene  1 6 26 0.2020669551355715 0 2630.0 0.2020669551355715 1
gene  1 10 26 -0.27641876710531454 0 2634.0 -0.27641876710531454 1
gene  1 13 26 -0.24737224087651744 0 2637.0 -0.24737224087651744 1
gene  1 14 26 0.3208223524765469 0 2638.0 0.3208223524765469 1
gene  1 15 26 0.7163568859198549 0 2639.0 0.7163568859198549 1
gene  1 20 26 0.8860961587241728 0 2644.0 0.8860961587241728 1
gene  1 21 26 -0.49234657258732306 0 2645.0 -0.49234657258732306 1
gene  1 22 26 -0.4812847342637313 0 2646.0 -0.4812847342637313 1
gene  1 24 26 -0.29832096588366397 0 2648.0 -0.29832096588366397 1
gene  1 1 27 0.2249448545604732 0 2730.0 0.2249448545604732 1
gene  1 2 27 0.24014592606111762 0 2731.0 0.24014592606111762 1
gene  1 4 27 0.6233577488199894 0 2733.0 0.6233577488199894 1
gene  1 5 27 0.09762269088445852 0 2734.0 0.09762269088445852 1
gene  1 6 27 -0.3855875105723242 0 2735.0 -0.3855875105723242 1
gene  1 8 27 -0.11859882287082146 0 2737.0 -0.11859882287082146 1
gene  1 9 27 0.9353175139508875 0 2738.0 0.9353175139508875 1
gene  1 10 27 0.9797257704088947 0 2739.0 0.9797257704088947 1
gene  1 19 27 0.6719040225401561 0 2748.0 0.6719040225401561 1
gene  1 20 27 0.7963674897701738 0 2749.0 0.7963674897701738 1
gene  1 21 27 -0.43327167482241125 0 2750.0 -0.43327167482241125 1
gene  1 24 27 0.05312145390446199 0 2753.0 0.05312145390446199 1
gene  1 26 27 0.5903273160371426 0 2755.0 0.5903273160371426 1
gene  1 1 28 -0.8164651339599596 0 2835.0 -0.8164651339599596 1
gene  1 3 28 0.22724908506886632 0 2837.0 0.22724908506886632 1
gene  1 5 28 -0.8339276247219546 0 2839.0 -0.8339276247219546 1
gene  1 6 28 0.4534385133158837 0 2840.0 0.4534385133158837 1
gene  1 9 28 0.7737406117902645 0 2843.0 0.7737406117902645 1
gene  1 10 28 -0.7160678520951695 0 2844.0 -0.7160678520951695 1
gene  1 11 28 -0.4262084136203099 0 2845.0 -0.4262084136203099 1
gene  1 13 28 0.29049280659569754 0 2847.0 0.29049280659569754 1
gene  1 14 28 0.9803742204331417 0 2848.0 0.9803742204331417 1
gene  1 15 28 0.7875276355582943 0 2849.0 0.7875276355582943 1
gene  1 17 28 -0.16234489299144972 0 2851.0 -0.16234489299144972 1
gene  1 18 28 -0.9563040053638694 0 2852.0 -0.9563040053638694 1
gene  1 19 28 -0.3406112077155907 0 2853.0 -0.3406112077155907 1
gene  1 21 28 0.7932084588304744 0 2855.0 0.7932084588304744 1
gene  1 22 28 -0.8340709887727877 0 2856.0 -0.8340709887727877 1
gene  1 23 28 0.9885644408015604 0 2857.0 0.9885644408015604 1
gene  1 24 28 0.2660398307770503 0 2858.0 0.2660398307770503 1
gene  1 26 28 -0.9019265890483247 0 2860.0 -0.9019265890483247 1
gene  1 27 28 -0.4757862097285349 0 2861.0 -0.4757862097285349 1
gene  1 4 29 0.8031259165458955 0 2943.0 0.8031259165458955 1
gene  1 6 29 -0.4348017705934706 0 2945.0 -0.4348017705934706 1
gene  1 8 29 0.980073867612108 0 2947.0 0.980073867612108 1
gene  1 11 29 -0.33375752471575726 0 2950.0 -0.33375752471575726 1
gene  1 14 29 0.26533245319443266 0 2953.0 0.26533245319443266 1
gene  1 16 29 -0.1581783253324205 0 2955.0 -0.1581783253324205 1
gene  1 17 29 -0.20241605742743185 0 2956.0 -0.20241605742743185 1
gene  1 18 29 -0.28599100938544186 0 2957.0 -0.28599100938544186 1
gene  1 21 29 0.9208771638553424 0 2960.0 0.9208771638553424 1
gene  1 24 29 0.23888019154892826 0 2963.0 0.23888019154892826 1
gene  1 25 29 -0.44957452242122087 0 2964.0 -0.44957452242122087 1
gene  1 26 29 0.35792920848709486 0 2965.0 0.35792920848709486 1
gene  1 3 30 0.20891941547836623 0 3047.0 0.20891941547836623 1
gene  1 4 30 0.9568064639849588 0 3048.0 0.9568064639849588 1
gene  1 5 30 -0.21887570078483798 0 3049.0 -0.21887570078483798 1
gene  1 6 30 0.8206251520059163 0 3050.0 0.8206251520059163 1
gene  1 9 30 0.6697932728423229 0 3053.0 0.6697932728423229 1
gene  1 11 30 0.21663272491984986 0 3055.0 0.21663272491984986 1
gene  1 12 30 0.26840517732316993 0 3056.0 0.26840517732316993 1
gene  1 13 30 -0.5444495752234535 0 3057.0 -0.5444495752234535 1
gene  1 16 30 0.46538193937152894 0 3060.0 0.46538193937152894 1
gene  1 17 30 0.7508141255592604 0 3061.0 0.7508141255592604 1
gene  1 24 30 -0.7692067303426916 0 3068.0 -0.7692067303426916 1
gene  1 26 30 -0.11836644079876224 0 3070.0 -0.11836644079876224 1
gene  1 27 30 -0.7773229290705116 0 3071.0 -0.7773229290705116 1
gene  1 29 30 -0.4517992134295221 0 3073.0 -0.4517992134295221 1
gene  1 2 31 -0.08125332951750908 0 3151.0 -0.08125332951750908 1
gene  1 3 31 0.7099038538013993 0 3152.0 0.7099038538013993 1
gene  1 6 31 0.771212573173918 0 3155.0 0.771212573173918 1
gene  1 7 31 0.5656715313452362 0 3156.0 0.5656715313452362 1
gene  1 8 31 0.8530953314949953 0 3157.0 0.8530953314949953 1
gene  1 13 31 0.6335659555000499 0 3162.0 0.6335659555000499 1
gene  1 14 31 -0.6078455051155482 0 3163.0 -0.6078455051155482 1
gene  1 15 31 0.32016784253290353 0 3164.0 0.32016784253290353 1
gene  1 18 31 0.41534312290741404 0 3167.0 0.41534312290741404 1
gene  1 19 31 -0.18686563886726593 0 3168.0 -0.18686563886726593 1
gene  1 22 31 -0.34857071540295226 0 3171.0 -0.34857071540295226 1
gene  1 23 31 0.0840435586244428 0 3172.0 0.0840435586244428 1
gene  1 25 31 -0.07112589158406402 0 3174.0 -0.07112589158406402 1
gene  1 27 31 0.9965728340635371 0 3176.0 0.9965728340635371 1
gene  1 28 31 0.8037692166911128 0 3177.0 0.8037692166911128 1
gene  1 29 31 0.909916445988601 0 3178.0 0.909916445988601 1
gene  1 1 32 -0.043516821573397424 0 3255.0 -0.043516821573397424 1
gene  1 2 32 0.0582059919674196 0 3256.0 0.0582059919674196 1
gene  1 3 32 -0.2833294358453152 0 3257.0 -0.2833294358453152 1
gene  1 7 32 -0.14374915329874494 0 3261.0 -0.14374915329874494 1
gene  1 9 32 0.41613691663165364 0 3263.0 0.41613691663165364 1
gene  1 15 32 0.9361617689213719 0 3269.0 0.9361617689213719 1
gene  1 16 32 0.5572570128906059 0 3270.0 0.5572570128906059 1
gene  1 18 32 -0.0826252186339761 0 3272.0 -0.0826252186339761 1
gene  1 20 32 -0.27862584583914174 0 3274.0 -0.27862584583914174 1
gene  1 22 32 0.4789659088855439 0 3276.0 0.4789659088855439 1
gene  1 23 32 0.964032369282024 0 3277.0 0.964032369282024 1
gene  1 25 32 0.616916513053014 0 3279.0 0.616916513053014 1
gene  1 26 32 0.5776587954634278 0 3280.0 0.5776587954634278 1
gene  1 27 32 0.5746040129858752 0 3281.0 0.5746040129858752 1
gene  1 28 32 0.7142097040740386 0 3282.0 0.7142097040740386 1
gene  1 30 32 -0.6386758392058709 0 3284.0 -0.6386758392058709 1
gene  1 1 33 0.4753242045409809 0 3360.0 0.4753242045409809 1
gene  1 5 33 0.27729039198719785 0 3364.0 0.27729039198719785 1
gene  1 8 33 -0.8366132075087472 0 3367.0 -0.8366132075087472 1
gene  1 9 33 0.26734971010418507 0 3368.0 0.26734971010418507 1
gene  1 11 33 0.6629667740225312 0 3370.0 0.6629667740225312 1
gene  1 13 33 0.3537741296193101 0 3372.0 0.3537741296193101 1
gene  1 14 33 0.5732688008377997 0 3373.0 0.5732688008377997 1
gene  1 15 33 0.7157908150696353 0 3374.0 0.7157908150696353 1
gene  1 21 33 -0.38742694890137497 0 3380.0 -0.38742694890137497 1
gene  1 22 33 0.37064779750414023 0 3381.0 0.37064779750414023 1
gene  1 23 33 0.12523771963583663 0 3382.0 0.12523771963583663 1
gene  1 25 33 -0.7700362090246172 0 3384.0 -0.7700362090246172 1
gene  1 28 33 -0.46972886909050093 0 3387.0 -0.46972886909050093 1
gene  1 30 33 0.7422865170168483 0 3389.0 0.7422865170168483 1
gene  1 31 33 0.622484378424862 0 3390.0 0.622484378424862 1
gene  1 3 34 0.30825510675482515 0 3467.0 0.30825510675482515 1
gene  1 6 34 0.36981671479303757 0 3470.0 0.36981671479303757 1
gene  1 8 34 -0.22203609900548893 0 3472.0 -0.22203609900548893 1
gene  1 9 34 -0.7838865118551676 0 3473.0 -0.7838865118551676 1
gene  1 11 34 -0.25738872598861795 0 3475.0 -0.25738872598861795 1
gene  1 13 34 0.14542288130223413 0 3477.0 0.14542288130223413 1
gene  1 15 34 0.6090069818576351 0 3479.0 0.6090069818576351 1
gene  1 16 34 -0.5549260226670221 0 3480.0 -0.5549260226670221 1
gene  1 17 34 -0.6469027236770593 0 3481.0 -0.6469027236770593 1
gene  1 18 34 -0.7234521386351545 0 3482.0 -0.7234521386351545 1
gene  1 24 34 -0.59310321300951 0 3488.0 -0.59310321300951 1
gene  1 26 34 0.776303839543486 0 3490.0 0.776303839543486 1
gene  1 28 34 0.5312290114725764 0 3492.0 0.5312290114725764 1
gene  1 31 34 0.2376428428430638 0 3495.0 0.2376428428430638 1
gene  1 32 34 0.7273866260809336 0 3496.0 0.7273866260809336 1
gene  1 2 35 0.7218975859012756 0 3571.0 0.7218975859012756 1
gene  1 3 35 0.1262382962073112 0 3572.0 0.1262382962073112 1
gene  1 4 35 -0.7603516759888356 0 3573.0 -0.7603516759888356 1
gene  1 5 35 -0.22708534078250409 0 3574.0 -0.22708534078250409 1
gene  1 7 35 -0.8336964187458504 0 3576.0 -0.8336964187458504 1
gene  1 8 35 -0.44768510601700795 0 3577.0 -0.44768510601700795 1
gene  1 9 35 0.7771094898645187 0 3578.0 0.7771094898645187 1
gene  1 17 35 -0.29791643491340414 0 3586.0 -0.29791643491340414 1
gene  1 18 35 -0.7185497399204941 0 3587.0 -0.7185497399204941 1
gene  1 19 35 0.5051041649421599 0 3588.0 0.5051041649421599 1
gene  1 20 35 -0.4124969539584008 0 3589.0 -0.4124969539584008 1
gene  1 22 35 -0.8141942444604677 0 3591.0 -0.8141942444604677 1
gene  1 25 35 -0.11007331091106165 0 3594.0 -0.11007331091106165 1
gene  1 26 35 -0.9440879992782301 0 3595.0 -0.9440879992782301 1
gene  1 28 35 0.1416459004796694 0 3597.0 0.1416459004796694 1
gene  1 29 35 0.6426027039257559 0 3598.0 0.6426027039257559 1
gene  1 32 35 -0.05156669759039578 0 3601.0 -0.05156669759039578 1
gene  1 34 35 -0.24109156358531036 0 3603.0 -0.24109156358531036 1
gene  1 1 36 -0.42442011627006004 0 3675.0 -0.42442011627006004 1
gene  1 2 36 0.6555602589185552 0 3676.0 0.6555602589185552 1
gene  1 4 36 -0.6443762266403907 0 3678.0 -0.6443762266403907 1
gene  1 5 36 -0.7326171496596688 0 3679.0 -0.7326171496596688 1
gene  1 7 36 0.024573562531007065 0 3681.0 0.024573562531007065 1
gene  1 9 36 -0.33571526658933426 0 3683.0 -0.33571526658933426 1
gene  1 11 36 -0.8122362816914247 0 3685.0 -0.8122362816914247 1
gene  1 12 36 -0.04643414979484606 0 3686.0 -0.04643414979484606 1
gene  1 16 36 0.3538098969074239 0 3690.0 0.3538098969074239 1
gene  1 17 36 0.8490653106107379 0 3691.0 0.8490653106107379 1
gene  1 20 36 -0.24655711871395514 0 3694.0 -0.24655711871395514 1
gene  1 23 36 0.8348588132596009 0 3697.0 0.8348588132596009 1
gene  1 24 36 0.8749303313142262 0 3698.0 0.8749303313142262 1
gene  1 25 36 -0.9891614427625219 0 3699.0 -0.9891614427625219 1
gene  1 26 36 0.9705957935290345 0 3700.0 0.9705957935290345 1
gene  1 29 36 -0.07441091058362481 0 3703.0 -0.07441091058362481 1
gene  1 30 36 0.757791295027115 0 3704.0 0.757791295027115 1
gene  1 34 36 -0.5713755307159606 0 3708.0 -0.5713755307159606 1
gene  1 35 36 -0.3515179932756387 0 3709.0 -0.3515179932756387 1
gene  1 2 37 -0.8746052605001203 0 3781.0 -0.8746052605001203 1
gene  1 3 37 0.689606653328836 0 3782.0 0.689606653328836 1
gene  1 4 37 0.7086907791233853 0 3783.0 0.7086907791233853 1
gene  1 6 37 -0.31747836988175504 0 3785.0 -0.31747836988175504 1
gene  1 7 37 0.5603245274748643 0 3786.0 0.5603245274748643 1
gene  1 9 37 -0.06460442091211027 0 3788.0 -0.06460442091211027 1
gene  1 11 37 0.1252110701361021 0 3790.0 0.1252110701361021 1
gene  1 12 37 0.5303352537934327 0 3791.0 0.5303352537934327 1
gene  1 13 37 0.3831363838845787 0 3792.0 0.3831363838845787 1
gene  1 14 37 0.018941602730799145 0 3793.0 0.018941602730799145 1
gene  1 15 37 0.8787369682208559 0 3794.0 0.8787369682208559 1
gene  1 18 37 -0.2111676371730814 0 3797.0 -0.2111676371730814 1
gene  1 19 37 0.249910631611297 0 3798.0 0.249910631611297 1
gene  1 20 37 -0.7212280137419841 0 3799.0 -0.7212280137419841 1
gene  1 21 37 -0.859366039073631 0 3800.0 -0.859366039073631 1
gene  1 22 37 -0.7124494381103234 0 3801.0 -0.7124494381103234 1
gene  1 24 37 -0.3018901411406908 0 3803.0 -0.3018901411406908 1
gene  1 25 37 -0.4975161048147465 0 3804.0 -0.4975161048147465 1
gene  1 26 37 -0.41905472251274534 0 3805.0 -0.41905472251274534 1
gene  1 27 37 -0.13400146308171157 0 3806.0 -0.13400146308171157 1
gene  1 28 37 0.550572012016495 0 3807.0 0.550572012016495 1
gene  1 29 37 -0.26706357846781226 0 3808.0 -0.26706357846781226 1
gene  1 31 37 -0.8512186340260207 0 3810.0 -0.8512186340260207 1
gene  1 34 37 -0.7555082472535137 0 3813.0 -0.7555082472535137 1
gene  1 35 37 0.3918416351024102 0 3814.0 0.3918416351024102 1
gene  1 3 38 0.13082549192020643 0 3887.0 0.13082549192020643 1
gene  1 4 38 0.9854113799368467 0 3888.0 0.9854113799368467 1
gene  1 7 38 0.6316477975927145 0 3891.0 0.6316477975927145 1
gene  1 10 38 0.03712123642603715 0 3894.0 0.03712123642603715 1
gene  1 13 38 -0.012116574237969746 0 3897.0 -0.012116574237969746 1
gene  1 14 38 -0.36744831940137057 0 3898.0 -0.36744831940137057 1
gene  1 15 38 -0.8013089629846958 0 3899.0 -0.8013089629846958 1
gene  1 16 38 -0.37707501276876043 0 3900.0 -0.37707501276876043 1
gene  1 17 38 -0.9562091291840308 0 3901.0 -0.9562091291840308 1
gene  1 21 38 0.7594441530063178 0 3905.0 0.7594441530063178 1
gene  1 23 38 0.4939092527163379 0 3907.0 0.4939092527163379 1
gene  1 24 38 -0.7337541710558617 0 3908.0 -0.7337541710558617 1
gene  1 25 38 -0.9951810890887738 0 3909.0 -0.9951810890887738 1
gene  1 26 38 0.5884027439341798 0 3910.0 0.5884027439341798 1
gene  1 28 38 -0.8767941745316802 0 3912.0 -0.8767941745316802 1
gene  1 31 38 -0.3619465640579964 0 3915.0 -0.3619465640579964 1
gene  1 32 38 -0.5528601578638536 0 3916.0 -0.5528601578638536 1
gene  1 33 38 0.48939561974279044 0 3917.0 0.48939561974279044 1
gene  1 37 38 0.04079492940706142 0 3921.0 0.04079492940706142 1
gene  1 2 39 0.47776561786122596 0 3991.0 0.47776561786122596 1
gene  1 3 39 -0.8633549831710128 0 3992.0 -0.8633549831710128 1
gene  1 4 39 0.8950343374522829 0 3993.0 0.8950343374522829 1
gene  1 11 39 -0.43831257097213994 0 4000.0 -0.43831257097213994 1
gene  1 13 39 0.36690084960665936 0 4002.0 0.36690084960665936 1
gene  1 14 39 0.20093365605242475 0 4003.0 0.20093365605242475 1
gene  1 16 39 0.30379194923348807 0 4005.0 0.30379194923348807 1
gene  1 17 39 -0.10123192100391798 0 4006.0 -0.10123192100391798 1
gene  1 21 39 0.6480579620585508 0 4010.0 0.6480579620585508 1
gene  1 26 39 -0.24878265175785852 0 4015.0 -0.24878265175785852 1
gene  1 27 39 -0.17455288203093333 0 4016.0 -0.17455288203093333 1
gene  1 28 39 -0.015364002012171696 0 4017.0 -0.015364002012171696 1
gene  1 32 39 -0.7274167409287263 0 4021.0 -0.7274167409287263 1
gene  1 34 39 -0.2837167551934806 0 4023.0 -0.2837167551934806 1
gene  1 35 39 0.5242292204256984 0 4024.0 0.5242292204256984 1
gene  1 38 39 -0.7141705536449685 0 4027.0 -0.7141705536449685 1
gene  1 1 40 -0.6127821335622208 0 4095.0 -0.6127821335622208 1
gene  1 2 40 -0.12184315433420012 0 4096.0 -0.12184315433420012 1
gene  1 4 40 0.10191648352250926 0 4098.0 0.10191648352250926 1
gene  1 5 40 -0.7868064522238226 0 4099.0 -0.7868064522238226 1
gene  1 6 40 -0.5937232347633363 0 4100.0 -0.5937232347633363 1
gene  1 10 40 0.7895197590185203 0 4104.0 0.7895197590185203 1
gene  1 14 40 0.25128560785410414 0 4108.0 0.25128560785410414 1
gene  1 15 40 0.7429711316243667 0 4109.0 0.7429711316243667 1
gene  1 19 40 0.4154896581102683 0 4113.0 0.4154896581102683 1
gene  1 20 40 0.47207109139406067 0 4114.0 0.47207109139406067 1
gene  1 21 40 -0.19901087929454753 0 4115.0 -0.19901087929454753 1
gene  1 22 40 -0.8180097322990033 0 4116.0 -0.8180097322990033 1
gene  1 27 40 -0.8558397851105429 0 4121.0 -0.8558397851105429 1
gene  1 28 40 -0.5013924784028448 0 4122.0 -0.5013924784028448 1
gene  1 35 40 0.8891779089794387 0 4129.0 0.8891779089794387 1
gene  1 38 40 0.4738424762053698 0 4132.0 0.4738424762053698 1
gene  1 3 41 0.4779635425948835 0 4202.0 0.4779635425948835 1
gene  1 4 41 0.5089190279851308 0 4203.0 0.5089190279851308 1
gene  1 5 41 -0.6618424784777202 0 4204.0 -0.6618424784777202 1
gene  1 6 41 -0.8016989646292667 0 4205.0 -0.8016989646292667 1
gene  1 10 41 -0.49915961164397915 0 4209.0 -0.49915961164397915 1
gene  1 15 41 0.662965208618662 0 4214.0 0.662965208618662 1
gene  1 17 41 -0.010133257264290485 0 4216.0 -0.010133257264290485 1
gene  1 19 41 -0.8677351167733388 0 4218.0 -0.8677351167733388 1
gene  1 20 41 0.4504347707199724 0 4219.0 0.4504347707199724 1
gene  1 21 41 -0.3840392306077903 0 4220.0 -0.3840392306077903 1
gene  1 22 41 0.47829790582782716 0 4221.0 0.47829790582782716 1
gene  1 26 41 -0.4782386457005552 0 4225.0 -0.4782386457005552 1
gene  1 27 41 0.6702085118156782 0 4226.0 0.6702085118156782 1
gene  1 29 41 -0.5776596007871109 0 4228.0 -0.5776596007871109 1
gene  1 32 41 -0.03854771417513059 0 4231.0 -0.03854771417513059 1
gene  1 35 41 0.4524752392579774 0 4234.0 0.4524752392579774 1
gene  1 36 41 -0.7861802199739025 0 4235.0 -0.7861802199739025 1
gene  1 37 41 -0.2150841427009098 0 4236.0 -0.2150841427009098 1
gene  1 38 41 0.23499909940733021 0 4237.0 0.23499909940733021 1
gene  1 1 42 -0.4628656961375329 0 4305.0 -0.4628656961375329 1
gene  1 2 42 0.6003757535025376 0 4306.0 0.6003757535025376 1
gene  1 3 42 0.7362090457382868 0 4307.0 0.7362090457382868 1
gene  1 5 42 0.15785554849593053 0 4309.0 0.15785554849593053 1
gene  1 6 42 -0.8780580177646483 0 4310.0 -0.8780580177646483 1
gene  1 7 42 -0.15753695333924134 0 4311.0 -0.15753695333924134 1
gene  1 8 42 0.9380941731229613 0 4312.0 0.9380941731229613 1
gene  1 10 42 -0.23150941758761345 0 4314.0 -0.23150941758761345 1
gene  1 11 42 0.9778878183713887 0 4315.0 0.9778878183713887 1
gene  1 13 42 0.9973278790034612 0 4317.0 0.9973278790034612 1
gene  1 15 42 0.6738745679493248 0 4319.0 0.6738745679493248 1
gene  1 17 42 0.6096342618020177 0 4321.0 0.6096342618020177 1
gene  1 18 42 -0.9129017050048827 0 4322.0 -0.9129017050048827 1
gene  1 20 42 0.46415679113950137 0 4324.0 0.46415679113950137 1
gene  1 22 42 0.23136257151986028 0 4326.0 0.23136257151986028 1
gene  1 23 42 -0.08362315959553579 0 4327.0 -0.08362315959553579 1
gene  1 24 42 -0.9771215675298919 0 4328.0 -0.9771215675298919 1
gene  1 25 42 -0.5694800539299766 0 4329.0 -0.5694800539299766 1
gene  1 28 42 -0.8339368795538642 0 4332.0 -0.8339368795538642 1
gene  1 29 42 0.16482207127179305 0 4333.0 0.16482207127179305 1
gene  1 31 42 -0.13249708872590837 0 4335.0 -0.13249708872590837 1
gene  1 35 42 0.9118643663874421 0 4339.0 0.9118643663874421 1
gene  1 38 42 0.4382368230806476 0 4342.0 0.4382368230806476 1
gene  1 39 42 0.9046970101689583 0 4343.0 0.9046970101689583 1
gene  1 41 42 0.3578519836951415 0 4345.0 0.3578519836951415 1
gene  1 3 43 0.9983139146165761 0 4412.0 0.9983139146165761 1
gene  1 6 43 0.2579905090840672 0 4415.0 0.2579905090840672 1
gene  1 7 43 -0.00102613837143406 0 4416.0 -0.00102613837143406 1
gene  1 8 43 0.7442691894955301 0 4417.0 0.7442691894955301 1
gene  1 11 43 0.46177055727604044 0 4420.0 0.46177055727604044 1
gene  1 12 43 0.0696368696334303 0 4421.0 0.0696368696334303 1
gene  1 13 43 -0.40495886667698233 0 4422.0 -0.40495886667698233 1
gene  1 14 43 0.38235340171835197 0 4423.0 0.38235340171835197 1
gene  1 16 43 -0.9164945726219202 0 4425.0 -0.9164945726219202 1
gene  1 17 43 0.9362617966188156 0 4426.0 0.9362617966188156 1
gene  1 20 43 0.5177513045314289 0 4429.0 0.5177513045314289 1
gene  1 21 43 -0.9036013021517934 0 4430.0 -0.9036013021517934 1
gene  1 22 43 -0.8643325545416873 0 4431.0 -0.8643325545416873 1
gene  1 24 43 0.0891402148446272 0 4433.0 0.0891402148446272 1
gene  1 28 43 -0.8434558508890118 0 4437.0 -0.8434558508890118 1
gene  1 30 43 0.07651938674073033 0 4439.0 0.07651938674073033 1
gene  1 35 43 -0.28665397011100924 0 4444.0 -0.28665397011100924 1
gene  1 36 43 -0.13261721842708307 0 4445.0 -0.13261721842708307 1
gene  1 37 43 0.762980924679706 0 4446.0 0.762980924679706 1
gene  1 42 43 -0.5058541192557848 0 4451.0 -0.5058541192557848 1
gene  1 1 44 0.5018408162482048 0 4515.0 0.5018408162482048 1
gene  1 2 44 0.7743048187275163 0 4516.0 0.7743048187275163 1
gene  1 4 44 -0.7057799266109366 0 4518.0 -0.7057799266109366 1
gene  1 5 44 -0.2374069705149886 0 4519.0 -0.2374069705149886 1
gene  1 8 44 0.006371416866770896 0 4522.0 0.006371416866770896 1
gene  1 9 44 0.9491242796937649 0 4523.0 0.9491242796937649 1
gene  1 12 44 -0.12989254822413332 0 4526.0 -0.12989254822413332 1
gene  1 16 44 -0.7878454352464144 0 4530.0 -0.7878454352464144 1
gene  1 18 44 -0.36535222022359914 0 4532.0 -0.36535222022359914 1
gene  1 19 44 0.5074705892822899 0 4533.0 0.5074705892822899 1
gene  1 22 44 0.2629362896351398 0 4536.0 0.2629362896351398 1
gene  1 23 44 0.7645085419135252 0 4537.0 0.7645085419135252 1
gene  1 29 44 -0.5892965175049647 0 4543.0 -0.5892965175049647 1
gene  1 34 44 -0.813972245752464 0 4548.0 -0.813972245752464 1
gene  1 39 44 0.8115929513859567 0 4553.0 0.8115929513859567 1
gene  1 41 44 0.13963896369968232 0 4555.0 0.13963896369968232 1
gene  1 43 44 0.6883775469058298 0 4557.0 0.6883775469058298 1
gene  1 1 45 -0.3776007716988731 0 4620.0 -0.3776007716988731 1
gene  1 2 45 0.7926955843969952 0 4621.0 0.7926955843969952 1
gene  1 6 45 0.33132226532140485 0 4625.0 0.33132226532140485 1
gene  1 7 45 0.3905233558450627 0 4626.0 0.3905233558450627 1
gene  1 8 45 -0.46425537311178755 0 4627.0 -0.46425537311178755 1
gene  1 11 45 0.17460888293700638 0 4630.0 0.17460888293700638 1
gene  1 12 45 0.3136232428744299 0 4631.0 0.3136232428744299 1
gene  1 14 45 0.049671055800571406 0 4633.0 0.049671055800571406 1
gene  1 17 45 -0.9717949327022571 0 4636.0 -0.9717949327022571 1
gene  1 18 45 -0.21449877420772556 0 4637.0 -0.21449877420772556 1
gene  1 20 45 -0.9343002083575948 0 4639.0 -0.9343002083575948 1
gene  1 21 45 0.05623957516466993 0 4640.0 0.05623957516466993 1
gene  1 24 45 0.35156682793121474 0 4643.0 0.35156682793121474 1
gene  1 25 45 0.7284708937129162 0 4644.0 0.7284708937129162 1
gene  1 27 45 0.7227449914014854 0 4646.0 0.7227449914014854 1
gene  1 28 45 -0.1412583007627376 0 4647.0 -0.1412583007627376 1
gene  1 32 45 -0.2009252412847976 0 4651.0 -0.2009252412847976 1
gene  1 33 45 -0.202458812704012 0 4652.0 -0.202458812704012 1
gene  1 35 45 0.5955104736920482 0 4654.0 0.5955104736920482 1
gene  1 37 45 0.6833371960270691 0 4656.0 0.6833371960270691 1
gene  1 41 45 -0.2235463219156566 0 4660.0 -0.2235463219156566 1
gene  1 44 45 -0.7290795669015026 0 4663.0 -0.7290795669015026 1
gene  1 1 46 0.7433933266658092 0 4725.0 0.7433933266658092 1
gene  1 4 46 0.8753779960818129 0 4728.0 0.8753779960818129 1
gene  1 7 46 0.43841857914606464 0 4731.0 0.43841857914606464 1
gene  1 9 46 0.4982303800495279 0 4733.0 0.4982303800495279 1
gene  1 11 46 -0.4533580967277141 0 4735.0 -0.4533580967277141 1
gene  1 12 46 0.5740865532470535 0 4736.0 0.5740865532470535 1
gene  1 18 46 -0.9284703972903287 0 4742.0 -0.9284703972903287 1
gene  1 19 46 -0.6576448609237344 0 4743.0 -0.6576448609237344 1
gene  1 21 46 0.8808148490657994 0 4745.0 0.8808148490657994 1
gene  1 23 46 -0.07530217858256916 0 4747.0 -0.07530217858256916 1
gene  1 24 46 0.6545265735846633 0 4748.0 0.6545265735846633 1
gene  1 28 46 -0.14649593619282486 0 4752.0 -0.14649593619282486 1
gene  1 31 46 0.6524668180026466 0 4755.0 0.6524668180026466 1
gene  1 33 46 0.4641390606285827 0 4757.0 0.4641390606285827 1
gene  1 35 46 0.2526689439094951 0 4759.0 0.2526689439094951 1
gene  1 36 46 0.8648410287052114 0 4760.0 0.8648410287052114 1
gene  1 37 46 0.3160717456781251 0 4761.0 0.3160717456781251 1
gene  1 39 46 -0.6600388822635066 0 4763.0 -0.6600388822635066 1
gene  1 41 46 0.6004968678867391 0 4765.0 0.6004968678867391 1
gene  1 42 46 -0.7205418789263747 0 4766.0 -0.7205418789263747 1
gene  1 3 47 -0.8393320034890481 0 4832.0 -0.8393320034890481 1
gene  1 5 47 0.6890378366074157 0 4834.0 0.6890378366074157 1
gene  1 6 47 0.8319975701495568 0 4835.0 0.8319975701495568 1
gene  1 8 47 -0.5614208518137379 0 4837.0 -0.5614208518137379 1
gene  1 10 47 0.7334384889216274 0 4839.0 0.7334384889216274 1
gene  1 11 47 0.9917093707985346 0 4840.0 0.9917093707985346 1
gene  1 16 47 0.4378783872643922 0 4845.0 0.4378783872643922 1
gene  1 17 47 -0.29387610387013874 0 4846.0 -0.29387610387013874 1
gene  1 22 47 0.684612566814132 0 4851.0 0.684612566814132 1
gene  1 25 47 0.9350798853450499 0 4854.0 0.9350798853450499 1
gene  1 26 47 0.8787900587193795 0 4855.0 0.8787900587193795 1
gene  1 27 47 0.07188479819703353 0 4856.0 0.07188479819703353 1
gene  1 28 47 -0.42576483660025977 0 4857.0 -0.42576483660025977 1
gene  1 36 47 -0.9069323384876221 0 4865.0 -0.9069323384876221 1
gene  1 37 47 -0.5177643748752302 0 4866.0 -0.5177643748752302 1
gene  1 39 47 -0.946064379157382 0 4868.0 -0.946064379157382 1
gene  1 41 47 -0.6859374153544221 0 4870.0 -0.6859374153544221 1
gene  1 43 47 -0.9947874250832982 0 4872.0 -0.9947874250832982 1
gene  1 3 48 0.6346610905046741 0 4937.0 0.6346610905046741 1
gene  1 4 48 -0.8469019561986468 0 4938.0 -0.8469019561986468 1
gene  1 7 48 -0.49271640612521206 0 4941.0 -0.49271640612521206 1
gene  1 8 48 0.8998353702680663 0 4942.0 0.8998353702680663 1
gene  1 10 48 -0.2930966864776686 0 4944.0 -0.2930966864776686 1
gene  1 11 48 0.9669394427687295 0 4945.0 0.9669394427687295 1
gene  1 12 48 0.5568604273173821 0 4946.0 0.5568604273173821 1
gene  1 14 48 -0.31541004235598147 0 4948.0 -0.31541004235598147 1
gene  1 15 48 -0.09722403183962913 0 4949.0 -0.09722403183962913 1
gene  1 19 48 0.15303148175843118 0 4953.0 0.15303148175843118 1
gene  1 20 48 0.4829362218461777 0 4954.0 0.4829362218461777 1
gene  1 21 48 -0.9643542188693672 0 4955.0 -0.9643542188693672 1
gene  1 24 48 0.594225657833468 0 4958.0 0.594225657833468 1
gene  1 26 48 0.6430637541543196 0 4960.0 0.6430637541543196 1
gene  1 27 48 0.7781048553339973 0 4961.0 0.7781048553339973 1
gene  1 28 48 0.09079301601789724 0 4962.0 0.09079301601789724 1
gene  1 29 48 -0.6752347886966219 0 4963.0 -0.6752347886966219 1
gene  1 31 48 0.6248946579259327 0 4965.0 0.6248946579259327 1
gene  1 33 48 0.08605385345858085 0 4967.0 0.08605385345858085 1
gene  1 37 48 -0.7372681649259435 0 4971.0 -0.7372681649259435 1
gene  1 40 48 0.7137399781176935 0 4974.0 0.7137399781176935 1
gene  1 41 48 -0.5738026405674539 0 4975.0 -0.5738026405674539 1
gene  1 43 48 0.37649660709740507 0 4977.0 0.37649660709740507 1
gene  1 45 48 -0.2026121275261381 0 4979.0 -0.2026121275261381 1
gene  1 46 48 0.0018669738261624103 0 4980.0 0.0018669738261624103 1
gene  1 3 49 -0.9752992063853048 0 5042.0 -0.9752992063853048 1
gene  1 5 49 0.4541015703801956 0 5044.0 0.4541015703801956 1
gene  1 6 49 -0.8109600445560038 0 5045.0 -0.8109600445560038 1
gene  1 8 49 0.9311510262844253 0 5047.0 0.9311510262844253 1
gene  1 10 49 -0.8715920483305084 0 5049.0 -0.8715920483305084 1
gene  1 12 49 0.7049932737775877 0 5051.0 0.7049932737775877 1
gene  1 14 49 -0.4663882603383598 0 5053.0 -0.4663882603383598 1
gene  1 16 49 0.1797700523870689 0 5055.0 0.1797700523870689 1
gene  1 17 49 0.11291923941122128 0 5056.0 0.11291923941122128 1
gene  1 21 49 -0.4242795255220606 0 5060.0 -0.4242795255220606 1
gene  1 22 49 0.406177690200226 0 5061.0 0.406177690200226 1
gene  1 24 49 -0.2613368900291486 0 5063.0 -0.2613368900291486 1
gene  1 25 49 -0.35196079789680945 0 5064.0 -0.35196079789680945 1
gene  1 27 49 -0.9239737014482338 0 5066.0 -0.9239737014482338 1
gene  1 29 49 0.38086008518793224 0 5068.0 0.38086008518793224 1
gene  1 30 49 -0.24425642164565797 0 5069.0 -0.24425642164565797 1
gene  1 33 49 0.7149855716979471 0 5072.0 0.7149855716979471 1
gene  1 34 49 0.32614493316021176 0 5073.0 0.32614493316021176 1
gene  1 36 49 0.010113334186599432 0 5075.0 0.010113334186599432 1
gene  1 38 49 -0.33272144758130706 0 5077.0 -0.33272144758130706 1
gene  1 40 49 0.913594412414994 0 5079.0 0.913594412414994 1
gene  1 44 49 0.029460778236174434 0 5083.0 0.029460778236174434 1
gene  1 45 49 0.9162063146597853 0 5084.0 0.9162063146597853 1
gene  1 46 49 -0.6124096387117732 0 5085.0 -0.6124096387117732 1
gene  1 47 49 -0.9440428890955815 0 5086.0 -0.9440428890955815 1
gene  1 1 50 0.18618304280935138 0 5145.0 0.18618304280935138 1
gene  1 2 50 -0.09390569229237322 0 5146.0 -0.09390569229237322 1
gene  1 3 50 0.39198409180295046 0 5147.0 0.39198409180295046 1
gene  1 4 50 -0.7472040818766914 0 5148.0 -0.7472040818766914 1
gene  1 5 50 -0.6382078211370239 0 5149.0 -0.6382078211370239 1
gene  1 6 50 -0.8072740258065132 0 5150.0 -0.8072740258065132 1
gene  1 9 50 0.7361003627168651 0 5153.0 0.7361003627168651 1
gene  1 10 50 0.48318164608233694 0 5154.0 0.48318164608233694 1
gene  1 11 50 0.9913504937118061 0 5155.0 0.9913504937118061 1
gene  1 12 50 -0.6262094484811145 0 5156.0 -0.6262094484811145 1
gene  1 13 50 0.49166600336870236 0 5157.0 0.49166600336870236 1
gene  1 14 50 0.7941903027469681 0 5158.0 0.7941903027469681 1
gene  1 15 50 -0.32258670004905055 0 5159.0 -0.32258670004905055 1
gene  1 16 50 -0.3423828321344079 0 5160.0 -0.3423828321344079 1
gene  1 21 50 0.09584279431886678 0 5165.0 0.09584279431886678 1
gene  1 22 50 0.3932543106599289 0 5166.0 0.3932543106599289 1
gene  1 23 50 -0.24056439258730167 0 5167.0 -0.24056439258730167 1
gene  1 25 50 -0.7957653045376287 0 5169.0 -0.7957653045376287 1
gene  1 28 50 0.9453592457514592 0 5172.0 0.9453592457514592 1
gene  1 29 50 -0.0020682824024124136 0 5173.0 -0.0020682824024124136 1
gene  1 32 50 -0.0899739603864318 0 5176.0 -0.0899739603864318 1
gene  1 33 50 0.7564389779672007 0 5177.0 0.7564389779672007 1
gene  1 34 50 0.060119138080158674 0 5178.0 0.060119138080158674 1
gene  1 35 50 0.4684369194203537 0 5179.0 0.4684369194203537 1
gene  1 38 50 0.2992433396528358 0 5182.0 0.2992433396528358 1
gene  1 39 50 -0.14594299388942722 0 5183.0 -0.14594299388942722 1
gene  1 42 50 0.13223570206401303 0 5186.0 0.13223570206401303 1
gene  1 43 50 -0.39334781696114773 0 5187.0 -0.39334781696114773 1
gene  1 47 50 0.6218386416604414 0 5191.0 0.6218386416604414 1
gene  1 49 50 -0.04900783489174543 0 5193.0 -0.04900783489174543 1
gene  1 3 51 -0.9912449831722184 0 5252.0 -0.9912449831722184 1
gene  1 4 51 0.7830986812615441 0 5253.0 0.7830986812615441 1
gene  1 5 51 0.07688941109981096 0 5254.0 0.07688941109981096 1
gene  1 7 51 -0.20801879342085094 0 5256.0 -0.20801879342085094 1
gene  1 9 51 -0.698491841840786 0 5258.0 -0.698491841840786 1
gene  1 10 51 0.7780375568564744 0 5259.0 0.7780375568564744 1
gene  1 11 51 -0.126993340348731 0 5260.0 -0.126993340348731 1
gene  1 13 51 -0.3536567288210578 0 5262.0 -0.3536567288210578 1
gene  1 15 51 0.3040441075834275 0 5264.0 0.3040441075834275 1
gene  1 17 51 -0.9832938156674 0 5266.0 -0.9832938156674 1
gene  1 19 51 -0.271333028626214 0 5268.0 -0.271333028626214 1
gene  1 24 51 -0.6974879813456042 0 5273.0 -0.6974879813456042 1
gene  1 27 51 0.13785766528902477 0 5276.0 0.13785766528902477 1
gene  1 28 51 -0.09716980378153306 0 5277.0 -0.09716980378153306 1
gene  1 29 51 0.12147840571448443 0 5278.0 0.12147840571448443 1
gene  1 30 51 -0.8842946629432532 0 5279.0 -0.8842946629432532 1
gene  1 32 51 0.9775463005857086 0 5281.0 0.9775463005857086 1
gene  1 33 51 -0.5802913925504855 0 5282.0 -0.5802913925504855 1
gene  1 38 51 -0.8656450377127108 0 5287.0 -0.8656450377127108 1
gene  1 40 51 0.4090021133621957 0 5289.0 0.4090021133621957 1
gene  1 43 51 -0.6366363387040628 0 5292.0 -0.6366363387040628 1
gene  1 44 51 -0.8857186063231856 0 5293.0 -0.8857186063231856 1
gene  1 45 51 0.12430612434371358 0 5294.0 0.12430612434371358 1
gene  1 50 51 -0.9773991955939446 0 5299.0 -0.9773991955939446 1
gene  1 2 52 0.28261685938954695 0 5356.0 0.28261685938954695 1
gene  1 3 52 0.05141058087746542 0 5357.0 0.05141058087746542 1
gene  1 4 52 0.7248538748354599 0 5358.0 0.7248538748354599 1
gene  1 6 52 -0.1105592842469173 0 5360.0 -0.1105592842469173 1
gene  1 9 52 -0.9408130840580009 0 5363.0 -0.9408130840580009 1
gene  1 11 52 0.18801059698251643 0 5365.0 0.18801059698251643 1
gene  1 12 52 -0.15380026366789956 0 5366.0 -0.15380026366789956 1
gene  1 14 52 -0.8359349581095332 0 5368.0 -0.8359349581095332 1
gene  1 16 52 0.21987244706327802 0 5370.0 0.21987244706327802 1
gene  1 20 52 0.9450298613151508 0 5374.0 0.9450298613151508 1
gene  1 23 52 0.01948783692318312 0 5377.0 0.01948783692318312 1
gene  1 25 52 -0.9963655091587953 0 5379.0 -0.9963655091587953 1
gene  1 26 52 0.8435910531081818 0 5380.0 0.8435910531081818 1
gene  1 27 52 -0.4472045615330339 0 5381.0 -0.4472045615330339 1
gene  1 31 52 0.02352381382854396 0 5385.0 0.02352381382854396 1
gene  1 33 52 0.26143228112916783 0 5387.0 0.26143228112916783 1
gene  1 34 52 -0.36243255612088365 0 5388.0 -0.36243255612088365 1
gene  1 36 52 -0.42199136600095655 0 5390.0 -0.42199136600095655 1
gene  1 37 52 -0.8015954092657436 0 5391.0 -0.8015954092657436 1
gene  1 39 52 0.6103240776128537 0 5393.0 0.6103240776128537 1
gene  1 42 52 -0.701282880695779 0 5396.0 -0.701282880695779 1
gene  1 45 52 0.4226419739818571 0 5399.0 0.4226419739818571 1
gene  1 47 52 0.7697956512337475 0 5401.0 0.7697956512337475 1
gene  1 48 52 0.9351085558464685 0 5402.0 0.9351085558464685 1
gene  1 50 52 -0.4670015431984581 0 5404.0 -0.4670015431984581 1
gene  1 51 52 0.7447215231398038 0 5405.0 0.7447215231398038 1
gene  1 2 53 0.376279943533658 0 5461.0 0.376279943533658 1
gene  1 3 53 0.5983982166009727 0 5462.0 0.5983982166009727 1
gene  1 4 53 -0.1638065568961974 0 5463.0 -0.1638065568961974 1
gene  1 5 53 0.0648478290644916 0 5464.0 0.0648478290644916 1
gene  1 6 53 0.09455466921754518 0 5465.0 0.09455466921754518 1
gene  1 7 53 0.6770788572347441 0 5466.0 0.6770788572347441 1
gene  1 10 53 0.35447141601292054 0 5469.0 0.35447141601292054 1
gene  1 11 53 -0.14824219339545663 0 5470.0 -0.14824219339545663 1
gene  1 12 53 0.14791696213675543 0 5471.0 0.14791696213675543 1
gene  1 15 53 0.18813246564529373 0 5474.0 0.18813246564529373 1
gene  1 17 53 -0.05310482246953896 0 5476.0 -0.05310482246953896 1
gene  1 19 53 0.49768725617972054 0 5478.0 0.49768725617972054 1
gene  1 20 53 -0.47783781545083526 0 5479.0 -0.47783781545083526 1
gene  1 21 53 -0.5746167592405952 0 5480.0 -0.5746167592405952 1
gene  1 27 53 0.16768094978089032 0 5486.0 0.16768094978089032 1
gene  1 29 53 -0.29384728847273767 0 5488.0 -0.29384728847273767 1
gene  1 31 53 0.3751058449573671 0 5490.0 0.3751058449573671 1
gene  1 32 53 0.9274066566113269 0 5491.0 0.9274066566113269 1
gene  1 34 53 0.0386273888563472 0 5493.0 0.0386273888563472 1
gene  1 35 53 0.8206600940737719 0 5494.0 0.8206600940737719 1
gene  1 38 53 -0.603395995133508 0 5497.0 -0.603395995133508 1
gene  1 39 53 0.926089672343198 0 5498.0 0.926089672343198 1
gene  1 41 53 -0.1891617798314188 0 5500.0 -0.1891617798314188 1
gene  1 43 53 0.11657141030790075 0 5502.0 0.11657141030790075 1
gene  1 44 53 0.7420402155508953 0 5503.0 0.7420402155508953 1
gene  1 47 53 -0.9420352718399451 0 5506.0 -0.9420352718399451 1
gene  1 48 53 0.44358580684088234 0 5507.0 0.44358580684088234 1
gene  1 49 53 0.3515421887612018 0 5508.0 0.3515421887612018 1
gene  1 50 53 -0.9489801654160365 0 5509.0 -0.9489801654160365 1
gene  1 51 53 0.5966080692157595 0 5510.0 0.5966080692157595 1
gene  1 52 53 -0.945647724540828 0 5511.0 -0.945647724540828 1
gene  1 2 54 -0.331678984269824 0 5566.0 -0.331678984269824 1
gene  1 3 54 -0.8463639249874938 0 5567.0 -0.8463639249874938 1
gene  1 5 54 -0.7931145385036786 0 5569.0 -0.7931145385036786 1
gene  1 7 54 -0.16901086289162415 0 5571.0 -0.16901086289162415 1
gene  1 8 54 -0.1805587226296358 0 5572.0 -0.1805587226296358 1
gene  1 10 54 -0.8195870737927584 0 5574.0 -0.8195870737927584 1
gene  1 11 54 0.6245909241124618 0 5575.0 0.6245909241124618 1
gene  1 13 54 -0.3388187395734621 0 5577.0 -0.3388187395734621 1
gene  1 14 54 0.16325366844561995 0 5578.0 0.16325366844561995 1
gene  1 16 54 0.6147131011884044 0 5580.0 0.6147131011884044 1
gene  1 17 54 0.9300584298382082 0 5581.0 0.9300584298382082 1
gene  1 18 54 0.344713071772477 0 5582.0 0.344713071772477 1
gene  1 22 54 -0.5020013904166568 0 5586.0 -0.5020013904166568 1
gene  1 23 54 -0.7474623506629873 0 5587.0 -0.7474623506629873 1
gene  1 25 54 0.755364793067305 0 5589.0 0.755364793067305 1
gene  1 26 54 -0.023196261280940544 0 5590.0 -0.023196261280940544 1
gene  1 29 54 -0.9995694273127708 0 5593.0 -0.9995694273127708 1
gene  1 31 54 0.28702635436045043 0 5595.0 0.28702635436045043 1
gene  1 37 54 0.7440535450038932 0 5601.0 0.7440535450038932 1
gene  1 38 54 -0.9070666085775067 0 5602.0 -0.9070666085775067 1
gene  1 40 54 -0.12767800579292732 0 5604.0 -0.12767800579292732 1
gene  1 41 54 -0.046916623358477794 0 5605.0 -0.046916623358477794 1
gene  1 42 54 0.008577211519412042 0 5606.0 0.008577211519412042 1
gene  1 47 54 -0.20230198087247586 0 5611.0 -0.20230198087247586 1
gene  1 48 54 0.6652760552464816 0 5612.0 0.6652760552464816 1
gene  1 49 54 0.9593392709925459 0 5613.0 0.9593392709925459 1
gene  1 50 54 0.32920250796310546 0 5614.0 0.32920250796310546 1
gene  1 52 54 0.8631080435453226 0 5616.0 0.8631080435453226 1
gene  1 2 55 -0.8688091671594597 0 5671.0 -0.8688091671594597 1
gene  1 3 55 0.3950173945413308 0 5672.0 0.3950173945413308 1
gene  1 4 55 0.410619553211776 0 5673.0 0.410619553211776 1
gene  1 6 55 0.43313736122460245 0 5675.0 0.43313736122460245 1
gene  1 7 55 0.829534121753413 0 5676.0 0.829534121753413 1
gene  1 8 55 0.74216131950045 0 5677.0 0.74216131950045 1
gene  1 11 55 0.25491379694053373 0 5680.0 0.25491379694053373 1
gene  1 12 55 0.5287607074381625 0 5681.0 0.5287607074381625 1
gene  1 14 55 -0.09896413834064821 0 5683.0 -0.09896413834064821 1
gene  1 17 55 0.6109782445895429 0 5686.0 0.6109782445895429 1
gene  1 21 55 -0.6414186741298332 0 5690.0 -0.6414186741298332 1
gene  1 24 55 -0.9167367480723436 0 5693.0 -0.9167367480723436 1
gene  1 25 55 0.7420849018755173 0 5694.0 0.7420849018755173 1
gene  1 27 55 0.3776664337400718 0 5696.0 0.3776664337400718 1
gene  1 28 55 -0.943135933910519 0 5697.0 -0.943135933910519 1
gene  1 29 55 -0.5260667021807612 0 5698.0 -0.5260667021807612 1
gene  1 30 55 -0.7803533093321516 0 5699.0 -0.7803533093321516 1
gene  1 31 55 -0.32757386932706845 0 5700.0 -0.32757386932706845 1
gene  1 34 55 -0.5568702002247687 0 5703.0 -0.5568702002247687 1
gene  1 35 55 0.10899185764689201 0 5704.0 0.10899185764689201 1
gene  1 36 55 -0.00584320463161947 0 5705.0 -0.00584320463161947 1
gene  1 38 55 0.6638112120288039 0 5707.0 0.6638112120288039 1
gene  1 39 55 0.6278221220468488 0 5708.0 0.6278221220468488 1
gene  1 41 55 0.7901281131827974 0 5710.0 0.7901281131827974 1
gene  1 42 55 -0.5492726499457318 0 5711.0 -0.5492726499457318 1
gene  1 43 55 0.987167769872285 0 5712.0 0.987167769872285 1
gene  1 45 55 -0.35385105544808626 0 5714.0 -0.35385105544808626 1
gene  1 46 55 -0.3111412337134224 0 5715.0 -0.3111412337134224 1
gene  1 47 55 0.4549524225494892 0 5716.0 0.4549524225494892 1
gene  1 49 55 0.25712771838485493 0 5718.0 0.25712771838485493 1
gene  1 52 55 0.35155090702478553 0 5721.0 0.35155090702478553 1
gene  1 53 55 -0.271029990658777 0 5722.0 -0.271029990658777 1
gene  1 54 55 -0.11372076283814903 0 5723.0 -0.11372076283814903 1
gene  1 1 56 -0.5529470290140582 0 5775.0 -0.5529470290140582 1
gene  1 2 56 -0.5441622042089781 0 5776.0 -0.5441622042089781 1
gene  1 5 56 0.19326296166109735 0 5779.0 0.19326296166109735 1
gene  1 6 56 0.4113422668396898 0 5780.0 0.4113422668396898 1
gene  1 7 56 0.36832039044550535 0 5781.0 0.36832039044550535 1
gene  1 8 56 -0.025517705761658127 0 5782.0 -0.025517705761658127 1
gene  1 9 56 0.4193371670784023 0 5783.0 0.4193371670784023 1
gene  1 11 56 -0.21718692094200642 0 5785.0 -0.21718692094200642 1
gene  1 13 56 -0.5027164175466918 0 5787.0 -0.5027164175466918 1
gene  1 14 56 0.8969174011727259 0 5788.0 0.8969174011727259 1
gene  1 15 56 0.9668048452879644 0 5789.0 0.9668048452879644 1
gene  1 23 56 -0.6406817325685261 0 5797.0 -0.6406817325685261 1
gene  1 24 56 -0.5259294688286339 0 5798.0 -0.5259294688286339 1
gene  1 25 56 -0.24415060188279858 0 5799.0 -0.24415060188279858 1
gene  1 27 56 -0.9158282746865757 0 5801.0 -0.9158282746865757 1
gene  1 28 56 -0.7673338607452023 0 5802.0 -0.7673338607452023 1
gene  1 29 56 -0.0681122234155449 0 5803.0 -0.0681122234155449 1
gene  1 32 56 0.09580688700404227 0 5806.0 0.09580688700404227 1
gene  1 35 56 -0.15363109842746447 0 5809.0 -0.15363109842746447 1
gene  1 36 56 -0.2202211575685623 0 5810.0 -0.2202211575685623 1
gene  1 37 56 -0.9632064718426542 0 5811.0 -0.9632064718426542 1
gene  1 39 56 -0.3043932006247051 0 5813.0 -0.3043932006247051 1
gene  1 40 56 0.44694977004069736 0 5814.0 0.44694977004069736 1
gene  1 42 56 0.41677679105815224 0 5816.0 0.41677679105815224 1
gene  1 45 56 -0.2963531366232258 0 5819.0 -0.2963531366232258 1
gene  1 48 56 -0.038330121810761786 0 5822.0 -0.038330121810761786 1
gene  1 50 56 0.599260375336265 0 5824.0 0.599260375336265 1
gene  1 51 56 -0.26636878125809327 0 5825.0 -0.26636878125809327 1
gene  1 53 56 0.2819794000387503 0 5827.0 0.2819794000387503 1
gene  1 55 56 -0.7322364941534707 0 5829.0 -0.7322364941534707 1
gene  1 1 57 0.6370434462642138 0 5880.0 0.6370434462642138 1
gene  1 2 57 -0.9153858051320947 0 5881.0 -0.9153858051320947 1
gene  1 3 57 0.34465471069143794 0 5882.0 0.34465471069143794 1
gene  1 4 57 -0.47850453202733023 0 5883.0 -0.47850453202733023 1
gene  1 7 57 -0.5469146491483469 0 5886.0 -0.5469146491483469 1
gene  1 13 57 -0.04894897502561557 0 5892.0 -0.04894897502561557 1
gene  1 16 57 -0.8646689215194764 0 5895.0 -0.8646689215194764 1
gene  1 18 57 -0.5653703580639775 0 5897.0 -0.5653703580639775 1
gene  1 19 57 0.526721372796816 0 5898.0 0.526721372796816 1
gene  1 21 57 0.9295157665902695 0 5900.0 0.9295157665902695 1
gene  1 23 57 -0.469190216165138 0 5902.0 -0.469190216165138 1
gene  1 24 57 0.08272236144480727 0 5903.0 0.08272236144480727 1
gene  1 25 57 -0.22669441598233386 0 5904.0 -0.22669441598233386 1
gene  1 28 57 -0.44194042520325916 0 5907.0 -0.44194042520325916 1
gene  1 34 57 0.04174897465224381 0 5913.0 0.04174897465224381 1
gene  1 36 57 0.680864643424706 0 5915.0 0.680864643424706 1
gene  1 38 57 0.2338323127228219 0 5917.0 0.2338323127228219 1
gene  1 44 57 -0.7432944056997413 0 5923.0 -0.7432944056997413 1
gene  1 45 57 -0.44098958681099387 0 5924.0 -0.44098958681099387 1
gene  1 47 57 -0.9303410546322388 0 5926.0 -0.9303410546322388 1
gene  1 48 57 -0.5206406586891329 0 5927.0 -0.5206406586891329 1
gene  1 49 57 -0.9270947016366704 0 5928.0 -0.9270947016366704 1
gene  1 50 57 -0.2768284736754003 0 5929.0 -0.2768284736754003 1
gene  1 52 57 -0.5905790116792075 0 5931.0 -0.5905790116792075 1
gene  1 53 57 0.6492839210184346 0 5932.0 0.6492839210184346 1
gene  1 54 57 0.3205756928358332 0 5933.0 0.3205756928358332 1
gene  1 55 57 0.6104257754004503 0 5934.0 0.6104257754004503 1
gene  1 1 58 -0.04625709663200539 0 5985.0 -0.04625709663200539 1
gene  1 3 58 -0.8396393047507319 0 5987.0 -0.8396393047507319 1
gene  1 4 58 -0.4771869321093647 0 5988.0 -0.4771869321093647 1
gene  1 5 58 -0.605163371192638 0 5989.0 -0.605163371192638 1
gene  1 6 58 0.35453933928164294 0 5990.0 0.35453933928164294 1
gene  1 9 58 0.20455543817689403 0 5993.0 0.20455543817689403 1
gene  1 11 58 -0.6133923403350808 0 5995.0 -0.6133923403350808 1
gene  1 12 58 0.5499451369533357 0 5996.0 0.5499451369533357 1
gene  1 13 58 -0.7021269344970185 0 5997.0 -0.7021269344970185 1
gene  1 16 58 0.39206924456407677 0 6000.0 0.39206924456407677 1
gene  1 18 58 0.5997514704551378 0 6002.0 0.5997514704551378 1
gene  1 20 58 0.25379123300732964 0 6004.0 0.25379123300732964 1
gene  1 23 58 -0.583807872322021 0 6007.0 -0.583807872322021 1
gene  1 27 58 0.9010561775492079 0 6011.0 0.9010561775492079 1
gene  1 30 58 -0.753717598424328 0 6014.0 -0.753717598424328 1
gene  1 31 58 0.13145688846351877 0 6015.0 0.13145688846351877 1
gene  1 34 58 -0.9660630338888471 0 6018.0 -0.9660630338888471 1
gene  1 36 58 0.5367906968942098 0 6020.0 0.5367906968942098 1
gene  1 37 58 -0.6200079991100265 0 6021.0 -0.6200079991100265 1
gene  1 38 58 -0.7826132532160718 0 6022.0 -0.7826132532160718 1
gene  1 45 58 0.9194133402090866 0 6029.0 0.9194133402090866 1
gene  1 49 58 -0.9135546841854184 0 6033.0 -0.9135546841854184 1
gene  1 52 58 -0.8600732794250492 0 6036.0 -0.8600732794250492 1
gene  1 54 58 0.040304139468748 0 6038.0 0.040304139468748 1
gene  1 55 58 -0.31754704077662865 0 6039.0 -0.31754704077662865 1
gene  1 2 105 -0.8945151189258983 0 10921.0 -0.8945151189258983 1
gene  1 3 105 0.9232838241333732 0 10922.0 0.9232838241333732 1
gene  1 5 105 -0.21563145977415143 0 10924.0 -0.21563145977415143 1
gene  1 9 105 -0.8826961205391436 0 10928.0 -0.8826961205391436 1
gene  1 11 105 -0.17072467038392847 0 10930.0 -0.17072467038392847 1
gene  1 12 105 0.6289975113121097 0 10931.0 0.6289975113121097 1
gene  1 19 105 -0.0919970715890589 0 10938.0 -0.0919970715890589 1
gene  1 21 105 -0.07496582659831896 0 10940.0 -0.07496582659831896 1
gene  1 24 105 -0.34179432674527366 0 10943.0 -0.34179432674527366 1
gene  1 26 105 0.36259083662690017 0 10945.0 0.36259083662690017 1
gene  1 27 105 0.4801817775683349 0 10946.0 0.4801817775683349 1
gene  1 30 105 0.5949629700408615 0 10949.0 0.5949629700408615 1
gene  1 31 105 0.3754234451999676 0 10950.0 0.3754234451999676 1
gene  1 33 105 -0.6636120869549618 0 10952.0 -0.6636120869549618 1
gene  1 35 105 -0.30089615173170015 0 10954.0 -0.30089615173170015 1
gene  1 36 105 0.9075906252253506 0 10955.0 0.9075906252253506 1
gene  1 39 105 0.9308105329929818 0 10958.0 0.9308105329929818 1
gene  1 42 105 -0.36611639276343644 0 10961.0 -0.36611639276343644 1
gene  1 43 105 -0.03938623995410784 0 10962.0 -0.03938623995410784 1
gene  1 44 105 -0.5606344280424832 0 10963.0 -0.5606344280424832 1
gene  1 45 105 -0.9556391297297251 0 10964.0 -0.9556391297297251 1
gene  1 47 105 0.6175059754285339 0 10966.0 0.6175059754285339 1
gene  1 51 105 -0.45179193881261115 0 10970.0 -0.45179193881261115 1
gene  1 52 105 -0.8219835233313011 0 10971.0 -0.8219835233313011 1
gene  1 54 105 0.16584576274867047 0 10973.0 0.16584576274867047 1
gene  1 56 105 0.45223917063413854 0 10975.0 0.45223917063413854 1
genomeend 55
