genomestart  0
trait 1 0.0 0.0 0.0 0.0 0.0 0.0 0.0 0.0 0.0 0.0 0.0 0.0 0.0 0.0 0.0 0.0 0.0 0.0 0.0 0.0 
node 1 1 1 1
node 2 1 1 1
node 3 1 1 1
node 4 1 1 3
node 5 1 0 0
node 6 1 0 0
node 7 1 0 0
node 8 1 0 0
node 9 1 0 0
node 10 1 0 0
node 11 1 0 0
node 12 1 0 0
node 13 1 0 0
node 14 1 0 0
node 15 1 0 0
node 16 1 0 0
node 17 1 0 0
node 18 1 0 0
node 19 1 0 0
node 20 1 0 0
node 21 1 0 0
node 22 1 0 0
node 23 1 0 0
node 24 1 0 0
node 25 1 0 0
node 26 1 0 0
node 27 1 0 0
node 28 1 0 0
node 29 1 0 0
node 30 1 0 0
node 31 1 0 0
node 32 1 0 0
node 33 1 0 0
node 34 1 0 0
node 35 1 0 0
node 36 1 0 0
node 37 1 0 0
node 38 1 0 0
node 39 1 0 0
node 40 1 0 0
node 41 1 0 0
node 42 1 0 0
node 43 1 0 0
node 44 1 0 0
node 45 1 0 0
node 46 1 0 0
node 47 1 0 0
node 48 1 0 0
node 49 1 0 0
node 50 1 0 0
node 51 1 0 0
node 52 1 0 0
node 53 1 0 0
node 54 1 0 0
node 55 1 0 0
node 56 1 0 0
node 57 1 0 0
node 105 1 0 2
gene  1 4 5 0.7396959218133562 0 423.0 0.7396959218133562 1
gene  1 2 6 0.10017561332217695 0 526.0 0.10017561332217695 1
gene  1 3 6 -0.367091252245232 0 527.0 -0.367091252245232 1
gene  1 4 6 -0.8514721648838783 0 528.0 -0.8514721648838783 1
gene  1 5 6 0.35365464448328454 0 529.0 0.35365464448328454 1
gene  1 1 7 0.07554519520179204 0 630.0 0.07554519520179204 1
gene  1 4 7 0.1507211475825928 0 633.0 0.1507211475825928 1
gene  1 5 7 -0.653752085942196 0 634.0 -0.653752085942196 1
gene  1 1 8 0.2716583239452538 0 735.0 0.2716583239452538 1
gene  1 3 8 -0.18111691342667247 0 737.0 -0.18111691342667247 1
gene  1 4 8 -0.4817112923892436 0 738.0 -0.4817112923892436 1
gene  1 5 8 0.5058630944966742 0 739.0 0.5058630944966742 1
gene  1 2 9 0.6057493183523974 0 841.0 0.6057493183523974 1
gene  1 3 9 -0.44352040473728704 0 842.0 -0.44352040473728704 1
gene  1 5 9 -0.5696292812199275 0 844.0 -0.5696292812199275 1
gene  1 6 9 -0.2694534853776238 0 845.0 -0.2694534853776238 1
gene  1 3 10 -0.4259714170695106 0 947.0 -0.4259714170695106 1
gene  1 4 10 0.09234742506538518 0 948.0 0.09234742506538518 1
gene  1 5 10 -0.4253503845503309 0 949.0 -0.4253503845503309 1
gene  1 6 10 0.4205909286648697 0 950.0 0.4205909286648697 1
gene  1 8 10 0.2945750645933487 0 952.0 0.2945750645933487 1
gene  1 9 10 -0.17858079861198572 0 953.0 -0.17858079861198572 1
gene  1 1 11 0.8366621271181407 0 1050.0 0.8366621271181407 1
gene  1 5 11 0.7504593965818164 0 1054.0 0.7504593965818164 1
gene  1 9 11 0.7557239592638628 0 1058.0 0.7557239592638628 1
gene  1 1 12 -0.1454148697037384 0 1155.0 -0.1454148697037384 1
gene  1 2 12 -0.43822486487434187 0 1156.0 -0.43822486487434187 1
gene  1 4 12 0.25457090121566583 0 1158.0 0.25457090121566583 1
gene  1 5 12 -0.24713478432279057 0 1159.0 -0.24713478432279057 1
gene  1 7 12 0.9051855117666258 0 1161.0 0.9051855117666258 1
gene  1 9 12 0.3135062459474979 0 1163.0 0.3135062459474979 1
gene  1 11 12 0.011709984243283622 0 1165.0 0.011709984243283622 1
gene  1 4 13 -0.4518731938263796 0 1263.0 -0.4518731938263796 1
gene  1 5 13 -0.07316306585385712 0 1264.0 -0.07316306585385712 1
gene  1 6 13 -0.43032351984629713 0 1265.0 -0.43032351984629713 1
gene  1 9 13 0.6824000047497653 0 1268.0 0.6824000047497653 1
gene  1 10 13 0.9744701630918159 0 1269.0 0.9744701630918159 1
gene  1 12 13 -0.6542735236239601 0 1271.0 -0.6542735236239601 1
gene  1 1 14 0.7516102609601908 0 1365.0 0.7516102609601908 1
gene  1 2 14 -0.622300028075712 0 1366.0 -0.622300028075712 1
gene  1 4 14 0.23471145177064456 0 1368.0 0.23471145177064456 1
gene  1 5 14 -0.739789549153796 0 1369.0 -0.739789549153796 1
gene  1 8 14 0.27525930777750396 0 1372.0 0.27525930777750396 1
gene  1 11 14 -0.03692927497058118 0 1375.0 -0.03692927497058118 1
gene  1 13 14 -0.2508692775682212 0 1377.0 -0.2508692775682212 1
gene  1 6 15 0.9494261832207193 0 1475.0 0.9494261832207193 1
gene  1 8 15 -0.15954614057341976 0 1477.0 -0.15954614057341976 1
gene  1 9 15 -0.9881687671821948 0 1478.0 -0.9881687671821948 1
gene  1 11 15 0.2046386552175471 0 1480.0 0.2046386552175471 1
gene  1 12 15 -0.23622307171577117 0 1481.0 -0.23622307171577117 1
gene  1 14 15 0.773746336887343 0 1483.0 0.773746336887343 1
gene  1 1 16 0.8971758653054583 0 1575.0 0.8971758653054583 1
gene  1 5 16 0.31233764994141533 0 1579.0 0.31233764994141533 1
gene  1 9 16 -0.7776018494244809 0 1583.0 -0.7776018494244809 1
gene  1 10 16 0.18904085480163813 0 1584.0 0.18904085480163813 1
gene  1 12 16 -0.8291137345228862 0 1586.0 -0.8291137345228862 1
gene  1 1 17 0.08763491154215308 0 1680.0 0.08763491154215308 1
gene  1 2 17 0.5109365331503857 0 1681.0 0.5109365331503857 1
gene  1 3 17 -0.6764421404650458 0 1682.0 -0.6764421404650458 1
gene  1 4 17 0.7582639504255215 0 1683.0 0.7582639504255215 1
gene  1 5 17 -0.8836531549001039 0 1684.0 -0.8836531549001039 1
gene  1 6 17 -0.17512478417930522 0 1685.0 -0.17512478417930522 1
gene  1 8 17 -0.011937384872086287 0 1687.0 -0.011937384872086287 1
gene  1 9 17 0.02285175975317233 0 1688.0 0.02285175975317233 1
gene  1 10 17 0.007116337318363697 0 1689.0 0.007116337318363697 1
gene  1 12 17 -0.7146322301984964 0 1691.0 -0.7146322301984964 1
gene  1 15 17 -0.28187170653397875 0 1694.0 -0.28187170653397875 1
gene  1 2 18 0.7218396690277791 0 1786.0 0.7218396690277791 1
gene  1 4 18 -0.36148884986222674 0 1788.0 -0.36148884986222674 1
gene  1 5 18 0.5473062820714761 0 1789.0 0.5473062820714761 1
gene  1 9 18 0.8331964077967452 0 1793.0 0.8331964077967452 1
gene  1 11 18 0.1749837226038462 0 1795.0 0.1749837226038462 1
gene  1 12 18 -0.7038968144955412 0 1796.0 -0.7038968144955412 1
gene  1 13 18 0.43430536049577484 0 1797.0 0.43430536049577484 1
gene  1 17 18 -0.5948765903978932 0 1801.0 -0.5948765903978932 1
gene  1 2 19 -0.1659146000144941 0 1891.0 -0.1659146000144941 1
gene  1 4 19 0.19300159488546287 0 1893.0 0.19300159488546287 1
gene  1 6 19 0.696520703960575 0 1895.0 0.696520703960575 1
gene  1 8 19 0.20165154478679503 0 1897.0 0.20165154478679503 1
gene  1 9 19 0.2786015876876321 0 1898.0 0.2786015876876321 1
gene  1 16 19 0.009767068723877337 0 1905.0 0.009767068723877337 1
gene  1 17 19 0.9580129937090002 0 1906.0 0.9580129937090002 1
gene  1 18 19 0.8445084819254424 0 1907.0 0.8445084819254424 1
gene  1 3 20 0.5923491336598071 0 1997.0 0.5923491336598071 1
gene  1 4 20 -0.7949491335234726 0 1998.0 -0.7949491335234726 1
gene  1 6 20 0.8587551540799855 0 2000.0 0.8587551540799855 1
gene  1 7 20 -0.1405819286883847 0 2001.0 -0.1405819286883847 1
gene  1 8 20 -0.5509099637885672 0 2002.0 -0.5509099637885672 1
gene  1 9 20 0.35774140380723773 0 2003.0 0.35774140380723773 1
gene  1 10 20 0.6462459220599038 0 2004.0 0.6462459220599038 1
gene  1 12 20 0.31751370787346767 0 2006.0 0.31751370787346767 1
gene  1 13 20 0.30819527578244155 0 2007.0 0.30819527578244155 1
gene  1 16 20 0.25781189954488826 0 2010.0 0.25781189954488826 1
gene  1 17 20 0.8425958994332338 0 2011.0 0.8425958994332338 1
gene  1 2 21 0.8242681270558914 0 2101.0 0.8242681270558914 1
gene  1 3 21 0.976616553560932 0 2102.0 0.976616553560932 1
gene  1 6 21 -0.183312073938388 0 2105.0 -0.183312073938388 1
gene  1 7 21 0.3891205032372518 0 2106.0 0.3891205032372518 1
gene  1 8 21 -0.9645314454148175 0 2107.0 -0.9645314454148175 1
gene  1 9 21 0.27387616491019084 0 2108.0 0.27387616491019084 1
gene  1 10 21 0.5725595380034066 0 2109.0 0.5725595380034066 1
gene  1 12 21 -0.6273110176897907 0 2111.0 -0.6273110176897907 1
gene  1 13 21 -0.0745488741832061 0 2112.0 -0.0745488741832061 1
gene  1 14 21 0.24897907534164898 0 2113.0 0.24897907534164898 1
gene  1 15 21 0.2360896299062729 0 2114.0 0.2360896299062729 1
gene  1 16 21 -6.785851289848877E-4 0 2115.0 -6.785851289848877E-4 1
gene  1 17 21 -0.08085487489824528 0 2116.0 -0.08085487489824528 1
gene  1 20 21 0.3466875455778631 0 2119.0 0.3466875455778631 1
gene  1 1 22 0.20461714492875338 0 2205.0 0.20461714492875338 1
gene  1 2 22 0.5081329878897898 0 2206.0 0.5081329878897898 1
gene  1 3 22 -0.34299710912325887 0 2207.0 -0.34299710912325887 1
gene  1 4 22 0.6792789232377655 0 2208.0 0.6792789232377655 1
gene  1 7 22 0.07999693163722743 0 2211.0 0.07999693163722743 1
gene  1 8 22 -0.24240379732338646 0 2212.0 -0.24240379732338646 1
gene  1 9 22 -0.5520813312436772 0 2213.0 -0.5520813312436772 1
gene  1 10 22 0.26236383548390596 0 2214.0 0.26236383548390596 1
gene  1 13 22 0.5202492298419883 0 2217.0 0.5202492298419883 1
gene  1 15 22 0.07704125393249694 0 2219.0 0.07704125393249694 1
gene  1 17 22 -0.07968618617334311 0 2221.0 -0.07968618617334311 1
gene  1 19 22 -0.24412452123061046 0 2223.0 -0.24412452123061046 1
gene  1 21 22 0.41272413218356474 0 2225.0 0.41272413218356474 1
gene  1 2 23 0.9776321473500058 0 2311.0 0.9776321473500058 1
gene  1 5 23 0.6872038748996329 0 2314.0 0.6872038748996329 1
gene  1 6 23 -0.03045981486397742 0 2315.0 -0.03045981486397742 1
gene  1 7 23 -0.844994323291168 0 2316.0 -0.844994323291168 1
gene  1 12 23 -0.9962893197463859 0 2321.0 -0.9962893197463859 1
gene  1 13 23 -0.4686180478728662 0 2322.0 -0.4686180478728662 1
gene  1 14 23 0.257370468775295 0 2323.0 0.257370468775295 1
gene  1 15 23 -0.2814397065402008 0 2324.0 -0.2814397065402008 1
gene  1 16 23 -0.7368564288490136 0 2325.0 -0.7368564288490136 1
gene  1 17 23 0.5376733996235503 0 2326.0 0.5376733996235503 1
gene  1 18 23 -0.9710564159713004 0 2327.0 -0.9710564159713004 1
gene  1 21 23 0.8019467839051095 0 2330.0 0.8019467839051095 1
gene  1 3 24 -0.6596166425504136 0 2417.0 -0.6596166425504136 1
gene  1 7 24 -0.432737027337858 0 2421.0 -0.432737027337858 1
gene  1 8 24 -0.18957094737320312 0 2422.0 -0.18957094737320312 1
gene  1 10 24 -0.8117931120104713 0 2424.0 -0.8117931120104713 1
gene  1 14 24 -0.7209929490222937 0 2428.0 -0.7209929490222937 1
gene  1 17 24 -0.8206868443449096 0 2431.0 -0.8206868443449096 1
gene  1 20 24 -0.390806656966209 0 2434.0 -0.390806656966209 1
gene  1 21 24 -0.03959619619003718 0 2435.0 -0.03959619619003718 1
gene  1 23 24 0.4425309716992677 0 2437.0 0.4425309716992677 1
gene  1 1 25 0.5780544058361153 0 2520.0 0.5780544058361153 1
gene  1 2 25 -0.9127689946755841 0 2521.0 -0.9127689946755841 1
gene  1 3 25 0.7010326353438683 0 2522.0 0.7010326353438683 1
gene  1 4 25 0.9855002673013081 0 2523.0 0.9855002673013081 1
gene  1 7 25 0.12843359295975554 0 2526.0 0.12843359295975554 1
gene  1 8 25 0.8855964610897908 0 2527.0 0.8855964610897908 1
gene  1 9 25 0.5145996408124188 0 2528.0 0.5145996408124188 1
gene  1 10 25 0.3182416266437118 0 2529.0 0.3182416266437118 1
gene  1 11 25 -0.3567603846265355 0 2530.0 -0.3567603846265355 1
gene  1 13 25 0.12205621606517403 0 2532.0 0.12205621606517403 1
gene  1 14 25 0.45360171196663 0 2533.0 0.45360171196663 1
gene  1 16 25 -0.2328095490961949 0 2535.0 -0.2328095490961949 1
gene  1 17 25 0.012259101612522083 0 2536.0 0.012259101612522083 1
gene  1 19 25 -0.4651018590897833 0 2538.0 -0.4651018590897833 1
gene  1 23 25 -0.1442752620030202 0 2542.0 -0.1442752620030202 1
gene  1 24 25 -0.15977030667004044 0 2543.0 -0.15977030667004044 1
gene  1 4 26 0.18330190115880074 0 2628.0 0.18330190115880074 1
gene  1 5 26 0.877719518499531 0 2629.0 0.877719518499531 1
gene  1 10 26 0.15886560349571954 0 2634.0 0.15886560349571954 1
gene  1 14 26 -0.2938465808081997 0 2638.0 -0.2938465808081997 1
gene  1 15 26 0.7816806679285146 0 2639.0 0.7816806679285146 1
gene  1 16 26 -0.12128248166070421 0 2640.0 -0.12128248166070421 1
gene  1 18 26 0.8867700514236353 0 2642.0 0.8867700514236353 1
gene  1 20 26 -0.061460218263883926 0 2644.0 -0.061460218263883926 1
gene  1 21 26 0.5352558793889011 0 2645.0 0.5352558793889011 1
gene  1 23 26 -0.12292530420164682 0 2647.0 -0.12292530420164682 1
gene  1 24 26 -0.5256598477279381 0 2648.0 -0.5256598477279381 1
gene  1 1 27 -0.0014959583539018162 0 2730.0 -0.0014959583539018162 1
gene  1 3 27 0.4529175541630929 0 2732.0 0.4529175541630929 1
gene  1 5 27 -0.10835916338740681 0 2734.0 -0.10835916338740681 1
gene  1 7 27 0.14376901993485702 0 2736.0 0.14376901993485702 1
gene  1 9 27 -0.49455100391690354 0 2738.0 -0.49455100391690354 1
gene  1 12 27 -0.21242960193280847 0 2741.0 -0.21242960193280847 1
gene  1 13 27 -0.6617738699867667 0 2742.0 -0.6617738699867667 1
gene  1 15 27 0.8971403983766433 0 2744.0 0.8971403983766433 1
gene  1 16 27 -0.7496777062067201 0 2745.0 -0.7496777062067201 1
gene  1 18 27 0.22007356511088838 0 2747.0 0.22007356511088838 1
gene  1 20 27 -0.06608087053950273 0 2749.0 -0.06608087053950273 1
gene  1 22 27 -0.811276491155789 0 2751.0 -0.811276491155789 1
gene  1 23 27 0.061680958455018864 0 2752.0 0.061680958455018864 1
gene  1 24 27 0.9129707971888853 0 2753.0 0.9129707971888853 1
gene  1 26 27 -0.43118914584581247 0 2755.0 -0.43118914584581247 1
gene  1 2 28 -0.07195505536063052 0 2836.0 -0.07195505536063052 1
gene  1 6 28 -0.5912778127807392 0 2840.0 -0.5912778127807392 1
gene  1 7 28 0.10433740368394917 0 2841.0 0.10433740368394917 1
gene  1 8 28 0.20109413473933468 0 2842.0 0.20109413473933468 1
gene  1 9 28 0.32841476264250136 0 2843.0 0.32841476264250136 1
gene  1 11 28 -0.0341241087864701 0 2845.0 -0.0341241087864701 1
gene  1 12 28 -0.11437247432181752 0 2846.0 -0.11437247432181752 1
gene  1 17 28 0.9674926851675252 0 2851.0 0.9674926851675252 1
gene  1 20 28 0.9540443705555198 0 2854.0 0.9540443705555198 1
gene  1 21 28 0.25649340889340533 0 2855.0 0.25649340889340533 1
gene  1 24 28 -0.06254214912412437 0 2858.0 -0.06254214912412437 1
gene  1 25 28 -0.04298623128007539 0 2859.0 -0.04298623128007539 1
gene  1 26 28 -0.6923492177047276 0 2860.0 -0.6923492177047276 1
gene  1 1 29 -0.7432650195219461 0 2940.0 -0.7432650195219461 1
gene  1 2 29 -0.9201079219371667 0 2941.0 -0.9201079219371667 1
gene  1 3 29 0.7546428445284197 0 2942.0 0.7546428445284197 1
gene  1 5 29 0.3434192632194061 0 2944.0 0.3434192632194061 1
gene  1 6 29 0.970224771174583 0 2945.0 0.970224771174583 1
gene  1 9 29 -0.8061519322109165 0 2948.0 -0.8061519322109165 1
gene  1 14 29 0.8120809631624487 0 2953.0 0.8120809631624487 1
gene  1 15 29 -0.6193630273994665 0 2954.0 -0.6193630273994665 1
gene  1 17 29 -0.2542589384281323 0 2956.0 -0.2542589384281323 1
gene  1 19 29 -0.04923427644948719 0 2958.0 -0.04923427644948719 1
gene  1 21 29 0.6460031349278548 0 2960.0 0.6460031349278548 1
gene  1 22 29 -0.5640523769236295 0 2961.0 -0.5640523769236295 1
gene  1 27 29 -0.4129654567856489 0 2966.0 -0.4129654567856489 1
gene  1 1 30 0.8952206927126717 0 3045.0 0.8952206927126717 1
gene  1 2 30 -0.17532336796940107 0 3046.0 -0.17532336796940107 1
gene  1 4 30 -0.8377688133822953 0 3048.0 -0.8377688133822953 1
gene  1 6 30 -0.5750209449831507 0 3050.0 -0.5750209449831507 1
gene  1 7 30 0.5066531054252281 0 3051.0 0.5066531054252281 1
gene  1 8 30 0.775136686009045 0 3052.0 0.775136686009045 1
gene  1 9 30 0.10255802884381726 0 3053.0 0.10255802884381726 1
gene  1 10 30 -0.6042132741325663 0 3054.0 -0.6042132741325663 1
gene  1 11 30 0.32909409635176634 0 3055.0 0.32909409635176634 1
gene  1 13 30 0.12459835521696527 0 3057.0 0.12459835521696527 1
gene  1 14 30 -0.8977583924112371 0 3058.0 -0.8977583924112371 1
gene  1 15 30 0.9476326239135797 0 3059.0 0.9476326239135797 1
gene  1 16 30 0.6758194404241659 0 3060.0 0.6758194404241659 1
gene  1 23 30 0.31350646137172444 0 3067.0 0.31350646137172444 1
gene  1 24 30 -0.0026257789337349458 0 3068.0 -0.0026257789337349458 1
gene  1 25 30 0.8907443238783885 0 3069.0 0.8907443238783885 1
gene  1 29 30 0.8566023494981577 0 3073.0 0.8566023494981577 1
gene  1 1 31 -0.8885850924638471 0 3150.0 -0.8885850924638471 1
gene  1 7 31 -0.8764562589826546 0 3156.0 -0.8764562589826546 1
gene  1 11 31 0.5319499287229987 0 3160.0 0.5319499287229987 1
gene  1 12 31 0.623541089837937 0 3161.0 0.623541089837937 1
gene  1 15 31 -0.0940935498681853 0 3164.0 -0.0940935498681853 1
gene  1 17 31 -0.4252113065130656 0 3166.0 -0.4252113065130656 1
gene  1 20 31 -0.5941630751226168 0 3169.0 -0.5941630751226168 1
gene  1 24 31 -0.5732186455598353 0 3173.0 -0.5732186455598353 1
gene  1 27 31 0.18475759962107907 0 3176.0 0.18475759962107907 1
gene  1 29 31 -0.943356040397997 0 3178.0 -0.943356040397997 1
gene  1 30 31 -0.02264205802820618 0 3179.0 -0.02264205802820618 1
gene  1 2 32 0.29811255879712384 0 3256.0 0.29811255879712384 1
gene  1 9 32 -0.4998289818163608 0 3263.0 -0.4998289818163608 1
gene  1 10 32 0.543276959969597 0 3264.0 0.543276959969597 1
gene  1 14 32 0.21296164458257172 0 3268.0 0.21296164458257172 1
gene  1 17 32 0.06113359396981244 0 3271.0 0.06113359396981244 1
gene  1 18 32 -0.7323992639256022 0 3272.0 -0.7323992639256022 1
gene  1 19 32 -0.9319834921478644 0 3273.0 -0.9319834921478644 1
gene  1 21 32 0.4410852554610424 0 3275.0 0.4410852554610424 1
gene  1 22 32 -0.03737856648274507 0 3276.0 -0.03737856648274507 1
gene  1 23 32 0.11436693297211553 0 3277.0 0.11436693297211553 1
gene  1 24 32 -0.7924141889958716 0 3278.0 -0.7924141889958716 1
gene  1 25 32 -0.3838915839214281 0 3279.0 -0.3838915839214281 1
gene  1 28 32 0.360423692747883 0 3282.0 0.360423692747883 1
gene  1 29 32 -0.7805070582997092 0 3283.0 -0.7805070582997092 1
gene  1 30 32 0.8380435285651668 0 3284.0 0.8380435285651668 1
gene  1 31 32 -0.5124819174183028 0 3285.0 -0.5124819174183028 1
gene  1 2 33 -0.38242466172072986 0 3361.0 -0.38242466172072986 1
gene  1 3 33 -0.45011034319172816 0 3362.0 -0.45011034319172816 1
gene  1 4 33 0.44496845544575025 0 3363.0 0.44496845544575025 1
gene  1 9 33 0.08577222257106953 0 3368.0 0.08577222257106953 1
gene  1 11 33 -0.43546744710934104 0 3370.0 -0.43546744710934104 1
gene  1 13 33 0.456219105131796 0 3372.0 0.456219105131796 1
gene  1 14 33 0.532473168509539 0 3373.0 0.532473168509539 1
gene  1 17 33 0.676269900910494 0 3376.0 0.676269900910494 1
gene  1 18 33 -0.6154430702687054 0 3377.0 -0.6154430702687054 1
gene  1 19 33 0.6045327435953 0 3378.0 0.6045327435953 1
gene  1 20 33 -0.5153265028910465 0 3379.0 -0.5153265028910465 1
gene  1 23 33 -0.8159294554781549 0 3382.0 -0.8159294554781549 1
gene  1 25 33 -0.5204901477169005 0 3384.0 -0.5204901477169005 1
gene  1 30 33 -0.009906726871199423 0 3389.0 -0.009906726871199423 1
gene  1 32 33 -0.9397357027902616 0 3391.0 -0.9397357027902616 1
gene  1 2 34 -0.8843325954159986 0 3466.0 -0.8843325954159986 1
gene  1 4 34 0.7069244317169942 0 3468.0 0.7069244317169942 1
gene  1 5 34 0.9507225302182912 0 3469.0 0.9507225302182912 1
gene  1 6 34 -0.1378152863231663 0 3470.0 -0.1378152863231663 1
gene  1 7 34 0.6852793419783588 0 3471.0 0.6852793419783588 1
gene  1 10 34 -0.791594056449797 0 3474.0 -0.791594056449797 1
gene  1 11 34 0.5223304116204824 0 3475.0 0.5223304116204824 1
gene  1 12 34 0.4873562433005757 0 3476.0 0.4873562433005757 1
gene  1 16 34 0.916715652973318 0 3480.0 0.916715652973318 1
gene  1 18 34 -0.4676764771065659 0 3482.0 -0.4676764771065659 1
gene  1 19 34 0.9417092208033307 0 3483.0 0.9417092208033307 1
gene  1 20 34 -0.786200066173882 0 3484.0 -0.786200066173882 1
gene  1 23 34 -0.5626415315406603 0 3487.0 -0.5626415315406603 1
gene  1 26 34 -0.21985814285561223 0 3490.0 -0.21985814285561223 1
gene  1 30 34 -0.3472664377953033 0 3494.0 -0.3472664377953033 1
gene  1 32 34 0.7821121131901784 0 3496.0 0.7821121131901784 1
gene  1 2 35 0.9885015279613311 0 3571.0 0.9885015279613311 1
gene  1 4 35 0.6552736540816085 0 3573.0 0.6552736540816085 1
gene  1 5 35 -0.8005138497182305 0 3574.0 -0.8005138497182305 1
gene  1 7 35 0.025059299067986762 0 3576.0 0.025059299067986762 1
gene  1 8 35 0.5521871325255763 0 3577.0 0.5521871325255763 1
gene  1 9 35 -0.211067471314198 0 3578.0 -0.211067471314198 1
gene  1 10 35 0.48976925856178444 0 3579.0 0.48976925856178444 1
gene  1 14 35 -0.21145626307712795 0 3583.0 -0.21145626307712795 1
gene  1 15 35 0.9341879088062203 0 3584.0 0.9341879088062203 1
gene  1 17 35 -0.5823919049288132 0 3586.0 -0.5823919049288132 1
gene  1 19 35 0.2789982496398913 0 3588.0 0.2789982496398913 1
gene  1 20 35 0.8983521818701826 0 3589.0 0.8983521818701826 1
gene  1 22 35 -0.20999669476347194 0 3591.0 -0.20999669476347194 1
gene  1 24 35 0.732358988245255 0 3593.0 0.732358988245255 1
gene  1 26 35 -0.2657417301659174 0 3595.0 -0.2657417301659174 1
gene  1 28 35 -0.5056653829874813 0 3597.0 -0.5056653829874813 1
gene  1 31 35 0.2373623226381143 0 3600.0 0.2373623226381143 1
gene  1 32 35 0.4160853553077112 0 3601.0 0.4160853553077112 1
gene  1 34 35 0.7984712230708959 0 3603.0 0.7984712230708959 1
gene  1 2 36 -0.5692841250906983 0 3676.0 -0.5692841250906983 1
gene  1 3 36 -0.9965237587690042 0 3677.0 -0.9965237587690042 1
gene  1 4 36 -0.06454745770491999 0 3678.0 -0.06454745770491999 1
gene  1 5 36 0.9527442759037902 0 3679.0 0.9527442759037902 1
gene  1 8 36 0.22686903739887732 0 3682.0 0.22686903739887732 1
gene  1 9 36 0.6236595612590492 0 3683.0 0.6236595612590492 1
gene  1 11 36 -0.8424127780503444 0 3685.0 -0.8424127780503444 1
gene  1 13 36 0.13364204674110636 0 3687.0 0.13364204674110636 1
gene  1 15 36 -0.428114407441055 0 3689.0 -0.428114407441055 1
gene  1 16 36 0.5213301838407322 0 3690.0 0.5213301838407322 1
gene  1 21 36 0.10112128643647533 0 3695.0 0.10112128643647533 1
gene  1 22 36 0.7249807433050562 0 3696.0 0.7249807433050562 1
gene  1 25 36 0.6755294333543804 0 3699.0 0.6755294333543804 1
gene  1 26 36 0.8539345101413135 0 3700.0 0.8539345101413135 1
gene  1 28 36 0.0999233240574754 0 3702.0 0.0999233240574754 1
gene  1 30 36 0.3688946440892189 0 3704.0 0.3688946440892189 1
gene  1 31 36 -0.5808396297481551 0 3705.0 -0.5808396297481551 1
gene  1 32 36 -0.16477910308720867 0 3706.0 -0.16477910308720867 1
gene  1 1 37 0.2408748285111616 0 3780.0 0.2408748285111616 1
gene  1 2 37 0.9671570296262769 0 3781.0 0.9671570296262769 1
gene  1 3 37 -0.8231065279537155 0 3782.0 -0.8231065279537155 1
gene  1 5 37 0.7422779581565356 0 3784.0 0.7422779581565356 1
gene  1 11 37 0.5583626842052877 0 3790.0 0.5583626842052877 1
gene  1 13 37 0.14198892650503303 0 3792.0 0.14198892650503303 1
gene  1 19 37 -0.4217249428322801 0 3798.0 -0.4217249428322801 1
gene  1 21 37 0.6584426520896179 0 3800.0 0.6584426520896179 1
gene  1 22 37 -0.3908703922334412 0 3801.0 -0.3908703922334412 1
gene  1 24 37 -0.0824165381211418 0 3803.0 -0.0824165381211418 1
gene  1 26 37 0.5915561279116807 0 3805.0 0.5915561279116807 1
gene  1 27 37 -0.27994848465478706 0 3806.0 -0.27994848465478706 1
gene  1 28 37 -0.03556211526626574 0 3807.0 -0.03556211526626574 1
gene  1 30 37 0.19517775272605842 0 3809.0 0.19517775272605842 1
gene  1 31 37 -0.8764447992219487 0 3810.0 -0.8764447992219487 1
gene  1 32 37 0.17180082436359556 0 3811.0 0.17180082436359556 1
gene  1 33 37 0.4098994240781576 0 3812.0 0.4098994240781576 1
gene  1 34 37 0.148814125166434 0 3813.0 0.148814125166434 1
gene  1 35 37 0.10597360262314881 0 3814.0 0.10597360262314881 1
gene  1 6 38 -0.0714886235963661 0 3890.0 -0.0714886235963661 1
gene  1 11 38 0.9058249702451638 0 3895.0 0.9058249702451638 1
gene  1 16 38 -0.9773620106809469 0 3900.0 -0.9773620106809469 1
gene  1 17 38 -0.8801338332335755 0 3901.0 -0.8801338332335755 1
gene  1 22 38 -0.3873791678502274 0 3906.0 -0.3873791678502274 1
gene  1 24 38 -0.47983943797007755 0 3908.0 -0.47983943797007755 1
gene  1 25 38 -0.23679768929804057 0 3909.0 -0.23679768929804057 1
gene  1 26 38 0.44610935132010454 0 3910.0 0.44610935132010454 1
gene  1 27 38 -0.08323899634948695 0 3911.0 -0.08323899634948695 1
gene  1 28 38 0.7572258817301701 0 3912.0 0.7572258817301701 1
gene  1 29 38 0.4832879423029455 0 3913.0 0.4832879423029455 1
gene  1 30 38 0.7259372126492124 0 3914.0 0.7259372126492124 1
gene  1 32 38 0.9497924098255438 0 3916.0 0.9497924098255438 1
gene  1 33 38 0.3932790772444026 0 3917.0 0.3932790772444026 1
gene  1 35 38 -0.8769252041490129 0 3919.0 -0.8769252041490129 1
gene  1 36 38 0.9156464249193116 0 3920.0 0.9156464249193116 1
gene  1 37 38 -0.967159404359551 0 3921.0 -0.967159404359551 1
gene  1 2 39 0.9030906238775236 0 3991.0 0.9030906238775236 1
gene  1 5 39 0.6769243456370133 0 3994.0 0.6769243456370133 1
gene  1 6 39 0.08468936675447492 0 3995.0 0.08468936675447492 1
gene  1 7 39 0.5462322230605684 0 3996.0 0.5462322230605684 1
gene  1 8 39 0.5905110723606174 0 3997.0 0.5905110723606174 1
gene  1 9 39 -0.06255182794940206 0 3998.0 -0.06255182794940206 1
gene  1 10 39 0.9350449440802348 0 3999.0 0.9350449440802348 1
gene  1 11 39 -0.9543108907630502 0 4000.0 -0.9543108907630502 1
gene  1 13 39 0.4445249474971368 0 4002.0 0.4445249474971368 1
gene  1 15 39 0.7260400326265891 0 4004.0 0.7260400326265891 1
gene  1 19 39 -0.7551386215140664 0 4008.0 -0.7551386215140664 1
gene  1 20 39 -0.7167570051393309 0 4009.0 -0.7167570051393309 1
gene  1 21 39 -0.967468705341144 0 4010.0 -0.967468705341144 1
gene  1 23 39 -0.28648026422056005 0 4012.0 -0.28648026422056005 1
gene  1 24 39 -0.3444213274555752 0 4013.0 -0.3444213274555752 1
gene  1 25 39 0.5125487976613085 0 4014.0 0.5125487976613085 1
gene  1 27 39 0.8162133203750273 0 4016.0 0.8162133203750273 1
gene  1 28 39 -0.8736343870285512 0 4017.0 -0.8736343870285512 1
gene  1 30 39 0.5566746916987814 0 4019.0 0.5566746916987814 1
gene  1 31 39 -0.3023123879569052 0 4020.0 -0.3023123879569052 1
gene  1 32 39 0.008408468685504822 0 4021.0 0.008408468685504822 1
gene  1 33 39 0.44357519387157174 0 4022.0 0.44357519387157174 1
gene  1 34 39 -0.17734561973718954 0 4023.0 -0.17734561973718954 1
gene  1 38 39 0.6319210766690619 0 4027.0 0.6319210766690619 1
gene  1 2 40 0.826809100711877 0 4096.0 0.826809100711877 1
gene  1 4 40 -0.08925712785128326 0 4098.0 -0.08925712785128326 1
gene  1 8 40 0.22280476132404892 0 4102.0 0.22280476132404892 1
gene  1 9 40 0.21673093079465466 0 4103.0 0.21673093079465466 1
gene  1 13 40 0.6731179154144703 0 4107.0 0.6731179154144703 1
gene  1 15 40 0.9830999739312606 0 4109.0 0.9830999739312606 1
gene  1 16 40 -0.8346027834194483 0 4110.0 -0.8346027834194483 1
gene  1 18 40 0.7389625182191977 0 4112.0 0.7389625182191977 1
gene  1 20 40 0.12809035299745475 0 4114.0 0.12809035299745475 1
gene  1 22 40 0.6793857408085697 0 4116.0 0.6793857408085697 1
gene  1 24 40 0.6936631454030288 0 4118.0 0.6936631454030288 1
gene  1 26 40 0.9760304770924212 0 4120.0 0.9760304770924212 1
gene  1 27 40 -0.6881543257117486 0 4121.0 -0.6881543257117486 1
gene  1 31 40 -0.4650423331372455 0 4125.0 -0.4650423331372455 1
gene  1 32 40 0.04887929405685676 0 4126.0 0.04887929405685676 1
gene  1 36 40 -0.8475203203393726 0 4130.0 -0.8475203203393726 1
gene  1 37 40 0.8136558273307639 0 4131.0 0.8136558273307639 1
gene  1 38 40 0.7909124306822578 0 4132.0 0.7909124306822578 1
gene  1 39 40 0.8396284183908399 0 4133.0 0.8396284183908399 1
gene  1 2 41 -0.13415028989835642 0 4201.0 -0.13415028989835642 1
gene  1 3 41 0.4550962577136708 0 4202.0 0.4550962577136708 1
gene  1 4 41 0.6639530308622386 0 4203.0 0.6639530308622386 1
gene  1 6 41 -0.0869993172591732 0 4205.0 -0.0869993172591732 1
gene  1 10 41 -0.6289414722708525 0 4209.0 -0.6289414722708525 1
gene  1 11 41 -0.4582882291990653 0 4210.0 -0.4582882291990653 1
gene  1 14 41 0.21542450190459606 0 4213.0 0.21542450190459606 1
gene  1 18 41 -0.3756612373645196 0 4217.0 -0.3756612373645196 1
gene  1 19 41 -0.4588347826680653 0 4218.0 -0.4588347826680653 1
gene  1 20 41 -0.6960168864953402 0 4219.0 -0.6960168864953402 1
gene  1 22 41 0.5718294695497174 0 4221.0 0.5718294695497174 1
gene  1 23 41 -0.28574964689599536 0 4222.0 -0.28574964689599536 1
gene  1 24 41 -0.6283986317409158 0 4223.0 -0.6283986317409158 1
gene  1 25 41 0.3632128433365023 0 4224.0 0.3632128433365023 1
gene  1 26 41 -0.09434572863566015 0 4225.0 -0.09434572863566015 1
gene  1 27 41 -0.5472645994459394 0 4226.0 -0.5472645994459394 1
gene  1 30 41 0.33469486598379183 0 4229.0 0.33469486598379183 1
gene  1 32 41 0.20736443174981034 0 4231.0 0.20736443174981034 1
gene  1 36 41 0.07833415298545532 0 4235.0 0.07833415298545532 1
gene  1 37 41 -0.2604960356079411 0 4236.0 -0.2604960356079411 1
gene  1 40 41 0.866825427486051 0 4239.0 0.866825427486051 1
gene  1 1 42 -0.07033150980276381 0 4305.0 -0.07033150980276381 1
gene  1 3 42 0.03613829557031478 0 4307.0 0.03613829557031478 1
gene  1 4 42 0.08400811390050522 0 4308.0 0.08400811390050522 1
gene  1 6 42 -0.502547292522607 0 4310.0 -0.502547292522607 1
gene  1 7 42 -0.6881613035840617 0 4311.0 -0.6881613035840617 1
gene  1 16 42 0.7521454994353748 0 4320.0 0.7521454994353748 1
gene  1 20 42 -0.962707934928898 0 4324.0 -0.962707934928898 1
gene  1 21 42 -0.5493781162418894 0 4325.0 -0.5493781162418894 1
gene  1 23 42 0.3501131245170561 0 4327.0 0.3501131245170561 1
gene  1 25 42 0.7866483761042753 0 4329.0 0.7866483761042753 1
gene  1 26 42 0.9253462532159026 0 4330.0 0.9253462532159026 1
gene  1 29 42 0.8349525594932624 0 4333.0 0.8349525594932624 1
gene  1 30 42 -0.546910676825739 0 4334.0 -0.546910676825739 1
gene  1 31 42 0.011496445980246905 0 4335.0 0.011496445980246905 1
gene  1 32 42 -0.19317268671235477 0 4336.0 -0.19317268671235477 1
gene  1 34 42 -0.5515358965827578 0 4338.0 -0.5515358965827578 1
gene  1 2 43 -0.8531739339838135 0 4411.0 -0.8531739339838135 1
gene  1 4 43 -0.9423106682098376 0 4413.0 -0.9423106682098376 1
gene  1 5 43 0.3259998733693652 0 4414.0 0.3259998733693652 1
gene  1 6 43 -0.4074425158309912 0 4415.0 -0.4074425158309912 1
gene  1 7 43 -0.8738254130212022 0 4416.0 -0.8738254130212022 1
gene  1 9 43 -0.05496417554719213 0 4418.0 -0.05496417554719213 1
gene  1 10 43 -0.20209428735705437 0 4419.0 -0.20209428735705437 1
gene  1 13 43 -0.7728967518949419 0 4422.0 -0.7728967518949419 1
gene  1 14 43 -0.4446816945810592 0 4423.0 -0.4446816945810592 1
gene  1 16 43 0.26331048049408934 0 4425.0 0.26331048049408934 1
gene  1 17 43 0.14445956305114604 0 4426.0 0.14445956305114604 1
gene  1 18 43 -0.6532486285951785 0 4427.0 -0.6532486285951785 1
gene  1 19 43 0.3909706438909013 0 4428.0 0.3909706438909013 1
gene  1 20 43 -0.22533184825235075 0 4429.0 -0.22533184825235075 1
gene  1 21 43 0.6254356835199008 0 4430.0 0.6254356835199008 1
gene  1 22 43 0.3364220095018142 0 4431.0 0.3364220095018142 1
gene  1 24 43 -0.9135703699916482 0 4433.0 -0.9135703699916482 1
gene  1 27 43 0.9299344930988708 0 4436.0 0.9299344930988708 1
gene  1 28 43 -0.4082079242738046 0 4437.0 -0.4082079242738046 1
gene  1 29 43 0.8864129307155664 0 4438.0 0.8864129307155664 1
gene  1 30 43 0.1626385958457962 0 4439.0 0.1626385958457962 1
gene  1 34 43 0.9998513476004934 0 4443.0 0.9998513476004934 1
gene  1 35 43 -0.21877788274412246 0 4444.0 -0.21877788274412246 1
gene  1 36 43 0.9673272117413877 0 4445.0 0.9673272117413877 1
gene  1 37 43 -0.2651524377294251 0 4446.0 -0.2651524377294251 1
gene  1 39 43 0.5902240789279027 0 4448.0 0.5902240789279027 1
gene  1 1 44 0.6330475354044104 0 4515.0 0.6330475354044104 1
gene  1 3 44 -0.9439830649497556 0 4517.0 -0.9439830649497556 1
gene  1 4 44 0.1617498390611346 0 4518.0 0.1617498390611346 1
gene  1 10 44 -0.5394935826439782 0 4524.0 -0.5394935826439782 1
gene  1 11 44 0.655633229660062 0 4525.0 0.655633229660062 1
gene  1 13 44 -0.7110130037086219 0 4527.0 -0.7110130037086219 1
gene  1 14 44 -0.1660683587810443 0 4528.0 -0.1660683587810443 1
gene  1 15 44 0.2706782687685987 0 4529.0 0.2706782687685987 1
gene  1 17 44 -0.851459881936796 0 4531.0 -0.851459881936796 1
gene  1 19 44 -0.1325642670373438 0 4533.0 -0.1325642670373438 1
gene  1 24 44 0.4453024989172576 0 4538.0 0.4453024989172576 1
gene  1 26 44 0.6877809667747661 0 4540.0 0.6877809667747661 1
gene  1 29 44 0.05656405283812993 0 4543.0 0.05656405283812993 1
gene  1 30 44 -0.44337418375351145 0 4544.0 -0.44337418375351145 1
gene  1 31 44 -0.3146140101908633 0 4545.0 -0.3146140101908633 1
gene  1 32 44 0.164135857318905 0 4546.0 0.164135857318905 1
gene  1 35 44 -0.8762102699535425 0 4549.0 -0.8762102699535425 1
gene  1 37 44 0.06782004970994637 0 4551.0 0.06782004970994637 1
gene  1 43 44 -0.692867211328301 0 4557.0 -0.692867211328301 1
gene  1 10 45 0.48655418992091193 0 4629.0 0.48655418992091193 1
gene  1 11 45 -0.9086219909244102 0 4630.0 -0.9086219909244102 1
gene  1 12 45 0.3895213682468155 0 4631.0 0.3895213682468155 1
gene  1 13 45 0.5573380661526853 0 4632.0 0.5573380661526853 1
gene  1 14 45 -0.9700989531248067 0 4633.0 -0.9700989531248067 1
gene  1 15 45 -0.9904517266837054 0 4634.0 -0.9904517266837054 1
gene  1 16 45 0.3675851079584397 0 4635.0 0.3675851079584397 1
gene  1 21 45 0.20685210749550964 0 4640.0 0.20685210749550964 1
gene  1 22 45 -0.6715335950429233 0 4641.0 -0.6715335950429233 1
gene  1 23 45 -0.6215377040726324 0 4642.0 -0.6215377040726324 1
gene  1 26 45 0.09839410669330895 0 4645.0 0.09839410669330895 1
gene  1 27 45 0.46440361602991975 0 4646.0 0.46440361602991975 1
gene  1 28 45 -0.8426435931911878 0 4647.0 -0.8426435931911878 1
gene  1 29 45 -0.014371343969838857 0 4648.0 -0.014371343969838857 1
gene  1 30 45 -0.5000732748568287 0 4649.0 -0.5000732748568287 1
gene  1 31 45 0.16173869912846217 0 4650.0 0.16173869912846217 1
gene  1 32 45 0.22479291656299383 0 4651.0 0.22479291656299383 1
gene  1 33 45 0.1477542056111495 0 4652.0 0.1477542056111495 1
gene  1 34 45 0.020940174254723942 0 4653.0 0.020940174254723942 1
gene  1 36 45 -0.8115593435191539 0 4655.0 -0.8115593435191539 1
gene  1 38 45 0.09969514401283619 0 4657.0 0.09969514401283619 1
gene  1 39 45 -0.5509602184102301 0 4658.0 -0.5509602184102301 1
gene  1 40 45 -0.3982338819818264 0 4659.0 -0.3982338819818264 1
gene  1 41 45 0.9217164107910615 0 4660.0 0.9217164107910615 1
gene  1 42 45 0.8942712235193494 0 4661.0 0.8942712235193494 1
gene  1 1 46 0.8678114378848798 0 4725.0 0.8678114378848798 1
gene  1 2 46 -0.008481035275046733 0 4726.0 -0.008481035275046733 1
gene  1 3 46 0.9956670884358969 0 4727.0 0.9956670884358969 1
gene  1 5 46 -0.6648295685763056 0 4729.0 -0.6648295685763056 1
gene  1 6 46 -0.15977837635164882 0 4730.0 -0.15977837635164882 1
gene  1 8 46 0.7296307249788625 0 4732.0 0.7296307249788625 1
gene  1 9 46 0.6221194647556336 0 4733.0 0.6221194647556336 1
gene  1 11 46 -0.6422064119235917 0 4735.0 -0.6422064119235917 1
gene  1 12 46 -0.3107539520109348 0 4736.0 -0.3107539520109348 1
gene  1 14 46 -0.6855783369969705 0 4738.0 -0.6855783369969705 1
gene  1 15 46 0.8335847501492886 0 4739.0 0.8335847501492886 1
gene  1 16 46 -0.7488943312572851 0 4740.0 -0.7488943312572851 1
gene  1 17 46 0.24762405950159017 0 4741.0 0.24762405950159017 1
gene  1 19 46 0.9582872894752881 0 4743.0 0.9582872894752881 1
gene  1 20 46 0.9297969964539384 0 4744.0 0.9297969964539384 1
gene  1 23 46 -0.25488202892941314 0 4747.0 -0.25488202892941314 1
gene  1 25 46 0.24114705273755765 0 4749.0 0.24114705273755765 1
gene  1 26 46 -0.7581623219419887 0 4750.0 -0.7581623219419887 1
gene  1 27 46 0.46080430257159255 0 4751.0 0.46080430257159255 1
gene  1 28 46 -0.5336250822087952 0 4752.0 -0.5336250822087952 1
gene  1 29 46 -0.5988069431541573 0 4753.0 -0.5988069431541573 1
gene  1 31 46 -0.5507628759575904 0 4755.0 -0.5507628759575904 1
gene  1 35 46 0.9610235344322796 0 4759.0 0.9610235344322796 1
gene  1 36 46 -0.8353360527989935 0 4760.0 -0.8353360527989935 1
gene  1 37 46 0.1999513695418863 0 4761.0 0.1999513695418863 1
gene  1 39 46 -0.8928776475958163 0 4763.0 -0.8928776475958163 1
gene  1 41 46 -0.15659702094010253 0 4765.0 -0.15659702094010253 1
gene  1 42 46 -0.593068053238785 0 4766.0 -0.593068053238785 1
gene  1 44 46 -0.695262674322729 0 4768.0 -0.695262674322729 1
gene  1 45 46 0.8632941965106067 0 4769.0 0.8632941965106067 1
gene  1 1 47 0.742783405433985 0 4830.0 0.742783405433985 1
gene  1 2 47 -0.6086890288539774 0 4831.0 -0.6086890288539774 1
gene  1 3 47 0.735919621095443 0 4832.0 0.735919621095443 1
gene  1 6 47 0.8475479255022194 0 4835.0 0.8475479255022194 1
gene  1 8 47 0.8765186964663401 0 4837.0 0.8765186964663401 1
gene  1 10 47 0.4809996128235692 0 4839.0 0.4809996128235692 1
gene  1 11 47 -0.29803643902626775 0 4840.0 -0.29803643902626775 1
gene  1 13 47 -0.4001577641081643 0 4842.0 -0.4001577641081643 1
gene  1 14 47 -0.3542396698811322 0 4843.0 -0.3542396698811322 1
gene  1 17 47 0.3965062006506065 0 4846.0 0.3965062006506065 1
gene  1 18 47 0.30734346985423844 0 4847.0 0.30734346985423844 1
gene  1 19 47 -0.04535532696517952 0 4848.0 -0.04535532696517952 1
gene  1 20 47 0.07098018274648865 0 4849.0 0.07098018274648865 1
gene  1 24 47 -0.32366852657457645 0 4853.0 -0.32366852657457645 1
gene  1 25 47 0.17670126860832058 0 4854.0 0.17670126860832058 1
gene  1 27 47 -0.2554780043941678 0 4856.0 -0.2554780043941678 1
gene  1 28 47 0.9799241717773144 0 4857.0 0.9799241717773144 1
gene  1 32 47 -0.26211613819171986 0 4861.0 -0.26211613819171986 1
gene  1 33 47 0.1708923697581224 0 4862.0 0.1708923697581224 1
gene  1 35 47 0.7667770711868152 0 4864.0 0.7667770711868152 1
gene  1 36 47 -0.010189352337582669 0 4865.0 -0.010189352337582669 1
gene  1 39 47 0.3870683827984811 0 4868.0 0.3870683827984811 1
gene  1 40 47 -0.3820666168012513 0 4869.0 -0.3820666168012513 1
gene  1 41 47 0.6415270834029466 0 4870.0 0.6415270834029466 1
gene  1 42 47 0.5446622115612405 0 4871.0 0.5446622115612405 1
gene  1 43 47 0.1930665977622018 0 4872.0 0.1930665977622018 1
gene  1 44 47 0.504950431270092 0 4873.0 0.504950431270092 1
gene  1 45 47 -0.5835157985709006 0 4874.0 -0.5835157985709006 1
gene  1 1 48 0.32112248294294266 0 4935.0 0.32112248294294266 1
gene  1 2 48 0.4365806788227623 0 4936.0 0.4365806788227623 1
gene  1 4 48 0.06007119343453071 0 4938.0 0.06007119343453071 1
gene  1 5 48 -0.46613216101936483 0 4939.0 -0.46613216101936483 1
gene  1 10 48 -0.382472088218779 0 4944.0 -0.382472088218779 1
gene  1 11 48 0.26990552043756755 0 4945.0 0.26990552043756755 1
gene  1 15 48 -0.5392714003379206 0 4949.0 -0.5392714003379206 1
gene  1 16 48 0.5776061394305194 0 4950.0 0.5776061394305194 1
gene  1 18 48 0.7712847352004304 0 4952.0 0.7712847352004304 1
gene  1 19 48 -0.27421231352923725 0 4953.0 -0.27421231352923725 1
gene  1 20 48 -0.5010437200270472 0 4954.0 -0.5010437200270472 1
gene  1 24 48 0.9501266227655397 0 4958.0 0.9501266227655397 1
gene  1 29 48 0.5176555182471538 0 4963.0 0.5176555182471538 1
gene  1 31 48 -0.572233185223338 0 4965.0 -0.572233185223338 1
gene  1 35 48 0.5809359011199984 0 4969.0 0.5809359011199984 1
gene  1 43 48 -0.27657539526728614 0 4977.0 -0.27657539526728614 1
gene  1 44 48 0.5068705195120453 0 4978.0 0.5068705195120453 1
gene  1 45 48 -0.12478321983218499 0 4979.0 -0.12478321983218499 1
gene  1 46 48 -0.9085538673193952 0 4980.0 -0.9085538673193952 1
gene  1 47 48 -0.2728516957571204 0 4981.0 -0.2728516957571204 1
gene  1 1 49 -0.6060226593881413 0 5040.0 -0.6060226593881413 1
gene  1 4 49 -0.09347998208921982 0 5043.0 -0.09347998208921982 1
gene  1 5 49 0.5385090072754106 0 5044.0 0.5385090072754106 1
gene  1 6 49 0.09198112795856184 0 5045.0 0.09198112795856184 1
gene  1 8 49 -0.969536682710463 0 5047.0 -0.969536682710463 1
gene  1 9 49 0.5473036970968552 0 5048.0 0.5473036970968552 1
gene  1 10 49 0.25586467991256023 0 5049.0 0.25586467991256023 1
gene  1 11 49 -0.19953520851407103 0 5050.0 -0.19953520851407103 1
gene  1 14 49 0.3976709293786612 0 5053.0 0.3976709293786612 1
gene  1 17 49 -0.1751204670648181 0 5056.0 -0.1751204670648181 1
gene  1 18 49 -0.8519605197168117 0 5057.0 -0.8519605197168117 1
gene  1 21 49 -0.3738439278014988 0 5060.0 -0.3738439278014988 1
gene  1 22 49 0.5763526990810298 0 5061.0 0.5763526990810298 1
gene  1 24 49 -0.27141259970142173 0 5063.0 -0.27141259970142173 1
gene  1 27 49 -0.5755375270029265 0 5066.0 -0.5755375270029265 1
gene  1 31 49 -0.5789452130469045 0 5070.0 -0.5789452130469045 1
gene  1 33 49 -0.7399642015334313 0 5072.0 -0.7399642015334313 1
gene  1 34 49 -0.4290441920213536 0 5073.0 -0.4290441920213536 1
gene  1 35 49 -0.6353242353008796 0 5074.0 -0.6353242353008796 1
gene  1 37 49 0.9874391679768053 0 5076.0 0.9874391679768053 1
gene  1 41 49 -0.9515932737126513 0 5080.0 -0.9515932737126513 1
gene  1 42 49 0.8011317916816818 0 5081.0 0.8011317916816818 1
gene  1 45 49 0.09902843303687103 0 5084.0 0.09902843303687103 1
gene  1 46 49 0.5030354117870235 0 5085.0 0.5030354117870235 1
gene  1 48 49 -0.6403348823105729 0 5087.0 -0.6403348823105729 1
gene  1 2 50 0.7935598449983464 0 5146.0 0.7935598449983464 1
gene  1 4 50 0.3322366764384753 0 5148.0 0.3322366764384753 1
gene  1 7 50 -0.5816065694655024 0 5151.0 -0.5816065694655024 1
gene  1 8 50 0.04689131534362945 0 5152.0 0.04689131534362945 1
gene  1 9 50 0.7893235113205852 0 5153.0 0.7893235113205852 1
gene  1 10 50 -0.8281552765206437 0 5154.0 -0.8281552765206437 1
gene  1 13 50 -0.792370680889985 0 5157.0 -0.792370680889985 1
gene  1 14 50 -0.7532586027332333 0 5158.0 -0.7532586027332333 1
gene  1 15 50 -0.26401828787497017 0 5159.0 -0.26401828787497017 1
gene  1 16 50 -0.2714094411847038 0 5160.0 -0.2714094411847038 1
gene  1 17 50 -0.44918192495880105 0 5161.0 -0.44918192495880105 1
gene  1 20 50 0.8778695345201079 0 5164.0 0.8778695345201079 1
gene  1 22 50 -0.06612170253707639 0 5166.0 -0.06612170253707639 1
gene  1 24 50 0.37910283874828576 0 5168.0 0.37910283874828576 1
gene  1 25 50 -0.3119404318995994 0 5169.0 -0.3119404318995994 1
gene  1 26 50 0.8442270140324165 0 5170.0 0.8442270140324165 1
gene  1 28 50 0.9532971747461089 0 5172.0 0.9532971747461089 1
gene  1 29 50 0.18975409163978796 0 5173.0 0.18975409163978796 1
gene  1 30 50 -0.0803502005539728 0 5174.0 -0.0803502005539728 1
gene  1 31 50 0.840721649960014 0 5175.0 0.840721649960014 1
gene  1 33 50 0.8032397035030366 0 5177.0 0.8032397035030366 1
gene  1 34 50 0.2921731016246124 0 5178.0 0.2921731016246124 1
gene  1 36 50 -0.4315388906137454 0 5180.0 -0.4315388906137454 1
gene  1 37 50 0.3157714930740335 0 5181.0 0.3157714930740335 1
gene  1 38 50 -0.4703978673683151 0 5182.0 -0.4703978673683151 1
gene  1 39 50 -0.06529171775184495 0 5183.0 -0.06529171775184495 1
gene  1 41 50 0.1786654914868041 0 5185.0 0.1786654914868041 1
gene  1 42 50 -0.6513147221542495 0 5186.0 -0.6513147221542495 1
gene  1 43 50 -0.6134406293168972 0 5187.0 -0.6134406293168972 1
gene  1 44 50 -0.44677612594027205 0 5188.0 -0.44677612594027205 1
gene  1 45 50 0.7232101993970694 0 5189.0 0.7232101993970694 1
gene  1 46 50 0.7565668422346312 0 5190.0 0.7565668422346312 1
gene  1 47 50 -0.15716346922354274 0 5191.0 -0.15716346922354274 1
gene  1 49 50 -0.47014425721656095 0 5193.0 -0.47014425721656095 1
gene  1 1 51 0.04717745104104032 0 5250.0 0.04717745104104032 1
gene  1 4 51 -0.8722368742819461 0 5253.0 -0.8722368742819461 1
gene  1 7 51 0.4205889340440533 0 5256.0 0.4205889340440533 1
gene  1 8 51 -0.7611969077615565 0 5257.0 -0.7611969077615565 1
gene  1 12 51 0.735328378594223 0 5261.0 0.735328378594223 1
gene  1 13 51 0.6943702352673417 0 5262.0 0.6943702352673417 1
gene  1 14 51 0.49363390422508946 0 5263.0 0.49363390422508946 1
gene  1 15 51 -0.11581778854122626 0 5264.0 -0.11581778854122626 1
gene  1 16 51 -0.8585499528176196 0 5265.0 -0.8585499528176196 1
gene  1 17 51 -0.7598146741835042 0 5266.0 -0.7598146741835042 1
gene  1 21 51 -0.6905848490204821 0 5270.0 -0.6905848490204821 1
gene  1 22 51 -0.9904616387038486 0 5271.0 -0.9904616387038486 1
gene  1 26 51 0.39870087878509564 0 5275.0 0.39870087878509564 1
gene  1 30 51 -0.2970280564568094 0 5279.0 -0.2970280564568094 1
gene  1 32 51 -0.9718126030580475 0 5281.0 -0.9718126030580475 1
gene  1 33 51 -0.3186529793649211 0 5282.0 -0.3186529793649211 1
gene  1 37 51 0.3982528161022767 0 5286.0 0.3982528161022767 1
gene  1 38 51 -0.7734777872953206 0 5287.0 -0.7734777872953206 1
gene  1 39 51 -0.08711571695484743 0 5288.0 -0.08711571695484743 1
gene  1 41 51 -0.16316706239761092 0 5290.0 -0.16316706239761092 1
gene  1 45 51 -0.3046556043493118 0 5294.0 -0.3046556043493118 1
gene  1 47 51 -0.6730089992727797 0 5296.0 -0.6730089992727797 1
gene  1 49 51 0.9456265344723171 0 5298.0 0.9456265344723171 1
gene  1 1 52 -0.7627312236346216 0 5355.0 -0.7627312236346216 1
gene  1 3 52 -0.4138526142321407 0 5357.0 -0.4138526142321407 1
gene  1 4 52 0.5439483592729183 0 5358.0 0.5439483592729183 1
gene  1 9 52 0.8085417016137735 0 5363.0 0.8085417016137735 1
gene  1 10 52 0.01942438586038364 0 5364.0 0.01942438586038364 1
gene  1 14 52 -0.7483916417179277 0 5368.0 -0.7483916417179277 1
gene  1 15 52 0.6738989024358593 0 5369.0 0.6738989024358593 1
gene  1 16 52 0.3916195041226498 0 5370.0 0.3916195041226498 1
gene  1 17 52 0.1806894512399425 0 5371.0 0.1806894512399425 1
gene  1 21 52 -0.7161239860372431 0 5375.0 -0.7161239860372431 1
gene  1 22 52 -0.3945857136417993 0 5376.0 -0.3945857136417993 1
gene  1 24 52 -0.7733656410549158 0 5378.0 -0.7733656410549158 1
gene  1 27 52 0.7271093136347662 0 5381.0 0.7271093136347662 1
gene  1 28 52 -0.05294382551250065 0 5382.0 -0.05294382551250065 1
gene  1 29 52 -0.6960191898408191 0 5383.0 -0.6960191898408191 1
gene  1 33 52 0.16042629005649311 0 5387.0 0.16042629005649311 1
gene  1 34 52 -0.4098106222887198 0 5388.0 -0.4098106222887198 1
gene  1 35 52 -0.659148510423704 0 5389.0 -0.659148510423704 1
gene  1 36 52 -0.6518170361254066 0 5390.0 -0.6518170361254066 1
gene  1 38 52 0.4516197762269254 0 5392.0 0.4516197762269254 1
gene  1 43 52 -0.162398424644689 0 5397.0 -0.162398424644689 1
gene  1 51 52 -0.279931840092597 0 5405.0 -0.279931840092597 1
gene  1 4 53 -0.9168073849158335 0 5463.0 -0.9168073849158335 1
gene  1 9 53 0.16333294733769244 0 5468.0 0.16333294733769244 1
gene  1 10 53 -0.7114207637802368 0 5469.0 -0.7114207637802368 1
gene  1 14 53 0.5767625342510135 0 5473.0 0.5767625342510135 1
gene  1 16 53 0.9659376641669287 0 5475.0 0.9659376641669287 1
gene  1 22 53 0.4881350706333085 0 5481.0 0.4881350706333085 1
gene  1 24 53 -0.1431107819754076 0 5483.0 -0.1431107819754076 1
gene  1 26 53 -0.9928348738815201 0 5485.0 -0.9928348738815201 1
gene  1 34 53 0.6838243787826511 0 5493.0 0.6838243787826511 1
gene  1 36 53 -0.021236658475149217 0 5495.0 -0.021236658475149217 1
gene  1 37 53 0.26603772465370323 0 5496.0 0.26603772465370323 1
gene  1 38 53 0.17166222323702818 0 5497.0 0.17166222323702818 1
gene  1 48 53 0.692664998464812 0 5507.0 0.692664998464812 1
gene  1 50 53 -0.3310414234260124 0 5509.0 -0.3310414234260124 1
gene  1 1 54 -0.19966374000455844 0 5565.0 -0.19966374000455844 1
gene  1 2 54 0.26685305332703435 0 5566.0 0.26685305332703435 1
gene  1 3 54 0.40023050964477747 0 5567.0 0.40023050964477747 1
gene  1 6 54 -0.00507619055040176 0 5570.0 -0.00507619055040176 1
gene  1 9 54 0.37488070708577614 0 5573.0 0.37488070708577614 1
gene  1 10 54 0.7411676189400519 0 5574.0 0.7411676189400519 1
gene  1 11 54 -0.058682388330260404 0 5575.0 -0.058682388330260404 1
gene  1 13 54 0.8649798936030867 0 5577.0 0.8649798936030867 1
gene  1 14 54 -0.7584897854212928 0 5578.0 -0.7584897854212928 1
gene  1 15 54 -0.6364872954035109 0 5579.0 -0.6364872954035109 1
gene  1 16 54 0.22029812263958048 0 5580.0 0.22029812263958048 1
gene  1 17 54 -0.6173115379218826 0 5581.0 -0.6173115379218826 1
gene  1 18 54 0.11026391194749241 0 5582.0 0.11026391194749241 1
gene  1 19 54 0.48009439704486045 0 5583.0 0.48009439704486045 1
gene  1 23 54 0.35101057451183715 0 5587.0 0.35101057451183715 1
gene  1 24 54 0.5533912161422707 0 5588.0 0.5533912161422707 1
gene  1 25 54 -0.9965512549058649 0 5589.0 -0.9965512549058649 1
gene  1 27 54 -0.13778935533707637 0 5591.0 -0.13778935533707637 1
gene  1 28 54 0.18200556711402305 0 5592.0 0.18200556711402305 1
gene  1 32 54 -0.9032898434168869 0 5596.0 -0.9032898434168869 1
gene  1 33 54 0.9630613012290047 0 5597.0 0.9630613012290047 1
gene  1 34 54 0.9263762833473125 0 5598.0 0.9263762833473125 1
gene  1 35 54 -0.7303958919336376 0 5599.0 -0.7303958919336376 1
gene  1 37 54 0.8178770608043341 0 5601.0 0.8178770608043341 1
gene  1 38 54 -0.10312832142324069 0 5602.0 -0.10312832142324069 1
gene  1 41 54 0.03680458890451155 0 5605.0 0.03680458890451155 1
gene  1 44 54 -0.06098370580071799 0 5608.0 -0.06098370580071799 1
gene  1 45 54 -0.5393416827088215 0 5609.0 -0.5393416827088215 1
gene  1 50 54 -0.4348440499184113 0 5614.0 -0.4348440499184113 1
gene  1 51 54 0.9090268514142286 0 5615.0 0.9090268514142286 1
gene  1 2 55 0.47300602332688646 0 5671.0 0.47300602332688646 1
gene  1 3 55 0.32501407497455925 0 5672.0 0.32501407497455925 1
gene  1 4 55 -0.256344878978525 0 5673.0 -0.256344878978525 1
gene  1 5 55 0.2390495080804813 0 5674.0 0.2390495080804813 1
gene  1 6 55 0.23106287993095787 0 5675.0 0.23106287993095787 1
gene  1 8 55 0.9212102016458411 0 5677.0 0.9212102016458411 1
gene  1 10 55 -0.5154560206452182 0 5679.0 -0.5154560206452182 1
gene  1 12 55 0.12072450942084167 0 5681.0 0.12072450942084167 1
gene  1 13 55 -0.4925755337909058 0 5682.0 -0.4925755337909058 1
gene  1 19 55 -0.5121327830456669 0 5688.0 -0.5121327830456669 1
gene  1 21 55 0.2869358988126499 0 5690.0 0.2869358988126499 1
gene  1 22 55 -0.7469374460091307 0 5691.0 -0.7469374460091307 1
gene  1 26 55 -0.16139448031400538 0 5695.0 -0.16139448031400538 1
gene  1 29 55 -0.8719233731884447 0 5698.0 -0.8719233731884447 1
gene  1 30 55 0.5737063957357469 0 5699.0 0.5737063957357469 1
gene  1 31 55 0.668750209340644 0 5700.0 0.668750209340644 1
gene  1 33 55 0.8867453466481718 0 5702.0 0.8867453466481718 1
gene  1 36 55 -0.06345692631763067 0 5705.0 -0.06345692631763067 1
gene  1 37 55 -0.7605492532441877 0 5706.0 -0.7605492532441877 1
gene  1 38 55 -0.8728851051857567 0 5707.0 -0.8728851051857567 1
gene  1 42 55 -0.8685983814591465 0 5711.0 -0.8685983814591465 1
gene  1 43 55 -0.2024768936361182 0 5712.0 -0.2024768936361182 1
gene  1 44 55 -0.369523560764202 0 5713.0 -0.369523560764202 1
gene  1 46 55 0.6582021701564947 0 5715.0 0.6582021701564947 1
gene  1 47 55 0.9866911779376643 0 5716.0 0.9866911779376643 1
gene  1 49 55 0.1466310475832201 0 5718.0 0.1466310475832201 1
gene  1 50 55 -0.06241338676892716 0 5719.0 -0.06241338676892716 1
gene  1 51 55 0.22540366000297873 0 5720.0 0.22540366000297873 1
gene  1 3 56 0.6746133581516098 0 5777.0 0.6746133581516098 1
gene  1 4 56 -0.19170372531369761 0 5778.0 -0.19170372531369761 1
gene  1 5 56 0.670327217667155 0 5779.0 0.670327217667155 1
gene  1 6 56 0.03035750111789981 0 5780.0 0.03035750111789981 1
gene  1 8 56 -0.9682385319392474 0 5782.0 -0.9682385319392474 1
gene  1 9 56 0.03704748237203037 0 5783.0 0.03704748237203037 1
gene  1 12 56 -0.014492016304567645 0 5786.0 -0.014492016304567645 1
gene  1 13 56 -0.7637981862694032 0 5787.0 -0.7637981862694032 1
gene  1 15 56 0.9969048888232865 0 5789.0 0.9969048888232865 1
gene  1 16 56 0.10346389888190033 0 5790.0 0.10346389888190033 1
gene  1 18 56 -0.32254067144485277 0 5792.0 -0.32254067144485277 1
gene  1 19 56 -0.5167462366247232 0 5793.0 -0.5167462366247232 1
gene  1 21 56 -0.5055121648270288 0 5795.0 -0.5055121648270288 1
gene  1 22 56 -0.29351617906602523 0 5796.0 -0.29351617906602523 1
gene  1 26 56 0.5952857304161343 0 5800.0 0.5952857304161343 1
gene  1 27 56 0.46416941981920734 0 5801.0 0.46416941981920734 1
gene  1 28 56 -0.6174105965612982 0 5802.0 -0.6174105965612982 1
gene  1 31 56 0.12979561328799816 0 5805.0 0.12979561328799816 1
gene  1 32 56 -0.5910790339468989 0 5806.0 -0.5910790339468989 1
gene  1 33 56 0.6759476844735506 0 5807.0 0.6759476844735506 1
gene  1 35 56 -0.21477093980052364 0 5809.0 -0.21477093980052364 1
gene  1 39 56 -0.9037040487411153 0 5813.0 -0.9037040487411153 1
gene  1 40 56 -0.46622919757721837 0 5814.0 -0.46622919757721837 1
gene  1 43 56 0.35523226350298986 0 5817.0 0.35523226350298986 1
gene  1 45 56 -0.9400808923982944 0 5819.0 -0.9400808923982944 1
gene  1 46 56 0.6379272263840837 0 5820.0 0.6379272263840837 1
gene  1 49 56 -0.13531282391838484 0 5823.0 -0.13531282391838484 1
gene  1 50 56 0.5553156308312052 0 5824.0 0.5553156308312052 1
gene  1 51 56 -0.7464289431884699 0 5825.0 -0.7464289431884699 1
gene  1 53 56 0.7914032035043035 0 5827.0 0.7914032035043035 1
gene  1 55 56 0.2361723863674544 0 5829.0 0.2361723863674544 1
gene  1 2 57 0.8670358431662484 0 5881.0 0.8670358431662484 1
gene  1 4 57 0.15409820129683016 0 5883.0 0.15409820129683016 1
gene  1 5 57 0.3070566874993017 0 5884.0 0.3070566874993017 1
gene  1 6 57 0.13942106803980892 0 5885.0 0.13942106803980892 1
gene  1 11 57 -0.5637827720057146 0 5890.0 -0.5637827720057146 1
gene  1 12 57 -0.33736689535131026 0 5891.0 -0.33736689535131026 1
gene  1 14 57 -0.770069971022753 0 5893.0 -0.770069971022753 1
gene  1 15 57 0.7167226598152109 0 5894.0 0.7167226598152109 1
gene  1 16 57 0.5889901543737971 0 5895.0 0.5889901543737971 1
gene  1 17 57 0.970835389603876 0 5896.0 0.970835389603876 1
gene  1 18 57 -0.6675634689037919 0 5897.0 -0.6675634689037919 1
gene  1 19 57 -0.8582116455837832 0 5898.0 -0.8582116455837832 1
gene  1 21 57 0.654591536518891 0 5900.0 0.654591536518891 1
gene  1 22 57 0.43348814834743943 0 5901.0 0.43348814834743943 1
gene  1 26 57 -0.4382099265541043 0 5905.0 -0.4382099265541043 1
gene  1 27 57 -0.8362639329300084 0 5906.0 -0.8362639329300084 1
gene  1 28 57 -0.6556743979228735 0 5907.0 -0.6556743979228735 1
gene  1 29 57 -0.6973400213037566 0 5908.0 -0.6973400213037566 1
gene  1 30 57 -0.7008257219601398 0 5909.0 -0.7008257219601398 1
gene  1 32 57 0.1764007894520473 0 5911.0 0.1764007894520473 1
gene  1 33 57 0.8982423351879342 0 5912.0 0.8982423351879342 1
gene  1 34 57 0.6340759359666157 0 5913.0 0.6340759359666157 1
gene  1 36 57 -0.6420665888482906 0 5915.0 -0.6420665888482906 1
gene  1 39 57 -0.38925826355273907 0 5918.0 -0.38925826355273907 1
gene  1 40 57 -0.06972295708121179 0 5919.0 -0.06972295708121179 1
gene  1 46 57 0.8476078905976819 0 5925.0 0.8476078905976819 1
gene  1 52 57 0.5220725436483848 0 5931.0 0.5220725436483848 1
gene  1 54 57 -0.7100078223058744 0 5933.0 -0.7100078223058744 1
gene  1 55 57 0.9761469688431696 0 5934.0 0.9761469688431696 1
gene  1 1 105 -0.6948597526160145 0 10920.0 -0.6948597526160145 1
gene  1 2 105 -0.979704223904494 0 10921.0 -0.979704223904494 1
gene  1 5 105 -0.39997389455314103 0 10924.0 -0.39997389455314103 1
gene  1 6 105 -0.3306549093554747 0 10925.0 -0.3306549093554747 1
gene  1 7 105 0.27513607572049625 0 10926.0 0.27513607572049625 1
gene  1 9 105 0.751710348764706 0 10928.0 0.751710348764706 1
gene  1 10 105 0.502935204348791 0 10929.0 0.502935204348791 1
gene  1 11 105 0.044419053625992744 0 10930.0 0.044419053625992744 1
gene  1 12 105 0.6558004695014499 0 10931.0 0.6558004695014499 1
gene  1 15 105 -0.38795843543622255 0 10934.0 -0.38795843543622255 1
gene  1 16 105 -0.5760734298439599 0 10935.0 -0.5760734298439599 1
gene  1 17 105 0.766833227236486 0 10936.0 0.766833227236486 1
gene  1 22 105 -0.9362217586099522 0 10941.0 -0.9362217586099522 1
gene  1 23 105 -0.9823186787636825 0 10942.0 -0.9823186787636825 1
gene  1 27 105 0.4899679480742649 0 10946.0 0.4899679480742649 1
gene  1 32 105 -0.8049293926759857 0 10951.0 -0.8049293926759857 1
gene  1 35 105 0.3324550661016875 0 10954.0 0.3324550661016875 1
gene  1 37 105 -0.13986041780781955 0 10956.0 -0.13986041780781955 1
gene  1 38 105 0.11753431718909257 0 10957.0 0.11753431718909257 1
gene  1 41 105 -0.9648102567691033 0 10960.0 -0.9648102567691033 1
gene  1 43 105 0.8632000452100483 0 10962.0 0.8632000452100483 1
gene  1 46 105 -0.7690197341598718 0 10965.0 -0.7690197341598718 1
gene  1 47 105 0.6093406831735305 0 10966.0 0.6093406831735305 1
gene  1 48 105 0.47719927999909784 0 10967.0 0.47719927999909784 1
gene  1 51 105 -0.4263838690815628 0 10970.0 -0.4263838690815628 1
gene  1 52 105 -0.5850242158370214 0 10971.0 -0.5850242158370214 1
gene  1 53 105 0.030163094312051553 0 10972.0 0.030163094312051553 1
genomeend 0
