genomestart  21
trait 1 0.0 0.0 0.0 0.0 0.0 0.0 0.0 0.0 0.0 0.0 0.0 0.0 0.0 0.0 0.0 0.0 0.0 0.0 0.0 0.0 
node 1 1 1 1
node 2 1 1 1
node 3 1 1 1
node 4 1 1 3
node 5 1 0 0
node 6 1 0 0
node 7 1 0 0
node 8 1 0 0
node 9 1 0 0
node 10 1 0 0
node 11 1 0 0
node 12 1 0 0
node 13 1 0 0
node 14 1 0 0
node 15 1 0 0
node 16 1 0 0
node 17 1 0 0
node 18 1 0 0
node 19 1 0 0
node 20 1 0 0
node 21 1 0 0
node 22 1 0 0
node 23 1 0 0
node 24 1 0 0
node 25 1 0 0
node 26 1 0 0
node 27 1 0 0
node 28 1 0 0
node 29 1 0 0
node 30 1 0 0
node 31 1 0 0
node 32 1 0 0
node 33 1 0 0
node 34 1 0 0
node 35 1 0 0
node 36 1 0 0
node 37 1 0 0
node 38 1 0 0
node 39 1 0 0
node 40 1 0 0
node 41 1 0 0
node 42 1 0 0
node 43 1 0 0
node 44 1 0 0
node 105 1 0 2
gene  1 1 5 -0.28149404737168615 0 420.0 -0.28149404737168615 1
gene  1 2 5 -0.21077037270665877 0 421.0 -0.21077037270665877 1
gene  1 1 6 -0.1303308761752764 0 525.0 -0.1303308761752764 1
gene  1 3 6 0.4688262744651095 0 527.0 0.4688262744651095 1
gene  1 4 7 0.25289205351059374 0 633.0 0.25289205351059374 1
gene  1 1 8 0.8541060609802389 0 735.0 0.8541060609802389 1
gene  1 2 8 0.5531221527199451 0 736.0 0.5531221527199451 1
gene  1 4 8 -0.9554963136444283 0 738.0 -0.9554963136444283 1
gene  1 1 9 -0.9190769379937526 0 840.0 -0.9190769379937526 1
gene  1 3 9 0.8500330996356789 0 842.0 0.8500330996356789 1
gene  1 6 9 0.5684970397747677 0 845.0 0.5684970397747677 1
gene  1 7 9 0.6731805354166939 0 846.0 0.6731805354166939 1
gene  1 3 10 -0.9839727324234254 0 947.0 -0.9839727324234254 1
gene  1 5 10 -0.3420205298498038 0 949.0 -0.3420205298498038 1
gene  1 6 10 0.8537086680740398 0 950.0 0.8537086680740398 1
gene  1 1 11 -0.7417058138013946 0 1050.0 -0.7417058138013946 1
gene  1 2 11 -0.06443998042211407 0 1051.0 -0.06443998042211407 1
gene  1 3 11 -0.6455004636510504 0 1052.0 -0.6455004636510504 1
gene  1 5 11 -0.5462756680495877 0 1054.0 -0.5462756680495877 1
gene  1 7 11 0.6812889463092681 0 1056.0 0.6812889463092681 1
gene  1 2 12 -0.6400191195579303 0 1156.0 -0.6400191195579303 1
gene  1 3 12 0.5855229981276845 0 1157.0 0.5855229981276845 1
gene  1 4 12 0.371204275506833 0 1158.0 0.371204275506833 1
gene  1 7 12 0.9695720114159104 0 1161.0 0.9695720114159104 1
gene  1 8 12 0.6679820900447125 0 1162.0 0.6679820900447125 1
gene  1 9 12 -0.13362405289631896 0 1163.0 -0.13362405289631896 1
gene  1 1 13 -0.2612324266198197 0 1260.0 -0.2612324266198197 1
gene  1 6 13 0.9674586975265875 0 1265.0 0.9674586975265875 1
gene  1 11 13 0.5084893508710621 0 1270.0 0.5084893508710621 1
gene  1 1 14 -0.2825750041767169 0 1365.0 -0.2825750041767169 1
gene  1 2 14 0.7900060253820008 0 1366.0 0.7900060253820008 1
gene  1 4 14 0.005855064721220993 0 1368.0 0.005855064721220993 1
gene  1 6 14 -0.08601185638075692 0 1370.0 -0.08601185638075692 1
gene  1 7 14 -0.07473937996207503 0 1371.0 -0.07473937996207503 1
gene  1 9 14 0.7763849764573418 0 1373.0 0.7763849764573418 1
gene  1 10 14 9.858582865662768E-5 0 1374.0 9.858582865662768E-5 1
gene  1 11 14 -0.8904716664472747 0 1375.0 -0.8904716664472747 1
gene  1 13 14 -0.7785609399426949 0 1377.0 -0.7785609399426949 1
gene  1 3 15 -0.05981977084465029 0 1472.0 -0.05981977084465029 1
gene  1 5 15 -0.696320434644066 0 1474.0 -0.696320434644066 1
gene  1 6 15 0.249669411569875 0 1475.0 0.249669411569875 1
gene  1 7 15 0.022042970989608168 0 1476.0 0.022042970989608168 1
gene  1 9 15 -0.4077569379731626 0 1478.0 -0.4077569379731626 1
gene  1 10 15 0.11770428845558567 0 1479.0 0.11770428845558567 1
gene  1 11 15 -0.27275584297689304 0 1480.0 -0.27275584297689304 1
gene  1 12 15 0.297611645053416 0 1481.0 0.297611645053416 1
gene  1 4 16 0.8715191417869034 0 1578.0 0.8715191417869034 1
gene  1 8 16 0.5789325186521865 0 1582.0 0.5789325186521865 1
gene  1 14 16 -0.44640196500741947 0 1588.0 -0.44640196500741947 1
gene  1 15 16 0.3770284785315112 0 1589.0 0.3770284785315112 1
gene  1 1 17 0.3416347703156227 0 1680.0 0.3416347703156227 1
gene  1 2 17 0.6812728438215435 0 1681.0 0.6812728438215435 1
gene  1 3 17 0.26893716725416605 0 1682.0 0.26893716725416605 1
gene  1 4 17 0.4674392976284727 0 1683.0 0.4674392976284727 1
gene  1 5 17 0.11110516043237506 0 1684.0 0.11110516043237506 1
gene  1 9 17 -0.4428590226378952 0 1688.0 -0.4428590226378952 1
gene  1 13 17 -0.7254369927401766 0 1692.0 -0.7254369927401766 1
gene  1 1 18 -0.22151199404081623 0 1785.0 -0.22151199404081623 1
gene  1 2 18 -0.5889188772386126 0 1786.0 -0.5889188772386126 1
gene  1 3 18 -0.40973178753275263 0 1787.0 -0.40973178753275263 1
gene  1 4 18 0.26531320400549396 0 1788.0 0.26531320400549396 1
gene  1 6 18 -0.22908399569173687 0 1790.0 -0.22908399569173687 1
gene  1 9 18 0.9289432566704096 0 1793.0 0.9289432566704096 1
gene  1 10 18 -0.5309851492308907 0 1794.0 -0.5309851492308907 1
gene  1 11 18 -0.15451754701329323 0 1795.0 -0.15451754701329323 1
gene  1 13 18 -0.2798540049575923 0 1797.0 -0.2798540049575923 1
gene  1 1 19 -0.873218239666307 0 1890.0 -0.873218239666307 1
gene  1 4 19 0.3606331861244598 0 1893.0 0.3606331861244598 1
gene  1 6 19 0.2825295228297048 0 1895.0 0.2825295228297048 1
gene  1 9 19 -0.3333234421081027 0 1898.0 -0.3333234421081027 1
gene  1 15 19 0.035086786261555925 0 1904.0 0.035086786261555925 1
gene  1 18 19 -0.9111758671393275 0 1907.0 -0.9111758671393275 1
gene  1 1 20 0.3397343687624741 0 1995.0 0.3397343687624741 1
gene  1 2 20 0.7722116892640786 0 1996.0 0.7722116892640786 1
gene  1 5 20 0.7573455783978983 0 1999.0 0.7573455783978983 1
gene  1 7 20 0.1677759314517847 0 2001.0 0.1677759314517847 1
gene  1 10 20 0.607875329412367 0 2004.0 0.607875329412367 1
gene  1 11 20 0.5795992076113007 0 2005.0 0.5795992076113007 1
gene  1 12 20 0.5238794439218162 0 2006.0 0.5238794439218162 1
gene  1 13 20 0.8628130152290361 0 2007.0 0.8628130152290361 1
gene  1 14 20 0.7736097866021053 0 2008.0 0.7736097866021053 1
gene  1 17 20 -0.6706317634873921 0 2011.0 -0.6706317634873921 1
gene  1 2 21 0.2396275874717091 0 2101.0 0.2396275874717091 1
gene  1 4 21 -0.8905844439484311 0 2103.0 -0.8905844439484311 1
gene  1 8 21 -0.26582526439503296 0 2107.0 -0.26582526439503296 1
gene  1 9 21 0.7511644073145989 0 2108.0 0.7511644073145989 1
gene  1 10 21 -0.9421612291213968 0 2109.0 -0.9421612291213968 1
gene  1 12 21 -0.5401736348107131 0 2111.0 -0.5401736348107131 1
gene  1 14 21 0.6986588444757402 0 2113.0 0.6986588444757402 1
gene  1 15 21 -0.9645208090356708 0 2114.0 -0.9645208090356708 1
gene  1 16 21 -0.1969532820311365 0 2115.0 -0.1969532820311365 1
gene  1 17 21 -0.1669855815671175 0 2116.0 -0.1669855815671175 1
gene  1 19 21 0.3758695489426379 0 2118.0 0.3758695489426379 1
gene  1 1 22 0.8417589715543958 0 2205.0 0.8417589715543958 1
gene  1 2 22 -0.4452859960700988 0 2206.0 -0.4452859960700988 1
gene  1 5 22 0.6830046725547873 0 2209.0 0.6830046725547873 1
gene  1 6 22 0.2644733738836347 0 2210.0 0.2644733738836347 1
gene  1 12 22 -0.9805065984359564 0 2216.0 -0.9805065984359564 1
gene  1 14 22 0.4157403515007545 0 2218.0 0.4157403515007545 1
gene  1 15 22 -0.2921898661767638 0 2219.0 -0.2921898661767638 1
gene  1 17 22 0.8968690382919978 0 2221.0 0.8968690382919978 1
gene  1 18 22 0.6544707968684504 0 2222.0 0.6544707968684504 1
gene  1 1 23 0.7337910295446823 0 2310.0 0.7337910295446823 1
gene  1 2 23 0.7471884105991689 0 2311.0 0.7471884105991689 1
gene  1 5 23 0.8159445919653171 0 2314.0 0.8159445919653171 1
gene  1 6 23 0.5839302188839501 0 2315.0 0.5839302188839501 1
gene  1 8 23 -0.5350082502740664 0 2317.0 -0.5350082502740664 1
gene  1 11 23 0.37019706253150153 0 2320.0 0.37019706253150153 1
gene  1 12 23 0.17611805045083895 0 2321.0 0.17611805045083895 1
gene  1 17 23 0.18254197530368244 0 2326.0 0.18254197530368244 1
gene  1 18 23 -0.030942010158493627 0 2327.0 -0.030942010158493627 1
gene  1 21 23 -0.5246818848958499 0 2330.0 -0.5246818848958499 1
gene  1 2 24 -0.17856103693171677 0 2416.0 -0.17856103693171677 1
gene  1 4 24 0.21518568429011753 0 2418.0 0.21518568429011753 1
gene  1 5 24 -0.02750373453410837 0 2419.0 -0.02750373453410837 1
gene  1 8 24 0.8030102279884374 0 2422.0 0.8030102279884374 1
gene  1 10 24 -0.10899214774467236 0 2424.0 -0.10899214774467236 1
gene  1 11 24 -0.35473143407122065 0 2425.0 -0.35473143407122065 1
gene  1 12 24 -0.6475096746420349 0 2426.0 -0.6475096746420349 1
gene  1 13 24 0.11195269900127913 0 2427.0 0.11195269900127913 1
gene  1 20 24 -0.803788073463802 0 2434.0 -0.803788073463802 1
gene  1 21 24 -0.1838501509287369 0 2435.0 -0.1838501509287369 1
gene  1 1 25 -0.3653328541228583 0 2520.0 -0.3653328541228583 1
gene  1 4 25 -0.09445634061502961 0 2523.0 -0.09445634061502961 1
gene  1 7 25 -0.5715043575892852 0 2526.0 -0.5715043575892852 1
gene  1 9 25 0.7444465270514657 0 2528.0 0.7444465270514657 1
gene  1 10 25 -0.6850169767589829 0 2529.0 -0.6850169767589829 1
gene  1 12 25 0.9699228048351864 0 2531.0 0.9699228048351864 1
gene  1 13 25 -0.6033559270657028 0 2532.0 -0.6033559270657028 1
gene  1 15 25 -0.457024252901187 0 2534.0 -0.457024252901187 1
gene  1 17 25 -0.7558109761849474 0 2536.0 -0.7558109761849474 1
gene  1 20 25 -0.2511759562277984 0 2539.0 -0.2511759562277984 1
gene  1 21 25 0.11328778120007843 0 2540.0 0.11328778120007843 1
gene  1 24 25 0.7022077161015506 0 2543.0 0.7022077161015506 1
gene  1 1 26 0.15232905803806696 0 2625.0 0.15232905803806696 1
gene  1 3 26 -0.7959707063898508 0 2627.0 -0.7959707063898508 1
gene  1 5 26 -0.23585365845681805 0 2629.0 -0.23585365845681805 1
gene  1 6 26 -0.3355290926620127 0 2630.0 -0.3355290926620127 1
gene  1 11 26 -0.29125053413537594 0 2635.0 -0.29125053413537594 1
gene  1 12 26 -0.9627581471721873 0 2636.0 -0.9627581471721873 1
gene  1 20 26 0.6924683735867492 0 2644.0 0.6924683735867492 1
gene  1 21 26 -0.07511232942127977 0 2645.0 -0.07511232942127977 1
gene  1 22 26 0.2128399388307588 0 2646.0 0.2128399388307588 1
gene  1 23 26 -0.999831743013135 0 2647.0 -0.999831743013135 1
gene  1 6 27 -0.5123463092815561 0 2735.0 -0.5123463092815561 1
gene  1 8 27 -0.9125823898960134 0 2737.0 -0.9125823898960134 1
gene  1 10 27 0.03316332652019238 0 2739.0 0.03316332652019238 1
gene  1 16 27 -0.23616083333518612 0 2745.0 -0.23616083333518612 1
gene  1 17 27 -0.4965867840591742 0 2746.0 -0.4965867840591742 1
gene  1 21 27 0.22481444331012201 0 2750.0 0.22481444331012201 1
gene  1 24 27 0.4406439947551093 0 2753.0 0.4406439947551093 1
gene  1 25 27 0.7402751041733164 0 2754.0 0.7402751041733164 1
gene  1 26 27 0.4598032778348876 0 2755.0 0.4598032778348876 1
gene  1 1 28 0.0543032952393544 0 2835.0 0.0543032952393544 1
gene  1 4 28 0.4468632263786796 0 2838.0 0.4468632263786796 1
gene  1 6 28 0.24647149755329278 0 2840.0 0.24647149755329278 1
gene  1 8 28 0.6251736411748797 0 2842.0 0.6251736411748797 1
gene  1 10 28 -0.44713997573530084 0 2844.0 -0.44713997573530084 1
gene  1 12 28 0.8439622527880286 0 2846.0 0.8439622527880286 1
gene  1 13 28 -0.7382251516522648 0 2847.0 -0.7382251516522648 1
gene  1 14 28 -0.42194601510625995 0 2848.0 -0.42194601510625995 1
gene  1 15 28 -0.8298718639867297 0 2849.0 -0.8298718639867297 1
gene  1 16 28 0.7167113195027593 0 2850.0 0.7167113195027593 1
gene  1 20 28 0.8467261583027988 0 2854.0 0.8467261583027988 1
gene  1 21 28 -0.6097775363112267 0 2855.0 -0.6097775363112267 1
gene  1 22 28 -0.13180751080522535 0 2856.0 -0.13180751080522535 1
gene  1 23 28 0.012726573574983635 0 2857.0 0.012726573574983635 1
gene  1 25 28 0.43453404415000063 0 2859.0 0.43453404415000063 1
gene  1 26 28 0.3866935295242442 0 2860.0 0.3866935295242442 1
gene  1 2 29 -0.8513955613512685 0 2941.0 -0.8513955613512685 1
gene  1 6 29 0.805255028011778 0 2945.0 0.805255028011778 1
gene  1 9 29 0.45391974817980196 0 2948.0 0.45391974817980196 1
gene  1 10 29 0.41619096418342194 0 2949.0 0.41619096418342194 1
gene  1 15 29 -0.07982668424175632 0 2954.0 -0.07982668424175632 1
gene  1 17 29 -0.06460751103065776 0 2956.0 -0.06460751103065776 1
gene  1 22 29 0.5069015898414444 0 2961.0 0.5069015898414444 1
gene  1 26 29 -0.5077044019965625 0 2965.0 -0.5077044019965625 1
gene  1 27 29 -0.8595117330673837 0 2966.0 -0.8595117330673837 1
gene  1 5 30 0.6712692566169366 0 3049.0 0.6712692566169366 1
gene  1 8 30 -0.8965040382291426 0 3052.0 -0.8965040382291426 1
gene  1 9 30 0.711313994048306 0 3053.0 0.711313994048306 1
gene  1 12 30 -0.3189978069201912 0 3056.0 -0.3189978069201912 1
gene  1 13 30 0.09990493617508356 0 3057.0 0.09990493617508356 1
gene  1 15 30 0.30047672430758976 0 3059.0 0.30047672430758976 1
gene  1 20 30 0.5345844882197343 0 3064.0 0.5345844882197343 1
gene  1 21 30 -0.11048218508513608 0 3065.0 -0.11048218508513608 1
gene  1 22 30 0.8322159700248977 0 3066.0 0.8322159700248977 1
gene  1 23 30 0.2705842471990745 0 3067.0 0.2705842471990745 1
gene  1 24 30 0.783541705585557 0 3068.0 0.783541705585557 1
gene  1 25 30 0.5245378030207439 0 3069.0 0.5245378030207439 1
gene  1 26 30 0.6306023677303688 0 3070.0 0.6306023677303688 1
gene  1 28 30 0.3604652894448789 0 3072.0 0.3604652894448789 1
gene  1 29 30 0.5821496565353428 0 3073.0 0.5821496565353428 1
gene  1 2 31 0.6840111617865533 0 3151.0 0.6840111617865533 1
gene  1 3 31 -0.44589668065383103 0 3152.0 -0.44589668065383103 1
gene  1 12 31 -0.9076886218811433 0 3161.0 -0.9076886218811433 1
gene  1 13 31 0.5807554052189595 0 3162.0 0.5807554052189595 1
gene  1 14 31 0.762209474786336 0 3163.0 0.762209474786336 1
gene  1 15 31 0.9225198541650962 0 3164.0 0.9225198541650962 1
gene  1 16 31 -0.9826066862119516 0 3165.0 -0.9826066862119516 1
gene  1 17 31 0.3537034175858066 0 3166.0 0.3537034175858066 1
gene  1 19 31 0.7382465920882242 0 3168.0 0.7382465920882242 1
gene  1 20 31 -0.2940793958527972 0 3169.0 -0.2940793958527972 1
gene  1 5 32 -0.20640031003394144 0 3259.0 -0.20640031003394144 1
gene  1 7 32 -0.873944765953386 0 3261.0 -0.873944765953386 1
gene  1 10 32 0.725431774268181 0 3264.0 0.725431774268181 1
gene  1 11 32 0.3818821773032809 0 3265.0 0.3818821773032809 1
gene  1 12 32 -0.5186714988145218 0 3266.0 -0.5186714988145218 1
gene  1 14 32 0.5866091482937201 0 3268.0 0.5866091482937201 1
gene  1 15 32 0.9893986638707213 0 3269.0 0.9893986638707213 1
gene  1 19 32 -0.4776402955335757 0 3273.0 -0.4776402955335757 1
gene  1 21 32 -0.32330394138668306 0 3275.0 -0.32330394138668306 1
gene  1 22 32 -0.5671813627170293 0 3276.0 -0.5671813627170293 1
gene  1 23 32 0.9357016804370016 0 3277.0 0.9357016804370016 1
gene  1 24 32 -0.028752657689927297 0 3278.0 -0.028752657689927297 1
gene  1 25 32 -0.08917161162222575 0 3279.0 -0.08917161162222575 1
gene  1 27 32 -0.11050764499932297 0 3281.0 -0.11050764499932297 1
gene  1 29 32 0.2881387089046653 0 3283.0 0.2881387089046653 1
gene  1 30 32 -0.27826711885719835 0 3284.0 -0.27826711885719835 1
gene  1 2 33 -0.5556142101642231 0 3361.0 -0.5556142101642231 1
gene  1 4 33 0.6561109519856492 0 3363.0 0.6561109519856492 1
gene  1 5 33 0.5172582471384917 0 3364.0 0.5172582471384917 1
gene  1 6 33 -0.7296649712946716 0 3365.0 -0.7296649712946716 1
gene  1 8 33 -0.36426258987226934 0 3367.0 -0.36426258987226934 1
gene  1 10 33 -0.4993504555453555 0 3369.0 -0.4993504555453555 1
gene  1 22 33 -0.10341609212879843 0 3381.0 -0.10341609212879843 1
gene  1 23 33 0.5060304772196902 0 3382.0 0.5060304772196902 1
gene  1 25 33 -0.6785172554230309 0 3384.0 -0.6785172554230309 1
gene  1 26 33 -0.2873263533651841 0 3385.0 -0.2873263533651841 1
gene  1 27 33 0.14227255775640024 0 3386.0 0.14227255775640024 1
gene  1 29 33 -0.21041880314657602 0 3388.0 -0.21041880314657602 1
gene  1 30 33 -0.1763579724618819 0 3389.0 -0.1763579724618819 1
gene  1 6 34 -0.8579898940577325 0 3470.0 -0.8579898940577325 1
gene  1 9 34 -0.006558423532347812 0 3473.0 -0.006558423532347812 1
gene  1 11 34 -0.7351355668232177 0 3475.0 -0.7351355668232177 1
gene  1 12 34 -0.524669968609601 0 3476.0 -0.524669968609601 1
gene  1 13 34 0.7899283441869343 0 3477.0 0.7899283441869343 1
gene  1 16 34 0.5719474972323298 0 3480.0 0.5719474972323298 1
gene  1 18 34 0.9373877054584858 0 3482.0 0.9373877054584858 1
gene  1 19 34 -0.9242636347315648 0 3483.0 -0.9242636347315648 1
gene  1 21 34 -0.8123872241864816 0 3485.0 -0.8123872241864816 1
gene  1 23 34 0.874496537258507 0 3487.0 0.874496537258507 1
gene  1 24 34 0.13192579434938367 0 3488.0 0.13192579434938367 1
gene  1 25 34 -0.7114664333640565 0 3489.0 -0.7114664333640565 1
gene  1 28 34 -0.4382771306130012 0 3492.0 -0.4382771306130012 1
gene  1 29 34 -0.8917638403994962 0 3493.0 -0.8917638403994962 1
gene  1 31 34 -0.7418202537009103 0 3495.0 -0.7418202537009103 1
gene  1 33 34 0.018679637058795717 0 3497.0 0.018679637058795717 1
gene  1 7 35 -0.2695702976734432 0 3576.0 -0.2695702976734432 1
gene  1 11 35 -0.5006823672382941 0 3580.0 -0.5006823672382941 1
gene  1 16 35 -0.09971712371777541 0 3585.0 -0.09971712371777541 1
gene  1 20 35 0.6335945951980895 0 3589.0 0.6335945951980895 1
gene  1 22 35 0.06138269373542915 0 3591.0 0.06138269373542915 1
gene  1 23 35 -0.05571011920362645 0 3592.0 -0.05571011920362645 1
gene  1 24 35 -0.5664985337254749 0 3593.0 -0.5664985337254749 1
gene  1 27 35 -0.0027062213579817085 0 3596.0 -0.0027062213579817085 1
gene  1 31 35 -0.979293011661533 0 3600.0 -0.979293011661533 1
gene  1 3 36 -0.6157444509344339 0 3677.0 -0.6157444509344339 1
gene  1 4 36 -0.7042994675683544 0 3678.0 -0.7042994675683544 1
gene  1 5 36 -0.6440703706092445 0 3679.0 -0.6440703706092445 1
gene  1 6 36 -0.43957686834349485 0 3680.0 -0.43957686834349485 1
gene  1 7 36 -0.7146853501855351 0 3681.0 -0.7146853501855351 1
gene  1 8 36 0.9377509079980259 0 3682.0 0.9377509079980259 1
gene  1 11 36 -0.4585291220601664 0 3685.0 -0.4585291220601664 1
gene  1 15 36 0.36391826031806196 0 3689.0 0.36391826031806196 1
gene  1 19 36 -0.9771522530185974 0 3693.0 -0.9771522530185974 1
gene  1 21 36 0.801950212130991 0 3695.0 0.801950212130991 1
gene  1 22 36 -0.7463507364528643 0 3696.0 -0.7463507364528643 1
gene  1 23 36 0.7230563011562798 0 3697.0 0.7230563011562798 1
gene  1 24 36 0.508365798772771 0 3698.0 0.508365798772771 1
gene  1 25 36 0.7081985863570701 0 3699.0 0.7081985863570701 1
gene  1 29 36 -0.3827492665924803 0 3703.0 -0.3827492665924803 1
gene  1 32 36 -0.4863674039077851 0 3706.0 -0.4863674039077851 1
gene  1 34 36 0.18813707234207688 0 3708.0 0.18813707234207688 1
gene  1 2 37 -0.9685614916676792 0 3781.0 -0.9685614916676792 1
gene  1 5 37 0.11329092240333671 0 3784.0 0.11329092240333671 1
gene  1 6 37 -0.8695797439828915 0 3785.0 -0.8695797439828915 1
gene  1 7 37 0.04767769562925739 0 3786.0 0.04767769562925739 1
gene  1 10 37 -0.2767484370166543 0 3789.0 -0.2767484370166543 1
gene  1 18 37 -0.37786009374642304 0 3797.0 -0.37786009374642304 1
gene  1 19 37 0.3980486232053345 0 3798.0 0.3980486232053345 1
gene  1 20 37 0.25084400819207886 0 3799.0 0.25084400819207886 1
gene  1 22 37 0.7239918721631255 0 3801.0 0.7239918721631255 1
gene  1 23 37 0.3356253161264696 0 3802.0 0.3356253161264696 1
gene  1 26 37 -0.33004928017774116 0 3805.0 -0.33004928017774116 1
gene  1 27 37 -0.7066198549487359 0 3806.0 -0.7066198549487359 1
gene  1 28 37 0.8722274336619712 0 3807.0 0.8722274336619712 1
gene  1 30 37 -0.7661654842781953 0 3809.0 -0.7661654842781953 1
gene  1 32 37 -0.44949781788919085 0 3811.0 -0.44949781788919085 1
gene  1 34 37 -0.5471658089138217 0 3813.0 -0.5471658089138217 1
gene  1 35 37 -0.16001008874102896 0 3814.0 -0.16001008874102896 1
gene  1 36 37 -0.48331544322716324 0 3815.0 -0.48331544322716324 1
gene  1 2 38 -0.9108998859558064 0 3886.0 -0.9108998859558064 1
gene  1 4 38 -0.07753214894673255 0 3888.0 -0.07753214894673255 1
gene  1 5 38 -0.5856866229002718 0 3889.0 -0.5856866229002718 1
gene  1 6 38 -0.5849700391179461 0 3890.0 -0.5849700391179461 1
gene  1 7 38 -0.4560351147119426 0 3891.0 -0.4560351147119426 1
gene  1 10 38 0.9729361078770847 0 3894.0 0.9729361078770847 1
gene  1 15 38 0.9132065813437563 0 3899.0 0.9132065813437563 1
gene  1 17 38 0.8375228922471615 0 3901.0 0.8375228922471615 1
gene  1 19 38 0.9111670840702729 0 3903.0 0.9111670840702729 1
gene  1 21 38 -0.5230060532731462 0 3905.0 -0.5230060532731462 1
gene  1 22 38 0.6537856306161675 0 3906.0 0.6537856306161675 1
gene  1 25 38 -0.3681623785731587 0 3909.0 -0.3681623785731587 1
gene  1 29 38 0.8890609275555387 0 3913.0 0.8890609275555387 1
gene  1 30 38 0.32713621084691746 0 3914.0 0.32713621084691746 1
gene  1 35 38 -0.47600646232895827 0 3919.0 -0.47600646232895827 1
gene  1 36 38 0.519128292408623 0 3920.0 0.519128292408623 1
gene  1 37 38 -0.26979822192191283 0 3921.0 -0.26979822192191283 1
gene  1 1 39 0.6804865245864294 0 3990.0 0.6804865245864294 1
gene  1 2 39 -0.031801537363633225 0 3991.0 -0.031801537363633225 1
gene  1 3 39 -0.659351732830491 0 3992.0 -0.659351732830491 1
gene  1 5 39 0.5106856217813754 0 3994.0 0.5106856217813754 1
gene  1 7 39 -0.7774959221574947 0 3996.0 -0.7774959221574947 1
gene  1 8 39 0.1094251682032924 0 3997.0 0.1094251682032924 1
gene  1 9 39 0.20163262218021272 0 3998.0 0.20163262218021272 1
gene  1 12 39 0.5652175645464185 0 4001.0 0.5652175645464185 1
gene  1 16 39 0.042214999287294774 0 4005.0 0.042214999287294774 1
gene  1 17 39 -0.5496882182895642 0 4006.0 -0.5496882182895642 1
gene  1 21 39 -0.33550638293691337 0 4010.0 -0.33550638293691337 1
gene  1 22 39 0.08520729716047348 0 4011.0 0.08520729716047348 1
gene  1 23 39 0.2873455701389984 0 4012.0 0.2873455701389984 1
gene  1 25 39 0.11046618549238318 0 4014.0 0.11046618549238318 1
gene  1 28 39 -0.6519402961768271 0 4017.0 -0.6519402961768271 1
gene  1 29 39 0.2843510361763888 0 4018.0 0.2843510361763888 1
gene  1 31 39 0.8435154241254282 0 4020.0 0.8435154241254282 1
gene  1 34 39 -0.9182458993765407 0 4023.0 -0.9182458993765407 1
gene  1 36 39 0.04758238310023566 0 4025.0 0.04758238310023566 1
gene  1 37 39 0.9855222422582925 0 4026.0 0.9855222422582925 1
gene  1 38 39 0.2958030871843893 0 4027.0 0.2958030871843893 1
gene  1 1 40 0.8950674374236472 0 4095.0 0.8950674374236472 1
gene  1 3 40 0.9919375819206806 0 4097.0 0.9919375819206806 1
gene  1 6 40 0.8222620291174872 0 4100.0 0.8222620291174872 1
gene  1 7 40 0.4465263224624616 0 4101.0 0.4465263224624616 1
gene  1 11 40 -0.5448429573995458 0 4105.0 -0.5448429573995458 1
gene  1 12 40 -0.4059191862367735 0 4106.0 -0.4059191862367735 1
gene  1 13 40 -0.6658731821262459 0 4107.0 -0.6658731821262459 1
gene  1 15 40 -0.694356463346255 0 4109.0 -0.694356463346255 1
gene  1 17 40 0.28426152805812 0 4111.0 0.28426152805812 1
gene  1 18 40 0.31694502599726226 0 4112.0 0.31694502599726226 1
gene  1 19 40 0.18624415262984406 0 4113.0 0.18624415262984406 1
gene  1 20 40 0.20433412506680715 0 4114.0 0.20433412506680715 1
gene  1 21 40 0.5292646591509303 0 4115.0 0.5292646591509303 1
gene  1 28 40 0.9532190006979555 0 4122.0 0.9532190006979555 1
gene  1 29 40 0.09441063154685048 0 4123.0 0.09441063154685048 1
gene  1 30 40 -0.23762818402822128 0 4124.0 -0.23762818402822128 1
gene  1 36 40 -0.5267222921329481 0 4130.0 -0.5267222921329481 1
gene  1 37 40 -0.6440348766350457 0 4131.0 -0.6440348766350457 1
gene  1 39 40 0.3596633956215227 0 4133.0 0.3596633956215227 1
gene  1 1 41 -0.43206368412305485 0 4200.0 -0.43206368412305485 1
gene  1 5 41 0.34014707303710057 0 4204.0 0.34014707303710057 1
gene  1 7 41 0.4767144119762725 0 4206.0 0.4767144119762725 1
gene  1 8 41 -0.32986304413582757 0 4207.0 -0.32986304413582757 1
gene  1 9 41 -0.9645854401631546 0 4208.0 -0.9645854401631546 1
gene  1 10 41 0.9551279442198888 0 4209.0 0.9551279442198888 1
gene  1 12 41 -0.09387027991396268 0 4211.0 -0.09387027991396268 1
gene  1 14 41 -0.7310360972645928 0 4213.0 -0.7310360972645928 1
gene  1 15 41 -0.5968344411252072 0 4214.0 -0.5968344411252072 1
gene  1 22 41 0.5210861704848275 0 4221.0 0.5210861704848275 1
gene  1 26 41 -0.8136690008131162 0 4225.0 -0.8136690008131162 1
gene  1 28 41 0.4861817302002843 0 4227.0 0.4861817302002843 1
gene  1 29 41 -0.9886858770889762 0 4228.0 -0.9886858770889762 1
gene  1 31 41 -0.756779276744906 0 4230.0 -0.756779276744906 1
gene  1 32 41 -0.7341358176594441 0 4231.0 -0.7341358176594441 1
gene  1 33 41 -0.9127755745424505 0 4232.0 -0.9127755745424505 1
gene  1 34 41 0.16759127408834962 0 4233.0 0.16759127408834962 1
gene  1 36 41 -0.3428960847201601 0 4235.0 -0.3428960847201601 1
gene  1 37 41 6.441763792939259E-4 0 4236.0 6.441763792939259E-4 1
gene  1 38 41 -0.35734664378271186 0 4237.0 -0.35734664378271186 1
gene  1 40 41 -0.14142534839216891 0 4239.0 -0.14142534839216891 1
gene  1 5 42 0.14066880967082074 0 4309.0 0.14066880967082074 1
gene  1 7 42 -0.6307938130010607 0 4311.0 -0.6307938130010607 1
gene  1 8 42 -0.6617346258695554 0 4312.0 -0.6617346258695554 1
gene  1 10 42 -0.7386715409639633 0 4314.0 -0.7386715409639633 1
gene  1 11 42 -0.6046222592595731 0 4315.0 -0.6046222592595731 1
gene  1 12 42 -0.40700455955564585 0 4316.0 -0.40700455955564585 1
gene  1 13 42 0.9715900654602474 0 4317.0 0.9715900654602474 1
gene  1 16 42 -0.42348116095761135 0 4320.0 -0.42348116095761135 1
gene  1 18 42 0.2037048863234716 0 4322.0 0.2037048863234716 1
gene  1 19 42 -0.3653144614108723 0 4323.0 -0.3653144614108723 1
gene  1 21 42 0.4701176472214671 0 4325.0 0.4701176472214671 1
gene  1 23 42 0.05757056879202016 0 4327.0 0.05757056879202016 1
gene  1 26 42 0.7907987019854552 0 4330.0 0.7907987019854552 1
gene  1 27 42 -0.376923549771391 0 4331.0 -0.376923549771391 1
gene  1 30 42 -0.3101144437235519 0 4334.0 -0.3101144437235519 1
gene  1 32 42 -0.031120013114670497 0 4336.0 -0.031120013114670497 1
gene  1 33 42 -0.03805209883744676 0 4337.0 -0.03805209883744676 1
gene  1 34 42 -0.5816920389258332 0 4338.0 -0.5816920389258332 1
gene  1 35 42 0.7205296356745265 0 4339.0 0.7205296356745265 1
gene  1 37 42 -0.447720254136482 0 4341.0 -0.447720254136482 1
gene  1 40 42 0.516071289373554 0 4344.0 0.516071289373554 1
gene  1 3 43 0.8816895486116617 0 4412.0 0.8816895486116617 1
gene  1 4 43 0.35995227214674685 0 4413.0 0.35995227214674685 1
gene  1 6 43 -0.882767278940394 0 4415.0 -0.882767278940394 1
gene  1 7 43 -0.0795579160506854 0 4416.0 -0.0795579160506854 1
gene  1 11 43 0.026473509747603208 0 4420.0 0.026473509747603208 1
gene  1 12 43 -0.0928767843160484 0 4421.0 -0.0928767843160484 1
gene  1 15 43 0.821196052858145 0 4424.0 0.821196052858145 1
gene  1 16 43 0.6306913671241241 0 4425.0 0.6306913671241241 1
gene  1 18 43 -0.7554022309249575 0 4427.0 -0.7554022309249575 1
gene  1 19 43 -0.5739350441029231 0 4428.0 -0.5739350441029231 1
gene  1 20 43 0.07161020021570985 0 4429.0 0.07161020021570985 1
gene  1 21 43 -0.37399251769650343 0 4430.0 -0.37399251769650343 1
gene  1 22 43 -0.038190175030905604 0 4431.0 -0.038190175030905604 1
gene  1 24 43 -0.17352672002622238 0 4433.0 -0.17352672002622238 1
gene  1 25 43 0.02412003745976954 0 4434.0 0.02412003745976954 1
gene  1 27 43 0.5215177052721902 0 4436.0 0.5215177052721902 1
gene  1 28 43 -0.25218797960284745 0 4437.0 -0.25218797960284745 1
gene  1 30 43 -0.6828093628155049 0 4439.0 -0.6828093628155049 1
gene  1 31 43 -0.5148343868225207 0 4440.0 -0.5148343868225207 1
gene  1 32 43 0.3333370850196399 0 4441.0 0.3333370850196399 1
gene  1 33 43 0.5294962025113192 0 4442.0 0.5294962025113192 1
gene  1 35 43 -0.9485833161454448 0 4444.0 -0.9485833161454448 1
gene  1 36 43 -0.6491288184539129 0 4445.0 -0.6491288184539129 1
gene  1 38 43 0.023046313513662264 0 4447.0 0.023046313513662264 1
gene  1 40 43 0.9218517046789141 0 4449.0 0.9218517046789141 1
gene  1 1 44 -0.6453583906459439 0 4515.0 -0.6453583906459439 1
gene  1 3 44 -0.25856958952441556 0 4517.0 -0.25856958952441556 1
gene  1 5 44 -0.668613341538077 0 4519.0 -0.668613341538077 1
gene  1 6 44 -0.18598317133592168 0 4520.0 -0.18598317133592168 1
gene  1 7 44 0.06332501802619639 0 4521.0 0.06332501802619639 1
gene  1 9 44 0.6846267505931783 0 4523.0 0.6846267505931783 1
gene  1 11 44 -0.9516219362905775 0 4525.0 -0.9516219362905775 1
gene  1 13 44 0.15342228247685452 0 4527.0 0.15342228247685452 1
gene  1 14 44 0.3319568768713217 0 4528.0 0.3319568768713217 1
gene  1 16 44 -0.4298473239169621 0 4530.0 -0.4298473239169621 1
gene  1 17 44 -0.5187551706775616 0 4531.0 -0.5187551706775616 1
gene  1 18 44 0.8800529559180432 0 4532.0 0.8800529559180432 1
gene  1 19 44 -0.398802160048364 0 4533.0 -0.398802160048364 1
gene  1 20 44 -0.4496464985285471 0 4534.0 -0.4496464985285471 1
gene  1 21 44 0.5933666540962271 0 4535.0 0.5933666540962271 1
gene  1 23 44 -0.1823370807408602 0 4537.0 -0.1823370807408602 1
gene  1 25 44 0.31530869325487876 0 4539.0 0.31530869325487876 1
gene  1 29 44 -0.7028491736326695 0 4543.0 -0.7028491736326695 1
gene  1 30 44 -0.346780988868683 0 4544.0 -0.346780988868683 1
gene  1 31 44 -0.16639539667744163 0 4545.0 -0.16639539667744163 1
gene  1 32 44 -0.6542829104678782 0 4546.0 -0.6542829104678782 1
gene  1 34 44 -0.18599052580898678 0 4548.0 -0.18599052580898678 1
gene  1 35 44 -0.5124943878376962 0 4549.0 -0.5124943878376962 1
gene  1 39 44 0.8970507443591957 0 4553.0 0.8970507443591957 1
gene  1 1 105 0.8891862373885955 0 10920.0 0.8891862373885955 1
gene  1 2 105 -0.3664516320301435 0 10921.0 -0.3664516320301435 1
gene  1 4 105 -0.9450328955915083 0 10923.0 -0.9450328955915083 1
gene  1 7 105 -0.18753174260882055 0 10926.0 -0.18753174260882055 1
gene  1 9 105 0.23068387483067787 0 10928.0 0.23068387483067787 1
gene  1 11 105 -0.4459285749185482 0 10930.0 -0.4459285749185482 1
gene  1 13 105 -0.8015628229413027 0 10932.0 -0.8015628229413027 1
gene  1 15 105 0.414642085148037 0 10934.0 0.414642085148037 1
gene  1 17 105 0.1518104006246851 0 10936.0 0.1518104006246851 1
gene  1 18 105 -0.6435494260519876 0 10937.0 -0.6435494260519876 1
gene  1 19 105 0.880506990599735 0 10938.0 0.880506990599735 1
gene  1 21 105 -0.3735484894425999 0 10940.0 -0.3735484894425999 1
gene  1 23 105 -0.7853155790712756 0 10942.0 -0.7853155790712756 1
gene  1 25 105 0.024078141498199757 0 10944.0 0.024078141498199757 1
gene  1 26 105 -0.36884724817639214 0 10945.0 -0.36884724817639214 1
gene  1 27 105 0.12253224692949038 0 10946.0 0.12253224692949038 1
gene  1 29 105 0.6750815868886035 0 10948.0 0.6750815868886035 1
gene  1 37 105 0.8198663110502712 0 10956.0 0.8198663110502712 1
gene  1 39 105 -0.9193068699169143 0 10958.0 -0.9193068699169143 1
gene  1 40 105 -0.9695604231348501 0 10959.0 -0.9695604231348501 1
gene  1 41 105 -0.37221956978059445 0 10960.0 -0.37221956978059445 1
gene  1 42 105 0.6361956887921262 0 10961.0 0.6361956887921262 1
genomeend 21
