genomestart  17
trait 1 0.0 0.0 0.0 0.0 0.0 0.0 0.0 0.0 0.0 0.0 0.0 0.0 0.0 0.0 0.0 0.0 0.0 0.0 0.0 0.0 
node 1 1 1 1
node 2 1 1 1
node 3 1 1 1
node 4 1 1 3
node 5 1 0 0
node 6 1 0 0
node 7 1 0 0
node 8 1 0 0
node 9 1 0 0
node 10 1 0 0
node 11 1 0 0
node 12 1 0 0
node 13 1 0 0
node 14 1 0 0
node 15 1 0 0
node 16 1 0 0
node 17 1 0 0
node 18 1 0 0
node 19 1 0 0
node 20 1 0 0
node 21 1 0 0
node 22 1 0 0
node 23 1 0 0
node 24 1 0 0
node 25 1 0 0
node 26 1 0 0
node 27 1 0 0
node 28 1 0 0
node 29 1 0 0
node 30 1 0 0
node 31 1 0 0
node 32 1 0 0
node 33 1 0 0
node 34 1 0 0
node 35 1 0 0
node 36 1 0 0
node 37 1 0 0
node 38 1 0 0
node 39 1 0 0
node 40 1 0 0
node 41 1 0 0
node 42 1 0 0
node 43 1 0 0
node 44 1 0 0
node 45 1 0 0
node 46 1 0 0
node 47 1 0 0
node 48 1 0 0
node 49 1 0 0
node 50 1 0 0
node 51 1 0 0
node 52 1 0 0
node 105 1 0 2
gene  1 3 5 -0.45676698133270355 0 422.0 -0.45676698133270355 1
gene  1 1 6 -0.03091665442648217 0 525.0 -0.03091665442648217 1
gene  1 2 6 0.014661031285039039 0 526.0 0.014661031285039039 1
gene  1 3 6 -0.8146112425873291 0 527.0 -0.8146112425873291 1
gene  1 4 6 0.3293496858323943 0 528.0 0.3293496858323943 1
gene  1 1 7 0.20985090258405792 0 630.0 0.20985090258405792 1
gene  1 3 7 -0.5800437002117604 0 632.0 -0.5800437002117604 1
gene  1 4 7 0.2994882121145547 0 633.0 0.2994882121145547 1
gene  1 3 8 -0.8054484933118399 0 737.0 -0.8054484933118399 1
gene  1 4 8 -0.2910636557879678 0 738.0 -0.2910636557879678 1
gene  1 7 8 0.9086098403187007 0 741.0 0.9086098403187007 1
gene  1 2 9 -0.12906554198223963 0 841.0 -0.12906554198223963 1
gene  1 6 9 -0.6064287698137257 0 845.0 -0.6064287698137257 1
gene  1 8 9 0.06405723396365226 0 847.0 0.06405723396365226 1
gene  1 2 10 0.9413789553341841 0 946.0 0.9413789553341841 1
gene  1 4 10 0.726022801970013 0 948.0 0.726022801970013 1
gene  1 7 10 -0.04471748301381706 0 951.0 -0.04471748301381706 1
gene  1 8 10 0.6672057829847158 0 952.0 0.6672057829847158 1
gene  1 9 10 -0.9529474917004103 0 953.0 -0.9529474917004103 1
gene  1 4 11 0.7200672926317612 0 1053.0 0.7200672926317612 1
gene  1 9 11 0.5010835312752148 0 1058.0 0.5010835312752148 1
gene  1 4 12 -0.2753170838402642 0 1158.0 -0.2753170838402642 1
gene  1 5 12 -0.5127790965298487 0 1159.0 -0.5127790965298487 1
gene  1 7 12 0.37968898904504766 0 1161.0 0.37968898904504766 1
gene  1 9 12 0.20093679071076143 0 1163.0 0.20093679071076143 1
gene  1 10 12 -0.7825006627500494 0 1164.0 -0.7825006627500494 1
gene  1 3 13 -0.16613704388190265 0 1262.0 -0.16613704388190265 1
gene  1 4 13 -0.9702354737695631 0 1263.0 -0.9702354737695631 1
gene  1 6 13 -0.07620987148368896 0 1265.0 -0.07620987148368896 1
gene  1 7 13 0.8090532039764889 0 1266.0 0.8090532039764889 1
gene  1 8 13 0.9668968658837379 0 1267.0 0.9668968658837379 1
gene  1 1 14 -0.7485587430630051 0 1365.0 -0.7485587430630051 1
gene  1 2 14 -0.3198702224624531 0 1366.0 -0.3198702224624531 1
gene  1 3 14 -0.981987160278188 0 1367.0 -0.981987160278188 1
gene  1 4 14 -0.8839008071053824 0 1368.0 -0.8839008071053824 1
gene  1 5 14 -0.4971462943026489 0 1369.0 -0.4971462943026489 1
gene  1 6 14 0.5844592917147097 0 1370.0 0.5844592917147097 1
gene  1 7 14 -0.31676165147143853 0 1371.0 -0.31676165147143853 1
gene  1 12 14 -0.6998856934785337 0 1376.0 -0.6998856934785337 1
gene  1 1 15 0.7691777543871309 0 1470.0 0.7691777543871309 1
gene  1 2 15 0.5397769039557441 0 1471.0 0.5397769039557441 1
gene  1 7 15 0.7496417767363667 0 1476.0 0.7496417767363667 1
gene  1 8 15 0.05877818716614891 0 1477.0 0.05877818716614891 1
gene  1 9 15 0.7519438054427985 0 1478.0 0.7519438054427985 1
gene  1 12 15 0.5678058970439233 0 1481.0 0.5678058970439233 1
gene  1 13 15 0.6947006111325611 0 1482.0 0.6947006111325611 1
gene  1 1 16 0.6341260091339552 0 1575.0 0.6341260091339552 1
gene  1 4 16 0.04800583391830293 0 1578.0 0.04800583391830293 1
gene  1 7 16 0.8494620903489998 0 1581.0 0.8494620903489998 1
gene  1 8 16 -0.6074536000573674 0 1582.0 -0.6074536000573674 1
gene  1 11 16 0.18881585413192137 0 1585.0 0.18881585413192137 1
gene  1 12 16 0.9567116484106417 0 1586.0 0.9567116484106417 1
gene  1 13 16 -0.586390453382522 0 1587.0 -0.586390453382522 1
gene  1 1 17 0.28101569130541915 0 1680.0 0.28101569130541915 1
gene  1 3 17 -0.38358940739090464 0 1682.0 -0.38358940739090464 1
gene  1 6 17 0.5454436303430376 0 1685.0 0.5454436303430376 1
gene  1 8 17 0.9348186368329451 0 1687.0 0.9348186368329451 1
gene  1 12 17 -0.2549099016783334 0 1691.0 -0.2549099016783334 1
gene  1 15 17 -0.23815261259898735 0 1694.0 -0.23815261259898735 1
gene  1 16 17 -0.009359860833749845 0 1695.0 -0.009359860833749845 1
gene  1 2 18 0.7248047117530277 0 1786.0 0.7248047117530277 1
gene  1 13 18 0.7275259665909499 0 1797.0 0.7275259665909499 1
gene  1 15 18 -0.9322001561406237 0 1799.0 -0.9322001561406237 1
gene  1 16 18 -0.40637544059467434 0 1800.0 -0.40637544059467434 1
gene  1 17 18 -0.7488380172105342 0 1801.0 -0.7488380172105342 1
gene  1 4 19 -0.5988865363309526 0 1893.0 -0.5988865363309526 1
gene  1 5 19 -0.29214433999679523 0 1894.0 -0.29214433999679523 1
gene  1 6 19 0.7435694926411152 0 1895.0 0.7435694926411152 1
gene  1 7 19 -0.3647986717112849 0 1896.0 -0.3647986717112849 1
gene  1 8 19 -0.27087152207818377 0 1897.0 -0.27087152207818377 1
gene  1 9 19 -0.5898124016469914 0 1898.0 -0.5898124016469914 1
gene  1 11 19 -0.8018211053911874 0 1900.0 -0.8018211053911874 1
gene  1 13 19 0.1402658177923678 0 1902.0 0.1402658177923678 1
gene  1 15 19 -0.05928859110126017 0 1904.0 -0.05928859110126017 1
gene  1 16 19 -0.7883068627680755 0 1905.0 -0.7883068627680755 1
gene  1 17 19 -0.7838765232900249 0 1906.0 -0.7838765232900249 1
gene  1 1 20 0.022964874629907372 0 1995.0 0.022964874629907372 1
gene  1 5 20 -0.15995008463047 0 1999.0 -0.15995008463047 1
gene  1 6 20 0.8234286585031418 0 2000.0 0.8234286585031418 1
gene  1 7 20 0.4207049667608388 0 2001.0 0.4207049667608388 1
gene  1 11 20 0.04502122988242274 0 2005.0 0.04502122988242274 1
gene  1 14 20 -0.11488795902017734 0 2008.0 -0.11488795902017734 1
gene  1 19 20 -0.9817378639450383 0 2013.0 -0.9817378639450383 1
gene  1 1 21 -0.18226632973356904 0 2100.0 -0.18226632973356904 1
gene  1 2 21 0.33027287593070986 0 2101.0 0.33027287593070986 1
gene  1 4 21 0.37254691133851925 0 2103.0 0.37254691133851925 1
gene  1 5 21 -0.6130430174759262 0 2104.0 -0.6130430174759262 1
gene  1 7 21 -0.6189133105041055 0 2106.0 -0.6189133105041055 1
gene  1 8 21 0.3821960175097602 0 2107.0 0.3821960175097602 1
gene  1 13 21 -0.476656992720643 0 2112.0 -0.476656992720643 1
gene  1 15 21 0.8398114143010424 0 2114.0 0.8398114143010424 1
gene  1 17 21 -0.0626883146597309 0 2116.0 -0.0626883146597309 1
gene  1 19 21 0.47739848185814115 0 2118.0 0.47739848185814115 1
gene  1 1 22 -0.4737883838893554 0 2205.0 -0.4737883838893554 1
gene  1 2 22 0.2520006890025016 0 2206.0 0.2520006890025016 1
gene  1 3 22 -0.19472617166553663 0 2207.0 -0.19472617166553663 1
gene  1 4 22 0.9028932742526704 0 2208.0 0.9028932742526704 1
gene  1 9 22 0.5424978022448672 0 2213.0 0.5424978022448672 1
gene  1 14 22 -0.8158216551719237 0 2218.0 -0.8158216551719237 1
gene  1 16 22 0.633689755700108 0 2220.0 0.633689755700108 1
gene  1 17 22 0.6656118594879907 0 2221.0 0.6656118594879907 1
gene  1 20 22 0.5325265498604654 0 2224.0 0.5325265498604654 1
gene  1 1 23 0.0010226991091282223 0 2310.0 0.0010226991091282223 1
gene  1 3 23 -0.31537298265728153 0 2312.0 -0.31537298265728153 1
gene  1 4 23 0.8153618964498717 0 2313.0 0.8153618964498717 1
gene  1 6 23 0.8976193149344656 0 2315.0 0.8976193149344656 1
gene  1 10 23 0.9248850424735906 0 2319.0 0.9248850424735906 1
gene  1 11 23 0.15690704800634248 0 2320.0 0.15690704800634248 1
gene  1 13 23 -0.28755929310370965 0 2322.0 -0.28755929310370965 1
gene  1 14 23 0.41898832336799363 0 2323.0 0.41898832336799363 1
gene  1 15 23 0.713053151908912 0 2324.0 0.713053151908912 1
gene  1 17 23 0.2688761245298027 0 2326.0 0.2688761245298027 1
gene  1 18 23 0.053827748694397215 0 2327.0 0.053827748694397215 1
gene  1 19 23 -0.5789152040978657 0 2328.0 -0.5789152040978657 1
gene  1 21 23 0.23779313507280941 0 2330.0 0.23779313507280941 1
gene  1 6 24 0.780441150714831 0 2420.0 0.780441150714831 1
gene  1 7 24 -0.7155937949397416 0 2421.0 -0.7155937949397416 1
gene  1 10 24 0.5579997892220511 0 2424.0 0.5579997892220511 1
gene  1 13 24 -0.47284339896352157 0 2427.0 -0.47284339896352157 1
gene  1 16 24 -0.45851021388540414 0 2430.0 -0.45851021388540414 1
gene  1 18 24 0.571118188253738 0 2432.0 0.571118188253738 1
gene  1 20 24 -0.6195475563057414 0 2434.0 -0.6195475563057414 1
gene  1 3 25 -0.3196409960601676 0 2522.0 -0.3196409960601676 1
gene  1 4 25 -0.5611838067895027 0 2523.0 -0.5611838067895027 1
gene  1 6 25 0.6973796408605938 0 2525.0 0.6973796408605938 1
gene  1 7 25 -0.30682216760258285 0 2526.0 -0.30682216760258285 1
gene  1 9 25 0.4406961528320724 0 2528.0 0.4406961528320724 1
gene  1 10 25 -0.3941189343556254 0 2529.0 -0.3941189343556254 1
gene  1 11 25 0.01662133862924542 0 2530.0 0.01662133862924542 1
gene  1 13 25 0.03154259693153927 0 2532.0 0.03154259693153927 1
gene  1 15 25 -0.26993896365718795 0 2534.0 -0.26993896365718795 1
gene  1 19 25 0.508949213932403 0 2538.0 0.508949213932403 1
gene  1 20 25 0.4493166372286239 0 2539.0 0.4493166372286239 1
gene  1 22 25 -0.5651133231085811 0 2541.0 -0.5651133231085811 1
gene  1 24 25 0.4540495483055369 0 2543.0 0.4540495483055369 1
gene  1 2 26 -0.3651956110305372 0 2626.0 -0.3651956110305372 1
gene  1 7 26 -0.6113177473526674 0 2631.0 -0.6113177473526674 1
gene  1 8 26 0.8695565855815229 0 2632.0 0.8695565855815229 1
gene  1 12 26 -0.8695483163006409 0 2636.0 -0.8695483163006409 1
gene  1 14 26 -0.08780606657745216 0 2638.0 -0.08780606657745216 1
gene  1 20 26 0.597900163105849 0 2644.0 0.597900163105849 1
gene  1 21 26 -0.006754262619518281 0 2645.0 -0.006754262619518281 1
gene  1 22 26 0.5235897876019462 0 2646.0 0.5235897876019462 1
gene  1 23 26 0.005047411149427861 0 2647.0 0.005047411149427861 1
gene  1 25 26 0.9505659997195472 0 2649.0 0.9505659997195472 1
gene  1 3 27 -0.348071248178655 0 2732.0 -0.348071248178655 1
gene  1 8 27 0.9071642038862446 0 2737.0 0.9071642038862446 1
gene  1 12 27 -0.3062927950857013 0 2741.0 -0.3062927950857013 1
gene  1 13 27 0.14745298065175527 0 2742.0 0.14745298065175527 1
gene  1 16 27 0.44925763073447833 0 2745.0 0.44925763073447833 1
gene  1 17 27 -0.1623380567231668 0 2746.0 -0.1623380567231668 1
gene  1 18 27 -0.07352753975558024 0 2747.0 -0.07352753975558024 1
gene  1 19 27 -0.85302080819263 0 2748.0 -0.85302080819263 1
gene  1 20 27 -0.15712994826415538 0 2749.0 -0.15712994826415538 1
gene  1 21 27 0.04420226343046629 0 2750.0 0.04420226343046629 1
gene  1 23 27 0.3182386598727822 0 2752.0 0.3182386598727822 1
gene  1 25 27 0.6497358370269266 0 2754.0 0.6497358370269266 1
gene  1 1 28 0.3462011586394158 0 2835.0 0.3462011586394158 1
gene  1 3 28 -0.5066658345792373 0 2837.0 -0.5066658345792373 1
gene  1 7 28 -0.4977332371388097 0 2841.0 -0.4977332371388097 1
gene  1 8 28 -0.23050593229612015 0 2842.0 -0.23050593229612015 1
gene  1 11 28 -0.13832711387379304 0 2845.0 -0.13832711387379304 1
gene  1 12 28 0.5818274798370916 0 2846.0 0.5818274798370916 1
gene  1 13 28 -0.3397021499899706 0 2847.0 -0.3397021499899706 1
gene  1 15 28 0.7167632514776662 0 2849.0 0.7167632514776662 1
gene  1 16 28 0.20160566177626238 0 2850.0 0.20160566177626238 1
gene  1 17 28 0.42745019488882596 0 2851.0 0.42745019488882596 1
gene  1 19 28 0.01573235363906167 0 2853.0 0.01573235363906167 1
gene  1 20 28 0.2788606982072067 0 2854.0 0.2788606982072067 1
gene  1 23 28 0.34311531591764777 0 2857.0 0.34311531591764777 1
gene  1 25 28 0.21749771363900638 0 2859.0 0.21749771363900638 1
gene  1 2 29 -0.6650772436550147 0 2941.0 -0.6650772436550147 1
gene  1 6 29 0.9527222423441357 0 2945.0 0.9527222423441357 1
gene  1 7 29 -0.8624038132946422 0 2946.0 -0.8624038132946422 1
gene  1 9 29 -0.2875883706537409 0 2948.0 -0.2875883706537409 1
gene  1 10 29 0.6677943345944045 0 2949.0 0.6677943345944045 1
gene  1 11 29 -0.08372332117939218 0 2950.0 -0.08372332117939218 1
gene  1 12 29 -0.19959558764468444 0 2951.0 -0.19959558764468444 1
gene  1 13 29 0.3207759040140119 0 2952.0 0.3207759040140119 1
gene  1 17 29 -0.6367070057481532 0 2956.0 -0.6367070057481532 1
gene  1 19 29 0.28421100268457333 0 2958.0 0.28421100268457333 1
gene  1 21 29 0.14612290158563412 0 2960.0 0.14612290158563412 1
gene  1 22 29 -0.678849278425703 0 2961.0 -0.678849278425703 1
gene  1 23 29 0.8727662744740253 0 2962.0 0.8727662744740253 1
gene  1 24 29 -0.9979103083849945 0 2963.0 -0.9979103083849945 1
gene  1 25 29 0.06180839380919467 0 2964.0 0.06180839380919467 1
gene  1 27 29 0.41929900561575173 0 2966.0 0.41929900561575173 1
gene  1 2 30 -0.587383305497831 0 3046.0 -0.587383305497831 1
gene  1 5 30 -0.5400858076625008 0 3049.0 -0.5400858076625008 1
gene  1 8 30 0.10563014427403528 0 3052.0 0.10563014427403528 1
gene  1 9 30 0.36654673886757905 0 3053.0 0.36654673886757905 1
gene  1 13 30 -0.914148418617228 0 3057.0 -0.914148418617228 1
gene  1 18 30 -0.8784961929280777 0 3062.0 -0.8784961929280777 1
gene  1 20 30 -0.8071441787029905 0 3064.0 -0.8071441787029905 1
gene  1 21 30 0.46567334423607987 0 3065.0 0.46567334423607987 1
gene  1 22 30 -0.03390040632263602 0 3066.0 -0.03390040632263602 1
gene  1 23 30 -0.9730239916110607 0 3067.0 -0.9730239916110607 1
gene  1 24 30 0.421267348229314 0 3068.0 0.421267348229314 1
gene  1 25 30 0.7847775379737771 0 3069.0 0.7847775379737771 1
gene  1 28 30 -0.34108757871790074 0 3072.0 -0.34108757871790074 1
gene  1 8 31 0.47189267532833234 0 3157.0 0.47189267532833234 1
gene  1 9 31 0.38284386779259383 0 3158.0 0.38284386779259383 1
gene  1 10 31 -0.054700092098519115 0 3159.0 -0.054700092098519115 1
gene  1 13 31 -0.7523690474894869 0 3162.0 -0.7523690474894869 1
gene  1 15 31 0.22448163309978086 0 3164.0 0.22448163309978086 1
gene  1 16 31 -0.9429269043883621 0 3165.0 -0.9429269043883621 1
gene  1 17 31 -0.7579749400755562 0 3166.0 -0.7579749400755562 1
gene  1 19 31 0.0639211458318889 0 3168.0 0.0639211458318889 1
gene  1 20 31 -0.9041727595538797 0 3169.0 -0.9041727595538797 1
gene  1 22 31 0.28166148553707604 0 3171.0 0.28166148553707604 1
gene  1 24 31 0.07771603638948688 0 3173.0 0.07771603638948688 1
gene  1 26 31 -0.812287059544208 0 3175.0 -0.812287059544208 1
gene  1 27 31 0.013044725035549098 0 3176.0 0.013044725035549098 1
gene  1 28 31 0.28059813034266856 0 3177.0 0.28059813034266856 1
gene  1 30 31 -0.6762863093350239 0 3179.0 -0.6762863093350239 1
gene  1 2 32 0.7920681212945672 0 3256.0 0.7920681212945672 1
gene  1 5 32 0.37157949436150517 0 3259.0 0.37157949436150517 1
gene  1 6 32 0.8496122581876571 0 3260.0 0.8496122581876571 1
gene  1 7 32 -0.3369689747722806 0 3261.0 -0.3369689747722806 1
gene  1 9 32 0.18640128067178507 0 3263.0 0.18640128067178507 1
gene  1 11 32 -0.5732427692847748 0 3265.0 -0.5732427692847748 1
gene  1 13 32 -0.5616398855776779 0 3267.0 -0.5616398855776779 1
gene  1 14 32 0.12279095853603317 0 3268.0 0.12279095853603317 1
gene  1 18 32 0.9239780485117118 0 3272.0 0.9239780485117118 1
gene  1 22 32 0.7326051462510231 0 3276.0 0.7326051462510231 1
gene  1 23 32 -0.09533158079268067 0 3277.0 -0.09533158079268067 1
gene  1 24 32 -0.3978289868140714 0 3278.0 -0.3978289868140714 1
gene  1 25 32 -0.18718486565082626 0 3279.0 -0.18718486565082626 1
gene  1 26 32 -0.5877144132459677 0 3280.0 -0.5877144132459677 1
gene  1 28 32 -0.036511483608288486 0 3282.0 -0.036511483608288486 1
gene  1 30 32 -0.939832921343403 0 3284.0 -0.939832921343403 1
gene  1 31 32 -0.054512620727500516 0 3285.0 -0.054512620727500516 1
gene  1 1 33 0.7782214763788364 0 3360.0 0.7782214763788364 1
gene  1 4 33 0.28092143292571503 0 3363.0 0.28092143292571503 1
gene  1 12 33 0.430269719139152 0 3371.0 0.430269719139152 1
gene  1 13 33 -0.7082928703918165 0 3372.0 -0.7082928703918165 1
gene  1 19 33 -0.0401847024348736 0 3378.0 -0.0401847024348736 1
gene  1 20 33 0.12192055313620342 0 3379.0 0.12192055313620342 1
gene  1 22 33 -0.92974981817307 0 3381.0 -0.92974981817307 1
gene  1 25 33 0.9145485086139543 0 3384.0 0.9145485086139543 1
gene  1 27 33 0.5007872074552205 0 3386.0 0.5007872074552205 1
gene  1 28 33 0.028262405012038028 0 3387.0 0.028262405012038028 1
gene  1 29 33 0.9834372674699294 0 3388.0 0.9834372674699294 1
gene  1 30 33 -0.07064843038337021 0 3389.0 -0.07064843038337021 1
gene  1 32 33 -0.0700339356596209 0 3391.0 -0.0700339356596209 1
gene  1 1 34 -0.7213231948261635 0 3465.0 -0.7213231948261635 1
gene  1 2 34 -0.8120384972955378 0 3466.0 -0.8120384972955378 1
gene  1 3 34 -0.8007546995523137 0 3467.0 -0.8007546995523137 1
gene  1 4 34 0.6948542413309542 0 3468.0 0.6948542413309542 1
gene  1 6 34 -0.9726214912531188 0 3470.0 -0.9726214912531188 1
gene  1 7 34 -0.5482561841703882 0 3471.0 -0.5482561841703882 1
gene  1 8 34 0.1878504554999102 0 3472.0 0.1878504554999102 1
gene  1 9 34 -0.5313087393424668 0 3473.0 -0.5313087393424668 1
gene  1 12 34 -0.2574385413589777 0 3476.0 -0.2574385413589777 1
gene  1 13 34 -0.7045043189874939 0 3477.0 -0.7045043189874939 1
gene  1 16 34 -0.3904108941959401 0 3480.0 -0.3904108941959401 1
gene  1 17 34 -0.704539321330295 0 3481.0 -0.704539321330295 1
gene  1 22 34 0.13698671102264126 0 3486.0 0.13698671102264126 1
gene  1 23 34 -0.39290561040069916 0 3487.0 -0.39290561040069916 1
gene  1 24 34 -0.7743832799838869 0 3488.0 -0.7743832799838869 1
gene  1 25 34 -0.5498455583889872 0 3489.0 -0.5498455583889872 1
gene  1 30 34 -0.7899156725930724 0 3494.0 -0.7899156725930724 1
gene  1 1 35 -0.26019993582897216 0 3570.0 -0.26019993582897216 1
gene  1 3 35 0.2667982455486092 0 3572.0 0.2667982455486092 1
gene  1 4 35 0.08232320655422765 0 3573.0 0.08232320655422765 1
gene  1 6 35 -0.18591171810877516 0 3575.0 -0.18591171810877516 1
gene  1 7 35 -0.5046310837358792 0 3576.0 -0.5046310837358792 1
gene  1 10 35 0.42264739156993514 0 3579.0 0.42264739156993514 1
gene  1 11 35 -0.9317480643309064 0 3580.0 -0.9317480643309064 1
gene  1 13 35 0.8735183726562258 0 3582.0 0.8735183726562258 1
gene  1 16 35 0.6749668107733859 0 3585.0 0.6749668107733859 1
gene  1 18 35 -0.5051074181640959 0 3587.0 -0.5051074181640959 1
gene  1 20 35 -0.3430845615232567 0 3589.0 -0.3430845615232567 1
gene  1 22 35 0.5467548197478778 0 3591.0 0.5467548197478778 1
gene  1 24 35 -0.5387402928806907 0 3593.0 -0.5387402928806907 1
gene  1 26 35 -0.5711196630798915 0 3595.0 -0.5711196630798915 1
gene  1 27 35 0.8047792819849281 0 3596.0 0.8047792819849281 1
gene  1 28 35 0.43816889511886503 0 3597.0 0.43816889511886503 1
gene  1 29 35 -0.08215007101707616 0 3598.0 -0.08215007101707616 1
gene  1 30 35 0.2869730355853891 0 3599.0 0.2869730355853891 1
gene  1 31 35 -0.8848717216352017 0 3600.0 -0.8848717216352017 1
gene  1 33 35 -0.05904852163329566 0 3602.0 -0.05904852163329566 1
gene  1 1 36 -0.4617641495435435 0 3675.0 -0.4617641495435435 1
gene  1 2 36 0.6759904697120411 0 3676.0 0.6759904697120411 1
gene  1 4 36 0.37130031847182854 0 3678.0 0.37130031847182854 1
gene  1 6 36 -0.9419191384357013 0 3680.0 -0.9419191384357013 1
gene  1 8 36 -0.3715661994868038 0 3682.0 -0.3715661994868038 1
gene  1 10 36 -0.7236577151668436 0 3684.0 -0.7236577151668436 1
gene  1 12 36 0.5043596205737976 0 3686.0 0.5043596205737976 1
gene  1 13 36 0.3293373492511211 0 3687.0 0.3293373492511211 1
gene  1 14 36 -0.0806469954339345 0 3688.0 -0.0806469954339345 1
gene  1 16 36 0.2824143364252608 0 3690.0 0.2824143364252608 1
gene  1 19 36 -0.11720747779665353 0 3693.0 -0.11720747779665353 1
gene  1 20 36 -0.36139374437454197 0 3694.0 -0.36139374437454197 1
gene  1 26 36 -0.20905974695406293 0 3700.0 -0.20905974695406293 1
gene  1 27 36 0.8735731652682026 0 3701.0 0.8735731652682026 1
gene  1 29 36 -0.7601358856632857 0 3703.0 -0.7601358856632857 1
gene  1 31 36 -0.3291728825624409 0 3705.0 -0.3291728825624409 1
gene  1 32 36 0.8734630200346961 0 3706.0 0.8734630200346961 1
gene  1 1 37 -0.1690492195929495 0 3780.0 -0.1690492195929495 1
gene  1 4 37 -0.2558901080460865 0 3783.0 -0.2558901080460865 1
gene  1 7 37 -0.241476241406423 0 3786.0 -0.241476241406423 1
gene  1 8 37 0.9909936551819422 0 3787.0 0.9909936551819422 1
gene  1 9 37 0.3392393464060477 0 3788.0 0.3392393464060477 1
gene  1 11 37 -0.7309042952231322 0 3790.0 -0.7309042952231322 1
gene  1 12 37 0.9780571405326012 0 3791.0 0.9780571405326012 1
gene  1 19 37 0.47953825903386926 0 3798.0 0.47953825903386926 1
gene  1 21 37 0.310849629263218 0 3800.0 0.310849629263218 1
gene  1 22 37 -0.5895514751130871 0 3801.0 -0.5895514751130871 1
gene  1 24 37 -0.026986552416714993 0 3803.0 -0.026986552416714993 1
gene  1 25 37 -0.64477567993932 0 3804.0 -0.64477567993932 1
gene  1 28 37 0.8219472336328538 0 3807.0 0.8219472336328538 1
gene  1 29 37 0.47838968016533445 0 3808.0 0.47838968016533445 1
gene  1 30 37 -0.5009762801165067 0 3809.0 -0.5009762801165067 1
gene  1 34 37 -0.8679908261334626 0 3813.0 -0.8679908261334626 1
gene  1 2 38 0.0701166090042028 0 3886.0 0.0701166090042028 1
gene  1 3 38 -0.3423057470255122 0 3887.0 -0.3423057470255122 1
gene  1 4 38 0.2438234384151663 0 3888.0 0.2438234384151663 1
gene  1 5 38 0.5820307474749687 0 3889.0 0.5820307474749687 1
gene  1 7 38 0.5993047124657068 0 3891.0 0.5993047124657068 1
gene  1 10 38 0.7561734668016948 0 3894.0 0.7561734668016948 1
gene  1 13 38 -0.24176883246328118 0 3897.0 -0.24176883246328118 1
gene  1 16 38 -0.583584544046711 0 3900.0 -0.583584544046711 1
gene  1 18 38 -0.7845979225116239 0 3902.0 -0.7845979225116239 1
gene  1 19 38 -0.8602840778999437 0 3903.0 -0.8602840778999437 1
gene  1 20 38 -0.7855235702490315 0 3904.0 -0.7855235702490315 1
gene  1 22 38 -0.7252874337525834 0 3906.0 -0.7252874337525834 1
gene  1 25 38 0.0715088931290766 0 3909.0 0.0715088931290766 1
gene  1 26 38 0.20588454647937193 0 3910.0 0.20588454647937193 1
gene  1 28 38 0.34892367529239476 0 3912.0 0.34892367529239476 1
gene  1 30 38 0.567424031241089 0 3914.0 0.567424031241089 1
gene  1 31 38 -0.7739697623289684 0 3915.0 -0.7739697623289684 1
gene  1 32 38 0.38355343939208275 0 3916.0 0.38355343939208275 1
gene  1 33 38 -0.5934143207220306 0 3917.0 -0.5934143207220306 1
gene  1 34 38 -0.3620539617384815 0 3918.0 -0.3620539617384815 1
gene  1 35 38 0.2966025615808495 0 3919.0 0.2966025615808495 1
gene  1 36 38 0.4511151261703008 0 3920.0 0.4511151261703008 1
gene  1 37 38 0.3295049591977771 0 3921.0 0.3295049591977771 1
gene  1 1 39 -0.8674023458638692 0 3990.0 -0.8674023458638692 1
gene  1 2 39 -0.7323209194924599 0 3991.0 -0.7323209194924599 1
gene  1 4 39 0.3729716360442561 0 3993.0 0.3729716360442561 1
gene  1 7 39 0.3945141627134017 0 3996.0 0.3945141627134017 1
gene  1 12 39 0.6319177164052847 0 4001.0 0.6319177164052847 1
gene  1 13 39 -0.8031364831710012 0 4002.0 -0.8031364831710012 1
gene  1 15 39 0.13712692910238833 0 4004.0 0.13712692910238833 1
gene  1 16 39 0.8897524193124684 0 4005.0 0.8897524193124684 1
gene  1 20 39 0.08944444421915909 0 4009.0 0.08944444421915909 1
gene  1 22 39 0.5142996369076754 0 4011.0 0.5142996369076754 1
gene  1 26 39 -0.12217303470835672 0 4015.0 -0.12217303470835672 1
gene  1 28 39 0.8810619402130212 0 4017.0 0.8810619402130212 1
gene  1 29 39 0.7228091804257883 0 4018.0 0.7228091804257883 1
gene  1 31 39 0.930572999750616 0 4020.0 0.930572999750616 1
gene  1 32 39 -0.07085821993208685 0 4021.0 -0.07085821993208685 1
gene  1 34 39 -0.7475073577266744 0 4023.0 -0.7475073577266744 1
gene  1 35 39 0.6954734815451592 0 4024.0 0.6954734815451592 1
gene  1 2 40 0.45637174754817145 0 4096.0 0.45637174754817145 1
gene  1 4 40 0.6006991805340904 0 4098.0 0.6006991805340904 1
gene  1 5 40 -0.7790313280129042 0 4099.0 -0.7790313280129042 1
gene  1 6 40 0.34182965913572594 0 4100.0 0.34182965913572594 1
gene  1 9 40 -0.5034307970820738 0 4103.0 -0.5034307970820738 1
gene  1 10 40 0.19093738477823818 0 4104.0 0.19093738477823818 1
gene  1 11 40 0.21196580969796908 0 4105.0 0.21196580969796908 1
gene  1 13 40 -0.22765892549966282 0 4107.0 -0.22765892549966282 1
gene  1 14 40 0.6021782424001781 0 4108.0 0.6021782424001781 1
gene  1 15 40 -0.6588588533283986 0 4109.0 -0.6588588533283986 1
gene  1 18 40 0.6602150851566163 0 4112.0 0.6602150851566163 1
gene  1 19 40 0.7340499858704093 0 4113.0 0.7340499858704093 1
gene  1 22 40 -0.7945848830224816 0 4116.0 -0.7945848830224816 1
gene  1 25 40 0.14135418776480646 0 4119.0 0.14135418776480646 1
gene  1 27 40 -0.2803624832387941 0 4121.0 -0.2803624832387941 1
gene  1 32 40 -0.23088877145018127 0 4126.0 -0.23088877145018127 1
gene  1 33 40 -0.5222694982347539 0 4127.0 -0.5222694982347539 1
gene  1 35 40 0.8782230148949862 0 4129.0 0.8782230148949862 1
gene  1 39 40 -0.10343860612953104 0 4133.0 -0.10343860612953104 1
gene  1 1 41 0.44944447392012854 0 4200.0 0.44944447392012854 1
gene  1 3 41 0.47629920152235417 0 4202.0 0.47629920152235417 1
gene  1 6 41 -0.7351353227529528 0 4205.0 -0.7351353227529528 1
gene  1 11 41 0.7990399158519305 0 4210.0 0.7990399158519305 1
gene  1 12 41 -0.05654080192347488 0 4211.0 -0.05654080192347488 1
gene  1 13 41 -0.8335321558802082 0 4212.0 -0.8335321558802082 1
gene  1 15 41 0.47372951349738057 0 4214.0 0.47372951349738057 1
gene  1 17 41 -0.9051902790807073 0 4216.0 -0.9051902790807073 1
gene  1 18 41 -0.20363340621290604 0 4217.0 -0.20363340621290604 1
gene  1 19 41 0.5944842673836065 0 4218.0 0.5944842673836065 1
gene  1 25 41 -0.5758157813262806 0 4224.0 -0.5758157813262806 1
gene  1 26 41 -0.8779595913171186 0 4225.0 -0.8779595913171186 1
gene  1 27 41 -0.8605105058510952 0 4226.0 -0.8605105058510952 1
gene  1 28 41 0.03241404426857386 0 4227.0 0.03241404426857386 1
gene  1 32 41 -0.7441937135173137 0 4231.0 -0.7441937135173137 1
gene  1 35 41 0.47843174377064623 0 4234.0 0.47843174377064623 1
gene  1 36 41 0.5423637537642395 0 4235.0 0.5423637537642395 1
gene  1 38 41 -0.5323354786008175 0 4237.0 -0.5323354786008175 1
gene  1 39 41 0.5546931026233662 0 4238.0 0.5546931026233662 1
gene  1 40 41 0.2330627020931736 0 4239.0 0.2330627020931736 1
gene  1 4 42 -0.9570865775004147 0 4308.0 -0.9570865775004147 1
gene  1 5 42 0.8585912232336159 0 4309.0 0.8585912232336159 1
gene  1 6 42 -0.6275903982901133 0 4310.0 -0.6275903982901133 1
gene  1 9 42 0.3605779691239793 0 4313.0 0.3605779691239793 1
gene  1 10 42 0.6026670129545016 0 4314.0 0.6026670129545016 1
gene  1 11 42 -0.45392250601362083 0 4315.0 -0.45392250601362083 1
gene  1 14 42 0.8607971314401255 0 4318.0 0.8607971314401255 1
gene  1 15 42 -0.45999031758370346 0 4319.0 -0.45999031758370346 1
gene  1 18 42 0.25764686835009765 0 4322.0 0.25764686835009765 1
gene  1 19 42 -0.1020106738615838 0 4323.0 -0.1020106738615838 1
gene  1 20 42 -0.9457939266466697 0 4324.0 -0.9457939266466697 1
gene  1 21 42 -0.877614113052095 0 4325.0 -0.877614113052095 1
gene  1 22 42 -0.06538974499231309 0 4326.0 -0.06538974499231309 1
gene  1 23 42 0.8364635576065227 0 4327.0 0.8364635576065227 1
gene  1 25 42 0.528202728191921 0 4329.0 0.528202728191921 1
gene  1 27 42 -0.41552383905832024 0 4331.0 -0.41552383905832024 1
gene  1 28 42 0.8092816502186412 0 4332.0 0.8092816502186412 1
gene  1 29 42 0.5562810282328061 0 4333.0 0.5562810282328061 1
gene  1 30 42 -0.9205325381744984 0 4334.0 -0.9205325381744984 1
gene  1 34 42 0.48104180607476665 0 4338.0 0.48104180607476665 1
gene  1 35 42 -0.4143009396355325 0 4339.0 -0.4143009396355325 1
gene  1 38 42 -0.4119330046109605 0 4342.0 -0.4119330046109605 1
gene  1 39 42 -0.4017584826512045 0 4343.0 -0.4017584826512045 1
gene  1 40 42 -0.8997085467620591 0 4344.0 -0.8997085467620591 1
gene  1 1 43 0.4533324751268325 0 4410.0 0.4533324751268325 1
gene  1 4 43 0.7051727158980489 0 4413.0 0.7051727158980489 1
gene  1 5 43 0.5081343375522734 0 4414.0 0.5081343375522734 1
gene  1 6 43 0.08782473583957884 0 4415.0 0.08782473583957884 1
gene  1 7 43 -0.8562376695336397 0 4416.0 -0.8562376695336397 1
gene  1 8 43 -0.1443143351979186 0 4417.0 -0.1443143351979186 1
gene  1 11 43 0.7274997652738044 0 4420.0 0.7274997652738044 1
gene  1 13 43 0.6919743133697942 0 4422.0 0.6919743133697942 1
gene  1 16 43 0.3474690467796475 0 4425.0 0.3474690467796475 1
gene  1 17 43 0.7065280720129357 0 4426.0 0.7065280720129357 1
gene  1 21 43 -0.035211703612349377 0 4430.0 -0.035211703612349377 1
gene  1 22 43 -0.9107298922333825 0 4431.0 -0.9107298922333825 1
gene  1 28 43 -0.7147587971934192 0 4437.0 -0.7147587971934192 1
gene  1 29 43 -0.7682251872941587 0 4438.0 -0.7682251872941587 1
gene  1 30 43 0.367959763023604 0 4439.0 0.367959763023604 1
gene  1 32 43 0.6986693774438121 0 4441.0 0.6986693774438121 1
gene  1 34 43 0.5373085222140062 0 4443.0 0.5373085222140062 1
gene  1 36 43 -0.3091712570031875 0 4445.0 -0.3091712570031875 1
gene  1 38 43 0.5207518512705172 0 4447.0 0.5207518512705172 1
gene  1 42 43 -0.7674371137441048 0 4451.0 -0.7674371137441048 1
gene  1 1 44 -0.786533597786793 0 4515.0 -0.786533597786793 1
gene  1 4 44 -0.9078041458649219 0 4518.0 -0.9078041458649219 1
gene  1 5 44 -0.9052873567908343 0 4519.0 -0.9052873567908343 1
gene  1 7 44 -0.5172743531466184 0 4521.0 -0.5172743531466184 1
gene  1 10 44 0.92471452030816 0 4524.0 0.92471452030816 1
gene  1 11 44 0.5034461474647299 0 4525.0 0.5034461474647299 1
gene  1 12 44 0.9421514313295103 0 4526.0 0.9421514313295103 1
gene  1 13 44 -0.7015163107150917 0 4527.0 -0.7015163107150917 1
gene  1 14 44 -0.04520098844297449 0 4528.0 -0.04520098844297449 1
gene  1 15 44 0.8816645869326576 0 4529.0 0.8816645869326576 1
gene  1 17 44 0.6265262518083848 0 4531.0 0.6265262518083848 1
gene  1 19 44 -0.11416564984503486 0 4533.0 -0.11416564984503486 1
gene  1 20 44 -0.8597964390561195 0 4534.0 -0.8597964390561195 1
gene  1 21 44 0.964800578442264 0 4535.0 0.964800578442264 1
gene  1 23 44 -0.5435532784822482 0 4537.0 -0.5435532784822482 1
gene  1 24 44 -0.9368484085971245 0 4538.0 -0.9368484085971245 1
gene  1 25 44 -0.1916916445879605 0 4539.0 -0.1916916445879605 1
gene  1 26 44 0.9803834184013659 0 4540.0 0.9803834184013659 1
gene  1 28 44 -0.5856046874267608 0 4542.0 -0.5856046874267608 1
gene  1 32 44 0.5481483992763672 0 4546.0 0.5481483992763672 1
gene  1 35 44 0.18226204526494794 0 4549.0 0.18226204526494794 1
gene  1 37 44 -0.7023729630281927 0 4551.0 -0.7023729630281927 1
gene  1 38 44 0.09441366690900843 0 4552.0 0.09441366690900843 1
gene  1 41 44 -0.719292296617464 0 4555.0 -0.719292296617464 1
gene  1 1 45 0.88301434507967 0 4620.0 0.88301434507967 1
gene  1 2 45 0.2774075900568085 0 4621.0 0.2774075900568085 1
gene  1 3 45 -0.6055307289207483 0 4622.0 -0.6055307289207483 1
gene  1 5 45 -0.7510811930163431 0 4624.0 -0.7510811930163431 1
gene  1 7 45 -0.8551588013199068 0 4626.0 -0.8551588013199068 1
gene  1 8 45 -0.7708279743162764 0 4627.0 -0.7708279743162764 1
gene  1 9 45 0.7845489589993868 0 4628.0 0.7845489589993868 1
gene  1 10 45 -0.4753770914447816 0 4629.0 -0.4753770914447816 1
gene  1 11 45 0.023264517854753253 0 4630.0 0.023264517854753253 1
gene  1 14 45 0.9024249072168997 0 4633.0 0.9024249072168997 1
gene  1 15 45 0.22198338957659425 0 4634.0 0.22198338957659425 1
gene  1 16 45 -0.2997660796093362 0 4635.0 -0.2997660796093362 1
gene  1 17 45 0.37017353889958815 0 4636.0 0.37017353889958815 1
gene  1 21 45 -0.4437254482480043 0 4640.0 -0.4437254482480043 1
gene  1 23 45 0.18898084419671735 0 4642.0 0.18898084419671735 1
gene  1 25 45 0.937525147602438 0 4644.0 0.937525147602438 1
gene  1 27 45 -0.2711218355178392 0 4646.0 -0.2711218355178392 1
gene  1 28 45 -0.16815989176265234 0 4647.0 -0.16815989176265234 1
gene  1 29 45 0.17593500377541993 0 4648.0 0.17593500377541993 1
gene  1 31 45 0.8798791023299557 0 4650.0 0.8798791023299557 1
gene  1 33 45 0.858541006330623 0 4652.0 0.858541006330623 1
gene  1 40 45 -0.8804969440712284 0 4659.0 -0.8804969440712284 1
gene  1 41 45 -0.4517192978468111 0 4660.0 -0.4517192978468111 1
gene  1 43 45 0.4487880609945001 0 4662.0 0.4487880609945001 1
gene  1 44 45 0.9073607379464431 0 4663.0 0.9073607379464431 1
gene  1 1 46 0.9972194307289078 0 4725.0 0.9972194307289078 1
gene  1 4 46 -0.13813562446643568 0 4728.0 -0.13813562446643568 1
gene  1 6 46 -0.7530677893334196 0 4730.0 -0.7530677893334196 1
gene  1 7 46 -0.31524626977648484 0 4731.0 -0.31524626977648484 1
gene  1 8 46 0.04664286263010631 0 4732.0 0.04664286263010631 1
gene  1 9 46 -0.5221932257342995 0 4733.0 -0.5221932257342995 1
gene  1 10 46 0.5673042864708999 0 4734.0 0.5673042864708999 1
gene  1 11 46 -0.4139059167871516 0 4735.0 -0.4139059167871516 1
gene  1 14 46 0.7450270342989579 0 4738.0 0.7450270342989579 1
gene  1 17 46 -0.8922355724983354 0 4741.0 -0.8922355724983354 1
gene  1 18 46 -0.9924442856642025 0 4742.0 -0.9924442856642025 1
gene  1 19 46 -0.5365879036870245 0 4743.0 -0.5365879036870245 1
gene  1 20 46 0.46805218981913155 0 4744.0 0.46805218981913155 1
gene  1 24 46 0.931358665865695 0 4748.0 0.931358665865695 1
gene  1 25 46 -0.3416639977538469 0 4749.0 -0.3416639977538469 1
gene  1 27 46 -0.542722669070731 0 4751.0 -0.542722669070731 1
gene  1 28 46 0.7580484833117895 0 4752.0 0.7580484833117895 1
gene  1 29 46 -0.21601775485951324 0 4753.0 -0.21601775485951324 1
gene  1 31 46 0.5495535590192747 0 4755.0 0.5495535590192747 1
gene  1 32 46 -0.28230183486525195 0 4756.0 -0.28230183486525195 1
gene  1 34 46 0.315386058203883 0 4758.0 0.315386058203883 1
gene  1 35 46 -0.21658506393858457 0 4759.0 -0.21658506393858457 1
gene  1 36 46 -0.2230925807306855 0 4760.0 -0.2230925807306855 1
gene  1 37 46 -0.2983395097673326 0 4761.0 -0.2983395097673326 1
gene  1 39 46 0.8434261071038518 0 4763.0 0.8434261071038518 1
gene  1 41 46 -0.18165621910705043 0 4765.0 -0.18165621910705043 1
gene  1 42 46 -0.3574984773499681 0 4766.0 -0.3574984773499681 1
gene  1 43 46 -0.8033287279669922 0 4767.0 -0.8033287279669922 1
gene  1 1 47 0.32325543383946487 0 4830.0 0.32325543383946487 1
gene  1 2 47 0.695239973100359 0 4831.0 0.695239973100359 1
gene  1 4 47 0.5188416344199305 0 4833.0 0.5188416344199305 1
gene  1 5 47 -0.12205880743786612 0 4834.0 -0.12205880743786612 1
gene  1 6 47 0.2568021969365506 0 4835.0 0.2568021969365506 1
gene  1 11 47 -0.5461132016638702 0 4840.0 -0.5461132016638702 1
gene  1 13 47 0.6602541935738749 0 4842.0 0.6602541935738749 1
gene  1 20 47 -0.22494053080720788 0 4849.0 -0.22494053080720788 1
gene  1 21 47 -0.1514619800765339 0 4850.0 -0.1514619800765339 1
gene  1 22 47 -0.8464635040996975 0 4851.0 -0.8464635040996975 1
gene  1 23 47 -0.5734021603724578 0 4852.0 -0.5734021603724578 1
gene  1 28 47 0.6489182231385295 0 4857.0 0.6489182231385295 1
gene  1 29 47 0.8395272427488365 0 4858.0 0.8395272427488365 1
gene  1 30 47 0.3217319893029893 0 4859.0 0.3217319893029893 1
gene  1 33 47 -0.587306965750136 0 4862.0 -0.587306965750136 1
gene  1 34 47 0.34232428020748307 0 4863.0 0.34232428020748307 1
gene  1 41 47 -0.9918607475295623 0 4870.0 -0.9918607475295623 1
gene  1 42 47 -0.08894367399082137 0 4871.0 -0.08894367399082137 1
gene  1 44 47 -0.4901316864075316 0 4873.0 -0.4901316864075316 1
gene  1 46 47 -0.7102244004369936 0 4875.0 -0.7102244004369936 1
gene  1 1 48 -0.5546114899868244 0 4935.0 -0.5546114899868244 1
gene  1 7 48 0.5047782592963778 0 4941.0 0.5047782592963778 1
gene  1 8 48 -0.6656030879205473 0 4942.0 -0.6656030879205473 1
gene  1 10 48 0.1718548294857376 0 4944.0 0.1718548294857376 1
gene  1 14 48 0.5144418969450772 0 4948.0 0.5144418969450772 1
gene  1 19 48 0.23957390067580397 0 4953.0 0.23957390067580397 1
gene  1 21 48 -0.1756132784386223 0 4955.0 -0.1756132784386223 1
gene  1 22 48 -0.7749875743592988 0 4956.0 -0.7749875743592988 1
gene  1 26 48 -0.882693591676762 0 4960.0 -0.882693591676762 1
gene  1 27 48 0.2961279112615002 0 4961.0 0.2961279112615002 1
gene  1 28 48 0.4773955539114866 0 4962.0 0.4773955539114866 1
gene  1 31 48 0.10617004034688526 0 4965.0 0.10617004034688526 1
gene  1 32 48 -0.6300179824895594 0 4966.0 -0.6300179824895594 1
gene  1 35 48 -0.4036953098452355 0 4969.0 -0.4036953098452355 1
gene  1 36 48 -0.8025412944375793 0 4970.0 -0.8025412944375793 1
gene  1 38 48 -0.7628437148756804 0 4972.0 -0.7628437148756804 1
gene  1 44 48 -0.3449631252534353 0 4978.0 -0.3449631252534353 1
gene  1 47 48 -0.9734946930865154 0 4981.0 -0.9734946930865154 1
gene  1 1 49 -0.03292797831507965 0 5040.0 -0.03292797831507965 1
gene  1 4 49 0.7447956270500778 0 5043.0 0.7447956270500778 1
gene  1 7 49 -0.024442348995034724 0 5046.0 -0.024442348995034724 1
gene  1 8 49 0.4821952220876269 0 5047.0 0.4821952220876269 1
gene  1 9 49 -0.4441549564108328 0 5048.0 -0.4441549564108328 1
gene  1 13 49 -0.11905895970948477 0 5052.0 -0.11905895970948477 1
gene  1 16 49 -0.8193886262583809 0 5055.0 -0.8193886262583809 1
gene  1 18 49 -0.8685363183681266 0 5057.0 -0.8685363183681266 1
gene  1 19 49 -0.6309963211572805 0 5058.0 -0.6309963211572805 1
gene  1 25 49 0.4144490455547528 0 5064.0 0.4144490455547528 1
gene  1 28 49 0.9905732855830135 0 5067.0 0.9905732855830135 1
gene  1 30 49 -0.8840549676347894 0 5069.0 -0.8840549676347894 1
gene  1 34 49 0.6342176411177826 0 5073.0 0.6342176411177826 1
gene  1 36 49 0.21896818501968884 0 5075.0 0.21896818501968884 1
gene  1 37 49 0.3097663581314275 0 5076.0 0.3097663581314275 1
gene  1 38 49 0.6648728265193657 0 5077.0 0.6648728265193657 1
gene  1 39 49 -0.028280729642188418 0 5078.0 -0.028280729642188418 1
gene  1 42 49 -0.0542850733778284 0 5081.0 -0.0542850733778284 1
gene  1 46 49 -0.749237372206459 0 5085.0 -0.749237372206459 1
gene  1 47 49 0.4050095656678889 0 5086.0 0.4050095656678889 1
gene  1 2 50 -0.9512662048704109 0 5146.0 -0.9512662048704109 1
gene  1 3 50 -0.5647082632709984 0 5147.0 -0.5647082632709984 1
gene  1 7 50 0.4140193601965084 0 5151.0 0.4140193601965084 1
gene  1 9 50 -0.46449667727828403 0 5153.0 -0.46449667727828403 1
gene  1 11 50 -0.6299414724697808 0 5155.0 -0.6299414724697808 1
gene  1 13 50 -0.5212281495817718 0 5157.0 -0.5212281495817718 1
gene  1 15 50 0.20923519180128047 0 5159.0 0.20923519180128047 1
gene  1 16 50 -0.5738025147160944 0 5160.0 -0.5738025147160944 1
gene  1 18 50 -0.41433139227135485 0 5162.0 -0.41433139227135485 1
gene  1 22 50 0.8513637659245294 0 5166.0 0.8513637659245294 1
gene  1 23 50 -0.9188400981873499 0 5167.0 -0.9188400981873499 1
gene  1 24 50 0.7702488894472054 0 5168.0 0.7702488894472054 1
gene  1 26 50 0.14932446975599512 0 5170.0 0.14932446975599512 1
gene  1 28 50 0.4691697926867775 0 5172.0 0.4691697926867775 1
gene  1 35 50 -0.9689707406271966 0 5179.0 -0.9689707406271966 1
gene  1 37 50 -0.07708916739619254 0 5181.0 -0.07708916739619254 1
gene  1 38 50 -0.5095565540066486 0 5182.0 -0.5095565540066486 1
gene  1 39 50 0.8126505812122814 0 5183.0 0.8126505812122814 1
gene  1 42 50 -0.7221845796715748 0 5186.0 -0.7221845796715748 1
gene  1 44 50 -0.7009813217633355 0 5188.0 -0.7009813217633355 1
gene  1 45 50 -0.7637233443420455 0 5189.0 -0.7637233443420455 1
gene  1 46 50 0.7731916098136428 0 5190.0 0.7731916098136428 1
gene  1 47 50 0.3085754928396005 0 5191.0 0.3085754928396005 1
gene  1 48 50 -0.15236244300905488 0 5192.0 -0.15236244300905488 1
gene  1 1 51 0.04311903472757306 0 5250.0 0.04311903472757306 1
gene  1 4 51 -0.80802156633367 0 5253.0 -0.80802156633367 1
gene  1 7 51 0.6532892129666548 0 5256.0 0.6532892129666548 1
gene  1 10 51 -0.39372020840926636 0 5259.0 -0.39372020840926636 1
gene  1 15 51 -0.21599658099073749 0 5264.0 -0.21599658099073749 1
gene  1 16 51 -0.006108130917989452 0 5265.0 -0.006108130917989452 1
gene  1 19 51 0.9614373146252702 0 5268.0 0.9614373146252702 1
gene  1 21 51 -0.08534496532739466 0 5270.0 -0.08534496532739466 1
gene  1 22 51 -0.7355846620755778 0 5271.0 -0.7355846620755778 1
gene  1 23 51 -0.38358500340352997 0 5272.0 -0.38358500340352997 1
gene  1 24 51 -0.7217963965861082 0 5273.0 -0.7217963965861082 1
gene  1 27 51 -0.6535912117870929 0 5276.0 -0.6535912117870929 1
gene  1 33 51 0.5784400104104388 0 5282.0 0.5784400104104388 1
gene  1 34 51 -0.729505430897214 0 5283.0 -0.729505430897214 1
gene  1 35 51 0.5878328611229143 0 5284.0 0.5878328611229143 1
gene  1 38 51 -0.16411202577305228 0 5287.0 -0.16411202577305228 1
gene  1 39 51 0.5363025005597892 0 5288.0 0.5363025005597892 1
gene  1 41 51 -0.5284853325040899 0 5290.0 -0.5284853325040899 1
gene  1 42 51 -0.8832385768340364 0 5291.0 -0.8832385768340364 1
gene  1 43 51 -0.48746234546517586 0 5292.0 -0.48746234546517586 1
gene  1 46 51 0.5056662415071718 0 5295.0 0.5056662415071718 1
gene  1 48 51 0.3350852480513242 0 5297.0 0.3350852480513242 1
gene  1 2 52 -0.10090167788672688 0 5356.0 -0.10090167788672688 1
gene  1 5 52 -0.6267801982015355 0 5359.0 -0.6267801982015355 1
gene  1 6 52 -0.04367374383475653 0 5360.0 -0.04367374383475653 1
gene  1 7 52 -0.05640324910342964 0 5361.0 -0.05640324910342964 1
gene  1 9 52 -0.5575442128513589 0 5363.0 -0.5575442128513589 1
gene  1 14 52 0.2012052151332845 0 5368.0 0.2012052151332845 1
gene  1 15 52 -0.757344518294287 0 5369.0 -0.757344518294287 1
gene  1 16 52 0.8645066276893895 0 5370.0 0.8645066276893895 1
gene  1 17 52 0.31648894127942295 0 5371.0 0.31648894127942295 1
gene  1 26 52 -0.29291643424492364 0 5380.0 -0.29291643424492364 1
gene  1 31 52 -0.168104978121283 0 5385.0 -0.168104978121283 1
gene  1 32 52 0.4685895219579329 0 5386.0 0.4685895219579329 1
gene  1 33 52 -0.8803941121147555 0 5387.0 -0.8803941121147555 1
gene  1 35 52 0.253171610219459 0 5389.0 0.253171610219459 1
gene  1 37 52 0.5695054214816655 0 5391.0 0.5695054214816655 1
gene  1 40 52 0.647049847437528 0 5394.0 0.647049847437528 1
gene  1 42 52 -0.8134233076330305 0 5396.0 -0.8134233076330305 1
gene  1 43 52 0.6908931353962822 0 5397.0 0.6908931353962822 1
gene  1 46 52 -0.26918257960607306 0 5400.0 -0.26918257960607306 1
gene  1 47 52 -0.8003557485671865 0 5401.0 -0.8003557485671865 1
gene  1 50 52 0.004169622140437368 0 5404.0 0.004169622140437368 1
gene  1 51 52 -0.03792682986233986 0 5405.0 -0.03792682986233986 1
gene  1 1 105 0.09471723820703026 0 10920.0 0.09471723820703026 1
gene  1 2 105 0.7243108438477283 0 10921.0 0.7243108438477283 1
gene  1 3 105 0.3995847770412042 0 10922.0 0.3995847770412042 1
gene  1 5 105 0.584234792953047 0 10924.0 0.584234792953047 1
gene  1 6 105 0.4370818437569536 0 10925.0 0.4370818437569536 1
gene  1 7 105 0.31720187379707177 0 10926.0 0.31720187379707177 1
gene  1 8 105 0.6958988814373928 0 10927.0 0.6958988814373928 1
gene  1 9 105 -0.22447683537577334 0 10928.0 -0.22447683537577334 1
gene  1 10 105 -0.6167918852424046 0 10929.0 -0.6167918852424046 1
gene  1 11 105 0.8797661144389065 0 10930.0 0.8797661144389065 1
gene  1 16 105 -0.18165687060627556 0 10935.0 -0.18165687060627556 1
gene  1 18 105 -0.8595722483465917 0 10937.0 -0.8595722483465917 1
gene  1 22 105 -0.3704507650357335 0 10941.0 -0.3704507650357335 1
gene  1 23 105 0.5097690790753147 0 10942.0 0.5097690790753147 1
gene  1 25 105 0.004021196490144652 0 10944.0 0.004021196490144652 1
gene  1 27 105 0.19217191197325878 0 10946.0 0.19217191197325878 1
gene  1 31 105 -0.5747794516228465 0 10950.0 -0.5747794516228465 1
gene  1 33 105 -0.6584321386359678 0 10952.0 -0.6584321386359678 1
gene  1 34 105 0.9327469353926111 0 10953.0 0.9327469353926111 1
gene  1 35 105 0.7671406794099828 0 10954.0 0.7671406794099828 1
gene  1 36 105 0.42898501104421516 0 10955.0 0.42898501104421516 1
gene  1 38 105 -0.6385640134136631 0 10957.0 -0.6385640134136631 1
gene  1 39 105 0.8839535605024647 0 10958.0 0.8839535605024647 1
gene  1 40 105 0.4951640267627737 0 10959.0 0.4951640267627737 1
gene  1 42 105 -0.6038632906242297 0 10961.0 -0.6038632906242297 1
gene  1 43 105 0.04797484272723462 0 10962.0 0.04797484272723462 1
gene  1 44 105 -0.24209618149114587 0 10963.0 -0.24209618149114587 1
gene  1 50 105 -0.5018280313512642 0 10969.0 -0.5018280313512642 1
gene  1 51 105 -0.9086371335667871 0 10970.0 -0.9086371335667871 1
genomeend 17
