genomestart  35
trait 1 0.0 0.0 0.0 0.0 0.0 0.0 0.0 0.0 0.0 0.0 0.0 0.0 0.0 0.0 0.0 0.0 0.0 0.0 0.0 0.0 
node 1 1 1 1
node 2 1 1 1
node 3 1 1 1
node 4 1 1 3
node 5 1 0 0
node 6 1 0 0
node 7 1 0 0
node 8 1 0 0
node 9 1 0 0
node 10 1 0 0
node 11 1 0 0
node 12 1 0 0
node 13 1 0 0
node 14 1 0 0
node 15 1 0 0
node 16 1 0 0
node 17 1 0 0
node 18 1 0 0
node 19 1 0 0
node 20 1 0 0
node 21 1 0 0
node 22 1 0 0
node 23 1 0 0
node 24 1 0 0
node 25 1 0 0
node 26 1 0 0
node 27 1 0 0
node 28 1 0 0
node 29 1 0 0
node 30 1 0 0
node 31 1 0 0
node 32 1 0 0
node 33 1 0 0
node 34 1 0 0
node 35 1 0 0
node 36 1 0 0
node 37 1 0 0
node 38 1 0 0
node 39 1 0 0
node 40 1 0 0
node 41 1 0 0
node 42 1 0 0
node 43 1 0 0
node 44 1 0 0
node 45 1 0 0
node 46 1 0 0
node 47 1 0 0
node 48 1 0 0
node 49 1 0 0
node 50 1 0 0
node 51 1 0 0
node 52 1 0 0
node 53 1 0 0
node 54 1 0 0
node 55 1 0 0
node 56 1 0 0
node 57 1 0 0
node 58 1 0 0
node 59 1 0 0
node 60 1 0 0
node 61 1 0 0
node 62 1 0 0
node 63 1 0 0
node 64 1 0 0
node 65 1 0 0
node 66 1 0 0
node 67 1 0 0
node 68 1 0 0
node 69 1 0 0
node 70 1 0 0
node 71 1 0 0
node 72 1 0 0
node 73 1 0 0
node 74 1 0 0
node 75 1 0 0
node 76 1 0 0
node 77 1 0 0
node 78 1 0 0
node 79 1 0 0
node 80 1 0 0
node 81 1 0 0
node 82 1 0 0
node 83 1 0 0
node 84 1 0 0
node 85 1 0 0
node 86 1 0 0
node 87 1 0 0
node 105 1 0 2
gene  1 1 5 -0.1802296752329985 0 420.0 -0.1802296752329985 1
gene  1 2 5 0.35814325300255523 0 421.0 0.35814325300255523 1
gene  1 4 5 -0.35989334312274257 0 423.0 -0.35989334312274257 1
gene  1 2 6 -0.3819362083149025 0 526.0 -0.3819362083149025 1
gene  1 3 6 -0.04343109941058054 0 527.0 -0.04343109941058054 1
gene  1 1 7 -0.8450211940718751 0 630.0 -0.8450211940718751 1
gene  1 2 7 -0.9773676865044881 0 631.0 -0.9773676865044881 1
gene  1 4 7 -0.13862490835744923 0 633.0 -0.13862490835744923 1
gene  1 6 7 0.4852921878765114 0 635.0 0.4852921878765114 1
gene  1 2 8 -0.20178235469113448 0 736.0 -0.20178235469113448 1
gene  1 3 8 0.3747839865574327 0 737.0 0.3747839865574327 1
gene  1 6 8 0.009357038402026951 0 740.0 0.009357038402026951 1
gene  1 7 8 0.4790596026425883 0 741.0 0.4790596026425883 1
gene  1 2 9 -0.5126432345734304 0 841.0 -0.5126432345734304 1
gene  1 3 9 0.6695746462111414 0 842.0 0.6695746462111414 1
gene  1 5 9 -0.7741243076345907 0 844.0 -0.7741243076345907 1
gene  1 7 9 0.6436657322735891 0 846.0 0.6436657322735891 1
gene  1 8 9 -0.22804380026350823 0 847.0 -0.22804380026350823 1
gene  1 1 10 0.4967421786104881 0 945.0 0.4967421786104881 1
gene  1 2 10 -0.5223917035524913 0 946.0 -0.5223917035524913 1
gene  1 3 10 -0.3504229191660708 0 947.0 -0.3504229191660708 1
gene  1 4 10 0.06113211738427138 0 948.0 0.06113211738427138 1
gene  1 6 10 -0.6382949259915117 0 950.0 -0.6382949259915117 1
gene  1 7 10 0.21953808241987094 0 951.0 0.21953808241987094 1
gene  1 8 10 -0.25712686515863503 0 952.0 -0.25712686515863503 1
gene  1 3 11 -0.06344232909090752 0 1052.0 -0.06344232909090752 1
gene  1 4 11 -0.6839200947705802 0 1053.0 -0.6839200947705802 1
gene  1 5 11 -0.3566203416302981 0 1054.0 -0.3566203416302981 1
gene  1 6 11 -0.024284821832475822 0 1055.0 -0.024284821832475822 1
gene  1 7 11 0.5660679359859685 0 1056.0 0.5660679359859685 1
gene  1 8 11 0.6737715027595012 0 1057.0 0.6737715027595012 1
gene  1 9 11 0.7128438655814614 0 1058.0 0.7128438655814614 1
gene  1 10 11 0.9201230976606691 0 1059.0 0.9201230976606691 1
gene  1 7 12 -0.9461804340907283 0 1161.0 -0.9461804340907283 1
gene  1 9 12 0.2372406711766707 0 1163.0 0.2372406711766707 1
gene  1 3 13 -0.35309706940984753 0 1262.0 -0.35309706940984753 1
gene  1 5 13 0.4941457917375891 0 1264.0 0.4941457917375891 1
gene  1 7 13 -0.473226466877919 0 1266.0 -0.473226466877919 1
gene  1 9 13 -0.5313180997549672 0 1268.0 -0.5313180997549672 1
gene  1 3 14 -0.3043385606822465 0 1367.0 -0.3043385606822465 1
gene  1 9 14 -0.2599155615709654 0 1373.0 -0.2599155615709654 1
gene  1 10 14 -0.5594380160394262 0 1374.0 -0.5594380160394262 1
gene  1 12 14 -0.9324241847117896 0 1376.0 -0.9324241847117896 1
gene  1 3 15 0.6203300959602334 0 1472.0 0.6203300959602334 1
gene  1 4 15 -0.9398831685593513 0 1473.0 -0.9398831685593513 1
gene  1 6 15 0.5746665232089392 0 1475.0 0.5746665232089392 1
gene  1 7 15 -0.0020593194199537423 0 1476.0 -0.0020593194199537423 1
gene  1 8 15 0.8293843721687929 0 1477.0 0.8293843721687929 1
gene  1 10 15 -0.8988569779210271 0 1479.0 -0.8988569779210271 1
gene  1 12 15 0.4596373269632894 0 1481.0 0.4596373269632894 1
gene  1 14 15 0.45683302623520206 0 1483.0 0.45683302623520206 1
gene  1 2 16 -0.7490117664917626 0 1576.0 -0.7490117664917626 1
gene  1 3 16 0.8353045783798441 0 1577.0 0.8353045783798441 1
gene  1 4 16 0.8925220241688901 0 1578.0 0.8925220241688901 1
gene  1 6 16 0.3767914458610898 0 1580.0 0.3767914458610898 1
gene  1 7 16 -0.8885527126883621 0 1581.0 -0.8885527126883621 1
gene  1 9 16 -0.0652148428756506 0 1583.0 -0.0652148428756506 1
gene  1 11 16 0.9236277062427223 0 1585.0 0.9236277062427223 1
gene  1 12 16 0.5037649890421891 0 1586.0 0.5037649890421891 1
gene  1 13 16 -0.79938967014124 0 1587.0 -0.79938967014124 1
gene  1 1 17 -0.0727008821435523 0 1680.0 -0.0727008821435523 1
gene  1 3 17 -0.2187586246002179 0 1682.0 -0.2187586246002179 1
gene  1 4 17 -0.4568642185891657 0 1683.0 -0.4568642185891657 1
gene  1 5 17 -0.7848419866369297 0 1684.0 -0.7848419866369297 1
gene  1 6 17 -0.7127390481013212 0 1685.0 -0.7127390481013212 1
gene  1 7 17 0.25455416597024505 0 1686.0 0.25455416597024505 1
gene  1 13 17 0.9403027680461435 0 1692.0 0.9403027680461435 1
gene  1 14 17 -0.9704282766666115 0 1693.0 -0.9704282766666115 1
gene  1 15 17 -0.1291479232279673 0 1694.0 -0.1291479232279673 1
gene  1 1 18 -0.6343511674001515 0 1785.0 -0.6343511674001515 1
gene  1 4 18 0.37633519627974366 0 1788.0 0.37633519627974366 1
gene  1 5 18 -0.34127908414791563 0 1789.0 -0.34127908414791563 1
gene  1 7 18 0.23671144490634466 0 1791.0 0.23671144490634466 1
gene  1 8 18 0.7707445614416493 0 1792.0 0.7707445614416493 1
gene  1 9 18 0.8720530021322207 0 1793.0 0.8720530021322207 1
gene  1 10 18 0.5679177338967425 0 1794.0 0.5679177338967425 1
gene  1 12 18 0.44872115697378623 0 1796.0 0.44872115697378623 1
gene  1 14 18 0.37528286755396767 0 1798.0 0.37528286755396767 1
gene  1 15 18 0.4537500333160317 0 1799.0 0.4537500333160317 1
gene  1 3 19 -0.2145963973151922 0 1892.0 -0.2145963973151922 1
gene  1 4 19 0.19550518340282885 0 1893.0 0.19550518340282885 1
gene  1 5 19 0.8552707410442186 0 1894.0 0.8552707410442186 1
gene  1 6 19 0.1790853261873544 0 1895.0 0.1790853261873544 1
gene  1 7 19 -0.8154448144218684 0 1896.0 -0.8154448144218684 1
gene  1 8 19 -0.9579510170220792 0 1897.0 -0.9579510170220792 1
gene  1 10 19 -0.9254627230795365 0 1899.0 -0.9254627230795365 1
gene  1 11 19 0.08975348681071404 0 1900.0 0.08975348681071404 1
gene  1 12 19 0.7318094495511006 0 1901.0 0.7318094495511006 1
gene  1 14 19 0.8617192562414683 0 1903.0 0.8617192562414683 1
gene  1 15 19 0.5659084853404248 0 1904.0 0.5659084853404248 1
gene  1 17 19 -0.19210832509620768 0 1906.0 -0.19210832509620768 1
gene  1 1 20 0.19764875827527106 0 1995.0 0.19764875827527106 1
gene  1 2 20 0.9687608497312182 0 1996.0 0.9687608497312182 1
gene  1 5 20 0.1981029081746022 0 1999.0 0.1981029081746022 1
gene  1 6 20 -0.3683374811743806 0 2000.0 -0.3683374811743806 1
gene  1 7 20 0.4064028426573859 0 2001.0 0.4064028426573859 1
gene  1 10 20 0.9357439602395775 0 2004.0 0.9357439602395775 1
gene  1 11 20 0.3960423023703944 0 2005.0 0.3960423023703944 1
gene  1 15 20 -0.6163957147623033 0 2009.0 -0.6163957147623033 1
gene  1 17 20 0.38944205235743967 0 2011.0 0.38944205235743967 1
gene  1 18 20 -0.653793622512183 0 2012.0 -0.653793622512183 1
gene  1 19 20 -0.11729318016764134 0 2013.0 -0.11729318016764134 1
gene  1 1 21 0.5048843046220799 0 2100.0 0.5048843046220799 1
gene  1 5 21 0.13946521751544916 0 2104.0 0.13946521751544916 1
gene  1 8 21 0.35715144340909777 0 2107.0 0.35715144340909777 1
gene  1 12 21 -0.8366309072516165 0 2111.0 -0.8366309072516165 1
gene  1 14 21 0.5932028725960398 0 2113.0 0.5932028725960398 1
gene  1 15 21 0.40788476052624223 0 2114.0 0.40788476052624223 1
gene  1 16 21 0.803447192534185 0 2115.0 0.803447192534185 1
gene  1 17 21 -0.8304546691841554 0 2116.0 -0.8304546691841554 1
gene  1 18 21 -0.6132645204491524 0 2117.0 -0.6132645204491524 1
gene  1 1 22 -0.6784963396077873 0 2205.0 -0.6784963396077873 1
gene  1 2 22 -0.8455945285813518 0 2206.0 -0.8455945285813518 1
gene  1 3 22 0.4176694906965783 0 2207.0 0.4176694906965783 1
gene  1 4 22 0.9143900035287563 0 2208.0 0.9143900035287563 1
gene  1 7 22 -0.4251582182137593 0 2211.0 -0.4251582182137593 1
gene  1 8 22 0.6921024821515681 0 2212.0 0.6921024821515681 1
gene  1 9 22 0.17005077304941663 0 2213.0 0.17005077304941663 1
gene  1 13 22 0.4371003113524431 0 2217.0 0.4371003113524431 1
gene  1 19 22 -0.19274291389384768 0 2223.0 -0.19274291389384768 1
gene  1 1 23 0.5929364341063385 0 2310.0 0.5929364341063385 1
gene  1 4 23 -0.9046558072087283 0 2313.0 -0.9046558072087283 1
gene  1 5 23 0.8756955605049466 0 2314.0 0.8756955605049466 1
gene  1 6 23 -0.7015920567135733 0 2315.0 -0.7015920567135733 1
gene  1 10 23 0.5929428372622354 0 2319.0 0.5929428372622354 1
gene  1 12 23 0.839378220053666 0 2321.0 0.839378220053666 1
gene  1 14 23 0.7069073766509796 0 2323.0 0.7069073766509796 1
gene  1 15 23 -0.828801741881031 0 2324.0 -0.828801741881031 1
gene  1 16 23 -0.41212277409276155 0 2325.0 -0.41212277409276155 1
gene  1 20 23 -0.29138646918135747 0 2329.0 -0.29138646918135747 1
gene  1 1 24 -0.06757900073628087 0 2415.0 -0.06757900073628087 1
gene  1 4 24 0.3369560900918497 0 2418.0 0.3369560900918497 1
gene  1 5 24 0.786426412848322 0 2419.0 0.786426412848322 1
gene  1 6 24 -0.12245634607986622 0 2420.0 -0.12245634607986622 1
gene  1 8 24 -0.6451793238494365 0 2422.0 -0.6451793238494365 1
gene  1 14 24 -0.8338624117932834 0 2428.0 -0.8338624117932834 1
gene  1 19 24 -0.6258463882343651 0 2433.0 -0.6258463882343651 1
gene  1 20 24 -0.16498100047625242 0 2434.0 -0.16498100047625242 1
gene  1 23 24 -0.5597794846778101 0 2437.0 -0.5597794846778101 1
gene  1 1 25 -0.9962367890055567 0 2520.0 -0.9962367890055567 1
gene  1 2 25 -0.8068884392119963 0 2521.0 -0.8068884392119963 1
gene  1 5 25 0.7119785715395034 0 2524.0 0.7119785715395034 1
gene  1 6 25 0.8455802558844357 0 2525.0 0.8455802558844357 1
gene  1 8 25 -0.27634376110410364 0 2527.0 -0.27634376110410364 1
gene  1 10 25 -0.049344498589739993 0 2529.0 -0.049344498589739993 1
gene  1 11 25 -0.9223511722647362 0 2530.0 -0.9223511722647362 1
gene  1 12 25 0.43671333114501454 0 2531.0 0.43671333114501454 1
gene  1 13 25 -0.4428754351490062 0 2532.0 -0.4428754351490062 1
gene  1 14 25 -0.16491324563603071 0 2533.0 -0.16491324563603071 1
gene  1 16 25 -0.5119847224044604 0 2535.0 -0.5119847224044604 1
gene  1 17 25 -0.3002632085398993 0 2536.0 -0.3002632085398993 1
gene  1 20 25 -0.5548119390070398 0 2539.0 -0.5548119390070398 1
gene  1 22 25 -0.5867071479034648 0 2541.0 -0.5867071479034648 1
gene  1 2 26 0.18940327097866339 0 2626.0 0.18940327097866339 1
gene  1 5 26 0.48555937464286136 0 2629.0 0.48555937464286136 1
gene  1 6 26 0.6079530132058782 0 2630.0 0.6079530132058782 1
gene  1 9 26 0.8700309786836895 0 2633.0 0.8700309786836895 1
gene  1 10 26 0.003358617449568002 0 2634.0 0.003358617449568002 1
gene  1 11 26 0.7409329276110821 0 2635.0 0.7409329276110821 1
gene  1 12 26 -0.7659501636219407 0 2636.0 -0.7659501636219407 1
gene  1 13 26 -0.2188642020485254 0 2637.0 -0.2188642020485254 1
gene  1 14 26 0.6350815311662755 0 2638.0 0.6350815311662755 1
gene  1 18 26 0.027358381167705836 0 2642.0 0.027358381167705836 1
gene  1 19 26 -0.03806508152898125 0 2643.0 -0.03806508152898125 1
gene  1 21 26 0.7589570416931412 0 2645.0 0.7589570416931412 1
gene  1 22 26 0.9604503630848057 0 2646.0 0.9604503630848057 1
gene  1 25 26 -0.6946238150419474 0 2649.0 -0.6946238150419474 1
gene  1 1 27 0.6009831669314531 0 2730.0 0.6009831669314531 1
gene  1 2 27 -0.513958184450557 0 2731.0 -0.513958184450557 1
gene  1 4 27 -0.18193134922647747 0 2733.0 -0.18193134922647747 1
gene  1 6 27 -0.41367874224314516 0 2735.0 -0.41367874224314516 1
gene  1 7 27 -0.8976369570020132 0 2736.0 -0.8976369570020132 1
gene  1 8 27 0.9090071255083508 0 2737.0 0.9090071255083508 1
gene  1 11 27 -0.9760682648522926 0 2740.0 -0.9760682648522926 1
gene  1 12 27 -0.7342648117307641 0 2741.0 -0.7342648117307641 1
gene  1 13 27 -0.7573424174758565 0 2742.0 -0.7573424174758565 1
gene  1 14 27 -0.23709838095301394 0 2743.0 -0.23709838095301394 1
gene  1 15 27 0.39318086878879865 0 2744.0 0.39318086878879865 1
gene  1 19 27 -0.5873778997267036 0 2748.0 -0.5873778997267036 1
gene  1 20 27 -0.2531880272492959 0 2749.0 -0.2531880272492959 1
gene  1 22 27 -0.2844845116040653 0 2751.0 -0.2844845116040653 1
gene  1 23 27 -0.3897807635586955 0 2752.0 -0.3897807635586955 1
gene  1 24 27 -0.32695487637768283 0 2753.0 -0.32695487637768283 1
gene  1 25 27 0.888490612635619 0 2754.0 0.888490612635619 1
gene  1 26 27 -0.17653145166714146 0 2755.0 -0.17653145166714146 1
gene  1 2 28 -0.5634100932928567 0 2836.0 -0.5634100932928567 1
gene  1 3 28 -0.3257147035687922 0 2837.0 -0.3257147035687922 1
gene  1 6 28 0.1375614207603978 0 2840.0 0.1375614207603978 1
gene  1 8 28 0.22574997177444556 0 2842.0 0.22574997177444556 1
gene  1 9 28 0.8209133804341506 0 2843.0 0.8209133804341506 1
gene  1 11 28 0.44947432783919417 0 2845.0 0.44947432783919417 1
gene  1 12 28 0.8697071141150178 0 2846.0 0.8697071141150178 1
gene  1 14 28 -0.9370522018870163 0 2848.0 -0.9370522018870163 1
gene  1 15 28 -0.7556969420308751 0 2849.0 -0.7556969420308751 1
gene  1 16 28 -0.34754510674751005 0 2850.0 -0.34754510674751005 1
gene  1 18 28 -0.8813933511214613 0 2852.0 -0.8813933511214613 1
gene  1 21 28 0.44634946417227095 0 2855.0 0.44634946417227095 1
gene  1 24 28 0.5828220216655968 0 2858.0 0.5828220216655968 1
gene  1 26 28 -0.7509084790450294 0 2860.0 -0.7509084790450294 1
gene  1 1 29 -0.6312686507045838 0 2940.0 -0.6312686507045838 1
gene  1 2 29 0.17901787934698377 0 2941.0 0.17901787934698377 1
gene  1 6 29 0.7126999801775883 0 2945.0 0.7126999801775883 1
gene  1 7 29 -0.37355993146138655 0 2946.0 -0.37355993146138655 1
gene  1 8 29 -0.4071038642893875 0 2947.0 -0.4071038642893875 1
gene  1 9 29 -0.8529881471912861 0 2948.0 -0.8529881471912861 1
gene  1 11 29 -0.7989684228552435 0 2950.0 -0.7989684228552435 1
gene  1 13 29 0.49636220864049907 0 2952.0 0.49636220864049907 1
gene  1 15 29 -0.002842223283352485 0 2954.0 -0.002842223283352485 1
gene  1 19 29 -0.6026178616602801 0 2958.0 -0.6026178616602801 1
gene  1 20 29 0.2224578466378906 0 2959.0 0.2224578466378906 1
gene  1 22 29 -0.47949992651722295 0 2961.0 -0.47949992651722295 1
gene  1 24 29 -0.6074490074295694 0 2963.0 -0.6074490074295694 1
gene  1 25 29 0.7463036826872171 0 2964.0 0.7463036826872171 1
gene  1 28 29 -0.054019435670829896 0 2967.0 -0.054019435670829896 1
gene  1 3 30 0.823594903647565 0 3047.0 0.823594903647565 1
gene  1 4 30 -0.9240403888761531 0 3048.0 -0.9240403888761531 1
gene  1 5 30 0.8920900363718789 0 3049.0 0.8920900363718789 1
gene  1 6 30 0.14175558648688602 0 3050.0 0.14175558648688602 1
gene  1 8 30 -0.677010022405273 0 3052.0 -0.677010022405273 1
gene  1 14 30 -0.5761820098383649 0 3058.0 -0.5761820098383649 1
gene  1 15 30 0.7973058733159485 0 3059.0 0.7973058733159485 1
gene  1 18 30 -0.8946364409627371 0 3062.0 -0.8946364409627371 1
gene  1 19 30 -0.986007587526831 0 3063.0 -0.986007587526831 1
gene  1 20 30 -0.005971677005456644 0 3064.0 -0.005971677005456644 1
gene  1 21 30 0.8433639324590637 0 3065.0 0.8433639324590637 1
gene  1 22 30 -0.8707288081094984 0 3066.0 -0.8707288081094984 1
gene  1 23 30 -0.5952712350823846 0 3067.0 -0.5952712350823846 1
gene  1 24 30 -0.3226287553529775 0 3068.0 -0.3226287553529775 1
gene  1 26 30 -0.6250133902315049 0 3070.0 -0.6250133902315049 1
gene  1 27 30 0.4448176633770424 0 3071.0 0.4448176633770424 1
gene  1 28 30 0.24076472991348374 0 3072.0 0.24076472991348374 1
gene  1 29 30 0.7772515327284935 0 3073.0 0.7772515327284935 1
gene  1 2 31 -0.0011501072267360302 0 3151.0 -0.0011501072267360302 1
gene  1 3 31 -0.6319464877630079 0 3152.0 -0.6319464877630079 1
gene  1 4 31 -0.4187751762935451 0 3153.0 -0.4187751762935451 1
gene  1 6 31 0.6849908400301372 0 3155.0 0.6849908400301372 1
gene  1 8 31 -0.825232933828187 0 3157.0 -0.825232933828187 1
gene  1 16 31 -0.8196000320402378 0 3165.0 -0.8196000320402378 1
gene  1 17 31 -0.8699356740624304 0 3166.0 -0.8699356740624304 1
gene  1 18 31 0.0153223187621494 0 3167.0 0.0153223187621494 1
gene  1 22 31 0.32778399585954354 0 3171.0 0.32778399585954354 1
gene  1 23 31 0.43553349847635214 0 3172.0 0.43553349847635214 1
gene  1 24 31 0.8625827314639815 0 3173.0 0.8625827314639815 1
gene  1 26 31 -0.4589474315184149 0 3175.0 -0.4589474315184149 1
gene  1 27 31 -0.918589813688812 0 3176.0 -0.918589813688812 1
gene  1 28 31 -0.9086237552416542 0 3177.0 -0.9086237552416542 1
gene  1 29 31 -0.49539156721830213 0 3178.0 -0.49539156721830213 1
gene  1 30 31 0.3500636349996954 0 3179.0 0.3500636349996954 1
gene  1 1 32 0.7161715994036173 0 3255.0 0.7161715994036173 1
gene  1 3 32 0.10896493339497293 0 3257.0 0.10896493339497293 1
gene  1 4 32 0.936135016775944 0 3258.0 0.936135016775944 1
gene  1 7 32 -0.2786344112130551 0 3261.0 -0.2786344112130551 1
gene  1 9 32 0.89783305002482 0 3263.0 0.89783305002482 1
gene  1 10 32 -0.45750742424061697 0 3264.0 -0.45750742424061697 1
gene  1 13 32 -0.36479544740462977 0 3267.0 -0.36479544740462977 1
gene  1 14 32 0.8315567063286602 0 3268.0 0.8315567063286602 1
gene  1 18 32 0.5429736630291654 0 3272.0 0.5429736630291654 1
gene  1 20 32 0.23598358208895165 0 3274.0 0.23598358208895165 1
gene  1 21 32 -0.5601612995123709 0 3275.0 -0.5601612995123709 1
gene  1 23 32 -0.5263379433271053 0 3277.0 -0.5263379433271053 1
gene  1 25 32 0.8601026429605317 0 3279.0 0.8601026429605317 1
gene  1 29 32 -0.2001768996848754 0 3283.0 -0.2001768996848754 1
gene  1 1 33 0.6463747142243752 0 3360.0 0.6463747142243752 1
gene  1 2 33 -0.37750002615982603 0 3361.0 -0.37750002615982603 1
gene  1 4 33 0.93570366481565 0 3363.0 0.93570366481565 1
gene  1 5 33 0.2836633613659213 0 3364.0 0.2836633613659213 1
gene  1 7 33 -0.7584551303014427 0 3366.0 -0.7584551303014427 1
gene  1 10 33 0.5052465471945033 0 3369.0 0.5052465471945033 1
gene  1 11 33 -0.6092596610698283 0 3370.0 -0.6092596610698283 1
gene  1 12 33 0.08923688249960215 0 3371.0 0.08923688249960215 1
gene  1 13 33 -0.9742666805880847 0 3372.0 -0.9742666805880847 1
gene  1 14 33 -0.9581555584969372 0 3373.0 -0.9581555584969372 1
gene  1 19 33 -0.9987043818117679 0 3378.0 -0.9987043818117679 1
gene  1 20 33 -0.5999604953099501 0 3379.0 -0.5999604953099501 1
gene  1 25 33 -0.14726650743278247 0 3384.0 -0.14726650743278247 1
gene  1 26 33 0.2863641094858481 0 3385.0 0.2863641094858481 1
gene  1 27 33 -0.10654524522897302 0 3386.0 -0.10654524522897302 1
gene  1 30 33 0.4341686479923931 0 3389.0 0.4341686479923931 1
gene  1 32 33 0.5340798777838401 0 3391.0 0.5340798777838401 1
gene  1 5 34 0.03783830772657748 0 3469.0 0.03783830772657748 1
gene  1 11 34 0.9080066985496066 0 3475.0 0.9080066985496066 1
gene  1 15 34 0.3361661172189804 0 3479.0 0.3361661172189804 1
gene  1 16 34 0.7897843080249382 0 3480.0 0.7897843080249382 1
gene  1 17 34 0.036194139316002794 0 3481.0 0.036194139316002794 1
gene  1 22 34 -0.23474756091873483 0 3486.0 -0.23474756091873483 1
gene  1 23 34 -0.9885836989351924 0 3487.0 -0.9885836989351924 1
gene  1 24 34 0.8699144053297586 0 3488.0 0.8699144053297586 1
gene  1 25 34 0.17184392275092697 0 3489.0 0.17184392275092697 1
gene  1 26 34 -0.5438631652744932 0 3490.0 -0.5438631652744932 1
gene  1 28 34 -0.6894927683719824 0 3492.0 -0.6894927683719824 1
gene  1 29 34 -0.17166013415591053 0 3493.0 -0.17166013415591053 1
gene  1 30 34 -0.24606273283823232 0 3494.0 -0.24606273283823232 1
gene  1 1 35 -0.5217201551035594 0 3570.0 -0.5217201551035594 1
gene  1 6 35 0.7279574942502312 0 3575.0 0.7279574942502312 1
gene  1 12 35 -0.32943736647675825 0 3581.0 -0.32943736647675825 1
gene  1 13 35 -0.7563432786397463 0 3582.0 -0.7563432786397463 1
gene  1 14 35 -0.1822883141449093 0 3583.0 -0.1822883141449093 1
gene  1 15 35 0.17059864266285985 0 3584.0 0.17059864266285985 1
gene  1 18 35 -0.08575091222863351 0 3587.0 -0.08575091222863351 1
gene  1 24 35 -0.1169565441368694 0 3593.0 -0.1169565441368694 1
gene  1 26 35 -0.2435095628168612 0 3595.0 -0.2435095628168612 1
gene  1 28 35 -0.22821327250401968 0 3597.0 -0.22821327250401968 1
gene  1 29 35 -0.6427100930280413 0 3598.0 -0.6427100930280413 1
gene  1 30 35 0.7461541314099995 0 3599.0 0.7461541314099995 1
gene  1 31 35 0.7132266051594092 0 3600.0 0.7132266051594092 1
gene  1 33 35 -0.879173199766168 0 3602.0 -0.879173199766168 1
gene  1 4 36 0.5902343025290214 0 3678.0 0.5902343025290214 1
gene  1 8 36 0.4055088158580886 0 3682.0 0.4055088158580886 1
gene  1 9 36 -0.6955137228396263 0 3683.0 -0.6955137228396263 1
gene  1 10 36 0.1932213020443957 0 3684.0 0.1932213020443957 1
gene  1 11 36 -0.5533158367770122 0 3685.0 -0.5533158367770122 1
gene  1 12 36 -0.6914339154153293 0 3686.0 -0.6914339154153293 1
gene  1 13 36 -0.893007710527341 0 3687.0 -0.893007710527341 1
gene  1 14 36 0.01777823742871354 0 3688.0 0.01777823742871354 1
gene  1 16 36 0.9239775525932087 0 3690.0 0.9239775525932087 1
gene  1 23 36 0.3072751101604694 0 3697.0 0.3072751101604694 1
gene  1 24 36 0.3820065315313217 0 3698.0 0.3820065315313217 1
gene  1 25 36 -0.7857238460157188 0 3699.0 -0.7857238460157188 1
gene  1 27 36 0.6869380415931393 0 3701.0 0.6869380415931393 1
gene  1 30 36 -0.6992201821029107 0 3704.0 -0.6992201821029107 1
gene  1 33 36 -0.2725382526637935 0 3707.0 -0.2725382526637935 1
gene  1 34 36 -0.08995902005999501 0 3708.0 -0.08995902005999501 1
gene  1 3 37 -0.3265170712491894 0 3782.0 -0.3265170712491894 1
gene  1 4 37 0.44269781799141494 0 3783.0 0.44269781799141494 1
gene  1 5 37 0.4300289108528329 0 3784.0 0.4300289108528329 1
gene  1 12 37 0.9913916098250048 0 3791.0 0.9913916098250048 1
gene  1 13 37 -0.9528909103601816 0 3792.0 -0.9528909103601816 1
gene  1 15 37 0.8993780305253101 0 3794.0 0.8993780305253101 1
gene  1 17 37 -0.6702180438752802 0 3796.0 -0.6702180438752802 1
gene  1 18 37 -0.41320983116284826 0 3797.0 -0.41320983116284826 1
gene  1 20 37 0.1172323226060088 0 3799.0 0.1172323226060088 1
gene  1 21 37 0.7191664366287301 0 3800.0 0.7191664366287301 1
gene  1 24 37 0.6830596785448674 0 3803.0 0.6830596785448674 1
gene  1 25 37 0.2896631428839065 0 3804.0 0.2896631428839065 1
gene  1 26 37 0.7282056700874147 0 3805.0 0.7282056700874147 1
gene  1 27 37 0.6868964387241242 0 3806.0 0.6868964387241242 1
gene  1 28 37 -0.37985787155303696 0 3807.0 -0.37985787155303696 1
gene  1 30 37 -0.7306993480591554 0 3809.0 -0.7306993480591554 1
gene  1 31 37 0.13927429648208167 0 3810.0 0.13927429648208167 1
gene  1 33 37 0.7693384256246261 0 3812.0 0.7693384256246261 1
gene  1 34 37 -0.6730444278147891 0 3813.0 -0.6730444278147891 1
gene  1 35 37 0.41771323961228835 0 3814.0 0.41771323961228835 1
gene  1 1 38 -0.8717270311185942 0 3885.0 -0.8717270311185942 1
gene  1 3 38 0.4236087736163069 0 3887.0 0.4236087736163069 1
gene  1 6 38 -0.7189149760089357 0 3890.0 -0.7189149760089357 1
gene  1 7 38 0.8277309062197193 0 3891.0 0.8277309062197193 1
gene  1 9 38 -0.7685357739907662 0 3893.0 -0.7685357739907662 1
gene  1 11 38 -0.8113931797521061 0 3895.0 -0.8113931797521061 1
gene  1 12 38 -0.006274063868469848 0 3896.0 -0.006274063868469848 1
gene  1 13 38 0.9953421811421894 0 3897.0 0.9953421811421894 1
gene  1 15 38 0.2572767100017056 0 3899.0 0.2572767100017056 1
gene  1 18 38 0.41229501306340144 0 3902.0 0.41229501306340144 1
gene  1 22 38 0.03115151937024485 0 3906.0 0.03115151937024485 1
gene  1 24 38 -0.14973336678468496 0 3908.0 -0.14973336678468496 1
gene  1 25 38 0.12642627981178056 0 3909.0 0.12642627981178056 1
gene  1 27 38 0.14114972641478118 0 3911.0 0.14114972641478118 1
gene  1 29 38 -0.6292694513232385 0 3913.0 -0.6292694513232385 1
gene  1 30 38 0.22877329309822192 0 3914.0 0.22877329309822192 1
gene  1 31 38 -2.91485517006862E-4 0 3915.0 -2.91485517006862E-4 1
gene  1 32 38 0.8047562796381892 0 3916.0 0.8047562796381892 1
gene  1 33 38 -0.8603603047752413 0 3917.0 -0.8603603047752413 1
gene  1 34 38 -0.47814885167759913 0 3918.0 -0.47814885167759913 1
gene  1 36 38 -0.9174422147222151 0 3920.0 -0.9174422147222151 1
gene  1 3 39 0.04898609135704601 0 3992.0 0.04898609135704601 1
gene  1 4 39 -0.965241670709534 0 3993.0 -0.965241670709534 1
gene  1 7 39 0.8302902612346414 0 3996.0 0.8302902612346414 1
gene  1 9 39 0.8814457790794725 0 3998.0 0.8814457790794725 1
gene  1 11 39 -0.6728352671528666 0 4000.0 -0.6728352671528666 1
gene  1 12 39 -0.7080909989993963 0 4001.0 -0.7080909989993963 1
gene  1 13 39 0.7489029931887545 0 4002.0 0.7489029931887545 1
gene  1 18 39 -0.4384983040377062 0 4007.0 -0.4384983040377062 1
gene  1 23 39 -0.7562566089369284 0 4012.0 -0.7562566089369284 1
gene  1 24 39 -0.029862523313168188 0 4013.0 -0.029862523313168188 1
gene  1 25 39 0.6783431460856936 0 4014.0 0.6783431460856936 1
gene  1 26 39 0.6436193646360457 0 4015.0 0.6436193646360457 1
gene  1 33 39 -0.7574884571324796 0 4022.0 -0.7574884571324796 1
gene  1 35 39 -0.5783494664170735 0 4024.0 -0.5783494664170735 1
gene  1 2 40 -0.09521498629890757 0 4096.0 -0.09521498629890757 1
gene  1 5 40 0.7767139199142444 0 4099.0 0.7767139199142444 1
gene  1 6 40 -0.9864110531640974 0 4100.0 -0.9864110531640974 1
gene  1 8 40 0.34699318291714476 0 4102.0 0.34699318291714476 1
gene  1 12 40 -0.5991947850887805 0 4106.0 -0.5991947850887805 1
gene  1 13 40 0.8551733190642191 0 4107.0 0.8551733190642191 1
gene  1 14 40 -0.41589932713587763 0 4108.0 -0.41589932713587763 1
gene  1 16 40 0.39603150968627265 0 4110.0 0.39603150968627265 1
gene  1 17 40 0.16232389376355705 0 4111.0 0.16232389376355705 1
gene  1 18 40 -0.025823417001936466 0 4112.0 -0.025823417001936466 1
gene  1 20 40 -0.025276959009254862 0 4114.0 -0.025276959009254862 1
gene  1 22 40 0.790683295507479 0 4116.0 0.790683295507479 1
gene  1 23 40 -0.9763770559323927 0 4117.0 -0.9763770559323927 1
gene  1 24 40 0.8928480413595711 0 4118.0 0.8928480413595711 1
gene  1 26 40 -0.010254556027778028 0 4120.0 -0.010254556027778028 1
gene  1 31 40 -0.36339165893726466 0 4125.0 -0.36339165893726466 1
gene  1 32 40 -0.6762785382081714 0 4126.0 -0.6762785382081714 1
gene  1 33 40 0.5086073254326895 0 4127.0 0.5086073254326895 1
gene  1 35 40 -0.5829750375478536 0 4129.0 -0.5829750375478536 1
gene  1 36 40 0.37916698790343084 0 4130.0 0.37916698790343084 1
gene  1 37 40 -0.6881697465182938 0 4131.0 -0.6881697465182938 1
gene  1 2 41 0.30169940563377584 0 4201.0 0.30169940563377584 1
gene  1 3 41 -0.4241872349664234 0 4202.0 -0.4241872349664234 1
gene  1 4 41 -0.3901364942594282 0 4203.0 -0.3901364942594282 1
gene  1 10 41 -0.15225861251606043 0 4209.0 -0.15225861251606043 1
gene  1 13 41 -0.4937165575124054 0 4212.0 -0.4937165575124054 1
gene  1 14 41 -0.44669458540989015 0 4213.0 -0.44669458540989015 1
gene  1 15 41 -0.5397459102392651 0 4214.0 -0.5397459102392651 1
gene  1 18 41 -0.13601141762441105 0 4217.0 -0.13601141762441105 1
gene  1 19 41 0.3373401273176113 0 4218.0 0.3373401273176113 1
gene  1 20 41 -0.5540254560379568 0 4219.0 -0.5540254560379568 1
gene  1 22 41 0.8977713391931677 0 4221.0 0.8977713391931677 1
gene  1 23 41 -0.4999646774485701 0 4222.0 -0.4999646774485701 1
gene  1 25 41 -0.7399896817626974 0 4224.0 -0.7399896817626974 1
gene  1 26 41 -0.8090643631111089 0 4225.0 -0.8090643631111089 1
gene  1 28 41 -0.45036412518051483 0 4227.0 -0.45036412518051483 1
gene  1 30 41 -0.8581964983094746 0 4229.0 -0.8581964983094746 1
gene  1 33 41 0.8873554491497985 0 4232.0 0.8873554491497985 1
gene  1 34 41 0.5018655914904763 0 4233.0 0.5018655914904763 1
gene  1 35 41 -0.5576178932572264 0 4234.0 -0.5576178932572264 1
gene  1 39 41 0.12443537289042639 0 4238.0 0.12443537289042639 1
gene  1 40 41 -0.3898385102051466 0 4239.0 -0.3898385102051466 1
gene  1 8 42 -0.2711114835989542 0 4312.0 -0.2711114835989542 1
gene  1 10 42 -0.7443428802088506 0 4314.0 -0.7443428802088506 1
gene  1 12 42 0.42340802237642605 0 4316.0 0.42340802237642605 1
gene  1 14 42 0.2041135053927745 0 4318.0 0.2041135053927745 1
gene  1 15 42 -0.7961241287458505 0 4319.0 -0.7961241287458505 1
gene  1 16 42 -0.8744596713688919 0 4320.0 -0.8744596713688919 1
gene  1 17 42 0.9302201797626765 0 4321.0 0.9302201797626765 1
gene  1 18 42 -0.2655050815195742 0 4322.0 -0.2655050815195742 1
gene  1 19 42 0.8518093770900996 0 4323.0 0.8518093770900996 1
gene  1 20 42 -0.1391582620056807 0 4324.0 -0.1391582620056807 1
gene  1 22 42 0.967580807401978 0 4326.0 0.967580807401978 1
gene  1 26 42 0.96029233173897 0 4330.0 0.96029233173897 1
gene  1 30 42 0.28260339917440813 0 4334.0 0.28260339917440813 1
gene  1 31 42 0.9740611081770204 0 4335.0 0.9740611081770204 1
gene  1 32 42 -0.4151565659800234 0 4336.0 -0.4151565659800234 1
gene  1 35 42 -0.4979686418500343 0 4339.0 -0.4979686418500343 1
gene  1 37 42 0.8879732136975053 0 4341.0 0.8879732136975053 1
gene  1 38 42 -0.41830806624311734 0 4342.0 -0.41830806624311734 1
gene  1 39 42 0.8752856151537768 0 4343.0 0.8752856151537768 1
gene  1 41 42 0.06129726084074971 0 4345.0 0.06129726084074971 1
gene  1 2 43 -0.3652402517210933 0 4411.0 -0.3652402517210933 1
gene  1 5 43 0.4928450595405782 0 4414.0 0.4928450595405782 1
gene  1 6 43 -0.7870705867903539 0 4415.0 -0.7870705867903539 1
gene  1 8 43 0.6380085243975651 0 4417.0 0.6380085243975651 1
gene  1 9 43 -0.47876910428655595 0 4418.0 -0.47876910428655595 1
gene  1 10 43 -0.6572288425795201 0 4419.0 -0.6572288425795201 1
gene  1 13 43 -0.713269453340566 0 4422.0 -0.713269453340566 1
gene  1 15 43 -0.4153437385639398 0 4424.0 -0.4153437385639398 1
gene  1 16 43 -0.030588920778993445 0 4425.0 -0.030588920778993445 1
gene  1 18 43 -0.10180308571817409 0 4427.0 -0.10180308571817409 1
gene  1 22 43 0.7525404195556101 0 4431.0 0.7525404195556101 1
gene  1 24 43 -0.9624050326030554 0 4433.0 -0.9624050326030554 1
gene  1 25 43 0.118361336613106 0 4434.0 0.118361336613106 1
gene  1 29 43 0.639887579367367 0 4438.0 0.639887579367367 1
gene  1 30 43 -0.5989829187487871 0 4439.0 -0.5989829187487871 1
gene  1 31 43 -0.4723322334926753 0 4440.0 -0.4723322334926753 1
gene  1 32 43 0.5637226736239856 0 4441.0 0.5637226736239856 1
gene  1 33 43 0.9242510216068655 0 4442.0 0.9242510216068655 1
gene  1 34 43 0.31143240377651416 0 4443.0 0.31143240377651416 1
gene  1 38 43 0.5954868509890872 0 4447.0 0.5954868509890872 1
gene  1 39 43 -0.36822964436615013 0 4448.0 -0.36822964436615013 1
gene  1 40 43 0.062086976577426345 0 4449.0 0.062086976577426345 1
gene  1 41 43 -0.7308708209927064 0 4450.0 -0.7308708209927064 1
gene  1 42 43 0.7967436385824207 0 4451.0 0.7967436385824207 1
gene  1 2 44 0.055621150485399395 0 4516.0 0.055621150485399395 1
gene  1 5 44 0.9283324303542339 0 4519.0 0.9283324303542339 1
gene  1 6 44 -0.5442397782952298 0 4520.0 -0.5442397782952298 1
gene  1 11 44 -0.31721079824737464 0 4525.0 -0.31721079824737464 1
gene  1 14 44 -0.8474462598805694 0 4528.0 -0.8474462598805694 1
gene  1 17 44 -0.36068734781828626 0 4531.0 -0.36068734781828626 1
gene  1 18 44 0.8198973090479388 0 4532.0 0.8198973090479388 1
gene  1 21 44 -0.23763493213360276 0 4535.0 -0.23763493213360276 1
gene  1 25 44 0.7132434478737223 0 4539.0 0.7132434478737223 1
gene  1 28 44 0.2902106341574645 0 4542.0 0.2902106341574645 1
gene  1 30 44 0.0013243415427285354 0 4544.0 0.0013243415427285354 1
gene  1 31 44 0.5236851273124817 0 4545.0 0.5236851273124817 1
gene  1 34 44 -0.4647101924951932 0 4548.0 -0.4647101924951932 1
gene  1 39 44 0.8448618483807525 0 4553.0 0.8448618483807525 1
gene  1 40 44 -0.6432225564441828 0 4554.0 -0.6432225564441828 1
gene  1 42 44 0.4004164118821558 0 4556.0 0.4004164118821558 1
gene  1 43 44 0.6133697808269141 0 4557.0 0.6133697808269141 1
gene  1 1 45 0.7326800837658161 0 4620.0 0.7326800837658161 1
gene  1 5 45 0.8939817356115535 0 4624.0 0.8939817356115535 1
gene  1 6 45 0.7445253733884182 0 4625.0 0.7445253733884182 1
gene  1 7 45 -0.6801946531744396 0 4626.0 -0.6801946531744396 1
gene  1 8 45 -0.23616609335186978 0 4627.0 -0.23616609335186978 1
gene  1 9 45 -0.8911426742006975 0 4628.0 -0.8911426742006975 1
gene  1 10 45 -0.11044363038237937 0 4629.0 -0.11044363038237937 1
gene  1 15 45 0.8899271263822837 0 4634.0 0.8899271263822837 1
gene  1 20 45 0.946465857706057 0 4639.0 0.946465857706057 1
gene  1 21 45 0.8468212555741065 0 4640.0 0.8468212555741065 1
gene  1 24 45 0.4036574232395119 0 4643.0 0.4036574232395119 1
gene  1 25 45 0.668270144780202 0 4644.0 0.668270144780202 1
gene  1 26 45 -0.7486173692501897 0 4645.0 -0.7486173692501897 1
gene  1 27 45 -0.8973505359019006 0 4646.0 -0.8973505359019006 1
gene  1 30 45 -0.38755845223030727 0 4649.0 -0.38755845223030727 1
gene  1 32 45 -0.4118974034938405 0 4651.0 -0.4118974034938405 1
gene  1 33 45 -0.3977697988444858 0 4652.0 -0.3977697988444858 1
gene  1 34 45 0.4992716525814379 0 4653.0 0.4992716525814379 1
gene  1 35 45 -0.13615945478769031 0 4654.0 -0.13615945478769031 1
gene  1 37 45 -0.5539249564251227 0 4656.0 -0.5539249564251227 1
gene  1 42 45 -0.4581424351231259 0 4661.0 -0.4581424351231259 1
gene  1 43 45 0.7302702027423394 0 4662.0 0.7302702027423394 1
gene  1 44 45 -0.12356525850730771 0 4663.0 -0.12356525850730771 1
gene  1 1 46 -0.7950392768014823 0 4725.0 -0.7950392768014823 1
gene  1 3 46 0.11566097931101471 0 4727.0 0.11566097931101471 1
gene  1 7 46 -0.7410943195888561 0 4731.0 -0.7410943195888561 1
gene  1 8 46 -0.9434607678263511 0 4732.0 -0.9434607678263511 1
gene  1 9 46 -0.4162114093513465 0 4733.0 -0.4162114093513465 1
gene  1 12 46 0.922667114578006 0 4736.0 0.922667114578006 1
gene  1 14 46 0.479662551792176 0 4738.0 0.479662551792176 1
gene  1 15 46 -0.1712301666080721 0 4739.0 -0.1712301666080721 1
gene  1 16 46 -0.09553764110079577 0 4740.0 -0.09553764110079577 1
gene  1 18 46 -0.4366964476102929 0 4742.0 -0.4366964476102929 1
gene  1 21 46 0.8326056992542109 0 4745.0 0.8326056992542109 1
gene  1 22 46 -0.7826924269546119 0 4746.0 -0.7826924269546119 1
gene  1 23 46 -0.4913047754167744 0 4747.0 -0.4913047754167744 1
gene  1 24 46 0.8197849921512937 0 4748.0 0.8197849921512937 1
gene  1 25 46 -0.3978960431635138 0 4749.0 -0.3978960431635138 1
gene  1 26 46 0.9137420520639375 0 4750.0 0.9137420520639375 1
gene  1 32 46 -0.7573276987176278 0 4756.0 -0.7573276987176278 1
gene  1 34 46 -0.16169837025144884 0 4758.0 -0.16169837025144884 1
gene  1 35 46 0.0948815856308397 0 4759.0 0.0948815856308397 1
gene  1 37 46 -0.8432106361434198 0 4761.0 -0.8432106361434198 1
gene  1 40 46 -0.96576937710382 0 4764.0 -0.96576937710382 1
gene  1 41 46 0.7683565457553838 0 4765.0 0.7683565457553838 1
gene  1 44 46 -0.8492206604098859 0 4768.0 -0.8492206604098859 1
gene  1 1 47 -0.5876768352906268 0 4830.0 -0.5876768352906268 1
gene  1 2 47 -0.3272230001379056 0 4831.0 -0.3272230001379056 1
gene  1 4 47 -0.15090157701775464 0 4833.0 -0.15090157701775464 1
gene  1 7 47 -0.25853522287544994 0 4836.0 -0.25853522287544994 1
gene  1 11 47 0.7642909170270322 0 4840.0 0.7642909170270322 1
gene  1 12 47 0.9273839038656961 0 4841.0 0.9273839038656961 1
gene  1 14 47 -0.4935540014817188 0 4843.0 -0.4935540014817188 1
gene  1 17 47 -0.7830793490108914 0 4846.0 -0.7830793490108914 1
gene  1 19 47 0.6803564302283163 0 4848.0 0.6803564302283163 1
gene  1 20 47 0.11311029479072332 0 4849.0 0.11311029479072332 1
gene  1 21 47 -0.04872578833150276 0 4850.0 -0.04872578833150276 1
gene  1 24 47 -0.9317324755031218 0 4853.0 -0.9317324755031218 1
gene  1 26 47 -0.39271729450019954 0 4855.0 -0.39271729450019954 1
gene  1 28 47 -0.4363864419701431 0 4857.0 -0.4363864419701431 1
gene  1 30 47 0.08178143050942599 0 4859.0 0.08178143050942599 1
gene  1 31 47 0.6789359752863793 0 4860.0 0.6789359752863793 1
gene  1 33 47 0.6140972765949497 0 4862.0 0.6140972765949497 1
gene  1 41 47 0.34035610494223034 0 4870.0 0.34035610494223034 1
gene  1 45 47 -0.5882146170714017 0 4874.0 -0.5882146170714017 1
gene  1 46 47 -0.9889271006545068 0 4875.0 -0.9889271006545068 1
gene  1 1 48 -0.3674674277195721 0 4935.0 -0.3674674277195721 1
gene  1 2 48 0.29425675940676543 0 4936.0 0.29425675940676543 1
gene  1 3 48 -0.2525635391249519 0 4937.0 -0.2525635391249519 1
gene  1 4 48 0.6102945849564086 0 4938.0 0.6102945849564086 1
gene  1 6 48 -0.6651930572614734 0 4940.0 -0.6651930572614734 1
gene  1 9 48 -0.4602032734383311 0 4943.0 -0.4602032734383311 1
gene  1 12 48 -0.7777237279542033 0 4946.0 -0.7777237279542033 1
gene  1 13 48 -0.9913696626788256 0 4947.0 -0.9913696626788256 1
gene  1 14 48 -0.8509213065063178 0 4948.0 -0.8509213065063178 1
gene  1 16 48 0.9201618153100862 0 4950.0 0.9201618153100862 1
gene  1 17 48 -0.3489108577490393 0 4951.0 -0.3489108577490393 1
gene  1 18 48 0.2445295153553988 0 4952.0 0.2445295153553988 1
gene  1 19 48 0.6445790853294273 0 4953.0 0.6445790853294273 1
gene  1 20 48 -0.08131830407659035 0 4954.0 -0.08131830407659035 1
gene  1 22 48 0.2187284921240017 0 4956.0 0.2187284921240017 1
gene  1 24 48 -0.028763552975902495 0 4958.0 -0.028763552975902495 1
gene  1 25 48 -0.10199744950129008 0 4959.0 -0.10199744950129008 1
gene  1 26 48 -0.796948009739557 0 4960.0 -0.796948009739557 1
gene  1 27 48 -0.11583270442202809 0 4961.0 -0.11583270442202809 1
gene  1 28 48 -0.23284185378861688 0 4962.0 -0.23284185378861688 1
gene  1 30 48 0.28997688035342994 0 4964.0 0.28997688035342994 1
gene  1 32 48 0.5317833633895398 0 4966.0 0.5317833633895398 1
gene  1 34 48 0.8436615036454009 0 4968.0 0.8436615036454009 1
gene  1 35 48 -0.6185127761263857 0 4969.0 -0.6185127761263857 1
gene  1 36 48 -0.30634713198426167 0 4970.0 -0.30634713198426167 1
gene  1 39 48 -0.2190713380267082 0 4973.0 -0.2190713380267082 1
gene  1 41 48 -0.29858393213761925 0 4975.0 -0.29858393213761925 1
gene  1 42 48 0.5511027505238811 0 4976.0 0.5511027505238811 1
gene  1 43 48 0.5859189792858578 0 4977.0 0.5859189792858578 1
gene  1 1 49 0.31370909288528803 0 5040.0 0.31370909288528803 1
gene  1 2 49 -0.4964785240663181 0 5041.0 -0.4964785240663181 1
gene  1 4 49 0.5148252692090353 0 5043.0 0.5148252692090353 1
gene  1 9 49 -0.14221418704634647 0 5048.0 -0.14221418704634647 1
gene  1 10 49 -0.5641149751960023 0 5049.0 -0.5641149751960023 1
gene  1 14 49 0.6478948623670693 0 5053.0 0.6478948623670693 1
gene  1 15 49 -0.9275389036968088 0 5054.0 -0.9275389036968088 1
gene  1 17 49 -0.3384056875005764 0 5056.0 -0.3384056875005764 1
gene  1 18 49 -0.6862779774794909 0 5057.0 -0.6862779774794909 1
gene  1 19 49 -0.006191158764979221 0 5058.0 -0.006191158764979221 1
gene  1 21 49 -0.4645069754035822 0 5060.0 -0.4645069754035822 1
gene  1 22 49 -0.9677935458581067 0 5061.0 -0.9677935458581067 1
gene  1 24 49 -0.017550982841132323 0 5063.0 -0.017550982841132323 1
gene  1 25 49 0.06884862638813372 0 5064.0 0.06884862638813372 1
gene  1 28 49 -0.5371621168285611 0 5067.0 -0.5371621168285611 1
gene  1 29 49 0.28504723887459793 0 5068.0 0.28504723887459793 1
gene  1 30 49 -0.3054102169540248 0 5069.0 -0.3054102169540248 1
gene  1 32 49 0.7248933112262917 0 5071.0 0.7248933112262917 1
gene  1 34 49 0.09960149337968327 0 5073.0 0.09960149337968327 1
gene  1 35 49 0.26689944268018573 0 5074.0 0.26689944268018573 1
gene  1 36 49 0.6071608745538872 0 5075.0 0.6071608745538872 1
gene  1 38 49 0.3932334311960385 0 5077.0 0.3932334311960385 1
gene  1 40 49 -0.6555386577578189 0 5079.0 -0.6555386577578189 1
gene  1 41 49 -0.8193959861152909 0 5080.0 -0.8193959861152909 1
gene  1 42 49 -0.259376864448866 0 5081.0 -0.259376864448866 1
gene  1 43 49 -0.9168474902050948 0 5082.0 -0.9168474902050948 1
gene  1 45 49 0.27910056768712155 0 5084.0 0.27910056768712155 1
gene  1 47 49 -0.08447962276910481 0 5086.0 -0.08447962276910481 1
gene  1 48 49 -0.5490380558083585 0 5087.0 -0.5490380558083585 1
gene  1 3 50 -0.592111824344462 0 5147.0 -0.592111824344462 1
gene  1 4 50 0.9459405849917001 0 5148.0 0.9459405849917001 1
gene  1 5 50 -0.049774975409143773 0 5149.0 -0.049774975409143773 1
gene  1 6 50 -0.969568429234733 0 5150.0 -0.969568429234733 1
gene  1 10 50 -0.8939863003231486 0 5154.0 -0.8939863003231486 1
gene  1 14 50 -0.282771227331549 0 5158.0 -0.282771227331549 1
gene  1 16 50 -0.621989367181819 0 5160.0 -0.621989367181819 1
gene  1 18 50 0.2713521501807503 0 5162.0 0.2713521501807503 1
gene  1 19 50 -0.17601316821175828 0 5163.0 -0.17601316821175828 1
gene  1 22 50 -0.5041159920513956 0 5166.0 -0.5041159920513956 1
gene  1 23 50 0.39826121540821646 0 5167.0 0.39826121540821646 1
gene  1 24 50 -0.2742590892612444 0 5168.0 -0.2742590892612444 1
gene  1 25 50 0.39572333296668993 0 5169.0 0.39572333296668993 1
gene  1 26 50 -0.3197153940949844 0 5170.0 -0.3197153940949844 1
gene  1 27 50 0.94486505179542 0 5171.0 0.94486505179542 1
gene  1 30 50 0.06506354363757627 0 5174.0 0.06506354363757627 1
gene  1 32 50 -0.05456896578936332 0 5176.0 -0.05456896578936332 1
gene  1 35 50 0.7038604726004796 0 5179.0 0.7038604726004796 1
gene  1 37 50 0.27458269905082544 0 5181.0 0.27458269905082544 1
gene  1 38 50 0.5805901918679148 0 5182.0 0.5805901918679148 1
gene  1 39 50 -0.40725683215187125 0 5183.0 -0.40725683215187125 1
gene  1 40 50 -0.8425985057373296 0 5184.0 -0.8425985057373296 1
gene  1 44 50 -0.8803140006443378 0 5188.0 -0.8803140006443378 1
gene  1 46 50 -0.11253431931208835 0 5190.0 -0.11253431931208835 1
gene  1 49 50 -0.24557561251737292 0 5193.0 -0.24557561251737292 1
gene  1 1 51 -0.2742675372588147 0 5250.0 -0.2742675372588147 1
gene  1 2 51 0.5325406536578176 0 5251.0 0.5325406536578176 1
gene  1 3 51 -0.25612915637421485 0 5252.0 -0.25612915637421485 1
gene  1 7 51 -0.400588596579717 0 5256.0 -0.400588596579717 1
gene  1 9 51 0.1555533587561817 0 5258.0 0.1555533587561817 1
gene  1 10 51 0.6533635344774371 0 5259.0 0.6533635344774371 1
gene  1 11 51 -0.6654894147336006 0 5260.0 -0.6654894147336006 1
gene  1 13 51 -0.5353824079993179 0 5262.0 -0.5353824079993179 1
gene  1 14 51 -0.8959810829122784 0 5263.0 -0.8959810829122784 1
gene  1 16 51 -0.43316937640532815 0 5265.0 -0.43316937640532815 1
gene  1 17 51 -0.4362426158381729 0 5266.0 -0.4362426158381729 1
gene  1 20 51 -0.8662694304975993 0 5269.0 -0.8662694304975993 1
gene  1 21 51 0.7695863997764616 0 5270.0 0.7695863997764616 1
gene  1 25 51 -0.62258915729205 0 5274.0 -0.62258915729205 1
gene  1 26 51 -0.383039416185079 0 5275.0 -0.383039416185079 1
gene  1 27 51 -0.4981673768580489 0 5276.0 -0.4981673768580489 1
gene  1 28 51 -0.9289680588072804 0 5277.0 -0.9289680588072804 1
gene  1 29 51 0.6991980408582126 0 5278.0 0.6991980408582126 1
gene  1 36 51 -0.14715598981728117 0 5285.0 -0.14715598981728117 1
gene  1 39 51 0.9814219513891557 0 5288.0 0.9814219513891557 1
gene  1 43 51 0.8938835208891338 0 5292.0 0.8938835208891338 1
gene  1 44 51 0.6341679038660621 0 5293.0 0.6341679038660621 1
gene  1 45 51 0.2984849091187607 0 5294.0 0.2984849091187607 1
gene  1 46 51 0.1810769522395168 0 5295.0 0.1810769522395168 1
gene  1 47 51 0.6782750103330878 0 5296.0 0.6782750103330878 1
gene  1 48 51 -0.9494802774183628 0 5297.0 -0.9494802774183628 1
gene  1 49 51 -0.08695380283565723 0 5298.0 -0.08695380283565723 1
gene  1 1 52 -0.3308800329990108 0 5355.0 -0.3308800329990108 1
gene  1 2 52 -0.3547328603012163 0 5356.0 -0.3547328603012163 1
gene  1 3 52 0.013879629110428504 0 5357.0 0.013879629110428504 1
gene  1 4 52 0.5603792408637304 0 5358.0 0.5603792408637304 1
gene  1 6 52 -0.2553701335076062 0 5360.0 -0.2553701335076062 1
gene  1 7 52 -0.8669275405920698 0 5361.0 -0.8669275405920698 1
gene  1 9 52 0.34990855353138506 0 5363.0 0.34990855353138506 1
gene  1 13 52 0.5679083237421237 0 5367.0 0.5679083237421237 1
gene  1 19 52 -0.7633238578379392 0 5373.0 -0.7633238578379392 1
gene  1 20 52 0.10585274336370587 0 5374.0 0.10585274336370587 1
gene  1 21 52 0.061405948763436524 0 5375.0 0.061405948763436524 1
gene  1 22 52 0.9888351557652889 0 5376.0 0.9888351557652889 1
gene  1 23 52 -0.5206214043500843 0 5377.0 -0.5206214043500843 1
gene  1 24 52 0.7165767626265078 0 5378.0 0.7165767626265078 1
gene  1 25 52 0.7089327345069735 0 5379.0 0.7089327345069735 1
gene  1 26 52 0.0034068750085288757 0 5380.0 0.0034068750085288757 1
gene  1 27 52 0.7230779856143142 0 5381.0 0.7230779856143142 1
gene  1 28 52 0.33473234950313824 0 5382.0 0.33473234950313824 1
gene  1 30 52 -0.09975219513204336 0 5384.0 -0.09975219513204336 1
gene  1 34 52 0.6023179041597595 0 5388.0 0.6023179041597595 1
gene  1 36 52 -0.32970100875161734 0 5390.0 -0.32970100875161734 1
gene  1 39 52 0.23669237087677553 0 5393.0 0.23669237087677553 1
gene  1 40 52 0.4811528765232892 0 5394.0 0.4811528765232892 1
gene  1 41 52 -0.9213806419813519 0 5395.0 -0.9213806419813519 1
gene  1 42 52 -0.7507796356031954 0 5396.0 -0.7507796356031954 1
gene  1 46 52 0.9791642807552089 0 5400.0 0.9791642807552089 1
gene  1 48 52 -0.664845454213616 0 5402.0 -0.664845454213616 1
gene  1 51 52 -0.6031760258376674 0 5405.0 -0.6031760258376674 1
gene  1 2 53 -0.7766650572010648 0 5461.0 -0.7766650572010648 1
gene  1 3 53 0.9920474430430316 0 5462.0 0.9920474430430316 1
gene  1 5 53 -0.2215583743441274 0 5464.0 -0.2215583743441274 1
gene  1 7 53 -0.8035211922552943 0 5466.0 -0.8035211922552943 1
gene  1 8 53 0.29241247705716067 0 5467.0 0.29241247705716067 1
gene  1 11 53 -0.2464671244101425 0 5470.0 -0.2464671244101425 1
gene  1 13 53 -0.29633734417944035 0 5472.0 -0.29633734417944035 1
gene  1 16 53 -0.8619176237147886 0 5475.0 -0.8619176237147886 1
gene  1 18 53 0.35785216384844165 0 5477.0 0.35785216384844165 1
gene  1 19 53 0.7559345244356043 0 5478.0 0.7559345244356043 1
gene  1 20 53 -0.9558372395379496 0 5479.0 -0.9558372395379496 1
gene  1 22 53 0.08570307872027672 0 5481.0 0.08570307872027672 1
gene  1 29 53 -0.4962414668825921 0 5488.0 -0.4962414668825921 1
gene  1 30 53 0.47496765054268864 0 5489.0 0.47496765054268864 1
gene  1 31 53 -0.610367315752764 0 5490.0 -0.610367315752764 1
gene  1 33 53 0.7107492979824593 0 5492.0 0.7107492979824593 1
gene  1 34 53 0.27839745007719596 0 5493.0 0.27839745007719596 1
gene  1 35 53 -0.06299943299970412 0 5494.0 -0.06299943299970412 1
gene  1 36 53 -0.6987804609453334 0 5495.0 -0.6987804609453334 1
gene  1 38 53 0.40991437964043864 0 5497.0 0.40991437964043864 1
gene  1 40 53 -0.310972212504364 0 5499.0 -0.310972212504364 1
gene  1 41 53 -0.39313174124665307 0 5500.0 -0.39313174124665307 1
gene  1 46 53 0.898518592788907 0 5505.0 0.898518592788907 1
gene  1 50 53 -0.8461512829999048 0 5509.0 -0.8461512829999048 1
gene  1 5 54 -0.6320382099645055 0 5569.0 -0.6320382099645055 1
gene  1 6 54 -0.7507725642211782 0 5570.0 -0.7507725642211782 1
gene  1 7 54 0.9631580663715252 0 5571.0 0.9631580663715252 1
gene  1 11 54 -0.6916291431463576 0 5575.0 -0.6916291431463576 1
gene  1 14 54 -0.9259979934342918 0 5578.0 -0.9259979934342918 1
gene  1 15 54 0.5163037755790404 0 5579.0 0.5163037755790404 1
gene  1 19 54 0.4044255588513783 0 5583.0 0.4044255588513783 1
gene  1 23 54 0.3482712022494764 0 5587.0 0.3482712022494764 1
gene  1 28 54 0.33150071745309484 0 5592.0 0.33150071745309484 1
gene  1 30 54 -0.12292463223534622 0 5594.0 -0.12292463223534622 1
gene  1 31 54 0.5555454990708044 0 5595.0 0.5555454990708044 1
gene  1 34 54 -0.7589392084745916 0 5598.0 -0.7589392084745916 1
gene  1 35 54 -0.41588701039332077 0 5599.0 -0.41588701039332077 1
gene  1 36 54 0.07433469614116184 0 5600.0 0.07433469614116184 1
gene  1 39 54 -0.6804677920260304 0 5603.0 -0.6804677920260304 1
gene  1 41 54 0.25167582005687894 0 5605.0 0.25167582005687894 1
gene  1 48 54 0.9099203914274898 0 5612.0 0.9099203914274898 1
gene  1 49 54 -0.3799679617410272 0 5613.0 -0.3799679617410272 1
gene  1 52 54 -0.2534298438301127 0 5616.0 -0.2534298438301127 1
gene  1 53 54 -0.23089507506162377 0 5617.0 -0.23089507506162377 1
gene  1 1 55 0.3663001110946622 0 5670.0 0.3663001110946622 1
gene  1 3 55 0.485448912848625 0 5672.0 0.485448912848625 1
gene  1 6 55 0.021712770880809473 0 5675.0 0.021712770880809473 1
gene  1 8 55 0.7475088285637398 0 5677.0 0.7475088285637398 1
gene  1 9 55 -0.1506627704611686 0 5678.0 -0.1506627704611686 1
gene  1 12 55 -0.4445699363011115 0 5681.0 -0.4445699363011115 1
gene  1 14 55 -0.09952735661229783 0 5683.0 -0.09952735661229783 1
gene  1 15 55 -0.9323888418839488 0 5684.0 -0.9323888418839488 1
gene  1 17 55 0.26732024827088574 0 5686.0 0.26732024827088574 1
gene  1 18 55 0.9825207488618497 0 5687.0 0.9825207488618497 1
gene  1 20 55 0.9127454464780177 0 5689.0 0.9127454464780177 1
gene  1 21 55 -0.9613597863737358 0 5690.0 -0.9613597863737358 1
gene  1 23 55 0.9335760581338632 0 5692.0 0.9335760581338632 1
gene  1 24 55 0.2588409543069897 0 5693.0 0.2588409543069897 1
gene  1 25 55 0.03459535748216347 0 5694.0 0.03459535748216347 1
gene  1 26 55 -0.49154450805820993 0 5695.0 -0.49154450805820993 1
gene  1 31 55 -0.5627120758626627 0 5700.0 -0.5627120758626627 1
gene  1 33 55 0.5575014236951509 0 5702.0 0.5575014236951509 1
gene  1 34 55 -0.7052500080045919 0 5703.0 -0.7052500080045919 1
gene  1 35 55 0.3341575482884752 0 5704.0 0.3341575482884752 1
gene  1 40 55 0.7101203180390739 0 5709.0 0.7101203180390739 1
gene  1 42 55 0.049904037302788584 0 5711.0 0.049904037302788584 1
gene  1 45 55 0.41912298792292424 0 5714.0 0.41912298792292424 1
gene  1 46 55 -0.8329643617503109 0 5715.0 -0.8329643617503109 1
gene  1 48 55 -0.4399206552470798 0 5717.0 -0.4399206552470798 1
gene  1 49 55 -0.9180578674163905 0 5718.0 -0.9180578674163905 1
gene  1 50 55 -0.3701848489156171 0 5719.0 -0.3701848489156171 1
gene  1 51 55 -0.9351592395765216 0 5720.0 -0.9351592395765216 1
gene  1 53 55 0.6379824434108116 0 5722.0 0.6379824434108116 1
gene  1 1 56 0.9477490136576161 0 5775.0 0.9477490136576161 1
gene  1 2 56 -0.6671367000636117 0 5776.0 -0.6671367000636117 1
gene  1 3 56 -0.06631225469288593 0 5777.0 -0.06631225469288593 1
gene  1 4 56 0.7356563092082158 0 5778.0 0.7356563092082158 1
gene  1 6 56 -0.6475548632825914 0 5780.0 -0.6475548632825914 1
gene  1 9 56 -0.1381196470739421 0 5783.0 -0.1381196470739421 1
gene  1 10 56 -0.556613584621309 0 5784.0 -0.556613584621309 1
gene  1 11 56 0.6177003808409681 0 5785.0 0.6177003808409681 1
gene  1 13 56 0.6958189371819707 0 5787.0 0.6958189371819707 1
gene  1 14 56 0.7319584861456355 0 5788.0 0.7319584861456355 1
gene  1 15 56 -0.7745982145063333 0 5789.0 -0.7745982145063333 1
gene  1 16 56 0.7157023546636474 0 5790.0 0.7157023546636474 1
gene  1 19 56 -0.2253325264610938 0 5793.0 -0.2253325264610938 1
gene  1 23 56 -0.15477839080793587 0 5797.0 -0.15477839080793587 1
gene  1 24 56 0.17893539228634425 0 5798.0 0.17893539228634425 1
gene  1 29 56 -0.2794832160149363 0 5803.0 -0.2794832160149363 1
gene  1 30 56 0.019972375085791194 0 5804.0 0.019972375085791194 1
gene  1 31 56 -0.5441057899046526 0 5805.0 -0.5441057899046526 1
gene  1 33 56 -0.9301608232054962 0 5807.0 -0.9301608232054962 1
gene  1 35 56 -0.9651209049347763 0 5809.0 -0.9651209049347763 1
gene  1 36 56 -0.9988012880097134 0 5810.0 -0.9988012880097134 1
gene  1 38 56 0.936060162971555 0 5812.0 0.936060162971555 1
gene  1 42 56 -0.3532353646516464 0 5816.0 -0.3532353646516464 1
gene  1 43 56 0.367829252745312 0 5817.0 0.367829252745312 1
gene  1 44 56 0.5154101029903165 0 5818.0 0.5154101029903165 1
gene  1 53 56 0.7056239579028172 0 5827.0 0.7056239579028172 1
gene  1 55 56 -0.6087273362051562 0 5829.0 -0.6087273362051562 1
gene  1 2 57 -0.19632188549883522 0 5881.0 -0.19632188549883522 1
gene  1 6 57 -0.6021969024747361 0 5885.0 -0.6021969024747361 1
gene  1 7 57 -0.4077853364707338 0 5886.0 -0.4077853364707338 1
gene  1 8 57 -0.22480800946017987 0 5887.0 -0.22480800946017987 1
gene  1 10 57 -0.9647067406113854 0 5889.0 -0.9647067406113854 1
gene  1 11 57 -0.6738498878361849 0 5890.0 -0.6738498878361849 1
gene  1 12 57 -0.7929935279025904 0 5891.0 -0.7929935279025904 1
gene  1 13 57 0.3330636664817028 0 5892.0 0.3330636664817028 1
gene  1 14 57 0.44749830720979344 0 5893.0 0.44749830720979344 1
gene  1 15 57 0.6889084151031769 0 5894.0 0.6889084151031769 1
gene  1 18 57 0.6601413685382841 0 5897.0 0.6601413685382841 1
gene  1 19 57 0.31668728963249815 0 5898.0 0.31668728963249815 1
gene  1 21 57 0.5789772277673408 0 5900.0 0.5789772277673408 1
gene  1 22 57 -0.9046790632259548 0 5901.0 -0.9046790632259548 1
gene  1 23 57 0.5123563283823053 0 5902.0 0.5123563283823053 1
gene  1 24 57 0.2576098253170068 0 5903.0 0.2576098253170068 1
gene  1 30 57 0.9027210241620239 0 5909.0 0.9027210241620239 1
gene  1 37 57 0.18511204881952414 0 5916.0 0.18511204881952414 1
gene  1 42 57 0.23527941358090654 0 5921.0 0.23527941358090654 1
gene  1 46 57 -0.8066381926313595 0 5925.0 -0.8066381926313595 1
gene  1 49 57 0.3104047463837889 0 5928.0 0.3104047463837889 1
gene  1 52 57 0.10400907711120111 0 5931.0 0.10400907711120111 1
gene  1 54 57 -0.6861558014184693 0 5933.0 -0.6861558014184693 1
gene  1 55 57 0.504128601441594 0 5934.0 0.504128601441594 1
gene  1 1 58 -0.41752437816011356 0 5985.0 -0.41752437816011356 1
gene  1 2 58 -0.5820146597696518 0 5986.0 -0.5820146597696518 1
gene  1 3 58 -0.7987390304716062 0 5987.0 -0.7987390304716062 1
gene  1 4 58 -0.8639599064720248 0 5988.0 -0.8639599064720248 1
gene  1 5 58 -0.0710084122874135 0 5989.0 -0.0710084122874135 1
gene  1 7 58 0.4945020245089674 0 5991.0 0.4945020245089674 1
gene  1 9 58 -0.6293885329293486 0 5993.0 -0.6293885329293486 1
gene  1 10 58 -0.7757786480004606 0 5994.0 -0.7757786480004606 1
gene  1 12 58 -0.7801039489350707 0 5996.0 -0.7801039489350707 1
gene  1 13 58 0.062330496786993206 0 5997.0 0.062330496786993206 1
gene  1 14 58 -0.4213550682534831 0 5998.0 -0.4213550682534831 1
gene  1 15 58 0.6642341484874559 0 5999.0 0.6642341484874559 1
gene  1 16 58 0.2146802263599541 0 6000.0 0.2146802263599541 1
gene  1 20 58 -0.09653438625519306 0 6004.0 -0.09653438625519306 1
gene  1 22 58 -0.8965156200841015 0 6006.0 -0.8965156200841015 1
gene  1 23 58 0.9131553921039722 0 6007.0 0.9131553921039722 1
gene  1 25 58 -0.7782859744687337 0 6009.0 -0.7782859744687337 1
gene  1 30 58 -0.5036852892511403 0 6014.0 -0.5036852892511403 1
gene  1 32 58 0.4180275100891673 0 6016.0 0.4180275100891673 1
gene  1 36 58 0.9706599754370343 0 6020.0 0.9706599754370343 1
gene  1 37 58 0.8879037690400018 0 6021.0 0.8879037690400018 1
gene  1 38 58 0.2977083896213937 0 6022.0 0.2977083896213937 1
gene  1 39 58 -0.6466840467176466 0 6023.0 -0.6466840467176466 1
gene  1 41 58 -0.3107265497747591 0 6025.0 -0.3107265497747591 1
gene  1 42 58 0.27621768047270223 0 6026.0 0.27621768047270223 1
gene  1 45 58 0.6174621645856067 0 6029.0 0.6174621645856067 1
gene  1 47 58 0.7532111769981066 0 6031.0 0.7532111769981066 1
gene  1 52 58 0.6598741687973526 0 6036.0 0.6598741687973526 1
gene  1 54 58 0.9700731553449822 0 6038.0 0.9700731553449822 1
gene  1 56 58 -0.5629169008597474 0 6040.0 -0.5629169008597474 1
gene  1 5 59 -0.9852596738535913 0 6094.0 -0.9852596738535913 1
gene  1 10 59 0.08572126978400985 0 6099.0 0.08572126978400985 1
gene  1 11 59 0.7322663929309844 0 6100.0 0.7322663929309844 1
gene  1 12 59 -0.6661739948354332 0 6101.0 -0.6661739948354332 1
gene  1 13 59 -0.43020930509340805 0 6102.0 -0.43020930509340805 1
gene  1 16 59 0.27816439472195786 0 6105.0 0.27816439472195786 1
gene  1 17 59 -0.6213267351262697 0 6106.0 -0.6213267351262697 1
gene  1 19 59 -0.3711128530462343 0 6108.0 -0.3711128530462343 1
gene  1 21 59 0.5937753203676912 0 6110.0 0.5937753203676912 1
gene  1 23 59 0.5839154571751938 0 6112.0 0.5839154571751938 1
gene  1 25 59 -0.9109045566856536 0 6114.0 -0.9109045566856536 1
gene  1 29 59 -0.35576740034747034 0 6118.0 -0.35576740034747034 1
gene  1 30 59 -0.03233105630074118 0 6119.0 -0.03233105630074118 1
gene  1 32 59 -0.640739815628188 0 6121.0 -0.640739815628188 1
gene  1 33 59 -0.19897282669501992 0 6122.0 -0.19897282669501992 1
gene  1 34 59 0.9776297543278023 0 6123.0 0.9776297543278023 1
gene  1 36 59 0.758248426922615 0 6125.0 0.758248426922615 1
gene  1 37 59 0.21788778017705823 0 6126.0 0.21788778017705823 1
gene  1 39 59 -0.9563970204733873 0 6128.0 -0.9563970204733873 1
gene  1 40 59 0.621333396837371 0 6129.0 0.621333396837371 1
gene  1 41 59 -0.678700059274177 0 6130.0 -0.678700059274177 1
gene  1 42 59 -0.6322316184365742 0 6131.0 -0.6322316184365742 1
gene  1 43 59 0.6404996871548797 0 6132.0 0.6404996871548797 1
gene  1 46 59 0.5823449624814813 0 6135.0 0.5823449624814813 1
gene  1 53 59 0.5474251103384453 0 6142.0 0.5474251103384453 1
gene  1 56 59 0.7632044315592449 0 6145.0 0.7632044315592449 1
gene  1 58 59 -0.5048953699450882 0 6147.0 -0.5048953699450882 1
gene  1 1 60 0.11552079524176939 0 6195.0 0.11552079524176939 1
gene  1 5 60 -0.09597722687144927 0 6199.0 -0.09597722687144927 1
gene  1 8 60 0.7308540380528533 0 6202.0 0.7308540380528533 1
gene  1 9 60 -0.3418257758029202 0 6203.0 -0.3418257758029202 1
gene  1 15 60 0.9341727476074012 0 6209.0 0.9341727476074012 1
gene  1 16 60 -0.3778582241140729 0 6210.0 -0.3778582241140729 1
gene  1 17 60 0.08662317037055367 0 6211.0 0.08662317037055367 1
gene  1 18 60 -0.11408416861365756 0 6212.0 -0.11408416861365756 1
gene  1 20 60 0.2685179714895519 0 6214.0 0.2685179714895519 1
gene  1 22 60 -0.28948792373591214 0 6216.0 -0.28948792373591214 1
gene  1 23 60 0.36166428279684626 0 6217.0 0.36166428279684626 1
gene  1 24 60 0.08386021579436065 0 6218.0 0.08386021579436065 1
gene  1 27 60 0.3213196511002965 0 6221.0 0.3213196511002965 1
gene  1 28 60 0.5318291602018789 0 6222.0 0.5318291602018789 1
gene  1 30 60 0.8477898386250959 0 6224.0 0.8477898386250959 1
gene  1 31 60 0.9858119174814133 0 6225.0 0.9858119174814133 1
gene  1 34 60 0.8167894214089855 0 6228.0 0.8167894214089855 1
gene  1 36 60 0.42322004897546284 0 6230.0 0.42322004897546284 1
gene  1 38 60 -0.9861168939137737 0 6232.0 -0.9861168939137737 1
gene  1 39 60 0.67860768074709 0 6233.0 0.67860768074709 1
gene  1 41 60 -0.28442976423465893 0 6235.0 -0.28442976423465893 1
gene  1 43 60 0.3669743519900164 0 6237.0 0.3669743519900164 1
gene  1 44 60 0.0020338321966758555 0 6238.0 0.0020338321966758555 1
gene  1 45 60 -0.7471795992284505 0 6239.0 -0.7471795992284505 1
gene  1 46 60 0.6948237268714439 0 6240.0 0.6948237268714439 1
gene  1 47 60 -0.9878860377519749 0 6241.0 -0.9878860377519749 1
gene  1 49 60 0.8556169825459439 0 6243.0 0.8556169825459439 1
gene  1 52 60 -0.717965982030576 0 6246.0 -0.717965982030576 1
gene  1 53 60 0.24619275569323718 0 6247.0 0.24619275569323718 1
gene  1 56 60 -0.9730791992746516 0 6250.0 -0.9730791992746516 1
gene  1 2 61 -0.9367514009294398 0 6301.0 -0.9367514009294398 1
gene  1 3 61 0.9393479132909923 0 6302.0 0.9393479132909923 1
gene  1 5 61 0.14996961509124274 0 6304.0 0.14996961509124274 1
gene  1 6 61 -0.14971866353665075 0 6305.0 -0.14971866353665075 1
gene  1 8 61 -0.5960335506895886 0 6307.0 -0.5960335506895886 1
gene  1 10 61 0.11402831973350946 0 6309.0 0.11402831973350946 1
gene  1 12 61 -0.576183280806542 0 6311.0 -0.576183280806542 1
gene  1 13 61 -0.8918536579483379 0 6312.0 -0.8918536579483379 1
gene  1 15 61 0.7974985008776416 0 6314.0 0.7974985008776416 1
gene  1 21 61 0.8408639078718347 0 6320.0 0.8408639078718347 1
gene  1 25 61 -0.8750077964405765 0 6324.0 -0.8750077964405765 1
gene  1 29 61 -0.3298966924577508 0 6328.0 -0.3298966924577508 1
gene  1 30 61 0.2481426963229808 0 6329.0 0.2481426963229808 1
gene  1 31 61 -0.01911690134579158 0 6330.0 -0.01911690134579158 1
gene  1 34 61 -0.40364507761771407 0 6333.0 -0.40364507761771407 1
gene  1 36 61 0.2196050350914307 0 6335.0 0.2196050350914307 1
gene  1 39 61 -0.0022980875388424193 0 6338.0 -0.0022980875388424193 1
gene  1 40 61 -0.3235967516535484 0 6339.0 -0.3235967516535484 1
gene  1 43 61 -0.8564255349897462 0 6342.0 -0.8564255349897462 1
gene  1 45 61 -0.5654732436718978 0 6344.0 -0.5654732436718978 1
gene  1 46 61 0.06572776802168079 0 6345.0 0.06572776802168079 1
gene  1 47 61 -0.20693804283742634 0 6346.0 -0.20693804283742634 1
gene  1 48 61 -0.7536289803283345 0 6347.0 -0.7536289803283345 1
gene  1 52 61 -0.9605756919158698 0 6351.0 -0.9605756919158698 1
gene  1 54 61 0.1037990755535777 0 6353.0 0.1037990755535777 1
gene  1 55 61 0.6044109660372899 0 6354.0 0.6044109660372899 1
gene  1 57 61 -0.5084321804372219 0 6356.0 -0.5084321804372219 1
gene  1 59 61 -0.04740629566238819 0 6358.0 -0.04740629566238819 1
gene  1 2 62 0.2685717657536354 0 6406.0 0.2685717657536354 1
gene  1 4 62 0.08316321204604049 0 6408.0 0.08316321204604049 1
gene  1 5 62 -0.3133388154260647 0 6409.0 -0.3133388154260647 1
gene  1 6 62 0.8903142219063935 0 6410.0 0.8903142219063935 1
gene  1 7 62 0.038807321837062037 0 6411.0 0.038807321837062037 1
gene  1 12 62 -0.01449510782666108 0 6416.0 -0.01449510782666108 1
gene  1 17 62 0.5035737577856896 0 6421.0 0.5035737577856896 1
gene  1 19 62 -0.419767088203045 0 6423.0 -0.419767088203045 1
gene  1 20 62 -0.06183478343852877 0 6424.0 -0.06183478343852877 1
gene  1 24 62 0.17440472591600042 0 6428.0 0.17440472591600042 1
gene  1 25 62 -0.33573491011742185 0 6429.0 -0.33573491011742185 1
gene  1 26 62 0.423800787631863 0 6430.0 0.423800787631863 1
gene  1 30 62 -0.40334178299659573 0 6434.0 -0.40334178299659573 1
gene  1 38 62 -0.26080267056259754 0 6442.0 -0.26080267056259754 1
gene  1 40 62 -0.5203749303861122 0 6444.0 -0.5203749303861122 1
gene  1 42 62 -0.9564292912088599 0 6446.0 -0.9564292912088599 1
gene  1 43 62 0.5663172324539889 0 6447.0 0.5663172324539889 1
gene  1 44 62 -0.21896844962476947 0 6448.0 -0.21896844962476947 1
gene  1 46 62 -0.8563901272631058 0 6450.0 -0.8563901272631058 1
gene  1 51 62 -0.062148416983528576 0 6455.0 -0.062148416983528576 1
gene  1 52 62 -0.7087514839743351 0 6456.0 -0.7087514839743351 1
gene  1 53 62 -0.10035085856957204 0 6457.0 -0.10035085856957204 1
gene  1 54 62 -0.9067572675154709 0 6458.0 -0.9067572675154709 1
gene  1 55 62 0.6075174202438753 0 6459.0 0.6075174202438753 1
gene  1 56 62 0.8558674371341859 0 6460.0 0.8558674371341859 1
gene  1 57 62 0.8509300590791737 0 6461.0 0.8509300590791737 1
gene  1 60 62 -0.5372884226762642 0 6464.0 -0.5372884226762642 1
gene  1 61 62 0.9145541151887175 0 6465.0 0.9145541151887175 1
gene  1 1 63 0.6105623797376613 0 6510.0 0.6105623797376613 1
gene  1 2 63 0.88816246234074 0 6511.0 0.88816246234074 1
gene  1 3 63 0.005052925010213483 0 6512.0 0.005052925010213483 1
gene  1 8 63 0.12762060564763122 0 6517.0 0.12762060564763122 1
gene  1 16 63 -0.06869999813749461 0 6525.0 -0.06869999813749461 1
gene  1 19 63 -0.33099596534584996 0 6528.0 -0.33099596534584996 1
gene  1 23 63 0.05770158484932153 0 6532.0 0.05770158484932153 1
gene  1 26 63 0.5587747653012555 0 6535.0 0.5587747653012555 1
gene  1 27 63 -0.8566052858385724 0 6536.0 -0.8566052858385724 1
gene  1 30 63 -0.09342439001908798 0 6539.0 -0.09342439001908798 1
gene  1 32 63 -0.6002528697685909 0 6541.0 -0.6002528697685909 1
gene  1 34 63 -0.061253668277953977 0 6543.0 -0.061253668277953977 1
gene  1 35 63 -0.5486489730511215 0 6544.0 -0.5486489730511215 1
gene  1 37 63 -0.8332732807732716 0 6546.0 -0.8332732807732716 1
gene  1 39 63 0.047474946335418045 0 6548.0 0.047474946335418045 1
gene  1 42 63 0.11375441239657946 0 6551.0 0.11375441239657946 1
gene  1 44 63 -0.17460931507555533 0 6553.0 -0.17460931507555533 1
gene  1 45 63 -0.6059764080507658 0 6554.0 -0.6059764080507658 1
gene  1 49 63 -0.6376998233527484 0 6558.0 -0.6376998233527484 1
gene  1 50 63 -0.26827441057517265 0 6559.0 -0.26827441057517265 1
gene  1 52 63 0.18038794729253804 0 6561.0 0.18038794729253804 1
gene  1 55 63 0.44648766075665003 0 6564.0 0.44648766075665003 1
gene  1 57 63 -0.10199813557951776 0 6566.0 -0.10199813557951776 1
gene  1 60 63 0.852131565993009 0 6569.0 0.852131565993009 1
gene  1 62 63 0.5118280322873798 0 6571.0 0.5118280322873798 1
gene  1 2 64 -0.47653172341573113 0 6616.0 -0.47653172341573113 1
gene  1 6 64 -0.009755484256620095 0 6620.0 -0.009755484256620095 1
gene  1 7 64 -0.9229419959672595 0 6621.0 -0.9229419959672595 1
gene  1 12 64 0.5094067768068181 0 6626.0 0.5094067768068181 1
gene  1 14 64 -0.29135214118718644 0 6628.0 -0.29135214118718644 1
gene  1 16 64 0.430832308367217 0 6630.0 0.430832308367217 1
gene  1 18 64 0.9782059870544207 0 6632.0 0.9782059870544207 1
gene  1 21 64 0.9503982447207162 0 6635.0 0.9503982447207162 1
gene  1 23 64 -0.6490707615571482 0 6637.0 -0.6490707615571482 1
gene  1 24 64 0.833042799530106 0 6638.0 0.833042799530106 1
gene  1 26 64 0.5150289298647932 0 6640.0 0.5150289298647932 1
gene  1 27 64 0.8830425497745688 0 6641.0 0.8830425497745688 1
gene  1 28 64 -0.9927037476776042 0 6642.0 -0.9927037476776042 1
gene  1 32 64 -0.1734105953234224 0 6646.0 -0.1734105953234224 1
gene  1 33 64 0.3385465238964017 0 6647.0 0.3385465238964017 1
gene  1 36 64 0.25201410065168883 0 6650.0 0.25201410065168883 1
gene  1 37 64 -0.2526385187523471 0 6651.0 -0.2526385187523471 1
gene  1 38 64 -0.22868344357916148 0 6652.0 -0.22868344357916148 1
gene  1 39 64 -0.3198745526336112 0 6653.0 -0.3198745526336112 1
gene  1 40 64 0.7131203014498497 0 6654.0 0.7131203014498497 1
gene  1 42 64 0.17568884095720017 0 6656.0 0.17568884095720017 1
gene  1 44 64 -0.3654240687751056 0 6658.0 -0.3654240687751056 1
gene  1 45 64 0.8177729733656989 0 6659.0 0.8177729733656989 1
gene  1 46 64 -0.33413215281938546 0 6660.0 -0.33413215281938546 1
gene  1 48 64 0.12231443361314687 0 6662.0 0.12231443361314687 1
gene  1 49 64 0.17752211429840392 0 6663.0 0.17752211429840392 1
gene  1 52 64 0.0864951918997392 0 6666.0 0.0864951918997392 1
gene  1 55 64 0.04376662829484279 0 6669.0 0.04376662829484279 1
gene  1 61 64 -0.679692406544653 0 6675.0 -0.679692406544653 1
gene  1 62 64 0.9584500723912253 0 6676.0 0.9584500723912253 1
gene  1 2 65 0.0011464595530039645 0 6721.0 0.0011464595530039645 1
gene  1 4 65 0.047305793810940466 0 6723.0 0.047305793810940466 1
gene  1 5 65 -0.4154134389973828 0 6724.0 -0.4154134389973828 1
gene  1 6 65 -0.5506481846799641 0 6725.0 -0.5506481846799641 1
gene  1 8 65 0.3188426800394065 0 6727.0 0.3188426800394065 1
gene  1 10 65 -0.9097171808145109 0 6729.0 -0.9097171808145109 1
gene  1 13 65 0.8018703489006843 0 6732.0 0.8018703489006843 1
gene  1 14 65 -0.1830761760551003 0 6733.0 -0.1830761760551003 1
gene  1 15 65 -0.35845430792134203 0 6734.0 -0.35845430792134203 1
gene  1 16 65 -0.409380285846333 0 6735.0 -0.409380285846333 1
gene  1 17 65 -0.47901542807773323 0 6736.0 -0.47901542807773323 1
gene  1 20 65 0.9125970458999587 0 6739.0 0.9125970458999587 1
gene  1 22 65 -0.49502907605642776 0 6741.0 -0.49502907605642776 1
gene  1 23 65 -0.49094717322820913 0 6742.0 -0.49094717322820913 1
gene  1 24 65 0.09405787697950818 0 6743.0 0.09405787697950818 1
gene  1 30 65 -0.9022173825034374 0 6749.0 -0.9022173825034374 1
gene  1 32 65 0.7202773696272199 0 6751.0 0.7202773696272199 1
gene  1 33 65 -0.9571621298186082 0 6752.0 -0.9571621298186082 1
gene  1 34 65 -0.5087097337993681 0 6753.0 -0.5087097337993681 1
gene  1 35 65 -0.16043234906040893 0 6754.0 -0.16043234906040893 1
gene  1 37 65 -0.8828124356509633 0 6756.0 -0.8828124356509633 1
gene  1 42 65 0.8087112359451398 0 6761.0 0.8087112359451398 1
gene  1 52 65 0.04249155255989312 0 6771.0 0.04249155255989312 1
gene  1 54 65 0.4265200231547641 0 6773.0 0.4265200231547641 1
gene  1 56 65 0.1780785053457058 0 6775.0 0.1780785053457058 1
gene  1 58 65 -0.09981013375984216 0 6777.0 -0.09981013375984216 1
gene  1 60 65 0.015979934051905897 0 6779.0 0.015979934051905897 1
gene  1 61 65 0.49648195970094655 0 6780.0 0.49648195970094655 1
gene  1 1 66 0.26686499313201206 0 6825.0 0.26686499313201206 1
gene  1 2 66 0.6660871802946225 0 6826.0 0.6660871802946225 1
gene  1 3 66 -0.35919583111237274 0 6827.0 -0.35919583111237274 1
gene  1 9 66 -0.5576910265914204 0 6833.0 -0.5576910265914204 1
gene  1 10 66 -0.7436535546241065 0 6834.0 -0.7436535546241065 1
gene  1 14 66 -0.30057720928794107 0 6838.0 -0.30057720928794107 1
gene  1 18 66 -0.6929439202055874 0 6842.0 -0.6929439202055874 1
gene  1 19 66 -0.6358197751010687 0 6843.0 -0.6358197751010687 1
gene  1 21 66 0.9043212135255667 0 6845.0 0.9043212135255667 1
gene  1 22 66 -0.7128762178970116 0 6846.0 -0.7128762178970116 1
gene  1 24 66 -0.6070500715913821 0 6848.0 -0.6070500715913821 1
gene  1 28 66 -0.38828625217907053 0 6852.0 -0.38828625217907053 1
gene  1 34 66 -0.15133667667650363 0 6858.0 -0.15133667667650363 1
gene  1 38 66 0.5746658779740671 0 6862.0 0.5746658779740671 1
gene  1 39 66 0.9282025882515783 0 6863.0 0.9282025882515783 1
gene  1 41 66 -0.5216563594614738 0 6865.0 -0.5216563594614738 1
gene  1 43 66 -0.36983039250195604 0 6867.0 -0.36983039250195604 1
gene  1 44 66 0.9102195069177215 0 6868.0 0.9102195069177215 1
gene  1 46 66 -0.4674648541047156 0 6870.0 -0.4674648541047156 1
gene  1 47 66 -0.6179375453988036 0 6871.0 -0.6179375453988036 1
gene  1 48 66 0.07795428119152181 0 6872.0 0.07795428119152181 1
gene  1 49 66 -0.17084228231025833 0 6873.0 -0.17084228231025833 1
gene  1 50 66 -0.9863400244207009 0 6874.0 -0.9863400244207009 1
gene  1 53 66 0.162621569921917 0 6877.0 0.162621569921917 1
gene  1 55 66 0.6398145308106703 0 6879.0 0.6398145308106703 1
gene  1 57 66 0.28454883592275326 0 6881.0 0.28454883592275326 1
gene  1 59 66 -0.14026156776187648 0 6883.0 -0.14026156776187648 1
gene  1 61 66 0.8461926021353816 0 6885.0 0.8461926021353816 1
gene  1 62 66 0.7908727737168099 0 6886.0 0.7908727737168099 1
gene  1 63 66 0.40308720626631644 0 6887.0 0.40308720626631644 1
gene  1 4 67 -0.7161569621013105 0 6933.0 -0.7161569621013105 1
gene  1 5 67 0.5154926177929559 0 6934.0 0.5154926177929559 1
gene  1 7 67 -0.7978592643384621 0 6936.0 -0.7978592643384621 1
gene  1 9 67 0.6934975349284432 0 6938.0 0.6934975349284432 1
gene  1 10 67 0.13976265142873123 0 6939.0 0.13976265142873123 1
gene  1 12 67 -0.47108794937001075 0 6941.0 -0.47108794937001075 1
gene  1 16 67 -0.8135871950753463 0 6945.0 -0.8135871950753463 1
gene  1 19 67 0.4159447314325817 0 6948.0 0.4159447314325817 1
gene  1 21 67 0.5990083589958513 0 6950.0 0.5990083589958513 1
gene  1 24 67 0.6152413790534402 0 6953.0 0.6152413790534402 1
gene  1 26 67 -0.11914132141209755 0 6955.0 -0.11914132141209755 1
gene  1 28 67 -0.37815489199941477 0 6957.0 -0.37815489199941477 1
gene  1 31 67 0.11926404630999643 0 6960.0 0.11926404630999643 1
gene  1 35 67 -0.460269917298916 0 6964.0 -0.460269917298916 1
gene  1 36 67 0.6211496141888478 0 6965.0 0.6211496141888478 1
gene  1 37 67 -0.2033622047470196 0 6966.0 -0.2033622047470196 1
gene  1 38 67 0.9886548996247763 0 6967.0 0.9886548996247763 1
gene  1 39 67 0.4013450572806686 0 6968.0 0.4013450572806686 1
gene  1 40 67 0.01152395633529979 0 6969.0 0.01152395633529979 1
gene  1 41 67 -0.3465554640536582 0 6970.0 -0.3465554640536582 1
gene  1 42 67 -0.3179757999005033 0 6971.0 -0.3179757999005033 1
gene  1 43 67 0.36792416445598475 0 6972.0 0.36792416445598475 1
gene  1 44 67 0.644336795550974 0 6973.0 0.644336795550974 1
gene  1 46 67 0.4556982787314521 0 6975.0 0.4556982787314521 1
gene  1 47 67 0.5278276198489804 0 6976.0 0.5278276198489804 1
gene  1 48 67 -0.905124331921868 0 6977.0 -0.905124331921868 1
gene  1 50 67 -0.35442669306098284 0 6979.0 -0.35442669306098284 1
gene  1 53 67 0.12255251028940128 0 6982.0 0.12255251028940128 1
gene  1 55 67 -0.7801802432049837 0 6984.0 -0.7801802432049837 1
gene  1 59 67 0.5459697818542865 0 6988.0 0.5459697818542865 1
gene  1 60 67 -0.9718096485759183 0 6989.0 -0.9718096485759183 1
gene  1 62 67 0.7832080705477366 0 6991.0 0.7832080705477366 1
gene  1 63 67 0.9542433955377913 0 6992.0 0.9542433955377913 1
gene  1 1 68 -0.6474443107943694 0 7035.0 -0.6474443107943694 1
gene  1 2 68 0.18380373404019923 0 7036.0 0.18380373404019923 1
gene  1 3 68 0.10223255447121882 0 7037.0 0.10223255447121882 1
gene  1 6 68 -0.6457718482880176 0 7040.0 -0.6457718482880176 1
gene  1 8 68 -0.5419187676402368 0 7042.0 -0.5419187676402368 1
gene  1 11 68 -0.09361700113530147 0 7045.0 -0.09361700113530147 1
gene  1 12 68 -0.556697715466104 0 7046.0 -0.556697715466104 1
gene  1 13 68 -0.8300987783179908 0 7047.0 -0.8300987783179908 1
gene  1 14 68 0.2494326249585872 0 7048.0 0.2494326249585872 1
gene  1 16 68 -0.42254098852519906 0 7050.0 -0.42254098852519906 1
gene  1 19 68 -0.6867857684003424 0 7053.0 -0.6867857684003424 1
gene  1 20 68 0.5545065260066127 0 7054.0 0.5545065260066127 1
gene  1 21 68 -0.18849762272300108 0 7055.0 -0.18849762272300108 1
gene  1 23 68 -0.8272490309327619 0 7057.0 -0.8272490309327619 1
gene  1 25 68 -0.017173407509030514 0 7059.0 -0.017173407509030514 1
gene  1 29 68 -0.1441078705877885 0 7063.0 -0.1441078705877885 1
gene  1 30 68 0.38094055050846576 0 7064.0 0.38094055050846576 1
gene  1 32 68 0.4503088156444902 0 7066.0 0.4503088156444902 1
gene  1 33 68 -0.5062548804788838 0 7067.0 -0.5062548804788838 1
gene  1 34 68 0.5432023237207237 0 7068.0 0.5432023237207237 1
gene  1 35 68 0.8715724818065324 0 7069.0 0.8715724818065324 1
gene  1 37 68 -0.20904651228318116 0 7071.0 -0.20904651228318116 1
gene  1 39 68 -0.43619220157752236 0 7073.0 -0.43619220157752236 1
gene  1 40 68 -0.24393988792360644 0 7074.0 -0.24393988792360644 1
gene  1 41 68 -0.2622923618979829 0 7075.0 -0.2622923618979829 1
gene  1 44 68 0.7453836825119173 0 7078.0 0.7453836825119173 1
gene  1 45 68 0.41284292020277735 0 7079.0 0.41284292020277735 1
gene  1 46 68 -0.7457973805056859 0 7080.0 -0.7457973805056859 1
gene  1 48 68 -0.913115215619083 0 7082.0 -0.913115215619083 1
gene  1 50 68 -0.6191238427920023 0 7084.0 -0.6191238427920023 1
gene  1 51 68 0.9572559155787924 0 7085.0 0.9572559155787924 1
gene  1 54 68 0.15945046649034367 0 7088.0 0.15945046649034367 1
gene  1 56 68 0.9944393874947577 0 7090.0 0.9944393874947577 1
gene  1 57 68 0.61317891382818 0 7091.0 0.61317891382818 1
gene  1 60 68 0.5054682504568404 0 7094.0 0.5054682504568404 1
gene  1 61 68 -0.730585606183981 0 7095.0 -0.730585606183981 1
gene  1 63 68 -0.9248925025856617 0 7097.0 -0.9248925025856617 1
gene  1 65 68 -0.737065546387153 0 7099.0 -0.737065546387153 1
gene  1 66 68 0.3159706942868764 0 7100.0 0.3159706942868764 1
gene  1 67 68 0.07339013948253226 0 7101.0 0.07339013948253226 1
gene  1 1 69 0.020954501315064378 0 7140.0 0.020954501315064378 1
gene  1 2 69 -0.1422009922599463 0 7141.0 -0.1422009922599463 1
gene  1 8 69 -0.24901264373060317 0 7147.0 -0.24901264373060317 1
gene  1 9 69 0.4271137841894297 0 7148.0 0.4271137841894297 1
gene  1 14 69 0.3762559370538062 0 7153.0 0.3762559370538062 1
gene  1 18 69 0.09850714420567241 0 7157.0 0.09850714420567241 1
gene  1 19 69 0.9228290946418032 0 7158.0 0.9228290946418032 1
gene  1 20 69 -0.4863122994630217 0 7159.0 -0.4863122994630217 1
gene  1 22 69 -0.022374158069103256 0 7161.0 -0.022374158069103256 1
gene  1 23 69 -0.997874605728217 0 7162.0 -0.997874605728217 1
gene  1 27 69 0.7722163692613471 0 7166.0 0.7722163692613471 1
gene  1 33 69 -0.3071384135896048 0 7172.0 -0.3071384135896048 1
gene  1 34 69 -0.47585577662532264 0 7173.0 -0.47585577662532264 1
gene  1 37 69 0.039313015862870615 0 7176.0 0.039313015862870615 1
gene  1 40 69 0.797353336993019 0 7179.0 0.797353336993019 1
gene  1 43 69 -0.5061923364018337 0 7182.0 -0.5061923364018337 1
gene  1 44 69 -0.5092144341095719 0 7183.0 -0.5092144341095719 1
gene  1 45 69 -0.4781559643364993 0 7184.0 -0.4781559643364993 1
gene  1 47 69 0.6674321984493609 0 7186.0 0.6674321984493609 1
gene  1 48 69 -0.7897048441849928 0 7187.0 -0.7897048441849928 1
gene  1 52 69 0.7922969730031816 0 7191.0 0.7922969730031816 1
gene  1 54 69 0.6744157532035341 0 7193.0 0.6744157532035341 1
gene  1 56 69 0.5659717064358976 0 7195.0 0.5659717064358976 1
gene  1 60 69 -0.6708082127507615 0 7199.0 -0.6708082127507615 1
gene  1 61 69 0.3145585850195479 0 7200.0 0.3145585850195479 1
gene  1 63 69 -0.41208074989264787 0 7202.0 -0.41208074989264787 1
gene  1 67 69 0.07345741394147876 0 7206.0 0.07345741394147876 1
gene  1 2 70 0.7398244052204315 0 7246.0 0.7398244052204315 1
gene  1 4 70 0.8327009074175902 0 7248.0 0.8327009074175902 1
gene  1 6 70 -0.26248246386871077 0 7250.0 -0.26248246386871077 1
gene  1 7 70 -0.17838264339402665 0 7251.0 -0.17838264339402665 1
gene  1 9 70 -0.7822222951584903 0 7253.0 -0.7822222951584903 1
gene  1 11 70 -0.09043348057217626 0 7255.0 -0.09043348057217626 1
gene  1 12 70 0.9833696548667131 0 7256.0 0.9833696548667131 1
gene  1 13 70 -0.4994213202980766 0 7257.0 -0.4994213202980766 1
gene  1 14 70 -0.42339073995504306 0 7258.0 -0.42339073995504306 1
gene  1 16 70 -0.06083186421209452 0 7260.0 -0.06083186421209452 1
gene  1 21 70 -0.855425375553131 0 7265.0 -0.855425375553131 1
gene  1 24 70 0.1582940399586098 0 7268.0 0.1582940399586098 1
gene  1 25 70 0.3977429745936516 0 7269.0 0.3977429745936516 1
gene  1 27 70 0.7842630158072045 0 7271.0 0.7842630158072045 1
gene  1 30 70 -0.4059403383436423 0 7274.0 -0.4059403383436423 1
gene  1 33 70 -0.7432134788961098 0 7277.0 -0.7432134788961098 1
gene  1 34 70 -0.36788889190927854 0 7278.0 -0.36788889190927854 1
gene  1 35 70 -0.5678924281483884 0 7279.0 -0.5678924281483884 1
gene  1 36 70 0.5233759998053419 0 7280.0 0.5233759998053419 1
gene  1 39 70 0.08430804726214813 0 7283.0 0.08430804726214813 1
gene  1 43 70 -0.8805339181119473 0 7287.0 -0.8805339181119473 1
gene  1 45 70 0.9125061666377942 0 7289.0 0.9125061666377942 1
gene  1 46 70 0.5666524264808865 0 7290.0 0.5666524264808865 1
gene  1 47 70 0.37219535881012356 0 7291.0 0.37219535881012356 1
gene  1 49 70 -0.2591163707504077 0 7293.0 -0.2591163707504077 1
gene  1 51 70 -0.8092874125842149 0 7295.0 -0.8092874125842149 1
gene  1 53 70 0.6810927253329617 0 7297.0 0.6810927253329617 1
gene  1 55 70 0.5953543142377329 0 7299.0 0.5953543142377329 1
gene  1 56 70 -0.26557748438305173 0 7300.0 -0.26557748438305173 1
gene  1 57 70 0.2581587399574876 0 7301.0 0.2581587399574876 1
gene  1 59 70 -0.28283759283015875 0 7303.0 -0.28283759283015875 1
gene  1 61 70 -0.5669461731218235 0 7305.0 -0.5669461731218235 1
gene  1 63 70 -0.2785484066193774 0 7307.0 -0.2785484066193774 1
gene  1 64 70 0.4896011549563446 0 7308.0 0.4896011549563446 1
gene  1 66 70 0.12087452679199528 0 7310.0 0.12087452679199528 1
gene  1 1 71 0.5324577049512015 0 7350.0 0.5324577049512015 1
gene  1 2 71 -0.6429886746216195 0 7351.0 -0.6429886746216195 1
gene  1 4 71 0.3971170830516937 0 7353.0 0.3971170830516937 1
gene  1 10 71 0.6981437929432502 0 7359.0 0.6981437929432502 1
gene  1 14 71 -0.6805516858844982 0 7363.0 -0.6805516858844982 1
gene  1 15 71 -0.15414399396291056 0 7364.0 -0.15414399396291056 1
gene  1 18 71 -0.8157284403902864 0 7367.0 -0.8157284403902864 1
gene  1 19 71 -0.27990374249145367 0 7368.0 -0.27990374249145367 1
gene  1 21 71 -0.8647591670121222 0 7370.0 -0.8647591670121222 1
gene  1 24 71 0.30071382169821004 0 7373.0 0.30071382169821004 1
gene  1 25 71 0.20547332696266785 0 7374.0 0.20547332696266785 1
gene  1 27 71 0.5599494310007044 0 7376.0 0.5599494310007044 1
gene  1 29 71 0.6364520582590835 0 7378.0 0.6364520582590835 1
gene  1 31 71 0.6593037140047221 0 7380.0 0.6593037140047221 1
gene  1 35 71 0.9445444122195056 0 7384.0 0.9445444122195056 1
gene  1 37 71 0.0365434958146329 0 7386.0 0.0365434958146329 1
gene  1 39 71 -0.8025912030221742 0 7388.0 -0.8025912030221742 1
gene  1 40 71 -0.5024385728933003 0 7389.0 -0.5024385728933003 1
gene  1 41 71 0.2156310603935423 0 7390.0 0.2156310603935423 1
gene  1 42 71 0.6850796782850431 0 7391.0 0.6850796782850431 1
gene  1 44 71 0.27712296246936174 0 7393.0 0.27712296246936174 1
gene  1 45 71 -0.3503537700956141 0 7394.0 -0.3503537700956141 1
gene  1 51 71 -0.5266944192933386 0 7400.0 -0.5266944192933386 1
gene  1 53 71 0.9404663020339651 0 7402.0 0.9404663020339651 1
gene  1 54 71 0.9740421964955276 0 7403.0 0.9740421964955276 1
gene  1 56 71 0.5040679766408078 0 7405.0 0.5040679766408078 1
gene  1 58 71 -0.3737015539685743 0 7407.0 -0.3737015539685743 1
gene  1 62 71 -0.8277833441671626 0 7411.0 -0.8277833441671626 1
gene  1 65 71 -0.9838721712122523 0 7414.0 -0.9838721712122523 1
gene  1 66 71 -0.982345154178444 0 7415.0 -0.982345154178444 1
gene  1 67 71 -0.792029895411358 0 7416.0 -0.792029895411358 1
gene  1 68 71 0.23559226267592215 0 7417.0 0.23559226267592215 1
gene  1 1 72 -0.7338270804178072 0 7455.0 -0.7338270804178072 1
gene  1 8 72 0.23343075502939825 0 7462.0 0.23343075502939825 1
gene  1 11 72 0.4039603668275218 0 7465.0 0.4039603668275218 1
gene  1 13 72 -0.4149060205946047 0 7467.0 -0.4149060205946047 1
gene  1 15 72 -0.31479101705775914 0 7469.0 -0.31479101705775914 1
gene  1 18 72 0.2861210443860023 0 7472.0 0.2861210443860023 1
gene  1 19 72 -0.6349115428798149 0 7473.0 -0.6349115428798149 1
gene  1 20 72 0.33266634964714026 0 7474.0 0.33266634964714026 1
gene  1 21 72 -0.584413752261144 0 7475.0 -0.584413752261144 1
gene  1 23 72 -0.972898909895068 0 7477.0 -0.972898909895068 1
gene  1 26 72 0.6082148422146686 0 7480.0 0.6082148422146686 1
gene  1 27 72 0.20792111786394318 0 7481.0 0.20792111786394318 1
gene  1 28 72 0.05340879105957008 0 7482.0 0.05340879105957008 1
gene  1 30 72 0.6265189514217183 0 7484.0 0.6265189514217183 1
gene  1 32 72 -0.6390468662870863 0 7486.0 -0.6390468662870863 1
gene  1 34 72 0.5299066028171738 0 7488.0 0.5299066028171738 1
gene  1 35 72 0.319238646208564 0 7489.0 0.319238646208564 1
gene  1 36 72 -0.3934030733784374 0 7490.0 -0.3934030733784374 1
gene  1 37 72 0.5187527732823753 0 7491.0 0.5187527732823753 1
gene  1 42 72 0.889957237109972 0 7496.0 0.889957237109972 1
gene  1 43 72 0.9248551234230429 0 7497.0 0.9248551234230429 1
gene  1 45 72 0.49223904983131495 0 7499.0 0.49223904983131495 1
gene  1 46 72 -0.9317239095178683 0 7500.0 -0.9317239095178683 1
gene  1 47 72 -0.7655060446673622 0 7501.0 -0.7655060446673622 1
gene  1 48 72 0.8464763223992743 0 7502.0 0.8464763223992743 1
gene  1 49 72 -0.3908626244686696 0 7503.0 -0.3908626244686696 1
gene  1 51 72 -0.38311374914857965 0 7505.0 -0.38311374914857965 1
gene  1 52 72 -0.8581868913588481 0 7506.0 -0.8581868913588481 1
gene  1 54 72 0.3193437014792587 0 7508.0 0.3193437014792587 1
gene  1 55 72 0.7923234352153786 0 7509.0 0.7923234352153786 1
gene  1 61 72 0.1762484980955743 0 7515.0 0.1762484980955743 1
gene  1 63 72 0.014872527197380192 0 7517.0 0.014872527197380192 1
gene  1 64 72 0.7192121737041203 0 7518.0 0.7192121737041203 1
gene  1 65 72 0.372339056330228 0 7519.0 0.372339056330228 1
gene  1 70 72 0.9872440215661541 0 7524.0 0.9872440215661541 1
gene  1 71 72 -0.1279182945021764 0 7525.0 -0.1279182945021764 1
gene  1 1 73 0.6645485134503002 0 7560.0 0.6645485134503002 1
gene  1 2 73 -0.5523556753870531 0 7561.0 -0.5523556753870531 1
gene  1 3 73 0.8990879629265293 0 7562.0 0.8990879629265293 1
gene  1 5 73 -0.6183431208741078 0 7564.0 -0.6183431208741078 1
gene  1 8 73 0.1839988694479876 0 7567.0 0.1839988694479876 1
gene  1 11 73 -0.9292601583124206 0 7570.0 -0.9292601583124206 1
gene  1 12 73 -0.8206666065476734 0 7571.0 -0.8206666065476734 1
gene  1 14 73 0.22445799639268638 0 7573.0 0.22445799639268638 1
gene  1 15 73 -0.6089512201665743 0 7574.0 -0.6089512201665743 1
gene  1 16 73 0.8154036627657115 0 7575.0 0.8154036627657115 1
gene  1 17 73 0.704669028325181 0 7576.0 0.704669028325181 1
gene  1 19 73 0.34171030609899733 0 7578.0 0.34171030609899733 1
gene  1 20 73 -0.06466094450219262 0 7579.0 -0.06466094450219262 1
gene  1 22 73 0.21885104795743415 0 7581.0 0.21885104795743415 1
gene  1 24 73 -0.053118741285206106 0 7583.0 -0.053118741285206106 1
gene  1 27 73 -0.2522893554801434 0 7586.0 -0.2522893554801434 1
gene  1 28 73 0.9174966070175056 0 7587.0 0.9174966070175056 1
gene  1 30 73 0.35839318525354347 0 7589.0 0.35839318525354347 1
gene  1 31 73 0.7559734027915771 0 7590.0 0.7559734027915771 1
gene  1 32 73 -0.33224936801211846 0 7591.0 -0.33224936801211846 1
gene  1 34 73 -0.021844097170718002 0 7593.0 -0.021844097170718002 1
gene  1 36 73 0.8524482021256767 0 7595.0 0.8524482021256767 1
gene  1 37 73 -0.22667847158913634 0 7596.0 -0.22667847158913634 1
gene  1 38 73 -0.9883379430219607 0 7597.0 -0.9883379430219607 1
gene  1 39 73 0.9389002688197151 0 7598.0 0.9389002688197151 1
gene  1 41 73 0.23401341275835197 0 7600.0 0.23401341275835197 1
gene  1 43 73 0.19301957393169922 0 7602.0 0.19301957393169922 1
gene  1 46 73 0.33703762635657175 0 7605.0 0.33703762635657175 1
gene  1 47 73 -0.6711890221031689 0 7606.0 -0.6711890221031689 1
gene  1 55 73 -0.6606603990365254 0 7614.0 -0.6606603990365254 1
gene  1 57 73 -0.970723373423917 0 7616.0 -0.970723373423917 1
gene  1 59 73 0.8470715742420388 0 7618.0 0.8470715742420388 1
gene  1 60 73 0.6807111300588262 0 7619.0 0.6807111300588262 1
gene  1 61 73 -0.14141970438493434 0 7620.0 -0.14141970438493434 1
gene  1 62 73 -0.9240147500647239 0 7621.0 -0.9240147500647239 1
gene  1 65 73 0.5982079735144109 0 7624.0 0.5982079735144109 1
gene  1 66 73 0.7041421422417176 0 7625.0 0.7041421422417176 1
gene  1 67 73 -0.37038094607165284 0 7626.0 -0.37038094607165284 1
gene  1 69 73 0.41913393568656654 0 7628.0 0.41913393568656654 1
gene  1 72 73 -0.9099097618736627 0 7631.0 -0.9099097618736627 1
gene  1 2 74 -0.9237387477188252 0 7666.0 -0.9237387477188252 1
gene  1 3 74 -0.21591321087510318 0 7667.0 -0.21591321087510318 1
gene  1 5 74 0.45540631871059223 0 7669.0 0.45540631871059223 1
gene  1 8 74 0.7313804834040509 0 7672.0 0.7313804834040509 1
gene  1 9 74 -0.5352984894326758 0 7673.0 -0.5352984894326758 1
gene  1 10 74 -0.987443292683162 0 7674.0 -0.987443292683162 1
gene  1 13 74 0.34997487078326206 0 7677.0 0.34997487078326206 1
gene  1 15 74 0.8998927809359644 0 7679.0 0.8998927809359644 1
gene  1 16 74 -0.421713327092318 0 7680.0 -0.421713327092318 1
gene  1 17 74 0.008440886748933618 0 7681.0 0.008440886748933618 1
gene  1 18 74 -0.12725709965690868 0 7682.0 -0.12725709965690868 1
gene  1 19 74 0.6288676943852662 0 7683.0 0.6288676943852662 1
gene  1 21 74 0.09880482937550139 0 7685.0 0.09880482937550139 1
gene  1 23 74 -0.5312521949857408 0 7687.0 -0.5312521949857408 1
gene  1 24 74 -0.3774577568688713 0 7688.0 -0.3774577568688713 1
gene  1 25 74 -0.0147887652126929 0 7689.0 -0.0147887652126929 1
gene  1 26 74 -0.06505427240916706 0 7690.0 -0.06505427240916706 1
gene  1 29 74 0.2001730811361202 0 7693.0 0.2001730811361202 1
gene  1 30 74 0.2893147265962408 0 7694.0 0.2893147265962408 1
gene  1 34 74 0.008350443064232604 0 7698.0 0.008350443064232604 1
gene  1 35 74 0.23373393304300094 0 7699.0 0.23373393304300094 1
gene  1 36 74 0.7140111789925476 0 7700.0 0.7140111789925476 1
gene  1 37 74 0.8043089492015171 0 7701.0 0.8043089492015171 1
gene  1 38 74 0.9077919182274904 0 7702.0 0.9077919182274904 1
gene  1 39 74 0.9393806405101162 0 7703.0 0.9393806405101162 1
gene  1 41 74 0.965580976352434 0 7705.0 0.965580976352434 1
gene  1 42 74 0.5908397906768917 0 7706.0 0.5908397906768917 1
gene  1 45 74 -0.6505729952181971 0 7709.0 -0.6505729952181971 1
gene  1 46 74 0.6344737231908776 0 7710.0 0.6344737231908776 1
gene  1 48 74 0.19720615463530577 0 7712.0 0.19720615463530577 1
gene  1 49 74 0.9897366593537904 0 7713.0 0.9897366593537904 1
gene  1 51 74 -0.8246933459128769 0 7715.0 -0.8246933459128769 1
gene  1 54 74 -0.4799050208004394 0 7718.0 -0.4799050208004394 1
gene  1 56 74 0.8593488549656352 0 7720.0 0.8593488549656352 1
gene  1 61 74 -0.6637037662217772 0 7725.0 -0.6637037662217772 1
gene  1 62 74 0.6362073587639347 0 7726.0 0.6362073587639347 1
gene  1 65 74 0.5970577369721524 0 7729.0 0.5970577369721524 1
gene  1 66 74 0.19179429016109184 0 7730.0 0.19179429016109184 1
gene  1 67 74 0.30401168210692997 0 7731.0 0.30401168210692997 1
gene  1 68 74 0.9698809030817038 0 7732.0 0.9698809030817038 1
gene  1 70 74 -0.412110010759296 0 7734.0 -0.412110010759296 1
gene  1 71 74 -0.6581216403084311 0 7735.0 -0.6581216403084311 1
gene  1 72 74 -0.05346202611485096 0 7736.0 -0.05346202611485096 1
gene  1 1 75 0.0023888897178286905 0 7770.0 0.0023888897178286905 1
gene  1 2 75 -0.7659962867090528 0 7771.0 -0.7659962867090528 1
gene  1 4 75 -0.396085950965816 0 7773.0 -0.396085950965816 1
gene  1 8 75 -0.9252465417633268 0 7777.0 -0.9252465417633268 1
gene  1 15 75 0.5807525265548045 0 7784.0 0.5807525265548045 1
gene  1 16 75 -0.8771140999928021 0 7785.0 -0.8771140999928021 1
gene  1 17 75 -0.7375008438023714 0 7786.0 -0.7375008438023714 1
gene  1 18 75 -0.29705358445540264 0 7787.0 -0.29705358445540264 1
gene  1 19 75 -0.19352593322917866 0 7788.0 -0.19352593322917866 1
gene  1 21 75 0.7785503639122398 0 7790.0 0.7785503639122398 1
gene  1 22 75 0.5865971881281732 0 7791.0 0.5865971881281732 1
gene  1 23 75 -0.8872780558635068 0 7792.0 -0.8872780558635068 1
gene  1 24 75 -0.9411026799997095 0 7793.0 -0.9411026799997095 1
gene  1 25 75 -0.06689195364466827 0 7794.0 -0.06689195364466827 1
gene  1 26 75 -0.3078675082878991 0 7795.0 -0.3078675082878991 1
gene  1 28 75 0.5584736282297822 0 7797.0 0.5584736282297822 1
gene  1 29 75 -0.4788390033025054 0 7798.0 -0.4788390033025054 1
gene  1 31 75 0.11452343193047332 0 7800.0 0.11452343193047332 1
gene  1 39 75 0.5921884115516467 0 7808.0 0.5921884115516467 1
gene  1 42 75 0.9096285493921125 0 7811.0 0.9096285493921125 1
gene  1 45 75 0.6587692279187509 0 7814.0 0.6587692279187509 1
gene  1 48 75 0.8400216654293245 0 7817.0 0.8400216654293245 1
gene  1 50 75 0.16952341658018233 0 7819.0 0.16952341658018233 1
gene  1 51 75 -0.21521065149966667 0 7820.0 -0.21521065149966667 1
gene  1 52 75 -0.15068509858525814 0 7821.0 -0.15068509858525814 1
gene  1 53 75 -0.5895287321805494 0 7822.0 -0.5895287321805494 1
gene  1 54 75 0.8905950620835057 0 7823.0 0.8905950620835057 1
gene  1 56 75 0.631341509427713 0 7825.0 0.631341509427713 1
gene  1 57 75 0.9713041611690064 0 7826.0 0.9713041611690064 1
gene  1 58 75 0.15288911277406814 0 7827.0 0.15288911277406814 1
gene  1 66 75 0.5783071031058333 0 7835.0 0.5783071031058333 1
gene  1 68 75 -0.238435460729308 0 7837.0 -0.238435460729308 1
gene  1 70 75 0.8030759294326865 0 7839.0 0.8030759294326865 1
gene  1 72 75 -0.7783225265207285 0 7841.0 -0.7783225265207285 1
gene  1 74 75 -0.6689939849219005 0 7843.0 -0.6689939849219005 1
gene  1 6 76 0.9300576931824448 0 7880.0 0.9300576931824448 1
gene  1 8 76 -0.6256576785232664 0 7882.0 -0.6256576785232664 1
gene  1 9 76 0.7242882538394819 0 7883.0 0.7242882538394819 1
gene  1 11 76 0.33725444436225394 0 7885.0 0.33725444436225394 1
gene  1 13 76 -0.12887404623760357 0 7887.0 -0.12887404623760357 1
gene  1 15 76 -0.3188988795874719 0 7889.0 -0.3188988795874719 1
gene  1 19 76 -0.22217712691531444 0 7893.0 -0.22217712691531444 1
gene  1 20 76 -0.8865394373062555 0 7894.0 -0.8865394373062555 1
gene  1 21 76 -0.03601774050111839 0 7895.0 -0.03601774050111839 1
gene  1 23 76 -0.003842991131029483 0 7897.0 -0.003842991131029483 1
gene  1 25 76 -0.1531126908687641 0 7899.0 -0.1531126908687641 1
gene  1 26 76 -0.34803798502641536 0 7900.0 -0.34803798502641536 1
gene  1 28 76 0.5579924730326989 0 7902.0 0.5579924730326989 1
gene  1 31 76 0.3672023450878772 0 7905.0 0.3672023450878772 1
gene  1 33 76 0.5603993432158556 0 7907.0 0.5603993432158556 1
gene  1 34 76 0.666840528145261 0 7908.0 0.666840528145261 1
gene  1 35 76 -0.1477481190175357 0 7909.0 -0.1477481190175357 1
gene  1 36 76 -0.6362740313352371 0 7910.0 -0.6362740313352371 1
gene  1 37 76 0.729343018681033 0 7911.0 0.729343018681033 1
gene  1 38 76 -0.5678333099165994 0 7912.0 -0.5678333099165994 1
gene  1 39 76 -0.7205664052233047 0 7913.0 -0.7205664052233047 1
gene  1 40 76 0.22850758724751874 0 7914.0 0.22850758724751874 1
gene  1 41 76 0.730983865748263 0 7915.0 0.730983865748263 1
gene  1 56 76 0.2321421691436033 0 7930.0 0.2321421691436033 1
gene  1 57 76 -0.22200713697290997 0 7931.0 -0.22200713697290997 1
gene  1 58 76 -0.057946630259604115 0 7932.0 -0.057946630259604115 1
gene  1 59 76 0.41779106145657274 0 7933.0 0.41779106145657274 1
gene  1 60 76 -0.6229246976789636 0 7934.0 -0.6229246976789636 1
gene  1 68 76 0.729903696540033 0 7942.0 0.729903696540033 1
gene  1 70 76 -0.6264618164761276 0 7944.0 -0.6264618164761276 1
gene  1 71 76 0.10902299362563095 0 7945.0 0.10902299362563095 1
gene  1 74 76 -0.5685096222773812 0 7948.0 -0.5685096222773812 1
gene  1 75 76 -0.5451383449082584 0 7949.0 -0.5451383449082584 1
gene  1 4 77 0.11985869125839332 0 7983.0 0.11985869125839332 1
gene  1 11 77 -0.9520709479430939 0 7990.0 -0.9520709479430939 1
gene  1 13 77 0.22977612414121895 0 7992.0 0.22977612414121895 1
gene  1 15 77 -0.18093379259668918 0 7994.0 -0.18093379259668918 1
gene  1 19 77 0.9482478362179805 0 7998.0 0.9482478362179805 1
gene  1 27 77 -0.8938777475940122 0 8006.0 -0.8938777475940122 1
gene  1 31 77 0.08260637614431976 0 8010.0 0.08260637614431976 1
gene  1 36 77 0.5962989444739512 0 8015.0 0.5962989444739512 1
gene  1 38 77 0.36904264249953866 0 8017.0 0.36904264249953866 1
gene  1 39 77 0.653023897615079 0 8018.0 0.653023897615079 1
gene  1 41 77 -0.067458479730654 0 8020.0 -0.067458479730654 1
gene  1 42 77 -0.2690726473871988 0 8021.0 -0.2690726473871988 1
gene  1 44 77 -0.7840179466633611 0 8023.0 -0.7840179466633611 1
gene  1 49 77 0.21724737029808683 0 8028.0 0.21724737029808683 1
gene  1 50 77 -0.6756942876158599 0 8029.0 -0.6756942876158599 1
gene  1 52 77 -0.5851005920366746 0 8031.0 -0.5851005920366746 1
gene  1 53 77 0.9553092779650356 0 8032.0 0.9553092779650356 1
gene  1 55 77 0.48133234323580654 0 8034.0 0.48133234323580654 1
gene  1 61 77 -0.832236943984202 0 8040.0 -0.832236943984202 1
gene  1 63 77 0.584217664142762 0 8042.0 0.584217664142762 1
gene  1 69 77 0.10722058337718099 0 8048.0 0.10722058337718099 1
gene  1 70 77 -0.3241579592938064 0 8049.0 -0.3241579592938064 1
gene  1 71 77 0.9192731041986612 0 8050.0 0.9192731041986612 1
gene  1 72 77 0.887021521385729 0 8051.0 0.887021521385729 1
gene  1 1 78 0.7112789871329054 0 8085.0 0.7112789871329054 1
gene  1 2 78 -0.9483156498959736 0 8086.0 -0.9483156498959736 1
gene  1 3 78 0.8857873525594178 0 8087.0 0.8857873525594178 1
gene  1 4 78 -0.8994219664207698 0 8088.0 -0.8994219664207698 1
gene  1 5 78 -0.6530406993490163 0 8089.0 -0.6530406993490163 1
gene  1 8 78 0.777522877953522 0 8092.0 0.777522877953522 1
gene  1 12 78 -0.36931684032269096 0 8096.0 -0.36931684032269096 1
gene  1 13 78 -0.4095176091880166 0 8097.0 -0.4095176091880166 1
gene  1 14 78 -0.5845028990413067 0 8098.0 -0.5845028990413067 1
gene  1 16 78 0.8419088113927731 0 8100.0 0.8419088113927731 1
gene  1 21 78 -0.18292396904327102 0 8105.0 -0.18292396904327102 1
gene  1 22 78 0.942743100818738 0 8106.0 0.942743100818738 1
gene  1 24 78 -0.13127537550304014 0 8108.0 -0.13127537550304014 1
gene  1 28 78 0.954311163279866 0 8112.0 0.954311163279866 1
gene  1 29 78 0.5023523980518951 0 8113.0 0.5023523980518951 1
gene  1 30 78 0.7000819038845761 0 8114.0 0.7000819038845761 1
gene  1 31 78 0.4764529541530782 0 8115.0 0.4764529541530782 1
gene  1 37 78 0.27658223908912705 0 8121.0 0.27658223908912705 1
gene  1 39 78 -0.032885361808484115 0 8123.0 -0.032885361808484115 1
gene  1 48 78 0.27845610104973995 0 8132.0 0.27845610104973995 1
gene  1 49 78 0.8328185579258458 0 8133.0 0.8328185579258458 1
gene  1 50 78 0.13749237263201342 0 8134.0 0.13749237263201342 1
gene  1 52 78 -0.2966654568854332 0 8136.0 -0.2966654568854332 1
gene  1 53 78 -0.35457110908382306 0 8137.0 -0.35457110908382306 1
gene  1 54 78 -0.7628864717462689 0 8138.0 -0.7628864717462689 1
gene  1 55 78 0.34646912946803876 0 8139.0 0.34646912946803876 1
gene  1 56 78 -0.7101390570046269 0 8140.0 -0.7101390570046269 1
gene  1 57 78 0.030266790443124636 0 8141.0 0.030266790443124636 1
gene  1 58 78 -0.9555300705334379 0 8142.0 -0.9555300705334379 1
gene  1 61 78 0.26280955275655093 0 8145.0 0.26280955275655093 1
gene  1 63 78 -0.11570772850495736 0 8147.0 -0.11570772850495736 1
gene  1 65 78 -0.9999388610011576 0 8149.0 -0.9999388610011576 1
gene  1 66 78 -0.3335675504646559 0 8150.0 -0.3335675504646559 1
gene  1 69 78 -0.6502246841987027 0 8153.0 -0.6502246841987027 1
gene  1 75 78 0.9863297097258469 0 8159.0 0.9863297097258469 1
gene  1 76 78 0.25435562874015105 0 8160.0 0.25435562874015105 1
gene  1 77 78 0.5856153465997738 0 8161.0 0.5856153465997738 1
gene  1 4 79 -0.8530647096830885 0 8193.0 -0.8530647096830885 1
gene  1 7 79 0.2783184636484721 0 8196.0 0.2783184636484721 1
gene  1 8 79 -0.8100852832031309 0 8197.0 -0.8100852832031309 1
gene  1 12 79 0.8965538354103364 0 8201.0 0.8965538354103364 1
gene  1 15 79 -0.16414891397883047 0 8204.0 -0.16414891397883047 1
gene  1 17 79 -0.30440963196314463 0 8206.0 -0.30440963196314463 1
gene  1 18 79 0.3140287615067857 0 8207.0 0.3140287615067857 1
gene  1 19 79 0.7247445108743491 0 8208.0 0.7247445108743491 1
gene  1 20 79 0.8649835901140255 0 8209.0 0.8649835901140255 1
gene  1 25 79 -0.5216623250096767 0 8214.0 -0.5216623250096767 1
gene  1 28 79 -0.16685287834244455 0 8217.0 -0.16685287834244455 1
gene  1 29 79 0.5432340882480494 0 8218.0 0.5432340882480494 1
gene  1 35 79 -0.3668632109149651 0 8224.0 -0.3668632109149651 1
gene  1 36 79 -0.5591545785218635 0 8225.0 -0.5591545785218635 1
gene  1 37 79 0.6204472279752802 0 8226.0 0.6204472279752802 1
gene  1 45 79 -0.05099036525707623 0 8234.0 -0.05099036525707623 1
gene  1 46 79 0.08486019932117639 0 8235.0 0.08486019932117639 1
gene  1 48 79 -0.4778249551385203 0 8237.0 -0.4778249551385203 1
gene  1 50 79 0.7002692230317776 0 8239.0 0.7002692230317776 1
gene  1 53 79 0.1650284747297105 0 8242.0 0.1650284747297105 1
gene  1 54 79 0.1643378054531215 0 8243.0 0.1643378054531215 1
gene  1 56 79 0.2851816163564216 0 8245.0 0.2851816163564216 1
gene  1 58 79 -0.585351385052985 0 8247.0 -0.585351385052985 1
gene  1 61 79 -0.24326683955856 0 8250.0 -0.24326683955856 1
gene  1 65 79 -0.3390633268293387 0 8254.0 -0.3390633268293387 1
gene  1 66 79 -0.29379617570755634 0 8255.0 -0.29379617570755634 1
gene  1 67 79 -0.5329569449823616 0 8256.0 -0.5329569449823616 1
gene  1 68 79 0.2511397156516362 0 8257.0 0.2511397156516362 1
gene  1 74 79 0.028325985637177364 0 8263.0 0.028325985637177364 1
gene  1 76 79 0.48425035929652227 0 8265.0 0.48425035929652227 1
gene  1 77 79 0.5818926505782541 0 8266.0 0.5818926505782541 1
gene  1 78 79 0.6843007617123337 0 8267.0 0.6843007617123337 1
gene  1 3 80 -0.13412109500401326 0 8297.0 -0.13412109500401326 1
gene  1 4 80 0.6271104231396016 0 8298.0 0.6271104231396016 1
gene  1 5 80 -0.11320209430632722 0 8299.0 -0.11320209430632722 1
gene  1 12 80 0.878970558729464 0 8306.0 0.878970558729464 1
gene  1 14 80 0.844267987374519 0 8308.0 0.844267987374519 1
gene  1 16 80 -0.34804216998208337 0 8310.0 -0.34804216998208337 1
gene  1 20 80 -0.12862946232191674 0 8314.0 -0.12862946232191674 1
gene  1 21 80 -0.18627151141093168 0 8315.0 -0.18627151141093168 1
gene  1 22 80 -0.40848170019564056 0 8316.0 -0.40848170019564056 1
gene  1 26 80 0.4457025500933527 0 8320.0 0.4457025500933527 1
gene  1 27 80 -0.5494920217525848 0 8321.0 -0.5494920217525848 1
gene  1 28 80 -0.3347985889961952 0 8322.0 -0.3347985889961952 1
gene  1 32 80 0.266485774462086 0 8326.0 0.266485774462086 1
gene  1 34 80 0.7507770346155268 0 8328.0 0.7507770346155268 1
gene  1 35 80 0.39944093218776056 0 8329.0 0.39944093218776056 1
gene  1 45 80 -0.056104681265709444 0 8339.0 -0.056104681265709444 1
gene  1 46 80 0.8641813463023965 0 8340.0 0.8641813463023965 1
gene  1 47 80 -0.35057639512243954 0 8341.0 -0.35057639512243954 1
gene  1 48 80 -0.8564046463235142 0 8342.0 -0.8564046463235142 1
gene  1 49 80 0.7720269889920527 0 8343.0 0.7720269889920527 1
gene  1 52 80 0.8989975494178716 0 8346.0 0.8989975494178716 1
gene  1 55 80 0.5979408295779477 0 8349.0 0.5979408295779477 1
gene  1 56 80 0.5185552940863299 0 8350.0 0.5185552940863299 1
