genomestart  19
trait 1 0.0 0.0 0.0 0.0 0.0 0.0 0.0 0.0 0.0 0.0 0.0 0.0 0.0 0.0 0.0 0.0 0.0 0.0 0.0 0.0 
node 1 1 1 1
node 2 1 1 1
node 3 1 1 1
node 4 1 1 3
node 5 1 0 0
node 6 1 0 0
node 7 1 0 0
node 8 1 0 0
node 9 1 0 0
node 10 1 0 0
node 105 1 0 2
gene  1 1 5 -0.12892675533860187 0 420.0 -0.12892675533860187 1
gene  1 3 5 0.21283544647935848 0 422.0 0.21283544647935848 1
gene  1 2 6 0.18657632785971523 0 526.0 0.18657632785971523 1
gene  1 4 6 -0.1902432777403117 0 528.0 -0.1902432777403117 1
gene  1 5 6 0.9729996174570316 0 529.0 0.9729996174570316 1
gene  1 1 7 -0.5600858473829107 0 630.0 -0.5600858473829107 1
gene  1 2 7 0.14430043259809988 0 631.0 0.14430043259809988 1
gene  1 4 7 -0.7559295577503383 0 633.0 -0.7559295577503383 1
gene  1 5 7 -0.42475516026241544 0 634.0 -0.42475516026241544 1
gene  1 6 7 0.26246756543196137 0 635.0 0.26246756543196137 1
gene  1 3 8 -0.1952119483630661 0 737.0 -0.1952119483630661 1
gene  1 6 8 0.19615040390743677 0 740.0 0.19615040390743677 1
gene  1 4 9 0.3167102998439194 0 843.0 0.3167102998439194 1
gene  1 7 9 0.3163066765581781 0 846.0 0.3163066765581781 1
gene  1 1 10 0.6982954155789621 0 945.0 0.6982954155789621 1
gene  1 6 10 0.13327443101154646 0 950.0 0.13327443101154646 1
gene  1 8 10 -0.22988542188218763 0 952.0 -0.22988542188218763 1
gene  1 1 105 -0.5965933229983025 0 10920.0 -0.5965933229983025 1
gene  1 2 105 -0.9718547858362002 0 10921.0 -0.9718547858362002 1
gene  1 4 105 -0.6832415437972557 0 10923.0 -0.6832415437972557 1
gene  1 5 105 -0.03195521416664604 0 10924.0 -0.03195521416664604 1
gene  1 6 105 0.5413662608699483 0 10925.0 0.5413662608699483 1
gene  1 10 105 0.057790150343374425 0 10929.0 0.057790150343374425 1
genomeend 19
