genomestart  7
trait 1 0.0 0.0 0.0 0.0 0.0 0.0 0.0 0.0 0.0 0.0 0.0 0.0 0.0 0.0 0.0 0.0 0.0 0.0 0.0 0.0 
node 1 1 1 1
node 2 1 1 1
node 3 1 1 1
node 4 1 1 1
node 5 1 1 3
node 6 1 0 0
node 7 1 0 0
node 8 1 0 0
node 9 1 0 0
node 10 1 0 0
node 11 1 0 0
node 12 1 0 0
node 16 1 0 2
gene  1 1 6 0.9950998927014787 0 80.0 0.9950998927014787 1
gene  1 2 6 -0.01648970835132535 0 81.0 -0.01648970835132535 1
gene  1 5 6 -0.16798261392528702 0 84.0 -0.16798261392528702 1
gene  1 1 7 -0.501119300999816 0 96.0 -0.501119300999816 1
gene  1 3 7 0.9021003090874734 0 98.0 0.9021003090874734 1
gene  1 4 7 -0.48104736645371704 0 99.0 -0.48104736645371704 1
gene  1 1 8 0.10025441067240426 0 112.0 0.10025441067240426 1
gene  1 5 8 -0.6315466251278515 0 116.0 -0.6315466251278515 1
gene  1 6 9 -0.5813267232833863 0 133.0 -0.5813267232833863 1
gene  1 7 9 -0.13673548262362278 0 134.0 -0.13673548262362278 1
gene  1 1 10 -0.9280990339200564 0 144.0 -0.9280990339200564 1
gene  1 2 10 0.5626758027723985 0 145.0 0.5626758027723985 1
gene  1 3 10 -0.674219787833833 0 146.0 -0.674219787833833 1
gene  1 4 10 -0.6935786159738276 0 147.0 -0.6935786159738276 1
gene  1 9 10 0.40754358207310937 0 152.0 0.40754358207310937 1
gene  1 3 11 0.20902470088541436 0 162.0 0.20902470088541436 1
gene  1 4 11 -0.06374375284628042 0 163.0 -0.06374375284628042 1
gene  1 5 11 0.8175432573253518 0 164.0 0.8175432573253518 1
gene  1 10 11 0.18997213116798128 0 169.0 0.18997213116798128 1
gene  1 1 12 -0.8314854822928526 0 176.0 -0.8314854822928526 1
gene  1 3 12 0.5515368378792701 0 178.0 0.5515368378792701 1
gene  1 5 12 -0.9219486111750227 0 180.0 -0.9219486111750227 1
gene  1 8 12 0.6745321553650871 0 183.0 0.6745321553650871 1
gene  1 10 12 -0.6914620147502224 0 185.0 -0.6914620147502224 1
gene  1 1 16 -0.5836986985577909 0 240.0 -0.5836986985577909 1
gene  1 2 16 0.24212855316896975 0 241.0 0.24212855316896975 1
gene  1 7 16 -0.20028753384700093 0 246.0 -0.20028753384700093 1
gene  1 8 16 -0.8708398274932799 0 247.0 -0.8708398274932799 1
gene  1 9 16 0.1494078639956452 0 248.0 0.1494078639956452 1
gene  1 10 16 -0.2716344700334208 0 249.0 -0.2716344700334208 1
gene  1 12 16 -0.9836698220657801 0 251.0 -0.9836698220657801 1
genomeend 7
