genomestart  29
trait 1 0.0 0.0 0.0 0.0 0.0 0.0 0.0 0.0 0.0 0.0 0.0 0.0 0.0 0.0 0.0 0.0 0.0 0.0 0.0 0.0 
node 1 1 1 1
node 2 1 1 1
node 3 1 1 1
node 4 1 1 1
node 5 1 1 3
node 6 1 0 0
node 7 1 0 0
node 8 1 0 0
node 9 1 0 0
node 10 1 0 0
node 16 1 0 2
gene  1 3 6 -0.15352834586092068 0 82.0 -0.15352834586092068 1
gene  1 4 6 0.12657593653794974 0 83.0 0.12657593653794974 1
gene  1 2 7 -0.07408338469873954 0 97.0 -0.07408338469873954 1
gene  1 2 8 0.7778670047921665 0 113.0 0.7778670047921665 1
gene  1 3 8 0.9187365329060768 0 114.0 0.9187365329060768 1
gene  1 5 8 -0.22817344542178852 0 116.0 -0.22817344542178852 1
gene  1 7 8 0.07243470058580137 0 118.0 0.07243470058580137 1
gene  1 8 9 0.9737355403942766 0 135.0 0.9737355403942766 1
gene  1 3 10 0.2872526862782895 0 146.0 0.2872526862782895 1
gene  1 5 10 0.7604824840603224 0 148.0 0.7604824840603224 1
gene  1 8 10 0.3433057876944361 0 151.0 0.3433057876944361 1
gene  1 1 16 -0.8410283820684901 0 240.0 -0.8410283820684901 1
gene  1 2 16 0.10623517730561849 0 241.0 0.10623517730561849 1
gene  1 3 16 -0.060188975657032295 0 242.0 -0.060188975657032295 1
gene  1 6 16 0.8800565912504442 0 245.0 0.8800565912504442 1
gene  1 7 16 0.606813647744156 0 246.0 0.606813647744156 1
gene  1 10 16 0.6039848896910488 0 249.0 0.6039848896910488 1
genomeend 29
