genomestart  13
trait 1 0.0 0.0 0.0 0.0 0.0 0.0 0.0 0.0 0.0 0.0 0.0 0.0 0.0 0.0 0.0 0.0 0.0 0.0 0.0 0.0 
node 1 1 1 1
node 2 1 1 1
node 3 1 1 1
node 4 1 1 3
node 5 1 0 0
node 6 1 0 0
node 7 1 0 0
node 8 1 0 0
node 9 1 0 0
node 10 1 0 0
node 11 1 0 0
node 12 1 0 0
node 13 1 0 0
node 14 1 0 0
node 15 1 0 0
node 16 1 0 0
node 17 1 0 0
node 18 1 0 0
node 19 1 0 0
node 20 1 0 0
node 21 1 0 0
node 22 1 0 0
node 23 1 0 0
node 24 1 0 0
node 25 1 0 0
node 26 1 0 0
node 27 1 0 0
node 28 1 0 0
node 29 1 0 0
node 30 1 0 0
node 31 1 0 0
node 32 1 0 0
node 33 1 0 0
node 34 1 0 0
node 35 1 0 0
node 36 1 0 0
node 37 1 0 0
node 38 1 0 0
node 39 1 0 0
node 40 1 0 0
node 41 1 0 0
node 42 1 0 0
node 43 1 0 0
node 44 1 0 0
node 45 1 0 0
node 46 1 0 0
node 47 1 0 0
node 48 1 0 0
node 49 1 0 0
node 50 1 0 0
node 51 1 0 0
node 52 1 0 0
node 53 1 0 0
node 54 1 0 0
node 55 1 0 0
node 56 1 0 0
node 57 1 0 0
node 58 1 0 0
node 59 1 0 0
node 60 1 0 0
node 61 1 0 0
node 62 1 0 0
node 63 1 0 0
node 64 1 0 0
node 65 1 0 0
node 66 1 0 0
node 67 1 0 0
node 68 1 0 0
node 69 1 0 0
node 70 1 0 0
node 71 1 0 0
node 72 1 0 0
node 73 1 0 0
node 74 1 0 0
node 75 1 0 0
node 76 1 0 0
node 77 1 0 0
node 78 1 0 0
node 79 1 0 0
node 80 1 0 0
node 81 1 0 0
node 82 1 0 0
node 83 1 0 0
node 84 1 0 0
node 85 1 0 0
node 86 1 0 0
node 87 1 0 0
node 88 1 0 0
node 89 1 0 0
node 90 1 0 0
node 91 1 0 0
node 92 1 0 0
node 93 1 0 0
node 94 1 0 0
node 95 1 0 0
node 96 1 0 0
node 97 1 0 0
node 98 1 0 0
node 99 1 0 0
node 105 1 0 2
gene  1 2 5 -0.5027244161879764 0 421.0 -0.5027244161879764 1
gene  1 3 5 0.09385379653955994 0 422.0 0.09385379653955994 1
gene  1 2 6 0.7206133727470991 0 526.0 0.7206133727470991 1
gene  1 1 8 0.7833832648465507 0 735.0 0.7833832648465507 1
gene  1 2 8 -0.35941094533099704 0 736.0 -0.35941094533099704 1
gene  1 3 8 0.5726555967212346 0 737.0 0.5726555967212346 1
gene  1 5 8 -0.9991404021309914 0 739.0 -0.9991404021309914 1
gene  1 2 9 0.6583069221505268 0 841.0 0.6583069221505268 1
gene  1 3 9 0.38483255734828936 0 842.0 0.38483255734828936 1
gene  1 5 9 0.6248007271625515 0 844.0 0.6248007271625515 1
gene  1 1 10 -0.7983229713491921 0 945.0 -0.7983229713491921 1
gene  1 2 10 0.3145783158516676 0 946.0 0.3145783158516676 1
gene  1 3 10 -0.24028219023075326 0 947.0 -0.24028219023075326 1
gene  1 5 10 -0.6701375571760697 0 949.0 -0.6701375571760697 1
gene  1 6 10 -0.014195306873047042 0 950.0 -0.014195306873047042 1
gene  1 7 10 -0.6165193345890778 0 951.0 -0.6165193345890778 1
gene  1 8 10 -0.9279219966507066 0 952.0 -0.9279219966507066 1
gene  1 9 10 -0.03191394080036247 0 953.0 -0.03191394080036247 1
gene  1 2 11 -0.5295811267748859 0 1051.0 -0.5295811267748859 1
gene  1 3 11 -0.5563791366971649 0 1052.0 -0.5563791366971649 1
gene  1 4 11 0.9696237712967347 0 1053.0 0.9696237712967347 1
gene  1 5 11 -0.9868038831860283 0 1054.0 -0.9868038831860283 1
gene  1 7 11 -0.837209215333384 0 1056.0 -0.837209215333384 1
gene  1 8 11 0.9331000889715795 0 1057.0 0.9331000889715795 1
gene  1 10 11 -0.7131424487423182 0 1059.0 -0.7131424487423182 1
gene  1 3 12 -0.338228371552869 0 1157.0 -0.338228371552869 1
gene  1 5 12 -0.6698416709127198 0 1159.0 -0.6698416709127198 1
gene  1 6 12 -0.37488923595222523 0 1160.0 -0.37488923595222523 1
gene  1 7 12 -0.36327827568487603 0 1161.0 -0.36327827568487603 1
gene  1 8 12 -0.847471811446606 0 1162.0 -0.847471811446606 1
gene  1 9 12 0.6994352565482159 0 1163.0 0.6994352565482159 1
gene  1 10 12 0.3186782069944708 0 1164.0 0.3186782069944708 1
gene  1 11 12 0.5846484244465854 0 1165.0 0.5846484244465854 1
gene  1 1 13 0.5488863891496254 0 1260.0 0.5488863891496254 1
gene  1 6 13 -0.41365457987632115 0 1265.0 -0.41365457987632115 1
gene  1 8 13 0.537325568478122 0 1267.0 0.537325568478122 1
gene  1 10 13 -0.67515919516256 0 1269.0 -0.67515919516256 1
gene  1 11 13 -0.3888871756290627 0 1270.0 -0.3888871756290627 1
gene  1 2 14 -0.8748314079586248 0 1366.0 -0.8748314079586248 1
gene  1 3 14 -0.10685763644042956 0 1367.0 -0.10685763644042956 1
gene  1 4 14 0.4834067443322896 0 1368.0 0.4834067443322896 1
gene  1 5 14 0.15116481943473958 0 1369.0 0.15116481943473958 1
gene  1 8 14 -0.3865668688922639 0 1372.0 -0.3865668688922639 1
gene  1 9 14 0.6172865977470728 0 1373.0 0.6172865977470728 1
gene  1 10 14 -0.22907815835520973 0 1374.0 -0.22907815835520973 1
gene  1 11 14 -0.2596513802450192 0 1375.0 -0.2596513802450192 1
gene  1 13 14 -0.60633010267832 0 1377.0 -0.60633010267832 1
gene  1 1 15 -0.9720983403526794 0 1470.0 -0.9720983403526794 1
gene  1 2 15 -0.8948886384958691 0 1471.0 -0.8948886384958691 1
gene  1 6 15 0.6427123197080067 0 1475.0 0.6427123197080067 1
gene  1 7 15 0.36521985946364577 0 1476.0 0.36521985946364577 1
gene  1 8 15 0.2982492249104879 0 1477.0 0.2982492249104879 1
gene  1 10 15 0.775464785829431 0 1479.0 0.775464785829431 1
gene  1 11 15 0.36262612322696464 0 1480.0 0.36262612322696464 1
gene  1 14 15 0.20200020042201927 0 1483.0 0.20200020042201927 1
gene  1 3 16 0.5397073676742654 0 1577.0 0.5397073676742654 1
gene  1 8 16 -0.3985315176039982 0 1582.0 -0.3985315176039982 1
gene  1 9 16 0.4888460585573169 0 1583.0 0.4888460585573169 1
gene  1 11 16 -0.2479507131470844 0 1585.0 -0.2479507131470844 1
gene  1 12 16 -0.9568553933095463 0 1586.0 -0.9568553933095463 1
gene  1 13 16 0.3543206396378854 0 1587.0 0.3543206396378854 1
gene  1 15 16 -0.6563867111204807 0 1589.0 -0.6563867111204807 1
gene  1 1 17 -0.7692103529598873 0 1680.0 -0.7692103529598873 1
gene  1 2 17 -0.4594424623307307 0 1681.0 -0.4594424623307307 1
gene  1 3 17 0.47970619610395404 0 1682.0 0.47970619610395404 1
gene  1 6 17 0.695888511451561 0 1685.0 0.695888511451561 1
gene  1 7 17 -0.08824609945423867 0 1686.0 -0.08824609945423867 1
gene  1 8 17 -0.904620453438044 0 1687.0 -0.904620453438044 1
gene  1 9 17 -0.41547551305047725 0 1688.0 -0.41547551305047725 1
gene  1 13 17 0.5528028354072579 0 1692.0 0.5528028354072579 1
gene  1 14 17 -0.2668169855930793 0 1693.0 -0.2668169855930793 1
gene  1 15 17 0.8706761748948297 0 1694.0 0.8706761748948297 1
gene  1 1 18 0.28152722109607453 0 1785.0 0.28152722109607453 1
gene  1 2 18 0.6924085253346935 0 1786.0 0.6924085253346935 1
gene  1 3 18 0.3871840536826565 0 1787.0 0.3871840536826565 1
gene  1 4 18 -0.132514736282225 0 1788.0 -0.132514736282225 1
gene  1 9 18 -0.2606906551470819 0 1793.0 -0.2606906551470819 1
gene  1 13 18 -0.18708368587177726 0 1797.0 -0.18708368587177726 1
gene  1 14 18 -0.3610642280782953 0 1798.0 -0.3610642280782953 1
gene  1 15 18 0.01226396873840152 0 1799.0 0.01226396873840152 1
gene  1 16 18 -0.33419572817558685 0 1800.0 -0.33419572817558685 1
gene  1 17 18 -0.43386339259609763 0 1801.0 -0.43386339259609763 1
gene  1 5 19 -0.3185398813594802 0 1894.0 -0.3185398813594802 1
gene  1 7 19 0.837440957765146 0 1896.0 0.837440957765146 1
gene  1 8 19 -0.529380253411632 0 1897.0 -0.529380253411632 1
gene  1 9 19 0.7946315369319694 0 1898.0 0.7946315369319694 1
gene  1 10 19 0.970297027554896 0 1899.0 0.970297027554896 1
gene  1 16 19 -0.024204686088896366 0 1905.0 -0.024204686088896366 1
gene  1 18 19 -0.5036654019507837 0 1907.0 -0.5036654019507837 1
gene  1 3 20 -0.5885217736886446 0 1997.0 -0.5885217736886446 1
gene  1 6 20 0.13152041411422766 0 2000.0 0.13152041411422766 1
gene  1 9 20 0.4129495917434812 0 2003.0 0.4129495917434812 1
gene  1 10 20 -0.45069883058554283 0 2004.0 -0.45069883058554283 1
gene  1 13 20 -0.6058064224285057 0 2007.0 -0.6058064224285057 1
gene  1 16 20 -0.3767528242825686 0 2010.0 -0.3767528242825686 1
gene  1 17 20 0.7508773742766272 0 2011.0 0.7508773742766272 1
gene  1 19 20 0.44927384112269375 0 2013.0 0.44927384112269375 1
gene  1 1 21 0.32367957721932883 0 2100.0 0.32367957721932883 1
gene  1 2 21 0.6411307142937038 0 2101.0 0.6411307142937038 1
gene  1 5 21 -0.9586053924910269 0 2104.0 -0.9586053924910269 1
gene  1 6 21 -0.9294690885833398 0 2105.0 -0.9294690885833398 1
gene  1 7 21 0.0652118293228432 0 2106.0 0.0652118293228432 1
gene  1 8 21 0.370611300159857 0 2107.0 0.370611300159857 1
gene  1 10 21 0.5870840789220577 0 2109.0 0.5870840789220577 1
gene  1 11 21 0.7715834540320229 0 2110.0 0.7715834540320229 1
gene  1 12 21 0.5910644178095045 0 2111.0 0.5910644178095045 1
gene  1 18 21 -0.4749654375573269 0 2117.0 -0.4749654375573269 1
gene  1 20 21 0.7032381078441955 0 2119.0 0.7032381078441955 1
gene  1 1 22 -0.2219009601520564 0 2205.0 -0.2219009601520564 1
gene  1 2 22 -0.7963693537358832 0 2206.0 -0.7963693537358832 1
gene  1 3 22 -0.0721456114478195 0 2207.0 -0.0721456114478195 1
gene  1 5 22 0.10832256697512332 0 2209.0 0.10832256697512332 1
gene  1 6 22 -0.7670271059772181 0 2210.0 -0.7670271059772181 1
gene  1 8 22 -0.9089566114244316 0 2212.0 -0.9089566114244316 1
gene  1 9 22 0.5977569660153786 0 2213.0 0.5977569660153786 1
gene  1 16 22 -0.04688062109892299 0 2220.0 -0.04688062109892299 1
gene  1 1 23 -0.9892796088776659 0 2310.0 -0.9892796088776659 1
gene  1 3 23 -0.5656581393020793 0 2312.0 -0.5656581393020793 1
gene  1 6 23 0.8522328763220826 0 2315.0 0.8522328763220826 1
gene  1 7 23 0.39565925213036 0 2316.0 0.39565925213036 1
gene  1 10 23 -0.2850556541037811 0 2319.0 -0.2850556541037811 1
gene  1 11 23 0.45593734022234944 0 2320.0 0.45593734022234944 1
gene  1 13 23 -0.5813011538647885 0 2322.0 -0.5813011538647885 1
gene  1 14 23 0.20451877017282383 0 2323.0 0.20451877017282383 1
gene  1 15 23 0.8937761066706116 0 2324.0 0.8937761066706116 1
gene  1 16 23 0.5511525089064416 0 2325.0 0.5511525089064416 1
gene  1 17 23 0.13964516371609315 0 2326.0 0.13964516371609315 1
gene  1 18 23 -0.6032674905400769 0 2327.0 -0.6032674905400769 1
gene  1 19 23 -0.6063359875619032 0 2328.0 -0.6063359875619032 1
gene  1 20 23 -0.8273081160099318 0 2329.0 -0.8273081160099318 1
gene  1 21 23 0.1274204389427377 0 2330.0 0.1274204389427377 1
gene  1 1 24 -0.68184644288834 0 2415.0 -0.68184644288834 1
gene  1 2 24 0.6202616309633205 0 2416.0 0.6202616309633205 1
gene  1 4 24 0.4924992366710256 0 2418.0 0.4924992366710256 1
gene  1 5 24 -0.8654571618807562 0 2419.0 -0.8654571618807562 1
gene  1 9 24 0.42314156486297894 0 2423.0 0.42314156486297894 1
gene  1 12 24 0.5271495677526413 0 2426.0 0.5271495677526413 1
gene  1 13 24 -0.06010777284075153 0 2427.0 -0.06010777284075153 1
gene  1 14 24 0.48541331616921446 0 2428.0 0.48541331616921446 1
gene  1 17 24 0.029040664759136248 0 2431.0 0.029040664759136248 1
gene  1 18 24 -0.2714823094732942 0 2432.0 -0.2714823094732942 1
gene  1 20 24 0.7872336574062591 0 2434.0 0.7872336574062591 1
gene  1 21 24 0.8505698000142479 0 2435.0 0.8505698000142479 1
gene  1 23 24 -0.6766922881338103 0 2437.0 -0.6766922881338103 1
gene  1 2 25 -0.9454933467798297 0 2521.0 -0.9454933467798297 1
gene  1 5 25 0.5062863838478628 0 2524.0 0.5062863838478628 1
gene  1 9 25 0.6329785338694182 0 2528.0 0.6329785338694182 1
gene  1 11 25 0.5031414044489708 0 2530.0 0.5031414044489708 1
gene  1 12 25 0.4911784310142189 0 2531.0 0.4911784310142189 1
gene  1 13 25 -0.3069414693559619 0 2532.0 -0.3069414693559619 1
gene  1 17 25 -0.5917641242044054 0 2536.0 -0.5917641242044054 1
gene  1 18 25 0.30687541615686154 0 2537.0 0.30687541615686154 1
gene  1 24 25 0.19848631841674869 0 2543.0 0.19848631841674869 1
gene  1 1 26 0.8259782647470182 0 2625.0 0.8259782647470182 1
gene  1 3 26 -0.4108905352522484 0 2627.0 -0.4108905352522484 1
gene  1 5 26 0.42294082480564965 0 2629.0 0.42294082480564965 1
gene  1 9 26 -0.42070832355015386 0 2633.0 -0.42070832355015386 1
gene  1 10 26 0.6334311744837746 0 2634.0 0.6334311744837746 1
gene  1 11 26 -0.6448628452751143 0 2635.0 -0.6448628452751143 1
gene  1 13 26 -0.5571990475195374 0 2637.0 -0.5571990475195374 1
gene  1 14 26 -0.1985363465239024 0 2638.0 -0.1985363465239024 1
gene  1 22 26 -0.7839489393100738 0 2646.0 -0.7839489393100738 1
gene  1 23 26 -0.21674287332516295 0 2647.0 -0.21674287332516295 1
gene  1 24 26 -0.12235768752909504 0 2648.0 -0.12235768752909504 1
gene  1 25 26 -0.689463730780735 0 2649.0 -0.689463730780735 1
gene  1 1 27 -0.560589605493986 0 2730.0 -0.560589605493986 1
gene  1 2 27 -0.1404917870185658 0 2731.0 -0.1404917870185658 1
gene  1 3 27 -0.10540212088568401 0 2732.0 -0.10540212088568401 1
gene  1 4 27 -0.0573238722600502 0 2733.0 -0.0573238722600502 1
gene  1 5 27 0.6621739432155093 0 2734.0 0.6621739432155093 1
gene  1 6 27 0.3718644655279677 0 2735.0 0.3718644655279677 1
gene  1 8 27 0.49909237174017107 0 2737.0 0.49909237174017107 1
gene  1 13 27 0.07784032384404094 0 2742.0 0.07784032384404094 1
gene  1 14 27 0.0718511768501281 0 2743.0 0.0718511768501281 1
gene  1 19 27 0.8985973014192747 0 2748.0 0.8985973014192747 1
gene  1 20 27 -0.36979072498549825 0 2749.0 -0.36979072498549825 1
gene  1 21 27 0.37201044642116 0 2750.0 0.37201044642116 1
gene  1 22 27 0.950140050889412 0 2751.0 0.950140050889412 1
gene  1 23 27 0.878052992031021 0 2752.0 0.878052992031021 1
gene  1 24 27 0.2149284877312948 0 2753.0 0.2149284877312948 1
gene  1 25 27 0.2737529178388811 0 2754.0 0.2737529178388811 1
gene  1 1 28 0.5862188334305932 0 2835.0 0.5862188334305932 1
gene  1 2 28 0.1322893576937194 0 2836.0 0.1322893576937194 1
gene  1 5 28 0.12516484027399233 0 2839.0 0.12516484027399233 1
gene  1 8 28 0.6771814969781021 0 2842.0 0.6771814969781021 1
gene  1 10 28 -0.5418420295638791 0 2844.0 -0.5418420295638791 1
gene  1 13 28 0.9770591527635752 0 2847.0 0.9770591527635752 1
gene  1 15 28 0.6323673288209262 0 2849.0 0.6323673288209262 1
gene  1 17 28 -0.26966245268906297 0 2851.0 -0.26966245268906297 1
gene  1 21 28 -0.06753291347894075 0 2855.0 -0.06753291347894075 1
gene  1 22 28 -0.849744795385899 0 2856.0 -0.849744795385899 1
gene  1 24 28 -0.952963097408949 0 2858.0 -0.952963097408949 1
gene  1 25 28 0.7388844137706507 0 2859.0 0.7388844137706507 1
gene  1 1 29 -0.9545816223992695 0 2940.0 -0.9545816223992695 1
gene  1 3 29 0.7157936907226158 0 2942.0 0.7157936907226158 1
gene  1 5 29 0.5693519876470285 0 2944.0 0.5693519876470285 1
gene  1 6 29 -0.41680737242812205 0 2945.0 -0.41680737242812205 1
gene  1 7 29 -0.6121918318537007 0 2946.0 -0.6121918318537007 1
gene  1 8 29 0.7748188933974937 0 2947.0 0.7748188933974937 1
gene  1 13 29 0.9066984778042898 0 2952.0 0.9066984778042898 1
gene  1 14 29 0.3837247782422495 0 2953.0 0.3837247782422495 1
gene  1 15 29 -0.08955729202031848 0 2954.0 -0.08955729202031848 1
gene  1 16 29 0.6040189239845682 0 2955.0 0.6040189239845682 1
gene  1 19 29 -0.9196576018208507 0 2958.0 -0.9196576018208507 1
gene  1 20 29 0.9668095705759516 0 2959.0 0.9668095705759516 1
gene  1 21 29 -0.3697859828862231 0 2960.0 -0.3697859828862231 1
gene  1 22 29 0.912677198389205 0 2961.0 0.912677198389205 1
gene  1 23 29 0.09895344653416249 0 2962.0 0.09895344653416249 1
gene  1 24 29 -0.4163347304159427 0 2963.0 -0.4163347304159427 1
gene  1 26 29 0.7778668189766672 0 2965.0 0.7778668189766672 1
gene  1 28 29 0.42882535369491326 0 2967.0 0.42882535369491326 1
gene  1 2 30 0.12109539101696043 0 3046.0 0.12109539101696043 1
gene  1 4 30 -0.08805056839756975 0 3048.0 -0.08805056839756975 1
gene  1 6 30 -0.10911469190370737 0 3050.0 -0.10911469190370737 1
gene  1 7 30 0.7861744013392341 0 3051.0 0.7861744013392341 1
gene  1 8 30 0.7101480527387802 0 3052.0 0.7101480527387802 1
gene  1 10 30 -0.882629389121377 0 3054.0 -0.882629389121377 1
gene  1 11 30 -0.7979273301364195 0 3055.0 -0.7979273301364195 1
gene  1 12 30 0.3614828924346625 0 3056.0 0.3614828924346625 1
gene  1 14 30 0.3569979230661341 0 3058.0 0.3569979230661341 1
gene  1 16 30 -0.8451913788156331 0 3060.0 -0.8451913788156331 1
gene  1 17 30 -0.418813264900775 0 3061.0 -0.418813264900775 1
gene  1 20 30 0.8618701636685934 0 3064.0 0.8618701636685934 1
gene  1 23 30 0.18198977267085337 0 3067.0 0.18198977267085337 1
gene  1 24 30 0.484118583681332 0 3068.0 0.484118583681332 1
gene  1 25 30 -0.21145019017069389 0 3069.0 -0.21145019017069389 1
gene  1 26 30 -0.6572952526473541 0 3070.0 -0.6572952526473541 1
gene  1 28 30 0.24852297996755413 0 3072.0 0.24852297996755413 1
gene  1 2 31 -0.47493479831952623 0 3151.0 -0.47493479831952623 1
gene  1 3 31 -0.42732523840588976 0 3152.0 -0.42732523840588976 1
gene  1 6 31 0.7714867952231967 0 3155.0 0.7714867952231967 1
gene  1 7 31 0.0899596483480456 0 3156.0 0.0899596483480456 1
gene  1 8 31 0.3401428397258427 0 3157.0 0.3401428397258427 1
gene  1 10 31 -0.7449910972622541 0 3159.0 -0.7449910972622541 1
gene  1 12 31 0.5078754803893923 0 3161.0 0.5078754803893923 1
gene  1 16 31 -0.6361349611607497 0 3165.0 -0.6361349611607497 1
gene  1 17 31 -0.4796064605488095 0 3166.0 -0.4796064605488095 1
gene  1 19 31 -0.0412131010328628 0 3168.0 -0.0412131010328628 1
gene  1 20 31 -0.6152769098537963 0 3169.0 -0.6152769098537963 1
gene  1 22 31 -0.3893840854249885 0 3171.0 -0.3893840854249885 1
gene  1 24 31 -0.5302539626738504 0 3173.0 -0.5302539626738504 1
gene  1 1 32 -0.5427282647396626 0 3255.0 -0.5427282647396626 1
gene  1 3 32 -0.9577991595345232 0 3257.0 -0.9577991595345232 1
gene  1 6 32 -0.8581916693614117 0 3260.0 -0.8581916693614117 1
gene  1 8 32 0.5923571232348951 0 3262.0 0.5923571232348951 1
gene  1 9 32 0.03380762892227429 0 3263.0 0.03380762892227429 1
gene  1 11 32 -0.90818378940299 0 3265.0 -0.90818378940299 1
gene  1 18 32 -0.39858720119920554 0 3272.0 -0.39858720119920554 1
gene  1 20 32 0.9280625141715035 0 3274.0 0.9280625141715035 1
gene  1 21 32 0.9335048610870958 0 3275.0 0.9335048610870958 1
gene  1 22 32 -0.2438812934639839 0 3276.0 -0.2438812934639839 1
gene  1 23 32 -0.712885535855292 0 3277.0 -0.712885535855292 1
gene  1 24 32 -0.5437648945827809 0 3278.0 -0.5437648945827809 1
gene  1 26 32 0.8679548722218604 0 3280.0 0.8679548722218604 1
gene  1 28 32 -0.5978412066404482 0 3282.0 -0.5978412066404482 1
gene  1 29 32 -0.02031391884568734 0 3283.0 -0.02031391884568734 1
gene  1 31 32 0.7607254594842674 0 3285.0 0.7607254594842674 1
gene  1 1 33 -0.891304118668481 0 3360.0 -0.891304118668481 1
gene  1 2 33 -0.4553617454866352 0 3361.0 -0.4553617454866352 1
gene  1 4 33 0.0368582661810245 0 3363.0 0.0368582661810245 1
gene  1 7 33 0.7793435237493007 0 3366.0 0.7793435237493007 1
gene  1 8 33 -0.9071270236384456 0 3367.0 -0.9071270236384456 1
gene  1 10 33 0.045373145402929804 0 3369.0 0.045373145402929804 1
gene  1 18 33 0.3090593999591942 0 3377.0 0.3090593999591942 1
gene  1 20 33 -0.09484916995437909 0 3379.0 -0.09484916995437909 1
gene  1 22 33 -0.6232088970036663 0 3381.0 -0.6232088970036663 1
gene  1 23 33 0.047073160618555154 0 3382.0 0.047073160618555154 1
gene  1 24 33 -0.5496284458656585 0 3383.0 -0.5496284458656585 1
gene  1 25 33 0.840938472791056 0 3384.0 0.840938472791056 1
gene  1 26 33 0.65842117279451 0 3385.0 0.65842117279451 1
gene  1 29 33 -0.915618359283995 0 3388.0 -0.915618359283995 1
gene  1 30 33 0.5671354323356564 0 3389.0 0.5671354323356564 1
gene  1 32 33 0.05993488518505552 0 3391.0 0.05993488518505552 1
gene  1 1 34 0.1925298090732107 0 3465.0 0.1925298090732107 1
gene  1 2 34 0.46520454461262983 0 3466.0 0.46520454461262983 1
gene  1 8 34 -0.2975416472130955 0 3472.0 -0.2975416472130955 1
gene  1 9 34 0.03221975608688554 0 3473.0 0.03221975608688554 1
gene  1 10 34 -0.8989780781225594 0 3474.0 -0.8989780781225594 1
gene  1 11 34 -0.5728184342553256 0 3475.0 -0.5728184342553256 1
gene  1 13 34 0.6962500569232468 0 3477.0 0.6962500569232468 1
gene  1 14 34 -0.0745942440867653 0 3478.0 -0.0745942440867653 1
gene  1 19 34 0.27716913665107545 0 3483.0 0.27716913665107545 1
gene  1 23 34 0.9665622918994318 0 3487.0 0.9665622918994318 1
gene  1 25 34 0.6842731992771872 0 3489.0 0.6842731992771872 1
gene  1 26 34 -0.23945692968782117 0 3490.0 -0.23945692968782117 1
gene  1 28 34 0.964110841173199 0 3492.0 0.964110841173199 1
gene  1 30 34 -0.8209725898138063 0 3494.0 -0.8209725898138063 1
gene  1 33 34 -0.5440719392350579 0 3497.0 -0.5440719392350579 1
gene  1 4 35 0.6386152629056108 0 3573.0 0.6386152629056108 1
gene  1 5 35 0.0744204809781186 0 3574.0 0.0744204809781186 1
gene  1 7 35 -0.6272703397297619 0 3576.0 -0.6272703397297619 1
gene  1 9 35 -0.6969839511943933 0 3578.0 -0.6969839511943933 1
gene  1 12 35 -0.3734877780619169 0 3581.0 -0.3734877780619169 1
gene  1 13 35 -0.12094079120170109 0 3582.0 -0.12094079120170109 1
gene  1 15 35 -0.6649755728571687 0 3584.0 -0.6649755728571687 1
gene  1 18 35 0.46669585564578375 0 3587.0 0.46669585564578375 1
gene  1 24 35 -0.3955600144254765 0 3593.0 -0.3955600144254765 1
gene  1 27 35 0.9932869993391151 0 3596.0 0.9932869993391151 1
gene  1 29 35 -0.545639017942341 0 3598.0 -0.545639017942341 1
gene  1 31 35 -0.5280496104474023 0 3600.0 -0.5280496104474023 1
gene  1 34 35 -0.8372693713750067 0 3603.0 -0.8372693713750067 1
gene  1 1 36 -0.8155963516397156 0 3675.0 -0.8155963516397156 1
gene  1 3 36 -0.1993202149724349 0 3677.0 -0.1993202149724349 1
gene  1 6 36 0.27812191733025315 0 3680.0 0.27812191733025315 1
gene  1 7 36 -0.1559267788914761 0 3681.0 -0.1559267788914761 1
gene  1 8 36 0.12403361494910015 0 3682.0 0.12403361494910015 1
gene  1 9 36 -0.34647256256796777 0 3683.0 -0.34647256256796777 1
gene  1 10 36 -0.351854587282162 0 3684.0 -0.351854587282162 1
gene  1 11 36 -0.7056265391478171 0 3685.0 -0.7056265391478171 1
gene  1 14 36 0.6650377952689845 0 3688.0 0.6650377952689845 1
gene  1 17 36 -0.7555594244551086 0 3691.0 -0.7555594244551086 1
gene  1 19 36 0.17680529236919984 0 3693.0 0.17680529236919984 1
gene  1 20 36 0.4000113703249578 0 3694.0 0.4000113703249578 1
gene  1 21 36 -0.542071710665459 0 3695.0 -0.542071710665459 1
gene  1 24 36 -0.2903731005291783 0 3698.0 -0.2903731005291783 1
gene  1 26 36 -0.5444619032202666 0 3700.0 -0.5444619032202666 1
gene  1 27 36 -0.9297890666048623 0 3701.0 -0.9297890666048623 1
gene  1 30 36 -0.36632922419684766 0 3704.0 -0.36632922419684766 1
gene  1 31 36 0.05788669840692062 0 3705.0 0.05788669840692062 1
gene  1 32 36 -0.1270297397002912 0 3706.0 -0.1270297397002912 1
gene  1 35 36 0.45245376791791836 0 3709.0 0.45245376791791836 1
gene  1 1 37 -0.28940754294374216 0 3780.0 -0.28940754294374216 1
gene  1 6 37 0.5816386921527625 0 3785.0 0.5816386921527625 1
gene  1 10 37 0.13104035879792397 0 3789.0 0.13104035879792397 1
gene  1 16 37 -0.8490358878450389 0 3795.0 -0.8490358878450389 1
gene  1 26 37 -0.21668649460666123 0 3805.0 -0.21668649460666123 1
gene  1 27 37 -0.3481086991104495 0 3806.0 -0.3481086991104495 1
gene  1 30 37 -0.5293023644504606 0 3809.0 -0.5293023644504606 1
gene  1 36 37 -0.037057563043112474 0 3815.0 -0.037057563043112474 1
gene  1 2 38 -0.38176829877552687 0 3886.0 -0.38176829877552687 1
gene  1 4 38 -0.8521421750816556 0 3888.0 -0.8521421750816556 1
gene  1 6 38 -0.7117511577052236 0 3890.0 -0.7117511577052236 1
gene  1 7 38 -0.6052409734202956 0 3891.0 -0.6052409734202956 1
gene  1 8 38 -0.6768875603303177 0 3892.0 -0.6768875603303177 1
gene  1 15 38 0.24694662693979785 0 3899.0 0.24694662693979785 1
gene  1 16 38 -0.8391633366147779 0 3900.0 -0.8391633366147779 1
gene  1 17 38 0.2808213512175116 0 3901.0 0.2808213512175116 1
gene  1 18 38 -0.41315266310900367 0 3902.0 -0.41315266310900367 1
gene  1 19 38 0.2761159533423052 0 3903.0 0.2761159533423052 1
gene  1 21 38 -0.5513660778024068 0 3905.0 -0.5513660778024068 1
gene  1 23 38 -0.7133421148559186 0 3907.0 -0.7133421148559186 1
gene  1 26 38 -0.3686402060938606 0 3910.0 -0.3686402060938606 1
gene  1 28 38 0.5180182728896977 0 3912.0 0.5180182728896977 1
gene  1 30 38 0.0877489799432033 0 3914.0 0.0877489799432033 1
gene  1 33 38 0.44022321902381034 0 3917.0 0.44022321902381034 1
gene  1 34 38 -0.27193555022482396 0 3918.0 -0.27193555022482396 1
gene  1 1 39 0.3420573367352677 0 3990.0 0.3420573367352677 1
gene  1 6 39 0.9212097776868319 0 3995.0 0.9212097776868319 1
gene  1 9 39 0.04173029077575452 0 3998.0 0.04173029077575452 1
gene  1 11 39 0.0732589370303256 0 4000.0 0.0732589370303256 1
gene  1 13 39 -0.8940155303623085 0 4002.0 -0.8940155303623085 1
gene  1 16 39 0.020142213160508682 0 4005.0 0.020142213160508682 1
gene  1 21 39 -0.6706502444985328 0 4010.0 -0.6706502444985328 1
gene  1 24 39 0.14378933932575122 0 4013.0 0.14378933932575122 1
gene  1 25 39 0.9730086941031594 0 4014.0 0.9730086941031594 1
gene  1 27 39 0.1540889321975264 0 4016.0 0.1540889321975264 1
gene  1 28 39 -0.8012842652475377 0 4017.0 -0.8012842652475377 1
gene  1 29 39 -0.6945115365208783 0 4018.0 -0.6945115365208783 1
gene  1 31 39 -0.7115074671061963 0 4020.0 -0.7115074671061963 1
gene  1 33 39 -0.7989896638869868 0 4022.0 -0.7989896638869868 1
gene  1 35 39 -0.0514670386379843 0 4024.0 -0.0514670386379843 1
gene  1 36 39 0.3565672276522217 0 4025.0 0.3565672276522217 1
gene  1 6 40 0.44525419990888737 0 4100.0 0.44525419990888737 1
gene  1 7 40 0.21369173396188668 0 4101.0 0.21369173396188668 1
gene  1 8 40 0.8302509839178129 0 4102.0 0.8302509839178129 1
gene  1 9 40 0.7627529382385424 0 4103.0 0.7627529382385424 1
gene  1 12 40 0.28146187187116445 0 4106.0 0.28146187187116445 1
gene  1 16 40 -0.9210598172436634 0 4110.0 -0.9210598172436634 1
gene  1 17 40 -0.8145689875131708 0 4111.0 -0.8145689875131708 1
gene  1 18 40 -0.7209261024956406 0 4112.0 -0.7209261024956406 1
gene  1 19 40 0.4080157658521275 0 4113.0 0.4080157658521275 1
gene  1 21 40 0.8895106009335493 0 4115.0 0.8895106009335493 1
gene  1 22 40 -0.4943996263520193 0 4116.0 -0.4943996263520193 1
gene  1 24 40 0.8904722924396635 0 4118.0 0.8904722924396635 1
gene  1 26 40 0.696993220093864 0 4120.0 0.696993220093864 1
gene  1 29 40 -0.16336239390035923 0 4123.0 -0.16336239390035923 1
gene  1 34 40 -0.303366874911414 0 4128.0 -0.303366874911414 1
gene  1 37 40 -0.8378506598606379 0 4131.0 -0.8378506598606379 1
gene  1 1 41 0.25301861437677886 0 4200.0 0.25301861437677886 1
gene  1 2 41 0.006662491637829615 0 4201.0 0.006662491637829615 1
gene  1 6 41 0.897853027413659 0 4205.0 0.897853027413659 1
gene  1 7 41 -0.641136712542022 0 4206.0 -0.641136712542022 1
gene  1 8 41 -0.14800847876864642 0 4207.0 -0.14800847876864642 1
gene  1 10 41 -0.013143764601333485 0 4209.0 -0.013143764601333485 1
gene  1 11 41 0.6120017774762309 0 4210.0 0.6120017774762309 1
gene  1 12 41 0.38037178919229364 0 4211.0 0.38037178919229364 1
gene  1 13 41 -0.12283650313772476 0 4212.0 -0.12283650313772476 1
gene  1 15 41 0.28705063978768564 0 4214.0 0.28705063978768564 1
gene  1 16 41 -0.8197273681230941 0 4215.0 -0.8197273681230941 1
gene  1 17 41 -0.543723164223003 0 4216.0 -0.543723164223003 1
gene  1 20 41 0.7743366406845085 0 4219.0 0.7743366406845085 1
gene  1 21 41 -0.14251928219041532 0 4220.0 -0.14251928219041532 1
gene  1 22 41 -0.12119020341697195 0 4221.0 -0.12119020341697195 1
gene  1 23 41 0.6116561033711305 0 4222.0 0.6116561033711305 1
gene  1 27 41 0.9807155689240178 0 4226.0 0.9807155689240178 1
gene  1 30 41 -0.7141319967097329 0 4229.0 -0.7141319967097329 1
gene  1 31 41 0.8551870985398076 0 4230.0 0.8551870985398076 1
gene  1 32 41 -0.4745874115967802 0 4231.0 -0.4745874115967802 1
gene  1 33 41 -0.6445915691840314 0 4232.0 -0.6445915691840314 1
gene  1 34 41 -0.06369795272208412 0 4233.0 -0.06369795272208412 1
gene  1 35 41 -0.2574511354415927 0 4234.0 -0.2574511354415927 1
gene  1 36 41 -0.3752757934658091 0 4235.0 -0.3752757934658091 1
gene  1 37 41 0.39211472222401644 0 4236.0 0.39211472222401644 1
gene  1 40 41 0.4381253493590733 0 4239.0 0.4381253493590733 1
gene  1 3 42 -0.6467489587652022 0 4307.0 -0.6467489587652022 1
gene  1 4 42 -0.3363274281079892 0 4308.0 -0.3363274281079892 1
gene  1 5 42 0.5974319727272812 0 4309.0 0.5974319727272812 1
gene  1 6 42 0.14470095892725598 0 4310.0 0.14470095892725598 1
gene  1 8 42 0.7565685362983988 0 4312.0 0.7565685362983988 1
gene  1 9 42 -0.48585102329976504 0 4313.0 -0.48585102329976504 1
gene  1 12 42 0.9894900260078503 0 4316.0 0.9894900260078503 1
gene  1 16 42 -0.41181498012694506 0 4320.0 -0.41181498012694506 1
gene  1 19 42 -0.842645368061686 0 4323.0 -0.842645368061686 1
gene  1 22 42 0.8900554419948893 0 4326.0 0.8900554419948893 1
gene  1 23 42 0.42504669659020067 0 4327.0 0.42504669659020067 1
gene  1 26 42 0.6781700777598991 0 4330.0 0.6781700777598991 1
gene  1 27 42 -0.5099938189051023 0 4331.0 -0.5099938189051023 1
gene  1 28 42 -0.8593897172452647 0 4332.0 -0.8593897172452647 1
gene  1 29 42 -0.006888701551035825 0 4333.0 -0.006888701551035825 1
gene  1 34 42 -0.06917526776679528 0 4338.0 -0.06917526776679528 1
gene  1 35 42 -0.5137840864848058 0 4339.0 -0.5137840864848058 1
gene  1 36 42 -0.7430019898526564 0 4340.0 -0.7430019898526564 1
gene  1 38 42 0.21560657158045204 0 4342.0 0.21560657158045204 1
gene  1 41 42 -0.6773081431280236 0 4345.0 -0.6773081431280236 1
gene  1 1 43 0.7144947096469966 0 4410.0 0.7144947096469966 1
gene  1 4 43 -0.8525326404692053 0 4413.0 -0.8525326404692053 1
gene  1 5 43 0.7797085090786238 0 4414.0 0.7797085090786238 1
gene  1 7 43 -0.44986187271029865 0 4416.0 -0.44986187271029865 1
gene  1 9 43 0.1993173967879004 0 4418.0 0.1993173967879004 1
gene  1 10 43 0.85763176665965 0 4419.0 0.85763176665965 1
gene  1 11 43 0.602089939236771 0 4420.0 0.602089939236771 1
gene  1 17 43 0.5231883106697313 0 4426.0 0.5231883106697313 1
gene  1 18 43 0.5307089191685114 0 4427.0 0.5307089191685114 1
gene  1 21 43 -0.12854427475328634 0 4430.0 -0.12854427475328634 1
gene  1 23 43 -0.7075164518757968 0 4432.0 -0.7075164518757968 1
gene  1 24 43 0.23218546244298532 0 4433.0 0.23218546244298532 1
gene  1 25 43 -0.5330611050609476 0 4434.0 -0.5330611050609476 1
gene  1 27 43 0.5314597679122127 0 4436.0 0.5314597679122127 1
gene  1 28 43 -0.18930058663794225 0 4437.0 -0.18930058663794225 1
gene  1 31 43 -0.5066145763738906 0 4440.0 -0.5066145763738906 1
gene  1 32 43 0.7853613960326313 0 4441.0 0.7853613960326313 1
gene  1 33 43 0.9352728106480034 0 4442.0 0.9352728106480034 1
gene  1 36 43 0.8741101785322415 0 4445.0 0.8741101785322415 1
gene  1 37 43 0.16550432836064644 0 4446.0 0.16550432836064644 1
gene  1 38 43 0.5289795837641528 0 4447.0 0.5289795837641528 1
gene  1 40 43 -0.5985137919797169 0 4449.0 -0.5985137919797169 1
gene  1 42 43 0.5490634104044445 0 4451.0 0.5490634104044445 1
gene  1 4 44 0.6954112203437123 0 4518.0 0.6954112203437123 1
gene  1 5 44 0.4247569069104361 0 4519.0 0.4247569069104361 1
gene  1 7 44 -0.9664355335894643 0 4521.0 -0.9664355335894643 1
gene  1 9 44 0.30904481276282425 0 4523.0 0.30904481276282425 1
gene  1 10 44 -0.39004227759772836 0 4524.0 -0.39004227759772836 1
gene  1 11 44 -0.07368026469815714 0 4525.0 -0.07368026469815714 1
gene  1 12 44 -0.6238970601387174 0 4526.0 -0.6238970601387174 1
gene  1 13 44 0.8854952562946008 0 4527.0 0.8854952562946008 1
gene  1 16 44 0.41446450003087143 0 4530.0 0.41446450003087143 1
gene  1 17 44 -0.4437601960935268 0 4531.0 -0.4437601960935268 1
gene  1 19 44 -0.9824687243905675 0 4533.0 -0.9824687243905675 1
gene  1 20 44 -0.7586360912879023 0 4534.0 -0.7586360912879023 1
gene  1 22 44 -0.0979590885038818 0 4536.0 -0.0979590885038818 1
gene  1 24 44 0.9873370478307476 0 4538.0 0.9873370478307476 1
gene  1 25 44 -0.10216272658944969 0 4539.0 -0.10216272658944969 1
gene  1 27 44 -0.7779134538548217 0 4541.0 -0.7779134538548217 1
gene  1 28 44 0.9510341262815368 0 4542.0 0.9510341262815368 1
gene  1 29 44 0.8748281249146909 0 4543.0 0.8748281249146909 1
gene  1 31 44 0.09081369969618036 0 4545.0 0.09081369969618036 1
gene  1 33 44 0.8119910946323492 0 4547.0 0.8119910946323492 1
gene  1 34 44 -0.9240702274600705 0 4548.0 -0.9240702274600705 1
gene  1 36 44 0.17168896192557226 0 4550.0 0.17168896192557226 1
gene  1 37 44 -0.12821969074495454 0 4551.0 -0.12821969074495454 1
gene  1 39 44 -0.3083585019620818 0 4553.0 -0.3083585019620818 1
gene  1 40 44 -0.8917990822658324 0 4554.0 -0.8917990822658324 1
gene  1 41 44 0.12575947472172644 0 4555.0 0.12575947472172644 1
gene  1 42 44 -0.027893605129492793 0 4556.0 -0.027893605129492793 1
gene  1 43 44 -0.29890541721598207 0 4557.0 -0.29890541721598207 1
gene  1 2 45 0.3579338797394045 0 4621.0 0.3579338797394045 1
gene  1 4 45 -0.8647368577952348 0 4623.0 -0.8647368577952348 1
gene  1 5 45 0.686246940555789 0 4624.0 0.686246940555789 1
gene  1 10 45 0.3738707717437262 0 4629.0 0.3738707717437262 1
gene  1 11 45 0.7607960803327862 0 4630.0 0.7607960803327862 1
gene  1 12 45 0.5026798117769339 0 4631.0 0.5026798117769339 1
gene  1 13 45 0.9461687896339475 0 4632.0 0.9461687896339475 1
gene  1 15 45 0.04150609360773527 0 4634.0 0.04150609360773527 1
gene  1 16 45 -0.34109277382822967 0 4635.0 -0.34109277382822967 1
gene  1 20 45 0.8664875307757033 0 4639.0 0.8664875307757033 1
gene  1 22 45 0.5976017528997078 0 4641.0 0.5976017528997078 1
gene  1 26 45 -0.07057648167014707 0 4645.0 -0.07057648167014707 1
gene  1 27 45 -0.3588549978803116 0 4646.0 -0.3588549978803116 1
gene  1 28 45 0.14638018398999686 0 4647.0 0.14638018398999686 1
gene  1 29 45 0.08954045440897929 0 4648.0 0.08954045440897929 1
gene  1 30 45 -0.3003074638720088 0 4649.0 -0.3003074638720088 1
gene  1 32 45 -0.054079055285445876 0 4651.0 -0.054079055285445876 1
gene  1 34 45 -0.7885710533598729 0 4653.0 -0.7885710533598729 1
gene  1 37 45 0.28296444184692493 0 4656.0 0.28296444184692493 1
gene  1 40 45 0.7173006631077722 0 4659.0 0.7173006631077722 1
gene  1 43 45 -0.4053311890359277 0 4662.0 -0.4053311890359277 1
gene  1 44 45 -0.8454802523975311 0 4663.0 -0.8454802523975311 1
gene  1 2 46 -0.3390062856211161 0 4726.0 -0.3390062856211161 1
gene  1 3 46 -0.6078872207220251 0 4727.0 -0.6078872207220251 1
gene  1 7 46 0.7073608046931953 0 4731.0 0.7073608046931953 1
gene  1 8 46 0.9127841906085141 0 4732.0 0.9127841906085141 1
gene  1 9 46 -0.8269705127271884 0 4733.0 -0.8269705127271884 1
gene  1 11 46 -0.36084005063557256 0 4735.0 -0.36084005063557256 1
gene  1 14 46 0.751879097866948 0 4738.0 0.751879097866948 1
gene  1 15 46 0.2689879352145961 0 4739.0 0.2689879352145961 1
gene  1 16 46 0.9278533124836658 0 4740.0 0.9278533124836658 1
gene  1 19 46 0.12967809649707573 0 4743.0 0.12967809649707573 1
gene  1 20 46 0.9287288137492478 0 4744.0 0.9287288137492478 1
gene  1 22 46 -0.11958837950604073 0 4746.0 -0.11958837950604073 1
gene  1 24 46 -0.3853386933692513 0 4748.0 -0.3853386933692513 1
gene  1 25 46 -0.47319270214860776 0 4749.0 -0.47319270214860776 1
gene  1 27 46 -0.5757077235831134 0 4751.0 -0.5757077235831134 1
gene  1 30 46 -0.08367872929964004 0 4754.0 -0.08367872929964004 1
gene  1 33 46 0.6618072285237581 0 4757.0 0.6618072285237581 1
gene  1 34 46 0.23141044606530314 0 4758.0 0.23141044606530314 1
gene  1 37 46 -0.08669264932635445 0 4761.0 -0.08669264932635445 1
gene  1 38 46 -0.5673183508170837 0 4762.0 -0.5673183508170837 1
gene  1 39 46 0.7450113422318824 0 4763.0 0.7450113422318824 1
gene  1 40 46 -0.012954558365485869 0 4764.0 -0.012954558365485869 1
gene  1 42 46 0.5662031540220916 0 4766.0 0.5662031540220916 1
gene  1 43 46 -0.1883205548491007 0 4767.0 -0.1883205548491007 1
gene  1 45 46 0.7344393588430848 0 4769.0 0.7344393588430848 1
gene  1 3 47 0.5665294270923836 0 4832.0 0.5665294270923836 1
gene  1 4 47 -0.6052758026730543 0 4833.0 -0.6052758026730543 1
gene  1 8 47 -0.36633351175140694 0 4837.0 -0.36633351175140694 1
gene  1 9 47 -0.8370811929216831 0 4838.0 -0.8370811929216831 1
gene  1 14 47 -0.07875816108443678 0 4843.0 -0.07875816108443678 1
gene  1 15 47 0.19399915361861053 0 4844.0 0.19399915361861053 1
gene  1 17 47 0.9071201164495799 0 4846.0 0.9071201164495799 1
gene  1 19 47 0.7017658368000017 0 4848.0 0.7017658368000017 1
gene  1 21 47 0.7244499111914722 0 4850.0 0.7244499111914722 1
gene  1 22 47 0.010169036813398313 0 4851.0 0.010169036813398313 1
gene  1 24 47 -0.39957044819626764 0 4853.0 -0.39957044819626764 1
gene  1 28 47 0.21028653749421822 0 4857.0 0.21028653749421822 1
gene  1 31 47 -0.03204211594182682 0 4860.0 -0.03204211594182682 1
gene  1 34 47 0.6955219226154 0 4863.0 0.6955219226154 1
gene  1 37 47 -0.43886951326358536 0 4866.0 -0.43886951326358536 1
gene  1 38 47 -0.37235580679600633 0 4867.0 -0.37235580679600633 1
gene  1 40 47 -0.3018014116823219 0 4869.0 -0.3018014116823219 1
gene  1 41 47 -0.09952263491010793 0 4870.0 -0.09952263491010793 1
gene  1 42 47 -0.6919324640139871 0 4871.0 -0.6919324640139871 1
gene  1 43 47 0.8996147636823445 0 4872.0 0.8996147636823445 1
gene  1 1 48 0.2096041566159651 0 4935.0 0.2096041566159651 1
gene  1 4 48 0.418730440141278 0 4938.0 0.418730440141278 1
gene  1 6 48 -0.15612287157487748 0 4940.0 -0.15612287157487748 1
gene  1 8 48 -0.2803989650235974 0 4942.0 -0.2803989650235974 1
gene  1 9 48 -0.17385376880510905 0 4943.0 -0.17385376880510905 1
gene  1 11 48 -0.25472721340475957 0 4945.0 -0.25472721340475957 1
gene  1 12 48 -0.3256774501553955 0 4946.0 -0.3256774501553955 1
gene  1 14 48 0.7700614947775442 0 4948.0 0.7700614947775442 1
gene  1 16 48 -0.1833048748124677 0 4950.0 -0.1833048748124677 1
gene  1 18 48 0.6572189222319249 0 4952.0 0.6572189222319249 1
gene  1 19 48 0.4903341258282209 0 4953.0 0.4903341258282209 1
gene  1 20 48 -0.039065058235908 0 4954.0 -0.039065058235908 1
gene  1 23 48 0.7521042668266829 0 4957.0 0.7521042668266829 1
gene  1 25 48 -0.4973543264472857 0 4959.0 -0.4973543264472857 1
gene  1 26 48 0.8374429043448351 0 4960.0 0.8374429043448351 1
gene  1 27 48 0.2798512532481857 0 4961.0 0.2798512532481857 1
gene  1 29 48 -0.9549531153490144 0 4963.0 -0.9549531153490144 1
gene  1 30 48 -0.050043909983434776 0 4964.0 -0.050043909983434776 1
gene  1 32 48 0.12423926120647344 0 4966.0 0.12423926120647344 1
gene  1 33 48 -0.2201206762555018 0 4967.0 -0.2201206762555018 1
gene  1 34 48 0.11654518500338396 0 4968.0 0.11654518500338396 1
gene  1 35 48 -0.4579975437084467 0 4969.0 -0.4579975437084467 1
gene  1 37 48 0.3147727881522939 0 4971.0 0.3147727881522939 1
gene  1 39 48 0.6904323020574932 0 4973.0 0.6904323020574932 1
gene  1 41 48 0.4988179515467859 0 4975.0 0.4988179515467859 1
gene  1 42 48 0.043582923918335736 0 4976.0 0.043582923918335736 1
gene  1 44 48 0.04186729533519529 0 4978.0 0.04186729533519529 1
gene  1 45 48 -0.473152273887514 0 4979.0 -0.473152273887514 1
gene  1 46 48 0.10742024763887026 0 4980.0 0.10742024763887026 1
gene  1 47 48 0.9510752060803066 0 4981.0 0.9510752060803066 1
gene  1 5 49 0.03598815221988472 0 5044.0 0.03598815221988472 1
gene  1 6 49 -0.052317328072219116 0 5045.0 -0.052317328072219116 1
gene  1 8 49 -0.6823765744738544 0 5047.0 -0.6823765744738544 1
gene  1 9 49 0.7994276820580858 0 5048.0 0.7994276820580858 1
gene  1 11 49 0.65941622426319 0 5050.0 0.65941622426319 1
gene  1 12 49 -0.3838759960191025 0 5051.0 -0.3838759960191025 1
gene  1 14 49 0.7513172791605439 0 5053.0 0.7513172791605439 1
gene  1 15 49 0.3467267440403 0 5054.0 0.3467267440403 1
gene  1 16 49 -0.46696919142799465 0 5055.0 -0.46696919142799465 1
gene  1 19 49 -0.8163482260648091 0 5058.0 -0.8163482260648091 1
gene  1 20 49 -0.8078210688724464 0 5059.0 -0.8078210688724464 1
gene  1 21 49 -0.28875964560633083 0 5060.0 -0.28875964560633083 1
gene  1 22 49 -0.7768314642100258 0 5061.0 -0.7768314642100258 1
gene  1 25 49 -0.07589884750738285 0 5064.0 -0.07589884750738285 1
gene  1 28 49 -0.7802337654259237 0 5067.0 -0.7802337654259237 1
gene  1 29 49 0.39675414909595497 0 5068.0 0.39675414909595497 1
gene  1 31 49 -0.7418937391148785 0 5070.0 -0.7418937391148785 1
gene  1 35 49 0.65922217307764 0 5074.0 0.65922217307764 1
gene  1 36 49 0.8225116820754987 0 5075.0 0.8225116820754987 1
gene  1 37 49 -0.13885130312297977 0 5076.0 -0.13885130312297977 1
gene  1 39 49 -0.4502761032857183 0 5078.0 -0.4502761032857183 1
gene  1 40 49 -0.7839276064356064 0 5079.0 -0.7839276064356064 1
gene  1 46 49 0.47979049714569255 0 5085.0 0.47979049714569255 1
gene  1 47 49 0.6061310804081167 0 5086.0 0.6061310804081167 1
gene  1 1 50 -0.4122034163874192 0 5145.0 -0.4122034163874192 1
gene  1 2 50 -0.07012305549516007 0 5146.0 -0.07012305549516007 1
gene  1 5 50 -0.6459773760878347 0 5149.0 -0.6459773760878347 1
gene  1 6 50 -0.09128190971520378 0 5150.0 -0.09128190971520378 1
gene  1 12 50 -0.089783612601392 0 5156.0 -0.089783612601392 1
gene  1 14 50 -0.5688055295565542 0 5158.0 -0.5688055295565542 1
gene  1 15 50 0.6740583499543135 0 5159.0 0.6740583499543135 1
gene  1 18 50 0.6449219014340891 0 5162.0 0.6449219014340891 1
gene  1 20 50 0.249044970777776 0 5164.0 0.249044970777776 1
gene  1 21 50 -0.42206086524990727 0 5165.0 -0.42206086524990727 1
gene  1 23 50 -0.05422956983720573 0 5167.0 -0.05422956983720573 1
gene  1 24 50 0.6941514365935926 0 5168.0 0.6941514365935926 1
gene  1 25 50 -0.13423558208299924 0 5169.0 -0.13423558208299924 1
gene  1 26 50 0.005888870272382052 0 5170.0 0.005888870272382052 1
gene  1 29 50 -0.3195014388305254 0 5173.0 -0.3195014388305254 1
gene  1 40 50 -0.6675236570929279 0 5184.0 -0.6675236570929279 1
gene  1 43 50 0.22916157267339632 0 5187.0 0.22916157267339632 1
gene  1 44 50 -0.6470289518403685 0 5188.0 -0.6470289518403685 1
gene  1 46 50 0.14906825839657567 0 5190.0 0.14906825839657567 1
gene  1 47 50 0.0820221375084268 0 5191.0 0.0820221375084268 1
gene  1 1 51 -0.5474080080534592 0 5250.0 -0.5474080080534592 1
gene  1 2 51 0.058158964489716025 0 5251.0 0.058158964489716025 1
gene  1 4 51 -0.939329531314879 0 5253.0 -0.939329531314879 1
gene  1 8 51 0.746964100614718 0 5257.0 0.746964100614718 1
gene  1 12 51 0.5226845740882524 0 5261.0 0.5226845740882524 1
gene  1 13 51 -0.2483471192273432 0 5262.0 -0.2483471192273432 1
gene  1 16 51 -0.6207239401596891 0 5265.0 -0.6207239401596891 1
gene  1 17 51 -0.39751212059247854 0 5266.0 -0.39751212059247854 1
gene  1 18 51 -0.1141819322383858 0 5267.0 -0.1141819322383858 1
gene  1 19 51 0.44409741284735704 0 5268.0 0.44409741284735704 1
gene  1 20 51 0.9820917175341369 0 5269.0 0.9820917175341369 1
gene  1 23 51 0.9415592400625841 0 5272.0 0.9415592400625841 1
gene  1 27 51 -0.3335036314973696 0 5276.0 -0.3335036314973696 1
gene  1 28 51 -0.21656647792193917 0 5277.0 -0.21656647792193917 1
gene  1 29 51 0.786593112348641 0 5278.0 0.786593112348641 1
gene  1 31 51 -0.5774110277020846 0 5280.0 -0.5774110277020846 1
gene  1 32 51 0.09511535658530945 0 5281.0 0.09511535658530945 1
gene  1 33 51 -0.6277356628503838 0 5282.0 -0.6277356628503838 1
gene  1 35 51 0.13463185581822024 0 5284.0 0.13463185581822024 1
gene  1 38 51 -0.7895540057720761 0 5287.0 -0.7895540057720761 1
gene  1 42 51 -0.8188689190727447 0 5291.0 -0.8188689190727447 1
gene  1 43 51 0.46706918114190676 0 5292.0 0.46706918114190676 1
gene  1 45 51 -0.7569889286995714 0 5294.0 -0.7569889286995714 1
gene  1 47 51 0.8638828038455355 0 5296.0 0.8638828038455355 1
gene  1 4 52 -0.22042488488672052 0 5358.0 -0.22042488488672052 1
gene  1 5 52 0.09442264409167767 0 5359.0 0.09442264409167767 1
gene  1 9 52 -0.6595657904051763 0 5363.0 -0.6595657904051763 1
gene  1 10 52 0.27444062942222114 0 5364.0 0.27444062942222114 1
gene  1 11 52 -0.03460618235260415 0 5365.0 -0.03460618235260415 1
gene  1 12 52 0.6880048802644112 0 5366.0 0.6880048802644112 1
gene  1 14 52 -0.04074250205370844 0 5368.0 -0.04074250205370844 1
gene  1 16 52 -0.5077660917343464 0 5370.0 -0.5077660917343464 1
gene  1 17 52 -0.271027396157575 0 5371.0 -0.271027396157575 1
gene  1 19 52 -0.8307366582264939 0 5373.0 -0.8307366582264939 1
gene  1 22 52 0.9612295355770091 0 5376.0 0.9612295355770091 1
gene  1 23 52 -0.5194683568164657 0 5377.0 -0.5194683568164657 1
gene  1 24 52 -0.9158018617117546 0 5378.0 -0.9158018617117546 1
gene  1 26 52 0.9764626357859254 0 5380.0 0.9764626357859254 1
gene  1 28 52 -0.45915490472454756 0 5382.0 -0.45915490472454756 1
gene  1 31 52 0.7061782360283684 0 5385.0 0.7061782360283684 1
gene  1 33 52 0.6046434015730683 0 5387.0 0.6046434015730683 1
gene  1 35 52 -0.9006012773503804 0 5389.0 -0.9006012773503804 1
gene  1 36 52 -0.8115861958274341 0 5390.0 -0.8115861958274341 1
gene  1 38 52 0.6544301219943147 0 5392.0 0.6544301219943147 1
gene  1 42 52 0.7100418970133766 0 5396.0 0.7100418970133766 1
gene  1 43 52 0.3487857514970283 0 5397.0 0.3487857514970283 1
gene  1 46 52 0.3862135764937271 0 5400.0 0.3862135764937271 1
gene  1 47 52 0.8605737367316153 0 5401.0 0.8605737367316153 1
gene  1 1 53 0.9390653513828935 0 5460.0 0.9390653513828935 1
gene  1 2 53 0.7020470416192544 0 5461.0 0.7020470416192544 1
gene  1 4 53 -0.9888687897443382 0 5463.0 -0.9888687897443382 1
gene  1 5 53 0.45113041231869644 0 5464.0 0.45113041231869644 1
gene  1 7 53 -0.031264631052636216 0 5466.0 -0.031264631052636216 1
gene  1 9 53 -0.13769379159773032 0 5468.0 -0.13769379159773032 1
gene  1 10 53 -0.07615081580338046 0 5469.0 -0.07615081580338046 1
gene  1 12 53 -0.7541038011529072 0 5471.0 -0.7541038011529072 1
gene  1 14 53 0.5025456680548196 0 5473.0 0.5025456680548196 1
gene  1 18 53 0.9001941750692176 0 5477.0 0.9001941750692176 1
gene  1 24 53 0.49677530821249005 0 5483.0 0.49677530821249005 1
gene  1 25 53 -0.44601004097998886 0 5484.0 -0.44601004097998886 1
gene  1 27 53 -0.7970145657802821 0 5486.0 -0.7970145657802821 1
gene  1 28 53 -0.43438467791247837 0 5487.0 -0.43438467791247837 1
gene  1 29 53 0.17633666178925367 0 5488.0 0.17633666178925367 1
gene  1 30 53 -0.22856875484505823 0 5489.0 -0.22856875484505823 1
gene  1 31 53 -0.3028611190969258 0 5490.0 -0.3028611190969258 1
gene  1 32 53 0.16191386914881656 0 5491.0 0.16191386914881656 1
gene  1 38 53 0.04082096728264173 0 5497.0 0.04082096728264173 1
gene  1 40 53 -0.35922369789660324 0 5499.0 -0.35922369789660324 1
gene  1 41 53 -0.7503606349012285 0 5500.0 -0.7503606349012285 1
gene  1 42 53 0.09804752030068908 0 5501.0 0.09804752030068908 1
gene  1 43 53 -0.4541619850973504 0 5502.0 -0.4541619850973504 1
gene  1 44 53 -0.3914500949259849 0 5503.0 -0.3914500949259849 1
gene  1 45 53 -0.7519611899771323 0 5504.0 -0.7519611899771323 1
gene  1 48 53 0.6662587791130624 0 5507.0 0.6662587791130624 1
gene  1 49 53 0.04099211332073194 0 5508.0 0.04099211332073194 1
gene  1 51 53 -0.6790356726286115 0 5510.0 -0.6790356726286115 1
gene  1 52 53 0.04996848525010944 0 5511.0 0.04996848525010944 1
gene  1 1 54 0.43822375250203727 0 5565.0 0.43822375250203727 1
gene  1 3 54 0.29098158837154753 0 5567.0 0.29098158837154753 1
gene  1 4 54 -0.3024549919495424 0 5568.0 -0.3024549919495424 1
gene  1 8 54 -0.21221016244010027 0 5572.0 -0.21221016244010027 1
gene  1 9 54 0.9321363152746444 0 5573.0 0.9321363152746444 1
gene  1 11 54 0.15613515743281636 0 5575.0 0.15613515743281636 1
gene  1 12 54 -0.3087204625444083 0 5576.0 -0.3087204625444083 1
gene  1 13 54 0.5377940620909748 0 5577.0 0.5377940620909748 1
gene  1 15 54 -0.47721331254613053 0 5579.0 -0.47721331254613053 1
gene  1 19 54 0.6143521391346358 0 5583.0 0.6143521391346358 1
gene  1 20 54 0.47670047623105927 0 5584.0 0.47670047623105927 1
gene  1 22 54 0.20308391778045598 0 5586.0 0.20308391778045598 1
gene  1 23 54 0.7908304931169394 0 5587.0 0.7908304931169394 1
gene  1 24 54 0.08555282390173002 0 5588.0 0.08555282390173002 1
gene  1 26 54 -0.1702248625388263 0 5590.0 -0.1702248625388263 1
gene  1 28 54 -0.7635908316024169 0 5592.0 -0.7635908316024169 1
gene  1 32 54 -0.7202293425290267 0 5596.0 -0.7202293425290267 1
gene  1 33 54 0.6517123912435066 0 5597.0 0.6517123912435066 1
gene  1 34 54 -0.398110734003716 0 5598.0 -0.398110734003716 1
gene  1 35 54 -0.02378433486631315 0 5599.0 -0.02378433486631315 1
gene  1 38 54 0.33586185802678725 0 5602.0 0.33586185802678725 1
gene  1 41 54 -0.2970691616912401 0 5605.0 -0.2970691616912401 1
gene  1 44 54 -0.624668158617568 0 5608.0 -0.624668158617568 1
gene  1 45 54 0.6589009097337284 0 5609.0 0.6589009097337284 1
gene  1 47 54 -0.6002630464150417 0 5611.0 -0.6002630464150417 1
gene  1 48 54 -0.19431832846509045 0 5612.0 -0.19431832846509045 1
gene  1 51 54 0.5617954011153667 0 5615.0 0.5617954011153667 1
gene  1 52 54 -0.40758488488933386 0 5616.0 -0.40758488488933386 1
gene  1 53 54 0.4063068946354954 0 5617.0 0.4063068946354954 1
gene  1 3 55 -0.30836412936792146 0 5672.0 -0.30836412936792146 1
gene  1 4 55 0.5043277977825656 0 5673.0 0.5043277977825656 1
gene  1 5 55 0.9104259998469387 0 5674.0 0.9104259998469387 1
gene  1 7 55 0.22262855075347032 0 5676.0 0.22262855075347032 1
gene  1 11 55 0.9596596063831055 0 5680.0 0.9596596063831055 1
gene  1 12 55 0.3581228597347397 0 5681.0 0.3581228597347397 1
gene  1 13 55 -0.5278240513130036 0 5682.0 -0.5278240513130036 1
gene  1 14 55 -0.6020819437428421 0 5683.0 -0.6020819437428421 1
gene  1 17 55 -0.21966706407774128 0 5686.0 -0.21966706407774128 1
gene  1 18 55 -0.4540782483876772 0 5687.0 -0.4540782483876772 1
gene  1 20 55 0.5836511122852129 0 5689.0 0.5836511122852129 1
gene  1 24 55 0.7109145505039993 0 5693.0 0.7109145505039993 1
gene  1 25 55 0.13374740731817947 0 5694.0 0.13374740731817947 1
gene  1 27 55 0.37389720237846635 0 5696.0 0.37389720237846635 1
gene  1 28 55 -0.22331315988135825 0 5697.0 -0.22331315988135825 1
gene  1 29 55 0.9908285989773714 0 5698.0 0.9908285989773714 1
gene  1 30 55 -0.3609377875338814 0 5699.0 -0.3609377875338814 1
gene  1 36 55 0.15232048986771773 0 5705.0 0.15232048986771773 1
gene  1 38 55 -0.39232035675943844 0 5707.0 -0.39232035675943844 1
gene  1 39 55 0.35157824527979564 0 5708.0 0.35157824527979564 1
gene  1 42 55 -0.26157836188816375 0 5711.0 -0.26157836188816375 1
gene  1 43 55 0.4174932308911833 0 5712.0 0.4174932308911833 1
gene  1 44 55 0.7025279310912855 0 5713.0 0.7025279310912855 1
gene  1 45 55 0.5459213871933841 0 5714.0 0.5459213871933841 1
gene  1 47 55 -0.1754530409120132 0 5716.0 -0.1754530409120132 1
gene  1 49 55 -0.8222606901329759 0 5718.0 -0.8222606901329759 1
gene  1 51 55 0.19784072120430118 0 5720.0 0.19784072120430118 1
gene  1 53 55 -0.8486744211973143 0 5722.0 -0.8486744211973143 1
gene  1 5 56 -0.33474298053070484 0 5779.0 -0.33474298053070484 1
gene  1 6 56 0.7749991007927195 0 5780.0 0.7749991007927195 1
gene  1 12 56 0.2213041405778572 0 5786.0 0.2213041405778572 1
gene  1 13 56 -0.953750376818811 0 5787.0 -0.953750376818811 1
gene  1 14 56 -0.8142552403764233 0 5788.0 -0.8142552403764233 1
gene  1 16 56 0.25396619253614783 0 5790.0 0.25396619253614783 1
gene  1 20 56 0.854916410301881 0 5794.0 0.854916410301881 1
gene  1 21 56 0.33322020889917225 0 5795.0 0.33322020889917225 1
gene  1 24 56 0.199561211244622 0 5798.0 0.199561211244622 1
gene  1 25 56 0.8733612718700461 0 5799.0 0.8733612718700461 1
gene  1 26 56 -0.3078591732683611 0 5800.0 -0.3078591732683611 1
gene  1 27 56 -0.7458147981284633 0 5801.0 -0.7458147981284633 1
gene  1 28 56 0.3622091178903084 0 5802.0 0.3622091178903084 1
gene  1 31 56 0.335947922391289 0 5805.0 0.335947922391289 1
gene  1 33 56 -0.39569270028037107 0 5807.0 -0.39569270028037107 1
gene  1 34 56 0.3234542429060737 0 5808.0 0.3234542429060737 1
gene  1 35 56 0.27729158072462723 0 5809.0 0.27729158072462723 1
gene  1 39 56 0.6642222526126967 0 5813.0 0.6642222526126967 1
gene  1 41 56 0.031813551170931986 0 5815.0 0.031813551170931986 1
gene  1 42 56 0.7472963847358675 0 5816.0 0.7472963847358675 1
gene  1 44 56 0.15645125242045 0 5818.0 0.15645125242045 1
gene  1 45 56 -0.8420880384447484 0 5819.0 -0.8420880384447484 1
gene  1 46 56 -0.7644149699144103 0 5820.0 -0.7644149699144103 1
gene  1 47 56 -0.6027565734709798 0 5821.0 -0.6027565734709798 1
gene  1 48 56 0.04987482373856822 0 5822.0 0.04987482373856822 1
gene  1 49 56 -0.6485863664236055 0 5823.0 -0.6485863664236055 1
gene  1 52 56 0.5804869753654158 0 5826.0 0.5804869753654158 1
gene  1 53 56 -0.5886639399506547 0 5827.0 -0.5886639399506547 1
gene  1 54 56 0.29180659763629213 0 5828.0 0.29180659763629213 1
gene  1 55 56 0.9355523028379744 0 5829.0 0.9355523028379744 1
gene  1 2 57 0.8780851587480341 0 5881.0 0.8780851587480341 1
gene  1 5 57 -0.9712533803034176 0 5884.0 -0.9712533803034176 1
gene  1 7 57 0.8203366636266505 0 5886.0 0.8203366636266505 1
gene  1 8 57 -0.5376445076453458 0 5887.0 -0.5376445076453458 1
gene  1 13 57 0.016096118174361074 0 5892.0 0.016096118174361074 1
gene  1 16 57 -0.500493297014059 0 5895.0 -0.500493297014059 1
gene  1 20 57 -0.1352848886273511 0 5899.0 -0.1352848886273511 1
gene  1 21 57 0.5358970318686711 0 5900.0 0.5358970318686711 1
gene  1 23 57 -0.6958242036174549 0 5902.0 -0.6958242036174549 1
gene  1 25 57 0.035138710235386394 0 5904.0 0.035138710235386394 1
gene  1 26 57 0.9063885778739393 0 5905.0 0.9063885778739393 1
gene  1 28 57 0.08903395619682941 0 5907.0 0.08903395619682941 1
gene  1 29 57 0.5415820996810238 0 5908.0 0.5415820996810238 1
gene  1 31 57 0.8040700342535799 0 5910.0 0.8040700342535799 1
gene  1 32 57 0.49305912628820936 0 5911.0 0.49305912628820936 1
gene  1 41 57 0.3489004255349375 0 5920.0 0.3489004255349375 1
gene  1 43 57 0.23062592253962066 0 5922.0 0.23062592253962066 1
gene  1 46 57 0.6245026328977661 0 5925.0 0.6245026328977661 1
gene  1 47 57 -0.6689293111697444 0 5926.0 -0.6689293111697444 1
gene  1 49 57 -0.670504660186172 0 5928.0 -0.670504660186172 1
gene  1 53 57 -0.9006476364902757 0 5932.0 -0.9006476364902757 1
gene  1 54 57 0.42147486259871036 0 5933.0 0.42147486259871036 1
gene  1 55 57 -0.9883671358646682 0 5934.0 -0.9883671358646682 1
gene  1 56 57 -0.9807188081342839 0 5935.0 -0.9807188081342839 1
gene  1 1 58 0.031914188663193954 0 5985.0 0.031914188663193954 1
gene  1 3 58 0.0759639427672042 0 5987.0 0.0759639427672042 1
gene  1 4 58 0.6140644186853004 0 5988.0 0.6140644186853004 1
gene  1 5 58 0.5844088570423489 0 5989.0 0.5844088570423489 1
gene  1 6 58 -0.679185188635909 0 5990.0 -0.679185188635909 1
gene  1 11 58 0.35873420912623033 0 5995.0 0.35873420912623033 1
gene  1 12 58 0.21756671251431525 0 5996.0 0.21756671251431525 1
gene  1 14 58 0.1487883549696748 0 5998.0 0.1487883549696748 1
gene  1 21 58 -0.6057917666058174 0 6005.0 -0.6057917666058174 1
gene  1 23 58 0.48066222644713896 0 6007.0 0.48066222644713896 1
gene  1 24 58 -0.2379243122246607 0 6008.0 -0.2379243122246607 1
gene  1 25 58 0.13662587454384645 0 6009.0 0.13662587454384645 1
gene  1 26 58 -0.2606291406088045 0 6010.0 -0.2606291406088045 1
gene  1 28 58 -0.46425195121630924 0 6012.0 -0.46425195121630924 1
gene  1 33 58 -0.35411331347047237 0 6017.0 -0.35411331347047237 1
gene  1 34 58 -0.5614631851622989 0 6018.0 -0.5614631851622989 1
gene  1 35 58 -0.5220958393229603 0 6019.0 -0.5220958393229603 1
gene  1 39 58 0.08117324601242415 0 6023.0 0.08117324601242415 1
gene  1 40 58 0.30797646439188076 0 6024.0 0.30797646439188076 1
gene  1 41 58 -0.8524797896224322 0 6025.0 -0.8524797896224322 1
gene  1 44 58 0.016866478963675102 0 6028.0 0.016866478963675102 1
gene  1 45 58 0.8321203657323292 0 6029.0 0.8321203657323292 1
gene  1 46 58 0.06651903259716918 0 6030.0 0.06651903259716918 1
gene  1 49 58 -0.566701357092598 0 6033.0 -0.566701357092598 1
gene  1 50 58 0.58335167804142 0 6034.0 0.58335167804142 1
gene  1 53 58 -0.30266788766389807 0 6037.0 -0.30266788766389807 1
gene  1 1 59 -0.89269042864523 0 6090.0 -0.89269042864523 1
gene  1 6 59 0.12990225372300546 0 6095.0 0.12990225372300546 1
gene  1 7 59 0.9891920039913 0 6096.0 0.9891920039913 1
gene  1 8 59 0.006041619980697632 0 6097.0 0.006041619980697632 1
gene  1 9 59 0.9063896589475634 0 6098.0 0.9063896589475634 1
gene  1 11 59 -0.16718005938964553 0 6100.0 -0.16718005938964553 1
gene  1 15 59 0.4004428309015554 0 6104.0 0.4004428309015554 1
gene  1 16 59 -0.42414424596353206 0 6105.0 -0.42414424596353206 1
gene  1 18 59 0.6633291197852429 0 6107.0 0.6633291197852429 1
gene  1 19 59 0.9765388265094732 0 6108.0 0.9765388265094732 1
gene  1 23 59 0.8303958812217952 0 6112.0 0.8303958812217952 1
gene  1 24 59 -0.6444739218353865 0 6113.0 -0.6444739218353865 1
gene  1 26 59 0.7064271636153904 0 6115.0 0.7064271636153904 1
gene  1 27 59 0.4650420242105662 0 6116.0 0.4650420242105662 1
gene  1 28 59 -0.03329221217627398 0 6117.0 -0.03329221217627398 1
gene  1 30 59 0.6348189460996337 0 6119.0 0.6348189460996337 1
gene  1 34 59 -0.7973035686295579 0 6123.0 -0.7973035686295579 1
gene  1 37 59 -0.3026919722173379 0 6126.0 -0.3026919722173379 1
gene  1 38 59 0.13942259969795656 0 6127.0 0.13942259969795656 1
gene  1 39 59 -0.5312489441394619 0 6128.0 -0.5312489441394619 1
gene  1 40 59 -0.0058221970480283325 0 6129.0 -0.0058221970480283325 1
gene  1 42 59 -0.03404551498834085 0 6131.0 -0.03404551498834085 1
gene  1 45 59 0.012075440817959193 0 6134.0 0.012075440817959193 1
gene  1 46 59 0.1787727206679114 0 6135.0 0.1787727206679114 1
gene  1 47 59 0.21194241276476056 0 6136.0 0.21194241276476056 1
gene  1 50 59 0.53593928290786 0 6139.0 0.53593928290786 1
gene  1 51 59 -0.524142052095737 0 6140.0 -0.524142052095737 1
gene  1 52 59 -0.7582903118979099 0 6141.0 -0.7582903118979099 1
gene  1 53 59 0.09175207091289428 0 6142.0 0.09175207091289428 1
gene  1 55 59 0.12021020258152915 0 6144.0 0.12021020258152915 1
gene  1 57 59 -0.055464363522432 0 6146.0 -0.055464363522432 1
gene  1 2 60 -0.4677019488892049 0 6196.0 -0.4677019488892049 1
gene  1 5 60 -0.8506915931245241 0 6199.0 -0.8506915931245241 1
gene  1 7 60 0.08596100853795008 0 6201.0 0.08596100853795008 1
gene  1 9 60 0.7756253676621764 0 6203.0 0.7756253676621764 1
gene  1 11 60 0.5681955679574338 0 6205.0 0.5681955679574338 1
gene  1 21 60 0.9107371814257248 0 6215.0 0.9107371814257248 1
gene  1 24 60 0.9441218998156086 0 6218.0 0.9441218998156086 1
gene  1 27 60 -0.1471248438870184 0 6221.0 -0.1471248438870184 1
gene  1 28 60 0.43713683516904833 0 6222.0 0.43713683516904833 1
gene  1 29 60 0.3306735572824412 0 6223.0 0.3306735572824412 1
gene  1 31 60 -0.4195560884848595 0 6225.0 -0.4195560884848595 1
gene  1 33 60 -0.42891907579322497 0 6227.0 -0.42891907579322497 1
gene  1 34 60 -0.7243268737887794 0 6228.0 -0.7243268737887794 1
gene  1 35 60 -0.8623990142359493 0 6229.0 -0.8623990142359493 1
gene  1 37 60 -0.7188791485594274 0 6231.0 -0.7188791485594274 1
gene  1 38 60 0.32017012549630897 0 6232.0 0.32017012549630897 1
gene  1 42 60 0.035743709891911446 0 6236.0 0.035743709891911446 1
gene  1 43 60 0.441199603935571 0 6237.0 0.441199603935571 1
gene  1 44 60 -0.20602109959477766 0 6238.0 -0.20602109959477766 1
gene  1 48 60 -0.7206630930358469 0 6242.0 -0.7206630930358469 1
gene  1 50 60 0.37468847352350776 0 6244.0 0.37468847352350776 1
gene  1 51 60 0.34070150768986773 0 6245.0 0.34070150768986773 1
gene  1 54 60 -0.30723550604549976 0 6248.0 -0.30723550604549976 1
gene  1 55 60 -0.5314968049933415 0 6249.0 -0.5314968049933415 1
gene  1 58 60 0.5703374824381962 0 6252.0 0.5703374824381962 1
gene  1 2 61 0.7572430344281769 0 6301.0 0.7572430344281769 1
gene  1 5 61 0.16201227919209582 0 6304.0 0.16201227919209582 1
gene  1 6 61 -0.5329998811904116 0 6305.0 -0.5329998811904116 1
gene  1 10 61 0.19325197937550964 0 6309.0 0.19325197937550964 1
gene  1 11 61 -0.8340462657832992 0 6310.0 -0.8340462657832992 1
gene  1 13 61 -0.7198107335383859 0 6312.0 -0.7198107335383859 1
gene  1 17 61 -0.3839078851353822 0 6316.0 -0.3839078851353822 1
gene  1 18 61 -0.6809875694814518 0 6317.0 -0.6809875694814518 1
gene  1 21 61 -4.431260931447856E-5 0 6320.0 -4.431260931447856E-5 1
gene  1 24 61 0.8627056172799107 0 6323.0 0.8627056172799107 1
gene  1 26 61 0.33607287592943513 0 6325.0 0.33607287592943513 1
gene  1 27 61 -0.11852287132362216 0 6326.0 -0.11852287132362216 1
gene  1 29 61 0.4356320666623197 0 6328.0 0.4356320666623197 1
gene  1 31 61 -0.9033156610703317 0 6330.0 -0.9033156610703317 1
gene  1 34 61 0.17365335844604712 0 6333.0 0.17365335844604712 1
gene  1 38 61 -0.9911088064340252 0 6337.0 -0.9911088064340252 1
gene  1 39 61 0.7389345152919226 0 6338.0 0.7389345152919226 1
gene  1 40 61 -0.8925153708937749 0 6339.0 -0.8925153708937749 1
gene  1 41 61 0.40801473535548316 0 6340.0 0.40801473535548316 1
gene  1 46 61 -0.2640251507941147 0 6345.0 -0.2640251507941147 1
gene  1 47 61 0.7492771331863355 0 6346.0 0.7492771331863355 1
gene  1 49 61 0.4835543396121873 0 6348.0 0.4835543396121873 1
gene  1 50 61 0.8044952514113097 0 6349.0 0.8044952514113097 1
gene  1 51 61 0.9666864661476783 0 6350.0 0.9666864661476783 1
gene  1 53 61 -0.5841263163992243 0 6352.0 -0.5841263163992243 1
gene  1 57 61 -0.2838272799432421 0 6356.0 -0.2838272799432421 1
gene  1 58 61 0.7216769024448682 0 6357.0 0.7216769024448682 1
gene  1 59 61 0.5490129711364309 0 6358.0 0.5490129711364309 1
gene  1 60 61 -0.4034426080351182 0 6359.0 -0.4034426080351182 1
gene  1 1 62 0.3125390975901956 0 6405.0 0.3125390975901956 1
gene  1 3 62 0.5166314246561734 0 6407.0 0.5166314246561734 1
gene  1 5 62 0.2267923315019782 0 6409.0 0.2267923315019782 1
gene  1 6 62 0.1696367310693725 0 6410.0 0.1696367310693725 1
gene  1 11 62 0.23614714192452413 0 6415.0 0.23614714192452413 1
gene  1 12 62 0.8414538134515983 0 6416.0 0.8414538134515983 1
gene  1 13 62 -0.2901018483099431 0 6417.0 -0.2901018483099431 1
gene  1 15 62 0.707484001039532 0 6419.0 0.707484001039532 1
gene  1 17 62 -0.8223726312765066 0 6421.0 -0.8223726312765066 1
gene  1 18 62 -0.12978794926895565 0 6422.0 -0.12978794926895565 1
gene  1 19 62 -0.4743066632170311 0 6423.0 -0.4743066632170311 1
gene  1 20 62 0.9686691113499039 0 6424.0 0.9686691113499039 1
gene  1 21 62 0.620761317152921 0 6425.0 0.620761317152921 1
gene  1 23 62 0.9714065494791692 0 6427.0 0.9714065494791692 1
gene  1 25 62 -0.4056441869172246 0 6429.0 -0.4056441869172246 1
gene  1 26 62 0.3991970161756139 0 6430.0 0.3991970161756139 1
gene  1 29 62 -0.3106232073131736 0 6433.0 -0.3106232073131736 1
gene  1 31 62 -0.5945169459748164 0 6435.0 -0.5945169459748164 1
gene  1 32 62 0.36126870719563076 0 6436.0 0.36126870719563076 1
gene  1 34 62 -0.32069671090518115 0 6438.0 -0.32069671090518115 1
gene  1 37 62 -0.7574511004830617 0 6441.0 -0.7574511004830617 1
gene  1 39 62 0.937492476217328 0 6443.0 0.937492476217328 1
gene  1 42 62 -0.01455673861742901 0 6446.0 -0.01455673861742901 1
gene  1 43 62 -0.94151292951271 0 6447.0 -0.94151292951271 1
gene  1 45 62 0.3727381670870604 0 6449.0 0.3727381670870604 1
gene  1 49 62 -0.08421381757744884 0 6453.0 -0.08421381757744884 1
gene  1 50 62 0.967535947921497 0 6454.0 0.967535947921497 1
gene  1 55 62 -0.9801534974468618 0 6459.0 -0.9801534974468618 1
gene  1 56 62 0.39999775456186104 0 6460.0 0.39999775456186104 1
gene  1 59 62 0.37205858301952976 0 6463.0 0.37205858301952976 1
gene  1 61 62 0.0599409291073999 0 6465.0 0.0599409291073999 1
gene  1 1 63 -0.4287376651332999 0 6510.0 -0.4287376651332999 1
gene  1 2 63 -0.7566118758211623 0 6511.0 -0.7566118758211623 1
gene  1 4 63 -0.6425931719588388 0 6513.0 -0.6425931719588388 1
gene  1 8 63 0.15444072369977713 0 6517.0 0.15444072369977713 1
gene  1 12 63 0.02105254509436172 0 6521.0 0.02105254509436172 1
gene  1 14 63 -0.7861607691037915 0 6523.0 -0.7861607691037915 1
gene  1 16 63 -0.6978581730701099 0 6525.0 -0.6978581730701099 1
gene  1 17 63 -0.15521910714038079 0 6526.0 -0.15521910714038079 1
gene  1 23 63 -0.8590179930519225 0 6532.0 -0.8590179930519225 1
gene  1 25 63 -0.9427444910865705 0 6534.0 -0.9427444910865705 1
gene  1 26 63 -0.5273404462652167 0 6535.0 -0.5273404462652167 1
gene  1 29 63 -0.8568898555503327 0 6538.0 -0.8568898555503327 1
gene  1 33 63 -0.050016019602792894 0 6542.0 -0.050016019602792894 1
gene  1 34 63 -0.9955069364616833 0 6543.0 -0.9955069364616833 1
gene  1 35 63 0.6817022133757884 0 6544.0 0.6817022133757884 1
gene  1 36 63 0.13664312825310299 0 6545.0 0.13664312825310299 1
gene  1 40 63 -0.3197575385288709 0 6549.0 -0.3197575385288709 1
gene  1 42 63 0.7504978532012313 0 6551.0 0.7504978532012313 1
gene  1 46 63 -0.8603822943004054 0 6555.0 -0.8603822943004054 1
gene  1 48 63 0.3978613461672188 0 6557.0 0.3978613461672188 1
gene  1 51 63 0.3921148333655903 0 6560.0 0.3921148333655903 1
gene  1 52 63 0.7149131589700857 0 6561.0 0.7149131589700857 1
gene  1 53 63 -0.34445741576637046 0 6562.0 -0.34445741576637046 1
gene  1 56 63 0.8109142753348189 0 6565.0 0.8109142753348189 1
gene  1 58 63 0.5164935028197538 0 6567.0 0.5164935028197538 1
gene  1 59 63 0.23677570516659674 0 6568.0 0.23677570516659674 1
gene  1 60 63 -0.008695170450154777 0 6569.0 -0.008695170450154777 1
gene  1 61 63 0.14850986257426912 0 6570.0 0.14850986257426912 1
gene  1 1 64 0.21958053901151442 0 6615.0 0.21958053901151442 1
gene  1 2 64 -0.8367615579645754 0 6616.0 -0.8367615579645754 1
gene  1 3 64 0.8744559086320234 0 6617.0 0.8744559086320234 1
gene  1 5 64 0.11028600844879533 0 6619.0 0.11028600844879533 1
gene  1 8 64 -0.053285176260363665 0 6622.0 -0.053285176260363665 1
gene  1 11 64 -0.08802529094218847 0 6625.0 -0.08802529094218847 1
gene  1 12 64 -0.2767987115099002 0 6626.0 -0.2767987115099002 1
gene  1 13 64 0.31510038589607403 0 6627.0 0.31510038589607403 1
gene  1 20 64 0.49286535584665825 0 6634.0 0.49286535584665825 1
gene  1 21 64 -0.10879036514567741 0 6635.0 -0.10879036514567741 1
gene  1 22 64 -0.8954818524225368 0 6636.0 -0.8954818524225368 1
gene  1 27 64 -0.3099048132158543 0 6641.0 -0.3099048132158543 1
gene  1 34 64 -0.9439535268498247 0 6648.0 -0.9439535268498247 1
gene  1 35 64 -0.6097778865056558 0 6649.0 -0.6097778865056558 1
gene  1 37 64 -0.9930563964211292 0 6651.0 -0.9930563964211292 1
gene  1 39 64 -0.3107472430374667 0 6653.0 -0.3107472430374667 1
gene  1 42 64 0.07669122846328646 0 6656.0 0.07669122846328646 1
gene  1 43 64 0.31725928714154106 0 6657.0 0.31725928714154106 1
gene  1 44 64 -0.9883524093882677 0 6658.0 -0.9883524093882677 1
gene  1 47 64 0.12327599371904652 0 6661.0 0.12327599371904652 1
gene  1 49 64 0.9985506792214981 0 6663.0 0.9985506792214981 1
gene  1 52 64 -0.29001618362944304 0 6666.0 -0.29001618362944304 1
gene  1 54 64 0.9166329522251275 0 6668.0 0.9166329522251275 1
gene  1 56 64 -0.06544393663919568 0 6670.0 -0.06544393663919568 1
gene  1 58 64 0.48064180606083495 0 6672.0 0.48064180606083495 1
gene  1 59 64 -0.21653410997333955 0 6673.0 -0.21653410997333955 1
gene  1 60 64 0.7567121476009114 0 6674.0 0.7567121476009114 1
gene  1 3 65 0.3716250132298473 0 6722.0 0.3716250132298473 1
gene  1 5 65 0.9882268888191986 0 6724.0 0.9882268888191986 1
gene  1 8 65 -0.7534764481072305 0 6727.0 -0.7534764481072305 1
gene  1 9 65 0.08043468670932963 0 6728.0 0.08043468670932963 1
gene  1 11 65 0.7421262713366182 0 6730.0 0.7421262713366182 1
gene  1 12 65 0.3545162277136953 0 6731.0 0.3545162277136953 1
gene  1 13 65 0.6183896290371326 0 6732.0 0.6183896290371326 1
gene  1 14 65 0.9630110323385691 0 6733.0 0.9630110323385691 1
gene  1 15 65 0.5215573478106884 0 6734.0 0.5215573478106884 1
gene  1 16 65 -0.8442019755281064 0 6735.0 -0.8442019755281064 1
gene  1 19 65 -0.7335643980919029 0 6738.0 -0.7335643980919029 1
gene  1 20 65 0.7175847533031878 0 6739.0 0.7175847533031878 1
gene  1 21 65 -0.6595199033998724 0 6740.0 -0.6595199033998724 1
gene  1 22 65 0.14307725021425288 0 6741.0 0.14307725021425288 1
gene  1 23 65 -0.723275979452757 0 6742.0 -0.723275979452757 1
gene  1 25 65 0.33973833318618496 0 6744.0 0.33973833318618496 1
gene  1 26 65 -0.7028027509694659 0 6745.0 -0.7028027509694659 1
gene  1 27 65 -0.5928367837419986 0 6746.0 -0.5928367837419986 1
gene  1 28 65 -0.4668829332389558 0 6747.0 -0.4668829332389558 1
gene  1 30 65 0.7949627802713441 0 6749.0 0.7949627802713441 1
gene  1 32 65 -0.7742805625400159 0 6751.0 -0.7742805625400159 1
gene  1 36 65 0.17299015564228093 0 6755.0 0.17299015564228093 1
gene  1 37 65 0.9134886872060474 0 6756.0 0.9134886872060474 1
gene  1 39 65 -0.6038357579104633 0 6758.0 -0.6038357579104633 1
gene  1 44 65 -0.8539626465754744 0 6763.0 -0.8539626465754744 1
gene  1 45 65 -0.268839974328538 0 6764.0 -0.268839974328538 1
gene  1 46 65 0.6624413638101232 0 6765.0 0.6624413638101232 1
gene  1 47 65 0.8970644333266411 0 6766.0 0.8970644333266411 1
gene  1 48 65 0.8454435210374018 0 6767.0 0.8454435210374018 1
gene  1 50 65 -0.9066632489806268 0 6769.0 -0.9066632489806268 1
gene  1 51 65 -0.8346276210532253 0 6770.0 -0.8346276210532253 1
gene  1 52 65 -0.9688152687013316 0 6771.0 -0.9688152687013316 1
gene  1 54 65 -0.39906220630346223 0 6773.0 -0.39906220630346223 1
gene  1 57 65 0.6824336161710254 0 6776.0 0.6824336161710254 1
gene  1 58 65 -0.9134352449390373 0 6777.0 -0.9134352449390373 1
gene  1 63 65 -0.7669128334614455 0 6782.0 -0.7669128334614455 1
gene  1 64 65 0.39345633022352844 0 6783.0 0.39345633022352844 1
gene  1 1 66 0.153364827051795 0 6825.0 0.153364827051795 1
gene  1 2 66 0.6669258695724521 0 6826.0 0.6669258695724521 1
gene  1 5 66 0.059457928741767585 0 6829.0 0.059457928741767585 1
gene  1 8 66 0.3313411991276376 0 6832.0 0.3313411991276376 1
gene  1 10 66 -0.6438411773945776 0 6834.0 -0.6438411773945776 1
gene  1 14 66 0.10405665275402709 0 6838.0 0.10405665275402709 1
gene  1 15 66 0.7179809459216399 0 6839.0 0.7179809459216399 1
gene  1 16 66 -0.7740768382372231 0 6840.0 -0.7740768382372231 1
gene  1 19 66 0.6774051346800639 0 6843.0 0.6774051346800639 1
gene  1 20 66 -0.031974683403784954 0 6844.0 -0.031974683403784954 1
gene  1 24 66 0.5880723600764042 0 6848.0 0.5880723600764042 1
gene  1 25 66 -0.7731012798461459 0 6849.0 -0.7731012798461459 1
gene  1 27 66 -0.06974961061481821 0 6851.0 -0.06974961061481821 1
gene  1 30 66 0.01711480884176997 0 6854.0 0.01711480884176997 1
gene  1 31 66 0.38205994605624827 0 6855.0 0.38205994605624827 1
gene  1 35 66 -0.11417636042688428 0 6859.0 -0.11417636042688428 1
gene  1 36 66 0.8863364975041413 0 6860.0 0.8863364975041413 1
gene  1 41 66 0.9930657993766435 0 6865.0 0.9930657993766435 1
gene  1 45 66 0.4491424640016932 0 6869.0 0.4491424640016932 1
gene  1 49 66 -0.991558926738425 0 6873.0 -0.991558926738425 1
gene  1 55 66 0.31143678435069766 0 6879.0 0.31143678435069766 1
gene  1 56 66 -0.9703176491192856 0 6880.0 -0.9703176491192856 1
gene  1 57 66 0.8527355076504839 0 6881.0 0.8527355076504839 1
gene  1 58 66 0.5019955053756526 0 6882.0 0.5019955053756526 1
gene  1 59 66 0.11903837260769656 0 6883.0 0.11903837260769656 1
gene  1 61 66 0.08881796910430095 0 6885.0 0.08881796910430095 1
gene  1 65 66 0.030795855144005735 0 6889.0 0.030795855144005735 1
gene  1 1 67 -0.4805375583179796 0 6930.0 -0.4805375583179796 1
gene  1 4 67 0.05304452246326585 0 6933.0 0.05304452246326585 1
gene  1 5 67 -0.8998846183341498 0 6934.0 -0.8998846183341498 1
gene  1 8 67 -0.22261060818651623 0 6937.0 -0.22261060818651623 1
gene  1 10 67 0.6886582060357241 0 6939.0 0.6886582060357241 1
gene  1 11 67 -0.4842184401515016 0 6940.0 -0.4842184401515016 1
gene  1 12 67 -0.28994972387906937 0 6941.0 -0.28994972387906937 1
gene  1 13 67 0.5268760065502492 0 6942.0 0.5268760065502492 1
gene  1 14 67 0.06646374859677617 0 6943.0 0.06646374859677617 1
gene  1 18 67 0.2310167052759895 0 6947.0 0.2310167052759895 1
gene  1 20 67 -0.8697319767149323 0 6949.0 -0.8697319767149323 1
gene  1 23 67 0.7946395499547272 0 6952.0 0.7946395499547272 1
gene  1 24 67 -0.6407569535926189 0 6953.0 -0.6407569535926189 1
gene  1 29 67 -0.22427470057457066 0 6958.0 -0.22427470057457066 1
gene  1 30 67 -0.18800576736461083 0 6959.0 -0.18800576736461083 1
gene  1 31 67 -0.8625026041046341 0 6960.0 -0.8625026041046341 1
gene  1 33 67 0.06451641785311857 0 6962.0 0.06451641785311857 1
gene  1 35 67 0.622010380731021 0 6964.0 0.622010380731021 1
gene  1 36 67 -0.5127917571529909 0 6965.0 -0.5127917571529909 1
gene  1 38 67 -0.8739149461747635 0 6967.0 -0.8739149461747635 1
gene  1 41 67 -0.5855806758643034 0 6970.0 -0.5855806758643034 1
gene  1 46 67 0.19762784106037223 0 6975.0 0.19762784106037223 1
gene  1 47 67 -0.6125397039380615 0 6976.0 -0.6125397039380615 1
gene  1 51 67 0.5188561091086158 0 6980.0 0.5188561091086158 1
gene  1 54 67 0.2969098865406756 0 6983.0 0.2969098865406756 1
gene  1 55 67 0.036627687899948635 0 6984.0 0.036627687899948635 1
gene  1 57 67 -0.4080960574568532 0 6986.0 -0.4080960574568532 1
gene  1 58 67 0.015975793053744303 0 6987.0 0.015975793053744303 1
gene  1 60 67 -0.7110635792739225 0 6989.0 -0.7110635792739225 1
gene  1 61 67 0.2845468636578117 0 6990.0 0.2845468636578117 1
gene  1 62 67 0.2297010388809283 0 6991.0 0.2297010388809283 1
gene  1 63 67 0.059524325941995526 0 6992.0 0.059524325941995526 1
gene  1 64 67 -0.2901750368489334 0 6993.0 -0.2901750368489334 1
gene  1 5 68 -0.4401048367809862 0 7039.0 -0.4401048367809862 1
gene  1 8 68 0.8630782962804787 0 7042.0 0.8630782962804787 1
gene  1 13 68 -0.9211811721654308 0 7047.0 -0.9211811721654308 1
gene  1 14 68 0.4217922047006917 0 7048.0 0.4217922047006917 1
gene  1 15 68 0.3271555115132091 0 7049.0 0.3271555115132091 1
gene  1 19 68 -0.5003697504714324 0 7053.0 -0.5003697504714324 1
gene  1 21 68 0.5211000030943282 0 7055.0 0.5211000030943282 1
gene  1 25 68 -0.19193516024008994 0 7059.0 -0.19193516024008994 1
gene  1 32 68 -0.798633771960781 0 7066.0 -0.798633771960781 1
gene  1 34 68 0.005114191426047743 0 7068.0 0.005114191426047743 1
gene  1 35 68 0.8219210199115304 0 7069.0 0.8219210199115304 1
gene  1 36 68 0.010414671079129634 0 7070.0 0.010414671079129634 1
gene  1 37 68 0.6137205115626321 0 7071.0 0.6137205115626321 1
gene  1 40 68 0.6699272333921089 0 7074.0 0.6699272333921089 1
gene  1 49 68 0.03482053142400343 0 7083.0 0.03482053142400343 1
gene  1 50 68 -0.8900563171952673 0 7084.0 -0.8900563171952673 1
gene  1 52 68 0.02128120679931489 0 7086.0 0.02128120679931489 1
gene  1 58 68 0.48964424220395986 0 7092.0 0.48964424220395986 1
gene  1 60 68 0.21041146572356884 0 7094.0 0.21041146572356884 1
gene  1 62 68 0.7805547837085797 0 7096.0 0.7805547837085797 1
gene  1 66 68 0.9104872920266989 0 7100.0 0.9104872920266989 1
gene  1 1 69 0.2244472430723533 0 7140.0 0.2244472430723533 1
gene  1 2 69 0.09389169121549934 0 7141.0 0.09389169121549934 1
gene  1 4 69 0.478184677485437 0 7143.0 0.478184677485437 1
gene  1 6 69 -0.03250830029914942 0 7145.0 -0.03250830029914942 1
gene  1 7 69 -0.5042913456817832 0 7146.0 -0.5042913456817832 1
gene  1 9 69 0.09954953444115733 0 7148.0 0.09954953444115733 1
gene  1 10 69 -0.05284085017881712 0 7149.0 -0.05284085017881712 1
gene  1 11 69 -0.6312422618577167 0 7150.0 -0.6312422618577167 1
gene  1 12 69 0.47953641977554795 0 7151.0 0.47953641977554795 1
gene  1 13 69 -0.7727395832538136 0 7152.0 -0.7727395832538136 1
gene  1 14 69 -0.5915659266849255 0 7153.0 -0.5915659266849255 1
gene  1 16 69 0.7690844022045855 0 7155.0 0.7690844022045855 1
gene  1 19 69 -0.08920612792409077 0 7158.0 -0.08920612792409077 1
gene  1 23 69 -0.6977776848382283 0 7162.0 -0.6977776848382283 1
gene  1 25 69 -0.09991734292134447 0 7164.0 -0.09991734292134447 1
gene  1 26 69 -0.9154457881323832 0 7165.0 -0.9154457881323832 1
gene  1 27 69 -0.6682486850309547 0 7166.0 -0.6682486850309547 1
gene  1 28 69 0.9397862278528891 0 7167.0 0.9397862278528891 1
gene  1 29 69 0.2356750134142409 0 7168.0 0.2356750134142409 1
gene  1 30 69 0.7477258557182181 0 7169.0 0.7477258557182181 1
gene  1 34 69 0.10344363250660726 0 7173.0 0.10344363250660726 1
gene  1 37 69 -0.4111359342137261 0 7176.0 -0.4111359342137261 1
gene  1 39 69 -0.8893148576948248 0 7178.0 -0.8893148576948248 1
gene  1 41 69 0.16019245923364778 0 7180.0 0.16019245923364778 1
gene  1 43 69 -0.0634435910817015 0 7182.0 -0.0634435910817015 1
gene  1 47 69 -0.08444581303861354 0 7186.0 -0.08444581303861354 1
gene  1 49 69 0.5475669308297246 0 7188.0 0.5475669308297246 1
gene  1 52 69 0.7960813051491717 0 7191.0 0.7960813051491717 1
gene  1 54 69 -0.4454953782625646 0 7193.0 -0.4454953782625646 1
gene  1 55 69 -0.46165572472455696 0 7194.0 -0.46165572472455696 1
gene  1 56 69 0.5648122875742262 0 7195.0 0.5648122875742262 1
gene  1 59 69 0.9194214095162037 0 7198.0 0.9194214095162037 1
gene  1 60 69 -0.30765355471516154 0 7199.0 -0.30765355471516154 1
gene  1 63 69 -0.8018899059723058 0 7202.0 -0.8018899059723058 1
gene  1 64 69 0.4659924099897904 0 7203.0 0.4659924099897904 1
gene  1 68 69 -0.5797231967207224 0 7207.0 -0.5797231967207224 1
gene  1 1 70 -0.38317032737501433 0 7245.0 -0.38317032737501433 1
gene  1 5 70 -0.13097577205930233 0 7249.0 -0.13097577205930233 1
gene  1 6 70 0.867432199236914 0 7250.0 0.867432199236914 1
gene  1 8 70 -0.04571146268254922 0 7252.0 -0.04571146268254922 1
gene  1 11 70 0.2299708020152591 0 7255.0 0.2299708020152591 1
gene  1 14 70 0.24573234700387148 0 7258.0 0.24573234700387148 1
gene  1 15 70 0.5412050257179237 0 7259.0 0.5412050257179237 1
gene  1 17 70 0.691594313908888 0 7261.0 0.691594313908888 1
gene  1 20 70 -0.0638398694901855 0 7264.0 -0.0638398694901855 1
gene  1 26 70 -0.7015374508520242 0 7270.0 -0.7015374508520242 1
gene  1 30 70 -0.18646889374575115 0 7274.0 -0.18646889374575115 1
gene  1 31 70 -0.5056612557051449 0 7275.0 -0.5056612557051449 1
gene  1 32 70 0.004659599757049437 0 7276.0 0.004659599757049437 1
gene  1 39 70 0.9691349389246664 0 7283.0 0.9691349389246664 1
gene  1 43 70 -0.08901881389297095 0 7287.0 -0.08901881389297095 1
gene  1 45 70 0.2978977176161143 0 7289.0 0.2978977176161143 1
gene  1 46 70 -0.46063093793615173 0 7290.0 -0.46063093793615173 1
gene  1 47 70 -0.5749432807190619 0 7291.0 -0.5749432807190619 1
gene  1 50 70 -0.6389558009044517 0 7294.0 -0.6389558009044517 1
gene  1 52 70 -0.44926832602474376 0 7296.0 -0.44926832602474376 1
gene  1 54 70 0.5501449044044133 0 7298.0 0.5501449044044133 1
gene  1 57 70 0.5289376122748274 0 7301.0 0.5289376122748274 1
gene  1 60 70 0.5860588326867832 0 7304.0 0.5860588326867832 1
gene  1 67 70 -0.6557068462869307 0 7311.0 -0.6557068462869307 1
gene  1 69 70 -0.16347255405618744 0 7313.0 -0.16347255405618744 1
gene  1 1 71 -0.7980387340201334 0 7350.0 -0.7980387340201334 1
gene  1 2 71 0.5027373768129639 0 7351.0 0.5027373768129639 1
gene  1 5 71 -0.8568845442260632 0 7354.0 -0.8568845442260632 1
gene  1 8 71 -0.5797239821987431 0 7357.0 -0.5797239821987431 1
gene  1 9 71 -0.02526769115232763 0 7358.0 -0.02526769115232763 1
gene  1 12 71 0.6142794704056052 0 7361.0 0.6142794704056052 1
gene  1 13 71 0.23261220063470667 0 7362.0 0.23261220063470667 1
gene  1 17 71 -0.545971271159911 0 7366.0 -0.545971271159911 1
gene  1 24 71 0.32200450396813174 0 7373.0 0.32200450396813174 1
gene  1 25 71 0.4738178960738766 0 7374.0 0.4738178960738766 1
gene  1 26 71 -0.4242403833056325 0 7375.0 -0.4242403833056325 1
gene  1 28 71 -0.6967926499249608 0 7377.0 -0.6967926499249608 1
gene  1 30 71 -0.39068476587099676 0 7379.0 -0.39068476587099676 1
gene  1 31 71 -0.7927082738966553 0 7380.0 -0.7927082738966553 1
gene  1 42 71 -0.6675096673892275 0 7391.0 -0.6675096673892275 1
gene  1 43 71 -0.9299107865064038 0 7392.0 -0.9299107865064038 1
gene  1 46 71 0.7582223574468451 0 7395.0 0.7582223574468451 1
gene  1 47 71 -0.5829173903456678 0 7396.0 -0.5829173903456678 1
gene  1 50 71 -0.27669363851493767 0 7399.0 -0.27669363851493767 1
gene  1 51 71 0.37757331557034 0 7400.0 0.37757331557034 1
gene  1 53 71 0.7282689642026273 0 7402.0 0.7282689642026273 1
gene  1 56 71 -0.9830058690947283 0 7405.0 -0.9830058690947283 1
gene  1 57 71 0.414174825126121 0 7406.0 0.414174825126121 1
gene  1 58 71 -0.42874216639898033 0 7407.0 -0.42874216639898033 1
gene  1 59 71 0.17690479230151734 0 7408.0 0.17690479230151734 1
gene  1 60 71 0.18917346870392016 0 7409.0 0.18917346870392016 1
gene  1 62 71 -0.6282727460496237 0 7411.0 -0.6282727460496237 1
gene  1 64 71 0.6032769628735855 0 7413.0 0.6032769628735855 1
gene  1 67 71 -0.32716248762204836 0 7416.0 -0.32716248762204836 1
gene  1 68 71 -0.6228154672286103 0 7417.0 -0.6228154672286103 1
gene  1 69 71 -0.6055566436327 0 7418.0 -0.6055566436327 1
gene  1 70 71 0.17975042253686235 0 7419.0 0.17975042253686235 1
gene  1 3 72 0.6204548377811362 0 7457.0 0.6204548377811362 1
gene  1 7 72 -0.27068450817391376 0 7461.0 -0.27068450817391376 1
gene  1 8 72 -0.6192491107313104 0 7462.0 -0.6192491107313104 1
gene  1 10 72 -0.2913270244056235 0 7464.0 -0.2913270244056235 1
gene  1 13 72 0.15692502698879962 0 7467.0 0.15692502698879962 1
gene  1 17 72 -0.3270078706348426 0 7471.0 -0.3270078706348426 1
gene  1 19 72 -0.46676285130167383 0 7473.0 -0.46676285130167383 1
gene  1 20 72 0.6716546403505291 0 7474.0 0.6716546403505291 1
gene  1 22 72 0.47324938658221305 0 7476.0 0.47324938658221305 1
gene  1 23 72 0.2520984799299203 0 7477.0 0.2520984799299203 1
gene  1 26 72 0.27788617174025654 0 7480.0 0.27788617174025654 1
gene  1 27 72 0.5317180106960251 0 7481.0 0.5317180106960251 1
gene  1 28 72 0.6586661928863129 0 7482.0 0.6586661928863129 1
gene  1 32 72 0.9018114501646438 0 7486.0 0.9018114501646438 1
gene  1 35 72 -0.48849863288135864 0 7489.0 -0.48849863288135864 1
gene  1 38 72 0.8402179919942839 0 7492.0 0.8402179919942839 1
gene  1 39 72 -0.6430154159148573 0 7493.0 -0.6430154159148573 1
gene  1 40 72 0.8487088272335513 0 7494.0 0.8487088272335513 1
gene  1 41 72 -0.8576778297009294 0 7495.0 -0.8576778297009294 1
gene  1 42 72 -0.9597771491244326 0 7496.0 -0.9597771491244326 1
gene  1 44 72 0.5112686194055215 0 7498.0 0.5112686194055215 1
gene  1 48 72 0.6404484156968077 0 7502.0 0.6404484156968077 1
gene  1 51 72 0.5502589808509111 0 7505.0 0.5502589808509111 1
gene  1 52 72 -0.5390152085276485 0 7506.0 -0.5390152085276485 1
gene  1 53 72 -0.6661957273689195 0 7507.0 -0.6661957273689195 1
gene  1 54 72 -0.8645270174146856 0 7508.0 -0.8645270174146856 1
gene  1 57 72 -0.7008023775685713 0 7511.0 -0.7008023775685713 1
gene  1 58 72 -0.3905428676138931 0 7512.0 -0.3905428676138931 1
gene  1 65 72 0.7551181733355065 0 7519.0 0.7551181733355065 1
gene  1 66 72 -0.21128250797079928 0 7520.0 -0.21128250797079928 1
gene  1 68 72 -0.253864507452506 0 7522.0 -0.253864507452506 1
gene  1 2 73 -0.8958250252206398 0 7561.0 -0.8958250252206398 1
gene  1 5 73 0.3506764904733085 0 7564.0 0.3506764904733085 1
gene  1 6 73 0.5585590576595617 0 7565.0 0.5585590576595617 1
gene  1 7 73 0.27168247188845474 0 7566.0 0.27168247188845474 1
gene  1 8 73 0.10266881072061718 0 7567.0 0.10266881072061718 1
gene  1 10 73 0.20360794023641915 0 7569.0 0.20360794023641915 1
gene  1 11 73 0.6106150848246625 0 7570.0 0.6106150848246625 1
gene  1 14 73 0.8929691173657283 0 7573.0 0.8929691173657283 1
gene  1 15 73 0.9371851366747981 0 7574.0 0.9371851366747981 1
gene  1 16 73 -0.41397648899394646 0 7575.0 -0.41397648899394646 1
gene  1 18 73 0.08902089970105065 0 7577.0 0.08902089970105065 1
gene  1 19 73 -0.0914552960717745 0 7578.0 -0.0914552960717745 1
gene  1 20 73 -0.8912077045296601 0 7579.0 -0.8912077045296601 1
gene  1 21 73 0.4642854162131237 0 7580.0 0.4642854162131237 1
gene  1 24 73 -0.5321502279555334 0 7583.0 -0.5321502279555334 1
gene  1 27 73 -0.7429577293153274 0 7586.0 -0.7429577293153274 1
gene  1 28 73 -0.7044682582363421 0 7587.0 -0.7044682582363421 1
gene  1 31 73 -0.7634737275079568 0 7590.0 -0.7634737275079568 1
gene  1 34 73 -0.6594860365663144 0 7593.0 -0.6594860365663144 1
gene  1 40 73 0.9848218107016931 0 7599.0 0.9848218107016931 1
gene  1 41 73 0.20882486796637922 0 7600.0 0.20882486796637922 1
gene  1 42 73 0.12686299002182333 0 7601.0 0.12686299002182333 1
gene  1 44 73 0.10378184317381323 0 7603.0 0.10378184317381323 1
gene  1 45 73 -0.7081901340215142 0 7604.0 -0.7081901340215142 1
gene  1 48 73 0.8944073643856418 0 7607.0 0.8944073643856418 1
gene  1 49 73 0.5974717600418896 0 7608.0 0.5974717600418896 1
gene  1 50 73 0.32396553975745535 0 7609.0 0.32396553975745535 1
gene  1 51 73 0.325157205143219 0 7610.0 0.325157205143219 1
gene  1 53 73 -0.38393581626582873 0 7612.0 -0.38393581626582873 1
gene  1 55 73 0.7544140201120159 0 7614.0 0.7544140201120159 1
gene  1 57 73 0.2597384963301136 0 7616.0 0.2597384963301136 1
gene  1 59 73 -0.8098375859828508 0 7618.0 -0.8098375859828508 1
gene  1 62 73 -0.8353191926621908 0 7621.0 -0.8353191926621908 1
gene  1 64 73 0.381885156523618 0 7623.0 0.381885156523618 1
gene  1 65 73 0.9596794715687214 0 7624.0 0.9596794715687214 1
gene  1 66 73 -0.8319297722472879 0 7625.0 -0.8319297722472879 1
gene  1 67 73 -0.04195854198767024 0 7626.0 -0.04195854198767024 1
gene  1 69 73 0.23692779391416352 0 7628.0 0.23692779391416352 1
gene  1 71 73 -0.05225491865691678 0 7630.0 -0.05225491865691678 1
gene  1 1 74 0.5375964981086274 0 7665.0 0.5375964981086274 1
gene  1 2 74 0.35734487670926596 0 7666.0 0.35734487670926596 1
gene  1 3 74 -0.9770494065525612 0 7667.0 -0.9770494065525612 1
gene  1 9 74 0.6867858756331705 0 7673.0 0.6867858756331705 1
gene  1 11 74 0.9363882066840082 0 7675.0 0.9363882066840082 1
gene  1 15 74 0.46231573969277184 0 7679.0 0.46231573969277184 1
gene  1 17 74 -0.8329988757222236 0 7681.0 -0.8329988757222236 1
gene  1 18 74 0.9618215519927983 0 7682.0 0.9618215519927983 1
gene  1 19 74 0.7223534542654914 0 7683.0 0.7223534542654914 1
gene  1 21 74 -0.8308471605577482 0 7685.0 -0.8308471605577482 1
gene  1 25 74 -0.7526375087152676 0 7689.0 -0.7526375087152676 1
gene  1 26 74 -0.003591425800335113 0 7690.0 -0.003591425800335113 1
gene  1 28 74 0.7871426947957163 0 7692.0 0.7871426947957163 1
gene  1 32 74 -0.679017846395254 0 7696.0 -0.679017846395254 1
gene  1 33 74 -0.8357771524829721 0 7697.0 -0.8357771524829721 1
gene  1 35 74 -0.738696452844697 0 7699.0 -0.738696452844697 1
gene  1 39 74 0.31441454612815745 0 7703.0 0.31441454612815745 1
gene  1 40 74 0.33167419894793415 0 7704.0 0.33167419894793415 1
gene  1 42 74 0.43589218115979456 0 7706.0 0.43589218115979456 1
gene  1 45 74 0.11377600105114893 0 7709.0 0.11377600105114893 1
gene  1 48 74 0.6166782471475617 0 7712.0 0.6166782471475617 1
gene  1 49 74 -0.6766029898681045 0 7713.0 -0.6766029898681045 1
gene  1 50 74 0.25340728372541843 0 7714.0 0.25340728372541843 1
gene  1 52 74 0.5007467831501623 0 7716.0 0.5007467831501623 1
gene  1 54 74 0.2732011333319382 0 7718.0 0.2732011333319382 1
gene  1 56 74 -0.5453193030210383 0 7720.0 -0.5453193030210383 1
gene  1 59 74 0.6893587275671925 0 7723.0 0.6893587275671925 1
gene  1 60 74 -0.3489206112526877 0 7724.0 -0.3489206112526877 1
gene  1 61 74 -0.4330031749562918 0 7725.0 -0.4330031749562918 1
gene  1 62 74 -0.04590541156158723 0 7726.0 -0.04590541156158723 1
gene  1 63 74 0.19203687017998305 0 7727.0 0.19203687017998305 1
gene  1 67 74 0.7238197912116392 0 7731.0 0.7238197912116392 1
gene  1 70 74 0.6893531025830865 0 7734.0 0.6893531025830865 1
gene  1 73 74 -0.644077872388762 0 7737.0 -0.644077872388762 1
gene  1 1 75 0.00903051763205509 0 7770.0 0.00903051763205509 1
gene  1 2 75 -0.23513647521847625 0 7771.0 -0.23513647521847625 1
gene  1 3 75 -0.837549982884099 0 7772.0 -0.837549982884099 1
gene  1 4 75 0.945568930134582 0 7773.0 0.945568930134582 1
gene  1 6 75 -0.7710753645515374 0 7775.0 -0.7710753645515374 1
gene  1 9 75 -0.39072595641422636 0 7778.0 -0.39072595641422636 1
gene  1 10 75 -0.2689699793240472 0 7779.0 -0.2689699793240472 1
gene  1 11 75 0.9621213519569195 0 7780.0 0.9621213519569195 1
gene  1 12 75 0.4722956005936456 0 7781.0 0.4722956005936456 1
gene  1 14 75 0.6168509053343677 0 7783.0 0.6168509053343677 1
gene  1 15 75 -0.20110915550906172 0 7784.0 -0.20110915550906172 1
gene  1 16 75 -0.16541760828335372 0 7785.0 -0.16541760828335372 1
gene  1 23 75 0.385736012568746 0 7792.0 0.385736012568746 1
gene  1 25 75 -0.9135501340301848 0 7794.0 -0.9135501340301848 1
gene  1 26 75 -0.4122591095189353 0 7795.0 -0.4122591095189353 1
gene  1 27 75 0.852979608524206 0 7796.0 0.852979608524206 1
gene  1 30 75 -0.14729938776196239 0 7799.0 -0.14729938776196239 1
gene  1 31 75 -0.3338126094062768 0 7800.0 -0.3338126094062768 1
gene  1 39 75 0.4539914674695432 0 7808.0 0.4539914674695432 1
gene  1 41 75 0.5067409962033882 0 7810.0 0.5067409962033882 1
gene  1 42 75 -0.9609959545257093 0 7811.0 -0.9609959545257093 1
gene  1 47 75 -0.51138864624514 0 7816.0 -0.51138864624514 1
gene  1 50 75 -0.3151493092767922 0 7819.0 -0.3151493092767922 1
gene  1 51 75 0.6422430634432871 0 7820.0 0.6422430634432871 1
gene  1 53 75 0.6013148835801675 0 7822.0 0.6013148835801675 1
gene  1 56 75 0.24913819472703513 0 7825.0 0.24913819472703513 1
gene  1 60 75 0.3647774202052608 0 7829.0 0.3647774202052608 1
gene  1 61 75 -0.5822466264750304 0 7830.0 -0.5822466264750304 1
gene  1 62 75 0.513960119677502 0 7831.0 0.513960119677502 1
gene  1 64 75 0.5117441537330509 0 7833.0 0.5117441537330509 1
gene  1 66 75 -0.8124672505176513 0 7835.0 -0.8124672505176513 1
gene  1 70 75 0.08536580814039574 0 7839.0 0.08536580814039574 1
gene  1 71 75 0.9154385847537514 0 7840.0 0.9154385847537514 1
gene  1 5 76 -0.9467280895586571 0 7879.0 -0.9467280895586571 1
gene  1 7 76 0.3939274482135381 0 7881.0 0.3939274482135381 1
gene  1 9 76 -0.49487769331226017 0 7883.0 -0.49487769331226017 1
gene  1 11 76 0.8582167909669902 0 7885.0 0.8582167909669902 1
gene  1 12 76 0.5486915767298169 0 7886.0 0.5486915767298169 1
gene  1 13 76 0.06506327597651484 0 7887.0 0.06506327597651484 1
gene  1 14 76 -0.2062719611344509 0 7888.0 -0.2062719611344509 1
gene  1 15 76 -0.9264070076657711 0 7889.0 -0.9264070076657711 1
gene  1 16 76 -0.15563901359093657 0 7890.0 -0.15563901359093657 1
gene  1 18 76 0.014189845009405455 0 7892.0 0.014189845009405455 1
gene  1 19 76 0.6798893768804157 0 7893.0 0.6798893768804157 1
gene  1 24 76 -0.6441240532396102 0 7898.0 -0.6441240532396102 1
gene  1 25 76 0.8545625906199411 0 7899.0 0.8545625906199411 1
gene  1 27 76 0.6708120201319848 0 7901.0 0.6708120201319848 1
gene  1 28 76 0.827037299290398 0 7902.0 0.827037299290398 1
gene  1 29 76 -0.07355448968080835 0 7903.0 -0.07355448968080835 1
gene  1 33 76 0.9170071654273172 0 7907.0 0.9170071654273172 1
gene  1 36 76 -0.7891578690514702 0 7910.0 -0.7891578690514702 1
gene  1 37 76 -0.4885222065057018 0 7911.0 -0.4885222065057018 1
gene  1 39 76 -0.13306767331642666 0 7913.0 -0.13306767331642666 1
gene  1 40 76 -0.7842777553249828 0 7914.0 -0.7842777553249828 1
gene  1 41 76 -0.3507024654416886 0 7915.0 -0.3507024654416886 1
gene  1 47 76 0.502238828348915 0 7921.0 0.502238828348915 1
gene  1 48 76 -0.22991088218618383 0 7922.0 -0.22991088218618383 1
gene  1 49 76 0.685874759822154 0 7923.0 0.685874759822154 1
gene  1 54 76 0.49449136992901344 0 7928.0 0.49449136992901344 1
gene  1 55 76 0.8543067298864696 0 7929.0 0.8543067298864696 1
gene  1 56 76 -0.15158317421227252 0 7930.0 -0.15158317421227252 1
gene  1 59 76 0.37258924646375635 0 7933.0 0.37258924646375635 1
gene  1 61 76 -0.026271200112370052 0 7935.0 -0.026271200112370052 1
gene  1 62 76 0.9436349730808601 0 7936.0 0.9436349730808601 1
gene  1 64 76 0.2411626181070885 0 7938.0 0.2411626181070885 1
gene  1 65 76 -0.9557794749187707 0 7939.0 -0.9557794749187707 1
gene  1 68 76 -0.15323243407041554 0 7942.0 -0.15323243407041554 1
gene  1 69 76 0.6144783635016984 0 7943.0 0.6144783635016984 1
gene  1 70 76 -0.562835365603062 0 7944.0 -0.562835365603062 1
gene  1 71 76 -0.10437899879632428 0 7945.0 -0.10437899879632428 1
gene  1 72 76 0.8634214112088575 0 7946.0 0.8634214112088575 1
gene  1 73 76 -0.3616595684058004 0 7947.0 -0.3616595684058004 1
gene  1 74 76 -0.5846787718596332 0 7948.0 -0.5846787718596332 1
gene  1 75 76 -0.6082254556030493 0 7949.0 -0.6082254556030493 1
gene  1 1 77 -0.03730837618116134 0 7980.0 -0.03730837618116134 1
gene  1 7 77 0.7591771903943942 0 7986.0 0.7591771903943942 1
gene  1 8 77 0.32830164009655527 0 7987.0 0.32830164009655527 1
gene  1 9 77 -0.17679058905824852 0 7988.0 -0.17679058905824852 1
gene  1 10 77 0.710209558492007 0 7989.0 0.710209558492007 1
gene  1 11 77 -0.45978322344318445 0 7990.0 -0.45978322344318445 1
gene  1 14 77 -0.5930293536218361 0 7993.0 -0.5930293536218361 1
gene  1 17 77 0.022160965118799503 0 7996.0 0.022160965118799503 1
gene  1 19 77 -0.4617299555337716 0 7998.0 -0.4617299555337716 1
gene  1 20 77 -0.050052678433476716 0 7999.0 -0.050052678433476716 1
gene  1 21 77 0.8116050390841125 0 8000.0 0.8116050390841125 1
gene  1 24 77 -0.3493557384327811 0 8003.0 -0.3493557384327811 1
gene  1 25 77 0.3024705080759629 0 8004.0 0.3024705080759629 1
gene  1 26 77 0.09611592563340199 0 8005.0 0.09611592563340199 1
gene  1 27 77 0.062399664377825625 0 8006.0 0.062399664377825625 1
gene  1 28 77 -0.030346560276657497 0 8007.0 -0.030346560276657497 1
gene  1 29 77 0.5661561422692204 0 8008.0 0.5661561422692204 1
gene  1 31 77 -0.08758827696314342 0 8010.0 -0.08758827696314342 1
gene  1 32 77 0.3992966898128094 0 8011.0 0.3992966898128094 1
gene  1 35 77 0.014409051986098653 0 8014.0 0.014409051986098653 1
gene  1 36 77 0.6511911144839694 0 8015.0 0.6511911144839694 1
gene  1 38 77 0.8736945494427173 0 8017.0 0.8736945494427173 1
gene  1 40 77 0.7860318450064482 0 8019.0 0.7860318450064482 1
gene  1 41 77 0.08000512024211759 0 8020.0 0.08000512024211759 1
gene  1 42 77 0.24041125869810953 0 8021.0 0.24041125869810953 1
gene  1 44 77 0.012906431997558698 0 8023.0 0.012906431997558698 1
gene  1 46 77 -0.7799869235103808 0 8025.0 -0.7799869235103808 1
gene  1 48 77 -0.3749676377124429 0 8027.0 -0.3749676377124429 1
gene  1 49 77 -0.15933109480262364 0 8028.0 -0.15933109480262364 1
gene  1 50 77 -0.1367201709018604 0 8029.0 -0.1367201709018604 1
gene  1 51 77 -0.6163002336434708 0 8030.0 -0.6163002336434708 1
gene  1 53 77 0.44440270492894085 0 8032.0 0.44440270492894085 1
gene  1 54 77 0.9062043393904662 0 8033.0 0.9062043393904662 1
gene  1 55 77 0.6050099947529324 0 8034.0 0.6050099947529324 1
gene  1 56 77 0.3335773852795214 0 8035.0 0.3335773852795214 1
gene  1 57 77 0.5908846077278129 0 8036.0 0.5908846077278129 1
gene  1 58 77 0.24332931424725956 0 8037.0 0.24332931424725956 1
gene  1 59 77 -0.03457960627671519 0 8038.0 -0.03457960627671519 1
gene  1 60 77 -0.06625468984974303 0 8039.0 -0.06625468984974303 1
gene  1 61 77 -0.04001763759690358 0 8040.0 -0.04001763759690358 1
gene  1 62 77 -0.01671431513294086 0 8041.0 -0.01671431513294086 1
gene  1 63 77 0.5783610618112375 0 8042.0 0.5783610618112375 1
gene  1 64 77 -0.03644700310603732 0 8043.0 -0.03644700310603732 1
gene  1 65 77 -0.4464691404670932 0 8044.0 -0.4464691404670932 1
gene  1 69 77 0.5558225982015182 0 8048.0 0.5558225982015182 1
gene  1 71 77 0.46880634096098583 0 8050.0 0.46880634096098583 1
gene  1 72 77 -0.21244197117919605 0 8051.0 -0.21244197117919605 1
gene  1 73 77 0.33071204297417234 0 8052.0 0.33071204297417234 1
gene  1 74 77 -0.8788691130880313 0 8053.0 -0.8788691130880313 1
gene  1 1 78 0.39839348421942533 0 8085.0 0.39839348421942533 1
gene  1 10 78 -0.08629687861537261 0 8094.0 -0.08629687861537261 1
gene  1 11 78 -0.5038975121259005 0 8095.0 -0.5038975121259005 1
gene  1 16 78 0.3211432742111181 0 8100.0 0.3211432742111181 1
gene  1 18 78 -0.8602060113605045 0 8102.0 -0.8602060113605045 1
gene  1 21 78 0.7555421205601497 0 8105.0 0.7555421205601497 1
gene  1 24 78 0.9458289033732081 0 8108.0 0.9458289033732081 1
gene  1 27 78 -0.7400604885956437 0 8111.0 -0.7400604885956437 1
gene  1 28 78 -0.9140012282926568 0 8112.0 -0.9140012282926568 1
gene  1 29 78 0.09196044806557879 0 8113.0 0.09196044806557879 1
gene  1 30 78 0.8366232219515398 0 8114.0 0.8366232219515398 1
gene  1 31 78 0.8039504261640463 0 8115.0 0.8039504261640463 1
gene  1 33 78 0.7641925021358659 0 8117.0 0.7641925021358659 1
gene  1 34 78 -0.5338332109695932 0 8118.0 -0.5338332109695932 1
gene  1 35 78 -0.003395004170976157 0 8119.0 -0.003395004170976157 1
gene  1 37 78 -0.011700614710349222 0 8121.0 -0.011700614710349222 1
gene  1 40 78 -0.5562391382286194 0 8124.0 -0.5562391382286194 1
gene  1 41 78 -0.15883675606892678 0 8125.0 -0.15883675606892678 1
gene  1 44 78 0.2856266567636978 0 8128.0 0.2856266567636978 1
gene  1 46 78 -0.5338894295639298 0 8130.0 -0.5338894295639298 1
gene  1 47 78 -0.42194993088227906 0 8131.0 -0.42194993088227906 1
gene  1 50 78 -0.5667245912625639 0 8134.0 -0.5667245912625639 1
gene  1 52 78 0.7126175360047645 0 8136.0 0.7126175360047645 1
gene  1 55 78 0.026440542820501123 0 8139.0 0.026440542820501123 1
gene  1 56 78 0.7714188522183641 0 8140.0 0.7714188522183641 1
gene  1 59 78 0.5297065804041893 0 8143.0 0.5297065804041893 1
gene  1 60 78 0.7487276024258054 0 8144.0 0.7487276024258054 1
gene  1 61 78 0.6054631220748069 0 8145.0 0.6054631220748069 1
gene  1 62 78 0.36335761858851234 0 8146.0 0.36335761858851234 1
gene  1 65 78 0.8315749257350449 0 8149.0 0.8315749257350449 1
gene  1 66 78 -0.6316212432218382 0 8150.0 -0.6316212432218382 1
gene  1 70 78 0.8440345966467853 0 8154.0 0.8440345966467853 1
gene  1 71 78 0.7444774856099428 0 8155.0 0.7444774856099428 1
gene  1 75 78 0.6135422519242401 0 8159.0 0.6135422519242401 1
gene  1 1 79 -0.2993169413633642 0 8190.0 -0.2993169413633642 1
gene  1 3 79 -0.16233666263964774 0 8192.0 -0.16233666263964774 1
gene  1 4 79 -0.17468396929278907 0 8193.0 -0.17468396929278907 1
gene  1 8 79 0.44673841447316176 0 8197.0 0.44673841447316176 1
gene  1 9 79 0.9768790285382448 0 8198.0 0.9768790285382448 1
gene  1 10 79 0.3327490494049363 0 8199.0 0.3327490494049363 1
gene  1 12 79 -0.32494190067565054 0 8201.0 -0.32494190067565054 1
gene  1 13 79 0.25152402771141336 0 8202.0 0.25152402771141336 1
gene  1 15 79 0.9357466136999326 0 8204.0 0.9357466136999326 1
gene  1 16 79 0.05908804185277816 0 8205.0 0.05908804185277816 1
gene  1 17 79 0.5098765196721224 0 8206.0 0.5098765196721224 1
gene  1 22 79 -0.7472588038322369 0 8211.0 -0.7472588038322369 1
gene  1 23 79 0.6200484586249073 0 8212.0 0.6200484586249073 1
gene  1 24 79 -0.05887704666130911 0 8213.0 -0.05887704666130911 1
gene  1 26 79 -0.3930070667623603 0 8215.0 -0.3930070667623603 1
gene  1 28 79 -0.9298270548501683 0 8217.0 -0.9298270548501683 1
gene  1 30 79 0.4862493651549321 0 8219.0 0.4862493651549321 1
gene  1 31 79 0.6709543605667845 0 8220.0 0.6709543605667845 1
gene  1 32 79 0.35884536475862294 0 8221.0 0.35884536475862294 1
gene  1 33 79 0.8968571746765617 0 8222.0 0.8968571746765617 1
gene  1 34 79 -0.865933167541422 0 8223.0 -0.865933167541422 1
gene  1 36 79 0.41633637414312064 0 8225.0 0.41633637414312064 1
gene  1 38 79 0.6971920147766737 0 8227.0 0.6971920147766737 1
gene  1 40 79 -0.35284491579842936 0 8229.0 -0.35284491579842936 1
gene  1 44 79 -0.6366431794151515 0 8233.0 -0.6366431794151515 1
gene  1 45 79 -0.8934137755010925 0 8234.0 -0.8934137755010925 1
gene  1 47 79 -0.4894571351820738 0 8236.0 -0.4894571351820738 1
gene  1 48 79 -0.18083676045148478 0 8237.0 -0.18083676045148478 1
gene  1 50 79 0.7820467462710301 0 8239.0 0.7820467462710301 1
gene  1 51 79 0.9214903933365208 0 8240.0 0.9214903933365208 1
gene  1 52 79 0.4577325322757767 0 8241.0 0.4577325322757767 1
gene  1 53 79 0.3383666713050184 0 8242.0 0.3383666713050184 1
gene  1 55 79 0.20920785281796883 0 8244.0 0.20920785281796883 1
gene  1 58 79 -0.538481603572764 0 8247.0 -0.538481603572764 1
gene  1 59 79 -0.8520280204959163 0 8248.0 -0.8520280204959163 1
gene  1 61 79 -0.9692537390619796 0 8250.0 -0.9692537390619796 1
gene  1 63 79 0.7457639843127974 0 8252.0 0.7457639843127974 1
gene  1 64 79 -0.685246395702299 0 8253.0 -0.685246395702299 1
gene  1 65 79 0.761314390773226 0 8254.0 0.761314390773226 1
gene  1 66 79 0.38782686554753976 0 8255.0 0.38782686554753976 1
gene  1 67 79 -0.7010038089385212 0 8256.0 -0.7010038089385212 1
gene  1 69 79 -0.5933883732376152 0 8258.0 -0.5933883732376152 1
gene  1 70 79 0.5759233067657168 0 8259.0 0.5759233067657168 1
gene  1 71 79 -0.5281801762389453 0 8260.0 -0.5281801762389453 1
gene  1 74 79 -0.9893025732367716 0 8263.0 -0.9893025732367716 1
gene  1 76 79 -0.7551501759934963 0 8265.0 -0.7551501759934963 1
gene  1 78 79 0.9729472423365981 0 8267.0 0.9729472423365981 1
gene  1 2 80 -0.5200985692754196 0 8296.0 -0.5200985692754196 1
gene  1 3 80 0.688536327683214 0 8297.0 0.688536327683214 1
gene  1 4 80 -0.15984658313139333 0 8298.0 -0.15984658313139333 1
gene  1 5 80 0.9974423079579652 0 8299.0 0.9974423079579652 1
gene  1 6 80 0.3891115552898665 0 8300.0 0.3891115552898665 1
gene  1 7 80 -0.2557859233747358 0 8301.0 -0.2557859233747358 1
gene  1 14 80 0.29460915734375104 0 8308.0 0.29460915734375104 1
gene  1 16 80 0.05972367266301737 0 8310.0 0.05972367266301737 1
gene  1 18 80 -0.03640142888733222 0 8312.0 -0.03640142888733222 1
gene  1 21 80 0.02305111779885849 0 8315.0 0.02305111779885849 1
gene  1 22 80 0.33840206747479795 0 8316.0 0.33840206747479795 1
gene  1 24 80 -0.9364873815479848 0 8318.0 -0.9364873815479848 1
