genomestart  10
trait 1 0.0 0.0 0.0 0.0 0.0 0.0 0.0 0.0 0.0 0.0 0.0 0.0 0.0 0.0 0.0 0.0 0.0 0.0 0.0 0.0 
node 1 1 1 1
node 2 1 1 1
node 3 1 1 1
node 4 1 1 3
node 5 1 0 0
node 6 1 0 0
node 7 1 0 0
node 8 1 0 0
node 9 1 0 0
node 10 1 0 0
node 11 1 0 0
node 12 1 0 0
node 13 1 0 0
node 14 1 0 0
node 15 1 0 0
node 16 1 0 0
node 17 1 0 0
node 18 1 0 0
node 19 1 0 0
node 20 1 0 0
node 21 1 0 0
node 22 1 0 0
node 23 1 0 0
node 24 1 0 0
node 25 1 0 0
node 26 1 0 0
node 27 1 0 0
node 28 1 0 0
node 29 1 0 0
node 30 1 0 0
node 31 1 0 0
node 32 1 0 0
node 33 1 0 0
node 34 1 0 0
node 35 1 0 0
node 36 1 0 0
node 37 1 0 0
node 38 1 0 0
node 39 1 0 0
node 40 1 0 0
node 41 1 0 0
node 42 1 0 0
node 43 1 0 0
node 44 1 0 0
node 45 1 0 0
node 46 1 0 0
node 47 1 0 0
node 48 1 0 0
node 49 1 0 0
node 50 1 0 0
node 51 1 0 0
node 52 1 0 0
node 105 1 0 2
gene  1 1 5 0.4385637575036302 0 420.0 0.4385637575036302 1
gene  1 2 5 0.6902297045336563 0 421.0 0.6902297045336563 1
gene  1 3 5 -0.3494235287436732 0 422.0 -0.3494235287436732 1
gene  1 4 5 -0.24897891651452742 0 423.0 -0.24897891651452742 1
gene  1 1 6 -0.26325314536565125 0 525.0 -0.26325314536565125 1
gene  1 2 6 0.48976762932304574 0 526.0 0.48976762932304574 1
gene  1 4 6 -0.7585832512294131 0 528.0 -0.7585832512294131 1
gene  1 5 6 -0.48566420494009543 0 529.0 -0.48566420494009543 1
gene  1 2 7 0.2754927707062057 0 631.0 0.2754927707062057 1
gene  1 3 7 -0.9445335274687005 0 632.0 -0.9445335274687005 1
gene  1 1 8 -0.8014324777161672 0 735.0 -0.8014324777161672 1
gene  1 2 8 -0.25863594435549464 0 736.0 -0.25863594435549464 1
gene  1 3 8 0.7809171231204799 0 737.0 0.7809171231204799 1
gene  1 4 8 -0.9273841229926015 0 738.0 -0.9273841229926015 1
gene  1 5 8 0.6166434126355071 0 739.0 0.6166434126355071 1
gene  1 5 9 -0.014913435883649573 0 844.0 -0.014913435883649573 1
gene  1 6 9 -0.9337861266483758 0 845.0 -0.9337861266483758 1
gene  1 7 9 -0.13338370251174747 0 846.0 -0.13338370251174747 1
gene  1 8 9 0.09105701472540284 0 847.0 0.09105701472540284 1
gene  1 4 10 0.275213380134505 0 948.0 0.275213380134505 1
gene  1 1 11 -0.4634337333909505 0 1050.0 -0.4634337333909505 1
gene  1 2 11 0.5941532689392749 0 1051.0 0.5941532689392749 1
gene  1 3 11 -0.47564336645012806 0 1052.0 -0.47564336645012806 1
gene  1 5 11 -0.14182669617052068 0 1054.0 -0.14182669617052068 1
gene  1 7 11 -0.7946811682355401 0 1056.0 -0.7946811682355401 1
gene  1 8 11 -0.8762103576895527 0 1057.0 -0.8762103576895527 1
gene  1 2 12 -0.13876040035419857 0 1156.0 -0.13876040035419857 1
gene  1 3 12 -0.053868897597130205 0 1157.0 -0.053868897597130205 1
gene  1 5 12 0.25430926662143505 0 1159.0 0.25430926662143505 1
gene  1 6 12 -0.863030873049847 0 1160.0 -0.863030873049847 1
gene  1 8 12 -0.19945192377834975 0 1162.0 -0.19945192377834975 1
gene  1 10 12 -0.31160876489335376 0 1164.0 -0.31160876489335376 1
gene  1 11 12 0.05259053100627509 0 1165.0 0.05259053100627509 1
gene  1 1 13 0.7301326644405866 0 1260.0 0.7301326644405866 1
gene  1 4 13 4.934177436166642E-4 0 1263.0 4.934177436166642E-4 1
gene  1 6 13 -0.2761659159022547 0 1265.0 -0.2761659159022547 1
gene  1 7 13 -0.8429148235937297 0 1266.0 -0.8429148235937297 1
gene  1 8 13 0.5694380702381672 0 1267.0 0.5694380702381672 1
gene  1 11 13 0.15297813450916453 0 1270.0 0.15297813450916453 1
gene  1 12 13 -0.4487233309478186 0 1271.0 -0.4487233309478186 1
gene  1 1 14 -0.2657716126514459 0 1365.0 -0.2657716126514459 1
gene  1 2 14 0.4482481690779575 0 1366.0 0.4482481690779575 1
gene  1 4 14 0.6069414822979766 0 1368.0 0.6069414822979766 1
gene  1 7 14 -0.4314397217697371 0 1371.0 -0.4314397217697371 1
gene  1 10 14 0.20722347906288785 0 1374.0 0.20722347906288785 1
gene  1 11 14 0.3909540345941789 0 1375.0 0.3909540345941789 1
gene  1 12 14 -0.25573283639321187 0 1376.0 -0.25573283639321187 1
gene  1 13 14 -0.8292568221852703 0 1377.0 -0.8292568221852703 1
gene  1 2 15 0.8873398053411524 0 1471.0 0.8873398053411524 1
gene  1 6 15 -0.5365987845742074 0 1475.0 -0.5365987845742074 1
gene  1 7 15 -0.5798185278001534 0 1476.0 -0.5798185278001534 1
gene  1 9 15 -0.6484437636795481 0 1478.0 -0.6484437636795481 1
gene  1 10 15 -0.04105089517536675 0 1479.0 -0.04105089517536675 1
gene  1 11 15 0.2879379120628238 0 1480.0 0.2879379120628238 1
gene  1 12 15 -0.8770700541375657 0 1481.0 -0.8770700541375657 1
gene  1 13 15 0.5365429898923001 0 1482.0 0.5365429898923001 1
gene  1 3 16 0.6721028351064662 0 1577.0 0.6721028351064662 1
gene  1 6 16 -0.6599535140440451 0 1580.0 -0.6599535140440451 1
gene  1 8 16 -0.5443658261434714 0 1582.0 -0.5443658261434714 1
gene  1 12 16 -0.06379345316495943 0 1586.0 -0.06379345316495943 1
gene  1 1 17 -0.31918659850099196 0 1680.0 -0.31918659850099196 1
gene  1 2 17 -0.8369586778522722 0 1681.0 -0.8369586778522722 1
gene  1 4 17 -0.48689544108575933 0 1683.0 -0.48689544108575933 1
gene  1 5 17 -0.1143970901258573 0 1684.0 -0.1143970901258573 1
gene  1 7 17 0.7502012176556668 0 1686.0 0.7502012176556668 1
gene  1 9 17 -0.5334625609488194 0 1688.0 -0.5334625609488194 1
gene  1 10 17 -0.08866071879438275 0 1689.0 -0.08866071879438275 1
gene  1 12 17 0.7053264479984725 0 1691.0 0.7053264479984725 1
gene  1 13 17 0.13368671303760926 0 1692.0 0.13368671303760926 1
gene  1 15 17 -0.5477007385245469 0 1694.0 -0.5477007385245469 1
gene  1 2 18 0.8164506565856628 0 1786.0 0.8164506565856628 1
gene  1 3 18 -0.2207861394710655 0 1787.0 -0.2207861394710655 1
gene  1 4 18 0.27279811375674745 0 1788.0 0.27279811375674745 1
gene  1 6 18 -0.6179013303464265 0 1790.0 -0.6179013303464265 1
gene  1 8 18 0.7205343036901583 0 1792.0 0.7205343036901583 1
gene  1 9 18 -0.1038496588306057 0 1793.0 -0.1038496588306057 1
gene  1 10 18 0.5332302602204393 0 1794.0 0.5332302602204393 1
gene  1 11 18 -0.6065520558220888 0 1795.0 -0.6065520558220888 1
gene  1 13 18 -0.09335159932080717 0 1797.0 -0.09335159932080717 1
gene  1 14 18 0.6169873988589403 0 1798.0 0.6169873988589403 1
gene  1 15 18 0.8680687678348745 0 1799.0 0.8680687678348745 1
gene  1 17 18 -0.21063665571812085 0 1801.0 -0.21063665571812085 1
gene  1 1 19 0.8418431552161207 0 1890.0 0.8418431552161207 1
gene  1 3 19 -0.9258454110094125 0 1892.0 -0.9258454110094125 1
gene  1 4 19 -0.41482614135037876 0 1893.0 -0.41482614135037876 1
gene  1 6 19 -0.9363704402369497 0 1895.0 -0.9363704402369497 1
gene  1 7 19 -0.6933793602499351 0 1896.0 -0.6933793602499351 1
gene  1 10 19 0.703264129130275 0 1899.0 0.703264129130275 1
gene  1 11 19 -0.6974985636742242 0 1900.0 -0.6974985636742242 1
gene  1 12 19 0.392612156978586 0 1901.0 0.392612156978586 1
gene  1 14 19 0.8975353259768843 0 1903.0 0.8975353259768843 1
gene  1 4 20 0.8425598183887859 0 1998.0 0.8425598183887859 1
gene  1 9 20 -0.5532883527035113 0 2003.0 -0.5532883527035113 1
gene  1 11 20 -0.0019632219954841545 0 2005.0 -0.0019632219954841545 1
gene  1 14 20 0.2985933235861108 0 2008.0 0.2985933235861108 1
gene  1 15 20 0.03181454416478069 0 2009.0 0.03181454416478069 1
gene  1 16 20 -0.673005775985531 0 2010.0 -0.673005775985531 1
gene  1 18 20 -0.7535633229910437 0 2012.0 -0.7535633229910437 1
gene  1 19 20 -0.4633959174325363 0 2013.0 -0.4633959174325363 1
gene  1 4 21 -0.6174990324025422 0 2103.0 -0.6174990324025422 1
gene  1 5 21 0.6087817150888115 0 2104.0 0.6087817150888115 1
gene  1 6 21 0.4246040567782611 0 2105.0 0.4246040567782611 1
gene  1 12 21 -0.3671553598983933 0 2111.0 -0.3671553598983933 1
gene  1 13 21 0.7912257483321778 0 2112.0 0.7912257483321778 1
gene  1 15 21 -0.38466325673139135 0 2114.0 -0.38466325673139135 1
gene  1 16 21 0.8733369679626825 0 2115.0 0.8733369679626825 1
gene  1 17 21 -0.11155329128220648 0 2116.0 -0.11155329128220648 1
gene  1 18 21 -0.004709564423172163 0 2117.0 -0.004709564423172163 1
gene  1 19 21 0.4263722156204165 0 2118.0 0.4263722156204165 1
gene  1 3 22 -0.19644998106410272 0 2207.0 -0.19644998106410272 1
gene  1 6 22 -0.4048252339472125 0 2210.0 -0.4048252339472125 1
gene  1 10 22 -0.163891698752468 0 2214.0 -0.163891698752468 1
gene  1 12 22 -0.49680108037473025 0 2216.0 -0.49680108037473025 1
gene  1 13 22 -0.1866040907837826 0 2217.0 -0.1866040907837826 1
gene  1 16 22 -0.43677173660468505 0 2220.0 -0.43677173660468505 1
gene  1 17 22 0.5043215296652512 0 2221.0 0.5043215296652512 1
gene  1 20 22 -0.1338988938714778 0 2224.0 -0.1338988938714778 1
gene  1 3 23 0.10701089479274895 0 2312.0 0.10701089479274895 1
gene  1 4 23 0.18140685340906326 0 2313.0 0.18140685340906326 1
gene  1 5 23 -0.7088302567716732 0 2314.0 -0.7088302567716732 1
gene  1 8 23 0.797029940259738 0 2317.0 0.797029940259738 1
gene  1 10 23 -0.10141884151648195 0 2319.0 -0.10141884151648195 1
gene  1 12 23 -0.6392524486909682 0 2321.0 -0.6392524486909682 1
gene  1 13 23 0.319684045692452 0 2322.0 0.319684045692452 1
gene  1 17 23 0.4556175656401511 0 2326.0 0.4556175656401511 1
gene  1 18 23 0.9088623872803165 0 2327.0 0.9088623872803165 1
gene  1 21 23 -0.657496151067076 0 2330.0 -0.657496151067076 1
gene  1 2 24 -0.5170614670446038 0 2416.0 -0.5170614670446038 1
gene  1 5 24 -0.728232764643209 0 2419.0 -0.728232764643209 1
gene  1 6 24 -0.07899058113835478 0 2420.0 -0.07899058113835478 1
gene  1 7 24 -0.5411090488957637 0 2421.0 -0.5411090488957637 1
gene  1 10 24 0.0020247126003754 0 2424.0 0.0020247126003754 1
gene  1 12 24 -0.2889489261570155 0 2426.0 -0.2889489261570155 1
gene  1 13 24 -0.7585824578906972 0 2427.0 -0.7585824578906972 1
gene  1 16 24 0.9777008248766584 0 2430.0 0.9777008248766584 1
gene  1 17 24 -0.8251851659993116 0 2431.0 -0.8251851659993116 1
gene  1 19 24 0.09783024621749858 0 2433.0 0.09783024621749858 1
gene  1 20 24 0.8127000897379919 0 2434.0 0.8127000897379919 1
gene  1 21 24 0.8638801867750758 0 2435.0 0.8638801867750758 1
gene  1 1 25 -0.2539156944312969 0 2520.0 -0.2539156944312969 1
gene  1 3 25 -0.9402966180457647 0 2522.0 -0.9402966180457647 1
gene  1 4 25 0.57143117440523 0 2523.0 0.57143117440523 1
gene  1 5 25 -0.4460732401233447 0 2524.0 -0.4460732401233447 1
gene  1 6 25 0.05502325842460365 0 2525.0 0.05502325842460365 1
gene  1 7 25 0.7416332035834903 0 2526.0 0.7416332035834903 1
gene  1 8 25 0.6688049240515476 0 2527.0 0.6688049240515476 1
gene  1 10 25 0.013386246271238522 0 2529.0 0.013386246271238522 1
gene  1 12 25 0.1919312270286866 0 2531.0 0.1919312270286866 1
gene  1 14 25 -0.48328382344802967 0 2533.0 -0.48328382344802967 1
gene  1 15 25 0.1245816859003116 0 2534.0 0.1245816859003116 1
gene  1 16 25 -0.9278175454409849 0 2535.0 -0.9278175454409849 1
gene  1 17 25 -0.8731677994609955 0 2536.0 -0.8731677994609955 1
gene  1 23 25 -0.2213530479090856 0 2542.0 -0.2213530479090856 1
gene  1 1 26 -0.16944323925907312 0 2625.0 -0.16944323925907312 1
gene  1 3 26 -0.5059330752083085 0 2627.0 -0.5059330752083085 1
gene  1 4 26 -0.041732580039527845 0 2628.0 -0.041732580039527845 1
gene  1 6 26 0.4888893079968787 0 2630.0 0.4888893079968787 1
gene  1 8 26 0.03375011584866827 0 2632.0 0.03375011584866827 1
gene  1 9 26 -0.6184026751243107 0 2633.0 -0.6184026751243107 1
gene  1 10 26 0.8340035831364259 0 2634.0 0.8340035831364259 1
gene  1 12 26 0.15534913109135806 0 2636.0 0.15534913109135806 1
gene  1 14 26 -0.5104588802344953 0 2638.0 -0.5104588802344953 1
gene  1 15 26 -0.5263106472884238 0 2639.0 -0.5263106472884238 1
gene  1 16 26 -0.7554179710278702 0 2640.0 -0.7554179710278702 1
gene  1 17 26 0.8818473055042639 0 2641.0 0.8818473055042639 1
gene  1 20 26 -0.11186058589550618 0 2644.0 -0.11186058589550618 1
gene  1 21 26 -0.5870332863636528 0 2645.0 -0.5870332863636528 1
gene  1 22 26 0.4832492146550902 0 2646.0 0.4832492146550902 1
gene  1 24 26 0.5214496101226981 0 2648.0 0.5214496101226981 1
gene  1 1 27 -0.91223538953285 0 2730.0 -0.91223538953285 1
gene  1 2 27 0.9332298402264778 0 2731.0 0.9332298402264778 1
gene  1 3 27 0.4013267123771862 0 2732.0 0.4013267123771862 1
gene  1 4 27 0.9013074743041118 0 2733.0 0.9013074743041118 1
gene  1 6 27 0.09592106401162093 0 2735.0 0.09592106401162093 1
gene  1 7 27 0.9360004094197861 0 2736.0 0.9360004094197861 1
gene  1 10 27 -0.4562884002924691 0 2739.0 -0.4562884002924691 1
gene  1 11 27 0.22869039292096582 0 2740.0 0.22869039292096582 1
gene  1 12 27 -0.0011401357973260806 0 2741.0 -0.0011401357973260806 1
gene  1 13 27 0.321786266341341 0 2742.0 0.321786266341341 1
gene  1 14 27 0.38058857940176494 0 2743.0 0.38058857940176494 1
gene  1 18 27 0.08613541737957509 0 2747.0 0.08613541737957509 1
gene  1 19 27 0.2995747153000409 0 2748.0 0.2995747153000409 1
gene  1 20 27 -0.8207550704305084 0 2749.0 -0.8207550704305084 1
gene  1 22 27 -0.10653931325152943 0 2751.0 -0.10653931325152943 1
gene  1 23 27 0.4315744355976332 0 2752.0 0.4315744355976332 1
gene  1 24 27 0.4123438102149759 0 2753.0 0.4123438102149759 1
gene  1 26 27 -0.5152347284126395 0 2755.0 -0.5152347284126395 1
gene  1 1 28 0.5725603652074844 0 2835.0 0.5725603652074844 1
gene  1 3 28 -0.8663653507647167 0 2837.0 -0.8663653507647167 1
gene  1 7 28 0.41383012354367543 0 2841.0 0.41383012354367543 1
gene  1 9 28 -0.9476168803469331 0 2843.0 -0.9476168803469331 1
gene  1 10 28 0.5438358167056424 0 2844.0 0.5438358167056424 1
gene  1 12 28 0.4559613784247144 0 2846.0 0.4559613784247144 1
gene  1 13 28 0.39169477212041004 0 2847.0 0.39169477212041004 1
gene  1 19 28 0.0898038228020489 0 2853.0 0.0898038228020489 1
gene  1 21 28 0.40289371188615897 0 2855.0 0.40289371188615897 1
gene  1 23 28 -0.7222007463399409 0 2857.0 -0.7222007463399409 1
gene  1 24 28 -0.43726348773325485 0 2858.0 -0.43726348773325485 1
gene  1 1 29 0.5068513808894559 0 2940.0 0.5068513808894559 1
gene  1 2 29 -0.6512721475567204 0 2941.0 -0.6512721475567204 1
gene  1 3 29 -0.8199556250511468 0 2942.0 -0.8199556250511468 1
gene  1 4 29 0.3549921329402177 0 2943.0 0.3549921329402177 1
gene  1 5 29 0.23647511934370835 0 2944.0 0.23647511934370835 1
gene  1 6 29 0.5633298351594077 0 2945.0 0.5633298351594077 1
gene  1 9 29 -0.9705907718164639 0 2948.0 -0.9705907718164639 1
gene  1 10 29 -0.5695241471101669 0 2949.0 -0.5695241471101669 1
gene  1 13 29 0.8084194200717556 0 2952.0 0.8084194200717556 1
gene  1 16 29 -0.6811881691438032 0 2955.0 -0.6811881691438032 1
gene  1 17 29 0.6661685182367212 0 2956.0 0.6661685182367212 1
gene  1 18 29 0.1374143218525843 0 2957.0 0.1374143218525843 1
gene  1 20 29 0.4325968375562752 0 2959.0 0.4325968375562752 1
gene  1 21 29 0.6914177502122719 0 2960.0 0.6914177502122719 1
gene  1 23 29 0.05679360420090396 0 2962.0 0.05679360420090396 1
gene  1 26 29 0.8482648289530897 0 2965.0 0.8482648289530897 1
gene  1 27 29 0.16602213991102177 0 2966.0 0.16602213991102177 1
gene  1 28 29 -0.40694940725322426 0 2967.0 -0.40694940725322426 1
gene  1 2 30 0.9734881246851673 0 3046.0 0.9734881246851673 1
gene  1 4 30 0.03402578126538014 0 3048.0 0.03402578126538014 1
gene  1 5 30 -0.03389716195314563 0 3049.0 -0.03389716195314563 1
gene  1 7 30 0.7412049824234231 0 3051.0 0.7412049824234231 1
gene  1 8 30 0.7644700873817913 0 3052.0 0.7644700873817913 1
gene  1 9 30 -0.34965591152403175 0 3053.0 -0.34965591152403175 1
gene  1 10 30 0.8221360739064411 0 3054.0 0.8221360739064411 1
gene  1 12 30 -0.526902287911467 0 3056.0 -0.526902287911467 1
gene  1 15 30 -0.18699798364204612 0 3059.0 -0.18699798364204612 1
gene  1 17 30 -0.6941965111554353 0 3061.0 -0.6941965111554353 1
gene  1 18 30 -0.003907742662279001 0 3062.0 -0.003907742662279001 1
gene  1 19 30 -0.042550766194087486 0 3063.0 -0.042550766194087486 1
gene  1 22 30 -0.012734423516650994 0 3066.0 -0.012734423516650994 1
gene  1 24 30 -0.9064332206168738 0 3068.0 -0.9064332206168738 1
gene  1 25 30 0.9225522706621025 0 3069.0 0.9225522706621025 1
gene  1 27 30 0.08036195161478765 0 3071.0 0.08036195161478765 1
gene  1 28 30 0.3939441030858053 0 3072.0 0.3939441030858053 1
gene  1 29 30 0.48843510746094354 0 3073.0 0.48843510746094354 1
gene  1 2 31 -0.5730031386838752 0 3151.0 -0.5730031386838752 1
gene  1 5 31 0.15706327564807343 0 3154.0 0.15706327564807343 1
gene  1 7 31 -0.8822211564063497 0 3156.0 -0.8822211564063497 1
gene  1 8 31 -0.5249670063748978 0 3157.0 -0.5249670063748978 1
gene  1 12 31 0.7335046354161601 0 3161.0 0.7335046354161601 1
gene  1 13 31 0.042716400662276444 0 3162.0 0.042716400662276444 1
gene  1 16 31 -0.8816570416457208 0 3165.0 -0.8816570416457208 1
gene  1 19 31 0.11554825559620696 0 3168.0 0.11554825559620696 1
gene  1 20 31 0.663207412046521 0 3169.0 0.663207412046521 1
gene  1 21 31 0.5927645522251827 0 3170.0 0.5927645522251827 1
gene  1 27 31 0.2046106363015786 0 3176.0 0.2046106363015786 1
gene  1 29 31 0.004129502753368652 0 3178.0 0.004129502753368652 1
gene  1 3 32 -0.4477921177273455 0 3257.0 -0.4477921177273455 1
gene  1 6 32 0.01770703584957145 0 3260.0 0.01770703584957145 1
gene  1 9 32 -0.8400938835900246 0 3263.0 -0.8400938835900246 1
gene  1 10 32 0.9612053791113349 0 3264.0 0.9612053791113349 1
gene  1 15 32 0.4276142354285518 0 3269.0 0.4276142354285518 1
gene  1 17 32 -0.23743740995722773 0 3271.0 -0.23743740995722773 1
gene  1 18 32 -0.4611878237458963 0 3272.0 -0.4611878237458963 1
gene  1 19 32 -0.6737769941760753 0 3273.0 -0.6737769941760753 1
gene  1 20 32 -0.04837048783679976 0 3274.0 -0.04837048783679976 1
gene  1 23 32 -0.0396727351174575 0 3277.0 -0.0396727351174575 1
gene  1 24 32 0.11717297051575115 0 3278.0 0.11717297051575115 1
gene  1 27 32 0.0558996894334467 0 3281.0 0.0558996894334467 1
gene  1 30 32 -0.23471222522958413 0 3284.0 -0.23471222522958413 1
gene  1 31 32 -0.012211345383217553 0 3285.0 -0.012211345383217553 1
gene  1 1 33 0.8658922017601615 0 3360.0 0.8658922017601615 1
gene  1 2 33 0.6794516589310636 0 3361.0 0.6794516589310636 1
gene  1 3 33 0.788708823901766 0 3362.0 0.788708823901766 1
gene  1 5 33 -0.9370207614960274 0 3364.0 -0.9370207614960274 1
gene  1 6 33 0.2993312344481639 0 3365.0 0.2993312344481639 1
gene  1 9 33 0.410962076755625 0 3368.0 0.410962076755625 1
gene  1 13 33 0.8781026970028185 0 3372.0 0.8781026970028185 1
gene  1 14 33 0.7322948703784802 0 3373.0 0.7322948703784802 1
gene  1 15 33 0.3569496911121248 0 3374.0 0.3569496911121248 1
gene  1 21 33 0.8424476878974668 0 3380.0 0.8424476878974668 1
gene  1 22 33 -0.9087773218875614 0 3381.0 -0.9087773218875614 1
gene  1 23 33 0.4904143615501333 0 3382.0 0.4904143615501333 1
gene  1 24 33 -0.972743220782135 0 3383.0 -0.972743220782135 1
gene  1 26 33 0.03569786275318709 0 3385.0 0.03569786275318709 1
gene  1 27 33 -0.7110421092488242 0 3386.0 -0.7110421092488242 1
gene  1 31 33 -0.49086410358295796 0 3390.0 -0.49086410358295796 1
gene  1 2 34 0.7885592379704874 0 3466.0 0.7885592379704874 1
gene  1 6 34 -0.820674753850544 0 3470.0 -0.820674753850544 1
gene  1 7 34 0.23385207965008226 0 3471.0 0.23385207965008226 1
gene  1 8 34 0.7451440477247813 0 3472.0 0.7451440477247813 1
gene  1 11 34 -0.8223968675397682 0 3475.0 -0.8223968675397682 1
gene  1 12 34 -0.05688031025244533 0 3476.0 -0.05688031025244533 1
gene  1 13 34 0.7929368747853246 0 3477.0 0.7929368747853246 1
gene  1 14 34 -0.05496857665769328 0 3478.0 -0.05496857665769328 1
gene  1 15 34 0.9002411455249245 0 3479.0 0.9002411455249245 1
gene  1 16 34 -0.08579133587305843 0 3480.0 -0.08579133587305843 1
gene  1 20 34 -0.30039399912493336 0 3484.0 -0.30039399912493336 1
gene  1 21 34 -0.30687507294040506 0 3485.0 -0.30687507294040506 1
gene  1 22 34 0.2467307190154855 0 3486.0 0.2467307190154855 1
gene  1 23 34 0.0737492810805439 0 3487.0 0.0737492810805439 1
gene  1 25 34 -0.9913635739136469 0 3489.0 -0.9913635739136469 1
gene  1 27 34 -0.7789169724265765 0 3491.0 -0.7789169724265765 1
gene  1 30 34 -0.6463355440176641 0 3494.0 -0.6463355440176641 1
gene  1 31 34 -0.11586946341275561 0 3495.0 -0.11586946341275561 1
gene  1 33 34 0.6190782911023076 0 3497.0 0.6190782911023076 1
gene  1 1 35 -0.2634412585901995 0 3570.0 -0.2634412585901995 1
gene  1 2 35 -0.4047938064103862 0 3571.0 -0.4047938064103862 1
gene  1 3 35 0.18732731428981675 0 3572.0 0.18732731428981675 1
gene  1 6 35 0.3083829749067857 0 3575.0 0.3083829749067857 1
gene  1 12 35 0.4009569593984341 0 3581.0 0.4009569593984341 1
gene  1 13 35 0.1917729865950809 0 3582.0 0.1917729865950809 1
gene  1 16 35 0.18039131408185027 0 3585.0 0.18039131408185027 1
gene  1 17 35 0.6196219363957719 0 3586.0 0.6196219363957719 1
gene  1 18 35 0.5325812534430039 0 3587.0 0.5325812534430039 1
gene  1 19 35 -0.07089770879465962 0 3588.0 -0.07089770879465962 1
gene  1 20 35 0.042279318427500545 0 3589.0 0.042279318427500545 1
gene  1 22 35 -0.4938612377139553 0 3591.0 -0.4938612377139553 1
gene  1 24 35 0.7931648533461672 0 3593.0 0.7931648533461672 1
gene  1 26 35 -0.32262202631600945 0 3595.0 -0.32262202631600945 1
gene  1 32 35 0.1656672850346057 0 3601.0 0.1656672850346057 1
gene  1 34 35 -0.7253768287502401 0 3603.0 -0.7253768287502401 1
gene  1 3 36 -0.9364898352390636 0 3677.0 -0.9364898352390636 1
gene  1 4 36 0.3484883477269266 0 3678.0 0.3484883477269266 1
gene  1 5 36 -0.7127063762382684 0 3679.0 -0.7127063762382684 1
gene  1 8 36 0.27120746810727414 0 3682.0 0.27120746810727414 1
gene  1 9 36 0.2823125662484004 0 3683.0 0.2823125662484004 1
gene  1 10 36 -0.18105080234942694 0 3684.0 -0.18105080234942694 1
gene  1 11 36 -0.053804227549599126 0 3685.0 -0.053804227549599126 1
gene  1 12 36 0.8777260793703271 0 3686.0 0.8777260793703271 1
gene  1 14 36 -0.14878407858700315 0 3688.0 -0.14878407858700315 1
gene  1 15 36 -0.19047228695730256 0 3689.0 -0.19047228695730256 1
gene  1 19 36 -0.3501780136778875 0 3693.0 -0.3501780136778875 1
gene  1 20 36 0.2323818073635967 0 3694.0 0.2323818073635967 1
gene  1 26 36 0.5510805850273487 0 3700.0 0.5510805850273487 1
gene  1 27 36 0.11422339093313294 0 3701.0 0.11422339093313294 1
gene  1 28 36 0.927141547888755 0 3702.0 0.927141547888755 1
gene  1 29 36 0.6711419631301339 0 3703.0 0.6711419631301339 1
gene  1 31 36 -0.8479598371520308 0 3705.0 -0.8479598371520308 1
gene  1 33 36 -0.7874905823930303 0 3707.0 -0.7874905823930303 1
gene  1 35 36 0.19297143243942028 0 3709.0 0.19297143243942028 1
gene  1 1 37 0.6592235151586057 0 3780.0 0.6592235151586057 1
gene  1 2 37 -0.36433764492912823 0 3781.0 -0.36433764492912823 1
gene  1 4 37 -0.02528357648348667 0 3783.0 -0.02528357648348667 1
gene  1 6 37 -0.7226120134196491 0 3785.0 -0.7226120134196491 1
gene  1 7 37 0.06933377365772053 0 3786.0 0.06933377365772053 1
gene  1 10 37 0.9436412735208815 0 3789.0 0.9436412735208815 1
gene  1 11 37 -0.21864117110373804 0 3790.0 -0.21864117110373804 1
gene  1 12 37 0.8099004377325182 0 3791.0 0.8099004377325182 1
gene  1 16 37 -0.19709410515690395 0 3795.0 -0.19709410515690395 1
gene  1 18 37 -0.444308790269925 0 3797.0 -0.444308790269925 1
gene  1 19 37 -0.9319621678088866 0 3798.0 -0.9319621678088866 1
gene  1 20 37 0.40677298884187774 0 3799.0 0.40677298884187774 1
gene  1 24 37 -0.4512344402288365 0 3803.0 -0.4512344402288365 1
gene  1 27 37 0.6179024492304613 0 3806.0 0.6179024492304613 1
gene  1 29 37 0.310907835343602 0 3808.0 0.310907835343602 1
gene  1 30 37 -0.32028051476505304 0 3809.0 -0.32028051476505304 1
gene  1 33 37 0.4445255105320409 0 3812.0 0.4445255105320409 1
gene  1 34 37 -0.741305809281662 0 3813.0 -0.741305809281662 1
gene  1 35 37 0.474476490489106 0 3814.0 0.474476490489106 1
gene  1 1 38 0.782293118803577 0 3885.0 0.782293118803577 1
gene  1 2 38 -0.4826450112666433 0 3886.0 -0.4826450112666433 1
gene  1 3 38 -0.14366666096371417 0 3887.0 -0.14366666096371417 1
gene  1 5 38 0.42406252117198917 0 3889.0 0.42406252117198917 1
gene  1 6 38 0.7934907464347195 0 3890.0 0.7934907464347195 1
gene  1 7 38 -0.12900901026261313 0 3891.0 -0.12900901026261313 1
gene  1 9 38 0.11329484812041157 0 3893.0 0.11329484812041157 1
gene  1 17 38 -0.869273600045646 0 3901.0 -0.869273600045646 1
gene  1 19 38 0.7704684549746983 0 3903.0 0.7704684549746983 1
gene  1 21 38 -0.02517632525041913 0 3905.0 -0.02517632525041913 1
gene  1 22 38 -0.005665546691005718 0 3906.0 -0.005665546691005718 1
gene  1 24 38 0.8670651169198327 0 3908.0 0.8670651169198327 1
gene  1 26 38 0.08725746980335569 0 3910.0 0.08725746980335569 1
gene  1 29 38 0.6142554036819732 0 3913.0 0.6142554036819732 1
gene  1 31 38 -0.037928108464607924 0 3915.0 -0.037928108464607924 1
gene  1 32 38 -0.2788014556961771 0 3916.0 -0.2788014556961771 1
gene  1 35 38 -0.7418809510791573 0 3919.0 -0.7418809510791573 1
gene  1 36 38 0.9786977723179158 0 3920.0 0.9786977723179158 1
gene  1 37 38 0.7566668071321707 0 3921.0 0.7566668071321707 1
gene  1 4 39 0.8599924181095859 0 3993.0 0.8599924181095859 1
gene  1 5 39 0.03319838237069839 0 3994.0 0.03319838237069839 1
gene  1 8 39 -0.028202975188473145 0 3997.0 -0.028202975188473145 1
gene  1 10 39 0.43476791677252735 0 3999.0 0.43476791677252735 1
gene  1 16 39 0.7598752927995452 0 4005.0 0.7598752927995452 1
gene  1 17 39 -0.2886015655133073 0 4006.0 -0.2886015655133073 1
gene  1 18 39 -0.6068228663149041 0 4007.0 -0.6068228663149041 1
gene  1 22 39 -0.29265579926362695 0 4011.0 -0.29265579926362695 1
gene  1 25 39 0.38228633972462356 0 4014.0 0.38228633972462356 1
gene  1 30 39 0.12132999094634145 0 4019.0 0.12132999094634145 1
gene  1 33 39 0.31374431202995257 0 4022.0 0.31374431202995257 1
gene  1 38 39 -0.9732826874336361 0 4027.0 -0.9732826874336361 1
gene  1 1 40 -0.8643391971149187 0 4095.0 -0.8643391971149187 1
gene  1 2 40 -0.7463789643190167 0 4096.0 -0.7463789643190167 1
gene  1 3 40 -0.5170324091582544 0 4097.0 -0.5170324091582544 1
gene  1 5 40 -0.8253830196558384 0 4099.0 -0.8253830196558384 1
gene  1 6 40 -0.893618934218652 0 4100.0 -0.893618934218652 1
gene  1 7 40 0.6721553692016313 0 4101.0 0.6721553692016313 1
gene  1 8 40 -0.9855889462879316 0 4102.0 -0.9855889462879316 1
gene  1 10 40 -0.38379674274194264 0 4104.0 -0.38379674274194264 1
gene  1 12 40 -0.5956053412136427 0 4106.0 -0.5956053412136427 1
gene  1 13 40 0.7840442293311923 0 4107.0 0.7840442293311923 1
gene  1 14 40 -0.0578552823976034 0 4108.0 -0.0578552823976034 1
gene  1 15 40 -0.7691655035129991 0 4109.0 -0.7691655035129991 1
gene  1 16 40 0.7779295817464591 0 4110.0 0.7779295817464591 1
gene  1 17 40 0.915613273976415 0 4111.0 0.915613273976415 1
gene  1 18 40 -0.3268736885167478 0 4112.0 -0.3268736885167478 1
gene  1 19 40 0.2739263513882745 0 4113.0 0.2739263513882745 1
gene  1 23 40 0.7732868935043979 0 4117.0 0.7732868935043979 1
gene  1 25 40 -0.47990070617735325 0 4119.0 -0.47990070617735325 1
gene  1 27 40 -0.4550986363196948 0 4121.0 -0.4550986363196948 1
gene  1 29 40 -0.041057789683710766 0 4123.0 -0.041057789683710766 1
gene  1 31 40 0.4441975248597966 0 4125.0 0.4441975248597966 1
gene  1 33 40 0.42058346709572125 0 4127.0 0.42058346709572125 1
gene  1 34 40 0.17807834209162954 0 4128.0 0.17807834209162954 1
gene  1 3 41 0.7821369359422229 0 4202.0 0.7821369359422229 1
gene  1 5 41 -0.925522600954642 0 4204.0 -0.925522600954642 1
gene  1 6 41 -0.5011574708718748 0 4205.0 -0.5011574708718748 1
gene  1 9 41 -0.5374378918045426 0 4208.0 -0.5374378918045426 1
gene  1 11 41 0.8994832000958617 0 4210.0 0.8994832000958617 1
gene  1 12 41 -0.3192709617649262 0 4211.0 -0.3192709617649262 1
gene  1 13 41 0.9368078058126575 0 4212.0 0.9368078058126575 1
gene  1 14 41 -0.3584991182225393 0 4213.0 -0.3584991182225393 1
gene  1 17 41 0.07290727446912271 0 4216.0 0.07290727446912271 1
gene  1 23 41 0.6147245622544042 0 4222.0 0.6147245622544042 1
gene  1 24 41 -0.2925037046303497 0 4223.0 -0.2925037046303497 1
gene  1 26 41 -0.3987489468141455 0 4225.0 -0.3987489468141455 1
gene  1 27 41 0.4161442525693293 0 4226.0 0.4161442525693293 1
gene  1 28 41 0.4885813706175005 0 4227.0 0.4885813706175005 1
gene  1 30 41 0.9229997380363377 0 4229.0 0.9229997380363377 1
gene  1 38 41 -0.11697797048915215 0 4237.0 -0.11697797048915215 1
gene  1 39 41 0.1945884834211613 0 4238.0 0.1945884834211613 1
gene  1 2 42 -0.6073629623551772 0 4306.0 -0.6073629623551772 1
gene  1 3 42 0.5637105426079767 0 4307.0 0.5637105426079767 1
gene  1 4 42 -0.810383776065128 0 4308.0 -0.810383776065128 1
gene  1 8 42 0.9895066149515609 0 4312.0 0.9895066149515609 1
gene  1 9 42 0.4798299533405098 0 4313.0 0.4798299533405098 1
gene  1 10 42 0.8405799935177852 0 4314.0 0.8405799935177852 1
gene  1 13 42 0.8337811335828151 0 4317.0 0.8337811335828151 1
gene  1 14 42 -0.18139703873145896 0 4318.0 -0.18139703873145896 1
gene  1 16 42 0.5220346330906153 0 4320.0 0.5220346330906153 1
gene  1 17 42 0.843685973383075 0 4321.0 0.843685973383075 1
gene  1 18 42 -0.6311622342743592 0 4322.0 -0.6311622342743592 1
gene  1 22 42 0.9653774836659319 0 4326.0 0.9653774836659319 1
gene  1 24 42 0.6427404517665871 0 4328.0 0.6427404517665871 1
gene  1 29 42 0.6918894162343542 0 4333.0 0.6918894162343542 1
gene  1 33 42 -0.489465471488546 0 4337.0 -0.489465471488546 1
gene  1 38 42 -0.48508232294547315 0 4342.0 -0.48508232294547315 1
gene  1 39 42 0.5324453140750266 0 4343.0 0.5324453140750266 1
gene  1 41 42 0.4396971121627341 0 4345.0 0.4396971121627341 1
gene  1 1 43 -0.8661722688776624 0 4410.0 -0.8661722688776624 1
gene  1 3 43 0.43107701849125935 0 4412.0 0.43107701849125935 1
gene  1 4 43 -0.7547307257536032 0 4413.0 -0.7547307257536032 1
gene  1 5 43 0.27489449340363603 0 4414.0 0.27489449340363603 1
gene  1 9 43 -0.17926641327270842 0 4418.0 -0.17926641327270842 1
gene  1 10 43 0.869661370338238 0 4419.0 0.869661370338238 1
gene  1 12 43 0.36306774272797593 0 4421.0 0.36306774272797593 1
gene  1 15 43 0.8055139184809554 0 4424.0 0.8055139184809554 1
gene  1 19 43 0.39754132967208866 0 4428.0 0.39754132967208866 1
gene  1 20 43 -0.5944262855754854 0 4429.0 -0.5944262855754854 1
gene  1 24 43 -0.8778632598139468 0 4433.0 -0.8778632598139468 1
gene  1 25 43 0.2133149527957643 0 4434.0 0.2133149527957643 1
gene  1 26 43 -0.1829871740296275 0 4435.0 -0.1829871740296275 1
gene  1 27 43 0.7942145778296892 0 4436.0 0.7942145778296892 1
gene  1 28 43 -0.19512099022804186 0 4437.0 -0.19512099022804186 1
gene  1 29 43 0.08101689871275308 0 4438.0 0.08101689871275308 1
gene  1 30 43 0.751162472439445 0 4439.0 0.751162472439445 1
gene  1 31 43 0.8472532959138858 0 4440.0 0.8472532959138858 1
gene  1 32 43 0.10669252445987876 0 4441.0 0.10669252445987876 1
gene  1 33 43 -0.001766984589042453 0 4442.0 -0.001766984589042453 1
gene  1 34 43 0.8005631805926391 0 4443.0 0.8005631805926391 1
gene  1 39 43 -0.04408770684438945 0 4448.0 -0.04408770684438945 1
gene  1 40 43 -0.1991491721304851 0 4449.0 -0.1991491721304851 1
gene  1 41 43 -0.4183502982787356 0 4450.0 -0.4183502982787356 1
gene  1 2 44 -0.5729281948718077 0 4516.0 -0.5729281948718077 1
gene  1 3 44 -0.645344380240503 0 4517.0 -0.645344380240503 1
gene  1 4 44 -0.6796346969871093 0 4518.0 -0.6796346969871093 1
gene  1 5 44 0.07992964558495341 0 4519.0 0.07992964558495341 1
gene  1 6 44 0.33242211004078714 0 4520.0 0.33242211004078714 1
gene  1 8 44 -0.9499474306594139 0 4522.0 -0.9499474306594139 1
gene  1 9 44 0.22786033473408962 0 4523.0 0.22786033473408962 1
gene  1 11 44 0.6559922098996986 0 4525.0 0.6559922098996986 1
gene  1 13 44 0.766346128049968 0 4527.0 0.766346128049968 1
gene  1 18 44 0.7127448450660478 0 4532.0 0.7127448450660478 1
gene  1 19 44 -0.97824358256941 0 4533.0 -0.97824358256941 1
gene  1 21 44 0.31790603078110935 0 4535.0 0.31790603078110935 1
gene  1 25 44 -0.22145459111109433 0 4539.0 -0.22145459111109433 1
gene  1 26 44 -0.956988835855545 0 4540.0 -0.956988835855545 1
gene  1 27 44 0.7390192043714723 0 4541.0 0.7390192043714723 1
gene  1 31 44 0.9421509671509514 0 4545.0 0.9421509671509514 1
gene  1 33 44 -0.4904805339048316 0 4547.0 -0.4904805339048316 1
gene  1 36 44 0.7980397292777476 0 4550.0 0.7980397292777476 1
gene  1 37 44 0.20928395668512423 0 4551.0 0.20928395668512423 1
gene  1 38 44 0.25686495440270374 0 4552.0 0.25686495440270374 1
gene  1 39 44 0.47985578364267123 0 4553.0 0.47985578364267123 1
gene  1 40 44 0.5731951255460789 0 4554.0 0.5731951255460789 1
gene  1 42 44 0.27307039290963075 0 4556.0 0.27307039290963075 1
gene  1 1 45 -0.042687209977327445 0 4620.0 -0.042687209977327445 1
gene  1 3 45 -0.4329839315602326 0 4622.0 -0.4329839315602326 1
gene  1 5 45 -0.27372181104081794 0 4624.0 -0.27372181104081794 1
gene  1 7 45 0.05375152376262615 0 4626.0 0.05375152376262615 1
gene  1 12 45 0.004712901293621896 0 4631.0 0.004712901293621896 1
gene  1 22 45 0.09929403715611984 0 4641.0 0.09929403715611984 1
gene  1 23 45 -0.8359011338138738 0 4642.0 -0.8359011338138738 1
gene  1 25 45 0.7838013255636602 0 4644.0 0.7838013255636602 1
gene  1 27 45 0.2962993158671543 0 4646.0 0.2962993158671543 1
gene  1 28 45 0.9575536908820869 0 4647.0 0.9575536908820869 1
gene  1 31 45 0.27698041165498544 0 4650.0 0.27698041165498544 1
gene  1 33 45 -0.27499633064411233 0 4652.0 -0.27499633064411233 1
gene  1 35 45 0.8359600092768579 0 4654.0 0.8359600092768579 1
gene  1 37 45 0.18680761005179813 0 4656.0 0.18680761005179813 1
gene  1 38 45 0.39001403931045053 0 4657.0 0.39001403931045053 1
gene  1 39 45 -0.8127371032859152 0 4658.0 -0.8127371032859152 1
gene  1 41 45 -0.5009995715872326 0 4660.0 -0.5009995715872326 1
gene  1 42 45 0.8784687323154073 0 4661.0 0.8784687323154073 1
gene  1 1 46 0.8412216025692605 0 4725.0 0.8412216025692605 1
gene  1 3 46 -0.2048647406999098 0 4727.0 -0.2048647406999098 1
gene  1 4 46 -0.2881080323265085 0 4728.0 -0.2881080323265085 1
gene  1 6 46 -0.08152567462361626 0 4730.0 -0.08152567462361626 1
gene  1 9 46 -0.06909608640061093 0 4733.0 -0.06909608640061093 1
gene  1 10 46 0.9090920758443153 0 4734.0 0.9090920758443153 1
gene  1 12 46 -0.43094705705952085 0 4736.0 -0.43094705705952085 1
gene  1 16 46 -0.7369312899565584 0 4740.0 -0.7369312899565584 1
gene  1 17 46 -0.5623563856069183 0 4741.0 -0.5623563856069183 1
gene  1 24 46 -0.17228232605101812 0 4748.0 -0.17228232605101812 1
gene  1 25 46 -0.8838021959178831 0 4749.0 -0.8838021959178831 1
gene  1 28 46 -0.688755763648523 0 4752.0 -0.688755763648523 1
gene  1 30 46 0.5121155123977025 0 4754.0 0.5121155123977025 1
gene  1 37 46 0.8269861263282842 0 4761.0 0.8269861263282842 1
gene  1 38 46 0.19149260266003176 0 4762.0 0.19149260266003176 1
gene  1 39 46 -0.5447597881202393 0 4763.0 -0.5447597881202393 1
gene  1 41 46 0.7823704154664467 0 4765.0 0.7823704154664467 1
gene  1 44 46 0.30295802971288266 0 4768.0 0.30295802971288266 1
gene  1 45 46 0.5386529324648578 0 4769.0 0.5386529324648578 1
gene  1 1 47 -0.7181743306620123 0 4830.0 -0.7181743306620123 1
gene  1 4 47 0.834024058892214 0 4833.0 0.834024058892214 1
gene  1 5 47 -0.8802661078063353 0 4834.0 -0.8802661078063353 1
gene  1 7 47 -0.2228300228369292 0 4836.0 -0.2228300228369292 1
gene  1 13 47 -0.020548657617020183 0 4842.0 -0.020548657617020183 1
gene  1 20 47 -0.05491534782462093 0 4849.0 -0.05491534782462093 1
gene  1 21 47 -0.7018982544247641 0 4850.0 -0.7018982544247641 1
gene  1 22 47 0.23904760180874118 0 4851.0 0.23904760180874118 1
gene  1 23 47 -0.43180305918976447 0 4852.0 -0.43180305918976447 1
gene  1 24 47 -0.6974201191509883 0 4853.0 -0.6974201191509883 1
gene  1 26 47 0.40265577990310886 0 4855.0 0.40265577990310886 1
gene  1 30 47 -0.4589369569429814 0 4859.0 -0.4589369569429814 1
gene  1 32 47 0.37173128390644106 0 4861.0 0.37173128390644106 1
gene  1 33 47 0.7836381791946062 0 4862.0 0.7836381791946062 1
gene  1 34 47 -0.8321763027325207 0 4863.0 -0.8321763027325207 1
gene  1 36 47 0.6924362208719936 0 4865.0 0.6924362208719936 1
gene  1 37 47 0.8951484180763736 0 4866.0 0.8951484180763736 1
gene  1 38 47 -0.3054088862010218 0 4867.0 -0.3054088862010218 1
gene  1 40 47 -0.547090520130895 0 4869.0 -0.547090520130895 1
gene  1 44 47 -0.9385278688422951 0 4873.0 -0.9385278688422951 1
gene  1 45 47 0.6730527583955582 0 4874.0 0.6730527583955582 1
gene  1 46 47 0.3936917411431309 0 4875.0 0.3936917411431309 1
gene  1 1 48 -0.9239116531465921 0 4935.0 -0.9239116531465921 1
gene  1 2 48 0.3644897524958908 0 4936.0 0.3644897524958908 1
gene  1 5 48 -0.5813277173896167 0 4939.0 -0.5813277173896167 1
gene  1 7 48 0.8523722098073566 0 4941.0 0.8523722098073566 1
gene  1 8 48 -0.6629759275932121 0 4942.0 -0.6629759275932121 1
gene  1 9 48 0.04853051883965209 0 4943.0 0.04853051883965209 1
gene  1 10 48 -0.8577793983901728 0 4944.0 -0.8577793983901728 1
gene  1 13 48 -0.21034621059870373 0 4947.0 -0.21034621059870373 1
gene  1 15 48 0.4866702756403296 0 4949.0 0.4866702756403296 1
gene  1 17 48 -0.6231925350798835 0 4951.0 -0.6231925350798835 1
gene  1 18 48 0.503199575427265 0 4952.0 0.503199575427265 1
gene  1 19 48 -0.8297120497716761 0 4953.0 -0.8297120497716761 1
gene  1 20 48 0.21374183754798515 0 4954.0 0.21374183754798515 1
gene  1 21 48 -0.5581364188624752 0 4955.0 -0.5581364188624752 1
gene  1 23 48 -0.2725420807734641 0 4957.0 -0.2725420807734641 1
gene  1 24 48 0.3758475484446103 0 4958.0 0.3758475484446103 1
gene  1 26 48 -0.45650567910705275 0 4960.0 -0.45650567910705275 1
gene  1 27 48 0.6093459803443725 0 4961.0 0.6093459803443725 1
gene  1 28 48 0.8424628251127747 0 4962.0 0.8424628251127747 1
gene  1 30 48 -0.2877336199097832 0 4964.0 -0.2877336199097832 1
gene  1 33 48 -0.6394466696879134 0 4967.0 -0.6394466696879134 1
gene  1 35 48 0.6727652506876786 0 4969.0 0.6727652506876786 1
gene  1 36 48 -0.6500311934540687 0 4970.0 -0.6500311934540687 1
gene  1 39 48 0.6366460132288315 0 4973.0 0.6366460132288315 1
gene  1 40 48 -0.18561790184365878 0 4974.0 -0.18561790184365878 1
gene  1 44 48 -0.9461231831158983 0 4978.0 -0.9461231831158983 1
gene  1 47 48 0.307382666118005 0 4981.0 0.307382666118005 1
gene  1 1 49 0.7026853910437899 0 5040.0 0.7026853910437899 1
gene  1 3 49 -0.7303195633194345 0 5042.0 -0.7303195633194345 1
gene  1 5 49 0.5023212537148868 0 5044.0 0.5023212537148868 1
gene  1 6 49 -0.22583064395226216 0 5045.0 -0.22583064395226216 1
gene  1 7 49 0.6778437526383737 0 5046.0 0.6778437526383737 1
gene  1 8 49 0.37811578319736516 0 5047.0 0.37811578319736516 1
gene  1 11 49 0.48722952004767517 0 5050.0 0.48722952004767517 1
gene  1 13 49 -0.18224803593009042 0 5052.0 -0.18224803593009042 1
gene  1 15 49 0.4895748505079375 0 5054.0 0.4895748505079375 1
gene  1 21 49 -0.9570103178700938 0 5060.0 -0.9570103178700938 1
gene  1 22 49 0.5969098986340251 0 5061.0 0.5969098986340251 1
gene  1 23 49 0.5664995434867014 0 5062.0 0.5664995434867014 1
gene  1 28 49 -0.8701878730053575 0 5067.0 -0.8701878730053575 1
gene  1 31 49 0.18962495107248645 0 5070.0 0.18962495107248645 1
gene  1 33 49 -0.9838871502093292 0 5072.0 -0.9838871502093292 1
gene  1 34 49 0.23186026522756298 0 5073.0 0.23186026522756298 1
gene  1 35 49 -0.43673068906786794 0 5074.0 -0.43673068906786794 1
gene  1 38 49 -0.8019503831759068 0 5077.0 -0.8019503831759068 1
gene  1 39 49 -0.5557214200811816 0 5078.0 -0.5557214200811816 1
gene  1 41 49 -0.48557959952735286 0 5080.0 -0.48557959952735286 1
gene  1 45 49 0.8271609141706877 0 5084.0 0.8271609141706877 1
gene  1 3 50 0.04149287216783004 0 5147.0 0.04149287216783004 1
gene  1 4 50 0.8252765464954647 0 5148.0 0.8252765464954647 1
gene  1 6 50 -0.2932974330399004 0 5150.0 -0.2932974330399004 1
gene  1 9 50 0.41718297991990894 0 5153.0 0.41718297991990894 1
gene  1 10 50 0.45361082380138784 0 5154.0 0.45361082380138784 1
gene  1 11 50 0.16107692055068756 0 5155.0 0.16107692055068756 1
gene  1 12 50 0.2025274166668365 0 5156.0 0.2025274166668365 1
gene  1 14 50 0.04569830703940758 0 5158.0 0.04569830703940758 1
gene  1 16 50 -0.2520989566841674 0 5160.0 -0.2520989566841674 1
gene  1 21 50 -0.8752312379591314 0 5165.0 -0.8752312379591314 1
gene  1 23 50 -0.5248948874031277 0 5167.0 -0.5248948874031277 1
gene  1 24 50 0.6547854319645738 0 5168.0 0.6547854319645738 1
gene  1 26 50 0.26157594107408044 0 5170.0 0.26157594107408044 1
gene  1 32 50 -0.029672153584768934 0 5176.0 -0.029672153584768934 1
gene  1 33 50 -0.6466402932572306 0 5177.0 -0.6466402932572306 1
gene  1 35 50 0.12378800669595402 0 5179.0 0.12378800669595402 1
gene  1 37 50 -0.35828642304321345 0 5181.0 -0.35828642304321345 1
gene  1 40 50 -0.8898967633799351 0 5184.0 -0.8898967633799351 1
gene  1 45 50 -0.8888273014701147 0 5189.0 -0.8888273014701147 1
gene  1 48 50 0.5896046476804127 0 5192.0 0.5896046476804127 1
gene  1 2 51 0.10523389675873862 0 5251.0 0.10523389675873862 1
gene  1 4 51 0.4068428972287188 0 5253.0 0.4068428972287188 1
gene  1 6 51 0.5238655242596941 0 5255.0 0.5238655242596941 1
gene  1 8 51 0.6116848450012686 0 5257.0 0.6116848450012686 1
gene  1 9 51 0.9891899389240594 0 5258.0 0.9891899389240594 1
gene  1 13 51 -0.05672829638358934 0 5262.0 -0.05672829638358934 1
gene  1 16 51 0.518873106921339 0 5265.0 0.518873106921339 1
gene  1 18 51 -0.9974529533521562 0 5267.0 -0.9974529533521562 1
gene  1 19 51 0.30251892880717823 0 5268.0 0.30251892880717823 1
gene  1 21 51 0.45721491808781756 0 5270.0 0.45721491808781756 1
gene  1 23 51 0.44895241742795 0 5272.0 0.44895241742795 1
gene  1 24 51 0.46069799961508906 0 5273.0 0.46069799961508906 1
gene  1 28 51 0.36274121272540105 0 5277.0 0.36274121272540105 1
gene  1 33 51 0.8446161546468341 0 5282.0 0.8446161546468341 1
gene  1 36 51 -0.16888744099206576 0 5285.0 -0.16888744099206576 1
gene  1 37 51 0.4725433192936366 0 5286.0 0.4725433192936366 1
gene  1 39 51 -0.8775220326774867 0 5288.0 -0.8775220326774867 1
gene  1 42 51 -0.22639069343595353 0 5291.0 -0.22639069343595353 1
gene  1 44 51 0.09872716400263282 0 5293.0 0.09872716400263282 1
gene  1 45 51 -0.28448711789290415 0 5294.0 -0.28448711789290415 1
gene  1 49 51 -0.9018918517570363 0 5298.0 -0.9018918517570363 1
gene  1 1 52 -0.5980917381375043 0 5355.0 -0.5980917381375043 1
gene  1 3 52 -0.9502050691013714 0 5357.0 -0.9502050691013714 1
gene  1 6 52 -0.6800960920687756 0 5360.0 -0.6800960920687756 1
gene  1 7 52 0.9169203874833118 0 5361.0 0.9169203874833118 1
gene  1 9 52 -0.3633640056818196 0 5363.0 -0.3633640056818196 1
gene  1 16 52 -0.9643412307645092 0 5370.0 -0.9643412307645092 1
gene  1 17 52 0.24252894813309833 0 5371.0 0.24252894813309833 1
gene  1 20 52 -0.11310183577839406 0 5374.0 -0.11310183577839406 1
gene  1 21 52 0.145480916953856 0 5375.0 0.145480916953856 1
gene  1 23 52 -0.04763987841981754 0 5377.0 -0.04763987841981754 1
gene  1 26 52 0.9273289414482503 0 5380.0 0.9273289414482503 1
gene  1 32 52 0.37505787601874596 0 5386.0 0.37505787601874596 1
gene  1 33 52 0.7021425630210929 0 5387.0 0.7021425630210929 1
gene  1 34 52 0.8711635062376685 0 5388.0 0.8711635062376685 1
gene  1 37 52 0.29389274106775 0 5391.0 0.29389274106775 1
gene  1 40 52 0.7338983022788356 0 5394.0 0.7338983022788356 1
gene  1 42 52 0.12153595841927389 0 5396.0 0.12153595841927389 1
gene  1 50 52 0.05394332811202418 0 5404.0 0.05394332811202418 1
gene  1 51 52 0.5866129113929924 0 5405.0 0.5866129113929924 1
gene  1 2 105 -0.03614264252984223 0 10921.0 -0.03614264252984223 1
gene  1 8 105 0.9035981558095405 0 10927.0 0.9035981558095405 1
gene  1 10 105 0.9945573497289535 0 10929.0 0.9945573497289535 1
gene  1 11 105 0.8516895191259132 0 10930.0 0.8516895191259132 1
gene  1 12 105 0.23931832284866184 0 10931.0 0.23931832284866184 1
gene  1 14 105 -0.7294910585825836 0 10933.0 -0.7294910585825836 1
gene  1 16 105 -0.9815287522869622 0 10935.0 -0.9815287522869622 1
gene  1 19 105 -0.7336793676760914 0 10938.0 -0.7336793676760914 1
gene  1 21 105 0.40940986114475186 0 10940.0 0.40940986114475186 1
gene  1 29 105 -0.5548524571989445 0 10948.0 -0.5548524571989445 1
gene  1 34 105 0.6281038417722405 0 10953.0 0.6281038417722405 1
gene  1 35 105 0.49453697380456163 0 10954.0 0.49453697380456163 1
gene  1 37 105 -0.09880655737747324 0 10956.0 -0.09880655737747324 1
gene  1 38 105 -0.285650469873854 0 10957.0 -0.285650469873854 1
gene  1 41 105 0.8979646668181995 0 10960.0 0.8979646668181995 1
gene  1 42 105 0.036613405121160514 0 10961.0 0.036613405121160514 1
gene  1 46 105 0.11923104590970379 0 10965.0 0.11923104590970379 1
gene  1 47 105 -0.41354602821050335 0 10966.0 -0.41354602821050335 1
gene  1 51 105 0.45790293169467555 0 10970.0 0.45790293169467555 1
genomeend 10
