genomestart  24
trait 1 0.0 0.0 0.0 0.0 0.0 0.0 0.0 0.0 0.0 0.0 0.0 0.0 0.0 0.0 0.0 0.0 0.0 0.0 0.0 0.0 
node 1 1 1 1
node 2 1 1 1
node 3 1 1 1
node 4 1 1 3
node 5 1 0 0
node 6 1 0 0
node 7 1 0 0
node 8 1 0 0
node 9 1 0 0
node 10 1 0 0
node 11 1 0 0
node 12 1 0 0
node 13 1 0 0
node 14 1 0 0
node 15 1 0 0
node 16 1 0 0
node 17 1 0 0
node 18 1 0 0
node 19 1 0 0
node 20 1 0 0
node 21 1 0 0
node 22 1 0 0
node 23 1 0 0
node 24 1 0 0
node 25 1 0 0
node 26 1 0 0
node 27 1 0 0
node 28 1 0 0
node 29 1 0 0
node 30 1 0 0
node 31 1 0 0
node 32 1 0 0
node 33 1 0 0
node 34 1 0 0
node 35 1 0 0
node 36 1 0 0
node 37 1 0 0
node 105 1 0 2
gene  1 2 5 0.88883652440843 0 421.0 0.88883652440843 1
gene  1 3 5 -0.9677213396443105 0 422.0 -0.9677213396443105 1
gene  1 2 6 0.47239818836046565 0 526.0 0.47239818836046565 1
gene  1 3 6 0.3141676969309133 0 527.0 0.3141676969309133 1
gene  1 4 6 0.8614710318437316 0 528.0 0.8614710318437316 1
gene  1 5 6 -0.36299482044355624 0 529.0 -0.36299482044355624 1
gene  1 3 7 -0.4106205241077816 0 632.0 -0.4106205241077816 1
gene  1 5 7 0.09446789089415886 0 634.0 0.09446789089415886 1
gene  1 6 7 0.2537710275792948 0 635.0 0.2537710275792948 1
gene  1 1 8 0.1603299493132614 0 735.0 0.1603299493132614 1
gene  1 5 8 -0.13108731660322237 0 739.0 -0.13108731660322237 1
gene  1 6 8 0.8295818490451126 0 740.0 0.8295818490451126 1
gene  1 7 8 0.9579917835124583 0 741.0 0.9579917835124583 1
gene  1 1 9 -0.28711453915862184 0 840.0 -0.28711453915862184 1
gene  1 3 9 0.4382922188252123 0 842.0 0.4382922188252123 1
gene  1 4 9 -0.4615698723543392 0 843.0 -0.4615698723543392 1
gene  1 5 9 0.6726424904919147 0 844.0 0.6726424904919147 1
gene  1 7 9 0.0888039315071476 0 846.0 0.0888039315071476 1
gene  1 8 9 -0.8281556806524641 0 847.0 -0.8281556806524641 1
gene  1 1 10 0.0027306080249698272 0 945.0 0.0027306080249698272 1
gene  1 2 10 -0.07998408925260214 0 946.0 -0.07998408925260214 1
gene  1 5 10 -0.4922575495620094 0 949.0 -0.4922575495620094 1
gene  1 6 10 0.4529960975513001 0 950.0 0.4529960975513001 1
gene  1 7 10 0.03368430858943894 0 951.0 0.03368430858943894 1
gene  1 2 11 0.8070041744661058 0 1051.0 0.8070041744661058 1
gene  1 4 11 0.4314241756442049 0 1053.0 0.4314241756442049 1
gene  1 6 11 0.20851595528714373 0 1055.0 0.20851595528714373 1
gene  1 8 11 0.5212961910021267 0 1057.0 0.5212961910021267 1
gene  1 9 11 -0.3503104949980992 0 1058.0 -0.3503104949980992 1
gene  1 10 11 0.25268162772780656 0 1059.0 0.25268162772780656 1
gene  1 6 12 -0.9096920374480815 0 1160.0 -0.9096920374480815 1
gene  1 8 12 -0.061763839872943094 0 1162.0 -0.061763839872943094 1
gene  1 3 13 0.5868556724045619 0 1262.0 0.5868556724045619 1
gene  1 4 13 0.47731217720982133 0 1263.0 0.47731217720982133 1
gene  1 7 13 0.4712239165553157 0 1266.0 0.4712239165553157 1
gene  1 2 14 -0.10327710575134286 0 1366.0 -0.10327710575134286 1
gene  1 3 14 0.5776149563163986 0 1367.0 0.5776149563163986 1
gene  1 4 14 -0.6628108223396411 0 1368.0 -0.6628108223396411 1
gene  1 8 14 0.3257944982501133 0 1372.0 0.3257944982501133 1
gene  1 10 14 0.5984609024071946 0 1374.0 0.5984609024071946 1
gene  1 12 14 0.7496990937354133 0 1376.0 0.7496990937354133 1
gene  1 1 15 0.7169251652688475 0 1470.0 0.7169251652688475 1
gene  1 4 15 -0.4539345165502038 0 1473.0 -0.4539345165502038 1
gene  1 6 15 -0.07171203574770768 0 1475.0 -0.07171203574770768 1
gene  1 13 15 -0.03518663484412066 0 1482.0 -0.03518663484412066 1
gene  1 2 16 0.5318332499623649 0 1576.0 0.5318332499623649 1
gene  1 4 16 0.6137330175775236 0 1578.0 0.6137330175775236 1
gene  1 6 16 0.6872984992044506 0 1580.0 0.6872984992044506 1
gene  1 7 16 0.39536610281965845 0 1581.0 0.39536610281965845 1
gene  1 9 16 0.23337574649318416 0 1583.0 0.23337574649318416 1
gene  1 15 16 0.9448520997606499 0 1589.0 0.9448520997606499 1
gene  1 4 17 -0.48183733931861894 0 1683.0 -0.48183733931861894 1
gene  1 5 17 0.28212958646704844 0 1684.0 0.28212958646704844 1
gene  1 7 17 0.3038391132836319 0 1686.0 0.3038391132836319 1
gene  1 11 17 0.6740119798702532 0 1690.0 0.6740119798702532 1
gene  1 12 17 0.12501170016067942 0 1691.0 0.12501170016067942 1
gene  1 13 17 -0.8208676828870624 0 1692.0 -0.8208676828870624 1
gene  1 15 17 -0.8178848568330667 0 1694.0 -0.8178848568330667 1
gene  1 2 18 -0.3099130898562149 0 1786.0 -0.3099130898562149 1
gene  1 3 18 0.02501349481641324 0 1787.0 0.02501349481641324 1
gene  1 4 18 0.8501721654320112 0 1788.0 0.8501721654320112 1
gene  1 6 18 0.620656170217592 0 1790.0 0.620656170217592 1
gene  1 10 18 -0.42293301163384744 0 1794.0 -0.42293301163384744 1
gene  1 12 18 -0.16446089937179442 0 1796.0 -0.16446089937179442 1
gene  1 13 18 0.8536195757327263 0 1797.0 0.8536195757327263 1
gene  1 17 18 -0.4250602498581283 0 1801.0 -0.4250602498581283 1
gene  1 1 19 -0.8442278456687942 0 1890.0 -0.8442278456687942 1
gene  1 7 19 -0.0870751261163405 0 1896.0 -0.0870751261163405 1
gene  1 9 19 -0.37042638737805356 0 1898.0 -0.37042638737805356 1
gene  1 10 19 -0.07129729962953268 0 1899.0 -0.07129729962953268 1
gene  1 13 19 0.17230806646042685 0 1902.0 0.17230806646042685 1
gene  1 1 20 0.0382132951702171 0 1995.0 0.0382132951702171 1
gene  1 2 20 0.6992487066093346 0 1996.0 0.6992487066093346 1
gene  1 5 20 0.9948258212852273 0 1999.0 0.9948258212852273 1
gene  1 6 20 -0.6718481739041479 0 2000.0 -0.6718481739041479 1
gene  1 8 20 -0.4608301036917034 0 2002.0 -0.4608301036917034 1
gene  1 9 20 0.8091341435764585 0 2003.0 0.8091341435764585 1
gene  1 12 20 0.8174427614204087 0 2006.0 0.8174427614204087 1
gene  1 14 20 -0.6154053440220129 0 2008.0 -0.6154053440220129 1
gene  1 16 20 -0.16433428856857912 0 2010.0 -0.16433428856857912 1
gene  1 17 20 -0.9617865935571814 0 2011.0 -0.9617865935571814 1
gene  1 5 21 0.7977090719395975 0 2104.0 0.7977090719395975 1
gene  1 8 21 -0.5267156307585006 0 2107.0 -0.5267156307585006 1
gene  1 10 21 -0.3032533561557862 0 2109.0 -0.3032533561557862 1
gene  1 15 21 -0.9199137851539649 0 2114.0 -0.9199137851539649 1
gene  1 16 21 0.14863768346083817 0 2115.0 0.14863768346083817 1
gene  1 17 21 0.6040335932237338 0 2116.0 0.6040335932237338 1
gene  1 18 21 -0.3461259956241788 0 2117.0 -0.3461259956241788 1
gene  1 19 21 -0.9794077559588525 0 2118.0 -0.9794077559588525 1
gene  1 3 22 0.3088275838696546 0 2207.0 0.3088275838696546 1
gene  1 5 22 -0.3501847501446185 0 2209.0 -0.3501847501446185 1
gene  1 6 22 0.9874914140641365 0 2210.0 0.9874914140641365 1
gene  1 8 22 -0.8022468719153412 0 2212.0 -0.8022468719153412 1
gene  1 11 22 0.6038928528562879 0 2215.0 0.6038928528562879 1
gene  1 12 22 -0.4260854055327177 0 2216.0 -0.4260854055327177 1
gene  1 13 22 0.19649513832791987 0 2217.0 0.19649513832791987 1
gene  1 14 22 0.9479729882717834 0 2218.0 0.9479729882717834 1
gene  1 15 22 -0.1832977549377799 0 2219.0 -0.1832977549377799 1
gene  1 16 22 -0.3368047771543239 0 2220.0 -0.3368047771543239 1
gene  1 19 22 -0.5281138651036936 0 2223.0 -0.5281138651036936 1
gene  1 20 22 0.5819217443535046 0 2224.0 0.5819217443535046 1
gene  1 21 22 -0.09813498303196988 0 2225.0 -0.09813498303196988 1
gene  1 3 23 -0.4110230699732468 0 2312.0 -0.4110230699732468 1
gene  1 11 23 -0.40532796203294597 0 2320.0 -0.40532796203294597 1
gene  1 12 23 0.4774880533020195 0 2321.0 0.4774880533020195 1
gene  1 15 23 -0.1919221281894068 0 2324.0 -0.1919221281894068 1
gene  1 16 23 0.8500822143108583 0 2325.0 0.8500822143108583 1
gene  1 17 23 0.2551182298885203 0 2326.0 0.2551182298885203 1
gene  1 19 23 0.6988771652702598 0 2328.0 0.6988771652702598 1
gene  1 20 23 -0.5124603323742724 0 2329.0 -0.5124603323742724 1
gene  1 21 23 0.4027057726379053 0 2330.0 0.4027057726379053 1
gene  1 1 24 -0.32469531655477646 0 2415.0 -0.32469531655477646 1
gene  1 3 24 0.2431907956639754 0 2417.0 0.2431907956639754 1
gene  1 8 24 -0.9808940778527542 0 2422.0 -0.9808940778527542 1
gene  1 12 24 -0.5137355630772862 0 2426.0 -0.5137355630772862 1
gene  1 13 24 0.3780156131622088 0 2427.0 0.3780156131622088 1
gene  1 14 24 0.10136542521569925 0 2428.0 0.10136542521569925 1
gene  1 15 24 0.4464031775797418 0 2429.0 0.4464031775797418 1
gene  1 18 24 -0.9446198061515065 0 2432.0 -0.9446198061515065 1
gene  1 23 24 0.6719060964546564 0 2437.0 0.6719060964546564 1
gene  1 5 25 0.2533309595962203 0 2524.0 0.2533309595962203 1
gene  1 7 25 -0.24289213227861906 0 2526.0 -0.24289213227861906 1
gene  1 10 25 -0.7614929894804467 0 2529.0 -0.7614929894804467 1
gene  1 11 25 -0.015893685606011454 0 2530.0 -0.015893685606011454 1
gene  1 12 25 -0.802581414398511 0 2531.0 -0.802581414398511 1
gene  1 13 25 0.2884388063903164 0 2532.0 0.2884388063903164 1
gene  1 15 25 0.9219886426006789 0 2534.0 0.9219886426006789 1
gene  1 17 25 -0.9443726534225871 0 2536.0 -0.9443726534225871 1
gene  1 19 25 0.9598079803396656 0 2538.0 0.9598079803396656 1
gene  1 21 25 -0.32931794956962956 0 2540.0 -0.32931794956962956 1
gene  1 3 26 0.19977236651413388 0 2627.0 0.19977236651413388 1
gene  1 4 26 0.17267504057595662 0 2628.0 0.17267504057595662 1
gene  1 5 26 0.7568802807707621 0 2629.0 0.7568802807707621 1
gene  1 6 26 -0.4376982128429614 0 2630.0 -0.4376982128429614 1
gene  1 7 26 0.8984028360657235 0 2631.0 0.8984028360657235 1
gene  1 9 26 0.40294733168753816 0 2633.0 0.40294733168753816 1
gene  1 10 26 -0.9856848356980455 0 2634.0 -0.9856848356980455 1
gene  1 12 26 -0.4945659820882964 0 2636.0 -0.4945659820882964 1
gene  1 14 26 -0.30262237968846806 0 2638.0 -0.30262237968846806 1
gene  1 15 26 -0.008858575616513487 0 2639.0 -0.008858575616513487 1
gene  1 16 26 -0.8574331928873489 0 2640.0 -0.8574331928873489 1
gene  1 17 26 0.4053796115155137 0 2641.0 0.4053796115155137 1
gene  1 19 26 0.4715243790448995 0 2643.0 0.4715243790448995 1
gene  1 22 26 -0.2118339525230012 0 2646.0 -0.2118339525230012 1
gene  1 25 26 0.6351960599301276 0 2649.0 0.6351960599301276 1
gene  1 1 27 -0.8430947309270278 0 2730.0 -0.8430947309270278 1
gene  1 6 27 -0.21709249984604428 0 2735.0 -0.21709249984604428 1
gene  1 7 27 -0.6018519974352637 0 2736.0 -0.6018519974352637 1
gene  1 8 27 -0.04564699127192373 0 2737.0 -0.04564699127192373 1
gene  1 14 27 0.638599848078213 0 2743.0 0.638599848078213 1
gene  1 15 27 0.653084150273962 0 2744.0 0.653084150273962 1
gene  1 17 27 -0.5233743001744658 0 2746.0 -0.5233743001744658 1
gene  1 21 27 -0.5872210174192163 0 2750.0 -0.5872210174192163 1
gene  1 22 27 0.6487028366543425 0 2751.0 0.6487028366543425 1
gene  1 23 27 -0.8097385248612738 0 2752.0 -0.8097385248612738 1
gene  1 24 27 0.1965741110156234 0 2753.0 0.1965741110156234 1
gene  1 25 27 0.05490026097478773 0 2754.0 0.05490026097478773 1
gene  1 7 28 -0.2424361310121551 0 2841.0 -0.2424361310121551 1
gene  1 10 28 -0.5528046683318075 0 2844.0 -0.5528046683318075 1
gene  1 11 28 0.9649541010514444 0 2845.0 0.9649541010514444 1
gene  1 12 28 -0.25229414421018503 0 2846.0 -0.25229414421018503 1
gene  1 13 28 -0.03279579834214408 0 2847.0 -0.03279579834214408 1
gene  1 14 28 0.531259531013382 0 2848.0 0.531259531013382 1
gene  1 15 28 -0.7263254091290712 0 2849.0 -0.7263254091290712 1
gene  1 16 28 0.18712506924337335 0 2850.0 0.18712506924337335 1
gene  1 23 28 -0.32766691256179703 0 2857.0 -0.32766691256179703 1
gene  1 24 28 0.5140451600153897 0 2858.0 0.5140451600153897 1
gene  1 27 28 0.12296887435234971 0 2861.0 0.12296887435234971 1
gene  1 3 29 -0.19607568267734254 0 2942.0 -0.19607568267734254 1
gene  1 4 29 0.024562036220865058 0 2943.0 0.024562036220865058 1
gene  1 5 29 0.2163012917629944 0 2944.0 0.2163012917629944 1
gene  1 6 29 0.130996341318122 0 2945.0 0.130996341318122 1
gene  1 7 29 -0.7404895406844386 0 2946.0 -0.7404895406844386 1
gene  1 10 29 0.4822281494884323 0 2949.0 0.4822281494884323 1
gene  1 11 29 -0.310879357060429 0 2950.0 -0.310879357060429 1
gene  1 12 29 0.22523511535048202 0 2951.0 0.22523511535048202 1
gene  1 13 29 0.7988083407008097 0 2952.0 0.7988083407008097 1
gene  1 16 29 0.7808599715758164 0 2955.0 0.7808599715758164 1
gene  1 19 29 -0.5692498309137468 0 2958.0 -0.5692498309137468 1
gene  1 20 29 0.7155022762822418 0 2959.0 0.7155022762822418 1
gene  1 21 29 -0.26991397216476276 0 2960.0 -0.26991397216476276 1
gene  1 22 29 -0.8536591555083225 0 2961.0 -0.8536591555083225 1
gene  1 25 29 -0.07198099747741715 0 2964.0 -0.07198099747741715 1
gene  1 26 29 -0.2984275209390904 0 2965.0 -0.2984275209390904 1
gene  1 27 29 -0.9306363183081294 0 2966.0 -0.9306363183081294 1
gene  1 28 29 -0.21725016484044668 0 2967.0 -0.21725016484044668 1
gene  1 1 30 -0.8143786562501765 0 3045.0 -0.8143786562501765 1
gene  1 5 30 -0.4759054693363254 0 3049.0 -0.4759054693363254 1
gene  1 7 30 0.7693788788057335 0 3051.0 0.7693788788057335 1
gene  1 9 30 -0.537819953165573 0 3053.0 -0.537819953165573 1
gene  1 10 30 -0.24610555299549353 0 3054.0 -0.24610555299549353 1
gene  1 11 30 0.6210686340326804 0 3055.0 0.6210686340326804 1
gene  1 15 30 -0.8767650499208791 0 3059.0 -0.8767650499208791 1
gene  1 16 30 -0.4939898491788378 0 3060.0 -0.4939898491788378 1
gene  1 18 30 -0.810001090455849 0 3062.0 -0.810001090455849 1
gene  1 19 30 -0.9740034478244854 0 3063.0 -0.9740034478244854 1
gene  1 22 30 -0.11596034002060107 0 3066.0 -0.11596034002060107 1
gene  1 23 30 -0.39592002445115326 0 3067.0 -0.39592002445115326 1
gene  1 25 30 0.16712152663874547 0 3069.0 0.16712152663874547 1
gene  1 26 30 0.30529204284709754 0 3070.0 0.30529204284709754 1
gene  1 29 30 0.04429161704022555 0 3073.0 0.04429161704022555 1
gene  1 3 31 0.7119397979540989 0 3152.0 0.7119397979540989 1
gene  1 6 31 -0.8413195828900463 0 3155.0 -0.8413195828900463 1
gene  1 7 31 0.9632344086939981 0 3156.0 0.9632344086939981 1
gene  1 11 31 -0.7102545669877945 0 3160.0 -0.7102545669877945 1
gene  1 12 31 -0.06740597618344912 0 3161.0 -0.06740597618344912 1
gene  1 13 31 -0.6134576946611725 0 3162.0 -0.6134576946611725 1
gene  1 15 31 -0.32204600047873755 0 3164.0 -0.32204600047873755 1
gene  1 16 31 0.12413701990483539 0 3165.0 0.12413701990483539 1
gene  1 21 31 0.8032162942233306 0 3170.0 0.8032162942233306 1
gene  1 22 31 -0.31545158421935915 0 3171.0 -0.31545158421935915 1
gene  1 24 31 0.5595705185342456 0 3173.0 0.5595705185342456 1
gene  1 25 31 -0.18633017238324856 0 3174.0 -0.18633017238324856 1
gene  1 26 31 -0.8105136081692697 0 3175.0 -0.8105136081692697 1
gene  1 27 31 -0.18749780904217872 0 3176.0 -0.18749780904217872 1
gene  1 29 31 -0.23459970337016678 0 3178.0 -0.23459970337016678 1
gene  1 1 32 -0.36686346004526615 0 3255.0 -0.36686346004526615 1
gene  1 2 32 0.9500535817487181 0 3256.0 0.9500535817487181 1
gene  1 4 32 0.6846517858744178 0 3258.0 0.6846517858744178 1
gene  1 6 32 0.31063965568195573 0 3260.0 0.31063965568195573 1
gene  1 7 32 0.3465729511905692 0 3261.0 0.3465729511905692 1
gene  1 12 32 0.8852976481243789 0 3266.0 0.8852976481243789 1
gene  1 13 32 0.36486747737817204 0 3267.0 0.36486747737817204 1
gene  1 14 32 0.3241592308657455 0 3268.0 0.3241592308657455 1
gene  1 16 32 -0.4602610035259588 0 3270.0 -0.4602610035259588 1
gene  1 18 32 0.9327254789388666 0 3272.0 0.9327254789388666 1
gene  1 20 32 -0.12003878258223366 0 3274.0 -0.12003878258223366 1
gene  1 23 32 -0.04463713324257701 0 3277.0 -0.04463713324257701 1
gene  1 27 32 0.10276486773164151 0 3281.0 0.10276486773164151 1
gene  1 29 32 -0.4957099376447136 0 3283.0 -0.4957099376447136 1
gene  1 30 32 -0.6817225639600911 0 3284.0 -0.6817225639600911 1
gene  1 1 33 -0.6790961945740053 0 3360.0 -0.6790961945740053 1
gene  1 3 33 0.16943982301488536 0 3362.0 0.16943982301488536 1
gene  1 4 33 0.5935072352105049 0 3363.0 0.5935072352105049 1
gene  1 5 33 -0.7481735486481014 0 3364.0 -0.7481735486481014 1
gene  1 6 33 -0.8776589664970872 0 3365.0 -0.8776589664970872 1
gene  1 7 33 -0.1744653009271634 0 3366.0 -0.1744653009271634 1
gene  1 9 33 0.8278053996833561 0 3368.0 0.8278053996833561 1
gene  1 11 33 -0.7400622292237798 0 3370.0 -0.7400622292237798 1
gene  1 13 33 0.17573695736728967 0 3372.0 0.17573695736728967 1
gene  1 15 33 0.41676559766935395 0 3374.0 0.41676559766935395 1
gene  1 19 33 0.10854152969147657 0 3378.0 0.10854152969147657 1
gene  1 21 33 0.6466264245417926 0 3380.0 0.6466264245417926 1
gene  1 26 33 -0.22390854985145958 0 3385.0 -0.22390854985145958 1
gene  1 27 33 -0.6092393659797521 0 3386.0 -0.6092393659797521 1
gene  1 30 33 -0.46041196309156585 0 3389.0 -0.46041196309156585 1
gene  1 31 33 -0.5167537770883396 0 3390.0 -0.5167537770883396 1
gene  1 32 33 0.10385551159242734 0 3391.0 0.10385551159242734 1
gene  1 1 34 -0.8393272537266684 0 3465.0 -0.8393272537266684 1
gene  1 7 34 -0.9831056357622248 0 3471.0 -0.9831056357622248 1
gene  1 8 34 -0.27220796383209156 0 3472.0 -0.27220796383209156 1
gene  1 9 34 0.0877989488238281 0 3473.0 0.0877989488238281 1
gene  1 10 34 -0.8465042779915719 0 3474.0 -0.8465042779915719 1
gene  1 11 34 0.3826092953999126 0 3475.0 0.3826092953999126 1
gene  1 13 34 0.8613707662534309 0 3477.0 0.8613707662534309 1
gene  1 14 34 -0.48395908226450735 0 3478.0 -0.48395908226450735 1
gene  1 15 34 -0.06572801093681202 0 3479.0 -0.06572801093681202 1
gene  1 20 34 -0.6281592181781357 0 3484.0 -0.6281592181781357 1
gene  1 21 34 0.5668283178149235 0 3485.0 0.5668283178149235 1
gene  1 22 34 0.32029334684860533 0 3486.0 0.32029334684860533 1
gene  1 23 34 -0.047741831006976265 0 3487.0 -0.047741831006976265 1
gene  1 27 34 -0.029118378188882632 0 3491.0 -0.029118378188882632 1
gene  1 30 34 -0.06110973646118989 0 3494.0 -0.06110973646118989 1
gene  1 32 34 0.8861500680996377 0 3496.0 0.8861500680996377 1
gene  1 6 35 0.0018417516002391388 0 3575.0 0.0018417516002391388 1
gene  1 8 35 0.037185318632454 0 3577.0 0.037185318632454 1
gene  1 12 35 0.6509887336074838 0 3581.0 0.6509887336074838 1
gene  1 14 35 -0.8938965894132375 0 3583.0 -0.8938965894132375 1
gene  1 16 35 -0.7605512421609661 0 3585.0 -0.7605512421609661 1
gene  1 17 35 0.14021224292927037 0 3586.0 0.14021224292927037 1
gene  1 18 35 0.9379649553849423 0 3587.0 0.9379649553849423 1
gene  1 19 35 0.7917935993104541 0 3588.0 0.7917935993104541 1
gene  1 24 35 0.3067788232153893 0 3593.0 0.3067788232153893 1
gene  1 26 35 0.462219822231254 0 3595.0 0.462219822231254 1
gene  1 27 35 -0.77369803059775 0 3596.0 -0.77369803059775 1
gene  1 28 35 0.5915308219993999 0 3597.0 0.5915308219993999 1
gene  1 29 35 -0.6724931216150323 0 3598.0 -0.6724931216150323 1
gene  1 30 35 -0.8670156617126028 0 3599.0 -0.8670156617126028 1
gene  1 31 35 -0.12400464227246755 0 3600.0 -0.12400464227246755 1
gene  1 32 35 0.23941534562862377 0 3601.0 0.23941534562862377 1
gene  1 1 36 -0.9756568089641618 0 3675.0 -0.9756568089641618 1
gene  1 2 36 -0.08659733477784948 0 3676.0 -0.08659733477784948 1
gene  1 3 36 0.04014578038169114 0 3677.0 0.04014578038169114 1
gene  1 4 36 -0.8140986834354778 0 3678.0 -0.8140986834354778 1
gene  1 5 36 -0.24290256220338413 0 3679.0 -0.24290256220338413 1
gene  1 6 36 -0.37606952343946554 0 3680.0 -0.37606952343946554 1
gene  1 7 36 0.9350064091647536 0 3681.0 0.9350064091647536 1
gene  1 8 36 0.6651995639560642 0 3682.0 0.6651995639560642 1
gene  1 12 36 -0.5248729846029637 0 3686.0 -0.5248729846029637 1
gene  1 13 36 0.5093244456435675 0 3687.0 0.5093244456435675 1
gene  1 15 36 -0.3847529427358186 0 3689.0 -0.3847529427358186 1
gene  1 16 36 0.48985807965674444 0 3690.0 0.48985807965674444 1
gene  1 19 36 0.37682482460189204 0 3693.0 0.37682482460189204 1
gene  1 21 36 0.2587934555447896 0 3695.0 0.2587934555447896 1
gene  1 23 36 0.6308733002634994 0 3697.0 0.6308733002634994 1
gene  1 24 36 -0.4861522555438814 0 3698.0 -0.4861522555438814 1
gene  1 26 36 -0.6984273327761432 0 3700.0 -0.6984273327761432 1
gene  1 27 36 -0.3921241774861963 0 3701.0 -0.3921241774861963 1
gene  1 28 36 0.2972600090685884 0 3702.0 0.2972600090685884 1
gene  1 29 36 -0.3158023751475665 0 3703.0 -0.3158023751475665 1
gene  1 30 36 0.024954385746819185 0 3704.0 0.024954385746819185 1
gene  1 32 36 0.3219881828301705 0 3706.0 0.3219881828301705 1
gene  1 34 36 -0.8131664588609373 0 3708.0 -0.8131664588609373 1
gene  1 35 36 0.08044015306779151 0 3709.0 0.08044015306779151 1
gene  1 1 37 0.8804461542755119 0 3780.0 0.8804461542755119 1
gene  1 5 37 -0.8750780023643445 0 3784.0 -0.8750780023643445 1
gene  1 6 37 0.9433015897171413 0 3785.0 0.9433015897171413 1
gene  1 8 37 0.7770603459188573 0 3787.0 0.7770603459188573 1
gene  1 9 37 -0.65693499989758 0 3788.0 -0.65693499989758 1
gene  1 12 37 0.824776567298832 0 3791.0 0.824776567298832 1
gene  1 19 37 0.2657537696915746 0 3798.0 0.2657537696915746 1
gene  1 20 37 -0.39461145418443266 0 3799.0 -0.39461145418443266 1
gene  1 21 37 -0.5094080500550223 0 3800.0 -0.5094080500550223 1
gene  1 23 37 0.3404246554260484 0 3802.0 0.3404246554260484 1
gene  1 26 37 0.5484554186500874 0 3805.0 0.5484554186500874 1
gene  1 27 37 0.5749011109283247 0 3806.0 0.5749011109283247 1
gene  1 30 37 0.9626037457679091 0 3809.0 0.9626037457679091 1
gene  1 31 37 -0.9353904232406707 0 3810.0 -0.9353904232406707 1
gene  1 33 37 -0.6939886140354778 0 3812.0 -0.6939886140354778 1
gene  1 35 37 0.45134902833541357 0 3814.0 0.45134902833541357 1
gene  1 3 105 0.7436752302863978 0 10922.0 0.7436752302863978 1
gene  1 5 105 0.7964582364336896 0 10924.0 0.7964582364336896 1
gene  1 7 105 -0.23604299820714625 0 10926.0 -0.23604299820714625 1
gene  1 9 105 0.24724827810780536 0 10928.0 0.24724827810780536 1
gene  1 14 105 -0.8867399569669429 0 10933.0 -0.8867399569669429 1
gene  1 15 105 0.10796794750696659 0 10934.0 0.10796794750696659 1
gene  1 18 105 -0.5609965723970395 0 10937.0 -0.5609965723970395 1
gene  1 21 105 -0.5441030358545178 0 10940.0 -0.5441030358545178 1
gene  1 24 105 -0.42578555535128826 0 10943.0 -0.42578555535128826 1
gene  1 25 105 -0.564600161500393 0 10944.0 -0.564600161500393 1
gene  1 26 105 -0.923997777690903 0 10945.0 -0.923997777690903 1
gene  1 28 105 -0.8876794451903899 0 10947.0 -0.8876794451903899 1
gene  1 30 105 -0.19760564352073862 0 10949.0 -0.19760564352073862 1
gene  1 36 105 -0.22503431847588007 0 10955.0 -0.22503431847588007 1
gene  1 37 105 -0.5565618413050977 0 10956.0 -0.5565618413050977 1
genomeend 24
