genomestart  9
trait 1 0.0 0.0 0.0 0.0 0.0 0.0 0.0 0.0 0.0 0.0 0.0 0.0 0.0 0.0 0.0 0.0 0.0 0.0 0.0 0.0 
node 1 1 1 1
node 2 1 1 1
node 3 1 1 1
node 4 1 1 3
node 5 1 0 0
node 6 1 0 0
node 7 1 0 0
node 8 1 0 0
node 9 1 0 0
node 10 1 0 0
node 11 1 0 0
node 12 1 0 0
node 13 1 0 0
node 14 1 0 0
node 15 1 0 0
node 16 1 0 0
node 17 1 0 0
node 18 1 0 0
node 19 1 0 0
node 20 1 0 0
node 21 1 0 0
node 22 1 0 0
node 23 1 0 0
node 24 1 0 0
node 105 1 0 2
gene  1 2 5 0.41217576232474673 0 421.0 0.41217576232474673 1
gene  1 4 5 0.0731505292354726 0 423.0 0.0731505292354726 1
gene  1 1 6 0.10475285725833083 0 525.0 0.10475285725833083 1
gene  1 3 6 -0.12705018313433303 0 527.0 -0.12705018313433303 1
gene  1 1 7 -0.3531715439442691 0 630.0 -0.3531715439442691 1
gene  1 5 7 -0.47454951610002527 0 634.0 -0.47454951610002527 1
gene  1 1 8 0.23223932848644502 0 735.0 0.23223932848644502 1
gene  1 3 8 0.7308320604873776 0 737.0 0.7308320604873776 1
gene  1 4 8 -0.9353705002254885 0 738.0 -0.9353705002254885 1
gene  1 7 8 -0.009812304978352726 0 741.0 -0.009812304978352726 1
gene  1 2 9 -0.9687135753116586 0 841.0 -0.9687135753116586 1
gene  1 3 9 0.044150198409831254 0 842.0 0.044150198409831254 1
gene  1 5 9 -0.6552534212561819 0 844.0 -0.6552534212561819 1
gene  1 7 9 -0.4719457446727895 0 846.0 -0.4719457446727895 1
gene  1 2 10 0.16658254795056737 0 946.0 0.16658254795056737 1
gene  1 3 10 -0.6780183514447988 0 947.0 -0.6780183514447988 1
gene  1 4 10 0.9170136004225685 0 948.0 0.9170136004225685 1
gene  1 8 10 0.5679386481908846 0 952.0 0.5679386481908846 1
gene  1 1 11 0.45979227892261676 0 1050.0 0.45979227892261676 1
gene  1 5 11 0.059063729195453774 0 1054.0 0.059063729195453774 1
gene  1 8 11 0.5845369225449359 0 1057.0 0.5845369225449359 1
gene  1 5 12 -0.1772921281311941 0 1159.0 -0.1772921281311941 1
gene  1 10 12 -0.0971238159230442 0 1164.0 -0.0971238159230442 1
gene  1 1 13 -0.10013742994327635 0 1260.0 -0.10013742994327635 1
gene  1 5 13 0.46745120420369535 0 1264.0 0.46745120420369535 1
gene  1 6 13 0.35408698716505616 0 1265.0 0.35408698716505616 1
gene  1 7 13 0.9114737746812085 0 1266.0 0.9114737746812085 1
gene  1 8 13 0.9013020653648236 0 1267.0 0.9013020653648236 1
gene  1 11 13 -0.6964989768105725 0 1270.0 -0.6964989768105725 1
gene  1 1 14 0.2829459203303074 0 1365.0 0.2829459203303074 1
gene  1 5 14 0.23785143021698307 0 1369.0 0.23785143021698307 1
gene  1 6 14 0.9203153790304385 0 1370.0 0.9203153790304385 1
gene  1 7 14 -0.8025312790481866 0 1371.0 -0.8025312790481866 1
gene  1 8 14 -0.7337089546021761 0 1372.0 -0.7337089546021761 1
gene  1 9 14 -0.5560840033311237 0 1373.0 -0.5560840033311237 1
gene  1 2 15 0.4683134492504907 0 1471.0 0.4683134492504907 1
gene  1 3 15 -0.7346576192675451 0 1472.0 -0.7346576192675451 1
gene  1 4 15 -0.3388653443409324 0 1473.0 -0.3388653443409324 1
gene  1 6 15 -0.5371196635090346 0 1475.0 -0.5371196635090346 1
gene  1 9 15 -0.064637825036155 0 1478.0 -0.064637825036155 1
gene  1 10 15 0.771872083043719 0 1479.0 0.771872083043719 1
gene  1 13 15 -0.3404052209462468 0 1482.0 -0.3404052209462468 1
gene  1 14 15 -0.8668890734477211 0 1483.0 -0.8668890734477211 1
gene  1 2 16 -0.434221639370285 0 1576.0 -0.434221639370285 1
gene  1 3 16 0.331032415598443 0 1577.0 0.331032415598443 1
gene  1 6 16 0.15177856609770335 0 1580.0 0.15177856609770335 1
gene  1 9 16 0.483348428267655 0 1583.0 0.483348428267655 1
gene  1 12 16 0.92059193278101 0 1586.0 0.92059193278101 1
gene  1 13 16 -0.6315009395961438 0 1587.0 -0.6315009395961438 1
gene  1 14 16 0.9734603020870056 0 1588.0 0.9734603020870056 1
gene  1 1 17 -0.6368666714847689 0 1680.0 -0.6368666714847689 1
gene  1 3 17 -0.09568324204450329 0 1682.0 -0.09568324204450329 1
gene  1 4 17 -0.41903888759854513 0 1683.0 -0.41903888759854513 1
gene  1 6 17 0.8389746752347229 0 1685.0 0.8389746752347229 1
gene  1 8 17 0.8397018659485235 0 1687.0 0.8397018659485235 1
gene  1 9 17 0.01198188050238047 0 1688.0 0.01198188050238047 1
gene  1 10 17 -0.9015314366833672 0 1689.0 -0.9015314366833672 1
gene  1 13 17 0.3882655751588613 0 1692.0 0.3882655751588613 1
gene  1 14 17 0.3469759346015857 0 1693.0 0.3469759346015857 1
gene  1 15 17 -0.11010679228718401 0 1694.0 -0.11010679228718401 1
gene  1 1 18 0.42653517258871076 0 1785.0 0.42653517258871076 1
gene  1 2 18 0.63751635383761 0 1786.0 0.63751635383761 1
gene  1 5 18 0.27121636651284475 0 1789.0 0.27121636651284475 1
gene  1 6 18 -0.3722210691942567 0 1790.0 -0.3722210691942567 1
gene  1 8 18 0.5020854067490416 0 1792.0 0.5020854067490416 1
gene  1 9 18 0.2938084636895194 0 1793.0 0.2938084636895194 1
gene  1 12 18 0.908977921281339 0 1796.0 0.908977921281339 1
gene  1 13 18 0.11448398741228472 0 1797.0 0.11448398741228472 1
gene  1 14 18 -0.5911535007225214 0 1798.0 -0.5911535007225214 1
gene  1 17 18 -0.2386190388102949 0 1801.0 -0.2386190388102949 1
gene  1 1 19 -0.9069498949281566 0 1890.0 -0.9069498949281566 1
gene  1 2 19 0.4152868369452525 0 1891.0 0.4152868369452525 1
gene  1 3 19 -0.8069557934534591 0 1892.0 -0.8069557934534591 1
gene  1 9 19 -0.649727456680486 0 1898.0 -0.649727456680486 1
gene  1 14 19 0.7438361220328275 0 1903.0 0.7438361220328275 1
gene  1 18 19 0.7648421482223748 0 1907.0 0.7648421482223748 1
gene  1 2 20 0.6082133473652604 0 1996.0 0.6082133473652604 1
gene  1 3 20 0.5546367930434148 0 1997.0 0.5546367930434148 1
gene  1 7 20 -0.8025763780889789 0 2001.0 -0.8025763780889789 1
gene  1 8 20 0.13975640200351214 0 2002.0 0.13975640200351214 1
gene  1 9 20 0.7945452665025216 0 2003.0 0.7945452665025216 1
gene  1 12 20 -0.10250100051750255 0 2006.0 -0.10250100051750255 1
gene  1 13 20 0.3764524852347081 0 2007.0 0.3764524852347081 1
gene  1 15 20 -0.5068335804845402 0 2009.0 -0.5068335804845402 1
gene  1 16 20 -0.28342665642612175 0 2010.0 -0.28342665642612175 1
gene  1 18 20 0.4325404071485336 0 2012.0 0.4325404071485336 1
gene  1 1 21 -0.03545020076140437 0 2100.0 -0.03545020076140437 1
gene  1 2 21 0.2562256420579503 0 2101.0 0.2562256420579503 1
gene  1 7 21 0.10940453186431232 0 2106.0 0.10940453186431232 1
gene  1 9 21 -0.11616063458010051 0 2108.0 -0.11616063458010051 1
gene  1 10 21 0.29097087526402743 0 2109.0 0.29097087526402743 1
gene  1 13 21 0.3772367275113413 0 2112.0 0.3772367275113413 1
gene  1 14 21 -0.9182701230203444 0 2113.0 -0.9182701230203444 1
gene  1 16 21 -0.902968337979343 0 2115.0 -0.902968337979343 1
gene  1 18 21 0.7745174518800589 0 2117.0 0.7745174518800589 1
gene  1 19 21 -0.3020448633815591 0 2118.0 -0.3020448633815591 1
gene  1 20 21 -0.5752333591299225 0 2119.0 -0.5752333591299225 1
gene  1 3 22 0.03748741655251875 0 2207.0 0.03748741655251875 1
gene  1 7 22 0.6981072082872487 0 2211.0 0.6981072082872487 1
gene  1 8 22 -0.3441505531416591 0 2212.0 -0.3441505531416591 1
gene  1 9 22 0.8053132180726543 0 2213.0 0.8053132180726543 1
gene  1 10 22 0.09787705518343826 0 2214.0 0.09787705518343826 1
gene  1 11 22 0.12155255711587942 0 2215.0 0.12155255711587942 1
gene  1 12 22 -0.9996888310052073 0 2216.0 -0.9996888310052073 1
gene  1 14 22 0.5214965297900572 0 2218.0 0.5214965297900572 1
gene  1 15 22 0.9889718708139185 0 2219.0 0.9889718708139185 1
gene  1 18 22 0.11694117738316345 0 2222.0 0.11694117738316345 1
gene  1 19 22 -0.12042219692518308 0 2223.0 -0.12042219692518308 1
gene  1 20 22 0.4539548937612461 0 2224.0 0.4539548937612461 1
gene  1 21 22 -0.9825116645176187 0 2225.0 -0.9825116645176187 1
gene  1 2 23 -0.8180494674437159 0 2311.0 -0.8180494674437159 1
gene  1 5 23 -0.026211006700494588 0 2314.0 -0.026211006700494588 1
gene  1 6 23 0.20084570804327295 0 2315.0 0.20084570804327295 1
gene  1 8 23 0.10488811464871084 0 2317.0 0.10488811464871084 1
gene  1 10 23 -0.2683314930476989 0 2319.0 -0.2683314930476989 1
gene  1 15 23 -0.030355440808990886 0 2324.0 -0.030355440808990886 1
gene  1 16 23 -0.003935937281023039 0 2325.0 -0.003935937281023039 1
gene  1 17 23 0.5288640766097351 0 2326.0 0.5288640766097351 1
gene  1 19 23 0.05369947606829617 0 2328.0 0.05369947606829617 1
gene  1 20 23 -0.9911147116895951 0 2329.0 -0.9911147116895951 1
gene  1 22 23 -0.5833275881986014 0 2331.0 -0.5833275881986014 1
gene  1 3 24 0.2166521892458081 0 2417.0 0.2166521892458081 1
gene  1 5 24 -0.7155932586706307 0 2419.0 -0.7155932586706307 1
gene  1 6 24 -0.37400552843053236 0 2420.0 -0.37400552843053236 1
gene  1 7 24 -0.7146578306829025 0 2421.0 -0.7146578306829025 1
gene  1 9 24 0.9079804093427305 0 2423.0 0.9079804093427305 1
gene  1 14 24 0.5977382540451666 0 2428.0 0.5977382540451666 1
gene  1 15 24 -0.7686067658663207 0 2429.0 -0.7686067658663207 1
gene  1 16 24 -0.9158975218023788 0 2430.0 -0.9158975218023788 1
gene  1 19 24 0.653206164199546 0 2433.0 0.653206164199546 1
gene  1 20 24 -0.970302190151516 0 2434.0 -0.970302190151516 1
gene  1 21 24 -0.8163732815524434 0 2435.0 -0.8163732815524434 1
gene  1 22 24 0.442753471580726 0 2436.0 0.442753471580726 1
gene  1 1 105 -0.697425148536429 0 10920.0 -0.697425148536429 1
gene  1 3 105 0.3035467025617562 0 10922.0 0.3035467025617562 1
gene  1 4 105 -0.39758201020236095 0 10923.0 -0.39758201020236095 1
gene  1 5 105 0.6320471418817825 0 10924.0 0.6320471418817825 1
gene  1 6 105 0.35048892944466725 0 10925.0 0.35048892944466725 1
gene  1 7 105 0.40706751356451076 0 10926.0 0.40706751356451076 1
gene  1 10 105 0.6305699023586997 0 10929.0 0.6305699023586997 1
gene  1 11 105 0.6385185145763418 0 10930.0 0.6385185145763418 1
gene  1 16 105 -0.9879048334530832 0 10935.0 -0.9879048334530832 1
gene  1 17 105 0.7097417054659472 0 10936.0 0.7097417054659472 1
gene  1 18 105 -0.5488200982339521 0 10937.0 -0.5488200982339521 1
gene  1 23 105 -0.48639305926067156 0 10942.0 -0.48639305926067156 1
gene  1 24 105 0.9611253731364354 0 10943.0 0.9611253731364354 1
genomeend 9
