genomestart  61
trait 1 0.0 0.0 0.0 0.0 0.0 0.0 0.0 0.0 0.0 0.0 0.0 0.0 0.0 0.0 0.0 0.0 0.0 0.0 0.0 0.0 
node 1 1 1 1
node 2 1 1 1
node 3 1 1 1
node 4 1 1 1
node 5 1 1 3
node 6 1 0 0
node 7 1 0 0
node 8 1 0 0
node 16 1 0 2
gene  1 1 6 0.8881188115471171 0 80.0 0.8881188115471171 1
gene  1 2 6 -0.33694581232923215 0 81.0 -0.33694581232923215 1
gene  1 4 6 0.135985952743642 0 83.0 0.135985952743642 1
gene  1 5 6 -0.8892034905329189 0 84.0 -0.8892034905329189 1
gene  1 1 7 0.7666726689485348 0 96.0 0.7666726689485348 1
gene  1 4 7 0.469423625178507 0 99.0 0.469423625178507 1
gene  1 5 7 0.9263622502632897 0 100.0 0.9263622502632897 1
gene  1 6 7 0.7590900980510789 0 101.0 0.7590900980510789 1
gene  1 4 8 -0.27703782968466883 0 115.0 -0.27703782968466883 1
gene  1 5 8 0.3662675166163496 0 116.0 0.3662675166163496 1
gene  1 6 8 -0.45320700194624186 0 117.0 -0.45320700194624186 1
gene  1 1 16 -0.04561693432401015 0 240.0 -0.04561693432401015 1
gene  1 3 16 -0.4239182851955192 0 242.0 -0.4239182851955192 1
gene  1 7 16 -0.8577509343601112 0 246.0 -0.8577509343601112 1
gene  1 8 16 -0.2836699262391277 0 247.0 -0.2836699262391277 1
genomeend 61
