genomestart  20
trait 1 0.0 0.0 0.0 0.0 0.0 0.0 0.0 0.0 0.0 0.0 0.0 0.0 0.0 0.0 0.0 0.0 0.0 0.0 0.0 0.0 
node 1 1 1 1
node 2 1 1 1
node 3 1 1 1
node 4 1 1 3
node 5 1 0 0
node 6 1 0 0
node 7 1 0 0
node 8 1 0 0
node 9 1 0 0
node 10 1 0 0
node 11 1 0 0
node 12 1 0 0
node 13 1 0 0
node 14 1 0 0
node 15 1 0 0
node 16 1 0 0
node 17 1 0 0
node 18 1 0 0
node 19 1 0 0
node 20 1 0 0
node 21 1 0 0
node 22 1 0 0
node 105 1 0 2
gene  1 1 5 -0.32444476537111033 0 420.0 -0.32444476537111033 1
gene  1 2 5 0.4409576431334392 0 421.0 0.4409576431334392 1
gene  1 3 5 0.2996740408552091 0 422.0 0.2996740408552091 1
gene  1 3 6 -0.6747878934023726 0 527.0 -0.6747878934023726 1
gene  1 5 6 -0.48255296944101267 0 529.0 -0.48255296944101267 1
gene  1 2 7 0.4821947654170716 0 631.0 0.4821947654170716 1
gene  1 4 7 0.39748499676990856 0 633.0 0.39748499676990856 1
gene  1 1 8 0.34174456586256075 0 735.0 0.34174456586256075 1
gene  1 2 8 -0.4180992088693356 0 736.0 -0.4180992088693356 1
gene  1 1 9 0.7430371855508283 0 840.0 0.7430371855508283 1
gene  1 3 9 0.7904933174905918 0 842.0 0.7904933174905918 1
gene  1 6 9 0.4855619695793093 0 845.0 0.4855619695793093 1
gene  1 7 9 -0.29884814278644145 0 846.0 -0.29884814278644145 1
gene  1 8 9 -0.7035914264188319 0 847.0 -0.7035914264188319 1
gene  1 1 10 0.9215670626456642 0 945.0 0.9215670626456642 1
gene  1 4 10 -0.8189243551706005 0 948.0 -0.8189243551706005 1
gene  1 9 10 -0.984680251302344 0 953.0 -0.984680251302344 1
gene  1 3 11 0.11635450767288558 0 1052.0 0.11635450767288558 1
gene  1 6 11 0.932078623404712 0 1055.0 0.932078623404712 1
gene  1 10 11 0.8170303355132013 0 1059.0 0.8170303355132013 1
gene  1 1 12 -0.2943515759000628 0 1155.0 -0.2943515759000628 1
gene  1 2 12 -0.9031360312107116 0 1156.0 -0.9031360312107116 1
gene  1 3 12 -0.25115087302713823 0 1157.0 -0.25115087302713823 1
gene  1 4 12 -0.3799480274740553 0 1158.0 -0.3799480274740553 1
gene  1 7 12 0.9621669767399087 0 1161.0 0.9621669767399087 1
gene  1 11 12 -0.1321255705730897 0 1165.0 -0.1321255705730897 1
gene  1 1 13 -0.387764345812865 0 1260.0 -0.387764345812865 1
gene  1 2 13 -0.30373427783229656 0 1261.0 -0.30373427783229656 1
gene  1 4 13 0.2613260848060277 0 1263.0 0.2613260848060277 1
gene  1 5 13 -0.30764235355287317 0 1264.0 -0.30764235355287317 1
gene  1 10 13 -0.261754487000475 0 1269.0 -0.261754487000475 1
gene  1 11 13 0.807070045454287 0 1270.0 0.807070045454287 1
gene  1 12 13 -0.7283609218956302 0 1271.0 -0.7283609218956302 1
gene  1 1 14 0.12371802008366728 0 1365.0 0.12371802008366728 1
gene  1 2 14 -0.5264154226852548 0 1366.0 -0.5264154226852548 1
gene  1 3 14 0.9064332323504135 0 1367.0 0.9064332323504135 1
gene  1 5 14 0.36408276836542997 0 1369.0 0.36408276836542997 1
gene  1 6 14 0.17284581112538222 0 1370.0 0.17284581112538222 1
gene  1 8 14 -0.4437527470838507 0 1372.0 -0.4437527470838507 1
gene  1 10 14 0.9031096120193708 0 1374.0 0.9031096120193708 1
gene  1 2 15 0.060986638819067185 0 1471.0 0.060986638819067185 1
gene  1 3 15 0.8483348142307554 0 1472.0 0.8483348142307554 1
gene  1 5 15 0.32202502149437884 0 1474.0 0.32202502149437884 1
gene  1 7 15 -0.7421721995460465 0 1476.0 -0.7421721995460465 1
gene  1 8 15 0.3746955060319054 0 1477.0 0.3746955060319054 1
gene  1 9 15 0.1149600250887789 0 1478.0 0.1149600250887789 1
gene  1 12 15 -0.3970890857952746 0 1481.0 -0.3970890857952746 1
gene  1 13 15 -0.551354358530161 0 1482.0 -0.551354358530161 1
gene  1 14 15 0.5367081357958042 0 1483.0 0.5367081357958042 1
gene  1 2 16 -0.7771015091447584 0 1576.0 -0.7771015091447584 1
gene  1 3 16 -0.40160181216507995 0 1577.0 -0.40160181216507995 1
gene  1 4 16 0.46278928377764383 0 1578.0 0.46278928377764383 1
gene  1 10 16 -0.32576614705959195 0 1584.0 -0.32576614705959195 1
gene  1 11 16 -0.9722937976641074 0 1585.0 -0.9722937976641074 1
gene  1 12 16 -0.22108801279388146 0 1586.0 -0.22108801279388146 1
gene  1 3 17 0.48105383131508195 0 1682.0 0.48105383131508195 1
gene  1 7 17 0.963269552027847 0 1686.0 0.963269552027847 1
gene  1 9 17 -0.5339124762507597 0 1688.0 -0.5339124762507597 1
gene  1 14 17 0.7693926060213025 0 1693.0 0.7693926060213025 1
gene  1 1 18 -0.9768764866478814 0 1785.0 -0.9768764866478814 1
gene  1 2 18 -0.07142018883951706 0 1786.0 -0.07142018883951706 1
gene  1 3 18 0.5693352565320835 0 1787.0 0.5693352565320835 1
gene  1 4 18 0.04860519778023742 0 1788.0 0.04860519778023742 1
gene  1 9 18 -0.5691615800907454 0 1793.0 -0.5691615800907454 1
gene  1 14 18 -0.28760013149535946 0 1798.0 -0.28760013149535946 1
gene  1 15 18 -0.6059302694684617 0 1799.0 -0.6059302694684617 1
gene  1 16 18 -0.7950562810089614 0 1800.0 -0.7950562810089614 1
gene  1 1 19 0.09243405484125489 0 1890.0 0.09243405484125489 1
gene  1 5 19 -0.8307215685324865 0 1894.0 -0.8307215685324865 1
gene  1 6 19 -0.2801225268889219 0 1895.0 -0.2801225268889219 1
gene  1 7 19 -0.8926976102684491 0 1896.0 -0.8926976102684491 1
gene  1 8 19 0.8380847298336508 0 1897.0 0.8380847298336508 1
gene  1 14 19 -0.9901074221188677 0 1903.0 -0.9901074221188677 1
gene  1 17 19 0.14492154875393948 0 1906.0 0.14492154875393948 1
gene  1 18 19 0.08172527942350993 0 1907.0 0.08172527942350993 1
gene  1 1 20 0.7834346377605024 0 1995.0 0.7834346377605024 1
gene  1 2 20 -0.5894525858187714 0 1996.0 -0.5894525858187714 1
gene  1 4 20 -0.40588553734878174 0 1998.0 -0.40588553734878174 1
gene  1 6 20 -0.3616912776322897 0 2000.0 -0.3616912776322897 1
gene  1 9 20 0.4820524687034846 0 2003.0 0.4820524687034846 1
gene  1 10 20 0.26151430171074275 0 2004.0 0.26151430171074275 1
gene  1 12 20 -0.4686519038581948 0 2006.0 -0.4686519038581948 1
gene  1 16 20 -0.8269613242663841 0 2010.0 -0.8269613242663841 1
gene  1 19 20 -0.25324057495941743 0 2013.0 -0.25324057495941743 1
gene  1 1 21 0.25671264903087165 0 2100.0 0.25671264903087165 1
gene  1 2 21 -0.09385697420143557 0 2101.0 -0.09385697420143557 1
gene  1 3 21 0.6549699354615681 0 2102.0 0.6549699354615681 1
gene  1 4 21 0.27131603449897745 0 2103.0 0.27131603449897745 1
gene  1 5 21 0.26347939257440156 0 2104.0 0.26347939257440156 1
gene  1 6 21 0.7553510715960949 0 2105.0 0.7553510715960949 1
gene  1 7 21 0.2554321902837191 0 2106.0 0.2554321902837191 1
gene  1 8 21 -0.7812940195731548 0 2107.0 -0.7812940195731548 1
gene  1 9 21 0.7120476560881414 0 2108.0 0.7120476560881414 1
gene  1 12 21 0.8298145775218482 0 2111.0 0.8298145775218482 1
gene  1 13 21 0.5770025003135162 0 2112.0 0.5770025003135162 1
gene  1 14 21 -0.5437441848618012 0 2113.0 -0.5437441848618012 1
gene  1 16 21 0.4978723506424767 0 2115.0 0.4978723506424767 1
gene  1 17 21 -0.40179920749865095 0 2116.0 -0.40179920749865095 1
gene  1 18 21 0.6367066837268023 0 2117.0 0.6367066837268023 1
gene  1 19 21 0.49672581832166707 0 2118.0 0.49672581832166707 1
gene  1 1 22 -0.3368293424298191 0 2205.0 -0.3368293424298191 1
gene  1 2 22 -0.43633131133825753 0 2206.0 -0.43633131133825753 1
gene  1 5 22 -0.10107335309866372 0 2209.0 -0.10107335309866372 1
gene  1 8 22 -0.6974803731778755 0 2212.0 -0.6974803731778755 1
gene  1 10 22 -0.7519587555024869 0 2214.0 -0.7519587555024869 1
gene  1 11 22 -0.5868735667234484 0 2215.0 -0.5868735667234484 1
gene  1 14 22 -0.3048856544340769 0 2218.0 -0.3048856544340769 1
gene  1 17 22 0.723506377806125 0 2221.0 0.723506377806125 1
gene  1 3 105 0.3003622214528374 0 10922.0 0.3003622214528374 1
gene  1 5 105 -0.0018735295262386487 0 10924.0 -0.0018735295262386487 1
gene  1 6 105 -0.2768740801831827 0 10925.0 -0.2768740801831827 1
gene  1 9 105 -0.6461784939694338 0 10928.0 -0.6461784939694338 1
gene  1 10 105 -0.24788214110440898 0 10929.0 -0.24788214110440898 1
gene  1 11 105 -0.747434510626868 0 10930.0 -0.747434510626868 1
gene  1 16 105 -0.9688563501495172 0 10935.0 -0.9688563501495172 1
gene  1 17 105 -0.3864876473370038 0 10936.0 -0.3864876473370038 1
gene  1 18 105 0.7667027077389624 0 10937.0 0.7667027077389624 1
gene  1 19 105 0.25280179804048974 0 10938.0 0.25280179804048974 1
gene  1 20 105 -0.007561082215122861 0 10939.0 -0.007561082215122861 1
gene  1 21 105 -0.08993631227492471 0 10940.0 -0.08993631227492471 1
gene  1 22 105 -0.5047131976871568 0 10941.0 -0.5047131976871568 1
genomeend 20
