genomestart  60
trait 1 0.0 0.0 0.0 0.0 0.0 0.0 0.0 0.0 0.0 0.0 0.0 0.0 0.0 0.0 0.0 0.0 0.0 0.0 0.0 0.0 
node 1 1 1 1
node 2 1 1 1
node 3 1 1 1
node 4 1 1 3
node 5 1 0 0
node 6 1 0 0
node 7 1 0 0
node 8 1 0 0
node 9 1 0 0
node 10 1 0 0
node 11 1 0 0
node 12 1 0 0
node 13 1 0 0
node 14 1 0 0
node 15 1 0 0
node 16 1 0 0
node 17 1 0 0
node 18 1 0 0
node 19 1 0 0
node 20 1 0 0
node 21 1 0 0
node 22 1 0 0
node 23 1 0 0
node 24 1 0 0
node 25 1 0 0
node 26 1 0 0
node 27 1 0 0
node 28 1 0 0
node 29 1 0 0
node 30 1 0 0
node 31 1 0 0
node 32 1 0 0
node 33 1 0 0
node 34 1 0 0
node 35 1 0 0
node 36 1 0 0
node 37 1 0 0
node 38 1 0 0
node 39 1 0 0
node 40 1 0 0
node 41 1 0 0
node 42 1 0 0
node 43 1 0 0
node 44 1 0 0
node 45 1 0 0
node 46 1 0 0
node 47 1 0 0
node 48 1 0 0
node 49 1 0 0
node 50 1 0 0
node 51 1 0 0
node 52 1 0 0
node 53 1 0 0
node 54 1 0 0
node 55 1 0 0
node 56 1 0 0
node 57 1 0 0
node 58 1 0 0
node 59 1 0 0
node 60 1 0 0
node 105 1 0 2
gene  1 1 5 -0.7757386022993175 0 420.0 -0.7757386022993175 1
gene  1 2 5 0.3972075992144014 0 421.0 0.3972075992144014 1
gene  1 4 6 -0.6250976245469253 0 528.0 -0.6250976245469253 1
gene  1 6 7 0.31854122979267396 0 635.0 0.31854122979267396 1
gene  1 1 8 0.09352696564724883 0 735.0 0.09352696564724883 1
gene  1 4 8 -0.05465008218411793 0 738.0 -0.05465008218411793 1
gene  1 5 8 -0.6853078212098279 0 739.0 -0.6853078212098279 1
gene  1 1 9 -0.635688207562906 0 840.0 -0.635688207562906 1
gene  1 3 9 0.8200555261170257 0 842.0 0.8200555261170257 1
gene  1 4 9 -0.6500364050065713 0 843.0 -0.6500364050065713 1
gene  1 7 9 0.4424798453041656 0 846.0 0.4424798453041656 1
gene  1 1 10 -0.2346633334854502 0 945.0 -0.2346633334854502 1
gene  1 2 10 0.15160798770756867 0 946.0 0.15160798770756867 1
gene  1 3 10 -0.9401145455236292 0 947.0 -0.9401145455236292 1
gene  1 4 10 0.9385746863132313 0 948.0 0.9385746863132313 1
gene  1 6 10 -0.4238998896427203 0 950.0 -0.4238998896427203 1
gene  1 7 10 0.2994404712371803 0 951.0 0.2994404712371803 1
gene  1 9 10 -0.7920813958517303 0 953.0 -0.7920813958517303 1
gene  1 2 11 -0.8373926455594503 0 1051.0 -0.8373926455594503 1
gene  1 3 11 -0.5567574225768759 0 1052.0 -0.5567574225768759 1
gene  1 7 11 0.720222607828477 0 1056.0 0.720222607828477 1
gene  1 1 12 0.2335889579293735 0 1155.0 0.2335889579293735 1
gene  1 9 12 -0.6031180817007157 0 1163.0 -0.6031180817007157 1
gene  1 10 12 0.628924205765898 0 1164.0 0.628924205765898 1
gene  1 4 13 0.19589621762685283 0 1263.0 0.19589621762685283 1
gene  1 6 13 -0.3067679412201917 0 1265.0 -0.3067679412201917 1
gene  1 8 13 -0.5359488366251448 0 1267.0 -0.5359488366251448 1
gene  1 11 13 -0.37358435456932904 0 1270.0 -0.37358435456932904 1
gene  1 1 14 0.10537788398549419 0 1365.0 0.10537788398549419 1
gene  1 2 14 0.6192040674452238 0 1366.0 0.6192040674452238 1
gene  1 3 14 0.43726148819959065 0 1367.0 0.43726148819959065 1
gene  1 4 14 -0.771281430791717 0 1368.0 -0.771281430791717 1
gene  1 8 14 -0.29491216675906495 0 1372.0 -0.29491216675906495 1
gene  1 9 14 9.80545617100037E-4 0 1373.0 9.80545617100037E-4 1
gene  1 10 14 -0.3589117382627045 0 1374.0 -0.3589117382627045 1
gene  1 1 15 0.31722587336793284 0 1470.0 0.31722587336793284 1
gene  1 2 15 -0.24915843896262002 0 1471.0 -0.24915843896262002 1
gene  1 4 15 -0.42275427747326966 0 1473.0 -0.42275427747326966 1
gene  1 5 15 0.33214490614476677 0 1474.0 0.33214490614476677 1
gene  1 6 15 0.08188240032110028 0 1475.0 0.08188240032110028 1
gene  1 7 15 -0.624275641223062 0 1476.0 -0.624275641223062 1
gene  1 11 15 0.07977503584279777 0 1480.0 0.07977503584279777 1
gene  1 12 15 0.34014095455452 0 1481.0 0.34014095455452 1
gene  1 14 15 0.14013633768192357 0 1483.0 0.14013633768192357 1
gene  1 3 16 0.44473555871436765 0 1577.0 0.44473555871436765 1
gene  1 7 16 0.24707920706280806 0 1581.0 0.24707920706280806 1
gene  1 8 16 0.37276187205489886 0 1582.0 0.37276187205489886 1
gene  1 11 16 -0.7061520178245521 0 1585.0 -0.7061520178245521 1
gene  1 2 17 -0.4391068238276642 0 1681.0 -0.4391068238276642 1
gene  1 3 17 -0.52995240913211 0 1682.0 -0.52995240913211 1
gene  1 4 17 -0.8203004864766703 0 1683.0 -0.8203004864766703 1
gene  1 6 17 0.7180530471354969 0 1685.0 0.7180530471354969 1
gene  1 7 17 0.6327412035395601 0 1686.0 0.6327412035395601 1
gene  1 10 17 -0.511201279926635 0 1689.0 -0.511201279926635 1
gene  1 14 17 0.9720217386063801 0 1693.0 0.9720217386063801 1
gene  1 16 17 -0.38850054379400356 0 1695.0 -0.38850054379400356 1
gene  1 1 18 -0.697666792943487 0 1785.0 -0.697666792943487 1
gene  1 2 18 -0.4947148682517105 0 1786.0 -0.4947148682517105 1
gene  1 5 18 -0.09148269244809015 0 1789.0 -0.09148269244809015 1
gene  1 7 18 -0.6407216353395685 0 1791.0 -0.6407216353395685 1
gene  1 8 18 -0.93693473639283 0 1792.0 -0.93693473639283 1
gene  1 11 18 -0.19702216032050157 0 1795.0 -0.19702216032050157 1
gene  1 14 18 -0.65983873474214 0 1798.0 -0.65983873474214 1
gene  1 16 18 0.44802499912173777 0 1800.0 0.44802499912173777 1
gene  1 17 18 0.6414337573399296 0 1801.0 0.6414337573399296 1
gene  1 3 19 0.4007261041514002 0 1892.0 0.4007261041514002 1
gene  1 4 19 0.485783989909513 0 1893.0 0.485783989909513 1
gene  1 5 19 -0.9986828089021793 0 1894.0 -0.9986828089021793 1
gene  1 7 19 0.8754118163835117 0 1896.0 0.8754118163835117 1
gene  1 9 19 -0.9833566710870543 0 1898.0 -0.9833566710870543 1
gene  1 10 19 0.6610058633129461 0 1899.0 0.6610058633129461 1
gene  1 11 19 -0.7244873326646974 0 1900.0 -0.7244873326646974 1
gene  1 13 19 0.23063752642418878 0 1902.0 0.23063752642418878 1
gene  1 14 19 -0.5217493612114883 0 1903.0 -0.5217493612114883 1
gene  1 15 19 0.8370005778856957 0 1904.0 0.8370005778856957 1
gene  1 17 19 0.5144049299169539 0 1906.0 0.5144049299169539 1
gene  1 18 19 0.43067411429250924 0 1907.0 0.43067411429250924 1
gene  1 2 20 -0.16681017323439007 0 1996.0 -0.16681017323439007 1
gene  1 3 20 0.16612013922998004 0 1997.0 0.16612013922998004 1
gene  1 4 20 -0.6355303165166822 0 1998.0 -0.6355303165166822 1
gene  1 6 20 -0.7928876924773772 0 2000.0 -0.7928876924773772 1
gene  1 7 20 0.4296383984172961 0 2001.0 0.4296383984172961 1
gene  1 8 20 -0.9994962532159836 0 2002.0 -0.9994962532159836 1
gene  1 9 20 0.7998368600226988 0 2003.0 0.7998368600226988 1
gene  1 10 20 0.8776994531008634 0 2004.0 0.8776994531008634 1
gene  1 12 20 0.3324813218627821 0 2006.0 0.3324813218627821 1
gene  1 15 20 0.18908332459868293 0 2009.0 0.18908332459868293 1
gene  1 18 20 -0.5417555776168277 0 2012.0 -0.5417555776168277 1
gene  1 19 20 -0.31772641376530497 0 2013.0 -0.31772641376530497 1
gene  1 2 21 0.3938082313300659 0 2101.0 0.3938082313300659 1
gene  1 3 21 0.5819262240388388 0 2102.0 0.5819262240388388 1
gene  1 4 21 0.24999363470236102 0 2103.0 0.24999363470236102 1
gene  1 8 21 -0.9537220672671134 0 2107.0 -0.9537220672671134 1
gene  1 9 21 -0.644699009355786 0 2108.0 -0.644699009355786 1
gene  1 10 21 0.11271026649000127 0 2109.0 0.11271026649000127 1
gene  1 11 21 0.2657027179236322 0 2110.0 0.2657027179236322 1
gene  1 13 21 0.3738817881565699 0 2112.0 0.3738817881565699 1
gene  1 14 21 0.24441364024390155 0 2113.0 0.24441364024390155 1
gene  1 16 21 0.24588420985954995 0 2115.0 0.24588420985954995 1
gene  1 17 21 -0.9034774337601766 0 2116.0 -0.9034774337601766 1
gene  1 18 21 -0.6067529081919218 0 2117.0 -0.6067529081919218 1
gene  1 19 21 -0.8789790459267389 0 2118.0 -0.8789790459267389 1
gene  1 20 21 -0.45073430871771647 0 2119.0 -0.45073430871771647 1
gene  1 2 22 -0.8539324932530711 0 2206.0 -0.8539324932530711 1
gene  1 8 22 -0.6386936540907208 0 2212.0 -0.6386936540907208 1
gene  1 9 22 0.5123154836473748 0 2213.0 0.5123154836473748 1
gene  1 10 22 0.8306728229427947 0 2214.0 0.8306728229427947 1
gene  1 12 22 0.515874828638104 0 2216.0 0.515874828638104 1
gene  1 20 22 -0.18194046388060103 0 2224.0 -0.18194046388060103 1
gene  1 21 22 0.9111118753935891 0 2225.0 0.9111118753935891 1
gene  1 1 23 7.864072314678339E-6 0 2310.0 7.864072314678339E-6 1
gene  1 2 23 0.5083308706448897 0 2311.0 0.5083308706448897 1
gene  1 5 23 0.5106278205151582 0 2314.0 0.5106278205151582 1
gene  1 6 23 0.8005163431276426 0 2315.0 0.8005163431276426 1
gene  1 10 23 -0.19528005551575012 0 2319.0 -0.19528005551575012 1
gene  1 12 23 -0.10076053537140761 0 2321.0 -0.10076053537140761 1
gene  1 14 23 0.49569263339675207 0 2323.0 0.49569263339675207 1
gene  1 16 23 -0.3177704351820747 0 2325.0 -0.3177704351820747 1
gene  1 19 23 -0.42095304317483184 0 2328.0 -0.42095304317483184 1
gene  1 20 23 -0.04341503202711994 0 2329.0 -0.04341503202711994 1
gene  1 22 23 -0.2259916204948086 0 2331.0 -0.2259916204948086 1
gene  1 1 24 0.3270979163620288 0 2415.0 0.3270979163620288 1
gene  1 2 24 -0.017277040395417442 0 2416.0 -0.017277040395417442 1
gene  1 3 24 0.2955771384805205 0 2417.0 0.2955771384805205 1
gene  1 5 24 -0.8070508592756546 0 2419.0 -0.8070508592756546 1
gene  1 6 24 0.02525262897768421 0 2420.0 0.02525262897768421 1
gene  1 8 24 -0.367325980649719 0 2422.0 -0.367325980649719 1
gene  1 11 24 0.250836367442962 0 2425.0 0.250836367442962 1
gene  1 13 24 -0.3199075378440869 0 2427.0 -0.3199075378440869 1
gene  1 14 24 -0.40879543183674827 0 2428.0 -0.40879543183674827 1
gene  1 16 24 -0.8557361208225177 0 2430.0 -0.8557361208225177 1
gene  1 20 24 0.10594877559744476 0 2434.0 0.10594877559744476 1
gene  1 23 24 0.22412736430890812 0 2437.0 0.22412736430890812 1
gene  1 1 25 -0.5689502436077555 0 2520.0 -0.5689502436077555 1
gene  1 7 25 0.5881157663081327 0 2526.0 0.5881157663081327 1
gene  1 8 25 0.17043957671544852 0 2527.0 0.17043957671544852 1
gene  1 9 25 0.15929801556820367 0 2528.0 0.15929801556820367 1
gene  1 10 25 0.3271945332524955 0 2529.0 0.3271945332524955 1
gene  1 11 25 0.5713998586976196 0 2530.0 0.5713998586976196 1
gene  1 15 25 0.8720265818855915 0 2534.0 0.8720265818855915 1
gene  1 16 25 0.5804875260218633 0 2535.0 0.5804875260218633 1
gene  1 17 25 0.495862260183377 0 2536.0 0.495862260183377 1
gene  1 18 25 0.9449066603365804 0 2537.0 0.9449066603365804 1
gene  1 19 25 -0.47915117415376385 0 2538.0 -0.47915117415376385 1
gene  1 20 25 -0.632079023287926 0 2539.0 -0.632079023287926 1
gene  1 22 25 -0.5361385949133146 0 2541.0 -0.5361385949133146 1
gene  1 23 25 -0.7022153547179446 0 2542.0 -0.7022153547179446 1
gene  1 24 25 0.6842522541346794 0 2543.0 0.6842522541346794 1
gene  1 1 26 0.2821790533010534 0 2625.0 0.2821790533010534 1
gene  1 2 26 -0.7559473800220438 0 2626.0 -0.7559473800220438 1
gene  1 3 26 0.02729066630984356 0 2627.0 0.02729066630984356 1
gene  1 4 26 0.014634460111235148 0 2628.0 0.014634460111235148 1
gene  1 8 26 -0.9019561442394742 0 2632.0 -0.9019561442394742 1
gene  1 9 26 0.529285660766336 0 2633.0 0.529285660766336 1
gene  1 11 26 0.6159804685187573 0 2635.0 0.6159804685187573 1
gene  1 12 26 -0.9534649267155654 0 2636.0 -0.9534649267155654 1
gene  1 16 26 -0.0606802530887125 0 2640.0 -0.0606802530887125 1
gene  1 18 26 0.585336897104097 0 2642.0 0.585336897104097 1
gene  1 20 26 0.006924453127827412 0 2644.0 0.006924453127827412 1
gene  1 23 26 -0.8500624587724669 0 2647.0 -0.8500624587724669 1
gene  1 4 27 -0.4321614583257447 0 2733.0 -0.4321614583257447 1
gene  1 5 27 -0.890855683985213 0 2734.0 -0.890855683985213 1
gene  1 8 27 -0.20423175992993958 0 2737.0 -0.20423175992993958 1
gene  1 9 27 0.41156666864262637 0 2738.0 0.41156666864262637 1
gene  1 10 27 -0.9703598454329122 0 2739.0 -0.9703598454329122 1
gene  1 11 27 0.385405888573618 0 2740.0 0.385405888573618 1
gene  1 12 27 0.547583394573557 0 2741.0 0.547583394573557 1
gene  1 15 27 -0.32952415687713765 0 2744.0 -0.32952415687713765 1
gene  1 18 27 0.24416535608104128 0 2747.0 0.24416535608104128 1
gene  1 19 27 -0.10046042146477341 0 2748.0 -0.10046042146477341 1
gene  1 22 27 -0.542636525133904 0 2751.0 -0.542636525133904 1
gene  1 24 27 -0.48399942361047454 0 2753.0 -0.48399942361047454 1
gene  1 1 28 0.34111130712756244 0 2835.0 0.34111130712756244 1
gene  1 2 28 0.4464266772696598 0 2836.0 0.4464266772696598 1
gene  1 3 28 0.9840724525171369 0 2837.0 0.9840724525171369 1
gene  1 5 28 0.06049335823869517 0 2839.0 0.06049335823869517 1
gene  1 6 28 0.6088424139271303 0 2840.0 0.6088424139271303 1
gene  1 7 28 0.5545099251964566 0 2841.0 0.5545099251964566 1
gene  1 8 28 0.32303412752973004 0 2842.0 0.32303412752973004 1
gene  1 9 28 0.7340769046979175 0 2843.0 0.7340769046979175 1
gene  1 11 28 -0.7376448079349688 0 2845.0 -0.7376448079349688 1
gene  1 12 28 0.053006133960396884 0 2846.0 0.053006133960396884 1
gene  1 18 28 -0.5971120302024181 0 2852.0 -0.5971120302024181 1
gene  1 19 28 0.04045393661425878 0 2853.0 0.04045393661425878 1
gene  1 20 28 0.06776593484820803 0 2854.0 0.06776593484820803 1
gene  1 21 28 0.002041204333979918 0 2855.0 0.002041204333979918 1
gene  1 22 28 0.9609048777668254 0 2856.0 0.9609048777668254 1
gene  1 23 28 -0.9317526235821101 0 2857.0 -0.9317526235821101 1
gene  1 24 28 0.2864901195070638 0 2858.0 0.2864901195070638 1
gene  1 26 28 0.5407336532409289 0 2860.0 0.5407336532409289 1
gene  1 1 29 -0.6443245601775159 0 2940.0 -0.6443245601775159 1
gene  1 3 29 -0.8691886452044048 0 2942.0 -0.8691886452044048 1
gene  1 5 29 0.8512511145498326 0 2944.0 0.8512511145498326 1
gene  1 6 29 0.17191560748180257 0 2945.0 0.17191560748180257 1
gene  1 7 29 0.0994270917387009 0 2946.0 0.0994270917387009 1
gene  1 9 29 -0.24569525989897312 0 2948.0 -0.24569525989897312 1
gene  1 10 29 -0.010084410708679048 0 2949.0 -0.010084410708679048 1
gene  1 12 29 0.2494443839212973 0 2951.0 0.2494443839212973 1
gene  1 13 29 -0.8592051378194511 0 2952.0 -0.8592051378194511 1
gene  1 18 29 -0.3664036368194854 0 2957.0 -0.3664036368194854 1
gene  1 19 29 -0.39746183757694165 0 2958.0 -0.39746183757694165 1
gene  1 21 29 -0.7911842679380824 0 2960.0 -0.7911842679380824 1
gene  1 26 29 -0.7674163480559574 0 2965.0 -0.7674163480559574 1
gene  1 4 30 0.09758113022376491 0 3048.0 0.09758113022376491 1
gene  1 5 30 0.05438911726013462 0 3049.0 0.05438911726013462 1
gene  1 9 30 0.03822796241946014 0 3053.0 0.03822796241946014 1
gene  1 10 30 0.40046783032438293 0 3054.0 0.40046783032438293 1
gene  1 11 30 -0.8762737988570805 0 3055.0 -0.8762737988570805 1
gene  1 12 30 0.7833417348184132 0 3056.0 0.7833417348184132 1
gene  1 13 30 0.461020960840139 0 3057.0 0.461020960840139 1
gene  1 14 30 0.7033230679673533 0 3058.0 0.7033230679673533 1
gene  1 17 30 0.35130275869653027 0 3061.0 0.35130275869653027 1
gene  1 18 30 0.9122999245442251 0 3062.0 0.9122999245442251 1
gene  1 21 30 0.09079011775970114 0 3065.0 0.09079011775970114 1
gene  1 23 30 -0.7234167284592955 0 3067.0 -0.7234167284592955 1
gene  1 24 30 0.0961592777333139 0 3068.0 0.0961592777333139 1
gene  1 26 30 -0.453325300238946 0 3070.0 -0.453325300238946 1
gene  1 29 30 0.9669746922421816 0 3073.0 0.9669746922421816 1
gene  1 3 31 -0.33109827149643034 0 3152.0 -0.33109827149643034 1
gene  1 4 31 -0.7373317524241497 0 3153.0 -0.7373317524241497 1
gene  1 5 31 0.9296850138955852 0 3154.0 0.9296850138955852 1
gene  1 12 31 0.14700077958025914 0 3161.0 0.14700077958025914 1
gene  1 14 31 0.552998556391453 0 3163.0 0.552998556391453 1
gene  1 15 31 -0.4161564346310094 0 3164.0 -0.4161564346310094 1
gene  1 18 31 -0.6757301218963158 0 3167.0 -0.6757301218963158 1
gene  1 19 31 0.554395060695789 0 3168.0 0.554395060695789 1
gene  1 20 31 -0.566118953714847 0 3169.0 -0.566118953714847 1
gene  1 22 31 -0.7337626142969498 0 3171.0 -0.7337626142969498 1
gene  1 23 31 0.5342062783889634 0 3172.0 0.5342062783889634 1
gene  1 24 31 -0.04743923109211756 0 3173.0 -0.04743923109211756 1
gene  1 26 31 0.06495193704591018 0 3175.0 0.06495193704591018 1
gene  1 29 31 0.49931151302647014 0 3178.0 0.49931151302647014 1
gene  1 1 32 0.669426779334895 0 3255.0 0.669426779334895 1
gene  1 2 32 -0.49773495664141676 0 3256.0 -0.49773495664141676 1
gene  1 5 32 -0.040498742953889444 0 3259.0 -0.040498742953889444 1
gene  1 6 32 -0.5406043020595624 0 3260.0 -0.5406043020595624 1
gene  1 7 32 -0.7491489707819374 0 3261.0 -0.7491489707819374 1
gene  1 8 32 0.572472708471526 0 3262.0 0.572472708471526 1
gene  1 9 32 0.5269757663750144 0 3263.0 0.5269757663750144 1
gene  1 10 32 0.1692387980449379 0 3264.0 0.1692387980449379 1
gene  1 12 32 0.32482802574247593 0 3266.0 0.32482802574247593 1
gene  1 13 32 -0.9340376130633128 0 3267.0 -0.9340376130633128 1
gene  1 15 32 -0.4669911627584902 0 3269.0 -0.4669911627584902 1
gene  1 17 32 0.29267421225709456 0 3271.0 0.29267421225709456 1
gene  1 18 32 -0.6453054902135316 0 3272.0 -0.6453054902135316 1
gene  1 23 32 0.9958824730313969 0 3277.0 0.9958824730313969 1
gene  1 24 32 0.01609699526751429 0 3278.0 0.01609699526751429 1
gene  1 25 32 -0.6025492732489891 0 3279.0 -0.6025492732489891 1
gene  1 26 32 -0.893434358183073 0 3280.0 -0.893434358183073 1
gene  1 27 32 -0.4162654121784344 0 3281.0 -0.4162654121784344 1
gene  1 29 32 0.7093261087398008 0 3283.0 0.7093261087398008 1
gene  1 31 32 0.2589891672765924 0 3285.0 0.2589891672765924 1
gene  1 2 33 0.4435292372513663 0 3361.0 0.4435292372513663 1
gene  1 3 33 0.5552767195853874 0 3362.0 0.5552767195853874 1
gene  1 4 33 -0.41142627376464014 0 3363.0 -0.41142627376464014 1
gene  1 5 33 0.3479099720250691 0 3364.0 0.3479099720250691 1
gene  1 6 33 -0.939118386727082 0 3365.0 -0.939118386727082 1
gene  1 7 33 0.9712301064276504 0 3366.0 0.9712301064276504 1
gene  1 8 33 0.6942031181307986 0 3367.0 0.6942031181307986 1
gene  1 10 33 0.47283669446944177 0 3369.0 0.47283669446944177 1
gene  1 11 33 -0.008894668916380688 0 3370.0 -0.008894668916380688 1
gene  1 12 33 0.167507397756692 0 3371.0 0.167507397756692 1
gene  1 14 33 -0.6632473804085488 0 3373.0 -0.6632473804085488 1
gene  1 17 33 0.8117177971557372 0 3376.0 0.8117177971557372 1
gene  1 21 33 0.23202581161280944 0 3380.0 0.23202581161280944 1
gene  1 22 33 -0.6197358435289066 0 3381.0 -0.6197358435289066 1
gene  1 23 33 -0.5862975047829622 0 3382.0 -0.5862975047829622 1
gene  1 25 33 -0.026748928191178245 0 3384.0 -0.026748928191178245 1
gene  1 26 33 -0.4744704922445949 0 3385.0 -0.4744704922445949 1
gene  1 28 33 0.18703385085923407 0 3387.0 0.18703385085923407 1
gene  1 2 34 -0.3598943916223779 0 3466.0 -0.3598943916223779 1
gene  1 3 34 -0.5622866445127379 0 3467.0 -0.5622866445127379 1
gene  1 5 34 -0.1224155020272838 0 3469.0 -0.1224155020272838 1
gene  1 6 34 -0.3331471776046063 0 3470.0 -0.3331471776046063 1
gene  1 9 34 -0.652518394333879 0 3473.0 -0.652518394333879 1
gene  1 10 34 0.15039076402538232 0 3474.0 0.15039076402538232 1
gene  1 11 34 0.6985323947176945 0 3475.0 0.6985323947176945 1
gene  1 14 34 0.8186527866999123 0 3478.0 0.8186527866999123 1
gene  1 17 34 -0.8531279350167643 0 3481.0 -0.8531279350167643 1
gene  1 19 34 -0.11010934077681889 0 3483.0 -0.11010934077681889 1
gene  1 20 34 -0.25695777819492127 0 3484.0 -0.25695777819492127 1
gene  1 23 34 0.2609465601008125 0 3487.0 0.2609465601008125 1
gene  1 25 34 -0.9653904080700011 0 3489.0 -0.9653904080700011 1
gene  1 27 34 0.16691261500287902 0 3491.0 0.16691261500287902 1
gene  1 28 34 -0.1936131454673855 0 3492.0 -0.1936131454673855 1
gene  1 29 34 -0.9532410987866287 0 3493.0 -0.9532410987866287 1
gene  1 30 34 -0.6607306727952968 0 3494.0 -0.6607306727952968 1
gene  1 31 34 0.7211712421779134 0 3495.0 0.7211712421779134 1
gene  1 32 34 -0.29395373203616826 0 3496.0 -0.29395373203616826 1
gene  1 1 35 -0.7679471468800971 0 3570.0 -0.7679471468800971 1
gene  1 3 35 -0.5378138205532732 0 3572.0 -0.5378138205532732 1
gene  1 4 35 0.49460745437924314 0 3573.0 0.49460745437924314 1
gene  1 5 35 -0.06910702099804533 0 3574.0 -0.06910702099804533 1
gene  1 6 35 0.6961342628851211 0 3575.0 0.6961342628851211 1
gene  1 12 35 0.5417984728867716 0 3581.0 0.5417984728867716 1
gene  1 15 35 0.3134557220939457 0 3584.0 0.3134557220939457 1
gene  1 18 35 -0.5366351219598395 0 3587.0 -0.5366351219598395 1
gene  1 20 35 -0.3676778616498376 0 3589.0 -0.3676778616498376 1
gene  1 21 35 0.6425905017006811 0 3590.0 0.6425905017006811 1
gene  1 22 35 -0.025751048335733495 0 3591.0 -0.025751048335733495 1
gene  1 24 35 -0.40121672402190656 0 3593.0 -0.40121672402190656 1
gene  1 25 35 -0.7024895006305656 0 3594.0 -0.7024895006305656 1
gene  1 28 35 -0.5357131190995648 0 3597.0 -0.5357131190995648 1
gene  1 29 35 0.573695926860578 0 3598.0 0.573695926860578 1
gene  1 30 35 0.1351486948656716 0 3599.0 0.1351486948656716 1
gene  1 33 35 0.030060174812389318 0 3602.0 0.030060174812389318 1
gene  1 3 36 0.9499858619808869 0 3677.0 0.9499858619808869 1
gene  1 4 36 -0.47329250565272796 0 3678.0 -0.47329250565272796 1
gene  1 7 36 0.2848509509019087 0 3681.0 0.2848509509019087 1
gene  1 13 36 -0.6224598971884308 0 3687.0 -0.6224598971884308 1
gene  1 14 36 0.37003895681080123 0 3688.0 0.37003895681080123 1
gene  1 15 36 0.11209126686269166 0 3689.0 0.11209126686269166 1
gene  1 17 36 -0.7080247315699598 0 3691.0 -0.7080247315699598 1
gene  1 18 36 -0.57684659342809 0 3692.0 -0.57684659342809 1
gene  1 19 36 0.7152300964022787 0 3693.0 0.7152300964022787 1
gene  1 23 36 -0.6286026292143657 0 3697.0 -0.6286026292143657 1
gene  1 24 36 -0.6316508185504578 0 3698.0 -0.6316508185504578 1
gene  1 26 36 -0.4912317830639841 0 3700.0 -0.4912317830639841 1
gene  1 27 36 0.9755945593592588 0 3701.0 0.9755945593592588 1
gene  1 1 37 0.7471215213314536 0 3780.0 0.7471215213314536 1
gene  1 3 37 -0.9028745133191969 0 3782.0 -0.9028745133191969 1
gene  1 4 37 -0.9573930332486542 0 3783.0 -0.9573930332486542 1
gene  1 5 37 0.5652443451399809 0 3784.0 0.5652443451399809 1
gene  1 6 37 -0.9197753969761143 0 3785.0 -0.9197753969761143 1
gene  1 8 37 -0.556644319902676 0 3787.0 -0.556644319902676 1
gene  1 9 37 -0.7749544460984573 0 3788.0 -0.7749544460984573 1
gene  1 11 37 -0.3987076816216236 0 3790.0 -0.3987076816216236 1
gene  1 12 37 -0.8807547248458479 0 3791.0 -0.8807547248458479 1
gene  1 13 37 -0.5537571294695339 0 3792.0 -0.5537571294695339 1
gene  1 19 37 0.12018874802719426 0 3798.0 0.12018874802719426 1
gene  1 20 37 0.4700105951133686 0 3799.0 0.4700105951133686 1
gene  1 21 37 -0.20001772791407024 0 3800.0 -0.20001772791407024 1
gene  1 27 37 -0.9430974987879953 0 3806.0 -0.9430974987879953 1
gene  1 28 37 0.003317972811086811 0 3807.0 0.003317972811086811 1
gene  1 29 37 -0.17117012342582294 0 3808.0 -0.17117012342582294 1
gene  1 31 37 0.38625995785167155 0 3810.0 0.38625995785167155 1
gene  1 34 37 0.6991008463477703 0 3813.0 0.6991008463477703 1
gene  1 35 37 -0.9621689205883237 0 3814.0 -0.9621689205883237 1
gene  1 1 38 0.23888700078404224 0 3885.0 0.23888700078404224 1
gene  1 7 38 0.3294514765402291 0 3891.0 0.3294514765402291 1
gene  1 8 38 -0.49095205569290135 0 3892.0 -0.49095205569290135 1
gene  1 9 38 -0.4830110728989542 0 3893.0 -0.4830110728989542 1
gene  1 13 38 0.18766642131850597 0 3897.0 0.18766642131850597 1
gene  1 16 38 -0.4864993850994711 0 3900.0 -0.4864993850994711 1
gene  1 19 38 0.7992600272199348 0 3903.0 0.7992600272199348 1
gene  1 20 38 0.4481864638545139 0 3904.0 0.4481864638545139 1
gene  1 21 38 -0.3558026399842499 0 3905.0 -0.3558026399842499 1
gene  1 23 38 -0.8411906889162462 0 3907.0 -0.8411906889162462 1
gene  1 24 38 0.2388089035289378 0 3908.0 0.2388089035289378 1
gene  1 25 38 0.49351791993127114 0 3909.0 0.49351791993127114 1
gene  1 28 38 -0.348458549314278 0 3912.0 -0.348458549314278 1
gene  1 29 38 -0.7499889063409247 0 3913.0 -0.7499889063409247 1
gene  1 31 38 0.036733708949760246 0 3915.0 0.036733708949760246 1
gene  1 33 38 0.4471215895160552 0 3917.0 0.4471215895160552 1
gene  1 34 38 -0.15964891261425218 0 3918.0 -0.15964891261425218 1
gene  1 36 38 0.8038461264968306 0 3920.0 0.8038461264968306 1
gene  1 37 38 0.20273790305861616 0 3921.0 0.20273790305861616 1
gene  1 2 39 -0.6176891993042697 0 3991.0 -0.6176891993042697 1
gene  1 4 39 0.651866249472638 0 3993.0 0.651866249472638 1
gene  1 5 39 0.5751796093995521 0 3994.0 0.5751796093995521 1
gene  1 7 39 0.5947672069941926 0 3996.0 0.5947672069941926 1
gene  1 8 39 0.12895863817388542 0 3997.0 0.12895863817388542 1
gene  1 9 39 0.28731798719789614 0 3998.0 0.28731798719789614 1
gene  1 13 39 0.9076483686177158 0 4002.0 0.9076483686177158 1
gene  1 14 39 -0.3972638031459861 0 4003.0 -0.3972638031459861 1
gene  1 16 39 0.45424918147329074 0 4005.0 0.45424918147329074 1
gene  1 19 39 0.0665908408001642 0 4008.0 0.0665908408001642 1
gene  1 22 39 0.37032763011911507 0 4011.0 0.37032763011911507 1
gene  1 26 39 0.2915035070541888 0 4015.0 0.2915035070541888 1
gene  1 31 39 -0.9087619564664713 0 4020.0 -0.9087619564664713 1
gene  1 32 39 -0.9267201591228557 0 4021.0 -0.9267201591228557 1
gene  1 38 39 -0.8101696055470944 0 4027.0 -0.8101696055470944 1
gene  1 1 40 0.09469942235434736 0 4095.0 0.09469942235434736 1
gene  1 2 40 0.8978773767221457 0 4096.0 0.8978773767221457 1
gene  1 3 40 -0.37818762662445626 0 4097.0 -0.37818762662445626 1
gene  1 4 40 -0.0669829006921897 0 4098.0 -0.0669829006921897 1
gene  1 5 40 -0.8970466642729577 0 4099.0 -0.8970466642729577 1
gene  1 6 40 -0.9088334077920643 0 4100.0 -0.9088334077920643 1
gene  1 8 40 0.775746726606922 0 4102.0 0.775746726606922 1
gene  1 10 40 -0.8801635003189789 0 4104.0 -0.8801635003189789 1
gene  1 15 40 -0.7385667279077284 0 4109.0 -0.7385667279077284 1
gene  1 16 40 -0.45472950671409684 0 4110.0 -0.45472950671409684 1
gene  1 18 40 -0.28700037769177233 0 4112.0 -0.28700037769177233 1
gene  1 21 40 -0.6295423460514221 0 4115.0 -0.6295423460514221 1
gene  1 23 40 -0.8797442391935935 0 4117.0 -0.8797442391935935 1
gene  1 24 40 0.7394363343836096 0 4118.0 0.7394363343836096 1
gene  1 25 40 0.6705259081705027 0 4119.0 0.6705259081705027 1
gene  1 28 40 0.6743313647948007 0 4122.0 0.6743313647948007 1
gene  1 29 40 -0.45516730336851585 0 4123.0 -0.45516730336851585 1
gene  1 33 40 0.6872397869216047 0 4127.0 0.6872397869216047 1
gene  1 35 40 0.336628799145423 0 4129.0 0.336628799145423 1
gene  1 36 40 0.8414760758324843 0 4130.0 0.8414760758324843 1
gene  1 38 40 0.2156918313000431 0 4132.0 0.2156918313000431 1
gene  1 39 40 0.07132181217981615 0 4133.0 0.07132181217981615 1
gene  1 1 41 0.6324535265119963 0 4200.0 0.6324535265119963 1
gene  1 6 41 -0.7718621533172252 0 4205.0 -0.7718621533172252 1
gene  1 8 41 0.6044336166949564 0 4207.0 0.6044336166949564 1
gene  1 13 41 0.8517721258408167 0 4212.0 0.8517721258408167 1
gene  1 15 41 0.7725079141652565 0 4214.0 0.7725079141652565 1
gene  1 16 41 -0.8607504127332919 0 4215.0 -0.8607504127332919 1
gene  1 18 41 0.2519075224744687 0 4217.0 0.2519075224744687 1
gene  1 19 41 0.9898949721273099 0 4218.0 0.9898949721273099 1
gene  1 21 41 -0.5883623186600906 0 4220.0 -0.5883623186600906 1
gene  1 23 41 -0.9753826659684356 0 4222.0 -0.9753826659684356 1
gene  1 25 41 -0.27701317455920305 0 4224.0 -0.27701317455920305 1
gene  1 27 41 -0.10616525382985764 0 4226.0 -0.10616525382985764 1
gene  1 28 41 0.16943596171565944 0 4227.0 0.16943596171565944 1
gene  1 29 41 -0.8426344136258769 0 4228.0 -0.8426344136258769 1
gene  1 35 41 -0.4388194363600929 0 4234.0 -0.4388194363600929 1
gene  1 37 41 0.48121078035014253 0 4236.0 0.48121078035014253 1
gene  1 38 41 0.24182661743474476 0 4237.0 0.24182661743474476 1
gene  1 40 41 -0.36449363278322167 0 4239.0 -0.36449363278322167 1
gene  1 4 42 0.07910761661536736 0 4308.0 0.07910761661536736 1
gene  1 5 42 0.32144301623509597 0 4309.0 0.32144301623509597 1
gene  1 8 42 0.6248953811126694 0 4312.0 0.6248953811126694 1
gene  1 9 42 0.32749164589700996 0 4313.0 0.32749164589700996 1
gene  1 10 42 -0.04165532759602064 0 4314.0 -0.04165532759602064 1
gene  1 11 42 0.6040894683947705 0 4315.0 0.6040894683947705 1
gene  1 15 42 -0.5159822034413741 0 4319.0 -0.5159822034413741 1
gene  1 16 42 0.25935605171964327 0 4320.0 0.25935605171964327 1
gene  1 17 42 -0.9499093761098334 0 4321.0 -0.9499093761098334 1
gene  1 18 42 0.5329373538842409 0 4322.0 0.5329373538842409 1
gene  1 21 42 -0.4917691161312805 0 4325.0 -0.4917691161312805 1
gene  1 23 42 -0.08432236978888896 0 4327.0 -0.08432236978888896 1
gene  1 25 42 0.7030178854917537 0 4329.0 0.7030178854917537 1
gene  1 26 42 0.9504947488319964 0 4330.0 0.9504947488319964 1
gene  1 27 42 -0.6493735751901836 0 4331.0 -0.6493735751901836 1
gene  1 28 42 0.8168317966752543 0 4332.0 0.8168317966752543 1
gene  1 29 42 -0.12854878695090144 0 4333.0 -0.12854878695090144 1
gene  1 31 42 -0.41079872819786856 0 4335.0 -0.41079872819786856 1
gene  1 32 42 -0.01956227806780042 0 4336.0 -0.01956227806780042 1
gene  1 35 42 -0.687735630190943 0 4339.0 -0.687735630190943 1
gene  1 38 42 -0.9603750133700368 0 4342.0 -0.9603750133700368 1
gene  1 40 42 0.8879179744774963 0 4344.0 0.8879179744774963 1
gene  1 41 42 0.4062241579861602 0 4345.0 0.4062241579861602 1
gene  1 1 43 -0.7404706684655963 0 4410.0 -0.7404706684655963 1
gene  1 4 43 0.7282845862121177 0 4413.0 0.7282845862121177 1
gene  1 5 43 0.8183445439160174 0 4414.0 0.8183445439160174 1
gene  1 7 43 -0.8874973393631522 0 4416.0 -0.8874973393631522 1
gene  1 9 43 -0.28669478199705445 0 4418.0 -0.28669478199705445 1
gene  1 10 43 -0.5223899079634103 0 4419.0 -0.5223899079634103 1
gene  1 13 43 -0.8128642383264889 0 4422.0 -0.8128642383264889 1
gene  1 17 43 0.9611572371321129 0 4426.0 0.9611572371321129 1
gene  1 19 43 -0.43817642694188297 0 4428.0 -0.43817642694188297 1
gene  1 21 43 0.6852415391030641 0 4430.0 0.6852415391030641 1
gene  1 22 43 0.5589233854802397 0 4431.0 0.5589233854802397 1
gene  1 23 43 0.4458582204825716 0 4432.0 0.4458582204825716 1
gene  1 24 43 -0.797793974713625 0 4433.0 -0.797793974713625 1
gene  1 25 43 -0.27696041883273625 0 4434.0 -0.27696041883273625 1
gene  1 26 43 -0.22363704429451492 0 4435.0 -0.22363704429451492 1
gene  1 27 43 -0.835778833296872 0 4436.0 -0.835778833296872 1
gene  1 29 43 0.9076718946251722 0 4438.0 0.9076718946251722 1
gene  1 30 43 0.12731886588335029 0 4439.0 0.12731886588335029 1
gene  1 31 43 -0.7879489014426282 0 4440.0 -0.7879489014426282 1
gene  1 34 43 0.5337171775140799 0 4443.0 0.5337171775140799 1
gene  1 35 43 -0.12398723859338423 0 4444.0 -0.12398723859338423 1
gene  1 36 43 -0.6415332105638325 0 4445.0 -0.6415332105638325 1
gene  1 38 43 0.8434704058113013 0 4447.0 0.8434704058113013 1
gene  1 40 43 -0.8006658640305788 0 4449.0 -0.8006658640305788 1
gene  1 5 44 -0.6699235195079797 0 4519.0 -0.6699235195079797 1
gene  1 6 44 0.45596339460713187 0 4520.0 0.45596339460713187 1
gene  1 8 44 0.28648395654860614 0 4522.0 0.28648395654860614 1
gene  1 9 44 -0.011685584381062597 0 4523.0 -0.011685584381062597 1
gene  1 11 44 0.9616059418695172 0 4525.0 0.9616059418695172 1
gene  1 16 44 0.9727029535786877 0 4530.0 0.9727029535786877 1
gene  1 17 44 -0.2916584872285406 0 4531.0 -0.2916584872285406 1
gene  1 18 44 -0.911186333259781 0 4532.0 -0.911186333259781 1
gene  1 19 44 0.20447435667289104 0 4533.0 0.20447435667289104 1
gene  1 20 44 0.6493221681876017 0 4534.0 0.6493221681876017 1
gene  1 22 44 -0.8562324335981363 0 4536.0 -0.8562324335981363 1
gene  1 24 44 -0.637587915849052 0 4538.0 -0.637587915849052 1
gene  1 25 44 -0.31416424355251227 0 4539.0 -0.31416424355251227 1
gene  1 27 44 0.3273027106714388 0 4541.0 0.3273027106714388 1
gene  1 30 44 0.9106841753517851 0 4544.0 0.9106841753517851 1
gene  1 31 44 0.819210933608897 0 4545.0 0.819210933608897 1
gene  1 32 44 0.5681730930429079 0 4546.0 0.5681730930429079 1
gene  1 33 44 0.47985898973813634 0 4547.0 0.47985898973813634 1
gene  1 34 44 -0.5030221511793762 0 4548.0 -0.5030221511793762 1
gene  1 35 44 0.620965896120306 0 4549.0 0.620965896120306 1
gene  1 40 44 -0.9808664639838418 0 4554.0 -0.9808664639838418 1
gene  1 41 44 -0.9111361389338596 0 4555.0 -0.9111361389338596 1
gene  1 2 45 -0.31145047708672946 0 4621.0 -0.31145047708672946 1
gene  1 3 45 0.19515797532143742 0 4622.0 0.19515797532143742 1
gene  1 5 45 -0.20007685291572774 0 4624.0 -0.20007685291572774 1
gene  1 6 45 -0.4928398846184765 0 4625.0 -0.4928398846184765 1
gene  1 7 45 -0.8268394527208984 0 4626.0 -0.8268394527208984 1
gene  1 8 45 0.11907752350193612 0 4627.0 0.11907752350193612 1
gene  1 9 45 -0.03089421635231282 0 4628.0 -0.03089421635231282 1
gene  1 11 45 -0.06419848803529749 0 4630.0 -0.06419848803529749 1
gene  1 12 45 -0.9965687930211092 0 4631.0 -0.9965687930211092 1
gene  1 14 45 -0.5059467601557301 0 4633.0 -0.5059467601557301 1
gene  1 15 45 -0.33034335865357023 0 4634.0 -0.33034335865357023 1
gene  1 16 45 -0.714163065241719 0 4635.0 -0.714163065241719 1
gene  1 17 45 0.1312020755643193 0 4636.0 0.1312020755643193 1
gene  1 18 45 0.08256373792157112 0 4637.0 0.08256373792157112 1
gene  1 20 45 -0.6114651635078351 0 4639.0 -0.6114651635078351 1
gene  1 21 45 0.6126776672577576 0 4640.0 0.6126776672577576 1
gene  1 25 45 0.06326123545980777 0 4644.0 0.06326123545980777 1
gene  1 29 45 0.5243169981966246 0 4648.0 0.5243169981966246 1
gene  1 30 45 0.9197179917452696 0 4649.0 0.9197179917452696 1
gene  1 31 45 0.14682897532407957 0 4650.0 0.14682897532407957 1
gene  1 33 45 -0.20313398227878865 0 4652.0 -0.20313398227878865 1
gene  1 34 45 0.2232129857803462 0 4653.0 0.2232129857803462 1
gene  1 35 45 -0.3683196985778161 0 4654.0 -0.3683196985778161 1
gene  1 36 45 -0.8682228240658932 0 4655.0 -0.8682228240658932 1
gene  1 37 45 -0.4727843868361983 0 4656.0 -0.4727843868361983 1
gene  1 39 45 -0.7936052144810071 0 4658.0 -0.7936052144810071 1
gene  1 41 45 -0.6587600367656968 0 4660.0 -0.6587600367656968 1
gene  1 1 46 -0.17491601953546265 0 4725.0 -0.17491601953546265 1
gene  1 5 46 -0.49723196326900276 0 4729.0 -0.49723196326900276 1
gene  1 7 46 -0.45926197336347163 0 4731.0 -0.45926197336347163 1
gene  1 10 46 -0.2817051155803376 0 4734.0 -0.2817051155803376 1
gene  1 16 46 0.4739124990469389 0 4740.0 0.4739124990469389 1
gene  1 19 46 0.7023842969320537 0 4743.0 0.7023842969320537 1
gene  1 21 46 0.8394509860997915 0 4745.0 0.8394509860997915 1
gene  1 23 46 -0.2522412803371733 0 4747.0 -0.2522412803371733 1
gene  1 25 46 0.0222489637370189 0 4749.0 0.0222489637370189 1
gene  1 26 46 0.5832907135027507 0 4750.0 0.5832907135027507 1
gene  1 27 46 -0.9954287705180153 0 4751.0 -0.9954287705180153 1
gene  1 28 46 0.8390919623714063 0 4752.0 0.8390919623714063 1
gene  1 29 46 -0.6840502674031038 0 4753.0 -0.6840502674031038 1
gene  1 31 46 -0.7686436676844615 0 4755.0 -0.7686436676844615 1
gene  1 33 46 -0.20603973118059316 0 4757.0 -0.20603973118059316 1
gene  1 35 46 -0.004189506873909621 0 4759.0 -0.004189506873909621 1
gene  1 38 46 -0.4100158905736626 0 4762.0 -0.4100158905736626 1
gene  1 39 46 0.18667927168754028 0 4763.0 0.18667927168754028 1
gene  1 40 46 -0.21538186233493561 0 4764.0 -0.21538186233493561 1
gene  1 42 46 -0.1777702593497097 0 4766.0 -0.1777702593497097 1
gene  1 43 46 0.5213607745572166 0 4767.0 0.5213607745572166 1
gene  1 45 46 -0.6276840394943641 0 4769.0 -0.6276840394943641 1
gene  1 2 47 0.3993706304611918 0 4831.0 0.3993706304611918 1
gene  1 5 47 -0.6028384780009702 0 4834.0 -0.6028384780009702 1
gene  1 11 47 0.5234110368162799 0 4840.0 0.5234110368162799 1
gene  1 13 47 0.9641386775746794 0 4842.0 0.9641386775746794 1
gene  1 15 47 0.8036071786492944 0 4844.0 0.8036071786492944 1
gene  1 21 47 -0.13613829569657898 0 4850.0 -0.13613829569657898 1
gene  1 22 47 -0.580354429835543 0 4851.0 -0.580354429835543 1
gene  1 27 47 0.8180369423661243 0 4856.0 0.8180369423661243 1
gene  1 28 47 -0.5436719296325643 0 4857.0 -0.5436719296325643 1
gene  1 29 47 0.9822845391710315 0 4858.0 0.9822845391710315 1
gene  1 30 47 0.3319506352937869 0 4859.0 0.3319506352937869 1
gene  1 32 47 -0.31489723036810857 0 4861.0 -0.31489723036810857 1
gene  1 33 47 -0.971642130409696 0 4862.0 -0.971642130409696 1
gene  1 34 47 -0.0519099509528308 0 4863.0 -0.0519099509528308 1
gene  1 36 47 0.03957448429993693 0 4865.0 0.03957448429993693 1
gene  1 37 47 0.9161001076332783 0 4866.0 0.9161001076332783 1
gene  1 38 47 -0.9994679040934864 0 4867.0 -0.9994679040934864 1
gene  1 40 47 0.20893994270159377 0 4869.0 0.20893994270159377 1
gene  1 45 47 -0.21142921108883672 0 4874.0 -0.21142921108883672 1
gene  1 3 48 0.027975729057313048 0 4937.0 0.027975729057313048 1
gene  1 4 48 -0.3404044074114998 0 4938.0 -0.3404044074114998 1
gene  1 6 48 0.6386311073751799 0 4940.0 0.6386311073751799 1
gene  1 8 48 -0.7081353097776812 0 4942.0 -0.7081353097776812 1
gene  1 9 48 -0.9219457013870335 0 4943.0 -0.9219457013870335 1
gene  1 13 48 0.35293505804173564 0 4947.0 0.35293505804173564 1
gene  1 14 48 0.5059112713854347 0 4948.0 0.5059112713854347 1
gene  1 18 48 0.6875542514626225 0 4952.0 0.6875542514626225 1
gene  1 23 48 0.4112823767216175 0 4957.0 0.4112823767216175 1
gene  1 25 48 0.9258503907769888 0 4959.0 0.9258503907769888 1
gene  1 27 48 -0.35880964651155733 0 4961.0 -0.35880964651155733 1
gene  1 32 48 -0.6634063100511934 0 4966.0 -0.6634063100511934 1
gene  1 33 48 0.08484979142779803 0 4967.0 0.08484979142779803 1
gene  1 35 48 0.06606794839507457 0 4969.0 0.06606794839507457 1
gene  1 41 48 0.7872205986911642 0 4975.0 0.7872205986911642 1
gene  1 42 48 0.9621173495902188 0 4976.0 0.9621173495902188 1
gene  1 43 48 0.7365733257871044 0 4977.0 0.7365733257871044 1
gene  1 44 48 -0.7894559347886976 0 4978.0 -0.7894559347886976 1
gene  1 46 48 -0.39262734293223867 0 4980.0 -0.39262734293223867 1
gene  1 1 49 -0.2368907803236765 0 5040.0 -0.2368907803236765 1
gene  1 3 49 -0.9132633475075176 0 5042.0 -0.9132633475075176 1
gene  1 9 49 0.6758075348012342 0 5048.0 0.6758075348012342 1
gene  1 10 49 -0.4263265300141843 0 5049.0 -0.4263265300141843 1
gene  1 14 49 0.6921304692793264 0 5053.0 0.6921304692793264 1
gene  1 15 49 -0.3665810388281211 0 5054.0 -0.3665810388281211 1
gene  1 16 49 -0.24802088683256485 0 5055.0 -0.24802088683256485 1
gene  1 21 49 0.5756163645055902 0 5060.0 0.5756163645055902 1
gene  1 22 49 0.774294781895037 0 5061.0 0.774294781895037 1
gene  1 25 49 0.19304675815887873 0 5064.0 0.19304675815887873 1
gene  1 28 49 -0.7476679944250688 0 5067.0 -0.7476679944250688 1
gene  1 32 49 0.4296905294438853 0 5071.0 0.4296905294438853 1
gene  1 34 49 -0.2706756993192525 0 5073.0 -0.2706756993192525 1
gene  1 35 49 -0.806589842478783 0 5074.0 -0.806589842478783 1
gene  1 36 49 0.08905498654742072 0 5075.0 0.08905498654742072 1
gene  1 37 49 0.5468471083391583 0 5076.0 0.5468471083391583 1
gene  1 38 49 -0.7334761508430343 0 5077.0 -0.7334761508430343 1
gene  1 39 49 -0.7606416347781789 0 5078.0 -0.7606416347781789 1
gene  1 42 49 -0.8255307741360238 0 5081.0 -0.8255307741360238 1
gene  1 44 49 0.7261738091034834 0 5083.0 0.7261738091034834 1
gene  1 2 50 -0.6052881312480827 0 5146.0 -0.6052881312480827 1
gene  1 3 50 0.14246409968767781 0 5147.0 0.14246409968767781 1
gene  1 4 50 0.008512348445475881 0 5148.0 0.008512348445475881 1
gene  1 6 50 -0.8110876551118051 0 5150.0 -0.8110876551118051 1
gene  1 7 50 0.29040912568664334 0 5151.0 0.29040912568664334 1
gene  1 9 50 0.544454968795433 0 5153.0 0.544454968795433 1
gene  1 10 50 0.374157298061213 0 5154.0 0.374157298061213 1
gene  1 11 50 0.9168386226669121 0 5155.0 0.9168386226669121 1
gene  1 12 50 -0.10551074175678021 0 5156.0 -0.10551074175678021 1
gene  1 14 50 0.8906112401609007 0 5158.0 0.8906112401609007 1
gene  1 16 50 -0.476898104259844 0 5160.0 -0.476898104259844 1
gene  1 18 50 -0.4740602385585362 0 5162.0 -0.4740602385585362 1
gene  1 20 50 -0.6984954167852888 0 5164.0 -0.6984954167852888 1
gene  1 22 50 -0.9980820024663887 0 5166.0 -0.9980820024663887 1
gene  1 25 50 0.18460471185820237 0 5169.0 0.18460471185820237 1
gene  1 26 50 -0.5572668493019842 0 5170.0 -0.5572668493019842 1
gene  1 28 50 0.27583148848868655 0 5172.0 0.27583148848868655 1
gene  1 31 50 0.19258845711566297 0 5175.0 0.19258845711566297 1
gene  1 41 50 -0.4477795351239713 0 5185.0 -0.4477795351239713 1
gene  1 43 50 -0.05933286743003008 0 5187.0 -0.05933286743003008 1
gene  1 44 50 0.19049783469778625 0 5188.0 0.19049783469778625 1
gene  1 47 50 0.5030968538645544 0 5191.0 0.5030968538645544 1
gene  1 48 50 0.9051117751541099 0 5192.0 0.9051117751541099 1
gene  1 49 50 0.8657983237341098 0 5193.0 0.8657983237341098 1
gene  1 1 51 -0.9635321080199607 0 5250.0 -0.9635321080199607 1
gene  1 4 51 0.5380381110020412 0 5253.0 0.5380381110020412 1
gene  1 5 51 0.7494912254876199 0 5254.0 0.7494912254876199 1
gene  1 7 51 -0.05854949191453973 0 5256.0 -0.05854949191453973 1
gene  1 8 51 -0.2250679650977918 0 5257.0 -0.2250679650977918 1
gene  1 13 51 -0.6169899489212674 0 5262.0 -0.6169899489212674 1
gene  1 15 51 -0.2711549425274997 0 5264.0 -0.2711549425274997 1
gene  1 17 51 -0.6661296295273705 0 5266.0 -0.6661296295273705 1
gene  1 18 51 -0.9330495841518197 0 5267.0 -0.9330495841518197 1
gene  1 19 51 -0.7943641634519547 0 5268.0 -0.7943641634519547 1
gene  1 21 51 -0.6463321771395768 0 5270.0 -0.6463321771395768 1
gene  1 26 51 -0.7036154049324169 0 5275.0 -0.7036154049324169 1
gene  1 28 51 0.3612845260950954 0 5277.0 0.3612845260950954 1
gene  1 29 51 0.18343405207858077 0 5278.0 0.18343405207858077 1
gene  1 30 51 0.23825714552570043 0 5279.0 0.23825714552570043 1
gene  1 32 51 0.3815040211731099 0 5281.0 0.3815040211731099 1
gene  1 33 51 -0.02927026924556686 0 5282.0 -0.02927026924556686 1
gene  1 34 51 -0.2600375257662091 0 5283.0 -0.2600375257662091 1
gene  1 35 51 -0.9198100188504206 0 5284.0 -0.9198100188504206 1
gene  1 39 51 -0.880119010334562 0 5288.0 -0.880119010334562 1
gene  1 44 51 0.9948146255952837 0 5293.0 0.9948146255952837 1
gene  1 45 51 -0.30741186074892 0 5294.0 -0.30741186074892 1
gene  1 46 51 -0.5697652340240823 0 5295.0 -0.5697652340240823 1
gene  1 47 51 2.6143830029423665E-4 0 5296.0 2.6143830029423665E-4 1
gene  1 48 51 -0.7517482426799806 0 5297.0 -0.7517482426799806 1
gene  1 49 51 0.7406458008450277 0 5298.0 0.7406458008450277 1
gene  1 1 52 -0.9034954913297197 0 5355.0 -0.9034954913297197 1
gene  1 2 52 0.12568487181510346 0 5356.0 0.12568487181510346 1
gene  1 4 52 -0.608255034057059 0 5358.0 -0.608255034057059 1
gene  1 5 52 0.02683955525870807 0 5359.0 0.02683955525870807 1
gene  1 6 52 0.499194145065494 0 5360.0 0.499194145065494 1
gene  1 7 52 0.12880703859619558 0 5361.0 0.12880703859619558 1
gene  1 11 52 -0.5901587314221443 0 5365.0 -0.5901587314221443 1
gene  1 13 52 0.2727786513030156 0 5367.0 0.2727786513030156 1
gene  1 14 52 0.20680871216683672 0 5368.0 0.20680871216683672 1
gene  1 18 52 -0.27511728527962775 0 5372.0 -0.27511728527962775 1
gene  1 20 52 -0.07590658981617415 0 5374.0 -0.07590658981617415 1
gene  1 21 52 0.1851724944997729 0 5375.0 0.1851724944997729 1
gene  1 26 52 -0.872869070056773 0 5380.0 -0.872869070056773 1
gene  1 27 52 -0.5380958445366514 0 5381.0 -0.5380958445366514 1
gene  1 30 52 -0.9683685003047087 0 5384.0 -0.9683685003047087 1
gene  1 31 52 -0.09056697942282843 0 5385.0 -0.09056697942282843 1
gene  1 37 52 0.3835654238444307 0 5391.0 0.3835654238444307 1
gene  1 38 52 -0.5261076590282809 0 5392.0 -0.5261076590282809 1
gene  1 39 52 0.9196791884215417 0 5393.0 0.9196791884215417 1
gene  1 40 52 0.526080479349185 0 5394.0 0.526080479349185 1
gene  1 43 52 -0.6834798457404893 0 5397.0 -0.6834798457404893 1
gene  1 44 52 0.993519644946716 0 5398.0 0.993519644946716 1
gene  1 45 52 -0.11032472093592716 0 5399.0 -0.11032472093592716 1
gene  1 47 52 -0.7431707813780173 0 5401.0 -0.7431707813780173 1
gene  1 48 52 0.5403704932900026 0 5402.0 0.5403704932900026 1
gene  1 49 52 -0.5049426957145695 0 5403.0 -0.5049426957145695 1
gene  1 51 52 0.23802113985827 0 5405.0 0.23802113985827 1
gene  1 2 53 -0.3916322505682992 0 5461.0 -0.3916322505682992 1
gene  1 4 53 0.12879403876785578 0 5463.0 0.12879403876785578 1
gene  1 8 53 0.6356220932912504 0 5467.0 0.6356220932912504 1
gene  1 9 53 -0.5755351668844176 0 5468.0 -0.5755351668844176 1
gene  1 10 53 -0.9287365513643676 0 5469.0 -0.9287365513643676 1
gene  1 11 53 -0.8379527593045795 0 5470.0 -0.8379527593045795 1
gene  1 12 53 0.3110648950151028 0 5471.0 0.3110648950151028 1
gene  1 13 53 0.3237113275273249 0 5472.0 0.3237113275273249 1
gene  1 14 53 -0.60952943334387 0 5473.0 -0.60952943334387 1
gene  1 16 53 -0.2721586651240264 0 5475.0 -0.2721586651240264 1
gene  1 18 53 0.7503561692102697 0 5477.0 0.7503561692102697 1
gene  1 22 53 -0.6152315908614762 0 5481.0 -0.6152315908614762 1
gene  1 23 53 -0.6113225023796613 0 5482.0 -0.6113225023796613 1
gene  1 24 53 -0.01529369947385828 0 5483.0 -0.01529369947385828 1
gene  1 25 53 -0.5125008355837007 0 5484.0 -0.5125008355837007 1
gene  1 29 53 0.7490478800922326 0 5488.0 0.7490478800922326 1
gene  1 33 53 0.20278266747497897 0 5492.0 0.20278266747497897 1
gene  1 34 53 -0.042552829716282714 0 5493.0 -0.042552829716282714 1
gene  1 35 53 -0.43263806661882265 0 5494.0 -0.43263806661882265 1
gene  1 36 53 0.8723794960345108 0 5495.0 0.8723794960345108 1
gene  1 39 53 0.33201548033797024 0 5498.0 0.33201548033797024 1
gene  1 40 53 -0.4619098968376887 0 5499.0 -0.4619098968376887 1
gene  1 41 53 -0.6510863024849729 0 5500.0 -0.6510863024849729 1
gene  1 42 53 0.9284131953071169 0 5501.0 0.9284131953071169 1
gene  1 43 53 0.44682380277673084 0 5502.0 0.44682380277673084 1
gene  1 44 53 0.6918366954775783 0 5503.0 0.6918366954775783 1
gene  1 45 53 -0.4057398922326768 0 5504.0 -0.4057398922326768 1
gene  1 49 53 0.289517403648512 0 5508.0 0.289517403648512 1
gene  1 51 53 0.31394092778083826 0 5510.0 0.31394092778083826 1
gene  1 1 54 0.9779074187847999 0 5565.0 0.9779074187847999 1
gene  1 2 54 -0.9970823006400344 0 5566.0 -0.9970823006400344 1
gene  1 4 54 -0.8683891236728568 0 5568.0 -0.8683891236728568 1
gene  1 8 54 -0.5343991942743942 0 5572.0 -0.5343991942743942 1
gene  1 11 54 -0.9254745605429063 0 5575.0 -0.9254745605429063 1
gene  1 12 54 -0.11160323818787965 0 5576.0 -0.11160323818787965 1
gene  1 15 54 -0.3979791842675151 0 5579.0 -0.3979791842675151 1
gene  1 19 54 0.9930930710788262 0 5583.0 0.9930930710788262 1
gene  1 22 54 -0.1944336203454985 0 5586.0 -0.1944336203454985 1
gene  1 23 54 -0.0671889831091933 0 5587.0 -0.0671889831091933 1
gene  1 29 54 -0.9845428615136081 0 5593.0 -0.9845428615136081 1
gene  1 31 54 -0.6876917168101899 0 5595.0 -0.6876917168101899 1
gene  1 32 54 -0.7403933884761361 0 5596.0 -0.7403933884761361 1
gene  1 35 54 -0.13344425790159709 0 5599.0 -0.13344425790159709 1
gene  1 38 54 0.44037280847719995 0 5602.0 0.44037280847719995 1
gene  1 42 54 -0.9828895366269818 0 5606.0 -0.9828895366269818 1
gene  1 44 54 -0.6789101307987647 0 5608.0 -0.6789101307987647 1
gene  1 45 54 0.7881295933002301 0 5609.0 0.7881295933002301 1
gene  1 50 54 0.501698313010973 0 5614.0 0.501698313010973 1
gene  1 51 54 -0.979969661808723 0 5615.0 -0.979969661808723 1
gene  1 53 54 0.5397700838408446 0 5617.0 0.5397700838408446 1
gene  1 2 55 -0.05206038183375805 0 5671.0 -0.05206038183375805 1
gene  1 6 55 -0.025260219987287558 0 5675.0 -0.025260219987287558 1
gene  1 7 55 -0.20008110369100962 0 5676.0 -0.20008110369100962 1
gene  1 8 55 -0.01993813285590218 0 5677.0 -0.01993813285590218 1
gene  1 10 55 -0.14988967891509208 0 5679.0 -0.14988967891509208 1
gene  1 13 55 -0.06095354610401493 0 5682.0 -0.06095354610401493 1
gene  1 16 55 -0.3956628756340643 0 5685.0 -0.3956628756340643 1
gene  1 18 55 -0.34942417345713495 0 5687.0 -0.34942417345713495 1
gene  1 24 55 -0.9710374116099402 0 5693.0 -0.9710374116099402 1
gene  1 26 55 -0.2288022591514266 0 5695.0 -0.2288022591514266 1
gene  1 28 55 0.9431234381700064 0 5697.0 0.9431234381700064 1
gene  1 29 55 0.6760253900781098 0 5698.0 0.6760253900781098 1
gene  1 30 55 -0.7483618675273819 0 5699.0 -0.7483618675273819 1
gene  1 31 55 -0.7319002676870912 0 5700.0 -0.7319002676870912 1
gene  1 32 55 0.7681176372104055 0 5701.0 0.7681176372104055 1
gene  1 34 55 -0.9341253308107285 0 5703.0 -0.9341253308107285 1
gene  1 37 55 0.17359512578802905 0 5706.0 0.17359512578802905 1
gene  1 38 55 0.24270354228471502 0 5707.0 0.24270354228471502 1
gene  1 39 55 -0.1213449425250619 0 5708.0 -0.1213449425250619 1
gene  1 40 55 -0.08029170466516888 0 5709.0 -0.08029170466516888 1
gene  1 41 55 0.7665593161997748 0 5710.0 0.7665593161997748 1
gene  1 42 55 -0.6724461282257195 0 5711.0 -0.6724461282257195 1
gene  1 43 55 -0.18838381932229054 0 5712.0 -0.18838381932229054 1
gene  1 44 55 -0.30450766530396345 0 5713.0 -0.30450766530396345 1
gene  1 46 55 0.6950986455108296 0 5715.0 0.6950986455108296 1
gene  1 47 55 0.8211123837063202 0 5716.0 0.8211123837063202 1
gene  1 49 55 -0.5842208288880212 0 5718.0 -0.5842208288880212 1
gene  1 50 55 -0.42006797850265554 0 5719.0 -0.42006797850265554 1
gene  1 52 55 0.6867264629864722 0 5721.0 0.6867264629864722 1
gene  1 53 55 0.19133672918765687 0 5722.0 0.19133672918765687 1
gene  1 1 56 0.2762389408122119 0 5775.0 0.2762389408122119 1
gene  1 2 56 0.5164160069478129 0 5776.0 0.5164160069478129 1
gene  1 3 56 -0.010301524174746057 0 5777.0 -0.010301524174746057 1
gene  1 5 56 -0.9012008739167642 0 5779.0 -0.9012008739167642 1
gene  1 6 56 0.5947901716668837 0 5780.0 0.5947901716668837 1
gene  1 7 56 0.6558109294515894 0 5781.0 0.6558109294515894 1
gene  1 8 56 -0.362588522300649 0 5782.0 -0.362588522300649 1
gene  1 9 56 0.9499187812441962 0 5783.0 0.9499187812441962 1
gene  1 10 56 -0.34625559879334433 0 5784.0 -0.34625559879334433 1
gene  1 11 56 -0.794391524131742 0 5785.0 -0.794391524131742 1
gene  1 12 56 -0.5431757212293613 0 5786.0 -0.5431757212293613 1
gene  1 17 56 -0.8629710524106549 0 5791.0 -0.8629710524106549 1
gene  1 18 56 -0.9297295757688203 0 5792.0 -0.9297295757688203 1
gene  1 19 56 0.7080146119056404 0 5793.0 0.7080146119056404 1
gene  1 22 56 -0.011645764210091225 0 5796.0 -0.011645764210091225 1
gene  1 25 56 0.48988136102349034 0 5799.0 0.48988136102349034 1
gene  1 29 56 0.9870703087028116 0 5803.0 0.9870703087028116 1
gene  1 32 56 -0.8596378080994099 0 5806.0 -0.8596378080994099 1
gene  1 34 56 0.30972310258915703 0 5808.0 0.30972310258915703 1
gene  1 35 56 -0.9534030087912702 0 5809.0 -0.9534030087912702 1
gene  1 37 56 0.870823417107101 0 5811.0 0.870823417107101 1
gene  1 38 56 -0.32380621373794594 0 5812.0 -0.32380621373794594 1
gene  1 39 56 0.21183306260489876 0 5813.0 0.21183306260489876 1
gene  1 40 56 0.1926581028516956 0 5814.0 0.1926581028516956 1
gene  1 42 56 -0.9011130947454177 0 5816.0 -0.9011130947454177 1
gene  1 44 56 -0.9101903025114465 0 5818.0 -0.9101903025114465 1
gene  1 45 56 -0.7004514185729225 0 5819.0 -0.7004514185729225 1
gene  1 46 56 0.42838105219793765 0 5820.0 0.42838105219793765 1
gene  1 47 56 -0.47854710350121965 0 5821.0 -0.47854710350121965 1
gene  1 49 56 -0.9366727537488266 0 5823.0 -0.9366727537488266 1
gene  1 50 56 -0.10502822226053576 0 5824.0 -0.10502822226053576 1
gene  1 1 57 -0.16386753205024263 0 5880.0 -0.16386753205024263 1
gene  1 3 57 -0.024909098484261594 0 5882.0 -0.024909098484261594 1
gene  1 4 57 -0.9871456137006566 0 5883.0 -0.9871456137006566 1
gene  1 7 57 -0.19923739288716236 0 5886.0 -0.19923739288716236 1
gene  1 9 57 0.962904806580612 0 5888.0 0.962904806580612 1
gene  1 11 57 0.008206466420193292 0 5890.0 0.008206466420193292 1
gene  1 13 57 -0.853272262915942 0 5892.0 -0.853272262915942 1
gene  1 15 57 -0.7218077912775104 0 5894.0 -0.7218077912775104 1
gene  1 16 57 0.39261474211362446 0 5895.0 0.39261474211362446 1
gene  1 21 57 0.9666646828197452 0 5900.0 0.9666646828197452 1
gene  1 22 57 0.46568946905993525 0 5901.0 0.46568946905993525 1
gene  1 23 57 0.7190884522686627 0 5902.0 0.7190884522686627 1
gene  1 25 57 -0.8459119961632067 0 5904.0 -0.8459119961632067 1
gene  1 32 57 -0.14255313785043178 0 5911.0 -0.14255313785043178 1
gene  1 34 57 0.34054118170324976 0 5913.0 0.34054118170324976 1
gene  1 35 57 0.6475123204950483 0 5914.0 0.6475123204950483 1
gene  1 36 57 -0.8606729446928951 0 5915.0 -0.8606729446928951 1
gene  1 39 57 -0.6582024477748073 0 5918.0 -0.6582024477748073 1
gene  1 42 57 -0.1332955051521102 0 5921.0 -0.1332955051521102 1
gene  1 43 57 -0.21285331714359712 0 5922.0 -0.21285331714359712 1
gene  1 44 57 -0.4106100928302753 0 5923.0 -0.4106100928302753 1
gene  1 49 57 0.8720219809441007 0 5928.0 0.8720219809441007 1
gene  1 50 57 0.6443174052768295 0 5929.0 0.6443174052768295 1
gene  1 52 57 -0.14909765330809288 0 5931.0 -0.14909765330809288 1
gene  1 53 57 -0.07050787013934878 0 5932.0 -0.07050787013934878 1
gene  1 55 57 -0.8224106787498549 0 5934.0 -0.8224106787498549 1
gene  1 2 58 -0.7598489813848563 0 5986.0 -0.7598489813848563 1
gene  1 6 58 -0.28822147034833345 0 5990.0 -0.28822147034833345 1
gene  1 9 58 0.05453442831340305 0 5993.0 0.05453442831340305 1
gene  1 11 58 -0.3547134158063221 0 5995.0 -0.3547134158063221 1
gene  1 14 58 -0.6474564186633952 0 5998.0 -0.6474564186633952 1
gene  1 15 58 0.3754122101616003 0 5999.0 0.3754122101616003 1
gene  1 16 58 -0.7238048456760696 0 6000.0 -0.7238048456760696 1
gene  1 17 58 0.4052248649698018 0 6001.0 0.4052248649698018 1
gene  1 19 58 -0.22558347592911565 0 6003.0 -0.22558347592911565 1
gene  1 21 58 0.721389815887229 0 6005.0 0.721389815887229 1
gene  1 24 58 -0.07562065013022679 0 6008.0 -0.07562065013022679 1
gene  1 25 58 -0.9329699932459845 0 6009.0 -0.9329699932459845 1
gene  1 26 58 0.770925360799178 0 6010.0 0.770925360799178 1
gene  1 28 58 -0.3304551136670575 0 6012.0 -0.3304551136670575 1
gene  1 30 58 0.013601906016291632 0 6014.0 0.013601906016291632 1
gene  1 36 58 0.5127597907413576 0 6020.0 0.5127597907413576 1
gene  1 40 58 0.15260032154051173 0 6024.0 0.15260032154051173 1
gene  1 42 58 0.022564508799288285 0 6026.0 0.022564508799288285 1
gene  1 43 58 0.3913995212403445 0 6027.0 0.3913995212403445 1
gene  1 44 58 0.6718733112837095 0 6028.0 0.6718733112837095 1
gene  1 45 58 0.8356183834886522 0 6029.0 0.8356183834886522 1
gene  1 46 58 -0.9998336409697901 0 6030.0 -0.9998336409697901 1
gene  1 47 58 -0.19332923276166014 0 6031.0 -0.19332923276166014 1
gene  1 48 58 0.629563056684907 0 6032.0 0.629563056684907 1
gene  1 49 58 -0.5843743014068291 0 6033.0 -0.5843743014068291 1
gene  1 50 58 -0.5590045515793285 0 6034.0 -0.5590045515793285 1
gene  1 51 58 -0.017992774386581645 0 6035.0 -0.017992774386581645 1
gene  1 53 58 -0.3172134476119548 0 6037.0 -0.3172134476119548 1
gene  1 54 58 0.9356433631932494 0 6038.0 0.9356433631932494 1
gene  1 1 59 -0.28505203708133886 0 6090.0 -0.28505203708133886 1
gene  1 3 59 0.7549993455051544 0 6092.0 0.7549993455051544 1
gene  1 5 59 0.9730618414766983 0 6094.0 0.9730618414766983 1
gene  1 7 59 -0.5750309108760402 0 6096.0 -0.5750309108760402 1
gene  1 10 59 0.18760314509307863 0 6099.0 0.18760314509307863 1
gene  1 11 59 0.9639084982675192 0 6100.0 0.9639084982675192 1
gene  1 16 59 0.44646029907684126 0 6105.0 0.44646029907684126 1
gene  1 17 59 -0.9255893208457635 0 6106.0 -0.9255893208457635 1
gene  1 18 59 0.26842926254154387 0 6107.0 0.26842926254154387 1
gene  1 19 59 0.6864882942844575 0 6108.0 0.6864882942844575 1
gene  1 20 59 0.7621264275019993 0 6109.0 0.7621264275019993 1
gene  1 23 59 0.586314665958839 0 6112.0 0.586314665958839 1
gene  1 24 59 0.8890415369291186 0 6113.0 0.8890415369291186 1
gene  1 27 59 -0.9407054252992971 0 6116.0 -0.9407054252992971 1
gene  1 28 59 -0.8059921179074713 0 6117.0 -0.8059921179074713 1
gene  1 30 59 0.8947901599965344 0 6119.0 0.8947901599965344 1
gene  1 32 59 0.7933552675603514 0 6121.0 0.7933552675603514 1
gene  1 33 59 -0.8842935884228698 0 6122.0 -0.8842935884228698 1
gene  1 34 59 0.9442758752307727 0 6123.0 0.9442758752307727 1
gene  1 35 59 -0.345049213934965 0 6124.0 -0.345049213934965 1
gene  1 37 59 0.5293396879575372 0 6126.0 0.5293396879575372 1
gene  1 38 59 0.008415304399598145 0 6127.0 0.008415304399598145 1
gene  1 39 59 -0.3913137513617868 0 6128.0 -0.3913137513617868 1
gene  1 40 59 0.9908594772048311 0 6129.0 0.9908594772048311 1
gene  1 43 59 0.40026163131354864 0 6132.0 0.40026163131354864 1
gene  1 46 59 -0.8733493981297278 0 6135.0 -0.8733493981297278 1
gene  1 47 59 -0.5364023470145873 0 6136.0 -0.5364023470145873 1
gene  1 49 59 -0.28752402276385014 0 6138.0 -0.28752402276385014 1
gene  1 52 59 0.6021663029461238 0 6141.0 0.6021663029461238 1
gene  1 53 59 0.9581833035223402 0 6142.0 0.9581833035223402 1
gene  1 54 59 -0.7342230487875209 0 6143.0 -0.7342230487875209 1
gene  1 56 59 0.16277797058326882 0 6145.0 0.16277797058326882 1
gene  1 58 59 -0.30809443037126416 0 6147.0 -0.30809443037126416 1
gene  1 6 60 0.5294252173303452 0 6200.0 0.5294252173303452 1
gene  1 7 60 0.18799233717492814 0 6201.0 0.18799233717492814 1
gene  1 8 60 -0.909624753761275 0 6202.0 -0.909624753761275 1
gene  1 9 60 -0.6265606534543635 0 6203.0 -0.6265606534543635 1
gene  1 13 60 0.8879062627451104 0 6207.0 0.8879062627451104 1
gene  1 15 60 0.11186093729481783 0 6209.0 0.11186093729481783 1
gene  1 16 60 0.8205735898131756 0 6210.0 0.8205735898131756 1
gene  1 17 60 0.3742429913455275 0 6211.0 0.3742429913455275 1
gene  1 18 60 0.5123296657777402 0 6212.0 0.5123296657777402 1
gene  1 19 60 -0.8736748805634846 0 6213.0 -0.8736748805634846 1
gene  1 21 60 0.25265700820689063 0 6215.0 0.25265700820689063 1
gene  1 24 60 -0.7897574190698228 0 6218.0 -0.7897574190698228 1
gene  1 25 60 -0.048719129481224255 0 6219.0 -0.048719129481224255 1
gene  1 27 60 -0.9873068322515388 0 6221.0 -0.9873068322515388 1
gene  1 29 60 -0.05414183002493855 0 6223.0 -0.05414183002493855 1
gene  1 31 60 -0.80279087031816 0 6225.0 -0.80279087031816 1
gene  1 32 60 0.5995857203091514 0 6226.0 0.5995857203091514 1
gene  1 34 60 -0.7635277921547378 0 6228.0 -0.7635277921547378 1
gene  1 36 60 -0.384696549436759 0 6230.0 -0.384696549436759 1
gene  1 38 60 0.4335944847484936 0 6232.0 0.4335944847484936 1
gene  1 40 60 0.631000620720793 0 6234.0 0.631000620720793 1
gene  1 41 60 -0.9298580254743234 0 6235.0 -0.9298580254743234 1
gene  1 42 60 0.9180116184467081 0 6236.0 0.9180116184467081 1
gene  1 44 60 0.8016204541789252 0 6238.0 0.8016204541789252 1
gene  1 46 60 -0.060439857841138034 0 6240.0 -0.060439857841138034 1
gene  1 47 60 0.30492532615090406 0 6241.0 0.30492532615090406 1
gene  1 51 60 -0.08593132589376151 0 6245.0 -0.08593132589376151 1
gene  1 52 60 -0.08552318144229931 0 6246.0 -0.08552318144229931 1
gene  1 54 60 0.7181383445656538 0 6248.0 0.7181383445656538 1
gene  1 56 60 -0.5453579176762386 0 6250.0 -0.5453579176762386 1
gene  1 3 105 -0.3718701825977532 0 10922.0 -0.3718701825977532 1
gene  1 4 105 0.41331616706777663 0 10923.0 0.41331616706777663 1
gene  1 8 105 0.6290123265110527 0 10927.0 0.6290123265110527 1
gene  1 9 105 0.37881130960332476 0 10928.0 0.37881130960332476 1
gene  1 10 105 -0.013843728818185297 0 10929.0 -0.013843728818185297 1
gene  1 11 105 -0.9315292350178452 0 10930.0 -0.9315292350178452 1
gene  1 12 105 0.16461558114702668 0 10931.0 0.16461558114702668 1
gene  1 16 105 -0.572914684142844 0 10935.0 -0.572914684142844 1
gene  1 19 105 0.7684176899055631 0 10938.0 0.7684176899055631 1
gene  1 20 105 -0.36297525131934494 0 10939.0 -0.36297525131934494 1
gene  1 21 105 -0.5230910628277652 0 10940.0 -0.5230910628277652 1
gene  1 22 105 0.06613409583932561 0 10941.0 0.06613409583932561 1
gene  1 23 105 -0.41021451238325535 0 10942.0 -0.41021451238325535 1
gene  1 25 105 -0.918311991091655 0 10944.0 -0.918311991091655 1
gene  1 29 105 0.6520504128146216 0 10948.0 0.6520504128146216 1
gene  1 36 105 -0.2740783343765435 0 10955.0 -0.2740783343765435 1
gene  1 38 105 -0.3006306967664816 0 10957.0 -0.3006306967664816 1
gene  1 43 105 -0.9779494617513608 0 10962.0 -0.9779494617513608 1
gene  1 44 105 -0.31151764179073005 0 10963.0 -0.31151764179073005 1
gene  1 46 105 -0.07678110853549469 0 10965.0 -0.07678110853549469 1
gene  1 47 105 0.9168119986624024 0 10966.0 0.9168119986624024 1
gene  1 48 105 -0.05585811873565705 0 10967.0 -0.05585811873565705 1
gene  1 53 105 -0.6426397597957718 0 10972.0 -0.6426397597957718 1
gene  1 54 105 -0.5540212204578067 0 10973.0 -0.5540212204578067 1
gene  1 55 105 -0.5597710054286175 0 10974.0 -0.5597710054286175 1
gene  1 56 105 0.040205019763430494 0 10975.0 0.040205019763430494 1
gene  1 57 105 0.25830820612748484 0 10976.0 0.25830820612748484 1
gene  1 60 105 0.25370177003324235 0 10979.0 0.25370177003324235 1
genomeend 60
