genomestart  15
trait 1 0.0 0.0 0.0 0.0 0.0 0.0 0.0 0.0 0.0 0.0 0.0 0.0 0.0 0.0 0.0 0.0 0.0 0.0 0.0 0.0 
node 1 1 1 1
node 2 1 1 1
node 3 1 1 1
node 4 1 1 3
node 5 1 0 0
node 6 1 0 0
node 7 1 0 0
node 8 1 0 0
node 9 1 0 0
node 10 1 0 0
node 11 1 0 0
node 12 1 0 0
node 13 1 0 0
node 14 1 0 0
node 15 1 0 0
node 16 1 0 0
node 17 1 0 0
node 18 1 0 0
node 19 1 0 0
node 20 1 0 0
node 21 1 0 0
node 22 1 0 0
node 23 1 0 0
node 24 1 0 0
node 25 1 0 0
node 26 1 0 0
node 27 1 0 0
node 28 1 0 0
node 29 1 0 0
node 30 1 0 0
node 31 1 0 0
node 32 1 0 0
node 33 1 0 0
node 34 1 0 0
node 35 1 0 0
node 36 1 0 0
node 37 1 0 0
node 38 1 0 0
node 39 1 0 0
node 40 1 0 0
node 41 1 0 0
node 42 1 0 0
node 43 1 0 0
node 44 1 0 0
node 105 1 0 2
gene  1 3 5 0.8718101452549792 0 422.0 0.8718101452549792 1
gene  1 1 6 0.9519936722065393 0 525.0 0.9519936722065393 1
gene  1 4 6 0.37874717411890024 0 528.0 0.37874717411890024 1
gene  1 1 7 0.674477395573882 0 630.0 0.674477395573882 1
gene  1 2 7 -0.9529900307571324 0 631.0 -0.9529900307571324 1
gene  1 4 7 -0.034550804509508426 0 633.0 -0.034550804509508426 1
gene  1 5 7 0.6915667008225603 0 634.0 0.6915667008225603 1
gene  1 6 7 0.22118499817420634 0 635.0 0.22118499817420634 1
gene  1 2 8 -0.9127098671829263 0 736.0 -0.9127098671829263 1
gene  1 4 8 -0.9045555295376425 0 738.0 -0.9045555295376425 1
gene  1 5 8 -0.9371613631924625 0 739.0 -0.9371613631924625 1
gene  1 7 8 0.07058037934256645 0 741.0 0.07058037934256645 1
gene  1 2 9 0.5271335126684605 0 841.0 0.5271335126684605 1
gene  1 3 9 0.787564354633554 0 842.0 0.787564354633554 1
gene  1 5 9 0.4631553652535244 0 844.0 0.4631553652535244 1
gene  1 6 9 0.0826548062690814 0 845.0 0.0826548062690814 1
gene  1 7 9 0.665543651893644 0 846.0 0.665543651893644 1
gene  1 8 9 0.34306322167127046 0 847.0 0.34306322167127046 1
gene  1 2 10 0.03339671183318027 0 946.0 0.03339671183318027 1
gene  1 6 10 0.8423556935456149 0 950.0 0.8423556935456149 1
gene  1 7 10 0.8612247461352478 0 951.0 0.8612247461352478 1
gene  1 8 10 -0.8344780245817146 0 952.0 -0.8344780245817146 1
gene  1 9 10 -0.8430577655721141 0 953.0 -0.8430577655721141 1
gene  1 1 11 -0.34553380046784266 0 1050.0 -0.34553380046784266 1
gene  1 2 11 0.7166287744414043 0 1051.0 0.7166287744414043 1
gene  1 3 11 -0.957120397828885 0 1052.0 -0.957120397828885 1
gene  1 4 11 -0.9774796423673839 0 1053.0 -0.9774796423673839 1
gene  1 5 11 0.4642607602091833 0 1054.0 0.4642607602091833 1
gene  1 8 11 0.5287808886447096 0 1057.0 0.5287808886447096 1
gene  1 10 11 0.07861303186345459 0 1059.0 0.07861303186345459 1
gene  1 1 12 0.8567104684268029 0 1155.0 0.8567104684268029 1
gene  1 2 12 -0.5107832415052649 0 1156.0 -0.5107832415052649 1
gene  1 4 12 -0.6357089105651789 0 1158.0 -0.6357089105651789 1
gene  1 5 12 0.44941231973782925 0 1159.0 0.44941231973782925 1
gene  1 8 12 -0.0992162985369559 0 1162.0 -0.0992162985369559 1
gene  1 9 12 0.4494248575869545 0 1163.0 0.4494248575869545 1
gene  1 11 12 0.8767891088913213 0 1165.0 0.8767891088913213 1
gene  1 1 13 -0.3697913679342254 0 1260.0 -0.3697913679342254 1
gene  1 2 13 -0.06379413140343027 0 1261.0 -0.06379413140343027 1
gene  1 3 13 0.031093135960996388 0 1262.0 0.031093135960996388 1
gene  1 5 13 0.2888630064050245 0 1264.0 0.2888630064050245 1
gene  1 8 13 -0.13629002201051532 0 1267.0 -0.13629002201051532 1
gene  1 9 13 0.6712949343809287 0 1268.0 0.6712949343809287 1
gene  1 10 13 -0.8701084473502275 0 1269.0 -0.8701084473502275 1
gene  1 11 13 -0.6447396942100686 0 1270.0 -0.6447396942100686 1
gene  1 2 14 0.16428088025420262 0 1366.0 0.16428088025420262 1
gene  1 3 14 -0.534755273930525 0 1367.0 -0.534755273930525 1
gene  1 9 14 -0.9441350529588977 0 1373.0 -0.9441350529588977 1
gene  1 10 14 -0.7095778546571597 0 1374.0 -0.7095778546571597 1
gene  1 11 14 -0.11991914360159217 0 1375.0 -0.11991914360159217 1
gene  1 1 15 0.7396958671294936 0 1470.0 0.7396958671294936 1
gene  1 2 15 -0.293225732406752 0 1471.0 -0.293225732406752 1
gene  1 4 15 0.5313337623049429 0 1473.0 0.5313337623049429 1
gene  1 5 15 0.36719081738007164 0 1474.0 0.36719081738007164 1
gene  1 8 15 -0.10180812346674128 0 1477.0 -0.10180812346674128 1
gene  1 11 15 0.6134286499361623 0 1480.0 0.6134286499361623 1
gene  1 12 15 -0.6910395061618071 0 1481.0 -0.6910395061618071 1
gene  1 1 16 0.01377429135952457 0 1575.0 0.01377429135952457 1
gene  1 4 16 -0.4075211083661454 0 1578.0 -0.4075211083661454 1
gene  1 6 16 0.6959627893501019 0 1580.0 0.6959627893501019 1
gene  1 8 16 0.0735815439611176 0 1582.0 0.0735815439611176 1
gene  1 9 16 -0.33958660389505524 0 1583.0 -0.33958660389505524 1
gene  1 11 16 0.018907347120918794 0 1585.0 0.018907347120918794 1
gene  1 12 16 0.13843679499780814 0 1586.0 0.13843679499780814 1
gene  1 14 16 -0.34570733084884786 0 1588.0 -0.34570733084884786 1
gene  1 3 17 0.22767441293304558 0 1682.0 0.22767441293304558 1
gene  1 8 17 -0.5373011473764354 0 1687.0 -0.5373011473764354 1
gene  1 10 17 0.7556263871291375 0 1689.0 0.7556263871291375 1
gene  1 11 17 -0.27038908974349196 0 1690.0 -0.27038908974349196 1
gene  1 13 17 0.2488828948205346 0 1692.0 0.2488828948205346 1
gene  1 14 17 0.6935026585399454 0 1693.0 0.6935026585399454 1
gene  1 15 17 -0.6214807765738325 0 1694.0 -0.6214807765738325 1
gene  1 1 18 -0.17999101919714766 0 1785.0 -0.17999101919714766 1
gene  1 2 18 0.4367177633287427 0 1786.0 0.4367177633287427 1
gene  1 3 18 0.7245313342313655 0 1787.0 0.7245313342313655 1
gene  1 4 18 -0.5807089119576011 0 1788.0 -0.5807089119576011 1
gene  1 5 18 0.16886518657990024 0 1789.0 0.16886518657990024 1
gene  1 6 18 -0.23111177165765506 0 1790.0 -0.23111177165765506 1
gene  1 7 18 0.6499573576003467 0 1791.0 0.6499573576003467 1
gene  1 10 18 -0.4487935075678605 0 1794.0 -0.4487935075678605 1
gene  1 12 18 -0.752360061881898 0 1796.0 -0.752360061881898 1
gene  1 13 18 -0.0703901192141626 0 1797.0 -0.0703901192141626 1
gene  1 16 18 -0.7516361345461695 0 1800.0 -0.7516361345461695 1
gene  1 17 18 0.4667577937565819 0 1801.0 0.4667577937565819 1
gene  1 4 19 0.13646200277331022 0 1893.0 0.13646200277331022 1
gene  1 5 19 -0.21745281433220842 0 1894.0 -0.21745281433220842 1
gene  1 6 19 0.35033240216823236 0 1895.0 0.35033240216823236 1
gene  1 7 19 -0.056506053020360714 0 1896.0 -0.056506053020360714 1
gene  1 8 19 0.7224721052887068 0 1897.0 0.7224721052887068 1
gene  1 9 19 -0.4637833364414201 0 1898.0 -0.4637833364414201 1
gene  1 12 19 -0.5567543999706226 0 1901.0 -0.5567543999706226 1
gene  1 15 19 0.6209879581078286 0 1904.0 0.6209879581078286 1
gene  1 16 19 -0.7656965804007834 0 1905.0 -0.7656965804007834 1
gene  1 2 20 -0.7549505262123772 0 1996.0 -0.7549505262123772 1
gene  1 3 20 -0.932808234652107 0 1997.0 -0.932808234652107 1
gene  1 8 20 0.30958789964636646 0 2002.0 0.30958789964636646 1
gene  1 10 20 0.056914406824730035 0 2004.0 0.056914406824730035 1
gene  1 11 20 -0.7122754391070419 0 2005.0 -0.7122754391070419 1
gene  1 12 20 -0.04568425312467683 0 2006.0 -0.04568425312467683 1
gene  1 15 20 0.003678489112867167 0 2009.0 0.003678489112867167 1
gene  1 16 20 -0.30058264789515576 0 2010.0 -0.30058264789515576 1
gene  1 17 20 0.7226337080538637 0 2011.0 0.7226337080538637 1
gene  1 18 20 -0.33133705446771866 0 2012.0 -0.33133705446771866 1
gene  1 5 21 -0.6227394174581776 0 2104.0 -0.6227394174581776 1
gene  1 6 21 -0.33391115313612985 0 2105.0 -0.33391115313612985 1
gene  1 8 21 -0.2641878300379512 0 2107.0 -0.2641878300379512 1
gene  1 9 21 -0.8380216417478671 0 2108.0 -0.8380216417478671 1
gene  1 10 21 0.48224582958576256 0 2109.0 0.48224582958576256 1
gene  1 11 21 -0.1350354637343648 0 2110.0 -0.1350354637343648 1
gene  1 12 21 -0.5092904986715054 0 2111.0 -0.5092904986715054 1
gene  1 13 21 0.6121883173461616 0 2112.0 0.6121883173461616 1
gene  1 15 21 -0.29696048422273136 0 2114.0 -0.29696048422273136 1
gene  1 16 21 0.4848565404826738 0 2115.0 0.4848565404826738 1
gene  1 17 21 -0.8728489692267936 0 2116.0 -0.8728489692267936 1
gene  1 18 21 -0.2699717613581698 0 2117.0 -0.2699717613581698 1
gene  1 19 21 -0.3854870153769032 0 2118.0 -0.3854870153769032 1
gene  1 1 22 -0.3133944384205337 0 2205.0 -0.3133944384205337 1
gene  1 2 22 -0.9779416124162941 0 2206.0 -0.9779416124162941 1
gene  1 6 22 0.7038704006807002 0 2210.0 0.7038704006807002 1
gene  1 7 22 -0.2339964399575163 0 2211.0 -0.2339964399575163 1
gene  1 8 22 0.9247913506880937 0 2212.0 0.9247913506880937 1
gene  1 9 22 -0.7101578576007262 0 2213.0 -0.7101578576007262 1
gene  1 10 22 0.6765078853553257 0 2214.0 0.6765078853553257 1
gene  1 11 22 -0.28083902613937906 0 2215.0 -0.28083902613937906 1
gene  1 13 22 -0.06184232006598711 0 2217.0 -0.06184232006598711 1
gene  1 16 22 0.39459393864002756 0 2220.0 0.39459393864002756 1
gene  1 19 22 0.0064822862776534595 0 2223.0 0.0064822862776534595 1
gene  1 20 22 0.2230887437302118 0 2224.0 0.2230887437302118 1
gene  1 21 22 0.8569491243661198 0 2225.0 0.8569491243661198 1
gene  1 2 23 -0.21815542503814378 0 2311.0 -0.21815542503814378 1
gene  1 3 23 -0.14449740803412892 0 2312.0 -0.14449740803412892 1
gene  1 5 23 0.3766007592296826 0 2314.0 0.3766007592296826 1
gene  1 9 23 0.19688117935865457 0 2318.0 0.19688117935865457 1
gene  1 13 23 -0.44514483147780803 0 2322.0 -0.44514483147780803 1
gene  1 14 23 -0.644868751394259 0 2323.0 -0.644868751394259 1
gene  1 19 23 0.37043436410829655 0 2328.0 0.37043436410829655 1
gene  1 21 23 0.5882551473775579 0 2330.0 0.5882551473775579 1
gene  1 22 23 -0.6432746970327753 0 2331.0 -0.6432746970327753 1
gene  1 2 24 0.5661105464297074 0 2416.0 0.5661105464297074 1
gene  1 3 24 0.37391636038946285 0 2417.0 0.37391636038946285 1
gene  1 4 24 -0.7931593588496414 0 2418.0 -0.7931593588496414 1
gene  1 6 24 0.5043475814418119 0 2420.0 0.5043475814418119 1
gene  1 7 24 -0.37702329509634114 0 2421.0 -0.37702329509634114 1
gene  1 8 24 -0.9614846006708473 0 2422.0 -0.9614846006708473 1
gene  1 10 24 0.9631697853949792 0 2424.0 0.9631697853949792 1
gene  1 13 24 0.15985614241341894 0 2427.0 0.15985614241341894 1
gene  1 17 24 0.9282718201948305 0 2431.0 0.9282718201948305 1
gene  1 18 24 -0.8599202454956331 0 2432.0 -0.8599202454956331 1
gene  1 21 24 0.7478254890427366 0 2435.0 0.7478254890427366 1
gene  1 22 24 -0.4545365660742232 0 2436.0 -0.4545365660742232 1
gene  1 2 25 -0.38500302690802135 0 2521.0 -0.38500302690802135 1
gene  1 3 25 -0.10969051333055824 0 2522.0 -0.10969051333055824 1
gene  1 4 25 -0.5125254219980394 0 2523.0 -0.5125254219980394 1
gene  1 7 25 -0.045177401432960784 0 2526.0 -0.045177401432960784 1
gene  1 9 25 -0.34911045938996044 0 2528.0 -0.34911045938996044 1
gene  1 11 25 0.4437952113992374 0 2530.0 0.4437952113992374 1
gene  1 13 25 -0.8522193896630773 0 2532.0 -0.8522193896630773 1
gene  1 14 25 -0.5793502995548594 0 2533.0 -0.5793502995548594 1
gene  1 16 25 -0.3601905134719079 0 2535.0 -0.3601905134719079 1
gene  1 19 25 0.9525285331277646 0 2538.0 0.9525285331277646 1
gene  1 20 25 -0.6220135269057508 0 2539.0 -0.6220135269057508 1
gene  1 21 25 -0.517661666132414 0 2540.0 -0.517661666132414 1
gene  1 1 26 -0.41631062574338884 0 2625.0 -0.41631062574338884 1
gene  1 2 26 0.7915972296291776 0 2626.0 0.7915972296291776 1
gene  1 6 26 -0.6740915328567652 0 2630.0 -0.6740915328567652 1
gene  1 7 26 -0.37897959690938077 0 2631.0 -0.37897959690938077 1
gene  1 8 26 0.4480574475611304 0 2632.0 0.4480574475611304 1
gene  1 9 26 -0.9066168579057013 0 2633.0 -0.9066168579057013 1
gene  1 10 26 -0.9517373932428872 0 2634.0 -0.9517373932428872 1
gene  1 11 26 0.5930922651475167 0 2635.0 0.5930922651475167 1
gene  1 12 26 -0.8949580832913823 0 2636.0 -0.8949580832913823 1
gene  1 13 26 0.5135513411201044 0 2637.0 0.5135513411201044 1
gene  1 15 26 0.9646762775001299 0 2639.0 0.9646762775001299 1
gene  1 17 26 0.5685068290553918 0 2641.0 0.5685068290553918 1
gene  1 18 26 0.7396554176968835 0 2642.0 0.7396554176968835 1
gene  1 19 26 -0.5884592597296309 0 2643.0 -0.5884592597296309 1
gene  1 24 26 0.48375244029356346 0 2648.0 0.48375244029356346 1
gene  1 25 26 0.6505755179926447 0 2649.0 0.6505755179926447 1
gene  1 2 27 -0.8539248566916319 0 2731.0 -0.8539248566916319 1
gene  1 5 27 0.4991256672795026 0 2734.0 0.4991256672795026 1
gene  1 6 27 -0.4348265633640678 0 2735.0 -0.4348265633640678 1
gene  1 8 27 -0.029691575018908734 0 2737.0 -0.029691575018908734 1
gene  1 10 27 -0.08787949428616404 0 2739.0 -0.08787949428616404 1
gene  1 14 27 -0.44582967660653716 0 2743.0 -0.44582967660653716 1
gene  1 16 27 0.9387748815211483 0 2745.0 0.9387748815211483 1
gene  1 17 27 0.33065791099243136 0 2746.0 0.33065791099243136 1
gene  1 19 27 0.7100291090452018 0 2748.0 0.7100291090452018 1
gene  1 20 27 -0.7805406907074656 0 2749.0 -0.7805406907074656 1
gene  1 21 27 -0.5930506408992416 0 2750.0 -0.5930506408992416 1
gene  1 23 27 -0.08909687887479434 0 2752.0 -0.08909687887479434 1
gene  1 25 27 0.0861208543076235 0 2754.0 0.0861208543076235 1
gene  1 26 27 0.927037937258479 0 2755.0 0.927037937258479 1
gene  1 1 28 0.8862469536141987 0 2835.0 0.8862469536141987 1
gene  1 2 28 0.9124176150750037 0 2836.0 0.9124176150750037 1
gene  1 3 28 0.6081524656464802 0 2837.0 0.6081524656464802 1
gene  1 4 28 0.3344741660546662 0 2838.0 0.3344741660546662 1
gene  1 5 28 0.90567431945172 0 2839.0 0.90567431945172 1
gene  1 8 28 0.19173974498615487 0 2842.0 0.19173974498615487 1
gene  1 10 28 -0.07524406394715721 0 2844.0 -0.07524406394715721 1
gene  1 11 28 0.14129266938415086 0 2845.0 0.14129266938415086 1
gene  1 13 28 0.6737046684993583 0 2847.0 0.6737046684993583 1
gene  1 15 28 -0.4345144039991141 0 2849.0 -0.4345144039991141 1
gene  1 16 28 -0.9431927958234716 0 2850.0 -0.9431927958234716 1
gene  1 18 28 0.40457208406536826 0 2852.0 0.40457208406536826 1
gene  1 20 28 0.8254847116521886 0 2854.0 0.8254847116521886 1
gene  1 22 28 -0.8294878317127852 0 2856.0 -0.8294878317127852 1
gene  1 23 28 -0.04189648859656647 0 2857.0 -0.04189648859656647 1
gene  1 24 28 -0.43310510256168944 0 2858.0 -0.43310510256168944 1
gene  1 25 28 0.3219019184232388 0 2859.0 0.3219019184232388 1
gene  1 1 29 0.5370963637780958 0 2940.0 0.5370963637780958 1
gene  1 2 29 -0.6861747918567908 0 2941.0 -0.6861747918567908 1
gene  1 3 29 0.9439786624419193 0 2942.0 0.9439786624419193 1
gene  1 4 29 -0.2400947415392396 0 2943.0 -0.2400947415392396 1
gene  1 5 29 -0.46721413863075856 0 2944.0 -0.46721413863075856 1
gene  1 7 29 -0.2369759845405609 0 2946.0 -0.2369759845405609 1
gene  1 12 29 -0.10715273066106268 0 2951.0 -0.10715273066106268 1
gene  1 13 29 -0.7714028386543292 0 2952.0 -0.7714028386543292 1
gene  1 14 29 0.30712535210404024 0 2953.0 0.30712535210404024 1
gene  1 20 29 0.5020374559791609 0 2959.0 0.5020374559791609 1
gene  1 21 29 0.6374495908900751 0 2960.0 0.6374495908900751 1
gene  1 22 29 0.6149000699460528 0 2961.0 0.6149000699460528 1
gene  1 23 29 0.18726026245444272 0 2962.0 0.18726026245444272 1
gene  1 26 29 -0.2776544920328581 0 2965.0 -0.2776544920328581 1
gene  1 1 30 -0.6972497862470888 0 3045.0 -0.6972497862470888 1
gene  1 4 30 -0.3243615253081844 0 3048.0 -0.3243615253081844 1
gene  1 5 30 0.3090979374191728 0 3049.0 0.3090979374191728 1
gene  1 6 30 0.44056150394353266 0 3050.0 0.44056150394353266 1
gene  1 8 30 -0.6667140854675643 0 3052.0 -0.6667140854675643 1
gene  1 9 30 0.5478831672242918 0 3053.0 0.5478831672242918 1
gene  1 10 30 0.8440474461505904 0 3054.0 0.8440474461505904 1
gene  1 11 30 -0.39967485044699846 0 3055.0 -0.39967485044699846 1
gene  1 12 30 -0.6740467918427531 0 3056.0 -0.6740467918427531 1
gene  1 15 30 -0.8019667822310432 0 3059.0 -0.8019667822310432 1
gene  1 16 30 0.4763016599051354 0 3060.0 0.4763016599051354 1
gene  1 18 30 -0.2445959618158704 0 3062.0 -0.2445959618158704 1
gene  1 19 30 0.9306033052079453 0 3063.0 0.9306033052079453 1
gene  1 20 30 -0.6146518533074852 0 3064.0 -0.6146518533074852 1
gene  1 21 30 -0.685714639396659 0 3065.0 -0.685714639396659 1
gene  1 24 30 -0.3987090283105008 0 3068.0 -0.3987090283105008 1
gene  1 26 30 0.33080890316207934 0 3070.0 0.33080890316207934 1
gene  1 27 30 0.8335367144691342 0 3071.0 0.8335367144691342 1
gene  1 28 30 -0.6246616512562372 0 3072.0 -0.6246616512562372 1
gene  1 29 30 -0.051188041899769 0 3073.0 -0.051188041899769 1
gene  1 2 31 -0.8230638916142556 0 3151.0 -0.8230638916142556 1
gene  1 3 31 0.2619829205214803 0 3152.0 0.2619829205214803 1
gene  1 4 31 0.6584507588997224 0 3153.0 0.6584507588997224 1
gene  1 5 31 -0.640385292280788 0 3154.0 -0.640385292280788 1
gene  1 7 31 -0.7750986520243934 0 3156.0 -0.7750986520243934 1
gene  1 8 31 0.8075063937134369 0 3157.0 0.8075063937134369 1
gene  1 9 31 -0.03189560533294822 0 3158.0 -0.03189560533294822 1
gene  1 10 31 -0.46141586490041286 0 3159.0 -0.46141586490041286 1
gene  1 11 31 -0.907527135215535 0 3160.0 -0.907527135215535 1
gene  1 12 31 -0.10677335436797675 0 3161.0 -0.10677335436797675 1
gene  1 16 31 -0.9617282478671311 0 3165.0 -0.9617282478671311 1
gene  1 17 31 0.32816354850330853 0 3166.0 0.32816354850330853 1
gene  1 18 31 -0.4864160714642787 0 3167.0 -0.4864160714642787 1
gene  1 19 31 -0.34755891534168293 0 3168.0 -0.34755891534168293 1
gene  1 21 31 -0.7991100395867816 0 3170.0 -0.7991100395867816 1
gene  1 22 31 0.6236690780327332 0 3171.0 0.6236690780327332 1
gene  1 23 31 -0.9052058973029398 0 3172.0 -0.9052058973029398 1
gene  1 25 31 0.31468546489532667 0 3174.0 0.31468546489532667 1
gene  1 28 31 -0.868933800565092 0 3177.0 -0.868933800565092 1
gene  1 2 32 -0.9965569619000576 0 3256.0 -0.9965569619000576 1
gene  1 3 32 0.7758244960774934 0 3257.0 0.7758244960774934 1
gene  1 5 32 0.7289087337980502 0 3259.0 0.7289087337980502 1
gene  1 6 32 0.5801342108331797 0 3260.0 0.5801342108331797 1
gene  1 8 32 0.11281726202300213 0 3262.0 0.11281726202300213 1
gene  1 10 32 -0.3377425764841423 0 3264.0 -0.3377425764841423 1
gene  1 14 32 -0.7689046728744072 0 3268.0 -0.7689046728744072 1
gene  1 15 32 0.3679308580036532 0 3269.0 0.3679308580036532 1
gene  1 16 32 0.944269432694085 0 3270.0 0.944269432694085 1
gene  1 17 32 -0.7033185538804491 0 3271.0 -0.7033185538804491 1
gene  1 21 32 -0.4202536698589161 0 3275.0 -0.4202536698589161 1
gene  1 22 32 -0.7258025562283129 0 3276.0 -0.7258025562283129 1
gene  1 23 32 0.9941518927746031 0 3277.0 0.9941518927746031 1
gene  1 24 32 0.931233628733466 0 3278.0 0.931233628733466 1
gene  1 30 32 0.4943110423162934 0 3284.0 0.4943110423162934 1
gene  1 3 33 -0.8098783119332972 0 3362.0 -0.8098783119332972 1
gene  1 5 33 -0.03763793572028862 0 3364.0 -0.03763793572028862 1
gene  1 6 33 0.5721657881253063 0 3365.0 0.5721657881253063 1
gene  1 8 33 0.9261692791963951 0 3367.0 0.9261692791963951 1
gene  1 12 33 0.9460604224464239 0 3371.0 0.9460604224464239 1
gene  1 14 33 0.5361825440128785 0 3373.0 0.5361825440128785 1
gene  1 15 33 0.49900707178728454 0 3374.0 0.49900707178728454 1
gene  1 16 33 -0.2759992997106874 0 3375.0 -0.2759992997106874 1
gene  1 17 33 0.4821680198146304 0 3376.0 0.4821680198146304 1
gene  1 19 33 0.9993398618974342 0 3378.0 0.9993398618974342 1
gene  1 20 33 0.02668098867345947 0 3379.0 0.02668098867345947 1
gene  1 21 33 0.3127282639188044 0 3380.0 0.3127282639188044 1
gene  1 22 33 0.24218158499251674 0 3381.0 0.24218158499251674 1
gene  1 26 33 -0.5803133563976143 0 3385.0 -0.5803133563976143 1
gene  1 27 33 0.4746314142253898 0 3386.0 0.4746314142253898 1
gene  1 28 33 -0.603464333619404 0 3387.0 -0.603464333619404 1
gene  1 31 33 0.8426334816816705 0 3390.0 0.8426334816816705 1
gene  1 3 34 0.9506449302750223 0 3467.0 0.9506449302750223 1
gene  1 5 34 0.03086853016434854 0 3469.0 0.03086853016434854 1
gene  1 6 34 -0.2258840208054349 0 3470.0 -0.2258840208054349 1
gene  1 7 34 0.10455104602994647 0 3471.0 0.10455104602994647 1
gene  1 9 34 -0.5881215414937226 0 3473.0 -0.5881215414937226 1
gene  1 12 34 0.5644857582499797 0 3476.0 0.5644857582499797 1
gene  1 14 34 0.9829020673867634 0 3478.0 0.9829020673867634 1
gene  1 16 34 0.06722078296005585 0 3480.0 0.06722078296005585 1
gene  1 17 34 -0.5975625246988453 0 3481.0 -0.5975625246988453 1
gene  1 18 34 -0.6000945219576704 0 3482.0 -0.6000945219576704 1
gene  1 19 34 -0.8576666012789096 0 3483.0 -0.8576666012789096 1
gene  1 20 34 0.8083793163797592 0 3484.0 0.8083793163797592 1
gene  1 23 34 0.8684042113944412 0 3487.0 0.8684042113944412 1
gene  1 25 34 0.13082243140241867 0 3489.0 0.13082243140241867 1
gene  1 31 34 -0.2899585615832134 0 3495.0 -0.2899585615832134 1
gene  1 32 34 0.5721020064286825 0 3496.0 0.5721020064286825 1
gene  1 33 34 0.04205451745430511 0 3497.0 0.04205451745430511 1
gene  1 1 35 0.09642719386126242 0 3570.0 0.09642719386126242 1
gene  1 3 35 -0.1794958698481559 0 3572.0 -0.1794958698481559 1
gene  1 6 35 0.07037991675445476 0 3575.0 0.07037991675445476 1
gene  1 9 35 -0.4363560026210104 0 3578.0 -0.4363560026210104 1
gene  1 13 35 0.9016053019358666 0 3582.0 0.9016053019358666 1
gene  1 15 35 -0.18389275454273413 0 3584.0 -0.18389275454273413 1
gene  1 17 35 0.2737504039989075 0 3586.0 0.2737504039989075 1
gene  1 18 35 0.7590551392870128 0 3587.0 0.7590551392870128 1
gene  1 20 35 -0.18051052297254788 0 3589.0 -0.18051052297254788 1
gene  1 21 35 -0.8449255562034131 0 3590.0 -0.8449255562034131 1
gene  1 22 35 0.35385455708539504 0 3591.0 0.35385455708539504 1
gene  1 23 35 0.3761845924286462 0 3592.0 0.3761845924286462 1
gene  1 24 35 0.4325080908242154 0 3593.0 0.4325080908242154 1
gene  1 27 35 0.6715016108837863 0 3596.0 0.6715016108837863 1
gene  1 28 35 0.5467857246318842 0 3597.0 0.5467857246318842 1
gene  1 29 35 -0.8083587408151887 0 3598.0 -0.8083587408151887 1
gene  1 30 35 0.1388126654596662 0 3599.0 0.1388126654596662 1
gene  1 31 35 -0.4658891631370472 0 3600.0 -0.4658891631370472 1
gene  1 32 35 0.72779546718752 0 3601.0 0.72779546718752 1
gene  1 34 35 -0.46616693923740105 0 3603.0 -0.46616693923740105 1
gene  1 4 36 -0.41930876213206925 0 3678.0 -0.41930876213206925 1
gene  1 5 36 0.6952883691424168 0 3679.0 0.6952883691424168 1
gene  1 6 36 -0.12943698010324078 0 3680.0 -0.12943698010324078 1
gene  1 7 36 -0.8475072388398373 0 3681.0 -0.8475072388398373 1
gene  1 8 36 -0.27481723318457485 0 3682.0 -0.27481723318457485 1
gene  1 10 36 0.48702625515121767 0 3684.0 0.48702625515121767 1
gene  1 11 36 -0.3975280806986409 0 3685.0 -0.3975280806986409 1
gene  1 12 36 -0.18159424764812693 0 3686.0 -0.18159424764812693 1
gene  1 14 36 0.47551787155146097 0 3688.0 0.47551787155146097 1
gene  1 15 36 0.1252383239489151 0 3689.0 0.1252383239489151 1
gene  1 19 36 0.6102593554143787 0 3693.0 0.6102593554143787 1
gene  1 21 36 0.9776291788338256 0 3695.0 0.9776291788338256 1
gene  1 25 36 -0.366202310660547 0 3699.0 -0.366202310660547 1
gene  1 26 36 0.62192625605369 0 3700.0 0.62192625605369 1
gene  1 29 36 0.8300810285355766 0 3703.0 0.8300810285355766 1
gene  1 30 36 -0.016248813741217782 0 3704.0 -0.016248813741217782 1
gene  1 32 36 -0.3504298203693882 0 3706.0 -0.3504298203693882 1
gene  1 35 36 -0.7571986884767543 0 3709.0 -0.7571986884767543 1
gene  1 1 37 0.6072805943366699 0 3780.0 0.6072805943366699 1
gene  1 2 37 -0.8887523126997766 0 3781.0 -0.8887523126997766 1
gene  1 3 37 0.8472781359464946 0 3782.0 0.8472781359464946 1
gene  1 8 37 -0.7731340544435535 0 3787.0 -0.7731340544435535 1
gene  1 10 37 0.7968851913047116 0 3789.0 0.7968851913047116 1
gene  1 11 37 0.3570015696297153 0 3790.0 0.3570015696297153 1
gene  1 12 37 0.7668879678961499 0 3791.0 0.7668879678961499 1
gene  1 14 37 -0.8632423606027205 0 3793.0 -0.8632423606027205 1
gene  1 15 37 0.32204139866673764 0 3794.0 0.32204139866673764 1
gene  1 16 37 -0.17443289374638382 0 3795.0 -0.17443289374638382 1
gene  1 17 37 0.3769314770590968 0 3796.0 0.3769314770590968 1
gene  1 18 37 0.5345195101095356 0 3797.0 0.5345195101095356 1
gene  1 19 37 -0.6495668142893215 0 3798.0 -0.6495668142893215 1
gene  1 22 37 -0.9088141552581741 0 3801.0 -0.9088141552581741 1
gene  1 23 37 0.1059057113184968 0 3802.0 0.1059057113184968 1
gene  1 26 37 -0.5005280135961752 0 3805.0 -0.5005280135961752 1
gene  1 28 37 0.8160339189480977 0 3807.0 0.8160339189480977 1
gene  1 29 37 -0.05761366934261103 0 3808.0 -0.05761366934261103 1
gene  1 31 37 0.7970510755867898 0 3810.0 0.7970510755867898 1
gene  1 33 37 0.7701213124003551 0 3812.0 0.7701213124003551 1
gene  1 34 37 -0.7315143244378176 0 3813.0 -0.7315143244378176 1
gene  1 35 37 0.8988748028903124 0 3814.0 0.8988748028903124 1
gene  1 1 38 -0.05688776598547263 0 3885.0 -0.05688776598547263 1
gene  1 2 38 -0.16505159426135219 0 3886.0 -0.16505159426135219 1
gene  1 3 38 0.11583051143851564 0 3887.0 0.11583051143851564 1
gene  1 4 38 0.11044440870586636 0 3888.0 0.11044440870586636 1
gene  1 5 38 0.17488481667302824 0 3889.0 0.17488481667302824 1
gene  1 6 38 -0.37783284994558664 0 3890.0 -0.37783284994558664 1
gene  1 8 38 0.008562390231013906 0 3892.0 0.008562390231013906 1
gene  1 11 38 -0.9887924805538563 0 3895.0 -0.9887924805538563 1
gene  1 12 38 -0.08754688512592268 0 3896.0 -0.08754688512592268 1
gene  1 14 38 0.47531753002778254 0 3898.0 0.47531753002778254 1
gene  1 21 38 0.10573491393245227 0 3905.0 0.10573491393245227 1
gene  1 25 38 -0.8603681359270284 0 3909.0 -0.8603681359270284 1
gene  1 28 38 0.6550065773823034 0 3912.0 0.6550065773823034 1
gene  1 32 38 -0.17930602997984035 0 3916.0 -0.17930602997984035 1
gene  1 35 38 -0.7765505433602331 0 3919.0 -0.7765505433602331 1
gene  1 36 38 0.9927194691774857 0 3920.0 0.9927194691774857 1
gene  1 2 39 0.16671290427202945 0 3991.0 0.16671290427202945 1
gene  1 3 39 -0.38834055922980126 0 3992.0 -0.38834055922980126 1
gene  1 6 39 0.1130765585273118 0 3995.0 0.1130765585273118 1
gene  1 13 39 -0.45309692093406095 0 4002.0 -0.45309692093406095 1
gene  1 14 39 0.2225463214621789 0 4003.0 0.2225463214621789 1
gene  1 16 39 -0.9292063679994149 0 4005.0 -0.9292063679994149 1
gene  1 18 39 -0.6716783043770197 0 4007.0 -0.6716783043770197 1
gene  1 19 39 -0.13696710082653896 0 4008.0 -0.13696710082653896 1
gene  1 20 39 -0.5960830587054545 0 4009.0 -0.5960830587054545 1
gene  1 21 39 -0.9865215527714525 0 4010.0 -0.9865215527714525 1
gene  1 24 39 0.13130812772503042 0 4013.0 0.13130812772503042 1
gene  1 25 39 0.7901711615947714 0 4014.0 0.7901711615947714 1
gene  1 26 39 -0.1990643004293582 0 4015.0 -0.1990643004293582 1
gene  1 27 39 -0.7074608681924928 0 4016.0 -0.7074608681924928 1
gene  1 29 39 -0.17149234533310198 0 4018.0 -0.17149234533310198 1
gene  1 30 39 -0.7031256382452324 0 4019.0 -0.7031256382452324 1
gene  1 35 39 0.07356343742983029 0 4024.0 0.07356343742983029 1
gene  1 36 39 -0.128824197532025 0 4025.0 -0.128824197532025 1
gene  1 37 39 0.7598548087417208 0 4026.0 0.7598548087417208 1
gene  1 38 39 -0.7746171394648658 0 4027.0 -0.7746171394648658 1
gene  1 2 40 0.3559267747494054 0 4096.0 0.3559267747494054 1
gene  1 3 40 -0.4473978909269113 0 4097.0 -0.4473978909269113 1
gene  1 4 40 -0.3300054647472612 0 4098.0 -0.3300054647472612 1
gene  1 5 40 0.4718937419719056 0 4099.0 0.4718937419719056 1
gene  1 6 40 0.221203380074952 0 4100.0 0.221203380074952 1
gene  1 7 40 -0.2333117568580717 0 4101.0 -0.2333117568580717 1
gene  1 9 40 -0.16720401959217424 0 4103.0 -0.16720401959217424 1
gene  1 10 40 -0.4827870146256604 0 4104.0 -0.4827870146256604 1
gene  1 12 40 -0.9372662313284741 0 4106.0 -0.9372662313284741 1
gene  1 13 40 0.06068575788491182 0 4107.0 0.06068575788491182 1
gene  1 14 40 -0.6398610754384473 0 4108.0 -0.6398610754384473 1
gene  1 15 40 -0.4287688096563578 0 4109.0 -0.4287688096563578 1
gene  1 17 40 0.7648261036379852 0 4111.0 0.7648261036379852 1
gene  1 20 40 0.15048589083317299 0 4114.0 0.15048589083317299 1
gene  1 21 40 0.7050120649641924 0 4115.0 0.7050120649641924 1
gene  1 24 40 -0.23378694770763653 0 4118.0 -0.23378694770763653 1
gene  1 25 40 0.6355875039919942 0 4119.0 0.6355875039919942 1
gene  1 27 40 -0.546735202074035 0 4121.0 -0.546735202074035 1
gene  1 31 40 -0.6576213930203328 0 4125.0 -0.6576213930203328 1
gene  1 36 40 0.7054446414156366 0 4130.0 0.7054446414156366 1
gene  1 38 40 0.35031029619897436 0 4132.0 0.35031029619897436 1
gene  1 39 40 -0.49800284282734875 0 4133.0 -0.49800284282734875 1
gene  1 1 41 0.21604423689017205 0 4200.0 0.21604423689017205 1
gene  1 4 41 0.6499679907945184 0 4203.0 0.6499679907945184 1
gene  1 5 41 -0.6578055134451356 0 4204.0 -0.6578055134451356 1
gene  1 7 41 0.6197380215688609 0 4206.0 0.6197380215688609 1
gene  1 9 41 0.3651709975395999 0 4208.0 0.3651709975395999 1
gene  1 10 41 -0.7122081003723935 0 4209.0 -0.7122081003723935 1
gene  1 12 41 0.623079326450248 0 4211.0 0.623079326450248 1
gene  1 16 41 -0.9572242568541142 0 4215.0 -0.9572242568541142 1
gene  1 19 41 -0.5875535645685901 0 4218.0 -0.5875535645685901 1
gene  1 20 41 -0.8927759888541565 0 4219.0 -0.8927759888541565 1
gene  1 21 41 -0.4579789515490771 0 4220.0 -0.4579789515490771 1
gene  1 22 41 0.7507725137109953 0 4221.0 0.7507725137109953 1
gene  1 23 41 0.17089177060259175 0 4222.0 0.17089177060259175 1
gene  1 26 41 -0.866821877742085 0 4225.0 -0.866821877742085 1
gene  1 27 41 -0.6827055115288769 0 4226.0 -0.6827055115288769 1
gene  1 28 41 0.8806937160566888 0 4227.0 0.8806937160566888 1
gene  1 29 41 0.7042422295022056 0 4228.0 0.7042422295022056 1
gene  1 31 41 0.3178261963744444 0 4230.0 0.3178261963744444 1
gene  1 32 41 -0.49522951221112976 0 4231.0 -0.49522951221112976 1
gene  1 33 41 0.10541382638800956 0 4232.0 0.10541382638800956 1
gene  1 34 41 0.9786795360063505 0 4233.0 0.9786795360063505 1
gene  1 35 41 0.2443257048381816 0 4234.0 0.2443257048381816 1
gene  1 38 41 -0.3536397351854811 0 4237.0 -0.3536397351854811 1
gene  1 39 41 -0.127012001310857 0 4238.0 -0.127012001310857 1
gene  1 40 41 -0.6512394308678868 0 4239.0 -0.6512394308678868 1
gene  1 3 42 0.8213887245351629 0 4307.0 0.8213887245351629 1
gene  1 4 42 -0.5013129712460205 0 4308.0 -0.5013129712460205 1
gene  1 5 42 0.6590453080072248 0 4309.0 0.6590453080072248 1
gene  1 6 42 0.8710361443996606 0 4310.0 0.8710361443996606 1
gene  1 7 42 0.8598837228748721 0 4311.0 0.8598837228748721 1
gene  1 8 42 -0.885926636773572 0 4312.0 -0.885926636773572 1
gene  1 11 42 -0.3257175324410171 0 4315.0 -0.3257175324410171 1
gene  1 15 42 0.8075676338141384 0 4319.0 0.8075676338141384 1
gene  1 18 42 0.1475419050898482 0 4322.0 0.1475419050898482 1
gene  1 20 42 -0.21203604848180857 0 4324.0 -0.21203604848180857 1
gene  1 21 42 0.7925746867320225 0 4325.0 0.7925746867320225 1
gene  1 22 42 0.6643857154402993 0 4326.0 0.6643857154402993 1
gene  1 25 42 -0.15325101684824693 0 4329.0 -0.15325101684824693 1
gene  1 26 42 0.716368857388946 0 4330.0 0.716368857388946 1
gene  1 29 42 -0.7796608055901636 0 4333.0 -0.7796608055901636 1
gene  1 32 42 0.3543591470683408 0 4336.0 0.3543591470683408 1
gene  1 34 42 0.39106984868319417 0 4338.0 0.39106984868319417 1
gene  1 36 42 -0.33018759834927225 0 4340.0 -0.33018759834927225 1
gene  1 37 42 0.9105168498869346 0 4341.0 0.9105168498869346 1
gene  1 40 42 -0.9004265887982638 0 4344.0 -0.9004265887982638 1
gene  1 3 43 -0.5686275867731078 0 4412.0 -0.5686275867731078 1
gene  1 4 43 -0.7809537421070509 0 4413.0 -0.7809537421070509 1
gene  1 7 43 0.9359947713114284 0 4416.0 0.9359947713114284 1
gene  1 8 43 -0.6996231752396141 0 4417.0 -0.6996231752396141 1
gene  1 9 43 -0.8657519854084655 0 4418.0 -0.8657519854084655 1
gene  1 10 43 -0.6448814376666995 0 4419.0 -0.6448814376666995 1
gene  1 12 43 0.08141255991900864 0 4421.0 0.08141255991900864 1
gene  1 13 43 -0.7367461257621921 0 4422.0 -0.7367461257621921 1
gene  1 17 43 -0.9176134618584676 0 4426.0 -0.9176134618584676 1
gene  1 18 43 0.5734589982674853 0 4427.0 0.5734589982674853 1
gene  1 20 43 0.7992858466677547 0 4429.0 0.7992858466677547 1
gene  1 21 43 0.39265316868171385 0 4430.0 0.39265316868171385 1
gene  1 22 43 0.41101171876640197 0 4431.0 0.41101171876640197 1
gene  1 23 43 0.7331829250811555 0 4432.0 0.7331829250811555 1
gene  1 24 43 0.3773105428976763 0 4433.0 0.3773105428976763 1
gene  1 25 43 0.6930879899811571 0 4434.0 0.6930879899811571 1
gene  1 26 43 -0.47567370947751664 0 4435.0 -0.47567370947751664 1
gene  1 27 43 0.6930040641685741 0 4436.0 0.6930040641685741 1
gene  1 28 43 -0.821382770048933 0 4437.0 -0.821382770048933 1
gene  1 29 43 0.26620309534996534 0 4438.0 0.26620309534996534 1
gene  1 31 43 0.08196225591473605 0 4440.0 0.08196225591473605 1
gene  1 33 43 -0.5146189611750139 0 4442.0 -0.5146189611750139 1
gene  1 35 43 -0.48454776754604667 0 4444.0 -0.48454776754604667 1
gene  1 37 43 -0.29657681987632656 0 4446.0 -0.29657681987632656 1
gene  1 38 43 -0.4939677941086169 0 4447.0 -0.4939677941086169 1
gene  1 39 43 -0.014916580668890456 0 4448.0 -0.014916580668890456 1
gene  1 40 43 -0.6825638624251789 0 4449.0 -0.6825638624251789 1
gene  1 41 43 -0.8033502278282634 0 4450.0 -0.8033502278282634 1
gene  1 42 43 -0.008707619294864188 0 4451.0 -0.008707619294864188 1
gene  1 1 44 -0.11764711986073695 0 4515.0 -0.11764711986073695 1
gene  1 4 44 -0.27232148338576223 0 4518.0 -0.27232148338576223 1
gene  1 5 44 -0.34986872673133085 0 4519.0 -0.34986872673133085 1
gene  1 6 44 -0.00859280539172702 0 4520.0 -0.00859280539172702 1
gene  1 8 44 -0.8546339395005947 0 4522.0 -0.8546339395005947 1
gene  1 16 44 -0.977115605609695 0 4530.0 -0.977115605609695 1
gene  1 21 44 -0.07850154714559843 0 4535.0 -0.07850154714559843 1
gene  1 22 44 -0.020327511022924405 0 4536.0 -0.020327511022924405 1
gene  1 26 44 -0.04938678787308792 0 4540.0 -0.04938678787308792 1
gene  1 28 44 0.3385528463445415 0 4542.0 0.3385528463445415 1
gene  1 29 44 -0.8206099273814357 0 4543.0 -0.8206099273814357 1
gene  1 30 44 -0.4982352590187743 0 4544.0 -0.4982352590187743 1
gene  1 33 44 -0.5734623106858101 0 4547.0 -0.5734623106858101 1
gene  1 35 44 0.13387835142116522 0 4549.0 0.13387835142116522 1
gene  1 37 44 0.06828908030362146 0 4551.0 0.06828908030362146 1
gene  1 38 44 -0.40729454211578575 0 4552.0 -0.40729454211578575 1
gene  1 39 44 -0.5358908573218076 0 4553.0 -0.5358908573218076 1
gene  1 41 44 -0.10430140646271369 0 4555.0 -0.10430140646271369 1
gene  1 42 44 0.21875058521160073 0 4556.0 0.21875058521160073 1
gene  1 1 105 0.07892192639171114 0 10920.0 0.07892192639171114 1
gene  1 3 105 0.9978666086610962 0 10922.0 0.9978666086610962 1
gene  1 5 105 -0.9384281373976451 0 10924.0 -0.9384281373976451 1
gene  1 7 105 -0.6681398229633244 0 10926.0 -0.6681398229633244 1
gene  1 14 105 -0.9431431269264292 0 10933.0 -0.9431431269264292 1
gene  1 15 105 -0.11996397954588467 0 10934.0 -0.11996397954588467 1
gene  1 18 105 0.7984966132941961 0 10937.0 0.7984966132941961 1
gene  1 20 105 0.7901740099413209 0 10939.0 0.7901740099413209 1
gene  1 21 105 -0.5310048893152394 0 10940.0 -0.5310048893152394 1
gene  1 22 105 -0.7905664052015886 0 10941.0 -0.7905664052015886 1
gene  1 24 105 -0.778445768119466 0 10943.0 -0.778445768119466 1
gene  1 25 105 -0.3840934351068057 0 10944.0 -0.3840934351068057 1
gene  1 28 105 0.0020293207508674804 0 10947.0 0.0020293207508674804 1
gene  1 29 105 -0.1670093984597809 0 10948.0 -0.1670093984597809 1
gene  1 30 105 -0.6640102076932328 0 10949.0 -0.6640102076932328 1
gene  1 31 105 0.9107665552158941 0 10950.0 0.9107665552158941 1
gene  1 34 105 -0.528711920011988 0 10953.0 -0.528711920011988 1
gene  1 35 105 0.5220647028850867 0 10954.0 0.5220647028850867 1
gene  1 36 105 -0.20745780612821918 0 10955.0 -0.20745780612821918 1
gene  1 39 105 -0.3969813428440372 0 10958.0 -0.3969813428440372 1
gene  1 42 105 0.29339152065508267 0 10961.0 0.29339152065508267 1
genomeend 15
