genomestart  1
trait 1 0.0 0.0 0.0 0.0 0.0 0.0 0.0 0.0 0.0 0.0 0.0 0.0 0.0 0.0 0.0 0.0 0.0 0.0 0.0 0.0 
node 1 1 1 1
node 2 1 1 1
node 3 1 1 1
node 4 1 1 1
node 5 1 1 3
node 6 1 0 0
node 7 1 0 0
node 8 1 0 0
node 9 1 0 0
node 10 1 0 0
node 11 1 0 0
node 12 1 0 0
node 16 1 0 2
gene  1 1 6 -0.4064886187868244 0 80.0 -0.4064886187868244 1
gene  1 2 6 0.8080340864598621 0 81.0 0.8080340864598621 1
gene  1 3 6 0.7227109190115117 0 82.0 0.7227109190115117 1
gene  1 4 6 -0.47980119327156334 0 83.0 -0.47980119327156334 1
gene  1 1 7 0.03192179571470888 0 96.0 0.03192179571470888 1
gene  1 2 7 0.0804999020650472 0 97.0 0.0804999020650472 1
gene  1 3 7 -0.2304197007268025 0 98.0 -0.2304197007268025 1
gene  1 5 7 0.5911445712308175 0 100.0 0.5911445712308175 1
gene  1 2 8 -0.9376040459353399 0 113.0 -0.9376040459353399 1
gene  1 4 8 0.7793281765942118 0 115.0 0.7793281765942118 1
gene  1 7 8 0.6660184372285659 0 118.0 0.6660184372285659 1
gene  1 1 9 -0.1841742953120712 0 128.0 -0.1841742953120712 1
gene  1 2 9 0.9787659623896144 0 129.0 0.9787659623896144 1
gene  1 3 9 0.5154490692623394 0 130.0 0.5154490692623394 1
gene  1 4 9 0.5926162021355883 0 131.0 0.5926162021355883 1
gene  1 7 9 0.8442345221301903 0 134.0 0.8442345221301903 1
gene  1 8 9 -0.49789055100293944 0 135.0 -0.49789055100293944 1
gene  1 2 10 0.8407633836073596 0 145.0 0.8407633836073596 1
gene  1 3 10 0.040691813042489144 0 146.0 0.040691813042489144 1
gene  1 5 10 -0.6055227419357598 0 148.0 -0.6055227419357598 1
gene  1 7 10 -0.9572459541399099 0 150.0 -0.9572459541399099 1
gene  1 8 10 0.6034067830396318 0 151.0 0.6034067830396318 1
gene  1 9 10 -0.19430808918375564 0 152.0 -0.19430808918375564 1
gene  1 1 11 0.046926225132572275 0 160.0 0.046926225132572275 1
gene  1 2 11 0.17762659915422974 0 161.0 0.17762659915422974 1
gene  1 4 11 0.20981532298501426 0 163.0 0.20981532298501426 1
gene  1 7 11 -0.5453230611549074 0 166.0 -0.5453230611549074 1
gene  1 4 12 0.8450881143430625 0 179.0 0.8450881143430625 1
gene  1 5 12 0.6334236380603663 0 180.0 0.6334236380603663 1
gene  1 1 16 0.6148023174169522 0 240.0 0.6148023174169522 1
gene  1 2 16 0.1396551997604547 0 241.0 0.1396551997604547 1
gene  1 3 16 -0.7935599056053754 0 242.0 -0.7935599056053754 1
gene  1 6 16 -0.01130531571026705 0 245.0 -0.01130531571026705 1
gene  1 7 16 -0.67638095696481 0 246.0 -0.67638095696481 1
gene  1 8 16 -0.43485158579247185 0 247.0 -0.43485158579247185 1
gene  1 11 16 0.9397837645260873 0 250.0 0.9397837645260873 1
gene  1 12 16 -0.6062626953812349 0 251.0 -0.6062626953812349 1
genomeend 1
