genomestart  3
trait 1 0.0 0.0 0.0 0.0 0.0 0.0 0.0 0.0 0.0 0.0 0.0 0.0 0.0 0.0 0.0 0.0 0.0 0.0 0.0 0.0 
node 1 1 1 1
node 2 1 1 1
node 3 1 1 1
node 4 1 1 1
node 5 1 1 3
node 6 1 0 0
node 7 1 0 0
node 8 1 0 0
node 9 1 0 0
node 16 1 0 2
gene  1 1 6 0.20127759709138704 0 80.0 0.20127759709138704 1
gene  1 2 6 0.2885140881692 0 81.0 0.2885140881692 1
gene  1 2 7 -0.17140282514078498 0 97.0 -0.17140282514078498 1
gene  1 3 7 0.26452554851039256 0 98.0 0.26452554851039256 1
gene  1 5 7 -0.21185925249612747 0 100.0 -0.21185925249612747 1
gene  1 4 8 -0.11690314880788988 0 115.0 -0.11690314880788988 1
gene  1 6 8 -0.3605955724370067 0 117.0 -0.3605955724370067 1
gene  1 1 9 0.08790605993685452 0 128.0 0.08790605993685452 1
gene  1 3 9 -0.3724722308660017 0 130.0 -0.3724722308660017 1
gene  1 5 9 -0.2681666873817964 0 132.0 -0.2681666873817964 1
gene  1 3 16 -0.9095481797630198 0 242.0 -0.9095481797630198 1
gene  1 4 16 -0.7554196943724417 0 243.0 -0.7554196943724417 1
gene  1 7 16 0.5525485206445502 0 246.0 0.5525485206445502 1
gene  1 9 16 0.21609757929527662 0 248.0 0.21609757929527662 1
genomeend 3
