genomestart  21
trait 1 0.0 0.0 0.0 0.0 0.0 0.0 0.0 0.0 0.0 0.0 0.0 0.0 0.0 0.0 0.0 0.0 0.0 0.0 0.0 0.0 
node 1 1 1 1
node 2 1 1 1
node 3 1 1 1
node 4 1 1 1
node 5 1 1 3
node 6 1 0 0
node 7 1 0 0
node 8 1 0 0
node 9 1 0 0
node 10 1 0 0
node 11 1 0 0
node 12 1 0 0
node 13 1 0 0
node 14 1 0 0
node 16 1 0 2
gene  1 1 6 0.9845550326378167 0 80.0 0.9845550326378167 1
gene  1 3 6 0.8863242176999866 0 82.0 0.8863242176999866 1
gene  1 4 6 -0.26629245840847704 0 83.0 -0.26629245840847704 1
gene  1 2 7 -0.2778343581937591 0 97.0 -0.2778343581937591 1
gene  1 5 7 0.52706256922224 0 100.0 0.52706256922224 1
gene  1 5 8 0.06335819119056774 0 116.0 0.06335819119056774 1
gene  1 6 8 0.40793009409956316 0 117.0 0.40793009409956316 1
gene  1 7 8 -0.054000525024084034 0 118.0 -0.054000525024084034 1
gene  1 1 9 -0.03962606625831444 0 128.0 -0.03962606625831444 1
gene  1 6 9 0.8579004029753794 0 133.0 0.8579004029753794 1
gene  1 1 10 -0.5239126578213544 0 144.0 -0.5239126578213544 1
gene  1 3 10 -0.2203147003549516 0 146.0 -0.2203147003549516 1
gene  1 5 10 0.9609685381537498 0 148.0 0.9609685381537498 1
gene  1 6 10 -0.39717381204073443 0 149.0 -0.39717381204073443 1
gene  1 6 11 -0.06835047842262965 0 165.0 -0.06835047842262965 1
gene  1 3 12 -0.2874525586253446 0 178.0 -0.2874525586253446 1
gene  1 4 12 -0.7990161305356361 0 179.0 -0.7990161305356361 1
gene  1 8 12 0.8420296608285465 0 183.0 0.8420296608285465 1
gene  1 9 12 -0.7323220483367213 0 184.0 -0.7323220483367213 1
gene  1 10 12 -0.6394932564531179 0 185.0 -0.6394932564531179 1
gene  1 2 13 0.4598780112349524 0 193.0 0.4598780112349524 1
gene  1 3 13 0.038675381330739 0 194.0 0.038675381330739 1
gene  1 4 13 0.7740769439589544 0 195.0 0.7740769439589544 1
gene  1 5 13 -0.8432209793436309 0 196.0 -0.8432209793436309 1
gene  1 10 13 -0.6260836558581261 0 201.0 -0.6260836558581261 1
gene  1 11 13 0.17175308642143172 0 202.0 0.17175308642143172 1
gene  1 12 13 0.6961179750442089 0 203.0 0.6961179750442089 1
gene  1 6 14 0.9234672896696656 0 213.0 0.9234672896696656 1
gene  1 9 14 -0.6773977513270304 0 216.0 -0.6773977513270304 1
gene  1 10 14 -0.8891729174164497 0 217.0 -0.8891729174164497 1
gene  1 11 14 -0.6416050290565986 0 218.0 -0.6416050290565986 1
gene  1 12 14 0.26039362080836703 0 219.0 0.26039362080836703 1
gene  1 13 14 -0.7673334028312185 0 220.0 -0.7673334028312185 1
gene  1 3 16 0.6662897117815624 0 242.0 0.6662897117815624 1
gene  1 5 16 0.6767307024893786 0 244.0 0.6767307024893786 1
gene  1 6 16 -0.22338865826434773 0 245.0 -0.22338865826434773 1
gene  1 7 16 0.6793372952985043 0 246.0 0.6793372952985043 1
gene  1 8 16 -0.19215194551621384 0 247.0 -0.19215194551621384 1
gene  1 9 16 -0.05756136726680716 0 248.0 -0.05756136726680716 1
gene  1 11 16 0.9643335073788928 0 250.0 0.9643335073788928 1
gene  1 12 16 0.5090335222417934 0 251.0 0.5090335222417934 1
genomeend 21
