genomestart  16
trait 1 0.0 0.0 0.0 0.0 0.0 0.0 0.0 0.0 0.0 0.0 0.0 0.0 0.0 0.0 0.0 0.0 0.0 0.0 0.0 0.0 
node 1 1 1 1
node 2 1 1 1
node 3 1 1 1
node 4 1 1 3
node 5 1 0 0
node 6 1 0 0
node 7 1 0 0
node 8 1 0 0
node 9 1 0 0
node 10 1 0 0
node 11 1 0 0
node 12 1 0 0
node 13 1 0 0
node 14 1 0 0
node 15 1 0 0
node 16 1 0 0
node 17 1 0 0
node 18 1 0 0
node 19 1 0 0
node 20 1 0 0
node 21 1 0 0
node 22 1 0 0
node 23 1 0 0
node 24 1 0 0
node 25 1 0 0
node 26 1 0 0
node 27 1 0 0
node 28 1 0 0
node 29 1 0 0
node 30 1 0 0
node 31 1 0 0
node 32 1 0 0
node 33 1 0 0
node 34 1 0 0
node 35 1 0 0
node 36 1 0 0
node 37 1 0 0
node 38 1 0 0
node 39 1 0 0
node 40 1 0 0
node 41 1 0 0
node 42 1 0 0
node 43 1 0 0
node 44 1 0 0
node 45 1 0 0
node 46 1 0 0
node 47 1 0 0
node 48 1 0 0
node 49 1 0 0
node 50 1 0 0
node 105 1 0 2
gene  1 3 5 0.3818245152924874 0 422.0 0.3818245152924874 1
gene  1 4 5 -0.10913936869931229 0 423.0 -0.10913936869931229 1
gene  1 1 6 -0.21122775171421082 0 525.0 -0.21122775171421082 1
gene  1 2 6 0.7421245599726828 0 526.0 0.7421245599726828 1
gene  1 3 6 -0.6042748382348783 0 527.0 -0.6042748382348783 1
gene  1 5 6 0.3997117642229514 0 529.0 0.3997117642229514 1
gene  1 1 8 -0.5214205186227695 0 735.0 -0.5214205186227695 1
gene  1 3 8 0.47722059468534883 0 737.0 0.47722059468534883 1
gene  1 7 8 0.49123156231441334 0 741.0 0.49123156231441334 1
gene  1 3 9 0.2594474758109543 0 842.0 0.2594474758109543 1
gene  1 7 9 -0.4129148950163224 0 846.0 -0.4129148950163224 1
gene  1 4 10 0.43743888974366063 0 948.0 0.43743888974366063 1
gene  1 6 10 -0.8264188122067425 0 950.0 -0.8264188122067425 1
gene  1 8 10 -0.14499007109923412 0 952.0 -0.14499007109923412 1
gene  1 9 10 -8.594911874685307E-4 0 953.0 -8.594911874685307E-4 1
gene  1 1 11 0.5651087993745268 0 1050.0 0.5651087993745268 1
gene  1 2 11 -0.8555141053301396 0 1051.0 -0.8555141053301396 1
gene  1 3 11 -0.32576468881389153 0 1052.0 -0.32576468881389153 1
gene  1 6 11 0.725567788198263 0 1055.0 0.725567788198263 1
gene  1 7 11 0.26989889763758934 0 1056.0 0.26989889763758934 1
gene  1 9 11 0.31512269456878816 0 1058.0 0.31512269456878816 1
gene  1 2 12 -0.8430181722945201 0 1156.0 -0.8430181722945201 1
gene  1 3 12 -0.9685972889904166 0 1157.0 -0.9685972889904166 1
gene  1 4 12 -0.7702678903438824 0 1158.0 -0.7702678903438824 1
gene  1 5 12 0.9777743624622752 0 1159.0 0.9777743624622752 1
gene  1 7 12 -0.4982620270724677 0 1161.0 -0.4982620270724677 1
gene  1 8 12 0.10601847665633812 0 1162.0 0.10601847665633812 1
gene  1 9 12 -0.19213776383199943 0 1163.0 -0.19213776383199943 1
gene  1 10 12 -0.10366054415508519 0 1164.0 -0.10366054415508519 1
gene  1 11 12 0.36235694142623853 0 1165.0 0.36235694142623853 1
gene  1 1 13 0.25749900274155046 0 1260.0 0.25749900274155046 1
gene  1 4 13 0.3371950111188271 0 1263.0 0.3371950111188271 1
gene  1 5 13 0.03317255505267802 0 1264.0 0.03317255505267802 1
gene  1 6 13 -0.9608787885381121 0 1265.0 -0.9608787885381121 1
gene  1 7 13 0.7817470677297602 0 1266.0 0.7817470677297602 1
gene  1 9 13 0.23397406978786206 0 1268.0 0.23397406978786206 1
gene  1 10 13 0.7436746710062856 0 1269.0 0.7436746710062856 1
gene  1 11 13 -0.9252302373775415 0 1270.0 -0.9252302373775415 1
gene  1 2 14 0.5135495447398712 0 1366.0 0.5135495447398712 1
gene  1 5 14 0.8746759012262642 0 1369.0 0.8746759012262642 1
gene  1 6 14 0.08892492564379872 0 1370.0 0.08892492564379872 1
gene  1 7 14 0.7844329229202279 0 1371.0 0.7844329229202279 1
gene  1 8 14 0.9181094442372336 0 1372.0 0.9181094442372336 1
gene  1 11 14 -0.9439376000418621 0 1375.0 -0.9439376000418621 1
gene  1 12 14 0.05908123978430113 0 1376.0 0.05908123978430113 1
gene  1 1 15 -0.5387560476204328 0 1470.0 -0.5387560476204328 1
gene  1 3 15 0.8220184950607964 0 1472.0 0.8220184950607964 1
gene  1 4 15 0.05878580698081792 0 1473.0 0.05878580698081792 1
gene  1 6 15 -0.27162571056588913 0 1475.0 -0.27162571056588913 1
gene  1 7 15 -0.3292844613549436 0 1476.0 -0.3292844613549436 1
gene  1 8 15 0.46875149030915897 0 1477.0 0.46875149030915897 1
gene  1 12 15 0.6799400641184129 0 1481.0 0.6799400641184129 1
gene  1 13 15 -0.916498167325321 0 1482.0 -0.916498167325321 1
gene  1 1 16 -0.5700536455306098 0 1575.0 -0.5700536455306098 1
gene  1 2 16 0.1261713133332405 0 1576.0 0.1261713133332405 1
gene  1 5 16 -0.7135235011943265 0 1579.0 -0.7135235011943265 1
gene  1 6 16 -0.029323111140962643 0 1580.0 -0.029323111140962643 1
gene  1 7 16 -0.3112076659149454 0 1581.0 -0.3112076659149454 1
gene  1 8 16 -0.86469700221167 0 1582.0 -0.86469700221167 1
gene  1 11 16 0.11099875101998291 0 1585.0 0.11099875101998291 1
gene  1 12 16 0.611286006046616 0 1586.0 0.611286006046616 1
gene  1 13 16 -0.8693710945105071 0 1587.0 -0.8693710945105071 1
gene  1 14 16 -0.9323926692134272 0 1588.0 -0.9323926692134272 1
gene  1 15 16 0.8775682860528379 0 1589.0 0.8775682860528379 1
gene  1 4 17 0.21878802969827338 0 1683.0 0.21878802969827338 1
gene  1 7 17 0.20854233500982844 0 1686.0 0.20854233500982844 1
gene  1 8 17 -0.11654137693721678 0 1687.0 -0.11654137693721678 1
gene  1 11 17 -0.621022503083489 0 1690.0 -0.621022503083489 1
gene  1 12 17 0.03567518844895201 0 1691.0 0.03567518844895201 1
gene  1 1 18 -0.5416666342410034 0 1785.0 -0.5416666342410034 1
gene  1 11 18 0.8239084129429706 0 1795.0 0.8239084129429706 1
gene  1 12 18 -0.5916266577727368 0 1796.0 -0.5916266577727368 1
gene  1 13 18 -0.5501710000914052 0 1797.0 -0.5501710000914052 1
gene  1 14 18 -0.8068584410615519 0 1798.0 -0.8068584410615519 1
gene  1 15 18 0.29187915079433924 0 1799.0 0.29187915079433924 1
gene  1 16 18 0.47852129139467614 0 1800.0 0.47852129139467614 1
gene  1 3 19 -0.08158592012249888 0 1892.0 -0.08158592012249888 1
gene  1 8 19 -0.2571159301866386 0 1897.0 -0.2571159301866386 1
gene  1 11 19 0.30236257553603485 0 1900.0 0.30236257553603485 1
gene  1 13 19 -0.610561810075543 0 1902.0 -0.610561810075543 1
gene  1 14 19 0.9417516387482592 0 1903.0 0.9417516387482592 1
gene  1 16 19 0.3892817745652062 0 1905.0 0.3892817745652062 1
gene  1 1 20 0.1865381148808447 0 1995.0 0.1865381148808447 1
gene  1 2 20 0.6527018993386531 0 1996.0 0.6527018993386531 1
gene  1 3 20 -0.7356295981269221 0 1997.0 -0.7356295981269221 1
gene  1 5 20 0.8748071364616441 0 1999.0 0.8748071364616441 1
gene  1 6 20 0.44232641020327057 0 2000.0 0.44232641020327057 1
gene  1 9 20 0.05797552482330903 0 2003.0 0.05797552482330903 1
gene  1 10 20 0.576742077961102 0 2004.0 0.576742077961102 1
gene  1 12 20 -0.3862934460111763 0 2006.0 -0.3862934460111763 1
gene  1 13 20 -0.3333882397393416 0 2007.0 -0.3333882397393416 1
gene  1 14 20 0.01676392162249929 0 2008.0 0.01676392162249929 1
gene  1 1 21 0.047413583829276296 0 2100.0 0.047413583829276296 1
gene  1 4 21 -0.13142402547611753 0 2103.0 -0.13142402547611753 1
gene  1 5 21 0.7783866257923675 0 2104.0 0.7783866257923675 1
gene  1 6 21 0.19813859996127026 0 2105.0 0.19813859996127026 1
gene  1 7 21 0.9121139301457124 0 2106.0 0.9121139301457124 1
gene  1 8 21 -0.1982293033664415 0 2107.0 -0.1982293033664415 1
gene  1 10 21 0.2864395357359989 0 2109.0 0.2864395357359989 1
gene  1 13 21 0.38331195659562256 0 2112.0 0.38331195659562256 1
gene  1 16 21 -0.5946542060255058 0 2115.0 -0.5946542060255058 1
gene  1 17 21 -0.21800684703926487 0 2116.0 -0.21800684703926487 1
gene  1 18 21 0.7477805282772746 0 2117.0 0.7477805282772746 1
gene  1 1 22 -0.0011430207388729574 0 2205.0 -0.0011430207388729574 1
gene  1 2 22 -0.5661759694574093 0 2206.0 -0.5661759694574093 1
gene  1 3 22 -0.39686952322124947 0 2207.0 -0.39686952322124947 1
gene  1 4 22 -0.38063697889482506 0 2208.0 -0.38063697889482506 1
gene  1 5 22 -0.364651226793262 0 2209.0 -0.364651226793262 1
gene  1 7 22 0.2297350875707772 0 2211.0 0.2297350875707772 1
gene  1 11 22 -0.23291947057320372 0 2215.0 -0.23291947057320372 1
gene  1 13 22 -0.8836154514570909 0 2217.0 -0.8836154514570909 1
gene  1 14 22 0.02187466777475311 0 2218.0 0.02187466777475311 1
gene  1 15 22 -0.9071378740228128 0 2219.0 -0.9071378740228128 1
gene  1 16 22 -0.5994230832446948 0 2220.0 -0.5994230832446948 1
gene  1 19 22 0.8992076018392521 0 2223.0 0.8992076018392521 1
gene  1 20 22 -0.4423355172858109 0 2224.0 -0.4423355172858109 1
gene  1 1 23 -0.7722313182596329 0 2310.0 -0.7722313182596329 1
gene  1 4 23 0.7579409586816068 0 2313.0 0.7579409586816068 1
gene  1 5 23 -0.7945313797461259 0 2314.0 -0.7945313797461259 1
gene  1 6 23 0.30188308097663996 0 2315.0 0.30188308097663996 1
gene  1 8 23 0.279152632519286 0 2317.0 0.279152632519286 1
gene  1 9 23 -0.9888754642763633 0 2318.0 -0.9888754642763633 1
gene  1 11 23 -0.7806086766642691 0 2320.0 -0.7806086766642691 1
gene  1 15 23 -0.8656880948175425 0 2324.0 -0.8656880948175425 1
gene  1 17 23 -0.9105524925618257 0 2326.0 -0.9105524925618257 1
gene  1 18 23 0.15693769394129853 0 2327.0 0.15693769394129853 1
gene  1 20 23 0.776234395086389 0 2329.0 0.776234395086389 1
gene  1 21 23 0.535450250879831 0 2330.0 0.535450250879831 1
gene  1 2 24 -0.13533857966472895 0 2416.0 -0.13533857966472895 1
gene  1 5 24 -0.7290820884145265 0 2419.0 -0.7290820884145265 1
gene  1 8 24 0.6660722038223923 0 2422.0 0.6660722038223923 1
gene  1 9 24 -0.07811716448505379 0 2423.0 -0.07811716448505379 1
gene  1 10 24 -0.8932404149289134 0 2424.0 -0.8932404149289134 1
gene  1 12 24 0.6428624971506977 0 2426.0 0.6428624971506977 1
gene  1 13 24 -0.6786503429468177 0 2427.0 -0.6786503429468177 1
gene  1 15 24 0.6171378503599038 0 2429.0 0.6171378503599038 1
gene  1 16 24 0.8990396088224153 0 2430.0 0.8990396088224153 1
gene  1 18 24 -0.39115434701884166 0 2432.0 -0.39115434701884166 1
gene  1 19 24 0.22643566004301818 0 2433.0 0.22643566004301818 1
gene  1 20 24 -0.2929000872450044 0 2434.0 -0.2929000872450044 1
gene  1 22 24 -0.6265902881355913 0 2436.0 -0.6265902881355913 1
gene  1 1 25 0.6988653342260284 0 2520.0 0.6988653342260284 1
gene  1 2 25 0.3995175446718502 0 2521.0 0.3995175446718502 1
gene  1 5 25 0.907818322639642 0 2524.0 0.907818322639642 1
gene  1 6 25 0.14508969123929538 0 2525.0 0.14508969123929538 1
gene  1 7 25 0.9695987155574469 0 2526.0 0.9695987155574469 1
gene  1 8 25 -0.3133948013238832 0 2527.0 -0.3133948013238832 1
gene  1 12 25 -0.6067109081320093 0 2531.0 -0.6067109081320093 1
gene  1 13 25 -0.550146845461897 0 2532.0 -0.550146845461897 1
gene  1 14 25 -0.07308971225739058 0 2533.0 -0.07308971225739058 1
gene  1 17 25 0.09105801668072111 0 2536.0 0.09105801668072111 1
gene  1 18 25 0.11967211572672587 0 2537.0 0.11967211572672587 1
gene  1 20 25 0.6821062150843018 0 2539.0 0.6821062150843018 1
gene  1 21 25 -0.12233380630507196 0 2540.0 -0.12233380630507196 1
gene  1 23 25 -0.5555090885659002 0 2542.0 -0.5555090885659002 1
gene  1 1 26 -0.6495182914661941 0 2625.0 -0.6495182914661941 1
gene  1 3 26 -0.1352597168007751 0 2627.0 -0.1352597168007751 1
gene  1 5 26 0.2942676416606784 0 2629.0 0.2942676416606784 1
gene  1 6 26 0.850936881872665 0 2630.0 0.850936881872665 1
gene  1 7 26 0.6278597279807532 0 2631.0 0.6278597279807532 1
gene  1 8 26 -0.3248437870754739 0 2632.0 -0.3248437870754739 1
gene  1 12 26 0.918123993540429 0 2636.0 0.918123993540429 1
gene  1 13 26 0.563235776706758 0 2637.0 0.563235776706758 1
gene  1 14 26 0.22358197044329664 0 2638.0 0.22358197044329664 1
gene  1 16 26 0.0442652425830915 0 2640.0 0.0442652425830915 1
gene  1 17 26 0.4765155810040851 0 2641.0 0.4765155810040851 1
gene  1 19 26 0.32204002640504814 0 2643.0 0.32204002640504814 1
gene  1 24 26 -0.2675539835841224 0 2648.0 -0.2675539835841224 1
gene  1 25 26 0.572398473772738 0 2649.0 0.572398473772738 1
gene  1 2 27 0.6181329641150032 0 2731.0 0.6181329641150032 1
gene  1 3 27 0.9199646001222751 0 2732.0 0.9199646001222751 1
gene  1 4 27 -0.6821276189094652 0 2733.0 -0.6821276189094652 1
gene  1 6 27 0.898994654824642 0 2735.0 0.898994654824642 1
gene  1 7 27 -0.09677214679857538 0 2736.0 -0.09677214679857538 1
gene  1 9 27 0.24767037206619458 0 2738.0 0.24767037206619458 1
gene  1 12 27 0.26974413660690366 0 2741.0 0.26974413660690366 1
gene  1 14 27 -0.05356016572412836 0 2743.0 -0.05356016572412836 1
gene  1 17 27 0.8552134870600807 0 2746.0 0.8552134870600807 1
gene  1 20 27 -0.6174690475322668 0 2749.0 -0.6174690475322668 1
gene  1 22 27 0.9398813911305038 0 2751.0 0.9398813911305038 1
gene  1 24 27 -0.23719134454139756 0 2753.0 -0.23719134454139756 1
gene  1 25 27 -0.4371080359130015 0 2754.0 -0.4371080359130015 1
gene  1 26 27 -0.6195833411577002 0 2755.0 -0.6195833411577002 1
gene  1 5 28 -0.9277006472387855 0 2839.0 -0.9277006472387855 1
gene  1 7 28 -0.46486821301729997 0 2841.0 -0.46486821301729997 1
gene  1 8 28 -0.005214867676794577 0 2842.0 -0.005214867676794577 1
gene  1 10 28 0.5443870382272537 0 2844.0 0.5443870382272537 1
gene  1 12 28 0.9929973238548695 0 2846.0 0.9929973238548695 1
gene  1 13 28 0.5840528888548111 0 2847.0 0.5840528888548111 1
gene  1 14 28 0.4866774722427607 0 2848.0 0.4866774722427607 1
gene  1 16 28 -0.6158526639694831 0 2850.0 -0.6158526639694831 1
gene  1 17 28 -0.868215131204819 0 2851.0 -0.868215131204819 1
gene  1 22 28 -0.8099339123994108 0 2856.0 -0.8099339123994108 1
gene  1 23 28 -0.5690031396178824 0 2857.0 -0.5690031396178824 1
gene  1 25 28 -0.05528780018826884 0 2859.0 -0.05528780018826884 1
gene  1 26 28 0.6550119532320695 0 2860.0 0.6550119532320695 1
gene  1 3 29 0.6334960679755167 0 2942.0 0.6334960679755167 1
gene  1 5 29 0.29436944589570835 0 2944.0 0.29436944589570835 1
gene  1 7 29 0.05387738177833146 0 2946.0 0.05387738177833146 1
gene  1 9 29 -0.42770759986234463 0 2948.0 -0.42770759986234463 1
gene  1 12 29 0.05035054410920037 0 2951.0 0.05035054410920037 1
gene  1 13 29 0.0020528260578953628 0 2952.0 0.0020528260578953628 1
gene  1 19 29 -0.5355780356037544 0 2958.0 -0.5355780356037544 1
gene  1 20 29 0.8883122529912454 0 2959.0 0.8883122529912454 1
gene  1 21 29 -0.3198763347947844 0 2960.0 -0.3198763347947844 1
gene  1 22 29 0.05325607736161497 0 2961.0 0.05325607736161497 1
gene  1 25 29 0.5809123087281621 0 2964.0 0.5809123087281621 1
gene  1 26 29 -0.6030184520644185 0 2965.0 -0.6030184520644185 1
gene  1 28 29 0.7990200835197058 0 2967.0 0.7990200835197058 1
gene  1 4 30 -0.6403837387130533 0 3048.0 -0.6403837387130533 1
gene  1 7 30 -0.23394510648852573 0 3051.0 -0.23394510648852573 1
gene  1 9 30 -0.6272045748482624 0 3053.0 -0.6272045748482624 1
gene  1 10 30 0.06577546890092412 0 3054.0 0.06577546890092412 1
gene  1 11 30 -0.5817247152099145 0 3055.0 -0.5817247152099145 1
gene  1 13 30 -0.29032320633594555 0 3057.0 -0.29032320633594555 1
gene  1 14 30 -0.36018053284297213 0 3058.0 -0.36018053284297213 1
gene  1 16 30 -0.42598310913625326 0 3060.0 -0.42598310913625326 1
gene  1 17 30 -0.1772799930734389 0 3061.0 -0.1772799930734389 1
gene  1 18 30 -0.45923064988787776 0 3062.0 -0.45923064988787776 1
gene  1 21 30 0.34902381640518065 0 3065.0 0.34902381640518065 1
gene  1 22 30 0.7151043300187685 0 3066.0 0.7151043300187685 1
gene  1 25 30 -0.3437193869776811 0 3069.0 -0.3437193869776811 1
gene  1 28 30 -0.8863391885770588 0 3072.0 -0.8863391885770588 1
gene  1 1 31 -0.7416920060285153 0 3150.0 -0.7416920060285153 1
gene  1 2 31 -0.9048464931644977 0 3151.0 -0.9048464931644977 1
gene  1 3 31 -0.5446424663474883 0 3152.0 -0.5446424663474883 1
gene  1 5 31 0.532573263290147 0 3154.0 0.532573263290147 1
gene  1 6 31 -0.8538235111300712 0 3155.0 -0.8538235111300712 1
gene  1 8 31 -0.6031505459526733 0 3157.0 -0.6031505459526733 1
gene  1 10 31 0.7218059094610361 0 3159.0 0.7218059094610361 1
gene  1 13 31 0.9233949713694688 0 3162.0 0.9233949713694688 1
gene  1 14 31 0.21378817902379155 0 3163.0 0.21378817902379155 1
gene  1 16 31 -0.9046610016644773 0 3165.0 -0.9046610016644773 1
gene  1 17 31 0.04599034109407085 0 3166.0 0.04599034109407085 1
gene  1 20 31 -0.6483542079140762 0 3169.0 -0.6483542079140762 1
gene  1 22 31 0.7610392720844648 0 3171.0 0.7610392720844648 1
gene  1 23 31 -0.8763332098646434 0 3172.0 -0.8763332098646434 1
gene  1 28 31 0.921814548503766 0 3177.0 0.921814548503766 1
gene  1 29 31 -0.018225625384702626 0 3178.0 -0.018225625384702626 1
gene  1 30 31 0.03993643022633375 0 3179.0 0.03993643022633375 1
gene  1 4 32 -0.027609155232945826 0 3258.0 -0.027609155232945826 1
gene  1 5 32 0.1750406871159087 0 3259.0 0.1750406871159087 1
gene  1 6 32 -0.028925266768054958 0 3260.0 -0.028925266768054958 1
gene  1 9 32 -0.12311941495268108 0 3263.0 -0.12311941495268108 1
gene  1 14 32 0.5543103073017867 0 3268.0 0.5543103073017867 1
gene  1 16 32 0.6466029604590642 0 3270.0 0.6466029604590642 1
gene  1 19 32 0.27369702190684575 0 3273.0 0.27369702190684575 1
gene  1 20 32 0.15525528802582667 0 3274.0 0.15525528802582667 1
gene  1 22 32 -0.7071210584868941 0 3276.0 -0.7071210584868941 1
gene  1 29 32 0.7344602320430662 0 3283.0 0.7344602320430662 1
gene  1 30 32 -0.4582935022385318 0 3284.0 -0.4582935022385318 1
gene  1 31 32 0.2914682624706466 0 3285.0 0.2914682624706466 1
gene  1 1 33 -0.925716485755147 0 3360.0 -0.925716485755147 1
gene  1 3 33 0.5290210524467273 0 3362.0 0.5290210524467273 1
gene  1 5 33 -0.4629255371888774 0 3364.0 -0.4629255371888774 1
gene  1 8 33 0.04878509417742527 0 3367.0 0.04878509417742527 1
gene  1 9 33 -0.11404396197807809 0 3368.0 -0.11404396197807809 1
gene  1 10 33 0.6437963103157966 0 3369.0 0.6437963103157966 1
gene  1 11 33 0.44888258176868623 0 3370.0 0.44888258176868623 1
gene  1 12 33 -0.7491489806039587 0 3371.0 -0.7491489806039587 1
gene  1 15 33 0.6861923161498196 0 3374.0 0.6861923161498196 1
gene  1 16 33 -0.2604486941643711 0 3375.0 -0.2604486941643711 1
gene  1 19 33 -0.8005606226045827 0 3378.0 -0.8005606226045827 1
gene  1 20 33 0.5365142838285955 0 3379.0 0.5365142838285955 1
gene  1 21 33 -0.47024929869117893 0 3380.0 -0.47024929869117893 1
gene  1 22 33 -0.19375899093517268 0 3381.0 -0.19375899093517268 1
gene  1 27 33 -0.9331860104472852 0 3386.0 -0.9331860104472852 1
gene  1 31 33 -0.04764503868111902 0 3390.0 -0.04764503868111902 1
gene  1 2 34 -0.7634988731390332 0 3466.0 -0.7634988731390332 1
gene  1 5 34 0.3913162893896731 0 3469.0 0.3913162893896731 1
gene  1 6 34 0.3751746287476724 0 3470.0 0.3751746287476724 1
gene  1 7 34 -0.02779202524650437 0 3471.0 -0.02779202524650437 1
gene  1 9 34 0.4395683025251015 0 3473.0 0.4395683025251015 1
gene  1 10 34 0.4659398858008381 0 3474.0 0.4659398858008381 1
gene  1 11 34 0.4785727296405049 0 3475.0 0.4785727296405049 1
gene  1 14 34 -0.2515796005204348 0 3478.0 -0.2515796005204348 1
gene  1 18 34 0.02939381584438705 0 3482.0 0.02939381584438705 1
gene  1 19 34 -0.913806981024341 0 3483.0 -0.913806981024341 1
gene  1 21 34 -0.5325239139412851 0 3485.0 -0.5325239139412851 1
gene  1 22 34 0.9512342330125416 0 3486.0 0.9512342330125416 1
gene  1 25 34 -0.7552053794300738 0 3489.0 -0.7552053794300738 1
gene  1 30 34 -0.19271751688368288 0 3494.0 -0.19271751688368288 1
gene  1 31 34 -0.5987007966197859 0 3495.0 -0.5987007966197859 1
gene  1 32 34 -0.40564551210102073 0 3496.0 -0.40564551210102073 1
gene  1 33 34 0.07157841954704691 0 3497.0 0.07157841954704691 1
gene  1 6 35 -0.9644787328583982 0 3575.0 -0.9644787328583982 1
gene  1 8 35 0.684016140675374 0 3577.0 0.684016140675374 1
gene  1 10 35 -0.41345672299217007 0 3579.0 -0.41345672299217007 1
gene  1 11 35 -0.9507865969285119 0 3580.0 -0.9507865969285119 1
gene  1 15 35 -0.4815128817711526 0 3584.0 -0.4815128817711526 1
gene  1 17 35 0.7789404600827751 0 3586.0 0.7789404600827751 1
gene  1 18 35 0.49209827349126456 0 3587.0 0.49209827349126456 1
gene  1 20 35 -0.8914079400928825 0 3589.0 -0.8914079400928825 1
gene  1 21 35 0.30583313955355196 0 3590.0 0.30583313955355196 1
gene  1 23 35 -0.1680390089495668 0 3592.0 -0.1680390089495668 1
gene  1 25 35 0.9149460389148559 0 3594.0 0.9149460389148559 1
gene  1 26 35 -0.9889574795677716 0 3595.0 -0.9889574795677716 1
gene  1 29 35 -0.5707234486868829 0 3598.0 -0.5707234486868829 1
gene  1 34 35 -0.34590287725311764 0 3603.0 -0.34590287725311764 1
gene  1 1 36 0.1450175466136373 0 3675.0 0.1450175466136373 1
gene  1 4 36 -0.8041898691957632 0 3678.0 -0.8041898691957632 1
gene  1 6 36 0.6608974561043347 0 3680.0 0.6608974561043347 1
gene  1 7 36 0.9138751804405532 0 3681.0 0.9138751804405532 1
gene  1 9 36 0.04210447404990647 0 3683.0 0.04210447404990647 1
gene  1 10 36 -0.7269532482108246 0 3684.0 -0.7269532482108246 1
gene  1 11 36 -0.12157701365139162 0 3685.0 -0.12157701365139162 1
gene  1 12 36 -0.29261632098280943 0 3686.0 -0.29261632098280943 1
gene  1 13 36 -0.0291430826039476 0 3687.0 -0.0291430826039476 1
gene  1 18 36 0.9487781465700821 0 3692.0 0.9487781465700821 1
gene  1 19 36 0.48367474425888557 0 3693.0 0.48367474425888557 1
gene  1 21 36 -0.7487498516727785 0 3695.0 -0.7487498516727785 1
gene  1 22 36 -0.4929828104778463 0 3696.0 -0.4929828104778463 1
gene  1 23 36 -0.5228216966530185 0 3697.0 -0.5228216966530185 1
gene  1 24 36 -0.480811882667474 0 3698.0 -0.480811882667474 1
gene  1 25 36 0.6210868823809235 0 3699.0 0.6210868823809235 1
gene  1 30 36 -0.27644341510275394 0 3704.0 -0.27644341510275394 1
gene  1 31 36 -0.6618037155998123 0 3705.0 -0.6618037155998123 1
gene  1 32 36 0.3508566647592589 0 3706.0 0.3508566647592589 1
gene  1 34 36 -0.2481260033334981 0 3708.0 -0.2481260033334981 1
gene  1 2 37 -0.5764410958394243 0 3781.0 -0.5764410958394243 1
gene  1 4 37 0.8689868463765772 0 3783.0 0.8689868463765772 1
gene  1 9 37 -0.8735033181191441 0 3788.0 -0.8735033181191441 1
gene  1 11 37 0.68292625022211 0 3790.0 0.68292625022211 1
gene  1 15 37 -0.7026763993959023 0 3794.0 -0.7026763993959023 1
gene  1 16 37 -0.5392649547137698 0 3795.0 -0.5392649547137698 1
gene  1 21 37 -0.8564821252244826 0 3800.0 -0.8564821252244826 1
gene  1 24 37 -0.057684611269903985 0 3803.0 -0.057684611269903985 1
gene  1 26 37 0.45045347912580214 0 3805.0 0.45045347912580214 1
gene  1 30 37 -0.7415996887671082 0 3809.0 -0.7415996887671082 1
gene  1 31 37 0.6035200928208925 0 3810.0 0.6035200928208925 1
gene  1 35 37 0.3864237420382185 0 3814.0 0.3864237420382185 1
gene  1 36 37 0.6990531836729286 0 3815.0 0.6990531836729286 1
gene  1 2 38 0.2943340711749569 0 3886.0 0.2943340711749569 1
gene  1 3 38 -0.681264229065517 0 3887.0 -0.681264229065517 1
gene  1 4 38 -0.6124954827471849 0 3888.0 -0.6124954827471849 1
gene  1 6 38 -0.835000668582672 0 3890.0 -0.835000668582672 1
gene  1 7 38 0.3746295068240355 0 3891.0 0.3746295068240355 1
gene  1 9 38 0.05100986378647088 0 3893.0 0.05100986378647088 1
gene  1 11 38 -0.9948862492907787 0 3895.0 -0.9948862492907787 1
gene  1 14 38 -0.7107180058258027 0 3898.0 -0.7107180058258027 1
gene  1 17 38 -0.5251185804894926 0 3901.0 -0.5251185804894926 1
gene  1 19 38 -0.39209703083288683 0 3903.0 -0.39209703083288683 1
gene  1 20 38 0.1447063596149406 0 3904.0 0.1447063596149406 1
gene  1 21 38 -0.7484693500569912 0 3905.0 -0.7484693500569912 1
gene  1 22 38 -0.4069079537935214 0 3906.0 -0.4069079537935214 1
gene  1 23 38 0.5619751987920583 0 3907.0 0.5619751987920583 1
gene  1 24 38 -0.5662639233323113 0 3908.0 -0.5662639233323113 1
gene  1 27 38 0.07410770135198008 0 3911.0 0.07410770135198008 1
gene  1 29 38 0.22974954452221985 0 3913.0 0.22974954452221985 1
gene  1 30 38 0.5047926517678499 0 3914.0 0.5047926517678499 1
gene  1 31 38 -0.8056469814167437 0 3915.0 -0.8056469814167437 1
gene  1 32 38 0.973705072163871 0 3916.0 0.973705072163871 1
gene  1 33 38 0.8083447971686459 0 3917.0 0.8083447971686459 1
gene  1 35 38 0.224416695739461 0 3919.0 0.224416695739461 1
gene  1 1 39 -0.8780253976121645 0 3990.0 -0.8780253976121645 1
gene  1 2 39 -0.689357566200258 0 3991.0 -0.689357566200258 1
gene  1 5 39 -0.3485513626540663 0 3994.0 -0.3485513626540663 1
gene  1 7 39 -0.4143882119460722 0 3996.0 -0.4143882119460722 1
gene  1 9 39 0.6315659031716598 0 3998.0 0.6315659031716598 1
gene  1 10 39 0.46084137071408826 0 3999.0 0.46084137071408826 1
gene  1 11 39 -0.6682930513520872 0 4000.0 -0.6682930513520872 1
gene  1 13 39 -0.018683656419571815 0 4002.0 -0.018683656419571815 1
gene  1 15 39 -0.9439414176575992 0 4004.0 -0.9439414176575992 1
gene  1 16 39 0.5517698618641114 0 4005.0 0.5517698618641114 1
gene  1 17 39 0.7741805300470141 0 4006.0 0.7741805300470141 1
gene  1 18 39 0.9624015224258042 0 4007.0 0.9624015224258042 1
gene  1 20 39 0.9542879747203198 0 4009.0 0.9542879747203198 1
gene  1 22 39 -0.7187541480882236 0 4011.0 -0.7187541480882236 1
gene  1 23 39 0.8245483956709838 0 4012.0 0.8245483956709838 1
gene  1 24 39 0.9165867042729549 0 4013.0 0.9165867042729549 1
gene  1 25 39 -0.9608813791758325 0 4014.0 -0.9608813791758325 1
gene  1 27 39 -0.5579646928238061 0 4016.0 -0.5579646928238061 1
gene  1 29 39 -0.150503506243716 0 4018.0 -0.150503506243716 1
gene  1 30 39 -0.6692028088046295 0 4019.0 -0.6692028088046295 1
gene  1 31 39 -0.6989002413185839 0 4020.0 -0.6989002413185839 1
gene  1 1 40 0.4354677953690974 0 4095.0 0.4354677953690974 1
gene  1 4 40 -0.42572594387758467 0 4098.0 -0.42572594387758467 1
gene  1 5 40 0.1844908532652182 0 4099.0 0.1844908532652182 1
gene  1 6 40 0.7239218021487831 0 4100.0 0.7239218021487831 1
gene  1 7 40 -0.23768318031641056 0 4101.0 -0.23768318031641056 1
gene  1 8 40 -0.3796170037459241 0 4102.0 -0.3796170037459241 1
gene  1 9 40 0.012209931485715919 0 4103.0 0.012209931485715919 1
gene  1 11 40 -0.8201454067182911 0 4105.0 -0.8201454067182911 1
gene  1 12 40 0.10006510190497064 0 4106.0 0.10006510190497064 1
gene  1 13 40 0.8527648682280174 0 4107.0 0.8527648682280174 1
gene  1 15 40 -0.42002149931306443 0 4109.0 -0.42002149931306443 1
gene  1 16 40 -0.21701220506391605 0 4110.0 -0.21701220506391605 1
gene  1 18 40 0.14131540420844924 0 4112.0 0.14131540420844924 1
gene  1 20 40 -0.07379623898214827 0 4114.0 -0.07379623898214827 1
gene  1 22 40 -0.5769021276054539 0 4116.0 -0.5769021276054539 1
gene  1 23 40 -0.9075207826753932 0 4117.0 -0.9075207826753932 1
gene  1 24 40 -0.2746301850482571 0 4118.0 -0.2746301850482571 1
gene  1 25 40 -0.9770696950304371 0 4119.0 -0.9770696950304371 1
gene  1 27 40 -0.7201802128590175 0 4121.0 -0.7201802128590175 1
gene  1 28 40 -0.2241382247329784 0 4122.0 -0.2241382247329784 1
gene  1 29 40 0.5360761502214767 0 4123.0 0.5360761502214767 1
gene  1 30 40 -0.22529031177147518 0 4124.0 -0.22529031177147518 1
gene  1 32 40 -0.4476879321241539 0 4126.0 -0.4476879321241539 1
gene  1 34 40 -0.7361525845191571 0 4128.0 -0.7361525845191571 1
gene  1 35 40 0.38448004830783744 0 4129.0 0.38448004830783744 1
gene  1 38 40 -0.5033044910535979 0 4132.0 -0.5033044910535979 1
gene  1 2 41 -0.8405806604896728 0 4201.0 -0.8405806604896728 1
gene  1 3 41 0.41236755096029865 0 4202.0 0.41236755096029865 1
gene  1 4 41 -0.8303541509332797 0 4203.0 -0.8303541509332797 1
gene  1 5 41 0.12176569026760065 0 4204.0 0.12176569026760065 1
gene  1 7 41 -0.8394507252691115 0 4206.0 -0.8394507252691115 1
gene  1 10 41 0.25633460534108754 0 4209.0 0.25633460534108754 1
gene  1 11 41 -0.4584169821487347 0 4210.0 -0.4584169821487347 1
gene  1 16 41 -0.13411396268973452 0 4215.0 -0.13411396268973452 1
gene  1 17 41 0.2611799038131676 0 4216.0 0.2611799038131676 1
gene  1 18 41 0.41335938938390737 0 4217.0 0.41335938938390737 1
gene  1 19 41 0.7561111629285892 0 4218.0 0.7561111629285892 1
gene  1 20 41 0.008832725232578054 0 4219.0 0.008832725232578054 1
gene  1 23 41 -0.698135322036134 0 4222.0 -0.698135322036134 1
gene  1 25 41 0.19919098815203196 0 4224.0 0.19919098815203196 1
gene  1 27 41 0.15796035153144494 0 4226.0 0.15796035153144494 1
gene  1 28 41 -0.5020538859866062 0 4227.0 -0.5020538859866062 1
gene  1 31 41 -0.7232933027905086 0 4230.0 -0.7232933027905086 1
gene  1 33 41 0.9738639371200681 0 4232.0 0.9738639371200681 1
gene  1 35 41 0.7933094107782992 0 4234.0 0.7933094107782992 1
gene  1 38 41 -0.19347168529171455 0 4237.0 -0.19347168529171455 1
gene  1 40 41 -0.8200273819066465 0 4239.0 -0.8200273819066465 1
gene  1 1 42 -0.12924312356311385 0 4305.0 -0.12924312356311385 1
gene  1 4 42 -0.6854933663824028 0 4308.0 -0.6854933663824028 1
gene  1 5 42 -0.24077010003314525 0 4309.0 -0.24077010003314525 1
gene  1 6 42 -0.0458464308752492 0 4310.0 -0.0458464308752492 1
gene  1 7 42 -0.2584327278369778 0 4311.0 -0.2584327278369778 1
gene  1 8 42 0.6181969391739075 0 4312.0 0.6181969391739075 1
gene  1 9 42 -0.19330879173336568 0 4313.0 -0.19330879173336568 1
gene  1 12 42 -0.9544170641479911 0 4316.0 -0.9544170641479911 1
gene  1 13 42 0.3967313007229569 0 4317.0 0.3967313007229569 1
gene  1 15 42 0.7559864769922103 0 4319.0 0.7559864769922103 1
gene  1 16 42 0.21297414968350936 0 4320.0 0.21297414968350936 1
gene  1 17 42 -0.8657306481339458 0 4321.0 -0.8657306481339458 1
gene  1 22 42 -0.8690071922404332 0 4326.0 -0.8690071922404332 1
gene  1 24 42 -0.49888254231303986 0 4328.0 -0.49888254231303986 1
gene  1 30 42 0.16657483100450177 0 4334.0 0.16657483100450177 1
gene  1 31 42 -0.36312690184874896 0 4335.0 -0.36312690184874896 1
gene  1 37 42 0.03336118597745974 0 4341.0 0.03336118597745974 1
gene  1 40 42 -0.7554358937910233 0 4344.0 -0.7554358937910233 1
gene  1 41 42 -0.7770207415382075 0 4345.0 -0.7770207415382075 1
gene  1 5 43 -0.37779343504203433 0 4414.0 -0.37779343504203433 1
gene  1 6 43 -0.09624700573178602 0 4415.0 -0.09624700573178602 1
gene  1 10 43 -0.5469830536564451 0 4419.0 -0.5469830536564451 1
gene  1 12 43 -0.2062117430180488 0 4421.0 -0.2062117430180488 1
gene  1 13 43 -0.41292353647183155 0 4422.0 -0.41292353647183155 1
gene  1 15 43 0.1947168497704499 0 4424.0 0.1947168497704499 1
gene  1 16 43 0.49138223776031476 0 4425.0 0.49138223776031476 1
gene  1 17 43 -0.05690028088665777 0 4426.0 -0.05690028088665777 1
gene  1 19 43 0.1744085353415432 0 4428.0 0.1744085353415432 1
gene  1 20 43 -0.33640597422512764 0 4429.0 -0.33640597422512764 1
gene  1 21 43 -0.5632276675960928 0 4430.0 -0.5632276675960928 1
gene  1 22 43 0.14897591511489705 0 4431.0 0.14897591511489705 1
gene  1 23 43 -0.9731212258894959 0 4432.0 -0.9731212258894959 1
gene  1 24 43 -0.2809009008837051 0 4433.0 -0.2809009008837051 1
gene  1 26 43 0.5668508862384527 0 4435.0 0.5668508862384527 1
gene  1 28 43 0.482217560749691 0 4437.0 0.482217560749691 1
gene  1 29 43 -0.9027349425513675 0 4438.0 -0.9027349425513675 1
gene  1 33 43 0.4952578549146536 0 4442.0 0.4952578549146536 1
gene  1 35 43 0.8877551968764977 0 4444.0 0.8877551968764977 1
gene  1 36 43 -0.3365191605878627 0 4445.0 -0.3365191605878627 1
gene  1 37 43 -0.6807248928285509 0 4446.0 -0.6807248928285509 1
gene  1 41 43 0.3640337720480885 0 4450.0 0.3640337720480885 1
gene  1 1 44 -0.37878205495371087 0 4515.0 -0.37878205495371087 1
gene  1 7 44 0.38523551996984995 0 4521.0 0.38523551996984995 1
gene  1 9 44 -0.6696882533736681 0 4523.0 -0.6696882533736681 1
gene  1 12 44 0.5570202735712304 0 4526.0 0.5570202735712304 1
gene  1 14 44 -0.18244210180279985 0 4528.0 -0.18244210180279985 1
gene  1 19 44 0.27031127051264936 0 4533.0 0.27031127051264936 1
gene  1 20 44 0.5192489967732639 0 4534.0 0.5192489967732639 1
gene  1 21 44 -0.01706384699437924 0 4535.0 -0.01706384699437924 1
gene  1 24 44 -0.055495363696838385 0 4538.0 -0.055495363696838385 1
gene  1 25 44 -0.18132068176674687 0 4539.0 -0.18132068176674687 1
gene  1 26 44 0.9303111291031407 0 4540.0 0.9303111291031407 1
gene  1 29 44 0.32142005518464223 0 4543.0 0.32142005518464223 1
gene  1 31 44 -0.43295032883797835 0 4545.0 -0.43295032883797835 1
gene  1 32 44 0.32590146413153454 0 4546.0 0.32590146413153454 1
gene  1 39 44 0.6348878215138876 0 4553.0 0.6348878215138876 1
gene  1 41 44 0.07291095108851253 0 4555.0 0.07291095108851253 1
gene  1 42 44 0.30496006348668725 0 4556.0 0.30496006348668725 1
gene  1 2 45 0.6171346359204974 0 4621.0 0.6171346359204974 1
gene  1 5 45 0.9946447718702527 0 4624.0 0.9946447718702527 1
gene  1 7 45 -0.605988411600108 0 4626.0 -0.605988411600108 1
gene  1 16 45 0.6622857933412077 0 4635.0 0.6622857933412077 1
gene  1 17 45 -0.634397731420272 0 4636.0 -0.634397731420272 1
gene  1 18 45 0.8850018296090251 0 4637.0 0.8850018296090251 1
gene  1 19 45 0.24628516791049027 0 4638.0 0.24628516791049027 1
gene  1 21 45 -0.14661892793887477 0 4640.0 -0.14661892793887477 1
gene  1 22 45 0.7476740943962115 0 4641.0 0.7476740943962115 1
gene  1 23 45 0.28136614460063336 0 4642.0 0.28136614460063336 1
gene  1 24 45 -0.9733702285790097 0 4643.0 -0.9733702285790097 1
gene  1 25 45 0.8955099590694039 0 4644.0 0.8955099590694039 1
gene  1 26 45 -0.9001769999522499 0 4645.0 -0.9001769999522499 1
gene  1 28 45 -0.2789236781606925 0 4647.0 -0.2789236781606925 1
gene  1 31 45 0.9225943601516076 0 4650.0 0.9225943601516076 1
gene  1 32 45 -0.8442397642203465 0 4651.0 -0.8442397642203465 1
gene  1 34 45 -0.6987695439919173 0 4653.0 -0.6987695439919173 1
gene  1 35 45 0.03337105933382889 0 4654.0 0.03337105933382889 1
gene  1 36 45 0.27487643690966446 0 4655.0 0.27487643690966446 1
gene  1 37 45 0.8068482417416764 0 4656.0 0.8068482417416764 1
gene  1 39 45 0.3037211540357705 0 4658.0 0.3037211540357705 1
gene  1 40 45 -0.22987655590049672 0 4659.0 -0.22987655590049672 1
gene  1 41 45 0.7591734695328982 0 4660.0 0.7591734695328982 1
gene  1 42 45 -0.04574591894431046 0 4661.0 -0.04574591894431046 1
gene  1 43 45 0.8859101898473318 0 4662.0 0.8859101898473318 1
gene  1 5 46 0.39114605731265983 0 4729.0 0.39114605731265983 1
gene  1 6 46 -0.0017039855483887978 0 4730.0 -0.0017039855483887978 1
gene  1 9 46 0.2157907001144056 0 4733.0 0.2157907001144056 1
gene  1 12 46 0.7371072122761618 0 4736.0 0.7371072122761618 1
gene  1 13 46 0.38933685356659176 0 4737.0 0.38933685356659176 1
gene  1 14 46 0.053638658745579604 0 4738.0 0.053638658745579604 1
gene  1 21 46 0.16820298689229007 0 4745.0 0.16820298689229007 1
gene  1 22 46 0.19327137114146875 0 4746.0 0.19327137114146875 1
gene  1 23 46 0.49418704890683196 0 4747.0 0.49418704890683196 1
gene  1 27 46 0.6041937228422473 0 4751.0 0.6041937228422473 1
gene  1 30 46 0.17788225840049443 0 4754.0 0.17788225840049443 1
gene  1 32 46 0.43706212052428817 0 4756.0 0.43706212052428817 1
gene  1 33 46 -0.7814617450304195 0 4757.0 -0.7814617450304195 1
gene  1 34 46 0.11249054765261934 0 4758.0 0.11249054765261934 1
gene  1 35 46 0.44211591735664924 0 4759.0 0.44211591735664924 1
gene  1 36 46 0.6685775359462783 0 4760.0 0.6685775359462783 1
gene  1 38 46 -0.6488861125705073 0 4762.0 -0.6488861125705073 1
gene  1 39 46 0.5771907465333963 0 4763.0 0.5771907465333963 1
gene  1 40 46 0.8387506642226377 0 4764.0 0.8387506642226377 1
gene  1 41 46 0.6166263526282558 0 4765.0 0.6166263526282558 1
gene  1 42 46 -0.9952417790455139 0 4766.0 -0.9952417790455139 1
gene  1 43 46 0.10016042945452464 0 4767.0 0.10016042945452464 1
gene  1 45 46 -0.7489169766315751 0 4769.0 -0.7489169766315751 1
gene  1 2 47 -0.5599423897409677 0 4831.0 -0.5599423897409677 1
gene  1 7 47 -0.5632222177517985 0 4836.0 -0.5632222177517985 1
gene  1 9 47 -0.2160182893657865 0 4838.0 -0.2160182893657865 1
gene  1 10 47 -0.4865227915937336 0 4839.0 -0.4865227915937336 1
gene  1 11 47 -0.9513525681513885 0 4840.0 -0.9513525681513885 1
gene  1 12 47 0.3258275111171137 0 4841.0 0.3258275111171137 1
gene  1 13 47 0.06451393360715829 0 4842.0 0.06451393360715829 1
gene  1 14 47 -0.44900196645229984 0 4843.0 -0.44900196645229984 1
gene  1 15 47 0.010085493033453963 0 4844.0 0.010085493033453963 1
gene  1 18 47 -0.20425578958319857 0 4847.0 -0.20425578958319857 1
gene  1 19 47 -0.5227705837667593 0 4848.0 -0.5227705837667593 1
gene  1 21 47 -0.34813048531350343 0 4850.0 -0.34813048531350343 1
gene  1 23 47 -0.7495986215647449 0 4852.0 -0.7495986215647449 1
gene  1 25 47 -0.9840177951507134 0 4854.0 -0.9840177951507134 1
gene  1 26 47 -0.019396596165195068 0 4855.0 -0.019396596165195068 1
gene  1 28 47 -0.8048982119740437 0 4857.0 -0.8048982119740437 1
gene  1 29 47 -0.4313318249163858 0 4858.0 -0.4313318249163858 1
gene  1 32 47 -0.9838405113498034 0 4861.0 -0.9838405113498034 1
gene  1 33 47 0.7865758980316743 0 4862.0 0.7865758980316743 1
gene  1 41 47 -0.6291097561585981 0 4870.0 -0.6291097561585981 1
gene  1 43 47 0.32885717848295215 0 4872.0 0.32885717848295215 1
gene  1 44 47 -0.814187438072811 0 4873.0 -0.814187438072811 1
gene  1 1 48 0.11812694834763038 0 4935.0 0.11812694834763038 1
gene  1 2 48 0.355124788123794 0 4936.0 0.355124788123794 1
gene  1 3 48 -0.5115596628620936 0 4937.0 -0.5115596628620936 1
gene  1 6 48 0.7211307546275179 0 4940.0 0.7211307546275179 1
gene  1 7 48 0.8741763738678905 0 4941.0 0.8741763738678905 1
gene  1 9 48 0.09434770730692899 0 4943.0 0.09434770730692899 1
gene  1 10 48 0.5311969818809725 0 4944.0 0.5311969818809725 1
gene  1 12 48 0.37597002555743575 0 4946.0 0.37597002555743575 1
gene  1 15 48 0.07391168772025136 0 4949.0 0.07391168772025136 1
gene  1 17 48 0.6890318193381545 0 4951.0 0.6890318193381545 1
gene  1 18 48 -0.9467690677619747 0 4952.0 -0.9467690677619747 1
gene  1 21 48 -0.16737616894383045 0 4955.0 -0.16737616894383045 1
gene  1 22 48 -0.24861622734012323 0 4956.0 -0.24861622734012323 1
gene  1 24 48 0.12883375236017836 0 4958.0 0.12883375236017836 1
gene  1 25 48 -0.4407731566856997 0 4959.0 -0.4407731566856997 1
gene  1 26 48 0.7538009974825609 0 4960.0 0.7538009974825609 1
gene  1 31 48 -0.07397933476015417 0 4965.0 -0.07397933476015417 1
gene  1 32 48 0.5113821055690062 0 4966.0 0.5113821055690062 1
gene  1 33 48 -0.360201436385037 0 4967.0 -0.360201436385037 1
gene  1 34 48 -0.8091597993155616 0 4968.0 -0.8091597993155616 1
gene  1 36 48 -0.18402530058019595 0 4970.0 -0.18402530058019595 1
gene  1 41 48 0.7028232985418622 0 4975.0 0.7028232985418622 1
gene  1 42 48 -0.21499755831354028 0 4976.0 -0.21499755831354028 1
gene  1 44 48 -0.06096571292085606 0 4978.0 -0.06096571292085606 1
gene  1 45 48 -0.49379780846566734 0 4979.0 -0.49379780846566734 1
gene  1 46 48 0.6676653781409313 0 4980.0 0.6676653781409313 1
gene  1 47 48 0.45094836684105055 0 4981.0 0.45094836684105055 1
gene  1 1 49 0.1906493826080936 0 5040.0 0.1906493826080936 1
gene  1 2 49 0.563430586958446 0 5041.0 0.563430586958446 1
gene  1 3 49 -0.994923025744995 0 5042.0 -0.994923025744995 1
gene  1 6 49 -0.5083422880073812 0 5045.0 -0.5083422880073812 1
gene  1 9 49 -0.30108547839772426 0 5048.0 -0.30108547839772426 1
gene  1 10 49 -0.746062435879962 0 5049.0 -0.746062435879962 1
gene  1 13 49 -0.9271115036501871 0 5052.0 -0.9271115036501871 1
gene  1 14 49 -0.21674596802429402 0 5053.0 -0.21674596802429402 1
gene  1 16 49 0.11359639118747245 0 5055.0 0.11359639118747245 1
gene  1 18 49 -0.03422324408720645 0 5057.0 -0.03422324408720645 1
gene  1 21 49 0.5994591302342734 0 5060.0 0.5994591302342734 1
gene  1 22 49 0.2538826931144813 0 5061.0 0.2538826931144813 1
gene  1 23 49 -0.04001410634337477 0 5062.0 -0.04001410634337477 1
gene  1 24 49 -0.5962110318736386 0 5063.0 -0.5962110318736386 1
gene  1 25 49 -0.7900956909415155 0 5064.0 -0.7900956909415155 1
gene  1 31 49 -0.11615828434941788 0 5070.0 -0.11615828434941788 1
gene  1 32 49 0.7857306069403283 0 5071.0 0.7857306069403283 1
gene  1 34 49 -0.15235411304454383 0 5073.0 -0.15235411304454383 1
gene  1 35 49 -0.26109105168814273 0 5074.0 -0.26109105168814273 1
gene  1 36 49 -0.5725688642177398 0 5075.0 -0.5725688642177398 1
gene  1 41 49 0.22490637735755703 0 5080.0 0.22490637735755703 1
gene  1 45 49 -0.24204272644918612 0 5084.0 -0.24204272644918612 1
gene  1 46 49 -0.40010581295487446 0 5085.0 -0.40010581295487446 1
gene  1 48 49 -0.2746117901562243 0 5087.0 -0.2746117901562243 1
gene  1 1 50 -0.2938628731780575 0 5145.0 -0.2938628731780575 1
gene  1 4 50 -0.4715260292025897 0 5148.0 -0.4715260292025897 1
gene  1 5 50 -0.9399849477273389 0 5149.0 -0.9399849477273389 1
gene  1 6 50 -0.3038472803213558 0 5150.0 -0.3038472803213558 1
gene  1 8 50 0.464759156101222 0 5152.0 0.464759156101222 1
gene  1 9 50 -0.3895880265546008 0 5153.0 -0.3895880265546008 1
gene  1 16 50 -0.7976673947483246 0 5160.0 -0.7976673947483246 1
gene  1 23 50 0.29675007131005493 0 5167.0 0.29675007131005493 1
gene  1 24 50 -0.6774219973726505 0 5168.0 -0.6774219973726505 1
gene  1 26 50 0.3275967317576931 0 5170.0 0.3275967317576931 1
gene  1 29 50 0.7149627462581334 0 5173.0 0.7149627462581334 1
gene  1 30 50 -0.09363747884800122 0 5174.0 -0.09363747884800122 1
gene  1 31 50 -0.15801445561961514 0 5175.0 -0.15801445561961514 1
gene  1 32 50 0.4606974046864465 0 5176.0 0.4606974046864465 1
gene  1 33 50 -0.254599739095137 0 5177.0 -0.254599739095137 1
gene  1 35 50 0.9243363432528836 0 5179.0 0.9243363432528836 1
gene  1 36 50 -0.37131638041140236 0 5180.0 -0.37131638041140236 1
gene  1 37 50 -0.33110100181491064 0 5181.0 -0.33110100181491064 1
gene  1 38 50 0.579893814046613 0 5182.0 0.579893814046613 1
gene  1 39 50 0.13680120223192793 0 5183.0 0.13680120223192793 1
gene  1 42 50 -0.017853395837100328 0 5186.0 -0.017853395837100328 1
gene  1 43 50 -0.9398864892786756 0 5187.0 -0.9398864892786756 1
gene  1 44 50 0.27170214433949413 0 5188.0 0.27170214433949413 1
gene  1 45 50 0.6744385685500051 0 5189.0 0.6744385685500051 1
gene  1 47 50 0.8739248909555524 0 5191.0 0.8739248909555524 1
gene  1 1 105 0.31224655591523576 0 10920.0 0.31224655591523576 1
gene  1 2 105 -0.5801986647545042 0 10921.0 -0.5801986647545042 1
gene  1 4 105 -0.5511240083385138 0 10923.0 -0.5511240083385138 1
gene  1 5 105 0.8045986428804788 0 10924.0 0.8045986428804788 1
gene  1 7 105 -0.7087957399604911 0 10926.0 -0.7087957399604911 1
gene  1 8 105 -0.011446283692958414 0 10927.0 -0.011446283692958414 1
gene  1 9 105 0.706890598159456 0 10928.0 0.706890598159456 1
gene  1 17 105 0.1766851590726939 0 10936.0 0.1766851590726939 1
gene  1 19 105 0.6629330325420667 0 10938.0 0.6629330325420667 1
gene  1 24 105 -0.9716846215680969 0 10943.0 -0.9716846215680969 1
gene  1 28 105 -0.9584626473694958 0 10947.0 -0.9584626473694958 1
gene  1 29 105 0.42718203690081835 0 10948.0 0.42718203690081835 1
gene  1 30 105 0.026193350782342417 0 10949.0 0.026193350782342417 1
gene  1 32 105 0.4694771915785433 0 10951.0 0.4694771915785433 1
gene  1 34 105 -0.5030293184415192 0 10953.0 -0.5030293184415192 1
gene  1 35 105 -0.7661622471948871 0 10954.0 -0.7661622471948871 1
gene  1 37 105 -0.6892892195662987 0 10956.0 -0.6892892195662987 1
gene  1 40 105 -0.16303574833583734 0 10959.0 -0.16303574833583734 1
gene  1 42 105 0.16609412810957858 0 10961.0 0.16609412810957858 1
gene  1 43 105 -0.021923523458750926 0 10962.0 -0.021923523458750926 1
gene  1 49 105 0.5897699949947209 0 10968.0 0.5897699949947209 1
gene  1 50 105 -0.5647019989631843 0 10969.0 -0.5647019989631843 1
genomeend 16
