genomestart  1
trait 1 0.0 0.0 0.0 0.0 0.0 0.0 0.0 0.0 0.0 0.0 0.0 0.0 0.0 0.0 0.0 0.0 0.0 0.0 0.0 0.0 
node 1 1 1 1
node 2 1 1 1
node 3 1 1 1
node 4 1 1 3
node 5 1 0 0
node 6 1 0 0
node 7 1 0 0
node 8 1 0 0
node 9 1 0 0
node 10 1 0 0
node 105 1 0 2
gene  1 1 6 0.40113467896112376 0 525.0 0.40113467896112376 1
gene  1 2 6 -0.738996447878535 0 526.0 -0.738996447878535 1
gene  1 4 6 0.3079153002987649 0 528.0 0.3079153002987649 1
gene  1 5 6 0.7355542264344727 0 529.0 0.7355542264344727 1
gene  1 2 7 -0.028499981991477186 0 631.0 -0.028499981991477186 1
gene  1 5 7 -0.3392284251607244 0 634.0 -0.3392284251607244 1
gene  1 2 8 0.9230856002483756 0 736.0 0.9230856002483756 1
gene  1 4 8 0.6271898601464161 0 738.0 0.6271898601464161 1
gene  1 7 8 0.25338181051445585 0 741.0 0.25338181051445585 1
gene  1 1 9 -0.32007498073078355 0 840.0 -0.32007498073078355 1
gene  1 2 9 -0.5494403716851844 0 841.0 -0.5494403716851844 1
gene  1 4 9 -0.15740556035753694 0 843.0 -0.15740556035753694 1
gene  1 5 9 0.03242133109592105 0 844.0 0.03242133109592105 1
gene  1 7 9 0.3740561220250902 0 846.0 0.3740561220250902 1
gene  1 8 9 -0.7762837443243811 0 847.0 -0.7762837443243811 1
gene  1 2 10 0.9738708605709046 0 946.0 0.9738708605709046 1
gene  1 4 10 -0.09319838687170101 0 948.0 -0.09319838687170101 1
gene  1 5 10 0.9240688586776168 0 949.0 0.9240688586776168 1
gene  1 7 10 -0.4125517980442559 0 951.0 -0.4125517980442559 1
gene  1 1 105 0.1727066158453876 0 10920.0 0.1727066158453876 1
gene  1 3 105 0.4562508272992196 0 10922.0 0.4562508272992196 1
gene  1 7 105 0.6038083684490416 0 10926.0 0.6038083684490416 1
gene  1 8 105 -0.8972121626129888 0 10927.0 -0.8972121626129888 1
genomeend 1
