genomestart  41
trait 1 0.0 0.0 0.0 0.0 0.0 0.0 0.0 0.0 0.0 0.0 0.0 0.0 0.0 0.0 0.0 0.0 0.0 0.0 0.0 0.0 
node 1 1 1 1
node 2 1 1 1
node 3 1 1 1
node 4 1 1 1
node 5 1 1 3
node 6 1 0 0
node 7 1 0 0
node 8 1 0 0
node 9 1 0 0
node 10 1 0 0
node 11 1 0 0
node 12 1 0 0
node 13 1 0 0
node 14 1 0 0
node 16 1 0 2
gene  1 1 6 -0.20139517118238393 0 80.0 -0.20139517118238393 1
gene  1 2 6 0.9468974431723312 0 81.0 0.9468974431723312 1
gene  1 3 6 0.6125181912467121 0 82.0 0.6125181912467121 1
gene  1 1 7 0.5824482842661761 0 96.0 0.5824482842661761 1
gene  1 2 7 0.7428505173436873 0 97.0 0.7428505173436873 1
gene  1 4 7 0.40270242658759414 0 99.0 0.40270242658759414 1
gene  1 3 8 -0.06471564502627991 0 114.0 -0.06471564502627991 1
gene  1 6 8 -0.7948799157068311 0 117.0 -0.7948799157068311 1
gene  1 2 9 0.7405721216142712 0 129.0 0.7405721216142712 1
gene  1 3 9 0.9169924119729195 0 130.0 0.9169924119729195 1
gene  1 5 9 -0.14093537200026685 0 132.0 -0.14093537200026685 1
gene  1 6 9 0.22639705974578772 0 133.0 0.22639705974578772 1
gene  1 7 9 0.5770879498881274 0 134.0 0.5770879498881274 1
gene  1 8 9 -0.5392576159766206 0 135.0 -0.5392576159766206 1
gene  1 2 10 0.459766292783082 0 145.0 0.459766292783082 1
gene  1 3 10 -0.03271901159878732 0 146.0 -0.03271901159878732 1
gene  1 8 10 0.3611459183805831 0 151.0 0.3611459183805831 1
gene  1 4 11 -0.9145120829826288 0 163.0 -0.9145120829826288 1
gene  1 5 11 0.816587414980096 0 164.0 0.816587414980096 1
gene  1 7 11 0.3964060314283966 0 166.0 0.3964060314283966 1
gene  1 1 12 -0.6965863363289063 0 176.0 -0.6965863363289063 1
gene  1 4 12 0.823959860452879 0 179.0 0.823959860452879 1
gene  1 5 12 -0.028250619808959154 0 180.0 -0.028250619808959154 1
gene  1 7 12 0.9297617696074547 0 182.0 0.9297617696074547 1
gene  1 8 12 0.8187542964418435 0 183.0 0.8187542964418435 1
gene  1 9 12 0.29780458634947593 0 184.0 0.29780458634947593 1
gene  1 10 12 -0.1768148890454433 0 185.0 -0.1768148890454433 1
gene  1 2 13 0.630625463351317 0 193.0 0.630625463351317 1
gene  1 4 13 0.6972271492947033 0 195.0 0.6972271492947033 1
gene  1 5 13 -0.7650875959405269 0 196.0 -0.7650875959405269 1
gene  1 8 13 -0.8338582551744508 0 199.0 -0.8338582551744508 1
gene  1 10 13 -0.5406641733916775 0 201.0 -0.5406641733916775 1
gene  1 11 13 0.6235263074779429 0 202.0 0.6235263074779429 1
gene  1 1 14 -0.3666224833742311 0 208.0 -0.3666224833742311 1
gene  1 2 14 -0.5091905176517897 0 209.0 -0.5091905176517897 1
gene  1 7 14 -0.010311068562121384 0 214.0 -0.010311068562121384 1
gene  1 8 14 0.45547229794901634 0 215.0 0.45547229794901634 1
gene  1 13 14 0.5956569141854997 0 220.0 0.5956569141854997 1
gene  1 1 16 -0.9734328066674672 0 240.0 -0.9734328066674672 1
gene  1 4 16 0.962368845718242 0 243.0 0.962368845718242 1
gene  1 5 16 0.014399022668654227 0 244.0 0.014399022668654227 1
gene  1 7 16 -0.7110931417653056 0 246.0 -0.7110931417653056 1
gene  1 10 16 0.6835851009663501 0 249.0 0.6835851009663501 1
gene  1 12 16 -0.7177027631587422 0 251.0 -0.7177027631587422 1
genomeend 41
