genomestart  0
trait 1 0.0 0.0 0.0 0.0 0.0 0.0 0.0 0.0 0.0 0.0 0.0 0.0 0.0 0.0 0.0 0.0 0.0 0.0 0.0 0.0 
node 1 1 1 1
node 2 1 1 1
node 3 1 1 1
node 4 1 1 1
node 5 1 1 3
node 6 1 0 0
node 7 1 0 0
node 8 1 0 0
node 9 1 0 0
node 10 1 0 0
node 16 1 0 2
gene  1 1 6 -0.2696924020025647 0 80.0 -0.2696924020025647 1
gene  1 2 6 -0.8580633652792999 0 81.0 -0.8580633652792999 1
gene  1 3 6 -0.48141236220999484 0 82.0 -0.48141236220999484 1
gene  1 5 6 -0.5047684771957089 0 84.0 -0.5047684771957089 1
gene  1 1 7 0.10060301005589489 0 96.0 0.10060301005589489 1
gene  1 2 7 0.6215491979010417 0 97.0 0.6215491979010417 1
gene  1 3 7 0.1226408978505602 0 98.0 0.1226408978505602 1
gene  1 4 7 0.654031199697704 0 99.0 0.654031199697704 1
gene  1 1 8 0.8349764871167251 0 112.0 0.8349764871167251 1
gene  1 2 8 -0.3870843755904684 0 113.0 -0.3870843755904684 1
gene  1 3 8 0.4162600171673232 0 114.0 0.4162600171673232 1
gene  1 4 8 0.7247672923224869 0 115.0 0.7247672923224869 1
gene  1 5 8 0.6759291382004243 0 116.0 0.6759291382004243 1
gene  1 7 8 0.1712093211796455 0 118.0 0.1712093211796455 1
gene  1 1 9 0.14542471061405926 0 128.0 0.14542471061405926 1
gene  1 2 9 -0.02880811989228771 0 129.0 -0.02880811989228771 1
gene  1 3 9 0.6930892465903299 0 130.0 0.6930892465903299 1
gene  1 4 9 -0.7754502217721396 0 131.0 -0.7754502217721396 1
gene  1 5 9 -0.2740203829701454 0 132.0 -0.2740203829701454 1
gene  1 6 9 0.8152786252168166 0 133.0 0.8152786252168166 1
gene  1 8 9 0.25607689809247547 0 135.0 0.25607689809247547 1
gene  1 2 10 -0.02942327036463588 0 145.0 -0.02942327036463588 1
gene  1 3 10 0.18511465129477822 0 146.0 0.18511465129477822 1
gene  1 5 10 -0.21114603894598172 0 148.0 -0.21114603894598172 1
gene  1 7 10 0.34238931015942664 0 150.0 0.34238931015942664 1
gene  1 9 10 0.20713634477677334 0 152.0 0.20713634477677334 1
gene  1 2 16 0.4793865244623101 0 241.0 0.4793865244623101 1
gene  1 8 16 0.8334509945451288 0 247.0 0.8334509945451288 1
genomeend 0
