genomestart  53
trait 1 0.0 0.0 0.0 0.0 0.0 0.0 0.0 0.0 0.0 0.0 0.0 0.0 0.0 0.0 0.0 0.0 0.0 0.0 0.0 0.0 
node 1 1 1 1
node 2 1 1 1
node 3 1 1 1
node 4 1 1 3
node 5 1 0 0
node 6 1 0 0
node 7 1 0 0
node 8 1 0 0
node 9 1 0 0
node 10 1 0 0
node 11 1 0 0
node 12 1 0 0
node 13 1 0 0
node 105 1 0 2
gene  1 1 5 -0.8446924984169529 0 420.0 -0.8446924984169529 1
gene  1 2 5 -0.9181793168477335 0 421.0 -0.9181793168477335 1
gene  1 3 5 -0.48468457497622275 0 422.0 -0.48468457497622275 1
gene  1 4 5 0.5611068104664712 0 423.0 0.5611068104664712 1
gene  1 1 6 0.5996818536568657 0 525.0 0.5996818536568657 1
gene  1 3 6 -0.3995746295855347 0 527.0 -0.3995746295855347 1
gene  1 4 6 0.7160909347600004 0 528.0 0.7160909347600004 1
gene  1 1 7 -0.4963937082170593 0 630.0 -0.4963937082170593 1
gene  1 3 7 0.17450511666276292 0 632.0 0.17450511666276292 1
gene  1 4 7 0.17690643997523858 0 633.0 0.17690643997523858 1
gene  1 5 7 0.5923777024756275 0 634.0 0.5923777024756275 1
gene  1 6 7 -0.9859717017601924 0 635.0 -0.9859717017601924 1
gene  1 4 8 0.1714634935838122 0 738.0 0.1714634935838122 1
gene  1 1 9 0.6394072472065095 0 840.0 0.6394072472065095 1
gene  1 3 9 0.5350138647626858 0 842.0 0.5350138647626858 1
gene  1 5 9 -0.7269372312222262 0 844.0 -0.7269372312222262 1
gene  1 6 9 0.005770451738315474 0 845.0 0.005770451738315474 1
gene  1 8 9 -0.5924069641454266 0 847.0 -0.5924069641454266 1
gene  1 1 10 0.9980184690904612 0 945.0 0.9980184690904612 1
gene  1 3 10 -0.9212092941890057 0 947.0 -0.9212092941890057 1
gene  1 4 10 -0.5115112997915184 0 948.0 -0.5115112997915184 1
gene  1 5 10 0.6517850386747345 0 949.0 0.6517850386747345 1
gene  1 8 10 0.5253296454108345 0 952.0 0.5253296454108345 1
gene  1 1 11 0.3187851769893182 0 1050.0 0.3187851769893182 1
gene  1 3 11 0.39567806057315824 0 1052.0 0.39567806057315824 1
gene  1 5 11 0.11884535538535235 0 1054.0 0.11884535538535235 1
gene  1 6 11 -0.9386932818745851 0 1055.0 -0.9386932818745851 1
gene  1 8 11 -0.18981136488045303 0 1057.0 -0.18981136488045303 1
gene  1 10 11 0.8717395095899957 0 1059.0 0.8717395095899957 1
gene  1 1 12 -0.12353269089319607 0 1155.0 -0.12353269089319607 1
gene  1 7 12 -0.6791140463973083 0 1161.0 -0.6791140463973083 1
gene  1 8 12 -0.34041637452854423 0 1162.0 -0.34041637452854423 1
gene  1 9 12 0.9086106080838068 0 1163.0 0.9086106080838068 1
gene  1 11 12 0.8187695027913853 0 1165.0 0.8187695027913853 1
gene  1 1 13 -0.07064418463655842 0 1260.0 -0.07064418463655842 1
gene  1 3 13 -0.5810326216959107 0 1262.0 -0.5810326216959107 1
gene  1 6 13 0.9748285795165197 0 1265.0 0.9748285795165197 1
gene  1 7 13 -0.5475364749074435 0 1266.0 -0.5475364749074435 1
gene  1 8 13 0.5192454291825733 0 1267.0 0.5192454291825733 1
gene  1 9 13 -0.7168425294121423 0 1268.0 -0.7168425294121423 1
gene  1 10 13 0.9890758824781973 0 1269.0 0.9890758824781973 1
gene  1 11 13 0.8482777514569594 0 1270.0 0.8482777514569594 1
gene  1 1 105 -0.06669128336262942 0 10920.0 -0.06669128336262942 1
gene  1 4 105 0.5300884968111391 0 10923.0 0.5300884968111391 1
gene  1 10 105 0.7516406000866188 0 10929.0 0.7516406000866188 1
gene  1 11 105 0.3087933442255717 0 10930.0 0.3087933442255717 1
gene  1 12 105 0.8768889455022865 0 10931.0 0.8768889455022865 1
genomeend 53
