genomestart  6
trait 1 0.0 0.0 0.0 0.0 0.0 0.0 0.0 0.0 0.0 0.0 0.0 0.0 0.0 0.0 0.0 0.0 0.0 0.0 0.0 0.0 
node 1 1 1 1
node 2 1 1 1
node 3 1 1 1
node 4 1 1 1
node 5 1 1 3
node 6 1 0 0
node 7 1 0 0
node 8 1 0 0
node 9 1 0 0
node 10 1 0 0
node 11 1 0 0
node 12 1 0 0
node 13 1 0 0
node 14 1 0 0
node 16 1 0 2
gene  1 1 6 -0.9447845666372372 0 80.0 -0.9447845666372372 1
gene  1 2 6 0.6764475880602641 0 81.0 0.6764475880602641 1
gene  1 3 6 -0.7869790421998445 0 82.0 -0.7869790421998445 1
gene  1 4 6 -0.8230167033436459 0 83.0 -0.8230167033436459 1
gene  1 5 6 0.07283860284330856 0 84.0 0.07283860284330856 1
gene  1 3 7 -0.8002064772510545 0 98.0 -0.8002064772510545 1
gene  1 4 7 0.5954990111162355 0 99.0 0.5954990111162355 1
gene  1 5 7 -0.3962199044712239 0 100.0 -0.3962199044712239 1
gene  1 1 8 0.31144351261746517 0 112.0 0.31144351261746517 1
gene  1 3 8 0.9409738610924224 0 114.0 0.9409738610924224 1
gene  1 4 8 -0.6695663923232799 0 115.0 -0.6695663923232799 1
gene  1 7 8 0.7180968423557023 0 118.0 0.7180968423557023 1
gene  1 3 9 0.09056735862580001 0 130.0 0.09056735862580001 1
gene  1 4 9 -0.7129466071876983 0 131.0 -0.7129466071876983 1
gene  1 5 9 0.20589479834141533 0 132.0 0.20589479834141533 1
gene  1 6 9 -0.8273507003190299 0 133.0 -0.8273507003190299 1
gene  1 8 9 0.2501231939183718 0 135.0 0.2501231939183718 1
gene  1 1 10 -0.8462317726255324 0 144.0 -0.8462317726255324 1
gene  1 2 10 0.014114384342256758 0 145.0 0.014114384342256758 1
gene  1 3 10 -0.75158153781314 0 146.0 -0.75158153781314 1
gene  1 4 10 0.9416236131152137 0 147.0 0.9416236131152137 1
gene  1 5 10 0.12905868106918206 0 148.0 0.12905868106918206 1
gene  1 6 10 -0.1504017218748953 0 149.0 -0.1504017218748953 1
gene  1 8 10 0.6728008359545078 0 151.0 0.6728008359545078 1
gene  1 9 10 0.6036342602105155 0 152.0 0.6036342602105155 1
gene  1 1 11 -0.87139876305146 0 160.0 -0.87139876305146 1
gene  1 4 11 -0.021851539347612303 0 163.0 -0.021851539347612303 1
gene  1 5 11 0.6820146061965883 0 164.0 0.6820146061965883 1
gene  1 8 11 0.04318994425595202 0 167.0 0.04318994425595202 1
gene  1 9 11 0.13514902402279805 0 168.0 0.13514902402279805 1
gene  1 1 12 0.7535360314792819 0 176.0 0.7535360314792819 1
gene  1 2 12 -4.495293884110296E-5 0 177.0 -4.495293884110296E-5 1
gene  1 5 12 0.959920968030485 0 180.0 0.959920968030485 1
gene  1 7 12 0.4378615180059836 0 182.0 0.4378615180059836 1
gene  1 8 12 0.29841930384914517 0 183.0 0.29841930384914517 1
gene  1 9 12 -0.7855370508261675 0 184.0 -0.7855370508261675 1
gene  1 11 12 -0.6899034344390576 0 186.0 -0.6899034344390576 1
gene  1 1 13 -0.5946161890037928 0 192.0 -0.5946161890037928 1
gene  1 3 13 -0.8837463940293138 0 194.0 -0.8837463940293138 1
gene  1 4 13 -0.2993580642690974 0 195.0 -0.2993580642690974 1
gene  1 5 13 -0.7848891126548736 0 196.0 -0.7848891126548736 1
gene  1 6 13 0.3638892993881543 0 197.0 0.3638892993881543 1
gene  1 7 13 0.08734543667206662 0 198.0 0.08734543667206662 1
gene  1 8 13 0.4123702907843041 0 199.0 0.4123702907843041 1
gene  1 12 13 -0.15165934439538598 0 203.0 -0.15165934439538598 1
gene  1 1 14 -0.4528915763903383 0 208.0 -0.4528915763903383 1
gene  1 4 14 -0.018970187256120985 0 211.0 -0.018970187256120985 1
gene  1 7 14 -0.31777266938042836 0 214.0 -0.31777266938042836 1
gene  1 9 14 -0.5872287511901464 0 216.0 -0.5872287511901464 1
gene  1 10 14 0.6074400543078544 0 217.0 0.6074400543078544 1
gene  1 11 14 0.6252566497727232 0 218.0 0.6252566497727232 1
gene  1 1 16 -0.09863611140000461 0 240.0 -0.09863611140000461 1
gene  1 3 16 0.4993173930009558 0 242.0 0.4993173930009558 1
gene  1 5 16 -0.14946230682914696 0 244.0 -0.14946230682914696 1
gene  1 6 16 -0.15632638180490332 0 245.0 -0.15632638180490332 1
gene  1 9 16 0.18657759105294225 0 248.0 0.18657759105294225 1
gene  1 11 16 0.5981116027159215 0 250.0 0.5981116027159215 1
genomeend 6
