genomestart  18
trait 1 0.0 0.0 0.0 0.0 0.0 0.0 0.0 0.0 0.0 0.0 0.0 0.0 0.0 0.0 0.0 0.0 0.0 0.0 0.0 0.0 
node 1 1 1 1
node 2 1 1 1
node 3 1 1 1
node 4 1 1 3
node 5 1 0 0
node 6 1 0 0
node 7 1 0 0
node 8 1 0 0
node 9 1 0 0
node 10 1 0 0
node 11 1 0 0
node 12 1 0 0
node 13 1 0 0
node 14 1 0 0
node 15 1 0 0
node 16 1 0 0
node 17 1 0 0
node 18 1 0 0
node 19 1 0 0
node 20 1 0 0
node 21 1 0 0
node 22 1 0 0
node 23 1 0 0
node 24 1 0 0
node 25 1 0 0
node 26 1 0 0
node 27 1 0 0
node 28 1 0 0
node 29 1 0 0
node 30 1 0 0
node 31 1 0 0
node 32 1 0 0
node 33 1 0 0
node 34 1 0 0
node 35 1 0 0
node 36 1 0 0
node 37 1 0 0
node 38 1 0 0
node 39 1 0 0
node 40 1 0 0
node 41 1 0 0
node 42 1 0 0
node 43 1 0 0
node 44 1 0 0
node 45 1 0 0
node 46 1 0 0
node 47 1 0 0
node 48 1 0 0
node 49 1 0 0
node 50 1 0 0
node 51 1 0 0
node 52 1 0 0
node 53 1 0 0
node 54 1 0 0
node 55 1 0 0
node 56 1 0 0
node 57 1 0 0
node 58 1 0 0
node 59 1 0 0
node 60 1 0 0
node 61 1 0 0
node 62 1 0 0
node 63 1 0 0
node 64 1 0 0
node 65 1 0 0
node 66 1 0 0
node 67 1 0 0
node 68 1 0 0
node 69 1 0 0
node 70 1 0 0
node 71 1 0 0
node 72 1 0 0
node 73 1 0 0
node 74 1 0 0
node 75 1 0 0
node 76 1 0 0
node 77 1 0 0
node 78 1 0 0
node 79 1 0 0
node 80 1 0 0
node 81 1 0 0
node 82 1 0 0
node 83 1 0 0
node 84 1 0 0
node 85 1 0 0
node 86 1 0 0
node 87 1 0 0
node 88 1 0 0
node 89 1 0 0
node 90 1 0 0
node 91 1 0 0
node 92 1 0 0
node 105 1 0 2
gene  1 2 5 0.8248927944367753 0 421.0 0.8248927944367753 1
gene  1 4 5 -0.11928877436682594 0 423.0 -0.11928877436682594 1
gene  1 3 6 0.23613854385157773 0 527.0 0.23613854385157773 1
gene  1 2 7 0.7678277461629835 0 631.0 0.7678277461629835 1
gene  1 3 7 0.16833731631645155 0 632.0 0.16833731631645155 1
gene  1 4 7 0.5965598160828646 0 633.0 0.5965598160828646 1
gene  1 3 8 0.29787301369804864 0 737.0 0.29787301369804864 1
gene  1 4 8 -0.15176142704302864 0 738.0 -0.15176142704302864 1
gene  1 4 9 -0.11913157255175821 0 843.0 -0.11913157255175821 1
gene  1 5 9 -0.8029984986321607 0 844.0 -0.8029984986321607 1
gene  1 7 9 0.537640100961276 0 846.0 0.537640100961276 1
gene  1 8 9 -0.5516511519003038 0 847.0 -0.5516511519003038 1
gene  1 4 10 0.3121458266240875 0 948.0 0.3121458266240875 1
gene  1 8 10 -0.9783359419707831 0 952.0 -0.9783359419707831 1
gene  1 1 11 -0.6775533592827953 0 1050.0 -0.6775533592827953 1
gene  1 4 11 -0.765952813750446 0 1053.0 -0.765952813750446 1
gene  1 6 11 0.5809497964810442 0 1055.0 0.5809497964810442 1
gene  1 7 11 0.8706908819974212 0 1056.0 0.8706908819974212 1
gene  1 8 11 0.27019788475791895 0 1057.0 0.27019788475791895 1
gene  1 10 11 0.8271417414920819 0 1059.0 0.8271417414920819 1
gene  1 2 12 -0.32031231760484546 0 1156.0 -0.32031231760484546 1
gene  1 3 12 0.5479933346978911 0 1157.0 0.5479933346978911 1
gene  1 4 12 -0.34975964082072364 0 1158.0 -0.34975964082072364 1
gene  1 7 12 -0.7738259762845406 0 1161.0 -0.7738259762845406 1
gene  1 8 12 -0.9633740686329858 0 1162.0 -0.9633740686329858 1
gene  1 5 13 -0.16848934191593234 0 1264.0 -0.16848934191593234 1
gene  1 7 13 -0.35798872454121844 0 1266.0 -0.35798872454121844 1
gene  1 8 13 -0.6512153000641288 0 1267.0 -0.6512153000641288 1
gene  1 9 13 0.054666658678817814 0 1268.0 0.054666658678817814 1
gene  1 10 13 0.8717821599457961 0 1269.0 0.8717821599457961 1
gene  1 11 13 0.8239515770716033 0 1270.0 0.8239515770716033 1
gene  1 12 13 -0.4471634769367294 0 1271.0 -0.4471634769367294 1
gene  1 6 14 -0.6361169162421886 0 1370.0 -0.6361169162421886 1
gene  1 7 14 0.9780677177052627 0 1371.0 0.9780677177052627 1
gene  1 10 14 -0.28882965449142883 0 1374.0 -0.28882965449142883 1
gene  1 12 14 0.6828922263236451 0 1376.0 0.6828922263236451 1
gene  1 13 14 -0.9286213665793229 0 1377.0 -0.9286213665793229 1
gene  1 2 15 0.23280221110989896 0 1471.0 0.23280221110989896 1
gene  1 4 15 -0.6479643740598128 0 1473.0 -0.6479643740598128 1
gene  1 6 15 0.10076070998396036 0 1475.0 0.10076070998396036 1
gene  1 9 15 0.7517400235760817 0 1478.0 0.7517400235760817 1
gene  1 11 15 0.7790657725654855 0 1480.0 0.7790657725654855 1
gene  1 12 15 -0.2766575957192551 0 1481.0 -0.2766575957192551 1
gene  1 1 16 -0.22157116540095212 0 1575.0 -0.22157116540095212 1
gene  1 3 16 -0.8654572594370482 0 1577.0 -0.8654572594370482 1
gene  1 4 16 -0.6118048268137332 0 1578.0 -0.6118048268137332 1
gene  1 6 16 -0.40551444391274694 0 1580.0 -0.40551444391274694 1
gene  1 8 16 0.3607855692037717 0 1582.0 0.3607855692037717 1
gene  1 10 16 -0.6995764754616368 0 1584.0 -0.6995764754616368 1
gene  1 11 16 -0.3077667055843456 0 1585.0 -0.3077667055843456 1
gene  1 12 16 -0.40383740902280163 0 1586.0 -0.40383740902280163 1
gene  1 13 16 0.11092352069084377 0 1587.0 0.11092352069084377 1
gene  1 14 16 0.4388229590804431 0 1588.0 0.4388229590804431 1
gene  1 2 17 -0.0324784224931729 0 1681.0 -0.0324784224931729 1
gene  1 3 17 -0.15109928362795366 0 1682.0 -0.15109928362795366 1
gene  1 5 17 -0.9149543418007745 0 1684.0 -0.9149543418007745 1
gene  1 9 17 -0.5076593880621192 0 1688.0 -0.5076593880621192 1
gene  1 10 17 0.010638558135763865 0 1689.0 0.010638558135763865 1
gene  1 11 17 0.059064692880736014 0 1690.0 0.059064692880736014 1
gene  1 12 17 -0.505692359760571 0 1691.0 -0.505692359760571 1
gene  1 15 17 0.422590425022185 0 1694.0 0.422590425022185 1
gene  1 16 17 -0.4777305039032891 0 1695.0 -0.4777305039032891 1
gene  1 2 18 -0.629795278599889 0 1786.0 -0.629795278599889 1
gene  1 3 18 -0.9864367628783405 0 1787.0 -0.9864367628783405 1
gene  1 5 18 -0.19763173072160234 0 1789.0 -0.19763173072160234 1
gene  1 7 18 0.3868499508299619 0 1791.0 0.3868499508299619 1
gene  1 9 18 -0.5735418634198898 0 1793.0 -0.5735418634198898 1
gene  1 15 18 -0.7301251338779328 0 1799.0 -0.7301251338779328 1
gene  1 16 18 -0.868810455116369 0 1800.0 -0.868810455116369 1
gene  1 17 18 -0.9633609921520142 0 1801.0 -0.9633609921520142 1
gene  1 1 19 -0.3882457695984207 0 1890.0 -0.3882457695984207 1
gene  1 4 19 -0.11422335265584527 0 1893.0 -0.11422335265584527 1
gene  1 5 19 -0.7860879533411738 0 1894.0 -0.7860879533411738 1
gene  1 8 19 0.32812784019600016 0 1897.0 0.32812784019600016 1
gene  1 9 19 0.13877145956675285 0 1898.0 0.13877145956675285 1
gene  1 10 19 -0.15696480643949462 0 1899.0 -0.15696480643949462 1
gene  1 11 19 0.5678638687225578 0 1900.0 0.5678638687225578 1
gene  1 12 19 0.45415541507545043 0 1901.0 0.45415541507545043 1
gene  1 14 19 0.7356717146223879 0 1903.0 0.7356717146223879 1
gene  1 15 19 -0.13225853435989354 0 1904.0 -0.13225853435989354 1
gene  1 16 19 -0.6580251179805758 0 1905.0 -0.6580251179805758 1
gene  1 18 19 -0.3973331588437301 0 1907.0 -0.3973331588437301 1
gene  1 14 20 0.8637244095471921 0 2008.0 0.8637244095471921 1
gene  1 15 20 0.2048691627024941 0 2009.0 0.2048691627024941 1
gene  1 17 20 -0.32400491492434136 0 2011.0 -0.32400491492434136 1
gene  1 19 20 -0.12480844706210092 0 2013.0 -0.12480844706210092 1
gene  1 2 21 -0.4600254252983492 0 2101.0 -0.4600254252983492 1
gene  1 4 21 0.517963236479649 0 2103.0 0.517963236479649 1
gene  1 8 21 -0.4140574454252497 0 2107.0 -0.4140574454252497 1
gene  1 10 21 0.03888777904360452 0 2109.0 0.03888777904360452 1
gene  1 13 21 -0.19730430682548927 0 2112.0 -0.19730430682548927 1
gene  1 16 21 -0.1898235646688866 0 2115.0 -0.1898235646688866 1
gene  1 17 21 0.902345988229441 0 2116.0 0.902345988229441 1
gene  1 1 22 0.0042217466676250925 0 2205.0 0.0042217466676250925 1
gene  1 2 22 -0.24444718619283523 0 2206.0 -0.24444718619283523 1
gene  1 3 22 0.5278412106100482 0 2207.0 0.5278412106100482 1
gene  1 5 22 0.012774853524734842 0 2209.0 0.012774853524734842 1
gene  1 6 22 -0.9846943797700631 0 2210.0 -0.9846943797700631 1
gene  1 7 22 0.9039440182628842 0 2211.0 0.9039440182628842 1
gene  1 9 22 -0.8725575799863298 0 2213.0 -0.8725575799863298 1
gene  1 15 22 -0.7699334258481284 0 2219.0 -0.7699334258481284 1
gene  1 16 22 0.29660247063703316 0 2220.0 0.29660247063703316 1
gene  1 17 22 0.8629743145967506 0 2221.0 0.8629743145967506 1
gene  1 18 22 -0.753683281144926 0 2222.0 -0.753683281144926 1
gene  1 1 23 -0.09310297557785119 0 2310.0 -0.09310297557785119 1
gene  1 4 23 -0.6084480558646562 0 2313.0 -0.6084480558646562 1
gene  1 6 23 0.3358340720067353 0 2315.0 0.3358340720067353 1
gene  1 7 23 0.11917140796977121 0 2316.0 0.11917140796977121 1
gene  1 10 23 -0.8639162674611209 0 2319.0 -0.8639162674611209 1
gene  1 11 23 0.6464218584941059 0 2320.0 0.6464218584941059 1
gene  1 13 23 0.46198989952911984 0 2322.0 0.46198989952911984 1
gene  1 15 23 -0.9174543479155063 0 2324.0 -0.9174543479155063 1
gene  1 17 23 0.7687479479074033 0 2326.0 0.7687479479074033 1
gene  1 18 23 0.689246837140823 0 2327.0 0.689246837140823 1
gene  1 20 23 0.8946964958473135 0 2329.0 0.8946964958473135 1
gene  1 22 23 0.13612305954716197 0 2331.0 0.13612305954716197 1
gene  1 1 24 -0.5739113090857493 0 2415.0 -0.5739113090857493 1
gene  1 2 24 0.306676034302074 0 2416.0 0.306676034302074 1
gene  1 4 24 0.5551891084866298 0 2418.0 0.5551891084866298 1
gene  1 6 24 -0.8762682785274778 0 2420.0 -0.8762682785274778 1
gene  1 7 24 -0.9377866878459425 0 2421.0 -0.9377866878459425 1
gene  1 8 24 -0.9721660756478798 0 2422.0 -0.9721660756478798 1
gene  1 9 24 0.31918235344206713 0 2423.0 0.31918235344206713 1
gene  1 11 24 0.2534229237795882 0 2425.0 0.2534229237795882 1
gene  1 12 24 -0.9235190391660725 0 2426.0 -0.9235190391660725 1
gene  1 13 24 -0.5810239446672693 0 2427.0 -0.5810239446672693 1
gene  1 14 24 -0.7748784742604569 0 2428.0 -0.7748784742604569 1
gene  1 15 24 0.9309257791261737 0 2429.0 0.9309257791261737 1
gene  1 17 24 0.2451891832901093 0 2431.0 0.2451891832901093 1
gene  1 18 24 0.05896891093730605 0 2432.0 0.05896891093730605 1
gene  1 19 24 -0.770884695593136 0 2433.0 -0.770884695593136 1
gene  1 20 24 0.2113272708906483 0 2434.0 0.2113272708906483 1
gene  1 21 24 -0.5775471504300178 0 2435.0 -0.5775471504300178 1
gene  1 22 24 -0.04026015944974182 0 2436.0 -0.04026015944974182 1
gene  1 23 24 0.9312140516264472 0 2437.0 0.9312140516264472 1
gene  1 1 25 -0.6223110978059444 0 2520.0 -0.6223110978059444 1
gene  1 2 25 0.27453646300649215 0 2521.0 0.27453646300649215 1
gene  1 4 25 0.5263835688726637 0 2523.0 0.5263835688726637 1
gene  1 10 25 -0.6226228842192613 0 2529.0 -0.6226228842192613 1
gene  1 11 25 -0.35601789057832023 0 2530.0 -0.35601789057832023 1
gene  1 12 25 0.7868493978282503 0 2531.0 0.7868493978282503 1
gene  1 13 25 -0.8622132082698369 0 2532.0 -0.8622132082698369 1
gene  1 14 25 -0.5335223110638516 0 2533.0 -0.5335223110638516 1
gene  1 16 25 0.2595135037605303 0 2535.0 0.2595135037605303 1
gene  1 18 25 0.3274241629114383 0 2537.0 0.3274241629114383 1
gene  1 19 25 0.7523856455050164 0 2538.0 0.7523856455050164 1
gene  1 20 25 0.3770686021369537 0 2539.0 0.3770686021369537 1
gene  1 22 25 -0.06870020797848231 0 2541.0 -0.06870020797848231 1
gene  1 23 25 0.7117893048265228 0 2542.0 0.7117893048265228 1
gene  1 24 25 0.21154274982145627 0 2543.0 0.21154274982145627 1
gene  1 2 26 -0.6241372265919763 0 2626.0 -0.6241372265919763 1
gene  1 3 26 0.45185971710997586 0 2627.0 0.45185971710997586 1
gene  1 6 26 0.27501813969373223 0 2630.0 0.27501813969373223 1
gene  1 11 26 0.732681263914648 0 2635.0 0.732681263914648 1
gene  1 15 26 -0.2619473487811833 0 2639.0 -0.2619473487811833 1
gene  1 16 26 -0.14024751365376686 0 2640.0 -0.14024751365376686 1
gene  1 17 26 -0.7381899816169774 0 2641.0 -0.7381899816169774 1
gene  1 18 26 -0.8620419023780869 0 2642.0 -0.8620419023780869 1
gene  1 19 26 -0.5652260566649528 0 2643.0 -0.5652260566649528 1
gene  1 20 26 0.9141139732468259 0 2644.0 0.9141139732468259 1
gene  1 21 26 0.4359554392048455 0 2645.0 0.4359554392048455 1
gene  1 22 26 -0.19009523260998118 0 2646.0 -0.19009523260998118 1
gene  1 23 26 -0.7599639565178566 0 2647.0 -0.7599639565178566 1
gene  1 24 26 -0.659964403295701 0 2648.0 -0.659964403295701 1
gene  1 25 26 -0.41623255810127446 0 2649.0 -0.41623255810127446 1
gene  1 2 27 -0.2689335192300232 0 2731.0 -0.2689335192300232 1
gene  1 4 27 -0.3028651833613495 0 2733.0 -0.3028651833613495 1
gene  1 7 27 -0.77992266997937 0 2736.0 -0.77992266997937 1
gene  1 9 27 0.24826023873920067 0 2738.0 0.24826023873920067 1
gene  1 11 27 0.5188255889597625 0 2740.0 0.5188255889597625 1
gene  1 13 27 0.6372640365257218 0 2742.0 0.6372640365257218 1
gene  1 14 27 -0.31223755140566645 0 2743.0 -0.31223755140566645 1
gene  1 15 27 -0.5131174054538552 0 2744.0 -0.5131174054538552 1
gene  1 16 27 -0.022282457928533894 0 2745.0 -0.022282457928533894 1
gene  1 18 27 -0.6101665724870531 0 2747.0 -0.6101665724870531 1
gene  1 23 27 0.593150580613708 0 2752.0 0.593150580613708 1
gene  1 24 27 0.6601706861083937 0 2753.0 0.6601706861083937 1
gene  1 26 27 0.5635341918715537 0 2755.0 0.5635341918715537 1
gene  1 1 28 0.9336580489700819 0 2835.0 0.9336580489700819 1
gene  1 2 28 -0.7687877629563233 0 2836.0 -0.7687877629563233 1
gene  1 3 28 0.37440403526688537 0 2837.0 0.37440403526688537 1
gene  1 4 28 -0.05502847701890379 0 2838.0 -0.05502847701890379 1
gene  1 5 28 0.8825445135430512 0 2839.0 0.8825445135430512 1
gene  1 6 28 -0.05007649429301242 0 2840.0 -0.05007649429301242 1
gene  1 10 28 -0.6657500314703071 0 2844.0 -0.6657500314703071 1
gene  1 12 28 0.9100007847975962 0 2846.0 0.9100007847975962 1
gene  1 13 28 0.8709980730353304 0 2847.0 0.8709980730353304 1
gene  1 15 28 -0.12693180156953365 0 2849.0 -0.12693180156953365 1
gene  1 17 28 -0.33679702668627565 0 2851.0 -0.33679702668627565 1
gene  1 19 28 -0.14027693916925743 0 2853.0 -0.14027693916925743 1
gene  1 20 28 -0.22325124909096628 0 2854.0 -0.22325124909096628 1
gene  1 21 28 0.4374859143494392 0 2855.0 0.4374859143494392 1
gene  1 22 28 0.255881005666167 0 2856.0 0.255881005666167 1
gene  1 24 28 -0.2595751235435534 0 2858.0 -0.2595751235435534 1
gene  1 25 28 -0.7230117572171297 0 2859.0 -0.7230117572171297 1
gene  1 27 28 -0.07570874741056943 0 2861.0 -0.07570874741056943 1
gene  1 4 29 0.3267465991752613 0 2943.0 0.3267465991752613 1
gene  1 5 29 -0.09236803342595545 0 2944.0 -0.09236803342595545 1
gene  1 6 29 -0.8160991462970064 0 2945.0 -0.8160991462970064 1
gene  1 7 29 -0.552518924063352 0 2946.0 -0.552518924063352 1
gene  1 12 29 0.24371931960129956 0 2951.0 0.24371931960129956 1
gene  1 14 29 -0.573920752363429 0 2953.0 -0.573920752363429 1
gene  1 17 29 0.3705622117086179 0 2956.0 0.3705622117086179 1
gene  1 19 29 -0.6719199420070113 0 2958.0 -0.6719199420070113 1
gene  1 20 29 0.01458484779170044 0 2959.0 0.01458484779170044 1
gene  1 22 29 0.684877009935494 0 2961.0 0.684877009935494 1
gene  1 26 29 0.9348264228668323 0 2965.0 0.9348264228668323 1
gene  1 1 30 -0.6997019210194372 0 3045.0 -0.6997019210194372 1
gene  1 6 30 0.955909086972967 0 3050.0 0.955909086972967 1
gene  1 8 30 0.00955067392229858 0 3052.0 0.00955067392229858 1
gene  1 9 30 0.5407160772949371 0 3053.0 0.5407160772949371 1
gene  1 11 30 -0.27707776015265784 0 3055.0 -0.27707776015265784 1
gene  1 13 30 0.9730189257832187 0 3057.0 0.9730189257832187 1
gene  1 15 30 -0.6160821052912036 0 3059.0 -0.6160821052912036 1
gene  1 17 30 -0.38485204231607306 0 3061.0 -0.38485204231607306 1
gene  1 19 30 -0.13891174703137543 0 3063.0 -0.13891174703137543 1
gene  1 25 30 0.6568389984303737 0 3069.0 0.6568389984303737 1
gene  1 26 30 0.2134136960248424 0 3070.0 0.2134136960248424 1
gene  1 27 30 -0.596166635849907 0 3071.0 -0.596166635849907 1
gene  1 1 31 -0.343953247597667 0 3150.0 -0.343953247597667 1
gene  1 3 31 -0.2116554089656425 0 3152.0 -0.2116554089656425 1
gene  1 4 31 0.8885678824586702 0 3153.0 0.8885678824586702 1
gene  1 5 31 0.7132047445711555 0 3154.0 0.7132047445711555 1
gene  1 6 31 0.10509139480026097 0 3155.0 0.10509139480026097 1
gene  1 9 31 0.792944942483592 0 3158.0 0.792944942483592 1
gene  1 10 31 0.3212976554086101 0 3159.0 0.3212976554086101 1
gene  1 11 31 -0.20347248544176932 0 3160.0 -0.20347248544176932 1
gene  1 15 31 0.34785814861746345 0 3164.0 0.34785814861746345 1
gene  1 18 31 0.2258307158658408 0 3167.0 0.2258307158658408 1
gene  1 19 31 -0.7245164258373614 0 3168.0 -0.7245164258373614 1
gene  1 21 31 0.15620029378608424 0 3170.0 0.15620029378608424 1
gene  1 23 31 0.23635686729213756 0 3172.0 0.23635686729213756 1
gene  1 25 31 0.7075411658575703 0 3174.0 0.7075411658575703 1
gene  1 28 31 -0.9900738790316588 0 3177.0 -0.9900738790316588 1
gene  1 30 31 -0.2642367465386183 0 3179.0 -0.2642367465386183 1
gene  1 1 32 -0.23299211082380789 0 3255.0 -0.23299211082380789 1
gene  1 2 32 0.3083740950379036 0 3256.0 0.3083740950379036 1
gene  1 4 32 0.6118701264746886 0 3258.0 0.6118701264746886 1
gene  1 7 32 0.02197990599284061 0 3261.0 0.02197990599284061 1
gene  1 8 32 0.9317045138366852 0 3262.0 0.9317045138366852 1
gene  1 9 32 0.3838887981772757 0 3263.0 0.3838887981772757 1
gene  1 11 32 0.0028147454355030854 0 3265.0 0.0028147454355030854 1
gene  1 12 32 0.1427653706318508 0 3266.0 0.1427653706318508 1
gene  1 13 32 -0.2881311490516091 0 3267.0 -0.2881311490516091 1
gene  1 14 32 -0.3270320282783128 0 3268.0 -0.3270320282783128 1
gene  1 15 32 0.26893337190743494 0 3269.0 0.26893337190743494 1
gene  1 16 32 -0.02631194161329975 0 3270.0 -0.02631194161329975 1
gene  1 17 32 -0.8128494288305848 0 3271.0 -0.8128494288305848 1
gene  1 22 32 -0.025187170934370284 0 3276.0 -0.025187170934370284 1
gene  1 24 32 -0.4125740215117022 0 3278.0 -0.4125740215117022 1
gene  1 29 32 0.4669076322035618 0 3283.0 0.4669076322035618 1
gene  1 31 32 0.37862904404543796 0 3285.0 0.37862904404543796 1
gene  1 2 33 -0.4681330448461307 0 3361.0 -0.4681330448461307 1
gene  1 3 33 -0.22611314561677065 0 3362.0 -0.22611314561677065 1
gene  1 4 33 -0.015097984123465635 0 3363.0 -0.015097984123465635 1
gene  1 6 33 -0.08679454938514197 0 3365.0 -0.08679454938514197 1
gene  1 10 33 0.8748993766886458 0 3369.0 0.8748993766886458 1
gene  1 11 33 -0.8361278925531587 0 3370.0 -0.8361278925531587 1
gene  1 12 33 -0.6156956304212343 0 3371.0 -0.6156956304212343 1
gene  1 13 33 0.9431479932827611 0 3372.0 0.9431479932827611 1
gene  1 14 33 -0.588675276557435 0 3373.0 -0.588675276557435 1
gene  1 15 33 -0.3533812814201285 0 3374.0 -0.3533812814201285 1
gene  1 19 33 0.5158137190030875 0 3378.0 0.5158137190030875 1
gene  1 20 33 0.19655184467153597 0 3379.0 0.19655184467153597 1
gene  1 21 33 0.6193009679566616 0 3380.0 0.6193009679566616 1
gene  1 23 33 -0.3732318900213307 0 3382.0 -0.3732318900213307 1
gene  1 26 33 0.438063874849027 0 3385.0 0.438063874849027 1
gene  1 27 33 0.11373099419938237 0 3386.0 0.11373099419938237 1
gene  1 28 33 0.8043689906536966 0 3387.0 0.8043689906536966 1
gene  1 3 34 -0.010673833780219244 0 3467.0 -0.010673833780219244 1
gene  1 6 34 0.6626536675545236 0 3470.0 0.6626536675545236 1
gene  1 7 34 -0.7070060131647551 0 3471.0 -0.7070060131647551 1
gene  1 8 34 -0.99636653149759 0 3472.0 -0.99636653149759 1
gene  1 10 34 0.7099568762346372 0 3474.0 0.7099568762346372 1
gene  1 11 34 -0.7713440049590581 0 3475.0 -0.7713440049590581 1
gene  1 12 34 0.7367730993907688 0 3476.0 0.7367730993907688 1
gene  1 15 34 -0.7702688367106522 0 3479.0 -0.7702688367106522 1
gene  1 16 34 0.5658260885174501 0 3480.0 0.5658260885174501 1
gene  1 17 34 -0.23643821894321226 0 3481.0 -0.23643821894321226 1
gene  1 18 34 -0.9012322373462659 0 3482.0 -0.9012322373462659 1
gene  1 20 34 0.8610857600300534 0 3484.0 0.8610857600300534 1
gene  1 21 34 -0.26642533173955074 0 3485.0 -0.26642533173955074 1
gene  1 22 34 -0.9463936496280738 0 3486.0 -0.9463936496280738 1
gene  1 30 34 -0.9601443573470596 0 3494.0 -0.9601443573470596 1
gene  1 31 34 0.783482178488065 0 3495.0 0.783482178488065 1
gene  1 4 35 0.8107743898077573 0 3573.0 0.8107743898077573 1
gene  1 6 35 -0.8503804680146808 0 3575.0 -0.8503804680146808 1
gene  1 10 35 0.05964945083563322 0 3579.0 0.05964945083563322 1
gene  1 12 35 -0.927027030082935 0 3581.0 -0.927027030082935 1
gene  1 14 35 0.7697768283189558 0 3583.0 0.7697768283189558 1
gene  1 18 35 -0.6781329065565629 0 3587.0 -0.6781329065565629 1
gene  1 20 35 0.4081622720095738 0 3589.0 0.4081622720095738 1
gene  1 22 35 0.3540406813239262 0 3591.0 0.3540406813239262 1
gene  1 27 35 0.31163873507517303 0 3596.0 0.31163873507517303 1
gene  1 28 35 0.696599210387811 0 3597.0 0.696599210387811 1
gene  1 29 35 0.8602112173359449 0 3598.0 0.8602112173359449 1
gene  1 31 35 0.7174433949767605 0 3600.0 0.7174433949767605 1
gene  1 32 35 -0.37244893723621286 0 3601.0 -0.37244893723621286 1
gene  1 34 35 0.5459254672361108 0 3603.0 0.5459254672361108 1
gene  1 1 36 -0.791307186906601 0 3675.0 -0.791307186906601 1
gene  1 3 36 0.25037473423954826 0 3677.0 0.25037473423954826 1
gene  1 10 36 -0.9519330192496448 0 3684.0 -0.9519330192496448 1
gene  1 12 36 -0.7458035617493932 0 3686.0 -0.7458035617493932 1
gene  1 16 36 0.7724061842785496 0 3690.0 0.7724061842785496 1
gene  1 17 36 0.9164419896469087 0 3691.0 0.9164419896469087 1
gene  1 24 36 0.39386873634970154 0 3698.0 0.39386873634970154 1
gene  1 25 36 -0.6676556251408214 0 3699.0 -0.6676556251408214 1
gene  1 26 36 -0.09151940958043414 0 3700.0 -0.09151940958043414 1
gene  1 27 36 0.2299312933100962 0 3701.0 0.2299312933100962 1
gene  1 29 36 -0.8705324915243534 0 3703.0 -0.8705324915243534 1
gene  1 30 36 -0.8638640402796876 0 3704.0 -0.8638640402796876 1
gene  1 31 36 -0.721160810668184 0 3705.0 -0.721160810668184 1
gene  1 32 36 -0.31171478808567454 0 3706.0 -0.31171478808567454 1
gene  1 33 36 -0.940406517847876 0 3707.0 -0.940406517847876 1
gene  1 1 37 0.1645169256020964 0 3780.0 0.1645169256020964 1
gene  1 3 37 -0.22661148380489549 0 3782.0 -0.22661148380489549 1
gene  1 5 37 0.713327514637909 0 3784.0 0.713327514637909 1
gene  1 8 37 0.6571610768641343 0 3787.0 0.6571610768641343 1
gene  1 10 37 0.9740236707519327 0 3789.0 0.9740236707519327 1
gene  1 13 37 0.6688071733427724 0 3792.0 0.6688071733427724 1
gene  1 16 37 0.865055053887936 0 3795.0 0.865055053887936 1
gene  1 17 37 -0.05395231204270634 0 3796.0 -0.05395231204270634 1
gene  1 20 37 -0.6004414658198791 0 3799.0 -0.6004414658198791 1
gene  1 21 37 0.3287755921313288 0 3800.0 0.3287755921313288 1
gene  1 22 37 -0.552034162670343 0 3801.0 -0.552034162670343 1
gene  1 25 37 -0.04804354879701522 0 3804.0 -0.04804354879701522 1
gene  1 26 37 -0.15229164504133108 0 3805.0 -0.15229164504133108 1
gene  1 29 37 -0.10409900784152137 0 3808.0 -0.10409900784152137 1
gene  1 31 37 -0.13536035028711013 0 3810.0 -0.13536035028711013 1
gene  1 1 38 0.6537329019668042 0 3885.0 0.6537329019668042 1
gene  1 5 38 -0.7607636340859348 0 3889.0 -0.7607636340859348 1
gene  1 6 38 -0.47235992082422984 0 3890.0 -0.47235992082422984 1
gene  1 7 38 0.7749340687170346 0 3891.0 0.7749340687170346 1
gene  1 13 38 0.46300074369091837 0 3897.0 0.46300074369091837 1
gene  1 20 38 0.39610158967306397 0 3904.0 0.39610158967306397 1
gene  1 21 38 -0.7368294412972043 0 3905.0 -0.7368294412972043 1
gene  1 24 38 -0.31104974737351077 0 3908.0 -0.31104974737351077 1
gene  1 26 38 0.3689950886787624 0 3910.0 0.3689950886787624 1
gene  1 30 38 0.9091257808426418 0 3914.0 0.9091257808426418 1
gene  1 31 38 -0.8550343523768883 0 3915.0 -0.8550343523768883 1
gene  1 34 38 0.7782028886224049 0 3918.0 0.7782028886224049 1
gene  1 35 38 -0.5426489174866553 0 3919.0 -0.5426489174866553 1
gene  1 37 38 0.7526051310240323 0 3921.0 0.7526051310240323 1
gene  1 5 39 0.9749240954313892 0 3994.0 0.9749240954313892 1
gene  1 6 39 -0.4847990911346114 0 3995.0 -0.4847990911346114 1
gene  1 8 39 -0.4119388562970723 0 3997.0 -0.4119388562970723 1
gene  1 11 39 -0.029797371185597776 0 4000.0 -0.029797371185597776 1
gene  1 15 39 -0.07416052267845363 0 4004.0 -0.07416052267845363 1
gene  1 19 39 -0.8458104583124934 0 4008.0 -0.8458104583124934 1
gene  1 20 39 0.3804965464939688 0 4009.0 0.3804965464939688 1
gene  1 21 39 0.5330109116016521 0 4010.0 0.5330109116016521 1
gene  1 23 39 0.007953958980112308 0 4012.0 0.007953958980112308 1
gene  1 25 39 -0.5232250587377922 0 4014.0 -0.5232250587377922 1
gene  1 30 39 0.9107916596461288 0 4019.0 0.9107916596461288 1
gene  1 31 39 -0.5244934298284698 0 4020.0 -0.5244934298284698 1
gene  1 32 39 -0.2466266684375904 0 4021.0 -0.2466266684375904 1
gene  1 33 39 0.1545433618315153 0 4022.0 0.1545433618315153 1
gene  1 35 39 0.3996153462139649 0 4024.0 0.3996153462139649 1
gene  1 36 39 0.47316749969956606 0 4025.0 0.47316749969956606 1
gene  1 1 40 0.5368320413867197 0 4095.0 0.5368320413867197 1
gene  1 2 40 0.9476251889107904 0 4096.0 0.9476251889107904 1
gene  1 4 40 0.6121730312640156 0 4098.0 0.6121730312640156 1
gene  1 6 40 -0.3884420636456365 0 4100.0 -0.3884420636456365 1
gene  1 7 40 -0.2956031251021146 0 4101.0 -0.2956031251021146 1
gene  1 8 40 -0.5277997345655534 0 4102.0 -0.5277997345655534 1
gene  1 9 40 -0.797194880461645 0 4103.0 -0.797194880461645 1
gene  1 10 40 -0.9281289534242154 0 4104.0 -0.9281289534242154 1
gene  1 12 40 -0.3740287522575738 0 4106.0 -0.3740287522575738 1
gene  1 14 40 0.6491075774969621 0 4108.0 0.6491075774969621 1
gene  1 15 40 0.5699066313561632 0 4109.0 0.5699066313561632 1
gene  1 16 40 -0.03986462309923311 0 4110.0 -0.03986462309923311 1
gene  1 19 40 -0.771619697039407 0 4113.0 -0.771619697039407 1
gene  1 21 40 -0.15651023536222142 0 4115.0 -0.15651023536222142 1
gene  1 25 40 -0.17267270669255474 0 4119.0 -0.17267270669255474 1
gene  1 27 40 -0.5097294249297493 0 4121.0 -0.5097294249297493 1
gene  1 29 40 0.29196110282131005 0 4123.0 0.29196110282131005 1
gene  1 30 40 -0.012420630184362236 0 4124.0 -0.012420630184362236 1
gene  1 32 40 0.36419434175023124 0 4126.0 0.36419434175023124 1
gene  1 36 40 -0.7201966703223589 0 4130.0 -0.7201966703223589 1
gene  1 37 40 -0.08806118664155849 0 4131.0 -0.08806118664155849 1
gene  1 38 40 0.3033897221209272 0 4132.0 0.3033897221209272 1
gene  1 2 41 0.36626511863195577 0 4201.0 0.36626511863195577 1
gene  1 3 41 -0.9912335904178965 0 4202.0 -0.9912335904178965 1
gene  1 5 41 0.6192808074109543 0 4204.0 0.6192808074109543 1
gene  1 6 41 0.1175195262796297 0 4205.0 0.1175195262796297 1
gene  1 7 41 -0.540575090998119 0 4206.0 -0.540575090998119 1
gene  1 8 41 -0.7192916745382053 0 4207.0 -0.7192916745382053 1
gene  1 14 41 0.032622852547863346 0 4213.0 0.032622852547863346 1
gene  1 16 41 0.6483258536132546 0 4215.0 0.6483258536132546 1
gene  1 17 41 0.6646062056855946 0 4216.0 0.6646062056855946 1
gene  1 22 41 -0.8119176506477637 0 4221.0 -0.8119176506477637 1
gene  1 25 41 0.17560718807942577 0 4224.0 0.17560718807942577 1
gene  1 26 41 -0.1263830464114719 0 4225.0 -0.1263830464114719 1
gene  1 28 41 0.3223489282135229 0 4227.0 0.3223489282135229 1
gene  1 32 41 -0.6105131787177247 0 4231.0 -0.6105131787177247 1
gene  1 34 41 0.8664630073994389 0 4233.0 0.8664630073994389 1
gene  1 37 41 -0.4180630346516915 0 4236.0 -0.4180630346516915 1
gene  1 39 41 0.37883591013730544 0 4238.0 0.37883591013730544 1
gene  1 40 41 0.11697544199131804 0 4239.0 0.11697544199131804 1
gene  1 1 42 -0.19482075513037678 0 4305.0 -0.19482075513037678 1
gene  1 4 42 -0.7448207673961637 0 4308.0 -0.7448207673961637 1
gene  1 6 42 0.2331543635221207 0 4310.0 0.2331543635221207 1
gene  1 7 42 0.20503576036958393 0 4311.0 0.20503576036958393 1
gene  1 8 42 -0.24173493032273063 0 4312.0 -0.24173493032273063 1
gene  1 11 42 0.7724408255018663 0 4315.0 0.7724408255018663 1
gene  1 12 42 -0.3678603870604109 0 4316.0 -0.3678603870604109 1
gene  1 14 42 0.964432998242938 0 4318.0 0.964432998242938 1
gene  1 16 42 0.915353717196669 0 4320.0 0.915353717196669 1
gene  1 17 42 -0.7749869103242227 0 4321.0 -0.7749869103242227 1
gene  1 19 42 0.06814519131638341 0 4323.0 0.06814519131638341 1
gene  1 20 42 -0.05283889439478129 0 4324.0 -0.05283889439478129 1
gene  1 23 42 0.5558758464652443 0 4327.0 0.5558758464652443 1
gene  1 26 42 -0.09229798084922669 0 4330.0 -0.09229798084922669 1
gene  1 28 42 -0.36564072012318694 0 4332.0 -0.36564072012318694 1
gene  1 31 42 -0.12079378132947416 0 4335.0 -0.12079378132947416 1
gene  1 33 42 0.5129840492955343 0 4337.0 0.5129840492955343 1
gene  1 34 42 -0.24404423730294722 0 4338.0 -0.24404423730294722 1
gene  1 35 42 -0.6727207167553269 0 4339.0 -0.6727207167553269 1
gene  1 38 42 -0.029791875006886515 0 4342.0 -0.029791875006886515 1
gene  1 39 42 0.21747612561647434 0 4343.0 0.21747612561647434 1
gene  1 40 42 -0.8307549401510234 0 4344.0 -0.8307549401510234 1
gene  1 3 43 -0.976249425692987 0 4412.0 -0.976249425692987 1
gene  1 7 43 0.7509264253230096 0 4416.0 0.7509264253230096 1
gene  1 9 43 0.01745992231752369 0 4418.0 0.01745992231752369 1
gene  1 10 43 0.4078974953709842 0 4419.0 0.4078974953709842 1
gene  1 11 43 0.2270207247474434 0 4420.0 0.2270207247474434 1
gene  1 12 43 -0.8558917750790771 0 4421.0 -0.8558917750790771 1
gene  1 16 43 -0.6237467315129643 0 4425.0 -0.6237467315129643 1
gene  1 17 43 0.44993885982853166 0 4426.0 0.44993885982853166 1
gene  1 21 43 0.9240660569729607 0 4430.0 0.9240660569729607 1
gene  1 24 43 0.28524506696473617 0 4433.0 0.28524506696473617 1
gene  1 25 43 0.7888520624272584 0 4434.0 0.7888520624272584 1
gene  1 27 43 0.08614285063253191 0 4436.0 0.08614285063253191 1
gene  1 28 43 0.19240500510712588 0 4437.0 0.19240500510712588 1
gene  1 32 43 0.2891314305412994 0 4441.0 0.2891314305412994 1
gene  1 33 43 0.4435487582613876 0 4442.0 0.4435487582613876 1
gene  1 35 43 0.6693168588372373 0 4444.0 0.6693168588372373 1
gene  1 38 43 -0.5888669670020543 0 4447.0 -0.5888669670020543 1
gene  1 41 43 0.8185222518054281 0 4450.0 0.8185222518054281 1
gene  1 2 44 -0.032850967112153406 0 4516.0 -0.032850967112153406 1
gene  1 3 44 -0.2853557833031308 0 4517.0 -0.2853557833031308 1
gene  1 5 44 -0.75289478092551 0 4519.0 -0.75289478092551 1
gene  1 6 44 0.23263708813862216 0 4520.0 0.23263708813862216 1
gene  1 7 44 -0.0626438918827612 0 4521.0 -0.0626438918827612 1
gene  1 9 44 0.799655027793076 0 4523.0 0.799655027793076 1
gene  1 10 44 -0.016696447143760285 0 4524.0 -0.016696447143760285 1
gene  1 11 44 0.5597128788120587 0 4525.0 0.5597128788120587 1
gene  1 12 44 -0.7062974472905437 0 4526.0 -0.7062974472905437 1
gene  1 13 44 -0.9125672155869772 0 4527.0 -0.9125672155869772 1
gene  1 15 44 0.4800606201957358 0 4529.0 0.4800606201957358 1
gene  1 16 44 -0.07963065376532419 0 4530.0 -0.07963065376532419 1
gene  1 17 44 0.7792701594877588 0 4531.0 0.7792701594877588 1
gene  1 18 44 0.3282218402459648 0 4532.0 0.3282218402459648 1
gene  1 19 44 -0.4772894848734943 0 4533.0 -0.4772894848734943 1
gene  1 21 44 0.11095692795650014 0 4535.0 0.11095692795650014 1
gene  1 22 44 -0.0050541471288322315 0 4536.0 -0.0050541471288322315 1
gene  1 26 44 -0.5692534475013076 0 4540.0 -0.5692534475013076 1
gene  1 27 44 0.06410042954275097 0 4541.0 0.06410042954275097 1
gene  1 28 44 -0.3014348510519915 0 4542.0 -0.3014348510519915 1
gene  1 31 44 0.5383423180551237 0 4545.0 0.5383423180551237 1
gene  1 33 44 -0.1562067357206447 0 4547.0 -0.1562067357206447 1
gene  1 34 44 0.23744956599276335 0 4548.0 0.23744956599276335 1
gene  1 35 44 0.7064678810189825 0 4549.0 0.7064678810189825 1
gene  1 40 44 -0.43589689595980285 0 4554.0 -0.43589689595980285 1
gene  1 2 45 0.9483925823449613 0 4621.0 0.9483925823449613 1
gene  1 3 45 -0.2868578357095999 0 4622.0 -0.2868578357095999 1
gene  1 4 45 0.5581538920266742 0 4623.0 0.5581538920266742 1
gene  1 9 45 -0.6615219259987759 0 4628.0 -0.6615219259987759 1
gene  1 14 45 -0.9684256273185509 0 4633.0 -0.9684256273185509 1
gene  1 17 45 -0.5371667768331897 0 4636.0 -0.5371667768331897 1
gene  1 19 45 0.9883023932747076 0 4638.0 0.9883023932747076 1
gene  1 20 45 0.25242437876122914 0 4639.0 0.25242437876122914 1
gene  1 21 45 0.2331164771154839 0 4640.0 0.2331164771154839 1
gene  1 22 45 -0.9642895295475876 0 4641.0 -0.9642895295475876 1
gene  1 23 45 0.4798262217984285 0 4642.0 0.4798262217984285 1
gene  1 24 45 -0.16809731177914278 0 4643.0 -0.16809731177914278 1
gene  1 25 45 0.13823703795795161 0 4644.0 0.13823703795795161 1
gene  1 29 45 0.7913956072506101 0 4648.0 0.7913956072506101 1
gene  1 33 45 -0.4360466165202608 0 4652.0 -0.4360466165202608 1
gene  1 35 45 -0.7820554446613731 0 4654.0 -0.7820554446613731 1
gene  1 37 45 -0.1152137776840858 0 4656.0 -0.1152137776840858 1
gene  1 39 45 -0.3563981905074297 0 4658.0 -0.3563981905074297 1
gene  1 40 45 0.7277603021827288 0 4659.0 0.7277603021827288 1
gene  1 43 45 -0.8880587666765188 0 4662.0 -0.8880587666765188 1
gene  1 44 45 -0.3371939688044876 0 4663.0 -0.3371939688044876 1
gene  1 6 46 0.7952934425691743 0 4730.0 0.7952934425691743 1
gene  1 10 46 0.2012425871015152 0 4734.0 0.2012425871015152 1
gene  1 11 46 -0.8870032015140226 0 4735.0 -0.8870032015140226 1
gene  1 12 46 -0.6152162343357653 0 4736.0 -0.6152162343357653 1
gene  1 16 46 0.5319047862825598 0 4740.0 0.5319047862825598 1
gene  1 17 46 -0.0014277548871635126 0 4741.0 -0.0014277548871635126 1
gene  1 20 46 0.6439498799406767 0 4744.0 0.6439498799406767 1
gene  1 21 46 0.6293083153778606 0 4745.0 0.6293083153778606 1
gene  1 24 46 -0.18435435167527026 0 4748.0 -0.18435435167527026 1
gene  1 27 46 -0.8249180909238336 0 4751.0 -0.8249180909238336 1
gene  1 28 46 0.48668596979410805 0 4752.0 0.48668596979410805 1
gene  1 32 46 0.79302709136134 0 4756.0 0.79302709136134 1
gene  1 33 46 -0.3829425576860336 0 4757.0 -0.3829425576860336 1
gene  1 2 47 0.3057030712034021 0 4831.0 0.3057030712034021 1
gene  1 3 47 -0.322021199198805 0 4832.0 -0.322021199198805 1
gene  1 6 47 -0.2839058665500592 0 4835.0 -0.2839058665500592 1
gene  1 9 47 -0.593255180728058 0 4838.0 -0.593255180728058 1
gene  1 10 47 0.13787201829497153 0 4839.0 0.13787201829497153 1
gene  1 12 47 0.7223546875105821 0 4841.0 0.7223546875105821 1
gene  1 17 47 -0.6890267706385449 0 4846.0 -0.6890267706385449 1
gene  1 18 47 -0.4118123645550156 0 4847.0 -0.4118123645550156 1
gene  1 19 47 -0.03640251697425034 0 4848.0 -0.03640251697425034 1
gene  1 25 47 -0.6659074862547556 0 4854.0 -0.6659074862547556 1
gene  1 26 47 -0.8389020796876385 0 4855.0 -0.8389020796876385 1
gene  1 28 47 0.8683639504879171 0 4857.0 0.8683639504879171 1
gene  1 31 47 -0.5584063471209476 0 4860.0 -0.5584063471209476 1
gene  1 32 47 -0.9667875391553413 0 4861.0 -0.9667875391553413 1
gene  1 33 47 -0.4303177258921165 0 4862.0 -0.4303177258921165 1
gene  1 35 47 -0.05734681929126351 0 4864.0 -0.05734681929126351 1
gene  1 40 47 -0.27898938192241507 0 4869.0 -0.27898938192241507 1
gene  1 43 47 0.1074954635022708 0 4872.0 0.1074954635022708 1
gene  1 44 47 0.08792962675637217 0 4873.0 0.08792962675637217 1
gene  1 46 47 0.31874334030464335 0 4875.0 0.31874334030464335 1
gene  1 1 48 0.010984932497671074 0 4935.0 0.010984932497671074 1
gene  1 3 48 -0.47272217745238887 0 4937.0 -0.47272217745238887 1
gene  1 4 48 0.37524700806044853 0 4938.0 0.37524700806044853 1
gene  1 5 48 -0.19268900898092323 0 4939.0 -0.19268900898092323 1
gene  1 11 48 0.14597640408942825 0 4945.0 0.14597640408942825 1
gene  1 15 48 -0.8998440809232182 0 4949.0 -0.8998440809232182 1
gene  1 18 48 -0.6501010272251752 0 4952.0 -0.6501010272251752 1
gene  1 20 48 0.33911484687120674 0 4954.0 0.33911484687120674 1
gene  1 21 48 -0.7918385023372082 0 4955.0 -0.7918385023372082 1
gene  1 22 48 -0.013266554345696568 0 4956.0 -0.013266554345696568 1
gene  1 23 48 0.4515713654888144 0 4957.0 0.4515713654888144 1
gene  1 26 48 0.5092986826425104 0 4960.0 0.5092986826425104 1
gene  1 27 48 -0.002970443848177351 0 4961.0 -0.002970443848177351 1
gene  1 29 48 -0.23596460389765084 0 4963.0 -0.23596460389765084 1
gene  1 30 48 0.6102905587464829 0 4964.0 0.6102905587464829 1
gene  1 32 48 -0.8056318670235132 0 4966.0 -0.8056318670235132 1
gene  1 34 48 0.9038240811919348 0 4968.0 0.9038240811919348 1
gene  1 35 48 0.3958496914593477 0 4969.0 0.3958496914593477 1
gene  1 36 48 -0.469606618795239 0 4970.0 -0.469606618795239 1
gene  1 37 48 -0.8037571796325592 0 4971.0 -0.8037571796325592 1
gene  1 38 48 0.0514687810811848 0 4972.0 0.0514687810811848 1
gene  1 40 48 0.9249632576180576 0 4974.0 0.9249632576180576 1
gene  1 41 48 0.3906718821717211 0 4975.0 0.3906718821717211 1
gene  1 42 48 -0.431443067198356 0 4976.0 -0.431443067198356 1
gene  1 46 48 -0.6728864266656179 0 4980.0 -0.6728864266656179 1
gene  1 1 49 0.22834411741203142 0 5040.0 0.22834411741203142 1
gene  1 2 49 -0.16142909419760698 0 5041.0 -0.16142909419760698 1
gene  1 7 49 0.704449729309434 0 5046.0 0.704449729309434 1
gene  1 8 49 -0.9484298248860118 0 5047.0 -0.9484298248860118 1
gene  1 11 49 -0.553494436949925 0 5050.0 -0.553494436949925 1
gene  1 13 49 0.5308487363729488 0 5052.0 0.5308487363729488 1
gene  1 14 49 -0.7739100735809272 0 5053.0 -0.7739100735809272 1
gene  1 21 49 -0.8422576534255175 0 5060.0 -0.8422576534255175 1
gene  1 22 49 0.7818114497129238 0 5061.0 0.7818114497129238 1
gene  1 28 49 0.010674395430645078 0 5067.0 0.010674395430645078 1
gene  1 29 49 -0.11446214687979128 0 5068.0 -0.11446214687979128 1
gene  1 30 49 0.9483059268635562 0 5069.0 0.9483059268635562 1
gene  1 39 49 -0.8856678544344423 0 5078.0 -0.8856678544344423 1
gene  1 43 49 -0.414267960265179 0 5082.0 -0.414267960265179 1
gene  1 46 49 -0.8089760445031 0 5085.0 -0.8089760445031 1
gene  1 1 50 0.8180710654118116 0 5145.0 0.8180710654118116 1
gene  1 3 50 -0.2288938482746351 0 5147.0 -0.2288938482746351 1
gene  1 5 50 0.594703913520608 0 5149.0 0.594703913520608 1
gene  1 7 50 0.6050359868421962 0 5151.0 0.6050359868421962 1
gene  1 10 50 0.45263923251957616 0 5154.0 0.45263923251957616 1
gene  1 11 50 0.5484980216531677 0 5155.0 0.5484980216531677 1
gene  1 14 50 -0.1827058816723519 0 5158.0 -0.1827058816723519 1
gene  1 16 50 -0.9305651878812917 0 5160.0 -0.9305651878812917 1
gene  1 17 50 -0.3113531434326977 0 5161.0 -0.3113531434326977 1
gene  1 19 50 -0.9401935375957731 0 5163.0 -0.9401935375957731 1
gene  1 22 50 0.16188778865808828 0 5166.0 0.16188778865808828 1
gene  1 29 50 -0.1706847397202249 0 5173.0 -0.1706847397202249 1
gene  1 30 50 0.8454862049071661 0 5174.0 0.8454862049071661 1
gene  1 31 50 -0.8126803324616261 0 5175.0 -0.8126803324616261 1
gene  1 34 50 -0.1284699705907555 0 5178.0 -0.1284699705907555 1
gene  1 35 50 0.894025198408339 0 5179.0 0.894025198408339 1
gene  1 36 50 -0.2863980834814427 0 5180.0 -0.2863980834814427 1
gene  1 37 50 0.8930533699311276 0 5181.0 0.8930533699311276 1
gene  1 38 50 -0.5114778883963376 0 5182.0 -0.5114778883963376 1
gene  1 39 50 0.1525811515467902 0 5183.0 0.1525811515467902 1
gene  1 41 50 0.07985021127120895 0 5185.0 0.07985021127120895 1
gene  1 42 50 -0.5099226395854153 0 5186.0 -0.5099226395854153 1
gene  1 43 50 -0.7455600019649581 0 5187.0 -0.7455600019649581 1
gene  1 45 50 0.6025083391045366 0 5189.0 0.6025083391045366 1
gene  1 49 50 0.8843169758043834 0 5193.0 0.8843169758043834 1
gene  1 3 51 -0.5879714557236014 0 5252.0 -0.5879714557236014 1
gene  1 4 51 0.932022352618212 0 5253.0 0.932022352618212 1
gene  1 5 51 -0.7510834158164497 0 5254.0 -0.7510834158164497 1
gene  1 6 51 0.6609655394155866 0 5255.0 0.6609655394155866 1
gene  1 7 51 -0.8282572560662931 0 5256.0 -0.8282572560662931 1
gene  1 8 51 0.3563840833905566 0 5257.0 0.3563840833905566 1
gene  1 16 51 -0.7338188587066512 0 5265.0 -0.7338188587066512 1
gene  1 18 51 0.8430937372823816 0 5267.0 0.8430937372823816 1
gene  1 21 51 0.17745363582911866 0 5270.0 0.17745363582911866 1
gene  1 27 51 -0.9864986859157816 0 5276.0 -0.9864986859157816 1
gene  1 28 51 -0.3812761323863426 0 5277.0 -0.3812761323863426 1
gene  1 30 51 0.4466907187245428 0 5279.0 0.4466907187245428 1
gene  1 31 51 -0.8957028345181557 0 5280.0 -0.8957028345181557 1
gene  1 32 51 0.8097264302241282 0 5281.0 0.8097264302241282 1
gene  1 33 51 0.022637809078796756 0 5282.0 0.022637809078796756 1
gene  1 34 51 0.8817686539815068 0 5283.0 0.8817686539815068 1
gene  1 36 51 -0.7904270307693789 0 5285.0 -0.7904270307693789 1
gene  1 37 51 0.3083199311773752 0 5286.0 0.3083199311773752 1
gene  1 38 51 0.1771595934048127 0 5287.0 0.1771595934048127 1
gene  1 43 51 -0.053432243289392 0 5292.0 -0.053432243289392 1
gene  1 44 51 0.7003417689522994 0 5293.0 0.7003417689522994 1
gene  1 50 51 0.16851578891951602 0 5299.0 0.16851578891951602 1
gene  1 1 52 -0.5491691086099689 0 5355.0 -0.5491691086099689 1
gene  1 2 52 -0.5564093319967166 0 5356.0 -0.5564093319967166 1
gene  1 3 52 -0.282409562269232 0 5357.0 -0.282409562269232 1
gene  1 6 52 0.29209409606269154 0 5360.0 0.29209409606269154 1
gene  1 7 52 -0.22062854511107943 0 5361.0 -0.22062854511107943 1
gene  1 8 52 0.6179352033913034 0 5362.0 0.6179352033913034 1
gene  1 10 52 -0.0013232136919566484 0 5364.0 -0.0013232136919566484 1
gene  1 14 52 0.5725442649920948 0 5368.0 0.5725442649920948 1
gene  1 16 52 -0.6401330523325385 0 5370.0 -0.6401330523325385 1
gene  1 17 52 -0.22931805255966475 0 5371.0 -0.22931805255966475 1
gene  1 23 52 -0.8574488074552541 0 5377.0 -0.8574488074552541 1
gene  1 24 52 -0.6264943029462753 0 5378.0 -0.6264943029462753 1
gene  1 26 52 0.5606398611398936 0 5380.0 0.5606398611398936 1
gene  1 27 52 -0.2209395622521525 0 5381.0 -0.2209395622521525 1
gene  1 28 52 0.46049779987328776 0 5382.0 0.46049779987328776 1
gene  1 30 52 -0.5716385380363347 0 5384.0 -0.5716385380363347 1
gene  1 32 52 0.9616667085563 0 5386.0 0.9616667085563 1
gene  1 35 52 -0.020463624180634188 0 5389.0 -0.020463624180634188 1
gene  1 36 52 -0.1924160135706834 0 5390.0 -0.1924160135706834 1
gene  1 37 52 -0.023823336108321658 0 5391.0 -0.023823336108321658 1
gene  1 38 52 -0.7959759086542236 0 5392.0 -0.7959759086542236 1
gene  1 39 52 -0.4281169455399606 0 5393.0 -0.4281169455399606 1
gene  1 40 52 -0.26833502961941336 0 5394.0 -0.26833502961941336 1
gene  1 41 52 -0.17888668830336507 0 5395.0 -0.17888668830336507 1
gene  1 42 52 0.07607364757665303 0 5396.0 0.07607364757665303 1
gene  1 43 52 0.9314147607403106 0 5397.0 0.9314147607403106 1
gene  1 44 52 -0.8475593752605528 0 5398.0 -0.8475593752605528 1
gene  1 47 52 -0.2518328724667015 0 5401.0 -0.2518328724667015 1
gene  1 48 52 0.921768611158335 0 5402.0 0.921768611158335 1
gene  1 49 52 0.14686494398783556 0 5403.0 0.14686494398783556 1
gene  1 1 53 0.050469839908072966 0 5460.0 0.050469839908072966 1
gene  1 2 53 0.6913754287865015 0 5461.0 0.6913754287865015 1
gene  1 4 53 -0.14549737111698902 0 5463.0 -0.14549737111698902 1
gene  1 6 53 0.7470912369745246 0 5465.0 0.7470912369745246 1
gene  1 12 53 0.8692925060034712 0 5471.0 0.8692925060034712 1
gene  1 13 53 0.6680840930276981 0 5472.0 0.6680840930276981 1
gene  1 14 53 -0.2854564783703165 0 5473.0 -0.2854564783703165 1
gene  1 15 53 0.3344514407303447 0 5474.0 0.3344514407303447 1
gene  1 16 53 0.8226700434612517 0 5475.0 0.8226700434612517 1
gene  1 17 53 -0.9674940908371393 0 5476.0 -0.9674940908371393 1
gene  1 20 53 -0.5954766765400801 0 5479.0 -0.5954766765400801 1
gene  1 22 53 -0.829437985657745 0 5481.0 -0.829437985657745 1
gene  1 23 53 -0.5820135043520458 0 5482.0 -0.5820135043520458 1
gene  1 24 53 -0.895613520258356 0 5483.0 -0.895613520258356 1
gene  1 25 53 0.8621054043301979 0 5484.0 0.8621054043301979 1
gene  1 28 53 0.02366476174231069 0 5487.0 0.02366476174231069 1
gene  1 29 53 0.21221183891076034 0 5488.0 0.21221183891076034 1
gene  1 30 53 0.33521344375613404 0 5489.0 0.33521344375613404 1
gene  1 31 53 -0.3999734510348506 0 5490.0 -0.3999734510348506 1
gene  1 33 53 -0.5196663808261668 0 5492.0 -0.5196663808261668 1
gene  1 38 53 -0.6253206856699473 0 5497.0 -0.6253206856699473 1
gene  1 42 53 0.06089362127988074 0 5501.0 0.06089362127988074 1
gene  1 47 53 0.6420312818887164 0 5506.0 0.6420312818887164 1
gene  1 50 53 -0.6565396244247937 0 5509.0 -0.6565396244247937 1
gene  1 52 53 -0.08259545786877498 0 5511.0 -0.08259545786877498 1
gene  1 2 54 -0.6348487584314872 0 5566.0 -0.6348487584314872 1
gene  1 5 54 -0.21684605961013115 0 5569.0 -0.21684605961013115 1
gene  1 7 54 0.5619961687863703 0 5571.0 0.5619961687863703 1
gene  1 8 54 -0.3213109987702879 0 5572.0 -0.3213109987702879 1
gene  1 11 54 -0.14105499798606846 0 5575.0 -0.14105499798606846 1
gene  1 16 54 -0.7254202926065332 0 5580.0 -0.7254202926065332 1
gene  1 17 54 0.8348932255669429 0 5581.0 0.8348932255669429 1
gene  1 19 54 0.08622914500188095 0 5583.0 0.08622914500188095 1
gene  1 20 54 -0.07266824168338704 0 5584.0 -0.07266824168338704 1
gene  1 22 54 -0.888874790323248 0 5586.0 -0.888874790323248 1
gene  1 29 54 -0.7518703716924304 0 5593.0 -0.7518703716924304 1
gene  1 30 54 -0.45371828161595473 0 5594.0 -0.45371828161595473 1
gene  1 34 54 -0.4370631855954369 0 5598.0 -0.4370631855954369 1
gene  1 35 54 -0.739151210202381 0 5599.0 -0.739151210202381 1
gene  1 36 54 -0.3083195162542728 0 5600.0 -0.3083195162542728 1
gene  1 37 54 -0.526153785416936 0 5601.0 -0.526153785416936 1
gene  1 38 54 0.5783096393987394 0 5602.0 0.5783096393987394 1
gene  1 43 54 -0.8303282010178437 0 5607.0 -0.8303282010178437 1
gene  1 46 54 -0.8954046378929414 0 5610.0 -0.8954046378929414 1
gene  1 49 54 0.5064675378811836 0 5613.0 0.5064675378811836 1
gene  1 51 54 0.003019750471340288 0 5615.0 0.003019750471340288 1
gene  1 52 54 -0.4302809529459184 0 5616.0 -0.4302809529459184 1
gene  1 53 54 -0.3259539945901354 0 5617.0 -0.3259539945901354 1
gene  1 2 55 -0.2330772358781822 0 5671.0 -0.2330772358781822 1
gene  1 4 55 -0.21931876223701063 0 5673.0 -0.21931876223701063 1
gene  1 5 55 0.5426922981687106 0 5674.0 0.5426922981687106 1
gene  1 7 55 0.14437171063112686 0 5676.0 0.14437171063112686 1
gene  1 8 55 -0.3437931497700447 0 5677.0 -0.3437931497700447 1
gene  1 11 55 -0.018984069256040126 0 5680.0 -0.018984069256040126 1
gene  1 12 55 -0.7486629309303626 0 5681.0 -0.7486629309303626 1
gene  1 16 55 -0.37773525367338123 0 5685.0 -0.37773525367338123 1
gene  1 17 55 -0.9579312989601926 0 5686.0 -0.9579312989601926 1
gene  1 19 55 -0.930226326754446 0 5688.0 -0.930226326754446 1
gene  1 22 55 -0.9455671079410878 0 5691.0 -0.9455671079410878 1
gene  1 23 55 0.8423103359795701 0 5692.0 0.8423103359795701 1
gene  1 25 55 -0.21738788351315885 0 5694.0 -0.21738788351315885 1
gene  1 28 55 0.5956881096020922 0 5697.0 0.5956881096020922 1
gene  1 29 55 -0.40792572944658356 0 5698.0 -0.40792572944658356 1
gene  1 30 55 0.8440537524860271 0 5699.0 0.8440537524860271 1
gene  1 33 55 -0.04286084543239188 0 5702.0 -0.04286084543239188 1
gene  1 34 55 0.36143002742841424 0 5703.0 0.36143002742841424 1
gene  1 36 55 -0.36986814712819405 0 5705.0 -0.36986814712819405 1
gene  1 38 55 -0.18238758182689752 0 5707.0 -0.18238758182689752 1
gene  1 40 55 -0.8581212505519898 0 5709.0 -0.8581212505519898 1
gene  1 42 55 0.34424438535535173 0 5711.0 0.34424438535535173 1
gene  1 43 55 -0.8095470814933506 0 5712.0 -0.8095470814933506 1
gene  1 44 55 0.1595921606379166 0 5713.0 0.1595921606379166 1
gene  1 47 55 -0.8649988480790402 0 5716.0 -0.8649988480790402 1
gene  1 48 55 0.04475067794181198 0 5717.0 0.04475067794181198 1
gene  1 52 55 -0.9403530456931136 0 5721.0 -0.9403530456931136 1
gene  1 1 56 -0.23643215084788927 0 5775.0 -0.23643215084788927 1
gene  1 4 56 0.2506846567338702 0 5778.0 0.2506846567338702 1
gene  1 6 56 -0.23242213836752035 0 5780.0 -0.23242213836752035 1
gene  1 8 56 -0.3290158197686849 0 5782.0 -0.3290158197686849 1
gene  1 12 56 0.7778259391512392 0 5786.0 0.7778259391512392 1
gene  1 13 56 0.7475773760216257 0 5787.0 0.7475773760216257 1
gene  1 17 56 -0.30788336131391514 0 5791.0 -0.30788336131391514 1
gene  1 18 56 0.6731263218257703 0 5792.0 0.6731263218257703 1
gene  1 20 56 0.2670953615994166 0 5794.0 0.2670953615994166 1
gene  1 21 56 0.4990923769147835 0 5795.0 0.4990923769147835 1
gene  1 22 56 0.7812949785813192 0 5796.0 0.7812949785813192 1
gene  1 23 56 0.29608305303307414 0 5797.0 0.29608305303307414 1
gene  1 24 56 0.4970665155651066 0 5798.0 0.4970665155651066 1
gene  1 26 56 0.7018688444115747 0 5800.0 0.7018688444115747 1
gene  1 27 56 -0.449064930492479 0 5801.0 -0.449064930492479 1
gene  1 30 56 0.9311583627558364 0 5804.0 0.9311583627558364 1
gene  1 31 56 0.6813858941807173 0 5805.0 0.6813858941807173 1
gene  1 32 56 0.9692868158176695 0 5806.0 0.9692868158176695 1
gene  1 34 56 0.532038450051547 0 5808.0 0.532038450051547 1
gene  1 35 56 0.552860680121608 0 5809.0 0.552860680121608 1
gene  1 36 56 0.5770938337036545 0 5810.0 0.5770938337036545 1
gene  1 37 56 0.5011483265356252 0 5811.0 0.5011483265356252 1
gene  1 38 56 -0.6061321655843702 0 5812.0 -0.6061321655843702 1
gene  1 39 56 -0.9169871706718514 0 5813.0 -0.9169871706718514 1
gene  1 42 56 -0.5238630177895381 0 5816.0 -0.5238630177895381 1
gene  1 43 56 -0.642167244693343 0 5817.0 -0.642167244693343 1
gene  1 44 56 -0.9323835581515056 0 5818.0 -0.9323835581515056 1
gene  1 45 56 -0.24403363655038457 0 5819.0 -0.24403363655038457 1
gene  1 48 56 -0.5373389249804968 0 5822.0 -0.5373389249804968 1
gene  1 49 56 -0.19431192436649525 0 5823.0 -0.19431192436649525 1
gene  1 50 56 -0.5207451012840135 0 5824.0 -0.5207451012840135 1
gene  1 52 56 -0.6366543615610348 0 5826.0 -0.6366543615610348 1
gene  1 54 56 0.04156235691407972 0 5828.0 0.04156235691407972 1
gene  1 1 57 0.32618138953504483 0 5880.0 0.32618138953504483 1
gene  1 2 57 0.35570825846002874 0 5881.0 0.35570825846002874 1
gene  1 3 57 0.48271044369440463 0 5882.0 0.48271044369440463 1
gene  1 4 57 -0.5832413084739906 0 5883.0 -0.5832413084739906 1
gene  1 5 57 -0.24198235093201692 0 5884.0 -0.24198235093201692 1
gene  1 6 57 0.00890258445757608 0 5885.0 0.00890258445757608 1
gene  1 8 57 -0.24255992777773427 0 5887.0 -0.24255992777773427 1
gene  1 10 57 -0.5802671634350187 0 5889.0 -0.5802671634350187 1
gene  1 11 57 -0.06318972477120299 0 5890.0 -0.06318972477120299 1
gene  1 12 57 -0.8729755804095797 0 5891.0 -0.8729755804095797 1
gene  1 14 57 -0.7434433727062542 0 5893.0 -0.7434433727062542 1
gene  1 16 57 0.2568199447598656 0 5895.0 0.2568199447598656 1
gene  1 17 57 -0.0018775166949938082 0 5896.0 -0.0018775166949938082 1
gene  1 19 57 -0.4029783862739389 0 5898.0 -0.4029783862739389 1
gene  1 20 57 0.8553027370200502 0 5899.0 0.8553027370200502 1
gene  1 23 57 -0.8930273631360581 0 5902.0 -0.8930273631360581 1
gene  1 30 57 -0.7146321875333222 0 5909.0 -0.7146321875333222 1
gene  1 31 57 0.6487038277530138 0 5910.0 0.6487038277530138 1
gene  1 32 57 0.2607087935048934 0 5911.0 0.2607087935048934 1
gene  1 33 57 0.1506605757640208 0 5912.0 0.1506605757640208 1
gene  1 34 57 0.3029139828635812 0 5913.0 0.3029139828635812 1
gene  1 35 57 0.5283573380316682 0 5914.0 0.5283573380316682 1
gene  1 36 57 -0.8757067140275375 0 5915.0 -0.8757067140275375 1
gene  1 37 57 -0.8568673088553199 0 5916.0 -0.8568673088553199 1
gene  1 38 57 -0.33709808970874 0 5917.0 -0.33709808970874 1
gene  1 42 57 -0.4268806864384551 0 5921.0 -0.4268806864384551 1
gene  1 43 57 -0.35664452496102017 0 5922.0 -0.35664452496102017 1
gene  1 44 57 0.36143678831492787 0 5923.0 0.36143678831492787 1
gene  1 46 57 0.32896153284529983 0 5925.0 0.32896153284529983 1
gene  1 47 57 -0.9193533409200901 0 5926.0 -0.9193533409200901 1
gene  1 49 57 0.42811561516735275 0 5928.0 0.42811561516735275 1
gene  1 50 57 -0.6024126292649352 0 5929.0 -0.6024126292649352 1
gene  1 54 57 0.5472194219194596 0 5933.0 0.5472194219194596 1
gene  1 2 58 -0.5112096001089561 0 5986.0 -0.5112096001089561 1
gene  1 4 58 0.48610034531585056 0 5988.0 0.48610034531585056 1
gene  1 6 58 0.7897450607776924 0 5990.0 0.7897450607776924 1
gene  1 7 58 -0.9833613951955632 0 5991.0 -0.9833613951955632 1
gene  1 9 58 0.9644418414480684 0 5993.0 0.9644418414480684 1
gene  1 10 58 0.9246718429192874 0 5994.0 0.9246718429192874 1
gene  1 11 58 0.16370539643208482 0 5995.0 0.16370539643208482 1
gene  1 13 58 -0.6353788978820185 0 5997.0 -0.6353788978820185 1
gene  1 14 58 -0.926303488869692 0 5998.0 -0.926303488869692 1
gene  1 15 58 0.8700642865281131 0 5999.0 0.8700642865281131 1
gene  1 16 58 0.41744977108178016 0 6000.0 0.41744977108178016 1
gene  1 18 58 -0.32426519151048794 0 6002.0 -0.32426519151048794 1
gene  1 19 58 0.49994150601306564 0 6003.0 0.49994150601306564 1
gene  1 21 58 -0.8076776617645013 0 6005.0 -0.8076776617645013 1
gene  1 22 58 0.9517660005658163 0 6006.0 0.9517660005658163 1
gene  1 23 58 0.7160438202531862 0 6007.0 0.7160438202531862 1
gene  1 24 58 -0.07241728155088578 0 6008.0 -0.07241728155088578 1
gene  1 27 58 -0.8902861827594952 0 6011.0 -0.8902861827594952 1
gene  1 29 58 -0.31189649153099275 0 6013.0 -0.31189649153099275 1
gene  1 31 58 0.5485473268955628 0 6015.0 0.5485473268955628 1
gene  1 32 58 0.04413111999020902 0 6016.0 0.04413111999020902 1
gene  1 33 58 -0.31327027541335073 0 6017.0 -0.31327027541335073 1
gene  1 36 58 -0.6454990802484085 0 6020.0 -0.6454990802484085 1
gene  1 38 58 -0.699607305819415 0 6022.0 -0.699607305819415 1
gene  1 39 58 0.1560374312882593 0 6023.0 0.1560374312882593 1
gene  1 40 58 -0.9384270737623751 0 6024.0 -0.9384270737623751 1
gene  1 41 58 -0.31826730830910654 0 6025.0 -0.31826730830910654 1
gene  1 42 58 -0.35848891799963567 0 6026.0 -0.35848891799963567 1
gene  1 47 58 0.3803893410869411 0 6031.0 0.3803893410869411 1
gene  1 49 58 -0.6045243006804415 0 6033.0 -0.6045243006804415 1
gene  1 52 58 0.47732996861574517 0 6036.0 0.47732996861574517 1
gene  1 53 58 -0.33643905230260995 0 6037.0 -0.33643905230260995 1
gene  1 54 58 0.9921231567108615 0 6038.0 0.9921231567108615 1
gene  1 55 58 -0.15232123524024854 0 6039.0 -0.15232123524024854 1
gene  1 1 59 -0.20701506185313479 0 6090.0 -0.20701506185313479 1
gene  1 3 59 0.3706265982480985 0 6092.0 0.3706265982480985 1
gene  1 5 59 0.5582964512020657 0 6094.0 0.5582964512020657 1
gene  1 6 59 -0.8457289823447449 0 6095.0 -0.8457289823447449 1
gene  1 7 59 0.368497484696208 0 6096.0 0.368497484696208 1
gene  1 8 59 0.018417483939175194 0 6097.0 0.018417483939175194 1
gene  1 9 59 -0.4310204026535649 0 6098.0 -0.4310204026535649 1
gene  1 13 59 -0.42994543450281775 0 6102.0 -0.42994543450281775 1
gene  1 19 59 -0.44272815275800004 0 6108.0 -0.44272815275800004 1
gene  1 20 59 -0.5201045773342977 0 6109.0 -0.5201045773342977 1
gene  1 22 59 0.5857391077822784 0 6111.0 0.5857391077822784 1
gene  1 23 59 -0.7319694746417654 0 6112.0 -0.7319694746417654 1
gene  1 24 59 -0.9402170790293974 0 6113.0 -0.9402170790293974 1
gene  1 28 59 -0.4265361774304155 0 6117.0 -0.4265361774304155 1
gene  1 29 59 -0.6640467116970291 0 6118.0 -0.6640467116970291 1
gene  1 30 59 0.2884473121203227 0 6119.0 0.2884473121203227 1
gene  1 31 59 0.7339410206774322 0 6120.0 0.7339410206774322 1
gene  1 32 59 -0.17656425001883524 0 6121.0 -0.17656425001883524 1
gene  1 33 59 -0.1329101770975064 0 6122.0 -0.1329101770975064 1
gene  1 34 59 0.649274663756754 0 6123.0 0.649274663756754 1
gene  1 36 59 0.09196864182229014 0 6125.0 0.09196864182229014 1
gene  1 37 59 -0.485247112639574 0 6126.0 -0.485247112639574 1
gene  1 38 59 0.006470986598043793 0 6127.0 0.006470986598043793 1
gene  1 39 59 -0.5310936400567635 0 6128.0 -0.5310936400567635 1
gene  1 41 59 0.11031980106912942 0 6130.0 0.11031980106912942 1
gene  1 43 59 0.919050257371868 0 6132.0 0.919050257371868 1
gene  1 44 59 -0.4606976025804962 0 6133.0 -0.4606976025804962 1
gene  1 45 59 0.020476995619459815 0 6134.0 0.020476995619459815 1
gene  1 46 59 -0.5969512299129157 0 6135.0 -0.5969512299129157 1
gene  1 48 59 -0.42502401691916303 0 6137.0 -0.42502401691916303 1
gene  1 49 59 0.4450892605227086 0 6138.0 0.4450892605227086 1
gene  1 51 59 0.29925556571450673 0 6140.0 0.29925556571450673 1
gene  1 52 59 -0.4543168790105595 0 6141.0 -0.4543168790105595 1
gene  1 53 59 0.6176078243781199 0 6142.0 0.6176078243781199 1
gene  1 54 59 0.5213079081171286 0 6143.0 0.5213079081171286 1
gene  1 55 59 -0.49056202329663345 0 6144.0 -0.49056202329663345 1
gene  1 56 59 0.01728670822307299 0 6145.0 0.01728670822307299 1
gene  1 1 60 -0.06419938807567505 0 6195.0 -0.06419938807567505 1
gene  1 4 60 -0.26982400567246945 0 6198.0 -0.26982400567246945 1
gene  1 7 60 0.919557452092318 0 6201.0 0.919557452092318 1
gene  1 8 60 -0.1888015095399458 0 6202.0 -0.1888015095399458 1
gene  1 9 60 0.6381910918257924 0 6203.0 0.6381910918257924 1
gene  1 12 60 -0.758071239722605 0 6206.0 -0.758071239722605 1
gene  1 13 60 0.4226690590067961 0 6207.0 0.4226690590067961 1
gene  1 14 60 -0.1878432244888114 0 6208.0 -0.1878432244888114 1
gene  1 17 60 -0.6994488377288447 0 6211.0 -0.6994488377288447 1
gene  1 23 60 0.4847509911601561 0 6217.0 0.4847509911601561 1
gene  1 24 60 -0.008072010334190582 0 6218.0 -0.008072010334190582 1
gene  1 25 60 0.19033861013031528 0 6219.0 0.19033861013031528 1
gene  1 26 60 0.6251976816477812 0 6220.0 0.6251976816477812 1
gene  1 27 60 -0.5542264203425609 0 6221.0 -0.5542264203425609 1
gene  1 29 60 0.712036024679092 0 6223.0 0.712036024679092 1
gene  1 31 60 -0.5575881389068174 0 6225.0 -0.5575881389068174 1
gene  1 34 60 -0.2413666412342289 0 6228.0 -0.2413666412342289 1
gene  1 35 60 0.4136841435417311 0 6229.0 0.4136841435417311 1
gene  1 41 60 -0.5639538872569567 0 6235.0 -0.5639538872569567 1
gene  1 43 60 -0.9597009449252065 0 6237.0 -0.9597009449252065 1
gene  1 45 60 0.42238997440575465 0 6239.0 0.42238997440575465 1
gene  1 48 60 -0.5470865401935662 0 6242.0 -0.5470865401935662 1
gene  1 49 60 0.18006564847992357 0 6243.0 0.18006564847992357 1
gene  1 50 60 -0.811169734821691 0 6244.0 -0.811169734821691 1
gene  1 51 60 -0.4473975723701733 0 6245.0 -0.4473975723701733 1
gene  1 52 60 0.9789258195824212 0 6246.0 0.9789258195824212 1
gene  1 53 60 -0.274160100874992 0 6247.0 -0.274160100874992 1
gene  1 54 60 -0.6368648928395472 0 6248.0 -0.6368648928395472 1
gene  1 55 60 0.2681589973407089 0 6249.0 0.2681589973407089 1
gene  1 57 60 0.13433626645922692 0 6251.0 0.13433626645922692 1
gene  1 58 60 0.7843218887740786 0 6252.0 0.7843218887740786 1
gene  1 59 60 0.4209655075291908 0 6253.0 0.4209655075291908 1
gene  1 2 61 -0.28895885807967536 0 6301.0 -0.28895885807967536 1
gene  1 4 61 -0.5390162530461764 0 6303.0 -0.5390162530461764 1
gene  1 5 61 -0.95891492527459 0 6304.0 -0.95891492527459 1
gene  1 7 61 -0.5971531866749932 0 6306.0 -0.5971531866749932 1
gene  1 8 61 -0.4450318402123148 0 6307.0 -0.4450318402123148 1
gene  1 11 61 0.4533145946405025 0 6310.0 0.4533145946405025 1
gene  1 13 61 -0.5726487856754311 0 6312.0 -0.5726487856754311 1
gene  1 14 61 -0.1011241518464372 0 6313.0 -0.1011241518464372 1
gene  1 15 61 0.642908013540826 0 6314.0 0.642908013540826 1
gene  1 16 61 -0.9222921176786587 0 6315.0 -0.9222921176786587 1
gene  1 18 61 0.014333752318868576 0 6317.0 0.014333752318868576 1
gene  1 20 61 -0.10835289998622877 0 6319.0 -0.10835289998622877 1
gene  1 21 61 -0.07601935590891129 0 6320.0 -0.07601935590891129 1
gene  1 23 61 -0.9119876925501894 0 6322.0 -0.9119876925501894 1
gene  1 24 61 0.7207369363273962 0 6323.0 0.7207369363273962 1
gene  1 25 61 0.5501675916274749 0 6324.0 0.5501675916274749 1
gene  1 29 61 0.6195814353507877 0 6328.0 0.6195814353507877 1
gene  1 30 61 0.3877915429141978 0 6329.0 0.3877915429141978 1
gene  1 33 61 -0.8541284394465063 0 6332.0 -0.8541284394465063 1
gene  1 35 61 0.8655505027264713 0 6334.0 0.8655505027264713 1
gene  1 36 61 0.7418454028620233 0 6335.0 0.7418454028620233 1
gene  1 37 61 0.9919181612252475 0 6336.0 0.9919181612252475 1
gene  1 39 61 -0.12234509080611522 0 6338.0 -0.12234509080611522 1
gene  1 40 61 -0.3775080837478342 0 6339.0 -0.3775080837478342 1
gene  1 42 61 0.9304497388215391 0 6341.0 0.9304497388215391 1
gene  1 44 61 0.6835186065487662 0 6343.0 0.6835186065487662 1
gene  1 47 61 0.7165749005026267 0 6346.0 0.7165749005026267 1
gene  1 50 61 0.1510896150221226 0 6349.0 0.1510896150221226 1
gene  1 51 61 -0.043295429207371394 0 6350.0 -0.043295429207371394 1
gene  1 53 61 -0.5288887843545251 0 6352.0 -0.5288887843545251 1
gene  1 56 61 -0.8500175207806094 0 6355.0 -0.8500175207806094 1
gene  1 58 61 0.7117746730295619 0 6357.0 0.7117746730295619 1
gene  1 59 61 -0.7580054225280218 0 6358.0 -0.7580054225280218 1
gene  1 60 61 -0.15430769224761565 0 6359.0 -0.15430769224761565 1
gene  1 1 62 0.7859307199916516 0 6405.0 0.7859307199916516 1
gene  1 3 62 0.8914723081675674 0 6407.0 0.8914723081675674 1
gene  1 4 62 0.15186589681762108 0 6408.0 0.15186589681762108 1
gene  1 6 62 -0.005940361160233443 0 6410.0 -0.005940361160233443 1
gene  1 7 62 0.371520675404447 0 6411.0 0.371520675404447 1
gene  1 8 62 -0.6851325366868117 0 6412.0 -0.6851325366868117 1
gene  1 9 62 -0.6188196436635308 0 6413.0 -0.6188196436635308 1
gene  1 11 62 0.9775037865365107 0 6415.0 0.9775037865365107 1
gene  1 13 62 -0.3792492164917093 0 6417.0 -0.3792492164917093 1
gene  1 16 62 0.0011872011617596323 0 6420.0 0.0011872011617596323 1
gene  1 17 62 -0.7795928721562418 0 6421.0 -0.7795928721562418 1
gene  1 19 62 -0.5664344127211062 0 6423.0 -0.5664344127211062 1
gene  1 20 62 0.6933550891435423 0 6424.0 0.6933550891435423 1
gene  1 21 62 0.7778175006996956 0 6425.0 0.7778175006996956 1
gene  1 22 62 -0.7077741896703355 0 6426.0 -0.7077741896703355 1
gene  1 23 62 -0.07440234633585585 0 6427.0 -0.07440234633585585 1
gene  1 24 62 -0.970043727590614 0 6428.0 -0.970043727590614 1
gene  1 26 62 -0.11536328930455264 0 6430.0 -0.11536328930455264 1
gene  1 27 62 -0.8553827208499303 0 6431.0 -0.8553827208499303 1
gene  1 28 62 0.47135372978575396 0 6432.0 0.47135372978575396 1
gene  1 31 62 -0.6075818556667173 0 6435.0 -0.6075818556667173 1
gene  1 32 62 0.8908971152392011 0 6436.0 0.8908971152392011 1
gene  1 34 62 0.17729586031589262 0 6438.0 0.17729586031589262 1
gene  1 38 62 0.05886791983553452 0 6442.0 0.05886791983553452 1
gene  1 40 62 -0.05951354591995062 0 6444.0 -0.05951354591995062 1
gene  1 42 62 0.11881130905662285 0 6446.0 0.11881130905662285 1
gene  1 43 62 -0.5203626628383735 0 6447.0 -0.5203626628383735 1
gene  1 45 62 0.5854048199348524 0 6449.0 0.5854048199348524 1
gene  1 47 62 0.9418351592782174 0 6451.0 0.9418351592782174 1
gene  1 48 62 -0.9928090673627784 0 6452.0 -0.9928090673627784 1
gene  1 49 62 0.73999039003973 0 6453.0 0.73999039003973 1
gene  1 50 62 -0.7417782291849936 0 6454.0 -0.7417782291849936 1
gene  1 51 62 -0.36405136561238327 0 6455.0 -0.36405136561238327 1
gene  1 52 62 0.7784290204953228 0 6456.0 0.7784290204953228 1
gene  1 53 62 0.848715748172882 0 6457.0 0.848715748172882 1
gene  1 55 62 0.18058804204521572 0 6459.0 0.18058804204521572 1
gene  1 56 62 -0.15477574484025536 0 6460.0 -0.15477574484025536 1
gene  1 59 62 0.25651628399276194 0 6463.0 0.25651628399276194 1
gene  1 60 62 0.8863934864390074 0 6464.0 0.8863934864390074 1
gene  1 3 63 -0.21091613819307997 0 6512.0 -0.21091613819307997 1
gene  1 4 63 0.46450919972424143 0 6513.0 0.46450919972424143 1
gene  1 9 63 -0.2791111083165849 0 6518.0 -0.2791111083165849 1
gene  1 11 63 -0.9631581461745907 0 6520.0 -0.9631581461745907 1
gene  1 12 63 -0.8937526774166517 0 6521.0 -0.8937526774166517 1
gene  1 18 63 -0.7803727821609551 0 6527.0 -0.7803727821609551 1
gene  1 21 63 0.7691575652128144 0 6530.0 0.7691575652128144 1
gene  1 23 63 0.8816266878257041 0 6532.0 0.8816266878257041 1
gene  1 27 63 -0.35065899104153075 0 6536.0 -0.35065899104153075 1
gene  1 28 63 -0.9582081095539337 0 6537.0 -0.9582081095539337 1
gene  1 29 63 0.5502175703704271 0 6538.0 0.5502175703704271 1
gene  1 35 63 0.9456639533091256 0 6544.0 0.9456639533091256 1
gene  1 41 63 0.06625606509718784 0 6550.0 0.06625606509718784 1
gene  1 43 63 0.1042841460714754 0 6552.0 0.1042841460714754 1
gene  1 45 63 -0.15486133314217365 0 6554.0 -0.15486133314217365 1
gene  1 47 63 0.5455664002415355 0 6556.0 0.5455664002415355 1
gene  1 49 63 0.8542914754789845 0 6558.0 0.8542914754789845 1
gene  1 50 63 0.26893449627144006 0 6559.0 0.26893449627144006 1
gene  1 53 63 -0.9503196978254914 0 6562.0 -0.9503196978254914 1
gene  1 54 63 0.1442362840851905 0 6563.0 0.1442362840851905 1
gene  1 56 63 -0.9291970615932406 0 6565.0 -0.9291970615932406 1
gene  1 60 63 -0.05423846374599672 0 6569.0 -0.05423846374599672 1
gene  1 61 63 0.8039294857827947 0 6570.0 0.8039294857827947 1
gene  1 1 64 -0.6307043657570295 0 6615.0 -0.6307043657570295 1
gene  1 4 64 0.3139941380556893 0 6618.0 0.3139941380556893 1
gene  1 6 64 -0.6031739021920863 0 6620.0 -0.6031739021920863 1
gene  1 10 64 0.15235582130660408 0 6624.0 0.15235582130660408 1
gene  1 12 64 -0.14547014357940902 0 6626.0 -0.14547014357940902 1
gene  1 14 64 0.17679578358073322 0 6628.0 0.17679578358073322 1
gene  1 18 64 0.6037047072995976 0 6632.0 0.6037047072995976 1
gene  1 20 64 -0.8478868734609154 0 6634.0 -0.8478868734609154 1
gene  1 21 64 -0.3901984741283183 0 6635.0 -0.3901984741283183 1
gene  1 22 64 -0.8495367180197533 0 6636.0 -0.8495367180197533 1
gene  1 25 64 -0.09259055464660093 0 6639.0 -0.09259055464660093 1
gene  1 27 64 -0.93949359822655 0 6641.0 -0.93949359822655 1
gene  1 28 64 0.8203468273876936 0 6642.0 0.8203468273876936 1
gene  1 29 64 0.39334355841785185 0 6643.0 0.39334355841785185 1
gene  1 34 64 -0.02426798833750432 0 6648.0 -0.02426798833750432 1
gene  1 35 64 0.5599316539646882 0 6649.0 0.5599316539646882 1
gene  1 37 64 0.6756830966485237 0 6651.0 0.6756830966485237 1
gene  1 38 64 0.9564322741227974 0 6652.0 0.9564322741227974 1
gene  1 41 64 0.9332692564747281 0 6655.0 0.9332692564747281 1
gene  1 44 64 0.0839094830626177 0 6658.0 0.0839094830626177 1
gene  1 45 64 -0.45714555703188375 0 6659.0 -0.45714555703188375 1
gene  1 46 64 0.565747810688576 0 6660.0 0.565747810688576 1
gene  1 48 64 0.07701312469224775 0 6662.0 0.07701312469224775 1
gene  1 53 64 0.49411039173101967 0 6667.0 0.49411039173101967 1
gene  1 55 64 0.6202280390136469 0 6669.0 0.6202280390136469 1
gene  1 58 64 -0.8177835222879704 0 6672.0 -0.8177835222879704 1
gene  1 60 64 -0.3214938359574049 0 6674.0 -0.3214938359574049 1
gene  1 62 64 0.5363602571959004 0 6676.0 0.5363602571959004 1
gene  1 1 65 -0.07055321781312973 0 6720.0 -0.07055321781312973 1
gene  1 4 65 0.5240488464803751 0 6723.0 0.5240488464803751 1
gene  1 6 65 0.7068502894566508 0 6725.0 0.7068502894566508 1
gene  1 9 65 0.4040807216725908 0 6728.0 0.4040807216725908 1
gene  1 10 65 -0.6464061650335843 0 6729.0 -0.6464061650335843 1
gene  1 11 65 -0.2312810542016117 0 6730.0 -0.2312810542016117 1
gene  1 15 65 0.19384384135149435 0 6734.0 0.19384384135149435 1
gene  1 16 65 -0.8038352189683482 0 6735.0 -0.8038352189683482 1
gene  1 20 65 -0.5199980923527805 0 6739.0 -0.5199980923527805 1
gene  1 25 65 -0.6063868360383935 0 6744.0 -0.6063868360383935 1
gene  1 26 65 -0.9960998868212054 0 6745.0 -0.9960998868212054 1
gene  1 27 65 0.8036140421869092 0 6746.0 0.8036140421869092 1
gene  1 29 65 0.19274952968543269 0 6748.0 0.19274952968543269 1
gene  1 30 65 0.5537878344078893 0 6749.0 0.5537878344078893 1
gene  1 33 65 0.20614954418257192 0 6752.0 0.20614954418257192 1
gene  1 36 65 -0.6357421442201574 0 6755.0 -0.6357421442201574 1
gene  1 38 65 -0.08292916635888326 0 6757.0 -0.08292916635888326 1
gene  1 42 65 0.142748633911709 0 6761.0 0.142748633911709 1
gene  1 43 65 -0.04478662384614018 0 6762.0 -0.04478662384614018 1
gene  1 45 65 0.9460290974022088 0 6764.0 0.9460290974022088 1
gene  1 46 65 -0.17394438567725612 0 6765.0 -0.17394438567725612 1
gene  1 47 65 -0.6606726544650641 0 6766.0 -0.6606726544650641 1
gene  1 52 65 0.03135281294595704 0 6771.0 0.03135281294595704 1
gene  1 53 65 0.9759938730275092 0 6772.0 0.9759938730275092 1
gene  1 54 65 0.6102078953217073 0 6773.0 0.6102078953217073 1
gene  1 56 65 0.49342596505781644 0 6775.0 0.49342596505781644 1
gene  1 61 65 -0.07497554724017952 0 6780.0 -0.07497554724017952 1
gene  1 63 65 -0.008536899580500856 0 6782.0 -0.008536899580500856 1
gene  1 64 65 -0.7809358579009261 0 6783.0 -0.7809358579009261 1
gene  1 1 66 0.8555302324308169 0 6825.0 0.8555302324308169 1
gene  1 3 66 0.9205791673523027 0 6827.0 0.9205791673523027 1
gene  1 4 66 0.5690263580457178 0 6828.0 0.5690263580457178 1
gene  1 7 66 0.3409741575668386 0 6831.0 0.3409741575668386 1
gene  1 11 66 0.3634678876169195 0 6835.0 0.3634678876169195 1
gene  1 14 66 -0.40511542556686986 0 6838.0 -0.40511542556686986 1
gene  1 15 66 -0.37001597874076164 0 6839.0 -0.37001597874076164 1
gene  1 17 66 0.7866828933618875 0 6841.0 0.7866828933618875 1
gene  1 18 66 0.9481536428700098 0 6842.0 0.9481536428700098 1
gene  1 21 66 -0.5547343525339408 0 6845.0 -0.5547343525339408 1
gene  1 22 66 -0.6321935814033965 0 6846.0 -0.6321935814033965 1
gene  1 23 66 -0.8732940599024352 0 6847.0 -0.8732940599024352 1
gene  1 24 66 -0.9435122569810452 0 6848.0 -0.9435122569810452 1
gene  1 27 66 -0.007738278433202073 0 6851.0 -0.007738278433202073 1
gene  1 28 66 0.06702678236855752 0 6852.0 0.06702678236855752 1
gene  1 30 66 -0.05162534674197172 0 6854.0 -0.05162534674197172 1
gene  1 32 66 0.34459995016964895 0 6856.0 0.34459995016964895 1
gene  1 33 66 -0.5156964270507225 0 6857.0 -0.5156964270507225 1
gene  1 35 66 -0.6251482117569163 0 6859.0 -0.6251482117569163 1
gene  1 36 66 -0.6745922059244586 0 6860.0 -0.6745922059244586 1
gene  1 42 66 0.10023176065530448 0 6866.0 0.10023176065530448 1
gene  1 46 66 -0.14999589466339835 0 6870.0 -0.14999589466339835 1
gene  1 47 66 -0.802912128804355 0 6871.0 -0.802912128804355 1
gene  1 48 66 -0.4199941326965324 0 6872.0 -0.4199941326965324 1
gene  1 51 66 0.96291783943463 0 6875.0 0.96291783943463 1
gene  1 53 66 -0.22668220434342967 0 6877.0 -0.22668220434342967 1
gene  1 55 66 -0.3587312425579784 0 6879.0 -0.3587312425579784 1
gene  1 56 66 0.8723162057853281 0 6880.0 0.8723162057853281 1
gene  1 57 66 -0.35623284516388665 0 6881.0 -0.35623284516388665 1
gene  1 61 66 -0.12139735951939379 0 6885.0 -0.12139735951939379 1
gene  1 63 66 -0.2686204453241804 0 6887.0 -0.2686204453241804 1
gene  1 65 66 -0.6639169740761188 0 6889.0 -0.6639169740761188 1
gene  1 2 67 -0.10158133020604088 0 6931.0 -0.10158133020604088 1
gene  1 5 67 0.9506248648743094 0 6934.0 0.9506248648743094 1
gene  1 11 67 0.4915579496188198 0 6940.0 0.4915579496188198 1
gene  1 15 67 0.8904772108350861 0 6944.0 0.8904772108350861 1
gene  1 16 67 -0.7595962084560417 0 6945.0 -0.7595962084560417 1
gene  1 17 67 -0.27674471970467274 0 6946.0 -0.27674471970467274 1
gene  1 18 67 -0.011427428735354406 0 6947.0 -0.011427428735354406 1
gene  1 20 67 -0.5668413042985422 0 6949.0 -0.5668413042985422 1
gene  1 21 67 -0.04490113176645416 0 6950.0 -0.04490113176645416 1
gene  1 22 67 -0.3934069205098485 0 6951.0 -0.3934069205098485 1
gene  1 23 67 0.8619013902840535 0 6952.0 0.8619013902840535 1
gene  1 24 67 0.7916545787135686 0 6953.0 0.7916545787135686 1
gene  1 26 67 -0.9473498499575709 0 6955.0 -0.9473498499575709 1
gene  1 33 67 -0.5646461346158537 0 6962.0 -0.5646461346158537 1
gene  1 37 67 0.6590204528612982 0 6966.0 0.6590204528612982 1
gene  1 38 67 -0.6411176468928719 0 6967.0 -0.6411176468928719 1
gene  1 39 67 0.19066150211247723 0 6968.0 0.19066150211247723 1
gene  1 40 67 0.635551251879894 0 6969.0 0.635551251879894 1
gene  1 41 67 0.09563893398187506 0 6970.0 0.09563893398187506 1
gene  1 43 67 -0.9467489159801351 0 6972.0 -0.9467489159801351 1
gene  1 45 67 0.7550170796671346 0 6974.0 0.7550170796671346 1
gene  1 48 67 0.3731191153365476 0 6977.0 0.3731191153365476 1
gene  1 49 67 0.9714496013676541 0 6978.0 0.9714496013676541 1
gene  1 52 67 0.3466554396363115 0 6981.0 0.3466554396363115 1
gene  1 54 67 0.8299566339639746 0 6983.0 0.8299566339639746 1
gene  1 55 67 -0.511479807367857 0 6984.0 -0.511479807367857 1
gene  1 56 67 -0.5179411003629797 0 6985.0 -0.5179411003629797 1
gene  1 57 67 -0.8862127110808223 0 6986.0 -0.8862127110808223 1
gene  1 58 67 -0.6159831325720273 0 6987.0 -0.6159831325720273 1
gene  1 60 67 0.9036788765553883 0 6989.0 0.9036788765553883 1
gene  1 62 67 -0.9522380017606219 0 6991.0 -0.9522380017606219 1
gene  1 63 67 -0.018385276713138388 0 6992.0 -0.018385276713138388 1
gene  1 65 67 0.3976779515463349 0 6994.0 0.3976779515463349 1
gene  1 4 68 -0.16970838493233975 0 7038.0 -0.16970838493233975 1
gene  1 7 68 0.5770463744278117 0 7041.0 0.5770463744278117 1
gene  1 8 68 0.886682961080492 0 7042.0 0.886682961080492 1
gene  1 9 68 -0.7297762029397521 0 7043.0 -0.7297762029397521 1
gene  1 10 68 -0.3839404027891993 0 7044.0 -0.3839404027891993 1
gene  1 16 68 0.10248314564295224 0 7050.0 0.10248314564295224 1
gene  1 19 68 0.01983041303568467 0 7053.0 0.01983041303568467 1
gene  1 20 68 0.044329355600499776 0 7054.0 0.044329355600499776 1
gene  1 21 68 -0.3803529153349916 0 7055.0 -0.3803529153349916 1
gene  1 22 68 -0.7628795653057655 0 7056.0 -0.7628795653057655 1
gene  1 24 68 0.01588593895520507 0 7058.0 0.01588593895520507 1
gene  1 25 68 0.5574594950497501 0 7059.0 0.5574594950497501 1
gene  1 27 68 -0.24614441485799998 0 7061.0 -0.24614441485799998 1
gene  1 32 68 0.8480701759492764 0 7066.0 0.8480701759492764 1
gene  1 34 68 -0.918411534303352 0 7068.0 -0.918411534303352 1
gene  1 35 68 0.7558248582145904 0 7069.0 0.7558248582145904 1
gene  1 37 68 0.20808089719194567 0 7071.0 0.20808089719194567 1
gene  1 42 68 0.37143510881736985 0 7076.0 0.37143510881736985 1
gene  1 44 68 -0.9963789946268933 0 7078.0 -0.9963789946268933 1
gene  1 47 68 0.6251833821055478 0 7081.0 0.6251833821055478 1
gene  1 49 68 0.9351515901474459 0 7083.0 0.9351515901474459 1
gene  1 50 68 0.21015706315043825 0 7084.0 0.21015706315043825 1
gene  1 52 68 -0.7251791748976978 0 7086.0 -0.7251791748976978 1
gene  1 56 68 -0.9676488955730856 0 7090.0 -0.9676488955730856 1
gene  1 59 68 0.939149267733968 0 7093.0 0.939149267733968 1
gene  1 60 68 0.42776139259312285 0 7094.0 0.42776139259312285 1
gene  1 62 68 0.35514002908402775 0 7096.0 0.35514002908402775 1
gene  1 67 68 0.8835472183187386 0 7101.0 0.8835472183187386 1
gene  1 2 69 -0.26433101480691423 0 7141.0 -0.26433101480691423 1
gene  1 3 69 -0.9228803730313553 0 7142.0 -0.9228803730313553 1
gene  1 4 69 0.45748758450575 0 7143.0 0.45748758450575 1
gene  1 5 69 -0.6832368013110421 0 7144.0 -0.6832368013110421 1
gene  1 6 69 0.6404280862359358 0 7145.0 0.6404280862359358 1
gene  1 7 69 -0.6360454264628684 0 7146.0 -0.6360454264628684 1
gene  1 8 69 -0.9012105516534332 0 7147.0 -0.9012105516534332 1
gene  1 9 69 0.9807731414240217 0 7148.0 0.9807731414240217 1
gene  1 10 69 -0.21140272584166175 0 7149.0 -0.21140272584166175 1
gene  1 11 69 0.42977018540500855 0 7150.0 0.42977018540500855 1
gene  1 17 69 -0.46769532836564764 0 7156.0 -0.46769532836564764 1
gene  1 19 69 0.5136588879409365 0 7158.0 0.5136588879409365 1
gene  1 20 69 0.43631669316072275 0 7159.0 0.43631669316072275 1
gene  1 22 69 -0.37471207460775724 0 7161.0 -0.37471207460775724 1
gene  1 26 69 -0.6175432343859305 0 7165.0 -0.6175432343859305 1
gene  1 33 69 0.7617945508962268 0 7172.0 0.7617945508962268 1
gene  1 34 69 0.7386758359146408 0 7173.0 0.7386758359146408 1
gene  1 37 69 0.5116506608930926 0 7176.0 0.5116506608930926 1
gene  1 38 69 0.13429726801215247 0 7177.0 0.13429726801215247 1
gene  1 39 69 -0.8066686731717922 0 7178.0 -0.8066686731717922 1
gene  1 40 69 -0.5162173945046591 0 7179.0 -0.5162173945046591 1
gene  1 43 69 0.4976154058332791 0 7182.0 0.4976154058332791 1
gene  1 44 69 0.565900449057135 0 7183.0 0.565900449057135 1
gene  1 45 69 -0.1032146192674468 0 7184.0 -0.1032146192674468 1
gene  1 52 69 0.6332579366527153 0 7191.0 0.6332579366527153 1
gene  1 54 69 0.7138428993032535 0 7193.0 0.7138428993032535 1
gene  1 55 69 0.6339635048525147 0 7194.0 0.6339635048525147 1
gene  1 57 69 -0.12790202000992135 0 7196.0 -0.12790202000992135 1
gene  1 58 69 -0.030739225777008605 0 7197.0 -0.030739225777008605 1
gene  1 61 69 -0.03931441000301239 0 7200.0 -0.03931441000301239 1
gene  1 62 69 0.38509580051687975 0 7201.0 0.38509580051687975 1
gene  1 66 69 -0.8356908539471686 0 7205.0 -0.8356908539471686 1
gene  1 68 69 0.4926928382316609 0 7207.0 0.4926928382316609 1
gene  1 1 70 0.24927502014673397 0 7245.0 0.24927502014673397 1
gene  1 6 70 -0.6037807850235597 0 7250.0 -0.6037807850235597 1
gene  1 9 70 0.7954905562130556 0 7253.0 0.7954905562130556 1
gene  1 10 70 0.39906212088376736 0 7254.0 0.39906212088376736 1
gene  1 13 70 0.8530887644654032 0 7257.0 0.8530887644654032 1
gene  1 16 70 0.4130652460755434 0 7260.0 0.4130652460755434 1
gene  1 17 70 -0.9906538020977131 0 7261.0 -0.9906538020977131 1
gene  1 18 70 0.8301177374241003 0 7262.0 0.8301177374241003 1
gene  1 19 70 -0.656643937811298 0 7263.0 -0.656643937811298 1
gene  1 20 70 -0.562562444599896 0 7264.0 -0.562562444599896 1
gene  1 24 70 0.9515794913486258 0 7268.0 0.9515794913486258 1
gene  1 25 70 0.13289983301539143 0 7269.0 0.13289983301539143 1
gene  1 31 70 -0.7347649281981732 0 7275.0 -0.7347649281981732 1
gene  1 37 70 0.3822005921939279 0 7281.0 0.3822005921939279 1
gene  1 39 70 -0.9373695144580952 0 7283.0 -0.9373695144580952 1
gene  1 41 70 0.8404129490709743 0 7285.0 0.8404129490709743 1
gene  1 42 70 -0.18906194016415756 0 7286.0 -0.18906194016415756 1
gene  1 43 70 0.9884130719514346 0 7287.0 0.9884130719514346 1
gene  1 44 70 -0.7802162772371671 0 7288.0 -0.7802162772371671 1
gene  1 45 70 -0.08425751220305933 0 7289.0 -0.08425751220305933 1
gene  1 46 70 -0.7035867754452035 0 7290.0 -0.7035867754452035 1
gene  1 47 70 0.02507288750372183 0 7291.0 0.02507288750372183 1
gene  1 48 70 -0.14920660886131976 0 7292.0 -0.14920660886131976 1
gene  1 58 70 0.654950441818305 0 7302.0 0.654950441818305 1
gene  1 62 70 0.6986609364661934 0 7306.0 0.6986609364661934 1
gene  1 64 70 0.9468045580544409 0 7308.0 0.9468045580544409 1
gene  1 65 70 -0.9508033689141382 0 7309.0 -0.9508033689141382 1
gene  1 66 70 -0.04468806999701602 0 7310.0 -0.04468806999701602 1
gene  1 69 70 -0.8232786571602893 0 7313.0 -0.8232786571602893 1
gene  1 1 71 0.7841185563894059 0 7350.0 0.7841185563894059 1
gene  1 2 71 -0.3545708777448958 0 7351.0 -0.3545708777448958 1
gene  1 3 71 0.9174302319412274 0 7352.0 0.9174302319412274 1
gene  1 4 71 -0.6664151978044593 0 7353.0 -0.6664151978044593 1
gene  1 7 71 -0.1292404550942099 0 7356.0 -0.1292404550942099 1
gene  1 9 71 0.17978444632491875 0 7358.0 0.17978444632491875 1
gene  1 14 71 -0.8630085675940972 0 7363.0 -0.8630085675940972 1
gene  1 15 71 -0.25211333008927506 0 7364.0 -0.25211333008927506 1
gene  1 16 71 0.14405699530622795 0 7365.0 0.14405699530622795 1
gene  1 17 71 0.6883214141598396 0 7366.0 0.6883214141598396 1
gene  1 21 71 0.2369264326739433 0 7370.0 0.2369264326739433 1
gene  1 27 71 -0.00398375802106854 0 7376.0 -0.00398375802106854 1
gene  1 29 71 -0.0971556730672668 0 7378.0 -0.0971556730672668 1
gene  1 30 71 0.9604608485340209 0 7379.0 0.9604608485340209 1
gene  1 31 71 0.7064465766121809 0 7380.0 0.7064465766121809 1
gene  1 34 71 0.11021126381108115 0 7383.0 0.11021126381108115 1
gene  1 37 71 -0.8997527730358335 0 7386.0 -0.8997527730358335 1
gene  1 43 71 -0.16358418439526445 0 7392.0 -0.16358418439526445 1
gene  1 44 71 -0.5166475796890128 0 7393.0 -0.5166475796890128 1
gene  1 46 71 0.32566171126964516 0 7395.0 0.32566171126964516 1
gene  1 47 71 0.4290193328606289 0 7396.0 0.4290193328606289 1
gene  1 48 71 0.011810523036747123 0 7397.0 0.011810523036747123 1
gene  1 52 71 0.7669435331239284 0 7401.0 0.7669435331239284 1
gene  1 54 71 -0.24546124670508762 0 7403.0 -0.24546124670508762 1
gene  1 55 71 -0.9349316952374487 0 7404.0 -0.9349316952374487 1
gene  1 59 71 -0.3317302132260824 0 7408.0 -0.3317302132260824 1
gene  1 62 71 0.31804887543153215 0 7411.0 0.31804887543153215 1
gene  1 63 71 0.5535690548477396 0 7412.0 0.5535690548477396 1
gene  1 64 71 -0.34067849783319215 0 7413.0 -0.34067849783319215 1
gene  1 66 71 -0.8419091386929851 0 7415.0 -0.8419091386929851 1
gene  1 69 71 0.6098501134216368 0 7418.0 0.6098501134216368 1
gene  1 70 71 -0.06636721269259582 0 7419.0 -0.06636721269259582 1
gene  1 6 72 -0.8186049072117668 0 7460.0 -0.8186049072117668 1
gene  1 8 72 -0.3898874557683626 0 7462.0 -0.3898874557683626 1
gene  1 13 72 0.2998161132273176 0 7467.0 0.2998161132273176 1
gene  1 14 72 0.9779951119281287 0 7468.0 0.9779951119281287 1
gene  1 16 72 0.1898006865402997 0 7470.0 0.1898006865402997 1
gene  1 18 72 0.010029126922832976 0 7472.0 0.010029126922832976 1
gene  1 20 72 -0.4765068890336003 0 7474.0 -0.4765068890336003 1
gene  1 22 72 -0.29078940424888844 0 7476.0 -0.29078940424888844 1
gene  1 24 72 0.7262505558845795 0 7478.0 0.7262505558845795 1
gene  1 29 72 -0.23070672649063784 0 7483.0 -0.23070672649063784 1
gene  1 31 72 -0.36987502806521066 0 7485.0 -0.36987502806521066 1
gene  1 32 72 0.24735488516247206 0 7486.0 0.24735488516247206 1
gene  1 33 72 -0.08484413787461054 0 7487.0 -0.08484413787461054 1
gene  1 34 72 0.203719462780661 0 7488.0 0.203719462780661 1
gene  1 35 72 0.1852107170525218 0 7489.0 0.1852107170525218 1
gene  1 37 72 0.7339627412621749 0 7491.0 0.7339627412621749 1
gene  1 38 72 -0.861747805998286 0 7492.0 -0.861747805998286 1
gene  1 43 72 -0.008203679853089563 0 7497.0 -0.008203679853089563 1
gene  1 48 72 -0.5059614874757451 0 7502.0 -0.5059614874757451 1
gene  1 51 72 0.2085036508686977 0 7505.0 0.2085036508686977 1
gene  1 53 72 -0.597304089236684 0 7507.0 -0.597304089236684 1
gene  1 55 72 -0.12314471038153996 0 7509.0 -0.12314471038153996 1
gene  1 56 72 0.8268253376122192 0 7510.0 0.8268253376122192 1
gene  1 60 72 -0.12733879330931475 0 7514.0 -0.12733879330931475 1
gene  1 62 72 0.6937536981099828 0 7516.0 0.6937536981099828 1
gene  1 65 72 -0.7163504903068316 0 7519.0 -0.7163504903068316 1
gene  1 66 72 0.23642135100867367 0 7520.0 0.23642135100867367 1
gene  1 67 72 -0.05819429227284889 0 7521.0 -0.05819429227284889 1
gene  1 68 72 0.3230546381933004 0 7522.0 0.3230546381933004 1
gene  1 1 73 -0.38468942474020307 0 7560.0 -0.38468942474020307 1
gene  1 4 73 -0.2218030214241371 0 7563.0 -0.2218030214241371 1
gene  1 8 73 -0.4217122601974992 0 7567.0 -0.4217122601974992 1
gene  1 9 73 0.9266578826129898 0 7568.0 0.9266578826129898 1
gene  1 10 73 0.04369235336621746 0 7569.0 0.04369235336621746 1
gene  1 13 73 0.527791531758645 0 7572.0 0.527791531758645 1
gene  1 15 73 0.9002515822135461 0 7574.0 0.9002515822135461 1
gene  1 16 73 -0.7544250800181252 0 7575.0 -0.7544250800181252 1
gene  1 20 73 0.2193098928226408 0 7579.0 0.2193098928226408 1
gene  1 22 73 0.09464072069511464 0 7581.0 0.09464072069511464 1
gene  1 29 73 0.08375651934321982 0 7588.0 0.08375651934321982 1
gene  1 30 73 0.2014465256473399 0 7589.0 0.2014465256473399 1
gene  1 31 73 -0.3776155221914196 0 7590.0 -0.3776155221914196 1
gene  1 34 73 -0.29934665246900527 0 7593.0 -0.29934665246900527 1
gene  1 36 73 0.5305764319434395 0 7595.0 0.5305764319434395 1
gene  1 38 73 -0.6092210006537044 0 7597.0 -0.6092210006537044 1
gene  1 40 73 0.6483418840968327 0 7599.0 0.6483418840968327 1
gene  1 41 73 -0.12980337763153882 0 7600.0 -0.12980337763153882 1
gene  1 47 73 -0.5445071931491116 0 7606.0 -0.5445071931491116 1
gene  1 48 73 0.06575114276990768 0 7607.0 0.06575114276990768 1
gene  1 49 73 -0.28599503736558785 0 7608.0 -0.28599503736558785 1
gene  1 51 73 0.9771782400222652 0 7610.0 0.9771782400222652 1
gene  1 53 73 -0.09338217056645715 0 7612.0 -0.09338217056645715 1
gene  1 54 73 0.41621959525387964 0 7613.0 0.41621959525387964 1
gene  1 55 73 0.07044989454972428 0 7614.0 0.07044989454972428 1
gene  1 56 73 -0.499903695191823 0 7615.0 -0.499903695191823 1
gene  1 58 73 0.20149655839692193 0 7617.0 0.20149655839692193 1
gene  1 62 73 0.765053948563816 0 7621.0 0.765053948563816 1
gene  1 63 73 -0.10180234637873187 0 7622.0 -0.10180234637873187 1
gene  1 66 73 0.41150665888119653 0 7625.0 0.41150665888119653 1
gene  1 67 73 0.16710400061603237 0 7626.0 0.16710400061603237 1
gene  1 68 73 -0.7787400127994193 0 7627.0 -0.7787400127994193 1
gene  1 1 74 -0.7881296076578029 0 7665.0 -0.7881296076578029 1
gene  1 3 74 0.10243631963325106 0 7667.0 0.10243631963325106 1
gene  1 4 74 0.21315576746363118 0 7668.0 0.21315576746363118 1
gene  1 7 74 -0.8884665927297466 0 7671.0 -0.8884665927297466 1
gene  1 9 74 -0.377853572477696 0 7673.0 -0.377853572477696 1
gene  1 10 74 0.11080836675370342 0 7674.0 0.11080836675370342 1
gene  1 14 74 -0.8472118148020235 0 7678.0 -0.8472118148020235 1
gene  1 15 74 -0.32870909322275654 0 7679.0 -0.32870909322275654 1
gene  1 16 74 0.9406519595362982 0 7680.0 0.9406519595362982 1
gene  1 17 74 0.6056216411470376 0 7681.0 0.6056216411470376 1
gene  1 19 74 0.7547658457539617 0 7683.0 0.7547658457539617 1
gene  1 21 74 -0.8526939154211021 0 7685.0 -0.8526939154211021 1
gene  1 22 74 -0.9642322288159136 0 7686.0 -0.9642322288159136 1
gene  1 23 74 0.09497407453368045 0 7687.0 0.09497407453368045 1
gene  1 26 74 0.4956958550559295 0 7690.0 0.4956958550559295 1
gene  1 27 74 0.9432136303612761 0 7691.0 0.9432136303612761 1
gene  1 30 74 -0.5925641344355279 0 7694.0 -0.5925641344355279 1
gene  1 31 74 -0.4869224928588146 0 7695.0 -0.4869224928588146 1
gene  1 33 74 0.42965258405054907 0 7697.0 0.42965258405054907 1
gene  1 34 74 0.6267407722301713 0 7698.0 0.6267407722301713 1
gene  1 38 74 -0.2900199313898223 0 7702.0 -0.2900199313898223 1
gene  1 42 74 0.7370963517679305 0 7706.0 0.7370963517679305 1
gene  1 43 74 -0.023283294010957856 0 7707.0 -0.023283294010957856 1
gene  1 46 74 0.3238503396328133 0 7710.0 0.3238503396328133 1
gene  1 48 74 -0.352838421576818 0 7712.0 -0.352838421576818 1
gene  1 49 74 -0.5495548468070759 0 7713.0 -0.5495548468070759 1
gene  1 50 74 0.1474844455885127 0 7714.0 0.1474844455885127 1
gene  1 51 74 -0.98761383527491 0 7715.0 -0.98761383527491 1
gene  1 52 74 0.10382220623129679 0 7716.0 0.10382220623129679 1
gene  1 53 74 0.7496176318763773 0 7717.0 0.7496176318763773 1
gene  1 54 74 -0.8604833898955508 0 7718.0 -0.8604833898955508 1
gene  1 61 74 0.5362550766731956 0 7725.0 0.5362550766731956 1
gene  1 63 74 0.869487770908075 0 7727.0 0.869487770908075 1
gene  1 68 74 -0.9228213917167989 0 7732.0 -0.9228213917167989 1
gene  1 71 74 -0.993446664180332 0 7735.0 -0.993446664180332 1
gene  1 72 74 -0.9537170996064707 0 7736.0 -0.9537170996064707 1
gene  1 73 74 -0.4441761684415244 0 7737.0 -0.4441761684415244 1
gene  1 5 75 -0.9754529580277325 0 7774.0 -0.9754529580277325 1
gene  1 6 75 0.15734747134518767 0 7775.0 0.15734747134518767 1
gene  1 7 75 -0.57301348268913 0 7776.0 -0.57301348268913 1
gene  1 11 75 -0.8579421912284493 0 7780.0 -0.8579421912284493 1
gene  1 13 75 0.29135448244791173 0 7782.0 0.29135448244791173 1
gene  1 17 75 0.41772880674862534 0 7786.0 0.41772880674862534 1
gene  1 18 75 0.8678338171044939 0 7787.0 0.8678338171044939 1
gene  1 19 75 -0.9712798403599372 0 7788.0 -0.9712798403599372 1
gene  1 21 75 -0.8683339059689402 0 7790.0 -0.8683339059689402 1
gene  1 22 75 -0.22936954129510467 0 7791.0 -0.22936954129510467 1
gene  1 28 75 0.43772484246065624 0 7797.0 0.43772484246065624 1
gene  1 29 75 0.9787073841367622 0 7798.0 0.9787073841367622 1
gene  1 32 75 -0.056363134877702614 0 7801.0 -0.056363134877702614 1
gene  1 33 75 0.4741770323547222 0 7802.0 0.4741770323547222 1
gene  1 36 75 -0.8955338691498613 0 7805.0 -0.8955338691498613 1
gene  1 37 75 0.9955835855266796 0 7806.0 0.9955835855266796 1
gene  1 38 75 -0.48900378524709875 0 7807.0 -0.48900378524709875 1
gene  1 39 75 0.8382418564585584 0 7808.0 0.8382418564585584 1
gene  1 40 75 -0.6513121245777898 0 7809.0 -0.6513121245777898 1
gene  1 41 75 -0.8808035638939512 0 7810.0 -0.8808035638939512 1
gene  1 42 75 -0.30873628077745774 0 7811.0 -0.30873628077745774 1
gene  1 43 75 0.8301265919781297 0 7812.0 0.8301265919781297 1
gene  1 45 75 -0.4675403599658383 0 7814.0 -0.4675403599658383 1
gene  1 46 75 0.586636200001965 0 7815.0 0.586636200001965 1
gene  1 47 75 0.5050259235719166 0 7816.0 0.5050259235719166 1
gene  1 49 75 -0.5612192290607319 0 7818.0 -0.5612192290607319 1
gene  1 50 75 -0.4537407268662169 0 7819.0 -0.4537407268662169 1
gene  1 51 75 -0.07220866398589432 0 7820.0 -0.07220866398589432 1
gene  1 52 75 0.8893624827513374 0 7821.0 0.8893624827513374 1
gene  1 54 75 0.8563439444410935 0 7823.0 0.8563439444410935 1
gene  1 58 75 0.4260346103655177 0 7827.0 0.4260346103655177 1
gene  1 59 75 -0.03717937297521523 0 7828.0 -0.03717937297521523 1
gene  1 60 75 0.06185119990509791 0 7829.0 0.06185119990509791 1
gene  1 61 75 0.2616349227025847 0 7830.0 0.2616349227025847 1
gene  1 62 75 -0.31512923406992643 0 7831.0 -0.31512923406992643 1
gene  1 63 75 -0.9670068507900088 0 7832.0 -0.9670068507900088 1
gene  1 65 75 0.42628368153730034 0 7834.0 0.42628368153730034 1
gene  1 66 75 0.28667186963453606 0 7835.0 0.28667186963453606 1
gene  1 69 75 0.3350742948002151 0 7838.0 0.3350742948002151 1
gene  1 70 75 -0.6928360988553299 0 7839.0 -0.6928360988553299 1
gene  1 72 75 0.49142187095193746 0 7841.0 0.49142187095193746 1
gene  1 73 75 0.5256496807567873 0 7842.0 0.5256496807567873 1
gene  1 74 75 0.6798055874646689 0 7843.0 0.6798055874646689 1
gene  1 6 76 0.4911699317463194 0 7880.0 0.4911699317463194 1
gene  1 7 76 0.07130933348370161 0 7881.0 0.07130933348370161 1
gene  1 10 76 -0.7113853044994913 0 7884.0 -0.7113853044994913 1
gene  1 11 76 -0.5842444927153888 0 7885.0 -0.5842444927153888 1
gene  1 12 76 0.736840030890233 0 7886.0 0.736840030890233 1
gene  1 13 76 0.6419734793423152 0 7887.0 0.6419734793423152 1
gene  1 16 76 0.8766049001480398 0 7890.0 0.8766049001480398 1
gene  1 18 76 0.1451825549599005 0 7892.0 0.1451825549599005 1
gene  1 19 76 -0.004875695898497567 0 7893.0 -0.004875695898497567 1
gene  1 20 76 -0.7104738589276757 0 7894.0 -0.7104738589276757 1
gene  1 23 76 -0.5364295351913733 0 7897.0 -0.5364295351913733 1
gene  1 24 76 -0.5523567229504596 0 7898.0 -0.5523567229504596 1
gene  1 25 76 -0.9421042631619428 0 7899.0 -0.9421042631619428 1
gene  1 26 76 -0.14882799795887525 0 7900.0 -0.14882799795887525 1
gene  1 28 76 -0.6183898599345972 0 7902.0 -0.6183898599345972 1
gene  1 29 76 0.5243964409433624 0 7903.0 0.5243964409433624 1
gene  1 31 76 0.018993711922418832 0 7905.0 0.018993711922418832 1
gene  1 34 76 -0.6932291328609367 0 7908.0 -0.6932291328609367 1
gene  1 35 76 0.0026262975378282816 0 7909.0 0.0026262975378282816 1
gene  1 36 76 -0.2044567611793754 0 7910.0 -0.2044567611793754 1
gene  1 37 76 0.6695298817637255 0 7911.0 0.6695298817637255 1
gene  1 38 76 -0.2208548521279291 0 7912.0 -0.2208548521279291 1
gene  1 40 76 -0.2930218288331117 0 7914.0 -0.2930218288331117 1
gene  1 41 76 -0.45747348170133695 0 7915.0 -0.45747348170133695 1
gene  1 43 76 0.24684588611881264 0 7917.0 0.24684588611881264 1
gene  1 44 76 0.6145210376814014 0 7918.0 0.6145210376814014 1
gene  1 45 76 0.41459765472475396 0 7919.0 0.41459765472475396 1
gene  1 47 76 0.07059667036028117 0 7921.0 0.07059667036028117 1
gene  1 50 76 0.5018058834140894 0 7924.0 0.5018058834140894 1
gene  1 51 76 0.4909093726233711 0 7925.0 0.4909093726233711 1
gene  1 54 76 -0.9651773302556477 0 7928.0 -0.9651773302556477 1
gene  1 55 76 0.4203587982671172 0 7929.0 0.4203587982671172 1
gene  1 57 76 0.9395753903533721 0 7931.0 0.9395753903533721 1
gene  1 61 76 0.3919070842680856 0 7935.0 0.3919070842680856 1
gene  1 63 76 0.8785714761500595 0 7937.0 0.8785714761500595 1
gene  1 64 76 -0.5987725807461195 0 7938.0 -0.5987725807461195 1
gene  1 65 76 0.8560536147681453 0 7939.0 0.8560536147681453 1
gene  1 67 76 -0.17094035902936766 0 7941.0 -0.17094035902936766 1
gene  1 69 76 -0.8677014517478872 0 7943.0 -0.8677014517478872 1
gene  1 71 76 -0.13446270677779582 0 7945.0 -0.13446270677779582 1
gene  1 74 76 0.20443440596003692 0 7948.0 0.20443440596003692 1
gene  1 2 77 -0.8066300321228105 0 7981.0 -0.8066300321228105 1
gene  1 4 77 -0.5913963369022854 0 7983.0 -0.5913963369022854 1
gene  1 6 77 -0.3871242397618614 0 7985.0 -0.3871242397618614 1
gene  1 7 77 0.7165208425583081 0 7986.0 0.7165208425583081 1
gene  1 9 77 -0.16359221875422247 0 7988.0 -0.16359221875422247 1
gene  1 12 77 -0.3571614721577392 0 7991.0 -0.3571614721577392 1
gene  1 13 77 0.5014498685526823 0 7992.0 0.5014498685526823 1
gene  1 14 77 -0.10002731698934353 0 7993.0 -0.10002731698934353 1
gene  1 17 77 0.8230698548605667 0 7996.0 0.8230698548605667 1
gene  1 18 77 -0.06000782746171063 0 7997.0 -0.06000782746171063 1
gene  1 21 77 0.7819383869256916 0 8000.0 0.7819383869256916 1
gene  1 22 77 0.27013158232895695 0 8001.0 0.27013158232895695 1
gene  1 23 77 -0.9120090305081091 0 8002.0 -0.9120090305081091 1
gene  1 25 77 0.6372999778250513 0 8004.0 0.6372999778250513 1
gene  1 26 77 -0.27881693154677656 0 8005.0 -0.27881693154677656 1
gene  1 27 77 -0.7410232087149541 0 8006.0 -0.7410232087149541 1
gene  1 30 77 0.3652545854007586 0 8009.0 0.3652545854007586 1
gene  1 33 77 0.5612522503572109 0 8012.0 0.5612522503572109 1
gene  1 34 77 -0.7781929425741525 0 8013.0 -0.7781929425741525 1
gene  1 36 77 0.7130498439756077 0 8015.0 0.7130498439756077 1
gene  1 37 77 0.618181423728806 0 8016.0 0.618181423728806 1
gene  1 39 77 0.31078185322863916 0 8018.0 0.31078185322863916 1
gene  1 40 77 0.7713745229227357 0 8019.0 0.7713745229227357 1
gene  1 41 77 -0.42707713260104496 0 8020.0 -0.42707713260104496 1
gene  1 42 77 0.8121185523373718 0 8021.0 0.8121185523373718 1
gene  1 43 77 0.6763877081602921 0 8022.0 0.6763877081602921 1
gene  1 44 77 0.07832426195645825 0 8023.0 0.07832426195645825 1
gene  1 48 77 0.8255166627155602 0 8027.0 0.8255166627155602 1
gene  1 51 77 -0.027559401931114835 0 8030.0 -0.027559401931114835 1
gene  1 52 77 -0.515918286995982 0 8031.0 -0.515918286995982 1
gene  1 54 77 0.8420699972478901 0 8033.0 0.8420699972478901 1
gene  1 56 77 -0.9366770440505477 0 8035.0 -0.9366770440505477 1
gene  1 58 77 -0.27495349538581504 0 8037.0 -0.27495349538581504 1
gene  1 60 77 -0.8527470129862881 0 8039.0 -0.8527470129862881 1
gene  1 61 77 0.5525952386862882 0 8040.0 0.5525952386862882 1
gene  1 62 77 -0.08507159011418652 0 8041.0 -0.08507159011418652 1
gene  1 64 77 0.2637874481449284 0 8043.0 0.2637874481449284 1
gene  1 66 77 0.19509048267125217 0 8045.0 0.19509048267125217 1
gene  1 71 77 -0.5426575110033569 0 8050.0 -0.5426575110033569 1
gene  1 72 77 0.5963594451531268 0 8051.0 0.5963594451531268 1
gene  1 73 77 0.7410068547384198 0 8052.0 0.7410068547384198 1
gene  1 75 77 -0.6569601367820717 0 8054.0 -0.6569601367820717 1
gene  1 76 77 0.2008872922373829 0 8055.0 0.2008872922373829 1
gene  1 1 78 -0.10487128259584633 0 8085.0 -0.10487128259584633 1
gene  1 2 78 0.20230094437784407 0 8086.0 0.20230094437784407 1
gene  1 3 78 0.9253842723060008 0 8087.0 0.9253842723060008 1
gene  1 4 78 -0.6305422883296451 0 8088.0 -0.6305422883296451 1
gene  1 7 78 0.549213344570415 0 8091.0 0.549213344570415 1
gene  1 10 78 0.40643885855154793 0 8094.0 0.40643885855154793 1
gene  1 12 78 -0.6897988159234498 0 8096.0 -0.6897988159234498 1
gene  1 14 78 0.04093446665962064 0 8098.0 0.04093446665962064 1
gene  1 15 78 -0.04416940641688227 0 8099.0 -0.04416940641688227 1
gene  1 16 78 0.5951556955360555 0 8100.0 0.5951556955360555 1
gene  1 17 78 0.7194864902545209 0 8101.0 0.7194864902545209 1
gene  1 20 78 0.1726961715122527 0 8104.0 0.1726961715122527 1
gene  1 21 78 0.8038189273146924 0 8105.0 0.8038189273146924 1
gene  1 22 78 0.9798576280708171 0 8106.0 0.9798576280708171 1
gene  1 24 78 -0.03211954709957454 0 8108.0 -0.03211954709957454 1
gene  1 25 78 -0.14196335960281892 0 8109.0 -0.14196335960281892 1
gene  1 27 78 0.3421234952481621 0 8111.0 0.3421234952481621 1
gene  1 28 78 -0.6018451267585374 0 8112.0 -0.6018451267585374 1
gene  1 29 78 0.2761822711275722 0 8113.0 0.2761822711275722 1
gene  1 30 78 0.3408623384803878 0 8114.0 0.3408623384803878 1
gene  1 31 78 -0.1457435485366385 0 8115.0 -0.1457435485366385 1
gene  1 33 78 -0.41440993242007595 0 8117.0 -0.41440993242007595 1
gene  1 36 78 -0.5845453224632394 0 8120.0 -0.5845453224632394 1
gene  1 37 78 -0.28539760230472666 0 8121.0 -0.28539760230472666 1
gene  1 38 78 0.673946424166611 0 8122.0 0.673946424166611 1
gene  1 40 78 0.5419927451816681 0 8124.0 0.5419927451816681 1
gene  1 41 78 -0.3248323997183299 0 8125.0 -0.3248323997183299 1
gene  1 46 78 0.37433667511625013 0 8130.0 0.37433667511625013 1
gene  1 48 78 0.8384444302239658 0 8132.0 0.8384444302239658 1
gene  1 50 78 -0.421912353770712 0 8134.0 -0.421912353770712 1
gene  1 51 78 -0.7504404992318655 0 8135.0 -0.7504404992318655 1
gene  1 52 78 0.46573146353207817 0 8136.0 0.46573146353207817 1
gene  1 55 78 -0.4200208648381363 0 8139.0 -0.4200208648381363 1
gene  1 58 78 0.565690037301003 0 8142.0 0.565690037301003 1
gene  1 60 78 -0.966998094200693 0 8144.0 -0.966998094200693 1
gene  1 61 78 0.5274340817359089 0 8145.0 0.5274340817359089 1
gene  1 63 78 0.22890430089080083 0 8147.0 0.22890430089080083 1
gene  1 64 78 0.2367662400866396 0 8148.0 0.2367662400866396 1
gene  1 65 78 0.5923974058517409 0 8149.0 0.5923974058517409 1
gene  1 68 78 -0.6448719462105134 0 8152.0 -0.6448719462105134 1
gene  1 69 78 0.1739478137495728 0 8153.0 0.1739478137495728 1
gene  1 72 78 0.5358828265896591 0 8156.0 0.5358828265896591 1
gene  1 75 78 0.2709202464539834 0 8159.0 0.2709202464539834 1
gene  1 77 78 0.6283182868744991 0 8161.0 0.6283182868744991 1
gene  1 1 79 0.905551983814732 0 8190.0 0.905551983814732 1
gene  1 2 79 -0.4304066188491079 0 8191.0 -0.4304066188491079 1
gene  1 4 79 0.8668671915516601 0 8193.0 0.8668671915516601 1
gene  1 5 79 0.8421941088672207 0 8194.0 0.8421941088672207 1
gene  1 6 79 -0.8946006873756925 0 8195.0 -0.8946006873756925 1
gene  1 7 79 -0.7345921832640464 0 8196.0 -0.7345921832640464 1
gene  1 8 79 0.8208486864956547 0 8197.0 0.8208486864956547 1
gene  1 9 79 0.654193701401 0 8198.0 0.654193701401 1
gene  1 10 79 -0.9319973360669794 0 8199.0 -0.9319973360669794 1
gene  1 13 79 -0.12879409540619935 0 8202.0 -0.12879409540619935 1
gene  1 14 79 -0.20973163955912655 0 8203.0 -0.20973163955912655 1
gene  1 15 79 -0.7802501409288608 0 8204.0 -0.7802501409288608 1
gene  1 16 79 0.23010883178219355 0 8205.0 0.23010883178219355 1
gene  1 17 79 -0.040888290482008816 0 8206.0 -0.040888290482008816 1
gene  1 19 79 0.4632567466814338 0 8208.0 0.4632567466814338 1
gene  1 20 79 -0.4749287833034448 0 8209.0 -0.4749287833034448 1
gene  1 24 79 0.8998361223593894 0 8213.0 0.8998361223593894 1
gene  1 26 79 0.7559657895626465 0 8215.0 0.7559657895626465 1
gene  1 30 79 -0.2075264860781565 0 8219.0 -0.2075264860781565 1
gene  1 31 79 0.9125174314482549 0 8220.0 0.9125174314482549 1
gene  1 32 79 -0.3082956340358316 0 8221.0 -0.3082956340358316 1
gene  1 35 79 -0.9834191659667801 0 8224.0 -0.9834191659667801 1
gene  1 36 79 -0.12576481686871077 0 8225.0 -0.12576481686871077 1
gene  1 38 79 0.6329997948289532 0 8227.0 0.6329997948289532 1
gene  1 40 79 -0.10725676040788701 0 8229.0 -0.10725676040788701 1
gene  1 41 79 0.41591970297023617 0 8230.0 0.41591970297023617 1
gene  1 46 79 0.14469105179747865 0 8235.0 0.14469105179747865 1
gene  1 48 79 -0.7347665811390285 0 8237.0 -0.7347665811390285 1
gene  1 49 79 -0.89844765788932 0 8238.0 -0.89844765788932 1
gene  1 50 79 0.5439280583576811 0 8239.0 0.5439280583576811 1
gene  1 51 79 -0.312135969110505 0 8240.0 -0.312135969110505 1
gene  1 53 79 -0.7122152655108541 0 8242.0 -0.7122152655108541 1
gene  1 54 79 0.07740800903325751 0 8243.0 0.07740800903325751 1
gene  1 59 79 -0.23311427791991768 0 8248.0 -0.23311427791991768 1
gene  1 61 79 -0.866633223374411 0 8250.0 -0.866633223374411 1
gene  1 63 79 0.8255752295385443 0 8252.0 0.8255752295385443 1
gene  1 64 79 -0.30339338471141 0 8253.0 -0.30339338471141 1
gene  1 65 79 -0.780577244872724 0 8254.0 -0.780577244872724 1
gene  1 67 79 0.6979959273633771 0 8256.0 0.6979959273633771 1
gene  1 68 79 -0.5010006205317733 0 8257.0 -0.5010006205317733 1
gene  1 69 79 0.8814626345345454 0 8258.0 0.8814626345345454 1
gene  1 72 79 -0.39862315301779294 0 8261.0 -0.39862315301779294 1
gene  1 73 79 -0.4415622441625213 0 8262.0 -0.4415622441625213 1
gene  1 74 79 -0.07420956534120215 0 8263.0 -0.07420956534120215 1
gene  1 77 79 0.6387213896988667 0 8266.0 0.6387213896988667 1
