genomestart  40
trait 1 0.0 0.0 0.0 0.0 0.0 0.0 0.0 0.0 0.0 0.0 0.0 0.0 0.0 0.0 0.0 0.0 0.0 0.0 0.0 0.0 
node 1 1 1 1
node 2 1 1 1
node 3 1 1 1
node 4 1 1 1
node 5 1 1 3
node 6 1 0 0
node 7 1 0 0
node 8 1 0 0
node 9 1 0 0
node 16 1 0 2
gene  1 2 6 -0.6781425165377621 0 81.0 -0.6781425165377621 1
gene  1 3 6 0.6746749438933857 0 82.0 0.6746749438933857 1
gene  1 4 6 -0.8956007184145921 0 83.0 -0.8956007184145921 1
gene  1 5 6 0.3646914487366546 0 84.0 0.3646914487366546 1
gene  1 5 7 -0.38352444350724546 0 100.0 -0.38352444350724546 1
gene  1 6 7 0.147685364256269 0 101.0 0.147685364256269 1
gene  1 1 8 -0.11060767379374736 0 112.0 -0.11060767379374736 1
gene  1 2 8 0.7350167350074344 0 113.0 0.7350167350074344 1
gene  1 3 8 -0.16287739420357106 0 114.0 -0.16287739420357106 1
gene  1 5 8 -0.5617554415066623 0 116.0 -0.5617554415066623 1
gene  1 6 8 0.2633352580126015 0 117.0 0.2633352580126015 1
gene  1 1 9 -0.1153776292397487 0 128.0 -0.1153776292397487 1
gene  1 4 9 0.895160511650746 0 131.0 0.895160511650746 1
gene  1 5 9 0.1407222516252462 0 132.0 0.1407222516252462 1
gene  1 7 9 -0.10356008769990521 0 134.0 -0.10356008769990521 1
gene  1 1 16 -0.573046489072005 0 240.0 -0.573046489072005 1
gene  1 2 16 0.058979645986866114 0 241.0 0.058979645986866114 1
gene  1 3 16 -0.8223948727288064 0 242.0 -0.8223948727288064 1
gene  1 4 16 0.8491406942900078 0 243.0 0.8491406942900078 1
gene  1 5 16 0.09261235751680408 0 244.0 0.09261235751680408 1
gene  1 6 16 0.7696207354571551 0 245.0 0.7696207354571551 1
gene  1 8 16 -0.5917918101632811 0 247.0 -0.5917918101632811 1
gene  1 9 16 -0.3608320575034696 0 248.0 -0.3608320575034696 1
genomeend 40
