genomestart  46
trait 1 0.0 0.0 0.0 0.0 0.0 0.0 0.0 0.0 0.0 0.0 0.0 0.0 0.0 0.0 0.0 0.0 0.0 0.0 0.0 0.0 
node 1 1 1 1
node 2 1 1 1
node 3 1 1 1
node 4 1 1 1
node 5 1 1 3
node 6 1 0 0
node 7 1 0 0
node 8 1 0 0
node 9 1 0 0
node 10 1 0 0
node 11 1 0 0
node 12 1 0 0
node 13 1 0 0
node 16 1 0 2
gene  1 2 7 -0.6898313519564245 0 97.0 -0.6898313519564245 1
gene  1 3 7 0.5988155794667168 0 98.0 0.5988155794667168 1
gene  1 6 7 -0.5953358291764516 0 101.0 -0.5953358291764516 1
gene  1 3 8 0.9718609528642786 0 114.0 0.9718609528642786 1
gene  1 5 8 -0.8751115703133343 0 116.0 -0.8751115703133343 1
gene  1 6 8 -0.20954661117920736 0 117.0 -0.20954661117920736 1
gene  1 7 8 -0.07685317937386849 0 118.0 -0.07685317937386849 1
gene  1 2 9 -0.8958697829226746 0 129.0 -0.8958697829226746 1
gene  1 6 9 -0.9798845782124774 0 133.0 -0.9798845782124774 1
gene  1 7 9 0.4724553759848248 0 134.0 0.4724553759848248 1
gene  1 2 10 0.2894060948644317 0 145.0 0.2894060948644317 1
gene  1 3 10 -0.1373709603499812 0 146.0 -0.1373709603499812 1
gene  1 4 10 -0.4755560539473057 0 147.0 -0.4755560539473057 1
gene  1 5 10 0.05988829858586031 0 148.0 0.05988829858586031 1
gene  1 8 10 0.7983525335211529 0 151.0 0.7983525335211529 1
gene  1 3 11 -0.18186429378698843 0 162.0 -0.18186429378698843 1
gene  1 6 11 0.06507812059930707 0 165.0 0.06507812059930707 1
gene  1 8 11 0.27526589199847895 0 167.0 0.27526589199847895 1
gene  1 2 12 0.01067424370947434 0 177.0 0.01067424370947434 1
gene  1 3 12 0.017956337461732197 0 178.0 0.017956337461732197 1
gene  1 4 12 -0.16884262536048678 0 179.0 -0.16884262536048678 1
gene  1 5 12 0.8223430768788997 0 180.0 0.8223430768788997 1
gene  1 6 12 0.6280003532689133 0 181.0 0.6280003532689133 1
gene  1 9 12 -0.31215910301396443 0 184.0 -0.31215910301396443 1
gene  1 10 12 -0.37904819697133774 0 185.0 -0.37904819697133774 1
gene  1 2 13 -0.25410824531199383 0 193.0 -0.25410824531199383 1
gene  1 3 13 -0.8490313364790915 0 194.0 -0.8490313364790915 1
gene  1 7 13 -0.4302534052823297 0 198.0 -0.4302534052823297 1
gene  1 8 13 -0.029745375907196947 0 199.0 -0.029745375907196947 1
gene  1 11 13 -0.579990683707524 0 202.0 -0.579990683707524 1
gene  1 12 13 -0.7943521761269754 0 203.0 -0.7943521761269754 1
gene  1 1 16 0.5731796135890865 0 240.0 0.5731796135890865 1
gene  1 3 16 0.04771194583348537 0 242.0 0.04771194583348537 1
gene  1 4 16 0.82506789865583 0 243.0 0.82506789865583 1
gene  1 5 16 0.6650491871759346 0 244.0 0.6650491871759346 1
gene  1 6 16 -0.7855810146361719 0 245.0 -0.7855810146361719 1
gene  1 7 16 -0.8318952452186814 0 246.0 -0.8318952452186814 1
gene  1 8 16 -0.03664344582320345 0 247.0 -0.03664344582320345 1
gene  1 9 16 -0.10751627580617473 0 248.0 -0.10751627580617473 1
genomeend 46
