genomestart  14
trait 1 0.0 0.0 0.0 0.0 0.0 0.0 0.0 0.0 0.0 0.0 0.0 0.0 0.0 0.0 0.0 0.0 0.0 0.0 0.0 0.0 
node 1 1 1 1
node 2 1 1 1
node 3 1 1 1
node 4 1 1 1
node 5 1 1 3
node 6 1 0 0
node 7 1 0 0
node 8 1 0 0
node 9 1 0 0
node 10 1 0 0
node 11 1 0 0
node 12 1 0 0
node 16 1 0 2
gene  1 3 6 -0.9931761417613003 0 82.0 -0.9931761417613003 1
gene  1 2 7 0.047289391117394164 0 97.0 0.047289391117394164 1
gene  1 3 7 0.0367177345036479 0 98.0 0.0367177345036479 1
gene  1 1 8 -0.8384029515318413 0 112.0 -0.8384029515318413 1
gene  1 5 8 0.3197536276386074 0 116.0 0.3197536276386074 1
gene  1 6 8 0.3257974122744012 0 117.0 0.3257974122744012 1
gene  1 1 9 0.6903194112659935 0 128.0 0.6903194112659935 1
gene  1 2 9 -0.2703335675827999 0 129.0 -0.2703335675827999 1
gene  1 3 9 -0.171288888550716 0 130.0 -0.171288888550716 1
gene  1 6 9 0.12846032973476074 0 133.0 0.12846032973476074 1
gene  1 8 9 -0.7641872253780838 0 135.0 -0.7641872253780838 1
gene  1 2 10 0.6134317823812631 0 145.0 0.6134317823812631 1
gene  1 6 10 -0.6475533739563344 0 149.0 -0.6475533739563344 1
gene  1 7 10 -0.9822654116310133 0 150.0 -0.9822654116310133 1
gene  1 2 11 -0.8576246530087679 0 161.0 -0.8576246530087679 1
gene  1 8 11 0.26710599958366266 0 167.0 0.26710599958366266 1
gene  1 4 12 -0.876767506469718 0 179.0 -0.876767506469718 1
gene  1 6 12 -0.486287065953832 0 181.0 -0.486287065953832 1
gene  1 11 12 0.9275180968572193 0 186.0 0.9275180968572193 1
gene  1 3 16 0.5248754557219553 0 242.0 0.5248754557219553 1
gene  1 4 16 0.5735679810266542 0 243.0 0.5735679810266542 1
gene  1 8 16 -0.00935777689249806 0 247.0 -0.00935777689249806 1
gene  1 11 16 -0.7933600336987843 0 250.0 -0.7933600336987843 1
genomeend 14
