genomestart  30
trait 1 0.0 0.0 0.0 0.0 0.0 0.0 0.0 0.0 0.0 0.0 0.0 0.0 0.0 0.0 0.0 0.0 0.0 0.0 0.0 0.0 
node 1 1 1 1
node 2 1 1 1
node 3 1 1 1
node 4 1 1 1
node 5 1 1 3
node 6 1 0 0
node 7 1 0 0
node 8 1 0 0
node 9 1 0 0
node 10 1 0 0
node 11 1 0 0
node 16 1 0 2
gene  1 1 6 -0.2866329196699814 0 80.0 -0.2866329196699814 1
gene  1 2 6 0.11611000434640129 0 81.0 0.11611000434640129 1
gene  1 3 6 -0.17779534304754951 0 82.0 -0.17779534304754951 1
gene  1 4 6 -0.5330104662279834 0 83.0 -0.5330104662279834 1
gene  1 5 6 -0.7711249320283219 0 84.0 -0.7711249320283219 1
gene  1 1 7 -0.13497901573898652 0 96.0 -0.13497901573898652 1
gene  1 4 7 -0.4950179626537161 0 99.0 -0.4950179626537161 1
gene  1 6 7 0.5508041648816433 0 101.0 0.5508041648816433 1
gene  1 1 8 0.22584156249350607 0 112.0 0.22584156249350607 1
gene  1 3 8 0.32363454964300775 0 114.0 0.32363454964300775 1
gene  1 5 8 0.5840411877020353 0 116.0 0.5840411877020353 1
gene  1 6 8 0.4279269591796453 0 117.0 0.4279269591796453 1
gene  1 4 9 -0.301718352850607 0 131.0 -0.301718352850607 1
gene  1 8 9 -0.3320056908801736 0 135.0 -0.3320056908801736 1
gene  1 3 10 -0.5139294222039714 0 146.0 -0.5139294222039714 1
gene  1 4 10 -0.5113871678459833 0 147.0 -0.5113871678459833 1
gene  1 6 10 0.7926113712681773 0 149.0 0.7926113712681773 1
gene  1 8 10 -0.9095965609842985 0 151.0 -0.9095965609842985 1
gene  1 9 10 -0.2840842009156138 0 152.0 -0.2840842009156138 1
gene  1 1 11 -0.09444140362962183 0 160.0 -0.09444140362962183 1
gene  1 6 11 -0.6688989287084137 0 165.0 -0.6688989287084137 1
gene  1 9 11 -0.9158337486187912 0 168.0 -0.9158337486187912 1
gene  1 10 11 0.9056573959458989 0 169.0 0.9056573959458989 1
gene  1 2 16 -0.40925366693259413 0 241.0 -0.40925366693259413 1
gene  1 3 16 -0.0998036372411032 0 242.0 -0.0998036372411032 1
gene  1 4 16 0.2712779921016383 0 243.0 0.2712779921016383 1
gene  1 5 16 -0.43963871427437373 0 244.0 -0.43963871427437373 1
gene  1 6 16 -0.1813640092715988 0 245.0 -0.1813640092715988 1
gene  1 8 16 0.4474818677491581 0 247.0 0.4474818677491581 1
gene  1 9 16 0.003663452373467213 0 248.0 0.003663452373467213 1
gene  1 10 16 0.8656578600343888 0 249.0 0.8656578600343888 1
gene  1 11 16 -0.8903884234926399 0 250.0 -0.8903884234926399 1
genomeend 30
