genomestart  22
trait 1 0.0 0.0 0.0 0.0 0.0 0.0 0.0 0.0 0.0 0.0 0.0 0.0 0.0 0.0 0.0 0.0 0.0 0.0 0.0 0.0 
node 1 1 1 1
node 2 1 1 1
node 3 1 1 1
node 4 1 1 3
node 5 1 0 0
node 6 1 0 0
node 7 1 0 0
node 8 1 0 0
node 9 1 0 0
node 10 1 0 0
node 11 1 0 0
node 12 1 0 0
node 13 1 0 0
node 14 1 0 0
node 15 1 0 0
node 16 1 0 0
node 17 1 0 0
node 18 1 0 0
node 19 1 0 0
node 20 1 0 0
node 21 1 0 0
node 22 1 0 0
node 23 1 0 0
node 24 1 0 0
node 25 1 0 0
node 26 1 0 0
node 27 1 0 0
node 28 1 0 0
node 29 1 0 0
node 30 1 0 0
node 31 1 0 0
node 32 1 0 0
node 33 1 0 0
node 34 1 0 0
node 35 1 0 0
node 36 1 0 0
node 37 1 0 0
node 38 1 0 0
node 39 1 0 0
node 40 1 0 0
node 41 1 0 0
node 42 1 0 0
node 43 1 0 0
node 44 1 0 0
node 45 1 0 0
node 46 1 0 0
node 47 1 0 0
node 48 1 0 0
node 49 1 0 0
node 50 1 0 0
node 51 1 0 0
node 52 1 0 0
node 53 1 0 0
node 54 1 0 0
node 55 1 0 0
node 56 1 0 0
node 57 1 0 0
node 58 1 0 0
node 59 1 0 0
node 60 1 0 0
node 61 1 0 0
node 62 1 0 0
node 63 1 0 0
node 64 1 0 0
node 65 1 0 0
node 66 1 0 0
node 67 1 0 0
node 68 1 0 0
node 69 1 0 0
node 70 1 0 0
node 71 1 0 0
node 72 1 0 0
node 73 1 0 0
node 74 1 0 0
node 75 1 0 0
node 76 1 0 0
node 77 1 0 0
node 78 1 0 0
node 79 1 0 0
node 80 1 0 0
node 81 1 0 0
node 82 1 0 0
node 83 1 0 0
node 84 1 0 0
node 85 1 0 0
node 105 1 0 2
gene  1 1 5 0.2336553481089304 0 420.0 0.2336553481089304 1
gene  1 2 5 0.27559129964936 0 421.0 0.27559129964936 1
gene  1 1 6 0.7451445274701306 0 525.0 0.7451445274701306 1
gene  1 3 6 0.6985317448303533 0 527.0 0.6985317448303533 1
gene  1 3 7 0.6743497197273168 0 632.0 0.6743497197273168 1
gene  1 6 7 0.21942857469747445 0 635.0 0.21942857469747445 1
gene  1 6 8 -0.11471310257662592 0 740.0 -0.11471310257662592 1
gene  1 5 9 0.04995186246145644 0 844.0 0.04995186246145644 1
gene  1 2 10 0.4348760996641855 0 946.0 0.4348760996641855 1
gene  1 3 10 -0.07201290745811817 0 947.0 -0.07201290745811817 1
gene  1 4 10 0.9234343550139572 0 948.0 0.9234343550139572 1
gene  1 6 10 -0.5050141261119621 0 950.0 -0.5050141261119621 1
gene  1 2 11 -0.7906428187235136 0 1051.0 -0.7906428187235136 1
gene  1 5 11 -0.11880295672267205 0 1054.0 -0.11880295672267205 1
gene  1 6 11 -0.17154779338280957 0 1055.0 -0.17154779338280957 1
gene  1 7 11 -0.6511915151265414 0 1056.0 -0.6511915151265414 1
gene  1 8 11 -0.4086195321577485 0 1057.0 -0.4086195321577485 1
gene  1 9 11 -0.6191241009677879 0 1058.0 -0.6191241009677879 1
gene  1 10 11 0.8211892271891116 0 1059.0 0.8211892271891116 1
gene  1 2 12 -0.6155631953020875 0 1156.0 -0.6155631953020875 1
gene  1 3 12 -0.676009748029569 0 1157.0 -0.676009748029569 1
gene  1 4 12 -0.3740181189381032 0 1158.0 -0.3740181189381032 1
gene  1 5 12 0.5052645246560108 0 1159.0 0.5052645246560108 1
gene  1 7 12 0.2907546682646521 0 1161.0 0.2907546682646521 1
gene  1 8 12 -0.5890391884671108 0 1162.0 -0.5890391884671108 1
gene  1 9 12 0.8907929675298585 0 1163.0 0.8907929675298585 1
gene  1 11 12 0.9238185669612616 0 1165.0 0.9238185669612616 1
gene  1 2 13 -0.8937728960136514 0 1261.0 -0.8937728960136514 1
gene  1 5 13 -0.6336291192857834 0 1264.0 -0.6336291192857834 1
gene  1 9 13 0.9612338489854679 0 1268.0 0.9612338489854679 1
gene  1 11 13 0.2292460167413689 0 1270.0 0.2292460167413689 1
gene  1 12 13 0.2342239974619026 0 1271.0 0.2342239974619026 1
gene  1 4 14 0.28241595443881395 0 1368.0 0.28241595443881395 1
gene  1 6 14 -0.3515589840441158 0 1370.0 -0.3515589840441158 1
gene  1 7 14 0.8919102619623541 0 1371.0 0.8919102619623541 1
gene  1 9 14 0.47085551060222774 0 1373.0 0.47085551060222774 1
gene  1 10 14 -0.6276008717636369 0 1374.0 -0.6276008717636369 1
gene  1 12 14 -0.4928358686163008 0 1376.0 -0.4928358686163008 1
gene  1 1 15 -0.6866361893181167 0 1470.0 -0.6866361893181167 1
gene  1 5 15 0.7462544365066401 0 1474.0 0.7462544365066401 1
gene  1 7 15 -0.7283832040121287 0 1476.0 -0.7283832040121287 1
gene  1 8 15 0.16715971779198102 0 1477.0 0.16715971779198102 1
gene  1 9 15 0.3147217448827916 0 1478.0 0.3147217448827916 1
gene  1 12 15 -0.6637395412987956 0 1481.0 -0.6637395412987956 1
gene  1 1 16 -0.10903408676692383 0 1575.0 -0.10903408676692383 1
gene  1 3 16 0.9232575798202557 0 1577.0 0.9232575798202557 1
gene  1 5 16 0.33905133537845955 0 1579.0 0.33905133537845955 1
gene  1 8 16 -0.0972698645663096 0 1582.0 -0.0972698645663096 1
gene  1 9 16 0.5546696464672309 0 1583.0 0.5546696464672309 1
gene  1 11 16 -0.4005130221692479 0 1585.0 -0.4005130221692479 1
gene  1 13 16 0.17193908717433726 0 1587.0 0.17193908717433726 1
gene  1 14 16 0.7781821383380424 0 1588.0 0.7781821383380424 1
gene  1 2 17 -0.6440232731104755 0 1681.0 -0.6440232731104755 1
gene  1 3 17 -0.5772781727883058 0 1682.0 -0.5772781727883058 1
gene  1 5 17 0.7237124483022823 0 1684.0 0.7237124483022823 1
gene  1 9 17 0.689778252719128 0 1688.0 0.689778252719128 1
gene  1 11 17 -0.9814080567046589 0 1690.0 -0.9814080567046589 1
gene  1 12 17 0.7316984158894981 0 1691.0 0.7316984158894981 1
gene  1 13 17 0.44886435401632097 0 1692.0 0.44886435401632097 1
gene  1 14 17 0.7145903286577339 0 1693.0 0.7145903286577339 1
gene  1 16 17 0.6648937377353259 0 1695.0 0.6648937377353259 1
gene  1 1 18 0.2644384298874142 0 1785.0 0.2644384298874142 1
gene  1 4 18 0.16683480874102974 0 1788.0 0.16683480874102974 1
gene  1 5 18 0.6463155273420141 0 1789.0 0.6463155273420141 1
gene  1 8 18 0.39766045986494625 0 1792.0 0.39766045986494625 1
gene  1 10 18 0.49536425524310845 0 1794.0 0.49536425524310845 1
gene  1 11 18 0.48397983188005456 0 1795.0 0.48397983188005456 1
gene  1 14 18 -0.5100650304631835 0 1798.0 -0.5100650304631835 1
gene  1 1 19 0.7295731497561385 0 1890.0 0.7295731497561385 1
gene  1 2 19 0.7324735485905782 0 1891.0 0.7324735485905782 1
gene  1 3 19 -0.49677418196432654 0 1892.0 -0.49677418196432654 1
gene  1 4 19 -0.7762244534380462 0 1893.0 -0.7762244534380462 1
gene  1 10 19 0.04316103280140249 0 1899.0 0.04316103280140249 1
gene  1 11 19 0.8026198775047972 0 1900.0 0.8026198775047972 1
gene  1 14 19 -0.8553774626739983 0 1903.0 -0.8553774626739983 1
gene  1 15 19 -0.13475296532491665 0 1904.0 -0.13475296532491665 1
gene  1 16 19 0.08117317567949944 0 1905.0 0.08117317567949944 1
gene  1 17 19 0.42066981590803776 0 1906.0 0.42066981590803776 1
gene  1 18 19 0.1498438253975768 0 1907.0 0.1498438253975768 1
gene  1 1 20 0.8824190998262006 0 1995.0 0.8824190998262006 1
gene  1 5 20 0.48238035948864066 0 1999.0 0.48238035948864066 1
gene  1 6 20 0.20685498875361696 0 2000.0 0.20685498875361696 1
gene  1 9 20 0.933830426772397 0 2003.0 0.933830426772397 1
gene  1 10 20 -0.013911373594750032 0 2004.0 -0.013911373594750032 1
gene  1 13 20 -0.05084134822106878 0 2007.0 -0.05084134822106878 1
gene  1 15 20 0.40080990627268565 0 2009.0 0.40080990627268565 1
gene  1 16 20 0.804879831044059 0 2010.0 0.804879831044059 1
gene  1 17 20 -0.8819817498116608 0 2011.0 -0.8819817498116608 1
gene  1 18 20 0.3558656061407858 0 2012.0 0.3558656061407858 1
gene  1 19 20 -0.7840612077265231 0 2013.0 -0.7840612077265231 1
gene  1 1 21 -0.6453231142633191 0 2100.0 -0.6453231142633191 1
gene  1 4 21 0.8691607187273557 0 2103.0 0.8691607187273557 1
gene  1 8 21 0.9416702039691733 0 2107.0 0.9416702039691733 1
gene  1 10 21 -0.5388796013186375 0 2109.0 -0.5388796013186375 1
gene  1 11 21 -0.019547197980132047 0 2110.0 -0.019547197980132047 1
gene  1 13 21 0.1958837551174608 0 2112.0 0.1958837551174608 1
gene  1 15 21 0.535413317033024 0 2114.0 0.535413317033024 1
gene  1 17 21 -0.628113425114288 0 2116.0 -0.628113425114288 1
gene  1 1 22 -0.4946445770100427 0 2205.0 -0.4946445770100427 1
gene  1 3 22 -0.5632212570751369 0 2207.0 -0.5632212570751369 1
gene  1 5 22 0.46992693439468347 0 2209.0 0.46992693439468347 1
gene  1 8 22 0.2749660984984278 0 2212.0 0.2749660984984278 1
gene  1 14 22 -0.27204203377115344 0 2218.0 -0.27204203377115344 1
gene  1 15 22 0.3133175094989664 0 2219.0 0.3133175094989664 1
gene  1 16 22 0.2949823703731943 0 2220.0 0.2949823703731943 1
gene  1 20 22 -0.6101018078509465 0 2224.0 -0.6101018078509465 1
gene  1 2 23 0.5041899470791795 0 2311.0 0.5041899470791795 1
gene  1 5 23 0.6919993193956792 0 2314.0 0.6919993193956792 1
gene  1 6 23 0.622093577188317 0 2315.0 0.622093577188317 1
gene  1 10 23 -0.0017864102379882008 0 2319.0 -0.0017864102379882008 1
gene  1 12 23 -0.3362604437921306 0 2321.0 -0.3362604437921306 1
gene  1 15 23 -0.35507195146558035 0 2324.0 -0.35507195146558035 1
gene  1 17 23 -0.4383569764747902 0 2326.0 -0.4383569764747902 1
gene  1 18 23 0.8181875442418214 0 2327.0 0.8181875442418214 1
gene  1 21 23 -0.41840303275574164 0 2330.0 -0.41840303275574164 1
gene  1 2 24 0.6962096205683446 0 2416.0 0.6962096205683446 1
gene  1 3 24 0.9121845345704152 0 2417.0 0.9121845345704152 1
gene  1 4 24 0.8240416297714966 0 2418.0 0.8240416297714966 1
gene  1 5 24 -0.036668243859497296 0 2419.0 -0.036668243859497296 1
gene  1 7 24 -0.8480790760211622 0 2421.0 -0.8480790760211622 1
gene  1 9 24 0.49742073592767644 0 2423.0 0.49742073592767644 1
gene  1 10 24 0.38058865086563254 0 2424.0 0.38058865086563254 1
gene  1 11 24 -0.31433249422780085 0 2425.0 -0.31433249422780085 1
gene  1 12 24 0.2617901845052072 0 2426.0 0.2617901845052072 1
gene  1 13 24 0.4935341075997023 0 2427.0 0.4935341075997023 1
gene  1 14 24 0.5013011400929358 0 2428.0 0.5013011400929358 1
gene  1 15 24 -0.14101918891067222 0 2429.0 -0.14101918891067222 1
gene  1 16 24 0.7797047224744668 0 2430.0 0.7797047224744668 1
gene  1 18 24 0.13150420846533706 0 2432.0 0.13150420846533706 1
gene  1 20 24 0.37918501986988495 0 2434.0 0.37918501986988495 1
gene  1 22 24 0.6425632100466279 0 2436.0 0.6425632100466279 1
gene  1 23 24 -0.7441867207753824 0 2437.0 -0.7441867207753824 1
gene  1 1 25 0.39272412008889046 0 2520.0 0.39272412008889046 1
gene  1 2 25 -0.6163783059626191 0 2521.0 -0.6163783059626191 1
gene  1 3 25 -0.4547345431304546 0 2522.0 -0.4547345431304546 1
gene  1 5 25 0.3255518147392009 0 2524.0 0.3255518147392009 1
gene  1 6 25 0.7186204569096027 0 2525.0 0.7186204569096027 1
gene  1 7 25 -0.28486416693942185 0 2526.0 -0.28486416693942185 1
gene  1 10 25 -0.7003231958150614 0 2529.0 -0.7003231958150614 1
gene  1 14 25 -0.28615387566878125 0 2533.0 -0.28615387566878125 1
gene  1 17 25 0.2905476965921028 0 2536.0 0.2905476965921028 1
gene  1 18 25 -0.4691671716206919 0 2537.0 -0.4691671716206919 1
gene  1 20 25 0.08017008274960757 0 2539.0 0.08017008274960757 1
gene  1 22 25 0.4384895138376024 0 2541.0 0.4384895138376024 1
gene  1 24 25 -0.8335040603136322 0 2543.0 -0.8335040603136322 1
gene  1 3 26 -0.788112723402005 0 2627.0 -0.788112723402005 1
gene  1 10 26 0.6098558011109626 0 2634.0 0.6098558011109626 1
gene  1 11 26 0.20204057081715243 0 2635.0 0.20204057081715243 1
gene  1 14 26 -0.7758819124222153 0 2638.0 -0.7758819124222153 1
gene  1 16 26 -0.8726674735299668 0 2640.0 -0.8726674735299668 1
gene  1 17 26 -0.2971607933471596 0 2641.0 -0.2971607933471596 1
gene  1 19 26 0.7493176975649897 0 2643.0 0.7493176975649897 1
gene  1 22 26 0.8552213415933163 0 2646.0 0.8552213415933163 1
gene  1 23 26 -0.0594908290260876 0 2647.0 -0.0594908290260876 1
gene  1 24 26 0.04018577182686578 0 2648.0 0.04018577182686578 1
gene  1 25 26 0.07359755931676293 0 2649.0 0.07359755931676293 1
gene  1 1 27 0.843068917651681 0 2730.0 0.843068917651681 1
gene  1 2 27 -0.9234330618124982 0 2731.0 -0.9234330618124982 1
gene  1 3 27 0.6081478389147912 0 2732.0 0.6081478389147912 1
gene  1 5 27 0.9609203358727559 0 2734.0 0.9609203358727559 1
gene  1 6 27 -0.33872013671094425 0 2735.0 -0.33872013671094425 1
gene  1 7 27 -0.3545097880642829 0 2736.0 -0.3545097880642829 1
gene  1 8 27 -0.16919700206984345 0 2737.0 -0.16919700206984345 1
gene  1 9 27 -0.8431651969886749 0 2738.0 -0.8431651969886749 1
gene  1 10 27 -0.591881238269239 0 2739.0 -0.591881238269239 1
gene  1 11 27 -0.9329366656626802 0 2740.0 -0.9329366656626802 1
gene  1 12 27 -0.17185639315433998 0 2741.0 -0.17185639315433998 1
gene  1 15 27 0.11795806342516868 0 2744.0 0.11795806342516868 1
gene  1 18 27 -0.020040189352515392 0 2747.0 -0.020040189352515392 1
gene  1 19 27 0.47606613008296905 0 2748.0 0.47606613008296905 1
gene  1 20 27 -0.7354785780521509 0 2749.0 -0.7354785780521509 1
gene  1 21 27 -0.9996699437016795 0 2750.0 -0.9996699437016795 1
gene  1 23 27 0.6213738705313723 0 2752.0 0.6213738705313723 1
gene  1 24 27 -0.03935162829811867 0 2753.0 -0.03935162829811867 1
gene  1 25 27 0.12390670898374712 0 2754.0 0.12390670898374712 1
gene  1 26 27 0.8030940942549496 0 2755.0 0.8030940942549496 1
gene  1 1 28 -0.4040056719696625 0 2835.0 -0.4040056719696625 1
gene  1 2 28 -0.924967822413755 0 2836.0 -0.924967822413755 1
gene  1 3 28 0.4756852579086085 0 2837.0 0.4756852579086085 1
gene  1 4 28 -0.7311783824998768 0 2838.0 -0.7311783824998768 1
gene  1 5 28 -0.4849021530558002 0 2839.0 -0.4849021530558002 1
gene  1 6 28 -0.5710094465003257 0 2840.0 -0.5710094465003257 1
gene  1 8 28 -0.15090516468539983 0 2842.0 -0.15090516468539983 1
gene  1 9 28 -0.4484443591344647 0 2843.0 -0.4484443591344647 1
gene  1 10 28 0.8060736578696959 0 2844.0 0.8060736578696959 1
gene  1 11 28 0.6052214981195597 0 2845.0 0.6052214981195597 1
gene  1 13 28 -0.783196913851127 0 2847.0 -0.783196913851127 1
gene  1 14 28 -0.6648278110402185 0 2848.0 -0.6648278110402185 1
gene  1 16 28 0.7933111194243317 0 2850.0 0.7933111194243317 1
gene  1 17 28 0.0032989648668836358 0 2851.0 0.0032989648668836358 1
gene  1 18 28 -0.14647592146250377 0 2852.0 -0.14647592146250377 1
gene  1 20 28 -0.5573867415545429 0 2854.0 -0.5573867415545429 1
gene  1 22 28 -0.4866137685121763 0 2856.0 -0.4866137685121763 1
gene  1 23 28 0.7056320745997605 0 2857.0 0.7056320745997605 1
gene  1 24 28 -0.057651338920983286 0 2858.0 -0.057651338920983286 1
gene  1 25 28 0.5307728248631954 0 2859.0 0.5307728248631954 1
gene  1 5 29 0.11677841654066579 0 2944.0 0.11677841654066579 1
gene  1 6 29 0.34003206949245524 0 2945.0 0.34003206949245524 1
gene  1 7 29 -0.833358091838876 0 2946.0 -0.833358091838876 1
gene  1 8 29 0.7070606988632233 0 2947.0 0.7070606988632233 1
gene  1 10 29 -0.12624554467384774 0 2949.0 -0.12624554467384774 1
gene  1 13 29 0.8528991311499966 0 2952.0 0.8528991311499966 1
gene  1 14 29 -0.9424629413722553 0 2953.0 -0.9424629413722553 1
gene  1 15 29 0.7713576560829544 0 2954.0 0.7713576560829544 1
gene  1 18 29 0.7430195167716398 0 2957.0 0.7430195167716398 1
gene  1 19 29 -0.9583071699648739 0 2958.0 -0.9583071699648739 1
gene  1 24 29 -0.8851070274733944 0 2963.0 -0.8851070274733944 1
gene  1 26 29 0.7458330896276881 0 2965.0 0.7458330896276881 1
gene  1 27 29 0.344961771809396 0 2966.0 0.344961771809396 1
gene  1 1 30 0.8237772928963278 0 3045.0 0.8237772928963278 1
gene  1 4 30 -0.4687301642229592 0 3048.0 -0.4687301642229592 1
gene  1 5 30 -0.7700442647845065 0 3049.0 -0.7700442647845065 1
gene  1 8 30 -0.6005406910752298 0 3052.0 -0.6005406910752298 1
gene  1 12 30 -0.38266080810631264 0 3056.0 -0.38266080810631264 1
gene  1 15 30 0.3241027998644481 0 3059.0 0.3241027998644481 1
gene  1 16 30 -0.6127018456904388 0 3060.0 -0.6127018456904388 1
gene  1 20 30 0.26561777544360055 0 3064.0 0.26561777544360055 1
gene  1 21 30 -0.015000380220813514 0 3065.0 -0.015000380220813514 1
gene  1 22 30 0.03897181994211152 0 3066.0 0.03897181994211152 1
gene  1 23 30 -0.99669633355767 0 3067.0 -0.99669633355767 1
gene  1 27 30 0.2503514349376883 0 3071.0 0.2503514349376883 1
gene  1 2 31 0.09980470784357753 0 3151.0 0.09980470784357753 1
gene  1 4 31 -0.8094825885690312 0 3153.0 -0.8094825885690312 1
gene  1 5 31 -0.6870539627189247 0 3154.0 -0.6870539627189247 1
gene  1 8 31 0.26396810004269455 0 3157.0 0.26396810004269455 1
gene  1 11 31 -0.499552180760491 0 3160.0 -0.499552180760491 1
gene  1 17 31 -0.19292358142022592 0 3166.0 -0.19292358142022592 1
gene  1 18 31 0.956640386557758 0 3167.0 0.956640386557758 1
gene  1 19 31 0.7880247771856825 0 3168.0 0.7880247771856825 1
gene  1 21 31 0.3895037463102099 0 3170.0 0.3895037463102099 1
gene  1 22 31 -0.8592783417984233 0 3171.0 -0.8592783417984233 1
gene  1 23 31 -0.5273903714705005 0 3172.0 -0.5273903714705005 1
gene  1 24 31 -0.03278318824424087 0 3173.0 -0.03278318824424087 1
gene  1 25 31 -0.8464995359280342 0 3174.0 -0.8464995359280342 1
gene  1 27 31 -0.2001630803100859 0 3176.0 -0.2001630803100859 1
gene  1 28 31 -0.3904941736225921 0 3177.0 -0.3904941736225921 1
gene  1 30 31 -0.7802205724618926 0 3179.0 -0.7802205724618926 1
gene  1 1 32 -0.23015807244090103 0 3255.0 -0.23015807244090103 1
gene  1 5 32 0.07545439409540933 0 3259.0 0.07545439409540933 1
gene  1 6 32 -0.27657438976213233 0 3260.0 -0.27657438976213233 1
gene  1 8 32 -0.9166810127789113 0 3262.0 -0.9166810127789113 1
gene  1 9 32 0.9489858566584203 0 3263.0 0.9489858566584203 1
gene  1 12 32 -0.7206224509709189 0 3266.0 -0.7206224509709189 1
gene  1 13 32 0.7000743979971105 0 3267.0 0.7000743979971105 1
gene  1 17 32 0.9857633174414615 0 3271.0 0.9857633174414615 1
gene  1 18 32 0.6394105815668133 0 3272.0 0.6394105815668133 1
gene  1 20 32 0.05870432294990613 0 3274.0 0.05870432294990613 1
gene  1 22 32 0.8988570380892289 0 3276.0 0.8988570380892289 1
gene  1 24 32 -0.14715944338869846 0 3278.0 -0.14715944338869846 1
gene  1 25 32 0.8911165795397448 0 3279.0 0.8911165795397448 1
gene  1 26 32 -0.06408574561452163 0 3280.0 -0.06408574561452163 1
gene  1 28 32 -0.07276478815037091 0 3282.0 -0.07276478815037091 1
gene  1 30 32 -0.581092477140541 0 3284.0 -0.581092477140541 1
gene  1 1 33 -0.330608248986772 0 3360.0 -0.330608248986772 1
gene  1 4 33 0.9117804274325118 0 3363.0 0.9117804274325118 1
gene  1 6 33 -0.770376806312255 0 3365.0 -0.770376806312255 1
gene  1 9 33 -0.12391721224910424 0 3368.0 -0.12391721224910424 1
gene  1 12 33 0.3893503584753104 0 3371.0 0.3893503584753104 1
gene  1 13 33 -0.9635571027664737 0 3372.0 -0.9635571027664737 1
gene  1 16 33 0.24254678443315836 0 3375.0 0.24254678443315836 1
gene  1 18 33 0.9233801781594662 0 3377.0 0.9233801781594662 1
gene  1 20 33 0.3052044438307011 0 3379.0 0.3052044438307011 1
gene  1 21 33 -0.035792683108416656 0 3380.0 -0.035792683108416656 1
gene  1 24 33 0.9700275677415537 0 3383.0 0.9700275677415537 1
gene  1 26 33 -0.2489024386635703 0 3385.0 -0.2489024386635703 1
gene  1 27 33 -0.5676428658969289 0 3386.0 -0.5676428658969289 1
gene  1 30 33 -0.2549261715981772 0 3389.0 -0.2549261715981772 1
gene  1 31 33 0.26046490031925007 0 3390.0 0.26046490031925007 1
gene  1 32 33 0.5418372581212318 0 3391.0 0.5418372581212318 1
gene  1 1 34 -0.9591962320100822 0 3465.0 -0.9591962320100822 1
gene  1 2 34 0.3233289547998869 0 3466.0 0.3233289547998869 1
gene  1 3 34 0.9115327783295014 0 3467.0 0.9115327783295014 1
gene  1 5 34 0.023629724267788754 0 3469.0 0.023629724267788754 1
gene  1 7 34 0.7679729231258743 0 3471.0 0.7679729231258743 1
gene  1 8 34 0.4266445060217686 0 3472.0 0.4266445060217686 1
gene  1 20 34 -0.050619196961096735 0 3484.0 -0.050619196961096735 1
gene  1 22 34 -0.048705857951460985 0 3486.0 -0.048705857951460985 1
gene  1 23 34 0.458449335438494 0 3487.0 0.458449335438494 1
gene  1 24 34 0.8454113539386817 0 3488.0 0.8454113539386817 1
gene  1 25 34 0.7202602997918235 0 3489.0 0.7202602997918235 1
gene  1 29 34 -0.16815807532253657 0 3493.0 -0.16815807532253657 1
gene  1 31 34 0.7590133215604473 0 3495.0 0.7590133215604473 1
gene  1 32 34 -0.6681671054890347 0 3496.0 -0.6681671054890347 1
gene  1 2 35 0.8998480701549714 0 3571.0 0.8998480701549714 1
gene  1 3 35 0.006162502603838993 0 3572.0 0.006162502603838993 1
gene  1 4 35 0.5332707892654036 0 3573.0 0.5332707892654036 1
gene  1 5 35 -0.716218710086409 0 3574.0 -0.716218710086409 1
gene  1 8 35 -0.9897570170827571 0 3577.0 -0.9897570170827571 1
gene  1 9 35 0.4117234068687662 0 3578.0 0.4117234068687662 1
gene  1 12 35 0.08559162669597176 0 3581.0 0.08559162669597176 1
gene  1 13 35 -0.8047015552734726 0 3582.0 -0.8047015552734726 1
gene  1 14 35 -0.37008400672031194 0 3583.0 -0.37008400672031194 1
gene  1 15 35 -0.4738329463996348 0 3584.0 -0.4738329463996348 1
gene  1 17 35 0.4568468899121175 0 3586.0 0.4568468899121175 1
gene  1 23 35 1.6822299207019942E-4 0 3592.0 1.6822299207019942E-4 1
gene  1 24 35 0.2531776708810999 0 3593.0 0.2531776708810999 1
gene  1 25 35 -0.34037134318410756 0 3594.0 -0.34037134318410756 1
gene  1 28 35 -0.4002190434205578 0 3597.0 -0.4002190434205578 1
gene  1 29 35 0.358346854117954 0 3598.0 0.358346854117954 1
gene  1 31 35 0.43193620729340465 0 3600.0 0.43193620729340465 1
gene  1 32 35 -0.9938459065833591 0 3601.0 -0.9938459065833591 1
gene  1 1 36 -0.8051727377068076 0 3675.0 -0.8051727377068076 1
gene  1 6 36 -0.30036398897594896 0 3680.0 -0.30036398897594896 1
gene  1 8 36 0.6737277561874585 0 3682.0 0.6737277561874585 1
gene  1 11 36 -0.266037064307701 0 3685.0 -0.266037064307701 1
gene  1 12 36 0.43534827219441197 0 3686.0 0.43534827219441197 1
gene  1 14 36 0.9219924335981701 0 3688.0 0.9219924335981701 1
gene  1 17 36 0.8963736269542929 0 3691.0 0.8963736269542929 1
gene  1 19 36 -0.14633019793457713 0 3693.0 -0.14633019793457713 1
gene  1 20 36 0.6478563451361422 0 3694.0 0.6478563451361422 1
gene  1 23 36 -0.03558431632659387 0 3697.0 -0.03558431632659387 1
gene  1 24 36 0.09593603819416874 0 3698.0 0.09593603819416874 1
gene  1 25 36 0.5043710561459944 0 3699.0 0.5043710561459944 1
gene  1 27 36 -0.8111539184897621 0 3701.0 -0.8111539184897621 1
gene  1 28 36 -0.07238745556996362 0 3702.0 -0.07238745556996362 1
gene  1 29 36 0.4684524977382869 0 3703.0 0.4684524977382869 1
gene  1 31 36 -0.5279855234698728 0 3705.0 -0.5279855234698728 1
gene  1 33 36 0.08968907748941313 0 3707.0 0.08968907748941313 1
gene  1 34 36 -0.3748930074299759 0 3708.0 -0.3748930074299759 1
gene  1 35 36 0.706016641646475 0 3709.0 0.706016641646475 1
gene  1 1 37 -0.7152106411674218 0 3780.0 -0.7152106411674218 1
gene  1 2 37 -0.12851220710300704 0 3781.0 -0.12851220710300704 1
gene  1 3 37 0.18257946329976082 0 3782.0 0.18257946329976082 1
gene  1 4 37 0.9628529483658251 0 3783.0 0.9628529483658251 1
gene  1 6 37 0.06983411754077018 0 3785.0 0.06983411754077018 1
gene  1 8 37 0.5721314214791774 0 3787.0 0.5721314214791774 1
gene  1 9 37 -0.3546248174294596 0 3788.0 -0.3546248174294596 1
gene  1 11 37 0.12477702841978056 0 3790.0 0.12477702841978056 1
gene  1 13 37 0.06994925860710488 0 3792.0 0.06994925860710488 1
gene  1 14 37 -0.7704890681389877 0 3793.0 -0.7704890681389877 1
gene  1 15 37 -0.7214601861471465 0 3794.0 -0.7214601861471465 1
gene  1 16 37 -0.40555930060793444 0 3795.0 -0.40555930060793444 1
gene  1 17 37 0.017487266680842217 0 3796.0 0.017487266680842217 1
gene  1 18 37 -0.0518709744545085 0 3797.0 -0.0518709744545085 1
gene  1 19 37 0.851908717778428 0 3798.0 0.851908717778428 1
gene  1 20 37 0.8004725709876979 0 3799.0 0.8004725709876979 1
gene  1 24 37 0.9641565859748139 0 3803.0 0.9641565859748139 1
gene  1 25 37 -0.5280289056498526 0 3804.0 -0.5280289056498526 1
gene  1 26 37 -0.9494458149596395 0 3805.0 -0.9494458149596395 1
gene  1 28 37 0.8993389224611377 0 3807.0 0.8993389224611377 1
gene  1 33 37 -0.6482366308144378 0 3812.0 -0.6482366308144378 1
gene  1 35 37 0.1003677842534273 0 3814.0 0.1003677842534273 1
gene  1 2 38 -0.8320567971811907 0 3886.0 -0.8320567971811907 1
gene  1 4 38 0.08170447783143597 0 3888.0 0.08170447783143597 1
gene  1 8 38 -0.7916542525076483 0 3892.0 -0.7916542525076483 1
gene  1 9 38 -0.5766689684658891 0 3893.0 -0.5766689684658891 1
gene  1 12 38 -0.3343577216230039 0 3896.0 -0.3343577216230039 1
gene  1 13 38 0.25274531964814695 0 3897.0 0.25274531964814695 1
gene  1 15 38 0.8940076072938822 0 3899.0 0.8940076072938822 1
gene  1 16 38 -0.11380919784919752 0 3900.0 -0.11380919784919752 1
gene  1 17 38 0.6240607727559995 0 3901.0 0.6240607727559995 1
gene  1 20 38 -0.3319026249163025 0 3904.0 -0.3319026249163025 1
gene  1 21 38 -0.9378539410216635 0 3905.0 -0.9378539410216635 1
gene  1 22 38 0.4609869607410081 0 3906.0 0.4609869607410081 1
gene  1 26 38 -0.5203589859102518 0 3910.0 -0.5203589859102518 1
gene  1 28 38 0.46319086936596743 0 3912.0 0.46319086936596743 1
gene  1 29 38 -0.47768780205407513 0 3913.0 -0.47768780205407513 1
gene  1 30 38 0.18715495244574187 0 3914.0 0.18715495244574187 1
gene  1 33 38 -0.9091023396105296 0 3917.0 -0.9091023396105296 1
gene  1 34 38 -0.8971305111006779 0 3918.0 -0.8971305111006779 1
gene  1 35 38 0.635515349056937 0 3919.0 0.635515349056937 1
gene  1 36 38 0.5921227743837962 0 3920.0 0.5921227743837962 1
gene  1 1 39 -0.28534106849941865 0 3990.0 -0.28534106849941865 1
gene  1 3 39 0.20420519572323392 0 3992.0 0.20420519572323392 1
gene  1 6 39 -0.9525708569860653 0 3995.0 -0.9525708569860653 1
gene  1 7 39 -0.7889608323730597 0 3996.0 -0.7889608323730597 1
gene  1 10 39 0.6313969888195747 0 3999.0 0.6313969888195747 1
gene  1 13 39 0.6578944009155129 0 4002.0 0.6578944009155129 1
gene  1 14 39 -0.655183852917551 0 4003.0 -0.655183852917551 1
gene  1 16 39 0.3310972832226503 0 4005.0 0.3310972832226503 1
gene  1 17 39 -0.6184436797958528 0 4006.0 -0.6184436797958528 1
gene  1 20 39 0.49531549265314334 0 4009.0 0.49531549265314334 1
gene  1 21 39 -0.16063218035908022 0 4010.0 -0.16063218035908022 1
gene  1 23 39 0.1754263703671719 0 4012.0 0.1754263703671719 1
gene  1 25 39 0.15885585622275245 0 4014.0 0.15885585622275245 1
gene  1 27 39 -0.283334772116142 0 4016.0 -0.283334772116142 1
gene  1 30 39 0.9754188685540748 0 4019.0 0.9754188685540748 1
gene  1 32 39 -0.01678484068112518 0 4021.0 -0.01678484068112518 1
gene  1 34 39 0.8394306662024874 0 4023.0 0.8394306662024874 1
gene  1 35 39 0.7300555344897396 0 4024.0 0.7300555344897396 1
gene  1 38 39 -0.0950794318333158 0 4027.0 -0.0950794318333158 1
gene  1 2 40 0.5026211916777384 0 4096.0 0.5026211916777384 1
gene  1 6 40 -0.7329635727786624 0 4100.0 -0.7329635727786624 1
gene  1 8 40 -0.1626228102574453 0 4102.0 -0.1626228102574453 1
gene  1 9 40 0.5945254554479253 0 4103.0 0.5945254554479253 1
gene  1 10 40 -0.30227825026642097 0 4104.0 -0.30227825026642097 1
gene  1 11 40 -0.565433020632808 0 4105.0 -0.565433020632808 1
gene  1 19 40 0.2034299317954964 0 4113.0 0.2034299317954964 1
gene  1 23 40 0.9660977150650708 0 4117.0 0.9660977150650708 1
gene  1 24 40 0.8351012135817161 0 4118.0 0.8351012135817161 1
gene  1 25 40 0.5529342960023493 0 4119.0 0.5529342960023493 1
gene  1 26 40 0.3135801979581353 0 4120.0 0.3135801979581353 1
gene  1 27 40 -0.5058535445251826 0 4121.0 -0.5058535445251826 1
gene  1 29 40 -0.887017989991519 0 4123.0 -0.887017989991519 1
gene  1 38 40 -0.3081098280824074 0 4132.0 -0.3081098280824074 1
gene  1 39 40 0.21473123817111373 0 4133.0 0.21473123817111373 1
gene  1 1 41 0.42593576448963544 0 4200.0 0.42593576448963544 1
gene  1 6 41 0.7071341936184066 0 4205.0 0.7071341936184066 1
gene  1 8 41 -0.7386225599321088 0 4207.0 -0.7386225599321088 1
gene  1 11 41 -0.362485953331669 0 4210.0 -0.362485953331669 1
gene  1 12 41 -0.5628305435939739 0 4211.0 -0.5628305435939739 1
gene  1 14 41 -0.174440608000623 0 4213.0 -0.174440608000623 1
gene  1 16 41 0.555566621274552 0 4215.0 0.555566621274552 1
gene  1 18 41 0.7249271253563415 0 4217.0 0.7249271253563415 1
gene  1 19 41 -0.410455574622148 0 4218.0 -0.410455574622148 1
gene  1 22 41 0.5695121151478505 0 4221.0 0.5695121151478505 1
gene  1 23 41 -0.9098289172128315 0 4222.0 -0.9098289172128315 1
gene  1 25 41 0.951729386554896 0 4224.0 0.951729386554896 1
gene  1 27 41 -0.507744415998098 0 4226.0 -0.507744415998098 1
gene  1 32 41 -0.5460333942646662 0 4231.0 -0.5460333942646662 1
gene  1 34 41 -0.35840967628452813 0 4233.0 -0.35840967628452813 1
gene  1 38 41 -0.41990568625132785 0 4237.0 -0.41990568625132785 1
gene  1 40 41 -0.8989951320376444 0 4239.0 -0.8989951320376444 1
gene  1 3 42 -0.3504354596591457 0 4307.0 -0.3504354596591457 1
gene  1 6 42 -0.20655522855404207 0 4310.0 -0.20655522855404207 1
gene  1 7 42 -0.6634129633897043 0 4311.0 -0.6634129633897043 1
gene  1 9 42 -0.8298963851681915 0 4313.0 -0.8298963851681915 1
gene  1 11 42 -0.822565832927081 0 4315.0 -0.822565832927081 1
gene  1 12 42 0.6981044471441264 0 4316.0 0.6981044471441264 1
gene  1 15 42 -0.8716868527842399 0 4319.0 -0.8716868527842399 1
gene  1 18 42 -0.08287022002662037 0 4322.0 -0.08287022002662037 1
gene  1 28 42 0.4732120780597223 0 4332.0 0.4732120780597223 1
gene  1 32 42 -0.2554276633707454 0 4336.0 -0.2554276633707454 1
gene  1 33 42 -0.7472052546441096 0 4337.0 -0.7472052546441096 1
gene  1 34 42 -0.35409375901897033 0 4338.0 -0.35409375901897033 1
gene  1 36 42 0.08190083574490115 0 4340.0 0.08190083574490115 1
gene  1 37 42 -0.268344163039847 0 4341.0 -0.268344163039847 1
gene  1 38 42 -0.29927858185162004 0 4342.0 -0.29927858185162004 1
gene  1 40 42 0.9650674635331524 0 4344.0 0.9650674635331524 1
gene  1 41 42 0.006521689303834788 0 4345.0 0.006521689303834788 1
gene  1 5 43 0.8619204381112282 0 4414.0 0.8619204381112282 1
gene  1 9 43 -0.609688202645097 0 4418.0 -0.609688202645097 1
gene  1 11 43 0.5395545599310423 0 4420.0 0.5395545599310423 1
gene  1 13 43 0.32017160078413065 0 4422.0 0.32017160078413065 1
gene  1 14 43 0.7464251963050881 0 4423.0 0.7464251963050881 1
gene  1 15 43 0.20917633304351646 0 4424.0 0.20917633304351646 1
gene  1 17 43 0.28965802965955034 0 4426.0 0.28965802965955034 1
gene  1 18 43 0.17475448425011486 0 4427.0 0.17475448425011486 1
gene  1 19 43 -0.07617653384517209 0 4428.0 -0.07617653384517209 1
gene  1 20 43 0.16013953737693576 0 4429.0 0.16013953737693576 1
gene  1 21 43 -0.3921479996706553 0 4430.0 -0.3921479996706553 1
gene  1 22 43 0.4792429383760505 0 4431.0 0.4792429383760505 1
gene  1 26 43 0.1716637597473526 0 4435.0 0.1716637597473526 1
gene  1 27 43 -0.9425752544775259 0 4436.0 -0.9425752544775259 1
gene  1 33 43 -0.9191873870846643 0 4442.0 -0.9191873870846643 1
gene  1 34 43 -0.22643990885291065 0 4443.0 -0.22643990885291065 1
gene  1 36 43 0.7421363505809851 0 4445.0 0.7421363505809851 1
gene  1 37 43 0.7141352149173537 0 4446.0 0.7141352149173537 1
gene  1 39 43 0.6594954632152581 0 4448.0 0.6594954632152581 1
gene  1 40 43 0.11825832816587278 0 4449.0 0.11825832816587278 1
gene  1 42 43 -0.6816777567540984 0 4451.0 -0.6816777567540984 1
gene  1 1 44 -0.8721841279268513 0 4515.0 -0.8721841279268513 1
gene  1 4 44 -0.3417733423548961 0 4518.0 -0.3417733423548961 1
gene  1 5 44 0.6480402930565138 0 4519.0 0.6480402930565138 1
gene  1 6 44 0.6953489393057304 0 4520.0 0.6953489393057304 1
gene  1 10 44 -0.23155322106888987 0 4524.0 -0.23155322106888987 1
gene  1 11 44 -0.5888091969502351 0 4525.0 -0.5888091969502351 1
gene  1 13 44 -0.4807073517064695 0 4527.0 -0.4807073517064695 1
gene  1 14 44 -0.5848971291028144 0 4528.0 -0.5848971291028144 1
gene  1 17 44 -0.6761011241416731 0 4531.0 -0.6761011241416731 1
gene  1 20 44 0.8968710945805944 0 4534.0 0.8968710945805944 1
gene  1 21 44 0.9183907190523014 0 4535.0 0.9183907190523014 1
gene  1 22 44 0.42425457910938247 0 4536.0 0.42425457910938247 1
gene  1 23 44 0.209504379175117 0 4537.0 0.209504379175117 1
gene  1 24 44 0.9814465650888465 0 4538.0 0.9814465650888465 1
gene  1 25 44 -0.9008303536017684 0 4539.0 -0.9008303536017684 1
gene  1 27 44 0.5689547227763068 0 4541.0 0.5689547227763068 1
gene  1 31 44 0.7695311016215493 0 4545.0 0.7695311016215493 1
gene  1 33 44 0.5596407147395102 0 4547.0 0.5596407147395102 1
gene  1 35 44 0.4258255423002567 0 4549.0 0.4258255423002567 1
gene  1 36 44 -0.2528917081418418 0 4550.0 -0.2528917081418418 1
gene  1 37 44 0.563412184763354 0 4551.0 0.563412184763354 1
gene  1 38 44 0.5760099260068605 0 4552.0 0.5760099260068605 1
gene  1 40 44 -0.40431044095982727 0 4554.0 -0.40431044095982727 1
gene  1 2 45 -0.7596486836435875 0 4621.0 -0.7596486836435875 1
gene  1 4 45 -0.5971950951977519 0 4623.0 -0.5971950951977519 1
gene  1 5 45 -0.7185786804080657 0 4624.0 -0.7185786804080657 1
gene  1 8 45 0.8155387311529626 0 4627.0 0.8155387311529626 1
gene  1 10 45 0.9398951712248114 0 4629.0 0.9398951712248114 1
gene  1 12 45 -0.3109077501232578 0 4631.0 -0.3109077501232578 1
gene  1 14 45 -0.9334235032898068 0 4633.0 -0.9334235032898068 1
gene  1 16 45 -0.9880855967468432 0 4635.0 -0.9880855967468432 1
gene  1 19 45 -0.35395673241251413 0 4638.0 -0.35395673241251413 1
gene  1 20 45 -0.08010222162871017 0 4639.0 -0.08010222162871017 1
gene  1 24 45 0.3195521628102225 0 4643.0 0.3195521628102225 1
gene  1 25 45 0.8989834907492561 0 4644.0 0.8989834907492561 1
gene  1 28 45 0.01931651800943801 0 4647.0 0.01931651800943801 1
gene  1 29 45 0.8234024326847034 0 4648.0 0.8234024326847034 1
gene  1 30 45 0.9827701873501394 0 4649.0 0.9827701873501394 1
gene  1 31 45 -0.4127463237845548 0 4650.0 -0.4127463237845548 1
gene  1 32 45 0.6531216216355111 0 4651.0 0.6531216216355111 1
gene  1 34 45 -0.06992559234172135 0 4653.0 -0.06992559234172135 1
gene  1 35 45 0.03160086755219638 0 4654.0 0.03160086755219638 1
gene  1 36 45 -0.3401246661246051 0 4655.0 -0.3401246661246051 1
gene  1 38 45 -0.23321171671580987 0 4657.0 -0.23321171671580987 1
gene  1 39 45 -0.829145246256095 0 4658.0 -0.829145246256095 1
gene  1 40 45 -0.21577268955949125 0 4659.0 -0.21577268955949125 1
gene  1 41 45 0.40836744865109 0 4660.0 0.40836744865109 1
gene  1 42 45 -0.518116078888007 0 4661.0 -0.518116078888007 1
gene  1 1 46 0.1925427961447116 0 4725.0 0.1925427961447116 1
gene  1 3 46 -0.7158480720315572 0 4727.0 -0.7158480720315572 1
gene  1 4 46 0.6351147013787931 0 4728.0 0.6351147013787931 1
gene  1 7 46 0.02410538137496898 0 4731.0 0.02410538137496898 1
gene  1 8 46 -0.23926796227882452 0 4732.0 -0.23926796227882452 1
gene  1 9 46 -0.1906553885971093 0 4733.0 -0.1906553885971093 1
gene  1 10 46 0.9807550085131903 0 4734.0 0.9807550085131903 1
gene  1 12 46 -0.5598345895406335 0 4736.0 -0.5598345895406335 1
gene  1 14 46 0.959373133775534 0 4738.0 0.959373133775534 1
gene  1 16 46 -0.44858885937613524 0 4740.0 -0.44858885937613524 1
gene  1 17 46 0.4224721351786921 0 4741.0 0.4224721351786921 1
gene  1 18 46 0.2673545329028131 0 4742.0 0.2673545329028131 1
gene  1 19 46 0.22476554486155298 0 4743.0 0.22476554486155298 1
gene  1 21 46 -0.5227241872326481 0 4745.0 -0.5227241872326481 1
gene  1 22 46 0.009972545493825313 0 4746.0 0.009972545493825313 1
gene  1 23 46 0.7601486784270146 0 4747.0 0.7601486784270146 1
gene  1 25 46 0.490963149071062 0 4749.0 0.490963149071062 1
gene  1 27 46 0.6631004937652486 0 4751.0 0.6631004937652486 1
gene  1 28 46 0.9000992477386789 0 4752.0 0.9000992477386789 1
gene  1 31 46 0.2290992348843709 0 4755.0 0.2290992348843709 1
gene  1 33 46 -0.7975556871709154 0 4757.0 -0.7975556871709154 1
gene  1 34 46 0.8993538530046649 0 4758.0 0.8993538530046649 1
gene  1 35 46 -0.5566433477846662 0 4759.0 -0.5566433477846662 1
gene  1 37 46 -0.697500988297132 0 4761.0 -0.697500988297132 1
gene  1 40 46 -0.6318429081202788 0 4764.0 -0.6318429081202788 1
gene  1 42 46 0.6319457908864936 0 4766.0 0.6319457908864936 1
gene  1 43 46 -0.08348341988209995 0 4767.0 -0.08348341988209995 1
gene  1 44 46 -0.13490158249116135 0 4768.0 -0.13490158249116135 1
gene  1 1 47 -0.4427056432327916 0 4830.0 -0.4427056432327916 1
gene  1 2 47 0.8611735024581793 0 4831.0 0.8611735024581793 1
gene  1 3 47 0.2339084097195856 0 4832.0 0.2339084097195856 1
gene  1 4 47 0.12200297396254889 0 4833.0 0.12200297396254889 1
gene  1 5 47 -0.6389952607068133 0 4834.0 -0.6389952607068133 1
gene  1 7 47 0.5125177134807823 0 4836.0 0.5125177134807823 1
gene  1 9 47 -0.8161843800941833 0 4838.0 -0.8161843800941833 1
gene  1 10 47 0.7273380304588563 0 4839.0 0.7273380304588563 1
gene  1 12 47 0.11161058639821164 0 4841.0 0.11161058639821164 1
gene  1 13 47 0.13909261078283175 0 4842.0 0.13909261078283175 1
gene  1 14 47 0.664052584712513 0 4843.0 0.664052584712513 1
gene  1 15 47 -0.29003967614719106 0 4844.0 -0.29003967614719106 1
gene  1 16 47 -0.9983514065362165 0 4845.0 -0.9983514065362165 1
gene  1 17 47 -0.5232990467756576 0 4846.0 -0.5232990467756576 1
gene  1 18 47 -0.8392175903914868 0 4847.0 -0.8392175903914868 1
gene  1 23 47 -0.7777250990867786 0 4852.0 -0.7777250990867786 1
gene  1 26 47 0.1173526914412758 0 4855.0 0.1173526914412758 1
gene  1 31 47 0.22841127787664572 0 4860.0 0.22841127787664572 1
gene  1 33 47 0.4186942458828684 0 4862.0 0.4186942458828684 1
gene  1 34 47 -0.22717453679061517 0 4863.0 -0.22717453679061517 1
gene  1 35 47 -0.26454523372855865 0 4864.0 -0.26454523372855865 1
gene  1 37 47 0.5067887266017386 0 4866.0 0.5067887266017386 1
gene  1 38 47 -0.8402016175821926 0 4867.0 -0.8402016175821926 1
gene  1 39 47 0.6978212512853146 0 4868.0 0.6978212512853146 1
gene  1 45 47 0.1736652682795332 0 4874.0 0.1736652682795332 1
gene  1 46 47 -0.6166105011304658 0 4875.0 -0.6166105011304658 1
gene  1 1 48 -0.9400662278037673 0 4935.0 -0.9400662278037673 1
gene  1 3 48 0.9406857499680805 0 4937.0 0.9406857499680805 1
gene  1 4 48 0.12873071819764004 0 4938.0 0.12873071819764004 1
gene  1 5 48 0.16727159967066285 0 4939.0 0.16727159967066285 1
gene  1 6 48 0.23614512362757067 0 4940.0 0.23614512362757067 1
gene  1 8 48 -0.17176321048340515 0 4942.0 -0.17176321048340515 1
gene  1 9 48 0.987872182587693 0 4943.0 0.987872182587693 1
gene  1 11 48 -0.6605192852593975 0 4945.0 -0.6605192852593975 1
gene  1 13 48 0.7582993445248859 0 4947.0 0.7582993445248859 1
gene  1 17 48 -0.5493552809546787 0 4951.0 -0.5493552809546787 1
gene  1 18 48 0.19758532857903977 0 4952.0 0.19758532857903977 1
gene  1 19 48 -0.6475863509749714 0 4953.0 -0.6475863509749714 1
gene  1 25 48 -0.4955071469423784 0 4959.0 -0.4955071469423784 1
gene  1 26 48 -0.09665771998976114 0 4960.0 -0.09665771998976114 1
gene  1 28 48 -0.4558674108519367 0 4962.0 -0.4558674108519367 1
gene  1 30 48 -0.5314070355149639 0 4964.0 -0.5314070355149639 1
gene  1 31 48 -0.8557519498551717 0 4965.0 -0.8557519498551717 1
gene  1 32 48 0.3381701801939371 0 4966.0 0.3381701801939371 1
gene  1 34 48 -0.21369422020506823 0 4968.0 -0.21369422020506823 1
gene  1 35 48 -0.8287716433306958 0 4969.0 -0.8287716433306958 1
gene  1 38 48 -0.07567217365484724 0 4972.0 -0.07567217365484724 1
gene  1 40 48 0.0821649594858902 0 4974.0 0.0821649594858902 1
gene  1 41 48 -0.6136456364981052 0 4975.0 -0.6136456364981052 1
gene  1 42 48 0.9131518772987124 0 4976.0 0.9131518772987124 1
gene  1 43 48 -0.2843120908169885 0 4977.0 -0.2843120908169885 1
gene  1 44 48 0.8793855979239596 0 4978.0 0.8793855979239596 1
gene  1 1 49 -0.6633292118025554 0 5040.0 -0.6633292118025554 1
gene  1 3 49 -0.7999479619946914 0 5042.0 -0.7999479619946914 1
gene  1 4 49 -0.5412387862596808 0 5043.0 -0.5412387862596808 1
gene  1 7 49 -0.31507307826924325 0 5046.0 -0.31507307826924325 1
gene  1 8 49 0.07508908097185407 0 5047.0 0.07508908097185407 1
gene  1 9 49 -0.24898592347769677 0 5048.0 -0.24898592347769677 1
gene  1 10 49 0.1152315078017756 0 5049.0 0.1152315078017756 1
gene  1 13 49 0.5889369291294292 0 5052.0 0.5889369291294292 1
gene  1 15 49 -0.9022073967425747 0 5054.0 -0.9022073967425747 1
gene  1 16 49 -0.3530189051909023 0 5055.0 -0.3530189051909023 1
gene  1 21 49 -0.13652912547252483 0 5060.0 -0.13652912547252483 1
gene  1 22 49 0.7442776920034625 0 5061.0 0.7442776920034625 1
gene  1 23 49 0.7296623172671617 0 5062.0 0.7296623172671617 1
gene  1 24 49 0.2864213770102071 0 5063.0 0.2864213770102071 1
gene  1 25 49 0.49343387483173606 0 5064.0 0.49343387483173606 1
gene  1 36 49 -0.4084788255403422 0 5075.0 -0.4084788255403422 1
gene  1 38 49 0.08313442221851441 0 5077.0 0.08313442221851441 1
gene  1 39 49 -0.10775210998190443 0 5078.0 -0.10775210998190443 1
gene  1 40 49 -0.012484012676081346 0 5079.0 -0.012484012676081346 1
gene  1 43 49 0.2847442597560538 0 5082.0 0.2847442597560538 1
gene  1 45 49 -0.9863612673511325 0 5084.0 -0.9863612673511325 1
gene  1 46 49 -0.46781194245474544 0 5085.0 -0.46781194245474544 1
gene  1 47 49 0.9793719242591082 0 5086.0 0.9793719242591082 1
gene  1 1 50 -0.718366648117772 0 5145.0 -0.718366648117772 1
gene  1 3 50 0.2915077197284367 0 5147.0 0.2915077197284367 1
gene  1 7 50 0.9675266224219248 0 5151.0 0.9675266224219248 1
gene  1 8 50 0.45361612999679113 0 5152.0 0.45361612999679113 1
gene  1 10 50 0.07594539844200077 0 5154.0 0.07594539844200077 1
gene  1 11 50 -0.8317079194500837 0 5155.0 -0.8317079194500837 1
gene  1 12 50 0.3556060955503282 0 5156.0 0.3556060955503282 1
gene  1 13 50 0.49139139936517384 0 5157.0 0.49139139936517384 1
gene  1 14 50 0.0956861427306307 0 5158.0 0.0956861427306307 1
gene  1 16 50 -0.38547546750332573 0 5160.0 -0.38547546750332573 1
gene  1 17 50 -0.04451041563320868 0 5161.0 -0.04451041563320868 1
gene  1 18 50 -0.8149519623306777 0 5162.0 -0.8149519623306777 1
gene  1 20 50 -0.7609289703112138 0 5164.0 -0.7609289703112138 1
gene  1 23 50 0.4197780990119333 0 5167.0 0.4197780990119333 1
gene  1 26 50 -0.7667000454440736 0 5170.0 -0.7667000454440736 1
gene  1 28 50 0.010192352417125128 0 5172.0 0.010192352417125128 1
gene  1 30 50 0.13397521828582448 0 5174.0 0.13397521828582448 1
gene  1 31 50 -0.09711705009542482 0 5175.0 -0.09711705009542482 1
gene  1 32 50 0.9752577223650412 0 5176.0 0.9752577223650412 1
gene  1 33 50 -0.4619003184954166 0 5177.0 -0.4619003184954166 1
gene  1 34 50 -0.27658697067864035 0 5178.0 -0.27658697067864035 1
gene  1 35 50 0.8311946366453752 0 5179.0 0.8311946366453752 1
gene  1 37 50 0.6194000753083762 0 5181.0 0.6194000753083762 1
gene  1 40 50 -0.7743612127847116 0 5184.0 -0.7743612127847116 1
gene  1 41 50 0.23757120710139323 0 5185.0 0.23757120710139323 1
gene  1 43 50 -0.9793315486213908 0 5187.0 -0.9793315486213908 1
gene  1 45 50 0.6736929360841784 0 5189.0 0.6736929360841784 1
gene  1 46 50 0.8077439536401007 0 5190.0 0.8077439536401007 1
gene  1 47 50 0.7638596986867514 0 5191.0 0.7638596986867514 1
gene  1 1 51 0.02571351073619932 0 5250.0 0.02571351073619932 1
gene  1 2 51 0.6693551868430414 0 5251.0 0.6693551868430414 1
gene  1 3 51 -0.9820797830707152 0 5252.0 -0.9820797830707152 1
gene  1 4 51 0.09355637188976684 0 5253.0 0.09355637188976684 1
gene  1 5 51 -0.7801905590041421 0 5254.0 -0.7801905590041421 1
gene  1 8 51 -0.038174169160583915 0 5257.0 -0.038174169160583915 1
gene  1 10 51 0.5639578040367378 0 5259.0 0.5639578040367378 1
gene  1 11 51 -0.9185228637901904 0 5260.0 -0.9185228637901904 1
gene  1 15 51 -0.8694760017553876 0 5264.0 -0.8694760017553876 1
gene  1 19 51 -0.3274228690962582 0 5268.0 -0.3274228690962582 1
gene  1 20 51 -0.01900017889300276 0 5269.0 -0.01900017889300276 1
gene  1 22 51 0.4080626939683504 0 5271.0 0.4080626939683504 1
gene  1 23 51 0.7923326003468699 0 5272.0 0.7923326003468699 1
gene  1 24 51 0.9428060472240453 0 5273.0 0.9428060472240453 1
gene  1 26 51 0.55781561354164 0 5275.0 0.55781561354164 1
gene  1 27 51 -0.40887042821592834 0 5276.0 -0.40887042821592834 1
gene  1 31 51 0.4431951473686142 0 5280.0 0.4431951473686142 1
gene  1 34 51 0.6127819167495835 0 5283.0 0.6127819167495835 1
gene  1 39 51 -0.9559076503665195 0 5288.0 -0.9559076503665195 1
gene  1 42 51 0.4712367111381536 0 5291.0 0.4712367111381536 1
gene  1 44 51 -0.6595458590937323 0 5293.0 -0.6595458590937323 1
gene  1 45 51 -3.9809938589996374E-4 0 5294.0 -3.9809938589996374E-4 1
gene  1 47 51 0.9297545498158393 0 5296.0 0.9297545498158393 1
gene  1 50 51 -0.8860190875657954 0 5299.0 -0.8860190875657954 1
gene  1 3 52 0.6314902793673449 0 5357.0 0.6314902793673449 1
gene  1 5 52 0.998708474647166 0 5359.0 0.998708474647166 1
gene  1 7 52 -0.5021756591281563 0 5361.0 -0.5021756591281563 1
gene  1 10 52 0.1864540762892899 0 5364.0 0.1864540762892899 1
gene  1 13 52 0.026007354744346678 0 5367.0 0.026007354744346678 1
gene  1 14 52 0.08544147439116423 0 5368.0 0.08544147439116423 1
gene  1 15 52 0.19972483743615277 0 5369.0 0.19972483743615277 1
gene  1 20 52 -0.6057250285785599 0 5374.0 -0.6057250285785599 1
gene  1 23 52 0.2562783654063103 0 5377.0 0.2562783654063103 1
gene  1 25 52 -0.4562822464027011 0 5379.0 -0.4562822464027011 1
gene  1 26 52 0.7621510538443934 0 5380.0 0.7621510538443934 1
gene  1 28 52 -0.36441221995480944 0 5382.0 -0.36441221995480944 1
gene  1 31 52 0.28571592039027316 0 5385.0 0.28571592039027316 1
gene  1 32 52 0.45020344775020993 0 5386.0 0.45020344775020993 1
gene  1 34 52 0.587259740911199 0 5388.0 0.587259740911199 1
gene  1 35 52 -0.7675172628444741 0 5389.0 -0.7675172628444741 1
gene  1 36 52 0.7485764030389808 0 5390.0 0.7485764030389808 1
gene  1 37 52 -0.39289199601669544 0 5391.0 -0.39289199601669544 1
gene  1 39 52 0.02148918614590356 0 5393.0 0.02148918614590356 1
gene  1 44 52 0.34151909462511 0 5398.0 0.34151909462511 1
gene  1 46 52 -0.5304772425099316 0 5400.0 -0.5304772425099316 1
gene  1 1 53 -0.45551537552494126 0 5460.0 -0.45551537552494126 1
gene  1 6 53 0.08425893812460394 0 5465.0 0.08425893812460394 1
gene  1 10 53 0.35761613159993055 0 5469.0 0.35761613159993055 1
gene  1 12 53 -0.5532647586557995 0 5471.0 -0.5532647586557995 1
gene  1 13 53 0.4177607680003639 0 5472.0 0.4177607680003639 1
gene  1 15 53 -0.38909230317597476 0 5474.0 -0.38909230317597476 1
gene  1 16 53 -0.33453477182287916 0 5475.0 -0.33453477182287916 1
gene  1 18 53 0.6043697813521376 0 5477.0 0.6043697813521376 1
gene  1 21 53 0.4700570358399132 0 5480.0 0.4700570358399132 1
gene  1 26 53 -0.11248541895964903 0 5485.0 -0.11248541895964903 1
gene  1 27 53 0.556519451641134 0 5486.0 0.556519451641134 1
gene  1 28 53 -0.13030578344598043 0 5487.0 -0.13030578344598043 1
gene  1 31 53 0.94581274131567 0 5490.0 0.94581274131567 1
gene  1 32 53 0.43768721783953857 0 5491.0 0.43768721783953857 1
gene  1 34 53 -0.3897115040893311 0 5493.0 -0.3897115040893311 1
gene  1 37 53 0.9509397272822195 0 5496.0 0.9509397272822195 1
gene  1 38 53 0.36791596734268006 0 5497.0 0.36791596734268006 1
gene  1 39 53 -0.1495352964316976 0 5498.0 -0.1495352964316976 1
gene  1 40 53 0.6403031050520007 0 5499.0 0.6403031050520007 1
gene  1 42 53 0.553608491073479 0 5501.0 0.553608491073479 1
gene  1 43 53 0.5740554943175689 0 5502.0 0.5740554943175689 1
gene  1 44 53 -0.02221046592578768 0 5503.0 -0.02221046592578768 1
gene  1 46 53 -0.3247175429079826 0 5505.0 -0.3247175429079826 1
gene  1 48 53 0.6864446967278675 0 5507.0 0.6864446967278675 1
gene  1 49 53 -0.2739276535983446 0 5508.0 -0.2739276535983446 1
gene  1 50 53 0.47754609825930505 0 5509.0 0.47754609825930505 1
gene  1 51 53 -0.7665964886511121 0 5510.0 -0.7665964886511121 1
gene  1 1 54 0.31517416643989493 0 5565.0 0.31517416643989493 1
gene  1 2 54 0.9312526338419905 0 5566.0 0.9312526338419905 1
gene  1 4 54 -0.2100531010205422 0 5568.0 -0.2100531010205422 1
gene  1 6 54 0.6954182850181572 0 5570.0 0.6954182850181572 1
gene  1 7 54 -0.04828510389148044 0 5571.0 -0.04828510389148044 1
gene  1 9 54 0.7697787103757328 0 5573.0 0.7697787103757328 1
gene  1 10 54 -0.19816842922619615 0 5574.0 -0.19816842922619615 1
gene  1 12 54 0.0918579656683095 0 5576.0 0.0918579656683095 1
gene  1 16 54 -0.01735442398592868 0 5580.0 -0.01735442398592868 1
gene  1 20 54 -0.31201351312136116 0 5584.0 -0.31201351312136116 1
gene  1 21 54 0.7308488706065039 0 5585.0 0.7308488706065039 1
gene  1 23 54 0.5471280645697845 0 5587.0 0.5471280645697845 1
gene  1 25 54 -0.052333322923906245 0 5589.0 -0.052333322923906245 1
gene  1 26 54 -0.6810818308620482 0 5590.0 -0.6810818308620482 1
gene  1 27 54 0.8653322494481842 0 5591.0 0.8653322494481842 1
gene  1 28 54 0.3159886348555495 0 5592.0 0.3159886348555495 1
gene  1 31 54 0.1799970532382319 0 5595.0 0.1799970532382319 1
gene  1 34 54 0.8605285938867083 0 5598.0 0.8605285938867083 1
gene  1 35 54 0.545873438934935 0 5599.0 0.545873438934935 1
gene  1 36 54 0.5312346435511075 0 5600.0 0.5312346435511075 1
gene  1 37 54 0.8461902587989492 0 5601.0 0.8461902587989492 1
gene  1 39 54 0.8166075806863152 0 5603.0 0.8166075806863152 1
gene  1 40 54 0.5140981973133166 0 5604.0 0.5140981973133166 1
gene  1 45 54 0.9934878974953351 0 5609.0 0.9934878974953351 1
gene  1 46 54 -0.40195180509409334 0 5610.0 -0.40195180509409334 1
gene  1 47 54 -0.36702981004685487 0 5611.0 -0.36702981004685487 1
gene  1 49 54 0.04825410379276063 0 5613.0 0.04825410379276063 1
gene  1 50 54 -0.8831374742826426 0 5614.0 -0.8831374742826426 1
gene  1 51 54 -0.8674700221419931 0 5615.0 -0.8674700221419931 1
gene  1 52 54 -0.6255854023322786 0 5616.0 -0.6255854023322786 1
gene  1 53 54 0.5093912128059748 0 5617.0 0.5093912128059748 1
gene  1 2 55 0.7872672137624264 0 5671.0 0.7872672137624264 1
gene  1 5 55 -0.5978524222111384 0 5674.0 -0.5978524222111384 1
gene  1 7 55 0.881657760831065 0 5676.0 0.881657760831065 1
gene  1 8 55 0.03507317810278765 0 5677.0 0.03507317810278765 1
gene  1 9 55 -0.7662299217990721 0 5678.0 -0.7662299217990721 1
gene  1 11 55 0.5070331927265962 0 5680.0 0.5070331927265962 1
gene  1 13 55 -0.6774614515499536 0 5682.0 -0.6774614515499536 1
gene  1 14 55 0.5026719571500924 0 5683.0 0.5026719571500924 1
gene  1 17 55 0.27190332855042465 0 5686.0 0.27190332855042465 1
gene  1 19 55 -0.981287051972148 0 5688.0 -0.981287051972148 1
gene  1 20 55 -0.3357683921839625 0 5689.0 -0.3357683921839625 1
gene  1 22 55 0.9410803865099295 0 5691.0 0.9410803865099295 1
gene  1 26 55 -0.5891950045484486 0 5695.0 -0.5891950045484486 1
gene  1 27 55 -0.5366596699167272 0 5696.0 -0.5366596699167272 1
gene  1 29 55 -0.15072927273115155 0 5698.0 -0.15072927273115155 1
gene  1 30 55 -0.8676093751726113 0 5699.0 -0.8676093751726113 1
gene  1 36 55 0.91752613296195 0 5705.0 0.91752613296195 1
gene  1 37 55 0.8844146444659894 0 5706.0 0.8844146444659894 1
gene  1 38 55 -0.18981402654517876 0 5707.0 -0.18981402654517876 1
gene  1 41 55 -0.8911127055134781 0 5710.0 -0.8911127055134781 1
gene  1 42 55 -0.10017270653691057 0 5711.0 -0.10017270653691057 1
gene  1 44 55 -0.08897225821466115 0 5713.0 -0.08897225821466115 1
gene  1 47 55 -0.1434239266604057 0 5716.0 -0.1434239266604057 1
gene  1 49 55 0.28757517769341434 0 5718.0 0.28757517769341434 1
gene  1 51 55 -0.5036999562375744 0 5720.0 -0.5036999562375744 1
gene  1 52 55 -0.3917796433343014 0 5721.0 -0.3917796433343014 1
gene  1 53 55 -0.7997842523033842 0 5722.0 -0.7997842523033842 1
gene  1 3 56 -0.914452965519785 0 5777.0 -0.914452965519785 1
gene  1 5 56 0.3513963358775509 0 5779.0 0.3513963358775509 1
gene  1 7 56 -0.4744929951590383 0 5781.0 -0.4744929951590383 1
gene  1 8 56 0.5875982396519968 0 5782.0 0.5875982396519968 1
gene  1 12 56 0.6882894780049226 0 5786.0 0.6882894780049226 1
gene  1 13 56 0.42457185467357494 0 5787.0 0.42457185467357494 1
gene  1 14 56 0.12252325073790937 0 5788.0 0.12252325073790937 1
gene  1 16 56 -0.7107950700800886 0 5790.0 -0.7107950700800886 1
gene  1 17 56 0.16924101089380506 0 5791.0 0.16924101089380506 1
gene  1 21 56 -0.011684516867768058 0 5795.0 -0.011684516867768058 1
gene  1 26 56 -0.5865334576219141 0 5800.0 -0.5865334576219141 1
gene  1 30 56 0.8635757897030562 0 5804.0 0.8635757897030562 1
gene  1 31 56 -0.44820382552054006 0 5805.0 -0.44820382552054006 1
gene  1 33 56 -0.152223830953363 0 5807.0 -0.152223830953363 1
gene  1 37 56 -0.3203846433297526 0 5811.0 -0.3203846433297526 1
gene  1 39 56 -0.4467648514861513 0 5813.0 -0.4467648514861513 1
gene  1 40 56 -0.24868442707120986 0 5814.0 -0.24868442707120986 1
gene  1 41 56 0.9817143393308098 0 5815.0 0.9817143393308098 1
gene  1 43 56 0.07919205340291291 0 5817.0 0.07919205340291291 1
gene  1 44 56 -0.8670016012282982 0 5818.0 -0.8670016012282982 1
gene  1 45 56 0.7772165552888826 0 5819.0 0.7772165552888826 1
gene  1 46 56 -0.5245806211058014 0 5820.0 -0.5245806211058014 1
gene  1 47 56 0.704830285325351 0 5821.0 0.704830285325351 1
gene  1 51 56 -0.5692182231028027 0 5825.0 -0.5692182231028027 1
gene  1 55 56 0.5831985105553524 0 5829.0 0.5831985105553524 1
gene  1 2 57 0.8382900990259062 0 5881.0 0.8382900990259062 1
gene  1 4 57 -0.9070500001750873 0 5883.0 -0.9070500001750873 1
gene  1 6 57 -0.2826886726239516 0 5885.0 -0.2826886726239516 1
gene  1 8 57 -0.33107236152894914 0 5887.0 -0.33107236152894914 1
gene  1 9 57 0.5173880745988358 0 5888.0 0.5173880745988358 1
gene  1 17 57 0.2993459093919614 0 5896.0 0.2993459093919614 1
gene  1 18 57 0.8261101741753347 0 5897.0 0.8261101741753347 1
gene  1 24 57 0.6137375761884626 0 5903.0 0.6137375761884626 1
gene  1 25 57 0.29886146799802904 0 5904.0 0.29886146799802904 1
gene  1 26 57 0.18722964629427274 0 5905.0 0.18722964629427274 1
gene  1 27 57 0.16398448808716137 0 5906.0 0.16398448808716137 1
gene  1 28 57 0.524306510389759 0 5907.0 0.524306510389759 1
gene  1 30 57 0.7466918633844777 0 5909.0 0.7466918633844777 1
gene  1 33 57 -0.6843699418316593 0 5912.0 -0.6843699418316593 1
gene  1 34 57 0.1031641250980656 0 5913.0 0.1031641250980656 1
gene  1 35 57 0.7914634310760185 0 5914.0 0.7914634310760185 1
gene  1 36 57 0.6563337460181272 0 5915.0 0.6563337460181272 1
gene  1 37 57 -0.6852975455388275 0 5916.0 -0.6852975455388275 1
gene  1 38 57 0.6048585039434436 0 5917.0 0.6048585039434436 1
gene  1 40 57 -0.618851285654685 0 5919.0 -0.618851285654685 1
gene  1 41 57 -0.12890996345003158 0 5920.0 -0.12890996345003158 1
gene  1 42 57 0.8225432481321256 0 5921.0 0.8225432481321256 1
gene  1 43 57 -0.6255697130392481 0 5922.0 -0.6255697130392481 1
gene  1 46 57 -0.5575285282948277 0 5925.0 -0.5575285282948277 1
gene  1 48 57 0.9867520025308465 0 5927.0 0.9867520025308465 1
gene  1 49 57 -0.5360663699757416 0 5928.0 -0.5360663699757416 1
gene  1 50 57 0.32413826673208523 0 5929.0 0.32413826673208523 1
gene  1 51 57 -0.4984308380082716 0 5930.0 -0.4984308380082716 1
gene  1 52 57 -0.9000062496934679 0 5931.0 -0.9000062496934679 1
gene  1 53 57 -0.772894581530195 0 5932.0 -0.772894581530195 1
gene  1 55 57 0.43698692246958437 0 5934.0 0.43698692246958437 1
gene  1 1 58 -0.27413519285991617 0 5985.0 -0.27413519285991617 1
gene  1 5 58 0.8787298863374259 0 5989.0 0.8787298863374259 1
gene  1 6 58 -0.08866902703880808 0 5990.0 -0.08866902703880808 1
gene  1 7 58 0.3572977641247006 0 5991.0 0.3572977641247006 1
gene  1 8 58 0.09062755882600027 0 5992.0 0.09062755882600027 1
gene  1 9 58 -0.5634372575767523 0 5993.0 -0.5634372575767523 1
gene  1 14 58 -0.24827780077102313 0 5998.0 -0.24827780077102313 1
gene  1 15 58 0.6056555047199813 0 5999.0 0.6056555047199813 1
gene  1 16 58 0.6141640809272659 0 6000.0 0.6141640809272659 1
gene  1 18 58 -0.4735332089396509 0 6002.0 -0.4735332089396509 1
gene  1 24 58 -0.012349187362584613 0 6008.0 -0.012349187362584613 1
gene  1 28 58 0.7709292741959398 0 6012.0 0.7709292741959398 1
gene  1 32 58 0.6690115077756381 0 6016.0 0.6690115077756381 1
gene  1 33 58 -0.2984573237351501 0 6017.0 -0.2984573237351501 1
gene  1 34 58 -0.07682027032040017 0 6018.0 -0.07682027032040017 1
gene  1 35 58 0.8740096501894603 0 6019.0 0.8740096501894603 1
gene  1 37 58 0.17154896750203696 0 6021.0 0.17154896750203696 1
gene  1 38 58 0.7385169943704972 0 6022.0 0.7385169943704972 1
gene  1 39 58 -0.015232787483155819 0 6023.0 -0.015232787483155819 1
gene  1 43 58 0.37850517640128345 0 6027.0 0.37850517640128345 1
gene  1 45 58 0.7569822036698953 0 6029.0 0.7569822036698953 1
gene  1 49 58 0.9160323199977556 0 6033.0 0.9160323199977556 1
gene  1 50 58 -0.20333913866595144 0 6034.0 -0.20333913866595144 1
gene  1 52 58 -0.5785496111094968 0 6036.0 -0.5785496111094968 1
gene  1 54 58 -0.02820670686608029 0 6038.0 -0.02820670686608029 1
gene  1 56 58 0.12415423217079846 0 6040.0 0.12415423217079846 1
gene  1 57 58 -0.7129150206990402 0 6041.0 -0.7129150206990402 1
gene  1 2 59 -0.8432641491525433 0 6091.0 -0.8432641491525433 1
gene  1 4 59 0.0629794784027129 0 6093.0 0.0629794784027129 1
gene  1 6 59 -0.599025405221444 0 6095.0 -0.599025405221444 1
gene  1 8 59 0.9106261511592181 0 6097.0 0.9106261511592181 1
gene  1 12 59 0.6208237214919239 0 6101.0 0.6208237214919239 1
gene  1 13 59 -0.7057147968478217 0 6102.0 -0.7057147968478217 1
gene  1 14 59 0.07618343181118525 0 6103.0 0.07618343181118525 1
gene  1 15 59 -0.3370178238572824 0 6104.0 -0.3370178238572824 1
gene  1 17 59 -0.3050315247979165 0 6106.0 -0.3050315247979165 1
gene  1 18 59 -0.8034783908366245 0 6107.0 -0.8034783908366245 1
gene  1 19 59 -0.4064829897183553 0 6108.0 -0.4064829897183553 1
gene  1 21 59 0.45319762772060224 0 6110.0 0.45319762772060224 1
gene  1 24 59 0.06822524918351125 0 6113.0 0.06822524918351125 1
gene  1 25 59 -0.341061333292764 0 6114.0 -0.341061333292764 1
gene  1 28 59 -0.2894410758685392 0 6117.0 -0.2894410758685392 1
gene  1 29 59 0.0959434754571672 0 6118.0 0.0959434754571672 1
gene  1 33 59 0.7625109075690313 0 6122.0 0.7625109075690313 1
gene  1 35 59 0.9156908514655173 0 6124.0 0.9156908514655173 1
gene  1 36 59 -0.8587626066452868 0 6125.0 -0.8587626066452868 1
gene  1 37 59 -0.27755115301370015 0 6126.0 -0.27755115301370015 1
gene  1 38 59 -0.6049110823037306 0 6127.0 -0.6049110823037306 1
gene  1 39 59 -0.05567526140951673 0 6128.0 -0.05567526140951673 1
gene  1 40 59 0.09873410133814631 0 6129.0 0.09873410133814631 1
gene  1 44 59 0.0908696279681166 0 6133.0 0.0908696279681166 1
gene  1 46 59 0.8810605034201331 0 6135.0 0.8810605034201331 1
gene  1 49 59 -0.02615399208479452 0 6138.0 -0.02615399208479452 1
gene  1 50 59 -0.8509088486961569 0 6139.0 -0.8509088486961569 1
gene  1 51 59 0.4531663394467308 0 6140.0 0.4531663394467308 1
gene  1 52 59 0.5384996585615917 0 6141.0 0.5384996585615917 1
gene  1 53 59 -0.3355773004541097 0 6142.0 -0.3355773004541097 1
gene  1 56 59 -0.004646961224504476 0 6145.0 -0.004646961224504476 1
gene  1 1 60 -0.7496020057029107 0 6195.0 -0.7496020057029107 1
gene  1 2 60 -0.6781941100437952 0 6196.0 -0.6781941100437952 1
gene  1 5 60 -0.6243941858964316 0 6199.0 -0.6243941858964316 1
gene  1 8 60 0.6660974815810619 0 6202.0 0.6660974815810619 1
gene  1 9 60 0.8574317497221812 0 6203.0 0.8574317497221812 1
gene  1 10 60 0.39730790375325065 0 6204.0 0.39730790375325065 1
gene  1 12 60 -0.807875257392811 0 6206.0 -0.807875257392811 1
gene  1 15 60 0.028466380307780814 0 6209.0 0.028466380307780814 1
gene  1 16 60 -0.7692208439959226 0 6210.0 -0.7692208439959226 1
gene  1 17 60 0.6650232067905396 0 6211.0 0.6650232067905396 1
gene  1 18 60 0.6926121081578056 0 6212.0 0.6926121081578056 1
gene  1 20 60 -0.979131630814078 0 6214.0 -0.979131630814078 1
gene  1 21 60 0.045375791793971665 0 6215.0 0.045375791793971665 1
gene  1 23 60 0.32573830470445775 0 6217.0 0.32573830470445775 1
gene  1 24 60 -0.08495946328006987 0 6218.0 -0.08495946328006987 1
gene  1 30 60 0.3804463035604565 0 6224.0 0.3804463035604565 1
gene  1 32 60 -0.5555277735525422 0 6226.0 -0.5555277735525422 1
gene  1 33 60 -0.491583395572056 0 6227.0 -0.491583395572056 1
gene  1 34 60 0.06284297481276724 0 6228.0 0.06284297481276724 1
gene  1 35 60 -0.4518884344353823 0 6229.0 -0.4518884344353823 1
gene  1 36 60 0.5915246050859849 0 6230.0 0.5915246050859849 1
gene  1 42 60 -0.5020285557151265 0 6236.0 -0.5020285557151265 1
gene  1 45 60 -0.35263786254505247 0 6239.0 -0.35263786254505247 1
gene  1 48 60 0.8094245062933515 0 6242.0 0.8094245062933515 1
gene  1 51 60 0.11312004376518314 0 6245.0 0.11312004376518314 1
gene  1 53 60 0.957464979042862 0 6247.0 0.957464979042862 1
gene  1 54 60 0.012303783562258808 0 6248.0 0.012303783562258808 1
gene  1 58 60 -0.8282785097639257 0 6252.0 -0.8282785097639257 1
gene  1 2 61 -0.0164053132289248 0 6301.0 -0.0164053132289248 1
gene  1 3 61 -0.6629283057512445 0 6302.0 -0.6629283057512445 1
gene  1 4 61 -0.1020821200060914 0 6303.0 -0.1020821200060914 1
gene  1 5 61 0.9793414281837967 0 6304.0 0.9793414281837967 1
gene  1 6 61 0.27448934148082393 0 6305.0 0.27448934148082393 1
gene  1 7 61 -0.406393557520496 0 6306.0 -0.406393557520496 1
gene  1 8 61 -0.06564667909211697 0 6307.0 -0.06564667909211697 1
gene  1 10 61 0.335694146126413 0 6309.0 0.335694146126413 1
gene  1 11 61 -0.20415788463426598 0 6310.0 -0.20415788463426598 1
gene  1 13 61 -0.5239684590610497 0 6312.0 -0.5239684590610497 1
gene  1 14 61 -0.8478397830233153 0 6313.0 -0.8478397830233153 1
gene  1 15 61 -0.28950077046263023 0 6314.0 -0.28950077046263023 1
gene  1 17 61 0.059862579922412285 0 6316.0 0.059862579922412285 1
gene  1 20 61 -0.024383730940419013 0 6319.0 -0.024383730940419013 1
gene  1 23 61 -0.6495961108052749 0 6322.0 -0.6495961108052749 1
gene  1 25 61 -0.693087140579554 0 6324.0 -0.693087140579554 1
gene  1 28 61 0.48041516999663114 0 6327.0 0.48041516999663114 1
gene  1 29 61 0.4318405095443655 0 6328.0 0.4318405095443655 1
gene  1 31 61 0.8352995300817385 0 6330.0 0.8352995300817385 1
gene  1 35 61 0.7204505696353396 0 6334.0 0.7204505696353396 1
gene  1 39 61 -0.8315726810720488 0 6338.0 -0.8315726810720488 1
gene  1 40 61 -0.4058153247943034 0 6339.0 -0.4058153247943034 1
gene  1 43 61 -0.14095453539304026 0 6342.0 -0.14095453539304026 1
gene  1 45 61 0.11273022756951911 0 6344.0 0.11273022756951911 1
gene  1 48 61 -0.2510547947124667 0 6347.0 -0.2510547947124667 1
gene  1 49 61 0.9770048948496557 0 6348.0 0.9770048948496557 1
gene  1 50 61 0.6208802944383887 0 6349.0 0.6208802944383887 1
gene  1 51 61 -0.5461524894593183 0 6350.0 -0.5461524894593183 1
gene  1 52 61 0.7475673617247627 0 6351.0 0.7475673617247627 1
gene  1 53 61 0.9402577794285145 0 6352.0 0.9402577794285145 1
gene  1 54 61 -0.9632198691461229 0 6353.0 -0.9632198691461229 1
gene  1 57 61 -0.3633810054583567 0 6356.0 -0.3633810054583567 1
gene  1 60 61 -0.3026227508566617 0 6359.0 -0.3026227508566617 1
gene  1 1 62 0.5299985782313038 0 6405.0 0.5299985782313038 1
gene  1 3 62 -0.006846742669228467 0 6407.0 -0.006846742669228467 1
gene  1 4 62 -0.10564600019736736 0 6408.0 -0.10564600019736736 1
gene  1 5 62 -0.828234540117762 0 6409.0 -0.828234540117762 1
gene  1 6 62 0.10509544866114984 0 6410.0 0.10509544866114984 1
gene  1 7 62 0.7200653765682897 0 6411.0 0.7200653765682897 1
gene  1 8 62 -0.23698063111890688 0 6412.0 -0.23698063111890688 1
gene  1 9 62 0.5341734944154463 0 6413.0 0.5341734944154463 1
gene  1 11 62 -0.7440141520592515 0 6415.0 -0.7440141520592515 1
gene  1 12 62 -0.13003748964792505 0 6416.0 -0.13003748964792505 1
gene  1 13 62 -0.27370349176019126 0 6417.0 -0.27370349176019126 1
gene  1 15 62 -0.7290429846360674 0 6419.0 -0.7290429846360674 1
gene  1 16 62 -0.6249827582716456 0 6420.0 -0.6249827582716456 1
gene  1 18 62 0.9056902654975536 0 6422.0 0.9056902654975536 1
gene  1 19 62 0.6291840503688261 0 6423.0 0.6291840503688261 1
gene  1 20 62 -0.027966748061262314 0 6424.0 -0.027966748061262314 1
gene  1 21 62 -0.9891739183951078 0 6425.0 -0.9891739183951078 1
gene  1 23 62 0.5399245203654374 0 6427.0 0.5399245203654374 1
gene  1 24 62 0.8100110031448226 0 6428.0 0.8100110031448226 1
gene  1 25 62 0.0585674206843142 0 6429.0 0.0585674206843142 1
gene  1 26 62 0.6788848335323593 0 6430.0 0.6788848335323593 1
gene  1 27 62 -0.5025577343231994 0 6431.0 -0.5025577343231994 1
gene  1 29 62 0.9059325028518236 0 6433.0 0.9059325028518236 1
gene  1 31 62 -0.9729065014315048 0 6435.0 -0.9729065014315048 1
gene  1 35 62 -0.45052399523882936 0 6439.0 -0.45052399523882936 1
gene  1 39 62 0.8563053068705654 0 6443.0 0.8563053068705654 1
gene  1 40 62 0.40019875389708703 0 6444.0 0.40019875389708703 1
gene  1 43 62 0.797287363907985 0 6447.0 0.797287363907985 1
gene  1 45 62 -0.8989357811448906 0 6449.0 -0.8989357811448906 1
gene  1 46 62 0.7662944531456576 0 6450.0 0.7662944531456576 1
gene  1 48 62 0.2839429917195838 0 6452.0 0.2839429917195838 1
gene  1 49 62 0.029803053550874647 0 6453.0 0.029803053550874647 1
gene  1 52 62 -0.2321253877976237 0 6456.0 -0.2321253877976237 1
gene  1 53 62 -0.0705621018027428 0 6457.0 -0.0705621018027428 1
gene  1 54 62 0.9295843652443037 0 6458.0 0.9295843652443037 1
gene  1 55 62 -0.057119634737147096 0 6459.0 -0.057119634737147096 1
gene  1 56 62 -0.8125734835291424 0 6460.0 -0.8125734835291424 1
gene  1 60 62 -0.7055334248135369 0 6464.0 -0.7055334248135369 1
gene  1 61 62 0.6024034603303975 0 6465.0 0.6024034603303975 1
gene  1 1 63 -0.2714840725944849 0 6510.0 -0.2714840725944849 1
gene  1 3 63 0.26372012425372116 0 6512.0 0.26372012425372116 1
gene  1 4 63 -0.746805396563436 0 6513.0 -0.746805396563436 1
gene  1 5 63 -0.35178098957091286 0 6514.0 -0.35178098957091286 1
gene  1 7 63 -0.07496423628766513 0 6516.0 -0.07496423628766513 1
gene  1 9 63 0.6303858618379906 0 6518.0 0.6303858618379906 1
gene  1 11 63 -0.1912400143218338 0 6520.0 -0.1912400143218338 1
gene  1 12 63 -0.10632664466605923 0 6521.0 -0.10632664466605923 1
gene  1 13 63 0.8434763165850531 0 6522.0 0.8434763165850531 1
gene  1 14 63 -0.10430226650995211 0 6523.0 -0.10430226650995211 1
gene  1 20 63 -0.2903515505093559 0 6529.0 -0.2903515505093559 1
gene  1 21 63 -0.4293613796552017 0 6530.0 -0.4293613796552017 1
gene  1 22 63 -0.955614324866513 0 6531.0 -0.955614324866513 1
gene  1 25 63 -0.8768310105847371 0 6534.0 -0.8768310105847371 1
gene  1 29 63 0.2755689540906665 0 6538.0 0.2755689540906665 1
gene  1 33 63 0.6989297179573631 0 6542.0 0.6989297179573631 1
gene  1 34 63 -0.9724246876607566 0 6543.0 -0.9724246876607566 1
gene  1 35 63 -0.8785254063356724 0 6544.0 -0.8785254063356724 1
gene  1 36 63 -0.08086739749238425 0 6545.0 -0.08086739749238425 1
gene  1 37 63 0.6325581623229166 0 6546.0 0.6325581623229166 1
gene  1 38 63 -0.27020055336973137 0 6547.0 -0.27020055336973137 1
gene  1 39 63 0.2994691529210972 0 6548.0 0.2994691529210972 1
gene  1 41 63 0.16455746389749737 0 6550.0 0.16455746389749737 1
gene  1 43 63 0.5510703021529352 0 6552.0 0.5510703021529352 1
gene  1 48 63 -0.8996105316068118 0 6557.0 -0.8996105316068118 1
gene  1 49 63 0.5672293415577767 0 6558.0 0.5672293415577767 1
gene  1 51 63 -0.6161473666292846 0 6560.0 -0.6161473666292846 1
gene  1 52 63 0.5845197878684829 0 6561.0 0.5845197878684829 1
gene  1 54 63 0.17591114766952698 0 6563.0 0.17591114766952698 1
gene  1 58 63 0.7745715280643917 0 6567.0 0.7745715280643917 1
gene  1 61 63 -0.3719679366377454 0 6570.0 -0.3719679366377454 1
gene  1 1 64 -0.9801842755287541 0 6615.0 -0.9801842755287541 1
gene  1 2 64 0.7358768265356236 0 6616.0 0.7358768265356236 1
gene  1 3 64 0.7024705749654333 0 6617.0 0.7024705749654333 1
gene  1 5 64 -0.879871449469348 0 6619.0 -0.879871449469348 1
gene  1 6 64 0.6379301510956935 0 6620.0 0.6379301510956935 1
gene  1 7 64 -0.2510485256147701 0 6621.0 -0.2510485256147701 1
gene  1 8 64 0.5529480745859283 0 6622.0 0.5529480745859283 1
gene  1 10 64 0.8833511315984679 0 6624.0 0.8833511315984679 1
gene  1 11 64 0.1293344939167942 0 6625.0 0.1293344939167942 1
gene  1 15 64 0.12196268451480885 0 6629.0 0.12196268451480885 1
gene  1 19 64 -0.19029289832985552 0 6633.0 -0.19029289832985552 1
gene  1 20 64 -0.9328253398505814 0 6634.0 -0.9328253398505814 1
gene  1 22 64 0.45783964438687463 0 6636.0 0.45783964438687463 1
gene  1 23 64 -0.7365544849815113 0 6637.0 -0.7365544849815113 1
gene  1 24 64 0.15956147448835523 0 6638.0 0.15956147448835523 1
gene  1 25 64 0.6799086776402828 0 6639.0 0.6799086776402828 1
gene  1 28 64 0.18889330152716233 0 6642.0 0.18889330152716233 1
gene  1 29 64 -0.9346954441374381 0 6643.0 -0.9346954441374381 1
gene  1 30 64 0.501075227951707 0 6644.0 0.501075227951707 1
gene  1 31 64 -0.23194661004377526 0 6645.0 -0.23194661004377526 1
gene  1 34 64 -0.8693439193287832 0 6648.0 -0.8693439193287832 1
gene  1 35 64 -0.3409556774504512 0 6649.0 -0.3409556774504512 1
gene  1 36 64 0.5739727534502701 0 6650.0 0.5739727534502701 1
gene  1 38 64 -0.7109918152857919 0 6652.0 -0.7109918152857919 1
gene  1 39 64 -0.7090465643290192 0 6653.0 -0.7090465643290192 1
gene  1 40 64 -0.10468323592333195 0 6654.0 -0.10468323592333195 1
gene  1 41 64 -0.8276464753279026 0 6655.0 -0.8276464753279026 1
gene  1 45 64 -0.4051939848658871 0 6659.0 -0.4051939848658871 1
gene  1 46 64 0.7062858233546033 0 6660.0 0.7062858233546033 1
gene  1 49 64 -0.2002515601365651 0 6663.0 -0.2002515601365651 1
gene  1 50 64 -0.9758893627031672 0 6664.0 -0.9758893627031672 1
gene  1 51 64 0.36208049221439764 0 6665.0 0.36208049221439764 1
gene  1 56 64 0.9507200832208396 0 6670.0 0.9507200832208396 1
gene  1 57 64 0.9050972213652545 0 6671.0 0.9050972213652545 1
gene  1 60 64 0.015457767080491291 0 6674.0 0.015457767080491291 1
gene  1 61 64 0.15261902497422974 0 6675.0 0.15261902497422974 1
gene  1 62 64 0.9684454839765535 0 6676.0 0.9684454839765535 1
gene  1 63 64 -0.9875873206779776 0 6677.0 -0.9875873206779776 1
gene  1 4 65 0.3410636567750539 0 6723.0 0.3410636567750539 1
gene  1 5 65 0.6418452870284598 0 6724.0 0.6418452870284598 1
gene  1 6 65 0.21569401832377044 0 6725.0 0.21569401832377044 1
gene  1 7 65 0.833826925692112 0 6726.0 0.833826925692112 1
gene  1 9 65 -0.11695470611957481 0 6728.0 -0.11695470611957481 1
gene  1 10 65 0.6051529176935372 0 6729.0 0.6051529176935372 1
gene  1 11 65 -0.2597217112561875 0 6730.0 -0.2597217112561875 1
gene  1 13 65 -0.5396248385403803 0 6732.0 -0.5396248385403803 1
gene  1 14 65 -0.5175160810427948 0 6733.0 -0.5175160810427948 1
gene  1 18 65 -0.7074025173553302 0 6737.0 -0.7074025173553302 1
gene  1 21 65 -0.6835848613767572 0 6740.0 -0.6835848613767572 1
gene  1 27 65 0.442738093215857 0 6746.0 0.442738093215857 1
gene  1 28 65 0.3138931787538778 0 6747.0 0.3138931787538778 1
gene  1 30 65 -0.8525035570200009 0 6749.0 -0.8525035570200009 1
gene  1 31 65 -0.23859772961942094 0 6750.0 -0.23859772961942094 1
gene  1 33 65 -0.7073445309285104 0 6752.0 -0.7073445309285104 1
gene  1 34 65 0.10053419205923475 0 6753.0 0.10053419205923475 1
gene  1 36 65 0.9611298731514186 0 6755.0 0.9611298731514186 1
gene  1 38 65 0.4640380966428327 0 6757.0 0.4640380966428327 1
gene  1 40 65 -0.16795789337276412 0 6759.0 -0.16795789337276412 1
gene  1 41 65 0.6866945893605291 0 6760.0 0.6866945893605291 1
gene  1 43 65 0.4501911044013073 0 6762.0 0.4501911044013073 1
gene  1 45 65 0.6647231550697202 0 6764.0 0.6647231550697202 1
gene  1 47 65 0.44858181406375497 0 6766.0 0.44858181406375497 1
gene  1 49 65 0.45712452575807583 0 6768.0 0.45712452575807583 1
gene  1 50 65 0.785418865501027 0 6769.0 0.785418865501027 1
gene  1 51 65 -0.34688952677212437 0 6770.0 -0.34688952677212437 1
gene  1 52 65 0.38405681214102405 0 6771.0 0.38405681214102405 1
gene  1 53 65 -0.8890372160359582 0 6772.0 -0.8890372160359582 1
gene  1 56 65 -0.5331325664166642 0 6775.0 -0.5331325664166642 1
gene  1 57 65 0.5717325950241048 0 6776.0 0.5717325950241048 1
gene  1 59 65 -0.4579217736219453 0 6778.0 -0.4579217736219453 1
gene  1 62 65 0.6265720308018286 0 6781.0 0.6265720308018286 1
gene  1 63 65 -0.03349739115001349 0 6782.0 -0.03349739115001349 1
gene  1 2 66 0.10121665630202858 0 6826.0 0.10121665630202858 1
gene  1 3 66 0.5426929043276884 0 6827.0 0.5426929043276884 1
gene  1 6 66 -0.2087324287908786 0 6830.0 -0.2087324287908786 1
gene  1 8 66 -0.6993196162325479 0 6832.0 -0.6993196162325479 1
gene  1 9 66 0.13646126214821008 0 6833.0 0.13646126214821008 1
gene  1 10 66 0.8766463444729874 0 6834.0 0.8766463444729874 1
gene  1 11 66 -0.5434871391019489 0 6835.0 -0.5434871391019489 1
gene  1 13 66 -0.6649636892088395 0 6837.0 -0.6649636892088395 1
gene  1 19 66 0.13611578688512693 0 6843.0 0.13611578688512693 1
gene  1 20 66 -0.3627286064844114 0 6844.0 -0.3627286064844114 1
gene  1 22 66 -0.7625359187778058 0 6846.0 -0.7625359187778058 1
gene  1 23 66 -0.08201570403759983 0 6847.0 -0.08201570403759983 1
gene  1 24 66 0.9485064761582856 0 6848.0 0.9485064761582856 1
gene  1 25 66 0.8412479868790037 0 6849.0 0.8412479868790037 1
gene  1 26 66 -0.09319784443994916 0 6850.0 -0.09319784443994916 1
gene  1 27 66 0.4039310148315506 0 6851.0 0.4039310148315506 1
gene  1 31 66 0.8917048994673753 0 6855.0 0.8917048994673753 1
gene  1 32 66 0.6140260726712001 0 6856.0 0.6140260726712001 1
gene  1 33 66 -0.682895538202853 0 6857.0 -0.682895538202853 1
gene  1 34 66 0.0025320089413002345 0 6858.0 0.0025320089413002345 1
gene  1 36 66 -0.6116226816301599 0 6860.0 -0.6116226816301599 1
gene  1 44 66 0.8135952111003084 0 6868.0 0.8135952111003084 1
gene  1 46 66 0.9165705868343447 0 6870.0 0.9165705868343447 1
gene  1 47 66 0.005690072895380038 0 6871.0 0.005690072895380038 1
gene  1 48 66 -0.478265638388355 0 6872.0 -0.478265638388355 1
gene  1 49 66 0.08107216309769405 0 6873.0 0.08107216309769405 1
gene  1 50 66 -0.10873912909672767 0 6874.0 -0.10873912909672767 1
gene  1 51 66 0.2880244329571594 0 6875.0 0.2880244329571594 1
gene  1 52 66 -0.9297277678961399 0 6876.0 -0.9297277678961399 1
gene  1 54 66 0.7891543663187625 0 6878.0 0.7891543663187625 1
gene  1 55 66 -0.6323201739992987 0 6879.0 -0.6323201739992987 1
gene  1 57 66 -0.6445536576711169 0 6881.0 -0.6445536576711169 1
gene  1 58 66 0.8246028254800053 0 6882.0 0.8246028254800053 1
gene  1 61 66 -0.805279280570657 0 6885.0 -0.805279280570657 1
gene  1 62 66 0.5902571991541524 0 6886.0 0.5902571991541524 1
gene  1 64 66 0.7498862823333059 0 6888.0 0.7498862823333059 1
gene  1 65 66 0.3453362691267551 0 6889.0 0.3453362691267551 1
gene  1 2 67 0.6017434624735061 0 6931.0 0.6017434624735061 1
gene  1 3 67 -0.2395956205430022 0 6932.0 -0.2395956205430022 1
gene  1 4 67 0.0810565372044143 0 6933.0 0.0810565372044143 1
gene  1 7 67 -0.9336129549913572 0 6936.0 -0.9336129549913572 1
gene  1 9 67 -0.6862542100421838 0 6938.0 -0.6862542100421838 1
gene  1 10 67 0.15923669301259735 0 6939.0 0.15923669301259735 1
gene  1 12 67 0.44819487864716734 0 6941.0 0.44819487864716734 1
gene  1 13 67 0.8070249190335417 0 6942.0 0.8070249190335417 1
gene  1 15 67 -0.6341133520965819 0 6944.0 -0.6341133520965819 1
gene  1 17 67 0.9021053226316291 0 6946.0 0.9021053226316291 1
gene  1 18 67 -0.6309407512161551 0 6947.0 -0.6309407512161551 1
gene  1 22 67 -0.7737180162732545 0 6951.0 -0.7737180162732545 1
gene  1 23 67 -0.9725216925079303 0 6952.0 -0.9725216925079303 1
gene  1 27 67 0.8018539291708958 0 6956.0 0.8018539291708958 1
gene  1 31 67 0.21630218602001883 0 6960.0 0.21630218602001883 1
gene  1 33 67 0.8450749358501968 0 6962.0 0.8450749358501968 1
gene  1 35 67 -0.3032225672851886 0 6964.0 -0.3032225672851886 1
gene  1 37 67 0.09727157461091507 0 6966.0 0.09727157461091507 1
gene  1 41 67 -0.5413645876650938 0 6970.0 -0.5413645876650938 1
gene  1 43 67 0.8592346611773413 0 6972.0 0.8592346611773413 1
gene  1 45 67 -0.09113511474008151 0 6974.0 -0.09113511474008151 1
gene  1 51 67 0.3999362364844631 0 6980.0 0.3999362364844631 1
gene  1 57 67 0.4870431035020564 0 6986.0 0.4870431035020564 1
gene  1 59 67 0.3307240495092738 0 6988.0 0.3307240495092738 1
gene  1 60 67 0.7173918321465576 0 6989.0 0.7173918321465576 1
gene  1 61 67 -0.23988095532272535 0 6990.0 -0.23988095532272535 1
gene  1 62 67 0.1815313140007332 0 6991.0 0.1815313140007332 1
gene  1 63 67 -0.6909126075691957 0 6992.0 -0.6909126075691957 1
gene  1 65 67 -0.6533023628733139 0 6994.0 -0.6533023628733139 1
gene  1 1 68 0.37955337685129986 0 7035.0 0.37955337685129986 1
gene  1 2 68 0.7481676858214972 0 7036.0 0.7481676858214972 1
gene  1 3 68 0.1845012188521009 0 7037.0 0.1845012188521009 1
gene  1 4 68 0.8995949289702608 0 7038.0 0.8995949289702608 1
gene  1 6 68 0.3594237443923517 0 7040.0 0.3594237443923517 1
gene  1 7 68 -0.47544151788850264 0 7041.0 -0.47544151788850264 1
gene  1 8 68 -0.939790755865874 0 7042.0 -0.939790755865874 1
gene  1 10 68 -0.32959931899616124 0 7044.0 -0.32959931899616124 1
gene  1 11 68 0.3224011693973351 0 7045.0 0.3224011693973351 1
gene  1 13 68 -0.9594860855493593 0 7047.0 -0.9594860855493593 1
gene  1 15 68 -0.18290482482600612 0 7049.0 -0.18290482482600612 1
gene  1 16 68 -0.936962845916616 0 7050.0 -0.936962845916616 1
gene  1 18 68 0.223792019273945 0 7052.0 0.223792019273945 1
gene  1 19 68 -0.24373073331858963 0 7053.0 -0.24373073331858963 1
gene  1 23 68 0.5631831976590529 0 7057.0 0.5631831976590529 1
gene  1 24 68 -0.6135396111637005 0 7058.0 -0.6135396111637005 1
gene  1 27 68 -0.6557920580761828 0 7061.0 -0.6557920580761828 1
gene  1 28 68 0.9878482003630916 0 7062.0 0.9878482003630916 1
gene  1 33 68 -0.9902256045044965 0 7067.0 -0.9902256045044965 1
gene  1 35 68 -0.35114852650173645 0 7069.0 -0.35114852650173645 1
gene  1 36 68 0.45923267074506013 0 7070.0 0.45923267074506013 1
gene  1 39 68 -0.5795618170084349 0 7073.0 -0.5795618170084349 1
gene  1 42 68 -0.9410212765669913 0 7076.0 -0.9410212765669913 1
gene  1 45 68 -0.28621439133249527 0 7079.0 -0.28621439133249527 1
gene  1 47 68 0.24116769398364146 0 7081.0 0.24116769398364146 1
gene  1 49 68 -0.5584626087995646 0 7083.0 -0.5584626087995646 1
gene  1 50 68 -0.6136032565877712 0 7084.0 -0.6136032565877712 1
gene  1 55 68 0.8875193166504443 0 7089.0 0.8875193166504443 1
gene  1 57 68 0.717428034319315 0 7091.0 0.717428034319315 1
gene  1 59 68 0.06029935648157214 0 7093.0 0.06029935648157214 1
gene  1 64 68 -0.6139423449890977 0 7098.0 -0.6139423449890977 1
gene  1 65 68 0.6574106490670549 0 7099.0 0.6574106490670549 1
gene  1 66 68 0.2289014509031031 0 7100.0 0.2289014509031031 1
gene  1 1 69 0.38219234034542426 0 7140.0 0.38219234034542426 1
gene  1 4 69 -0.6444460152324761 0 7143.0 -0.6444460152324761 1
gene  1 6 69 0.7932156583565563 0 7145.0 0.7932156583565563 1
gene  1 9 69 -0.7853038680532424 0 7148.0 -0.7853038680532424 1
gene  1 10 69 -0.4922012202510232 0 7149.0 -0.4922012202510232 1
gene  1 13 69 0.2914294606079896 0 7152.0 0.2914294606079896 1
gene  1 17 69 0.39006260001340576 0 7156.0 0.39006260001340576 1
gene  1 19 69 0.9387595382844796 0 7158.0 0.9387595382844796 1
gene  1 21 69 0.9983475015542499 0 7160.0 0.9983475015542499 1
gene  1 23 69 -0.9081302359064056 0 7162.0 -0.9081302359064056 1
gene  1 25 69 0.4949334483038589 0 7164.0 0.4949334483038589 1
gene  1 26 69 0.7216400912097389 0 7165.0 0.7216400912097389 1
gene  1 31 69 0.9996203064619676 0 7170.0 0.9996203064619676 1
gene  1 33 69 0.4789705926209782 0 7172.0 0.4789705926209782 1
gene  1 34 69 -0.9150857372020459 0 7173.0 -0.9150857372020459 1
gene  1 36 69 0.7607410598532021 0 7175.0 0.7607410598532021 1
gene  1 39 69 -0.47112815491334126 0 7178.0 -0.47112815491334126 1
gene  1 40 69 -0.4964375139827719 0 7179.0 -0.4964375139827719 1
gene  1 42 69 0.39685912957844194 0 7181.0 0.39685912957844194 1
gene  1 44 69 0.6367871028452986 0 7183.0 0.6367871028452986 1
gene  1 48 69 -0.6032169088013273 0 7187.0 -0.6032169088013273 1
gene  1 49 69 -0.34761987200114397 0 7188.0 -0.34761987200114397 1
gene  1 50 69 0.11258827311318764 0 7189.0 0.11258827311318764 1
gene  1 52 69 0.15011928799270002 0 7191.0 0.15011928799270002 1
gene  1 55 69 -0.3952530948503764 0 7194.0 -0.3952530948503764 1
gene  1 59 69 0.6034745058465883 0 7198.0 0.6034745058465883 1
gene  1 61 69 -0.2975058590421893 0 7200.0 -0.2975058590421893 1
gene  1 62 69 -0.607766778489667 0 7201.0 -0.607766778489667 1
gene  1 63 69 -0.9834406110947628 0 7202.0 -0.9834406110947628 1
gene  1 65 69 -0.337507573930534 0 7204.0 -0.337507573930534 1
gene  1 66 69 -0.07315019933267064 0 7205.0 -0.07315019933267064 1
gene  1 67 69 0.7133575110599414 0 7206.0 0.7133575110599414 1
gene  1 68 69 0.7024433419318551 0 7207.0 0.7024433419318551 1
gene  1 1 70 0.12586088230647008 0 7245.0 0.12586088230647008 1
gene  1 3 70 0.6712700749562915 0 7247.0 0.6712700749562915 1
gene  1 5 70 -0.4407634844694419 0 7249.0 -0.4407634844694419 1
gene  1 6 70 0.8960478009939562 0 7250.0 0.8960478009939562 1
gene  1 11 70 -0.4487596105947942 0 7255.0 -0.4487596105947942 1
gene  1 12 70 -0.35930543759965794 0 7256.0 -0.35930543759965794 1
gene  1 15 70 0.14817483611727633 0 7259.0 0.14817483611727633 1
gene  1 18 70 -0.5153117620427503 0 7262.0 -0.5153117620427503 1
gene  1 21 70 0.6217589914206558 0 7265.0 0.6217589914206558 1
gene  1 24 70 -0.7763478862406051 0 7268.0 -0.7763478862406051 1
gene  1 27 70 0.5564874428530091 0 7271.0 0.5564874428530091 1
gene  1 29 70 0.6956791277935567 0 7273.0 0.6956791277935567 1
gene  1 30 70 -0.22895096625069444 0 7274.0 -0.22895096625069444 1
gene  1 31 70 -0.2625581173413186 0 7275.0 -0.2625581173413186 1
gene  1 36 70 0.4113882815382248 0 7280.0 0.4113882815382248 1
gene  1 39 70 0.7688432850337277 0 7283.0 0.7688432850337277 1
gene  1 42 70 -0.9508586571535604 0 7286.0 -0.9508586571535604 1
gene  1 43 70 -0.23522078059688833 0 7287.0 -0.23522078059688833 1
gene  1 44 70 0.1811194674806037 0 7288.0 0.1811194674806037 1
gene  1 46 70 -0.6315286719638299 0 7290.0 -0.6315286719638299 1
gene  1 48 70 -0.11563231829977694 0 7292.0 -0.11563231829977694 1
gene  1 54 70 -0.09520866850994891 0 7298.0 -0.09520866850994891 1
gene  1 55 70 0.9422599653720258 0 7299.0 0.9422599653720258 1
gene  1 56 70 0.5120328380078275 0 7300.0 0.5120328380078275 1
gene  1 61 70 0.7387188580266956 0 7305.0 0.7387188580266956 1
gene  1 63 70 0.38724097847176775 0 7307.0 0.38724097847176775 1
gene  1 64 70 0.2765215790205494 0 7308.0 0.2765215790205494 1
gene  1 69 70 -0.0058950772846845245 0 7313.0 -0.0058950772846845245 1
gene  1 2 71 0.035632301307929604 0 7351.0 0.035632301307929604 1
gene  1 3 71 -0.5689616233759761 0 7352.0 -0.5689616233759761 1
gene  1 6 71 0.06692866955767962 0 7355.0 0.06692866955767962 1
gene  1 9 71 0.7133807095228348 0 7358.0 0.7133807095228348 1
gene  1 10 71 -0.7239076920394654 0 7359.0 -0.7239076920394654 1
gene  1 16 71 -0.3349165404482367 0 7365.0 -0.3349165404482367 1
gene  1 17 71 -0.23812651148947017 0 7366.0 -0.23812651148947017 1
gene  1 18 71 -0.9319116041999002 0 7367.0 -0.9319116041999002 1
gene  1 22 71 -0.9997528233621663 0 7371.0 -0.9997528233621663 1
gene  1 24 71 -0.7937315582352128 0 7373.0 -0.7937315582352128 1
gene  1 27 71 0.851107575277556 0 7376.0 0.851107575277556 1
gene  1 30 71 0.023828486776027225 0 7379.0 0.023828486776027225 1
gene  1 32 71 0.05517059682071035 0 7381.0 0.05517059682071035 1
gene  1 35 71 0.19631694467886562 0 7384.0 0.19631694467886562 1
gene  1 36 71 0.3273932979180254 0 7385.0 0.3273932979180254 1
gene  1 37 71 -0.2910111227986889 0 7386.0 -0.2910111227986889 1
gene  1 38 71 0.8621379446724348 0 7387.0 0.8621379446724348 1
gene  1 40 71 0.38025939638817974 0 7389.0 0.38025939638817974 1
gene  1 43 71 0.6535810042593567 0 7392.0 0.6535810042593567 1
gene  1 44 71 -0.2993507529427414 0 7393.0 -0.2993507529427414 1
gene  1 45 71 -0.7083966116144094 0 7394.0 -0.7083966116144094 1
gene  1 48 71 0.6355902155261007 0 7397.0 0.6355902155261007 1
gene  1 52 71 -0.08794496913584615 0 7401.0 -0.08794496913584615 1
gene  1 53 71 -0.5736889159198691 0 7402.0 -0.5736889159198691 1
gene  1 54 71 -0.43801180219817293 0 7403.0 -0.43801180219817293 1
gene  1 55 71 0.5490962957842007 0 7404.0 0.5490962957842007 1
gene  1 58 71 0.4621345316265987 0 7407.0 0.4621345316265987 1
gene  1 60 71 0.7528012870845068 0 7409.0 0.7528012870845068 1
gene  1 62 71 0.3894402769483565 0 7411.0 0.3894402769483565 1
gene  1 64 71 0.27190265564344607 0 7413.0 0.27190265564344607 1
gene  1 65 71 -0.6204793190198421 0 7414.0 -0.6204793190198421 1
gene  1 66 71 -0.5888844282440875 0 7415.0 -0.5888844282440875 1
gene  1 67 71 0.7916444393360329 0 7416.0 0.7916444393360329 1
gene  1 69 71 0.03620807831174577 0 7418.0 0.03620807831174577 1
gene  1 70 71 -0.7664047983571749 0 7419.0 -0.7664047983571749 1
gene  1 1 72 -0.39074481771153 0 7455.0 -0.39074481771153 1
gene  1 2 72 0.5788973519556417 0 7456.0 0.5788973519556417 1
gene  1 7 72 0.06418307791464428 0 7461.0 0.06418307791464428 1
gene  1 8 72 0.5612709851900912 0 7462.0 0.5612709851900912 1
gene  1 13 72 0.5478109579500148 0 7467.0 0.5478109579500148 1
gene  1 18 72 0.71831888835803 0 7472.0 0.71831888835803 1
gene  1 21 72 -0.9418979092256158 0 7475.0 -0.9418979092256158 1
gene  1 22 72 0.2387366130487022 0 7476.0 0.2387366130487022 1
gene  1 26 72 -0.8958881121081432 0 7480.0 -0.8958881121081432 1
gene  1 28 72 0.758720255676465 0 7482.0 0.758720255676465 1
gene  1 29 72 -0.2348730946059736 0 7483.0 -0.2348730946059736 1
gene  1 31 72 -0.9225596219021 0 7485.0 -0.9225596219021 1
gene  1 32 72 -0.7673197137589607 0 7486.0 -0.7673197137589607 1
gene  1 33 72 0.24973663739668472 0 7487.0 0.24973663739668472 1
gene  1 34 72 -0.49494056727616986 0 7488.0 -0.49494056727616986 1
gene  1 36 72 0.8544863279733055 0 7490.0 0.8544863279733055 1
gene  1 38 72 -0.3393577243386333 0 7492.0 -0.3393577243386333 1
gene  1 41 72 -0.33809910345931027 0 7495.0 -0.33809910345931027 1
gene  1 43 72 -0.7304559723721958 0 7497.0 -0.7304559723721958 1
gene  1 46 72 -0.6103453276221114 0 7500.0 -0.6103453276221114 1
gene  1 51 72 -0.19589284407177765 0 7505.0 -0.19589284407177765 1
gene  1 53 72 -0.41171300463768945 0 7507.0 -0.41171300463768945 1
gene  1 54 72 -0.997767309379714 0 7508.0 -0.997767309379714 1
gene  1 61 72 -0.28731261428083243 0 7515.0 -0.28731261428083243 1
gene  1 63 72 0.04945355714841315 0 7517.0 0.04945355714841315 1
gene  1 64 72 0.3673227471201732 0 7518.0 0.3673227471201732 1
gene  1 68 72 -0.6198564639072363 0 7522.0 -0.6198564639072363 1
gene  1 70 72 -0.4360890911111964 0 7524.0 -0.4360890911111964 1
gene  1 71 72 0.14211789862750035 0 7525.0 0.14211789862750035 1
gene  1 1 73 -0.45617752439094805 0 7560.0 -0.45617752439094805 1
gene  1 2 73 0.9812346274332431 0 7561.0 0.9812346274332431 1
gene  1 5 73 -0.46284673832959466 0 7564.0 -0.46284673832959466 1
gene  1 10 73 0.6246410185346508 0 7569.0 0.6246410185346508 1
gene  1 15 73 0.7933736474863234 0 7574.0 0.7933736474863234 1
gene  1 17 73 0.20387435526129505 0 7576.0 0.20387435526129505 1
gene  1 18 73 -0.7835427473771361 0 7577.0 -0.7835427473771361 1
gene  1 19 73 -0.9810034533651526 0 7578.0 -0.9810034533651526 1
gene  1 20 73 -0.37640895140218433 0 7579.0 -0.37640895140218433 1
gene  1 22 73 -0.828956710310794 0 7581.0 -0.828956710310794 1
gene  1 24 73 0.04573617773739935 0 7583.0 0.04573617773739935 1
gene  1 25 73 -0.45842685823856744 0 7584.0 -0.45842685823856744 1
gene  1 29 73 -0.7697991308239419 0 7588.0 -0.7697991308239419 1
gene  1 30 73 -0.949635132749821 0 7589.0 -0.949635132749821 1
gene  1 33 73 -0.7804091925341347 0 7592.0 -0.7804091925341347 1
gene  1 34 73 -0.22775417859368885 0 7593.0 -0.22775417859368885 1
gene  1 40 73 -0.6950984806282414 0 7599.0 -0.6950984806282414 1
gene  1 41 73 -0.8313758845494879 0 7600.0 -0.8313758845494879 1
gene  1 43 73 0.37040730090525176 0 7602.0 0.37040730090525176 1
gene  1 45 73 0.24239682407002838 0 7604.0 0.24239682407002838 1
gene  1 48 73 0.3859409177290575 0 7607.0 0.3859409177290575 1
gene  1 50 73 0.673610967962564 0 7609.0 0.673610967962564 1
gene  1 52 73 0.8567605865320898 0 7611.0 0.8567605865320898 1
gene  1 53 73 -0.20163092597273213 0 7612.0 -0.20163092597273213 1
gene  1 58 73 -0.28924846834593654 0 7617.0 -0.28924846834593654 1
gene  1 61 73 0.7986909760951832 0 7620.0 0.7986909760951832 1
gene  1 67 73 -0.9049939435996809 0 7626.0 -0.9049939435996809 1
gene  1 68 73 0.7310760397325288 0 7627.0 0.7310760397325288 1
gene  1 69 73 -0.12689376597073276 0 7628.0 -0.12689376597073276 1
gene  1 70 73 0.6750860211890721 0 7629.0 0.6750860211890721 1
gene  1 2 74 -0.9481183208506019 0 7666.0 -0.9481183208506019 1
gene  1 4 74 0.5542792691202821 0 7668.0 0.5542792691202821 1
gene  1 5 74 0.3840786381990934 0 7669.0 0.3840786381990934 1
gene  1 6 74 0.9994587736028288 0 7670.0 0.9994587736028288 1
gene  1 7 74 0.7607304215940004 0 7671.0 0.7607304215940004 1
gene  1 9 74 -0.5884057428940962 0 7673.0 -0.5884057428940962 1
gene  1 11 74 0.4156031739562206 0 7675.0 0.4156031739562206 1
gene  1 12 74 0.7690099801630406 0 7676.0 0.7690099801630406 1
gene  1 14 74 0.3208255817490723 0 7678.0 0.3208255817490723 1
gene  1 17 74 0.2074181174743155 0 7681.0 0.2074181174743155 1
gene  1 19 74 -0.8100251082276695 0 7683.0 -0.8100251082276695 1
gene  1 21 74 0.2981290282099076 0 7685.0 0.2981290282099076 1
gene  1 22 74 -0.025709297823321764 0 7686.0 -0.025709297823321764 1
gene  1 24 74 0.39051300286791024 0 7688.0 0.39051300286791024 1
gene  1 28 74 0.7223009615096254 0 7692.0 0.7223009615096254 1
gene  1 31 74 -0.3830043768161052 0 7695.0 -0.3830043768161052 1
gene  1 32 74 0.06081961038379036 0 7696.0 0.06081961038379036 1
gene  1 35 74 -0.7340374157561054 0 7699.0 -0.7340374157561054 1
gene  1 37 74 0.1725822642757484 0 7701.0 0.1725822642757484 1
gene  1 39 74 -0.9399690828530094 0 7703.0 -0.9399690828530094 1
gene  1 40 74 -0.812255405450531 0 7704.0 -0.812255405450531 1
gene  1 42 74 0.833082575972152 0 7706.0 0.833082575972152 1
gene  1 43 74 -0.954016984181178 0 7707.0 -0.954016984181178 1
gene  1 44 74 0.06785632292561372 0 7708.0 0.06785632292561372 1
gene  1 48 74 -0.6741373517317621 0 7712.0 -0.6741373517317621 1
gene  1 49 74 -0.9252617788105142 0 7713.0 -0.9252617788105142 1
gene  1 50 74 -0.7341512217615912 0 7714.0 -0.7341512217615912 1
gene  1 53 74 0.47577873635677914 0 7717.0 0.47577873635677914 1
gene  1 54 74 -0.8612697345891687 0 7718.0 -0.8612697345891687 1
gene  1 58 74 -0.8840233008211656 0 7722.0 -0.8840233008211656 1
gene  1 62 74 0.15819396483369552 0 7726.0 0.15819396483369552 1
gene  1 63 74 -0.9241546211986784 0 7727.0 -0.9241546211986784 1
gene  1 64 74 0.9984648861829297 0 7728.0 0.9984648861829297 1
gene  1 65 74 0.21179523843596149 0 7729.0 0.21179523843596149 1
gene  1 66 74 -0.550222658013956 0 7730.0 -0.550222658013956 1
gene  1 68 74 0.8314922790223578 0 7732.0 0.8314922790223578 1
gene  1 69 74 -0.3447475105042266 0 7733.0 -0.3447475105042266 1
gene  1 1 75 -0.03325364202356629 0 7770.0 -0.03325364202356629 1
gene  1 4 75 0.9894715146697581 0 7773.0 0.9894715146697581 1
gene  1 5 75 0.5697938904680071 0 7774.0 0.5697938904680071 1
gene  1 8 75 -0.7197675230518368 0 7777.0 -0.7197675230518368 1
gene  1 11 75 0.7543692324190723 0 7780.0 0.7543692324190723 1
gene  1 17 75 0.739136086728705 0 7786.0 0.739136086728705 1
gene  1 26 75 -0.509209255703736 0 7795.0 -0.509209255703736 1
gene  1 27 75 -0.14927734356411992 0 7796.0 -0.14927734356411992 1
gene  1 28 75 -0.9213144389051382 0 7797.0 -0.9213144389051382 1
gene  1 29 75 -0.8974947757606256 0 7798.0 -0.8974947757606256 1
gene  1 35 75 0.3638918872663669 0 7804.0 0.3638918872663669 1
gene  1 37 75 -0.2265136892155314 0 7806.0 -0.2265136892155314 1
gene  1 41 75 -0.3818747799081643 0 7810.0 -0.3818747799081643 1
gene  1 42 75 0.6953215587295408 0 7811.0 0.6953215587295408 1
gene  1 43 75 0.35639080357099706 0 7812.0 0.35639080357099706 1
gene  1 46 75 -0.40867916957012984 0 7815.0 -0.40867916957012984 1
gene  1 48 75 0.4771493707610527 0 7817.0 0.4771493707610527 1
gene  1 50 75 -0.5961417948416251 0 7819.0 -0.5961417948416251 1
gene  1 56 75 0.6622364870201422 0 7825.0 0.6622364870201422 1
gene  1 59 75 -0.3162331991180589 0 7828.0 -0.3162331991180589 1
gene  1 60 75 -0.13886648288568582 0 7829.0 -0.13886648288568582 1
gene  1 61 75 -0.5803437412602321 0 7830.0 -0.5803437412602321 1
gene  1 62 75 -0.25890441962268607 0 7831.0 -0.25890441962268607 1
gene  1 63 75 -0.38304047575015454 0 7832.0 -0.38304047575015454 1
gene  1 64 75 0.2627762889648252 0 7833.0 0.2627762889648252 1
gene  1 66 75 -0.07085311945664763 0 7835.0 -0.07085311945664763 1
gene  1 67 75 -0.9076982003773238 0 7836.0 -0.9076982003773238 1
gene  1 68 75 0.3951257470285119 0 7837.0 0.3951257470285119 1
gene  1 70 75 0.00588490707038114 0 7839.0 0.00588490707038114 1
gene  1 72 75 0.5442326942196101 0 7841.0 0.5442326942196101 1
gene  1 73 75 -0.5012943831420721 0 7842.0 -0.5012943831420721 1
gene  1 74 75 0.9542620987996381 0 7843.0 0.9542620987996381 1
gene  1 1 76 0.008706074473945669 0 7875.0 0.008706074473945669 1
gene  1 5 76 -0.17078591096664975 0 7879.0 -0.17078591096664975 1
gene  1 7 76 0.35611514553426316 0 7881.0 0.35611514553426316 1
gene  1 8 76 0.28116342118132187 0 7882.0 0.28116342118132187 1
gene  1 11 76 -0.3765510633864617 0 7885.0 -0.3765510633864617 1
gene  1 18 76 -0.8414993829936492 0 7892.0 -0.8414993829936492 1
gene  1 24 76 -0.3941010540481389 0 7898.0 -0.3941010540481389 1
gene  1 25 76 0.024825926924863517 0 7899.0 0.024825926924863517 1
gene  1 27 76 0.3288475087756916 0 7901.0 0.3288475087756916 1
gene  1 29 76 0.716304063059123 0 7903.0 0.716304063059123 1
gene  1 30 76 -0.20397699130829916 0 7904.0 -0.20397699130829916 1
gene  1 31 76 0.5346061739334824 0 7905.0 0.5346061739334824 1
gene  1 32 76 -0.11464438325473314 0 7906.0 -0.11464438325473314 1
gene  1 33 76 -0.31189820613167607 0 7907.0 -0.31189820613167607 1
gene  1 35 76 -0.09324731157088872 0 7909.0 -0.09324731157088872 1
gene  1 36 76 0.9668490452410256 0 7910.0 0.9668490452410256 1
gene  1 37 76 0.3272704627969215 0 7911.0 0.3272704627969215 1
gene  1 38 76 -0.029854922370236903 0 7912.0 -0.029854922370236903 1
gene  1 41 76 -0.81880562756143 0 7915.0 -0.81880562756143 1
gene  1 43 76 0.39707745280817064 0 7917.0 0.39707745280817064 1
gene  1 46 76 -0.4723840256103785 0 7920.0 -0.4723840256103785 1
gene  1 48 76 -0.5954130505155208 0 7922.0 -0.5954130505155208 1
gene  1 51 76 0.33045581508529653 0 7925.0 0.33045581508529653 1
gene  1 52 76 -0.9725899085184873 0 7926.0 -0.9725899085184873 1
gene  1 54 76 -0.25158168216021803 0 7928.0 -0.25158168216021803 1
gene  1 55 76 -0.8695722147575893 0 7929.0 -0.8695722147575893 1
gene  1 58 76 0.6764494841232668 0 7932.0 0.6764494841232668 1
gene  1 59 76 -0.9213216156131797 0 7933.0 -0.9213216156131797 1
gene  1 60 76 0.8278907229899362 0 7934.0 0.8278907229899362 1
gene  1 61 76 -0.9441068122185484 0 7935.0 -0.9441068122185484 1
gene  1 62 76 0.03635591951909223 0 7936.0 0.03635591951909223 1
gene  1 63 76 -0.7054238548993749 0 7937.0 -0.7054238548993749 1
gene  1 64 76 0.5088007970564271 0 7938.0 0.5088007970564271 1
gene  1 66 76 0.909983820749691 0 7940.0 0.909983820749691 1
gene  1 67 76 -0.48157987262979296 0 7941.0 -0.48157987262979296 1
gene  1 68 76 0.7184937378817694 0 7942.0 0.7184937378817694 1
gene  1 73 76 0.09531406896508532 0 7947.0 0.09531406896508532 1
gene  1 74 76 -0.580389396637562 0 7948.0 -0.580389396637562 1
gene  1 1 77 -0.5693845277505978 0 7980.0 -0.5693845277505978 1
gene  1 5 77 0.04190695866626537 0 7984.0 0.04190695866626537 1
gene  1 10 77 0.2395068992636642 0 7989.0 0.2395068992636642 1
gene  1 13 77 0.17299196773683478 0 7992.0 0.17299196773683478 1
gene  1 15 77 0.7884971314500703 0 7994.0 0.7884971314500703 1
gene  1 19 77 -0.9383065402479384 0 7998.0 -0.9383065402479384 1
gene  1 21 77 -0.7753684229529114 0 8000.0 -0.7753684229529114 1
gene  1 23 77 -0.23192222631543669 0 8002.0 -0.23192222631543669 1
gene  1 25 77 -0.463780479700423 0 8004.0 -0.463780479700423 1
gene  1 26 77 -0.9308986955224033 0 8005.0 -0.9308986955224033 1
gene  1 29 77 0.24465837569611693 0 8008.0 0.24465837569611693 1
gene  1 30 77 -0.16483295961492572 0 8009.0 -0.16483295961492572 1
gene  1 33 77 0.24892516918535101 0 8012.0 0.24892516918535101 1
gene  1 34 77 0.6295880133855428 0 8013.0 0.6295880133855428 1
gene  1 35 77 0.9470281496991746 0 8014.0 0.9470281496991746 1
gene  1 37 77 -0.7477921283590814 0 8016.0 -0.7477921283590814 1
gene  1 38 77 -0.278917426307711 0 8017.0 -0.278917426307711 1
gene  1 39 77 0.4748152048421358 0 8018.0 0.4748152048421358 1
gene  1 41 77 0.37687252995763576 0 8020.0 0.37687252995763576 1
gene  1 42 77 -0.921011958709831 0 8021.0 -0.921011958709831 1
gene  1 43 77 -0.3917933793501174 0 8022.0 -0.3917933793501174 1
gene  1 44 77 -0.5047780028178886 0 8023.0 -0.5047780028178886 1
gene  1 45 77 0.05289039006500518 0 8024.0 0.05289039006500518 1
gene  1 47 77 -0.5687509864497613 0 8026.0 -0.5687509864497613 1
gene  1 50 77 0.26991503943066075 0 8029.0 0.26991503943066075 1
gene  1 51 77 -0.2609371975581547 0 8030.0 -0.2609371975581547 1
gene  1 52 77 -0.5440830013044076 0 8031.0 -0.5440830013044076 1
gene  1 53 77 -0.7012479987841209 0 8032.0 -0.7012479987841209 1
gene  1 54 77 -0.5870745993637726 0 8033.0 -0.5870745993637726 1
gene  1 55 77 0.3516196728976224 0 8034.0 0.3516196728976224 1
gene  1 57 77 0.10122218414245665 0 8036.0 0.10122218414245665 1
gene  1 60 77 0.28623209442559494 0 8039.0 0.28623209442559494 1
gene  1 61 77 -0.20591451995112675 0 8040.0 -0.20591451995112675 1
gene  1 63 77 0.7372970041527176 0 8042.0 0.7372970041527176 1
gene  1 65 77 0.2283770066699813 0 8044.0 0.2283770066699813 1
gene  1 67 77 0.7102529277726003 0 8046.0 0.7102529277726003 1
gene  1 69 77 -0.5615688970576288 0 8048.0 -0.5615688970576288 1
gene  1 71 77 -0.8987781070315235 0 8050.0 -0.8987781070315235 1
gene  1 74 77 -0.8969659890818948 0 8053.0 -0.8969659890818948 1
gene  1 76 77 -0.5805178617428244 0 8055.0 -0.5805178617428244 1
gene  1 3 78 0.7375989292793916 0 8087.0 0.7375989292793916 1
gene  1 5 78 0.03802220595000905 0 8089.0 0.03802220595000905 1
gene  1 6 78 0.896446456021576 0 8090.0 0.896446456021576 1
gene  1 9 78 -0.9477076642877605 0 8093.0 -0.9477076642877605 1
gene  1 17 78 -0.5190927606219775 0 8101.0 -0.5190927606219775 1
gene  1 19 78 0.8493446757868104 0 8103.0 0.8493446757868104 1
gene  1 20 78 0.12198525537479488 0 8104.0 0.12198525537479488 1
gene  1 22 78 -0.47784758788617676 0 8106.0 -0.47784758788617676 1
gene  1 23 78 -0.25948440234396253 0 8107.0 -0.25948440234396253 1
gene  1 26 78 0.11711349935748616 0 8110.0 0.11711349935748616 1
gene  1 27 78 -0.8704702280485797 0 8111.0 -0.8704702280485797 1
gene  1 33 78 -0.11208745478265492 0 8117.0 -0.11208745478265492 1
gene  1 34 78 -0.5708536953345046 0 8118.0 -0.5708536953345046 1
gene  1 36 78 0.047162424481090315 0 8120.0 0.047162424481090315 1
gene  1 37 78 0.5115902384374752 0 8121.0 0.5115902384374752 1
gene  1 40 78 -0.10941829398764469 0 8124.0 -0.10941829398764469 1
gene  1 43 78 0.22520395364627377 0 8127.0 0.22520395364627377 1
gene  1 46 78 0.3474869136655624 0 8130.0 0.3474869136655624 1
gene  1 48 78 -0.13937743468383368 0 8132.0 -0.13937743468383368 1
gene  1 49 78 0.39802771878894216 0 8133.0 0.39802771878894216 1
gene  1 50 78 -0.8038605325648956 0 8134.0 -0.8038605325648956 1
gene  1 54 78 -0.33563440351199614 0 8138.0 -0.33563440351199614 1
gene  1 56 78 -0.01989158572554195 0 8140.0 -0.01989158572554195 1
gene  1 58 78 -0.9921456731959868 0 8142.0 -0.9921456731959868 1
gene  1 59 78 0.35545037858484074 0 8143.0 0.35545037858484074 1
gene  1 64 78 -0.8837119304295592 0 8148.0 -0.8837119304295592 1
gene  1 65 78 0.22032451151625143 0 8149.0 0.22032451151625143 1
gene  1 66 78 0.03571040881579535 0 8150.0 0.03571040881579535 1
gene  1 67 78 0.9060402761678938 0 8151.0 0.9060402761678938 1
gene  1 69 78 -0.607153498617906 0 8153.0 -0.607153498617906 1
gene  1 71 78 -0.730786868885646 0 8155.0 -0.730786868885646 1
gene  1 72 78 0.2817159030010753 0 8156.0 0.2817159030010753 1
gene  1 74 78 -0.12844052775169623 0 8158.0 -0.12844052775169623 1
gene  1 75 78 -0.07222801747076413 0 8159.0 -0.07222801747076413 1
gene  1 4 79 0.5288517911184495 0 8193.0 0.5288517911184495 1
gene  1 6 79 0.5232901970042344 0 8195.0 0.5232901970042344 1
gene  1 8 79 0.8263022586967518 0 8197.0 0.8263022586967518 1
gene  1 9 79 0.8235184525419339 0 8198.0 0.8235184525419339 1
gene  1 14 79 -0.354393647161235 0 8203.0 -0.354393647161235 1
gene  1 15 79 0.47287347034498894 0 8204.0 0.47287347034498894 1
gene  1 17 79 -0.3617079359156081 0 8206.0 -0.3617079359156081 1
gene  1 19 79 0.021924545196806644 0 8208.0 0.021924545196806644 1
gene  1 20 79 0.7835676539702894 0 8209.0 0.7835676539702894 1
gene  1 21 79 -0.6996690254871598 0 8210.0 -0.6996690254871598 1
gene  1 24 79 0.47611103639085384 0 8213.0 0.47611103639085384 1
gene  1 26 79 -0.4136779688195312 0 8215.0 -0.4136779688195312 1
gene  1 27 79 -0.4504998556566835 0 8216.0 -0.4504998556566835 1
gene  1 29 79 -0.6400543998758005 0 8218.0 -0.6400543998758005 1
gene  1 30 79 -0.58172708723947 0 8219.0 -0.58172708723947 1
gene  1 38 79 -0.12081994251734696 0 8227.0 -0.12081994251734696 1
gene  1 39 79 0.7573419418281259 0 8228.0 0.7573419418281259 1
gene  1 42 79 0.0949662639800688 0 8231.0 0.0949662639800688 1
gene  1 43 79 0.976199521214225 0 8232.0 0.976199521214225 1
gene  1 45 79 0.42487074294557436 0 8234.0 0.42487074294557436 1
gene  1 50 79 0.041110396292105555 0 8239.0 0.041110396292105555 1
gene  1 51 79 0.5233876616669171 0 8240.0 0.5233876616669171 1
gene  1 52 79 0.23431675374192662 0 8241.0 0.23431675374192662 1
