genomestart  29
trait 1 0.0 0.0 0.0 0.0 0.0 0.0 0.0 0.0 0.0 0.0 0.0 0.0 0.0 0.0 0.0 0.0 0.0 0.0 0.0 0.0 
node 1 1 1 1
node 2 1 1 1
node 3 1 1 1
node 4 1 1 3
node 5 1 0 0
node 6 1 0 0
node 7 1 0 0
node 8 1 0 0
node 9 1 0 0
node 10 1 0 0
node 11 1 0 0
node 12 1 0 0
node 13 1 0 0
node 14 1 0 0
node 15 1 0 0
node 16 1 0 0
node 17 1 0 0
node 18 1 0 0
node 19 1 0 0
node 20 1 0 0
node 21 1 0 0
node 22 1 0 0
node 23 1 0 0
node 24 1 0 0
node 25 1 0 0
node 26 1 0 0
node 27 1 0 0
node 28 1 0 0
node 29 1 0 0
node 30 1 0 0
node 31 1 0 0
node 32 1 0 0
node 33 1 0 0
node 34 1 0 0
node 35 1 0 0
node 36 1 0 0
node 37 1 0 0
node 38 1 0 0
node 39 1 0 0
node 40 1 0 0
node 41 1 0 0
node 42 1 0 0
node 43 1 0 0
node 44 1 0 0
node 45 1 0 0
node 46 1 0 0
node 47 1 0 0
node 48 1 0 0
node 49 1 0 0
node 50 1 0 0
node 105 1 0 2
gene  1 1 5 -0.36410341305744454 0 420.0 -0.36410341305744454 1
gene  1 3 5 -0.5247562171489494 0 422.0 -0.5247562171489494 1
gene  1 1 6 0.643365436580379 0 525.0 0.643365436580379 1
gene  1 4 6 -0.017438331658764294 0 528.0 -0.017438331658764294 1
gene  1 2 7 0.727237686231098 0 631.0 0.727237686231098 1
gene  1 5 7 0.30873929020324886 0 634.0 0.30873929020324886 1
gene  1 6 7 -0.15376072088122705 0 635.0 -0.15376072088122705 1
gene  1 1 8 0.21596315937424337 0 735.0 0.21596315937424337 1
gene  1 3 8 -0.41509236623066914 0 737.0 -0.41509236623066914 1
gene  1 4 8 -0.3190591057203187 0 738.0 -0.3190591057203187 1
gene  1 6 8 0.4941779620249752 0 740.0 0.4941779620249752 1
gene  1 7 8 -0.9888792015500416 0 741.0 -0.9888792015500416 1
gene  1 2 9 0.2563951879554076 0 841.0 0.2563951879554076 1
gene  1 4 9 -0.6739351440409317 0 843.0 -0.6739351440409317 1
gene  1 6 9 0.40930907665090754 0 845.0 0.40930907665090754 1
gene  1 7 9 -0.7481243150069566 0 846.0 -0.7481243150069566 1
gene  1 1 10 0.44813284717845436 0 945.0 0.44813284717845436 1
gene  1 2 10 -0.6128449151615838 0 946.0 -0.6128449151615838 1
gene  1 4 10 0.13286454122520885 0 948.0 0.13286454122520885 1
gene  1 5 10 0.3292722860833691 0 949.0 0.3292722860833691 1
gene  1 6 10 0.0397489815249954 0 950.0 0.0397489815249954 1
gene  1 8 10 -0.3096018787931136 0 952.0 -0.3096018787931136 1
gene  1 9 10 0.2983955337643718 0 953.0 0.2983955337643718 1
gene  1 1 11 0.5808399411058054 0 1050.0 0.5808399411058054 1
gene  1 3 11 0.13953156990604587 0 1052.0 0.13953156990604587 1
gene  1 5 11 0.5117153807417877 0 1054.0 0.5117153807417877 1
gene  1 7 11 0.6344183949051553 0 1056.0 0.6344183949051553 1
gene  1 9 11 0.42392021655966805 0 1058.0 0.42392021655966805 1
gene  1 10 11 0.5659761429598731 0 1059.0 0.5659761429598731 1
gene  1 1 12 0.16984669950595932 0 1155.0 0.16984669950595932 1
gene  1 3 12 -0.31158678228632863 0 1157.0 -0.31158678228632863 1
gene  1 4 12 0.5669911239805564 0 1158.0 0.5669911239805564 1
gene  1 5 12 -0.3791786707801438 0 1159.0 -0.3791786707801438 1
gene  1 6 12 0.44261348861134653 0 1160.0 0.44261348861134653 1
gene  1 7 12 -0.3315890198283462 0 1161.0 -0.3315890198283462 1
gene  1 10 12 -0.4247368762180448 0 1164.0 -0.4247368762180448 1
gene  1 11 12 -0.5191107251623911 0 1165.0 -0.5191107251623911 1
gene  1 1 13 0.5156488553563575 0 1260.0 0.5156488553563575 1
gene  1 3 13 0.6876759675072257 0 1262.0 0.6876759675072257 1
gene  1 4 13 -0.20320398433626952 0 1263.0 -0.20320398433626952 1
gene  1 12 13 0.21633838550860218 0 1271.0 0.21633838550860218 1
gene  1 1 14 0.25597922453071154 0 1365.0 0.25597922453071154 1
gene  1 2 14 0.2135731535204355 0 1366.0 0.2135731535204355 1
gene  1 5 14 -0.7025781559347463 0 1369.0 -0.7025781559347463 1
gene  1 7 14 0.7281246862956421 0 1371.0 0.7281246862956421 1
gene  1 8 14 -0.9516087100831122 0 1372.0 -0.9516087100831122 1
gene  1 1 15 -0.4586925013287023 0 1470.0 -0.4586925013287023 1
gene  1 3 15 -0.3261574035610214 0 1472.0 -0.3261574035610214 1
gene  1 4 15 -0.5750369362679641 0 1473.0 -0.5750369362679641 1
gene  1 5 15 0.05172944266596813 0 1474.0 0.05172944266596813 1
gene  1 6 15 -0.5801043621436706 0 1475.0 -0.5801043621436706 1
gene  1 10 15 0.5394416546473041 0 1479.0 0.5394416546473041 1
gene  1 11 15 0.8306709956756783 0 1480.0 0.8306709956756783 1
gene  1 13 15 -0.6371289903715548 0 1482.0 -0.6371289903715548 1
gene  1 14 15 -0.9821069317674025 0 1483.0 -0.9821069317674025 1
gene  1 1 16 0.6132588825911515 0 1575.0 0.6132588825911515 1
gene  1 3 16 -0.15478822539081194 0 1577.0 -0.15478822539081194 1
gene  1 5 16 -0.19692746886422885 0 1579.0 -0.19692746886422885 1
gene  1 6 16 0.2282547436762672 0 1580.0 0.2282547436762672 1
gene  1 8 16 0.7229807649770863 0 1582.0 0.7229807649770863 1
gene  1 10 16 -0.3972958271802014 0 1584.0 -0.3972958271802014 1
gene  1 15 16 0.47241191236176294 0 1589.0 0.47241191236176294 1
gene  1 3 17 -0.9235791543165255 0 1682.0 -0.9235791543165255 1
gene  1 4 17 -0.22249661488756856 0 1683.0 -0.22249661488756856 1
gene  1 6 17 -0.4607189908780913 0 1685.0 -0.4607189908780913 1
gene  1 8 17 0.6289836427444259 0 1687.0 0.6289836427444259 1
gene  1 9 17 0.7510195800479453 0 1688.0 0.7510195800479453 1
gene  1 12 17 -0.32394190017553426 0 1691.0 -0.32394190017553426 1
gene  1 16 17 0.1501227370848941 0 1695.0 0.1501227370848941 1
gene  1 3 18 0.7325090410028589 0 1787.0 0.7325090410028589 1
gene  1 5 18 0.43973125792810897 0 1789.0 0.43973125792810897 1
gene  1 6 18 0.19631545570103326 0 1790.0 0.19631545570103326 1
gene  1 9 18 0.40422486520245093 0 1793.0 0.40422486520245093 1
gene  1 12 18 -0.5079550601605659 0 1796.0 -0.5079550601605659 1
gene  1 14 18 -0.047263841209637114 0 1798.0 -0.047263841209637114 1
gene  1 15 18 0.14904831578845212 0 1799.0 0.14904831578845212 1
gene  1 17 18 -0.26645675786974166 0 1801.0 -0.26645675786974166 1
gene  1 9 19 0.1392610896441796 0 1898.0 0.1392610896441796 1
gene  1 11 19 0.8153089846993801 0 1900.0 0.8153089846993801 1
gene  1 13 19 0.6381530157258913 0 1902.0 0.6381530157258913 1
gene  1 14 19 -0.3811090805565648 0 1903.0 -0.3811090805565648 1
gene  1 16 19 -0.5949891712486447 0 1905.0 -0.5949891712486447 1
gene  1 3 20 -0.8818674068056923 0 1997.0 -0.8818674068056923 1
gene  1 7 20 0.16751774863886837 0 2001.0 0.16751774863886837 1
gene  1 11 20 0.5829517629960481 0 2005.0 0.5829517629960481 1
gene  1 12 20 0.7213168883868235 0 2006.0 0.7213168883868235 1
gene  1 14 20 0.032728652603064234 0 2008.0 0.032728652603064234 1
gene  1 3 21 0.14781166970188708 0 2102.0 0.14781166970188708 1
gene  1 10 21 0.16872636597421653 0 2109.0 0.16872636597421653 1
gene  1 11 21 0.3911823793144257 0 2110.0 0.3911823793144257 1
gene  1 12 21 -0.29291310132202175 0 2111.0 -0.29291310132202175 1
gene  1 13 21 -0.6088149501511506 0 2112.0 -0.6088149501511506 1
gene  1 15 21 -0.8099295695857985 0 2114.0 -0.8099295695857985 1
gene  1 16 21 0.016522576671031963 0 2115.0 0.016522576671031963 1
gene  1 18 21 0.6943891318699138 0 2117.0 0.6943891318699138 1
gene  1 19 21 -0.5731309719761145 0 2118.0 -0.5731309719761145 1
gene  1 20 21 -0.38697421568156576 0 2119.0 -0.38697421568156576 1
gene  1 2 22 0.0721015957746095 0 2206.0 0.0721015957746095 1
gene  1 3 22 0.8195202075649297 0 2207.0 0.8195202075649297 1
gene  1 5 22 0.4224049502411019 0 2209.0 0.4224049502411019 1
gene  1 6 22 0.6281350894198593 0 2210.0 0.6281350894198593 1
gene  1 9 22 0.21882299309032904 0 2213.0 0.21882299309032904 1
gene  1 10 22 0.3792613908363037 0 2214.0 0.3792613908363037 1
gene  1 12 22 -0.80046395887129 0 2216.0 -0.80046395887129 1
gene  1 13 22 0.6400447217200502 0 2217.0 0.6400447217200502 1
gene  1 14 22 -0.5979430017635181 0 2218.0 -0.5979430017635181 1
gene  1 16 22 -0.9194334680831779 0 2220.0 -0.9194334680831779 1
gene  1 17 22 0.3771859889789665 0 2221.0 0.3771859889789665 1
gene  1 18 22 0.7716562232395265 0 2222.0 0.7716562232395265 1
gene  1 19 22 0.7634194488741631 0 2223.0 0.7634194488741631 1
gene  1 21 22 -0.8951508040768579 0 2225.0 -0.8951508040768579 1
gene  1 2 23 0.0652504048467265 0 2311.0 0.0652504048467265 1
gene  1 4 23 -0.7966697559025062 0 2313.0 -0.7966697559025062 1
gene  1 5 23 0.06777897173327996 0 2314.0 0.06777897173327996 1
gene  1 6 23 0.5597352096973649 0 2315.0 0.5597352096973649 1
gene  1 8 23 0.2589460424709962 0 2317.0 0.2589460424709962 1
gene  1 9 23 0.9009336207600228 0 2318.0 0.9009336207600228 1
gene  1 11 23 -0.5792791221753856 0 2320.0 -0.5792791221753856 1
gene  1 12 23 -0.986660336190041 0 2321.0 -0.986660336190041 1
gene  1 13 23 0.11651855734996996 0 2322.0 0.11651855734996996 1
gene  1 16 23 -0.17616328774092727 0 2325.0 -0.17616328774092727 1
gene  1 17 23 0.4185707366693284 0 2326.0 0.4185707366693284 1
gene  1 19 23 -0.7970568479017477 0 2328.0 -0.7970568479017477 1
gene  1 20 23 0.39860017062178155 0 2329.0 0.39860017062178155 1
gene  1 6 24 -0.2387297267595645 0 2420.0 -0.2387297267595645 1
gene  1 8 24 -0.8171932843998224 0 2422.0 -0.8171932843998224 1
gene  1 11 24 0.87626556576909 0 2425.0 0.87626556576909 1
gene  1 12 24 -0.515436364608387 0 2426.0 -0.515436364608387 1
gene  1 15 24 -0.6858845029204392 0 2429.0 -0.6858845029204392 1
gene  1 19 24 -0.9456006659962128 0 2433.0 -0.9456006659962128 1
gene  1 23 24 -0.21542281433353483 0 2437.0 -0.21542281433353483 1
gene  1 1 25 0.1321306568777919 0 2520.0 0.1321306568777919 1
gene  1 2 25 -0.5796226807036164 0 2521.0 -0.5796226807036164 1
gene  1 3 25 0.28443278349123813 0 2522.0 0.28443278349123813 1
gene  1 5 25 0.5520450127495005 0 2524.0 0.5520450127495005 1
gene  1 6 25 0.38807185385476317 0 2525.0 0.38807185385476317 1
gene  1 8 25 -0.20281560150333644 0 2527.0 -0.20281560150333644 1
gene  1 14 25 0.8407049219309638 0 2533.0 0.8407049219309638 1
gene  1 15 25 0.36036862705375117 0 2534.0 0.36036862705375117 1
gene  1 16 25 -0.7550652922941882 0 2535.0 -0.7550652922941882 1
gene  1 17 25 -0.3900351467291968 0 2536.0 -0.3900351467291968 1
gene  1 20 25 -0.08365110774877926 0 2539.0 -0.08365110774877926 1
gene  1 21 25 -0.9704926450762393 0 2540.0 -0.9704926450762393 1
gene  1 22 25 -0.08631208157246006 0 2541.0 -0.08631208157246006 1
gene  1 23 25 0.7077691831665568 0 2542.0 0.7077691831665568 1
gene  1 2 26 -0.008163629970086683 0 2626.0 -0.008163629970086683 1
gene  1 5 26 -0.7972320223895814 0 2629.0 -0.7972320223895814 1
gene  1 7 26 -0.08999384561982149 0 2631.0 -0.08999384561982149 1
gene  1 8 26 -0.2910044050121854 0 2632.0 -0.2910044050121854 1
gene  1 11 26 0.06403643238825751 0 2635.0 0.06403643238825751 1
gene  1 15 26 -0.3164714727000858 0 2639.0 -0.3164714727000858 1
gene  1 17 26 -0.43842814596442237 0 2641.0 -0.43842814596442237 1
gene  1 18 26 0.8653093159990872 0 2642.0 0.8653093159990872 1
gene  1 19 26 -0.8253322551216314 0 2643.0 -0.8253322551216314 1
gene  1 20 26 0.12952420253875252 0 2644.0 0.12952420253875252 1
gene  1 21 26 0.9350362690655016 0 2645.0 0.9350362690655016 1
gene  1 25 26 0.25984426457774024 0 2649.0 0.25984426457774024 1
gene  1 1 27 0.646816440529419 0 2730.0 0.646816440529419 1
gene  1 2 27 0.15475087283338862 0 2731.0 0.15475087283338862 1
gene  1 5 27 0.5920638353854557 0 2734.0 0.5920638353854557 1
gene  1 8 27 0.8957919229387725 0 2737.0 0.8957919229387725 1
gene  1 9 27 -0.2660747244272932 0 2738.0 -0.2660747244272932 1
gene  1 10 27 0.24004623724725438 0 2739.0 0.24004623724725438 1
gene  1 13 27 0.4043408703915634 0 2742.0 0.4043408703915634 1
gene  1 15 27 0.3995456444083082 0 2744.0 0.3995456444083082 1
gene  1 16 27 -0.3850699982327488 0 2745.0 -0.3850699982327488 1
gene  1 17 27 -0.7187019005726354 0 2746.0 -0.7187019005726354 1
gene  1 18 27 0.867463814934939 0 2747.0 0.867463814934939 1
gene  1 19 27 -0.7079992374392767 0 2748.0 -0.7079992374392767 1
gene  1 22 27 0.8997845319473592 0 2751.0 0.8997845319473592 1
gene  1 23 27 -0.1629227604856126 0 2752.0 -0.1629227604856126 1
gene  1 3 28 0.5086040325274156 0 2837.0 0.5086040325274156 1
gene  1 4 28 -0.10620749758128056 0 2838.0 -0.10620749758128056 1
gene  1 5 28 0.2594030309173374 0 2839.0 0.2594030309173374 1
gene  1 7 28 -0.7116091961082727 0 2841.0 -0.7116091961082727 1
gene  1 10 28 -0.5475466133046237 0 2844.0 -0.5475466133046237 1
gene  1 11 28 -0.3516645607002499 0 2845.0 -0.3516645607002499 1
gene  1 13 28 -0.7172582087845311 0 2847.0 -0.7172582087845311 1
gene  1 14 28 -0.3589837381541493 0 2848.0 -0.3589837381541493 1
gene  1 16 28 0.2542676600189917 0 2850.0 0.2542676600189917 1
gene  1 18 28 0.9149849251696063 0 2852.0 0.9149849251696063 1
gene  1 19 28 0.19639550534451766 0 2853.0 0.19639550534451766 1
gene  1 20 28 0.8446892880301958 0 2854.0 0.8446892880301958 1
gene  1 22 28 0.1339667371100728 0 2856.0 0.1339667371100728 1
gene  1 23 28 0.9087528221106062 0 2857.0 0.9087528221106062 1
gene  1 25 28 -0.5169102817448678 0 2859.0 -0.5169102817448678 1
gene  1 27 28 0.749932523531676 0 2861.0 0.749932523531676 1
gene  1 3 29 0.0644644400388995 0 2942.0 0.0644644400388995 1
gene  1 5 29 -0.2239870960833622 0 2944.0 -0.2239870960833622 1
gene  1 6 29 0.6258300755588232 0 2945.0 0.6258300755588232 1
gene  1 8 29 0.903289221176339 0 2947.0 0.903289221176339 1
gene  1 11 29 0.29459924872316756 0 2950.0 0.29459924872316756 1
gene  1 14 29 0.9706834810562613 0 2953.0 0.9706834810562613 1
gene  1 15 29 -0.7107967214850847 0 2954.0 -0.7107967214850847 1
gene  1 16 29 0.6684959747470645 0 2955.0 0.6684959747470645 1
gene  1 17 29 -0.4429451185582435 0 2956.0 -0.4429451185582435 1
gene  1 21 29 -0.4832525850115743 0 2960.0 -0.4832525850115743 1
gene  1 22 29 -0.06556259650664953 0 2961.0 -0.06556259650664953 1
gene  1 23 29 0.41887144066703197 0 2962.0 0.41887144066703197 1
gene  1 24 29 0.5179192450785945 0 2963.0 0.5179192450785945 1
gene  1 25 29 -0.8457522658079082 0 2964.0 -0.8457522658079082 1
gene  1 28 29 0.8796399323885287 0 2967.0 0.8796399323885287 1
gene  1 1 30 -0.902260917464145 0 3045.0 -0.902260917464145 1
gene  1 2 30 0.5141356092140004 0 3046.0 0.5141356092140004 1
gene  1 4 30 -0.29237503602508097 0 3048.0 -0.29237503602508097 1
gene  1 5 30 -0.7394977513809089 0 3049.0 -0.7394977513809089 1
gene  1 6 30 -0.029273944968902788 0 3050.0 -0.029273944968902788 1
gene  1 7 30 0.3735376753341957 0 3051.0 0.3735376753341957 1
gene  1 8 30 -0.6068287182556921 0 3052.0 -0.6068287182556921 1
gene  1 9 30 0.21952479712149575 0 3053.0 0.21952479712149575 1
gene  1 12 30 0.24815810342535405 0 3056.0 0.24815810342535405 1
gene  1 13 30 -0.3781367211554556 0 3057.0 -0.3781367211554556 1
gene  1 15 30 -0.1755475797171332 0 3059.0 -0.1755475797171332 1
gene  1 17 30 0.09448375602108172 0 3061.0 0.09448375602108172 1
gene  1 18 30 0.33336773264968944 0 3062.0 0.33336773264968944 1
gene  1 19 30 -0.2556940134374819 0 3063.0 -0.2556940134374819 1
gene  1 20 30 0.02397665242978686 0 3064.0 0.02397665242978686 1
gene  1 21 30 -0.1801623823646067 0 3065.0 -0.1801623823646067 1
gene  1 22 30 0.4525636475794892 0 3066.0 0.4525636475794892 1
gene  1 23 30 -0.11889243877021394 0 3067.0 -0.11889243877021394 1
gene  1 24 30 0.5967396107446029 0 3068.0 0.5967396107446029 1
gene  1 26 30 0.7860417592866675 0 3070.0 0.7860417592866675 1
gene  1 1 31 -0.48861594367524963 0 3150.0 -0.48861594367524963 1
gene  1 4 31 0.5577953830826515 0 3153.0 0.5577953830826515 1
gene  1 6 31 0.3299652148992468 0 3155.0 0.3299652148992468 1
gene  1 8 31 0.09559353752695554 0 3157.0 0.09559353752695554 1
gene  1 13 31 -0.08874490852658223 0 3162.0 -0.08874490852658223 1
gene  1 14 31 -0.7969173485347946 0 3163.0 -0.7969173485347946 1
gene  1 16 31 -0.040414757719315575 0 3165.0 -0.040414757719315575 1
gene  1 20 31 -0.25069779459026365 0 3169.0 -0.25069779459026365 1
gene  1 22 31 -0.961172341679606 0 3171.0 -0.961172341679606 1
gene  1 24 31 -0.39113102585037973 0 3173.0 -0.39113102585037973 1
gene  1 25 31 -0.6387081386890365 0 3174.0 -0.6387081386890365 1
gene  1 30 31 0.4529324261182046 0 3179.0 0.4529324261182046 1
gene  1 2 32 0.818886038192095 0 3256.0 0.818886038192095 1
gene  1 5 32 0.8448873935047642 0 3259.0 0.8448873935047642 1
gene  1 7 32 -0.7146444317082006 0 3261.0 -0.7146444317082006 1
gene  1 8 32 0.37428548113159876 0 3262.0 0.37428548113159876 1
gene  1 10 32 0.7180391998756607 0 3264.0 0.7180391998756607 1
gene  1 11 32 -0.21967933131472772 0 3265.0 -0.21967933131472772 1
gene  1 13 32 0.6774897676338395 0 3267.0 0.6774897676338395 1
gene  1 14 32 0.633225266405289 0 3268.0 0.633225266405289 1
gene  1 15 32 0.602186163952905 0 3269.0 0.602186163952905 1
gene  1 16 32 -0.96506289423008 0 3270.0 -0.96506289423008 1
gene  1 18 32 -0.6336663886676283 0 3272.0 -0.6336663886676283 1
gene  1 19 32 -9.405643618398685E-4 0 3273.0 -9.405643618398685E-4 1
gene  1 20 32 -0.7494379687029568 0 3274.0 -0.7494379687029568 1
gene  1 21 32 -0.13546482689721295 0 3275.0 -0.13546482689721295 1
gene  1 22 32 -0.30340572348112815 0 3276.0 -0.30340572348112815 1
gene  1 23 32 -0.4907273500153676 0 3277.0 -0.4907273500153676 1
gene  1 25 32 0.7435308418148427 0 3279.0 0.7435308418148427 1
gene  1 27 32 -0.9019258898333588 0 3281.0 -0.9019258898333588 1
gene  1 29 32 0.505883387647416 0 3283.0 0.505883387647416 1
gene  1 1 33 -0.10660887664287766 0 3360.0 -0.10660887664287766 1
gene  1 2 33 -0.1269281125576931 0 3361.0 -0.1269281125576931 1
gene  1 3 33 -0.9452104872303918 0 3362.0 -0.9452104872303918 1
gene  1 4 33 -0.052767612570448374 0 3363.0 -0.052767612570448374 1
gene  1 8 33 -0.012876851783081289 0 3367.0 -0.012876851783081289 1
gene  1 11 33 -0.22899534561028634 0 3370.0 -0.22899534561028634 1
gene  1 12 33 -0.33157884129618376 0 3371.0 -0.33157884129618376 1
gene  1 15 33 -0.9909917208327615 0 3374.0 -0.9909917208327615 1
gene  1 16 33 -0.38374150366955495 0 3375.0 -0.38374150366955495 1
gene  1 19 33 0.8389435438792285 0 3378.0 0.8389435438792285 1
gene  1 20 33 0.779070520878066 0 3379.0 0.779070520878066 1
gene  1 21 33 -0.7192904373014003 0 3380.0 -0.7192904373014003 1
gene  1 24 33 0.5229716011333787 0 3383.0 0.5229716011333787 1
gene  1 25 33 -0.5649461322131335 0 3384.0 -0.5649461322131335 1
gene  1 26 33 0.5713652329988902 0 3385.0 0.5713652329988902 1
gene  1 29 33 -0.49637566664521016 0 3388.0 -0.49637566664521016 1
gene  1 31 33 0.7504523715000184 0 3390.0 0.7504523715000184 1
gene  1 1 34 -0.4002973573026315 0 3465.0 -0.4002973573026315 1
gene  1 5 34 -0.5660175952258184 0 3469.0 -0.5660175952258184 1
gene  1 6 34 -0.6727022641613016 0 3470.0 -0.6727022641613016 1
gene  1 9 34 0.45103045879859494 0 3473.0 0.45103045879859494 1
gene  1 14 34 0.3267648934922055 0 3478.0 0.3267648934922055 1
gene  1 16 34 0.8688367391185781 0 3480.0 0.8688367391185781 1
gene  1 18 34 0.7580981820168338 0 3482.0 0.7580981820168338 1
gene  1 21 34 -0.9077647339381529 0 3485.0 -0.9077647339381529 1
gene  1 22 34 -0.7058398412778233 0 3486.0 -0.7058398412778233 1
gene  1 23 34 -0.4479973857910917 0 3487.0 -0.4479973857910917 1
gene  1 25 34 0.31398586533268946 0 3489.0 0.31398586533268946 1
gene  1 26 34 0.6055483901140876 0 3490.0 0.6055483901140876 1
gene  1 28 34 0.8312266757417712 0 3492.0 0.8312266757417712 1
gene  1 29 34 0.678605971375874 0 3493.0 0.678605971375874 1
gene  1 31 34 0.9957642192823573 0 3495.0 0.9957642192823573 1
gene  1 32 34 0.522675019700922 0 3496.0 0.522675019700922 1
gene  1 33 34 0.7908365507763758 0 3497.0 0.7908365507763758 1
gene  1 1 35 -0.026252831141293176 0 3570.0 -0.026252831141293176 1
gene  1 7 35 0.7167823740091629 0 3576.0 0.7167823740091629 1
gene  1 9 35 0.12983048416625276 0 3578.0 0.12983048416625276 1
gene  1 11 35 -0.7733224180577034 0 3580.0 -0.7733224180577034 1
gene  1 12 35 0.5787874699612096 0 3581.0 0.5787874699612096 1
gene  1 16 35 0.4432281552860362 0 3585.0 0.4432281552860362 1
gene  1 17 35 -0.9126137776720489 0 3586.0 -0.9126137776720489 1
gene  1 18 35 -0.07176654106708791 0 3587.0 -0.07176654106708791 1
gene  1 19 35 -0.2482588552202053 0 3588.0 -0.2482588552202053 1
gene  1 23 35 0.12655729570165597 0 3592.0 0.12655729570165597 1
gene  1 24 35 -0.9213166609067251 0 3593.0 -0.9213166609067251 1
gene  1 26 35 0.3138231178725397 0 3595.0 0.3138231178725397 1
gene  1 27 35 0.3156441346903528 0 3596.0 0.3156441346903528 1
gene  1 28 35 0.5385617003317174 0 3597.0 0.5385617003317174 1
gene  1 30 35 0.24848516908011697 0 3599.0 0.24848516908011697 1
gene  1 32 35 -0.27112339426225984 0 3601.0 -0.27112339426225984 1
gene  1 33 35 -0.7524982524751881 0 3602.0 -0.7524982524751881 1
gene  1 34 35 0.57994945431258 0 3603.0 0.57994945431258 1
gene  1 1 36 0.23078554659004302 0 3675.0 0.23078554659004302 1
gene  1 4 36 -0.9681411614941332 0 3678.0 -0.9681411614941332 1
gene  1 7 36 0.8957198111879776 0 3681.0 0.8957198111879776 1
gene  1 9 36 -0.006894966544606418 0 3683.0 -0.006894966544606418 1
gene  1 10 36 -0.27881804630084084 0 3684.0 -0.27881804630084084 1
gene  1 11 36 0.5784348032261034 0 3685.0 0.5784348032261034 1
gene  1 14 36 -0.5908475798901349 0 3688.0 -0.5908475798901349 1
gene  1 15 36 -0.4662939355167607 0 3689.0 -0.4662939355167607 1
gene  1 16 36 0.44055256430653067 0 3690.0 0.44055256430653067 1
gene  1 21 36 0.7300522526620071 0 3695.0 0.7300522526620071 1
gene  1 24 36 -0.6691533333397688 0 3698.0 -0.6691533333397688 1
gene  1 27 36 -0.4886874384749985 0 3701.0 -0.4886874384749985 1
gene  1 28 36 0.40666283114677504 0 3702.0 0.40666283114677504 1
gene  1 29 36 -0.6670989001927811 0 3703.0 -0.6670989001927811 1
gene  1 30 36 -0.444631706030154 0 3704.0 -0.444631706030154 1
gene  1 35 36 0.3816301951669624 0 3709.0 0.3816301951669624 1
gene  1 4 37 0.6467539044850128 0 3783.0 0.6467539044850128 1
gene  1 5 37 0.16559857952323753 0 3784.0 0.16559857952323753 1
gene  1 6 37 0.9660331604462546 0 3785.0 0.9660331604462546 1
gene  1 7 37 -0.2536818886071256 0 3786.0 -0.2536818886071256 1
gene  1 10 37 0.623720621286854 0 3789.0 0.623720621286854 1
gene  1 11 37 0.9727687499825974 0 3790.0 0.9727687499825974 1
gene  1 12 37 0.7404443290751654 0 3791.0 0.7404443290751654 1
gene  1 16 37 -0.12257715091002241 0 3795.0 -0.12257715091002241 1
gene  1 17 37 -0.6405339500720286 0 3796.0 -0.6405339500720286 1
gene  1 18 37 -0.7330024810994034 0 3797.0 -0.7330024810994034 1
gene  1 19 37 0.059565401699368636 0 3798.0 0.059565401699368636 1
gene  1 20 37 0.8972393150674508 0 3799.0 0.8972393150674508 1
gene  1 21 37 0.3227921107691819 0 3800.0 0.3227921107691819 1
gene  1 23 37 -0.14389871169386081 0 3802.0 -0.14389871169386081 1
gene  1 25 37 -0.45562090288645385 0 3804.0 -0.45562090288645385 1
gene  1 29 37 -0.1332768553469017 0 3808.0 -0.1332768553469017 1
gene  1 30 37 -0.19643167446910526 0 3809.0 -0.19643167446910526 1
gene  1 33 37 -0.3236769578379505 0 3812.0 -0.3236769578379505 1
gene  1 35 37 0.03549325012269022 0 3814.0 0.03549325012269022 1
gene  1 1 38 0.7409477764363266 0 3885.0 0.7409477764363266 1
gene  1 3 38 -0.3699852612009493 0 3887.0 -0.3699852612009493 1
gene  1 5 38 0.7986999284578948 0 3889.0 0.7986999284578948 1
gene  1 7 38 -0.8807895553778544 0 3891.0 -0.8807895553778544 1
gene  1 11 38 0.15317919604725472 0 3895.0 0.15317919604725472 1
gene  1 12 38 -0.23348651533838105 0 3896.0 -0.23348651533838105 1
gene  1 13 38 0.9774278080404857 0 3897.0 0.9774278080404857 1
gene  1 17 38 -0.5466182422246786 0 3901.0 -0.5466182422246786 1
gene  1 21 38 0.9533443025907778 0 3905.0 0.9533443025907778 1
gene  1 30 38 -0.022222859620341096 0 3914.0 -0.022222859620341096 1
gene  1 35 38 0.6651340669445508 0 3919.0 0.6651340669445508 1
gene  1 3 39 -0.1782145829389039 0 3992.0 -0.1782145829389039 1
gene  1 4 39 -0.21676002948430795 0 3993.0 -0.21676002948430795 1
gene  1 5 39 -0.4155619016095411 0 3994.0 -0.4155619016095411 1
gene  1 6 39 0.9016994296396433 0 3995.0 0.9016994296396433 1
gene  1 10 39 0.42443950229289984 0 3999.0 0.42443950229289984 1
gene  1 11 39 0.1692833393690839 0 4000.0 0.1692833393690839 1
gene  1 12 39 0.3234420613142397 0 4001.0 0.3234420613142397 1
gene  1 20 39 0.8417082624809792 0 4009.0 0.8417082624809792 1
gene  1 23 39 0.23968619679954295 0 4012.0 0.23968619679954295 1
gene  1 30 39 -0.5283356928027132 0 4019.0 -0.5283356928027132 1
gene  1 32 39 0.10211080211249046 0 4021.0 0.10211080211249046 1
gene  1 34 39 0.32022458052478875 0 4023.0 0.32022458052478875 1
gene  1 38 39 -0.7068398438092579 0 4027.0 -0.7068398438092579 1
gene  1 1 40 0.6179312681482285 0 4095.0 0.6179312681482285 1
gene  1 2 40 0.5044799014608126 0 4096.0 0.5044799014608126 1
gene  1 3 40 -0.29671615759548586 0 4097.0 -0.29671615759548586 1
gene  1 4 40 0.1064992628255077 0 4098.0 0.1064992628255077 1
gene  1 6 40 -0.07595696579396993 0 4100.0 -0.07595696579396993 1
gene  1 11 40 -0.24908384743541967 0 4105.0 -0.24908384743541967 1
gene  1 15 40 -0.29069574794746933 0 4109.0 -0.29069574794746933 1
gene  1 16 40 0.8214126791119266 0 4110.0 0.8214126791119266 1
gene  1 17 40 0.46956149363441924 0 4111.0 0.46956149363441924 1
gene  1 19 40 -0.6469901826996858 0 4113.0 -0.6469901826996858 1
gene  1 24 40 -0.8222033489857413 0 4118.0 -0.8222033489857413 1
gene  1 25 40 0.06660268117997115 0 4119.0 0.06660268117997115 1
gene  1 26 40 -0.15793588647859946 0 4120.0 -0.15793588647859946 1
gene  1 27 40 0.8919082717853424 0 4121.0 0.8919082717853424 1
gene  1 30 40 0.4640843544350748 0 4124.0 0.4640843544350748 1
gene  1 35 40 0.43843693004159123 0 4129.0 0.43843693004159123 1
gene  1 39 40 0.28026991930202194 0 4133.0 0.28026991930202194 1
gene  1 3 41 -0.45083886651359106 0 4202.0 -0.45083886651359106 1
gene  1 5 41 0.476317872633253 0 4204.0 0.476317872633253 1
gene  1 7 41 0.49029055653947673 0 4206.0 0.49029055653947673 1
gene  1 8 41 0.273879506293114 0 4207.0 0.273879506293114 1
gene  1 11 41 -0.21844073296525446 0 4210.0 -0.21844073296525446 1
gene  1 12 41 0.809990769367593 0 4211.0 0.809990769367593 1
gene  1 15 41 -0.8756718598466876 0 4214.0 -0.8756718598466876 1
gene  1 19 41 0.05142592764606224 0 4218.0 0.05142592764606224 1
gene  1 21 41 -0.3672763844872188 0 4220.0 -0.3672763844872188 1
gene  1 22 41 0.0838398389214896 0 4221.0 0.0838398389214896 1
gene  1 24 41 0.505844684576081 0 4223.0 0.505844684576081 1
gene  1 26 41 -0.07917420003567321 0 4225.0 -0.07917420003567321 1
gene  1 27 41 -0.959525597293201 0 4226.0 -0.959525597293201 1
gene  1 28 41 -0.602916891130706 0 4227.0 -0.602916891130706 1
gene  1 32 41 0.8990572927767145 0 4231.0 0.8990572927767145 1
gene  1 33 41 -0.5271196838715856 0 4232.0 -0.5271196838715856 1
gene  1 35 41 -0.6267872139751255 0 4234.0 -0.6267872139751255 1
gene  1 38 41 0.619566267152044 0 4237.0 0.619566267152044 1
gene  1 40 41 -0.7503277041137545 0 4239.0 -0.7503277041137545 1
gene  1 3 42 -0.3176853824601157 0 4307.0 -0.3176853824601157 1
gene  1 4 42 0.8882651015954423 0 4308.0 0.8882651015954423 1
gene  1 7 42 -0.45361023396195665 0 4311.0 -0.45361023396195665 1
gene  1 8 42 0.31906919833161707 0 4312.0 0.31906919833161707 1
gene  1 10 42 0.9280611222077266 0 4314.0 0.9280611222077266 1
gene  1 14 42 0.8008682158506167 0 4318.0 0.8008682158506167 1
gene  1 17 42 0.2728607208378908 0 4321.0 0.2728607208378908 1
gene  1 20 42 -0.658264586305571 0 4324.0 -0.658264586305571 1
gene  1 21 42 -0.8320071047648364 0 4325.0 -0.8320071047648364 1
gene  1 24 42 -0.6263356467323059 0 4328.0 -0.6263356467323059 1
gene  1 25 42 0.8776367678713017 0 4329.0 0.8776367678713017 1
gene  1 28 42 -0.9318942592158547 0 4332.0 -0.9318942592158547 1
gene  1 31 42 0.3643321104201146 0 4335.0 0.3643321104201146 1
gene  1 32 42 -0.49108927875161 0 4336.0 -0.49108927875161 1
gene  1 33 42 -0.6840599485854376 0 4337.0 -0.6840599485854376 1
gene  1 36 42 -0.07224000709709222 0 4340.0 -0.07224000709709222 1
gene  1 38 42 -0.9039165284970042 0 4342.0 -0.9039165284970042 1
gene  1 40 42 -0.7066602551652196 0 4344.0 -0.7066602551652196 1
gene  1 1 43 0.8200969245642421 0 4410.0 0.8200969245642421 1
gene  1 2 43 -0.09775143989465207 0 4411.0 -0.09775143989465207 1
gene  1 4 43 -0.6820880698723486 0 4413.0 -0.6820880698723486 1
gene  1 5 43 0.5366406982273304 0 4414.0 0.5366406982273304 1
gene  1 6 43 0.2545621055133872 0 4415.0 0.2545621055133872 1
gene  1 7 43 0.37447717967586935 0 4416.0 0.37447717967586935 1
gene  1 9 43 -0.2997588522176855 0 4418.0 -0.2997588522176855 1
gene  1 11 43 0.9364741127941674 0 4420.0 0.9364741127941674 1
gene  1 13 43 0.7009077005199498 0 4422.0 0.7009077005199498 1
gene  1 14 43 0.5856024000637433 0 4423.0 0.5856024000637433 1
gene  1 16 43 -0.48075072260896456 0 4425.0 -0.48075072260896456 1
gene  1 18 43 -0.7731741375314826 0 4427.0 -0.7731741375314826 1
gene  1 19 43 0.5623048018160659 0 4428.0 0.5623048018160659 1
gene  1 21 43 0.8472540669811157 0 4430.0 0.8472540669811157 1
gene  1 22 43 -0.48630812278917324 0 4431.0 -0.48630812278917324 1
gene  1 24 43 -0.5432967268784276 0 4433.0 -0.5432967268784276 1
gene  1 26 43 -0.9093312611914564 0 4435.0 -0.9093312611914564 1
gene  1 27 43 0.24415677819464554 0 4436.0 0.24415677819464554 1
gene  1 28 43 0.4874291814626064 0 4437.0 0.4874291814626064 1
gene  1 29 43 0.8610948998640681 0 4438.0 0.8610948998640681 1
gene  1 32 43 -0.7629732478318729 0 4441.0 -0.7629732478318729 1
gene  1 33 43 -0.5725505438711855 0 4442.0 -0.5725505438711855 1
gene  1 36 43 -0.5422198990613785 0 4445.0 -0.5422198990613785 1
gene  1 37 43 0.36855050769526965 0 4446.0 0.36855050769526965 1
gene  1 39 43 0.2594379654847885 0 4448.0 0.2594379654847885 1
gene  1 40 43 -0.583492695988883 0 4449.0 -0.583492695988883 1
gene  1 3 44 0.3942518023886771 0 4517.0 0.3942518023886771 1
gene  1 4 44 -0.03056489931526407 0 4518.0 -0.03056489931526407 1
gene  1 5 44 0.4246619104398832 0 4519.0 0.4246619104398832 1
gene  1 7 44 0.8776105029456898 0 4521.0 0.8776105029456898 1
gene  1 9 44 -0.3185122804972583 0 4523.0 -0.3185122804972583 1
gene  1 11 44 -0.49954241576099256 0 4525.0 -0.49954241576099256 1
gene  1 13 44 0.7199502558144063 0 4527.0 0.7199502558144063 1
gene  1 14 44 0.4697758894563202 0 4528.0 0.4697758894563202 1
gene  1 16 44 0.6519861248050707 0 4530.0 0.6519861248050707 1
gene  1 18 44 -0.763327702575913 0 4532.0 -0.763327702575913 1
gene  1 27 44 -0.5298459630702186 0 4541.0 -0.5298459630702186 1
gene  1 28 44 -0.12314074777701589 0 4542.0 -0.12314074777701589 1
gene  1 29 44 -0.39858166653336113 0 4543.0 -0.39858166653336113 1
gene  1 32 44 0.20025205328518525 0 4546.0 0.20025205328518525 1
gene  1 36 44 0.752420952333001 0 4550.0 0.752420952333001 1
gene  1 37 44 0.8474766350348785 0 4551.0 0.8474766350348785 1
gene  1 38 44 0.5697703704822753 0 4552.0 0.5697703704822753 1
gene  1 39 44 0.4480681931619338 0 4553.0 0.4480681931619338 1
gene  1 42 44 -0.3834015500882084 0 4556.0 -0.3834015500882084 1
gene  1 1 45 -0.5146587396082146 0 4620.0 -0.5146587396082146 1
gene  1 3 45 -0.3740800706216926 0 4622.0 -0.3740800706216926 1
gene  1 4 45 0.8148451153664471 0 4623.0 0.8148451153664471 1
gene  1 5 45 -0.8309579667140786 0 4624.0 -0.8309579667140786 1
gene  1 8 45 -0.7091458512037172 0 4627.0 -0.7091458512037172 1
gene  1 9 45 0.39597447856607404 0 4628.0 0.39597447856607404 1
gene  1 10 45 -0.9063708722391411 0 4629.0 -0.9063708722391411 1
gene  1 13 45 0.8890465405020767 0 4632.0 0.8890465405020767 1
gene  1 19 45 -0.5950391049502495 0 4638.0 -0.5950391049502495 1
gene  1 21 45 0.8875516226234926 0 4640.0 0.8875516226234926 1
gene  1 22 45 0.4750595659865188 0 4641.0 0.4750595659865188 1
gene  1 23 45 0.1747144352017167 0 4642.0 0.1747144352017167 1
gene  1 24 45 0.432227286844757 0 4643.0 0.432227286844757 1
gene  1 25 45 -0.8491544293476995 0 4644.0 -0.8491544293476995 1
gene  1 26 45 -0.39044286805490425 0 4645.0 -0.39044286805490425 1
gene  1 30 45 -0.09895673110464942 0 4649.0 -0.09895673110464942 1
gene  1 32 45 0.1475990254318994 0 4651.0 0.1475990254318994 1
gene  1 33 45 0.7960453706929668 0 4652.0 0.7960453706929668 1
gene  1 35 45 -0.9435862029694289 0 4654.0 -0.9435862029694289 1
gene  1 36 45 0.401122055690025 0 4655.0 0.401122055690025 1
gene  1 37 45 -0.0955458500334797 0 4656.0 -0.0955458500334797 1
gene  1 38 45 -0.8307588046806191 0 4657.0 -0.8307588046806191 1
gene  1 2 46 0.2016187701584139 0 4726.0 0.2016187701584139 1
gene  1 6 46 -0.10244443814042636 0 4730.0 -0.10244443814042636 1
gene  1 7 46 0.40410085167992305 0 4731.0 0.40410085167992305 1
gene  1 9 46 0.6819922765050489 0 4733.0 0.6819922765050489 1
gene  1 10 46 -0.7702938438989434 0 4734.0 -0.7702938438989434 1
gene  1 12 46 -0.7033523783730231 0 4736.0 -0.7033523783730231 1
gene  1 13 46 0.4750265953783902 0 4737.0 0.4750265953783902 1
gene  1 14 46 0.7826917445255963 0 4738.0 0.7826917445255963 1
gene  1 16 46 0.47026623806253853 0 4740.0 0.47026623806253853 1
gene  1 17 46 -0.19947035274459501 0 4741.0 -0.19947035274459501 1
gene  1 18 46 -0.7108399074001985 0 4742.0 -0.7108399074001985 1
gene  1 20 46 0.7784548508262951 0 4744.0 0.7784548508262951 1
gene  1 25 46 0.12662446782864056 0 4749.0 0.12662446782864056 1
gene  1 29 46 -0.2697492967751235 0 4753.0 -0.2697492967751235 1
gene  1 30 46 0.09886309495628198 0 4754.0 0.09886309495628198 1
gene  1 31 46 -0.3530319999106708 0 4755.0 -0.3530319999106708 1
gene  1 32 46 -0.8730630179941893 0 4756.0 -0.8730630179941893 1
gene  1 33 46 -0.9033911818992585 0 4757.0 -0.9033911818992585 1
gene  1 35 46 -0.1585239151927108 0 4759.0 -0.1585239151927108 1
gene  1 41 46 -0.1854276188567301 0 4765.0 -0.1854276188567301 1
gene  1 44 46 -0.21571130554345896 0 4768.0 -0.21571130554345896 1
gene  1 45 46 -0.9959830056986138 0 4769.0 -0.9959830056986138 1
gene  1 6 47 0.016767286162231998 0 4835.0 0.016767286162231998 1
gene  1 7 47 -0.7021527734517181 0 4836.0 -0.7021527734517181 1
gene  1 8 47 0.14271695475149637 0 4837.0 0.14271695475149637 1
gene  1 9 47 0.6347294089414804 0 4838.0 0.6347294089414804 1
gene  1 15 47 0.12794037476651987 0 4844.0 0.12794037476651987 1
gene  1 16 47 -0.03218722031410337 0 4845.0 -0.03218722031410337 1
gene  1 21 47 0.03174840517495536 0 4850.0 0.03174840517495536 1
gene  1 22 47 0.09243457266759236 0 4851.0 0.09243457266759236 1
gene  1 23 47 -0.8060980420134188 0 4852.0 -0.8060980420134188 1
gene  1 24 47 -0.9191826715851841 0 4853.0 -0.9191826715851841 1
gene  1 25 47 0.14805316281838543 0 4854.0 0.14805316281838543 1
gene  1 28 47 0.003883507127696584 0 4857.0 0.003883507127696584 1
gene  1 31 47 -0.24344639807903612 0 4860.0 -0.24344639807903612 1
gene  1 32 47 0.9877613203034661 0 4861.0 0.9877613203034661 1
gene  1 33 47 -0.4618677973610684 0 4862.0 -0.4618677973610684 1
gene  1 34 47 0.9598268821860506 0 4863.0 0.9598268821860506 1
gene  1 41 47 0.7995784881904511 0 4870.0 0.7995784881904511 1
gene  1 43 47 -0.6251933098349892 0 4872.0 -0.6251933098349892 1
gene  1 1 48 0.0889930113912073 0 4935.0 0.0889930113912073 1
gene  1 2 48 0.33558034506041334 0 4936.0 0.33558034506041334 1
gene  1 4 48 -0.8601051433555498 0 4938.0 -0.8601051433555498 1
gene  1 6 48 -0.23740587203284857 0 4940.0 -0.23740587203284857 1
gene  1 9 48 -0.2872560513636976 0 4943.0 -0.2872560513636976 1
gene  1 11 48 -0.6953766024153986 0 4945.0 -0.6953766024153986 1
gene  1 13 48 0.5749775031590606 0 4947.0 0.5749775031590606 1
gene  1 15 48 -0.914694137287893 0 4949.0 -0.914694137287893 1
gene  1 17 48 -0.9613018859521367 0 4951.0 -0.9613018859521367 1
gene  1 21 48 0.5615041434452133 0 4955.0 0.5615041434452133 1
gene  1 22 48 -0.9378319004793065 0 4956.0 -0.9378319004793065 1
gene  1 26 48 0.7275499161443418 0 4960.0 0.7275499161443418 1
gene  1 27 48 -0.5474691629798096 0 4961.0 -0.5474691629798096 1
gene  1 28 48 -0.7997487895862326 0 4962.0 -0.7997487895862326 1
gene  1 30 48 0.3965435633742225 0 4964.0 0.3965435633742225 1
gene  1 31 48 0.33096092206707106 0 4965.0 0.33096092206707106 1
gene  1 33 48 0.9000839385560155 0 4967.0 0.9000839385560155 1
gene  1 36 48 -0.7999188939246596 0 4970.0 -0.7999188939246596 1
gene  1 38 48 0.9772018685422114 0 4972.0 0.9772018685422114 1
gene  1 39 48 -0.13498872093925685 0 4973.0 -0.13498872093925685 1
gene  1 40 48 0.9828810221229094 0 4974.0 0.9828810221229094 1
gene  1 41 48 0.08185428836342468 0 4975.0 0.08185428836342468 1
gene  1 42 48 -0.5411443949378989 0 4976.0 -0.5411443949378989 1
gene  1 44 48 -0.5834190543155302 0 4978.0 -0.5834190543155302 1
gene  1 45 48 -0.30885363079032246 0 4979.0 -0.30885363079032246 1
gene  1 46 48 0.8522343925899496 0 4980.0 0.8522343925899496 1
gene  1 47 48 0.6066109112253898 0 4981.0 0.6066109112253898 1
gene  1 5 49 0.6381748798135065 0 5044.0 0.6381748798135065 1
gene  1 7 49 -0.8649273498033059 0 5046.0 -0.8649273498033059 1
gene  1 8 49 0.40403710704114226 0 5047.0 0.40403710704114226 1
gene  1 11 49 0.27897892328329055 0 5050.0 0.27897892328329055 1
gene  1 12 49 0.1967486122034544 0 5051.0 0.1967486122034544 1
gene  1 13 49 -0.8226155690034225 0 5052.0 -0.8226155690034225 1
gene  1 17 49 0.47634857249196116 0 5056.0 0.47634857249196116 1
gene  1 21 49 -0.4192692277711767 0 5060.0 -0.4192692277711767 1
gene  1 23 49 0.15927855981920702 0 5062.0 0.15927855981920702 1
gene  1 24 49 -0.4622834493570245 0 5063.0 -0.4622834493570245 1
gene  1 26 49 -0.7744576039013717 0 5065.0 -0.7744576039013717 1
gene  1 27 49 -0.7093928415097203 0 5066.0 -0.7093928415097203 1
gene  1 28 49 -0.2315731371114751 0 5067.0 -0.2315731371114751 1
gene  1 29 49 0.13873537953122428 0 5068.0 0.13873537953122428 1
gene  1 30 49 -0.6452317735489234 0 5069.0 -0.6452317735489234 1
gene  1 32 49 0.7610475608401841 0 5071.0 0.7610475608401841 1
gene  1 36 49 -0.30525750614638103 0 5075.0 -0.30525750614638103 1
gene  1 37 49 -0.6733409216062564 0 5076.0 -0.6733409216062564 1
gene  1 39 49 -0.3764844562797217 0 5078.0 -0.3764844562797217 1
gene  1 41 49 0.6767426762538542 0 5080.0 0.6767426762538542 1
gene  1 42 49 -0.6355396175197162 0 5081.0 -0.6355396175197162 1
gene  1 44 49 0.5784864239843942 0 5083.0 0.5784864239843942 1
gene  1 45 49 0.06660121962024868 0 5084.0 0.06660121962024868 1
gene  1 47 49 0.3664842360598566 0 5086.0 0.3664842360598566 1
gene  1 1 50 0.7644982426544076 0 5145.0 0.7644982426544076 1
gene  1 4 50 -0.9813246945045953 0 5148.0 -0.9813246945045953 1
gene  1 7 50 0.4266665002408283 0 5151.0 0.4266665002408283 1
gene  1 9 50 0.6094175738151482 0 5153.0 0.6094175738151482 1
gene  1 11 50 -0.6712920653550446 0 5155.0 -0.6712920653550446 1
gene  1 13 50 0.9150082081468309 0 5157.0 0.9150082081468309 1
gene  1 14 50 0.02566704114432805 0 5158.0 0.02566704114432805 1
gene  1 19 50 0.03030004954678811 0 5163.0 0.03030004954678811 1
gene  1 22 50 -0.4126601269174177 0 5166.0 -0.4126601269174177 1
gene  1 24 50 -0.8581186111289973 0 5168.0 -0.8581186111289973 1
gene  1 29 50 -0.2733633894761779 0 5173.0 -0.2733633894761779 1
gene  1 33 50 0.3370418920574698 0 5177.0 0.3370418920574698 1
gene  1 34 50 -0.22428714626141855 0 5178.0 -0.22428714626141855 1
gene  1 37 50 0.5200142702275111 0 5181.0 0.5200142702275111 1
gene  1 39 50 -0.11781365944217537 0 5183.0 -0.11781365944217537 1
gene  1 41 50 0.8855581153273991 0 5185.0 0.8855581153273991 1
gene  1 44 50 0.8471739666160268 0 5188.0 0.8471739666160268 1
gene  1 46 50 -0.05634433274381878 0 5190.0 -0.05634433274381878 1
gene  1 47 50 -0.8873716867042573 0 5191.0 -0.8873716867042573 1
gene  1 49 50 -0.7465460935649298 0 5193.0 -0.7465460935649298 1
gene  1 1 105 0.618594824844589 0 10920.0 0.618594824844589 1
gene  1 2 105 0.24193861028247055 0 10921.0 0.24193861028247055 1
gene  1 4 105 0.6617137554871605 0 10923.0 0.6617137554871605 1
gene  1 9 105 -0.33714367811167345 0 10928.0 -0.33714367811167345 1
gene  1 10 105 -0.504417572271147 0 10929.0 -0.504417572271147 1
gene  1 11 105 -0.886464550388558 0 10930.0 -0.886464550388558 1
gene  1 17 105 0.8538907824010161 0 10936.0 0.8538907824010161 1
gene  1 18 105 0.5372069621265722 0 10937.0 0.5372069621265722 1
gene  1 19 105 -0.862772664117484 0 10938.0 -0.862772664117484 1
gene  1 20 105 0.6323117432907351 0 10939.0 0.6323117432907351 1
gene  1 26 105 0.5257538931397758 0 10945.0 0.5257538931397758 1
gene  1 29 105 -0.27052879041997624 0 10948.0 -0.27052879041997624 1
gene  1 33 105 -0.9169107320824302 0 10952.0 -0.9169107320824302 1
gene  1 36 105 0.5766585319136686 0 10955.0 0.5766585319136686 1
gene  1 39 105 -0.15193115763510445 0 10958.0 -0.15193115763510445 1
gene  1 42 105 0.3279226407045569 0 10961.0 0.3279226407045569 1
gene  1 44 105 0.010597919130733935 0 10963.0 0.010597919130733935 1
gene  1 45 105 -0.18500815236605983 0 10964.0 -0.18500815236605983 1
gene  1 47 105 0.7617847606264424 0 10966.0 0.7617847606264424 1
gene  1 50 105 0.8208253385657499 0 10969.0 0.8208253385657499 1
genomeend 29
