genomestart  54
trait 1 0.0 0.0 0.0 0.0 0.0 0.0 0.0 0.0 0.0 0.0 0.0 0.0 0.0 0.0 0.0 0.0 0.0 0.0 0.0 0.0 
node 1 1 1 1
node 2 1 1 1
node 3 1 1 1
node 4 1 1 1
node 5 1 1 3
node 6 1 0 0
node 7 1 0 0
node 8 1 0 0
node 9 1 0 0
node 10 1 0 0
node 11 1 0 0
node 12 1 0 0
node 13 1 0 0
node 14 1 0 0
node 15 1 0 0
node 16 1 0 2
gene  1 1 6 0.9227469392767854 0 80.0 0.9227469392767854 1
gene  1 4 6 0.5384289775203727 0 83.0 0.5384289775203727 1
gene  1 2 7 -0.2711976112113661 0 97.0 -0.2711976112113661 1
gene  1 3 7 0.2914975317341124 0 98.0 0.2914975317341124 1
gene  1 4 7 -0.003379022156844491 0 99.0 -0.003379022156844491 1
gene  1 6 7 0.005728179413888257 0 101.0 0.005728179413888257 1
gene  1 3 8 -0.6179853902059251 0 114.0 -0.6179853902059251 1
gene  1 4 8 -0.5495698207608223 0 115.0 -0.5495698207608223 1
gene  1 5 8 -0.6674105829473209 0 116.0 -0.6674105829473209 1
gene  1 4 9 -0.850772454438265 0 131.0 -0.850772454438265 1
gene  1 5 9 -0.7812635341677208 0 132.0 -0.7812635341677208 1
gene  1 2 10 -0.3606115296242123 0 145.0 -0.3606115296242123 1
gene  1 7 10 0.22984048676330882 0 150.0 0.22984048676330882 1
gene  1 1 11 -0.38804348155506907 0 160.0 -0.38804348155506907 1
gene  1 3 11 0.0906554582213126 0 162.0 0.0906554582213126 1
gene  1 4 11 -0.588469235487489 0 163.0 -0.588469235487489 1
gene  1 5 11 0.6050927207058655 0 164.0 0.6050927207058655 1
gene  1 9 11 0.09984879530753199 0 168.0 0.09984879530753199 1
gene  1 10 11 -0.6877534977995158 0 169.0 -0.6877534977995158 1
gene  1 2 12 0.9707602342403563 0 177.0 0.9707602342403563 1
gene  1 3 12 0.4323041673736373 0 178.0 0.4323041673736373 1
gene  1 5 12 0.2663929722278827 0 180.0 0.2663929722278827 1
gene  1 6 12 0.0329158050483942 0 181.0 0.0329158050483942 1
gene  1 7 12 -0.9807256836624371 0 182.0 -0.9807256836624371 1
gene  1 1 13 -0.11841947472522618 0 192.0 -0.11841947472522618 1
gene  1 2 13 0.22555866530673208 0 193.0 0.22555866530673208 1
gene  1 5 13 0.5274800687654593 0 196.0 0.5274800687654593 1
gene  1 10 13 0.5649596338908216 0 201.0 0.5649596338908216 1
gene  1 11 13 0.6053814867704795 0 202.0 0.6053814867704795 1
gene  1 12 13 0.07714883490147761 0 203.0 0.07714883490147761 1
gene  1 2 14 -0.15572126667313113 0 209.0 -0.15572126667313113 1
gene  1 4 14 -0.8032658966843319 0 211.0 -0.8032658966843319 1
gene  1 7 14 0.692747313897017 0 214.0 0.692747313897017 1
gene  1 10 14 0.26124383428606746 0 217.0 0.26124383428606746 1
gene  1 11 14 0.19588861011972536 0 218.0 0.19588861011972536 1
gene  1 12 14 -0.20913979113765135 0 219.0 -0.20913979113765135 1
gene  1 13 14 -0.48981773153003416 0 220.0 -0.48981773153003416 1
gene  1 2 15 0.8986747525405119 0 225.0 0.8986747525405119 1
gene  1 3 15 0.5456783027682801 0 226.0 0.5456783027682801 1
gene  1 4 15 -0.03250314408659105 0 227.0 -0.03250314408659105 1
gene  1 5 15 -0.23202979814262337 0 228.0 -0.23202979814262337 1
gene  1 8 15 -0.31875801404050685 0 231.0 -0.31875801404050685 1
gene  1 10 15 -0.6531657553094585 0 233.0 -0.6531657553094585 1
gene  1 14 15 -0.8928772669456868 0 237.0 -0.8928772669456868 1
gene  1 1 16 -0.08450528988998696 0 240.0 -0.08450528988998696 1
gene  1 4 16 0.347602446290285 0 243.0 0.347602446290285 1
gene  1 5 16 0.7725421961771479 0 244.0 0.7725421961771479 1
gene  1 8 16 -0.6355747014084733 0 247.0 -0.6355747014084733 1
gene  1 10 16 -0.34021178648412054 0 249.0 -0.34021178648412054 1
gene  1 12 16 -0.7685918510757931 0 251.0 -0.7685918510757931 1
gene  1 13 16 -0.5923583221123515 0 252.0 -0.5923583221123515 1
gene  1 14 16 0.9120148823479335 0 253.0 0.9120148823479335 1
genomeend 54
