genomestart  44
trait 1 0.0 0.0 0.0 0.0 0.0 0.0 0.0 0.0 0.0 0.0 0.0 0.0 0.0 0.0 0.0 0.0 0.0 0.0 0.0 0.0 
node 1 1 1 1
node 2 1 1 1
node 3 1 1 1
node 4 1 1 1
node 5 1 1 3
node 6 1 0 0
node 7 1 0 0
node 8 1 0 0
node 9 1 0 0
node 10 1 0 0
node 11 1 0 0
node 16 1 0 2
gene  1 1 6 -0.012991707161865595 0 80.0 -0.012991707161865595 1
gene  1 2 6 -0.2319127266840152 0 81.0 -0.2319127266840152 1
gene  1 5 6 0.20440167482486293 0 84.0 0.20440167482486293 1
gene  1 1 7 0.7677851232844333 0 96.0 0.7677851232844333 1
gene  1 2 7 -0.8767381813558214 0 97.0 -0.8767381813558214 1
gene  1 3 7 0.4601529464241785 0 98.0 0.4601529464241785 1
gene  1 4 7 0.2739264277699911 0 99.0 0.2739264277699911 1
gene  1 6 7 0.01169701533361911 0 101.0 0.01169701533361911 1
gene  1 2 8 -0.4372808598126897 0 113.0 -0.4372808598126897 1
gene  1 3 8 -0.47679131839049693 0 114.0 -0.47679131839049693 1
gene  1 4 8 -0.9439873555675512 0 115.0 -0.9439873555675512 1
gene  1 5 8 0.11691703092904449 0 116.0 0.11691703092904449 1
gene  1 7 8 -0.3827899521657696 0 118.0 -0.3827899521657696 1
gene  1 1 9 -0.737067820420169 0 128.0 -0.737067820420169 1
gene  1 2 9 -0.22835335655799438 0 129.0 -0.22835335655799438 1
gene  1 4 9 0.18420408223492324 0 131.0 0.18420408223492324 1
gene  1 6 9 -0.004307493214659508 0 133.0 -0.004307493214659508 1
gene  1 7 9 0.7711413928704727 0 134.0 0.7711413928704727 1
gene  1 1 10 0.9174793792448664 0 144.0 0.9174793792448664 1
gene  1 2 10 0.46509485789444993 0 145.0 0.46509485789444993 1
gene  1 3 10 -0.41512502126348183 0 146.0 -0.41512502126348183 1
gene  1 8 10 -0.39683542596405696 0 151.0 -0.39683542596405696 1
gene  1 9 10 -0.07670428106363392 0 152.0 -0.07670428106363392 1
gene  1 1 11 -0.8086491185064746 0 160.0 -0.8086491185064746 1
gene  1 5 11 -0.18197265063492918 0 164.0 -0.18197265063492918 1
gene  1 9 11 -0.38051286119756134 0 168.0 -0.38051286119756134 1
gene  1 10 11 0.3096276888110211 0 169.0 0.3096276888110211 1
gene  1 4 16 -0.13977686540253764 0 243.0 -0.13977686540253764 1
gene  1 6 16 0.12745176074795872 0 245.0 0.12745176074795872 1
gene  1 10 16 0.009964617802513231 0 249.0 0.009964617802513231 1
gene  1 11 16 -0.6928058061258616 0 250.0 -0.6928058061258616 1
genomeend 44
