genomestart  31
trait 1 0.0 0.0 0.0 0.0 0.0 0.0 0.0 0.0 0.0 0.0 0.0 0.0 0.0 0.0 0.0 0.0 0.0 0.0 0.0 0.0 
node 1 1 1 1
node 2 1 1 1
node 3 1 1 1
node 4 1 1 3
node 5 1 0 0
node 6 1 0 0
node 7 1 0 0
node 8 1 0 0
node 9 1 0 0
node 10 1 0 0
node 11 1 0 0
node 12 1 0 0
node 13 1 0 0
node 14 1 0 0
node 15 1 0 0
node 16 1 0 0
node 17 1 0 0
node 18 1 0 0
node 19 1 0 0
node 20 1 0 0
node 21 1 0 0
node 22 1 0 0
node 23 1 0 0
node 24 1 0 0
node 25 1 0 0
node 26 1 0 0
node 27 1 0 0
node 28 1 0 0
node 29 1 0 0
node 30 1 0 0
node 31 1 0 0
node 32 1 0 0
node 33 1 0 0
node 34 1 0 0
node 35 1 0 0
node 36 1 0 0
node 37 1 0 0
node 38 1 0 0
node 39 1 0 0
node 40 1 0 0
node 41 1 0 0
node 42 1 0 0
node 43 1 0 0
node 44 1 0 0
node 45 1 0 0
node 46 1 0 0
node 47 1 0 0
node 48 1 0 0
node 49 1 0 0
node 50 1 0 0
node 51 1 0 0
node 52 1 0 0
node 53 1 0 0
node 54 1 0 0
node 55 1 0 0
node 56 1 0 0
node 57 1 0 0
node 58 1 0 0
node 59 1 0 0
node 60 1 0 0
node 61 1 0 0
node 62 1 0 0
node 63 1 0 0
node 64 1 0 0
node 65 1 0 0
node 66 1 0 0
node 67 1 0 0
node 68 1 0 0
node 69 1 0 0
node 70 1 0 0
node 105 1 0 2
gene  1 1 5 0.6042737419855437 0 420.0 0.6042737419855437 1
gene  1 2 5 -0.5535747934005852 0 421.0 -0.5535747934005852 1
gene  1 3 5 0.2588459057530389 0 422.0 0.2588459057530389 1
gene  1 4 6 0.08963917889048856 0 528.0 0.08963917889048856 1
gene  1 5 6 -0.34100225175028087 0 529.0 -0.34100225175028087 1
gene  1 1 7 -0.200696653423024 0 630.0 -0.200696653423024 1
gene  1 5 7 -0.8075611798329886 0 634.0 -0.8075611798329886 1
gene  1 1 8 0.2650640482283777 0 735.0 0.2650640482283777 1
gene  1 2 8 -0.9487119298198248 0 736.0 -0.9487119298198248 1
gene  1 3 8 -0.33078985315943576 0 737.0 -0.33078985315943576 1
gene  1 5 8 -0.8569248991334593 0 739.0 -0.8569248991334593 1
gene  1 1 9 0.9799959918225277 0 840.0 0.9799959918225277 1
gene  1 6 9 -0.9273911695134798 0 845.0 -0.9273911695134798 1
gene  1 4 10 -0.3927863024963473 0 948.0 -0.3927863024963473 1
gene  1 8 10 -0.44789120212621336 0 952.0 -0.44789120212621336 1
gene  1 9 10 -0.12114304124210762 0 953.0 -0.12114304124210762 1
gene  1 3 11 0.560681192562473 0 1052.0 0.560681192562473 1
gene  1 4 11 -0.7233237495608942 0 1053.0 -0.7233237495608942 1
gene  1 5 11 0.45146973856958494 0 1054.0 0.45146973856958494 1
gene  1 6 11 0.508130463452388 0 1055.0 0.508130463452388 1
gene  1 9 11 0.4085998721157348 0 1058.0 0.4085998721157348 1
gene  1 10 11 0.9524208413034507 0 1059.0 0.9524208413034507 1
gene  1 1 12 0.6236774545728027 0 1155.0 0.6236774545728027 1
gene  1 4 12 -0.6776592517603711 0 1158.0 -0.6776592517603711 1
gene  1 6 12 -0.6095920680984073 0 1160.0 -0.6095920680984073 1
gene  1 10 12 0.03389735759941026 0 1164.0 0.03389735759941026 1
gene  1 1 13 -0.18029478498977347 0 1260.0 -0.18029478498977347 1
gene  1 3 13 -0.8268276048752358 0 1262.0 -0.8268276048752358 1
gene  1 4 13 0.5608241176922427 0 1263.0 0.5608241176922427 1
gene  1 8 13 -0.9974985775199925 0 1267.0 -0.9974985775199925 1
gene  1 9 13 0.418277948183041 0 1268.0 0.418277948183041 1
gene  1 12 13 0.9161028154680805 0 1271.0 0.9161028154680805 1
gene  1 2 14 -0.7238214843838263 0 1366.0 -0.7238214843838263 1
gene  1 5 14 0.6649192938991266 0 1369.0 0.6649192938991266 1
gene  1 7 14 -0.1087261491155237 0 1371.0 -0.1087261491155237 1
gene  1 8 14 -0.5173340343960171 0 1372.0 -0.5173340343960171 1
gene  1 9 14 0.7990271534615696 0 1373.0 0.7990271534615696 1
gene  1 11 14 -0.2666602599705633 0 1375.0 -0.2666602599705633 1
gene  1 2 15 0.7312622445447228 0 1471.0 0.7312622445447228 1
gene  1 7 15 -0.6056041118871491 0 1476.0 -0.6056041118871491 1
gene  1 8 15 0.3559562049149061 0 1477.0 0.3559562049149061 1
gene  1 1 16 -0.26686154949340035 0 1575.0 -0.26686154949340035 1
gene  1 2 16 -0.9133136229405092 0 1576.0 -0.9133136229405092 1
gene  1 4 16 0.25379282644029366 0 1578.0 0.25379282644029366 1
gene  1 6 16 0.5830335708397276 0 1580.0 0.5830335708397276 1
gene  1 8 16 0.9217980319395307 0 1582.0 0.9217980319395307 1
gene  1 10 16 0.9662114317310897 0 1584.0 0.9662114317310897 1
gene  1 11 16 0.8855055879026295 0 1585.0 0.8855055879026295 1
gene  1 12 16 0.12999796650281126 0 1586.0 0.12999796650281126 1
gene  1 14 16 -0.6343166619751706 0 1588.0 -0.6343166619751706 1
gene  1 1 17 0.19376704483332463 0 1680.0 0.19376704483332463 1
gene  1 5 17 0.08742256961399864 0 1684.0 0.08742256961399864 1
gene  1 6 17 0.9123806079616413 0 1685.0 0.9123806079616413 1
gene  1 7 17 0.03774476711571029 0 1686.0 0.03774476711571029 1
gene  1 8 17 0.6929184813908039 0 1687.0 0.6929184813908039 1
gene  1 9 17 0.8599356878282052 0 1688.0 0.8599356878282052 1
gene  1 10 17 -0.19784263549225467 0 1689.0 -0.19784263549225467 1
gene  1 11 17 0.7621817147544885 0 1690.0 0.7621817147544885 1
gene  1 14 17 0.9094243919715067 0 1693.0 0.9094243919715067 1
gene  1 15 17 0.9008252095255186 0 1694.0 0.9008252095255186 1
gene  1 1 18 0.6232754478449917 0 1785.0 0.6232754478449917 1
gene  1 2 18 -0.8639524620255584 0 1786.0 -0.8639524620255584 1
gene  1 3 18 -0.9780505491528599 0 1787.0 -0.9780505491528599 1
gene  1 5 18 0.04822607572019311 0 1789.0 0.04822607572019311 1
gene  1 6 18 -0.9341053150355016 0 1790.0 -0.9341053150355016 1
gene  1 8 18 0.09257797542784119 0 1792.0 0.09257797542784119 1
gene  1 10 18 0.3242542995776123 0 1794.0 0.3242542995776123 1
gene  1 11 18 0.25565885681502976 0 1795.0 0.25565885681502976 1
gene  1 12 18 0.9871394138039508 0 1796.0 0.9871394138039508 1
gene  1 13 18 0.23300684186687015 0 1797.0 0.23300684186687015 1
gene  1 14 18 0.5754044772732495 0 1798.0 0.5754044772732495 1
gene  1 15 18 0.5047407653996966 0 1799.0 0.5047407653996966 1
gene  1 17 18 0.8188694682095111 0 1801.0 0.8188694682095111 1
gene  1 1 19 0.19502960802718516 0 1890.0 0.19502960802718516 1
gene  1 2 19 0.2008410390825408 0 1891.0 0.2008410390825408 1
gene  1 3 19 -0.37351313658562113 0 1892.0 -0.37351313658562113 1
gene  1 6 19 0.6151034845056902 0 1895.0 0.6151034845056902 1
gene  1 9 19 0.8746145978322631 0 1898.0 0.8746145978322631 1
gene  1 15 19 -0.6327078051961855 0 1904.0 -0.6327078051961855 1
gene  1 17 19 -0.7351614222386237 0 1906.0 -0.7351614222386237 1
gene  1 18 19 -0.0971973510529256 0 1907.0 -0.0971973510529256 1
gene  1 2 20 -0.9280887972332093 0 1996.0 -0.9280887972332093 1
gene  1 3 20 0.8089951872822244 0 1997.0 0.8089951872822244 1
gene  1 5 20 -0.3501763338367403 0 1999.0 -0.3501763338367403 1
gene  1 6 20 0.8964517656680027 0 2000.0 0.8964517656680027 1
gene  1 7 20 0.8712391917683971 0 2001.0 0.8712391917683971 1
gene  1 9 20 -0.006487144278955248 0 2003.0 -0.006487144278955248 1
gene  1 10 20 -0.19350038057283958 0 2004.0 -0.19350038057283958 1
gene  1 12 20 0.7622458774733807 0 2006.0 0.7622458774733807 1
gene  1 14 20 -0.5300081641351204 0 2008.0 -0.5300081641351204 1
gene  1 15 20 0.6085786732114664 0 2009.0 0.6085786732114664 1
gene  1 17 20 -0.9075848800106505 0 2011.0 -0.9075848800106505 1
gene  1 18 20 -0.1413923115659167 0 2012.0 -0.1413923115659167 1
gene  1 19 20 0.06284916511473426 0 2013.0 0.06284916511473426 1
gene  1 1 21 -0.6798466287543382 0 2100.0 -0.6798466287543382 1
gene  1 3 21 0.1450888960960135 0 2102.0 0.1450888960960135 1
gene  1 4 21 0.5855903089336949 0 2103.0 0.5855903089336949 1
gene  1 5 21 -0.07922646994916638 0 2104.0 -0.07922646994916638 1
gene  1 6 21 0.22882821140290477 0 2105.0 0.22882821140290477 1
gene  1 8 21 -0.035598088690687035 0 2107.0 -0.035598088690687035 1
gene  1 9 21 -0.2596682703708548 0 2108.0 -0.2596682703708548 1
gene  1 10 21 -0.8732834564228533 0 2109.0 -0.8732834564228533 1
gene  1 15 21 0.15006928952004417 0 2114.0 0.15006928952004417 1
gene  1 17 21 0.025515252650022968 0 2116.0 0.025515252650022968 1
gene  1 18 21 -0.31386596851928517 0 2117.0 -0.31386596851928517 1
gene  1 19 21 0.3523464368694009 0 2118.0 0.3523464368694009 1
gene  1 20 21 0.5979061108135443 0 2119.0 0.5979061108135443 1
gene  1 1 22 -0.767341235382997 0 2205.0 -0.767341235382997 1
gene  1 3 22 0.18640408048101498 0 2207.0 0.18640408048101498 1
gene  1 8 22 0.7895255688221924 0 2212.0 0.7895255688221924 1
gene  1 10 22 0.9937744152135245 0 2214.0 0.9937744152135245 1
gene  1 11 22 0.1139634812995175 0 2215.0 0.1139634812995175 1
gene  1 13 22 0.7650956406279276 0 2217.0 0.7650956406279276 1
gene  1 15 22 -0.28794874288150674 0 2219.0 -0.28794874288150674 1
gene  1 17 22 0.7766033247824283 0 2221.0 0.7766033247824283 1
gene  1 20 22 -0.06721312376364463 0 2224.0 -0.06721312376364463 1
gene  1 1 23 -0.3652152596192916 0 2310.0 -0.3652152596192916 1
gene  1 3 23 -0.5777191516861717 0 2312.0 -0.5777191516861717 1
gene  1 9 23 -0.1269344748690323 0 2318.0 -0.1269344748690323 1
gene  1 10 23 -0.3716303102906455 0 2319.0 -0.3716303102906455 1
gene  1 11 23 0.39107883481589056 0 2320.0 0.39107883481589056 1
gene  1 13 23 0.038999280366136646 0 2322.0 0.038999280366136646 1
gene  1 14 23 0.21906445668100427 0 2323.0 0.21906445668100427 1
gene  1 20 23 0.3897548392635628 0 2329.0 0.3897548392635628 1
gene  1 22 23 0.415992300470985 0 2331.0 0.415992300470985 1
gene  1 1 24 -0.2660452023599926 0 2415.0 -0.2660452023599926 1
gene  1 4 24 0.5553752332038955 0 2418.0 0.5553752332038955 1
gene  1 6 24 0.6718742063424946 0 2420.0 0.6718742063424946 1
gene  1 7 24 -0.9239758787643756 0 2421.0 -0.9239758787643756 1
gene  1 9 24 -0.9647716299657668 0 2423.0 -0.9647716299657668 1
gene  1 10 24 -0.8210999124614803 0 2424.0 -0.8210999124614803 1
gene  1 11 24 0.8904282452898122 0 2425.0 0.8904282452898122 1
gene  1 15 24 0.6509025346585786 0 2429.0 0.6509025346585786 1
gene  1 17 24 -0.9646213761839078 0 2431.0 -0.9646213761839078 1
gene  1 18 24 -0.6584533512250701 0 2432.0 -0.6584533512250701 1
gene  1 21 24 -0.3684773914136441 0 2435.0 -0.3684773914136441 1
gene  1 23 24 -0.995728750100169 0 2437.0 -0.995728750100169 1
gene  1 1 25 -0.875120455959704 0 2520.0 -0.875120455959704 1
gene  1 4 25 0.22309569043525923 0 2523.0 0.22309569043525923 1
gene  1 5 25 0.5359546164407523 0 2524.0 0.5359546164407523 1
gene  1 7 25 0.3570365839517208 0 2526.0 0.3570365839517208 1
gene  1 10 25 0.7263718540967429 0 2529.0 0.7263718540967429 1
gene  1 11 25 -0.26442570518180863 0 2530.0 -0.26442570518180863 1
gene  1 12 25 -0.2118777960906829 0 2531.0 -0.2118777960906829 1
gene  1 13 25 0.10821744288583446 0 2532.0 0.10821744288583446 1
gene  1 18 25 -0.3956051458611327 0 2537.0 -0.3956051458611327 1
gene  1 19 25 -0.4097267481489215 0 2538.0 -0.4097267481489215 1
gene  1 20 25 0.4722147624977079 0 2539.0 0.4722147624977079 1
gene  1 21 25 -0.7377585712174274 0 2540.0 -0.7377585712174274 1
gene  1 23 25 -0.8803561781706649 0 2542.0 -0.8803561781706649 1
gene  1 24 25 -0.9605951574155758 0 2543.0 -0.9605951574155758 1
gene  1 3 26 0.030454754694136388 0 2627.0 0.030454754694136388 1
gene  1 4 26 0.040059023562842744 0 2628.0 0.040059023562842744 1
gene  1 7 26 0.47137820875147196 0 2631.0 0.47137820875147196 1
gene  1 8 26 -0.6926247858146344 0 2632.0 -0.6926247858146344 1
gene  1 9 26 0.9618142970395388 0 2633.0 0.9618142970395388 1
gene  1 11 26 -0.09720217997253855 0 2635.0 -0.09720217997253855 1
gene  1 13 26 -0.5903340737483634 0 2637.0 -0.5903340737483634 1
gene  1 14 26 -0.2346380071300418 0 2638.0 -0.2346380071300418 1
gene  1 15 26 -0.34492871070056763 0 2639.0 -0.34492871070056763 1
gene  1 16 26 -0.7027140831081008 0 2640.0 -0.7027140831081008 1
gene  1 18 26 -0.7709156608849823 0 2642.0 -0.7709156608849823 1
gene  1 21 26 0.6748473043253432 0 2645.0 0.6748473043253432 1
gene  1 24 26 -0.0012685140085615387 0 2648.0 -0.0012685140085615387 1
gene  1 1 27 -0.2634877367925271 0 2730.0 -0.2634877367925271 1
gene  1 3 27 -0.8063822460614848 0 2732.0 -0.8063822460614848 1
gene  1 6 27 0.16558813716751375 0 2735.0 0.16558813716751375 1
gene  1 7 27 -0.17866201429456618 0 2736.0 -0.17866201429456618 1
gene  1 8 27 0.6040733484525767 0 2737.0 0.6040733484525767 1
gene  1 10 27 0.0875817807137187 0 2739.0 0.0875817807137187 1
gene  1 11 27 0.7774391767278332 0 2740.0 0.7774391767278332 1
gene  1 13 27 -0.3693636495899343 0 2742.0 -0.3693636495899343 1
gene  1 14 27 -0.3761178660893646 0 2743.0 -0.3761178660893646 1
gene  1 15 27 -0.28616849910665043 0 2744.0 -0.28616849910665043 1
gene  1 17 27 0.473773742672859 0 2746.0 0.473773742672859 1
gene  1 21 27 -0.7651238497968524 0 2750.0 -0.7651238497968524 1
gene  1 23 27 -0.44195465922303745 0 2752.0 -0.44195465922303745 1
gene  1 24 27 -0.7676838724616577 0 2753.0 -0.7676838724616577 1
gene  1 25 27 0.35857429141741826 0 2754.0 0.35857429141741826 1
gene  1 26 27 -0.34360202591037015 0 2755.0 -0.34360202591037015 1
gene  1 1 28 0.01164243691356559 0 2835.0 0.01164243691356559 1
gene  1 2 28 0.96502764929393 0 2836.0 0.96502764929393 1
gene  1 5 28 0.7985726015055367 0 2839.0 0.7985726015055367 1
gene  1 6 28 0.6360096496378365 0 2840.0 0.6360096496378365 1
gene  1 8 28 -0.9329486271041845 0 2842.0 -0.9329486271041845 1
gene  1 10 28 0.7180876139958244 0 2844.0 0.7180876139958244 1
gene  1 13 28 0.3747093281640037 0 2847.0 0.3747093281640037 1
gene  1 14 28 -0.6507411990887669 0 2848.0 -0.6507411990887669 1
gene  1 16 28 -0.18906610065378227 0 2850.0 -0.18906610065378227 1
gene  1 18 28 0.6502722085320444 0 2852.0 0.6502722085320444 1
gene  1 19 28 -0.1011721228025666 0 2853.0 -0.1011721228025666 1
gene  1 20 28 -0.6994813214483198 0 2854.0 -0.6994813214483198 1
gene  1 24 28 0.7838091805090144 0 2858.0 0.7838091805090144 1
gene  1 27 28 0.664626574920492 0 2861.0 0.664626574920492 1
gene  1 1 29 -0.9208773350081714 0 2940.0 -0.9208773350081714 1
gene  1 2 29 0.39028750534893786 0 2941.0 0.39028750534893786 1
gene  1 3 29 -0.08260464557454805 0 2942.0 -0.08260464557454805 1
gene  1 6 29 -0.8052105536199752 0 2945.0 -0.8052105536199752 1
gene  1 10 29 0.08659057627575961 0 2949.0 0.08659057627575961 1
gene  1 14 29 -0.38772139638901393 0 2953.0 -0.38772139638901393 1
gene  1 15 29 -0.73309255876683 0 2954.0 -0.73309255876683 1
gene  1 16 29 0.044454359452979486 0 2955.0 0.044454359452979486 1
gene  1 18 29 0.8436943227871718 0 2957.0 0.8436943227871718 1
gene  1 19 29 -0.6864073220232508 0 2958.0 -0.6864073220232508 1
gene  1 21 29 0.27427916240949823 0 2960.0 0.27427916240949823 1
gene  1 23 29 0.07213383728564804 0 2962.0 0.07213383728564804 1
gene  1 24 29 0.5050368100114884 0 2963.0 0.5050368100114884 1
gene  1 25 29 0.7664711890905416 0 2964.0 0.7664711890905416 1
gene  1 26 29 -0.830006632905928 0 2965.0 -0.830006632905928 1
gene  1 27 29 -0.22115170960442443 0 2966.0 -0.22115170960442443 1
gene  1 28 29 -0.9458470928259726 0 2967.0 -0.9458470928259726 1
gene  1 2 30 -0.6840696156210978 0 3046.0 -0.6840696156210978 1
gene  1 6 30 0.1024700419461404 0 3050.0 0.1024700419461404 1
gene  1 7 30 -0.16107239161727172 0 3051.0 -0.16107239161727172 1
gene  1 8 30 -0.1272553076669679 0 3052.0 -0.1272553076669679 1
gene  1 12 30 0.656448409682769 0 3056.0 0.656448409682769 1
gene  1 13 30 -0.5754400998973609 0 3057.0 -0.5754400998973609 1
gene  1 16 30 -0.6108147958639802 0 3060.0 -0.6108147958639802 1
gene  1 18 30 -0.09477578172165302 0 3062.0 -0.09477578172165302 1
gene  1 19 30 -0.20933615211412682 0 3063.0 -0.20933615211412682 1
gene  1 20 30 0.10493496330959429 0 3064.0 0.10493496330959429 1
gene  1 22 30 -0.8024111282394207 0 3066.0 -0.8024111282394207 1
gene  1 25 30 -0.09182441844174216 0 3069.0 -0.09182441844174216 1
gene  1 1 31 0.31751791630969295 0 3150.0 0.31751791630969295 1
gene  1 3 31 0.22689849646632698 0 3152.0 0.22689849646632698 1
gene  1 7 31 0.800514884574807 0 3156.0 0.800514884574807 1
gene  1 8 31 -0.8109602494685962 0 3157.0 -0.8109602494685962 1
gene  1 9 31 -0.9615663268295055 0 3158.0 -0.9615663268295055 1
gene  1 17 31 -0.7159289477845238 0 3166.0 -0.7159289477845238 1
gene  1 18 31 -0.6264924646729674 0 3167.0 -0.6264924646729674 1
gene  1 21 31 -0.19444510932041126 0 3170.0 -0.19444510932041126 1
gene  1 25 31 -0.09121421356829196 0 3174.0 -0.09121421356829196 1
gene  1 29 31 0.46458258248365447 0 3178.0 0.46458258248365447 1
gene  1 30 31 0.8274341846402851 0 3179.0 0.8274341846402851 1
gene  1 1 32 0.6426644699404628 0 3255.0 0.6426644699404628 1
gene  1 3 32 0.4969054346160191 0 3257.0 0.4969054346160191 1
gene  1 4 32 -0.25694623909437886 0 3258.0 -0.25694623909437886 1
gene  1 6 32 -0.09212469229249776 0 3260.0 -0.09212469229249776 1
gene  1 7 32 0.5300791555066159 0 3261.0 0.5300791555066159 1
gene  1 16 32 0.5856923108772186 0 3270.0 0.5856923108772186 1
gene  1 17 32 0.7301016511032002 0 3271.0 0.7301016511032002 1
gene  1 20 32 -0.4676462125743893 0 3274.0 -0.4676462125743893 1
gene  1 22 32 -0.8341884447359916 0 3276.0 -0.8341884447359916 1
gene  1 26 32 -0.49777728727310033 0 3280.0 -0.49777728727310033 1
gene  1 28 32 -0.8592373696078751 0 3282.0 -0.8592373696078751 1
gene  1 29 32 -0.9384525838895161 0 3283.0 -0.9384525838895161 1
gene  1 31 32 -0.7083644588215366 0 3285.0 -0.7083644588215366 1
gene  1 1 33 0.5194087242118215 0 3360.0 0.5194087242118215 1
gene  1 2 33 -0.8823228177521505 0 3361.0 -0.8823228177521505 1
gene  1 3 33 -0.6579230835365171 0 3362.0 -0.6579230835365171 1
gene  1 5 33 -0.4636227035976609 0 3364.0 -0.4636227035976609 1
gene  1 7 33 -0.90220269587756 0 3366.0 -0.90220269587756 1
gene  1 8 33 0.2736371239181722 0 3367.0 0.2736371239181722 1
gene  1 15 33 0.08093586509939832 0 3374.0 0.08093586509939832 1
gene  1 16 33 -0.6410567977616053 0 3375.0 -0.6410567977616053 1
gene  1 18 33 -0.21581241227812487 0 3377.0 -0.21581241227812487 1
gene  1 21 33 -0.3666144170837632 0 3380.0 -0.3666144170837632 1
gene  1 23 33 0.0421166027578167 0 3382.0 0.0421166027578167 1
gene  1 24 33 -0.3637952680543025 0 3383.0 -0.3637952680543025 1
gene  1 25 33 -0.38961776376346524 0 3384.0 -0.38961776376346524 1
gene  1 26 33 -0.5593722730007344 0 3385.0 -0.5593722730007344 1
gene  1 27 33 0.41222067401159446 0 3386.0 0.41222067401159446 1
gene  1 28 33 0.6473168793188753 0 3387.0 0.6473168793188753 1
gene  1 31 33 -0.9610505172907174 0 3390.0 -0.9610505172907174 1
gene  1 5 34 0.8642504551121902 0 3469.0 0.8642504551121902 1
gene  1 7 34 0.09557385359194315 0 3471.0 0.09557385359194315 1
gene  1 12 34 0.7465468873649092 0 3476.0 0.7465468873649092 1
gene  1 13 34 0.48646688835066987 0 3477.0 0.48646688835066987 1
gene  1 16 34 0.398400493189874 0 3480.0 0.398400493189874 1
gene  1 17 34 0.6024780107549783 0 3481.0 0.6024780107549783 1
gene  1 19 34 -0.33848207669697405 0 3483.0 -0.33848207669697405 1
gene  1 20 34 1.717723231583479E-4 0 3484.0 1.717723231583479E-4 1
gene  1 23 34 0.37799955494966797 0 3487.0 0.37799955494966797 1
gene  1 24 34 -0.3367116768487952 0 3488.0 -0.3367116768487952 1
gene  1 27 34 0.5256651124722611 0 3491.0 0.5256651124722611 1
gene  1 30 34 0.16519735017202086 0 3494.0 0.16519735017202086 1
gene  1 31 34 -0.2554646985911774 0 3495.0 -0.2554646985911774 1
gene  1 32 34 -0.7213218509660132 0 3496.0 -0.7213218509660132 1
gene  1 33 34 -0.42853275993259876 0 3497.0 -0.42853275993259876 1
gene  1 1 35 0.8545358133837299 0 3570.0 0.8545358133837299 1
gene  1 6 35 -0.9179310652523678 0 3575.0 -0.9179310652523678 1
gene  1 8 35 0.784289456507819 0 3577.0 0.784289456507819 1
gene  1 11 35 -0.8777534853776909 0 3580.0 -0.8777534853776909 1
gene  1 13 35 -0.26438376599283553 0 3582.0 -0.26438376599283553 1
gene  1 15 35 -0.7964301926743551 0 3584.0 -0.7964301926743551 1
gene  1 17 35 0.3247096582307897 0 3586.0 0.3247096582307897 1
gene  1 18 35 -0.2697830025060274 0 3587.0 -0.2697830025060274 1
gene  1 19 35 0.8941139099859702 0 3588.0 0.8941139099859702 1
gene  1 23 35 -0.37822777014729625 0 3592.0 -0.37822777014729625 1
gene  1 24 35 -0.062082482486164214 0 3593.0 -0.062082482486164214 1
gene  1 26 35 0.5930072980061752 0 3595.0 0.5930072980061752 1
gene  1 29 35 -0.35556199158718615 0 3598.0 -0.35556199158718615 1
gene  1 34 35 -0.8886043180698331 0 3603.0 -0.8886043180698331 1
gene  1 1 36 -0.5652658151573531 0 3675.0 -0.5652658151573531 1
gene  1 2 36 0.5353962111137011 0 3676.0 0.5353962111137011 1
gene  1 6 36 -0.6930930761199142 0 3680.0 -0.6930930761199142 1
gene  1 7 36 -0.8413026435468064 0 3681.0 -0.8413026435468064 1
gene  1 9 36 0.3895732476989109 0 3683.0 0.3895732476989109 1
gene  1 10 36 -0.24931243347650833 0 3684.0 -0.24931243347650833 1
gene  1 11 36 -0.823954291812806 0 3685.0 -0.823954291812806 1
gene  1 12 36 -0.13662157527242635 0 3686.0 -0.13662157527242635 1
gene  1 16 36 0.8932585455362201 0 3690.0 0.8932585455362201 1
gene  1 17 36 -0.061146164248057966 0 3691.0 -0.061146164248057966 1
gene  1 19 36 0.6356716657270103 0 3693.0 0.6356716657270103 1
gene  1 20 36 -0.40977573331307837 0 3694.0 -0.40977573331307837 1
gene  1 21 36 -0.12794158419995916 0 3695.0 -0.12794158419995916 1
gene  1 23 36 -0.19327969739888984 0 3697.0 -0.19327969739888984 1
gene  1 24 36 -0.9156182328137954 0 3698.0 -0.9156182328137954 1
gene  1 25 36 0.2561095389845638 0 3699.0 0.2561095389845638 1
gene  1 27 36 -0.017999600102436064 0 3701.0 -0.017999600102436064 1
gene  1 29 36 0.41841457800290105 0 3703.0 0.41841457800290105 1
gene  1 31 36 -0.5211618831553587 0 3705.0 -0.5211618831553587 1
gene  1 32 36 -0.7498734422708214 0 3706.0 -0.7498734422708214 1
gene  1 34 36 -0.5750485335874357 0 3708.0 -0.5750485335874357 1
gene  1 35 36 0.730771646525793 0 3709.0 0.730771646525793 1
gene  1 5 37 -0.3326543697564506 0 3784.0 -0.3326543697564506 1
gene  1 6 37 -0.6547343219653942 0 3785.0 -0.6547343219653942 1
gene  1 7 37 0.9957248903438525 0 3786.0 0.9957248903438525 1
gene  1 8 37 -0.3187363928991217 0 3787.0 -0.3187363928991217 1
gene  1 9 37 -0.5434903184016364 0 3788.0 -0.5434903184016364 1
gene  1 10 37 -0.831572243453881 0 3789.0 -0.831572243453881 1
gene  1 11 37 -0.3212733695035803 0 3790.0 -0.3212733695035803 1
gene  1 12 37 -0.8171750729032663 0 3791.0 -0.8171750729032663 1
gene  1 13 37 0.6309582162421647 0 3792.0 0.6309582162421647 1
gene  1 14 37 0.37635642140372083 0 3793.0 0.37635642140372083 1
gene  1 16 37 0.6000537809388818 0 3795.0 0.6000537809388818 1
gene  1 19 37 0.44727435777293456 0 3798.0 0.44727435777293456 1
gene  1 20 37 0.9899149274872728 0 3799.0 0.9899149274872728 1
gene  1 24 37 0.8713148799379469 0 3803.0 0.8713148799379469 1
gene  1 25 37 0.6899766952352776 0 3804.0 0.6899766952352776 1
gene  1 27 37 -0.8941164273301679 0 3806.0 -0.8941164273301679 1
gene  1 28 37 -0.19160483760475056 0 3807.0 -0.19160483760475056 1
gene  1 29 37 0.06891118440879263 0 3808.0 0.06891118440879263 1
gene  1 30 37 -0.5149130887122846 0 3809.0 -0.5149130887122846 1
gene  1 32 37 -0.7884248927648291 0 3811.0 -0.7884248927648291 1
gene  1 34 37 -0.31725310805779494 0 3813.0 -0.31725310805779494 1
gene  1 4 38 -0.22238623949360303 0 3888.0 -0.22238623949360303 1
gene  1 7 38 -0.5920271132902473 0 3891.0 -0.5920271132902473 1
gene  1 8 38 0.34451437950730013 0 3892.0 0.34451437950730013 1
gene  1 9 38 -0.8973044346766451 0 3893.0 -0.8973044346766451 1
gene  1 10 38 0.8602606865451473 0 3894.0 0.8602606865451473 1
gene  1 15 38 0.36735168157976206 0 3899.0 0.36735168157976206 1
gene  1 17 38 0.9413273302678443 0 3901.0 0.9413273302678443 1
gene  1 18 38 0.9211418166251808 0 3902.0 0.9211418166251808 1
gene  1 19 38 -0.9160431456851438 0 3903.0 -0.9160431456851438 1
gene  1 20 38 -0.5232426096298206 0 3904.0 -0.5232426096298206 1
gene  1 21 38 -0.33180734897441355 0 3905.0 -0.33180734897441355 1
gene  1 22 38 0.8494706016765357 0 3906.0 0.8494706016765357 1
gene  1 27 38 -0.9686464990014327 0 3911.0 -0.9686464990014327 1
gene  1 29 38 -0.18896024260223676 0 3913.0 -0.18896024260223676 1
gene  1 30 38 -0.3263692501000507 0 3914.0 -0.3263692501000507 1
gene  1 31 38 -0.9148279904678571 0 3915.0 -0.9148279904678571 1
gene  1 32 38 0.7332504140858938 0 3916.0 0.7332504140858938 1
gene  1 33 38 -0.42676197329598065 0 3917.0 -0.42676197329598065 1
gene  1 35 38 0.551890444377099 0 3919.0 0.551890444377099 1
gene  1 36 38 0.5092927716016336 0 3920.0 0.5092927716016336 1
gene  1 1 39 -0.5355061475190661 0 3990.0 -0.5355061475190661 1
gene  1 3 39 0.5596495881920509 0 3992.0 0.5596495881920509 1
gene  1 6 39 -0.5558505063619058 0 3995.0 -0.5558505063619058 1
gene  1 7 39 -0.5787133110619335 0 3996.0 -0.5787133110619335 1
gene  1 9 39 -0.08238331407339283 0 3998.0 -0.08238331407339283 1
gene  1 18 39 0.7292761036640297 0 4007.0 0.7292761036640297 1
gene  1 21 39 -0.6577407672840612 0 4010.0 -0.6577407672840612 1
gene  1 22 39 -0.5378073657201977 0 4011.0 -0.5378073657201977 1
gene  1 23 39 0.5482980875626173 0 4012.0 0.5482980875626173 1
gene  1 25 39 -0.44633059115931795 0 4014.0 -0.44633059115931795 1
gene  1 27 39 0.5827894020579816 0 4016.0 0.5827894020579816 1
gene  1 30 39 -0.8303542443482255 0 4019.0 -0.8303542443482255 1
gene  1 32 39 -0.572514336329808 0 4021.0 -0.572514336329808 1
gene  1 33 39 -0.04071205003535949 0 4022.0 -0.04071205003535949 1
gene  1 34 39 0.81690588305407 0 4023.0 0.81690588305407 1
gene  1 35 39 -0.3453126929138507 0 4024.0 -0.3453126929138507 1
gene  1 37 39 -0.8196135666105427 0 4026.0 -0.8196135666105427 1
gene  1 1 40 -0.6015772768028904 0 4095.0 -0.6015772768028904 1
gene  1 3 40 0.5514240088256017 0 4097.0 0.5514240088256017 1
gene  1 4 40 -0.09684510914853783 0 4098.0 -0.09684510914853783 1
gene  1 5 40 -0.00490984900081004 0 4099.0 -0.00490984900081004 1
gene  1 6 40 0.7813781199720566 0 4100.0 0.7813781199720566 1
gene  1 13 40 -0.03097512545103298 0 4107.0 -0.03097512545103298 1
gene  1 15 40 -0.9395749167433798 0 4109.0 -0.9395749167433798 1
gene  1 20 40 -0.8062362975861115 0 4114.0 -0.8062362975861115 1
gene  1 21 40 -0.33364413470056764 0 4115.0 -0.33364413470056764 1
gene  1 26 40 0.55128307167101 0 4120.0 0.55128307167101 1
gene  1 27 40 -0.3474878539688394 0 4121.0 -0.3474878539688394 1
gene  1 28 40 0.5571206063203133 0 4122.0 0.5571206063203133 1
gene  1 31 40 0.3687409000391323 0 4125.0 0.3687409000391323 1
gene  1 32 40 0.4838490272609848 0 4126.0 0.4838490272609848 1
gene  1 33 40 -0.08512338336917646 0 4127.0 -0.08512338336917646 1
gene  1 34 40 0.5879434257118534 0 4128.0 0.5879434257118534 1
gene  1 38 40 0.4992473022956221 0 4132.0 0.4992473022956221 1
gene  1 39 40 0.7237699909323848 0 4133.0 0.7237699909323848 1
gene  1 2 41 0.764379529242873 0 4201.0 0.764379529242873 1
gene  1 4 41 0.20455691721471658 0 4203.0 0.20455691721471658 1
gene  1 8 41 0.5579205606289983 0 4207.0 0.5579205606289983 1
gene  1 12 41 0.29206736398344846 0 4211.0 0.29206736398344846 1
gene  1 13 41 0.05253575544099931 0 4212.0 0.05253575544099931 1
gene  1 14 41 -0.5807243261949425 0 4213.0 -0.5807243261949425 1
gene  1 16 41 0.7043088169507891 0 4215.0 0.7043088169507891 1
gene  1 18 41 -0.3860245210178369 0 4217.0 -0.3860245210178369 1
gene  1 19 41 0.5920243104579408 0 4218.0 0.5920243104579408 1
gene  1 22 41 -0.9136980599291736 0 4221.0 -0.9136980599291736 1
gene  1 23 41 -0.08565379226212211 0 4222.0 -0.08565379226212211 1
gene  1 26 41 0.6056516279957266 0 4225.0 0.6056516279957266 1
gene  1 30 41 0.34696438629904747 0 4229.0 0.34696438629904747 1
gene  1 31 41 0.5327268154961243 0 4230.0 0.5327268154961243 1
gene  1 33 41 0.9254019170153467 0 4232.0 0.9254019170153467 1
gene  1 36 41 -0.021397087573248985 0 4235.0 -0.021397087573248985 1
gene  1 3 42 0.11430403977410031 0 4307.0 0.11430403977410031 1
gene  1 4 42 -0.8490926955936066 0 4308.0 -0.8490926955936066 1
gene  1 7 42 -0.9168882569080897 0 4311.0 -0.9168882569080897 1
gene  1 8 42 -0.05186288859665511 0 4312.0 -0.05186288859665511 1
gene  1 9 42 0.759257519880543 0 4313.0 0.759257519880543 1
gene  1 10 42 0.043622709047688946 0 4314.0 0.043622709047688946 1
gene  1 13 42 0.08592438310243666 0 4317.0 0.08592438310243666 1
gene  1 14 42 0.1391903592472904 0 4318.0 0.1391903592472904 1
gene  1 16 42 -0.45811756823970995 0 4320.0 -0.45811756823970995 1
gene  1 20 42 0.7630653455824478 0 4324.0 0.7630653455824478 1
gene  1 21 42 0.13633668670857158 0 4325.0 0.13633668670857158 1
gene  1 24 42 -0.026971937404033475 0 4328.0 -0.026971937404033475 1
gene  1 29 42 0.8808797410103828 0 4333.0 0.8808797410103828 1
gene  1 30 42 0.25921759466644667 0 4334.0 0.25921759466644667 1
gene  1 32 42 0.5360662972139648 0 4336.0 0.5360662972139648 1
gene  1 36 42 0.12839369037736603 0 4340.0 0.12839369037736603 1
gene  1 37 42 -0.01772544257825337 0 4341.0 -0.01772544257825337 1
gene  1 2 43 0.88255105543254 0 4411.0 0.88255105543254 1
gene  1 3 43 0.864232113060344 0 4412.0 0.864232113060344 1
gene  1 4 43 -0.32258279080641605 0 4413.0 -0.32258279080641605 1
gene  1 8 43 0.8654384594915698 0 4417.0 0.8654384594915698 1
gene  1 9 43 -0.5230128410266484 0 4418.0 -0.5230128410266484 1
gene  1 10 43 -0.894427152585202 0 4419.0 -0.894427152585202 1
gene  1 13 43 -0.3209561160522507 0 4422.0 -0.3209561160522507 1
gene  1 16 43 -0.7323140159769707 0 4425.0 -0.7323140159769707 1
gene  1 18 43 -0.9717392267062548 0 4427.0 -0.9717392267062548 1
gene  1 19 43 -0.5061906796287855 0 4428.0 -0.5061906796287855 1
gene  1 21 43 0.023247208781520978 0 4430.0 0.023247208781520978 1
gene  1 23 43 0.7049741838746247 0 4432.0 0.7049741838746247 1
gene  1 26 43 -0.6150601366305395 0 4435.0 -0.6150601366305395 1
gene  1 29 43 -0.31167692320271756 0 4438.0 -0.31167692320271756 1
gene  1 30 43 0.5397136698878775 0 4439.0 0.5397136698878775 1
gene  1 33 43 -0.23151819076023605 0 4442.0 -0.23151819076023605 1
gene  1 36 43 -0.8322145173302608 0 4445.0 -0.8322145173302608 1
gene  1 37 43 -0.1715018946616611 0 4446.0 -0.1715018946616611 1
gene  1 39 43 -0.5310523028325358 0 4448.0 -0.5310523028325358 1
gene  1 40 43 -0.6182741174457156 0 4449.0 -0.6182741174457156 1
gene  1 42 43 -0.775832268397515 0 4451.0 -0.775832268397515 1
gene  1 2 44 -0.9129441742963512 0 4516.0 -0.9129441742963512 1
gene  1 3 44 0.434407443923999 0 4517.0 0.434407443923999 1
gene  1 4 44 -0.9896200568955464 0 4518.0 -0.9896200568955464 1
gene  1 10 44 0.3040407900460136 0 4524.0 0.3040407900460136 1
gene  1 12 44 -0.2123304398487984 0 4526.0 -0.2123304398487984 1
gene  1 16 44 0.9605589425248217 0 4530.0 0.9605589425248217 1
gene  1 17 44 0.3213202361565064 0 4531.0 0.3213202361565064 1
gene  1 18 44 -0.9989659862985216 0 4532.0 -0.9989659862985216 1
gene  1 19 44 -0.9656537541892761 0 4533.0 -0.9656537541892761 1
gene  1 21 44 -0.9062989315264453 0 4535.0 -0.9062989315264453 1
gene  1 22 44 0.09886598171384309 0 4536.0 0.09886598171384309 1
gene  1 24 44 -0.8517423441993078 0 4538.0 -0.8517423441993078 1
gene  1 27 44 0.5482277318441633 0 4541.0 0.5482277318441633 1
gene  1 29 44 -0.003914069815145194 0 4543.0 -0.003914069815145194 1
gene  1 30 44 -0.9665844710235553 0 4544.0 -0.9665844710235553 1
gene  1 31 44 -0.08161620948902226 0 4545.0 -0.08161620948902226 1
gene  1 32 44 -0.20332560829718538 0 4546.0 -0.20332560829718538 1
gene  1 34 44 -0.8877095629228582 0 4548.0 -0.8877095629228582 1
gene  1 36 44 0.08582219511536593 0 4550.0 0.08582219511536593 1
gene  1 38 44 -0.058393637859323944 0 4552.0 -0.058393637859323944 1
gene  1 39 44 0.7460156860607308 0 4553.0 0.7460156860607308 1
gene  1 40 44 -0.6911551036466351 0 4554.0 -0.6911551036466351 1
gene  1 42 44 -0.39823499045729094 0 4556.0 -0.39823499045729094 1
gene  1 43 44 -0.6447934239788978 0 4557.0 -0.6447934239788978 1
gene  1 1 45 -0.7133850213156578 0 4620.0 -0.7133850213156578 1
gene  1 2 45 0.6773817503928187 0 4621.0 0.6773817503928187 1
gene  1 6 45 0.3519150096974829 0 4625.0 0.3519150096974829 1
gene  1 7 45 0.8090373009189696 0 4626.0 0.8090373009189696 1
gene  1 8 45 0.7245187110992294 0 4627.0 0.7245187110992294 1
gene  1 9 45 0.2646701091932193 0 4628.0 0.2646701091932193 1
gene  1 10 45 0.07441991902261613 0 4629.0 0.07441991902261613 1
gene  1 11 45 0.7784386023757264 0 4630.0 0.7784386023757264 1
gene  1 12 45 -0.8683241668051257 0 4631.0 -0.8683241668051257 1
gene  1 13 45 -0.9358787293390529 0 4632.0 -0.9358787293390529 1
gene  1 15 45 -0.32027830482128694 0 4634.0 -0.32027830482128694 1
gene  1 21 45 0.6214076986731165 0 4640.0 0.6214076986731165 1
gene  1 24 45 0.44678440099891503 0 4643.0 0.44678440099891503 1
gene  1 26 45 -0.6494727057297532 0 4645.0 -0.6494727057297532 1
gene  1 27 45 0.5556450835469702 0 4646.0 0.5556450835469702 1
gene  1 29 45 -0.12712359434644716 0 4648.0 -0.12712359434644716 1
gene  1 31 45 0.9445933916327279 0 4650.0 0.9445933916327279 1
gene  1 34 45 0.3173113237870834 0 4653.0 0.3173113237870834 1
gene  1 35 45 0.21575790683850815 0 4654.0 0.21575790683850815 1
gene  1 39 45 0.4774449108994442 0 4658.0 0.4774449108994442 1
gene  1 42 45 0.04934763341956605 0 4661.0 0.04934763341956605 1
gene  1 43 45 -0.7323959582911628 0 4662.0 -0.7323959582911628 1
gene  1 44 45 -0.849865268945348 0 4663.0 -0.849865268945348 1
gene  1 1 46 0.11214671192929293 0 4725.0 0.11214671192929293 1
gene  1 3 46 0.33239015301299146 0 4727.0 0.33239015301299146 1
gene  1 5 46 0.554499587848816 0 4729.0 0.554499587848816 1
gene  1 8 46 0.5933987479307403 0 4732.0 0.5933987479307403 1
gene  1 15 46 -0.6233424440325934 0 4739.0 -0.6233424440325934 1
gene  1 16 46 -0.5387561692277805 0 4740.0 -0.5387561692277805 1
gene  1 17 46 -0.8635046218564049 0 4741.0 -0.8635046218564049 1
gene  1 18 46 0.14025909214325905 0 4742.0 0.14025909214325905 1
gene  1 21 46 -0.5844270111926041 0 4745.0 -0.5844270111926041 1
gene  1 22 46 -0.5920521849665316 0 4746.0 -0.5920521849665316 1
gene  1 25 46 0.6242478664804622 0 4749.0 0.6242478664804622 1
gene  1 26 46 0.26296689852486477 0 4750.0 0.26296689852486477 1
gene  1 27 46 0.13887904355086333 0 4751.0 0.13887904355086333 1
gene  1 29 46 0.45999055833694824 0 4753.0 0.45999055833694824 1
gene  1 31 46 0.6619710811287131 0 4755.0 0.6619710811287131 1
gene  1 32 46 -0.5007598522510247 0 4756.0 -0.5007598522510247 1
gene  1 33 46 -0.5199829299975879 0 4757.0 -0.5199829299975879 1
gene  1 36 46 -0.05905101252135869 0 4760.0 -0.05905101252135869 1
gene  1 41 46 0.3977320469786384 0 4765.0 0.3977320469786384 1
gene  1 3 47 -0.1330363076638056 0 4832.0 -0.1330363076638056 1
gene  1 4 47 0.6285433172959407 0 4833.0 0.6285433172959407 1
gene  1 5 47 0.8095750124694144 0 4834.0 0.8095750124694144 1
gene  1 8 47 -0.34635447187340085 0 4837.0 -0.34635447187340085 1
gene  1 10 47 0.12726548923458691 0 4839.0 0.12726548923458691 1
gene  1 11 47 0.4059140437779557 0 4840.0 0.4059140437779557 1
gene  1 13 47 -0.23962046346744148 0 4842.0 -0.23962046346744148 1
gene  1 15 47 0.928068099026464 0 4844.0 0.928068099026464 1
gene  1 18 47 0.7178950306936117 0 4847.0 0.7178950306936117 1
gene  1 20 47 0.15746755116683242 0 4849.0 0.15746755116683242 1
gene  1 21 47 -0.9280897720387126 0 4850.0 -0.9280897720387126 1
gene  1 22 47 0.4156691770610257 0 4851.0 0.4156691770610257 1
gene  1 23 47 -0.37905328548883166 0 4852.0 -0.37905328548883166 1
gene  1 27 47 -0.7196874956031319 0 4856.0 -0.7196874956031319 1
gene  1 28 47 0.872844241389372 0 4857.0 0.872844241389372 1
gene  1 29 47 0.24295133631701105 0 4858.0 0.24295133631701105 1
gene  1 32 47 -0.6140035962222373 0 4861.0 -0.6140035962222373 1
gene  1 34 47 -0.5444448862308539 0 4863.0 -0.5444448862308539 1
gene  1 35 47 0.16245992293227263 0 4864.0 0.16245992293227263 1
gene  1 39 47 -0.5828231112532974 0 4868.0 -0.5828231112532974 1
gene  1 44 47 -0.5352755390659534 0 4873.0 -0.5352755390659534 1
gene  1 45 47 -0.37816335195963935 0 4874.0 -0.37816335195963935 1
gene  1 46 47 -0.2625657428525916 0 4875.0 -0.2625657428525916 1
gene  1 1 48 -0.19482601293179813 0 4935.0 -0.19482601293179813 1
gene  1 4 48 0.15996428554766617 0 4938.0 0.15996428554766617 1
gene  1 7 48 0.3323116029516282 0 4941.0 0.3323116029516282 1
gene  1 9 48 0.7378091940004062 0 4943.0 0.7378091940004062 1
gene  1 11 48 -0.4059519183718098 0 4945.0 -0.4059519183718098 1
gene  1 15 48 0.625514983244371 0 4949.0 0.625514983244371 1
gene  1 18 48 0.22517601478937832 0 4952.0 0.22517601478937832 1
gene  1 20 48 -0.3037719769940299 0 4954.0 -0.3037719769940299 1
gene  1 23 48 0.5743653546731363 0 4957.0 0.5743653546731363 1
gene  1 24 48 0.7449363898929952 0 4958.0 0.7449363898929952 1
gene  1 26 48 0.18273483094066 0 4960.0 0.18273483094066 1
gene  1 28 48 0.5218320736881848 0 4962.0 0.5218320736881848 1
gene  1 31 48 -0.07587078697889482 0 4965.0 -0.07587078697889482 1
gene  1 33 48 0.9912292907365908 0 4967.0 0.9912292907365908 1
gene  1 34 48 0.5376218237591981 0 4968.0 0.5376218237591981 1
gene  1 35 48 -0.543142973769227 0 4969.0 -0.543142973769227 1
gene  1 36 48 0.315112472406205 0 4970.0 0.315112472406205 1
gene  1 38 48 0.8251592867481317 0 4972.0 0.8251592867481317 1
gene  1 39 48 -0.08795254645941875 0 4973.0 -0.08795254645941875 1
gene  1 40 48 0.20155065915200032 0 4974.0 0.20155065915200032 1
gene  1 44 48 -0.29931022881295466 0 4978.0 -0.29931022881295466 1
gene  1 45 48 0.3765164713302629 0 4979.0 0.3765164713302629 1
gene  1 47 48 -0.15988526113721457 0 4981.0 -0.15988526113721457 1
gene  1 3 49 -0.6222466595957012 0 5042.0 -0.6222466595957012 1
gene  1 6 49 0.20795260254350778 0 5045.0 0.20795260254350778 1
gene  1 7 49 -0.6467222426867917 0 5046.0 -0.6467222426867917 1
gene  1 8 49 -0.6562721820185315 0 5047.0 -0.6562721820185315 1
gene  1 9 49 0.822987584561963 0 5048.0 0.822987584561963 1
gene  1 13 49 -0.1677983441502594 0 5052.0 -0.1677983441502594 1
gene  1 14 49 0.33198387716494826 0 5053.0 0.33198387716494826 1
gene  1 17 49 -0.22506984098264804 0 5056.0 -0.22506984098264804 1
gene  1 18 49 0.5543987583562789 0 5057.0 0.5543987583562789 1
gene  1 19 49 -0.10365763336816813 0 5058.0 -0.10365763336816813 1
gene  1 22 49 0.9549451647444063 0 5061.0 0.9549451647444063 1
gene  1 23 49 -0.8111401006368357 0 5062.0 -0.8111401006368357 1
gene  1 25 49 -0.668700097465649 0 5064.0 -0.668700097465649 1
gene  1 26 49 0.32099656315829206 0 5065.0 0.32099656315829206 1
gene  1 27 49 -0.5446053139582305 0 5066.0 -0.5446053139582305 1
gene  1 31 49 -0.48888138244930635 0 5070.0 -0.48888138244930635 1
gene  1 32 49 0.4824958449307316 0 5071.0 0.4824958449307316 1
gene  1 34 49 0.11006469632712468 0 5073.0 0.11006469632712468 1
gene  1 36 49 -0.5967126008592109 0 5075.0 -0.5967126008592109 1
gene  1 37 49 -0.5453538236000266 0 5076.0 -0.5453538236000266 1
gene  1 38 49 -0.06628420418256864 0 5077.0 -0.06628420418256864 1
gene  1 40 49 -0.6009916306979709 0 5079.0 -0.6009916306979709 1
gene  1 42 49 0.37930265934954843 0 5081.0 0.37930265934954843 1
gene  1 46 49 -0.08814571713095853 0 5085.0 -0.08814571713095853 1
gene  1 47 49 -0.8551692045626352 0 5086.0 -0.8551692045626352 1
gene  1 1 50 -0.7875195382599851 0 5145.0 -0.7875195382599851 1
gene  1 3 50 0.8918286036643936 0 5147.0 0.8918286036643936 1
gene  1 4 50 0.8924954350657845 0 5148.0 0.8924954350657845 1
gene  1 5 50 0.9328722640492425 0 5149.0 0.9328722640492425 1
gene  1 8 50 0.750492113500418 0 5152.0 0.750492113500418 1
gene  1 13 50 0.4345891296286416 0 5157.0 0.4345891296286416 1
gene  1 14 50 0.04082394247062049 0 5158.0 0.04082394247062049 1
gene  1 15 50 -0.3423955333771552 0 5159.0 -0.3423955333771552 1
gene  1 21 50 -0.8120373909495925 0 5165.0 -0.8120373909495925 1
gene  1 22 50 -0.9629373447418186 0 5166.0 -0.9629373447418186 1
gene  1 23 50 0.016922773069999675 0 5167.0 0.016922773069999675 1
gene  1 27 50 0.6663111815409181 0 5171.0 0.6663111815409181 1
gene  1 29 50 0.5330723423407542 0 5173.0 0.5330723423407542 1
gene  1 30 50 0.27496395329465584 0 5174.0 0.27496395329465584 1
gene  1 31 50 0.028022857541215807 0 5175.0 0.028022857541215807 1
gene  1 32 50 -0.28924062916857496 0 5176.0 -0.28924062916857496 1
gene  1 35 50 -0.010203113218318238 0 5179.0 -0.010203113218318238 1
gene  1 37 50 0.8707807074822382 0 5181.0 0.8707807074822382 1
gene  1 38 50 -0.28166324507162643 0 5182.0 -0.28166324507162643 1
gene  1 39 50 0.3931226318518024 0 5183.0 0.3931226318518024 1
gene  1 40 50 0.9475526482273786 0 5184.0 0.9475526482273786 1
gene  1 41 50 -0.7068487553440532 0 5185.0 -0.7068487553440532 1
gene  1 42 50 -0.9408796623724256 0 5186.0 -0.9408796623724256 1
gene  1 45 50 -0.07770017797076079 0 5189.0 -0.07770017797076079 1
gene  1 46 50 -0.07315331112475232 0 5190.0 -0.07315331112475232 1
gene  1 47 50 0.4025406135301698 0 5191.0 0.4025406135301698 1
gene  1 49 50 -0.33031219994005223 0 5193.0 -0.33031219994005223 1
gene  1 1 51 -0.5765105610434117 0 5250.0 -0.5765105610434117 1
gene  1 2 51 0.971299745743838 0 5251.0 0.971299745743838 1
gene  1 3 51 0.012708229706595797 0 5252.0 0.012708229706595797 1
gene  1 4 51 0.3363335977553821 0 5253.0 0.3363335977553821 1
gene  1 5 51 -0.4316414152112892 0 5254.0 -0.4316414152112892 1
gene  1 6 51 0.6290530528135752 0 5255.0 0.6290530528135752 1
gene  1 9 51 0.7057404461155881 0 5258.0 0.7057404461155881 1
gene  1 11 51 0.6145461314244568 0 5260.0 0.6145461314244568 1
gene  1 14 51 -0.5745954651434146 0 5263.0 -0.5745954651434146 1
gene  1 15 51 0.49867658903318046 0 5264.0 0.49867658903318046 1
gene  1 16 51 -0.44959904133331385 0 5265.0 -0.44959904133331385 1
gene  1 18 51 0.3256797453535213 0 5267.0 0.3256797453535213 1
gene  1 19 51 0.45863866976229795 0 5268.0 0.45863866976229795 1
gene  1 21 51 0.6943007723995063 0 5270.0 0.6943007723995063 1
gene  1 22 51 -0.648656548883488 0 5271.0 -0.648656548883488 1
gene  1 24 51 0.4131187478066315 0 5273.0 0.4131187478066315 1
gene  1 26 51 0.9197190030429135 0 5275.0 0.9197190030429135 1
gene  1 30 51 -0.8410662165423965 0 5279.0 -0.8410662165423965 1
gene  1 31 51 -0.053742218355856464 0 5280.0 -0.053742218355856464 1
gene  1 32 51 0.5184332030016932 0 5281.0 0.5184332030016932 1
gene  1 37 51 -0.07503404849644135 0 5286.0 -0.07503404849644135 1
gene  1 39 51 -0.8332642750118561 0 5288.0 -0.8332642750118561 1
gene  1 41 51 -0.8204172968180637 0 5290.0 -0.8204172968180637 1
gene  1 44 51 0.22121529744106738 0 5293.0 0.22121529744106738 1
gene  1 45 51 0.8640764847100744 0 5294.0 0.8640764847100744 1
gene  1 46 51 -0.3238393522738924 0 5295.0 -0.3238393522738924 1
gene  1 47 51 -0.37181626883754426 0 5296.0 -0.37181626883754426 1
gene  1 48 51 -0.46141423930406356 0 5297.0 -0.46141423930406356 1
gene  1 50 51 0.40684463415642824 0 5299.0 0.40684463415642824 1
gene  1 1 52 -0.6346720337715123 0 5355.0 -0.6346720337715123 1
gene  1 2 52 -0.4599436416195688 0 5356.0 -0.4599436416195688 1
gene  1 7 52 -0.44079911445536724 0 5361.0 -0.44079911445536724 1
gene  1 9 52 0.10509877361819875 0 5363.0 0.10509877361819875 1
gene  1 10 52 0.15333118664860956 0 5364.0 0.15333118664860956 1
gene  1 11 52 0.16251929149855437 0 5365.0 0.16251929149855437 1
gene  1 12 52 -0.549098275358251 0 5366.0 -0.549098275358251 1
gene  1 13 52 -0.7991759145681734 0 5367.0 -0.7991759145681734 1
gene  1 16 52 0.35985385625591215 0 5370.0 0.35985385625591215 1
gene  1 20 52 -0.32261207248693546 0 5374.0 -0.32261207248693546 1
gene  1 22 52 0.5730913714042168 0 5376.0 0.5730913714042168 1
gene  1 24 52 -0.5659193887952972 0 5378.0 -0.5659193887952972 1
gene  1 26 52 -0.8333374929680765 0 5380.0 -0.8333374929680765 1
gene  1 29 52 -0.37855075510093605 0 5383.0 -0.37855075510093605 1
gene  1 30 52 -0.6361574624467689 0 5384.0 -0.6361574624467689 1
gene  1 31 52 0.20059006105172483 0 5385.0 0.20059006105172483 1
gene  1 32 52 0.8338448638365169 0 5386.0 0.8338448638365169 1
gene  1 34 52 -0.5569966675369734 0 5388.0 -0.5569966675369734 1
gene  1 37 52 0.603583431670012 0 5391.0 0.603583431670012 1
gene  1 38 52 -0.6619266256039847 0 5392.0 -0.6619266256039847 1
gene  1 39 52 -0.9858364300561154 0 5393.0 -0.9858364300561154 1
gene  1 40 52 0.8495140292611725 0 5394.0 0.8495140292611725 1
gene  1 45 52 0.5567525969984379 0 5399.0 0.5567525969984379 1
gene  1 46 52 0.9164179031712506 0 5400.0 0.9164179031712506 1
gene  1 49 52 -0.8349382559787204 0 5403.0 -0.8349382559787204 1
gene  1 50 52 -0.07127458950459054 0 5404.0 -0.07127458950459054 1
gene  1 4 53 -0.9779888530167352 0 5463.0 -0.9779888530167352 1
gene  1 10 53 -0.6338142756504226 0 5469.0 -0.6338142756504226 1
gene  1 11 53 -0.47458638718067014 0 5470.0 -0.47458638718067014 1
gene  1 13 53 0.040343451853178 0 5472.0 0.040343451853178 1
gene  1 14 53 -0.4475181480665382 0 5473.0 -0.4475181480665382 1
gene  1 16 53 -0.04629078868683967 0 5475.0 -0.04629078868683967 1
gene  1 18 53 -0.39159111243228706 0 5477.0 -0.39159111243228706 1
gene  1 23 53 0.619854695482384 0 5482.0 0.619854695482384 1
gene  1 24 53 0.49429937745983366 0 5483.0 0.49429937745983366 1
gene  1 26 53 -0.2707092220931462 0 5485.0 -0.2707092220931462 1
gene  1 29 53 0.24294715490052243 0 5488.0 0.24294715490052243 1
gene  1 31 53 0.057710468042019736 0 5490.0 0.057710468042019736 1
gene  1 32 53 -0.18231485725338514 0 5491.0 -0.18231485725338514 1
gene  1 36 53 0.3362091557085922 0 5495.0 0.3362091557085922 1
gene  1 37 53 0.5176592263560609 0 5496.0 0.5176592263560609 1
gene  1 39 53 -0.9355167420506985 0 5498.0 -0.9355167420506985 1
gene  1 40 53 -0.5816182227750853 0 5499.0 -0.5816182227750853 1
gene  1 43 53 -0.6838673732864924 0 5502.0 -0.6838673732864924 1
gene  1 49 53 -0.25871541577215207 0 5508.0 -0.25871541577215207 1
gene  1 51 53 -0.7184653025921209 0 5510.0 -0.7184653025921209 1
gene  1 2 54 0.3567079681648375 0 5566.0 0.3567079681648375 1
gene  1 3 54 -0.6842527671545958 0 5567.0 -0.6842527671545958 1
gene  1 6 54 0.007756147384165857 0 5570.0 0.007756147384165857 1
gene  1 8 54 0.6708240717388032 0 5572.0 0.6708240717388032 1
gene  1 9 54 -0.80070051010976 0 5573.0 -0.80070051010976 1
gene  1 10 54 -0.7220942639974821 0 5574.0 -0.7220942639974821 1
gene  1 11 54 -0.4089621811670421 0 5575.0 -0.4089621811670421 1
gene  1 17 54 -0.9795223297140963 0 5581.0 -0.9795223297140963 1
gene  1 18 54 0.10876155266144172 0 5582.0 0.10876155266144172 1
gene  1 19 54 0.14157690587033367 0 5583.0 0.14157690587033367 1
gene  1 31 54 0.974102671097116 0 5595.0 0.974102671097116 1
gene  1 33 54 0.6948001048902331 0 5597.0 0.6948001048902331 1
gene  1 34 54 -0.9841392204304888 0 5598.0 -0.9841392204304888 1
gene  1 35 54 -0.14446042776343893 0 5599.0 -0.14446042776343893 1
gene  1 36 54 -0.10680416918527647 0 5600.0 -0.10680416918527647 1
gene  1 38 54 0.35769815750291356 0 5602.0 0.35769815750291356 1
gene  1 39 54 0.6301223082167111 0 5603.0 0.6301223082167111 1
gene  1 42 54 -0.9466278971606037 0 5606.0 -0.9466278971606037 1
gene  1 43 54 -0.834552900473281 0 5607.0 -0.834552900473281 1
gene  1 44 54 0.4168351097216284 0 5608.0 0.4168351097216284 1
gene  1 45 54 0.2358929728339637 0 5609.0 0.2358929728339637 1
gene  1 47 54 -0.7840454140950924 0 5611.0 -0.7840454140950924 1
gene  1 48 54 0.7597370981092022 0 5612.0 0.7597370981092022 1
gene  1 49 54 0.14086426329623203 0 5613.0 0.14086426329623203 1
gene  1 51 54 -0.507499083056785 0 5615.0 -0.507499083056785 1
gene  1 52 54 -0.920550367335857 0 5616.0 -0.920550367335857 1
gene  1 1 55 -0.4585536777161241 0 5670.0 -0.4585536777161241 1
gene  1 3 55 0.279516355902779 0 5672.0 0.279516355902779 1
gene  1 5 55 -0.03035913025656156 0 5674.0 -0.03035913025656156 1
gene  1 6 55 0.6483587756298524 0 5675.0 0.6483587756298524 1
gene  1 8 55 -0.10560356919598235 0 5677.0 -0.10560356919598235 1
gene  1 10 55 0.20837592936583327 0 5679.0 0.20837592936583327 1
gene  1 13 55 -0.0395270199219897 0 5682.0 -0.0395270199219897 1
gene  1 18 55 -0.4355478558980981 0 5687.0 -0.4355478558980981 1
gene  1 20 55 -0.14361401715397937 0 5689.0 -0.14361401715397937 1
gene  1 23 55 0.3755512474972509 0 5692.0 0.3755512474972509 1
gene  1 24 55 -0.8904540062831229 0 5693.0 -0.8904540062831229 1
gene  1 25 55 -0.20775041011872997 0 5694.0 -0.20775041011872997 1
gene  1 27 55 0.7474642246620881 0 5696.0 0.7474642246620881 1
gene  1 30 55 0.1390925682405394 0 5699.0 0.1390925682405394 1
gene  1 31 55 -0.39763848932930923 0 5700.0 -0.39763848932930923 1
gene  1 32 55 0.14549700032674484 0 5701.0 0.14549700032674484 1
gene  1 35 55 -0.029431949831205673 0 5704.0 -0.029431949831205673 1
gene  1 38 55 -0.3011798117216331 0 5707.0 -0.3011798117216331 1
gene  1 39 55 0.5821698996665322 0 5708.0 0.5821698996665322 1
gene  1 42 55 -0.022536399694997544 0 5711.0 -0.022536399694997544 1
gene  1 44 55 -0.012585479454827464 0 5713.0 -0.012585479454827464 1
gene  1 45 55 0.9894046030245274 0 5714.0 0.9894046030245274 1
gene  1 46 55 0.9419448378640563 0 5715.0 0.9419448378640563 1
gene  1 50 55 -0.7394051750021744 0 5719.0 -0.7394051750021744 1
gene  1 51 55 -0.46014623412112565 0 5720.0 -0.46014623412112565 1
gene  1 52 55 0.8594493201548256 0 5721.0 0.8594493201548256 1
gene  1 53 55 -0.4398359333983036 0 5722.0 -0.4398359333983036 1
gene  1 54 55 0.35273072008350626 0 5723.0 0.35273072008350626 1
gene  1 4 56 -0.5234530061437491 0 5778.0 -0.5234530061437491 1
gene  1 5 56 0.6715343639478206 0 5779.0 0.6715343639478206 1
gene  1 11 56 -0.1642670868759324 0 5785.0 -0.1642670868759324 1
gene  1 12 56 -0.14334023757196557 0 5786.0 -0.14334023757196557 1
gene  1 13 56 -0.6772509309886183 0 5787.0 -0.6772509309886183 1
gene  1 15 56 -0.07145024108825848 0 5789.0 -0.07145024108825848 1
gene  1 16 56 -0.33181781714028236 0 5790.0 -0.33181781714028236 1
gene  1 17 56 -0.48118740352828415 0 5791.0 -0.48118740352828415 1
gene  1 18 56 0.6001649317135512 0 5792.0 0.6001649317135512 1
gene  1 19 56 -0.2539802362523075 0 5793.0 -0.2539802362523075 1
gene  1 20 56 0.6103352838252777 0 5794.0 0.6103352838252777 1
gene  1 25 56 0.8552497961906042 0 5799.0 0.8552497961906042 1
gene  1 26 56 -0.06653054630906707 0 5800.0 -0.06653054630906707 1
gene  1 27 56 -0.1420897915022462 0 5801.0 -0.1420897915022462 1
gene  1 28 56 0.890649851073828 0 5802.0 0.890649851073828 1
gene  1 29 56 0.16162158851593367 0 5803.0 0.16162158851593367 1
gene  1 31 56 -0.8137546928799588 0 5805.0 -0.8137546928799588 1
gene  1 32 56 0.7413239205281306 0 5806.0 0.7413239205281306 1
gene  1 33 56 -0.7318100603958487 0 5807.0 -0.7318100603958487 1
gene  1 37 56 -0.44962732183820975 0 5811.0 -0.44962732183820975 1
gene  1 39 56 0.9919448689103004 0 5813.0 0.9919448689103004 1
gene  1 42 56 0.5592051673342177 0 5816.0 0.5592051673342177 1
gene  1 43 56 -0.9645993003327961 0 5817.0 -0.9645993003327961 1
gene  1 44 56 0.877391972899861 0 5818.0 0.877391972899861 1
gene  1 45 56 0.6789381297811843 0 5819.0 0.6789381297811843 1
gene  1 46 56 0.9697233783236962 0 5820.0 0.9697233783236962 1
gene  1 50 56 -0.9361617670242084 0 5824.0 -0.9361617670242084 1
gene  1 51 56 0.7352702726968603 0 5825.0 0.7352702726968603 1
gene  1 53 56 0.027711758431677835 0 5827.0 0.027711758431677835 1
gene  1 54 56 0.38079579328265023 0 5828.0 0.38079579328265023 1
gene  1 1 57 -0.7994222386366553 0 5880.0 -0.7994222386366553 1
gene  1 2 57 -0.46509135577390437 0 5881.0 -0.46509135577390437 1
gene  1 4 57 0.6124749862000324 0 5883.0 0.6124749862000324 1
gene  1 6 57 -0.17726478014200941 0 5885.0 -0.17726478014200941 1
gene  1 10 57 -0.13857643051205704 0 5889.0 -0.13857643051205704 1
gene  1 11 57 0.5894158811012707 0 5890.0 0.5894158811012707 1
gene  1 12 57 -0.14690710421238062 0 5891.0 -0.14690710421238062 1
gene  1 14 57 0.9848802045757492 0 5893.0 0.9848802045757492 1
gene  1 16 57 -0.22957685560038654 0 5895.0 -0.22957685560038654 1
gene  1 17 57 0.11890599878721964 0 5896.0 0.11890599878721964 1
gene  1 22 57 0.8897806337757905 0 5901.0 0.8897806337757905 1
gene  1 23 57 0.5749485896434534 0 5902.0 0.5749485896434534 1
gene  1 26 57 -0.8749395922649637 0 5905.0 -0.8749395922649637 1
gene  1 29 57 0.1253280134658873 0 5908.0 0.1253280134658873 1
gene  1 32 57 -0.14072157124115203 0 5911.0 -0.14072157124115203 1
gene  1 36 57 0.11995945130403574 0 5915.0 0.11995945130403574 1
gene  1 37 57 0.1474185313401244 0 5916.0 0.1474185313401244 1
gene  1 39 57 0.8473685042388177 0 5918.0 0.8473685042388177 1
gene  1 40 57 0.40761841548250166 0 5919.0 0.40761841548250166 1
gene  1 42 57 -0.8544366149075838 0 5921.0 -0.8544366149075838 1
gene  1 43 57 0.5085827186420158 0 5922.0 0.5085827186420158 1
gene  1 47 57 0.5779482883921595 0 5926.0 0.5779482883921595 1
gene  1 51 57 -0.22708355682102965 0 5930.0 -0.22708355682102965 1
gene  1 53 57 -0.0012961845477004186 0 5932.0 -0.0012961845477004186 1
gene  1 54 57 0.7269087523657063 0 5933.0 0.7269087523657063 1
gene  1 55 57 -0.10354298895501768 0 5934.0 -0.10354298895501768 1
gene  1 56 57 -0.6046489835738065 0 5935.0 -0.6046489835738065 1
gene  1 1 58 0.0227881965454374 0 5985.0 0.0227881965454374 1
gene  1 2 58 -0.25585887483651226 0 5986.0 -0.25585887483651226 1
gene  1 8 58 0.11351377547114827 0 5992.0 0.11351377547114827 1
gene  1 9 58 -0.4606785517458002 0 5993.0 -0.4606785517458002 1
gene  1 11 58 0.44919442863470394 0 5995.0 0.44919442863470394 1
gene  1 12 58 0.30512733826616456 0 5996.0 0.30512733826616456 1
gene  1 14 58 -0.5528455594386146 0 5998.0 -0.5528455594386146 1
gene  1 15 58 0.9043081540500937 0 5999.0 0.9043081540500937 1
gene  1 16 58 0.25226536875266514 0 6000.0 0.25226536875266514 1
gene  1 18 58 -0.6667482214108532 0 6002.0 -0.6667482214108532 1
gene  1 20 58 0.6840821418212033 0 6004.0 0.6840821418212033 1
gene  1 26 58 0.1784652529268761 0 6010.0 0.1784652529268761 1
gene  1 28 58 0.660191879432301 0 6012.0 0.660191879432301 1
gene  1 29 58 -0.4703861680841046 0 6013.0 -0.4703861680841046 1
gene  1 30 58 0.7796169584452731 0 6014.0 0.7796169584452731 1
gene  1 31 58 -0.5259296350318429 0 6015.0 -0.5259296350318429 1
gene  1 36 58 -0.5748886144362391 0 6020.0 -0.5748886144362391 1
gene  1 37 58 0.8265755302599044 0 6021.0 0.8265755302599044 1
gene  1 39 58 -0.05669458505664848 0 6023.0 -0.05669458505664848 1
gene  1 42 58 -0.3056089662011642 0 6026.0 -0.3056089662011642 1
gene  1 44 58 0.14055351543439698 0 6028.0 0.14055351543439698 1
gene  1 45 58 -0.7699990622611776 0 6029.0 -0.7699990622611776 1
gene  1 46 58 0.164228307333513 0 6030.0 0.164228307333513 1
gene  1 47 58 0.4602252238573281 0 6031.0 0.4602252238573281 1
gene  1 49 58 0.2367756366476218 0 6033.0 0.2367756366476218 1
gene  1 50 58 -0.8935556010095955 0 6034.0 -0.8935556010095955 1
gene  1 51 58 -0.24944600867136812 0 6035.0 -0.24944600867136812 1
gene  1 52 58 -0.9063234261201087 0 6036.0 -0.9063234261201087 1
gene  1 54 58 -0.6136809956531029 0 6038.0 -0.6136809956531029 1
gene  1 56 58 -0.5337717421131103 0 6040.0 -0.5337717421131103 1
gene  1 5 59 0.186915201656622 0 6094.0 0.186915201656622 1
gene  1 7 59 -0.8241792501938757 0 6096.0 -0.8241792501938757 1
gene  1 8 59 -0.35639835104420503 0 6097.0 -0.35639835104420503 1
gene  1 13 59 0.6542649263170501 0 6102.0 0.6542649263170501 1
gene  1 14 59 -0.8030203309153688 0 6103.0 -0.8030203309153688 1
gene  1 15 59 0.8924321454896703 0 6104.0 0.8924321454896703 1
gene  1 16 59 0.3390298453965557 0 6105.0 0.3390298453965557 1
gene  1 17 59 -0.6110325938491192 0 6106.0 -0.6110325938491192 1
gene  1 21 59 0.0326991205470758 0 6110.0 0.0326991205470758 1
gene  1 22 59 0.698110550901019 0 6111.0 0.698110550901019 1
gene  1 23 59 0.20374371683944903 0 6112.0 0.20374371683944903 1
gene  1 24 59 -0.5652706357366136 0 6113.0 -0.5652706357366136 1
gene  1 25 59 -0.6062889851308886 0 6114.0 -0.6062889851308886 1
gene  1 26 59 -0.2995310578992286 0 6115.0 -0.2995310578992286 1
gene  1 28 59 -0.24985229614363613 0 6117.0 -0.24985229614363613 1
gene  1 31 59 -0.33953297387263615 0 6120.0 -0.33953297387263615 1
gene  1 39 59 0.5836694351841105 0 6128.0 0.5836694351841105 1
gene  1 42 59 0.9040995519570165 0 6131.0 0.9040995519570165 1
gene  1 45 59 0.9339660900040119 0 6134.0 0.9339660900040119 1
gene  1 46 59 0.2540311195899032 0 6135.0 0.2540311195899032 1
gene  1 48 59 0.37835845547696845 0 6137.0 0.37835845547696845 1
gene  1 52 59 0.006454190339783339 0 6141.0 0.006454190339783339 1
gene  1 54 59 -0.6305605013163426 0 6143.0 -0.6305605013163426 1
gene  1 55 59 0.8038040677149799 0 6144.0 0.8038040677149799 1
gene  1 2 60 -0.6905632645563361 0 6196.0 -0.6905632645563361 1
gene  1 3 60 0.010173813846416468 0 6197.0 0.010173813846416468 1
gene  1 5 60 -0.969470594996614 0 6199.0 -0.969470594996614 1
gene  1 8 60 0.675814635959078 0 6202.0 0.675814635959078 1
gene  1 10 60 -0.38699282067567686 0 6204.0 -0.38699282067567686 1
gene  1 11 60 0.2083146817682151 0 6205.0 0.2083146817682151 1
gene  1 12 60 -0.7117314590058804 0 6206.0 -0.7117314590058804 1
gene  1 14 60 0.39856450045523384 0 6208.0 0.39856450045523384 1
gene  1 15 60 -0.014994415263893668 0 6209.0 -0.014994415263893668 1
gene  1 17 60 -0.1385910153767902 0 6211.0 -0.1385910153767902 1
gene  1 18 60 -0.4284679143833424 0 6212.0 -0.4284679143833424 1
gene  1 21 60 -0.06576601807450944 0 6215.0 -0.06576601807450944 1
gene  1 22 60 -0.5546257116447094 0 6216.0 -0.5546257116447094 1
gene  1 23 60 -0.3567136636481377 0 6217.0 -0.3567136636481377 1
gene  1 25 60 -0.5617513654313356 0 6219.0 -0.5617513654313356 1
gene  1 27 60 0.8895310631295512 0 6221.0 0.8895310631295512 1
gene  1 32 60 -0.7268469393707109 0 6226.0 -0.7268469393707109 1
gene  1 33 60 0.9192527191626275 0 6227.0 0.9192527191626275 1
gene  1 34 60 -0.045893064917103654 0 6228.0 -0.045893064917103654 1
gene  1 35 60 0.48638363050294176 0 6229.0 0.48638363050294176 1
gene  1 36 60 0.7682153747384292 0 6230.0 0.7682153747384292 1
gene  1 37 60 -0.6527798914319766 0 6231.0 -0.6527798914319766 1
gene  1 38 60 -0.9988236567279715 0 6232.0 -0.9988236567279715 1
gene  1 39 60 -0.5594928455361862 0 6233.0 -0.5594928455361862 1
gene  1 41 60 0.9282625264448919 0 6235.0 0.9282625264448919 1
gene  1 42 60 -0.16072882215194695 0 6236.0 -0.16072882215194695 1
gene  1 44 60 -0.9241821225358917 0 6238.0 -0.9241821225358917 1
gene  1 47 60 0.1505519210899936 0 6241.0 0.1505519210899936 1
gene  1 50 60 0.9679855979189761 0 6244.0 0.9679855979189761 1
gene  1 51 60 0.5195230997073513 0 6245.0 0.5195230997073513 1
gene  1 52 60 -0.9355419546977986 0 6246.0 -0.9355419546977986 1
gene  1 53 60 -0.6417663337662244 0 6247.0 -0.6417663337662244 1
gene  1 54 60 -0.8563155328326555 0 6248.0 -0.8563155328326555 1
gene  1 56 60 -0.5115666229083093 0 6250.0 -0.5115666229083093 1
gene  1 57 60 0.18675201374125294 0 6251.0 0.18675201374125294 1
gene  1 58 60 0.7989077616530151 0 6252.0 0.7989077616530151 1
gene  1 59 60 -0.44263423663128865 0 6253.0 -0.44263423663128865 1
gene  1 2 61 -0.7895548317902671 0 6301.0 -0.7895548317902671 1
gene  1 5 61 -0.6004551733036008 0 6304.0 -0.6004551733036008 1
gene  1 6 61 -0.07615754808289543 0 6305.0 -0.07615754808289543 1
gene  1 9 61 0.690882975945198 0 6308.0 0.690882975945198 1
gene  1 11 61 0.5535049257866405 0 6310.0 0.5535049257866405 1
gene  1 12 61 0.18613077784364052 0 6311.0 0.18613077784364052 1
gene  1 15 61 0.22770126395688473 0 6314.0 0.22770126395688473 1
gene  1 16 61 0.7048802525828284 0 6315.0 0.7048802525828284 1
gene  1 19 61 -0.6225501638675138 0 6318.0 -0.6225501638675138 1
gene  1 21 61 -0.45702886568143253 0 6320.0 -0.45702886568143253 1
gene  1 22 61 0.6743146196440616 0 6321.0 0.6743146196440616 1
gene  1 25 61 -0.16238117634591553 0 6324.0 -0.16238117634591553 1
gene  1 27 61 -0.40590802070256526 0 6326.0 -0.40590802070256526 1
gene  1 28 61 -0.34153670962113236 0 6327.0 -0.34153670962113236 1
gene  1 29 61 0.5994448522106235 0 6328.0 0.5994448522106235 1
gene  1 31 61 -0.36125911989679205 0 6330.0 -0.36125911989679205 1
gene  1 36 61 0.41389488227193894 0 6335.0 0.41389488227193894 1
gene  1 38 61 -0.36013345320445833 0 6337.0 -0.36013345320445833 1
gene  1 39 61 -0.05186212115232325 0 6338.0 -0.05186212115232325 1
gene  1 40 61 -0.11595484282392843 0 6339.0 -0.11595484282392843 1
gene  1 41 61 -0.02718007865309624 0 6340.0 -0.02718007865309624 1
gene  1 42 61 -0.9473063627762353 0 6341.0 -0.9473063627762353 1
gene  1 43 61 0.42352732413865735 0 6342.0 0.42352732413865735 1
gene  1 45 61 0.5238656360537969 0 6344.0 0.5238656360537969 1
gene  1 47 61 -0.17178194225676524 0 6346.0 -0.17178194225676524 1
gene  1 49 61 0.5536666660830627 0 6348.0 0.5536666660830627 1
gene  1 50 61 0.17396641058104934 0 6349.0 0.17396641058104934 1
gene  1 52 61 0.7443682207253617 0 6351.0 0.7443682207253617 1
gene  1 53 61 0.9741159526819075 0 6352.0 0.9741159526819075 1
gene  1 58 61 0.4039235758956896 0 6357.0 0.4039235758956896 1
gene  1 59 61 -0.06760170945027733 0 6358.0 -0.06760170945027733 1
gene  1 60 61 -0.5392819738126656 0 6359.0 -0.5392819738126656 1
gene  1 3 62 0.02459259514287715 0 6407.0 0.02459259514287715 1
gene  1 5 62 -0.520143608975534 0 6409.0 -0.520143608975534 1
gene  1 6 62 0.06898893554045771 0 6410.0 0.06898893554045771 1
gene  1 7 62 -0.35126220664437713 0 6411.0 -0.35126220664437713 1
gene  1 14 62 -0.4240892884729891 0 6418.0 -0.4240892884729891 1
gene  1 15 62 0.2775023137519651 0 6419.0 0.2775023137519651 1
gene  1 16 62 0.3529396790679855 0 6420.0 0.3529396790679855 1
gene  1 17 62 0.13121856601052428 0 6421.0 0.13121856601052428 1
gene  1 19 62 0.6737164409581173 0 6423.0 0.6737164409581173 1
gene  1 20 62 0.4440650885461649 0 6424.0 0.4440650885461649 1
gene  1 21 62 -0.19164228094699887 0 6425.0 -0.19164228094699887 1
gene  1 26 62 0.24960529829116906 0 6430.0 0.24960529829116906 1
gene  1 27 62 -0.7776746289113785 0 6431.0 -0.7776746289113785 1
gene  1 28 62 -0.3914284461856147 0 6432.0 -0.3914284461856147 1
gene  1 29 62 0.19807700276298024 0 6433.0 0.19807700276298024 1
gene  1 33 62 0.4684332369606844 0 6437.0 0.4684332369606844 1
gene  1 41 62 0.7290365826172237 0 6445.0 0.7290365826172237 1
gene  1 42 62 -0.14560077395404902 0 6446.0 -0.14560077395404902 1
gene  1 43 62 -0.06257154562778544 0 6447.0 -0.06257154562778544 1
gene  1 44 62 -0.7370803141865228 0 6448.0 -0.7370803141865228 1
gene  1 46 62 -0.14074486091445904 0 6450.0 -0.14074486091445904 1
gene  1 47 62 0.795466678946105 0 6451.0 0.795466678946105 1
gene  1 48 62 -0.4049580307905568 0 6452.0 -0.4049580307905568 1
gene  1 49 62 0.17828460576181349 0 6453.0 0.17828460576181349 1
gene  1 51 62 -0.9551247370150306 0 6455.0 -0.9551247370150306 1
gene  1 52 62 0.7796009837870748 0 6456.0 0.7796009837870748 1
gene  1 53 62 -0.17554162784710203 0 6457.0 -0.17554162784710203 1
gene  1 56 62 -0.020812834770486788 0 6460.0 -0.020812834770486788 1
gene  1 59 62 0.43528156791985617 0 6463.0 0.43528156791985617 1
gene  1 61 62 -0.9429908813146736 0 6465.0 -0.9429908813146736 1
gene  1 1 63 0.5304196747083745 0 6510.0 0.5304196747083745 1
gene  1 3 63 -0.9288134065531582 0 6512.0 -0.9288134065531582 1
gene  1 4 63 -0.5157630056233042 0 6513.0 -0.5157630056233042 1
gene  1 5 63 -0.3771766025533113 0 6514.0 -0.3771766025533113 1
gene  1 6 63 -0.7464183361179088 0 6515.0 -0.7464183361179088 1
gene  1 9 63 0.48826156767829354 0 6518.0 0.48826156767829354 1
gene  1 10 63 -0.8070803095584711 0 6519.0 -0.8070803095584711 1
gene  1 11 63 0.7360968932201499 0 6520.0 0.7360968932201499 1
gene  1 13 63 0.35323834411013455 0 6522.0 0.35323834411013455 1
gene  1 14 63 -0.8985354077195887 0 6523.0 -0.8985354077195887 1
gene  1 15 63 -0.3327278383111575 0 6524.0 -0.3327278383111575 1
gene  1 16 63 -0.4330641494651032 0 6525.0 -0.4330641494651032 1
gene  1 19 63 0.6798896932959261 0 6528.0 0.6798896932959261 1
gene  1 20 63 0.8392546547776167 0 6529.0 0.8392546547776167 1
gene  1 22 63 -0.3862285314758921 0 6531.0 -0.3862285314758921 1
gene  1 29 63 0.2712094009104463 0 6538.0 0.2712094009104463 1
gene  1 31 63 0.7330961187663183 0 6540.0 0.7330961187663183 1
gene  1 33 63 -0.24316832607551708 0 6542.0 -0.24316832607551708 1
gene  1 35 63 0.6718435741207036 0 6544.0 0.6718435741207036 1
gene  1 36 63 0.21171887992917549 0 6545.0 0.21171887992917549 1
gene  1 38 63 -0.15038110387083414 0 6547.0 -0.15038110387083414 1
gene  1 41 63 0.3060701068391233 0 6550.0 0.3060701068391233 1
gene  1 44 63 0.3126793718878319 0 6553.0 0.3126793718878319 1
gene  1 46 63 0.13439503897758365 0 6555.0 0.13439503897758365 1
gene  1 48 63 -0.6627048463124906 0 6557.0 -0.6627048463124906 1
gene  1 50 63 0.5523041175625613 0 6559.0 0.5523041175625613 1
gene  1 51 63 -0.035131731949667344 0 6560.0 -0.035131731949667344 1
gene  1 54 63 0.25855548438282316 0 6563.0 0.25855548438282316 1
gene  1 58 63 0.43287620332395704 0 6567.0 0.43287620332395704 1
gene  1 59 63 0.49412270089804133 0 6568.0 0.49412270089804133 1
gene  1 62 63 0.2644393024049473 0 6571.0 0.2644393024049473 1
gene  1 1 64 -0.9559463521522477 0 6615.0 -0.9559463521522477 1
gene  1 3 64 -0.03796047839087113 0 6617.0 -0.03796047839087113 1
gene  1 4 64 0.26657711906939885 0 6618.0 0.26657711906939885 1
gene  1 9 64 -0.37245373417164473 0 6623.0 -0.37245373417164473 1
gene  1 10 64 -0.7599829979558165 0 6624.0 -0.7599829979558165 1
gene  1 11 64 0.07736256528677876 0 6625.0 0.07736256528677876 1
gene  1 14 64 0.275233596841851 0 6628.0 0.275233596841851 1
gene  1 15 64 0.5198335243112806 0 6629.0 0.5198335243112806 1
gene  1 16 64 -0.6379020267039583 0 6630.0 -0.6379020267039583 1
gene  1 17 64 0.11338181280015525 0 6631.0 0.11338181280015525 1
gene  1 18 64 -0.09716794014100316 0 6632.0 -0.09716794014100316 1
gene  1 20 64 0.5293644770118884 0 6634.0 0.5293644770118884 1
gene  1 23 64 -0.8968563087622686 0 6637.0 -0.8968563087622686 1
gene  1 24 64 -0.19737998886421437 0 6638.0 -0.19737998886421437 1
gene  1 27 64 0.658623100365385 0 6641.0 0.658623100365385 1
gene  1 28 64 -0.8480079089393434 0 6642.0 -0.8480079089393434 1
gene  1 30 64 -0.2160210822546499 0 6644.0 -0.2160210822546499 1
gene  1 31 64 -0.7712213826136646 0 6645.0 -0.7712213826136646 1
gene  1 34 64 -0.6545214174838729 0 6648.0 -0.6545214174838729 1
gene  1 35 64 0.7199645567823432 0 6649.0 0.7199645567823432 1
gene  1 40 64 0.1806939687558532 0 6654.0 0.1806939687558532 1
gene  1 41 64 0.5386561575728636 0 6655.0 0.5386561575728636 1
gene  1 42 64 -0.6516810317394013 0 6656.0 -0.6516810317394013 1
gene  1 44 64 -0.25327176548938657 0 6658.0 -0.25327176548938657 1
gene  1 49 64 -0.7093295350057082 0 6663.0 -0.7093295350057082 1
gene  1 50 64 0.6125187239685089 0 6664.0 0.6125187239685089 1
gene  1 51 64 -0.7519464503576802 0 6665.0 -0.7519464503576802 1
gene  1 52 64 -0.6543592162014525 0 6666.0 -0.6543592162014525 1
gene  1 53 64 -0.9504878291785308 0 6667.0 -0.9504878291785308 1
gene  1 54 64 -0.10807269039304712 0 6668.0 -0.10807269039304712 1
gene  1 55 64 -0.8032329644350981 0 6669.0 -0.8032329644350981 1
gene  1 58 64 -0.7990810518291473 0 6672.0 -0.7990810518291473 1
gene  1 61 64 0.5457103830235461 0 6675.0 0.5457103830235461 1
gene  1 63 64 0.4769989587095732 0 6677.0 0.4769989587095732 1
gene  1 2 65 -0.20230479006745938 0 6721.0 -0.20230479006745938 1
gene  1 3 65 -0.7599027115226518 0 6722.0 -0.7599027115226518 1
gene  1 4 65 0.7401576358539861 0 6723.0 0.7401576358539861 1
gene  1 6 65 0.47621235531653805 0 6725.0 0.47621235531653805 1
gene  1 9 65 0.396435396430293 0 6728.0 0.396435396430293 1
gene  1 10 65 -0.4064067240763469 0 6729.0 -0.4064067240763469 1
gene  1 11 65 -0.231108508983923 0 6730.0 -0.231108508983923 1
gene  1 13 65 0.3161027400069051 0 6732.0 0.3161027400069051 1
gene  1 15 65 0.37228413167715846 0 6734.0 0.37228413167715846 1
gene  1 18 65 -0.7137266120763915 0 6737.0 -0.7137266120763915 1
gene  1 20 65 0.10267894069598404 0 6739.0 0.10267894069598404 1
gene  1 21 65 0.41849585901857 0 6740.0 0.41849585901857 1
gene  1 22 65 -0.12659602778407997 0 6741.0 -0.12659602778407997 1
gene  1 25 65 0.6589286580802738 0 6744.0 0.6589286580802738 1
gene  1 27 65 -0.8527746282040148 0 6746.0 -0.8527746282040148 1
gene  1 29 65 -0.3795661151745011 0 6748.0 -0.3795661151745011 1
gene  1 34 65 0.2987908925687084 0 6753.0 0.2987908925687084 1
gene  1 39 65 -0.25112143644263774 0 6758.0 -0.25112143644263774 1
gene  1 44 65 -0.6966402682892431 0 6763.0 -0.6966402682892431 1
gene  1 45 65 0.3304248036428785 0 6764.0 0.3304248036428785 1
gene  1 46 65 0.5611298998518697 0 6765.0 0.5611298998518697 1
gene  1 47 65 -0.25394042056016053 0 6766.0 -0.25394042056016053 1
gene  1 51 65 0.7735727959871823 0 6770.0 0.7735727959871823 1
gene  1 53 65 0.4308520119001231 0 6772.0 0.4308520119001231 1
gene  1 56 65 0.8057863587978852 0 6775.0 0.8057863587978852 1
gene  1 57 65 -0.9301606494305954 0 6776.0 -0.9301606494305954 1
gene  1 59 65 -0.0044619035821693576 0 6778.0 -0.0044619035821693576 1
gene  1 60 65 0.8417047273542051 0 6779.0 0.8417047273542051 1
gene  1 61 65 0.7345265353917697 0 6780.0 0.7345265353917697 1
gene  1 2 66 -0.8130459375684149 0 6826.0 -0.8130459375684149 1
gene  1 4 66 -0.48472872841911474 0 6828.0 -0.48472872841911474 1
gene  1 5 66 -0.1803674661416167 0 6829.0 -0.1803674661416167 1
gene  1 9 66 0.7874293271743854 0 6833.0 0.7874293271743854 1
gene  1 10 66 -0.21752702885543806 0 6834.0 -0.21752702885543806 1
gene  1 13 66 -0.9587345644556489 0 6837.0 -0.9587345644556489 1
gene  1 14 66 -0.2620303776208973 0 6838.0 -0.2620303776208973 1
gene  1 15 66 -0.880616317001492 0 6839.0 -0.880616317001492 1
gene  1 20 66 0.3106738212716559 0 6844.0 0.3106738212716559 1
gene  1 22 66 0.03849690384419202 0 6846.0 0.03849690384419202 1
gene  1 26 66 0.3177838274679038 0 6850.0 0.3177838274679038 1
gene  1 29 66 -0.644677344392162 0 6853.0 -0.644677344392162 1
gene  1 30 66 0.9138214063846287 0 6854.0 0.9138214063846287 1
gene  1 31 66 0.004113781670762928 0 6855.0 0.004113781670762928 1
gene  1 32 66 0.9180728511120757 0 6856.0 0.9180728511120757 1
gene  1 33 66 0.547589491682502 0 6857.0 0.547589491682502 1
gene  1 34 66 -0.39113123147352913 0 6858.0 -0.39113123147352913 1
gene  1 36 66 -0.7800763318694527 0 6860.0 -0.7800763318694527 1
gene  1 40 66 0.43590994263991767 0 6864.0 0.43590994263991767 1
gene  1 41 66 0.7775377702059305 0 6865.0 0.7775377702059305 1
gene  1 42 66 0.5587039696707111 0 6866.0 0.5587039696707111 1
gene  1 43 66 0.7169314670732502 0 6867.0 0.7169314670732502 1
gene  1 45 66 0.08671656605355171 0 6869.0 0.08671656605355171 1
gene  1 47 66 -0.17813448775071372 0 6871.0 -0.17813448775071372 1
gene  1 48 66 -0.32636362600356217 0 6872.0 -0.32636362600356217 1
gene  1 53 66 0.2397064978732265 0 6877.0 0.2397064978732265 1
gene  1 55 66 -0.7684510436626428 0 6879.0 -0.7684510436626428 1
gene  1 57 66 -0.043948677852543416 0 6881.0 -0.043948677852543416 1
gene  1 58 66 0.047038817703702884 0 6882.0 0.047038817703702884 1
gene  1 62 66 0.043163202100400366 0 6886.0 0.043163202100400366 1
gene  1 63 66 -0.09385093200662387 0 6887.0 -0.09385093200662387 1
gene  1 65 66 0.6677265229224659 0 6889.0 0.6677265229224659 1
gene  1 1 67 -0.31678279781549934 0 6930.0 -0.31678279781549934 1
gene  1 3 67 -0.031226224229300437 0 6932.0 -0.031226224229300437 1
gene  1 4 67 0.012618752394102484 0 6933.0 0.012618752394102484 1
gene  1 10 67 0.19880921394220485 0 6939.0 0.19880921394220485 1
gene  1 12 67 -0.2467829748800333 0 6941.0 -0.2467829748800333 1
gene  1 13 67 0.49761637485285426 0 6942.0 0.49761637485285426 1
gene  1 17 67 -0.23103041597646068 0 6946.0 -0.23103041597646068 1
gene  1 20 67 -0.4385117112183583 0 6949.0 -0.4385117112183583 1
gene  1 23 67 -0.25647021124326097 0 6952.0 -0.25647021124326097 1
gene  1 26 67 0.43248030139415417 0 6955.0 0.43248030139415417 1
gene  1 27 67 0.5749409455240243 0 6956.0 0.5749409455240243 1
gene  1 29 67 -0.5229674006328745 0 6958.0 -0.5229674006328745 1
gene  1 31 67 -0.9376807423301565 0 6960.0 -0.9376807423301565 1
gene  1 32 67 0.29318050976529997 0 6961.0 0.29318050976529997 1
gene  1 33 67 -0.4440739260456492 0 6962.0 -0.4440739260456492 1
gene  1 37 67 -0.18439575822370435 0 6966.0 -0.18439575822370435 1
gene  1 38 67 0.9717587559804691 0 6967.0 0.9717587559804691 1
gene  1 40 67 0.9958095272724544 0 6969.0 0.9958095272724544 1
gene  1 41 67 -0.364752308886535 0 6970.0 -0.364752308886535 1
gene  1 42 67 -0.14201312745835304 0 6971.0 -0.14201312745835304 1
gene  1 44 67 0.8868953476488791 0 6973.0 0.8868953476488791 1
gene  1 45 67 -0.3387081017245508 0 6974.0 -0.3387081017245508 1
gene  1 47 67 -0.2681821603285365 0 6976.0 -0.2681821603285365 1
gene  1 48 67 0.6548603907635188 0 6977.0 0.6548603907635188 1
gene  1 49 67 -0.2986404610330513 0 6978.0 -0.2986404610330513 1
gene  1 50 67 -0.053462351316173495 0 6979.0 -0.053462351316173495 1
gene  1 52 67 -0.764729856350801 0 6981.0 -0.764729856350801 1
gene  1 56 67 -0.918512432387013 0 6985.0 -0.918512432387013 1
gene  1 57 67 0.3435295300115957 0 6986.0 0.3435295300115957 1
gene  1 59 67 -0.35757048132368174 0 6988.0 -0.35757048132368174 1
gene  1 61 67 0.22341002347062122 0 6990.0 0.22341002347062122 1
gene  1 62 67 -0.6506947491804962 0 6991.0 -0.6506947491804962 1
gene  1 65 67 -0.18964381980620493 0 6994.0 -0.18964381980620493 1
gene  1 1 68 0.34311665711419725 0 7035.0 0.34311665711419725 1
gene  1 3 68 0.6314701117552448 0 7037.0 0.6314701117552448 1
gene  1 5 68 0.2788591066773134 0 7039.0 0.2788591066773134 1
gene  1 8 68 0.6685574552299541 0 7042.0 0.6685574552299541 1
gene  1 9 68 -0.03615999620782029 0 7043.0 -0.03615999620782029 1
gene  1 11 68 0.8423379364828917 0 7045.0 0.8423379364828917 1
gene  1 14 68 -0.8042432271579476 0 7048.0 -0.8042432271579476 1
gene  1 15 68 -0.3347692062958909 0 7049.0 -0.3347692062958909 1
gene  1 16 68 0.1828032213729751 0 7050.0 0.1828032213729751 1
gene  1 20 68 -0.12148758733443876 0 7054.0 -0.12148758733443876 1
gene  1 23 68 -0.9072076740952615 0 7057.0 -0.9072076740952615 1
gene  1 24 68 -0.22001046606727215 0 7058.0 -0.22001046606727215 1
gene  1 25 68 0.11258636500392194 0 7059.0 0.11258636500392194 1
gene  1 32 68 0.6785452095426941 0 7066.0 0.6785452095426941 1
gene  1 35 68 -0.7099349452492676 0 7069.0 -0.7099349452492676 1
gene  1 45 68 0.5437663333108352 0 7079.0 0.5437663333108352 1
gene  1 47 68 -0.6723725149426842 0 7081.0 -0.6723725149426842 1
gene  1 48 68 0.7991471172923632 0 7082.0 0.7991471172923632 1
gene  1 50 68 0.9039919302825111 0 7084.0 0.9039919302825111 1
gene  1 51 68 0.98532930764955 0 7085.0 0.98532930764955 1
gene  1 55 68 -0.6605414451334294 0 7089.0 -0.6605414451334294 1
gene  1 56 68 -0.03999472555180994 0 7090.0 -0.03999472555180994 1
gene  1 57 68 0.557774352251759 0 7091.0 0.557774352251759 1
gene  1 58 68 0.3684829524863812 0 7092.0 0.3684829524863812 1
gene  1 59 68 -0.290249052819749 0 7093.0 -0.290249052819749 1
gene  1 60 68 -0.8629252374793454 0 7094.0 -0.8629252374793454 1
gene  1 61 68 -0.7653211909774236 0 7095.0 -0.7653211909774236 1
gene  1 62 68 0.793616251920947 0 7096.0 0.793616251920947 1
gene  1 63 68 0.511783584039995 0 7097.0 0.511783584039995 1
gene  1 64 68 0.805697357514723 0 7098.0 0.805697357514723 1
gene  1 65 68 0.6031366182375009 0 7099.0 0.6031366182375009 1
gene  1 2 69 -0.14420963351408822 0 7141.0 -0.14420963351408822 1
gene  1 3 69 0.9895689083790161 0 7142.0 0.9895689083790161 1
gene  1 5 69 0.4250285885675189 0 7144.0 0.4250285885675189 1
gene  1 9 69 0.3920867183481398 0 7148.0 0.3920867183481398 1
gene  1 13 69 0.25009056319278944 0 7152.0 0.25009056319278944 1
gene  1 14 69 0.7929186602048544 0 7153.0 0.7929186602048544 1
gene  1 19 69 0.5170318083954333 0 7158.0 0.5170318083954333 1
gene  1 24 69 -0.5806251717006876 0 7163.0 -0.5806251717006876 1
gene  1 25 69 -0.797889862274118 0 7164.0 -0.797889862274118 1
gene  1 27 69 -0.4768969679108467 0 7166.0 -0.4768969679108467 1
gene  1 28 69 0.5967803948015002 0 7167.0 0.5967803948015002 1
gene  1 29 69 -0.2838985406121851 0 7168.0 -0.2838985406121851 1
gene  1 30 69 -0.813370773782949 0 7169.0 -0.813370773782949 1
gene  1 32 69 0.9281323393627183 0 7171.0 0.9281323393627183 1
gene  1 34 69 -0.986853212808424 0 7173.0 -0.986853212808424 1
gene  1 37 69 -0.5379130137831133 0 7176.0 -0.5379130137831133 1
gene  1 38 69 -0.40876153010685967 0 7177.0 -0.40876153010685967 1
gene  1 40 69 -0.779572862603837 0 7179.0 -0.779572862603837 1
gene  1 45 69 0.6683187776760762 0 7184.0 0.6683187776760762 1
gene  1 46 69 0.11301295387337074 0 7185.0 0.11301295387337074 1
gene  1 47 69 -0.683278258014397 0 7186.0 -0.683278258014397 1
gene  1 49 69 0.1792536645134286 0 7188.0 0.1792536645134286 1
gene  1 51 69 0.940032084314789 0 7190.0 0.940032084314789 1
gene  1 55 69 0.5274038380600514 0 7194.0 0.5274038380600514 1
gene  1 58 69 -0.6134394272500172 0 7197.0 -0.6134394272500172 1
gene  1 60 69 0.47433578792890596 0 7199.0 0.47433578792890596 1
gene  1 61 69 -0.9260330335633681 0 7200.0 -0.9260330335633681 1
gene  1 62 69 0.007199567105351412 0 7201.0 0.007199567105351412 1
gene  1 64 69 -0.38267632456025547 0 7203.0 -0.38267632456025547 1
gene  1 65 69 -0.8580076058405451 0 7204.0 -0.8580076058405451 1
gene  1 67 69 -0.6883225997165855 0 7206.0 -0.6883225997165855 1
gene  1 2 70 0.14921222830900016 0 7246.0 0.14921222830900016 1
gene  1 4 70 0.522645322921204 0 7248.0 0.522645322921204 1
gene  1 6 70 -0.06022943941010672 0 7250.0 -0.06022943941010672 1
gene  1 7 70 0.6247977053082245 0 7251.0 0.6247977053082245 1
gene  1 9 70 -0.09803596721934982 0 7253.0 -0.09803596721934982 1
gene  1 10 70 0.10142944333983117 0 7254.0 0.10142944333983117 1
gene  1 11 70 0.7525399826141851 0 7255.0 0.7525399826141851 1
gene  1 12 70 -0.5504672726873291 0 7256.0 -0.5504672726873291 1
gene  1 13 70 0.08837707065959544 0 7257.0 0.08837707065959544 1
gene  1 14 70 -0.8607359667260901 0 7258.0 -0.8607359667260901 1
gene  1 17 70 0.9128909067557297 0 7261.0 0.9128909067557297 1
gene  1 18 70 -0.3244462702956191 0 7262.0 -0.3244462702956191 1
gene  1 19 70 0.2124070322004442 0 7263.0 0.2124070322004442 1
gene  1 22 70 -0.0238878666534309 0 7266.0 -0.0238878666534309 1
gene  1 25 70 0.061275273408681885 0 7269.0 0.061275273408681885 1
gene  1 27 70 -0.6552029637803164 0 7271.0 -0.6552029637803164 1
gene  1 28 70 -0.5323859991161453 0 7272.0 -0.5323859991161453 1
gene  1 29 70 0.5518763779245803 0 7273.0 0.5518763779245803 1
gene  1 30 70 0.05517804369485535 0 7274.0 0.05517804369485535 1
gene  1 32 70 0.2110593677870588 0 7276.0 0.2110593677870588 1
gene  1 34 70 2.5038516092257268E-5 0 7278.0 2.5038516092257268E-5 1
gene  1 37 70 -0.9833728562200605 0 7281.0 -0.9833728562200605 1
gene  1 39 70 0.2218939885294905 0 7283.0 0.2218939885294905 1
gene  1 40 70 -0.9103404850866361 0 7284.0 -0.9103404850866361 1
gene  1 41 70 0.6920027592766262 0 7285.0 0.6920027592766262 1
gene  1 42 70 -0.9581492013547626 0 7286.0 -0.9581492013547626 1
gene  1 45 70 -0.6206916680610205 0 7289.0 -0.6206916680610205 1
gene  1 46 70 0.15352562354082966 0 7290.0 0.15352562354082966 1
gene  1 47 70 0.2985760241945794 0 7291.0 0.2985760241945794 1
gene  1 48 70 -0.877958076036158 0 7292.0 -0.877958076036158 1
gene  1 49 70 -0.46169327755756373 0 7293.0 -0.46169327755756373 1
gene  1 51 70 0.28534857371065614 0 7295.0 0.28534857371065614 1
gene  1 54 70 0.5790536304285158 0 7298.0 0.5790536304285158 1
gene  1 56 70 -0.4250880179665718 0 7300.0 -0.4250880179665718 1
gene  1 57 70 0.37210085790130754 0 7301.0 0.37210085790130754 1
gene  1 59 70 -0.09446527169320962 0 7303.0 -0.09446527169320962 1
gene  1 60 70 0.14063629335504024 0 7304.0 0.14063629335504024 1
gene  1 63 70 -0.3414133660983648 0 7307.0 -0.3414133660983648 1
gene  1 64 70 0.6778204823426695 0 7308.0 0.6778204823426695 1
gene  1 69 70 -0.13788024029853174 0 7313.0 -0.13788024029853174 1
gene  1 1 105 -0.7192426864198058 0 10920.0 -0.7192426864198058 1
gene  1 8 105 0.7090663004085347 0 10927.0 0.7090663004085347 1
gene  1 11 105 0.9652804025730667 0 10930.0 0.9652804025730667 1
gene  1 12 105 -0.9419903365726571 0 10931.0 -0.9419903365726571 1
gene  1 16 105 0.502792806125772 0 10935.0 0.502792806125772 1
gene  1 17 105 0.1914969266395501 0 10936.0 0.1914969266395501 1
gene  1 18 105 -0.3818464183654008 0 10937.0 -0.3818464183654008 1
gene  1 22 105 0.1164376673678853 0 10941.0 0.1164376673678853 1
gene  1 24 105 0.5962303846141717 0 10943.0 0.5962303846141717 1
gene  1 28 105 -0.24867029451649403 0 10947.0 -0.24867029451649403 1
gene  1 30 105 0.8231220784503811 0 10949.0 0.8231220784503811 1
gene  1 33 105 0.4149071701165483 0 10952.0 0.4149071701165483 1
gene  1 35 105 0.687439643691944 0 10954.0 0.687439643691944 1
gene  1 38 105 -0.17485266005076883 0 10957.0 -0.17485266005076883 1
gene  1 39 105 0.9128713975946503 0 10958.0 0.9128713975946503 1
gene  1 40 105 -0.19187938742350075 0 10959.0 -0.19187938742350075 1
gene  1 41 105 0.3351234848660445 0 10960.0 0.3351234848660445 1
gene  1 42 105 -0.09862840457691457 0 10961.0 -0.09862840457691457 1
gene  1 45 105 0.4994817193766412 0 10964.0 0.4994817193766412 1
gene  1 50 105 -0.29885075820294915 0 10969.0 -0.29885075820294915 1
gene  1 51 105 -0.11151194723704205 0 10970.0 -0.11151194723704205 1
gene  1 53 105 0.49358956288755973 0 10972.0 0.49358956288755973 1
gene  1 55 105 -0.9368336156882794 0 10974.0 -0.9368336156882794 1
gene  1 56 105 0.609731560194059 0 10975.0 0.609731560194059 1
gene  1 57 105 0.4391884794394225 0 10976.0 0.4391884794394225 1
gene  1 60 105 0.6700655530823038 0 10979.0 0.6700655530823038 1
gene  1 62 105 0.27407690014675357 0 10981.0 0.27407690014675357 1
gene  1 63 105 -0.2944724163647855 0 10982.0 -0.2944724163647855 1
gene  1 66 105 -0.2539582696507936 0 10985.0 -0.2539582696507936 1
gene  1 67 105 0.5331902144322962 0 10986.0 0.5331902144322962 1
gene  1 69 105 0.4069162772010553 0 10988.0 0.4069162772010553 1
genomeend 31
