genomestart  56
trait 1 0.0 0.0 0.0 0.0 0.0 0.0 0.0 0.0 0.0 0.0 0.0 0.0 0.0 0.0 0.0 0.0 0.0 0.0 0.0 0.0 
node 1 1 1 1
node 2 1 1 1
node 3 1 1 1
node 4 1 1 1
node 5 1 1 3
node 6 1 0 0
node 7 1 0 0
node 8 1 0 0
node 9 1 0 0
node 10 1 0 0
node 11 1 0 0
node 12 1 0 0
node 13 1 0 0
node 16 1 0 2
gene  1 2 6 0.602527858284379 0 81.0 0.602527858284379 1
gene  1 3 6 0.3358555371158509 0 82.0 0.3358555371158509 1
gene  1 5 6 -0.46053463533835426 0 84.0 -0.46053463533835426 1
gene  1 1 7 0.13951859213286388 0 96.0 0.13951859213286388 1
gene  1 2 7 0.9588159898985288 0 97.0 0.9588159898985288 1
gene  1 5 7 0.2617176546609332 0 100.0 0.2617176546609332 1
gene  1 5 8 0.4565191312388742 0 116.0 0.4565191312388742 1
gene  1 2 9 -0.13712724793806952 0 129.0 -0.13712724793806952 1
gene  1 3 9 0.5530527094771204 0 130.0 0.5530527094771204 1
gene  1 4 9 -0.9697140767473363 0 131.0 -0.9697140767473363 1
gene  1 1 10 -0.6841235878097338 0 144.0 -0.6841235878097338 1
gene  1 4 10 -0.4097685509561616 0 147.0 -0.4097685509561616 1
gene  1 5 10 -0.2860378633267415 0 148.0 -0.2860378633267415 1
gene  1 8 10 0.22081574557317274 0 151.0 0.22081574557317274 1
gene  1 5 11 0.3432696716613013 0 164.0 0.3432696716613013 1
gene  1 6 11 -0.3429040584680314 0 165.0 -0.3429040584680314 1
gene  1 7 11 0.046626944389068226 0 166.0 0.046626944389068226 1
gene  1 9 11 -0.05582563775456173 0 168.0 -0.05582563775456173 1
gene  1 10 11 -0.8739172975192389 0 169.0 -0.8739172975192389 1
gene  1 3 12 0.24755743564954202 0 178.0 0.24755743564954202 1
gene  1 4 12 -0.07951548620747795 0 179.0 -0.07951548620747795 1
gene  1 6 12 0.8256383277167652 0 181.0 0.8256383277167652 1
gene  1 9 12 -0.5546679661937469 0 184.0 -0.5546679661937469 1
gene  1 10 12 -0.382772824312534 0 185.0 -0.382772824312534 1
gene  1 11 12 0.8763279515735938 0 186.0 0.8763279515735938 1
gene  1 2 13 0.42145801224605517 0 193.0 0.42145801224605517 1
gene  1 3 13 -0.6451755348628515 0 194.0 -0.6451755348628515 1
gene  1 4 13 0.4406970173716833 0 195.0 0.4406970173716833 1
gene  1 5 13 0.8739763065975004 0 196.0 0.8739763065975004 1
gene  1 6 13 -0.542802819000783 0 197.0 -0.542802819000783 1
gene  1 7 13 0.14271594609411853 0 198.0 0.14271594609411853 1
gene  1 8 13 0.6465833560992917 0 199.0 0.6465833560992917 1
gene  1 9 13 -0.061089893867476985 0 200.0 -0.061089893867476985 1
gene  1 10 13 -0.8175823579328759 0 201.0 -0.8175823579328759 1
gene  1 12 13 -0.2944686337961713 0 203.0 -0.2944686337961713 1
gene  1 4 16 -0.6111109593078712 0 243.0 -0.6111109593078712 1
gene  1 5 16 0.5714727477103014 0 244.0 0.5714727477103014 1
gene  1 7 16 -0.9506759112669233 0 246.0 -0.9506759112669233 1
gene  1 9 16 0.8240517970551199 0 248.0 0.8240517970551199 1
gene  1 10 16 -0.7327409701293508 0 249.0 -0.7327409701293508 1
gene  1 11 16 0.9761762345428473 0 250.0 0.9761762345428473 1
gene  1 12 16 0.08795609684694206 0 251.0 0.08795609684694206 1
genomeend 56
