genomestart  4
trait 1 0.0 0.0 0.0 0.0 0.0 0.0 0.0 0.0 0.0 0.0 0.0 0.0 0.0 0.0 0.0 0.0 0.0 0.0 0.0 0.0 
node 1 1 1 1
node 2 1 1 1
node 3 1 1 1
node 4 1 1 3
node 5 1 0 0
node 6 1 0 0
node 7 1 0 0
node 8 1 0 0
node 9 1 0 0
node 10 1 0 0
node 11 1 0 0
node 12 1 0 0
node 13 1 0 0
node 14 1 0 0
node 15 1 0 0
node 16 1 0 0
node 17 1 0 0
node 18 1 0 0
node 19 1 0 0
node 20 1 0 0
node 21 1 0 0
node 22 1 0 0
node 23 1 0 0
node 24 1 0 0
node 25 1 0 0
node 26 1 0 0
node 27 1 0 0
node 28 1 0 0
node 29 1 0 0
node 30 1 0 0
node 31 1 0 0
node 32 1 0 0
node 33 1 0 0
node 34 1 0 0
node 35 1 0 0
node 36 1 0 0
node 37 1 0 0
node 38 1 0 0
node 39 1 0 0
node 105 1 0 2
gene  1 1 5 0.166496784343094 0 420.0 0.166496784343094 1
gene  1 2 5 -0.858144401497654 0 421.0 -0.858144401497654 1
gene  1 3 5 -0.8109661560547767 0 422.0 -0.8109661560547767 1
gene  1 1 6 0.2488776823961898 0 525.0 0.2488776823961898 1
gene  1 3 6 -0.6151945395141625 0 527.0 -0.6151945395141625 1
gene  1 5 6 0.24893375284868946 0 529.0 0.24893375284868946 1
gene  1 1 7 0.19848075710440805 0 630.0 0.19848075710440805 1
gene  1 3 7 -0.9069839133317646 0 632.0 -0.9069839133317646 1
gene  1 4 7 -0.10892706690194365 0 633.0 -0.10892706690194365 1
gene  1 6 7 0.05347254685297631 0 635.0 0.05347254685297631 1
gene  1 1 8 -0.7329976235129012 0 735.0 -0.7329976235129012 1
gene  1 2 8 0.13249941247600694 0 736.0 0.13249941247600694 1
gene  1 3 8 -0.7417600323656451 0 737.0 -0.7417600323656451 1
gene  1 5 8 0.7476168832712169 0 739.0 0.7476168832712169 1
gene  1 6 8 0.7920979816206949 0 740.0 0.7920979816206949 1
gene  1 7 8 -0.20460317148385265 0 741.0 -0.20460317148385265 1
gene  1 2 9 0.9751339369283133 0 841.0 0.9751339369283133 1
gene  1 4 9 -0.29540885579373277 0 843.0 -0.29540885579373277 1
gene  1 5 9 -0.010309276998120454 0 844.0 -0.010309276998120454 1
gene  1 6 9 -0.5891923542496464 0 845.0 -0.5891923542496464 1
gene  1 7 9 -0.48560012861502344 0 846.0 -0.48560012861502344 1
gene  1 8 9 -0.6591723699992666 0 847.0 -0.6591723699992666 1
gene  1 2 10 0.22419942244330793 0 946.0 0.22419942244330793 1
gene  1 4 10 0.3928979039940266 0 948.0 0.3928979039940266 1
gene  1 5 10 0.4530205223954 0 949.0 0.4530205223954 1
gene  1 7 10 0.054064737820433084 0 951.0 0.054064737820433084 1
gene  1 8 10 0.7178030429996551 0 952.0 0.7178030429996551 1
gene  1 9 10 -0.3143148529909291 0 953.0 -0.3143148529909291 1
gene  1 1 11 -0.8739165528932776 0 1050.0 -0.8739165528932776 1
gene  1 2 11 -0.8257945392294858 0 1051.0 -0.8257945392294858 1
gene  1 4 11 0.7121980746877629 0 1053.0 0.7121980746877629 1
gene  1 6 11 0.06989129123265725 0 1055.0 0.06989129123265725 1
gene  1 7 11 0.03688826091040698 0 1056.0 0.03688826091040698 1
gene  1 8 11 0.2104689121263208 0 1057.0 0.2104689121263208 1
gene  1 10 11 -0.9352220126946934 0 1059.0 -0.9352220126946934 1
gene  1 3 12 -0.7742138312127943 0 1157.0 -0.7742138312127943 1
gene  1 5 12 0.7471469991512432 0 1159.0 0.7471469991512432 1
gene  1 7 12 -0.5710479565766791 0 1161.0 -0.5710479565766791 1
gene  1 9 12 0.08926869026317208 0 1163.0 0.08926869026317208 1
gene  1 11 12 0.44488975360455607 0 1165.0 0.44488975360455607 1
gene  1 1 13 0.08384917354993637 0 1260.0 0.08384917354993637 1
gene  1 2 13 0.5981978797289736 0 1261.0 0.5981978797289736 1
gene  1 3 13 0.16641312659352858 0 1262.0 0.16641312659352858 1
gene  1 5 13 -0.4630894417613016 0 1264.0 -0.4630894417613016 1
gene  1 8 13 9.093145526228863E-5 0 1267.0 9.093145526228863E-5 1
gene  1 10 13 -0.9388633061915262 0 1269.0 -0.9388633061915262 1
gene  1 2 14 -0.7597152333255409 0 1366.0 -0.7597152333255409 1
gene  1 4 14 0.7811735345018923 0 1368.0 0.7811735345018923 1
gene  1 7 14 -0.49850809090069803 0 1371.0 -0.49850809090069803 1
gene  1 9 14 -0.4699115163415699 0 1373.0 -0.4699115163415699 1
gene  1 11 14 0.8157767631186504 0 1375.0 0.8157767631186504 1
gene  1 6 15 -0.05466653081145578 0 1475.0 -0.05466653081145578 1
gene  1 7 15 -0.23717924012506786 0 1476.0 -0.23717924012506786 1
gene  1 9 15 -0.08490084328672387 0 1478.0 -0.08490084328672387 1
gene  1 11 15 -0.054161225298723914 0 1480.0 -0.054161225298723914 1
gene  1 12 15 0.8600046050187379 0 1481.0 0.8600046050187379 1
gene  1 14 15 -0.5270858994929816 0 1483.0 -0.5270858994929816 1
gene  1 1 16 -0.19943159159790014 0 1575.0 -0.19943159159790014 1
gene  1 3 16 -0.54120903858036 0 1577.0 -0.54120903858036 1
gene  1 7 16 -0.21170395292352706 0 1581.0 -0.21170395292352706 1
gene  1 8 16 0.7942495289338636 0 1582.0 0.7942495289338636 1
gene  1 9 16 -0.9165644928332618 0 1583.0 -0.9165644928332618 1
gene  1 12 16 -0.5055290807275872 0 1586.0 -0.5055290807275872 1
gene  1 15 16 -0.7294713971682175 0 1589.0 -0.7294713971682175 1
gene  1 2 17 -0.7017244069015194 0 1681.0 -0.7017244069015194 1
gene  1 3 17 -0.812228734049078 0 1682.0 -0.812228734049078 1
gene  1 4 17 0.38584967181471796 0 1683.0 0.38584967181471796 1
gene  1 5 17 -0.8407869793300565 0 1684.0 -0.8407869793300565 1
gene  1 6 17 -0.4981342283579665 0 1685.0 -0.4981342283579665 1
gene  1 11 17 -0.9070508105497264 0 1690.0 -0.9070508105497264 1
gene  1 13 17 0.634156481146824 0 1692.0 0.634156481146824 1
gene  1 15 17 -0.19797860546064128 0 1694.0 -0.19797860546064128 1
gene  1 16 17 -0.5040343038276079 0 1695.0 -0.5040343038276079 1
gene  1 5 18 0.563159189691232 0 1789.0 0.563159189691232 1
gene  1 6 18 -0.8927067854395352 0 1790.0 -0.8927067854395352 1
gene  1 11 18 0.19801162449669318 0 1795.0 0.19801162449669318 1
gene  1 13 18 0.42306453795795673 0 1797.0 0.42306453795795673 1
gene  1 16 18 0.6816693721971054 0 1800.0 0.6816693721971054 1
gene  1 5 19 0.616531170998027 0 1894.0 0.616531170998027 1
gene  1 8 19 0.8222295397175009 0 1897.0 0.8222295397175009 1
gene  1 9 19 -0.8140178006016249 0 1898.0 -0.8140178006016249 1
gene  1 12 19 -0.7500193617724062 0 1901.0 -0.7500193617724062 1
gene  1 17 19 0.9267370717319006 0 1906.0 0.9267370717319006 1
gene  1 4 20 0.4630842791586507 0 1998.0 0.4630842791586507 1
gene  1 7 20 -0.2593379971858757 0 2001.0 -0.2593379971858757 1
gene  1 9 20 0.4912717780807889 0 2003.0 0.4912717780807889 1
gene  1 11 20 -0.7170079926282285 0 2005.0 -0.7170079926282285 1
gene  1 12 20 0.5233375645572576 0 2006.0 0.5233375645572576 1
gene  1 13 20 0.6763177427272007 0 2007.0 0.6763177427272007 1
gene  1 14 20 -0.26496303482166894 0 2008.0 -0.26496303482166894 1
gene  1 15 20 -0.6682186674953766 0 2009.0 -0.6682186674953766 1
gene  1 17 20 0.20502377743840017 0 2011.0 0.20502377743840017 1
gene  1 18 20 0.7348930414818222 0 2012.0 0.7348930414818222 1
gene  1 2 21 0.047978629805787376 0 2101.0 0.047978629805787376 1
gene  1 3 21 -0.5855053244968244 0 2102.0 -0.5855053244968244 1
gene  1 5 21 -0.44224193368745524 0 2104.0 -0.44224193368745524 1
gene  1 7 21 0.3503155292400497 0 2106.0 0.3503155292400497 1
gene  1 8 21 -0.04305243747086174 0 2107.0 -0.04305243747086174 1
gene  1 15 21 0.19926038861811213 0 2114.0 0.19926038861811213 1
gene  1 16 21 0.5620675208223089 0 2115.0 0.5620675208223089 1
gene  1 1 22 -0.8243791614658561 0 2205.0 -0.8243791614658561 1
gene  1 6 22 -0.40249557387617374 0 2210.0 -0.40249557387617374 1
gene  1 9 22 -0.4665601723350854 0 2213.0 -0.4665601723350854 1
gene  1 10 22 -0.21689284815398968 0 2214.0 -0.21689284815398968 1
gene  1 11 22 -0.013920328025911477 0 2215.0 -0.013920328025911477 1
gene  1 12 22 0.5681908403738397 0 2216.0 0.5681908403738397 1
gene  1 14 22 -0.28205039337062066 0 2218.0 -0.28205039337062066 1
gene  1 16 22 -0.9515465657610243 0 2220.0 -0.9515465657610243 1
gene  1 17 22 0.2430066794811221 0 2221.0 0.2430066794811221 1
gene  1 18 22 -0.5901600666173512 0 2222.0 -0.5901600666173512 1
gene  1 20 22 -0.026254594846519153 0 2224.0 -0.026254594846519153 1
gene  1 21 22 0.5287093767185532 0 2225.0 0.5287093767185532 1
gene  1 7 23 -0.8629624253738336 0 2316.0 -0.8629624253738336 1
gene  1 10 23 0.9414112471717753 0 2319.0 0.9414112471717753 1
gene  1 11 23 -0.3229538090812534 0 2320.0 -0.3229538090812534 1
gene  1 12 23 0.7124095601869118 0 2321.0 0.7124095601869118 1
gene  1 13 23 0.9539052128643791 0 2322.0 0.9539052128643791 1
gene  1 14 23 0.6644634883097906 0 2323.0 0.6644634883097906 1
gene  1 19 23 -0.8834087629388202 0 2328.0 -0.8834087629388202 1
gene  1 1 24 0.524602778222061 0 2415.0 0.524602778222061 1
gene  1 3 24 -0.6889238096134066 0 2417.0 -0.6889238096134066 1
gene  1 4 24 -0.7049719941341264 0 2418.0 -0.7049719941341264 1
gene  1 6 24 0.1308275850648668 0 2420.0 0.1308275850648668 1
gene  1 8 24 -0.2637386600447187 0 2422.0 -0.2637386600447187 1
gene  1 11 24 0.11791556078498822 0 2425.0 0.11791556078498822 1
gene  1 13 24 0.4721435102570928 0 2427.0 0.4721435102570928 1
gene  1 14 24 -0.03006848459592648 0 2428.0 -0.03006848459592648 1
gene  1 17 24 0.5733972369824002 0 2431.0 0.5733972369824002 1
gene  1 18 24 -0.3273095836219223 0 2432.0 -0.3273095836219223 1
gene  1 19 24 0.647936681497534 0 2433.0 0.647936681497534 1
gene  1 21 24 -0.9109281449790413 0 2435.0 -0.9109281449790413 1
gene  1 2 25 -0.13701534826430928 0 2521.0 -0.13701534826430928 1
gene  1 4 25 -0.08368488391346529 0 2523.0 -0.08368488391346529 1
gene  1 5 25 -0.10304409925162916 0 2524.0 -0.10304409925162916 1
gene  1 9 25 0.14369837040145594 0 2528.0 0.14369837040145594 1
gene  1 10 25 -0.7617687218646336 0 2529.0 -0.7617687218646336 1
gene  1 13 25 0.6472839024410012 0 2532.0 0.6472839024410012 1
gene  1 14 25 0.19489269741990434 0 2533.0 0.19489269741990434 1
gene  1 15 25 0.9875454052061671 0 2534.0 0.9875454052061671 1
gene  1 17 25 0.6080575991473378 0 2536.0 0.6080575991473378 1
gene  1 18 25 0.6536300905907642 0 2537.0 0.6536300905907642 1
gene  1 19 25 0.3707915489608006 0 2538.0 0.3707915489608006 1
gene  1 21 25 -0.3296242239766769 0 2540.0 -0.3296242239766769 1
gene  1 23 25 -0.574861889150683 0 2542.0 -0.574861889150683 1
gene  1 5 26 2.644213573056442E-4 0 2629.0 2.644213573056442E-4 1
gene  1 7 26 -0.6991886952887889 0 2631.0 -0.6991886952887889 1
gene  1 9 26 0.019004642449564235 0 2633.0 0.019004642449564235 1
gene  1 10 26 -0.6164639137359226 0 2634.0 -0.6164639137359226 1
gene  1 11 26 0.967780417156634 0 2635.0 0.967780417156634 1
gene  1 14 26 -0.9469366774091366 0 2638.0 -0.9469366774091366 1
gene  1 15 26 -0.08715099869702148 0 2639.0 -0.08715099869702148 1
gene  1 17 26 0.3405341620840421 0 2641.0 0.3405341620840421 1
gene  1 18 26 -0.26099001460175186 0 2642.0 -0.26099001460175186 1
gene  1 20 26 0.025548400900783697 0 2644.0 0.025548400900783697 1
gene  1 21 26 -0.9579351013538651 0 2645.0 -0.9579351013538651 1
gene  1 23 26 -0.2160644410842324 0 2647.0 -0.2160644410842324 1
gene  1 24 26 -0.9227045369448474 0 2648.0 -0.9227045369448474 1
gene  1 25 26 -0.88156503421449 0 2649.0 -0.88156503421449 1
gene  1 4 27 -0.26641603522189783 0 2733.0 -0.26641603522189783 1
gene  1 6 27 0.24371476972909745 0 2735.0 0.24371476972909745 1
gene  1 7 27 -0.7791459375621614 0 2736.0 -0.7791459375621614 1
gene  1 10 27 -0.214144478238939 0 2739.0 -0.214144478238939 1
gene  1 13 27 -0.7177126962360912 0 2742.0 -0.7177126962360912 1
gene  1 14 27 -0.9492925506961997 0 2743.0 -0.9492925506961997 1
gene  1 16 27 -0.08667353472843287 0 2745.0 -0.08667353472843287 1
gene  1 17 27 -0.1974782927249331 0 2746.0 -0.1974782927249331 1
gene  1 18 27 -0.47541925705525245 0 2747.0 -0.47541925705525245 1
gene  1 22 27 0.038656000372160326 0 2751.0 0.038656000372160326 1
gene  1 23 27 -0.7129520237479886 0 2752.0 -0.7129520237479886 1
gene  1 26 27 -0.7691924821657223 0 2755.0 -0.7691924821657223 1
gene  1 2 28 -0.4327412212525954 0 2836.0 -0.4327412212525954 1
gene  1 3 28 0.2815549172646806 0 2837.0 0.2815549172646806 1
gene  1 4 28 -0.5849062079018493 0 2838.0 -0.5849062079018493 1
gene  1 5 28 -0.042901690853510144 0 2839.0 -0.042901690853510144 1
gene  1 6 28 0.8078057871009849 0 2840.0 0.8078057871009849 1
gene  1 7 28 -0.0018928938989811739 0 2841.0 -0.0018928938989811739 1
gene  1 8 28 0.33818884877445043 0 2842.0 0.33818884877445043 1
gene  1 9 28 -0.20985227600582568 0 2843.0 -0.20985227600582568 1
gene  1 10 28 0.3457449717489516 0 2844.0 0.3457449717489516 1
gene  1 12 28 0.5685921552728075 0 2846.0 0.5685921552728075 1
gene  1 13 28 -0.41018850510525307 0 2847.0 -0.41018850510525307 1
gene  1 14 28 0.5292738937789606 0 2848.0 0.5292738937789606 1
gene  1 16 28 0.8918581081801747 0 2850.0 0.8918581081801747 1
gene  1 23 28 -0.17751636143456517 0 2857.0 -0.17751636143456517 1
gene  1 27 28 -0.01695772303272891 0 2861.0 -0.01695772303272891 1
gene  1 1 29 -0.9596998008907882 0 2940.0 -0.9596998008907882 1
gene  1 2 29 -0.7195031225521984 0 2941.0 -0.7195031225521984 1
gene  1 6 29 0.9604858791422934 0 2945.0 0.9604858791422934 1
gene  1 7 29 0.06435374227055368 0 2946.0 0.06435374227055368 1
gene  1 9 29 0.8660272052893083 0 2948.0 0.8660272052893083 1
gene  1 10 29 0.10978910370079142 0 2949.0 0.10978910370079142 1
gene  1 11 29 -0.5689043370079644 0 2950.0 -0.5689043370079644 1
gene  1 12 29 0.5700404784947938 0 2951.0 0.5700404784947938 1
gene  1 13 29 -0.43325955167212715 0 2952.0 -0.43325955167212715 1
gene  1 14 29 -0.7534638731662677 0 2953.0 -0.7534638731662677 1
gene  1 17 29 -0.17038222637206835 0 2956.0 -0.17038222637206835 1
gene  1 18 29 0.35505666116474344 0 2957.0 0.35505666116474344 1
gene  1 19 29 0.7333677865022612 0 2958.0 0.7333677865022612 1
gene  1 20 29 -0.40380867199358195 0 2959.0 -0.40380867199358195 1
gene  1 21 29 -0.6273439787471607 0 2960.0 -0.6273439787471607 1
gene  1 24 29 0.8250450383238728 0 2963.0 0.8250450383238728 1
gene  1 28 29 -0.3040641288155065 0 2967.0 -0.3040641288155065 1
gene  1 2 30 -0.2874347767626221 0 3046.0 -0.2874347767626221 1
gene  1 5 30 -0.15416615788757293 0 3049.0 -0.15416615788757293 1
gene  1 6 30 0.559968378208311 0 3050.0 0.559968378208311 1
gene  1 7 30 0.006916840054086881 0 3051.0 0.006916840054086881 1
gene  1 9 30 -0.3715705481740238 0 3053.0 -0.3715705481740238 1
gene  1 10 30 -0.17801763461107167 0 3054.0 -0.17801763461107167 1
gene  1 11 30 0.10959399702569383 0 3055.0 0.10959399702569383 1
gene  1 13 30 -0.40843412154658054 0 3057.0 -0.40843412154658054 1
gene  1 14 30 -0.09505289726926347 0 3058.0 -0.09505289726926347 1
gene  1 15 30 0.4592344816571069 0 3059.0 0.4592344816571069 1
gene  1 16 30 0.026965535323529632 0 3060.0 0.026965535323529632 1
gene  1 19 30 -0.964675404170873 0 3063.0 -0.964675404170873 1
gene  1 20 30 -0.3584881992251566 0 3064.0 -0.3584881992251566 1
gene  1 21 30 -0.8076138112355378 0 3065.0 -0.8076138112355378 1
gene  1 24 30 -0.4246323175026563 0 3068.0 -0.4246323175026563 1
gene  1 27 30 -0.5526477998099265 0 3071.0 -0.5526477998099265 1
gene  1 1 31 0.8089963344963712 0 3150.0 0.8089963344963712 1
gene  1 2 31 -0.3061801269510641 0 3151.0 -0.3061801269510641 1
gene  1 4 31 0.6040820527496368 0 3153.0 0.6040820527496368 1
gene  1 6 31 0.9671270123868645 0 3155.0 0.9671270123868645 1
gene  1 8 31 0.9780415655055604 0 3157.0 0.9780415655055604 1
gene  1 9 31 -0.7153638053692636 0 3158.0 -0.7153638053692636 1
gene  1 11 31 0.9675019551671534 0 3160.0 0.9675019551671534 1
gene  1 12 31 -0.6483971563431977 0 3161.0 -0.6483971563431977 1
gene  1 13 31 0.9779069677761231 0 3162.0 0.9779069677761231 1
gene  1 18 31 0.36661371576592006 0 3167.0 0.36661371576592006 1
gene  1 19 31 0.08693670512023066 0 3168.0 0.08693670512023066 1
gene  1 20 31 -0.30539402595503684 0 3169.0 -0.30539402595503684 1
gene  1 21 31 0.9335794984312485 0 3170.0 0.9335794984312485 1
gene  1 23 31 0.10059357489495957 0 3172.0 0.10059357489495957 1
gene  1 26 31 -0.577750815947002 0 3175.0 -0.577750815947002 1
gene  1 28 31 0.10240267409788983 0 3177.0 0.10240267409788983 1
gene  1 2 32 0.43175136981119155 0 3256.0 0.43175136981119155 1
gene  1 4 32 -0.6935130210700498 0 3258.0 -0.6935130210700498 1
gene  1 6 32 0.13404598046381466 0 3260.0 0.13404598046381466 1
gene  1 7 32 -0.4602149223040791 0 3261.0 -0.4602149223040791 1
gene  1 8 32 0.17625505088664162 0 3262.0 0.17625505088664162 1
gene  1 11 32 0.32491957072724176 0 3265.0 0.32491957072724176 1
gene  1 13 32 0.5507135522785629 0 3267.0 0.5507135522785629 1
gene  1 14 32 -0.23078676368699125 0 3268.0 -0.23078676368699125 1
gene  1 17 32 0.027855133407929 0 3271.0 0.027855133407929 1
gene  1 18 32 0.347404695414647 0 3272.0 0.347404695414647 1
gene  1 21 32 0.8318759844000588 0 3275.0 0.8318759844000588 1
gene  1 23 32 0.40611134344278055 0 3277.0 0.40611134344278055 1
gene  1 28 32 0.3136141021274127 0 3282.0 0.3136141021274127 1
gene  1 30 32 -0.3460060557080872 0 3284.0 -0.3460060557080872 1
gene  1 2 33 -0.10472293978156733 0 3361.0 -0.10472293978156733 1
gene  1 3 33 -0.6572810524912784 0 3362.0 -0.6572810524912784 1
gene  1 5 33 0.9641036059816742 0 3364.0 0.9641036059816742 1
gene  1 6 33 -0.9423466517645203 0 3365.0 -0.9423466517645203 1
gene  1 9 33 0.2916833482604343 0 3368.0 0.2916833482604343 1
gene  1 12 33 -0.830465585921857 0 3371.0 -0.830465585921857 1
gene  1 13 33 -0.7819903395063575 0 3372.0 -0.7819903395063575 1
gene  1 15 33 0.27234091526176063 0 3374.0 0.27234091526176063 1
gene  1 16 33 -0.5973797087907802 0 3375.0 -0.5973797087907802 1
gene  1 18 33 -0.18657087162001929 0 3377.0 -0.18657087162001929 1
gene  1 19 33 0.17880958288962268 0 3378.0 0.17880958288962268 1
gene  1 20 33 0.6100939195589271 0 3379.0 0.6100939195589271 1
gene  1 23 33 0.32913974799418877 0 3382.0 0.32913974799418877 1
gene  1 24 33 0.2163304057532074 0 3383.0 0.2163304057532074 1
gene  1 25 33 0.6132423885614959 0 3384.0 0.6132423885614959 1
gene  1 26 33 -0.33477580572194765 0 3385.0 -0.33477580572194765 1
gene  1 27 33 -0.3646300655213234 0 3386.0 -0.3646300655213234 1
gene  1 28 33 -0.5200551951164706 0 3387.0 -0.5200551951164706 1
gene  1 29 33 0.9085066754340198 0 3388.0 0.9085066754340198 1
gene  1 31 33 -0.7489942674015624 0 3390.0 -0.7489942674015624 1
gene  1 32 33 0.4154301992207595 0 3391.0 0.4154301992207595 1
gene  1 3 34 -0.6606446351445685 0 3467.0 -0.6606446351445685 1
gene  1 5 34 -0.6625020447661245 0 3469.0 -0.6625020447661245 1
gene  1 6 34 0.11061528595078829 0 3470.0 0.11061528595078829 1
gene  1 7 34 0.8034696295474321 0 3471.0 0.8034696295474321 1
gene  1 13 34 -0.40102819611149376 0 3477.0 -0.40102819611149376 1
gene  1 17 34 -0.24543462088983903 0 3481.0 -0.24543462088983903 1
gene  1 18 34 0.38607474868597835 0 3482.0 0.38607474868597835 1
gene  1 21 34 -0.6949610474019228 0 3485.0 -0.6949610474019228 1
gene  1 22 34 0.06612996931842297 0 3486.0 0.06612996931842297 1
gene  1 26 34 -0.9184847734490209 0 3490.0 -0.9184847734490209 1
gene  1 28 34 0.46982924510345214 0 3492.0 0.46982924510345214 1
gene  1 29 34 0.03491359454801379 0 3493.0 0.03491359454801379 1
gene  1 31 34 -0.3397643710604247 0 3495.0 -0.3397643710604247 1
gene  1 32 34 0.5257407683267104 0 3496.0 0.5257407683267104 1
gene  1 3 35 0.03644330963260611 0 3572.0 0.03644330963260611 1
gene  1 9 35 0.9400077922965691 0 3578.0 0.9400077922965691 1
gene  1 15 35 -0.9554956359897664 0 3584.0 -0.9554956359897664 1
gene  1 18 35 -0.9915470250143178 0 3587.0 -0.9915470250143178 1
gene  1 19 35 0.44050146249604893 0 3588.0 0.44050146249604893 1
gene  1 20 35 0.16844236926581801 0 3589.0 0.16844236926581801 1
gene  1 21 35 0.976215930289374 0 3590.0 0.976215930289374 1
gene  1 22 35 0.5874295655531379 0 3591.0 0.5874295655531379 1
gene  1 23 35 -0.5935449921806061 0 3592.0 -0.5935449921806061 1
gene  1 26 35 0.8565795065345168 0 3595.0 0.8565795065345168 1
gene  1 27 35 -0.6106787605976862 0 3596.0 -0.6106787605976862 1
gene  1 28 35 -0.06705761288074918 0 3597.0 -0.06705761288074918 1
gene  1 30 35 -0.011916466561161965 0 3599.0 -0.011916466561161965 1
gene  1 32 35 -0.8424531430027109 0 3601.0 -0.8424531430027109 1
gene  1 33 35 0.3890080412635555 0 3602.0 0.3890080412635555 1
gene  1 34 35 0.363850072688619 0 3603.0 0.363850072688619 1
gene  1 1 36 -0.026974911140224767 0 3675.0 -0.026974911140224767 1
gene  1 2 36 -0.16847075662352307 0 3676.0 -0.16847075662352307 1
gene  1 3 36 -0.5377010391727667 0 3677.0 -0.5377010391727667 1
gene  1 4 36 -0.522782689739913 0 3678.0 -0.522782689739913 1
gene  1 6 36 -0.8087257918300632 0 3680.0 -0.8087257918300632 1
gene  1 9 36 -0.3373174366737327 0 3683.0 -0.3373174366737327 1
gene  1 11 36 0.25414319916750916 0 3685.0 0.25414319916750916 1
gene  1 12 36 0.9240189657593233 0 3686.0 0.9240189657593233 1
gene  1 14 36 0.5014654801895161 0 3688.0 0.5014654801895161 1
gene  1 16 36 -0.3879183346537268 0 3690.0 -0.3879183346537268 1
gene  1 17 36 -0.39932240213123715 0 3691.0 -0.39932240213123715 1
gene  1 19 36 0.038867596448046715 0 3693.0 0.038867596448046715 1
gene  1 20 36 0.5784240108217682 0 3694.0 0.5784240108217682 1
gene  1 21 36 0.14846544357743452 0 3695.0 0.14846544357743452 1
gene  1 27 36 -0.6953040489327589 0 3701.0 -0.6953040489327589 1
gene  1 29 36 -0.9353344359142095 0 3703.0 -0.9353344359142095 1
gene  1 32 36 -0.9613286406297655 0 3706.0 -0.9613286406297655 1
gene  1 33 36 -0.1314741857296685 0 3707.0 -0.1314741857296685 1
gene  1 34 36 0.5430250309332304 0 3708.0 0.5430250309332304 1
gene  1 35 36 0.3776307688601115 0 3709.0 0.3776307688601115 1
gene  1 2 37 0.5369035581698969 0 3781.0 0.5369035581698969 1
gene  1 3 37 -0.46648806037129675 0 3782.0 -0.46648806037129675 1
gene  1 6 37 0.9498685972107875 0 3785.0 0.9498685972107875 1
gene  1 11 37 0.6072442850278897 0 3790.0 0.6072442850278897 1
gene  1 12 37 0.24904826934288704 0 3791.0 0.24904826934288704 1
gene  1 13 37 -0.2586526616307777 0 3792.0 -0.2586526616307777 1
gene  1 17 37 -0.08096208389209181 0 3796.0 -0.08096208389209181 1
gene  1 20 37 -0.0777682494441918 0 3799.0 -0.0777682494441918 1
gene  1 21 37 -0.8131470064065339 0 3800.0 -0.8131470064065339 1
gene  1 22 37 -0.5395678821407917 0 3801.0 -0.5395678821407917 1
gene  1 23 37 -0.6007303974500066 0 3802.0 -0.6007303974500066 1
gene  1 24 37 -0.4761892622860632 0 3803.0 -0.4761892622860632 1
gene  1 27 37 0.44488166037747 0 3806.0 0.44488166037747 1
gene  1 31 37 0.9986039978367174 0 3810.0 0.9986039978367174 1
gene  1 32 37 0.1513573604741022 0 3811.0 0.1513573604741022 1
gene  1 33 37 -0.09370007641576772 0 3812.0 -0.09370007641576772 1
gene  1 36 37 -0.5241540252865411 0 3815.0 -0.5241540252865411 1
gene  1 5 38 0.39062084750030834 0 3889.0 0.39062084750030834 1
gene  1 6 38 0.09374094936990418 0 3890.0 0.09374094936990418 1
gene  1 13 38 -0.9126504129493825 0 3897.0 -0.9126504129493825 1
gene  1 15 38 0.32624367185924874 0 3899.0 0.32624367185924874 1
gene  1 17 38 -0.5865126742198453 0 3901.0 -0.5865126742198453 1
gene  1 20 38 0.5074432907590034 0 3904.0 0.5074432907590034 1
gene  1 21 38 -0.9156724051436339 0 3905.0 -0.9156724051436339 1
gene  1 22 38 0.3949894879107453 0 3906.0 0.3949894879107453 1
gene  1 23 38 0.8273502829335043 0 3907.0 0.8273502829335043 1
gene  1 24 38 0.5740695869074169 0 3908.0 0.5740695869074169 1
gene  1 30 38 -0.9703872774900665 0 3914.0 -0.9703872774900665 1
gene  1 31 38 -0.6513104818954 0 3915.0 -0.6513104818954 1
gene  1 36 38 0.7566137298864505 0 3920.0 0.7566137298864505 1
gene  1 1 39 0.9403768068760366 0 3990.0 0.9403768068760366 1
gene  1 5 39 0.9298622358474011 0 3994.0 0.9298622358474011 1
gene  1 6 39 -0.31637833213406874 0 3995.0 -0.31637833213406874 1
gene  1 9 39 0.11798568923820307 0 3998.0 0.11798568923820307 1
gene  1 12 39 -0.7320018289950406 0 4001.0 -0.7320018289950406 1
gene  1 14 39 0.15596112870997003 0 4003.0 0.15596112870997003 1
gene  1 16 39 0.3706943178083668 0 4005.0 0.3706943178083668 1
gene  1 17 39 0.7326653337886606 0 4006.0 0.7326653337886606 1
gene  1 18 39 0.24667355631016952 0 4007.0 0.24667355631016952 1
gene  1 25 39 -0.7201145267876653 0 4014.0 -0.7201145267876653 1
gene  1 26 39 -0.8035617852203204 0 4015.0 -0.8035617852203204 1
gene  1 29 39 -0.108798783312399 0 4018.0 -0.108798783312399 1
gene  1 30 39 -0.3496740221889961 0 4019.0 -0.3496740221889961 1
gene  1 31 39 -0.8733959587266541 0 4020.0 -0.8733959587266541 1
gene  1 32 39 -0.8642046861905014 0 4021.0 -0.8642046861905014 1
gene  1 37 39 0.11941217344626842 0 4026.0 0.11941217344626842 1
gene  1 38 39 0.4985529818780562 0 4027.0 0.4985529818780562 1
gene  1 1 105 -0.6740738609127084 0 10920.0 -0.6740738609127084 1
gene  1 5 105 0.9851685028360069 0 10924.0 0.9851685028360069 1
gene  1 6 105 0.931559502638104 0 10925.0 0.931559502638104 1
gene  1 7 105 -0.584968712489749 0 10926.0 -0.584968712489749 1
gene  1 8 105 0.6943369297450794 0 10927.0 0.6943369297450794 1
gene  1 10 105 0.8866253432006316 0 10929.0 0.8866253432006316 1
gene  1 11 105 -0.330018414970647 0 10930.0 -0.330018414970647 1
gene  1 16 105 0.26718808275210815 0 10935.0 0.26718808275210815 1
gene  1 18 105 -0.6363563155954198 0 10937.0 -0.6363563155954198 1
gene  1 23 105 -0.509643581801788 0 10942.0 -0.509643581801788 1
gene  1 25 105 -0.7899154192293039 0 10944.0 -0.7899154192293039 1
gene  1 26 105 0.7172715158840199 0 10945.0 0.7172715158840199 1
gene  1 33 105 -0.21832438804331333 0 10952.0 -0.21832438804331333 1
gene  1 37 105 0.08710078672754096 0 10956.0 0.08710078672754096 1
gene  1 39 105 0.8846449381698575 0 10958.0 0.8846449381698575 1
genomeend 4
