genomestart  53
trait 1 0.0 0.0 0.0 0.0 0.0 0.0 0.0 0.0 0.0 0.0 0.0 0.0 0.0 0.0 0.0 0.0 0.0 0.0 0.0 0.0 
node 1 1 1 1
node 2 1 1 1
node 3 1 1 1
node 4 1 1 1
node 5 1 1 3
node 6 1 0 0
node 7 1 0 0
node 8 1 0 0
node 9 1 0 0
node 10 1 0 0
node 16 1 0 2
gene  1 1 6 -0.03792376721197954 0 80.0 -0.03792376721197954 1
gene  1 2 6 -0.02829507658624908 0 81.0 -0.02829507658624908 1
gene  1 4 6 -0.6881596945024021 0 83.0 -0.6881596945024021 1
gene  1 5 6 -0.8131680896804592 0 84.0 -0.8131680896804592 1
gene  1 1 7 -0.8531283987269828 0 96.0 -0.8531283987269828 1
gene  1 2 7 0.21493265859892097 0 97.0 0.21493265859892097 1
gene  1 3 7 0.5194280813191319 0 98.0 0.5194280813191319 1
gene  1 5 7 -0.9820068327268614 0 100.0 -0.9820068327268614 1
gene  1 1 8 -0.426655116100337 0 112.0 -0.426655116100337 1
gene  1 2 8 -0.5234504022089471 0 113.0 -0.5234504022089471 1
gene  1 7 8 -0.45363811747684757 0 118.0 -0.45363811747684757 1
gene  1 1 9 0.5171259743710194 0 128.0 0.5171259743710194 1
gene  1 3 9 -0.5953402342248775 0 130.0 -0.5953402342248775 1
gene  1 5 9 -0.8223278767643702 0 132.0 -0.8223278767643702 1
gene  1 7 9 -0.06864311625617636 0 134.0 -0.06864311625617636 1
gene  1 8 9 -0.9054046991126724 0 135.0 -0.9054046991126724 1
gene  1 1 10 -0.7579559943354437 0 144.0 -0.7579559943354437 1
gene  1 3 10 -0.895991807938165 0 146.0 -0.895991807938165 1
gene  1 4 10 0.9796812464449002 0 147.0 0.9796812464449002 1
gene  1 6 10 -0.5578973106037549 0 149.0 -0.5578973106037549 1
gene  1 8 10 0.3900356940637365 0 151.0 0.3900356940637365 1
gene  1 2 16 -0.39577488274805817 0 241.0 -0.39577488274805817 1
gene  1 4 16 -0.45041099180898947 0 243.0 -0.45041099180898947 1
gene  1 5 16 0.15701819596957367 0 244.0 0.15701819596957367 1
gene  1 6 16 0.7434149953134809 0 245.0 0.7434149953134809 1
gene  1 7 16 0.347188257568551 0 246.0 0.347188257568551 1
genomeend 53
