genomestart  52
trait 1 0.0 0.0 0.0 0.0 0.0 0.0 0.0 0.0 0.0 0.0 0.0 0.0 0.0 0.0 0.0 0.0 0.0 0.0 0.0 0.0 
node 1 1 1 1
node 2 1 1 1
node 3 1 1 1
node 4 1 1 1
node 5 1 1 3
node 6 1 0 0
node 7 1 0 0
node 8 1 0 0
node 9 1 0 0
node 10 1 0 0
node 11 1 0 0
node 16 1 0 2
gene  1 1 6 -0.2859508646609775 0 80.0 -0.2859508646609775 1
gene  1 3 6 -0.22248008918766093 0 82.0 -0.22248008918766093 1
gene  1 4 7 0.7582262129289132 0 99.0 0.7582262129289132 1
gene  1 6 7 -0.7073599854328646 0 101.0 -0.7073599854328646 1
gene  1 1 8 0.11857624303814218 0 112.0 0.11857624303814218 1
gene  1 3 8 -0.8167679487056104 0 114.0 -0.8167679487056104 1
gene  1 6 8 0.8380905902961336 0 117.0 0.8380905902961336 1
gene  1 1 9 0.4950712496814602 0 128.0 0.4950712496814602 1
gene  1 2 9 -0.13059051031706603 0 129.0 -0.13059051031706603 1
gene  1 3 9 0.7110419083847224 0 130.0 0.7110419083847224 1
gene  1 4 9 0.44504179257358123 0 131.0 0.44504179257358123 1
gene  1 5 9 -0.8133271603132991 0 132.0 -0.8133271603132991 1
gene  1 2 10 -0.6462968474389688 0 145.0 -0.6462968474389688 1
gene  1 3 10 0.008333327731376627 0 146.0 0.008333327731376627 1
gene  1 5 10 0.07363598433755858 0 148.0 0.07363598433755858 1
gene  1 6 10 0.43331107166411886 0 149.0 0.43331107166411886 1
gene  1 7 10 0.5946897133205388 0 150.0 0.5946897133205388 1
gene  1 8 10 0.19622648344583882 0 151.0 0.19622648344583882 1
gene  1 9 10 -0.6229893591401244 0 152.0 -0.6229893591401244 1
gene  1 2 11 -0.6307960525359956 0 161.0 -0.6307960525359956 1
gene  1 5 11 -0.49313146823487786 0 164.0 -0.49313146823487786 1
gene  1 8 11 -0.7614493902352703 0 167.0 -0.7614493902352703 1
gene  1 10 11 0.25706496379650356 0 169.0 0.25706496379650356 1
gene  1 1 16 0.12318938450631745 0 240.0 0.12318938450631745 1
gene  1 2 16 -0.5430262175756857 0 241.0 -0.5430262175756857 1
gene  1 4 16 0.4680236130649016 0 243.0 0.4680236130649016 1
gene  1 5 16 -0.5322782858248937 0 244.0 -0.5322782858248937 1
gene  1 9 16 0.678221385828108 0 248.0 0.678221385828108 1
genomeend 52
