genomestart  60
trait 1 0.0 0.0 0.0 0.0 0.0 0.0 0.0 0.0 0.0 0.0 0.0 0.0 0.0 0.0 0.0 0.0 0.0 0.0 0.0 0.0 
node 1 1 1 1
node 2 1 1 1
node 3 1 1 1
node 4 1 1 1
node 5 1 1 3
node 6 1 0 0
node 7 1 0 0
node 8 1 0 0
node 9 1 0 0
node 10 1 0 0
node 11 1 0 0
node 12 1 0 0
node 16 1 0 2
gene  1 3 6 0.20874867496942195 0 82.0 0.20874867496942195 1
gene  1 1 7 0.18624903158419426 0 96.0 0.18624903158419426 1
gene  1 4 7 -0.6930441365659968 0 99.0 -0.6930441365659968 1
gene  1 6 7 0.8317324507198981 0 101.0 0.8317324507198981 1
gene  1 2 8 -0.520604068378926 0 113.0 -0.520604068378926 1
gene  1 4 8 -0.728458482316142 0 115.0 -0.728458482316142 1
gene  1 5 8 0.6727395048167105 0 116.0 0.6727395048167105 1
gene  1 2 9 0.21175712241453726 0 129.0 0.21175712241453726 1
gene  1 7 9 0.16899552892490222 0 134.0 0.16899552892490222 1
gene  1 2 10 -0.021108289258973012 0 145.0 -0.021108289258973012 1
gene  1 3 10 -0.21540419763839735 0 146.0 -0.21540419763839735 1
gene  1 4 10 -0.5306670811677783 0 147.0 -0.5306670811677783 1
gene  1 7 10 -0.19046142807460198 0 150.0 -0.19046142807460198 1
gene  1 9 10 -0.5638010064376613 0 152.0 -0.5638010064376613 1
gene  1 3 11 0.9792840526077595 0 162.0 0.9792840526077595 1
gene  1 4 11 -0.3709616771469051 0 163.0 -0.3709616771469051 1
gene  1 5 11 -0.9169928327200912 0 164.0 -0.9169928327200912 1
gene  1 7 11 0.0372867095389785 0 166.0 0.0372867095389785 1
gene  1 8 11 0.4165112024090254 0 167.0 0.4165112024090254 1
gene  1 9 11 0.5395380468138372 0 168.0 0.5395380468138372 1
gene  1 1 12 -0.24158262078433013 0 176.0 -0.24158262078433013 1
gene  1 4 12 0.9729305413864613 0 179.0 0.9729305413864613 1
gene  1 8 12 0.6566427768977035 0 183.0 0.6566427768977035 1
gene  1 9 12 0.36033544477532553 0 184.0 0.36033544477532553 1
gene  1 10 12 0.5609867572945415 0 185.0 0.5609867572945415 1
gene  1 11 12 0.5353690322390793 0 186.0 0.5353690322390793 1
gene  1 1 16 0.7450843667035479 0 240.0 0.7450843667035479 1
gene  1 3 16 0.5924148130019561 0 242.0 0.5924148130019561 1
gene  1 5 16 0.12921841376332688 0 244.0 0.12921841376332688 1
gene  1 6 16 -0.8153349108644793 0 245.0 -0.8153349108644793 1
gene  1 10 16 -0.804386876758836 0 249.0 -0.804386876758836 1
gene  1 12 16 -0.8718590479459365 0 251.0 -0.8718590479459365 1
genomeend 60
