genomestart  41
trait 1 0.0 0.0 0.0 0.0 0.0 0.0 0.0 0.0 0.0 0.0 0.0 0.0 0.0 0.0 0.0 0.0 0.0 0.0 0.0 0.0 
node 1 1 1 1
node 2 1 1 1
node 3 1 1 1
node 4 1 1 3
node 5 1 0 0
node 6 1 0 0
node 7 1 0 0
node 8 1 0 0
node 9 1 0 0
node 10 1 0 0
node 11 1 0 0
node 12 1 0 0
node 13 1 0 0
node 14 1 0 0
node 15 1 0 0
node 16 1 0 0
node 105 1 0 2
gene  1 1 6 0.017609614481999936 0 525.0 0.017609614481999936 1
gene  1 4 6 -0.25093814091991107 0 528.0 -0.25093814091991107 1
gene  1 5 6 -0.631181726233371 0 529.0 -0.631181726233371 1
gene  1 3 7 0.9594722800149686 0 632.0 0.9594722800149686 1
gene  1 5 7 -0.9329407466195091 0 634.0 -0.9329407466195091 1
gene  1 6 7 0.9301612678136448 0 635.0 0.9301612678136448 1
gene  1 2 8 0.2051920957525274 0 736.0 0.2051920957525274 1
gene  1 3 8 0.15312517094930378 0 737.0 0.15312517094930378 1
gene  1 5 8 0.20846784662057904 0 739.0 0.20846784662057904 1
gene  1 6 8 0.6595588265434355 0 740.0 0.6595588265434355 1
gene  1 7 8 0.7498431068899188 0 741.0 0.7498431068899188 1
gene  1 2 9 -0.3272726546731104 0 841.0 -0.3272726546731104 1
gene  1 3 9 0.45099110664103004 0 842.0 0.45099110664103004 1
gene  1 6 9 0.58402935988989 0 845.0 0.58402935988989 1
gene  1 8 9 0.359700946953041 0 847.0 0.359700946953041 1
gene  1 3 10 0.2986862997968025 0 947.0 0.2986862997968025 1
gene  1 6 10 0.021388855052998035 0 950.0 0.021388855052998035 1
gene  1 7 10 0.12624625896407338 0 951.0 0.12624625896407338 1
gene  1 8 10 0.39137378030913994 0 952.0 0.39137378030913994 1
gene  1 1 11 0.7693501618837605 0 1050.0 0.7693501618837605 1
gene  1 2 11 0.1643200808041001 0 1051.0 0.1643200808041001 1
gene  1 3 11 -0.8526441318784383 0 1052.0 -0.8526441318784383 1
gene  1 5 11 -0.9731033348160121 0 1054.0 -0.9731033348160121 1
gene  1 6 11 0.5192471839400716 0 1055.0 0.5192471839400716 1
gene  1 7 11 -0.6239883600631446 0 1056.0 -0.6239883600631446 1
gene  1 8 11 0.4309259155223196 0 1057.0 0.4309259155223196 1
gene  1 9 11 -0.6757995508217657 0 1058.0 -0.6757995508217657 1
gene  1 10 11 0.9258145190455009 0 1059.0 0.9258145190455009 1
gene  1 1 12 -0.24519173337404687 0 1155.0 -0.24519173337404687 1
gene  1 3 12 -0.8421786823899715 0 1157.0 -0.8421786823899715 1
gene  1 4 12 -0.04186518478610313 0 1158.0 -0.04186518478610313 1
gene  1 5 12 -0.724606740639929 0 1159.0 -0.724606740639929 1
gene  1 6 12 0.34880371167390933 0 1160.0 0.34880371167390933 1
gene  1 9 12 0.05275798528001985 0 1163.0 0.05275798528001985 1
gene  1 11 12 -0.8027742442033897 0 1165.0 -0.8027742442033897 1
gene  1 3 13 -0.3265124845310594 0 1262.0 -0.3265124845310594 1
gene  1 5 13 -0.5800750736282068 0 1264.0 -0.5800750736282068 1
gene  1 7 13 -0.6782680532045243 0 1266.0 -0.6782680532045243 1
gene  1 8 13 -0.2907190221532542 0 1267.0 -0.2907190221532542 1
gene  1 11 13 0.7870099253213386 0 1270.0 0.7870099253213386 1
gene  1 1 14 -0.9342538533430276 0 1365.0 -0.9342538533430276 1
gene  1 3 14 0.21879831883401302 0 1367.0 0.21879831883401302 1
gene  1 5 14 -0.42095114776378106 0 1369.0 -0.42095114776378106 1
gene  1 6 14 0.6404280062592674 0 1370.0 0.6404280062592674 1
gene  1 7 14 -0.16640434544325167 0 1371.0 -0.16640434544325167 1
gene  1 9 14 0.5050206586869996 0 1373.0 0.5050206586869996 1
gene  1 10 14 0.8938159541263713 0 1374.0 0.8938159541263713 1
gene  1 12 14 0.20938491566648454 0 1376.0 0.20938491566648454 1
gene  1 13 14 0.362257038563087 0 1377.0 0.362257038563087 1
gene  1 2 15 -0.4721267112340044 0 1471.0 -0.4721267112340044 1
gene  1 4 15 0.9398908347056423 0 1473.0 0.9398908347056423 1
gene  1 5 15 -0.8532639329477549 0 1474.0 -0.8532639329477549 1
gene  1 6 15 -0.07760049184106588 0 1475.0 -0.07760049184106588 1
gene  1 7 15 -0.03558605687348737 0 1476.0 -0.03558605687348737 1
gene  1 8 15 0.05594011672035415 0 1477.0 0.05594011672035415 1
gene  1 10 15 0.5908872072579542 0 1479.0 0.5908872072579542 1
gene  1 12 15 -0.8101760349721423 0 1481.0 -0.8101760349721423 1
gene  1 13 15 -0.05140435969144086 0 1482.0 -0.05140435969144086 1
gene  1 1 16 0.09831776974348327 0 1575.0 0.09831776974348327 1
gene  1 2 16 -0.01697385562145748 0 1576.0 -0.01697385562145748 1
gene  1 4 16 -0.23716802418083138 0 1578.0 -0.23716802418083138 1
gene  1 5 16 -0.3354011967858138 0 1579.0 -0.3354011967858138 1
gene  1 7 16 0.7055863241635343 0 1581.0 0.7055863241635343 1
gene  1 8 16 0.8093981962349623 0 1582.0 0.8093981962349623 1
gene  1 10 16 0.3919868990663621 0 1584.0 0.3919868990663621 1
gene  1 11 16 0.8318295605206897 0 1585.0 0.8318295605206897 1
gene  1 12 16 -0.001951492910027608 0 1586.0 -0.001951492910027608 1
gene  1 13 16 -0.008957200089426354 0 1587.0 -0.008957200089426354 1
gene  1 2 105 -0.9467828981515174 0 10921.0 -0.9467828981515174 1
gene  1 3 105 0.9616197719309619 0 10922.0 0.9616197719309619 1
gene  1 4 105 0.6229905611507028 0 10923.0 0.6229905611507028 1
gene  1 5 105 0.7439452124860291 0 10924.0 0.7439452124860291 1
gene  1 6 105 -0.8645442816166793 0 10925.0 -0.8645442816166793 1
gene  1 7 105 -0.2542194202961674 0 10926.0 -0.2542194202961674 1
gene  1 8 105 0.3373035411766444 0 10927.0 0.3373035411766444 1
gene  1 9 105 0.0013272274912581317 0 10928.0 0.0013272274912581317 1
gene  1 10 105 0.6611389667662975 0 10929.0 0.6611389667662975 1
gene  1 11 105 0.7433619147716252 0 10930.0 0.7433619147716252 1
gene  1 13 105 -0.4912416108249036 0 10932.0 -0.4912416108249036 1
gene  1 14 105 -0.23208140526865395 0 10933.0 -0.23208140526865395 1
genomeend 41
