genomestart  36
trait 1 0.0 0.0 0.0 0.0 0.0 0.0 0.0 0.0 0.0 0.0 0.0 0.0 0.0 0.0 0.0 0.0 0.0 0.0 0.0 0.0 
node 1 1 1 1
node 2 1 1 1
node 3 1 1 1
node 4 1 1 1
node 5 1 1 3
node 6 1 0 0
node 7 1 0 0
node 8 1 0 0
node 9 1 0 0
node 10 1 0 0
node 11 1 0 0
node 12 1 0 0
node 13 1 0 0
node 16 1 0 2
gene  1 1 6 0.13786819712507525 0 80.0 0.13786819712507525 1
gene  1 4 6 0.24799460976893373 0 83.0 0.24799460976893373 1
gene  1 1 7 0.29349637868762324 0 96.0 0.29349637868762324 1
gene  1 2 7 -0.7551846647076326 0 97.0 -0.7551846647076326 1
gene  1 5 7 -0.825125655479183 0 100.0 -0.825125655479183 1
gene  1 1 8 -0.38344215110900237 0 112.0 -0.38344215110900237 1
gene  1 4 8 -0.22797404976258873 0 115.0 -0.22797404976258873 1
gene  1 5 8 -0.649911375611833 0 116.0 -0.649911375611833 1
gene  1 6 8 0.2066346054873961 0 117.0 0.2066346054873961 1
gene  1 7 8 -0.7100315300945806 0 118.0 -0.7100315300945806 1
gene  1 2 9 -0.18309177992313808 0 129.0 -0.18309177992313808 1
gene  1 4 9 0.3271163902543732 0 131.0 0.3271163902543732 1
gene  1 6 9 -0.8411861219026967 0 133.0 -0.8411861219026967 1
gene  1 8 9 0.7063747091540475 0 135.0 0.7063747091540475 1
gene  1 1 10 0.2498554270508876 0 144.0 0.2498554270508876 1
gene  1 2 10 -0.7617394511051612 0 145.0 -0.7617394511051612 1
gene  1 3 10 0.7391421112067736 0 146.0 0.7391421112067736 1
gene  1 4 10 0.09565429600455222 0 147.0 0.09565429600455222 1
gene  1 5 10 0.38621381802347055 0 148.0 0.38621381802347055 1
gene  1 6 10 -0.8806471831414391 0 149.0 -0.8806471831414391 1
gene  1 7 10 -0.5141255272733202 0 150.0 -0.5141255272733202 1
gene  1 8 10 -0.5452414403909573 0 151.0 -0.5452414403909573 1
gene  1 1 11 -0.052230664546336625 0 160.0 -0.052230664546336625 1
gene  1 3 11 -0.46176156821078995 0 162.0 -0.46176156821078995 1
gene  1 5 11 0.6945064632055399 0 164.0 0.6945064632055399 1
gene  1 7 11 0.04371575851321263 0 166.0 0.04371575851321263 1
gene  1 9 11 0.26883227553812616 0 168.0 0.26883227553812616 1
gene  1 1 12 0.07582815668918996 0 176.0 0.07582815668918996 1
gene  1 2 12 0.8373423510717131 0 177.0 0.8373423510717131 1
gene  1 3 12 0.30072697926869507 0 178.0 0.30072697926869507 1
gene  1 4 12 -0.7494680192001185 0 179.0 -0.7494680192001185 1
gene  1 5 12 0.9315548055406144 0 180.0 0.9315548055406144 1
gene  1 7 12 -0.8637723798682689 0 182.0 -0.8637723798682689 1
gene  1 11 12 0.19292219301346436 0 186.0 0.19292219301346436 1
gene  1 1 13 -0.4211989582194927 0 192.0 -0.4211989582194927 1
gene  1 3 13 0.12317660559950128 0 194.0 0.12317660559950128 1
gene  1 6 13 -0.6536738992389801 0 197.0 -0.6536738992389801 1
gene  1 7 13 0.1312012940878048 0 198.0 0.1312012940878048 1
gene  1 10 13 -0.2966318054379281 0 201.0 -0.2966318054379281 1
gene  1 11 13 0.5730398896358163 0 202.0 0.5730398896358163 1
gene  1 1 16 -0.5871425689376776 0 240.0 -0.5871425689376776 1
gene  1 2 16 -0.365116266329674 0 241.0 -0.365116266329674 1
gene  1 3 16 -0.9614024753289195 0 242.0 -0.9614024753289195 1
gene  1 4 16 -0.11074263697498288 0 243.0 -0.11074263697498288 1
gene  1 5 16 -0.6364082822983671 0 244.0 -0.6364082822983671 1
gene  1 9 16 -0.2679286103821019 0 248.0 -0.2679286103821019 1
gene  1 12 16 -0.2561267095030969 0 251.0 -0.2561267095030969 1
gene  1 13 16 0.444292083426298 0 252.0 0.444292083426298 1
genomeend 36
