genomestart  33
trait 1 0.0 0.0 0.0 0.0 0.0 0.0 0.0 0.0 0.0 0.0 0.0 0.0 0.0 0.0 0.0 0.0 0.0 0.0 0.0 0.0 
node 1 1 1 1
node 2 1 1 1
node 3 1 1 1
node 4 1 1 3
node 5 1 0 0
node 6 1 0 0
node 7 1 0 0
node 8 1 0 0
node 9 1 0 0
node 10 1 0 0
node 11 1 0 0
node 12 1 0 0
node 13 1 0 0
node 14 1 0 0
node 15 1 0 0
node 16 1 0 0
node 17 1 0 0
node 18 1 0 0
node 19 1 0 0
node 20 1 0 0
node 21 1 0 0
node 22 1 0 0
node 23 1 0 0
node 24 1 0 0
node 25 1 0 0
node 26 1 0 0
node 27 1 0 0
node 28 1 0 0
node 29 1 0 0
node 30 1 0 0
node 31 1 0 0
node 32 1 0 0
node 33 1 0 0
node 34 1 0 0
node 35 1 0 0
node 36 1 0 0
node 37 1 0 0
node 38 1 0 0
node 39 1 0 0
node 40 1 0 0
node 41 1 0 0
node 42 1 0 0
node 43 1 0 0
node 44 1 0 0
node 45 1 0 0
node 46 1 0 0
node 47 1 0 0
node 48 1 0 0
node 49 1 0 0
node 50 1 0 0
node 51 1 0 0
node 52 1 0 0
node 53 1 0 0
node 54 1 0 0
node 55 1 0 0
node 56 1 0 0
node 57 1 0 0
node 58 1 0 0
node 59 1 0 0
node 60 1 0 0
node 61 1 0 0
node 62 1 0 0
node 63 1 0 0
node 64 1 0 0
node 65 1 0 0
node 66 1 0 0
node 67 1 0 0
node 68 1 0 0
node 69 1 0 0
node 70 1 0 0
node 71 1 0 0
node 72 1 0 0
node 73 1 0 0
node 74 1 0 0
node 75 1 0 0
node 76 1 0 0
node 77 1 0 0
node 78 1 0 0
node 79 1 0 0
node 80 1 0 0
node 81 1 0 0
node 82 1 0 0
node 83 1 0 0
node 84 1 0 0
node 85 1 0 0
node 86 1 0 0
node 87 1 0 0
node 88 1 0 0
node 89 1 0 0
node 90 1 0 0
node 91 1 0 0
node 92 1 0 0
node 93 1 0 0
node 94 1 0 0
node 105 1 0 2
gene  1 1 5 -0.10311327287928895 0 420.0 -0.10311327287928895 1
gene  1 2 5 0.5972393902456788 0 421.0 0.5972393902456788 1
gene  1 1 6 0.885437312741333 0 525.0 0.885437312741333 1
gene  1 2 6 0.06071875001327198 0 526.0 0.06071875001327198 1
gene  1 5 6 -0.10530001095317909 0 529.0 -0.10530001095317909 1
gene  1 2 7 0.7532563269519323 0 631.0 0.7532563269519323 1
gene  1 4 7 -0.5076577116203345 0 633.0 -0.5076577116203345 1
gene  1 1 8 0.23307962182990505 0 735.0 0.23307962182990505 1
gene  1 2 8 -0.37035555153082655 0 736.0 -0.37035555153082655 1
gene  1 3 8 0.23892910121098632 0 737.0 0.23892910121098632 1
gene  1 4 8 -0.2849739472711954 0 738.0 -0.2849739472711954 1
gene  1 5 8 0.9066039446417867 0 739.0 0.9066039446417867 1
gene  1 5 9 -0.4924015040941562 0 844.0 -0.4924015040941562 1
gene  1 1 10 0.26666580863102973 0 945.0 0.26666580863102973 1
gene  1 6 10 -0.4793663786804515 0 950.0 -0.4793663786804515 1
gene  1 8 10 0.6823256516994435 0 952.0 0.6823256516994435 1
gene  1 9 10 0.04171229087391315 0 953.0 0.04171229087391315 1
gene  1 4 11 0.966187392620942 0 1053.0 0.966187392620942 1
gene  1 5 11 0.9139817323265788 0 1054.0 0.9139817323265788 1
gene  1 7 11 -0.5968783657243859 0 1056.0 -0.5968783657243859 1
gene  1 8 11 -0.3863440598731247 0 1057.0 -0.3863440598731247 1
gene  1 2 12 -0.5633149063689448 0 1156.0 -0.5633149063689448 1
gene  1 3 12 -0.8467055304723453 0 1157.0 -0.8467055304723453 1
gene  1 6 12 0.4973553604508091 0 1160.0 0.4973553604508091 1
gene  1 7 12 -0.5108933440721863 0 1161.0 -0.5108933440721863 1
gene  1 9 12 -0.22681849762359707 0 1163.0 -0.22681849762359707 1
gene  1 10 12 -0.5423240260547132 0 1164.0 -0.5423240260547132 1
gene  1 1 13 -0.8290020727988255 0 1260.0 -0.8290020727988255 1
gene  1 4 13 -0.008151272633585616 0 1263.0 -0.008151272633585616 1
gene  1 6 13 0.4630913756228098 0 1265.0 0.4630913756228098 1
gene  1 10 13 -0.5057856542286241 0 1269.0 -0.5057856542286241 1
gene  1 1 14 -0.08706557251807712 0 1365.0 -0.08706557251807712 1
gene  1 3 14 -0.1559798718463884 0 1367.0 -0.1559798718463884 1
gene  1 10 14 0.4317021261813573 0 1374.0 0.4317021261813573 1
gene  1 11 14 0.4409600294295497 0 1375.0 0.4409600294295497 1
gene  1 12 14 -0.3951582876795603 0 1376.0 -0.3951582876795603 1
gene  1 13 14 0.47384220258670473 0 1377.0 0.47384220258670473 1
gene  1 1 15 -0.4292109453428071 0 1470.0 -0.4292109453428071 1
gene  1 2 15 0.25736771875277176 0 1471.0 0.25736771875277176 1
gene  1 4 15 -0.0912285618771761 0 1473.0 -0.0912285618771761 1
gene  1 5 15 -0.9172007874199094 0 1474.0 -0.9172007874199094 1
gene  1 7 15 0.08404972298295843 0 1476.0 0.08404972298295843 1
gene  1 8 15 0.1086890510035089 0 1477.0 0.1086890510035089 1
gene  1 10 15 -0.5483959170703382 0 1479.0 -0.5483959170703382 1
gene  1 11 15 -0.18396623017101676 0 1480.0 -0.18396623017101676 1
gene  1 14 15 0.4836752711185911 0 1483.0 0.4836752711185911 1
gene  1 1 16 0.6178995257118306 0 1575.0 0.6178995257118306 1
gene  1 3 16 -0.9981035801213267 0 1577.0 -0.9981035801213267 1
gene  1 6 16 -0.730213134261891 0 1580.0 -0.730213134261891 1
gene  1 7 16 -0.650398793693522 0 1581.0 -0.650398793693522 1
gene  1 8 16 -0.34044490482016665 0 1582.0 -0.34044490482016665 1
gene  1 9 16 -0.9207442565158767 0 1583.0 -0.9207442565158767 1
gene  1 12 16 -0.5117420575786858 0 1586.0 -0.5117420575786858 1
gene  1 15 16 -0.049938950839846785 0 1589.0 -0.049938950839846785 1
gene  1 2 17 0.7141520043435688 0 1681.0 0.7141520043435688 1
gene  1 4 17 -0.7344766217999957 0 1683.0 -0.7344766217999957 1
gene  1 5 17 0.15738534967963602 0 1684.0 0.15738534967963602 1
gene  1 7 17 -0.3843747306591483 0 1686.0 -0.3843747306591483 1
gene  1 8 17 0.4271484919006554 0 1687.0 0.4271484919006554 1
gene  1 10 17 0.4535967216943311 0 1689.0 0.4535967216943311 1
gene  1 11 17 0.9472408528430489 0 1690.0 0.9472408528430489 1
gene  1 12 17 -0.9382090024057437 0 1691.0 -0.9382090024057437 1
gene  1 14 17 -0.3468742962414181 0 1693.0 -0.3468742962414181 1
gene  1 15 17 -0.6576635005837836 0 1694.0 -0.6576635005837836 1
gene  1 3 18 0.30665251486610934 0 1787.0 0.30665251486610934 1
gene  1 5 18 -0.5339755274433295 0 1789.0 -0.5339755274433295 1
gene  1 6 18 0.04763534441969686 0 1790.0 0.04763534441969686 1
gene  1 7 18 -0.2625743493839473 0 1791.0 -0.2625743493839473 1
gene  1 8 18 0.46149897256998773 0 1792.0 0.46149897256998773 1
gene  1 17 18 0.4554017962080289 0 1801.0 0.4554017962080289 1
gene  1 1 19 0.06376921162958893 0 1890.0 0.06376921162958893 1
gene  1 2 19 0.01280017238890252 0 1891.0 0.01280017238890252 1
gene  1 3 19 -0.843332654694827 0 1892.0 -0.843332654694827 1
gene  1 7 19 -0.9266118544052983 0 1896.0 -0.9266118544052983 1
gene  1 8 19 -0.40243187972498773 0 1897.0 -0.40243187972498773 1
gene  1 10 19 0.4147438068861453 0 1899.0 0.4147438068861453 1
gene  1 11 19 0.9296414097013811 0 1900.0 0.9296414097013811 1
gene  1 12 19 0.2321346387844434 0 1901.0 0.2321346387844434 1
gene  1 15 19 0.5557231548947387 0 1904.0 0.5557231548947387 1
gene  1 17 19 -0.6462831521292509 0 1906.0 -0.6462831521292509 1
gene  1 1 20 -0.5848644184895251 0 1995.0 -0.5848644184895251 1
gene  1 4 20 0.8333607460459908 0 1998.0 0.8333607460459908 1
gene  1 5 20 -0.3471628801036656 0 1999.0 -0.3471628801036656 1
gene  1 8 20 0.24547856643938104 0 2002.0 0.24547856643938104 1
gene  1 10 20 0.9960416621110095 0 2004.0 0.9960416621110095 1
gene  1 11 20 -0.8132296042049152 0 2005.0 -0.8132296042049152 1
gene  1 15 20 -0.88260776446559 0 2009.0 -0.88260776446559 1
gene  1 18 20 0.5875123955056772 0 2012.0 0.5875123955056772 1
gene  1 1 21 0.8217454997033281 0 2100.0 0.8217454997033281 1
gene  1 2 21 0.26486875428946255 0 2101.0 0.26486875428946255 1
gene  1 5 21 0.7101294391621991 0 2104.0 0.7101294391621991 1
gene  1 8 21 -0.08541632135876165 0 2107.0 -0.08541632135876165 1
gene  1 11 21 -0.7772398183631465 0 2110.0 -0.7772398183631465 1
gene  1 15 21 -0.35606018735397993 0 2114.0 -0.35606018735397993 1
gene  1 16 21 0.9461032771489932 0 2115.0 0.9461032771489932 1
gene  1 17 21 0.02612769587705377 0 2116.0 0.02612769587705377 1
gene  1 20 21 -0.1300226615897745 0 2119.0 -0.1300226615897745 1
gene  1 1 22 0.44606613984718657 0 2205.0 0.44606613984718657 1
gene  1 2 22 -0.6241053648782741 0 2206.0 -0.6241053648782741 1
gene  1 5 22 -0.10487957040194051 0 2209.0 -0.10487957040194051 1
gene  1 8 22 0.2797853730829305 0 2212.0 0.2797853730829305 1
gene  1 9 22 -0.922671454484104 0 2213.0 -0.922671454484104 1
gene  1 11 22 -0.2568763524668225 0 2215.0 -0.2568763524668225 1
gene  1 15 22 -0.2207186857803073 0 2219.0 -0.2207186857803073 1
gene  1 17 22 0.03150378698999445 0 2221.0 0.03150378698999445 1
gene  1 18 22 0.15533032264918278 0 2222.0 0.15533032264918278 1
gene  1 19 22 0.566657330834543 0 2223.0 0.566657330834543 1
gene  1 3 23 0.41379018713990223 0 2312.0 0.41379018713990223 1
gene  1 6 23 0.36036689597312466 0 2315.0 0.36036689597312466 1
gene  1 8 23 0.8369572983807744 0 2317.0 0.8369572983807744 1
gene  1 9 23 0.3920778230962553 0 2318.0 0.3920778230962553 1
gene  1 12 23 -0.9775281118905118 0 2321.0 -0.9775281118905118 1
gene  1 13 23 0.41743279451717896 0 2322.0 0.41743279451717896 1
gene  1 14 23 -0.8959641536007723 0 2323.0 -0.8959641536007723 1
gene  1 15 23 0.8863019474123653 0 2324.0 0.8863019474123653 1
gene  1 19 23 0.5795232881459875 0 2328.0 0.5795232881459875 1
gene  1 3 24 -0.4745360530757913 0 2417.0 -0.4745360530757913 1
gene  1 7 24 -0.4072787143763814 0 2421.0 -0.4072787143763814 1
gene  1 10 24 -0.6065089457254598 0 2424.0 -0.6065089457254598 1
gene  1 14 24 0.5339561296784546 0 2428.0 0.5339561296784546 1
gene  1 16 24 0.179689024249433 0 2430.0 0.179689024249433 1
gene  1 17 24 0.4938300555383669 0 2431.0 0.4938300555383669 1
gene  1 18 24 -0.8935709367740893 0 2432.0 -0.8935709367740893 1
gene  1 19 24 -0.34330934239294786 0 2433.0 -0.34330934239294786 1
gene  1 21 24 0.3480284227046324 0 2435.0 0.3480284227046324 1
gene  1 3 25 0.9877597358685274 0 2522.0 0.9877597358685274 1
gene  1 5 25 0.846937214119683 0 2524.0 0.846937214119683 1
gene  1 6 25 -0.9717136650220393 0 2525.0 -0.9717136650220393 1
gene  1 7 25 -0.9906425269464751 0 2526.0 -0.9906425269464751 1
gene  1 11 25 -0.6847082874907806 0 2530.0 -0.6847082874907806 1
gene  1 12 25 -0.11656314324852812 0 2531.0 -0.11656314324852812 1
gene  1 13 25 0.5277078634936915 0 2532.0 0.5277078634936915 1
gene  1 16 25 -0.06112940266879752 0 2535.0 -0.06112940266879752 1
gene  1 18 25 0.868098318689941 0 2537.0 0.868098318689941 1
gene  1 19 25 -0.9239257805363034 0 2538.0 -0.9239257805363034 1
gene  1 23 25 -0.6682609740134536 0 2542.0 -0.6682609740134536 1
gene  1 1 26 0.6386169626912477 0 2625.0 0.6386169626912477 1
gene  1 2 26 0.5684241737217701 0 2626.0 0.5684241737217701 1
gene  1 3 26 -0.059820103226928656 0 2627.0 -0.059820103226928656 1
gene  1 5 26 0.9333398105286892 0 2629.0 0.9333398105286892 1
gene  1 6 26 0.8617281391057631 0 2630.0 0.8617281391057631 1
gene  1 7 26 -0.8420815146122108 0 2631.0 -0.8420815146122108 1
gene  1 9 26 0.8191732826746709 0 2633.0 0.8191732826746709 1
gene  1 11 26 -0.7727067817397997 0 2635.0 -0.7727067817397997 1
gene  1 14 26 -0.7604827065382807 0 2638.0 -0.7604827065382807 1
gene  1 16 26 0.464015301249981 0 2640.0 0.464015301249981 1
gene  1 18 26 0.7633696802248016 0 2642.0 0.7633696802248016 1
gene  1 19 26 -0.4224800948576902 0 2643.0 -0.4224800948576902 1
gene  1 21 26 -0.3166485622531314 0 2645.0 -0.3166485622531314 1
gene  1 23 26 -0.5090955051710583 0 2647.0 -0.5090955051710583 1
gene  1 24 26 -0.04874392753932022 0 2648.0 -0.04874392753932022 1
gene  1 25 26 0.26363319985439937 0 2649.0 0.26363319985439937 1
gene  1 3 27 0.2162224075814544 0 2732.0 0.2162224075814544 1
gene  1 4 27 0.7011866634105682 0 2733.0 0.7011866634105682 1
gene  1 5 27 0.6355399903801133 0 2734.0 0.6355399903801133 1
gene  1 6 27 0.3802755448527345 0 2735.0 0.3802755448527345 1
gene  1 9 27 0.17354104236371226 0 2738.0 0.17354104236371226 1
gene  1 10 27 -0.41077338522548534 0 2739.0 -0.41077338522548534 1
gene  1 11 27 -0.6636998637416626 0 2740.0 -0.6636998637416626 1
gene  1 12 27 0.8113493141890908 0 2741.0 0.8113493141890908 1
gene  1 13 27 -0.7223819486134567 0 2742.0 -0.7223819486134567 1
gene  1 18 27 0.22802805222467526 0 2747.0 0.22802805222467526 1
gene  1 20 27 0.4286537844625705 0 2749.0 0.4286537844625705 1
gene  1 23 27 0.33126776494829147 0 2752.0 0.33126776494829147 1
gene  1 24 27 -0.5370641728616843 0 2753.0 -0.5370641728616843 1
gene  1 26 27 0.9965238023583557 0 2755.0 0.9965238023583557 1
gene  1 1 28 0.8495315193478616 0 2835.0 0.8495315193478616 1
gene  1 2 28 -0.4258667999665424 0 2836.0 -0.4258667999665424 1
gene  1 4 28 0.7021398820111581 0 2838.0 0.7021398820111581 1
gene  1 6 28 0.6034444835414092 0 2840.0 0.6034444835414092 1
gene  1 7 28 -0.840971241933051 0 2841.0 -0.840971241933051 1
gene  1 10 28 0.6695644950792095 0 2844.0 0.6695644950792095 1
gene  1 12 28 0.6632811102444404 0 2846.0 0.6632811102444404 1
gene  1 15 28 -0.1470365758738339 0 2849.0 -0.1470365758738339 1
gene  1 16 28 -0.18441381747514984 0 2850.0 -0.18441381747514984 1
gene  1 17 28 -0.7244290075541551 0 2851.0 -0.7244290075541551 1
gene  1 18 28 0.6192990167266167 0 2852.0 0.6192990167266167 1
gene  1 19 28 -0.9749775529490867 0 2853.0 -0.9749775529490867 1
gene  1 23 28 -0.061256785617791465 0 2857.0 -0.061256785617791465 1
gene  1 1 29 0.23541679502622892 0 2940.0 0.23541679502622892 1
gene  1 3 29 -0.8451404647884464 0 2942.0 -0.8451404647884464 1
gene  1 7 29 -0.563961918033074 0 2946.0 -0.563961918033074 1
gene  1 8 29 -0.4336989882998 0 2947.0 -0.4336989882998 1
gene  1 9 29 0.5987144510524576 0 2948.0 0.5987144510524576 1
gene  1 10 29 0.3418236346937783 0 2949.0 0.3418236346937783 1
gene  1 12 29 0.018671251353462814 0 2951.0 0.018671251353462814 1
gene  1 13 29 -0.6241035189859105 0 2952.0 -0.6241035189859105 1
gene  1 14 29 0.839124001417761 0 2953.0 0.839124001417761 1
gene  1 15 29 -0.4996068103298281 0 2954.0 -0.4996068103298281 1
gene  1 16 29 -0.7568121518280305 0 2955.0 -0.7568121518280305 1
gene  1 17 29 -0.2941901186708037 0 2956.0 -0.2941901186708037 1
gene  1 19 29 -0.10187470738934024 0 2958.0 -0.10187470738934024 1
gene  1 20 29 0.32761668522129006 0 2959.0 0.32761668522129006 1
gene  1 21 29 0.5373632249481832 0 2960.0 0.5373632249481832 1
gene  1 24 29 -0.21465678970752555 0 2963.0 -0.21465678970752555 1
gene  1 25 29 -0.7951019363898647 0 2964.0 -0.7951019363898647 1
gene  1 26 29 -0.6734513295288057 0 2965.0 -0.6734513295288057 1
gene  1 27 29 0.6247356602746155 0 2966.0 0.6247356602746155 1
gene  1 1 30 -0.7566213839498501 0 3045.0 -0.7566213839498501 1
gene  1 2 30 -0.5093555142063275 0 3046.0 -0.5093555142063275 1
gene  1 4 30 -0.6410512164742969 0 3048.0 -0.6410512164742969 1
gene  1 6 30 -0.47725854130714707 0 3050.0 -0.47725854130714707 1
gene  1 7 30 0.5506357013848262 0 3051.0 0.5506357013848262 1
gene  1 8 30 0.08461407432321133 0 3052.0 0.08461407432321133 1
gene  1 9 30 0.759908515858996 0 3053.0 0.759908515858996 1
gene  1 10 30 -0.7411652666486841 0 3054.0 -0.7411652666486841 1
gene  1 11 30 0.7284047865084241 0 3055.0 0.7284047865084241 1
gene  1 15 30 0.7349892198428501 0 3059.0 0.7349892198428501 1
gene  1 16 30 -0.9933407589698993 0 3060.0 -0.9933407589698993 1
gene  1 18 30 -0.5298697331666147 0 3062.0 -0.5298697331666147 1
gene  1 23 30 -0.1775600225374354 0 3067.0 -0.1775600225374354 1
gene  1 24 30 0.9150798049179839 0 3068.0 0.9150798049179839 1
gene  1 28 30 0.2623499170647814 0 3072.0 0.2623499170647814 1
gene  1 3 31 -0.4034439507279043 0 3152.0 -0.4034439507279043 1
gene  1 8 31 0.2510852923036675 0 3157.0 0.2510852923036675 1
gene  1 10 31 0.6051358685852968 0 3159.0 0.6051358685852968 1
gene  1 11 31 -0.1531538704826546 0 3160.0 -0.1531538704826546 1
gene  1 13 31 -0.23738329536356584 0 3162.0 -0.23738329536356584 1
gene  1 15 31 -0.9398468233481979 0 3164.0 -0.9398468233481979 1
gene  1 16 31 0.18703725583294184 0 3165.0 0.18703725583294184 1
gene  1 17 31 0.9538213720604587 0 3166.0 0.9538213720604587 1
gene  1 21 31 0.3073827331716996 0 3170.0 0.3073827331716996 1
gene  1 23 31 -0.05807931254439891 0 3172.0 -0.05807931254439891 1
gene  1 25 31 -0.9086884881018815 0 3174.0 -0.9086884881018815 1
gene  1 27 31 0.19594791432583236 0 3176.0 0.19594791432583236 1
gene  1 29 31 0.6142396832164096 0 3178.0 0.6142396832164096 1
gene  1 30 31 -0.035949763405578095 0 3179.0 -0.035949763405578095 1
gene  1 3 32 0.7167528744995221 0 3257.0 0.7167528744995221 1
gene  1 4 32 -0.7627356469712194 0 3258.0 -0.7627356469712194 1
gene  1 5 32 0.34830757618189334 0 3259.0 0.34830757618189334 1
gene  1 8 32 0.3481543742579256 0 3262.0 0.3481543742579256 1
gene  1 9 32 0.6495486681724263 0 3263.0 0.6495486681724263 1
gene  1 10 32 0.15131790846070803 0 3264.0 0.15131790846070803 1
gene  1 11 32 0.7361901741945315 0 3265.0 0.7361901741945315 1
gene  1 13 32 -0.9299713966911639 0 3267.0 -0.9299713966911639 1
gene  1 17 32 0.993133896252833 0 3271.0 0.993133896252833 1
gene  1 23 32 0.16520727979636807 0 3277.0 0.16520727979636807 1
gene  1 28 32 -0.535502539904886 0 3282.0 -0.535502539904886 1
gene  1 30 32 -0.49874053177470956 0 3284.0 -0.49874053177470956 1
gene  1 31 32 -0.5307158713225174 0 3285.0 -0.5307158713225174 1
gene  1 2 33 -0.6672263717668951 0 3361.0 -0.6672263717668951 1
gene  1 4 33 -0.530320439181242 0 3363.0 -0.530320439181242 1
gene  1 7 33 -0.9751865093610514 0 3366.0 -0.9751865093610514 1
gene  1 9 33 0.7720132575231167 0 3368.0 0.7720132575231167 1
gene  1 10 33 -0.7834622722245236 0 3369.0 -0.7834622722245236 1
gene  1 13 33 0.33605944749311867 0 3372.0 0.33605944749311867 1
gene  1 16 33 0.010546933488254973 0 3375.0 0.010546933488254973 1
gene  1 18 33 -0.3954244148764976 0 3377.0 -0.3954244148764976 1
gene  1 19 33 -0.33830045975590195 0 3378.0 -0.33830045975590195 1
gene  1 21 33 -0.12550763791484976 0 3380.0 -0.12550763791484976 1
gene  1 23 33 0.4066729128010613 0 3382.0 0.4066729128010613 1
gene  1 24 33 -0.9290417432825181 0 3383.0 -0.9290417432825181 1
gene  1 28 33 -0.2774500693967392 0 3387.0 -0.2774500693967392 1
gene  1 32 33 0.9369944935141937 0 3391.0 0.9369944935141937 1
gene  1 5 34 -0.261089557489272 0 3469.0 -0.261089557489272 1
gene  1 6 34 -0.1408002862307185 0 3470.0 -0.1408002862307185 1
gene  1 7 34 0.34245289289407377 0 3471.0 0.34245289289407377 1
gene  1 8 34 0.5925039939926242 0 3472.0 0.5925039939926242 1
gene  1 9 34 0.38075319283527964 0 3473.0 0.38075319283527964 1
gene  1 12 34 0.7043350596211747 0 3476.0 0.7043350596211747 1
gene  1 13 34 -0.4732309214428523 0 3477.0 -0.4732309214428523 1
gene  1 14 34 0.9310950492065331 0 3478.0 0.9310950492065331 1
gene  1 15 34 -0.649619553600988 0 3479.0 -0.649619553600988 1
gene  1 16 34 -0.5032992515786816 0 3480.0 -0.5032992515786816 1
gene  1 17 34 0.9959037133570074 0 3481.0 0.9959037133570074 1
gene  1 18 34 0.7163164443457105 0 3482.0 0.7163164443457105 1
gene  1 20 34 -0.9782092586373364 0 3484.0 -0.9782092586373364 1
gene  1 23 34 0.7776882675588431 0 3487.0 0.7776882675588431 1
gene  1 24 34 -0.9969071813276243 0 3488.0 -0.9969071813276243 1
gene  1 29 34 -0.7923103373383276 0 3493.0 -0.7923103373383276 1
gene  1 32 34 -0.43957346396833086 0 3496.0 -0.43957346396833086 1
gene  1 4 35 0.09272696040488293 0 3573.0 0.09272696040488293 1
gene  1 6 35 -0.7712499707038589 0 3575.0 -0.7712499707038589 1
gene  1 8 35 -0.6007788132175108 0 3577.0 -0.6007788132175108 1
gene  1 9 35 0.546239189782044 0 3578.0 0.546239189782044 1
gene  1 11 35 0.5125840101814776 0 3580.0 0.5125840101814776 1
gene  1 12 35 0.4768116019771619 0 3581.0 0.4768116019771619 1
gene  1 13 35 -0.21060206497435918 0 3582.0 -0.21060206497435918 1
gene  1 21 35 -0.04705043085742966 0 3590.0 -0.04705043085742966 1
gene  1 22 35 0.12293035265905705 0 3591.0 0.12293035265905705 1
gene  1 23 35 -0.22655101711333692 0 3592.0 -0.22655101711333692 1
gene  1 25 35 0.40618925654331384 0 3594.0 0.40618925654331384 1
gene  1 27 35 0.4308835920395627 0 3596.0 0.4308835920395627 1
gene  1 28 35 -0.20038465896119384 0 3597.0 -0.20038465896119384 1
gene  1 3 36 -0.639362127736806 0 3677.0 -0.639362127736806 1
gene  1 5 36 -0.904022310543383 0 3679.0 -0.904022310543383 1
gene  1 6 36 -0.6849535985120137 0 3680.0 -0.6849535985120137 1
gene  1 7 36 0.45228946056876596 0 3681.0 0.45228946056876596 1
gene  1 8 36 -0.16546699637070605 0 3682.0 -0.16546699637070605 1
gene  1 10 36 0.36561211488609136 0 3684.0 0.36561211488609136 1
gene  1 11 36 -0.04715668037372134 0 3685.0 -0.04715668037372134 1
gene  1 12 36 0.2230130887657915 0 3686.0 0.2230130887657915 1
gene  1 13 36 -0.3554371715384127 0 3687.0 -0.3554371715384127 1
gene  1 14 36 -0.9173874970467414 0 3688.0 -0.9173874970467414 1
gene  1 18 36 0.1523160623069888 0 3692.0 0.1523160623069888 1
gene  1 19 36 0.8059268611275814 0 3693.0 0.8059268611275814 1
gene  1 21 36 -0.18930899176568994 0 3695.0 -0.18930899176568994 1
gene  1 23 36 0.41392042758118364 0 3697.0 0.41392042758118364 1
gene  1 26 36 0.348374836300119 0 3700.0 0.348374836300119 1
gene  1 28 36 0.7330903572418375 0 3702.0 0.7330903572418375 1
gene  1 30 36 -0.894320865256458 0 3704.0 -0.894320865256458 1
gene  1 31 36 0.652268818231215 0 3705.0 0.652268818231215 1
gene  1 32 36 0.15696430371131276 0 3706.0 0.15696430371131276 1
gene  1 34 36 -0.4040919460709069 0 3708.0 -0.4040919460709069 1
gene  1 35 36 -0.6114290255887229 0 3709.0 -0.6114290255887229 1
gene  1 8 37 -0.29588146894635414 0 3787.0 -0.29588146894635414 1
gene  1 9 37 0.08918358367757706 0 3788.0 0.08918358367757706 1
gene  1 11 37 0.7249130501141791 0 3790.0 0.7249130501141791 1
gene  1 13 37 0.31121341724251306 0 3792.0 0.31121341724251306 1
gene  1 16 37 0.9521215257052609 0 3795.0 0.9521215257052609 1
gene  1 19 37 -0.8770553254198209 0 3798.0 -0.8770553254198209 1
gene  1 21 37 0.6674655255639792 0 3800.0 0.6674655255639792 1
gene  1 22 37 0.4826989270728941 0 3801.0 0.4826989270728941 1
gene  1 23 37 -0.8955641998348841 0 3802.0 -0.8955641998348841 1
gene  1 26 37 -0.8285412573288022 0 3805.0 -0.8285412573288022 1
gene  1 30 37 -0.2378167011476522 0 3809.0 -0.2378167011476522 1
gene  1 34 37 -0.03199640526041181 0 3813.0 -0.03199640526041181 1
gene  1 2 38 0.48922597594751105 0 3886.0 0.48922597594751105 1
gene  1 3 38 -0.5031556408789586 0 3887.0 -0.5031556408789586 1
gene  1 7 38 0.21017010971367922 0 3891.0 0.21017010971367922 1
gene  1 9 38 0.2238969798632231 0 3893.0 0.2238969798632231 1
gene  1 12 38 0.7490745589538086 0 3896.0 0.7490745589538086 1
gene  1 16 38 0.389426173874158 0 3900.0 0.389426173874158 1
gene  1 18 38 0.8953863071041601 0 3902.0 0.8953863071041601 1
gene  1 19 38 0.3053889293833494 0 3903.0 0.3053889293833494 1
gene  1 20 38 -0.4667164939683175 0 3904.0 -0.4667164939683175 1
gene  1 22 38 -0.2574143333838357 0 3906.0 -0.2574143333838357 1
gene  1 25 38 0.9650593146277952 0 3909.0 0.9650593146277952 1
gene  1 31 38 0.07664175922322447 0 3915.0 0.07664175922322447 1
gene  1 33 38 0.26610049851629924 0 3917.0 0.26610049851629924 1
gene  1 34 38 0.48129084378167153 0 3918.0 0.48129084378167153 1
gene  1 35 38 0.03963831372723192 0 3919.0 0.03963831372723192 1
gene  1 36 38 0.2678250080223116 0 3920.0 0.2678250080223116 1
gene  1 37 38 0.25932378085966734 0 3921.0 0.25932378085966734 1
gene  1 4 39 0.8600138433943864 0 3993.0 0.8600138433943864 1
gene  1 5 39 -0.013399882767979765 0 3994.0 -0.013399882767979765 1
gene  1 6 39 -0.26908312186807515 0 3995.0 -0.26908312186807515 1
gene  1 7 39 -0.09297565430682275 0 3996.0 -0.09297565430682275 1
gene  1 8 39 0.39929578570614743 0 3997.0 0.39929578570614743 1
gene  1 9 39 0.36871321590444894 0 3998.0 0.36871321590444894 1
gene  1 12 39 0.9103286993881226 0 4001.0 0.9103286993881226 1
gene  1 13 39 -0.0705600026691201 0 4002.0 -0.0705600026691201 1
gene  1 15 39 0.605466124508464 0 4004.0 0.605466124508464 1
gene  1 16 39 0.5123481697936617 0 4005.0 0.5123481697936617 1
gene  1 20 39 -0.44587991916630987 0 4009.0 -0.44587991916630987 1
gene  1 22 39 0.3009469068834786 0 4011.0 0.3009469068834786 1
gene  1 23 39 -0.14111240796681246 0 4012.0 -0.14111240796681246 1
gene  1 24 39 0.22978144128909084 0 4013.0 0.22978144128909084 1
gene  1 25 39 0.2493580411031382 0 4014.0 0.2493580411031382 1
gene  1 26 39 -0.9819257103033396 0 4015.0 -0.9819257103033396 1
gene  1 28 39 -0.1224536645759664 0 4017.0 -0.1224536645759664 1
gene  1 30 39 -0.028662314182610116 0 4019.0 -0.028662314182610116 1
gene  1 31 39 -0.53406533478568 0 4020.0 -0.53406533478568 1
gene  1 32 39 0.6780577026911878 0 4021.0 0.6780577026911878 1
gene  1 34 39 -0.9275927241703065 0 4023.0 -0.9275927241703065 1
gene  1 35 39 0.5557794834627363 0 4024.0 0.5557794834627363 1
gene  1 1 40 0.4850349430008234 0 4095.0 0.4850349430008234 1
gene  1 2 40 0.9113205384881949 0 4096.0 0.9113205384881949 1
gene  1 3 40 0.5207987263622278 0 4097.0 0.5207987263622278 1
gene  1 4 40 0.5958804050410236 0 4098.0 0.5958804050410236 1
gene  1 5 40 -0.8072199859763575 0 4099.0 -0.8072199859763575 1
gene  1 8 40 0.3415355632889542 0 4102.0 0.3415355632889542 1
gene  1 9 40 0.9778611353499014 0 4103.0 0.9778611353499014 1
gene  1 10 40 0.8652574837253437 0 4104.0 0.8652574837253437 1
gene  1 14 40 -0.8803728111614815 0 4108.0 -0.8803728111614815 1
gene  1 15 40 -0.9831902988020914 0 4109.0 -0.9831902988020914 1
gene  1 17 40 0.9777756708318668 0 4111.0 0.9777756708318668 1
gene  1 19 40 0.9147337380772692 0 4113.0 0.9147337380772692 1
gene  1 21 40 0.4699441416030544 0 4115.0 0.4699441416030544 1
gene  1 22 40 0.16979873260539757 0 4116.0 0.16979873260539757 1
gene  1 23 40 0.47239173398680245 0 4117.0 0.47239173398680245 1
gene  1 25 40 -0.7690330635644098 0 4119.0 -0.7690330635644098 1
gene  1 27 40 -0.5140592048079373 0 4121.0 -0.5140592048079373 1
gene  1 29 40 -0.6420449553172782 0 4123.0 -0.6420449553172782 1
gene  1 33 40 0.8833654519208306 0 4127.0 0.8833654519208306 1
gene  1 35 40 0.31285369808653185 0 4129.0 0.31285369808653185 1
gene  1 37 40 -0.6129400532804965 0 4131.0 -0.6129400532804965 1
gene  1 38 40 -0.17917369415240247 0 4132.0 -0.17917369415240247 1
gene  1 1 41 -0.9393920906903243 0 4200.0 -0.9393920906903243 1
gene  1 9 41 0.04551073250091109 0 4208.0 0.04551073250091109 1
gene  1 10 41 -0.9470466506807163 0 4209.0 -0.9470466506807163 1
gene  1 11 41 0.5138338891397853 0 4210.0 0.5138338891397853 1
gene  1 13 41 0.45018287567071624 0 4212.0 0.45018287567071624 1
gene  1 14 41 -0.3698696320776288 0 4213.0 -0.3698696320776288 1
gene  1 15 41 0.886086165644208 0 4214.0 0.886086165644208 1
gene  1 17 41 -0.9401413340692251 0 4216.0 -0.9401413340692251 1
gene  1 18 41 0.8203222854195782 0 4217.0 0.8203222854195782 1
gene  1 20 41 0.5584399396045145 0 4219.0 0.5584399396045145 1
gene  1 24 41 0.19964908869001796 0 4223.0 0.19964908869001796 1
gene  1 31 41 -0.5362658068534096 0 4230.0 -0.5362658068534096 1
gene  1 33 41 -0.1986911844196534 0 4232.0 -0.1986911844196534 1
gene  1 34 41 0.4977840552284828 0 4233.0 0.4977840552284828 1
gene  1 35 41 0.7027051244648812 0 4234.0 0.7027051244648812 1
gene  1 38 41 -0.4414067539885551 0 4237.0 -0.4414067539885551 1
gene  1 39 41 0.7096359078196304 0 4238.0 0.7096359078196304 1
gene  1 40 41 0.0965490979150091 0 4239.0 0.0965490979150091 1
gene  1 1 42 0.26103760605936677 0 4305.0 0.26103760605936677 1
gene  1 3 42 0.23951263920356114 0 4307.0 0.23951263920356114 1
gene  1 6 42 0.9519502198088511 0 4310.0 0.9519502198088511 1
gene  1 7 42 0.24405107941573434 0 4311.0 0.24405107941573434 1
gene  1 9 42 0.22279764793732393 0 4313.0 0.22279764793732393 1
gene  1 10 42 -0.4673138850353399 0 4314.0 -0.4673138850353399 1
gene  1 11 42 0.7218376967059357 0 4315.0 0.7218376967059357 1
gene  1 12 42 -0.6139069293418492 0 4316.0 -0.6139069293418492 1
gene  1 13 42 0.646973916182381 0 4317.0 0.646973916182381 1
gene  1 23 42 0.2628380519657696 0 4327.0 0.2628380519657696 1
gene  1 24 42 -0.9165283815275005 0 4328.0 -0.9165283815275005 1
gene  1 27 42 0.6560720296676372 0 4331.0 0.6560720296676372 1
gene  1 29 42 0.7663348693754473 0 4333.0 0.7663348693754473 1
gene  1 33 42 -0.5551025214977813 0 4337.0 -0.5551025214977813 1
gene  1 36 42 -0.6157097762123038 0 4340.0 -0.6157097762123038 1
gene  1 37 42 0.3430263874495565 0 4341.0 0.3430263874495565 1
gene  1 38 42 0.2843156136780406 0 4342.0 0.2843156136780406 1
gene  1 40 42 0.2405432111450435 0 4344.0 0.2405432111450435 1
gene  1 41 42 -0.08734039143506478 0 4345.0 -0.08734039143506478 1
gene  1 1 43 0.7108627514442662 0 4410.0 0.7108627514442662 1
gene  1 2 43 -0.6797721026765436 0 4411.0 -0.6797721026765436 1
gene  1 6 43 0.9432324331675812 0 4415.0 0.9432324331675812 1
gene  1 8 43 -0.7010668339567289 0 4417.0 -0.7010668339567289 1
gene  1 10 43 0.8396407086118249 0 4419.0 0.8396407086118249 1
gene  1 11 43 0.23227241145939725 0 4420.0 0.23227241145939725 1
gene  1 12 43 0.08222324249278323 0 4421.0 0.08222324249278323 1
gene  1 13 43 -0.594056384172125 0 4422.0 -0.594056384172125 1
gene  1 16 43 0.5724344934174118 0 4425.0 0.5724344934174118 1
gene  1 17 43 0.01976691666493291 0 4426.0 0.01976691666493291 1
gene  1 18 43 -0.6104753240159231 0 4427.0 -0.6104753240159231 1
gene  1 19 43 -0.1676581227239864 0 4428.0 -0.1676581227239864 1
gene  1 20 43 -0.19874507327344992 0 4429.0 -0.19874507327344992 1
gene  1 21 43 0.4505879350723122 0 4430.0 0.4505879350723122 1
gene  1 26 43 -0.40768041084214046 0 4435.0 -0.40768041084214046 1
gene  1 28 43 -0.7053602592794439 0 4437.0 -0.7053602592794439 1
gene  1 30 43 -0.2919707944966792 0 4439.0 -0.2919707944966792 1
gene  1 34 43 0.7276554060018984 0 4443.0 0.7276554060018984 1
gene  1 35 43 -0.5377019526596948 0 4444.0 -0.5377019526596948 1
gene  1 36 43 0.3088419841022422 0 4445.0 0.3088419841022422 1
gene  1 38 43 0.45591145003730005 0 4447.0 0.45591145003730005 1
gene  1 40 43 0.9937668266843449 0 4449.0 0.9937668266843449 1
gene  1 42 43 0.4759403797359114 0 4451.0 0.4759403797359114 1
gene  1 1 44 0.024718200218638686 0 4515.0 0.024718200218638686 1
gene  1 2 44 -0.512170907391649 0 4516.0 -0.512170907391649 1
gene  1 4 44 -0.24655985804086433 0 4518.0 -0.24655985804086433 1
gene  1 6 44 -0.7002689255953224 0 4520.0 -0.7002689255953224 1
gene  1 7 44 -0.16441633261513355 0 4521.0 -0.16441633261513355 1
gene  1 9 44 -0.5560481926737291 0 4523.0 -0.5560481926737291 1
gene  1 10 44 0.6481626260662292 0 4524.0 0.6481626260662292 1
gene  1 16 44 0.3706708391306244 0 4530.0 0.3706708391306244 1
gene  1 18 44 0.9474512113815311 0 4532.0 0.9474512113815311 1
gene  1 20 44 0.777169634599303 0 4534.0 0.777169634599303 1
gene  1 23 44 0.7800725111158959 0 4537.0 0.7800725111158959 1
gene  1 24 44 -0.018635371668086043 0 4538.0 -0.018635371668086043 1
gene  1 25 44 0.3774967982073446 0 4539.0 0.3774967982073446 1
gene  1 29 44 0.23369014705415114 0 4543.0 0.23369014705415114 1
gene  1 30 44 -0.13518659898872099 0 4544.0 -0.13518659898872099 1
gene  1 32 44 -0.4709019441884188 0 4546.0 -0.4709019441884188 1
gene  1 34 44 -0.7037879534505589 0 4548.0 -0.7037879534505589 1
gene  1 37 44 -0.1832328591695369 0 4551.0 -0.1832328591695369 1
gene  1 38 44 0.607279444039921 0 4552.0 0.607279444039921 1
gene  1 39 44 0.5583167667258799 0 4553.0 0.5583167667258799 1
gene  1 41 44 -0.5495912451335654 0 4555.0 -0.5495912451335654 1
gene  1 43 44 0.704569103415743 0 4557.0 0.704569103415743 1
gene  1 5 45 0.5790936396324654 0 4624.0 0.5790936396324654 1
gene  1 7 45 0.34630099415121096 0 4626.0 0.34630099415121096 1
gene  1 8 45 -0.28620738163175896 0 4627.0 -0.28620738163175896 1
gene  1 10 45 0.33296640434239055 0 4629.0 0.33296640434239055 1
gene  1 11 45 0.053459271224823524 0 4630.0 0.053459271224823524 1
gene  1 12 45 -0.6775097978375562 0 4631.0 -0.6775097978375562 1
gene  1 17 45 0.08602801248970338 0 4636.0 0.08602801248970338 1
gene  1 18 45 -0.21762814595066104 0 4637.0 -0.21762814595066104 1
gene  1 19 45 0.9817459751747108 0 4638.0 0.9817459751747108 1
gene  1 24 45 -0.17035393458825432 0 4643.0 -0.17035393458825432 1
gene  1 27 45 -0.25176326491214807 0 4646.0 -0.25176326491214807 1
gene  1 28 45 0.8770655969590467 0 4647.0 0.8770655969590467 1
gene  1 29 45 0.8691119911211899 0 4648.0 0.8691119911211899 1
gene  1 30 45 0.5716984411453733 0 4649.0 0.5716984411453733 1
gene  1 31 45 0.4506524904802087 0 4650.0 0.4506524904802087 1
gene  1 32 45 -0.25980807307946685 0 4651.0 -0.25980807307946685 1
gene  1 33 45 -0.9594515683017938 0 4652.0 -0.9594515683017938 1
gene  1 34 45 0.5426590129411991 0 4653.0 0.5426590129411991 1
gene  1 35 45 0.8012154816644879 0 4654.0 0.8012154816644879 1
gene  1 36 45 -0.3426716552389041 0 4655.0 -0.3426716552389041 1
gene  1 37 45 0.892043064134373 0 4656.0 0.892043064134373 1
gene  1 39 45 0.7592780469209282 0 4658.0 0.7592780469209282 1
gene  1 40 45 -0.8942146431989715 0 4659.0 -0.8942146431989715 1
gene  1 44 45 0.5428476805660037 0 4663.0 0.5428476805660037 1
gene  1 2 46 0.9784186283494933 0 4726.0 0.9784186283494933 1
gene  1 5 46 -0.2531387412082995 0 4729.0 -0.2531387412082995 1
gene  1 8 46 -0.666675958227475 0 4732.0 -0.666675958227475 1
gene  1 10 46 0.45619008338929956 0 4734.0 0.45619008338929956 1
gene  1 13 46 0.9580483977473357 0 4737.0 0.9580483977473357 1
gene  1 14 46 -0.49071116480310106 0 4738.0 -0.49071116480310106 1
gene  1 16 46 -0.08512806815536855 0 4740.0 -0.08512806815536855 1
gene  1 17 46 0.8320039847898273 0 4741.0 0.8320039847898273 1
gene  1 26 46 0.7755634098210669 0 4750.0 0.7755634098210669 1
gene  1 29 46 0.00632823084606382 0 4753.0 0.00632823084606382 1
gene  1 31 46 -0.1881098699993028 0 4755.0 -0.1881098699993028 1
gene  1 33 46 0.7709652759448657 0 4757.0 0.7709652759448657 1
gene  1 34 46 0.08531633328699861 0 4758.0 0.08531633328699861 1
gene  1 41 46 0.8459546113988882 0 4765.0 0.8459546113988882 1
gene  1 42 46 -0.6542885042517644 0 4766.0 -0.6542885042517644 1
gene  1 44 46 0.20101231232651662 0 4768.0 0.20101231232651662 1
gene  1 45 46 0.5703537100356604 0 4769.0 0.5703537100356604 1
gene  1 2 47 0.45299935419699044 0 4831.0 0.45299935419699044 1
gene  1 8 47 -0.5264150951845299 0 4837.0 -0.5264150951845299 1
gene  1 9 47 -0.10649485644677681 0 4838.0 -0.10649485644677681 1
gene  1 10 47 0.9859828115979389 0 4839.0 0.9859828115979389 1
gene  1 11 47 -0.41087487655692123 0 4840.0 -0.41087487655692123 1
gene  1 13 47 0.4673982111580828 0 4842.0 0.4673982111580828 1
gene  1 16 47 0.41577054817011416 0 4845.0 0.41577054817011416 1
gene  1 22 47 0.06106557794921197 0 4851.0 0.06106557794921197 1
gene  1 23 47 0.049231858638776216 0 4852.0 0.049231858638776216 1
gene  1 25 47 -0.24693686658154634 0 4854.0 -0.24693686658154634 1
gene  1 28 47 -0.09590610830671054 0 4857.0 -0.09590610830671054 1
gene  1 30 47 0.9553463590910068 0 4859.0 0.9553463590910068 1
gene  1 31 47 -0.8930945987840422 0 4860.0 -0.8930945987840422 1
gene  1 33 47 0.4587497065274372 0 4862.0 0.4587497065274372 1
gene  1 36 47 0.8611457647912351 0 4865.0 0.8611457647912351 1
gene  1 38 47 0.05527656313210272 0 4867.0 0.05527656313210272 1
gene  1 40 47 0.2796440671586998 0 4869.0 0.2796440671586998 1
gene  1 41 47 0.5121558002550496 0 4870.0 0.5121558002550496 1
gene  1 44 47 0.02220581140385003 0 4873.0 0.02220581140385003 1
gene  1 1 48 0.15506965105783266 0 4935.0 0.15506965105783266 1
gene  1 2 48 0.8511898374264559 0 4936.0 0.8511898374264559 1
gene  1 10 48 -0.09968097328879932 0 4944.0 -0.09968097328879932 1
gene  1 14 48 -0.7309651712764703 0 4948.0 -0.7309651712764703 1
gene  1 15 48 -0.9096134154305622 0 4949.0 -0.9096134154305622 1
gene  1 19 48 0.6418472613960469 0 4953.0 0.6418472613960469 1
gene  1 23 48 -0.845921758354229 0 4957.0 -0.845921758354229 1
gene  1 24 48 -0.10135429336817281 0 4958.0 -0.10135429336817281 1
gene  1 28 48 -0.24126524866891608 0 4962.0 -0.24126524866891608 1
gene  1 29 48 -0.8683846349544811 0 4963.0 -0.8683846349544811 1
gene  1 30 48 -0.03292098026889623 0 4964.0 -0.03292098026889623 1
gene  1 31 48 0.10066818204525219 0 4965.0 0.10066818204525219 1
gene  1 32 48 -0.7477181443888714 0 4966.0 -0.7477181443888714 1
gene  1 35 48 0.4932898862142383 0 4969.0 0.4932898862142383 1
gene  1 36 48 -0.8739879026901277 0 4970.0 -0.8739879026901277 1
gene  1 37 48 -0.4415030792958379 0 4971.0 -0.4415030792958379 1
gene  1 40 48 -0.19168250903462924 0 4974.0 -0.19168250903462924 1
gene  1 1 49 -0.002865300927308412 0 5040.0 -0.002865300927308412 1
gene  1 2 49 0.08080362128083474 0 5041.0 0.08080362128083474 1
gene  1 6 49 -0.9952595470664097 0 5045.0 -0.9952595470664097 1
gene  1 7 49 -0.688091349078642 0 5046.0 -0.688091349078642 1
gene  1 9 49 -0.40950840141178624 0 5048.0 -0.40950840141178624 1
gene  1 10 49 -0.6067324071547436 0 5049.0 -0.6067324071547436 1
gene  1 11 49 0.07277490635737383 0 5050.0 0.07277490635737383 1
gene  1 15 49 0.05828395706398415 0 5054.0 0.05828395706398415 1
gene  1 16 49 -0.1915641653433099 0 5055.0 -0.1915641653433099 1
gene  1 18 49 -0.7308344124382331 0 5057.0 -0.7308344124382331 1
gene  1 20 49 0.6521182777606332 0 5059.0 0.6521182777606332 1
gene  1 21 49 0.04491679155229822 0 5060.0 0.04491679155229822 1
gene  1 22 49 -0.09440402079769983 0 5061.0 -0.09440402079769983 1
gene  1 23 49 0.7098381007314237 0 5062.0 0.7098381007314237 1
gene  1 24 49 0.7007537341932555 0 5063.0 0.7007537341932555 1
gene  1 25 49 -0.21231905203020096 0 5064.0 -0.21231905203020096 1
gene  1 27 49 -0.4727382926724195 0 5066.0 -0.4727382926724195 1
gene  1 28 49 -0.3163533509672396 0 5067.0 -0.3163533509672396 1
gene  1 32 49 0.8588806838540604 0 5071.0 0.8588806838540604 1
gene  1 33 49 -0.6651672345823721 0 5072.0 -0.6651672345823721 1
gene  1 40 49 0.11851575621142618 0 5079.0 0.11851575621142618 1
gene  1 41 49 -0.8073332557458155 0 5080.0 -0.8073332557458155 1
gene  1 5 50 -0.18939172652212433 0 5149.0 -0.18939172652212433 1
gene  1 10 50 0.45857384374470656 0 5154.0 0.45857384374470656 1
gene  1 14 50 -0.4248961567800096 0 5158.0 -0.4248961567800096 1
gene  1 15 50 -0.4430445671312835 0 5159.0 -0.4430445671312835 1
gene  1 17 50 0.5210303372082251 0 5161.0 0.5210303372082251 1
gene  1 18 50 -0.2342360038642749 0 5162.0 -0.2342360038642749 1
gene  1 19 50 -0.8403615993747859 0 5163.0 -0.8403615993747859 1
gene  1 21 50 -0.17877913268566226 0 5165.0 -0.17877913268566226 1
gene  1 24 50 0.22532875231682215 0 5168.0 0.22532875231682215 1
gene  1 25 50 0.17379533076159537 0 5169.0 0.17379533076159537 1
gene  1 26 50 -0.09560091530321158 0 5170.0 -0.09560091530321158 1
gene  1 28 50 -0.7638011037347247 0 5172.0 -0.7638011037347247 1
gene  1 29 50 -0.4819911576336001 0 5173.0 -0.4819911576336001 1
gene  1 30 50 -0.520034695691685 0 5174.0 -0.520034695691685 1
gene  1 31 50 -0.7887717896596571 0 5175.0 -0.7887717896596571 1
gene  1 34 50 0.2485233527014712 0 5178.0 0.2485233527014712 1
gene  1 36 50 0.15565970828469078 0 5180.0 0.15565970828469078 1
gene  1 41 50 -0.37135968920488993 0 5185.0 -0.37135968920488993 1
gene  1 42 50 -0.9134059531850575 0 5186.0 -0.9134059531850575 1
gene  1 44 50 -0.9749615436479944 0 5188.0 -0.9749615436479944 1
gene  1 45 50 -0.08043487431621721 0 5189.0 -0.08043487431621721 1
gene  1 46 50 -0.13194234045855158 0 5190.0 -0.13194234045855158 1
gene  1 48 50 0.5507387851731561 0 5192.0 0.5507387851731561 1
gene  1 49 50 -0.019820113887655144 0 5193.0 -0.019820113887655144 1
gene  1 1 51 0.6249732905180203 0 5250.0 0.6249732905180203 1
gene  1 3 51 -0.31007347369511995 0 5252.0 -0.31007347369511995 1
gene  1 6 51 -0.6396552243872335 0 5255.0 -0.6396552243872335 1
gene  1 7 51 -0.8961923377473991 0 5256.0 -0.8961923377473991 1
gene  1 8 51 -0.9851771294590689 0 5257.0 -0.9851771294590689 1
gene  1 10 51 -0.44618716185670926 0 5259.0 -0.44618716185670926 1
gene  1 13 51 0.8196612797746425 0 5262.0 0.8196612797746425 1
gene  1 15 51 -0.08025224411152065 0 5264.0 -0.08025224411152065 1
gene  1 16 51 0.36502533486016664 0 5265.0 0.36502533486016664 1
gene  1 17 51 -0.9495679660717458 0 5266.0 -0.9495679660717458 1
gene  1 19 51 -0.32410666951548395 0 5268.0 -0.32410666951548395 1
gene  1 20 51 0.7042979030698032 0 5269.0 0.7042979030698032 1
gene  1 21 51 0.4974513323640859 0 5270.0 0.4974513323640859 1
gene  1 22 51 0.8931865912478925 0 5271.0 0.8931865912478925 1
gene  1 23 51 -0.7129598746941948 0 5272.0 -0.7129598746941948 1
gene  1 26 51 -0.9972714274419877 0 5275.0 -0.9972714274419877 1
gene  1 27 51 -0.31169904244889957 0 5276.0 -0.31169904244889957 1
gene  1 30 51 0.2080663213501066 0 5279.0 0.2080663213501066 1
gene  1 34 51 0.47931427760946665 0 5283.0 0.47931427760946665 1
gene  1 35 51 -0.8179984631367526 0 5284.0 -0.8179984631367526 1
gene  1 41 51 -0.7535130771253776 0 5290.0 -0.7535130771253776 1
gene  1 42 51 -0.8150674462304173 0 5291.0 -0.8150674462304173 1
gene  1 43 51 0.7658949165173952 0 5292.0 0.7658949165173952 1
gene  1 45 51 0.8338074198805625 0 5294.0 0.8338074198805625 1
gene  1 46 51 -0.13894299612660221 0 5295.0 -0.13894299612660221 1
gene  1 48 51 -0.6003739542434849 0 5297.0 -0.6003739542434849 1
gene  1 1 52 0.2834305551656231 0 5355.0 0.2834305551656231 1
gene  1 2 52 0.5762229657868455 0 5356.0 0.5762229657868455 1
gene  1 4 52 0.09744196568390762 0 5358.0 0.09744196568390762 1
gene  1 6 52 0.5830326005164327 0 5360.0 0.5830326005164327 1
gene  1 7 52 -0.1500171443148095 0 5361.0 -0.1500171443148095 1
gene  1 8 52 -0.14377817130641002 0 5362.0 -0.14377817130641002 1
gene  1 10 52 0.30816721095269484 0 5364.0 0.30816721095269484 1
gene  1 14 52 -0.42476302489015605 0 5368.0 -0.42476302489015605 1
gene  1 16 52 -0.5595679931120717 0 5370.0 -0.5595679931120717 1
gene  1 18 52 0.7167226242772752 0 5372.0 0.7167226242772752 1
gene  1 21 52 0.3246720153066952 0 5375.0 0.3246720153066952 1
gene  1 22 52 -0.6144365606583124 0 5376.0 -0.6144365606583124 1
gene  1 23 52 -0.6500350037827974 0 5377.0 -0.6500350037827974 1
gene  1 25 52 -0.15596715513442516 0 5379.0 -0.15596715513442516 1
gene  1 29 52 -0.8341167283532276 0 5383.0 -0.8341167283532276 1
gene  1 30 52 0.22699160622756542 0 5384.0 0.22699160622756542 1
gene  1 31 52 -0.5620842865376448 0 5385.0 -0.5620842865376448 1
gene  1 32 52 0.744818507683741 0 5386.0 0.744818507683741 1
gene  1 34 52 -0.5211955666291548 0 5388.0 -0.5211955666291548 1
gene  1 35 52 -0.3483770393721054 0 5389.0 -0.3483770393721054 1
gene  1 38 52 0.7619821693096828 0 5392.0 0.7619821693096828 1
gene  1 39 52 0.922115765673912 0 5393.0 0.922115765673912 1
gene  1 40 52 -0.16453087735069427 0 5394.0 -0.16453087735069427 1
gene  1 41 52 -0.7980191296054683 0 5395.0 -0.7980191296054683 1
gene  1 42 52 -0.22613293339980123 0 5396.0 -0.22613293339980123 1
gene  1 43 52 -0.5838536352016965 0 5397.0 -0.5838536352016965 1
gene  1 44 52 0.8415498479232314 0 5398.0 0.8415498479232314 1
gene  1 46 52 -0.12630545310285868 0 5400.0 -0.12630545310285868 1
gene  1 49 52 0.9484221780498494 0 5403.0 0.9484221780498494 1
gene  1 50 52 -0.9912123227513457 0 5404.0 -0.9912123227513457 1
gene  1 51 52 -0.8609356438394374 0 5405.0 -0.8609356438394374 1
gene  1 2 53 0.45904968514584776 0 5461.0 0.45904968514584776 1
gene  1 7 53 -0.5065475678320595 0 5466.0 -0.5065475678320595 1
gene  1 10 53 0.4194293946796822 0 5469.0 0.4194293946796822 1
gene  1 13 53 0.7806095567847692 0 5472.0 0.7806095567847692 1
gene  1 14 53 -0.2806041123927099 0 5473.0 -0.2806041123927099 1
gene  1 16 53 -0.6030274029543323 0 5475.0 -0.6030274029543323 1
gene  1 17 53 -0.676841507149685 0 5476.0 -0.676841507149685 1
gene  1 22 53 -0.1517057904446657 0 5481.0 -0.1517057904446657 1
gene  1 25 53 -0.8533547868244499 0 5484.0 -0.8533547868244499 1
gene  1 26 53 -0.7456042557850823 0 5485.0 -0.7456042557850823 1
gene  1 30 53 0.3887618183304641 0 5489.0 0.3887618183304641 1
gene  1 32 53 -0.2998724704304031 0 5491.0 -0.2998724704304031 1
gene  1 33 53 0.5592736099953886 0 5492.0 0.5592736099953886 1
gene  1 34 53 -0.637221568135696 0 5493.0 -0.637221568135696 1
gene  1 36 53 0.20809111438834738 0 5495.0 0.20809111438834738 1
gene  1 40 53 0.9060720080912621 0 5499.0 0.9060720080912621 1
gene  1 42 53 0.8988982529411661 0 5501.0 0.8988982529411661 1
gene  1 43 53 -0.6664334542582 0 5502.0 -0.6664334542582 1
gene  1 47 53 -0.7245031162763457 0 5506.0 -0.7245031162763457 1
gene  1 49 53 0.5683395015593996 0 5508.0 0.5683395015593996 1
gene  1 50 53 -0.30881885969893985 0 5509.0 -0.30881885969893985 1
gene  1 2 54 -0.8056768517981127 0 5566.0 -0.8056768517981127 1
gene  1 5 54 -0.9968958599444658 0 5569.0 -0.9968958599444658 1
gene  1 11 54 0.14903797593066748 0 5575.0 0.14903797593066748 1
gene  1 12 54 0.9591053226633609 0 5576.0 0.9591053226633609 1
gene  1 16 54 0.5898290873510268 0 5580.0 0.5898290873510268 1
gene  1 17 54 -0.1391304259095696 0 5581.0 -0.1391304259095696 1
gene  1 20 54 0.07125475008914028 0 5584.0 0.07125475008914028 1
gene  1 21 54 0.6001179630940332 0 5585.0 0.6001179630940332 1
gene  1 24 54 0.9353075245778529 0 5588.0 0.9353075245778529 1
gene  1 25 54 -0.915830402482308 0 5589.0 -0.915830402482308 1
gene  1 27 54 -0.9022106874687625 0 5591.0 -0.9022106874687625 1
gene  1 30 54 0.6611890685044707 0 5594.0 0.6611890685044707 1
gene  1 31 54 -0.8169293222294557 0 5595.0 -0.8169293222294557 1
gene  1 33 54 -0.6315116311494816 0 5597.0 -0.6315116311494816 1
gene  1 34 54 -0.4268846192876615 0 5598.0 -0.4268846192876615 1
gene  1 39 54 -0.7135027939187851 0 5603.0 -0.7135027939187851 1
gene  1 41 54 0.11400438889835185 0 5605.0 0.11400438889835185 1
gene  1 42 54 -0.8602472184263984 0 5606.0 -0.8602472184263984 1
gene  1 45 54 0.8943371070871627 0 5609.0 0.8943371070871627 1
gene  1 46 54 -0.132267367567936 0 5610.0 -0.132267367567936 1
gene  1 47 54 -0.8087197814732123 0 5611.0 -0.8087197814732123 1
gene  1 49 54 0.5115166551016667 0 5613.0 0.5115166551016667 1
gene  1 51 54 -0.4321798603502889 0 5615.0 -0.4321798603502889 1
gene  1 1 55 -0.09947622960492342 0 5670.0 -0.09947622960492342 1
gene  1 2 55 0.6307052909351195 0 5671.0 0.6307052909351195 1
gene  1 6 55 -0.9672872261107656 0 5675.0 -0.9672872261107656 1
gene  1 7 55 -0.5378786194572733 0 5676.0 -0.5378786194572733 1
gene  1 12 55 -0.7330735038704731 0 5681.0 -0.7330735038704731 1
gene  1 13 55 -0.8255369528973269 0 5682.0 -0.8255369528973269 1
gene  1 14 55 -0.27154964189989594 0 5683.0 -0.27154964189989594 1
gene  1 22 55 0.6325780087071797 0 5691.0 0.6325780087071797 1
gene  1 28 55 0.10043567483765414 0 5697.0 0.10043567483765414 1
gene  1 31 55 -0.03749863796230557 0 5700.0 -0.03749863796230557 1
gene  1 34 55 0.6816738343953638 0 5703.0 0.6816738343953638 1
gene  1 37 55 -0.5142443727093935 0 5706.0 -0.5142443727093935 1
gene  1 39 55 -0.6473846781981957 0 5708.0 -0.6473846781981957 1
gene  1 42 55 -0.06572566567797711 0 5711.0 -0.06572566567797711 1
gene  1 46 55 0.9856355412438165 0 5715.0 0.9856355412438165 1
gene  1 47 55 -0.0793676429264506 0 5716.0 -0.0793676429264506 1
gene  1 48 55 0.356468132595788 0 5717.0 0.356468132595788 1
gene  1 50 55 -0.12730872317985487 0 5719.0 -0.12730872317985487 1
gene  1 52 55 -0.3943346174796927 0 5721.0 -0.3943346174796927 1
gene  1 54 55 0.35034324456276633 0 5723.0 0.35034324456276633 1
gene  1 1 56 -0.932362052291011 0 5775.0 -0.932362052291011 1
gene  1 2 56 -0.06233101866752355 0 5776.0 -0.06233101866752355 1
gene  1 3 56 -0.18720282375838615 0 5777.0 -0.18720282375838615 1
gene  1 5 56 -0.8999505608190423 0 5779.0 -0.8999505608190423 1
gene  1 7 56 0.9247272431550171 0 5781.0 0.9247272431550171 1
gene  1 12 56 -0.8873129776387022 0 5786.0 -0.8873129776387022 1
gene  1 13 56 0.6347766806748167 0 5787.0 0.6347766806748167 1
gene  1 17 56 -0.5029035521849333 0 5791.0 -0.5029035521849333 1
gene  1 19 56 0.8508171312818644 0 5793.0 0.8508171312818644 1
gene  1 21 56 -0.16018260959600394 0 5795.0 -0.16018260959600394 1
gene  1 23 56 -0.6659609115801567 0 5797.0 -0.6659609115801567 1
gene  1 25 56 0.8620010771812431 0 5799.0 0.8620010771812431 1
gene  1 26 56 -0.7170983398865548 0 5800.0 -0.7170983398865548 1
gene  1 30 56 0.5985925263296544 0 5804.0 0.5985925263296544 1
gene  1 33 56 0.771775125263414 0 5807.0 0.771775125263414 1
gene  1 35 56 -0.694548440225549 0 5809.0 -0.694548440225549 1
gene  1 36 56 0.49098892457535426 0 5810.0 0.49098892457535426 1
gene  1 42 56 0.3029540143690843 0 5816.0 0.3029540143690843 1
gene  1 47 56 0.3322799231946717 0 5821.0 0.3322799231946717 1
gene  1 48 56 -0.261936988423785 0 5822.0 -0.261936988423785 1
gene  1 49 56 0.9048023063599873 0 5823.0 0.9048023063599873 1
gene  1 51 56 -0.20661982987355798 0 5825.0 -0.20661982987355798 1
gene  1 53 56 0.8693170859461085 0 5827.0 0.8693170859461085 1
gene  1 3 57 -0.566904056034116 0 5882.0 -0.566904056034116 1
gene  1 4 57 -0.8327369390312243 0 5883.0 -0.8327369390312243 1
gene  1 5 57 0.1107584341930673 0 5884.0 0.1107584341930673 1
gene  1 7 57 0.22423698945663695 0 5886.0 0.22423698945663695 1
gene  1 9 57 0.21127925473784082 0 5888.0 0.21127925473784082 1
gene  1 10 57 0.45128493352452814 0 5889.0 0.45128493352452814 1
gene  1 14 57 -0.8850378984242669 0 5893.0 -0.8850378984242669 1
gene  1 17 57 -0.7558758119796436 0 5896.0 -0.7558758119796436 1
gene  1 18 57 -0.13105681379618572 0 5897.0 -0.13105681379618572 1
gene  1 20 57 0.5411256063409946 0 5899.0 0.5411256063409946 1
gene  1 21 57 0.3235670344784466 0 5900.0 0.3235670344784466 1
gene  1 22 57 -0.8780021692684934 0 5901.0 -0.8780021692684934 1
gene  1 25 57 -0.7313930361990811 0 5904.0 -0.7313930361990811 1
gene  1 26 57 0.916183467533216 0 5905.0 0.916183467533216 1
gene  1 27 57 0.3567874611970736 0 5906.0 0.3567874611970736 1
gene  1 28 57 -0.4949728751674337 0 5907.0 -0.4949728751674337 1
gene  1 29 57 -0.0044646790631643896 0 5908.0 -0.0044646790631643896 1
gene  1 36 57 -0.859195439088951 0 5915.0 -0.859195439088951 1
gene  1 38 57 0.12421348358613937 0 5917.0 0.12421348358613937 1
gene  1 39 57 -0.6464942128879264 0 5918.0 -0.6464942128879264 1
gene  1 41 57 0.9977657824745872 0 5920.0 0.9977657824745872 1
gene  1 43 57 -0.12335719587468641 0 5922.0 -0.12335719587468641 1
gene  1 45 57 0.021990356469590355 0 5924.0 0.021990356469590355 1
gene  1 47 57 0.29361890863926454 0 5926.0 0.29361890863926454 1
gene  1 48 57 -0.025967155738177095 0 5927.0 -0.025967155738177095 1
gene  1 49 57 0.03128710353213682 0 5928.0 0.03128710353213682 1
gene  1 50 57 -0.6369747584444103 0 5929.0 -0.6369747584444103 1
gene  1 53 57 0.13424420424556427 0 5932.0 0.13424420424556427 1
gene  1 54 57 -0.5993923418641584 0 5933.0 -0.5993923418641584 1
gene  1 55 57 0.20491486773577616 0 5934.0 0.20491486773577616 1
gene  1 2 58 0.2710982894929349 0 5986.0 0.2710982894929349 1
gene  1 5 58 -0.452606500325092 0 5989.0 -0.452606500325092 1
gene  1 7 58 -0.5368268915089394 0 5991.0 -0.5368268915089394 1
gene  1 9 58 0.7166046650599541 0 5993.0 0.7166046650599541 1
gene  1 11 58 0.023694715902856434 0 5995.0 0.023694715902856434 1
gene  1 12 58 0.7181635354864688 0 5996.0 0.7181635354864688 1
gene  1 13 58 0.797001510998437 0 5997.0 0.797001510998437 1
gene  1 16 58 0.9208661891565458 0 6000.0 0.9208661891565458 1
gene  1 17 58 0.5346683289807851 0 6001.0 0.5346683289807851 1
gene  1 18 58 0.24876113644402387 0 6002.0 0.24876113644402387 1
gene  1 19 58 0.4057756940344456 0 6003.0 0.4057756940344456 1
gene  1 20 58 -0.8497745625849203 0 6004.0 -0.8497745625849203 1
gene  1 22 58 -0.06914347182122049 0 6006.0 -0.06914347182122049 1
gene  1 26 58 0.14441977515087134 0 6010.0 0.14441977515087134 1
gene  1 27 58 0.4757719740442167 0 6011.0 0.4757719740442167 1
gene  1 28 58 0.010470688900027336 0 6012.0 0.010470688900027336 1
gene  1 29 58 -0.6377276180208252 0 6013.0 -0.6377276180208252 1
gene  1 30 58 0.6441393950481016 0 6014.0 0.6441393950481016 1
gene  1 33 58 -0.7598262141574591 0 6017.0 -0.7598262141574591 1
gene  1 34 58 0.37097713255115417 0 6018.0 0.37097713255115417 1
gene  1 36 58 0.9607824035245408 0 6020.0 0.9607824035245408 1
gene  1 38 58 0.43088222977141044 0 6022.0 0.43088222977141044 1
gene  1 39 58 0.7938499529704752 0 6023.0 0.7938499529704752 1
gene  1 40 58 0.6565522348330981 0 6024.0 0.6565522348330981 1
gene  1 41 58 0.8870415207143407 0 6025.0 0.8870415207143407 1
gene  1 47 58 -0.4407962140478928 0 6031.0 -0.4407962140478928 1
gene  1 51 58 -0.3601499286104235 0 6035.0 -0.3601499286104235 1
gene  1 53 58 0.1827981043552983 0 6037.0 0.1827981043552983 1
gene  1 54 58 0.1253309695434489 0 6038.0 0.1253309695434489 1
gene  1 3 59 -0.7626064747383978 0 6092.0 -0.7626064747383978 1
gene  1 6 59 -0.4273950652258025 0 6095.0 -0.4273950652258025 1
gene  1 8 59 0.9379924956882949 0 6097.0 0.9379924956882949 1
gene  1 9 59 -0.023701185746443976 0 6098.0 -0.023701185746443976 1
gene  1 11 59 -0.942125821767019 0 6100.0 -0.942125821767019 1
gene  1 12 59 -0.6336108082889127 0 6101.0 -0.6336108082889127 1
gene  1 15 59 -0.5942674879826737 0 6104.0 -0.5942674879826737 1
gene  1 17 59 0.48550795563297444 0 6106.0 0.48550795563297444 1
gene  1 18 59 -0.7445856322107265 0 6107.0 -0.7445856322107265 1
gene  1 22 59 -0.8060444448364655 0 6111.0 -0.8060444448364655 1
gene  1 25 59 -0.40831286654081766 0 6114.0 -0.40831286654081766 1
gene  1 26 59 0.7212974926601029 0 6115.0 0.7212974926601029 1
gene  1 28 59 -0.3429137464197817 0 6117.0 -0.3429137464197817 1
gene  1 31 59 -0.5355838134106602 0 6120.0 -0.5355838134106602 1
gene  1 33 59 -0.3846235805403445 0 6122.0 -0.3846235805403445 1
gene  1 35 59 0.34504696788422506 0 6124.0 0.34504696788422506 1
gene  1 36 59 0.27150275119802225 0 6125.0 0.27150275119802225 1
gene  1 37 59 -0.8195997665820904 0 6126.0 -0.8195997665820904 1
gene  1 38 59 -0.6696985895396487 0 6127.0 -0.6696985895396487 1
gene  1 39 59 -0.7015506271131935 0 6128.0 -0.7015506271131935 1
gene  1 41 59 -0.9501202884858092 0 6130.0 -0.9501202884858092 1
gene  1 42 59 -0.6784754315505451 0 6131.0 -0.6784754315505451 1
gene  1 43 59 -0.46016040131611113 0 6132.0 -0.46016040131611113 1
gene  1 44 59 -0.2985615734215077 0 6133.0 -0.2985615734215077 1
gene  1 45 59 0.388478125685756 0 6134.0 0.388478125685756 1
gene  1 46 59 -0.15740579631628304 0 6135.0 -0.15740579631628304 1
gene  1 47 59 -0.012014923381991172 0 6136.0 -0.012014923381991172 1
gene  1 50 59 0.7746155299383218 0 6139.0 0.7746155299383218 1
gene  1 53 59 -0.935048484832134 0 6142.0 -0.935048484832134 1
gene  1 56 59 -0.5129031767004543 0 6145.0 -0.5129031767004543 1
gene  1 57 59 -0.8870870097525275 0 6146.0 -0.8870870097525275 1
gene  1 58 59 -0.09506295338688298 0 6147.0 -0.09506295338688298 1
gene  1 2 60 0.8498113186164724 0 6196.0 0.8498113186164724 1
gene  1 3 60 0.7163026673875463 0 6197.0 0.7163026673875463 1
gene  1 7 60 -0.8553099376583526 0 6201.0 -0.8553099376583526 1
gene  1 9 60 -0.1903853420685354 0 6203.0 -0.1903853420685354 1
gene  1 11 60 0.6349322434318758 0 6205.0 0.6349322434318758 1
gene  1 12 60 -0.7947802258862664 0 6206.0 -0.7947802258862664 1
gene  1 14 60 -0.8616474633442833 0 6208.0 -0.8616474633442833 1
gene  1 15 60 0.2599088543877289 0 6209.0 0.2599088543877289 1
gene  1 16 60 0.6344773591472154 0 6210.0 0.6344773591472154 1
gene  1 19 60 0.3811989671151239 0 6213.0 0.3811989671151239 1
gene  1 24 60 0.8719947074456517 0 6218.0 0.8719947074456517 1
gene  1 25 60 0.6099663375302774 0 6219.0 0.6099663375302774 1
gene  1 27 60 0.45811377241128215 0 6221.0 0.45811377241128215 1
gene  1 28 60 -0.11158969274401132 0 6222.0 -0.11158969274401132 1
gene  1 29 60 -0.925820394527143 0 6223.0 -0.925820394527143 1
gene  1 31 60 -0.4996898345412527 0 6225.0 -0.4996898345412527 1
gene  1 33 60 0.44764259729502254 0 6227.0 0.44764259729502254 1
gene  1 35 60 0.944225943053824 0 6229.0 0.944225943053824 1
gene  1 38 60 -0.2713355595916286 0 6232.0 -0.2713355595916286 1
gene  1 39 60 0.7730995938076987 0 6233.0 0.7730995938076987 1
gene  1 42 60 0.20186146155142282 0 6236.0 0.20186146155142282 1
gene  1 43 60 0.8749225705807476 0 6237.0 0.8749225705807476 1
gene  1 44 60 -0.4527378337665551 0 6238.0 -0.4527378337665551 1
gene  1 47 60 0.4780344823735704 0 6241.0 0.4780344823735704 1
gene  1 48 60 -0.22672526092221956 0 6242.0 -0.22672526092221956 1
gene  1 51 60 -0.9840977908818288 0 6245.0 -0.9840977908818288 1
gene  1 52 60 0.804089954334757 0 6246.0 0.804089954334757 1
gene  1 56 60 0.5476561671009652 0 6250.0 0.5476561671009652 1
gene  1 57 60 0.06551263578286426 0 6251.0 0.06551263578286426 1
gene  1 58 60 0.9138927648172086 0 6252.0 0.9138927648172086 1
gene  1 3 61 -0.11053278818115375 0 6302.0 -0.11053278818115375 1
gene  1 9 61 0.45754276407891836 0 6308.0 0.45754276407891836 1
gene  1 10 61 -0.8785318316530739 0 6309.0 -0.8785318316530739 1
gene  1 11 61 0.17671678428830329 0 6310.0 0.17671678428830329 1
gene  1 12 61 0.5890617180834676 0 6311.0 0.5890617180834676 1
gene  1 13 61 -0.501433729928512 0 6312.0 -0.501433729928512 1
gene  1 14 61 0.8340084495134452 0 6313.0 0.8340084495134452 1
gene  1 18 61 0.6253307885440232 0 6317.0 0.6253307885440232 1
gene  1 20 61 -0.6666457061679457 0 6319.0 -0.6666457061679457 1
gene  1 21 61 0.5540325444531725 0 6320.0 0.5540325444531725 1
gene  1 22 61 0.9007598081884799 0 6321.0 0.9007598081884799 1
gene  1 25 61 0.751226174118504 0 6324.0 0.751226174118504 1
gene  1 27 61 0.8760470711793183 0 6326.0 0.8760470711793183 1
gene  1 28 61 -0.4343347865603263 0 6327.0 -0.4343347865603263 1
gene  1 30 61 -0.6180206278208291 0 6329.0 -0.6180206278208291 1
gene  1 33 61 -0.5516976103547296 0 6332.0 -0.5516976103547296 1
gene  1 36 61 -0.11669024574839948 0 6335.0 -0.11669024574839948 1
gene  1 39 61 -0.944011281591835 0 6338.0 -0.944011281591835 1
gene  1 40 61 0.18666383519527263 0 6339.0 0.18666383519527263 1
gene  1 43 61 -0.6426277530089335 0 6342.0 -0.6426277530089335 1
gene  1 44 61 0.34108844505264435 0 6343.0 0.34108844505264435 1
gene  1 45 61 0.45060799428275244 0 6344.0 0.45060799428275244 1
gene  1 49 61 -0.16675311182616936 0 6348.0 -0.16675311182616936 1
gene  1 55 61 -0.26644881061228975 0 6354.0 -0.26644881061228975 1
gene  1 60 61 0.7127986581232965 0 6359.0 0.7127986581232965 1
gene  1 1 62 -0.3047613058605757 0 6405.0 -0.3047613058605757 1
gene  1 2 62 -0.17594110162462684 0 6406.0 -0.17594110162462684 1
gene  1 3 62 -0.3227450061336139 0 6407.0 -0.3227450061336139 1
gene  1 6 62 0.46014781559621076 0 6410.0 0.46014781559621076 1
gene  1 7 62 0.13618503880473853 0 6411.0 0.13618503880473853 1
gene  1 8 62 0.11813387458274827 0 6412.0 0.11813387458274827 1
gene  1 13 62 0.5491183344949393 0 6417.0 0.5491183344949393 1
gene  1 14 62 -0.02593841615072001 0 6418.0 -0.02593841615072001 1
gene  1 18 62 0.04865373456669253 0 6422.0 0.04865373456669253 1
gene  1 19 62 0.5978989134137558 0 6423.0 0.5978989134137558 1
gene  1 22 62 0.3157270869033654 0 6426.0 0.3157270869033654 1
gene  1 23 62 0.926257220390445 0 6427.0 0.926257220390445 1
gene  1 24 62 0.23524808598810742 0 6428.0 0.23524808598810742 1
gene  1 25 62 -0.6184956694531105 0 6429.0 -0.6184956694531105 1
gene  1 29 62 -0.0286801315055063 0 6433.0 -0.0286801315055063 1
gene  1 33 62 0.7050104666347505 0 6437.0 0.7050104666347505 1
gene  1 34 62 0.5392821554209164 0 6438.0 0.5392821554209164 1
gene  1 37 62 -0.3547256406976004 0 6441.0 -0.3547256406976004 1
gene  1 39 62 -0.022452812861957105 0 6443.0 -0.022452812861957105 1
gene  1 40 62 0.9628989222294372 0 6444.0 0.9628989222294372 1
gene  1 43 62 0.8930136471544111 0 6447.0 0.8930136471544111 1
gene  1 47 62 -0.5299763643847355 0 6451.0 -0.5299763643847355 1
gene  1 48 62 -0.763785154540195 0 6452.0 -0.763785154540195 1
gene  1 52 62 -0.09261162589679106 0 6456.0 -0.09261162589679106 1
gene  1 54 62 0.44673501415851 0 6458.0 0.44673501415851 1
gene  1 56 62 0.6131938619491172 0 6460.0 0.6131938619491172 1
gene  1 59 62 0.6901073523968769 0 6463.0 0.6901073523968769 1
gene  1 60 62 -0.7428134014814897 0 6464.0 -0.7428134014814897 1
gene  1 1 63 0.048320612511173144 0 6510.0 0.048320612511173144 1
gene  1 3 63 0.9487535727214704 0 6512.0 0.9487535727214704 1
gene  1 4 63 0.6122601696680681 0 6513.0 0.6122601696680681 1
gene  1 5 63 -0.32316233046395904 0 6514.0 -0.32316233046395904 1
gene  1 6 63 -0.7128005601277777 0 6515.0 -0.7128005601277777 1
gene  1 7 63 0.9123824305524432 0 6516.0 0.9123824305524432 1
gene  1 8 63 0.16886972591982818 0 6517.0 0.16886972591982818 1
gene  1 9 63 0.9466283511426783 0 6518.0 0.9466283511426783 1
gene  1 15 63 -0.9199615280184609 0 6524.0 -0.9199615280184609 1
gene  1 19 63 0.9808598054388241 0 6528.0 0.9808598054388241 1
gene  1 22 63 -0.7197939133954532 0 6531.0 -0.7197939133954532 1
gene  1 24 63 -0.9636721891164725 0 6533.0 -0.9636721891164725 1
gene  1 26 63 -0.25412594539765954 0 6535.0 -0.25412594539765954 1
gene  1 29 63 -0.05301174734387637 0 6538.0 -0.05301174734387637 1
gene  1 31 63 -0.4970615200711406 0 6540.0 -0.4970615200711406 1
gene  1 32 63 0.7896473627041921 0 6541.0 0.7896473627041921 1
gene  1 33 63 0.7347979732651984 0 6542.0 0.7347979732651984 1
gene  1 37 63 -0.6647080795350763 0 6546.0 -0.6647080795350763 1
gene  1 38 63 0.029025297577929376 0 6547.0 0.029025297577929376 1
gene  1 41 63 0.660736101919007 0 6550.0 0.660736101919007 1
gene  1 42 63 -0.5323285252635316 0 6551.0 -0.5323285252635316 1
gene  1 44 63 0.7107448532183434 0 6553.0 0.7107448532183434 1
gene  1 48 63 0.34927288167516035 0 6557.0 0.34927288167516035 1
gene  1 49 63 0.6078322085902804 0 6558.0 0.6078322085902804 1
gene  1 50 63 0.8935524859923505 0 6559.0 0.8935524859923505 1
gene  1 53 63 0.5905904252822286 0 6562.0 0.5905904252822286 1
gene  1 55 63 0.3752870519534447 0 6564.0 0.3752870519534447 1
gene  1 56 63 -0.6294233695393756 0 6565.0 -0.6294233695393756 1
gene  1 58 63 0.46478313718580444 0 6567.0 0.46478313718580444 1
gene  1 62 63 0.11131412184288092 0 6571.0 0.11131412184288092 1
gene  1 1 64 -0.9688949740570453 0 6615.0 -0.9688949740570453 1
gene  1 2 64 0.32545800986946194 0 6616.0 0.32545800986946194 1
gene  1 4 64 0.6617706343684823 0 6618.0 0.6617706343684823 1
gene  1 6 64 -0.1472943375421304 0 6620.0 -0.1472943375421304 1
gene  1 8 64 -0.4940479155207721 0 6622.0 -0.4940479155207721 1
gene  1 9 64 -0.16054328339295654 0 6623.0 -0.16054328339295654 1
gene  1 14 64 0.838286882993065 0 6628.0 0.838286882993065 1
gene  1 16 64 -0.7195917627329066 0 6630.0 -0.7195917627329066 1
gene  1 17 64 0.38715227780857187 0 6631.0 0.38715227780857187 1
gene  1 18 64 -0.8271157685693565 0 6632.0 -0.8271157685693565 1
gene  1 20 64 0.20879900640488236 0 6634.0 0.20879900640488236 1
gene  1 21 64 0.42461571804637543 0 6635.0 0.42461571804637543 1
gene  1 23 64 -0.11763478198630917 0 6637.0 -0.11763478198630917 1
gene  1 25 64 0.6323404221294453 0 6639.0 0.6323404221294453 1
gene  1 28 64 -0.42002841408591274 0 6642.0 -0.42002841408591274 1
gene  1 29 64 0.727729595641264 0 6643.0 0.727729595641264 1
gene  1 31 64 0.5051425070918804 0 6645.0 0.5051425070918804 1
gene  1 33 64 -0.4256822935780652 0 6647.0 -0.4256822935780652 1
gene  1 34 64 -0.39672605533565164 0 6648.0 -0.39672605533565164 1
gene  1 35 64 -0.6179285593135871 0 6649.0 -0.6179285593135871 1
gene  1 36 64 0.2851058875686586 0 6650.0 0.2851058875686586 1
gene  1 38 64 0.7909936370831624 0 6652.0 0.7909936370831624 1
gene  1 39 64 -0.3362662129237295 0 6653.0 -0.3362662129237295 1
gene  1 42 64 -0.17925189336069713 0 6656.0 -0.17925189336069713 1
gene  1 44 64 -0.9835557758398148 0 6658.0 -0.9835557758398148 1
gene  1 45 64 -0.25557248921696096 0 6659.0 -0.25557248921696096 1
gene  1 49 64 0.1440840279700093 0 6663.0 0.1440840279700093 1
gene  1 53 64 -0.31710562455383806 0 6667.0 -0.31710562455383806 1
gene  1 54 64 -0.029184966410287116 0 6668.0 -0.029184966410287116 1
gene  1 56 64 -0.311362700400007 0 6670.0 -0.311362700400007 1
gene  1 57 64 0.008846076468287944 0 6671.0 0.008846076468287944 1
gene  1 59 64 0.8364923956826462 0 6673.0 0.8364923956826462 1
gene  1 60 64 0.8466585072902895 0 6674.0 0.8466585072902895 1
gene  1 61 64 0.5270347217313771 0 6675.0 0.5270347217313771 1
gene  1 62 64 0.45571292125172325 0 6676.0 0.45571292125172325 1
gene  1 1 65 -0.3169663154469411 0 6720.0 -0.3169663154469411 1
gene  1 6 65 -0.7379550794604135 0 6725.0 -0.7379550794604135 1
gene  1 9 65 -0.865247036528386 0 6728.0 -0.865247036528386 1
gene  1 10 65 0.0031653210589343006 0 6729.0 0.0031653210589343006 1
gene  1 14 65 0.38802501815628776 0 6733.0 0.38802501815628776 1
gene  1 15 65 -0.26279207592987286 0 6734.0 -0.26279207592987286 1
gene  1 17 65 0.1524448771381044 0 6736.0 0.1524448771381044 1
gene  1 19 65 0.3205372242961416 0 6738.0 0.3205372242961416 1
gene  1 21 65 -0.5600612481486091 0 6740.0 -0.5600612481486091 1
gene  1 22 65 -0.7165506049455539 0 6741.0 -0.7165506049455539 1
gene  1 23 65 0.10899120496701131 0 6742.0 0.10899120496701131 1
gene  1 24 65 -0.5484171482706782 0 6743.0 -0.5484171482706782 1
gene  1 25 65 -0.3007447226494929 0 6744.0 -0.3007447226494929 1
gene  1 26 65 -0.11304978320007264 0 6745.0 -0.11304978320007264 1
gene  1 29 65 0.29950039831839215 0 6748.0 0.29950039831839215 1
gene  1 31 65 0.6331093675064696 0 6750.0 0.6331093675064696 1
gene  1 32 65 -0.514985452694855 0 6751.0 -0.514985452694855 1
gene  1 33 65 0.7953740100271705 0 6752.0 0.7953740100271705 1
gene  1 36 65 0.1555923860411219 0 6755.0 0.1555923860411219 1
gene  1 37 65 0.24192580496674287 0 6756.0 0.24192580496674287 1
gene  1 38 65 0.5480139097949529 0 6757.0 0.5480139097949529 1
gene  1 39 65 -0.7029603002791438 0 6758.0 -0.7029603002791438 1
gene  1 40 65 -0.9389106690454757 0 6759.0 -0.9389106690454757 1
gene  1 42 65 -0.0926246694576297 0 6761.0 -0.0926246694576297 1
gene  1 44 65 0.7045453751810076 0 6763.0 0.7045453751810076 1
gene  1 46 65 0.2464038716220479 0 6765.0 0.2464038716220479 1
gene  1 49 65 0.21853484993756922 0 6768.0 0.21853484993756922 1
gene  1 50 65 0.5441090302977616 0 6769.0 0.5441090302977616 1
gene  1 53 65 0.5907965277977366 0 6772.0 0.5907965277977366 1
gene  1 54 65 -0.3089192108405041 0 6773.0 -0.3089192108405041 1
gene  1 57 65 0.43562544715269635 0 6776.0 0.43562544715269635 1
gene  1 58 65 -0.6747137537814466 0 6777.0 -0.6747137537814466 1
gene  1 61 65 0.2279873714607693 0 6780.0 0.2279873714607693 1
gene  1 62 65 -0.7779492292004576 0 6781.0 -0.7779492292004576 1
gene  1 1 66 0.20539740803551654 0 6825.0 0.20539740803551654 1
gene  1 3 66 0.10908160923914889 0 6827.0 0.10908160923914889 1
gene  1 6 66 -0.35296050366834186 0 6830.0 -0.35296050366834186 1
gene  1 10 66 0.18177497417904942 0 6834.0 0.18177497417904942 1
gene  1 13 66 0.682838444566961 0 6837.0 0.682838444566961 1
gene  1 18 66 -0.7566708559653584 0 6842.0 -0.7566708559653584 1
gene  1 19 66 0.9701281638229751 0 6843.0 0.9701281638229751 1
gene  1 20 66 0.9807448198424156 0 6844.0 0.9807448198424156 1
gene  1 21 66 0.09884957682234996 0 6845.0 0.09884957682234996 1
gene  1 24 66 0.7781396065593605 0 6848.0 0.7781396065593605 1
gene  1 25 66 0.5149366926409302 0 6849.0 0.5149366926409302 1
gene  1 26 66 0.15438920970998804 0 6850.0 0.15438920970998804 1
gene  1 28 66 0.19694856374910452 0 6852.0 0.19694856374910452 1
gene  1 32 66 -0.30587727786422936 0 6856.0 -0.30587727786422936 1
gene  1 33 66 0.7576107881591123 0 6857.0 0.7576107881591123 1
gene  1 35 66 0.29457003936548576 0 6859.0 0.29457003936548576 1
gene  1 36 66 -0.9909728635579708 0 6860.0 -0.9909728635579708 1
gene  1 38 66 -0.18934231513022926 0 6862.0 -0.18934231513022926 1
gene  1 41 66 -0.2516803822234943 0 6865.0 -0.2516803822234943 1
gene  1 46 66 -0.11815525710434627 0 6870.0 -0.11815525710434627 1
gene  1 48 66 -0.9793561023489211 0 6872.0 -0.9793561023489211 1
gene  1 49 66 0.7140312176348136 0 6873.0 0.7140312176348136 1
gene  1 52 66 0.008642113672865603 0 6876.0 0.008642113672865603 1
gene  1 55 66 0.35461449866504957 0 6879.0 0.35461449866504957 1
gene  1 60 66 0.6339137490311291 0 6884.0 0.6339137490311291 1
gene  1 65 66 -0.4261344078371948 0 6889.0 -0.4261344078371948 1
gene  1 1 67 -0.5613891809819741 0 6930.0 -0.5613891809819741 1
gene  1 6 67 0.3453737902542642 0 6935.0 0.3453737902542642 1
gene  1 7 67 -0.8074174273537944 0 6936.0 -0.8074174273537944 1
gene  1 9 67 -0.8763965314967991 0 6938.0 -0.8763965314967991 1
gene  1 10 67 0.4274511132852218 0 6939.0 0.4274511132852218 1
gene  1 11 67 0.4606015679777843 0 6940.0 0.4606015679777843 1
gene  1 12 67 -0.33569516248300146 0 6941.0 -0.33569516248300146 1
gene  1 13 67 0.94142879277737 0 6942.0 0.94142879277737 1
gene  1 15 67 0.5706890624989188 0 6944.0 0.5706890624989188 1
gene  1 19 67 0.9400469223308362 0 6948.0 0.9400469223308362 1
gene  1 30 67 0.9420760376398359 0 6959.0 0.9420760376398359 1
gene  1 31 67 -0.9756346099762955 0 6960.0 -0.9756346099762955 1
gene  1 34 67 -0.018339538264452226 0 6963.0 -0.018339538264452226 1
gene  1 35 67 0.8892201564340855 0 6964.0 0.8892201564340855 1
gene  1 37 67 -0.9645838448813482 0 6966.0 -0.9645838448813482 1
gene  1 38 67 0.15079545529643468 0 6967.0 0.15079545529643468 1
gene  1 41 67 0.6600078855273633 0 6970.0 0.6600078855273633 1
gene  1 42 67 0.5990678892093438 0 6971.0 0.5990678892093438 1
gene  1 43 67 -0.033633738669385016 0 6972.0 -0.033633738669385016 1
gene  1 44 67 0.133885296283207 0 6973.0 0.133885296283207 1
gene  1 46 67 -0.13657975695711477 0 6975.0 -0.13657975695711477 1
gene  1 49 67 -0.8417047709529479 0 6978.0 -0.8417047709529479 1
gene  1 51 67 -0.7287309957366767 0 6980.0 -0.7287309957366767 1
gene  1 53 67 0.5893800567513077 0 6982.0 0.5893800567513077 1
gene  1 54 67 0.929613900362294 0 6983.0 0.929613900362294 1
gene  1 55 67 -0.35894613863142744 0 6984.0 -0.35894613863142744 1
gene  1 59 67 -0.2698209675723382 0 6988.0 -0.2698209675723382 1
gene  1 62 67 0.6446139974631881 0 6991.0 0.6446139974631881 1
gene  1 64 67 -0.45454703291886545 0 6993.0 -0.45454703291886545 1
gene  1 65 67 0.9834421338583057 0 6994.0 0.9834421338583057 1
gene  1 66 67 0.26987400883884427 0 6995.0 0.26987400883884427 1
gene  1 2 68 -0.37190081301495737 0 7036.0 -0.37190081301495737 1
gene  1 3 68 -0.4223040887592875 0 7037.0 -0.4223040887592875 1
gene  1 7 68 -0.09012265335400005 0 7041.0 -0.09012265335400005 1
gene  1 8 68 0.5417704737277586 0 7042.0 0.5417704737277586 1
gene  1 10 68 -0.8873439724361017 0 7044.0 -0.8873439724361017 1
gene  1 11 68 -0.6013568727538251 0 7045.0 -0.6013568727538251 1
gene  1 16 68 0.7912722033842832 0 7050.0 0.7912722033842832 1
gene  1 18 68 -0.45070772994336283 0 7052.0 -0.45070772994336283 1
gene  1 20 68 -0.8835501545048595 0 7054.0 -0.8835501545048595 1
gene  1 22 68 -0.6329854882842827 0 7056.0 -0.6329854882842827 1
gene  1 24 68 0.18159364939279155 0 7058.0 0.18159364939279155 1
gene  1 25 68 0.6036938325463133 0 7059.0 0.6036938325463133 1
gene  1 26 68 -0.26374428621289836 0 7060.0 -0.26374428621289836 1
gene  1 28 68 -0.8329099588885105 0 7062.0 -0.8329099588885105 1
gene  1 29 68 -0.2766906218547125 0 7063.0 -0.2766906218547125 1
gene  1 30 68 0.02510324795261254 0 7064.0 0.02510324795261254 1
gene  1 31 68 -0.16185340519134273 0 7065.0 -0.16185340519134273 1
gene  1 33 68 -0.1684001634429787 0 7067.0 -0.1684001634429787 1
gene  1 34 68 0.132975633955152 0 7068.0 0.132975633955152 1
gene  1 36 68 0.8710056186409736 0 7070.0 0.8710056186409736 1
gene  1 37 68 0.5726454391983462 0 7071.0 0.5726454391983462 1
gene  1 38 68 0.40663121831309523 0 7072.0 0.40663121831309523 1
gene  1 39 68 0.09944804024057052 0 7073.0 0.09944804024057052 1
gene  1 40 68 -0.15867347252958164 0 7074.0 -0.15867347252958164 1
gene  1 41 68 0.3055135931899585 0 7075.0 0.3055135931899585 1
gene  1 43 68 -0.9720021738885062 0 7077.0 -0.9720021738885062 1
gene  1 44 68 0.6393080227259565 0 7078.0 0.6393080227259565 1
gene  1 45 68 0.639335786986312 0 7079.0 0.639335786986312 1
gene  1 46 68 -0.16440609532875505 0 7080.0 -0.16440609532875505 1
gene  1 49 68 -0.3713211158567128 0 7083.0 -0.3713211158567128 1
gene  1 50 68 0.6260815062791099 0 7084.0 0.6260815062791099 1
gene  1 51 68 0.5142541535777249 0 7085.0 0.5142541535777249 1
gene  1 53 68 0.46599794063999533 0 7087.0 0.46599794063999533 1
gene  1 55 68 -0.29950329088361116 0 7089.0 -0.29950329088361116 1
gene  1 56 68 -0.21580441087993774 0 7090.0 -0.21580441087993774 1
gene  1 57 68 0.11331526787791202 0 7091.0 0.11331526787791202 1
gene  1 58 68 -0.9816563879198223 0 7092.0 -0.9816563879198223 1
gene  1 59 68 -0.23742106819623565 0 7093.0 -0.23742106819623565 1
gene  1 62 68 -0.12170172749111641 0 7096.0 -0.12170172749111641 1
gene  1 63 68 0.33269024220690946 0 7097.0 0.33269024220690946 1
gene  1 65 68 -0.541098365380865 0 7099.0 -0.541098365380865 1
gene  1 66 68 0.6198613004406852 0 7100.0 0.6198613004406852 1
gene  1 67 68 -0.4654268882880487 0 7101.0 -0.4654268882880487 1
gene  1 2 69 -0.7092158941404677 0 7141.0 -0.7092158941404677 1
gene  1 4 69 -0.20379412976600297 0 7143.0 -0.20379412976600297 1
gene  1 8 69 -0.4666272570414889 0 7147.0 -0.4666272570414889 1
gene  1 9 69 -0.99089952701352 0 7148.0 -0.99089952701352 1
gene  1 10 69 0.6238867341825929 0 7149.0 0.6238867341825929 1
gene  1 14 69 0.5969245226861719 0 7153.0 0.5969245226861719 1
gene  1 15 69 0.8244929489700168 0 7154.0 0.8244929489700168 1
gene  1 17 69 -0.7415725565037502 0 7156.0 -0.7415725565037502 1
gene  1 18 69 -0.6394707456777784 0 7157.0 -0.6394707456777784 1
gene  1 21 69 -0.6667125168437175 0 7160.0 -0.6667125168437175 1
gene  1 22 69 -0.912169760625391 0 7161.0 -0.912169760625391 1
gene  1 23 69 -0.8049231875167637 0 7162.0 -0.8049231875167637 1
gene  1 24 69 0.2364044732426822 0 7163.0 0.2364044732426822 1
gene  1 27 69 0.29576499721678284 0 7166.0 0.29576499721678284 1
gene  1 28 69 0.5542514298163456 0 7167.0 0.5542514298163456 1
gene  1 31 69 -0.20132482693794151 0 7170.0 -0.20132482693794151 1
gene  1 32 69 -0.7997962774238445 0 7171.0 -0.7997962774238445 1
gene  1 35 69 -0.5270889107172776 0 7174.0 -0.5270889107172776 1
gene  1 37 69 0.2522072091852604 0 7176.0 0.2522072091852604 1
gene  1 39 69 -0.767318085291484 0 7178.0 -0.767318085291484 1
gene  1 43 69 0.19595112757598876 0 7182.0 0.19595112757598876 1
gene  1 44 69 -0.20197801803730064 0 7183.0 -0.20197801803730064 1
gene  1 47 69 0.09921588106429591 0 7186.0 0.09921588106429591 1
gene  1 49 69 -0.08163665955370558 0 7188.0 -0.08163665955370558 1
gene  1 50 69 0.4610829536230614 0 7189.0 0.4610829536230614 1
gene  1 55 69 -0.7821663827132294 0 7194.0 -0.7821663827132294 1
gene  1 56 69 0.08866970184231782 0 7195.0 0.08866970184231782 1
gene  1 58 69 -0.27900901140810075 0 7197.0 -0.27900901140810075 1
gene  1 59 69 -0.2939379084608299 0 7198.0 -0.2939379084608299 1
gene  1 63 69 0.7765507465569799 0 7202.0 0.7765507465569799 1
gene  1 64 69 -0.1905985754153905 0 7203.0 -0.1905985754153905 1
gene  1 1 70 -0.4614766277773479 0 7245.0 -0.4614766277773479 1
gene  1 4 70 -0.21841660374372818 0 7248.0 -0.21841660374372818 1
gene  1 5 70 -0.241310638139403 0 7249.0 -0.241310638139403 1
gene  1 6 70 0.7325152591294884 0 7250.0 0.7325152591294884 1
gene  1 7 70 -0.3663439043793292 0 7251.0 -0.3663439043793292 1
gene  1 8 70 -0.4668430987249774 0 7252.0 -0.4668430987249774 1
gene  1 11 70 -0.15319157647885395 0 7255.0 -0.15319157647885395 1
gene  1 12 70 0.08708245423677918 0 7256.0 0.08708245423677918 1
gene  1 14 70 -0.7973830135430167 0 7258.0 -0.7973830135430167 1
gene  1 16 70 0.06853771736398395 0 7260.0 0.06853771736398395 1
gene  1 19 70 0.3747270358604653 0 7263.0 0.3747270358604653 1
gene  1 21 70 -0.7637487002665546 0 7265.0 -0.7637487002665546 1
gene  1 22 70 0.9319080611984368 0 7266.0 0.9319080611984368 1
gene  1 26 70 0.0354435638670193 0 7270.0 0.0354435638670193 1
gene  1 27 70 -0.4147973076064134 0 7271.0 -0.4147973076064134 1
gene  1 29 70 -0.6596609067286113 0 7273.0 -0.6596609067286113 1
gene  1 32 70 0.13803477986579138 0 7276.0 0.13803477986579138 1
gene  1 33 70 0.37474142034178903 0 7277.0 0.37474142034178903 1
gene  1 34 70 0.13757393396632045 0 7278.0 0.13757393396632045 1
gene  1 35 70 0.24068363631127032 0 7279.0 0.24068363631127032 1
gene  1 36 70 0.07795564652645526 0 7280.0 0.07795564652645526 1
gene  1 37 70 -0.37004593503698113 0 7281.0 -0.37004593503698113 1
gene  1 38 70 0.05886330791593741 0 7282.0 0.05886330791593741 1
gene  1 41 70 0.6995578273327769 0 7285.0 0.6995578273327769 1
gene  1 42 70 0.13536302521186605 0 7286.0 0.13536302521186605 1
gene  1 43 70 0.8346661923338204 0 7287.0 0.8346661923338204 1
gene  1 44 70 0.3843096005891188 0 7288.0 0.3843096005891188 1
gene  1 45 70 0.93781207422248 0 7289.0 0.93781207422248 1
gene  1 46 70 -0.13609525153111135 0 7290.0 -0.13609525153111135 1
gene  1 47 70 -0.0136694696631392 0 7291.0 -0.0136694696631392 1
gene  1 48 70 -0.6538810676485732 0 7292.0 -0.6538810676485732 1
gene  1 50 70 0.4130651690912781 0 7294.0 0.4130651690912781 1
gene  1 54 70 0.7753897566987993 0 7298.0 0.7753897566987993 1
gene  1 55 70 -0.3916143919539806 0 7299.0 -0.3916143919539806 1
gene  1 56 70 0.8484623076852148 0 7300.0 0.8484623076852148 1
gene  1 59 70 -0.2152779242442312 0 7303.0 -0.2152779242442312 1
gene  1 61 70 -0.5144051010846544 0 7305.0 -0.5144051010846544 1
gene  1 63 70 0.7297024143091334 0 7307.0 0.7297024143091334 1
gene  1 64 70 0.3459947693791777 0 7308.0 0.3459947693791777 1
gene  1 65 70 -0.02514215774553774 0 7309.0 -0.02514215774553774 1
gene  1 66 70 -0.15139570176109107 0 7310.0 -0.15139570176109107 1
gene  1 67 70 0.32399370656633586 0 7311.0 0.32399370656633586 1
gene  1 68 70 -0.8671140839748931 0 7312.0 -0.8671140839748931 1
gene  1 2 71 -0.06533459167765499 0 7351.0 -0.06533459167765499 1
gene  1 3 71 0.044442269084831953 0 7352.0 0.044442269084831953 1
gene  1 4 71 -0.3438748928970514 0 7353.0 -0.3438748928970514 1
gene  1 8 71 -0.876164428805738 0 7357.0 -0.876164428805738 1
gene  1 9 71 0.5903787364364976 0 7358.0 0.5903787364364976 1
gene  1 10 71 -0.5951821171999458 0 7359.0 -0.5951821171999458 1
gene  1 14 71 0.5101628182620734 0 7363.0 0.5101628182620734 1
gene  1 15 71 -0.07724078734684159 0 7364.0 -0.07724078734684159 1
gene  1 19 71 0.542298835439981 0 7368.0 0.542298835439981 1
gene  1 20 71 -0.17564980084035708 0 7369.0 -0.17564980084035708 1
gene  1 21 71 0.6224607924942667 0 7370.0 0.6224607924942667 1
gene  1 22 71 -0.11280996304226654 0 7371.0 -0.11280996304226654 1
gene  1 23 71 -0.5054330662161757 0 7372.0 -0.5054330662161757 1
gene  1 24 71 0.06910639895414805 0 7373.0 0.06910639895414805 1
gene  1 25 71 -0.09741112280646758 0 7374.0 -0.09741112280646758 1
gene  1 26 71 0.20265188036906112 0 7375.0 0.20265188036906112 1
gene  1 29 71 -0.16239588692761953 0 7378.0 -0.16239588692761953 1
gene  1 31 71 -0.12345424512576664 0 7380.0 -0.12345424512576664 1
gene  1 32 71 -0.7694420370852836 0 7381.0 -0.7694420370852836 1
gene  1 35 71 0.7933872777162583 0 7384.0 0.7933872777162583 1
gene  1 36 71 0.8313111887839916 0 7385.0 0.8313111887839916 1
gene  1 37 71 -0.9022348248538957 0 7386.0 -0.9022348248538957 1
gene  1 38 71 -0.5039966348998791 0 7387.0 -0.5039966348998791 1
gene  1 40 71 0.7856259376667311 0 7389.0 0.7856259376667311 1
gene  1 41 71 0.958524622416723 0 7390.0 0.958524622416723 1
gene  1 42 71 -0.9298856144045949 0 7391.0 -0.9298856144045949 1
gene  1 43 71 0.434938493937274 0 7392.0 0.434938493937274 1
gene  1 44 71 -0.20057369903542022 0 7393.0 -0.20057369903542022 1
gene  1 49 71 -0.3668645661832476 0 7398.0 -0.3668645661832476 1
gene  1 52 71 -0.7283700920161174 0 7401.0 -0.7283700920161174 1
gene  1 57 71 0.8521122097842131 0 7406.0 0.8521122097842131 1
gene  1 60 71 0.296438606528616 0 7409.0 0.296438606528616 1
gene  1 63 71 -0.6923529134806412 0 7412.0 -0.6923529134806412 1
gene  1 64 71 0.34184052111189767 0 7413.0 0.34184052111189767 1
gene  1 65 71 0.4055275589761379 0 7414.0 0.4055275589761379 1
gene  1 66 71 0.8747169446857096 0 7415.0 0.8747169446857096 1
gene  1 67 71 0.46663892249504946 0 7416.0 0.46663892249504946 1
gene  1 68 71 0.8518749949955918 0 7417.0 0.8518749949955918 1
gene  1 69 71 -0.567345181130518 0 7418.0 -0.567345181130518 1
gene  1 70 71 -0.4768315369249211 0 7419.0 -0.4768315369249211 1
gene  1 2 72 0.2622873133821252 0 7456.0 0.2622873133821252 1
gene  1 6 72 0.4521482536609561 0 7460.0 0.4521482536609561 1
gene  1 7 72 -0.3941471755597068 0 7461.0 -0.3941471755597068 1
gene  1 9 72 -0.18392806135501527 0 7463.0 -0.18392806135501527 1
gene  1 11 72 -0.866715907970737 0 7465.0 -0.866715907970737 1
gene  1 13 72 -0.22912847806508818 0 7467.0 -0.22912847806508818 1
gene  1 14 72 0.9866408738748466 0 7468.0 0.9866408738748466 1
gene  1 16 72 -0.04007256167284967 0 7470.0 -0.04007256167284967 1
gene  1 19 72 0.6007435325630018 0 7473.0 0.6007435325630018 1
gene  1 20 72 -0.18238902190726236 0 7474.0 -0.18238902190726236 1
gene  1 21 72 0.5630971436600509 0 7475.0 0.5630971436600509 1
gene  1 22 72 -0.6366757277509472 0 7476.0 -0.6366757277509472 1
gene  1 23 72 -0.27144664777640815 0 7477.0 -0.27144664777640815 1
gene  1 27 72 -0.809113211112416 0 7481.0 -0.809113211112416 1
gene  1 29 72 0.3919758853037193 0 7483.0 0.3919758853037193 1
gene  1 30 72 0.9606089927598617 0 7484.0 0.9606089927598617 1
gene  1 31 72 0.32777685897252695 0 7485.0 0.32777685897252695 1
gene  1 32 72 0.9139523111715542 0 7486.0 0.9139523111715542 1
gene  1 34 72 0.5982229147015722 0 7488.0 0.5982229147015722 1
gene  1 35 72 -0.22896554008101577 0 7489.0 -0.22896554008101577 1
gene  1 36 72 -0.1619841941598389 0 7490.0 -0.1619841941598389 1
gene  1 37 72 -0.1260490602459765 0 7491.0 -0.1260490602459765 1
gene  1 38 72 0.9308921209950367 0 7492.0 0.9308921209950367 1
gene  1 40 72 0.540416814090464 0 7494.0 0.540416814090464 1
gene  1 41 72 0.12051480394889957 0 7495.0 0.12051480394889957 1
gene  1 42 72 -0.8951123094763609 0 7496.0 -0.8951123094763609 1
gene  1 44 72 -0.3056873366336492 0 7498.0 -0.3056873366336492 1
gene  1 45 72 0.8691645541819045 0 7499.0 0.8691645541819045 1
gene  1 46 72 -0.2142796763445819 0 7500.0 -0.2142796763445819 1
gene  1 47 72 0.7801498064389816 0 7501.0 0.7801498064389816 1
gene  1 51 72 0.39773827786937743 0 7505.0 0.39773827786937743 1
gene  1 52 72 0.23700117834607615 0 7506.0 0.23700117834607615 1
gene  1 53 72 -0.1689669225279753 0 7507.0 -0.1689669225279753 1
gene  1 57 72 0.46693680379418434 0 7511.0 0.46693680379418434 1
gene  1 58 72 0.824805452868516 0 7512.0 0.824805452868516 1
gene  1 63 72 -0.018257948182062833 0 7517.0 -0.018257948182062833 1
gene  1 64 72 0.859714656017556 0 7518.0 0.859714656017556 1
gene  1 66 72 0.7794955297526936 0 7520.0 0.7794955297526936 1
gene  1 67 72 0.8309101752748962 0 7521.0 0.8309101752748962 1
gene  1 71 72 0.8796042011464693 0 7525.0 0.8796042011464693 1
gene  1 6 73 -0.21866956444549301 0 7565.0 -0.21866956444549301 1
gene  1 8 73 0.6596345708460372 0 7567.0 0.6596345708460372 1
gene  1 11 73 -0.6412380304865265 0 7570.0 -0.6412380304865265 1
gene  1 12 73 -0.1218015344852027 0 7571.0 -0.1218015344852027 1
gene  1 16 73 -0.885800384346817 0 7575.0 -0.885800384346817 1
gene  1 17 73 0.6466763634600953 0 7576.0 0.6466763634600953 1
gene  1 18 73 -0.33157734149532514 0 7577.0 -0.33157734149532514 1
gene  1 21 73 0.3855282251588392 0 7580.0 0.3855282251588392 1
gene  1 29 73 -0.5492559607009069 0 7588.0 -0.5492559607009069 1
gene  1 30 73 -0.31348565114617644 0 7589.0 -0.31348565114617644 1
gene  1 34 73 -0.6444099694218709 0 7593.0 -0.6444099694218709 1
gene  1 36 73 -0.19205947005300616 0 7595.0 -0.19205947005300616 1
gene  1 38 73 0.5573818736327968 0 7597.0 0.5573818736327968 1
gene  1 39 73 -0.7182777970743967 0 7598.0 -0.7182777970743967 1
gene  1 40 73 -0.42832794473049984 0 7599.0 -0.42832794473049984 1
gene  1 41 73 -0.41758392231580965 0 7600.0 -0.41758392231580965 1
gene  1 43 73 0.8054254195307086 0 7602.0 0.8054254195307086 1
gene  1 45 73 0.5747878739754343 0 7604.0 0.5747878739754343 1
gene  1 46 73 -0.5013395589480276 0 7605.0 -0.5013395589480276 1
gene  1 47 73 -0.024794421018667245 0 7606.0 -0.024794421018667245 1
gene  1 48 73 -0.5405430142205183 0 7607.0 -0.5405430142205183 1
gene  1 51 73 -0.18344152212774312 0 7610.0 -0.18344152212774312 1
gene  1 54 73 -0.699859883737025 0 7613.0 -0.699859883737025 1
gene  1 55 73 0.596524453004356 0 7614.0 0.596524453004356 1
gene  1 56 73 0.8829173194273899 0 7615.0 0.8829173194273899 1
gene  1 57 73 0.4072920130140528 0 7616.0 0.4072920130140528 1
gene  1 61 73 0.6161354739219478 0 7620.0 0.6161354739219478 1
gene  1 62 73 0.004902833404876739 0 7621.0 0.004902833404876739 1
gene  1 63 73 -0.9319164629323344 0 7622.0 -0.9319164629323344 1
gene  1 64 73 0.11965045966051502 0 7623.0 0.11965045966051502 1
gene  1 66 73 0.22429116361935475 0 7625.0 0.22429116361935475 1
gene  1 70 73 0.8989282297820086 0 7629.0 0.8989282297820086 1
gene  1 71 73 0.07697951740749942 0 7630.0 0.07697951740749942 1
gene  1 2 74 -0.6433869080684259 0 7666.0 -0.6433869080684259 1
gene  1 4 74 -0.9102381759426766 0 7668.0 -0.9102381759426766 1
gene  1 5 74 0.26856518238843474 0 7669.0 0.26856518238843474 1
gene  1 8 74 0.9353602676425451 0 7672.0 0.9353602676425451 1
gene  1 11 74 -0.0895495058698309 0 7675.0 -0.0895495058698309 1
gene  1 12 74 0.7488575171240481 0 7676.0 0.7488575171240481 1
gene  1 15 74 0.7313446531437363 0 7679.0 0.7313446531437363 1
gene  1 16 74 -0.42445228263138723 0 7680.0 -0.42445228263138723 1
gene  1 17 74 0.07683538373107834 0 7681.0 0.07683538373107834 1
gene  1 23 74 0.5930531197986976 0 7687.0 0.5930531197986976 1
gene  1 24 74 -0.14680736143401274 0 7688.0 -0.14680736143401274 1
gene  1 27 74 0.18597016205003036 0 7691.0 0.18597016205003036 1
gene  1 28 74 0.7620288992558918 0 7692.0 0.7620288992558918 1
gene  1 31 74 -0.2677112899446502 0 7695.0 -0.2677112899446502 1
gene  1 35 74 -0.8756182166027388 0 7699.0 -0.8756182166027388 1
gene  1 36 74 -0.6129731788181149 0 7700.0 -0.6129731788181149 1
gene  1 38 74 -0.17015037060577198 0 7702.0 -0.17015037060577198 1
gene  1 39 74 -0.9959433135979893 0 7703.0 -0.9959433135979893 1
gene  1 44 74 -0.3163460708161967 0 7708.0 -0.3163460708161967 1
gene  1 46 74 0.39815553287525796 0 7710.0 0.39815553287525796 1
gene  1 48 74 -0.5139604785482746 0 7712.0 -0.5139604785482746 1
gene  1 49 74 -0.9582302524860068 0 7713.0 -0.9582302524860068 1
gene  1 50 74 -0.04815891263983019 0 7714.0 -0.04815891263983019 1
gene  1 52 74 -0.991939612426437 0 7716.0 -0.991939612426437 1
gene  1 53 74 -0.11473983863058912 0 7717.0 -0.11473983863058912 1
gene  1 54 74 -0.4146187143246367 0 7718.0 -0.4146187143246367 1
gene  1 57 74 0.9283175169107301 0 7721.0 0.9283175169107301 1
gene  1 60 74 0.9100135496490377 0 7724.0 0.9100135496490377 1
gene  1 61 74 0.05589098398745074 0 7725.0 0.05589098398745074 1
gene  1 64 74 -0.1576906591541235 0 7728.0 -0.1576906591541235 1
gene  1 66 74 -0.20752724423351154 0 7730.0 -0.20752724423351154 1
gene  1 67 74 -0.09974987854193762 0 7731.0 -0.09974987854193762 1
gene  1 68 74 0.24073841879707758 0 7732.0 0.24073841879707758 1
gene  1 1 75 -0.7457810897573008 0 7770.0 -0.7457810897573008 1
gene  1 3 75 0.17396541600000515 0 7772.0 0.17396541600000515 1
gene  1 4 75 0.8104946382449699 0 7773.0 0.8104946382449699 1
gene  1 5 75 -0.8056612979063646 0 7774.0 -0.8056612979063646 1
gene  1 6 75 0.2623542233275854 0 7775.0 0.2623542233275854 1
gene  1 8 75 -0.9800546204383119 0 7777.0 -0.9800546204383119 1
gene  1 10 75 0.7204754511299889 0 7779.0 0.7204754511299889 1
gene  1 13 75 -0.12598245725705481 0 7782.0 -0.12598245725705481 1
gene  1 14 75 0.5134526158054527 0 7783.0 0.5134526158054527 1
gene  1 15 75 -0.27859076216947176 0 7784.0 -0.27859076216947176 1
gene  1 16 75 0.6688601397836738 0 7785.0 0.6688601397836738 1
gene  1 18 75 0.008333888828689462 0 7787.0 0.008333888828689462 1
gene  1 21 75 0.09996372663021214 0 7790.0 0.09996372663021214 1
gene  1 24 75 -0.6523211211701014 0 7793.0 -0.6523211211701014 1
gene  1 26 75 -0.8005005103594169 0 7795.0 -0.8005005103594169 1
gene  1 28 75 0.1998742955757371 0 7797.0 0.1998742955757371 1
gene  1 31 75 0.6587368405431622 0 7800.0 0.6587368405431622 1
gene  1 33 75 0.7910422916881868 0 7802.0 0.7910422916881868 1
gene  1 35 75 0.4376905056731063 0 7804.0 0.4376905056731063 1
gene  1 36 75 -0.46897529437525975 0 7805.0 -0.46897529437525975 1
gene  1 39 75 -0.46433753962475455 0 7808.0 -0.46433753962475455 1
gene  1 40 75 0.10216415040808313 0 7809.0 0.10216415040808313 1
gene  1 42 75 0.5917973697239511 0 7811.0 0.5917973697239511 1
gene  1 47 75 -0.17792066862005373 0 7816.0 -0.17792066862005373 1
gene  1 49 75 0.2138313600184094 0 7818.0 0.2138313600184094 1
gene  1 50 75 -0.25575353290534386 0 7819.0 -0.25575353290534386 1
gene  1 52 75 0.8712103929966808 0 7821.0 0.8712103929966808 1
gene  1 54 75 -0.22675424049141246 0 7823.0 -0.22675424049141246 1
gene  1 55 75 0.10719841410738695 0 7824.0 0.10719841410738695 1
gene  1 56 75 -0.8064932094224501 0 7825.0 -0.8064932094224501 1
gene  1 57 75 0.14338949846087923 0 7826.0 0.14338949846087923 1
gene  1 58 75 -0.2965193615724284 0 7827.0 -0.2965193615724284 1
gene  1 59 75 -0.6969314092942558 0 7828.0 -0.6969314092942558 1
gene  1 62 75 0.917808400248501 0 7831.0 0.917808400248501 1
gene  1 63 75 -0.7899549908764971 0 7832.0 -0.7899549908764971 1
gene  1 64 75 0.5544801101661134 0 7833.0 0.5544801101661134 1
gene  1 65 75 -0.5575677217965875 0 7834.0 -0.5575677217965875 1
gene  1 66 75 -0.6745373610412824 0 7835.0 -0.6745373610412824 1
gene  1 69 75 0.7361860828993978 0 7838.0 0.7361860828993978 1
gene  1 71 75 -0.045107014181888117 0 7840.0 -0.045107014181888117 1
gene  1 73 75 0.749234258968034 0 7842.0 0.749234258968034 1
gene  1 4 76 -0.01874403800026425 0 7878.0 -0.01874403800026425 1
gene  1 5 76 0.7308094403926283 0 7879.0 0.7308094403926283 1
gene  1 7 76 -0.31712070549023064 0 7881.0 -0.31712070549023064 1
gene  1 8 76 -0.683000699709343 0 7882.0 -0.683000699709343 1
gene  1 9 76 -0.9092538313509858 0 7883.0 -0.9092538313509858 1
gene  1 10 76 0.0487557392368102 0 7884.0 0.0487557392368102 1
gene  1 12 76 0.9140700976757569 0 7886.0 0.9140700976757569 1
gene  1 13 76 -0.18857419838938128 0 7887.0 -0.18857419838938128 1
gene  1 14 76 -0.49177644811195764 0 7888.0 -0.49177644811195764 1
gene  1 16 76 -0.9482111425960751 0 7890.0 -0.9482111425960751 1
gene  1 19 76 0.9660021008578172 0 7893.0 0.9660021008578172 1
gene  1 21 76 0.9196347355765065 0 7895.0 0.9196347355765065 1
gene  1 22 76 0.3974773995873915 0 7896.0 0.3974773995873915 1
gene  1 26 76 -0.7527389207927976 0 7900.0 -0.7527389207927976 1
gene  1 27 76 0.5918605134482771 0 7901.0 0.5918605134482771 1
gene  1 28 76 0.2762889042072689 0 7902.0 0.2762889042072689 1
gene  1 30 76 -0.45986051192027644 0 7904.0 -0.45986051192027644 1
gene  1 32 76 -0.3778125148685939 0 7906.0 -0.3778125148685939 1
gene  1 33 76 -0.2823075180018837 0 7907.0 -0.2823075180018837 1
gene  1 35 76 0.5794668914250362 0 7909.0 0.5794668914250362 1
gene  1 38 76 0.2709921610286852 0 7912.0 0.2709921610286852 1
gene  1 43 76 -0.8664819587801307 0 7917.0 -0.8664819587801307 1
gene  1 44 76 -0.053545706118583114 0 7918.0 -0.053545706118583114 1
gene  1 46 76 0.5847371564879198 0 7920.0 0.5847371564879198 1
gene  1 49 76 -0.8784730817019488 0 7923.0 -0.8784730817019488 1
gene  1 52 76 -0.03815992160124548 0 7926.0 -0.03815992160124548 1
gene  1 55 76 -0.4141562375493155 0 7929.0 -0.4141562375493155 1
gene  1 56 76 0.5934732200984085 0 7930.0 0.5934732200984085 1
gene  1 57 76 0.26605855544095425 0 7931.0 0.26605855544095425 1
gene  1 58 76 -0.5441084806941646 0 7932.0 -0.5441084806941646 1
gene  1 59 76 0.08556285218137205 0 7933.0 0.08556285218137205 1
gene  1 63 76 -0.41245957030221525 0 7937.0 -0.41245957030221525 1
gene  1 64 76 0.9472338926775764 0 7938.0 0.9472338926775764 1
gene  1 65 76 0.4289514317574574 0 7939.0 0.4289514317574574 1
gene  1 68 76 0.7759577458899484 0 7942.0 0.7759577458899484 1
gene  1 69 76 -0.46812682057378985 0 7943.0 -0.46812682057378985 1
gene  1 70 76 -0.3380299354069086 0 7944.0 -0.3380299354069086 1
gene  1 1 77 0.04462620926673899 0 7980.0 0.04462620926673899 1
gene  1 6 77 0.987735269579408 0 7985.0 0.987735269579408 1
gene  1 7 77 -0.22229323669154688 0 7986.0 -0.22229323669154688 1
gene  1 9 77 -0.5404559473007532 0 7988.0 -0.5404559473007532 1
gene  1 11 77 -0.7861951557215819 0 7990.0 -0.7861951557215819 1
gene  1 15 77 0.9969000192370594 0 7994.0 0.9969000192370594 1
gene  1 17 77 -0.12056769895350017 0 7996.0 -0.12056769895350017 1
gene  1 18 77 -0.6605452242521026 0 7997.0 -0.6605452242521026 1
gene  1 21 77 0.4118006307908787 0 8000.0 0.4118006307908787 1
gene  1 22 77 0.4836485855551128 0 8001.0 0.4836485855551128 1
gene  1 24 77 0.07482178758697466 0 8003.0 0.07482178758697466 1
gene  1 25 77 0.8764435891517081 0 8004.0 0.8764435891517081 1
gene  1 27 77 0.5750962844283005 0 8006.0 0.5750962844283005 1
gene  1 29 77 0.3173452758047258 0 8008.0 0.3173452758047258 1
gene  1 35 77 0.6141220449011725 0 8014.0 0.6141220449011725 1
gene  1 39 77 0.6553850278873053 0 8018.0 0.6553850278873053 1
gene  1 43 77 0.9004094695244543 0 8022.0 0.9004094695244543 1
gene  1 47 77 -0.2542731334902516 0 8026.0 -0.2542731334902516 1
gene  1 48 77 0.4953632373862846 0 8027.0 0.4953632373862846 1
gene  1 49 77 -0.9588327731007127 0 8028.0 -0.9588327731007127 1
gene  1 51 77 -0.34076024266189275 0 8030.0 -0.34076024266189275 1
gene  1 53 77 -0.6375704899487445 0 8032.0 -0.6375704899487445 1
gene  1 56 77 -0.641064567698967 0 8035.0 -0.641064567698967 1
gene  1 61 77 -0.059430228390508155 0 8040.0 -0.059430228390508155 1
gene  1 63 77 -0.4081248645444825 0 8042.0 -0.4081248645444825 1
gene  1 64 77 0.9872579860541008 0 8043.0 0.9872579860541008 1
gene  1 66 77 -0.6472672213477485 0 8045.0 -0.6472672213477485 1
gene  1 67 77 0.9804949456850254 0 8046.0 0.9804949456850254 1
gene  1 68 77 0.9948057641544722 0 8047.0 0.9948057641544722 1
gene  1 69 77 0.8227038761446179 0 8048.0 0.8227038761446179 1
gene  1 70 77 -0.8934624245157384 0 8049.0 -0.8934624245157384 1
gene  1 71 77 0.23926440584233455 0 8050.0 0.23926440584233455 1
gene  1 72 77 -0.11465273768050432 0 8051.0 -0.11465273768050432 1
gene  1 73 77 0.40561132947936585 0 8052.0 0.40561132947936585 1
gene  1 74 77 -0.08761465812720781 0 8053.0 -0.08761465812720781 1
gene  1 2 78 0.8815020294415614 0 8086.0 0.8815020294415614 1
gene  1 3 78 -0.7927406227214723 0 8087.0 -0.7927406227214723 1
gene  1 5 78 -0.8608727883375132 0 8089.0 -0.8608727883375132 1
gene  1 8 78 0.22563450601327595 0 8092.0 0.22563450601327595 1
gene  1 9 78 -0.011811696792984105 0 8093.0 -0.011811696792984105 1
gene  1 12 78 0.19089181106355413 0 8096.0 0.19089181106355413 1
gene  1 13 78 -0.4045209908285291 0 8097.0 -0.4045209908285291 1
gene  1 14 78 -0.7534824469576681 0 8098.0 -0.7534824469576681 1
gene  1 15 78 -0.5973773881218425 0 8099.0 -0.5973773881218425 1
gene  1 16 78 -0.6524600388258119 0 8100.0 -0.6524600388258119 1
gene  1 17 78 -0.05849244544865251 0 8101.0 -0.05849244544865251 1
gene  1 19 78 0.7432054657821405 0 8103.0 0.7432054657821405 1
gene  1 20 78 0.12100462644540755 0 8104.0 0.12100462644540755 1
gene  1 21 78 0.8207578270668537 0 8105.0 0.8207578270668537 1
gene  1 24 78 0.18385745927106178 0 8108.0 0.18385745927106178 1
gene  1 25 78 -0.16775632586270528 0 8109.0 -0.16775632586270528 1
gene  1 28 78 0.22233314743759092 0 8112.0 0.22233314743759092 1
gene  1 31 78 -0.07848554062416224 0 8115.0 -0.07848554062416224 1
gene  1 35 78 0.6372890783986088 0 8119.0 0.6372890783986088 1
gene  1 38 78 -0.6539291750344605 0 8122.0 -0.6539291750344605 1
gene  1 40 78 -0.25582698079335275 0 8124.0 -0.25582698079335275 1
gene  1 42 78 -0.8769505945961567 0 8126.0 -0.8769505945961567 1
gene  1 47 78 -0.11644157121034349 0 8131.0 -0.11644157121034349 1
gene  1 49 78 -0.16304546752886917 0 8133.0 -0.16304546752886917 1
gene  1 50 78 -0.3444217772499837 0 8134.0 -0.3444217772499837 1
gene  1 56 78 0.7895700393998484 0 8140.0 0.7895700393998484 1
gene  1 60 78 -0.8720649465675028 0 8144.0 -0.8720649465675028 1
gene  1 62 78 0.8844012822906432 0 8146.0 0.8844012822906432 1
gene  1 66 78 -0.07417886336197499 0 8150.0 -0.07417886336197499 1
gene  1 70 78 0.40932518621828984 0 8154.0 0.40932518621828984 1
gene  1 72 78 -0.038447415764533255 0 8156.0 -0.038447415764533255 1
gene  1 73 78 0.7005725803228016 0 8157.0 0.7005725803228016 1
gene  1 74 78 0.1855057551385858 0 8158.0 0.1855057551385858 1
gene  1 75 78 -0.1990530068213281 0 8159.0 -0.1990530068213281 1
gene  1 1 79 0.2763768329050448 0 8190.0 0.2763768329050448 1
gene  1 2 79 0.10447597473605974 0 8191.0 0.10447597473605974 1
gene  1 4 79 0.11986254819448572 0 8193.0 0.11986254819448572 1
gene  1 5 79 -0.6406605877346429 0 8194.0 -0.6406605877346429 1
gene  1 9 79 -0.6883506736293655 0 8198.0 -0.6883506736293655 1
gene  1 10 79 0.6079835263503841 0 8199.0 0.6079835263503841 1
gene  1 12 79 0.8986759910670574 0 8201.0 0.8986759910670574 1
gene  1 13 79 -0.16785648517143592 0 8202.0 -0.16785648517143592 1
gene  1 17 79 -0.30521393301698296 0 8206.0 -0.30521393301698296 1
gene  1 18 79 -0.9076478585911878 0 8207.0 -0.9076478585911878 1
gene  1 20 79 -0.7865892221595919 0 8209.0 -0.7865892221595919 1
gene  1 24 79 -0.41950273807572624 0 8213.0 -0.41950273807572624 1
gene  1 25 79 -0.15462101043666987 0 8214.0 -0.15462101043666987 1
gene  1 27 79 0.27584084092366545 0 8216.0 0.27584084092366545 1
gene  1 29 79 0.43922621690201724 0 8218.0 0.43922621690201724 1
gene  1 30 79 -0.9392717233435354 0 8219.0 -0.9392717233435354 1
gene  1 33 79 -0.599424699826085 0 8222.0 -0.599424699826085 1
gene  1 34 79 -0.470854297193964 0 8223.0 -0.470854297193964 1
gene  1 35 79 0.5932583694340331 0 8224.0 0.5932583694340331 1
gene  1 36 79 -0.053390854953345834 0 8225.0 -0.053390854953345834 1
gene  1 39 79 0.4198969428758461 0 8228.0 0.4198969428758461 1
gene  1 40 79 0.5371361724370716 0 8229.0 0.5371361724370716 1
gene  1 42 79 0.8325170904668129 0 8231.0 0.8325170904668129 1
gene  1 43 79 0.8726929661422239 0 8232.0 0.8726929661422239 1
gene  1 44 79 0.9460563690270395 0 8233.0 0.9460563690270395 1
gene  1 45 79 0.0610996222742336 0 8234.0 0.0610996222742336 1
gene  1 46 79 0.9888630464156422 0 8235.0 0.9888630464156422 1
gene  1 47 79 -0.1381594541104103 0 8236.0 -0.1381594541104103 1
gene  1 49 79 0.4106698465378399 0 8238.0 0.4106698465378399 1
gene  1 50 79 0.10747611304481408 0 8239.0 0.10747611304481408 1
gene  1 51 79 0.41304028691991634 0 8240.0 0.41304028691991634 1
gene  1 53 79 -0.5202134896822594 0 8242.0 -0.5202134896822594 1
gene  1 54 79 -0.8719354076128405 0 8243.0 -0.8719354076128405 1
gene  1 56 79 -0.26899756468890124 0 8245.0 -0.26899756468890124 1
gene  1 59 79 0.7032258051589731 0 8248.0 0.7032258051589731 1
gene  1 61 79 0.4101411530690986 0 8250.0 0.4101411530690986 1
gene  1 62 79 0.37654371222430627 0 8251.0 0.37654371222430627 1
gene  1 63 79 0.08566731772267366 0 8252.0 0.08566731772267366 1
gene  1 68 79 -0.7037193207358999 0 8257.0 -0.7037193207358999 1
gene  1 72 79 0.7355063167118745 0 8261.0 0.7355063167118745 1
gene  1 74 79 0.12473040382106393 0 8263.0 0.12473040382106393 1
gene  1 77 79 0.8307735854034296 0 8266.0 0.8307735854034296 1
gene  1 2 80 -0.30137193512785165 0 8296.0 -0.30137193512785165 1
gene  1 3 80 0.7779773530076924 0 8297.0 0.7779773530076924 1
gene  1 5 80 0.9319255891820205 0 8299.0 0.9319255891820205 1
gene  1 9 80 0.10524629328403956 0 8303.0 0.10524629328403956 1
gene  1 11 80 -0.04296085548191153 0 8305.0 -0.04296085548191153 1
gene  1 13 80 0.8686701145477347 0 8307.0 0.8686701145477347 1
gene  1 14 80 -0.2264037682514225 0 8308.0 -0.2264037682514225 1
gene  1 17 80 -0.3504643171344636 0 8311.0 -0.3504643171344636 1
gene  1 19 80 0.08469754631340431 0 8313.0 0.08469754631340431 1
gene  1 20 80 0.5393784036433025 0 8314.0 0.5393784036433025 1
gene  1 22 80 0.6955410615832013 0 8316.0 0.6955410615832013 1
gene  1 24 80 -0.7870698046379645 0 8318.0 -0.7870698046379645 1
gene  1 28 80 0.8491961618953623 0 8322.0 0.8491961618953623 1
gene  1 29 80 0.68372842760907 0 8323.0 0.68372842760907 1
gene  1 30 80 0.8083720475077047 0 8324.0 0.8083720475077047 1
gene  1 36 80 -0.15299642596079177 0 8330.0 -0.15299642596079177 1
gene  1 38 80 -0.8111924341765929 0 8332.0 -0.8111924341765929 1
gene  1 39 80 -0.35555563217546227 0 8333.0 -0.35555563217546227 1
gene  1 40 80 -0.15945809846012704 0 8334.0 -0.15945809846012704 1
gene  1 41 80 0.17140224132850124 0 8335.0 0.17140224132850124 1
gene  1 43 80 0.5386293232463684 0 8337.0 0.5386293232463684 1
gene  1 49 80 -0.4372284756441459 0 8343.0 -0.4372284756441459 1
gene  1 50 80 0.555859047703442 0 8344.0 0.555859047703442 1
gene  1 52 80 0.8865223919062462 0 8346.0 0.8865223919062462 1
