genomestart  19
trait 1 0.0 0.0 0.0 0.0 0.0 0.0 0.0 0.0 0.0 0.0 0.0 0.0 0.0 0.0 0.0 0.0 0.0 0.0 0.0 0.0 
node 1 1 1 1
node 2 1 1 1
node 3 1 1 1
node 4 1 1 1
node 5 1 1 3
node 6 1 0 0
node 7 1 0 0
node 8 1 0 0
node 9 1 0 0
node 16 1 0 2
gene  1 2 6 0.8245128473031579 0 81.0 0.8245128473031579 1
gene  1 4 6 -0.9909633120900129 0 83.0 -0.9909633120900129 1
gene  1 5 6 -0.765461168781825 0 84.0 -0.765461168781825 1
gene  1 1 7 -0.8734384452286039 0 96.0 -0.8734384452286039 1
gene  1 2 7 0.6076836372930434 0 97.0 0.6076836372930434 1
gene  1 3 7 -0.9608560971262567 0 98.0 -0.9608560971262567 1
gene  1 4 7 -0.8340968879313794 0 99.0 -0.8340968879313794 1
gene  1 5 7 0.8211086810862755 0 100.0 0.8211086810862755 1
gene  1 6 7 0.8061884940372382 0 101.0 0.8061884940372382 1
gene  1 6 8 -0.10724808408730746 0 117.0 -0.10724808408730746 1
gene  1 1 9 0.6509763527931559 0 128.0 0.6509763527931559 1
gene  1 3 9 -0.29627637340077595 0 130.0 -0.29627637340077595 1
gene  1 4 9 0.761846595672971 0 131.0 0.761846595672971 1
gene  1 6 9 -0.5971539190581377 0 133.0 -0.5971539190581377 1
gene  1 7 9 -0.3369205308814549 0 134.0 -0.3369205308814549 1
gene  1 8 9 0.42356856836078327 0 135.0 0.42356856836078327 1
gene  1 1 16 0.9730984379923531 0 240.0 0.9730984379923531 1
gene  1 3 16 0.33342171079533456 0 242.0 0.33342171079533456 1
gene  1 4 16 -0.013782345064257684 0 243.0 -0.013782345064257684 1
gene  1 5 16 -0.10572414118104223 0 244.0 -0.10572414118104223 1
gene  1 6 16 0.012428543527494784 0 245.0 0.012428543527494784 1
gene  1 7 16 0.6115348989710022 0 246.0 0.6115348989710022 1
gene  1 8 16 0.8756581068380933 0 247.0 0.8756581068380933 1
genomeend 19
