genomestart  32
trait 1 0.0 0.0 0.0 0.0 0.0 0.0 0.0 0.0 0.0 0.0 0.0 0.0 0.0 0.0 0.0 0.0 0.0 0.0 0.0 0.0 
node 1 1 1 1
node 2 1 1 1
node 3 1 1 1
node 4 1 1 3
node 5 1 0 0
node 6 1 0 0
node 7 1 0 0
node 8 1 0 0
node 9 1 0 0
node 10 1 0 0
node 11 1 0 0
node 12 1 0 0
node 13 1 0 0
node 14 1 0 0
node 15 1 0 0
node 16 1 0 0
node 17 1 0 0
node 18 1 0 0
node 19 1 0 0
node 20 1 0 0
node 21 1 0 0
node 22 1 0 0
node 23 1 0 0
node 24 1 0 0
node 25 1 0 0
node 26 1 0 0
node 27 1 0 0
node 28 1 0 0
node 29 1 0 0
node 30 1 0 0
node 31 1 0 0
node 32 1 0 0
node 33 1 0 0
node 34 1 0 0
node 35 1 0 0
node 36 1 0 0
node 37 1 0 0
node 38 1 0 0
node 39 1 0 0
node 40 1 0 0
node 41 1 0 0
node 42 1 0 0
node 43 1 0 0
node 44 1 0 0
node 45 1 0 0
node 46 1 0 0
node 47 1 0 0
node 48 1 0 0
node 49 1 0 0
node 50 1 0 0
node 51 1 0 0
node 52 1 0 0
node 53 1 0 0
node 54 1 0 0
node 55 1 0 0
node 56 1 0 0
node 57 1 0 0
node 58 1 0 0
node 59 1 0 0
node 60 1 0 0
node 61 1 0 0
node 62 1 0 0
node 63 1 0 0
node 64 1 0 0
node 65 1 0 0
node 105 1 0 2
gene  1 1 5 -0.5894235380447587 0 420.0 -0.5894235380447587 1
gene  1 2 5 0.7708980934024239 0 421.0 0.7708980934024239 1
gene  1 3 5 0.22092657176746977 0 422.0 0.22092657176746977 1
gene  1 4 5 0.043164641164429085 0 423.0 0.043164641164429085 1
gene  1 2 6 -0.721478355738593 0 526.0 -0.721478355738593 1
gene  1 5 6 -0.5598292213144156 0 529.0 -0.5598292213144156 1
gene  1 1 7 -0.3975851799665241 0 630.0 -0.3975851799665241 1
gene  1 2 7 0.7888060315791147 0 631.0 0.7888060315791147 1
gene  1 4 7 0.8112156764861898 0 633.0 0.8112156764861898 1
gene  1 6 7 0.8633283702836406 0 635.0 0.8633283702836406 1
gene  1 1 8 -0.33335287756105647 0 735.0 -0.33335287756105647 1
gene  1 2 8 0.2567432582193825 0 736.0 0.2567432582193825 1
gene  1 3 8 0.537771159700036 0 737.0 0.537771159700036 1
gene  1 4 8 0.03874057328456726 0 738.0 0.03874057328456726 1
gene  1 6 8 0.3471868932359784 0 740.0 0.3471868932359784 1
gene  1 7 8 -0.8358847458988427 0 741.0 -0.8358847458988427 1
gene  1 1 9 0.9605108528368774 0 840.0 0.9605108528368774 1
gene  1 4 9 0.29024109946316956 0 843.0 0.29024109946316956 1
gene  1 5 9 -0.5809093684350137 0 844.0 -0.5809093684350137 1
gene  1 6 9 0.09342889389416531 0 845.0 0.09342889389416531 1
gene  1 3 10 -0.4407728484450677 0 947.0 -0.4407728484450677 1
gene  1 4 10 0.14107451700398577 0 948.0 0.14107451700398577 1
gene  1 5 10 -0.9547744078956513 0 949.0 -0.9547744078956513 1
gene  1 9 10 -0.7246906414158143 0 953.0 -0.7246906414158143 1
gene  1 2 11 0.8603038667860881 0 1051.0 0.8603038667860881 1
gene  1 4 11 -0.8673709240580115 0 1053.0 -0.8673709240580115 1
gene  1 5 11 -0.9545262745762485 0 1054.0 -0.9545262745762485 1
gene  1 6 11 -0.840519515400498 0 1055.0 -0.840519515400498 1
gene  1 7 11 -0.22327143381923364 0 1056.0 -0.22327143381923364 1
gene  1 9 11 -0.9008830642321527 0 1058.0 -0.9008830642321527 1
gene  1 10 11 0.3678589504983426 0 1059.0 0.3678589504983426 1
gene  1 1 12 0.46034146951601196 0 1155.0 0.46034146951601196 1
gene  1 2 12 0.7339541689440707 0 1156.0 0.7339541689440707 1
gene  1 5 12 -0.6883830487189928 0 1159.0 -0.6883830487189928 1
gene  1 7 12 0.9031950521687102 0 1161.0 0.9031950521687102 1
gene  1 8 12 -0.8488954251333464 0 1162.0 -0.8488954251333464 1
gene  1 5 13 -0.7762317234954484 0 1264.0 -0.7762317234954484 1
gene  1 7 13 -0.175500657665846 0 1266.0 -0.175500657665846 1
gene  1 10 13 -0.012132523541964146 0 1269.0 -0.012132523541964146 1
gene  1 1 14 -0.0822518374371759 0 1365.0 -0.0822518374371759 1
gene  1 4 14 -0.41603775094717976 0 1368.0 -0.41603775094717976 1
gene  1 5 14 0.29548074323959383 0 1369.0 0.29548074323959383 1
gene  1 7 14 0.4731794083288037 0 1371.0 0.4731794083288037 1
gene  1 8 14 -0.6226408816556072 0 1372.0 -0.6226408816556072 1
gene  1 12 14 0.1831046878581254 0 1376.0 0.1831046878581254 1
gene  1 13 14 -0.9060702147290068 0 1377.0 -0.9060702147290068 1
gene  1 1 15 -0.8247954278067724 0 1470.0 -0.8247954278067724 1
gene  1 2 15 -0.5003011408231558 0 1471.0 -0.5003011408231558 1
gene  1 8 15 0.8395975040347785 0 1477.0 0.8395975040347785 1
gene  1 9 15 -0.0822717689824568 0 1478.0 -0.0822717689824568 1
gene  1 11 15 -0.42845143264274166 0 1480.0 -0.42845143264274166 1
gene  1 13 15 -0.081682504622976 0 1482.0 -0.081682504622976 1
gene  1 14 15 -0.5334523327157521 0 1483.0 -0.5334523327157521 1
gene  1 2 16 0.5751567234932198 0 1576.0 0.5751567234932198 1
gene  1 3 16 0.3374410989592501 0 1577.0 0.3374410989592501 1
gene  1 4 16 0.09396880588482803 0 1578.0 0.09396880588482803 1
gene  1 5 16 -0.3831358030428673 0 1579.0 -0.3831358030428673 1
gene  1 6 16 -0.3578179136216615 0 1580.0 -0.3578179136216615 1
gene  1 8 16 -0.7064479923484308 0 1582.0 -0.7064479923484308 1
gene  1 10 16 0.18247213184474587 0 1584.0 0.18247213184474587 1
gene  1 11 16 0.9147201335937418 0 1585.0 0.9147201335937418 1
gene  1 13 16 -0.2537513149625199 0 1587.0 -0.2537513149625199 1
gene  1 2 17 -0.8341749512879969 0 1681.0 -0.8341749512879969 1
gene  1 3 17 0.5158121312198705 0 1682.0 0.5158121312198705 1
gene  1 7 17 -0.4351068508130911 0 1686.0 -0.4351068508130911 1
gene  1 8 17 0.6697380697059973 0 1687.0 0.6697380697059973 1
gene  1 13 17 -0.14234482032863027 0 1692.0 -0.14234482032863027 1
gene  1 15 17 -0.8991252587883237 0 1694.0 -0.8991252587883237 1
gene  1 16 17 -0.987277310112015 0 1695.0 -0.987277310112015 1
gene  1 4 18 -0.9082900146015566 0 1788.0 -0.9082900146015566 1
gene  1 8 18 -0.1866220706341759 0 1792.0 -0.1866220706341759 1
gene  1 9 18 0.1924207578257101 0 1793.0 0.1924207578257101 1
gene  1 10 18 0.9018303451982814 0 1794.0 0.9018303451982814 1
gene  1 12 18 -0.6219294875923392 0 1796.0 -0.6219294875923392 1
gene  1 15 18 0.8178965960314541 0 1799.0 0.8178965960314541 1
gene  1 16 18 0.10355871929642635 0 1800.0 0.10355871929642635 1
gene  1 2 19 -0.5878853970161382 0 1891.0 -0.5878853970161382 1
gene  1 4 19 0.885381188264051 0 1893.0 0.885381188264051 1
gene  1 5 19 -0.6872037447265967 0 1894.0 -0.6872037447265967 1
gene  1 7 19 0.28648872895316757 0 1896.0 0.28648872895316757 1
gene  1 8 19 -0.3466621432442073 0 1897.0 -0.3466621432442073 1
gene  1 9 19 0.5289180264946947 0 1898.0 0.5289180264946947 1
gene  1 11 19 0.6574932180980845 0 1900.0 0.6574932180980845 1
gene  1 13 19 -0.1380540978925764 0 1902.0 -0.1380540978925764 1
gene  1 14 19 0.9405438424062206 0 1903.0 0.9405438424062206 1
gene  1 15 19 -0.7077557572225451 0 1904.0 -0.7077557572225451 1
gene  1 18 19 -0.2655402819439632 0 1907.0 -0.2655402819439632 1
gene  1 1 20 0.3729034776458626 0 1995.0 0.3729034776458626 1
gene  1 4 20 -0.003921958654514612 0 1998.0 -0.003921958654514612 1
gene  1 7 20 0.8240431553892336 0 2001.0 0.8240431553892336 1
gene  1 8 20 0.004434067652468232 0 2002.0 0.004434067652468232 1
gene  1 10 20 0.8473060666690116 0 2004.0 0.8473060666690116 1
gene  1 11 20 0.281200549913596 0 2005.0 0.281200549913596 1
gene  1 14 20 -0.4995254727814752 0 2008.0 -0.4995254727814752 1
gene  1 15 20 -0.8800639068359223 0 2009.0 -0.8800639068359223 1
gene  1 16 20 -0.7897588129297509 0 2010.0 -0.7897588129297509 1
gene  1 18 20 -0.06049141309858208 0 2012.0 -0.06049141309858208 1
gene  1 3 21 0.18262880213985366 0 2102.0 0.18262880213985366 1
gene  1 4 21 0.8645235417077299 0 2103.0 0.8645235417077299 1
gene  1 5 21 0.5293980988348436 0 2104.0 0.5293980988348436 1
gene  1 8 21 0.024104813767488298 0 2107.0 0.024104813767488298 1
gene  1 9 21 0.5121537688285964 0 2108.0 0.5121537688285964 1
gene  1 13 21 0.6279019693367128 0 2112.0 0.6279019693367128 1
gene  1 14 21 0.5519564679895723 0 2113.0 0.5519564679895723 1
gene  1 15 21 -0.34116080052083997 0 2114.0 -0.34116080052083997 1
gene  1 20 21 0.8339863631196103 0 2119.0 0.8339863631196103 1
gene  1 2 22 -0.3019423777597494 0 2206.0 -0.3019423777597494 1
gene  1 5 22 -0.6762802023246969 0 2209.0 -0.6762802023246969 1
gene  1 7 22 -0.012618468855080667 0 2211.0 -0.012618468855080667 1
gene  1 8 22 -0.34461478024318126 0 2212.0 -0.34461478024318126 1
gene  1 11 22 0.21081717509345088 0 2215.0 0.21081717509345088 1
gene  1 14 22 -0.8605690236723309 0 2218.0 -0.8605690236723309 1
gene  1 15 22 0.8707161400762973 0 2219.0 0.8707161400762973 1
gene  1 18 22 0.5175419522540583 0 2222.0 0.5175419522540583 1
gene  1 19 22 -0.11395170898014462 0 2223.0 -0.11395170898014462 1
gene  1 21 22 -0.5042066010975008 0 2225.0 -0.5042066010975008 1
gene  1 2 23 0.9060907059968027 0 2311.0 0.9060907059968027 1
gene  1 4 23 0.5420361206067573 0 2313.0 0.5420361206067573 1
gene  1 11 23 0.8334686029495358 0 2320.0 0.8334686029495358 1
gene  1 12 23 -0.6053945530772057 0 2321.0 -0.6053945530772057 1
gene  1 13 23 0.7164229745223278 0 2322.0 0.7164229745223278 1
gene  1 14 23 -0.9885745443673684 0 2323.0 -0.9885745443673684 1
gene  1 16 23 -0.3963373744541997 0 2325.0 -0.3963373744541997 1
gene  1 17 23 0.12322391055455317 0 2326.0 0.12322391055455317 1
gene  1 19 23 -0.3569405611530667 0 2328.0 -0.3569405611530667 1
gene  1 22 23 0.3166914740719017 0 2331.0 0.3166914740719017 1
gene  1 1 24 0.39248310443064705 0 2415.0 0.39248310443064705 1
gene  1 2 24 -0.8411411760066649 0 2416.0 -0.8411411760066649 1
gene  1 3 24 -0.038976266056674924 0 2417.0 -0.038976266056674924 1
gene  1 4 24 -0.8979977351799905 0 2418.0 -0.8979977351799905 1
gene  1 6 24 0.9406040686918805 0 2420.0 0.9406040686918805 1
gene  1 7 24 0.7621831264393273 0 2421.0 0.7621831264393273 1
gene  1 8 24 -0.3283809454337495 0 2422.0 -0.3283809454337495 1
gene  1 9 24 0.16352913907172928 0 2423.0 0.16352913907172928 1
gene  1 10 24 0.9408040506923065 0 2424.0 0.9408040506923065 1
gene  1 12 24 -0.019437612345256206 0 2426.0 -0.019437612345256206 1
gene  1 16 24 0.39815137437425874 0 2430.0 0.39815137437425874 1
gene  1 19 24 -0.25831253826470846 0 2433.0 -0.25831253826470846 1
gene  1 21 24 -0.5767807057361144 0 2435.0 -0.5767807057361144 1
gene  1 23 24 -0.7518818077591657 0 2437.0 -0.7518818077591657 1
gene  1 1 25 -0.6932559474408194 0 2520.0 -0.6932559474408194 1
gene  1 3 25 -0.13949309595410908 0 2522.0 -0.13949309595410908 1
gene  1 5 25 0.8815101606590092 0 2524.0 0.8815101606590092 1
gene  1 6 25 -0.7793736915936227 0 2525.0 -0.7793736915936227 1
gene  1 8 25 0.0713037053713117 0 2527.0 0.0713037053713117 1
gene  1 10 25 0.5643043370007782 0 2529.0 0.5643043370007782 1
gene  1 12 25 0.5922991654450849 0 2531.0 0.5922991654450849 1
gene  1 15 25 -0.9738252002143862 0 2534.0 -0.9738252002143862 1
gene  1 16 25 -0.13825352568947247 0 2535.0 -0.13825352568947247 1
gene  1 18 25 0.541713822489853 0 2537.0 0.541713822489853 1
gene  1 19 25 0.15877437965464658 0 2538.0 0.15877437965464658 1
gene  1 21 25 -0.33853219458322914 0 2540.0 -0.33853219458322914 1
gene  1 24 25 -0.4485293492564192 0 2543.0 -0.4485293492564192 1
gene  1 1 26 0.9622525255736188 0 2625.0 0.9622525255736188 1
gene  1 2 26 -0.21776118435271352 0 2626.0 -0.21776118435271352 1
gene  1 4 26 0.20572840116461333 0 2628.0 0.20572840116461333 1
gene  1 5 26 -0.3752936247349834 0 2629.0 -0.3752936247349834 1
gene  1 7 26 -0.6542156392309771 0 2631.0 -0.6542156392309771 1
gene  1 8 26 0.8708588133845583 0 2632.0 0.8708588133845583 1
gene  1 10 26 -0.9844818778493523 0 2634.0 -0.9844818778493523 1
gene  1 11 26 -0.4677134251425835 0 2635.0 -0.4677134251425835 1
gene  1 12 26 -0.6553657622921565 0 2636.0 -0.6553657622921565 1
gene  1 13 26 0.8745085574025605 0 2637.0 0.8745085574025605 1
gene  1 14 26 0.2372639837474304 0 2638.0 0.2372639837474304 1
gene  1 19 26 0.7331815900237396 0 2643.0 0.7331815900237396 1
gene  1 20 26 0.13610834917986248 0 2644.0 0.13610834917986248 1
gene  1 22 26 -0.2310187630528553 0 2646.0 -0.2310187630528553 1
gene  1 24 26 -0.8434587366649546 0 2648.0 -0.8434587366649546 1
gene  1 2 27 -0.5458559171146855 0 2731.0 -0.5458559171146855 1
gene  1 3 27 -0.9958527270184292 0 2732.0 -0.9958527270184292 1
gene  1 4 27 0.4267645895604034 0 2733.0 0.4267645895604034 1
gene  1 8 27 -0.7906926837393519 0 2737.0 -0.7906926837393519 1
gene  1 10 27 -0.3676556027600174 0 2739.0 -0.3676556027600174 1
gene  1 11 27 0.49630106329508705 0 2740.0 0.49630106329508705 1
gene  1 13 27 0.6469150165337417 0 2742.0 0.6469150165337417 1
gene  1 14 27 0.998470630202169 0 2743.0 0.998470630202169 1
gene  1 16 27 0.5499801303736745 0 2745.0 0.5499801303736745 1
gene  1 18 27 -0.44548187676111695 0 2747.0 -0.44548187676111695 1
gene  1 19 27 -0.07271521377630397 0 2748.0 -0.07271521377630397 1
gene  1 20 27 -0.16089727329403902 0 2749.0 -0.16089727329403902 1
gene  1 23 27 -0.5867455864034915 0 2752.0 -0.5867455864034915 1
gene  1 25 27 -0.9405961945687243 0 2754.0 -0.9405961945687243 1
gene  1 26 27 0.8776103967924644 0 2755.0 0.8776103967924644 1
gene  1 6 28 0.14331829351114378 0 2840.0 0.14331829351114378 1
gene  1 8 28 -0.031591493661169645 0 2842.0 -0.031591493661169645 1
gene  1 9 28 0.7866800687546883 0 2843.0 0.7866800687546883 1
gene  1 15 28 0.7442505314119997 0 2849.0 0.7442505314119997 1
gene  1 17 28 -0.08797292701097703 0 2851.0 -0.08797292701097703 1
gene  1 18 28 0.14090052995474767 0 2852.0 0.14090052995474767 1
gene  1 20 28 -0.6865922548094612 0 2854.0 -0.6865922548094612 1
gene  1 22 28 -0.7594531537924298 0 2856.0 -0.7594531537924298 1
gene  1 24 28 -0.2920334065809853 0 2858.0 -0.2920334065809853 1
gene  1 26 28 0.22307009721875737 0 2860.0 0.22307009721875737 1
gene  1 4 29 0.635164911204872 0 2943.0 0.635164911204872 1
gene  1 9 29 -0.9641886336324532 0 2948.0 -0.9641886336324532 1
gene  1 14 29 -0.692909663257558 0 2953.0 -0.692909663257558 1
gene  1 17 29 -0.7736301931508248 0 2956.0 -0.7736301931508248 1
gene  1 18 29 -0.6201440481584255 0 2957.0 -0.6201440481584255 1
gene  1 19 29 0.8681260652264842 0 2958.0 0.8681260652264842 1
gene  1 21 29 0.6149922575116203 0 2960.0 0.6149922575116203 1
gene  1 23 29 0.16254279574510822 0 2962.0 0.16254279574510822 1
gene  1 27 29 -0.4428009772592252 0 2966.0 -0.4428009772592252 1
gene  1 1 30 -0.032655334729975505 0 3045.0 -0.032655334729975505 1
gene  1 3 30 -0.3430357991431351 0 3047.0 -0.3430357991431351 1
gene  1 5 30 0.8684458391904802 0 3049.0 0.8684458391904802 1
gene  1 7 30 -0.9141995840639444 0 3051.0 -0.9141995840639444 1
gene  1 9 30 0.7038670084443304 0 3053.0 0.7038670084443304 1
gene  1 10 30 -0.24347132675538508 0 3054.0 -0.24347132675538508 1
gene  1 11 30 0.7756963455815709 0 3055.0 0.7756963455815709 1
gene  1 12 30 0.7858154584493924 0 3056.0 0.7858154584493924 1
gene  1 13 30 -0.18089507134165117 0 3057.0 -0.18089507134165117 1
gene  1 16 30 -0.0687737942694997 0 3060.0 -0.0687737942694997 1
gene  1 19 30 0.6616741886335278 0 3063.0 0.6616741886335278 1
gene  1 22 30 0.9466528461163515 0 3066.0 0.9466528461163515 1
gene  1 26 30 0.5503431335251481 0 3070.0 0.5503431335251481 1
gene  1 27 30 0.8736691305062347 0 3071.0 0.8736691305062347 1
gene  1 2 31 0.7986555963931261 0 3151.0 0.7986555963931261 1
gene  1 3 31 -0.8087038885062635 0 3152.0 -0.8087038885062635 1
gene  1 4 31 0.9411394268149316 0 3153.0 0.9411394268149316 1
gene  1 6 31 0.6268930154861412 0 3155.0 0.6268930154861412 1
gene  1 7 31 0.2182576241471409 0 3156.0 0.2182576241471409 1
gene  1 8 31 -0.5384224932535113 0 3157.0 -0.5384224932535113 1
gene  1 9 31 -0.06488741022740463 0 3158.0 -0.06488741022740463 1
gene  1 11 31 0.20922595484951811 0 3160.0 0.20922595484951811 1
gene  1 12 31 -0.07546618038096209 0 3161.0 -0.07546618038096209 1
gene  1 14 31 -0.23810236955889452 0 3163.0 -0.23810236955889452 1
gene  1 15 31 0.43526183887440606 0 3164.0 0.43526183887440606 1
gene  1 16 31 0.49782622303515534 0 3165.0 0.49782622303515534 1
gene  1 18 31 -0.1889424852578604 0 3167.0 -0.1889424852578604 1
gene  1 19 31 0.1862859839852462 0 3168.0 0.1862859839852462 1
gene  1 20 31 -0.9087827626994184 0 3169.0 -0.9087827626994184 1
gene  1 22 31 0.7080317892999901 0 3171.0 0.7080317892999901 1
gene  1 25 31 -0.006884146653245882 0 3174.0 -0.006884146653245882 1
gene  1 29 31 0.39359731333948256 0 3178.0 0.39359731333948256 1
gene  1 30 31 0.5827981189951301 0 3179.0 0.5827981189951301 1
gene  1 3 32 -0.01574996933653805 0 3257.0 -0.01574996933653805 1
gene  1 5 32 -0.2822969692808789 0 3259.0 -0.2822969692808789 1
gene  1 6 32 -0.5870700936301689 0 3260.0 -0.5870700936301689 1
gene  1 8 32 -0.32100570729047806 0 3262.0 -0.32100570729047806 1
gene  1 10 32 0.7446195505946928 0 3264.0 0.7446195505946928 1
gene  1 11 32 0.7640897322158924 0 3265.0 0.7640897322158924 1
gene  1 13 32 0.10388987154817597 0 3267.0 0.10388987154817597 1
gene  1 14 32 -0.3705143012384511 0 3268.0 -0.3705143012384511 1
gene  1 16 32 -0.460011737693525 0 3270.0 -0.460011737693525 1
gene  1 19 32 0.3937886874812141 0 3273.0 0.3937886874812141 1
gene  1 21 32 -0.3406181071817823 0 3275.0 -0.3406181071817823 1
gene  1 25 32 0.4773180576388335 0 3279.0 0.4773180576388335 1
gene  1 31 32 0.16369931526196668 0 3285.0 0.16369931526196668 1
gene  1 1 33 -0.31160608310230764 0 3360.0 -0.31160608310230764 1
gene  1 2 33 0.3869269172450226 0 3361.0 0.3869269172450226 1
gene  1 3 33 -0.31105461624357544 0 3362.0 -0.31105461624357544 1
gene  1 4 33 -0.2851192148430297 0 3363.0 -0.2851192148430297 1
gene  1 5 33 0.43669111731515575 0 3364.0 0.43669111731515575 1
gene  1 9 33 0.2785244839845137 0 3368.0 0.2785244839845137 1
gene  1 10 33 -0.7588213507901794 0 3369.0 -0.7588213507901794 1
gene  1 11 33 0.2833967723259353 0 3370.0 0.2833967723259353 1
gene  1 12 33 0.30811826599815495 0 3371.0 0.30811826599815495 1
gene  1 13 33 -0.17155578389795645 0 3372.0 -0.17155578389795645 1
gene  1 14 33 0.04730440859781404 0 3373.0 0.04730440859781404 1
gene  1 18 33 0.7338900206717694 0 3377.0 0.7338900206717694 1
gene  1 19 33 -0.11587738665376124 0 3378.0 -0.11587738665376124 1
gene  1 20 33 0.393948849253539 0 3379.0 0.393948849253539 1
gene  1 21 33 0.680065921854216 0 3380.0 0.680065921854216 1
gene  1 22 33 0.7085167768295113 0 3381.0 0.7085167768295113 1
gene  1 24 33 0.5720513455785273 0 3383.0 0.5720513455785273 1
gene  1 25 33 -0.2259558960195852 0 3384.0 -0.2259558960195852 1
gene  1 27 33 -0.7319537500877108 0 3386.0 -0.7319537500877108 1
gene  1 29 33 0.8644934658608588 0 3388.0 0.8644934658608588 1
gene  1 32 33 -0.17559874108114037 0 3391.0 -0.17559874108114037 1
gene  1 2 34 -0.8448902980220344 0 3466.0 -0.8448902980220344 1
gene  1 3 34 -0.1965325688470475 0 3467.0 -0.1965325688470475 1
gene  1 4 34 -0.8346611479008182 0 3468.0 -0.8346611479008182 1
gene  1 5 34 0.010681074549818148 0 3469.0 0.010681074549818148 1
gene  1 6 34 -0.814544714898666 0 3470.0 -0.814544714898666 1
gene  1 8 34 -0.3283495527339557 0 3472.0 -0.3283495527339557 1
gene  1 9 34 0.5269979686932287 0 3473.0 0.5269979686932287 1
gene  1 12 34 0.03613436614221399 0 3476.0 0.03613436614221399 1
gene  1 13 34 -0.9691244163745146 0 3477.0 -0.9691244163745146 1
gene  1 17 34 -0.4247813367364036 0 3481.0 -0.4247813367364036 1
gene  1 18 34 -0.6632870280166985 0 3482.0 -0.6632870280166985 1
gene  1 20 34 -0.7172141549668556 0 3484.0 -0.7172141549668556 1
gene  1 22 34 -0.43025187457062675 0 3486.0 -0.43025187457062675 1
gene  1 23 34 0.3390754851050548 0 3487.0 0.3390754851050548 1
gene  1 27 34 -0.04867115405541689 0 3491.0 -0.04867115405541689 1
gene  1 28 34 -0.21173768128768844 0 3492.0 -0.21173768128768844 1
gene  1 31 34 0.6835746922791214 0 3495.0 0.6835746922791214 1
gene  1 33 34 0.46578897619448467 0 3497.0 0.46578897619448467 1
gene  1 5 35 0.5058005871184678 0 3574.0 0.5058005871184678 1
gene  1 7 35 0.33968964377725475 0 3576.0 0.33968964377725475 1
gene  1 8 35 -0.2429997053409042 0 3577.0 -0.2429997053409042 1
gene  1 10 35 -0.6728002561125578 0 3579.0 -0.6728002561125578 1
gene  1 11 35 -0.32966211581159244 0 3580.0 -0.32966211581159244 1
gene  1 14 35 -0.4735941456116425 0 3583.0 -0.4735941456116425 1
gene  1 17 35 0.04421155941232524 0 3586.0 0.04421155941232524 1
gene  1 18 35 0.0229727421639756 0 3587.0 0.0229727421639756 1
gene  1 20 35 0.33153817251884765 0 3589.0 0.33153817251884765 1
gene  1 21 35 -0.8187166426540916 0 3590.0 -0.8187166426540916 1
gene  1 24 35 0.6679243495724757 0 3593.0 0.6679243495724757 1
gene  1 25 35 -0.40778671658158494 0 3594.0 -0.40778671658158494 1
gene  1 29 35 -0.7118286363624489 0 3598.0 -0.7118286363624489 1
gene  1 30 35 0.38654403706711826 0 3599.0 0.38654403706711826 1
gene  1 33 35 0.11464108097819548 0 3602.0 0.11464108097819548 1
gene  1 1 36 0.8511246566551411 0 3675.0 0.8511246566551411 1
gene  1 2 36 0.9099951698606671 0 3676.0 0.9099951698606671 1
gene  1 3 36 0.17797785426470814 0 3677.0 0.17797785426470814 1
gene  1 4 36 0.6883164762494959 0 3678.0 0.6883164762494959 1
gene  1 8 36 -0.10205577178896319 0 3682.0 -0.10205577178896319 1
gene  1 14 36 -0.36335414875530303 0 3688.0 -0.36335414875530303 1
gene  1 18 36 -0.607112866555115 0 3692.0 -0.607112866555115 1
gene  1 19 36 0.6323671971256662 0 3693.0 0.6323671971256662 1
gene  1 20 36 -0.7609576162507466 0 3694.0 -0.7609576162507466 1
gene  1 22 36 -0.5119203318290116 0 3696.0 -0.5119203318290116 1
gene  1 23 36 0.2320926673913517 0 3697.0 0.2320926673913517 1
gene  1 27 36 -0.26845640240427093 0 3701.0 -0.26845640240427093 1
gene  1 28 36 -0.0355502233616789 0 3702.0 -0.0355502233616789 1
gene  1 32 36 0.02043289231776757 0 3706.0 0.02043289231776757 1
gene  1 33 36 0.1829313806589934 0 3707.0 0.1829313806589934 1
gene  1 34 36 0.27128053889427495 0 3708.0 0.27128053889427495 1
gene  1 1 37 -0.9361905126243439 0 3780.0 -0.9361905126243439 1
gene  1 2 37 -0.7669014164777405 0 3781.0 -0.7669014164777405 1
gene  1 6 37 -0.8508468984486742 0 3785.0 -0.8508468984486742 1
gene  1 7 37 0.36046342780439944 0 3786.0 0.36046342780439944 1
gene  1 10 37 -0.3487461098664326 0 3789.0 -0.3487461098664326 1
gene  1 11 37 -0.7446839232018739 0 3790.0 -0.7446839232018739 1
gene  1 14 37 0.03991589579304733 0 3793.0 0.03991589579304733 1
gene  1 15 37 -0.5772476134269976 0 3794.0 -0.5772476134269976 1
gene  1 20 37 0.6960764467782595 0 3799.0 0.6960764467782595 1
gene  1 21 37 -0.3268256277285422 0 3800.0 -0.3268256277285422 1
gene  1 25 37 0.7869612083929721 0 3804.0 0.7869612083929721 1
gene  1 27 37 0.6469743529162638 0 3806.0 0.6469743529162638 1
gene  1 28 37 -0.4650095095332588 0 3807.0 -0.4650095095332588 1
gene  1 30 37 0.8910879594482289 0 3809.0 0.8910879594482289 1
gene  1 31 37 0.883618841517092 0 3810.0 0.883618841517092 1
gene  1 34 37 -0.9007447672282625 0 3813.0 -0.9007447672282625 1
gene  1 1 38 -0.5560048135759281 0 3885.0 -0.5560048135759281 1
gene  1 2 38 -0.2551063267951974 0 3886.0 -0.2551063267951974 1
gene  1 3 38 0.03648381977708237 0 3887.0 0.03648381977708237 1
gene  1 4 38 -0.26791194102616755 0 3888.0 -0.26791194102616755 1
gene  1 5 38 0.4505993973768625 0 3889.0 0.4505993973768625 1
gene  1 6 38 0.7361231714318796 0 3890.0 0.7361231714318796 1
gene  1 9 38 0.8749486333197646 0 3893.0 0.8749486333197646 1
gene  1 11 38 -0.8663009318532869 0 3895.0 -0.8663009318532869 1
gene  1 12 38 0.5022842889616009 0 3896.0 0.5022842889616009 1
gene  1 14 38 -0.5508249803147426 0 3898.0 -0.5508249803147426 1
gene  1 16 38 -0.25655716260428796 0 3900.0 -0.25655716260428796 1
gene  1 17 38 -0.35479914750560704 0 3901.0 -0.35479914750560704 1
gene  1 18 38 0.07656821271243208 0 3902.0 0.07656821271243208 1
gene  1 20 38 0.1894095805362367 0 3904.0 0.1894095805362367 1
gene  1 22 38 -0.6679967343442269 0 3906.0 -0.6679967343442269 1
gene  1 24 38 -0.10308414867849514 0 3908.0 -0.10308414867849514 1
gene  1 25 38 0.8044404919009219 0 3909.0 0.8044404919009219 1
gene  1 26 38 -0.9249454911213717 0 3910.0 -0.9249454911213717 1
gene  1 27 38 0.9147223455639729 0 3911.0 0.9147223455639729 1
gene  1 28 38 0.2400199282035378 0 3912.0 0.2400199282035378 1
gene  1 29 38 -0.3009131096498727 0 3913.0 -0.3009131096498727 1
gene  1 30 38 -0.7045541088166223 0 3914.0 -0.7045541088166223 1
gene  1 32 38 -0.7189991636116805 0 3916.0 -0.7189991636116805 1
gene  1 35 38 -0.11428675292686585 0 3919.0 -0.11428675292686585 1
gene  1 36 38 0.4393386012826678 0 3920.0 0.4393386012826678 1
gene  1 37 38 -0.872515698982939 0 3921.0 -0.872515698982939 1
gene  1 1 39 0.5870893000458186 0 3990.0 0.5870893000458186 1
gene  1 3 39 -0.7211233681150105 0 3992.0 -0.7211233681150105 1
gene  1 9 39 -0.6871830435392745 0 3998.0 -0.6871830435392745 1
gene  1 10 39 0.9160211395861727 0 3999.0 0.9160211395861727 1
gene  1 12 39 -0.19049854339532057 0 4001.0 -0.19049854339532057 1
gene  1 13 39 -0.2850346600459722 0 4002.0 -0.2850346600459722 1
gene  1 16 39 0.2961679467310918 0 4005.0 0.2961679467310918 1
gene  1 19 39 0.2302784925768081 0 4008.0 0.2302784925768081 1
gene  1 20 39 0.15961465917333328 0 4009.0 0.15961465917333328 1
gene  1 23 39 0.7417128930682101 0 4012.0 0.7417128930682101 1
gene  1 25 39 0.9173481172928118 0 4014.0 0.9173481172928118 1
gene  1 26 39 0.6587364946676832 0 4015.0 0.6587364946676832 1
gene  1 27 39 -0.28356179556814365 0 4016.0 -0.28356179556814365 1
gene  1 28 39 -0.11936639677891303 0 4017.0 -0.11936639677891303 1
gene  1 31 39 -0.7698017717282464 0 4020.0 -0.7698017717282464 1
gene  1 32 39 -0.7733732961626287 0 4021.0 -0.7733732961626287 1
gene  1 1 40 0.6173932126168801 0 4095.0 0.6173932126168801 1
gene  1 2 40 -0.30065724585345344 0 4096.0 -0.30065724585345344 1
gene  1 5 40 0.04208867337872735 0 4099.0 0.04208867337872735 1
gene  1 7 40 0.8757651889416675 0 4101.0 0.8757651889416675 1
gene  1 8 40 0.43344806421326987 0 4102.0 0.43344806421326987 1
gene  1 10 40 0.8563976379513817 0 4104.0 0.8563976379513817 1
gene  1 17 40 -0.13227229893857018 0 4111.0 -0.13227229893857018 1
gene  1 18 40 -0.9878156433553102 0 4112.0 -0.9878156433553102 1
gene  1 22 40 0.6312830887165957 0 4116.0 0.6312830887165957 1
gene  1 23 40 -0.3203061544995468 0 4117.0 -0.3203061544995468 1
gene  1 24 40 -0.44076437742023067 0 4118.0 -0.44076437742023067 1
gene  1 27 40 -0.4867867365041739 0 4121.0 -0.4867867365041739 1
gene  1 29 40 0.5004099141325191 0 4123.0 0.5004099141325191 1
gene  1 31 40 -0.644107912389104 0 4125.0 -0.644107912389104 1
gene  1 32 40 0.19807761476290198 0 4126.0 0.19807761476290198 1
gene  1 34 40 -0.9572015235767773 0 4128.0 -0.9572015235767773 1
gene  1 35 40 0.2693487345946741 0 4129.0 0.2693487345946741 1
gene  1 36 40 0.5920878564249767 0 4130.0 0.5920878564249767 1
gene  1 37 40 -0.636173631695803 0 4131.0 -0.636173631695803 1
gene  1 1 41 -0.5762237412396568 0 4200.0 -0.5762237412396568 1
gene  1 2 41 -0.877350358675812 0 4201.0 -0.877350358675812 1
gene  1 4 41 0.44625574131624324 0 4203.0 0.44625574131624324 1
gene  1 5 41 0.26876356739092744 0 4204.0 0.26876356739092744 1
gene  1 7 41 0.3225897287228202 0 4206.0 0.3225897287228202 1
gene  1 10 41 0.8725201269294591 0 4209.0 0.8725201269294591 1
gene  1 11 41 0.7743118614649004 0 4210.0 0.7743118614649004 1
gene  1 12 41 -0.1258166097583443 0 4211.0 -0.1258166097583443 1
gene  1 14 41 -0.26476312225711485 0 4213.0 -0.26476312225711485 1
gene  1 15 41 0.3198471962151338 0 4214.0 0.3198471962151338 1
gene  1 17 41 0.8237492138575525 0 4216.0 0.8237492138575525 1
gene  1 18 41 0.15570012471416728 0 4217.0 0.15570012471416728 1
gene  1 19 41 -0.5137743513965648 0 4218.0 -0.5137743513965648 1
gene  1 20 41 0.4395300352903232 0 4219.0 0.4395300352903232 1
gene  1 21 41 0.742195007724616 0 4220.0 0.742195007724616 1
gene  1 22 41 0.25172568225313285 0 4221.0 0.25172568225313285 1
gene  1 23 41 0.35164169570536097 0 4222.0 0.35164169570536097 1
gene  1 26 41 0.2815952127592172 0 4225.0 0.2815952127592172 1
gene  1 28 41 0.6663693073519679 0 4227.0 0.6663693073519679 1
gene  1 30 41 -0.23719879160929935 0 4229.0 -0.23719879160929935 1
gene  1 39 41 -0.9081666150995272 0 4238.0 -0.9081666150995272 1
gene  1 1 42 -0.7656060499851827 0 4305.0 -0.7656060499851827 1
gene  1 4 42 0.38407460944049654 0 4308.0 0.38407460944049654 1
gene  1 5 42 -0.8350291811438041 0 4309.0 -0.8350291811438041 1
gene  1 6 42 -0.25745067260921295 0 4310.0 -0.25745067260921295 1
gene  1 10 42 0.6096056959220422 0 4314.0 0.6096056959220422 1
gene  1 11 42 0.8540633635015508 0 4315.0 0.8540633635015508 1
gene  1 12 42 0.007093475327384802 0 4316.0 0.007093475327384802 1
gene  1 13 42 -0.2502635100810451 0 4317.0 -0.2502635100810451 1
gene  1 14 42 -0.07255757152525788 0 4318.0 -0.07255757152525788 1
gene  1 18 42 -0.20046751249975814 0 4322.0 -0.20046751249975814 1
gene  1 20 42 0.8492658215564408 0 4324.0 0.8492658215564408 1
gene  1 21 42 -0.9583466991340059 0 4325.0 -0.9583466991340059 1
gene  1 25 42 0.6185421328766308 0 4329.0 0.6185421328766308 1
gene  1 26 42 -0.6990965713690204 0 4330.0 -0.6990965713690204 1
gene  1 27 42 -0.41663462306299437 0 4331.0 -0.41663462306299437 1
gene  1 28 42 -0.5601882246680228 0 4332.0 -0.5601882246680228 1
gene  1 30 42 0.9548122444362075 0 4334.0 0.9548122444362075 1
gene  1 34 42 0.79407942757961 0 4338.0 0.79407942757961 1
gene  1 36 42 -0.798068680603333 0 4340.0 -0.798068680603333 1
gene  1 37 42 -0.48243949682378695 0 4341.0 -0.48243949682378695 1
gene  1 39 42 0.8223596952490476 0 4343.0 0.8223596952490476 1
gene  1 40 42 -0.8611696527658802 0 4344.0 -0.8611696527658802 1
gene  1 41 42 0.5000220205542713 0 4345.0 0.5000220205542713 1
gene  1 3 43 -0.874045441933888 0 4412.0 -0.874045441933888 1
gene  1 5 43 0.14662031645626317 0 4414.0 0.14662031645626317 1
gene  1 6 43 0.5390639003283678 0 4415.0 0.5390639003283678 1
gene  1 10 43 0.6981891824314608 0 4419.0 0.6981891824314608 1
gene  1 13 43 0.1377593714791664 0 4422.0 0.1377593714791664 1
gene  1 15 43 0.9539552498219237 0 4424.0 0.9539552498219237 1
gene  1 16 43 0.23718137345527968 0 4425.0 0.23718137345527968 1
gene  1 17 43 0.306129298489483 0 4426.0 0.306129298489483 1
gene  1 18 43 0.49184193401857546 0 4427.0 0.49184193401857546 1
gene  1 20 43 -0.8900595025906743 0 4429.0 -0.8900595025906743 1
gene  1 21 43 -0.38677599902702586 0 4430.0 -0.38677599902702586 1
gene  1 23 43 0.647932998751611 0 4432.0 0.647932998751611 1
gene  1 28 43 -0.9585902858221433 0 4437.0 -0.9585902858221433 1
gene  1 30 43 0.3498240264106114 0 4439.0 0.3498240264106114 1
gene  1 32 43 -0.10563419526539353 0 4441.0 -0.10563419526539353 1
gene  1 36 43 0.034948816945980066 0 4445.0 0.034948816945980066 1
gene  1 37 43 -0.9604814535300208 0 4446.0 -0.9604814535300208 1
gene  1 38 43 -0.5516371320376245 0 4447.0 -0.5516371320376245 1
gene  1 40 43 -0.9029608520304333 0 4449.0 -0.9029608520304333 1
gene  1 42 43 0.8839318445968484 0 4451.0 0.8839318445968484 1
gene  1 1 44 0.8930875167685154 0 4515.0 0.8930875167685154 1
gene  1 2 44 -0.3167572779355833 0 4516.0 -0.3167572779355833 1
gene  1 3 44 0.5527526493502287 0 4517.0 0.5527526493502287 1
gene  1 4 44 -0.49701262923190337 0 4518.0 -0.49701262923190337 1
gene  1 5 44 0.789849832219118 0 4519.0 0.789849832219118 1
gene  1 6 44 -0.5971998500011113 0 4520.0 -0.5971998500011113 1
gene  1 7 44 0.23776250366690987 0 4521.0 0.23776250366690987 1
gene  1 10 44 -0.9957756544642852 0 4524.0 -0.9957756544642852 1
gene  1 11 44 0.009980848214894644 0 4525.0 0.009980848214894644 1
gene  1 12 44 0.7314056651055377 0 4526.0 0.7314056651055377 1
gene  1 14 44 0.9232037500038642 0 4528.0 0.9232037500038642 1
gene  1 16 44 -0.5775218026943393 0 4530.0 -0.5775218026943393 1
gene  1 19 44 -0.8892647148786633 0 4533.0 -0.8892647148786633 1
gene  1 21 44 0.09052623063990317 0 4535.0 0.09052623063990317 1
gene  1 23 44 0.8051337013367188 0 4537.0 0.8051337013367188 1
gene  1 25 44 0.5783824684159584 0 4539.0 0.5783824684159584 1
gene  1 28 44 0.47579836102556994 0 4542.0 0.47579836102556994 1
gene  1 29 44 -0.8510707867647952 0 4543.0 -0.8510707867647952 1
gene  1 31 44 -0.7228787399682018 0 4545.0 -0.7228787399682018 1
gene  1 33 44 0.2941428082242765 0 4547.0 0.2941428082242765 1
gene  1 34 44 0.919571888370438 0 4548.0 0.919571888370438 1
gene  1 38 44 -0.5303905618748278 0 4552.0 -0.5303905618748278 1
gene  1 39 44 -0.9921733256826951 0 4553.0 -0.9921733256826951 1
gene  1 40 44 0.05608408570594492 0 4554.0 0.05608408570594492 1
gene  1 2 45 -0.24642728579361994 0 4621.0 -0.24642728579361994 1
gene  1 6 45 0.13537717422919648 0 4625.0 0.13537717422919648 1
gene  1 7 45 -0.054516839265094874 0 4626.0 -0.054516839265094874 1
gene  1 8 45 -0.2884060568344958 0 4627.0 -0.2884060568344958 1
gene  1 9 45 0.18292788902499302 0 4628.0 0.18292788902499302 1
gene  1 10 45 0.08405109392487953 0 4629.0 0.08405109392487953 1
gene  1 11 45 -0.23161208576550074 0 4630.0 -0.23161208576550074 1
gene  1 15 45 -0.7102570458868801 0 4634.0 -0.7102570458868801 1
gene  1 16 45 0.32796225165370196 0 4635.0 0.32796225165370196 1
gene  1 18 45 -0.7935160743952786 0 4637.0 -0.7935160743952786 1
gene  1 24 45 -0.28902085415022605 0 4643.0 -0.28902085415022605 1
gene  1 26 45 -0.18536886978223976 0 4645.0 -0.18536886978223976 1
gene  1 29 45 0.3178165757928756 0 4648.0 0.3178165757928756 1
gene  1 30 45 0.11202935676638637 0 4649.0 0.11202935676638637 1
gene  1 31 45 -0.25211396306204226 0 4650.0 -0.25211396306204226 1
gene  1 32 45 0.08393086353677226 0 4651.0 0.08393086353677226 1
gene  1 33 45 0.09167366203429417 0 4652.0 0.09167366203429417 1
gene  1 35 45 0.7805409537963645 0 4654.0 0.7805409537963645 1
gene  1 38 45 0.26613543963602215 0 4657.0 0.26613543963602215 1
gene  1 40 45 -0.19468092347535304 0 4659.0 -0.19468092347535304 1
gene  1 43 45 -0.9311051795179651 0 4662.0 -0.9311051795179651 1
gene  1 44 45 -0.3097118913537448 0 4663.0 -0.3097118913537448 1
gene  1 2 46 0.2712550393773092 0 4726.0 0.2712550393773092 1
gene  1 4 46 0.9221559309227618 0 4728.0 0.9221559309227618 1
gene  1 8 46 0.47656162899300625 0 4732.0 0.47656162899300625 1
gene  1 9 46 -0.06873410089270171 0 4733.0 -0.06873410089270171 1
gene  1 10 46 -0.8777291437807755 0 4734.0 -0.8777291437807755 1
gene  1 12 46 0.6084173430591728 0 4736.0 0.6084173430591728 1
gene  1 15 46 0.38195277193701926 0 4739.0 0.38195277193701926 1
gene  1 18 46 0.8157191933936885 0 4742.0 0.8157191933936885 1
gene  1 20 46 -0.3149871355563203 0 4744.0 -0.3149871355563203 1
gene  1 21 46 0.6360161363957756 0 4745.0 0.6360161363957756 1
gene  1 23 46 -0.9803439016799175 0 4747.0 -0.9803439016799175 1
gene  1 24 46 -0.21635295854083325 0 4748.0 -0.21635295854083325 1
gene  1 26 46 -0.41524121380026535 0 4750.0 -0.41524121380026535 1
gene  1 29 46 0.4770210131669008 0 4753.0 0.4770210131669008 1
gene  1 33 46 0.23414254219362185 0 4757.0 0.23414254219362185 1
gene  1 34 46 -0.2551510868030431 0 4758.0 -0.2551510868030431 1
gene  1 35 46 -0.7350890936460884 0 4759.0 -0.7350890936460884 1
gene  1 37 46 -0.9510217186532999 0 4761.0 -0.9510217186532999 1
gene  1 39 46 -0.12585918879403268 0 4763.0 -0.12585918879403268 1
gene  1 45 46 -0.5461031079295678 0 4769.0 -0.5461031079295678 1
gene  1 3 47 -0.5599251372531096 0 4832.0 -0.5599251372531096 1
gene  1 5 47 -0.7144220758865558 0 4834.0 -0.7144220758865558 1
gene  1 7 47 -0.4139166227257354 0 4836.0 -0.4139166227257354 1
gene  1 9 47 0.8977317855979151 0 4838.0 0.8977317855979151 1
gene  1 11 47 -0.3525536293933429 0 4840.0 -0.3525536293933429 1
gene  1 12 47 -0.917220598960445 0 4841.0 -0.917220598960445 1
gene  1 13 47 -0.5947495290846126 0 4842.0 -0.5947495290846126 1
gene  1 15 47 -0.6294747122959947 0 4844.0 -0.6294747122959947 1
gene  1 17 47 -0.3603402544658495 0 4846.0 -0.3603402544658495 1
gene  1 20 47 -0.19687948629121543 0 4849.0 -0.19687948629121543 1
gene  1 23 47 0.8496498114485123 0 4852.0 0.8496498114485123 1
gene  1 24 47 -0.9165418509823515 0 4853.0 -0.9165418509823515 1
gene  1 27 47 -0.48005297131164426 0 4856.0 -0.48005297131164426 1
gene  1 30 47 0.8187168005232942 0 4859.0 0.8187168005232942 1
gene  1 31 47 -0.4439188898567824 0 4860.0 -0.4439188898567824 1
gene  1 33 47 0.25061798653242584 0 4862.0 0.25061798653242584 1
gene  1 34 47 -0.9761144747072535 0 4863.0 -0.9761144747072535 1
gene  1 37 47 -0.0773157624078522 0 4866.0 -0.0773157624078522 1
gene  1 39 47 -0.3277073319810542 0 4868.0 -0.3277073319810542 1
gene  1 42 47 -0.13243829854176326 0 4871.0 -0.13243829854176326 1
gene  1 43 47 0.3705719870115155 0 4872.0 0.3705719870115155 1
gene  1 2 48 0.7243873001313157 0 4936.0 0.7243873001313157 1
gene  1 5 48 -0.7626473037615864 0 4939.0 -0.7626473037615864 1
gene  1 6 48 -0.5947220496545539 0 4940.0 -0.5947220496545539 1
gene  1 7 48 0.3703196896673603 0 4941.0 0.3703196896673603 1
gene  1 9 48 -0.5378926082344838 0 4943.0 -0.5378926082344838 1
gene  1 10 48 0.47558828628687955 0 4944.0 0.47558828628687955 1
gene  1 13 48 -0.622428303404326 0 4947.0 -0.622428303404326 1
gene  1 15 48 0.40199287903604675 0 4949.0 0.40199287903604675 1
gene  1 17 48 -0.4694391723697293 0 4951.0 -0.4694391723697293 1
gene  1 18 48 -0.7893734052040094 0 4952.0 -0.7893734052040094 1
gene  1 21 48 -0.07090099667355387 0 4955.0 -0.07090099667355387 1
gene  1 22 48 -0.5048735047597767 0 4956.0 -0.5048735047597767 1
gene  1 24 48 -0.548302158675338 0 4958.0 -0.548302158675338 1
gene  1 25 48 -0.17896528897176434 0 4959.0 -0.17896528897176434 1
gene  1 26 48 -0.15717605059357476 0 4960.0 -0.15717605059357476 1
gene  1 28 48 -0.5388603342449679 0 4962.0 -0.5388603342449679 1
gene  1 29 48 -0.74905121936283 0 4963.0 -0.74905121936283 1
gene  1 30 48 0.8870401298492251 0 4964.0 0.8870401298492251 1
gene  1 31 48 0.9383799132004789 0 4965.0 0.9383799132004789 1
gene  1 32 48 0.9342000686522001 0 4966.0 0.9342000686522001 1
gene  1 33 48 -0.8857242270959927 0 4967.0 -0.8857242270959927 1
gene  1 34 48 0.3534880553074625 0 4968.0 0.3534880553074625 1
gene  1 35 48 -0.6134859557319418 0 4969.0 -0.6134859557319418 1
gene  1 36 48 0.312752035882919 0 4970.0 0.312752035882919 1
gene  1 38 48 0.7406954638143122 0 4972.0 0.7406954638143122 1
gene  1 39 48 -0.8745320808191598 0 4973.0 -0.8745320808191598 1
gene  1 40 48 0.7573124759588775 0 4974.0 0.7573124759588775 1
gene  1 41 48 -0.001953470082587727 0 4975.0 -0.001953470082587727 1
gene  1 43 48 -0.7046275717732335 0 4977.0 -0.7046275717732335 1
gene  1 45 48 -0.8252266064939499 0 4979.0 -0.8252266064939499 1
gene  1 47 48 -0.28202013847721463 0 4981.0 -0.28202013847721463 1
gene  1 3 49 -0.7316243265679584 0 5042.0 -0.7316243265679584 1
gene  1 4 49 0.2508354250778848 0 5043.0 0.2508354250778848 1
gene  1 5 49 0.029115260684816624 0 5044.0 0.029115260684816624 1
gene  1 6 49 -0.6318512866340511 0 5045.0 -0.6318512866340511 1
gene  1 8 49 0.12392757049519465 0 5047.0 0.12392757049519465 1
gene  1 9 49 0.32056890292111473 0 5048.0 0.32056890292111473 1
gene  1 10 49 0.12538806202118258 0 5049.0 0.12538806202118258 1
gene  1 11 49 -0.3586715069134261 0 5050.0 -0.3586715069134261 1
gene  1 13 49 0.1661980634626704 0 5052.0 0.1661980634626704 1
gene  1 15 49 0.8045499077139572 0 5054.0 0.8045499077139572 1
gene  1 18 49 -0.6109228140534756 0 5057.0 -0.6109228140534756 1
gene  1 19 49 -0.25313046151123475 0 5058.0 -0.25313046151123475 1
gene  1 20 49 -0.8873463407388066 0 5059.0 -0.8873463407388066 1
gene  1 23 49 0.591870345866238 0 5062.0 0.591870345866238 1
gene  1 24 49 0.27544754957554496 0 5063.0 0.27544754957554496 1
gene  1 25 49 -0.869928445056847 0 5064.0 -0.869928445056847 1
gene  1 28 49 -0.3678952742379251 0 5067.0 -0.3678952742379251 1
gene  1 29 49 -0.36323239421016484 0 5068.0 -0.36323239421016484 1
gene  1 30 49 -0.015413495575134939 0 5069.0 -0.015413495575134939 1
gene  1 31 49 -0.8836097187429961 0 5070.0 -0.8836097187429961 1
gene  1 33 49 0.9125491127356151 0 5072.0 0.9125491127356151 1
gene  1 35 49 -0.3465325552810673 0 5074.0 -0.3465325552810673 1
gene  1 36 49 0.1280934504358826 0 5075.0 0.1280934504358826 1
gene  1 37 49 0.8382304289849379 0 5076.0 0.8382304289849379 1
gene  1 38 49 0.3480323739515059 0 5077.0 0.3480323739515059 1
gene  1 40 49 0.4658677635207348 0 5079.0 0.4658677635207348 1
gene  1 43 49 -0.6333619082820149 0 5082.0 -0.6333619082820149 1
gene  1 44 49 -0.6517679740594593 0 5083.0 -0.6517679740594593 1
gene  1 46 49 0.6076555085428665 0 5085.0 0.6076555085428665 1
gene  1 1 50 0.70896726601295 0 5145.0 0.70896726601295 1
gene  1 3 50 0.5373928750630775 0 5147.0 0.5373928750630775 1
gene  1 4 50 0.6427289845893681 0 5148.0 0.6427289845893681 1
gene  1 6 50 0.8919213625124452 0 5150.0 0.8919213625124452 1
gene  1 9 50 -0.543489463073844 0 5153.0 -0.543489463073844 1
gene  1 10 50 0.1903230099737686 0 5154.0 0.1903230099737686 1
gene  1 11 50 0.8474234365841689 0 5155.0 0.8474234365841689 1
gene  1 13 50 0.10011484176511787 0 5157.0 0.10011484176511787 1
gene  1 14 50 -0.9321093060324165 0 5158.0 -0.9321093060324165 1
gene  1 15 50 -0.5583432444534571 0 5159.0 -0.5583432444534571 1
gene  1 19 50 -0.27403123318116995 0 5163.0 -0.27403123318116995 1
gene  1 22 50 0.9942247273418527 0 5166.0 0.9942247273418527 1
gene  1 23 50 0.9542722783722213 0 5167.0 0.9542722783722213 1
gene  1 24 50 -0.7486453680671792 0 5168.0 -0.7486453680671792 1
gene  1 25 50 0.32299649345162285 0 5169.0 0.32299649345162285 1
gene  1 26 50 -0.7511157664313578 0 5170.0 -0.7511157664313578 1
gene  1 27 50 -0.43519544668108356 0 5171.0 -0.43519544668108356 1
gene  1 30 50 0.021481569632257225 0 5174.0 0.021481569632257225 1
gene  1 32 50 -0.518418409892094 0 5176.0 -0.518418409892094 1
gene  1 33 50 0.4833567345846349 0 5177.0 0.4833567345846349 1
gene  1 34 50 0.9283168172413991 0 5178.0 0.9283168172413991 1
gene  1 36 50 -0.6849916130119789 0 5180.0 -0.6849916130119789 1
gene  1 38 50 -0.6148204506747121 0 5182.0 -0.6148204506747121 1
gene  1 39 50 0.749651268525183 0 5183.0 0.749651268525183 1
gene  1 43 50 0.1859730488029716 0 5187.0 0.1859730488029716 1
gene  1 44 50 -0.1924826253440538 0 5188.0 -0.1924826253440538 1
gene  1 46 50 -0.037695205411216626 0 5190.0 -0.037695205411216626 1
gene  1 47 50 0.5529172952977122 0 5191.0 0.5529172952977122 1
gene  1 2 51 0.09653372211550937 0 5251.0 0.09653372211550937 1
gene  1 3 51 -0.804955683958918 0 5252.0 -0.804955683958918 1
gene  1 4 51 -0.0011446651755501192 0 5253.0 -0.0011446651755501192 1
gene  1 6 51 0.3426056594518966 0 5255.0 0.3426056594518966 1
gene  1 10 51 0.34832866305686316 0 5259.0 0.34832866305686316 1
gene  1 11 51 -0.8096838947218691 0 5260.0 -0.8096838947218691 1
gene  1 12 51 0.8352400327614344 0 5261.0 0.8352400327614344 1
gene  1 13 51 0.8370913906651524 0 5262.0 0.8370913906651524 1
gene  1 14 51 -0.6071372513994395 0 5263.0 -0.6071372513994395 1
gene  1 15 51 -0.3237513939679323 0 5264.0 -0.3237513939679323 1
gene  1 16 51 0.4097630603390944 0 5265.0 0.4097630603390944 1
gene  1 20 51 -0.2855489873501712 0 5269.0 -0.2855489873501712 1
gene  1 21 51 -0.2423031298421997 0 5270.0 -0.2423031298421997 1
gene  1 24 51 -0.5942332557234602 0 5273.0 -0.5942332557234602 1
gene  1 28 51 -0.7169902250684024 0 5277.0 -0.7169902250684024 1
gene  1 30 51 0.054641514731286756 0 5279.0 0.054641514731286756 1
gene  1 31 51 -0.006109229908529246 0 5280.0 -0.006109229908529246 1
gene  1 33 51 -0.7280775190361405 0 5282.0 -0.7280775190361405 1
gene  1 36 51 -0.8782408490613363 0 5285.0 -0.8782408490613363 1
gene  1 39 51 0.09599644509201333 0 5288.0 0.09599644509201333 1
gene  1 43 51 0.1331864909198318 0 5292.0 0.1331864909198318 1
gene  1 44 51 0.3480635314064352 0 5293.0 0.3480635314064352 1
gene  1 45 51 0.06801062167440464 0 5294.0 0.06801062167440464 1
gene  1 48 51 -0.10256599285250523 0 5297.0 -0.10256599285250523 1
gene  1 49 51 -0.07459596530226753 0 5298.0 -0.07459596530226753 1
gene  1 7 52 -0.5391490971356775 0 5361.0 -0.5391490971356775 1
gene  1 8 52 -0.15350051381043306 0 5362.0 -0.15350051381043306 1
gene  1 11 52 -0.656708695999993 0 5365.0 -0.656708695999993 1
gene  1 14 52 0.1798619639776503 0 5368.0 0.1798619639776503 1
gene  1 17 52 -0.9941554598129382 0 5371.0 -0.9941554598129382 1
gene  1 18 52 0.5709575232866376 0 5372.0 0.5709575232866376 1
gene  1 19 52 -0.8056918524075533 0 5373.0 -0.8056918524075533 1
gene  1 29 52 0.676552443087355 0 5383.0 0.676552443087355 1
gene  1 30 52 0.7205164133737257 0 5384.0 0.7205164133737257 1
gene  1 37 52 0.9950681101647214 0 5391.0 0.9950681101647214 1
gene  1 38 52 0.6511811742384416 0 5392.0 0.6511811742384416 1
gene  1 39 52 -0.029795622957390244 0 5393.0 -0.029795622957390244 1
gene  1 40 52 0.3715583835298145 0 5394.0 0.3715583835298145 1
gene  1 42 52 0.3921644398674169 0 5396.0 0.3921644398674169 1
gene  1 43 52 -0.3224153711354282 0 5397.0 -0.3224153711354282 1
gene  1 44 52 0.37404948523203907 0 5398.0 0.37404948523203907 1
gene  1 45 52 -0.9166763729432275 0 5399.0 -0.9166763729432275 1
gene  1 47 52 0.8175687602237323 0 5401.0 0.8175687602237323 1
gene  1 48 52 0.21678923865167743 0 5402.0 0.21678923865167743 1
gene  1 49 52 -0.049044320492806825 0 5403.0 -0.049044320492806825 1
gene  1 50 52 0.2743962672011644 0 5404.0 0.2743962672011644 1
gene  1 4 53 -0.854240136173028 0 5463.0 -0.854240136173028 1
gene  1 5 53 -0.46949987545184146 0 5464.0 -0.46949987545184146 1
gene  1 6 53 -0.1155113168646964 0 5465.0 -0.1155113168646964 1
gene  1 7 53 -0.8696139110890829 0 5466.0 -0.8696139110890829 1
gene  1 8 53 -0.47310082179960045 0 5467.0 -0.47310082179960045 1
gene  1 10 53 0.07312758659641438 0 5469.0 0.07312758659641438 1
gene  1 14 53 -0.020381436717656576 0 5473.0 -0.020381436717656576 1
gene  1 20 53 0.1195939289727529 0 5479.0 0.1195939289727529 1
gene  1 22 53 -0.7009831992283351 0 5481.0 -0.7009831992283351 1
gene  1 25 53 -0.9602843358812967 0 5484.0 -0.9602843358812967 1
gene  1 32 53 -0.6937522825590455 0 5491.0 -0.6937522825590455 1
gene  1 35 53 -0.24029335653982375 0 5494.0 -0.24029335653982375 1
gene  1 37 53 -0.23290578732912026 0 5496.0 -0.23290578732912026 1
gene  1 38 53 -0.2239015165537005 0 5497.0 -0.2239015165537005 1
gene  1 40 53 -0.3311161697230809 0 5499.0 -0.3311161697230809 1
gene  1 43 53 0.7423165114893517 0 5502.0 0.7423165114893517 1
gene  1 44 53 -0.7410817526671127 0 5503.0 -0.7410817526671127 1
gene  1 46 53 0.7508528161223132 0 5505.0 0.7508528161223132 1
gene  1 48 53 0.9060332718127695 0 5507.0 0.9060332718127695 1
gene  1 49 53 0.6607531441962676 0 5508.0 0.6607531441962676 1
gene  1 51 53 0.3802911007389107 0 5510.0 0.3802911007389107 1
gene  1 52 53 -0.1402989800598642 0 5511.0 -0.1402989800598642 1
gene  1 3 54 0.20440904051393294 0 5567.0 0.20440904051393294 1
gene  1 7 54 0.1511228636410693 0 5571.0 0.1511228636410693 1
gene  1 8 54 -0.9314809071862964 0 5572.0 -0.9314809071862964 1
gene  1 12 54 0.357659584703761 0 5576.0 0.357659584703761 1
gene  1 14 54 -0.4274599031395043 0 5578.0 -0.4274599031395043 1
gene  1 15 54 0.15983958014071464 0 5579.0 0.15983958014071464 1
gene  1 16 54 0.27305153421677963 0 5580.0 0.27305153421677963 1
gene  1 17 54 0.11209190615597509 0 5581.0 0.11209190615597509 1
gene  1 19 54 -0.40386248990923723 0 5583.0 -0.40386248990923723 1
gene  1 22 54 0.6265913710188168 0 5586.0 0.6265913710188168 1
gene  1 23 54 -0.8294645858965888 0 5587.0 -0.8294645858965888 1
gene  1 24 54 0.14779977985324244 0 5588.0 0.14779977985324244 1
gene  1 27 54 -0.3318960204428386 0 5591.0 -0.3318960204428386 1
gene  1 28 54 -0.14174840458147286 0 5592.0 -0.14174840458147286 1
gene  1 29 54 -0.2736742371015941 0 5593.0 -0.2736742371015941 1
gene  1 31 54 0.1997861145627804 0 5595.0 0.1997861145627804 1
gene  1 33 54 0.060892341865946054 0 5597.0 0.060892341865946054 1
gene  1 35 54 -0.31768475668413276 0 5599.0 -0.31768475668413276 1
gene  1 37 54 0.8044122447823802 0 5601.0 0.8044122447823802 1
gene  1 40 54 -0.2095615400315638 0 5604.0 -0.2095615400315638 1
gene  1 47 54 0.9611674250135376 0 5611.0 0.9611674250135376 1
gene  1 48 54 -0.8514257225035868 0 5612.0 -0.8514257225035868 1
gene  1 1 55 0.5794010740473313 0 5670.0 0.5794010740473313 1
gene  1 4 55 -0.9369589474629773 0 5673.0 -0.9369589474629773 1
gene  1 5 55 0.837862290183418 0 5674.0 0.837862290183418 1
gene  1 9 55 -0.479377699524265 0 5678.0 -0.479377699524265 1
gene  1 10 55 0.4558554668687924 0 5679.0 0.4558554668687924 1
gene  1 13 55 -0.48609000099782895 0 5682.0 -0.48609000099782895 1
gene  1 15 55 -0.453683178779399 0 5684.0 -0.453683178779399 1
gene  1 16 55 -0.7345125967668708 0 5685.0 -0.7345125967668708 1
gene  1 18 55 -0.7117617487268115 0 5687.0 -0.7117617487268115 1
gene  1 20 55 -0.6164946302775874 0 5689.0 -0.6164946302775874 1
gene  1 21 55 0.5471899550092171 0 5690.0 0.5471899550092171 1
gene  1 22 55 -0.7030795285855459 0 5691.0 -0.7030795285855459 1
gene  1 25 55 0.3338731625329835 0 5694.0 0.3338731625329835 1
gene  1 27 55 -0.39893968920489 0 5696.0 -0.39893968920489 1
gene  1 28 55 0.697701797370407 0 5697.0 0.697701797370407 1
gene  1 30 55 0.2919002241767238 0 5699.0 0.2919002241767238 1
gene  1 31 55 -0.24647952708814436 0 5700.0 -0.24647952708814436 1
gene  1 35 55 0.6477471435885847 0 5704.0 0.6477471435885847 1
gene  1 37 55 -0.5976100927648587 0 5706.0 -0.5976100927648587 1
gene  1 38 55 -0.9181418559092218 0 5707.0 -0.9181418559092218 1
gene  1 39 55 -0.3010282305742543 0 5708.0 -0.3010282305742543 1
gene  1 42 55 0.20098640703515425 0 5711.0 0.20098640703515425 1
gene  1 43 55 -0.7723232252092935 0 5712.0 -0.7723232252092935 1
gene  1 45 55 -0.9400962294364953 0 5714.0 -0.9400962294364953 1
gene  1 46 55 -0.2796906637595592 0 5715.0 -0.2796906637595592 1
gene  1 48 55 -0.09373116735066789 0 5717.0 -0.09373116735066789 1
gene  1 52 55 -0.2335066485199182 0 5721.0 -0.2335066485199182 1
gene  1 7 56 -0.5882482694700111 0 5781.0 -0.5882482694700111 1
gene  1 8 56 -0.7119626079404677 0 5782.0 -0.7119626079404677 1
gene  1 14 56 -0.7796154794880475 0 5788.0 -0.7796154794880475 1
gene  1 16 56 0.08088700490355383 0 5790.0 0.08088700490355383 1
gene  1 17 56 -0.018484115430839165 0 5791.0 -0.018484115430839165 1
gene  1 20 56 -0.1352080174475201 0 5794.0 -0.1352080174475201 1
gene  1 21 56 0.08826153740255638 0 5795.0 0.08826153740255638 1
gene  1 23 56 -0.4717020631852399 0 5797.0 -0.4717020631852399 1
gene  1 24 56 -0.3907422229024886 0 5798.0 -0.3907422229024886 1
gene  1 26 56 -0.017431809408436028 0 5800.0 -0.017431809408436028 1
gene  1 28 56 -0.5812985305915639 0 5802.0 -0.5812985305915639 1
gene  1 32 56 0.3668104769194753 0 5806.0 0.3668104769194753 1
gene  1 35 56 -0.433191890545204 0 5809.0 -0.433191890545204 1
gene  1 39 56 0.9200979518215096 0 5813.0 0.9200979518215096 1
gene  1 40 56 -0.39253231686360346 0 5814.0 -0.39253231686360346 1
gene  1 41 56 -0.9223190676301853 0 5815.0 -0.9223190676301853 1
gene  1 42 56 0.7499555892479044 0 5816.0 0.7499555892479044 1
gene  1 44 56 -0.4239739297019032 0 5818.0 -0.4239739297019032 1
gene  1 47 56 -0.747616049252187 0 5821.0 -0.747616049252187 1
gene  1 53 56 -0.6310007520835422 0 5827.0 -0.6310007520835422 1
gene  1 55 56 -0.4946683015814958 0 5829.0 -0.4946683015814958 1
gene  1 2 57 0.7321288730369032 0 5881.0 0.7321288730369032 1
gene  1 5 57 -0.8789468093896803 0 5884.0 -0.8789468093896803 1
gene  1 6 57 -0.30630605397251076 0 5885.0 -0.30630605397251076 1
gene  1 7 57 0.8973596395043143 0 5886.0 0.8973596395043143 1
gene  1 8 57 0.8585722753513154 0 5887.0 0.8585722753513154 1
gene  1 10 57 0.4404783206137275 0 5889.0 0.4404783206137275 1
gene  1 11 57 -0.642827115590287 0 5890.0 -0.642827115590287 1
gene  1 13 57 -0.2921975287082833 0 5892.0 -0.2921975287082833 1
gene  1 14 57 -0.61268889375574 0 5893.0 -0.61268889375574 1
gene  1 15 57 0.22707986588174334 0 5894.0 0.22707986588174334 1
gene  1 19 57 -0.45194470795272734 0 5898.0 -0.45194470795272734 1
gene  1 21 57 -0.6518667561712163 0 5900.0 -0.6518667561712163 1
gene  1 22 57 0.699584909723378 0 5901.0 0.699584909723378 1
gene  1 25 57 0.6907430637836935 0 5904.0 0.6907430637836935 1
gene  1 26 57 0.25324130599765304 0 5905.0 0.25324130599765304 1
gene  1 29 57 -0.4534666898669595 0 5908.0 -0.4534666898669595 1
gene  1 31 57 0.7225591064815864 0 5910.0 0.7225591064815864 1
gene  1 33 57 -0.5824747190737108 0 5912.0 -0.5824747190737108 1
gene  1 34 57 -0.8661339964822848 0 5913.0 -0.8661339964822848 1
gene  1 36 57 0.8528698103212913 0 5915.0 0.8528698103212913 1
gene  1 41 57 0.5408780148429341 0 5920.0 0.5408780148429341 1
gene  1 42 57 -0.9296227057791457 0 5921.0 -0.9296227057791457 1
gene  1 43 57 -0.07898470168997163 0 5922.0 -0.07898470168997163 1
gene  1 44 57 -0.3609328209688617 0 5923.0 -0.3609328209688617 1
gene  1 47 57 0.6954678856360791 0 5926.0 0.6954678856360791 1
gene  1 48 57 -0.3635462949153174 0 5927.0 -0.3635462949153174 1
gene  1 49 57 -0.6334723909019613 0 5928.0 -0.6334723909019613 1
gene  1 52 57 -0.33661373346599344 0 5931.0 -0.33661373346599344 1
gene  1 1 58 0.6555150350459258 0 5985.0 0.6555150350459258 1
gene  1 2 58 -0.6562200934341522 0 5986.0 -0.6562200934341522 1
gene  1 3 58 -0.3309235126591896 0 5987.0 -0.3309235126591896 1
gene  1 5 58 -0.8391189779053071 0 5989.0 -0.8391189779053071 1
gene  1 7 58 -0.6956409502047652 0 5991.0 -0.6956409502047652 1
gene  1 18 58 0.805183626676543 0 6002.0 0.805183626676543 1
gene  1 19 58 0.3971354369190685 0 6003.0 0.3971354369190685 1
gene  1 20 58 -0.5232513264805978 0 6004.0 -0.5232513264805978 1
gene  1 23 58 -0.8185162703439907 0 6007.0 -0.8185162703439907 1
gene  1 24 58 0.4572267222516775 0 6008.0 0.4572267222516775 1
gene  1 25 58 0.6074041419820592 0 6009.0 0.6074041419820592 1
gene  1 27 58 0.9881019868935992 0 6011.0 0.9881019868935992 1
gene  1 28 58 0.3706007427012148 0 6012.0 0.3706007427012148 1
gene  1 29 58 0.1997142365238619 0 6013.0 0.1997142365238619 1
gene  1 30 58 -0.5202736422136083 0 6014.0 -0.5202736422136083 1
gene  1 32 58 -0.07744372079223116 0 6016.0 -0.07744372079223116 1
gene  1 34 58 -0.7351188341306681 0 6018.0 -0.7351188341306681 1
gene  1 35 58 0.8262623033786218 0 6019.0 0.8262623033786218 1
gene  1 36 58 -0.36512242426956754 0 6020.0 -0.36512242426956754 1
gene  1 39 58 0.21833698708453586 0 6023.0 0.21833698708453586 1
gene  1 40 58 0.6492579544141897 0 6024.0 0.6492579544141897 1
gene  1 41 58 0.13671365659442303 0 6025.0 0.13671365659442303 1
gene  1 42 58 0.21513119512880685 0 6026.0 0.21513119512880685 1
gene  1 46 58 -0.7196231302545982 0 6030.0 -0.7196231302545982 1
gene  1 48 58 0.5016303591794645 0 6032.0 0.5016303591794645 1
gene  1 49 58 0.9305307980975334 0 6033.0 0.9305307980975334 1
gene  1 50 58 0.5153527507570207 0 6034.0 0.5153527507570207 1
gene  1 52 58 -0.6405970087188505 0 6036.0 -0.6405970087188505 1
gene  1 54 58 0.18787694675023148 0 6038.0 0.18787694675023148 1
gene  1 55 58 0.3527134734095685 0 6039.0 0.3527134734095685 1
gene  1 56 58 -0.45931318659707754 0 6040.0 -0.45931318659707754 1
gene  1 3 59 0.09804388551325705 0 6092.0 0.09804388551325705 1
gene  1 9 59 -0.3003838970598033 0 6098.0 -0.3003838970598033 1
gene  1 11 59 0.6414122726777265 0 6100.0 0.6414122726777265 1
gene  1 13 59 -0.17248341077521823 0 6102.0 -0.17248341077521823 1
gene  1 14 59 0.7821882044473017 0 6103.0 0.7821882044473017 1
gene  1 16 59 -0.2127857564923955 0 6105.0 -0.2127857564923955 1
gene  1 17 59 0.08018166404473737 0 6106.0 0.08018166404473737 1
gene  1 20 59 0.8946054579172674 0 6109.0 0.8946054579172674 1
gene  1 23 59 0.6835050655370041 0 6112.0 0.6835050655370041 1
gene  1 25 59 -0.898465915413063 0 6114.0 -0.898465915413063 1
gene  1 27 59 -0.7833060735245371 0 6116.0 -0.7833060735245371 1
gene  1 29 59 -0.004657257641125012 0 6118.0 -0.004657257641125012 1
gene  1 31 59 -0.13673484846577 0 6120.0 -0.13673484846577 1
gene  1 32 59 -0.5487409399126214 0 6121.0 -0.5487409399126214 1
gene  1 35 59 0.03221952000644823 0 6124.0 0.03221952000644823 1
gene  1 36 59 -0.6234774905359939 0 6125.0 -0.6234774905359939 1
gene  1 41 59 0.919136255604002 0 6130.0 0.919136255604002 1
gene  1 42 59 0.4818026350690404 0 6131.0 0.4818026350690404 1
gene  1 45 59 -0.6614857342620438 0 6134.0 -0.6614857342620438 1
gene  1 46 59 0.9029176625889567 0 6135.0 0.9029176625889567 1
gene  1 47 59 0.3097101705548745 0 6136.0 0.3097101705548745 1
gene  1 48 59 -0.7556458740575677 0 6137.0 -0.7556458740575677 1
gene  1 49 59 -0.3752392460902141 0 6138.0 -0.3752392460902141 1
gene  1 53 59 0.8818755760483886 0 6142.0 0.8818755760483886 1
gene  1 55 59 0.3468953984556705 0 6144.0 0.3468953984556705 1
gene  1 57 59 0.9118551002720267 0 6146.0 0.9118551002720267 1
gene  1 58 59 -0.5049214014141629 0 6147.0 -0.5049214014141629 1
gene  1 1 60 0.795611350339824 0 6195.0 0.795611350339824 1
gene  1 2 60 0.4955226142959751 0 6196.0 0.4955226142959751 1
gene  1 5 60 0.5238608263730519 0 6199.0 0.5238608263730519 1
gene  1 7 60 0.22645725415221252 0 6201.0 0.22645725415221252 1
gene  1 8 60 -0.9741402293728706 0 6202.0 -0.9741402293728706 1
gene  1 10 60 0.14043618350872034 0 6204.0 0.14043618350872034 1
gene  1 11 60 0.6415860785931438 0 6205.0 0.6415860785931438 1
gene  1 12 60 -0.503970897072105 0 6206.0 -0.503970897072105 1
gene  1 13 60 -0.38890160764055437 0 6207.0 -0.38890160764055437 1
gene  1 20 60 -0.7143496823657403 0 6214.0 -0.7143496823657403 1
gene  1 21 60 -0.7996316525477624 0 6215.0 -0.7996316525477624 1
gene  1 22 60 -0.36635799564698024 0 6216.0 -0.36635799564698024 1
gene  1 27 60 -0.6068577947207299 0 6221.0 -0.6068577947207299 1
gene  1 30 60 0.40075892791149015 0 6224.0 0.40075892791149015 1
gene  1 33 60 0.2705273876404075 0 6227.0 0.2705273876404075 1
gene  1 34 60 -0.635535914759731 0 6228.0 -0.635535914759731 1
gene  1 35 60 0.4120965977180242 0 6229.0 0.4120965977180242 1
gene  1 36 60 0.648044140366364 0 6230.0 0.648044140366364 1
gene  1 38 60 0.5272035030075485 0 6232.0 0.5272035030075485 1
gene  1 39 60 -0.9783535906957002 0 6233.0 -0.9783535906957002 1
gene  1 40 60 -0.8531833350218013 0 6234.0 -0.8531833350218013 1
gene  1 41 60 0.7165685986467131 0 6235.0 0.7165685986467131 1
gene  1 44 60 -0.05568891080121452 0 6238.0 -0.05568891080121452 1
gene  1 47 60 0.4497250898184213 0 6241.0 0.4497250898184213 1
gene  1 48 60 -0.5880990825709417 0 6242.0 -0.5880990825709417 1
gene  1 50 60 0.04432048586634485 0 6244.0 0.04432048586634485 1
gene  1 54 60 -0.40297469724379764 0 6248.0 -0.40297469724379764 1
gene  1 55 60 0.31868541104666503 0 6249.0 0.31868541104666503 1
gene  1 56 60 0.4176481792255673 0 6250.0 0.4176481792255673 1
gene  1 58 60 -0.8555194585697495 0 6252.0 -0.8555194585697495 1
gene  1 5 61 -0.6257158924920944 0 6304.0 -0.6257158924920944 1
gene  1 6 61 -0.44226079802969076 0 6305.0 -0.44226079802969076 1
gene  1 11 61 -0.034635661949533714 0 6310.0 -0.034635661949533714 1
gene  1 12 61 -0.5070621485215461 0 6311.0 -0.5070621485215461 1
gene  1 13 61 0.6395849157874992 0 6312.0 0.6395849157874992 1
gene  1 15 61 0.2791827008796537 0 6314.0 0.2791827008796537 1
gene  1 18 61 -0.6536921651690439 0 6317.0 -0.6536921651690439 1
gene  1 24 61 -0.03553524180977874 0 6323.0 -0.03553524180977874 1
gene  1 25 61 -0.6701141773644096 0 6324.0 -0.6701141773644096 1
gene  1 26 61 0.5558125291558856 0 6325.0 0.5558125291558856 1
gene  1 27 61 -0.13102499730162076 0 6326.0 -0.13102499730162076 1
gene  1 31 61 0.057972987905150264 0 6330.0 0.057972987905150264 1
gene  1 33 61 -0.4341211664526995 0 6332.0 -0.4341211664526995 1
gene  1 37 61 0.8338155032967981 0 6336.0 0.8338155032967981 1
gene  1 38 61 0.9121370028376747 0 6337.0 0.9121370028376747 1
gene  1 41 61 -0.027150487061408435 0 6340.0 -0.027150487061408435 1
gene  1 42 61 -0.4935277370229948 0 6341.0 -0.4935277370229948 1
gene  1 46 61 -0.7411339628048567 0 6345.0 -0.7411339628048567 1
gene  1 48 61 -0.0580961161468202 0 6347.0 -0.0580961161468202 1
gene  1 50 61 0.14092913570750976 0 6349.0 0.14092913570750976 1
gene  1 52 61 0.6246641127308546 0 6351.0 0.6246641127308546 1
gene  1 53 61 -0.3570477320987725 0 6352.0 -0.3570477320987725 1
gene  1 54 61 -0.26854402400007804 0 6353.0 -0.26854402400007804 1
gene  1 55 61 0.3583271066005269 0 6354.0 0.3583271066005269 1
gene  1 56 61 0.036966578860081034 0 6355.0 0.036966578860081034 1
gene  1 58 61 0.365327078396832 0 6357.0 0.365327078396832 1
gene  1 59 61 0.23546935514545186 0 6358.0 0.23546935514545186 1
gene  1 6 62 0.7452701611563997 0 6410.0 0.7452701611563997 1
gene  1 8 62 0.9031858012815954 0 6412.0 0.9031858012815954 1
gene  1 12 62 -0.7678176104672417 0 6416.0 -0.7678176104672417 1
gene  1 15 62 0.49087580648827245 0 6419.0 0.49087580648827245 1
gene  1 17 62 0.13245779196428176 0 6421.0 0.13245779196428176 1
gene  1 18 62 -0.2735473851007417 0 6422.0 -0.2735473851007417 1
gene  1 20 62 -0.5797516446881374 0 6424.0 -0.5797516446881374 1
gene  1 22 62 -0.7407642157876253 0 6426.0 -0.7407642157876253 1
gene  1 25 62 0.0479015205234401 0 6429.0 0.0479015205234401 1
gene  1 28 62 -0.9303498871144769 0 6432.0 -0.9303498871144769 1
gene  1 30 62 -0.38754276284084366 0 6434.0 -0.38754276284084366 1
gene  1 32 62 0.2661082400368817 0 6436.0 0.2661082400368817 1
gene  1 37 62 0.42827563133256685 0 6441.0 0.42827563133256685 1
gene  1 40 62 -0.7857230473253546 0 6444.0 -0.7857230473253546 1
gene  1 43 62 0.5540434195774907 0 6447.0 0.5540434195774907 1
gene  1 44 62 -0.4994001069200744 0 6448.0 -0.4994001069200744 1
gene  1 46 62 -0.41646295559792623 0 6450.0 -0.41646295559792623 1
gene  1 47 62 0.7690533443954255 0 6451.0 0.7690533443954255 1
gene  1 51 62 0.3038672303789066 0 6455.0 0.3038672303789066 1
gene  1 54 62 0.20541538982059948 0 6458.0 0.20541538982059948 1
gene  1 55 62 0.9271475771559068 0 6459.0 0.9271475771559068 1
gene  1 56 62 -0.8241416409570118 0 6460.0 -0.8241416409570118 1
gene  1 57 62 -0.7454003461641423 0 6461.0 -0.7454003461641423 1
gene  1 58 62 -0.5815067391838942 0 6462.0 -0.5815067391838942 1
gene  1 59 62 -0.7769500065307939 0 6463.0 -0.7769500065307939 1
gene  1 60 62 0.2185888828926853 0 6464.0 0.2185888828926853 1
gene  1 2 63 -0.9039385376289447 0 6511.0 -0.9039385376289447 1
gene  1 4 63 0.9922769640687827 0 6513.0 0.9922769640687827 1
gene  1 5 63 0.3087363375504839 0 6514.0 0.3087363375504839 1
gene  1 6 63 -0.23518926749497315 0 6515.0 -0.23518926749497315 1
gene  1 7 63 0.10374070616780018 0 6516.0 0.10374070616780018 1
gene  1 9 63 -0.3340639023958031 0 6518.0 -0.3340639023958031 1
gene  1 11 63 -0.2290593382753353 0 6520.0 -0.2290593382753353 1
gene  1 15 63 -0.8900954392552012 0 6524.0 -0.8900954392552012 1
gene  1 16 63 -0.08182274610094009 0 6525.0 -0.08182274610094009 1
gene  1 17 63 -0.22633395062817374 0 6526.0 -0.22633395062817374 1
gene  1 19 63 -0.07027411987839738 0 6528.0 -0.07027411987839738 1
gene  1 20 63 0.3249350415751471 0 6529.0 0.3249350415751471 1
gene  1 21 63 0.3135330157473344 0 6530.0 0.3135330157473344 1
gene  1 23 63 -0.3117401335508564 0 6532.0 -0.3117401335508564 1
gene  1 24 63 -0.39116047966970624 0 6533.0 -0.39116047966970624 1
gene  1 26 63 0.2165035909575066 0 6535.0 0.2165035909575066 1
gene  1 31 63 -0.4342360222463253 0 6540.0 -0.4342360222463253 1
gene  1 32 63 0.048045228036758814 0 6541.0 0.048045228036758814 1
gene  1 36 63 -0.757698719360937 0 6545.0 -0.757698719360937 1
gene  1 37 63 -0.0016111497102272443 0 6546.0 -0.0016111497102272443 1
gene  1 38 63 0.8420423204049885 0 6547.0 0.8420423204049885 1
gene  1 39 63 -0.04900328459448433 0 6548.0 -0.04900328459448433 1
gene  1 41 63 0.2741803566932828 0 6550.0 0.2741803566932828 1
gene  1 42 63 -0.03647202893082846 0 6551.0 -0.03647202893082846 1
gene  1 43 63 0.5370916542669609 0 6552.0 0.5370916542669609 1
gene  1 45 63 -0.5051738632441963 0 6554.0 -0.5051738632441963 1
gene  1 46 63 0.14866044644719734 0 6555.0 0.14866044644719734 1
gene  1 47 63 0.4069243461487476 0 6556.0 0.4069243461487476 1
gene  1 53 63 0.7014332978780463 0 6562.0 0.7014332978780463 1
gene  1 54 63 0.6389255662094563 0 6563.0 0.6389255662094563 1
gene  1 55 63 -0.5198188965907381 0 6564.0 -0.5198188965907381 1
gene  1 56 63 0.9318494136594795 0 6565.0 0.9318494136594795 1
gene  1 57 63 0.1424312868090578 0 6566.0 0.1424312868090578 1
gene  1 58 63 -0.8418591074795738 0 6567.0 -0.8418591074795738 1
gene  1 60 63 -0.6979163554042717 0 6569.0 -0.6979163554042717 1
gene  1 3 64 -0.7084096840658005 0 6617.0 -0.7084096840658005 1
gene  1 5 64 -0.43861546726475675 0 6619.0 -0.43861546726475675 1
gene  1 7 64 0.850709159303154 0 6621.0 0.850709159303154 1
gene  1 8 64 -0.5933973997602437 0 6622.0 -0.5933973997602437 1
gene  1 10 64 0.13198618790083627 0 6624.0 0.13198618790083627 1
gene  1 12 64 0.8511301036613017 0 6626.0 0.8511301036613017 1
gene  1 13 64 -0.45450587329790526 0 6627.0 -0.45450587329790526 1
gene  1 15 64 0.5448859794934536 0 6629.0 0.5448859794934536 1
gene  1 24 64 -0.7807011575377318 0 6638.0 -0.7807011575377318 1
gene  1 26 64 0.9419114682335485 0 6640.0 0.9419114682335485 1
gene  1 27 64 -0.12830843947713522 0 6641.0 -0.12830843947713522 1
gene  1 28 64 0.9952740863712676 0 6642.0 0.9952740863712676 1
gene  1 30 64 0.5257591442681341 0 6644.0 0.5257591442681341 1
gene  1 32 64 -0.5013355409012263 0 6646.0 -0.5013355409012263 1
gene  1 33 64 -0.1659506699626575 0 6647.0 -0.1659506699626575 1
gene  1 37 64 -0.5911505037655989 0 6651.0 -0.5911505037655989 1
gene  1 38 64 0.15300819023193135 0 6652.0 0.15300819023193135 1
gene  1 39 64 -0.19757443021615684 0 6653.0 -0.19757443021615684 1
gene  1 40 64 -0.26662725668233855 0 6654.0 -0.26662725668233855 1
gene  1 42 64 -0.7471438504618175 0 6656.0 -0.7471438504618175 1
gene  1 43 64 0.1434605938197394 0 6657.0 0.1434605938197394 1
gene  1 45 64 -0.16591945094338378 0 6659.0 -0.16591945094338378 1
gene  1 46 64 -0.7203393856708528 0 6660.0 -0.7203393856708528 1
gene  1 49 64 -0.5824349255410824 0 6663.0 -0.5824349255410824 1
gene  1 50 64 0.8432508501063081 0 6664.0 0.8432508501063081 1
gene  1 51 64 -0.14187588146290375 0 6665.0 -0.14187588146290375 1
gene  1 56 64 0.8596214381667393 0 6670.0 0.8596214381667393 1
gene  1 57 64 0.32067207888672455 0 6671.0 0.32067207888672455 1
gene  1 59 64 0.38574392703229066 0 6673.0 0.38574392703229066 1
gene  1 62 64 -0.2742942679220006 0 6676.0 -0.2742942679220006 1
gene  1 1 65 0.9958784254382465 0 6720.0 0.9958784254382465 1
gene  1 5 65 -0.7751214422273776 0 6724.0 -0.7751214422273776 1
gene  1 8 65 -0.5362205042774297 0 6727.0 -0.5362205042774297 1
gene  1 10 65 -0.2359311090152848 0 6729.0 -0.2359311090152848 1
gene  1 13 65 -0.7562373204752891 0 6732.0 -0.7562373204752891 1
gene  1 14 65 -0.8057955202558007 0 6733.0 -0.8057955202558007 1
gene  1 16 65 -0.28560498244731003 0 6735.0 -0.28560498244731003 1
gene  1 18 65 -0.9647636782140873 0 6737.0 -0.9647636782140873 1
gene  1 19 65 0.3710979732461993 0 6738.0 0.3710979732461993 1
gene  1 21 65 -0.6315987433112191 0 6740.0 -0.6315987433112191 1
gene  1 22 65 -0.9937972635524501 0 6741.0 -0.9937972635524501 1
gene  1 23 65 0.3406236428703445 0 6742.0 0.3406236428703445 1
gene  1 24 65 -0.7454697204026215 0 6743.0 -0.7454697204026215 1
gene  1 27 65 -0.4646556811402973 0 6746.0 -0.4646556811402973 1
gene  1 30 65 -0.19191926058613107 0 6749.0 -0.19191926058613107 1
gene  1 32 65 -0.3331488283739462 0 6751.0 -0.3331488283739462 1
gene  1 34 65 0.9624922664314957 0 6753.0 0.9624922664314957 1
gene  1 36 65 0.07176098552580357 0 6755.0 0.07176098552580357 1
gene  1 40 65 0.6096690349745627 0 6759.0 0.6096690349745627 1
gene  1 41 65 0.8879367466402681 0 6760.0 0.8879367466402681 1
gene  1 44 65 -0.5209238236543798 0 6763.0 -0.5209238236543798 1
gene  1 47 65 0.8845130221111707 0 6766.0 0.8845130221111707 1
gene  1 48 65 0.4593428895780355 0 6767.0 0.4593428895780355 1
gene  1 50 65 0.7717513420393369 0 6769.0 0.7717513420393369 1
gene  1 53 65 0.07737828409509595 0 6772.0 0.07737828409509595 1
gene  1 55 65 0.10972715445912173 0 6774.0 0.10972715445912173 1
gene  1 57 65 0.6391613594650614 0 6776.0 0.6391613594650614 1
gene  1 59 65 0.23269418949487752 0 6778.0 0.23269418949487752 1
gene  1 61 65 -0.6481167916824885 0 6780.0 -0.6481167916824885 1
gene  1 62 65 -0.7291233544055661 0 6781.0 -0.7291233544055661 1
gene  1 63 65 -0.01942483468970868 0 6782.0 -0.01942483468970868 1
gene  1 64 65 -0.08978463570411155 0 6783.0 -0.08978463570411155 1
gene  1 1 105 -0.1955412936261146 0 10920.0 -0.1955412936261146 1
gene  1 2 105 0.2253599726264668 0 10921.0 0.2253599726264668 1
gene  1 9 105 0.8467013277688944 0 10928.0 0.8467013277688944 1
gene  1 13 105 0.4251584730732517 0 10932.0 0.4251584730732517 1
gene  1 16 105 0.7743570279673455 0 10935.0 0.7743570279673455 1
gene  1 17 105 -0.5929403306231819 0 10936.0 -0.5929403306231819 1
gene  1 21 105 -0.0915668667028442 0 10940.0 -0.0915668667028442 1
gene  1 24 105 0.5722257272714161 0 10943.0 0.5722257272714161 1
gene  1 27 105 -0.106711526847316 0 10946.0 -0.106711526847316 1
gene  1 28 105 0.5594207167612522 0 10947.0 0.5594207167612522 1
gene  1 29 105 -0.11910275632603584 0 10948.0 -0.11910275632603584 1
gene  1 30 105 0.47012982738697884 0 10949.0 0.47012982738697884 1
gene  1 31 105 0.6813902018852827 0 10950.0 0.6813902018852827 1
gene  1 32 105 -0.6861408080118852 0 10951.0 -0.6861408080118852 1
gene  1 34 105 -0.770006979116686 0 10953.0 -0.770006979116686 1
gene  1 36 105 0.5686093861859511 0 10955.0 0.5686093861859511 1
gene  1 37 105 0.48814358179946227 0 10956.0 0.48814358179946227 1
gene  1 40 105 0.9792046399693173 0 10959.0 0.9792046399693173 1
gene  1 42 105 0.9922738677294205 0 10961.0 0.9922738677294205 1
gene  1 43 105 0.43213452087779314 0 10962.0 0.43213452087779314 1
gene  1 45 105 0.9851028062399793 0 10964.0 0.9851028062399793 1
gene  1 48 105 -0.02085288729239032 0 10967.0 -0.02085288729239032 1
gene  1 50 105 0.7942903922849898 0 10969.0 0.7942903922849898 1
gene  1 51 105 0.6066072999663193 0 10970.0 0.6066072999663193 1
gene  1 54 105 0.20754615147445998 0 10973.0 0.20754615147445998 1
gene  1 55 105 -0.23825926499541272 0 10974.0 -0.23825926499541272 1
gene  1 59 105 -0.032113077300880755 0 10978.0 -0.032113077300880755 1
gene  1 60 105 0.5089865305504718 0 10979.0 0.5089865305504718 1
gene  1 61 105 0.33442558280191004 0 10980.0 0.33442558280191004 1
gene  1 62 105 0.43009898264736235 0 10981.0 0.43009898264736235 1
genomeend 32
