genomestart  46
trait 1 0.0 0.0 0.0 0.0 0.0 0.0 0.0 0.0 0.0 0.0 0.0 0.0 0.0 0.0 0.0 0.0 0.0 0.0 0.0 0.0 
node 1 1 1 1
node 2 1 1 1
node 3 1 1 1
node 4 1 1 3
node 5 1 0 0
node 6 1 0 0
node 7 1 0 0
node 8 1 0 0
node 9 1 0 0
node 10 1 0 0
node 11 1 0 0
node 12 1 0 0
node 13 1 0 0
node 14 1 0 0
node 15 1 0 0
node 16 1 0 0
node 17 1 0 0
node 18 1 0 0
node 19 1 0 0
node 20 1 0 0
node 21 1 0 0
node 22 1 0 0
node 23 1 0 0
node 24 1 0 0
node 25 1 0 0
node 26 1 0 0
node 105 1 0 2
gene  1 1 5 0.19314370752520682 0 420.0 0.19314370752520682 1
gene  1 3 5 0.8587959447992348 0 422.0 0.8587959447992348 1
gene  1 3 6 0.8957776021630035 0 527.0 0.8957776021630035 1
gene  1 5 6 -0.6326733144907633 0 529.0 -0.6326733144907633 1
gene  1 1 7 0.18695572312494269 0 630.0 0.18695572312494269 1
gene  1 2 7 0.9769686615064597 0 631.0 0.9769686615064597 1
gene  1 3 7 -0.43081896412883447 0 632.0 -0.43081896412883447 1
gene  1 4 7 -0.005190798901044458 0 633.0 -0.005190798901044458 1
gene  1 6 7 -0.29012569951587 0 635.0 -0.29012569951587 1
gene  1 1 8 0.7544239701079835 0 735.0 0.7544239701079835 1
gene  1 2 8 -0.3883546232655233 0 736.0 -0.3883546232655233 1
gene  1 3 8 0.900820507124899 0 737.0 0.900820507124899 1
gene  1 5 8 -0.6777323266917852 0 739.0 -0.6777323266917852 1
gene  1 6 8 0.02825714977287186 0 740.0 0.02825714977287186 1
gene  1 7 8 0.5863586732214746 0 741.0 0.5863586732214746 1
gene  1 7 9 -0.5852363274091221 0 846.0 -0.5852363274091221 1
gene  1 1 10 0.4772265066302793 0 945.0 0.4772265066302793 1
gene  1 4 10 0.6335511516211155 0 948.0 0.6335511516211155 1
gene  1 7 10 -0.8979317792730479 0 951.0 -0.8979317792730479 1
gene  1 8 10 -0.06268056926470678 0 952.0 -0.06268056926470678 1
gene  1 9 10 -0.14684602485917697 0 953.0 -0.14684602485917697 1
gene  1 2 11 0.5666298822708813 0 1051.0 0.5666298822708813 1
gene  1 3 11 0.9823638757495965 0 1052.0 0.9823638757495965 1
gene  1 4 11 -0.5720578160188609 0 1053.0 -0.5720578160188609 1
gene  1 6 11 0.6007670159887614 0 1055.0 0.6007670159887614 1
gene  1 8 11 -0.3645402382323849 0 1057.0 -0.3645402382323849 1
gene  1 1 12 -0.39453725893850666 0 1155.0 -0.39453725893850666 1
gene  1 2 12 0.696047129182436 0 1156.0 0.696047129182436 1
gene  1 3 12 0.7598768116387248 0 1157.0 0.7598768116387248 1
gene  1 4 12 -0.8695865478701795 0 1158.0 -0.8695865478701795 1
gene  1 8 12 -0.009445383291751153 0 1162.0 -0.009445383291751153 1
gene  1 9 12 0.10410084053262325 0 1163.0 0.10410084053262325 1
gene  1 10 12 0.14798926401748258 0 1164.0 0.14798926401748258 1
gene  1 1 13 -0.8143772791684211 0 1260.0 -0.8143772791684211 1
gene  1 3 13 0.18235520430385155 0 1262.0 0.18235520430385155 1
gene  1 6 13 -0.8103108215092977 0 1265.0 -0.8103108215092977 1
gene  1 7 13 0.27486398406783086 0 1266.0 0.27486398406783086 1
gene  1 8 13 0.5561278037527244 0 1267.0 0.5561278037527244 1
gene  1 9 13 -0.6596735330668066 0 1268.0 -0.6596735330668066 1
gene  1 12 13 -0.17569756604657805 0 1271.0 -0.17569756604657805 1
gene  1 2 14 -0.26847919773980866 0 1366.0 -0.26847919773980866 1
gene  1 3 14 -0.6379961566354421 0 1367.0 -0.6379961566354421 1
gene  1 8 14 -0.028270986329791192 0 1372.0 -0.028270986329791192 1
gene  1 9 14 0.9178074171176878 0 1373.0 0.9178074171176878 1
gene  1 10 14 -0.06796534525615738 0 1374.0 -0.06796534525615738 1
gene  1 12 14 0.28598841541604425 0 1376.0 0.28598841541604425 1
gene  1 2 15 -0.7436306214969819 0 1471.0 -0.7436306214969819 1
gene  1 4 15 -0.7267487421495663 0 1473.0 -0.7267487421495663 1
gene  1 5 15 -0.35312704184506283 0 1474.0 -0.35312704184506283 1
gene  1 8 15 -0.13530704433033136 0 1477.0 -0.13530704433033136 1
gene  1 9 15 0.2958533400607064 0 1478.0 0.2958533400607064 1
gene  1 10 15 0.01600205459155768 0 1479.0 0.01600205459155768 1
gene  1 14 15 -0.7636364715935239 0 1483.0 -0.7636364715935239 1
gene  1 4 16 -0.38965740790422 0 1578.0 -0.38965740790422 1
gene  1 7 16 0.3777775888856655 0 1581.0 0.3777775888856655 1
gene  1 10 16 0.07041154466840349 0 1584.0 0.07041154466840349 1
gene  1 13 16 0.2072167930585408 0 1587.0 0.2072167930585408 1
gene  1 14 16 -0.76757357818666 0 1588.0 -0.76757357818666 1
gene  1 1 17 -0.516139368545455 0 1680.0 -0.516139368545455 1
gene  1 4 17 -0.7764997148187499 0 1683.0 -0.7764997148187499 1
gene  1 7 17 -0.6372677923784321 0 1686.0 -0.6372677923784321 1
gene  1 9 17 0.29475555162595424 0 1688.0 0.29475555162595424 1
gene  1 11 17 -0.25406711038334184 0 1690.0 -0.25406711038334184 1
gene  1 12 17 0.037303230961339584 0 1691.0 0.037303230961339584 1
gene  1 14 17 -0.42161722892135467 0 1693.0 -0.42161722892135467 1
gene  1 1 18 -0.6210715957419578 0 1785.0 -0.6210715957419578 1
gene  1 8 18 -0.8549087161781564 0 1792.0 -0.8549087161781564 1
gene  1 12 18 0.3628484524728304 0 1796.0 0.3628484524728304 1
gene  1 15 18 -0.7599759648831388 0 1799.0 -0.7599759648831388 1
gene  1 1 19 0.7325040229368629 0 1890.0 0.7325040229368629 1
gene  1 2 19 -0.591431376884498 0 1891.0 -0.591431376884498 1
gene  1 3 19 0.38758120456685574 0 1892.0 0.38758120456685574 1
gene  1 5 19 -0.8321815481964071 0 1894.0 -0.8321815481964071 1
gene  1 6 19 0.8960024748516232 0 1895.0 0.8960024748516232 1
gene  1 7 19 0.9332034677105046 0 1896.0 0.9332034677105046 1
gene  1 8 19 -0.7688285306903132 0 1897.0 -0.7688285306903132 1
gene  1 9 19 0.8757532254800233 0 1898.0 0.8757532254800233 1
gene  1 11 19 -0.419932486359578 0 1900.0 -0.419932486359578 1
gene  1 14 19 0.5252165504756289 0 1903.0 0.5252165504756289 1
gene  1 15 19 -0.05886241208716059 0 1904.0 -0.05886241208716059 1
gene  1 17 19 0.9623438445623143 0 1906.0 0.9623438445623143 1
gene  1 1 20 -0.3824219107889426 0 1995.0 -0.3824219107889426 1
gene  1 2 20 -0.4236706830291458 0 1996.0 -0.4236706830291458 1
gene  1 3 20 -0.3823970361562067 0 1997.0 -0.3823970361562067 1
gene  1 4 20 0.24043638249605437 0 1998.0 0.24043638249605437 1
gene  1 5 20 0.2191390541056556 0 1999.0 0.2191390541056556 1
gene  1 7 20 -0.015833425928287514 0 2001.0 -0.015833425928287514 1
gene  1 9 20 -0.6782962787109775 0 2003.0 -0.6782962787109775 1
gene  1 10 20 -0.06753487877221753 0 2004.0 -0.06753487877221753 1
gene  1 11 20 -0.8624850324197412 0 2005.0 -0.8624850324197412 1
gene  1 15 20 -0.7798747957777378 0 2009.0 -0.7798747957777378 1
gene  1 17 20 0.6376844069352708 0 2011.0 0.6376844069352708 1
gene  1 19 20 -0.1099647862515255 0 2013.0 -0.1099647862515255 1
gene  1 1 21 0.6743281424127999 0 2100.0 0.6743281424127999 1
gene  1 2 21 -0.15183681824660544 0 2101.0 -0.15183681824660544 1
gene  1 3 21 -0.4712068357525623 0 2102.0 -0.4712068357525623 1
gene  1 5 21 -0.8424213945979033 0 2104.0 -0.8424213945979033 1
gene  1 8 21 -0.44959739253739206 0 2107.0 -0.44959739253739206 1
gene  1 10 21 0.3590473115276438 0 2109.0 0.3590473115276438 1
gene  1 11 21 0.11841545224002437 0 2110.0 0.11841545224002437 1
gene  1 12 21 -0.24215494975254692 0 2111.0 -0.24215494975254692 1
gene  1 14 21 0.32051695125889923 0 2113.0 0.32051695125889923 1
gene  1 16 21 0.9853433585163129 0 2115.0 0.9853433585163129 1
gene  1 19 21 -0.24657143811379634 0 2118.0 -0.24657143811379634 1
gene  1 20 21 -0.013106648273132793 0 2119.0 -0.013106648273132793 1
gene  1 3 22 0.040100571344875435 0 2207.0 0.040100571344875435 1
gene  1 8 22 0.07081193451029266 0 2212.0 0.07081193451029266 1
gene  1 9 22 0.32085437202548184 0 2213.0 0.32085437202548184 1
gene  1 10 22 0.671726562593086 0 2214.0 0.671726562593086 1
gene  1 11 22 -0.24471462596456772 0 2215.0 -0.24471462596456772 1
gene  1 13 22 0.7691415935069522 0 2217.0 0.7691415935069522 1
gene  1 16 22 -0.5312050050241918 0 2220.0 -0.5312050050241918 1
gene  1 17 22 -0.9163122820903633 0 2221.0 -0.9163122820903633 1
gene  1 18 22 0.3119098474928419 0 2222.0 0.3119098474928419 1
gene  1 19 22 0.52524288119726 0 2223.0 0.52524288119726 1
gene  1 21 22 -0.472849728246154 0 2225.0 -0.472849728246154 1
gene  1 1 23 0.13257303358369577 0 2310.0 0.13257303358369577 1
gene  1 2 23 -0.061042947268932335 0 2311.0 -0.061042947268932335 1
gene  1 7 23 0.6650440339002351 0 2316.0 0.6650440339002351 1
gene  1 9 23 -0.1598701033843587 0 2318.0 -0.1598701033843587 1
gene  1 10 23 -0.7661946455070797 0 2319.0 -0.7661946455070797 1
gene  1 11 23 0.05706104853769567 0 2320.0 0.05706104853769567 1
gene  1 15 23 0.4631850884369051 0 2324.0 0.4631850884369051 1
gene  1 17 23 -0.33778168113433726 0 2326.0 -0.33778168113433726 1
gene  1 22 23 0.8342771196816323 0 2331.0 0.8342771196816323 1
gene  1 1 24 -0.7356808541421506 0 2415.0 -0.7356808541421506 1
gene  1 3 24 0.6619760103939297 0 2417.0 0.6619760103939297 1
gene  1 8 24 0.7076351894911523 0 2422.0 0.7076351894911523 1
gene  1 10 24 0.626831510831809 0 2424.0 0.626831510831809 1
gene  1 12 24 0.08141223581130208 0 2426.0 0.08141223581130208 1
gene  1 14 24 0.030085147661710776 0 2428.0 0.030085147661710776 1
gene  1 15 24 0.8081907535124269 0 2429.0 0.8081907535124269 1
gene  1 19 24 0.8516304082878647 0 2433.0 0.8516304082878647 1
gene  1 20 24 0.5656796895741952 0 2434.0 0.5656796895741952 1
gene  1 22 24 -0.5799916809249834 0 2436.0 -0.5799916809249834 1
gene  1 23 24 0.07365409901449949 0 2437.0 0.07365409901449949 1
gene  1 2 25 -0.14454781548325324 0 2521.0 -0.14454781548325324 1
gene  1 7 25 -0.44478514033688554 0 2526.0 -0.44478514033688554 1
gene  1 8 25 0.20165183992639024 0 2527.0 0.20165183992639024 1
gene  1 9 25 0.31359362753487363 0 2528.0 0.31359362753487363 1
gene  1 10 25 0.1564228373774248 0 2529.0 0.1564228373774248 1
gene  1 11 25 -0.07760961318440762 0 2530.0 -0.07760961318440762 1
gene  1 12 25 0.6428522278853503 0 2531.0 0.6428522278853503 1
gene  1 15 25 0.29214255607066164 0 2534.0 0.29214255607066164 1
gene  1 17 25 0.8491320508848329 0 2536.0 0.8491320508848329 1
gene  1 19 25 0.44862048662478915 0 2538.0 0.44862048662478915 1
gene  1 21 25 0.3854858244790682 0 2540.0 0.3854858244790682 1
gene  1 22 25 0.6304681438557238 0 2541.0 0.6304681438557238 1
gene  1 24 25 -0.31002637454283555 0 2543.0 -0.31002637454283555 1
gene  1 1 26 0.6676619934742156 0 2625.0 0.6676619934742156 1
gene  1 6 26 -0.1769977842712409 0 2630.0 -0.1769977842712409 1
gene  1 7 26 0.2566778877692859 0 2631.0 0.2566778877692859 1
gene  1 8 26 0.3066274791143877 0 2632.0 0.3066274791143877 1
gene  1 12 26 -0.5057599834952151 0 2636.0 -0.5057599834952151 1
gene  1 14 26 0.9073881988170142 0 2638.0 0.9073881988170142 1
gene  1 17 26 -0.5896162265936289 0 2641.0 -0.5896162265936289 1
gene  1 19 26 -0.04330511893158806 0 2643.0 -0.04330511893158806 1
gene  1 20 26 -0.45424689772769744 0 2644.0 -0.45424689772769744 1
gene  1 21 26 -0.5386884916652135 0 2645.0 -0.5386884916652135 1
gene  1 22 26 -0.49805040832367486 0 2646.0 -0.49805040832367486 1
gene  1 24 26 0.5987653269398667 0 2648.0 0.5987653269398667 1
gene  1 25 26 0.8482573305201361 0 2649.0 0.8482573305201361 1
gene  1 3 105 0.7443779861879163 0 10922.0 0.7443779861879163 1
gene  1 4 105 0.4270902860479865 0 10923.0 0.4270902860479865 1
gene  1 5 105 0.3771413365618942 0 10924.0 0.3771413365618942 1
gene  1 7 105 0.057288025672405984 0 10926.0 0.057288025672405984 1
gene  1 8 105 -0.38378650640478107 0 10927.0 -0.38378650640478107 1
gene  1 10 105 -0.4537464093974253 0 10929.0 -0.4537464093974253 1
gene  1 11 105 -0.5152401103075197 0 10930.0 -0.5152401103075197 1
gene  1 12 105 0.9441592524104329 0 10931.0 0.9441592524104329 1
gene  1 13 105 -0.4885186106280426 0 10932.0 -0.4885186106280426 1
gene  1 14 105 -0.11959439890179069 0 10933.0 -0.11959439890179069 1
gene  1 18 105 0.5823750926467292 0 10937.0 0.5823750926467292 1
gene  1 19 105 0.8553324897724786 0 10938.0 0.8553324897724786 1
gene  1 22 105 -0.8760957844332831 0 10941.0 -0.8760957844332831 1
gene  1 23 105 0.8087440015658627 0 10942.0 0.8087440015658627 1
gene  1 24 105 -0.47490968466292816 0 10943.0 -0.47490968466292816 1
genomeend 46
