genomestart  28
trait 1 0.0 0.0 0.0 0.0 0.0 0.0 0.0 0.0 0.0 0.0 0.0 0.0 0.0 0.0 0.0 0.0 0.0 0.0 0.0 0.0 
node 1 1 1 1
node 2 1 1 1
node 3 1 1 1
node 4 1 1 3
node 5 1 0 0
node 6 1 0 0
node 7 1 0 0
node 8 1 0 0
node 9 1 0 0
node 10 1 0 0
node 11 1 0 0
node 12 1 0 0
node 13 1 0 0
node 14 1 0 0
node 15 1 0 0
node 16 1 0 0
node 17 1 0 0
node 18 1 0 0
node 19 1 0 0
node 20 1 0 0
node 21 1 0 0
node 22 1 0 0
node 23 1 0 0
node 24 1 0 0
node 105 1 0 2
gene  1 2 5 -0.10869180649577737 0 421.0 -0.10869180649577737 1
gene  1 3 5 -0.5616840371395729 0 422.0 -0.5616840371395729 1
gene  1 1 6 0.30169006120629693 0 525.0 0.30169006120629693 1
gene  1 3 6 -0.6816941721381921 0 527.0 -0.6816941721381921 1
gene  1 5 6 -0.9935650256101451 0 529.0 -0.9935650256101451 1
gene  1 5 7 0.10972962241813422 0 634.0 0.10972962241813422 1
gene  1 1 8 -0.4735454558227217 0 735.0 -0.4735454558227217 1
gene  1 3 8 -0.7245506948609409 0 737.0 -0.7245506948609409 1
gene  1 4 8 -0.4327419110066659 0 738.0 -0.4327419110066659 1
gene  1 7 8 0.8147371284382032 0 741.0 0.8147371284382032 1
gene  1 2 9 -0.1947124868855885 0 841.0 -0.1947124868855885 1
gene  1 3 9 -0.9981227939094598 0 842.0 -0.9981227939094598 1
gene  1 4 9 0.5058574370949792 0 843.0 0.5058574370949792 1
gene  1 6 9 0.9758974594720417 0 845.0 0.9758974594720417 1
gene  1 8 9 0.6989052985059374 0 847.0 0.6989052985059374 1
gene  1 2 10 0.6366231204085964 0 946.0 0.6366231204085964 1
gene  1 5 10 -0.7376368629152135 0 949.0 -0.7376368629152135 1
gene  1 6 10 0.4028029123835425 0 950.0 0.4028029123835425 1
gene  1 1 11 -0.8898659536583294 0 1050.0 -0.8898659536583294 1
gene  1 2 11 -0.7556291786129531 0 1051.0 -0.7556291786129531 1
gene  1 3 11 0.6946802852888151 0 1052.0 0.6946802852888151 1
gene  1 4 11 -0.34205800558214994 0 1053.0 -0.34205800558214994 1
gene  1 7 11 0.1318957911645674 0 1056.0 0.1318957911645674 1
gene  1 8 11 0.4651349635368298 0 1057.0 0.4651349635368298 1
gene  1 9 11 -0.7966733508513171 0 1058.0 -0.7966733508513171 1
gene  1 10 11 -0.808599124880732 0 1059.0 -0.808599124880732 1
gene  1 1 12 -0.30921002694459054 0 1155.0 -0.30921002694459054 1
gene  1 3 12 0.1657592333609076 0 1157.0 0.1657592333609076 1
gene  1 4 12 0.6696947650226281 0 1158.0 0.6696947650226281 1
gene  1 5 12 0.18458367835713374 0 1159.0 0.18458367835713374 1
gene  1 6 12 0.4361032367721156 0 1160.0 0.4361032367721156 1
gene  1 8 12 -0.7868172686964378 0 1162.0 -0.7868172686964378 1
gene  1 1 13 -0.03792038662850494 0 1260.0 -0.03792038662850494 1
gene  1 5 13 -0.5837837014748415 0 1264.0 -0.5837837014748415 1
gene  1 6 13 -0.05232549830468913 0 1265.0 -0.05232549830468913 1
gene  1 7 13 0.7185043372808883 0 1266.0 0.7185043372808883 1
gene  1 8 13 0.05345413623456552 0 1267.0 0.05345413623456552 1
gene  1 11 13 0.051200307189909644 0 1270.0 0.051200307189909644 1
gene  1 12 13 -0.32186450330903915 0 1271.0 -0.32186450330903915 1
gene  1 1 14 0.602032125611788 0 1365.0 0.602032125611788 1
gene  1 3 14 0.12275716667912495 0 1367.0 0.12275716667912495 1
gene  1 5 14 0.8880165925114829 0 1369.0 0.8880165925114829 1
gene  1 6 14 -0.02495481130221211 0 1370.0 -0.02495481130221211 1
gene  1 8 14 -0.8878110201265805 0 1372.0 -0.8878110201265805 1
gene  1 9 14 0.7070807839131416 0 1373.0 0.7070807839131416 1
gene  1 11 14 -0.14481882857305983 0 1375.0 -0.14481882857305983 1
gene  1 12 14 0.45841046700280774 0 1376.0 0.45841046700280774 1
gene  1 13 14 0.9661519690621235 0 1377.0 0.9661519690621235 1
gene  1 5 15 0.4926927497621124 0 1474.0 0.4926927497621124 1
gene  1 8 15 0.9169003681820262 0 1477.0 0.9169003681820262 1
gene  1 11 15 -0.9634983223562738 0 1480.0 -0.9634983223562738 1
gene  1 13 15 -0.5778296913235066 0 1482.0 -0.5778296913235066 1
gene  1 14 15 -0.46815497502055126 0 1483.0 -0.46815497502055126 1
gene  1 2 16 -0.48196047995071534 0 1576.0 -0.48196047995071534 1
gene  1 4 16 -0.31810492559529846 0 1578.0 -0.31810492559529846 1
gene  1 6 16 0.2804245042704828 0 1580.0 0.2804245042704828 1
gene  1 7 16 0.2684700566990261 0 1581.0 0.2684700566990261 1
gene  1 8 16 -0.44203601741576015 0 1582.0 -0.44203601741576015 1
gene  1 10 16 -0.35484765581838884 0 1584.0 -0.35484765581838884 1
gene  1 11 16 0.6847494273500383 0 1585.0 0.6847494273500383 1
gene  1 13 16 -0.09194698855542938 0 1587.0 -0.09194698855542938 1
gene  1 5 17 -0.9393435413224159 0 1684.0 -0.9393435413224159 1
gene  1 9 17 -0.8023580150006948 0 1688.0 -0.8023580150006948 1
gene  1 11 17 0.48484684167976444 0 1690.0 0.48484684167976444 1
gene  1 13 17 0.24190253718792376 0 1692.0 0.24190253718792376 1
gene  1 15 17 0.2030309058659232 0 1694.0 0.2030309058659232 1
gene  1 3 18 -0.7559203372482636 0 1787.0 -0.7559203372482636 1
gene  1 6 18 0.5328557272813063 0 1790.0 0.5328557272813063 1
gene  1 8 18 -0.05294462640463593 0 1792.0 -0.05294462640463593 1
gene  1 9 18 -0.31567663371271937 0 1793.0 -0.31567663371271937 1
gene  1 13 18 0.2380505293609314 0 1797.0 0.2380505293609314 1
gene  1 14 18 -0.20123579177026407 0 1798.0 -0.20123579177026407 1
gene  1 16 18 0.5260863334298485 0 1800.0 0.5260863334298485 1
gene  1 4 19 -0.2516488181423947 0 1893.0 -0.2516488181423947 1
gene  1 8 19 -0.740892118369429 0 1897.0 -0.740892118369429 1
gene  1 11 19 -0.4209863676792517 0 1900.0 -0.4209863676792517 1
gene  1 13 19 -0.2981982443552039 0 1902.0 -0.2981982443552039 1
gene  1 14 19 0.1929294329164145 0 1903.0 0.1929294329164145 1
gene  1 15 19 -0.2913140115072129 0 1904.0 -0.2913140115072129 1
gene  1 1 20 0.2740957210416215 0 1995.0 0.2740957210416215 1
gene  1 4 20 0.7235769104137696 0 1998.0 0.7235769104137696 1
gene  1 5 20 0.5523923760819933 0 1999.0 0.5523923760819933 1
gene  1 7 20 -0.646507042523686 0 2001.0 -0.646507042523686 1
gene  1 9 20 -0.08685030705158603 0 2003.0 -0.08685030705158603 1
gene  1 10 20 -0.44732568751483515 0 2004.0 -0.44732568751483515 1
gene  1 13 20 -0.3823287798088958 0 2007.0 -0.3823287798088958 1
gene  1 15 20 -0.5222683659862389 0 2009.0 -0.5222683659862389 1
gene  1 19 20 -0.15004947383306755 0 2013.0 -0.15004947383306755 1
gene  1 5 21 -0.23481399761518063 0 2104.0 -0.23481399761518063 1
gene  1 6 21 -0.1916603387638186 0 2105.0 -0.1916603387638186 1
gene  1 10 21 0.9469776286014672 0 2109.0 0.9469776286014672 1
gene  1 12 21 0.5617131010993875 0 2111.0 0.5617131010993875 1
gene  1 14 21 0.30609023005014235 0 2113.0 0.30609023005014235 1
gene  1 17 21 0.08505456821898205 0 2116.0 0.08505456821898205 1
gene  1 2 22 0.6998276710906371 0 2206.0 0.6998276710906371 1
gene  1 5 22 0.12351153188219 0 2209.0 0.12351153188219 1
gene  1 7 22 -0.5605240400070565 0 2211.0 -0.5605240400070565 1
gene  1 8 22 0.4392236689628656 0 2212.0 0.4392236689628656 1
gene  1 9 22 0.4698700198160831 0 2213.0 0.4698700198160831 1
gene  1 11 22 0.6467415343865611 0 2215.0 0.6467415343865611 1
gene  1 17 22 0.901284568799829 0 2221.0 0.901284568799829 1
gene  1 18 22 0.5860863172633954 0 2222.0 0.5860863172633954 1
gene  1 20 22 -0.6099417617277564 0 2224.0 -0.6099417617277564 1
gene  1 21 22 0.6569473343425778 0 2225.0 0.6569473343425778 1
gene  1 2 23 0.15202474062467564 0 2311.0 0.15202474062467564 1
gene  1 3 23 -0.6411159272785025 0 2312.0 -0.6411159272785025 1
gene  1 4 23 0.7630029967260396 0 2313.0 0.7630029967260396 1
gene  1 5 23 -0.09483933233053399 0 2314.0 -0.09483933233053399 1
gene  1 8 23 -0.5542242066411015 0 2317.0 -0.5542242066411015 1
gene  1 10 23 -0.3318778679289678 0 2319.0 -0.3318778679289678 1
gene  1 12 23 -0.9236493146260134 0 2321.0 -0.9236493146260134 1
gene  1 13 23 -0.7584758927902907 0 2322.0 -0.7584758927902907 1
gene  1 15 23 0.5323017371714102 0 2324.0 0.5323017371714102 1
gene  1 16 23 -0.5021346799091384 0 2325.0 -0.5021346799091384 1
gene  1 17 23 -0.7397707722312246 0 2326.0 -0.7397707722312246 1
gene  1 18 23 -0.5280948895323834 0 2327.0 -0.5280948895323834 1
gene  1 19 23 0.7884742142841499 0 2328.0 0.7884742142841499 1
gene  1 20 23 -0.6185143474731881 0 2329.0 -0.6185143474731881 1
gene  1 1 24 0.743076235307752 0 2415.0 0.743076235307752 1
gene  1 3 24 0.7677374887803738 0 2417.0 0.7677374887803738 1
gene  1 5 24 -0.04842212703362181 0 2419.0 -0.04842212703362181 1
gene  1 6 24 -0.7390030267144994 0 2420.0 -0.7390030267144994 1
gene  1 7 24 0.26643408599133966 0 2421.0 0.26643408599133966 1
gene  1 8 24 -0.1610007427209702 0 2422.0 -0.1610007427209702 1
gene  1 9 24 -0.11450335026137548 0 2423.0 -0.11450335026137548 1
gene  1 13 24 0.8367319132564617 0 2427.0 0.8367319132564617 1
gene  1 15 24 0.7140204369986562 0 2429.0 0.7140204369986562 1
gene  1 16 24 0.8628623986166386 0 2430.0 0.8628623986166386 1
gene  1 17 24 0.7222960313913251 0 2431.0 0.7222960313913251 1
gene  1 18 24 -0.35184080945809526 0 2432.0 -0.35184080945809526 1
gene  1 20 24 -0.6098055764147793 0 2434.0 -0.6098055764147793 1
gene  1 21 24 0.5333937591365008 0 2435.0 0.5333937591365008 1
gene  1 22 24 0.9497799211488154 0 2436.0 0.9497799211488154 1
gene  1 1 105 0.2836575351761549 0 10920.0 0.2836575351761549 1
gene  1 2 105 0.08302228412620127 0 10921.0 0.08302228412620127 1
gene  1 3 105 0.15703993824627283 0 10922.0 0.15703993824627283 1
gene  1 4 105 -0.24199137833287132 0 10923.0 -0.24199137833287132 1
gene  1 5 105 -0.8719478076867752 0 10924.0 -0.8719478076867752 1
gene  1 6 105 0.6373890646589722 0 10925.0 0.6373890646589722 1
gene  1 7 105 0.6846044507045105 0 10926.0 0.6846044507045105 1
gene  1 9 105 -0.11739424968134482 0 10928.0 -0.11739424968134482 1
gene  1 12 105 -0.9583524429839375 0 10931.0 -0.9583524429839375 1
gene  1 14 105 0.7848277359812531 0 10933.0 0.7848277359812531 1
gene  1 17 105 -0.40260204477132755 0 10936.0 -0.40260204477132755 1
gene  1 20 105 -0.17975331067465194 0 10939.0 -0.17975331067465194 1
gene  1 21 105 0.8980015181113351 0 10940.0 0.8980015181113351 1
gene  1 22 105 0.3544148246030556 0 10941.0 0.3544148246030556 1
genomeend 28
