genomestart  49
trait 1 0.0 0.0 0.0 0.0 0.0 0.0 0.0 0.0 0.0 0.0 0.0 0.0 0.0 0.0 0.0 0.0 0.0 0.0 0.0 0.0 
node 1 1 1 1
node 2 1 1 1
node 3 1 1 1
node 4 1 1 3
node 5 1 0 0
node 6 1 0 0
node 7 1 0 0
node 8 1 0 0
node 9 1 0 0
node 10 1 0 0
node 11 1 0 0
node 12 1 0 0
node 13 1 0 0
node 14 1 0 0
node 15 1 0 0
node 16 1 0 0
node 17 1 0 0
node 18 1 0 0
node 19 1 0 0
node 20 1 0 0
node 21 1 0 0
node 22 1 0 0
node 23 1 0 0
node 24 1 0 0
node 25 1 0 0
node 26 1 0 0
node 27 1 0 0
node 28 1 0 0
node 29 1 0 0
node 30 1 0 0
node 31 1 0 0
node 32 1 0 0
node 33 1 0 0
node 34 1 0 0
node 35 1 0 0
node 36 1 0 0
node 37 1 0 0
node 38 1 0 0
node 39 1 0 0
node 40 1 0 0
node 41 1 0 0
node 105 1 0 2
gene  1 1 5 -0.9417220887257429 0 420.0 -0.9417220887257429 1
gene  1 4 6 0.6567515098403096 0 528.0 0.6567515098403096 1
gene  1 1 7 -0.7087498763410127 0 630.0 -0.7087498763410127 1
gene  1 4 7 0.5188018229175897 0 633.0 0.5188018229175897 1
gene  1 5 7 -0.0851537632338969 0 634.0 -0.0851537632338969 1
gene  1 3 8 -0.2741491540603179 0 737.0 -0.2741491540603179 1
gene  1 5 8 0.16650285858325864 0 739.0 0.16650285858325864 1
gene  1 4 9 0.22892347277116254 0 843.0 0.22892347277116254 1
gene  1 5 9 0.573560266860873 0 844.0 0.573560266860873 1
gene  1 6 9 -0.8967838810786019 0 845.0 -0.8967838810786019 1
gene  1 7 9 -0.07446139995474221 0 846.0 -0.07446139995474221 1
gene  1 8 9 0.7486780280226336 0 847.0 0.7486780280226336 1
gene  1 1 10 -0.8926922101356322 0 945.0 -0.8926922101356322 1
gene  1 4 10 -0.3803394917407237 0 948.0 -0.3803394917407237 1
gene  1 5 10 -0.7903680939307087 0 949.0 -0.7903680939307087 1
gene  1 7 10 0.8943256037275791 0 951.0 0.8943256037275791 1
gene  1 8 10 0.38940012036728466 0 952.0 0.38940012036728466 1
gene  1 1 11 0.8376458026468531 0 1050.0 0.8376458026468531 1
gene  1 2 11 -0.2984821413149935 0 1051.0 -0.2984821413149935 1
gene  1 5 11 0.650399463841177 0 1054.0 0.650399463841177 1
gene  1 6 11 0.4202634398074614 0 1055.0 0.4202634398074614 1
gene  1 7 11 0.12404060874061784 0 1056.0 0.12404060874061784 1
gene  1 9 11 -0.4235678674282646 0 1058.0 -0.4235678674282646 1
gene  1 10 11 0.9715342876935559 0 1059.0 0.9715342876935559 1
gene  1 2 12 0.8658915617298765 0 1156.0 0.8658915617298765 1
gene  1 3 12 0.3563828691634183 0 1157.0 0.3563828691634183 1
gene  1 4 12 0.5944642617519232 0 1158.0 0.5944642617519232 1
gene  1 6 12 0.5352891973415388 0 1160.0 0.5352891973415388 1
gene  1 7 12 -0.09567317856745661 0 1161.0 -0.09567317856745661 1
gene  1 11 12 -0.7817246526005119 0 1165.0 -0.7817246526005119 1
gene  1 1 13 -0.9344046109271913 0 1260.0 -0.9344046109271913 1
gene  1 9 13 0.8135038641952225 0 1268.0 0.8135038641952225 1
gene  1 11 13 0.348552723026466 0 1270.0 0.348552723026466 1
gene  1 12 13 0.3657453481716759 0 1271.0 0.3657453481716759 1
gene  1 3 14 0.07870252854965432 0 1367.0 0.07870252854965432 1
gene  1 6 14 -0.2713648680571591 0 1370.0 -0.2713648680571591 1
gene  1 7 14 0.6078436008226394 0 1371.0 0.6078436008226394 1
gene  1 9 14 -0.6373915851121068 0 1373.0 -0.6373915851121068 1
gene  1 11 14 -0.9974694639349314 0 1375.0 -0.9974694639349314 1
gene  1 12 14 -0.5342925746809692 0 1376.0 -0.5342925746809692 1
gene  1 13 14 0.2603102190071098 0 1377.0 0.2603102190071098 1
gene  1 1 15 0.7424453354148461 0 1470.0 0.7424453354148461 1
gene  1 4 15 -0.15452948362279184 0 1473.0 -0.15452948362279184 1
gene  1 6 15 -0.01912002107243782 0 1475.0 -0.01912002107243782 1
gene  1 8 15 -0.681806122796288 0 1477.0 -0.681806122796288 1
gene  1 14 15 0.07203034977204692 0 1483.0 0.07203034977204692 1
gene  1 1 16 0.7833778678629862 0 1575.0 0.7833778678629862 1
gene  1 2 16 0.5783306379089964 0 1576.0 0.5783306379089964 1
gene  1 3 16 0.8455553040299233 0 1577.0 0.8455553040299233 1
gene  1 7 16 -0.8488102697580968 0 1581.0 -0.8488102697580968 1
gene  1 9 16 -0.6734908633531846 0 1583.0 -0.6734908633531846 1
gene  1 10 16 -0.9092349032757028 0 1584.0 -0.9092349032757028 1
gene  1 1 17 0.7384988845891306 0 1680.0 0.7384988845891306 1
gene  1 2 17 -0.3896491941331256 0 1681.0 -0.3896491941331256 1
gene  1 5 17 -0.1990125364628338 0 1684.0 -0.1990125364628338 1
gene  1 6 17 0.8231559228810553 0 1685.0 0.8231559228810553 1
gene  1 7 17 -0.8516626977660281 0 1686.0 -0.8516626977660281 1
gene  1 9 17 -0.4939931478385212 0 1688.0 -0.4939931478385212 1
gene  1 16 17 0.997171821434566 0 1695.0 0.997171821434566 1
gene  1 4 18 0.42659115253537994 0 1788.0 0.42659115253537994 1
gene  1 8 18 -0.009773086031118372 0 1792.0 -0.009773086031118372 1
gene  1 10 18 -0.21675924217682196 0 1794.0 -0.21675924217682196 1
gene  1 11 18 -0.622945734831764 0 1795.0 -0.622945734831764 1
gene  1 12 18 -0.044931726471246436 0 1796.0 -0.044931726471246436 1
gene  1 13 18 0.9727708878261657 0 1797.0 0.9727708878261657 1
gene  1 16 18 0.7170340206182818 0 1800.0 0.7170340206182818 1
gene  1 2 19 -0.12358426740456119 0 1891.0 -0.12358426740456119 1
gene  1 6 19 0.5120340107857444 0 1895.0 0.5120340107857444 1
gene  1 12 19 0.39873863531742515 0 1901.0 0.39873863531742515 1
gene  1 14 19 -0.5827020767233553 0 1903.0 -0.5827020767233553 1
gene  1 15 19 0.04262633062373944 0 1904.0 0.04262633062373944 1
gene  1 16 19 -0.6825078925370054 0 1905.0 -0.6825078925370054 1
gene  1 4 20 0.14722391577073035 0 1998.0 0.14722391577073035 1
gene  1 6 20 0.028948367681207343 0 2000.0 0.028948367681207343 1
gene  1 9 20 -0.17581378830963657 0 2003.0 -0.17581378830963657 1
gene  1 10 20 0.6091467350293239 0 2004.0 0.6091467350293239 1
gene  1 12 20 0.4390564510894702 0 2006.0 0.4390564510894702 1
gene  1 15 20 -0.2774710343371105 0 2009.0 -0.2774710343371105 1
gene  1 19 20 -0.05558156183699137 0 2013.0 -0.05558156183699137 1
gene  1 1 21 0.41098040911402633 0 2100.0 0.41098040911402633 1
gene  1 4 21 0.9104264319538173 0 2103.0 0.9104264319538173 1
gene  1 5 21 0.7246522719581932 0 2104.0 0.7246522719581932 1
gene  1 6 21 -0.778164745927542 0 2105.0 -0.778164745927542 1
gene  1 7 21 -0.067871695334913 0 2106.0 -0.067871695334913 1
gene  1 11 21 0.11401103632623788 0 2110.0 0.11401103632623788 1
gene  1 16 21 0.7916827691360789 0 2115.0 0.7916827691360789 1
gene  1 19 21 -0.3462971523341537 0 2118.0 -0.3462971523341537 1
gene  1 2 22 -0.07965112921168926 0 2206.0 -0.07965112921168926 1
gene  1 3 22 0.9589653149541654 0 2207.0 0.9589653149541654 1
gene  1 4 22 0.567916295150617 0 2208.0 0.567916295150617 1
gene  1 6 22 0.16633021385018076 0 2210.0 0.16633021385018076 1
gene  1 7 22 -0.4701334414050766 0 2211.0 -0.4701334414050766 1
gene  1 11 22 0.04717365923421779 0 2215.0 0.04717365923421779 1
gene  1 12 22 0.07011428167579004 0 2216.0 0.07011428167579004 1
gene  1 13 22 0.9936038488031146 0 2217.0 0.9936038488031146 1
gene  1 15 22 0.08198369977594988 0 2219.0 0.08198369977594988 1
gene  1 16 22 0.8797025419731969 0 2220.0 0.8797025419731969 1
gene  1 19 22 -0.5636731736234978 0 2223.0 -0.5636731736234978 1
gene  1 21 22 0.293153073390916 0 2225.0 0.293153073390916 1
gene  1 1 23 -0.5646888520540323 0 2310.0 -0.5646888520540323 1
gene  1 2 23 -0.6711929468125397 0 2311.0 -0.6711929468125397 1
gene  1 4 23 -0.4557275328781901 0 2313.0 -0.4557275328781901 1
gene  1 5 23 0.300312101466637 0 2314.0 0.300312101466637 1
gene  1 6 23 -0.2065976841478211 0 2315.0 -0.2065976841478211 1
gene  1 10 23 -0.6391458933815126 0 2319.0 -0.6391458933815126 1
gene  1 11 23 -0.6618867850952471 0 2320.0 -0.6618867850952471 1
gene  1 13 23 -0.7003336193522783 0 2322.0 -0.7003336193522783 1
gene  1 16 23 -0.589250172917567 0 2325.0 -0.589250172917567 1
gene  1 19 23 0.41972663617902517 0 2328.0 0.41972663617902517 1
gene  1 22 23 0.5653626961043694 0 2331.0 0.5653626961043694 1
gene  1 1 24 0.7675011642285556 0 2415.0 0.7675011642285556 1
gene  1 2 24 -0.4685377820270973 0 2416.0 -0.4685377820270973 1
gene  1 3 24 -0.9137553152795899 0 2417.0 -0.9137553152795899 1
gene  1 4 24 0.0858233344188295 0 2418.0 0.0858233344188295 1
gene  1 11 24 -0.528977719294897 0 2425.0 -0.528977719294897 1
gene  1 13 24 -0.8174967918938741 0 2427.0 -0.8174967918938741 1
gene  1 14 24 0.7697538340324508 0 2428.0 0.7697538340324508 1
gene  1 15 24 -0.4212875129739264 0 2429.0 -0.4212875129739264 1
gene  1 16 24 0.36028245565652595 0 2430.0 0.36028245565652595 1
gene  1 17 24 -0.33900062668056363 0 2431.0 -0.33900062668056363 1
gene  1 18 24 0.6709445704012906 0 2432.0 0.6709445704012906 1
gene  1 19 24 -0.5449478538337178 0 2433.0 -0.5449478538337178 1
gene  1 6 25 0.7381690406733615 0 2525.0 0.7381690406733615 1
gene  1 10 25 0.1969122806877719 0 2529.0 0.1969122806877719 1
gene  1 15 25 -0.08748514598775725 0 2534.0 -0.08748514598775725 1
gene  1 16 25 -0.964549579139262 0 2535.0 -0.964549579139262 1
gene  1 17 25 -0.33002138838521733 0 2536.0 -0.33002138838521733 1
gene  1 21 25 0.1793966649175497 0 2540.0 0.1793966649175497 1
gene  1 23 25 0.5833890772441852 0 2542.0 0.5833890772441852 1
gene  1 1 26 -0.8788024722689356 0 2625.0 -0.8788024722689356 1
gene  1 3 26 0.3907877083404546 0 2627.0 0.3907877083404546 1
gene  1 4 26 0.9404527562613191 0 2628.0 0.9404527562613191 1
gene  1 7 26 -0.7008129862280899 0 2631.0 -0.7008129862280899 1
gene  1 8 26 -0.09658479407037246 0 2632.0 -0.09658479407037246 1
gene  1 9 26 0.5699158490866216 0 2633.0 0.5699158490866216 1
gene  1 10 26 0.5420704571989858 0 2634.0 0.5420704571989858 1
gene  1 11 26 0.8758529110631293 0 2635.0 0.8758529110631293 1
gene  1 12 26 -0.6831051997170493 0 2636.0 -0.6831051997170493 1
gene  1 14 26 -0.7495869490432706 0 2638.0 -0.7495869490432706 1
gene  1 19 26 0.9008742364345441 0 2643.0 0.9008742364345441 1
gene  1 20 26 -0.4347224181499959 0 2644.0 -0.4347224181499959 1
gene  1 25 26 -0.6347940284128011 0 2649.0 -0.6347940284128011 1
gene  1 1 27 0.7864937199445482 0 2730.0 0.7864937199445482 1
gene  1 6 27 -0.3251972869865499 0 2735.0 -0.3251972869865499 1
gene  1 8 27 0.0640987023481282 0 2737.0 0.0640987023481282 1
gene  1 12 27 0.19294122293513338 0 2741.0 0.19294122293513338 1
gene  1 15 27 0.9040780447827611 0 2744.0 0.9040780447827611 1
gene  1 16 27 0.491115461947626 0 2745.0 0.491115461947626 1
gene  1 17 27 0.003308360895740714 0 2746.0 0.003308360895740714 1
gene  1 20 27 0.025807374642899283 0 2749.0 0.025807374642899283 1
gene  1 21 27 0.6690054560245462 0 2750.0 0.6690054560245462 1
gene  1 23 27 -0.563320086197818 0 2752.0 -0.563320086197818 1
gene  1 25 27 0.7495468074727583 0 2754.0 0.7495468074727583 1
gene  1 1 28 0.14030144254652843 0 2835.0 0.14030144254652843 1
gene  1 2 28 0.7200634155728063 0 2836.0 0.7200634155728063 1
gene  1 4 28 0.8174542060247261 0 2838.0 0.8174542060247261 1
gene  1 6 28 -0.1530220524911775 0 2840.0 -0.1530220524911775 1
gene  1 10 28 0.33691305890910006 0 2844.0 0.33691305890910006 1
gene  1 11 28 -0.7318524548796356 0 2845.0 -0.7318524548796356 1
gene  1 14 28 0.8976853424758595 0 2848.0 0.8976853424758595 1
gene  1 15 28 0.18120039551437028 0 2849.0 0.18120039551437028 1
gene  1 16 28 0.4643553480282495 0 2850.0 0.4643553480282495 1
gene  1 20 28 0.0686964388033543 0 2854.0 0.0686964388033543 1
gene  1 21 28 0.564224742707452 0 2855.0 0.564224742707452 1
gene  1 22 28 0.2964962164775272 0 2856.0 0.2964962164775272 1
gene  1 24 28 0.9416366064468445 0 2858.0 0.9416366064468445 1
gene  1 26 28 -0.5921053760893932 0 2860.0 -0.5921053760893932 1
gene  1 3 29 -0.5019822976978541 0 2942.0 -0.5019822976978541 1
gene  1 6 29 -0.6879559717997905 0 2945.0 -0.6879559717997905 1
gene  1 7 29 0.6327289055962714 0 2946.0 0.6327289055962714 1
gene  1 9 29 0.5507356556599907 0 2948.0 0.5507356556599907 1
gene  1 11 29 0.009704519557025226 0 2950.0 0.009704519557025226 1
gene  1 12 29 -0.5647748079698081 0 2951.0 -0.5647748079698081 1
gene  1 14 29 0.42971272599770804 0 2953.0 0.42971272599770804 1
gene  1 21 29 0.1248311180844115 0 2960.0 0.1248311180844115 1
gene  1 24 29 0.43928518364418057 0 2963.0 0.43928518364418057 1
gene  1 28 29 -0.319769454939414 0 2967.0 -0.319769454939414 1
gene  1 5 30 0.9306903169414085 0 3049.0 0.9306903169414085 1
gene  1 7 30 -0.2842002105713546 0 3051.0 -0.2842002105713546 1
gene  1 8 30 -0.3623487913284207 0 3052.0 -0.3623487913284207 1
gene  1 9 30 -0.7379998001155708 0 3053.0 -0.7379998001155708 1
gene  1 10 30 0.6047008438021199 0 3054.0 0.6047008438021199 1
gene  1 12 30 0.21336082590314498 0 3056.0 0.21336082590314498 1
gene  1 13 30 -0.09494308259683393 0 3057.0 -0.09494308259683393 1
gene  1 14 30 0.11524981625711472 0 3058.0 0.11524981625711472 1
gene  1 15 30 -0.3925294398893354 0 3059.0 -0.3925294398893354 1
gene  1 17 30 -0.7699223747194082 0 3061.0 -0.7699223747194082 1
gene  1 18 30 0.38487160328674297 0 3062.0 0.38487160328674297 1
gene  1 24 30 0.39058413845923956 0 3068.0 0.39058413845923956 1
gene  1 25 30 -0.984252801377098 0 3069.0 -0.984252801377098 1
gene  1 26 30 0.6797957851960843 0 3070.0 0.6797957851960843 1
gene  1 28 30 -0.4678578124558911 0 3072.0 -0.4678578124558911 1
gene  1 1 31 -0.33610412259763267 0 3150.0 -0.33610412259763267 1
gene  1 3 31 0.0855499728304191 0 3152.0 0.0855499728304191 1
gene  1 4 31 0.38953201297078976 0 3153.0 0.38953201297078976 1
gene  1 7 31 -0.02074274817491284 0 3156.0 -0.02074274817491284 1
gene  1 8 31 0.8066263215072095 0 3157.0 0.8066263215072095 1
gene  1 10 31 0.9885491702320125 0 3159.0 0.9885491702320125 1
gene  1 12 31 -0.44296168590297114 0 3161.0 -0.44296168590297114 1
gene  1 15 31 -0.7090351700110887 0 3164.0 -0.7090351700110887 1
gene  1 16 31 -0.7754587461308282 0 3165.0 -0.7754587461308282 1
gene  1 18 31 0.21197533054332063 0 3167.0 0.21197533054332063 1
gene  1 20 31 -0.7241970737865813 0 3169.0 -0.7241970737865813 1
gene  1 21 31 -0.4534893596562526 0 3170.0 -0.4534893596562526 1
gene  1 23 31 -0.7847991039182043 0 3172.0 -0.7847991039182043 1
gene  1 29 31 -0.991678081550357 0 3178.0 -0.991678081550357 1
gene  1 1 32 0.006686227215945251 0 3255.0 0.006686227215945251 1
gene  1 6 32 -0.3714905614101235 0 3260.0 -0.3714905614101235 1
gene  1 7 32 0.8574338872580693 0 3261.0 0.8574338872580693 1
gene  1 10 32 0.9677031008029332 0 3264.0 0.9677031008029332 1
gene  1 11 32 -0.6099830623998501 0 3265.0 -0.6099830623998501 1
gene  1 12 32 -0.7137626541359418 0 3266.0 -0.7137626541359418 1
gene  1 13 32 0.359170627061283 0 3267.0 0.359170627061283 1
gene  1 14 32 -0.6187389246911276 0 3268.0 -0.6187389246911276 1
gene  1 15 32 -0.030688580664586462 0 3269.0 -0.030688580664586462 1
gene  1 18 32 0.37953489630062154 0 3272.0 0.37953489630062154 1
gene  1 19 32 -0.6994492996184921 0 3273.0 -0.6994492996184921 1
gene  1 20 32 0.2892248518895384 0 3274.0 0.2892248518895384 1
gene  1 21 32 -0.6669835203559162 0 3275.0 -0.6669835203559162 1
gene  1 22 32 -0.6024493297703205 0 3276.0 -0.6024493297703205 1
gene  1 23 32 0.7133936169051402 0 3277.0 0.7133936169051402 1
gene  1 27 32 -0.0982103956573761 0 3281.0 -0.0982103956573761 1
gene  1 28 32 0.9795339165803393 0 3282.0 0.9795339165803393 1
gene  1 30 32 0.7381623203212418 0 3284.0 0.7381623203212418 1
gene  1 1 33 -0.6065912493288484 0 3360.0 -0.6065912493288484 1
gene  1 2 33 -0.5311614370807722 0 3361.0 -0.5311614370807722 1
gene  1 4 33 0.9544129134998981 0 3363.0 0.9544129134998981 1
gene  1 8 33 0.3201781190800125 0 3367.0 0.3201781190800125 1
gene  1 10 33 -0.16042446911793595 0 3369.0 -0.16042446911793595 1
gene  1 12 33 0.12463066393573974 0 3371.0 0.12463066393573974 1
gene  1 13 33 -0.6820197658413013 0 3372.0 -0.6820197658413013 1
gene  1 15 33 -0.4847065535733921 0 3374.0 -0.4847065535733921 1
gene  1 16 33 -0.6089721382029 0 3375.0 -0.6089721382029 1
gene  1 20 33 -0.7467463845218215 0 3379.0 -0.7467463845218215 1
gene  1 22 33 -0.4126418335768147 0 3381.0 -0.4126418335768147 1
gene  1 23 33 0.7843920641654208 0 3382.0 0.7843920641654208 1
gene  1 24 33 0.9984103920701836 0 3383.0 0.9984103920701836 1
gene  1 25 33 0.5508950553875831 0 3384.0 0.5508950553875831 1
gene  1 26 33 -0.06402517709966105 0 3385.0 -0.06402517709966105 1
gene  1 28 33 0.3351278566626814 0 3387.0 0.3351278566626814 1
gene  1 29 33 -0.6383655731394238 0 3388.0 -0.6383655731394238 1
gene  1 30 33 0.5922231533634329 0 3389.0 0.5922231533634329 1
gene  1 31 33 0.8556941170427689 0 3390.0 0.8556941170427689 1
gene  1 1 34 0.17472779080205458 0 3465.0 0.17472779080205458 1
gene  1 2 34 -0.33561007500458795 0 3466.0 -0.33561007500458795 1
gene  1 5 34 -0.3124844546348533 0 3469.0 -0.3124844546348533 1
gene  1 10 34 -0.34226793301371594 0 3474.0 -0.34226793301371594 1
gene  1 12 34 -0.8962378863527012 0 3476.0 -0.8962378863527012 1
gene  1 16 34 0.7695015373859768 0 3480.0 0.7695015373859768 1
gene  1 17 34 -0.9435045343191788 0 3481.0 -0.9435045343191788 1
gene  1 19 34 0.47401402408803794 0 3483.0 0.47401402408803794 1
gene  1 20 34 0.775762596627881 0 3484.0 0.775762596627881 1
gene  1 21 34 0.6031888193501801 0 3485.0 0.6031888193501801 1
gene  1 22 34 0.2876954338179053 0 3486.0 0.2876954338179053 1
gene  1 26 34 0.5845787175828426 0 3490.0 0.5845787175828426 1
gene  1 27 34 0.20286537685785289 0 3491.0 0.20286537685785289 1
gene  1 29 34 -0.6242578348101219 0 3493.0 -0.6242578348101219 1
gene  1 30 34 -0.09957530300310258 0 3494.0 -0.09957530300310258 1
gene  1 32 34 -0.09735089369173289 0 3496.0 -0.09735089369173289 1
gene  1 33 34 0.6832612959402932 0 3497.0 0.6832612959402932 1
gene  1 1 35 0.444456858536457 0 3570.0 0.444456858536457 1
gene  1 2 35 -0.3184511392258209 0 3571.0 -0.3184511392258209 1
gene  1 3 35 0.7542155706331433 0 3572.0 0.7542155706331433 1
gene  1 7 35 -0.6954103492122181 0 3576.0 -0.6954103492122181 1
gene  1 10 35 0.5535851207396821 0 3579.0 0.5535851207396821 1
gene  1 11 35 -0.9520023975663691 0 3580.0 -0.9520023975663691 1
gene  1 14 35 0.8513978771991755 0 3583.0 0.8513978771991755 1
gene  1 21 35 -0.40587457356988155 0 3590.0 -0.40587457356988155 1
gene  1 23 35 -0.9825950912476905 0 3592.0 -0.9825950912476905 1
gene  1 25 35 -0.35552937864710266 0 3594.0 -0.35552937864710266 1
gene  1 26 35 0.16140595822506154 0 3595.0 0.16140595822506154 1
gene  1 29 35 0.5784305110516225 0 3598.0 0.5784305110516225 1
gene  1 32 35 0.5723550775837184 0 3601.0 0.5723550775837184 1
gene  1 1 36 0.7235491663616491 0 3675.0 0.7235491663616491 1
gene  1 2 36 0.31936022991988144 0 3676.0 0.31936022991988144 1
gene  1 4 36 -0.828811164153441 0 3678.0 -0.828811164153441 1
gene  1 5 36 0.12613979246977125 0 3679.0 0.12613979246977125 1
gene  1 6 36 0.6500524914645615 0 3680.0 0.6500524914645615 1
gene  1 7 36 0.6447174931648092 0 3681.0 0.6447174931648092 1
gene  1 8 36 -0.7948480399317104 0 3682.0 -0.7948480399317104 1
gene  1 9 36 -0.22642247964794993 0 3683.0 -0.22642247964794993 1
gene  1 11 36 0.8212734941729845 0 3685.0 0.8212734941729845 1
gene  1 12 36 0.8909176993243385 0 3686.0 0.8909176993243385 1
gene  1 13 36 0.40932622429078813 0 3687.0 0.40932622429078813 1
gene  1 15 36 0.5724737527652779 0 3689.0 0.5724737527652779 1
gene  1 16 36 -0.08984137763915656 0 3690.0 -0.08984137763915656 1
gene  1 20 36 -0.7980230543000112 0 3694.0 -0.7980230543000112 1
gene  1 22 36 0.6130611146152316 0 3696.0 0.6130611146152316 1
gene  1 23 36 -0.6190430921958624 0 3697.0 -0.6190430921958624 1
gene  1 26 36 0.010622212927914432 0 3700.0 0.010622212927914432 1
gene  1 27 36 0.6460846107576943 0 3701.0 0.6460846107576943 1
gene  1 28 36 0.8459388764226545 0 3702.0 0.8459388764226545 1
gene  1 30 36 0.5142985750886986 0 3704.0 0.5142985750886986 1
gene  1 31 36 -0.17474365980506723 0 3705.0 -0.17474365980506723 1
gene  1 33 36 0.1457394373842371 0 3707.0 0.1457394373842371 1
gene  1 1 37 0.055689032736724764 0 3780.0 0.055689032736724764 1
gene  1 2 37 0.7153918314784732 0 3781.0 0.7153918314784732 1
gene  1 4 37 0.4969170586297005 0 3783.0 0.4969170586297005 1
gene  1 5 37 0.8802607940251889 0 3784.0 0.8802607940251889 1
gene  1 6 37 0.8041121807404578 0 3785.0 0.8041121807404578 1
gene  1 8 37 0.7425388777161795 0 3787.0 0.7425388777161795 1
gene  1 9 37 -0.7393039805811787 0 3788.0 -0.7393039805811787 1
gene  1 10 37 -0.3496832721036205 0 3789.0 -0.3496832721036205 1
gene  1 12 37 0.0988759571594584 0 3791.0 0.0988759571594584 1
gene  1 14 37 -0.7792763055224428 0 3793.0 -0.7792763055224428 1
gene  1 17 37 -0.5992602822896473 0 3796.0 -0.5992602822896473 1
gene  1 18 37 -0.22930446037742214 0 3797.0 -0.22930446037742214 1
gene  1 20 37 0.5906985264168947 0 3799.0 0.5906985264168947 1
gene  1 22 37 0.8713558337626465 0 3801.0 0.8713558337626465 1
gene  1 23 37 0.36415213493320764 0 3802.0 0.36415213493320764 1
gene  1 24 37 -0.30530158380202566 0 3803.0 -0.30530158380202566 1
gene  1 25 37 -0.7400226759979925 0 3804.0 -0.7400226759979925 1
gene  1 26 37 0.3752428444683069 0 3805.0 0.3752428444683069 1
gene  1 27 37 0.5192706651877004 0 3806.0 0.5192706651877004 1
gene  1 28 37 0.2997485079433877 0 3807.0 0.2997485079433877 1
gene  1 29 37 -0.9477749505101855 0 3808.0 -0.9477749505101855 1
gene  1 31 37 0.7869242560494903 0 3810.0 0.7869242560494903 1
gene  1 32 37 -0.46924256693187905 0 3811.0 -0.46924256693187905 1
gene  1 33 37 0.3531987185481136 0 3812.0 0.3531987185481136 1
gene  1 34 37 0.6695118040675926 0 3813.0 0.6695118040675926 1
gene  1 35 37 -0.7921236260487063 0 3814.0 -0.7921236260487063 1
gene  1 36 37 -0.24319393250640708 0 3815.0 -0.24319393250640708 1
gene  1 1 38 0.7493197510552043 0 3885.0 0.7493197510552043 1
gene  1 4 38 -0.3835617962018809 0 3888.0 -0.3835617962018809 1
gene  1 5 38 -0.141353670018316 0 3889.0 -0.141353670018316 1
gene  1 6 38 0.3525866172377766 0 3890.0 0.3525866172377766 1
gene  1 7 38 -0.793795417882687 0 3891.0 -0.793795417882687 1
gene  1 11 38 0.38843697383457976 0 3895.0 0.38843697383457976 1
gene  1 13 38 0.010674983227769386 0 3897.0 0.010674983227769386 1
gene  1 15 38 -0.8708137055365751 0 3899.0 -0.8708137055365751 1
gene  1 17 38 -0.8967103479011279 0 3901.0 -0.8967103479011279 1
gene  1 19 38 0.6739395524790323 0 3903.0 0.6739395524790323 1
gene  1 20 38 0.7766107884603801 0 3904.0 0.7766107884603801 1
gene  1 25 38 0.9273767324980583 0 3909.0 0.9273767324980583 1
gene  1 29 38 -0.4486196397690412 0 3913.0 -0.4486196397690412 1
gene  1 32 38 -0.1895418048608345 0 3916.0 -0.1895418048608345 1
gene  1 35 38 0.4483087451104866 0 3919.0 0.4483087451104866 1
gene  1 36 38 -0.6382226399341561 0 3920.0 -0.6382226399341561 1
gene  1 37 38 -0.16708909738771238 0 3921.0 -0.16708909738771238 1
gene  1 1 39 0.35264833872830637 0 3990.0 0.35264833872830637 1
gene  1 3 39 -0.37052681131490306 0 3992.0 -0.37052681131490306 1
gene  1 4 39 -0.6184095511572141 0 3993.0 -0.6184095511572141 1
gene  1 5 39 -0.16114297529726962 0 3994.0 -0.16114297529726962 1
gene  1 7 39 -0.4625194446331997 0 3996.0 -0.4625194446331997 1
gene  1 8 39 0.6680196745099722 0 3997.0 0.6680196745099722 1
gene  1 9 39 -0.5938957029172907 0 3998.0 -0.5938957029172907 1
gene  1 12 39 -0.0011302106155093306 0 4001.0 -0.0011302106155093306 1
gene  1 14 39 0.16157524550107427 0 4003.0 0.16157524550107427 1
gene  1 16 39 0.34795018235082764 0 4005.0 0.34795018235082764 1
gene  1 17 39 0.805472600382003 0 4006.0 0.805472600382003 1
gene  1 20 39 -0.8732407297284278 0 4009.0 -0.8732407297284278 1
gene  1 21 39 -0.29751973066059234 0 4010.0 -0.29751973066059234 1
gene  1 24 39 0.0364639926296384 0 4013.0 0.0364639926296384 1
gene  1 25 39 0.29864052337639335 0 4014.0 0.29864052337639335 1
gene  1 26 39 0.2703751481037293 0 4015.0 0.2703751481037293 1
gene  1 27 39 -0.5546047989929253 0 4016.0 -0.5546047989929253 1
gene  1 28 39 -0.19483144309883427 0 4017.0 -0.19483144309883427 1
gene  1 29 39 -0.3468674397924275 0 4018.0 -0.3468674397924275 1
gene  1 30 39 0.25026719134923725 0 4019.0 0.25026719134923725 1
gene  1 37 39 -0.3421552257504239 0 4026.0 -0.3421552257504239 1
gene  1 1 40 0.957745371478977 0 4095.0 0.957745371478977 1
gene  1 3 40 0.04988286918681206 0 4097.0 0.04988286918681206 1
gene  1 5 40 -0.7505332784594839 0 4099.0 -0.7505332784594839 1
gene  1 9 40 0.4393280905293092 0 4103.0 0.4393280905293092 1
gene  1 11 40 -0.7515036147979708 0 4105.0 -0.7515036147979708 1
gene  1 20 40 -0.08049933698782685 0 4114.0 -0.08049933698782685 1
gene  1 24 40 0.758402641824927 0 4118.0 0.758402641824927 1
gene  1 26 40 0.3174932656329327 0 4120.0 0.3174932656329327 1
gene  1 27 40 -0.7948162239422961 0 4121.0 -0.7948162239422961 1
gene  1 28 40 0.9793773734700952 0 4122.0 0.9793773734700952 1
gene  1 29 40 0.8068651660421604 0 4123.0 0.8068651660421604 1
gene  1 34 40 -0.40047682707850274 0 4128.0 -0.40047682707850274 1
gene  1 36 40 -0.8436483216025554 0 4130.0 -0.8436483216025554 1
gene  1 37 40 -0.7829721330294376 0 4131.0 -0.7829721330294376 1
gene  1 39 40 -0.622341765513978 0 4133.0 -0.622341765513978 1
gene  1 1 41 0.5174666295234898 0 4200.0 0.5174666295234898 1
gene  1 4 41 -0.919504017289582 0 4203.0 -0.919504017289582 1
gene  1 5 41 -0.9408171793436203 0 4204.0 -0.9408171793436203 1
gene  1 6 41 0.14208231724132747 0 4205.0 0.14208231724132747 1
gene  1 13 41 -0.6772680902972457 0 4212.0 -0.6772680902972457 1
gene  1 14 41 -0.735413942505496 0 4213.0 -0.735413942505496 1
gene  1 15 41 -0.8688838579546718 0 4214.0 -0.8688838579546718 1
gene  1 16 41 0.20955769000871183 0 4215.0 0.20955769000871183 1
gene  1 18 41 0.0038302613803048446 0 4217.0 0.0038302613803048446 1
gene  1 19 41 0.5050235458694088 0 4218.0 0.5050235458694088 1
gene  1 20 41 0.38994884644582783 0 4219.0 0.38994884644582783 1
gene  1 21 41 0.24723534786656487 0 4220.0 0.24723534786656487 1
gene  1 22 41 -0.16391717340520562 0 4221.0 -0.16391717340520562 1
gene  1 23 41 -0.35887899509460086 0 4222.0 -0.35887899509460086 1
gene  1 31 41 0.13302738882679044 0 4230.0 0.13302738882679044 1
gene  1 35 41 0.09928996903657095 0 4234.0 0.09928996903657095 1
gene  1 36 41 0.06523719715012599 0 4235.0 0.06523719715012599 1
gene  1 39 41 0.6914378148483875 0 4238.0 0.6914378148483875 1
gene  1 1 105 0.4646810645569076 0 10920.0 0.4646810645569076 1
gene  1 3 105 0.07985236901961978 0 10922.0 0.07985236901961978 1
gene  1 6 105 0.6683944904917203 0 10925.0 0.6683944904917203 1
gene  1 7 105 -0.08753054907825919 0 10926.0 -0.08753054907825919 1
gene  1 8 105 -0.07745750399371332 0 10927.0 -0.07745750399371332 1
gene  1 10 105 -0.4000685806125034 0 10929.0 -0.4000685806125034 1
gene  1 12 105 0.8342018967732766 0 10931.0 0.8342018967732766 1
gene  1 13 105 0.6148818280147458 0 10932.0 0.6148818280147458 1
gene  1 17 105 0.19630950631275124 0 10936.0 0.19630950631275124 1
gene  1 20 105 0.471127915648736 0 10939.0 0.471127915648736 1
gene  1 21 105 -0.5990743609604547 0 10940.0 -0.5990743609604547 1
gene  1 23 105 -0.9786537265948824 0 10942.0 -0.9786537265948824 1
gene  1 25 105 -0.8233940424724893 0 10944.0 -0.8233940424724893 1
gene  1 29 105 -0.779000411647414 0 10948.0 -0.779000411647414 1
gene  1 30 105 0.74966465672877 0 10949.0 0.74966465672877 1
gene  1 31 105 -0.4954649600313328 0 10950.0 -0.4954649600313328 1
gene  1 32 105 0.22536205036274914 0 10951.0 0.22536205036274914 1
gene  1 34 105 -0.8352522257483997 0 10953.0 -0.8352522257483997 1
gene  1 35 105 0.15224324730828875 0 10954.0 0.15224324730828875 1
gene  1 36 105 0.9105052084298864 0 10955.0 0.9105052084298864 1
gene  1 37 105 -0.28468826171494876 0 10956.0 -0.28468826171494876 1
gene  1 40 105 -0.15920857280059897 0 10959.0 -0.15920857280059897 1
gene  1 41 105 0.8155661231961783 0 10960.0 0.8155661231961783 1
genomeend 49
