genomestart  57
trait 1 0.0 0.0 0.0 0.0 0.0 0.0 0.0 0.0 0.0 0.0 0.0 0.0 0.0 0.0 0.0 0.0 0.0 0.0 0.0 0.0 
node 1 1 1 1
node 2 1 1 1
node 3 1 1 1
node 4 1 1 1
node 5 1 1 3
node 6 1 0 0
node 7 1 0 0
node 8 1 0 0
node 9 1 0 0
node 10 1 0 0
node 11 1 0 0
node 12 1 0 0
node 13 1 0 0
node 14 1 0 0
node 16 1 0 2
gene  1 4 6 0.638889354151901 0 83.0 0.638889354151901 1
gene  1 2 7 -0.04285000564267327 0 97.0 -0.04285000564267327 1
gene  1 3 7 -0.8624804931135477 0 98.0 -0.8624804931135477 1
gene  1 6 7 -0.8233227020192012 0 101.0 -0.8233227020192012 1
gene  1 1 8 0.9084330419114683 0 112.0 0.9084330419114683 1
gene  1 2 9 -0.33025289424977733 0 129.0 -0.33025289424977733 1
gene  1 3 9 0.3165482456678942 0 130.0 0.3165482456678942 1
gene  1 7 9 -0.9987048889289831 0 134.0 -0.9987048889289831 1
gene  1 5 10 -0.07369296612978127 0 148.0 -0.07369296612978127 1
gene  1 6 10 -0.8357374091089006 0 149.0 -0.8357374091089006 1
gene  1 7 10 -0.3735261179783953 0 150.0 -0.3735261179783953 1
gene  1 9 10 0.3257721520380078 0 152.0 0.3257721520380078 1
gene  1 1 11 0.4865349125334075 0 160.0 0.4865349125334075 1
gene  1 3 11 0.13672598736364805 0 162.0 0.13672598736364805 1
gene  1 5 11 0.8591512860095051 0 164.0 0.8591512860095051 1
gene  1 7 11 -0.8729329063369906 0 166.0 -0.8729329063369906 1
gene  1 3 12 -0.3007677633103848 0 178.0 -0.3007677633103848 1
gene  1 6 12 -0.6709365072247591 0 181.0 -0.6709365072247591 1
gene  1 8 12 -0.8138678435878293 0 183.0 -0.8138678435878293 1
gene  1 10 12 -0.5549461528355542 0 185.0 -0.5549461528355542 1
gene  1 11 12 -0.4230430092542017 0 186.0 -0.4230430092542017 1
gene  1 1 13 -0.8885668362964647 0 192.0 -0.8885668362964647 1
gene  1 2 13 0.34000063317119944 0 193.0 0.34000063317119944 1
gene  1 5 13 0.029588651183091064 0 196.0 0.029588651183091064 1
gene  1 9 13 0.6481953795216469 0 200.0 0.6481953795216469 1
gene  1 11 13 -0.0036376286716877093 0 202.0 -0.0036376286716877093 1
gene  1 12 13 0.06656199396031559 0 203.0 0.06656199396031559 1
gene  1 1 14 -0.9101305605675957 0 208.0 -0.9101305605675957 1
gene  1 2 14 -0.42259938768581773 0 209.0 -0.42259938768581773 1
gene  1 3 14 -0.5277489104692116 0 210.0 -0.5277489104692116 1
gene  1 4 14 -0.3703211162476072 0 211.0 -0.3703211162476072 1
gene  1 5 14 -0.6119090842792999 0 212.0 -0.6119090842792999 1
gene  1 8 14 -0.5595678240064806 0 215.0 -0.5595678240064806 1
gene  1 10 14 0.1507036627075865 0 217.0 0.1507036627075865 1
gene  1 13 14 -0.023919837289368084 0 220.0 -0.023919837289368084 1
gene  1 2 16 -0.33445962970826615 0 241.0 -0.33445962970826615 1
gene  1 4 16 0.6385518105095954 0 243.0 0.6385518105095954 1
gene  1 5 16 0.2893231917912702 0 244.0 0.2893231917912702 1
gene  1 8 16 -0.1579936883058971 0 247.0 -0.1579936883058971 1
gene  1 10 16 -0.10913554667887071 0 249.0 -0.10913554667887071 1
gene  1 11 16 0.8144890797258411 0 250.0 0.8144890797258411 1
gene  1 13 16 -0.5405460490922052 0 252.0 -0.5405460490922052 1
genomeend 57
