genomestart  22
trait 1 0.0 0.0 0.0 0.0 0.0 0.0 0.0 0.0 0.0 0.0 0.0 0.0 0.0 0.0 0.0 0.0 0.0 0.0 0.0 0.0 
node 1 1 1 1
node 2 1 1 1
node 3 1 1 1
node 4 1 1 1
node 5 1 1 3
node 6 1 0 0
node 7 1 0 0
node 8 1 0 0
node 16 1 0 2
gene  1 2 6 -0.437616925493986 0 81.0 -0.437616925493986 1
gene  1 4 6 -0.042212291967718474 0 83.0 -0.042212291967718474 1
gene  1 5 6 0.5843260950265627 0 84.0 0.5843260950265627 1
gene  1 1 7 -0.19151865467070284 0 96.0 -0.19151865467070284 1
gene  1 2 7 0.44631338108385454 0 97.0 0.44631338108385454 1
gene  1 5 7 0.33805826136957706 0 100.0 0.33805826136957706 1
gene  1 6 7 -0.5093423470421463 0 101.0 -0.5093423470421463 1
gene  1 1 8 0.013472973891839435 0 112.0 0.013472973891839435 1
gene  1 2 8 0.9840826797150908 0 113.0 0.9840826797150908 1
gene  1 3 8 -0.3062725750610066 0 114.0 -0.3062725750610066 1
gene  1 4 8 0.14055983871037014 0 115.0 0.14055983871037014 1
gene  1 6 8 -0.37400094897311975 0 117.0 -0.37400094897311975 1
gene  1 7 8 0.9533468977429862 0 118.0 0.9533468977429862 1
gene  1 1 16 0.2589698576294426 0 240.0 0.2589698576294426 1
gene  1 2 16 -0.38969965565987064 0 241.0 -0.38969965565987064 1
gene  1 3 16 0.5509201383187257 0 242.0 0.5509201383187257 1
gene  1 4 16 0.5492330194546455 0 243.0 0.5492330194546455 1
gene  1 5 16 -0.6352653561328355 0 244.0 -0.6352653561328355 1
gene  1 8 16 -0.8240842261063712 0 247.0 -0.8240842261063712 1
genomeend 22
