genomestart  2
trait 1 0.0 0.0 0.0 0.0 0.0 0.0 0.0 0.0 0.0 0.0 0.0 0.0 0.0 0.0 0.0 0.0 0.0 0.0 0.0 0.0 
node 1 1 1 1
node 2 1 1 1
node 3 1 1 1
node 4 1 1 1
node 5 1 1 3
node 6 1 0 0
node 7 1 0 0
node 8 1 0 0
node 9 1 0 0
node 10 1 0 0
node 11 1 0 0
node 12 1 0 0
node 13 1 0 0
node 16 1 0 2
gene  1 3 6 -0.02657943205921387 0 82.0 -0.02657943205921387 1
gene  1 4 6 -0.40833069905700003 0 83.0 -0.40833069905700003 1
gene  1 4 7 -0.35067110709302074 0 99.0 -0.35067110709302074 1
gene  1 5 7 -0.8072230171500934 0 100.0 -0.8072230171500934 1
gene  1 6 7 -0.8213442987102612 0 101.0 -0.8213442987102612 1
gene  1 1 8 -0.5875627448625669 0 112.0 -0.5875627448625669 1
gene  1 2 8 0.5686716347912295 0 113.0 0.5686716347912295 1
gene  1 3 8 -0.40049687057539907 0 114.0 -0.40049687057539907 1
gene  1 4 8 0.35192356163899197 0 115.0 0.35192356163899197 1
gene  1 1 9 0.38109108954838067 0 128.0 0.38109108954838067 1
gene  1 6 9 0.1739093871744084 0 133.0 0.1739093871744084 1
gene  1 8 9 0.43026585811415274 0 135.0 0.43026585811415274 1
gene  1 3 10 -0.8378064289714823 0 146.0 -0.8378064289714823 1
gene  1 5 10 -0.6923413188844766 0 148.0 -0.6923413188844766 1
gene  1 6 10 -0.005259448421023438 0 149.0 -0.005259448421023438 1
gene  1 7 10 -0.5417247478657584 0 150.0 -0.5417247478657584 1
gene  1 1 11 -0.15341418705097465 0 160.0 -0.15341418705097465 1
gene  1 4 11 -0.7093049681399888 0 163.0 -0.7093049681399888 1
gene  1 5 11 0.6942006327568634 0 164.0 0.6942006327568634 1
gene  1 1 12 0.5371988368811209 0 176.0 0.5371988368811209 1
gene  1 6 12 0.6073553437327617 0 181.0 0.6073553437327617 1
gene  1 11 12 -0.365329856745808 0 186.0 -0.365329856745808 1
gene  1 5 13 -0.09980637450028251 0 196.0 -0.09980637450028251 1
gene  1 6 13 -0.3622185429538357 0 197.0 -0.3622185429538357 1
gene  1 7 13 0.5401497980268334 0 198.0 0.5401497980268334 1
gene  1 9 13 -0.6233177942676396 0 200.0 -0.6233177942676396 1
gene  1 10 13 0.5283982395810477 0 201.0 0.5283982395810477 1
gene  1 12 13 0.13331532299662108 0 203.0 0.13331532299662108 1
gene  1 1 16 -0.6441884534172375 0 240.0 -0.6441884534172375 1
gene  1 4 16 0.8913651546876306 0 243.0 0.8913651546876306 1
gene  1 7 16 0.7059309447114029 0 246.0 0.7059309447114029 1
gene  1 9 16 0.8437702168044949 0 248.0 0.8437702168044949 1
gene  1 10 16 0.1684115203028249 0 249.0 0.1684115203028249 1
gene  1 11 16 0.5688646552416098 0 250.0 0.5688646552416098 1
genomeend 2
