genomestart  59
trait 1 0.0 0.0 0.0 0.0 0.0 0.0 0.0 0.0 0.0 0.0 0.0 0.0 0.0 0.0 0.0 0.0 0.0 0.0 0.0 0.0 
node 1 1 1 1
node 2 1 1 1
node 3 1 1 1
node 4 1 1 1
node 5 1 1 3
node 6 1 0 0
node 7 1 0 0
node 8 1 0 0
node 9 1 0 0
node 10 1 0 0
node 16 1 0 2
gene  1 1 6 0.31130512468148186 0 80.0 0.31130512468148186 1
gene  1 2 6 -0.4108278601281533 0 81.0 -0.4108278601281533 1
gene  1 3 6 -0.812230400543313 0 82.0 -0.812230400543313 1
gene  1 4 6 -0.44780046736388734 0 83.0 -0.44780046736388734 1
gene  1 5 6 -0.7002228625725165 0 84.0 -0.7002228625725165 1
gene  1 4 7 0.8516911519316851 0 99.0 0.8516911519316851 1
gene  1 5 7 0.018107167483625064 0 100.0 0.018107167483625064 1
gene  1 6 7 0.13121941100387413 0 101.0 0.13121941100387413 1
gene  1 1 8 0.4916795303898299 0 112.0 0.4916795303898299 1
gene  1 2 8 0.39917902182610643 0 113.0 0.39917902182610643 1
gene  1 3 8 0.10142631946333946 0 114.0 0.10142631946333946 1
gene  1 5 8 -0.680740919344989 0 116.0 -0.680740919344989 1
gene  1 3 9 -0.966076198441839 0 130.0 -0.966076198441839 1
gene  1 5 9 0.6375680733373411 0 132.0 0.6375680733373411 1
gene  1 7 9 -0.8838268205799997 0 134.0 -0.8838268205799997 1
gene  1 8 9 -0.1543035737784021 0 135.0 -0.1543035737784021 1
gene  1 1 10 0.734924928811607 0 144.0 0.734924928811607 1
gene  1 8 10 0.5795772237714842 0 151.0 0.5795772237714842 1
gene  1 9 10 0.15880566699383103 0 152.0 0.15880566699383103 1
gene  1 1 16 -0.8296973514099422 0 240.0 -0.8296973514099422 1
gene  1 4 16 -0.26410209268692175 0 243.0 -0.26410209268692175 1
gene  1 6 16 0.3677525637506863 0 245.0 0.3677525637506863 1
gene  1 8 16 -0.8440137542096714 0 247.0 -0.8440137542096714 1
gene  1 9 16 0.4845030796650316 0 248.0 0.4845030796650316 1
genomeend 59
