genomestart  8
trait 1 0.0 0.0 0.0 0.0 0.0 0.0 0.0 0.0 0.0 0.0 0.0 0.0 0.0 0.0 0.0 0.0 0.0 0.0 0.0 0.0 
node 1 1 1 1
node 2 1 1 1
node 3 1 1 1
node 4 1 1 1
node 5 1 1 3
node 6 1 0 0
node 7 1 0 0
node 8 1 0 0
node 9 1 0 0
node 16 1 0 2
gene  1 1 6 0.19932530724448883 0 80.0 0.19932530724448883 1
gene  1 2 6 -0.622129080813359 0 81.0 -0.622129080813359 1
gene  1 4 6 -0.295558988595948 0 83.0 -0.295558988595948 1
gene  1 5 6 0.10514346625035087 0 84.0 0.10514346625035087 1
gene  1 3 7 0.5244261024380795 0 98.0 0.5244261024380795 1
gene  1 4 7 0.21660081923450047 0 99.0 0.21660081923450047 1
gene  1 5 7 0.18476164557743524 0 100.0 0.18476164557743524 1
gene  1 3 8 -0.6094766418448653 0 114.0 -0.6094766418448653 1
gene  1 5 8 -0.3088595195409569 0 116.0 -0.3088595195409569 1
gene  1 6 8 -0.8281986486655327 0 117.0 -0.8281986486655327 1
gene  1 1 9 0.5077282568453062 0 128.0 0.5077282568453062 1
gene  1 3 9 0.9364412285193119 0 130.0 0.9364412285193119 1
gene  1 4 9 -0.8393039279842572 0 131.0 -0.8393039279842572 1
gene  1 8 9 0.3416566077492391 0 135.0 0.3416566077492391 1
gene  1 3 16 -0.2348383042179537 0 242.0 -0.2348383042179537 1
gene  1 5 16 0.1658548560782067 0 244.0 0.1658548560782067 1
gene  1 6 16 0.7447268484335476 0 245.0 0.7447268484335476 1
genomeend 8
