genomestart  32
trait 1 0.0 0.0 0.0 0.0 0.0 0.0 0.0 0.0 0.0 0.0 0.0 0.0 0.0 0.0 0.0 0.0 0.0 0.0 0.0 0.0 
node 1 1 1 1
node 2 1 1 1
node 3 1 1 1
node 4 1 1 1
node 5 1 1 3
node 6 1 0 0
node 7 1 0 0
node 8 1 0 0
node 9 1 0 0
node 10 1 0 0
node 11 1 0 0
node 12 1 0 0
node 13 1 0 0
node 14 1 0 0
node 15 1 0 0
node 16 1 0 2
gene  1 4 6 -0.7161463174925105 0 83.0 -0.7161463174925105 1
gene  1 1 7 0.9829699956990934 0 96.0 0.9829699956990934 1
gene  1 5 7 0.4297301773679104 0 100.0 0.4297301773679104 1
gene  1 3 8 0.006194224104067114 0 114.0 0.006194224104067114 1
gene  1 4 8 0.3569599405127515 0 115.0 0.3569599405127515 1
gene  1 4 9 0.4970950070383082 0 131.0 0.4970950070383082 1
gene  1 7 9 0.7667002192467159 0 134.0 0.7667002192467159 1
gene  1 1 10 0.2926490310784273 0 144.0 0.2926490310784273 1
gene  1 6 10 -0.4044923433040055 0 149.0 -0.4044923433040055 1
gene  1 8 10 0.23838923546224733 0 151.0 0.23838923546224733 1
gene  1 9 10 -0.48355347812897864 0 152.0 -0.48355347812897864 1
gene  1 2 11 0.962527121611955 0 161.0 0.962527121611955 1
gene  1 3 11 -0.19164677894658322 0 162.0 -0.19164677894658322 1
gene  1 5 11 -0.8611251002753662 0 164.0 -0.8611251002753662 1
gene  1 6 11 -0.1588664106612101 0 165.0 -0.1588664106612101 1
gene  1 8 11 -0.4980785281802269 0 167.0 -0.4980785281802269 1
gene  1 9 11 -0.9615339750804758 0 168.0 -0.9615339750804758 1
gene  1 10 11 0.6111988838274236 0 169.0 0.6111988838274236 1
gene  1 3 12 0.669501543626142 0 178.0 0.669501543626142 1
gene  1 5 12 0.023019928300634374 0 180.0 0.023019928300634374 1
gene  1 6 12 0.5797755687648518 0 181.0 0.5797755687648518 1
gene  1 7 12 -0.17578519303037854 0 182.0 -0.17578519303037854 1
gene  1 8 12 0.2703843356910337 0 183.0 0.2703843356910337 1
gene  1 9 12 0.6716698811729299 0 184.0 0.6716698811729299 1
gene  1 11 12 0.6514779906929522 0 186.0 0.6514779906929522 1
gene  1 2 13 -0.628463452278294 0 193.0 -0.628463452278294 1
gene  1 4 13 0.09076291376236378 0 195.0 0.09076291376236378 1
gene  1 5 13 0.04689120309556394 0 196.0 0.04689120309556394 1
gene  1 7 13 0.5410960134094187 0 198.0 0.5410960134094187 1
gene  1 8 13 0.265420838901791 0 199.0 0.265420838901791 1
gene  1 9 13 0.6448646933156684 0 200.0 0.6448646933156684 1
gene  1 11 13 -0.16391780376309772 0 202.0 -0.16391780376309772 1
gene  1 12 13 0.5116405213554662 0 203.0 0.5116405213554662 1
gene  1 1 14 0.7890300707085592 0 208.0 0.7890300707085592 1
gene  1 2 14 -0.028781941298294922 0 209.0 -0.028781941298294922 1
gene  1 4 14 0.03509670984980473 0 211.0 0.03509670984980473 1
gene  1 6 14 -0.9713251127343269 0 213.0 -0.9713251127343269 1
gene  1 9 14 0.3097379465903404 0 216.0 0.3097379465903404 1
gene  1 10 14 -0.05049505764672957 0 217.0 -0.05049505764672957 1
gene  1 11 14 -0.7059301243619982 0 218.0 -0.7059301243619982 1
gene  1 12 14 0.9542699951093463 0 219.0 0.9542699951093463 1
gene  1 13 14 -0.7450375213517135 0 220.0 -0.7450375213517135 1
gene  1 3 15 -0.4218434434760434 0 226.0 -0.4218434434760434 1
gene  1 6 15 -0.9307504281831482 0 229.0 -0.9307504281831482 1
gene  1 7 15 0.827638329220487 0 230.0 0.827638329220487 1
gene  1 8 15 0.6189687576978335 0 231.0 0.6189687576978335 1
gene  1 9 15 0.8075170649076713 0 232.0 0.8075170649076713 1
gene  1 10 15 0.21147609129178135 0 233.0 0.21147609129178135 1
gene  1 13 15 0.46779725676023587 0 236.0 0.46779725676023587 1
gene  1 14 15 0.9651041834182121 0 237.0 0.9651041834182121 1
gene  1 1 16 -0.37618243663221007 0 240.0 -0.37618243663221007 1
gene  1 3 16 0.9091208209139888 0 242.0 0.9091208209139888 1
gene  1 4 16 0.9868760388086534 0 243.0 0.9868760388086534 1
gene  1 6 16 -0.9527133309315765 0 245.0 -0.9527133309315765 1
gene  1 7 16 -0.10396314208538726 0 246.0 -0.10396314208538726 1
gene  1 11 16 0.9783850680826133 0 250.0 0.9783850680826133 1
gene  1 12 16 0.5194111451346953 0 251.0 0.5194111451346953 1
genomeend 32
