genomestart  48
trait 1 0.0 0.0 0.0 0.0 0.0 0.0 0.0 0.0 0.0 0.0 0.0 0.0 0.0 0.0 0.0 0.0 0.0 0.0 0.0 0.0 
node 1 1 1 1
node 2 1 1 1
node 3 1 1 1
node 4 1 1 3
node 5 1 0 0
node 6 1 0 0
node 7 1 0 0
node 8 1 0 0
node 105 1 0 2
gene  1 1 5 0.2869330425067469 0 420.0 0.2869330425067469 1
gene  1 3 5 -0.4562856042288045 0 422.0 -0.4562856042288045 1
gene  1 4 5 -0.5340578687482227 0 423.0 -0.5340578687482227 1
gene  1 3 6 0.041407641317099064 0 527.0 0.041407641317099064 1
gene  1 5 6 -0.31841761137602276 0 529.0 -0.31841761137602276 1
gene  1 1 7 -0.18831389724957048 0 630.0 -0.18831389724957048 1
gene  1 2 7 -0.5861718135882277 0 631.0 -0.5861718135882277 1
gene  1 3 7 0.20228041207206415 0 632.0 0.20228041207206415 1
gene  1 4 7 0.4442276673272524 0 633.0 0.4442276673272524 1
gene  1 5 7 0.05678664335201622 0 634.0 0.05678664335201622 1
gene  1 6 7 0.08564037957679993 0 635.0 0.08564037957679993 1
gene  1 1 8 -0.9660682968338429 0 735.0 -0.9660682968338429 1
gene  1 2 8 -0.12614265167402894 0 736.0 -0.12614265167402894 1
gene  1 4 8 0.7723605761232444 0 738.0 0.7723605761232444 1
gene  1 7 8 0.161277739667822 0 741.0 0.161277739667822 1
gene  1 2 105 0.3262161261573717 0 10921.0 0.3262161261573717 1
gene  1 3 105 -0.934471446102568 0 10922.0 -0.934471446102568 1
gene  1 4 105 0.9394522059181464 0 10923.0 0.9394522059181464 1
gene  1 7 105 0.2293127873715508 0 10926.0 0.2293127873715508 1
genomeend 48
