genomestart  33
trait 1 0.0 0.0 0.0 0.0 0.0 0.0 0.0 0.0 0.0 0.0 0.0 0.0 0.0 0.0 0.0 0.0 0.0 0.0 0.0 0.0 
node 1 1 1 1
node 2 1 1 1
node 3 1 1 1
node 4 1 1 1
node 5 1 1 3
node 6 1 0 0
node 7 1 0 0
node 8 1 0 0
node 9 1 0 0
node 10 1 0 0
node 11 1 0 0
node 12 1 0 0
node 16 1 0 2
gene  1 1 6 0.08147721727059953 0 80.0 0.08147721727059953 1
gene  1 4 6 0.4247260602596188 0 83.0 0.4247260602596188 1
gene  1 2 7 0.9207992326438137 0 97.0 0.9207992326438137 1
gene  1 3 7 0.5756774066984014 0 98.0 0.5756774066984014 1
gene  1 6 7 0.6614841929940598 0 101.0 0.6614841929940598 1
gene  1 1 8 -0.01201275653031153 0 112.0 -0.01201275653031153 1
gene  1 2 8 0.5507231717448942 0 113.0 0.5507231717448942 1
gene  1 4 8 0.2355728478089505 0 115.0 0.2355728478089505 1
gene  1 2 9 0.7654886467596903 0 129.0 0.7654886467596903 1
gene  1 3 9 -0.21347478333180003 0 130.0 -0.21347478333180003 1
gene  1 6 9 0.758892068398328 0 133.0 0.758892068398328 1
gene  1 7 9 -0.39427426026715806 0 134.0 -0.39427426026715806 1
gene  1 8 9 -0.2570692494893485 0 135.0 -0.2570692494893485 1
gene  1 1 10 0.8380665098031034 0 144.0 0.8380665098031034 1
gene  1 4 10 0.40145167631195544 0 147.0 0.40145167631195544 1
gene  1 5 10 -0.1825921886654035 0 148.0 -0.1825921886654035 1
gene  1 7 10 0.16825269998670656 0 150.0 0.16825269998670656 1
gene  1 8 10 0.4365350397126535 0 151.0 0.4365350397126535 1
gene  1 1 11 -0.4636973040202883 0 160.0 -0.4636973040202883 1
gene  1 2 11 -0.4280874015549232 0 161.0 -0.4280874015549232 1
gene  1 4 11 -0.41066484139955517 0 163.0 -0.41066484139955517 1
gene  1 5 11 -0.14600025711583697 0 164.0 -0.14600025711583697 1
gene  1 7 11 0.1966541917671818 0 166.0 0.1966541917671818 1
gene  1 8 11 0.28729761907708584 0 167.0 0.28729761907708584 1
gene  1 9 11 -0.21622584636078934 0 168.0 -0.21622584636078934 1
gene  1 1 12 -0.5129544379378396 0 176.0 -0.5129544379378396 1
gene  1 2 12 -0.8603799109898469 0 177.0 -0.8603799109898469 1
gene  1 3 12 -0.33447723005059216 0 178.0 -0.33447723005059216 1
gene  1 4 12 -0.8985691122407302 0 179.0 -0.8985691122407302 1
gene  1 6 12 0.7950168764718354 0 181.0 0.7950168764718354 1
gene  1 8 12 0.310243686747425 0 183.0 0.310243686747425 1
gene  1 9 12 -0.8911233142890825 0 184.0 -0.8911233142890825 1
gene  1 10 12 -0.6598209824406611 0 185.0 -0.6598209824406611 1
gene  1 11 12 0.24518572317561604 0 186.0 0.24518572317561604 1
gene  1 1 16 0.7047989653888606 0 240.0 0.7047989653888606 1
gene  1 2 16 -0.11452721878729955 0 241.0 -0.11452721878729955 1
gene  1 4 16 0.0349044871466857 0 243.0 0.0349044871466857 1
gene  1 5 16 0.43987341693252147 0 244.0 0.43987341693252147 1
gene  1 6 16 -0.39273945478119254 0 245.0 -0.39273945478119254 1
gene  1 7 16 -0.5935912154083525 0 246.0 -0.5935912154083525 1
gene  1 8 16 0.15248002537533534 0 247.0 0.15248002537533534 1
gene  1 12 16 0.17232826961483372 0 251.0 0.17232826961483372 1
genomeend 33
