genomestart  14
trait 1 0.0 0.0 0.0 0.0 0.0 0.0 0.0 0.0 0.0 0.0 0.0 0.0 0.0 0.0 0.0 0.0 0.0 0.0 0.0 0.0 
node 1 1 1 1
node 2 1 1 1
node 3 1 1 1
node 4 1 1 3
node 5 1 0 0
node 6 1 0 0
node 7 1 0 0
node 8 1 0 0
node 9 1 0 0
node 10 1 0 0
node 11 1 0 0
node 12 1 0 0
node 13 1 0 0
node 14 1 0 0
node 15 1 0 0
node 16 1 0 0
node 17 1 0 0
node 18 1 0 0
node 19 1 0 0
node 20 1 0 0
node 21 1 0 0
node 22 1 0 0
node 23 1 0 0
node 24 1 0 0
node 25 1 0 0
node 26 1 0 0
node 27 1 0 0
node 28 1 0 0
node 29 1 0 0
node 30 1 0 0
node 31 1 0 0
node 32 1 0 0
node 33 1 0 0
node 34 1 0 0
node 35 1 0 0
node 36 1 0 0
node 37 1 0 0
node 38 1 0 0
node 39 1 0 0
node 40 1 0 0
node 41 1 0 0
node 42 1 0 0
node 43 1 0 0
node 44 1 0 0
node 45 1 0 0
node 46 1 0 0
node 47 1 0 0
node 48 1 0 0
node 49 1 0 0
node 50 1 0 0
node 51 1 0 0
node 52 1 0 0
node 53 1 0 0
node 54 1 0 0
node 55 1 0 0
node 56 1 0 0
node 57 1 0 0
node 58 1 0 0
node 59 1 0 0
node 60 1 0 0
node 61 1 0 0
node 62 1 0 0
node 63 1 0 0
node 64 1 0 0
node 65 1 0 0
node 66 1 0 0
node 67 1 0 0
node 68 1 0 0
node 69 1 0 0
node 105 1 0 2
gene  1 1 5 0.9748107072862557 0 420.0 0.9748107072862557 1
gene  1 1 6 0.10353738060578843 0 525.0 0.10353738060578843 1
gene  1 2 6 0.17006214463423885 0 526.0 0.17006214463423885 1
gene  1 3 6 -0.9370430756792143 0 527.0 -0.9370430756792143 1
gene  1 4 6 -0.6148588696326436 0 528.0 -0.6148588696326436 1
gene  1 5 6 0.774118973026143 0 529.0 0.774118973026143 1
gene  1 1 7 -0.5465036584647971 0 630.0 -0.5465036584647971 1
gene  1 4 7 0.1596867688994763 0 633.0 0.1596867688994763 1
gene  1 2 8 0.7715397189965428 0 736.0 0.7715397189965428 1
gene  1 4 8 -0.9718955337865527 0 738.0 -0.9718955337865527 1
gene  1 5 8 0.8821749882825707 0 739.0 0.8821749882825707 1
gene  1 7 8 -0.032797547682365424 0 741.0 -0.032797547682365424 1
gene  1 3 9 0.825187177299363 0 842.0 0.825187177299363 1
gene  1 4 9 -0.5949441362707599 0 843.0 -0.5949441362707599 1
gene  1 5 9 -0.6404487910585708 0 844.0 -0.6404487910585708 1
gene  1 6 9 -0.7259182714473688 0 845.0 -0.7259182714473688 1
gene  1 7 9 0.839342383956921 0 846.0 0.839342383956921 1
gene  1 1 10 0.9917189338998545 0 945.0 0.9917189338998545 1
gene  1 2 10 0.5104104657662144 0 946.0 0.5104104657662144 1
gene  1 4 10 -0.4270397281913628 0 948.0 -0.4270397281913628 1
gene  1 5 10 0.9096012907162159 0 949.0 0.9096012907162159 1
gene  1 7 10 0.5572140306109367 0 951.0 0.5572140306109367 1
gene  1 8 10 0.4881242123659676 0 952.0 0.4881242123659676 1
gene  1 4 11 -0.6556042880511214 0 1053.0 -0.6556042880511214 1
gene  1 5 11 0.053453244877557204 0 1054.0 0.053453244877557204 1
gene  1 6 11 -0.05690573321406123 0 1055.0 -0.05690573321406123 1
gene  1 7 11 -0.5892060386614165 0 1056.0 -0.5892060386614165 1
gene  1 3 12 0.9643595881598871 0 1157.0 0.9643595881598871 1
gene  1 4 12 -0.5657659808800231 0 1158.0 -0.5657659808800231 1
gene  1 5 12 -0.9080952034662443 0 1159.0 -0.9080952034662443 1
gene  1 6 12 -0.42079763480101584 0 1160.0 -0.42079763480101584 1
gene  1 7 12 0.7464481040679262 0 1161.0 0.7464481040679262 1
gene  1 8 12 0.33847507569459434 0 1162.0 0.33847507569459434 1
gene  1 10 12 0.13783855665600353 0 1164.0 0.13783855665600353 1
gene  1 2 13 -0.4565329459866917 0 1261.0 -0.4565329459866917 1
gene  1 3 13 -0.9762130793628021 0 1262.0 -0.9762130793628021 1
gene  1 6 13 -0.9048650173588126 0 1265.0 -0.9048650173588126 1
gene  1 7 13 -0.1785507701236032 0 1266.0 -0.1785507701236032 1
gene  1 8 13 -0.03309510447750352 0 1267.0 -0.03309510447750352 1
gene  1 9 13 -0.032975231501386704 0 1268.0 -0.032975231501386704 1
gene  1 12 13 0.6890934362118725 0 1271.0 0.6890934362118725 1
gene  1 4 14 0.5185128981200998 0 1368.0 0.5185128981200998 1
gene  1 5 14 0.42792400019859056 0 1369.0 0.42792400019859056 1
gene  1 8 14 -0.05308987907021623 0 1372.0 -0.05308987907021623 1
gene  1 9 14 0.8751923406871838 0 1373.0 0.8751923406871838 1
gene  1 11 14 0.1286909262394279 0 1375.0 0.1286909262394279 1
gene  1 12 14 -0.6003705764916328 0 1376.0 -0.6003705764916328 1
gene  1 2 15 0.09040568509745095 0 1471.0 0.09040568509745095 1
gene  1 3 15 0.44593852912017506 0 1472.0 0.44593852912017506 1
gene  1 4 15 -0.5951522417212843 0 1473.0 -0.5951522417212843 1
gene  1 6 15 0.3583002832064732 0 1475.0 0.3583002832064732 1
gene  1 9 15 -0.3491680893608521 0 1478.0 -0.3491680893608521 1
gene  1 13 15 -0.7543513382167462 0 1482.0 -0.7543513382167462 1
gene  1 2 16 0.725480608717992 0 1576.0 0.725480608717992 1
gene  1 3 16 0.533395705125357 0 1577.0 0.533395705125357 1
gene  1 4 16 -0.7936661638062703 0 1578.0 -0.7936661638062703 1
gene  1 11 16 -0.6871589918057479 0 1585.0 -0.6871589918057479 1
gene  1 12 16 -0.7173574276594962 0 1586.0 -0.7173574276594962 1
gene  1 14 16 -0.7551411778982766 0 1588.0 -0.7551411778982766 1
gene  1 15 16 0.989615731108012 0 1589.0 0.989615731108012 1
gene  1 2 17 0.2527567023772196 0 1681.0 0.2527567023772196 1
gene  1 3 17 -0.5991851369543505 0 1682.0 -0.5991851369543505 1
gene  1 7 17 0.25901096149218195 0 1686.0 0.25901096149218195 1
gene  1 8 17 -0.3443783281423638 0 1687.0 -0.3443783281423638 1
gene  1 9 17 0.7027184485563073 0 1688.0 0.7027184485563073 1
gene  1 11 17 -0.8194414989689399 0 1690.0 -0.8194414989689399 1
gene  1 13 17 -0.8614236909737382 0 1692.0 -0.8614236909737382 1
gene  1 15 17 -0.28448810032110694 0 1694.0 -0.28448810032110694 1
gene  1 1 18 0.9869529181095106 0 1785.0 0.9869529181095106 1
gene  1 2 18 -0.4884106093241548 0 1786.0 -0.4884106093241548 1
gene  1 5 18 0.4046375673447573 0 1789.0 0.4046375673447573 1
gene  1 8 18 -0.9343223843982654 0 1792.0 -0.9343223843982654 1
gene  1 12 18 0.09362053206400789 0 1796.0 0.09362053206400789 1
gene  1 13 18 -0.6999508986469648 0 1797.0 -0.6999508986469648 1
gene  1 16 18 0.10039060466854166 0 1800.0 0.10039060466854166 1
gene  1 17 18 0.6807089278071672 0 1801.0 0.6807089278071672 1
gene  1 2 19 0.2658343886933823 0 1891.0 0.2658343886933823 1
gene  1 3 19 0.5908234188093509 0 1892.0 0.5908234188093509 1
gene  1 6 19 0.8725569304410732 0 1895.0 0.8725569304410732 1
gene  1 8 19 0.5632901400496366 0 1897.0 0.5632901400496366 1
gene  1 10 19 -0.08221353405721554 0 1899.0 -0.08221353405721554 1
gene  1 11 19 -0.7614767678665159 0 1900.0 -0.7614767678665159 1
gene  1 14 19 -0.9665895536819981 0 1903.0 -0.9665895536819981 1
gene  1 15 19 0.7049123831752424 0 1904.0 0.7049123831752424 1
gene  1 16 19 0.2861718691990037 0 1905.0 0.2861718691990037 1
gene  1 17 19 0.48760840384988424 0 1906.0 0.48760840384988424 1
gene  1 18 19 -0.3166227129128236 0 1907.0 -0.3166227129128236 1
gene  1 2 20 -0.27240540708529604 0 1996.0 -0.27240540708529604 1
gene  1 4 20 0.1324209693967333 0 1998.0 0.1324209693967333 1
gene  1 5 20 0.8207110246674441 0 1999.0 0.8207110246674441 1
gene  1 6 20 -0.8587580451001684 0 2000.0 -0.8587580451001684 1
gene  1 7 20 -0.564962395350271 0 2001.0 -0.564962395350271 1
gene  1 11 20 -0.9559210655643441 0 2005.0 -0.9559210655643441 1
gene  1 13 20 -0.4044532452263485 0 2007.0 -0.4044532452263485 1
gene  1 14 20 -0.6795777368910833 0 2008.0 -0.6795777368910833 1
gene  1 15 20 0.39090342760710495 0 2009.0 0.39090342760710495 1
gene  1 16 20 0.9601900748205325 0 2010.0 0.9601900748205325 1
gene  1 17 20 0.24030362050917675 0 2011.0 0.24030362050917675 1
gene  1 18 20 -0.4800121421904864 0 2012.0 -0.4800121421904864 1
gene  1 1 21 -0.5867541083815255 0 2100.0 -0.5867541083815255 1
gene  1 2 21 -0.6546084432638605 0 2101.0 -0.6546084432638605 1
gene  1 3 21 0.010322020059934323 0 2102.0 0.010322020059934323 1
gene  1 5 21 0.8134065220461855 0 2104.0 0.8134065220461855 1
gene  1 7 21 -0.32502571333717767 0 2106.0 -0.32502571333717767 1
gene  1 10 21 0.4646450331909433 0 2109.0 0.4646450331909433 1
gene  1 13 21 -0.11942886607138414 0 2112.0 -0.11942886607138414 1
gene  1 15 21 -0.2794293156561658 0 2114.0 -0.2794293156561658 1
gene  1 19 21 -0.2654420121157325 0 2118.0 -0.2654420121157325 1
gene  1 3 22 -0.299660808926123 0 2207.0 -0.299660808926123 1
gene  1 6 22 0.7375082174449542 0 2210.0 0.7375082174449542 1
gene  1 7 22 0.7881614519641188 0 2211.0 0.7881614519641188 1
gene  1 9 22 0.9421000328646356 0 2213.0 0.9421000328646356 1
gene  1 10 22 0.029377513345276052 0 2214.0 0.029377513345276052 1
gene  1 11 22 0.6090705986579424 0 2215.0 0.6090705986579424 1
gene  1 12 22 -0.9764989325871166 0 2216.0 -0.9764989325871166 1
gene  1 13 22 -0.40652804277410515 0 2217.0 -0.40652804277410515 1
gene  1 14 22 0.1158644468177894 0 2218.0 0.1158644468177894 1
gene  1 18 22 -0.7324335050327284 0 2222.0 -0.7324335050327284 1
gene  1 19 22 -0.29645869009088377 0 2223.0 -0.29645869009088377 1
gene  1 21 22 0.7210397807584882 0 2225.0 0.7210397807584882 1
gene  1 1 23 -0.03100193281819652 0 2310.0 -0.03100193281819652 1
gene  1 2 23 0.590886845684699 0 2311.0 0.590886845684699 1
gene  1 4 23 -0.4960467059055176 0 2313.0 -0.4960467059055176 1
gene  1 5 23 0.6222821542361314 0 2314.0 0.6222821542361314 1
gene  1 7 23 -0.5022106970649935 0 2316.0 -0.5022106970649935 1
gene  1 8 23 0.01638560055766547 0 2317.0 0.01638560055766547 1
gene  1 9 23 -0.5813477149280385 0 2318.0 -0.5813477149280385 1
gene  1 10 23 0.5524111607534252 0 2319.0 0.5524111607534252 1
gene  1 11 23 0.24854887626258293 0 2320.0 0.24854887626258293 1
gene  1 14 23 -0.9751171744199766 0 2323.0 -0.9751171744199766 1
gene  1 20 23 -0.6461216738402793 0 2329.0 -0.6461216738402793 1
gene  1 1 24 0.3327564738097487 0 2415.0 0.3327564738097487 1
gene  1 2 24 -0.3562048586973313 0 2416.0 -0.3562048586973313 1
gene  1 3 24 0.24886483948830285 0 2417.0 0.24886483948830285 1
gene  1 6 24 -0.5545161056873014 0 2420.0 -0.5545161056873014 1
gene  1 8 24 -0.37687992993603114 0 2422.0 -0.37687992993603114 1
gene  1 9 24 -0.1924645051243984 0 2423.0 -0.1924645051243984 1
gene  1 10 24 -0.7333463672069644 0 2424.0 -0.7333463672069644 1
gene  1 12 24 -0.5949682295553698 0 2426.0 -0.5949682295553698 1
gene  1 13 24 0.39819409870729694 0 2427.0 0.39819409870729694 1
gene  1 18 24 0.15028543977176712 0 2432.0 0.15028543977176712 1
gene  1 19 24 0.6434355274826691 0 2433.0 0.6434355274826691 1
gene  1 21 24 0.22979914762234865 0 2435.0 0.22979914762234865 1
gene  1 22 24 0.7502645495280594 0 2436.0 0.7502645495280594 1
gene  1 2 25 -0.1659299267876102 0 2521.0 -0.1659299267876102 1
gene  1 3 25 0.4860407451658638 0 2522.0 0.4860407451658638 1
gene  1 6 25 0.6455871435725857 0 2525.0 0.6455871435725857 1
gene  1 7 25 0.5809218215124958 0 2526.0 0.5809218215124958 1
gene  1 8 25 0.9583215507022557 0 2527.0 0.9583215507022557 1
gene  1 10 25 0.08695520725064576 0 2529.0 0.08695520725064576 1
gene  1 12 25 0.2737213596065544 0 2531.0 0.2737213596065544 1
gene  1 13 25 0.916585834597587 0 2532.0 0.916585834597587 1
gene  1 14 25 -0.13390920985235244 0 2533.0 -0.13390920985235244 1
gene  1 15 25 0.01262392640370269 0 2534.0 0.01262392640370269 1
gene  1 16 25 0.9675234377611536 0 2535.0 0.9675234377611536 1
gene  1 18 25 0.1998554258362648 0 2537.0 0.1998554258362648 1
gene  1 19 25 0.5022260361602721 0 2538.0 0.5022260361602721 1
gene  1 23 25 0.35778085504366974 0 2542.0 0.35778085504366974 1
gene  1 24 25 0.3703053673092682 0 2543.0 0.3703053673092682 1
gene  1 2 26 -0.0574175849615155 0 2626.0 -0.0574175849615155 1
gene  1 8 26 0.20678053983843947 0 2632.0 0.20678053983843947 1
gene  1 12 26 0.44346145779481383 0 2636.0 0.44346145779481383 1
gene  1 13 26 -0.8254014157056634 0 2637.0 -0.8254014157056634 1
gene  1 15 26 0.5995354005197921 0 2639.0 0.5995354005197921 1
gene  1 16 26 -0.12954273247504333 0 2640.0 -0.12954273247504333 1
gene  1 17 26 0.5270281215887576 0 2641.0 0.5270281215887576 1
gene  1 19 26 -0.2116406269823864 0 2643.0 -0.2116406269823864 1
gene  1 21 26 -0.06650664805206385 0 2645.0 -0.06650664805206385 1
gene  1 22 26 -0.7455999543648946 0 2646.0 -0.7455999543648946 1
gene  1 23 26 0.12847425129601364 0 2647.0 0.12847425129601364 1
gene  1 25 26 0.4423595458205887 0 2649.0 0.4423595458205887 1
gene  1 2 27 0.4081498033379338 0 2731.0 0.4081498033379338 1
gene  1 3 27 0.4424360543968039 0 2732.0 0.4424360543968039 1
gene  1 5 27 0.15918621301661906 0 2734.0 0.15918621301661906 1
gene  1 7 27 -0.2587132382287204 0 2736.0 -0.2587132382287204 1
gene  1 8 27 0.4730452311694776 0 2737.0 0.4730452311694776 1
gene  1 10 27 -0.7649923410349112 0 2739.0 -0.7649923410349112 1
gene  1 11 27 -0.2562033929631159 0 2740.0 -0.2562033929631159 1
gene  1 12 27 0.9539214525492384 0 2741.0 0.9539214525492384 1
gene  1 20 27 -0.005290218835867555 0 2749.0 -0.005290218835867555 1
gene  1 21 27 -0.076832028653253 0 2750.0 -0.076832028653253 1
gene  1 25 27 -0.8043671374234685 0 2754.0 -0.8043671374234685 1
gene  1 2 28 0.9687547885971866 0 2836.0 0.9687547885971866 1
gene  1 3 28 0.0051418830425881135 0 2837.0 0.0051418830425881135 1
gene  1 6 28 -0.4473602824824999 0 2840.0 -0.4473602824824999 1
gene  1 9 28 0.21999933910165226 0 2843.0 0.21999933910165226 1
gene  1 12 28 -0.9439716727862854 0 2846.0 -0.9439716727862854 1
gene  1 14 28 -0.1602254801330869 0 2848.0 -0.1602254801330869 1
gene  1 17 28 -0.8775294134346657 0 2851.0 -0.8775294134346657 1
gene  1 18 28 -0.4941952675656681 0 2852.0 -0.4941952675656681 1
gene  1 20 28 -0.9558771995761959 0 2854.0 -0.9558771995761959 1
gene  1 22 28 0.7469515950609853 0 2856.0 0.7469515950609853 1
gene  1 1 29 -0.18854598396335376 0 2940.0 -0.18854598396335376 1
gene  1 2 29 0.49461115025594404 0 2941.0 0.49461115025594404 1
gene  1 3 29 -0.8093874054993577 0 2942.0 -0.8093874054993577 1
gene  1 4 29 -0.43526738745463067 0 2943.0 -0.43526738745463067 1
gene  1 8 29 0.430920846734123 0 2947.0 0.430920846734123 1
gene  1 10 29 0.5168192397402052 0 2949.0 0.5168192397402052 1
gene  1 13 29 0.5410172582746942 0 2952.0 0.5410172582746942 1
gene  1 14 29 -0.8985905865785145 0 2953.0 -0.8985905865785145 1
gene  1 16 29 0.6702770354630729 0 2955.0 0.6702770354630729 1
gene  1 18 29 0.3968021570988115 0 2957.0 0.3968021570988115 1
gene  1 19 29 0.6735109823557951 0 2958.0 0.6735109823557951 1
gene  1 20 29 0.6763413878698598 0 2959.0 0.6763413878698598 1
gene  1 22 29 -0.6015332227476676 0 2961.0 -0.6015332227476676 1
gene  1 23 29 0.6537548069834437 0 2962.0 0.6537548069834437 1
gene  1 24 29 -0.3552231984233387 0 2963.0 -0.3552231984233387 1
gene  1 26 29 0.7973735577075299 0 2965.0 0.7973735577075299 1
gene  1 27 29 -0.9986723676904548 0 2966.0 -0.9986723676904548 1
gene  1 1 30 0.5577203574672552 0 3045.0 0.5577203574672552 1
gene  1 6 30 -0.7610298317997557 0 3050.0 -0.7610298317997557 1
gene  1 7 30 -0.734164198821199 0 3051.0 -0.734164198821199 1
gene  1 8 30 0.37191772761836794 0 3052.0 0.37191772761836794 1
gene  1 10 30 0.3122442721162916 0 3054.0 0.3122442721162916 1
gene  1 11 30 -0.08707268751181363 0 3055.0 -0.08707268751181363 1
gene  1 12 30 -0.10207707353776418 0 3056.0 -0.10207707353776418 1
gene  1 14 30 0.9607796399582001 0 3058.0 0.9607796399582001 1
gene  1 16 30 0.23260365909987113 0 3060.0 0.23260365909987113 1
gene  1 18 30 -0.057964219100024694 0 3062.0 -0.057964219100024694 1
gene  1 21 30 0.47446967741022195 0 3065.0 0.47446967741022195 1
gene  1 26 30 -0.9074896570142525 0 3070.0 -0.9074896570142525 1
gene  1 28 30 -0.581544142166747 0 3072.0 -0.581544142166747 1
gene  1 29 30 0.11052038567516553 0 3073.0 0.11052038567516553 1
gene  1 2 31 0.8788456845083895 0 3151.0 0.8788456845083895 1
gene  1 3 31 -0.9325609081419186 0 3152.0 -0.9325609081419186 1
gene  1 7 31 0.7150008990987199 0 3156.0 0.7150008990987199 1
gene  1 11 31 -0.7103452338829609 0 3160.0 -0.7103452338829609 1
gene  1 15 31 -0.14451311301820813 0 3164.0 -0.14451311301820813 1
gene  1 16 31 0.3587386129440048 0 3165.0 0.3587386129440048 1
gene  1 17 31 0.1800293094384654 0 3166.0 0.1800293094384654 1
gene  1 20 31 0.5937299026433942 0 3169.0 0.5937299026433942 1
gene  1 24 31 -0.7580218739863805 0 3173.0 -0.7580218739863805 1
gene  1 25 31 0.9219385705578302 0 3174.0 0.9219385705578302 1
gene  1 26 31 0.10804205606972694 0 3175.0 0.10804205606972694 1
gene  1 27 31 -0.9637987636649876 0 3176.0 -0.9637987636649876 1
gene  1 28 31 0.2656232083239424 0 3177.0 0.2656232083239424 1
gene  1 30 31 0.472800414295536 0 3179.0 0.472800414295536 1
gene  1 1 32 -0.5422291673502556 0 3255.0 -0.5422291673502556 1
gene  1 2 32 -0.7724539024180913 0 3256.0 -0.7724539024180913 1
gene  1 4 32 0.35559478038909353 0 3258.0 0.35559478038909353 1
gene  1 7 32 0.6494590684716107 0 3261.0 0.6494590684716107 1
gene  1 8 32 0.5343917970243622 0 3262.0 0.5343917970243622 1
gene  1 9 32 -0.5136338977771491 0 3263.0 -0.5136338977771491 1
gene  1 12 32 -0.41786011942795254 0 3266.0 -0.41786011942795254 1
gene  1 15 32 0.6147014753080069 0 3269.0 0.6147014753080069 1
gene  1 16 32 -0.9208867335999616 0 3270.0 -0.9208867335999616 1
gene  1 18 32 -0.37328299980323854 0 3272.0 -0.37328299980323854 1
gene  1 19 32 -0.7711270893292865 0 3273.0 -0.7711270893292865 1
gene  1 23 32 -0.456826836283857 0 3277.0 -0.456826836283857 1
gene  1 24 32 -0.539372806311445 0 3278.0 -0.539372806311445 1
gene  1 27 32 -0.9211666935572299 0 3281.0 -0.9211666935572299 1
gene  1 29 32 -0.5728769899949582 0 3283.0 -0.5728769899949582 1
gene  1 31 32 -0.2956576974060252 0 3285.0 -0.2956576974060252 1
gene  1 1 33 0.3488592531543626 0 3360.0 0.3488592531543626 1
gene  1 3 33 -0.6925926688835133 0 3362.0 -0.6925926688835133 1
gene  1 4 33 0.18593295173351843 0 3363.0 0.18593295173351843 1
gene  1 9 33 -0.19000677612689265 0 3368.0 -0.19000677612689265 1
gene  1 10 33 0.9583461435510754 0 3369.0 0.9583461435510754 1
gene  1 15 33 0.2568936829644968 0 3374.0 0.2568936829644968 1
gene  1 18 33 -0.014871392381536341 0 3377.0 -0.014871392381536341 1
gene  1 21 33 0.7716295062569427 0 3380.0 0.7716295062569427 1
gene  1 22 33 0.6191548044941378 0 3381.0 0.6191548044941378 1
gene  1 23 33 0.5762744372629325 0 3382.0 0.5762744372629325 1
gene  1 25 33 -0.3909445514688109 0 3384.0 -0.3909445514688109 1
gene  1 26 33 0.0287881802056007 0 3385.0 0.0287881802056007 1
gene  1 29 33 0.8797883159079203 0 3388.0 0.8797883159079203 1
gene  1 30 33 0.3547616378717757 0 3389.0 0.3547616378717757 1
gene  1 1 34 0.3670522637459732 0 3465.0 0.3670522637459732 1
gene  1 4 34 -0.7099053340755298 0 3468.0 -0.7099053340755298 1
gene  1 5 34 -0.09862605669941071 0 3469.0 -0.09862605669941071 1
gene  1 6 34 -0.5033461664828004 0 3470.0 -0.5033461664828004 1
gene  1 7 34 0.4731181298823737 0 3471.0 0.4731181298823737 1
gene  1 8 34 -0.5286493282388212 0 3472.0 -0.5286493282388212 1
gene  1 11 34 -0.5396052507896894 0 3475.0 -0.5396052507896894 1
gene  1 16 34 0.004163419802077684 0 3480.0 0.004163419802077684 1
gene  1 17 34 -0.8123368799094404 0 3481.0 -0.8123368799094404 1
gene  1 18 34 0.3248061516822047 0 3482.0 0.3248061516822047 1
gene  1 19 34 -0.1918193137306411 0 3483.0 -0.1918193137306411 1
gene  1 20 34 -0.15329364062982942 0 3484.0 -0.15329364062982942 1
gene  1 21 34 -0.8823956299076794 0 3485.0 -0.8823956299076794 1
gene  1 23 34 0.9034558191859235 0 3487.0 0.9034558191859235 1
gene  1 28 34 -0.030076075612604836 0 3492.0 -0.030076075612604836 1
gene  1 30 34 -0.0674222925525404 0 3494.0 -0.0674222925525404 1
gene  1 32 34 -0.2620317253973048 0 3496.0 -0.2620317253973048 1
gene  1 2 35 0.7556737148307092 0 3571.0 0.7556737148307092 1
gene  1 9 35 -0.6162028008220662 0 3578.0 -0.6162028008220662 1
gene  1 10 35 0.2325034322344428 0 3579.0 0.2325034322344428 1
gene  1 11 35 0.6881504187096779 0 3580.0 0.6881504187096779 1
gene  1 14 35 -0.8089728377260084 0 3583.0 -0.8089728377260084 1
gene  1 15 35 0.5984202899068861 0 3584.0 0.5984202899068861 1
gene  1 23 35 -0.8904099021671815 0 3592.0 -0.8904099021671815 1
gene  1 26 35 0.9850395876424907 0 3595.0 0.9850395876424907 1
gene  1 30 35 -0.8011259734341474 0 3599.0 -0.8011259734341474 1
gene  1 31 35 -0.3384753592602472 0 3600.0 -0.3384753592602472 1
gene  1 32 35 0.9494051318491322 0 3601.0 0.9494051318491322 1
gene  1 33 35 0.014711505656133439 0 3602.0 0.014711505656133439 1
gene  1 3 36 0.5873652564687791 0 3677.0 0.5873652564687791 1
gene  1 4 36 0.045333770392568584 0 3678.0 0.045333770392568584 1
gene  1 5 36 -0.47257622808186517 0 3679.0 -0.47257622808186517 1
gene  1 6 36 -0.06267510665702647 0 3680.0 -0.06267510665702647 1
gene  1 9 36 -0.4331326037790232 0 3683.0 -0.4331326037790232 1
gene  1 11 36 0.05388304009086642 0 3685.0 0.05388304009086642 1
gene  1 15 36 -0.3609485764141763 0 3689.0 -0.3609485764141763 1
gene  1 17 36 0.4199732881652114 0 3691.0 0.4199732881652114 1
gene  1 18 36 -0.10180565037746314 0 3692.0 -0.10180565037746314 1
gene  1 19 36 -0.312940755535993 0 3693.0 -0.312940755535993 1
gene  1 20 36 0.6800519749759059 0 3694.0 0.6800519749759059 1
gene  1 22 36 0.9804593832421493 0 3696.0 0.9804593832421493 1
gene  1 25 36 -0.7927851706831243 0 3699.0 -0.7927851706831243 1
gene  1 27 36 0.46644758246521456 0 3701.0 0.46644758246521456 1
gene  1 28 36 -0.864799660238506 0 3702.0 -0.864799660238506 1
gene  1 30 36 -0.349262525911873 0 3704.0 -0.349262525911873 1
gene  1 31 36 0.9280054337011887 0 3705.0 0.9280054337011887 1
gene  1 32 36 0.7744604081919232 0 3706.0 0.7744604081919232 1
gene  1 33 36 0.3216177295292485 0 3707.0 0.3216177295292485 1
gene  1 35 36 -0.7083034582962342 0 3709.0 -0.7083034582962342 1
gene  1 1 37 -0.6167052255520495 0 3780.0 -0.6167052255520495 1
gene  1 4 37 0.34773735389797655 0 3783.0 0.34773735389797655 1
gene  1 5 37 -0.3821461098040596 0 3784.0 -0.3821461098040596 1
gene  1 6 37 0.7585484605822828 0 3785.0 0.7585484605822828 1
gene  1 8 37 0.775929673544502 0 3787.0 0.775929673544502 1
gene  1 10 37 -0.004487932059401345 0 3789.0 -0.004487932059401345 1
gene  1 11 37 0.16221562228051323 0 3790.0 0.16221562228051323 1
gene  1 13 37 -0.7542800312550502 0 3792.0 -0.7542800312550502 1
gene  1 15 37 0.2588553449609706 0 3794.0 0.2588553449609706 1
gene  1 16 37 0.415288032561153 0 3795.0 0.415288032561153 1
gene  1 17 37 0.26526233904958285 0 3796.0 0.26526233904958285 1
gene  1 19 37 -0.5567455403288724 0 3798.0 -0.5567455403288724 1
gene  1 21 37 0.590151166504578 0 3800.0 0.590151166504578 1
gene  1 24 37 -0.9191420860752588 0 3803.0 -0.9191420860752588 1
gene  1 29 37 -0.9223136063297355 0 3808.0 -0.9223136063297355 1
gene  1 32 37 0.9047209884280338 0 3811.0 0.9047209884280338 1
gene  1 1 38 0.6570875569310652 0 3885.0 0.6570875569310652 1
gene  1 4 38 -0.47900681296083336 0 3888.0 -0.47900681296083336 1
gene  1 5 38 0.671990324316095 0 3889.0 0.671990324316095 1
gene  1 6 38 0.6662728634382847 0 3890.0 0.6662728634382847 1
gene  1 7 38 -0.8212452627738862 0 3891.0 -0.8212452627738862 1
gene  1 9 38 -0.12943245117148272 0 3893.0 -0.12943245117148272 1
gene  1 11 38 0.003813816364726552 0 3895.0 0.003813816364726552 1
gene  1 14 38 -0.6846681571108291 0 3898.0 -0.6846681571108291 1
gene  1 15 38 -0.7470842008498917 0 3899.0 -0.7470842008498917 1
gene  1 18 38 0.05487014142828206 0 3902.0 0.05487014142828206 1
gene  1 20 38 -0.07605145204930575 0 3904.0 -0.07605145204930575 1
gene  1 21 38 0.24419787009666905 0 3905.0 0.24419787009666905 1
gene  1 22 38 -0.8733214207611077 0 3906.0 -0.8733214207611077 1
gene  1 23 38 -0.14905097093254782 0 3907.0 -0.14905097093254782 1
gene  1 24 38 0.09433043605055635 0 3908.0 0.09433043605055635 1
gene  1 27 38 -0.9877433725387832 0 3911.0 -0.9877433725387832 1
gene  1 28 38 -0.9484166212926257 0 3912.0 -0.9484166212926257 1
gene  1 29 38 -0.7399522481065818 0 3913.0 -0.7399522481065818 1
gene  1 33 38 0.7276118122006946 0 3917.0 0.7276118122006946 1
gene  1 34 38 -0.9432066965330517 0 3918.0 -0.9432066965330517 1
gene  1 35 38 -0.7142336442651765 0 3919.0 -0.7142336442651765 1
gene  1 2 39 -0.7393946017224868 0 3991.0 -0.7393946017224868 1
gene  1 4 39 0.9315446535628428 0 3993.0 0.9315446535628428 1
gene  1 5 39 0.83329296191688 0 3994.0 0.83329296191688 1
gene  1 7 39 0.4382672654412 0 3996.0 0.4382672654412 1
gene  1 8 39 -0.08129760863962732 0 3997.0 -0.08129760863962732 1
gene  1 11 39 -0.2427814493277367 0 4000.0 -0.2427814493277367 1
gene  1 12 39 -0.022306654183982366 0 4001.0 -0.022306654183982366 1
gene  1 17 39 0.08520667920373826 0 4006.0 0.08520667920373826 1
gene  1 20 39 -0.15997656739057897 0 4009.0 -0.15997656739057897 1
gene  1 23 39 -0.3579772018682177 0 4012.0 -0.3579772018682177 1
gene  1 27 39 0.8112011129187048 0 4016.0 0.8112011129187048 1
gene  1 29 39 -0.9879313493185901 0 4018.0 -0.9879313493185901 1
gene  1 30 39 -0.4533775194724683 0 4019.0 -0.4533775194724683 1
gene  1 31 39 0.08373562838590232 0 4020.0 0.08373562838590232 1
gene  1 32 39 0.6415813970544278 0 4021.0 0.6415813970544278 1
gene  1 34 39 -0.6655602587141427 0 4023.0 -0.6655602587141427 1
gene  1 35 39 -0.42148617577848935 0 4024.0 -0.42148617577848935 1
gene  1 36 39 0.36390199170725457 0 4025.0 0.36390199170725457 1
gene  1 37 39 0.47105537931850616 0 4026.0 0.47105537931850616 1
gene  1 38 39 -0.16553398325473856 0 4027.0 -0.16553398325473856 1
gene  1 2 40 0.5848471044871268 0 4096.0 0.5848471044871268 1
gene  1 3 40 -0.49290438542114046 0 4097.0 -0.49290438542114046 1
gene  1 5 40 -0.7934824698374204 0 4099.0 -0.7934824698374204 1
gene  1 7 40 0.9359093221763107 0 4101.0 0.9359093221763107 1
gene  1 11 40 0.8116078426617981 0 4105.0 0.8116078426617981 1
gene  1 13 40 -0.10225706368612053 0 4107.0 -0.10225706368612053 1
gene  1 14 40 0.7023866778758874 0 4108.0 0.7023866778758874 1
gene  1 16 40 0.7054699158670361 0 4110.0 0.7054699158670361 1
gene  1 17 40 0.8450461353700629 0 4111.0 0.8450461353700629 1
gene  1 18 40 -0.4651841588059342 0 4112.0 -0.4651841588059342 1
gene  1 19 40 0.03505593209787006 0 4113.0 0.03505593209787006 1
gene  1 20 40 -0.33966299697463664 0 4114.0 -0.33966299697463664 1
gene  1 21 40 0.980312504447295 0 4115.0 0.980312504447295 1
gene  1 22 40 -0.8642917051483293 0 4116.0 -0.8642917051483293 1
gene  1 26 40 -0.03649548862751795 0 4120.0 -0.03649548862751795 1
gene  1 29 40 -0.8108921728838838 0 4123.0 -0.8108921728838838 1
gene  1 30 40 0.2141632405959054 0 4124.0 0.2141632405959054 1
gene  1 32 40 -0.5813830134831658 0 4126.0 -0.5813830134831658 1
gene  1 33 40 0.4911656960176516 0 4127.0 0.4911656960176516 1
gene  1 34 40 -0.6678407117366394 0 4128.0 -0.6678407117366394 1
gene  1 36 40 0.7316849307983299 0 4130.0 0.7316849307983299 1
gene  1 37 40 -0.7283218277341357 0 4131.0 -0.7283218277341357 1
gene  1 38 40 0.7779143634592418 0 4132.0 0.7779143634592418 1
gene  1 39 40 -0.09014730271302751 0 4133.0 -0.09014730271302751 1
gene  1 2 41 0.018209515804022747 0 4201.0 0.018209515804022747 1
gene  1 3 41 0.984119072605074 0 4202.0 0.984119072605074 1
gene  1 4 41 0.4981905224844565 0 4203.0 0.4981905224844565 1
gene  1 7 41 0.38616916758618314 0 4206.0 0.38616916758618314 1
gene  1 10 41 -0.37345353446058716 0 4209.0 -0.37345353446058716 1
gene  1 13 41 0.03634789891110224 0 4212.0 0.03634789891110224 1
gene  1 14 41 0.9448469276418103 0 4213.0 0.9448469276418103 1
gene  1 17 41 0.7313745522342525 0 4216.0 0.7313745522342525 1
gene  1 18 41 -0.010924872389882156 0 4217.0 -0.010924872389882156 1
gene  1 19 41 -0.45414961722958314 0 4218.0 -0.45414961722958314 1
gene  1 23 41 0.750834643523668 0 4222.0 0.750834643523668 1
gene  1 25 41 -0.886118880617156 0 4224.0 -0.886118880617156 1
gene  1 26 41 -0.023239202148893634 0 4225.0 -0.023239202148893634 1
gene  1 28 41 -0.014423189856337726 0 4227.0 -0.014423189856337726 1
gene  1 29 41 -0.16296140690875305 0 4228.0 -0.16296140690875305 1
gene  1 34 41 -0.39155672138419406 0 4233.0 -0.39155672138419406 1
gene  1 35 41 0.2294658401113333 0 4234.0 0.2294658401113333 1
gene  1 36 41 -0.44061547322955297 0 4235.0 -0.44061547322955297 1
gene  1 39 41 0.901606428609805 0 4238.0 0.901606428609805 1
gene  1 40 41 -0.37298477171892797 0 4239.0 -0.37298477171892797 1
gene  1 2 42 0.6621426661174559 0 4306.0 0.6621426661174559 1
gene  1 3 42 -0.7325424289007331 0 4307.0 -0.7325424289007331 1
gene  1 4 42 -0.9157069181932932 0 4308.0 -0.9157069181932932 1
gene  1 5 42 0.11713105785068723 0 4309.0 0.11713105785068723 1
gene  1 8 42 -0.23920129475767882 0 4312.0 -0.23920129475767882 1
gene  1 9 42 0.012944233973653296 0 4313.0 0.012944233973653296 1
gene  1 11 42 0.24318409185087098 0 4315.0 0.24318409185087098 1
gene  1 13 42 -0.3043102693469417 0 4317.0 -0.3043102693469417 1
gene  1 16 42 0.9616405471462582 0 4320.0 0.9616405471462582 1
gene  1 17 42 0.19845405655800907 0 4321.0 0.19845405655800907 1
gene  1 20 42 0.9068591529975626 0 4324.0 0.9068591529975626 1
gene  1 21 42 -0.42283862344834733 0 4325.0 -0.42283862344834733 1
gene  1 22 42 0.9151682878018053 0 4326.0 0.9151682878018053 1
gene  1 23 42 0.035162514534742284 0 4327.0 0.035162514534742284 1
gene  1 26 42 0.37830032847356443 0 4330.0 0.37830032847356443 1
gene  1 27 42 -0.9608997691210004 0 4331.0 -0.9608997691210004 1
gene  1 29 42 0.9888620918208861 0 4333.0 0.9888620918208861 1
gene  1 31 42 0.6971817493462177 0 4335.0 0.6971817493462177 1
gene  1 32 42 0.7372909235181939 0 4336.0 0.7372909235181939 1
gene  1 36 42 -0.4338106577500628 0 4340.0 -0.4338106577500628 1
gene  1 39 42 -0.7837171195105108 0 4343.0 -0.7837171195105108 1
gene  1 1 43 -0.41512605990494444 0 4410.0 -0.41512605990494444 1
gene  1 2 43 0.6499430106644473 0 4411.0 0.6499430106644473 1
gene  1 6 43 -0.8703596440176851 0 4415.0 -0.8703596440176851 1
gene  1 13 43 -0.8181704441561115 0 4422.0 -0.8181704441561115 1
gene  1 14 43 0.5241742499861111 0 4423.0 0.5241742499861111 1
gene  1 20 43 0.6380032867719619 0 4429.0 0.6380032867719619 1
gene  1 21 43 -0.7429614316669918 0 4430.0 -0.7429614316669918 1
gene  1 23 43 -0.1676013065919556 0 4432.0 -0.1676013065919556 1
gene  1 25 43 0.05168405140570109 0 4434.0 0.05168405140570109 1
gene  1 26 43 -0.5665824774155277 0 4435.0 -0.5665824774155277 1
gene  1 29 43 0.409553380006511 0 4438.0 0.409553380006511 1
gene  1 31 43 0.8435733036582747 0 4440.0 0.8435733036582747 1
gene  1 32 43 0.014884650461141069 0 4441.0 0.014884650461141069 1
gene  1 34 43 -0.6352403493214264 0 4443.0 -0.6352403493214264 1
gene  1 38 43 -0.3515765695190033 0 4447.0 -0.3515765695190033 1
gene  1 39 43 -0.9412445822455447 0 4448.0 -0.9412445822455447 1
gene  1 40 43 0.09205165367576895 0 4449.0 0.09205165367576895 1
gene  1 41 43 0.5128000686808618 0 4450.0 0.5128000686808618 1
gene  1 3 44 -0.9875516007444997 0 4517.0 -0.9875516007444997 1
gene  1 4 44 0.1968397871748605 0 4518.0 0.1968397871748605 1
gene  1 6 44 -0.24721377425446478 0 4520.0 -0.24721377425446478 1
gene  1 8 44 0.25105143466493174 0 4522.0 0.25105143466493174 1
gene  1 9 44 0.745557071171441 0 4523.0 0.745557071171441 1
gene  1 11 44 0.6101436496578265 0 4525.0 0.6101436496578265 1
gene  1 12 44 -0.3196729130155771 0 4526.0 -0.3196729130155771 1
gene  1 17 44 0.6851069636411935 0 4531.0 0.6851069636411935 1
gene  1 18 44 -0.7546029798093706 0 4532.0 -0.7546029798093706 1
gene  1 20 44 0.13030182963252246 0 4534.0 0.13030182963252246 1
gene  1 24 44 0.98563463183948 0 4538.0 0.98563463183948 1
gene  1 26 44 0.6639523597831092 0 4540.0 0.6639523597831092 1
gene  1 29 44 -0.8130984266318614 0 4543.0 -0.8130984266318614 1
gene  1 31 44 0.6793420895581452 0 4545.0 0.6793420895581452 1
gene  1 32 44 -0.9196138263056037 0 4546.0 -0.9196138263056037 1
gene  1 33 44 0.43590593880693584 0 4547.0 0.43590593880693584 1
gene  1 34 44 -0.795347707347753 0 4548.0 -0.795347707347753 1
gene  1 37 44 0.5211698866450434 0 4551.0 0.5211698866450434 1
gene  1 38 44 0.3469478226279695 0 4552.0 0.3469478226279695 1
gene  1 40 44 0.16937716984104811 0 4554.0 0.16937716984104811 1
gene  1 41 44 -0.9316557693515273 0 4555.0 -0.9316557693515273 1
gene  1 2 45 -0.8706370619680313 0 4621.0 -0.8706370619680313 1
gene  1 5 45 0.5140328972111226 0 4624.0 0.5140328972111226 1
gene  1 6 45 0.045463137304114554 0 4625.0 0.045463137304114554 1
gene  1 8 45 -0.24594017725573392 0 4627.0 -0.24594017725573392 1
gene  1 9 45 -0.7957943827070321 0 4628.0 -0.7957943827070321 1
gene  1 10 45 0.2975009141494982 0 4629.0 0.2975009141494982 1
gene  1 14 45 0.7884003768411229 0 4633.0 0.7884003768411229 1
gene  1 16 45 -0.14286531219862675 0 4635.0 -0.14286531219862675 1
gene  1 18 45 -0.6866576275566247 0 4637.0 -0.6866576275566247 1
gene  1 19 45 0.22453503463334445 0 4638.0 0.22453503463334445 1
gene  1 20 45 -0.37242092037294705 0 4639.0 -0.37242092037294705 1
gene  1 21 45 -0.7249427255597414 0 4640.0 -0.7249427255597414 1
gene  1 22 45 -0.5576557905392248 0 4641.0 -0.5576557905392248 1
gene  1 25 45 -0.44033706805554873 0 4644.0 -0.44033706805554873 1
gene  1 27 45 -0.9757492080361301 0 4646.0 -0.9757492080361301 1
gene  1 28 45 0.8936632408665162 0 4647.0 0.8936632408665162 1
gene  1 29 45 0.10217920126038615 0 4648.0 0.10217920126038615 1
gene  1 31 45 -0.6012217686760192 0 4650.0 -0.6012217686760192 1
gene  1 34 45 -0.8577966389865705 0 4653.0 -0.8577966389865705 1
gene  1 35 45 0.8867982361772836 0 4654.0 0.8867982361772836 1
gene  1 36 45 0.03196790695425189 0 4655.0 0.03196790695425189 1
gene  1 37 45 0.6181215291699386 0 4656.0 0.6181215291699386 1
gene  1 38 45 -0.5744140136228207 0 4657.0 -0.5744140136228207 1
gene  1 39 45 -0.3501632850545042 0 4658.0 -0.3501632850545042 1
gene  1 40 45 -0.7890160288874345 0 4659.0 -0.7890160288874345 1
gene  1 41 45 -0.5600087118423382 0 4660.0 -0.5600087118423382 1
gene  1 42 45 0.9755767606493533 0 4661.0 0.9755767606493533 1
gene  1 43 45 -0.7943838972271404 0 4662.0 -0.7943838972271404 1
gene  1 2 46 -0.11263042093744158 0 4726.0 -0.11263042093744158 1
gene  1 5 46 -0.6438270216853803 0 4729.0 -0.6438270216853803 1
gene  1 7 46 -0.45420434546171196 0 4731.0 -0.45420434546171196 1
gene  1 8 46 0.7879245104013777 0 4732.0 0.7879245104013777 1
gene  1 9 46 -0.250559710776323 0 4733.0 -0.250559710776323 1
gene  1 11 46 -0.9902895307246296 0 4735.0 -0.9902895307246296 1
gene  1 12 46 0.4349292320057727 0 4736.0 0.4349292320057727 1
gene  1 13 46 0.1635942750559647 0 4737.0 0.1635942750559647 1
gene  1 14 46 0.3138684889042581 0 4738.0 0.3138684889042581 1
gene  1 15 46 -0.9760423193681992 0 4739.0 -0.9760423193681992 1
gene  1 17 46 0.6553872264266208 0 4741.0 0.6553872264266208 1
gene  1 19 46 0.028061309950248914 0 4743.0 0.028061309950248914 1
gene  1 21 46 -0.5555083988494453 0 4745.0 -0.5555083988494453 1
gene  1 23 46 0.4342826428606892 0 4747.0 0.4342826428606892 1
gene  1 24 46 0.24472150195737963 0 4748.0 0.24472150195737963 1
gene  1 25 46 0.3580970432868684 0 4749.0 0.3580970432868684 1
gene  1 27 46 -0.2892482783682986 0 4751.0 -0.2892482783682986 1
gene  1 29 46 -0.379400307325907 0 4753.0 -0.379400307325907 1
gene  1 30 46 0.336083051697582 0 4754.0 0.336083051697582 1
gene  1 33 46 0.32321779505182935 0 4757.0 0.32321779505182935 1
gene  1 35 46 0.01755800696469778 0 4759.0 0.01755800696469778 1
gene  1 36 46 0.19740538003673735 0 4760.0 0.19740538003673735 1
gene  1 37 46 0.15044564832029983 0 4761.0 0.15044564832029983 1
gene  1 39 46 0.3063499502369693 0 4763.0 0.3063499502369693 1
gene  1 40 46 0.7848595960312758 0 4764.0 0.7848595960312758 1
gene  1 42 46 0.5530058160559215 0 4766.0 0.5530058160559215 1
gene  1 45 46 -0.39338360748994927 0 4769.0 -0.39338360748994927 1
gene  1 1 47 0.5007491198974477 0 4830.0 0.5007491198974477 1
gene  1 2 47 0.16880303308138012 0 4831.0 0.16880303308138012 1
gene  1 9 47 0.4257779597228134 0 4838.0 0.4257779597228134 1
gene  1 14 47 0.9468156628683634 0 4843.0 0.9468156628683634 1
gene  1 17 47 0.27566297469855183 0 4846.0 0.27566297469855183 1
gene  1 18 47 0.9413076189207149 0 4847.0 0.9413076189207149 1
gene  1 19 47 -0.370875286308895 0 4848.0 -0.370875286308895 1
gene  1 21 47 0.2931963660000224 0 4850.0 0.2931963660000224 1
gene  1 24 47 -0.5425224083886608 0 4853.0 -0.5425224083886608 1
gene  1 27 47 0.7193217216209319 0 4856.0 0.7193217216209319 1
gene  1 31 47 -0.082467114996994 0 4860.0 -0.082467114996994 1
gene  1 32 47 -0.756216674815717 0 4861.0 -0.756216674815717 1
gene  1 34 47 0.6695347944080595 0 4863.0 0.6695347944080595 1
gene  1 39 47 0.7507578861461099 0 4868.0 0.7507578861461099 1
gene  1 42 47 0.758283462243229 0 4871.0 0.758283462243229 1
gene  1 44 47 -0.40260708885419805 0 4873.0 -0.40260708885419805 1
gene  1 46 47 -0.12157092987841767 0 4875.0 -0.12157092987841767 1
gene  1 2 48 -0.8838960752469877 0 4936.0 -0.8838960752469877 1
gene  1 5 48 0.36833752941861087 0 4939.0 0.36833752941861087 1
gene  1 8 48 0.5438492429037725 0 4942.0 0.5438492429037725 1
gene  1 9 48 -0.7146883738931666 0 4943.0 -0.7146883738931666 1
gene  1 11 48 0.2106297297365496 0 4945.0 0.2106297297365496 1
gene  1 15 48 -0.32654543951157855 0 4949.0 -0.32654543951157855 1
gene  1 16 48 -0.9710930024984082 0 4950.0 -0.9710930024984082 1
gene  1 18 48 0.9254042049423019 0 4952.0 0.9254042049423019 1
gene  1 21 48 0.48904447343181134 0 4955.0 0.48904447343181134 1
gene  1 22 48 0.9663868465338895 0 4956.0 0.9663868465338895 1
gene  1 27 48 0.914826861107428 0 4961.0 0.914826861107428 1
gene  1 28 48 -0.0731752978838408 0 4962.0 -0.0731752978838408 1
gene  1 29 48 0.29463552064116894 0 4963.0 0.29463552064116894 1
gene  1 33 48 -0.7061449331602052 0 4967.0 -0.7061449331602052 1
gene  1 34 48 -0.8532073744439412 0 4968.0 -0.8532073744439412 1
gene  1 35 48 0.8740987013382645 0 4969.0 0.8740987013382645 1
gene  1 36 48 -0.6495209715305332 0 4970.0 -0.6495209715305332 1
gene  1 37 48 0.5401974508772615 0 4971.0 0.5401974508772615 1
gene  1 39 48 0.6066475388558233 0 4973.0 0.6066475388558233 1
gene  1 40 48 0.05261434044723823 0 4974.0 0.05261434044723823 1
gene  1 43 48 -0.28471400672543135 0 4977.0 -0.28471400672543135 1
gene  1 44 48 0.054252292793651735 0 4978.0 0.054252292793651735 1
gene  1 45 48 0.10539506683864208 0 4979.0 0.10539506683864208 1
gene  1 46 48 -0.5883625197075627 0 4980.0 -0.5883625197075627 1
gene  1 47 48 0.5231616029180756 0 4981.0 0.5231616029180756 1
gene  1 1 49 0.187646849177192 0 5040.0 0.187646849177192 1
gene  1 2 49 -0.05237593407868246 0 5041.0 -0.05237593407868246 1
gene  1 3 49 -0.19407422466803836 0 5042.0 -0.19407422466803836 1
gene  1 4 49 0.2740079182600439 0 5043.0 0.2740079182600439 1
gene  1 6 49 -0.46755874327317015 0 5045.0 -0.46755874327317015 1
gene  1 7 49 -0.7233885271332661 0 5046.0 -0.7233885271332661 1
gene  1 8 49 -0.6785887649100608 0 5047.0 -0.6785887649100608 1
gene  1 9 49 -0.7164352907421622 0 5048.0 -0.7164352907421622 1
gene  1 13 49 -0.040275426161432315 0 5052.0 -0.040275426161432315 1
gene  1 15 49 -0.9455351205795847 0 5054.0 -0.9455351205795847 1
gene  1 19 49 -0.5923070799171379 0 5058.0 -0.5923070799171379 1
gene  1 24 49 0.7613878251904709 0 5063.0 0.7613878251904709 1
gene  1 25 49 0.004986657684590612 0 5064.0 0.004986657684590612 1
gene  1 27 49 -0.014171699528016335 0 5066.0 -0.014171699528016335 1
gene  1 28 49 0.6104824119821528 0 5067.0 0.6104824119821528 1
gene  1 30 49 -0.32028274691079683 0 5069.0 -0.32028274691079683 1
gene  1 32 49 -0.9067189169409313 0 5071.0 -0.9067189169409313 1
gene  1 33 49 -0.8871223226435317 0 5072.0 -0.8871223226435317 1
gene  1 36 49 -0.3469831986783235 0 5075.0 -0.3469831986783235 1
gene  1 37 49 -0.21212518943433034 0 5076.0 -0.21212518943433034 1
gene  1 44 49 -0.7172171998603453 0 5083.0 -0.7172171998603453 1
gene  1 46 49 0.4177895138263994 0 5085.0 0.4177895138263994 1
gene  1 1 50 0.05616538903197987 0 5145.0 0.05616538903197987 1
gene  1 4 50 0.3068037954823599 0 5148.0 0.3068037954823599 1
gene  1 5 50 0.785369908783419 0 5149.0 0.785369908783419 1
gene  1 6 50 -0.9383262449491351 0 5150.0 -0.9383262449491351 1
gene  1 8 50 0.05627374327834689 0 5152.0 0.05627374327834689 1
gene  1 9 50 -0.257169616633536 0 5153.0 -0.257169616633536 1
gene  1 11 50 -0.49111114494042185 0 5155.0 -0.49111114494042185 1
gene  1 14 50 -0.009318713263849254 0 5158.0 -0.009318713263849254 1
gene  1 16 50 -0.7617355795430398 0 5160.0 -0.7617355795430398 1
gene  1 17 50 -0.11208010262051982 0 5161.0 -0.11208010262051982 1
gene  1 18 50 0.21694156093977524 0 5162.0 0.21694156093977524 1
gene  1 23 50 -0.239437870502071 0 5167.0 -0.239437870502071 1
gene  1 26 50 -0.24557299995268 0 5170.0 -0.24557299995268 1
gene  1 28 50 -0.8450866423450759 0 5172.0 -0.8450866423450759 1
gene  1 30 50 -0.6469799739308547 0 5174.0 -0.6469799739308547 1
gene  1 32 50 0.4201054407992917 0 5176.0 0.4201054407992917 1
gene  1 33 50 -0.05307513916024742 0 5177.0 -0.05307513916024742 1
gene  1 37 50 -0.6688964598249334 0 5181.0 -0.6688964598249334 1
gene  1 41 50 -0.8118634738440413 0 5185.0 -0.8118634738440413 1
gene  1 42 50 -0.7861109738722745 0 5186.0 -0.7861109738722745 1
gene  1 43 50 -0.07434762023274144 0 5187.0 -0.07434762023274144 1
gene  1 44 50 0.14606413497818904 0 5188.0 0.14606413497818904 1
gene  1 46 50 0.07529817891303792 0 5190.0 0.07529817891303792 1
gene  1 48 50 -0.5199136959626827 0 5192.0 -0.5199136959626827 1
gene  1 2 51 -0.16127416225618696 0 5251.0 -0.16127416225618696 1
gene  1 5 51 0.9353508923567125 0 5254.0 0.9353508923567125 1
gene  1 6 51 0.8704482270813569 0 5255.0 0.8704482270813569 1
gene  1 16 51 -0.9785422074329894 0 5265.0 -0.9785422074329894 1
gene  1 23 51 -0.5830446285735998 0 5272.0 -0.5830446285735998 1
gene  1 25 51 -0.33649660820211713 0 5274.0 -0.33649660820211713 1
gene  1 26 51 0.26683001165332654 0 5275.0 0.26683001165332654 1
gene  1 27 51 0.8979183195822417 0 5276.0 0.8979183195822417 1
gene  1 29 51 0.5773559952163574 0 5278.0 0.5773559952163574 1
gene  1 30 51 0.09132004329625565 0 5279.0 0.09132004329625565 1
gene  1 31 51 -0.8155244842691709 0 5280.0 -0.8155244842691709 1
gene  1 34 51 -0.6773050589895215 0 5283.0 -0.6773050589895215 1
gene  1 38 51 0.12968641653508906 0 5287.0 0.12968641653508906 1
gene  1 43 51 0.5655087203597369 0 5292.0 0.5655087203597369 1
gene  1 44 51 0.8762769695400738 0 5293.0 0.8762769695400738 1
gene  1 45 51 0.9705145797171612 0 5294.0 0.9705145797171612 1
gene  1 46 51 -0.6430608234754719 0 5295.0 -0.6430608234754719 1
gene  1 50 51 0.044472871505918166 0 5299.0 0.044472871505918166 1
gene  1 1 52 0.1777406397744018 0 5355.0 0.1777406397744018 1
gene  1 3 52 0.21148571532973404 0 5357.0 0.21148571532973404 1
gene  1 4 52 -0.5222254792715476 0 5358.0 -0.5222254792715476 1
gene  1 6 52 0.42138056711675775 0 5360.0 0.42138056711675775 1
gene  1 9 52 -0.4644350363484975 0 5363.0 -0.4644350363484975 1
gene  1 10 52 0.4277060285749996 0 5364.0 0.4277060285749996 1
gene  1 11 52 0.550264438673063 0 5365.0 0.550264438673063 1
gene  1 12 52 0.7010023859967751 0 5366.0 0.7010023859967751 1
gene  1 14 52 0.11300053509761343 0 5368.0 0.11300053509761343 1
gene  1 17 52 -0.09043316442569904 0 5371.0 -0.09043316442569904 1
gene  1 20 52 0.6779271256978128 0 5374.0 0.6779271256978128 1
gene  1 21 52 -0.0761889551246272 0 5375.0 -0.0761889551246272 1
gene  1 30 52 -0.7874833793258037 0 5384.0 -0.7874833793258037 1
gene  1 31 52 -0.7073711250456381 0 5385.0 -0.7073711250456381 1
gene  1 32 52 0.8561791718641341 0 5386.0 0.8561791718641341 1
gene  1 33 52 -0.6134717708057689 0 5387.0 -0.6134717708057689 1
gene  1 35 52 -0.8895008895794712 0 5389.0 -0.8895008895794712 1
gene  1 36 52 -0.06984985009795175 0 5390.0 -0.06984985009795175 1
gene  1 37 52 -0.4349940495224349 0 5391.0 -0.4349940495224349 1
gene  1 38 52 0.9910803212499524 0 5392.0 0.9910803212499524 1
gene  1 40 52 0.4444092359300177 0 5394.0 0.4444092359300177 1
gene  1 43 52 0.2579982287180439 0 5397.0 0.2579982287180439 1
gene  1 44 52 0.5248049612053284 0 5398.0 0.5248049612053284 1
gene  1 45 52 -0.1191475503547943 0 5399.0 -0.1191475503547943 1
gene  1 47 52 -0.458597593633031 0 5401.0 -0.458597593633031 1
gene  1 49 52 0.7161133635599711 0 5403.0 0.7161133635599711 1
gene  1 51 52 -0.40434145619321304 0 5405.0 -0.40434145619321304 1
gene  1 2 53 -0.6124429299705734 0 5461.0 -0.6124429299705734 1
gene  1 3 53 -0.8547064624960363 0 5462.0 -0.8547064624960363 1
gene  1 4 53 -0.5155175814319495 0 5463.0 -0.5155175814319495 1
gene  1 5 53 0.37716791944513417 0 5464.0 0.37716791944513417 1
gene  1 7 53 -0.9269191951482865 0 5466.0 -0.9269191951482865 1
gene  1 8 53 -0.1192360801695257 0 5467.0 -0.1192360801695257 1
gene  1 11 53 -0.6996333309374219 0 5470.0 -0.6996333309374219 1
gene  1 12 53 0.48087701001048244 0 5471.0 0.48087701001048244 1
gene  1 15 53 0.8808468315329969 0 5474.0 0.8808468315329969 1
gene  1 16 53 -0.4183679611647625 0 5475.0 -0.4183679611647625 1
gene  1 17 53 0.7786480846759846 0 5476.0 0.7786480846759846 1
gene  1 19 53 0.6737050200462381 0 5478.0 0.6737050200462381 1
gene  1 21 53 -0.29938119042535594 0 5480.0 -0.29938119042535594 1
gene  1 22 53 0.3999385781839472 0 5481.0 0.3999385781839472 1
gene  1 24 53 0.728712354522764 0 5483.0 0.728712354522764 1
gene  1 26 53 -0.8338354511720748 0 5485.0 -0.8338354511720748 1
gene  1 27 53 -0.6099724925178996 0 5486.0 -0.6099724925178996 1
gene  1 28 53 -0.3088251145085694 0 5487.0 -0.3088251145085694 1
gene  1 29 53 0.5197155190349848 0 5488.0 0.5197155190349848 1
gene  1 30 53 -0.36172287576667495 0 5489.0 -0.36172287576667495 1
gene  1 31 53 0.5088799072025326 0 5490.0 0.5088799072025326 1
gene  1 32 53 -0.6153491599777069 0 5491.0 -0.6153491599777069 1
gene  1 33 53 0.3097932785011084 0 5492.0 0.3097932785011084 1
gene  1 36 53 0.8646623061403689 0 5495.0 0.8646623061403689 1
gene  1 37 53 -0.8718496658085675 0 5496.0 -0.8718496658085675 1
gene  1 39 53 -0.6668699327793015 0 5498.0 -0.6668699327793015 1
gene  1 40 53 0.11418831888879122 0 5499.0 0.11418831888879122 1
gene  1 41 53 -0.2991798249188218 0 5500.0 -0.2991798249188218 1
gene  1 44 53 -0.12230447538991662 0 5503.0 -0.12230447538991662 1
gene  1 46 53 0.10609494302723377 0 5505.0 0.10609494302723377 1
gene  1 48 53 -0.3881396209580752 0 5507.0 -0.3881396209580752 1
gene  1 52 53 0.7586372394661052 0 5511.0 0.7586372394661052 1
gene  1 6 54 0.44758045037433036 0 5570.0 0.44758045037433036 1
gene  1 7 54 0.9997290039829517 0 5571.0 0.9997290039829517 1
gene  1 8 54 -0.5122154427427847 0 5572.0 -0.5122154427427847 1
gene  1 10 54 0.5131102261433304 0 5574.0 0.5131102261433304 1
gene  1 12 54 0.8891271447499038 0 5576.0 0.8891271447499038 1
gene  1 13 54 -0.9412298954605696 0 5577.0 -0.9412298954605696 1
gene  1 15 54 0.3849097762016427 0 5579.0 0.3849097762016427 1
gene  1 17 54 0.8628723504380458 0 5581.0 0.8628723504380458 1
gene  1 18 54 -0.16932156293039924 0 5582.0 -0.16932156293039924 1
gene  1 19 54 -0.34434023726924756 0 5583.0 -0.34434023726924756 1
gene  1 20 54 -0.00924063621131177 0 5584.0 -0.00924063621131177 1
gene  1 21 54 0.2668302573552762 0 5585.0 0.2668302573552762 1
gene  1 22 54 0.5706754340795863 0 5586.0 0.5706754340795863 1
gene  1 24 54 -0.8517853773975701 0 5588.0 -0.8517853773975701 1
gene  1 26 54 0.202249617681158 0 5590.0 0.202249617681158 1
gene  1 32 54 0.1985163239251334 0 5596.0 0.1985163239251334 1
gene  1 33 54 0.589652331951712 0 5597.0 0.589652331951712 1
gene  1 36 54 0.22751726248401705 0 5600.0 0.22751726248401705 1
gene  1 37 54 -3.060120874393002E-4 0 5601.0 -3.060120874393002E-4 1
gene  1 38 54 0.3946351715072923 0 5602.0 0.3946351715072923 1
gene  1 43 54 -0.9558447435599431 0 5607.0 -0.9558447435599431 1
gene  1 44 54 0.3719594995954576 0 5608.0 0.3719594995954576 1
gene  1 48 54 0.4174427498933493 0 5612.0 0.4174427498933493 1
gene  1 49 54 -0.9589405349398601 0 5613.0 -0.9589405349398601 1
gene  1 50 54 0.8685571575269939 0 5614.0 0.8685571575269939 1
gene  1 52 54 -0.648068169853881 0 5616.0 -0.648068169853881 1
gene  1 1 55 -0.42394696454039427 0 5670.0 -0.42394696454039427 1
gene  1 5 55 0.01601789749260807 0 5674.0 0.01601789749260807 1
gene  1 7 55 0.5594366059711574 0 5676.0 0.5594366059711574 1
gene  1 9 55 -0.5912348955656302 0 5678.0 -0.5912348955656302 1
gene  1 11 55 -0.1303206026508541 0 5680.0 -0.1303206026508541 1
gene  1 16 55 0.8583784427140645 0 5685.0 0.8583784427140645 1
gene  1 17 55 -0.06610163984398998 0 5686.0 -0.06610163984398998 1
gene  1 19 55 -0.21706878384797346 0 5688.0 -0.21706878384797346 1
gene  1 20 55 -0.5166197389658383 0 5689.0 -0.5166197389658383 1
gene  1 22 55 -0.3635092809726346 0 5691.0 -0.3635092809726346 1
gene  1 23 55 0.09403484135983131 0 5692.0 0.09403484135983131 1
gene  1 24 55 -0.5662227905838675 0 5693.0 -0.5662227905838675 1
gene  1 25 55 -0.7650499903774152 0 5694.0 -0.7650499903774152 1
gene  1 26 55 -0.6769353096738788 0 5695.0 -0.6769353096738788 1
gene  1 30 55 -0.17048439231939205 0 5699.0 -0.17048439231939205 1
gene  1 32 55 0.2223733310926429 0 5701.0 0.2223733310926429 1
gene  1 37 55 0.5073916460076257 0 5706.0 0.5073916460076257 1
gene  1 38 55 0.04906080933346646 0 5707.0 0.04906080933346646 1
gene  1 40 55 -0.7448074854990914 0 5709.0 -0.7448074854990914 1
gene  1 42 55 0.3052885077638764 0 5711.0 0.3052885077638764 1
gene  1 43 55 0.5580787702034665 0 5712.0 0.5580787702034665 1
gene  1 46 55 0.29807978960013004 0 5715.0 0.29807978960013004 1
gene  1 47 55 0.17649704356273577 0 5716.0 0.17649704356273577 1
gene  1 50 55 0.7320777202442201 0 5719.0 0.7320777202442201 1
gene  1 51 55 0.9851635619994547 0 5720.0 0.9851635619994547 1
gene  1 53 55 0.6534606271965193 0 5722.0 0.6534606271965193 1
gene  1 1 56 -0.5588499719783349 0 5775.0 -0.5588499719783349 1
gene  1 4 56 -0.32202175945793987 0 5778.0 -0.32202175945793987 1
gene  1 5 56 0.4884347296705752 0 5779.0 0.4884347296705752 1
gene  1 6 56 -0.9536753916091851 0 5780.0 -0.9536753916091851 1
gene  1 7 56 -0.35852731252110737 0 5781.0 -0.35852731252110737 1
gene  1 10 56 0.9190341920680828 0 5784.0 0.9190341920680828 1
gene  1 12 56 0.8669827633666788 0 5786.0 0.8669827633666788 1
gene  1 14 56 -0.05159403720944922 0 5788.0 -0.05159403720944922 1
gene  1 15 56 0.8866608015948797 0 5789.0 0.8866608015948797 1
gene  1 16 56 -0.05537293528722809 0 5790.0 -0.05537293528722809 1
gene  1 17 56 0.024736806156349878 0 5791.0 0.024736806156349878 1
gene  1 18 56 0.2793039955560762 0 5792.0 0.2793039955560762 1
gene  1 20 56 -0.5550907519133512 0 5794.0 -0.5550907519133512 1
gene  1 21 56 -0.5746483023331576 0 5795.0 -0.5746483023331576 1
gene  1 23 56 0.18604350475433662 0 5797.0 0.18604350475433662 1
gene  1 27 56 0.38343045052102076 0 5801.0 0.38343045052102076 1
gene  1 28 56 -0.7830680346447282 0 5802.0 -0.7830680346447282 1
gene  1 29 56 -0.9747839223730274 0 5803.0 -0.9747839223730274 1
gene  1 33 56 0.2751919605633638 0 5807.0 0.2751919605633638 1
gene  1 34 56 0.13907964237188286 0 5808.0 0.13907964237188286 1
gene  1 35 56 -0.7984794025096112 0 5809.0 -0.7984794025096112 1
gene  1 37 56 -0.2850723930908253 0 5811.0 -0.2850723930908253 1
gene  1 38 56 -0.30176210123173086 0 5812.0 -0.30176210123173086 1
gene  1 39 56 0.04643815896184578 0 5813.0 0.04643815896184578 1
gene  1 46 56 -0.5884011267475276 0 5820.0 -0.5884011267475276 1
gene  1 49 56 0.9279003583618105 0 5823.0 0.9279003583618105 1
gene  1 51 56 0.9325149460334015 0 5825.0 0.9325149460334015 1
gene  1 54 56 0.004345992985958058 0 5828.0 0.004345992985958058 1
gene  1 1 57 0.9834661169274729 0 5880.0 0.9834661169274729 1
gene  1 3 57 -0.9665422950416815 0 5882.0 -0.9665422950416815 1
gene  1 4 57 -0.6118517048957828 0 5883.0 -0.6118517048957828 1
gene  1 5 57 -0.5196997588778175 0 5884.0 -0.5196997588778175 1
gene  1 8 57 0.56792934240424 0 5887.0 0.56792934240424 1
gene  1 10 57 0.2464597162630855 0 5889.0 0.2464597162630855 1
gene  1 12 57 -0.8051219625623706 0 5891.0 -0.8051219625623706 1
gene  1 13 57 -0.9645957378971244 0 5892.0 -0.9645957378971244 1
gene  1 17 57 -0.4731055558004379 0 5896.0 -0.4731055558004379 1
gene  1 18 57 0.39898687907243247 0 5897.0 0.39898687907243247 1
gene  1 20 57 0.4176116809267847 0 5899.0 0.4176116809267847 1
gene  1 22 57 0.23332006464393762 0 5901.0 0.23332006464393762 1
gene  1 23 57 0.48856476063902987 0 5902.0 0.48856476063902987 1
gene  1 24 57 0.30270757815266325 0 5903.0 0.30270757815266325 1
gene  1 25 57 0.719114156209529 0 5904.0 0.719114156209529 1
gene  1 26 57 0.21164638096601995 0 5905.0 0.21164638096601995 1
gene  1 28 57 0.5875240151085098 0 5907.0 0.5875240151085098 1
gene  1 29 57 -0.05817310455791713 0 5908.0 -0.05817310455791713 1
gene  1 30 57 0.258684969344812 0 5909.0 0.258684969344812 1
gene  1 38 57 0.06879004902368124 0 5917.0 0.06879004902368124 1
gene  1 40 57 -0.35655395895906006 0 5919.0 -0.35655395895906006 1
gene  1 41 57 -0.6042021124761607 0 5920.0 -0.6042021124761607 1
gene  1 42 57 -0.16247985866409764 0 5921.0 -0.16247985866409764 1
gene  1 45 57 -0.06955114596415579 0 5924.0 -0.06955114596415579 1
gene  1 46 57 0.8131921737894229 0 5925.0 0.8131921737894229 1
gene  1 47 57 0.9265314121932059 0 5926.0 0.9265314121932059 1
gene  1 48 57 -0.7923263313494537 0 5927.0 -0.7923263313494537 1
gene  1 51 57 -0.4167894478208526 0 5930.0 -0.4167894478208526 1
gene  1 52 57 0.22835949440729386 0 5931.0 0.22835949440729386 1
gene  1 53 57 -0.12912478266928984 0 5932.0 -0.12912478266928984 1
gene  1 1 58 -0.2236093925664111 0 5985.0 -0.2236093925664111 1
gene  1 2 58 -0.3429199881242353 0 5986.0 -0.3429199881242353 1
gene  1 8 58 0.30552608025757744 0 5992.0 0.30552608025757744 1
gene  1 11 58 0.06144018334301149 0 5995.0 0.06144018334301149 1
gene  1 13 58 -0.14476332877541442 0 5997.0 -0.14476332877541442 1
gene  1 16 58 0.028481667847725767 0 6000.0 0.028481667847725767 1
gene  1 21 58 0.039158580050518865 0 6005.0 0.039158580050518865 1
gene  1 24 58 -0.43722281882543224 0 6008.0 -0.43722281882543224 1
gene  1 25 58 -0.15062995662750422 0 6009.0 -0.15062995662750422 1
gene  1 26 58 0.9252702293098908 0 6010.0 0.9252702293098908 1
gene  1 30 58 -0.8367634619424045 0 6014.0 -0.8367634619424045 1
gene  1 31 58 -0.5171293489439709 0 6015.0 -0.5171293489439709 1
gene  1 32 58 -0.6085205549840064 0 6016.0 -0.6085205549840064 1
gene  1 34 58 0.17467493240193233 0 6018.0 0.17467493240193233 1
gene  1 35 58 -0.7693630739305126 0 6019.0 -0.7693630739305126 1
gene  1 36 58 -0.14326735009399416 0 6020.0 -0.14326735009399416 1
gene  1 37 58 0.22623208707004705 0 6021.0 0.22623208707004705 1
gene  1 38 58 -0.24672234840853413 0 6022.0 -0.24672234840853413 1
gene  1 40 58 0.7639139238548286 0 6024.0 0.7639139238548286 1
gene  1 45 58 -0.7524976519039913 0 6029.0 -0.7524976519039913 1
gene  1 46 58 -0.5996175006505384 0 6030.0 -0.5996175006505384 1
gene  1 47 58 -0.87429348522828 0 6031.0 -0.87429348522828 1
gene  1 49 58 -0.9892913400548307 0 6033.0 -0.9892913400548307 1
gene  1 50 58 -0.6104181925190145 0 6034.0 -0.6104181925190145 1
gene  1 51 58 0.6145736321376081 0 6035.0 0.6145736321376081 1
gene  1 53 58 -0.24680111692787754 0 6037.0 -0.24680111692787754 1
gene  1 56 58 -0.8581831730287417 0 6040.0 -0.8581831730287417 1
gene  1 2 59 0.9120193935322392 0 6091.0 0.9120193935322392 1
gene  1 3 59 0.9223386075748486 0 6092.0 0.9223386075748486 1
gene  1 4 59 0.1694234338403181 0 6093.0 0.1694234338403181 1
gene  1 6 59 0.8855991395487952 0 6095.0 0.8855991395487952 1
gene  1 8 59 0.21014463342272327 0 6097.0 0.21014463342272327 1
gene  1 12 59 0.3925106587780194 0 6101.0 0.3925106587780194 1
gene  1 13 59 0.13329807693993456 0 6102.0 0.13329807693993456 1
gene  1 14 59 0.9476229760569901 0 6103.0 0.9476229760569901 1
gene  1 15 59 -0.34055052335518565 0 6104.0 -0.34055052335518565 1
gene  1 19 59 -0.6168138607956697 0 6108.0 -0.6168138607956697 1
gene  1 23 59 -0.6087679261715722 0 6112.0 -0.6087679261715722 1
gene  1 26 59 0.2803034944342081 0 6115.0 0.2803034944342081 1
gene  1 32 59 -0.2033591971510771 0 6121.0 -0.2033591971510771 1
gene  1 34 59 -0.1268195298789695 0 6123.0 -0.1268195298789695 1
gene  1 35 59 -0.2320963922161674 0 6124.0 -0.2320963922161674 1
gene  1 36 59 -0.27886024605758786 0 6125.0 -0.27886024605758786 1
gene  1 37 59 0.38522589435682586 0 6126.0 0.38522589435682586 1
gene  1 40 59 -0.9859367136969134 0 6129.0 -0.9859367136969134 1
gene  1 41 59 -0.25466659567832983 0 6130.0 -0.25466659567832983 1
gene  1 42 59 0.9042093786606685 0 6131.0 0.9042093786606685 1
gene  1 43 59 0.22417919719626633 0 6132.0 0.22417919719626633 1
gene  1 46 59 0.10223758128877791 0 6135.0 0.10223758128877791 1
gene  1 49 59 -0.7455546004302851 0 6138.0 -0.7455546004302851 1
gene  1 50 59 0.301609733108817 0 6139.0 0.301609733108817 1
gene  1 51 59 0.9487727102825395 0 6140.0 0.9487727102825395 1
gene  1 55 59 -0.8131858848620198 0 6144.0 -0.8131858848620198 1
gene  1 5 60 0.6509047580386075 0 6199.0 0.6509047580386075 1
gene  1 11 60 -0.281276708893028 0 6205.0 -0.281276708893028 1
gene  1 16 60 0.4932386379761967 0 6210.0 0.4932386379761967 1
gene  1 17 60 -0.6420647281527235 0 6211.0 -0.6420647281527235 1
gene  1 21 60 -0.21849092020598493 0 6215.0 -0.21849092020598493 1
gene  1 23 60 0.221277270138308 0 6217.0 0.221277270138308 1
gene  1 24 60 -0.38844790963138065 0 6218.0 -0.38844790963138065 1
gene  1 27 60 -0.2917058077429113 0 6221.0 -0.2917058077429113 1
gene  1 29 60 0.2793579375262437 0 6223.0 0.2793579375262437 1
gene  1 30 60 0.018940497246907828 0 6224.0 0.018940497246907828 1
gene  1 32 60 -0.25173075568533365 0 6226.0 -0.25173075568533365 1
gene  1 34 60 -0.8937318403937693 0 6228.0 -0.8937318403937693 1
gene  1 35 60 0.9610052070090941 0 6229.0 0.9610052070090941 1
gene  1 37 60 -0.15031102187753043 0 6231.0 -0.15031102187753043 1
gene  1 39 60 -0.20344023719122062 0 6233.0 -0.20344023719122062 1
gene  1 40 60 0.7875405479194731 0 6234.0 0.7875405479194731 1
gene  1 43 60 0.09308764333952246 0 6237.0 0.09308764333952246 1
gene  1 45 60 -0.08162454080240478 0 6239.0 -0.08162454080240478 1
gene  1 46 60 0.49036986708846586 0 6240.0 0.49036986708846586 1
gene  1 49 60 0.9761557995181738 0 6243.0 0.9761557995181738 1
gene  1 51 60 0.5963209295899335 0 6245.0 0.5963209295899335 1
gene  1 54 60 -0.018060452891977885 0 6248.0 -0.018060452891977885 1
gene  1 55 60 -0.5209600947708461 0 6249.0 -0.5209600947708461 1
gene  1 58 60 0.25620390882842914 0 6252.0 0.25620390882842914 1
gene  1 59 60 0.741824771519883 0 6253.0 0.741824771519883 1
gene  1 1 61 -0.7506650224307893 0 6300.0 -0.7506650224307893 1
gene  1 7 61 -0.8492179480312381 0 6306.0 -0.8492179480312381 1
gene  1 8 61 0.5038656939243326 0 6307.0 0.5038656939243326 1
gene  1 10 61 -0.28952496679669915 0 6309.0 -0.28952496679669915 1
gene  1 11 61 0.5717542833747905 0 6310.0 0.5717542833747905 1
gene  1 13 61 0.6773736368851718 0 6312.0 0.6773736368851718 1
gene  1 15 61 0.9218087552900182 0 6314.0 0.9218087552900182 1
gene  1 18 61 -0.10284714447444243 0 6317.0 -0.10284714447444243 1
gene  1 21 61 0.44358710451317385 0 6320.0 0.44358710451317385 1
gene  1 23 61 0.5848303789917888 0 6322.0 0.5848303789917888 1
gene  1 26 61 0.21479819702577807 0 6325.0 0.21479819702577807 1
gene  1 27 61 0.06952793255195644 0 6326.0 0.06952793255195644 1
gene  1 28 61 -0.817809717161549 0 6327.0 -0.817809717161549 1
gene  1 29 61 -0.19561991329278483 0 6328.0 -0.19561991329278483 1
gene  1 33 61 -0.7117665861900543 0 6332.0 -0.7117665861900543 1
gene  1 36 61 0.6960781880684989 0 6335.0 0.6960781880684989 1
gene  1 37 61 0.37915443036851404 0 6336.0 0.37915443036851404 1
gene  1 39 61 0.740432177353962 0 6338.0 0.740432177353962 1
gene  1 40 61 -0.7343241577722526 0 6339.0 -0.7343241577722526 1
gene  1 42 61 0.9817636296292841 0 6341.0 0.9817636296292841 1
gene  1 45 61 0.11303744872236587 0 6344.0 0.11303744872236587 1
gene  1 46 61 -0.18378311052120122 0 6345.0 -0.18378311052120122 1
gene  1 49 61 -0.9176081513007793 0 6348.0 -0.9176081513007793 1
gene  1 52 61 -0.49680382582167504 0 6351.0 -0.49680382582167504 1
gene  1 54 61 -0.2318374539665774 0 6353.0 -0.2318374539665774 1
gene  1 55 61 -0.11284425721489078 0 6354.0 -0.11284425721489078 1
gene  1 56 61 0.4074832486998291 0 6355.0 0.4074832486998291 1
gene  1 60 61 0.6030911734346931 0 6359.0 0.6030911734346931 1
gene  1 2 62 -0.8194080005283872 0 6406.0 -0.8194080005283872 1
gene  1 3 62 0.6220742760016535 0 6407.0 0.6220742760016535 1
gene  1 5 62 0.6237645267199633 0 6409.0 0.6237645267199633 1
gene  1 7 62 0.5627252498947425 0 6411.0 0.5627252498947425 1
gene  1 12 62 0.42032363393064 0 6416.0 0.42032363393064 1
gene  1 14 62 0.28663713361707044 0 6418.0 0.28663713361707044 1
gene  1 18 62 0.6245663312415666 0 6422.0 0.6245663312415666 1
gene  1 23 62 -0.713058671293388 0 6427.0 -0.713058671293388 1
gene  1 24 62 0.9838970443476011 0 6428.0 0.9838970443476011 1
gene  1 28 62 -0.1666102285205875 0 6432.0 -0.1666102285205875 1
gene  1 29 62 0.6111874461226027 0 6433.0 0.6111874461226027 1
gene  1 32 62 -0.7641353258167822 0 6436.0 -0.7641353258167822 1
gene  1 34 62 0.5194186965743959 0 6438.0 0.5194186965743959 1
gene  1 35 62 0.9014970489196635 0 6439.0 0.9014970489196635 1
gene  1 36 62 -0.15210083966036825 0 6440.0 -0.15210083966036825 1
gene  1 39 62 -0.6471326288307081 0 6443.0 -0.6471326288307081 1
gene  1 40 62 0.8965281355136105 0 6444.0 0.8965281355136105 1
gene  1 41 62 0.9782597600306778 0 6445.0 0.9782597600306778 1
gene  1 44 62 0.7014766537615741 0 6448.0 0.7014766537615741 1
gene  1 46 62 0.746826836739239 0 6450.0 0.746826836739239 1
gene  1 47 62 -0.4731651680060752 0 6451.0 -0.4731651680060752 1
gene  1 49 62 -0.4330475045549348 0 6453.0 -0.4330475045549348 1
gene  1 50 62 -0.6619569037541292 0 6454.0 -0.6619569037541292 1
gene  1 54 62 0.05769291505037655 0 6458.0 0.05769291505037655 1
gene  1 55 62 -0.6150837182630355 0 6459.0 -0.6150837182630355 1
gene  1 56 62 -0.6834601320604035 0 6460.0 -0.6834601320604035 1
gene  1 60 62 0.8597207787366651 0 6464.0 0.8597207787366651 1
gene  1 61 62 0.06691103697278233 0 6465.0 0.06691103697278233 1
gene  1 2 63 0.8192301855133022 0 6511.0 0.8192301855133022 1
gene  1 3 63 0.10037699090346941 0 6512.0 0.10037699090346941 1
gene  1 4 63 0.9257071912025097 0 6513.0 0.9257071912025097 1
gene  1 5 63 -0.4775378701536189 0 6514.0 -0.4775378701536189 1
gene  1 7 63 -0.6240563179167105 0 6516.0 -0.6240563179167105 1
gene  1 8 63 -0.8912900862041114 0 6517.0 -0.8912900862041114 1
gene  1 9 63 -0.8205479503707288 0 6518.0 -0.8205479503707288 1
gene  1 13 63 0.21504522757749656 0 6522.0 0.21504522757749656 1
gene  1 16 63 0.010592278252825715 0 6525.0 0.010592278252825715 1
gene  1 17 63 -0.06528112775108008 0 6526.0 -0.06528112775108008 1
gene  1 22 63 -0.009537097627563829 0 6531.0 -0.009537097627563829 1
gene  1 24 63 0.21833989235794216 0 6533.0 0.21833989235794216 1
gene  1 25 63 -0.7182633399285346 0 6534.0 -0.7182633399285346 1
gene  1 26 63 -0.7272176174467623 0 6535.0 -0.7272176174467623 1
gene  1 27 63 0.5419208762154477 0 6536.0 0.5419208762154477 1
gene  1 28 63 0.9946384229472177 0 6537.0 0.9946384229472177 1
gene  1 29 63 -0.1402819906696987 0 6538.0 -0.1402819906696987 1
gene  1 31 63 -0.8587362309992542 0 6540.0 -0.8587362309992542 1
gene  1 32 63 -0.2669158683767755 0 6541.0 -0.2669158683767755 1
gene  1 33 63 -0.7429370273424393 0 6542.0 -0.7429370273424393 1
gene  1 34 63 -0.9681508615448441 0 6543.0 -0.9681508615448441 1
gene  1 37 63 0.5988244325998261 0 6546.0 0.5988244325998261 1
gene  1 41 63 -0.4250002946059783 0 6550.0 -0.4250002946059783 1
gene  1 43 63 0.4344247956664383 0 6552.0 0.4344247956664383 1
gene  1 44 63 -0.9384093628857598 0 6553.0 -0.9384093628857598 1
gene  1 45 63 0.9593776783911863 0 6554.0 0.9593776783911863 1
gene  1 48 63 0.9819033367940408 0 6557.0 0.9819033367940408 1
gene  1 49 63 -0.7255411386011039 0 6558.0 -0.7255411386011039 1
gene  1 50 63 0.2341629475066731 0 6559.0 0.2341629475066731 1
gene  1 53 63 -0.8824411599497378 0 6562.0 -0.8824411599497378 1
gene  1 54 63 -0.9659399669448009 0 6563.0 -0.9659399669448009 1
gene  1 61 63 0.10036417102208395 0 6570.0 0.10036417102208395 1
gene  1 62 63 -0.8179361220396824 0 6571.0 -0.8179361220396824 1
gene  1 1 64 0.6567657969107353 0 6615.0 0.6567657969107353 1
gene  1 2 64 -0.16538137323455415 0 6616.0 -0.16538137323455415 1
gene  1 3 64 0.5578891871069059 0 6617.0 0.5578891871069059 1
gene  1 4 64 -0.15165486680567353 0 6618.0 -0.15165486680567353 1
gene  1 10 64 0.41201052354533996 0 6624.0 0.41201052354533996 1
gene  1 11 64 0.3267653333925632 0 6625.0 0.3267653333925632 1
gene  1 12 64 -0.3251499405211936 0 6626.0 -0.3251499405211936 1
gene  1 14 64 -0.9966286231482929 0 6628.0 -0.9966286231482929 1
gene  1 15 64 0.7589783916487163 0 6629.0 0.7589783916487163 1
gene  1 19 64 0.24966260560586606 0 6633.0 0.24966260560586606 1
gene  1 20 64 -0.07205871439964195 0 6634.0 -0.07205871439964195 1
gene  1 21 64 -0.8056799706812147 0 6635.0 -0.8056799706812147 1
gene  1 23 64 0.5626285201724863 0 6637.0 0.5626285201724863 1
gene  1 27 64 -0.22752684289499137 0 6641.0 -0.22752684289499137 1
gene  1 29 64 -0.49567463378545007 0 6643.0 -0.49567463378545007 1
gene  1 30 64 0.3173531321256927 0 6644.0 0.3173531321256927 1
gene  1 32 64 -0.34957814275103116 0 6646.0 -0.34957814275103116 1
gene  1 35 64 -0.26384355213983224 0 6649.0 -0.26384355213983224 1
gene  1 38 64 -0.7321142930037505 0 6652.0 -0.7321142930037505 1
gene  1 46 64 0.45658167278049366 0 6660.0 0.45658167278049366 1
gene  1 47 64 -0.3510961538836146 0 6661.0 -0.3510961538836146 1
gene  1 49 64 0.5707081868114003 0 6663.0 0.5707081868114003 1
gene  1 50 64 0.12962368429349813 0 6664.0 0.12962368429349813 1
gene  1 52 64 0.327351603026254 0 6666.0 0.327351603026254 1
gene  1 54 64 0.6632598322703153 0 6668.0 0.6632598322703153 1
gene  1 56 64 0.5029332122794161 0 6670.0 0.5029332122794161 1
gene  1 59 64 -0.49694728986547176 0 6673.0 -0.49694728986547176 1
gene  1 61 64 -0.6626735483640104 0 6675.0 -0.6626735483640104 1
gene  1 3 65 -0.32444762445586806 0 6722.0 -0.32444762445586806 1
gene  1 4 65 -0.3114091254250062 0 6723.0 -0.3114091254250062 1
gene  1 6 65 0.031938631720895616 0 6725.0 0.031938631720895616 1
gene  1 7 65 0.4593634726547414 0 6726.0 0.4593634726547414 1
gene  1 8 65 -0.23249085395864533 0 6727.0 -0.23249085395864533 1
gene  1 9 65 -0.7282018986398285 0 6728.0 -0.7282018986398285 1
gene  1 13 65 -0.9756160223127179 0 6732.0 -0.9756160223127179 1
gene  1 15 65 -0.9753918767127165 0 6734.0 -0.9753918767127165 1
gene  1 19 65 -0.07480296108185902 0 6738.0 -0.07480296108185902 1
gene  1 21 65 0.28311046546528995 0 6740.0 0.28311046546528995 1
gene  1 25 65 0.35021076607969914 0 6744.0 0.35021076607969914 1
gene  1 26 65 -0.7834345111037405 0 6745.0 -0.7834345111037405 1
gene  1 27 65 -0.7592160538567613 0 6746.0 -0.7592160538567613 1
gene  1 29 65 -0.5543598242658548 0 6748.0 -0.5543598242658548 1
gene  1 30 65 0.3841890153216665 0 6749.0 0.3841890153216665 1
gene  1 33 65 -0.05515692825370544 0 6752.0 -0.05515692825370544 1
gene  1 42 65 0.005026652963741274 0 6761.0 0.005026652963741274 1
gene  1 43 65 0.9788694650041321 0 6762.0 0.9788694650041321 1
gene  1 46 65 -0.8451369140314026 0 6765.0 -0.8451369140314026 1
gene  1 49 65 -0.7679813902441682 0 6768.0 -0.7679813902441682 1
gene  1 52 65 -0.686205527123685 0 6771.0 -0.686205527123685 1
gene  1 53 65 0.8910883453741304 0 6772.0 0.8910883453741304 1
gene  1 54 65 -0.16953963994706545 0 6773.0 -0.16953963994706545 1
gene  1 55 65 -0.5727805148569709 0 6774.0 -0.5727805148569709 1
gene  1 56 65 -0.4745560975690917 0 6775.0 -0.4745560975690917 1
gene  1 58 65 0.6715815343346794 0 6777.0 0.6715815343346794 1
gene  1 59 65 -0.1579892949290641 0 6778.0 -0.1579892949290641 1
gene  1 60 65 -0.8021559380639983 0 6779.0 -0.8021559380639983 1
gene  1 61 65 -0.18188251058389804 0 6780.0 -0.18188251058389804 1
gene  1 63 65 -0.11211124423100849 0 6782.0 -0.11211124423100849 1
gene  1 64 65 -0.9907350762723764 0 6783.0 -0.9907350762723764 1
gene  1 2 66 0.6216091491733866 0 6826.0 0.6216091491733866 1
gene  1 5 66 -0.6783967512787467 0 6829.0 -0.6783967512787467 1
gene  1 8 66 -0.7344840811345711 0 6832.0 -0.7344840811345711 1
gene  1 9 66 -0.2916216548776308 0 6833.0 -0.2916216548776308 1
gene  1 10 66 -0.8887810567147901 0 6834.0 -0.8887810567147901 1
gene  1 11 66 -0.2104752489360362 0 6835.0 -0.2104752489360362 1
gene  1 14 66 0.024407365744640308 0 6838.0 0.024407365744640308 1
gene  1 15 66 0.042608431027214566 0 6839.0 0.042608431027214566 1
gene  1 17 66 0.5696932854814335 0 6841.0 0.5696932854814335 1
gene  1 18 66 0.5546636382274377 0 6842.0 0.5546636382274377 1
gene  1 19 66 0.5943669006559724 0 6843.0 0.5943669006559724 1
gene  1 21 66 0.9248541468798767 0 6845.0 0.9248541468798767 1
gene  1 23 66 -0.9181056764706171 0 6847.0 -0.9181056764706171 1
gene  1 24 66 -0.5360956838797228 0 6848.0 -0.5360956838797228 1
gene  1 25 66 0.7033299354938644 0 6849.0 0.7033299354938644 1
gene  1 27 66 0.4687979384463171 0 6851.0 0.4687979384463171 1
gene  1 28 66 -0.3291254774382989 0 6852.0 -0.3291254774382989 1
gene  1 29 66 -0.6771815450229112 0 6853.0 -0.6771815450229112 1
gene  1 33 66 -0.4149929763561414 0 6857.0 -0.4149929763561414 1
gene  1 34 66 -0.552149947081089 0 6858.0 -0.552149947081089 1
gene  1 35 66 0.27735305395351384 0 6859.0 0.27735305395351384 1
gene  1 37 66 0.9048547280412766 0 6861.0 0.9048547280412766 1
gene  1 38 66 0.8463120756834799 0 6862.0 0.8463120756834799 1
gene  1 41 66 0.8429824515819705 0 6865.0 0.8429824515819705 1
gene  1 43 66 -0.9112906240354893 0 6867.0 -0.9112906240354893 1
gene  1 47 66 0.4695394424781407 0 6871.0 0.4695394424781407 1
gene  1 49 66 0.36702217494698186 0 6873.0 0.36702217494698186 1
gene  1 52 66 -0.7813164275643415 0 6876.0 -0.7813164275643415 1
gene  1 53 66 0.2395137257186567 0 6877.0 0.2395137257186567 1
gene  1 56 66 0.2633820922758624 0 6880.0 0.2633820922758624 1
gene  1 57 66 0.47850196677174717 0 6881.0 0.47850196677174717 1
gene  1 59 66 -0.39723771131649843 0 6883.0 -0.39723771131649843 1
gene  1 61 66 -0.8721247013232163 0 6885.0 -0.8721247013232163 1
gene  1 64 66 0.175626821178827 0 6888.0 0.175626821178827 1
gene  1 65 66 -0.19326995494534127 0 6889.0 -0.19326995494534127 1
gene  1 1 67 -0.4315349014401283 0 6930.0 -0.4315349014401283 1
gene  1 2 67 0.6070602012201224 0 6931.0 0.6070602012201224 1
gene  1 9 67 0.705126645577081 0 6938.0 0.705126645577081 1
gene  1 12 67 -0.6180852083952242 0 6941.0 -0.6180852083952242 1
gene  1 16 67 -0.8453834746774614 0 6945.0 -0.8453834746774614 1
gene  1 17 67 -0.830578026987596 0 6946.0 -0.830578026987596 1
gene  1 19 67 0.8390632388320395 0 6948.0 0.8390632388320395 1
gene  1 20 67 0.7244215199654149 0 6949.0 0.7244215199654149 1
gene  1 21 67 -0.35234220806152106 0 6950.0 -0.35234220806152106 1
gene  1 23 67 -0.46223770450325485 0 6952.0 -0.46223770450325485 1
gene  1 24 67 0.8875704159816109 0 6953.0 0.8875704159816109 1
gene  1 28 67 -0.8772161094101568 0 6957.0 -0.8772161094101568 1
gene  1 29 67 -0.2868864347531893 0 6958.0 -0.2868864347531893 1
gene  1 30 67 -0.6663324196044683 0 6959.0 -0.6663324196044683 1
gene  1 31 67 0.08006441406470355 0 6960.0 0.08006441406470355 1
gene  1 35 67 -0.04036171313459869 0 6964.0 -0.04036171313459869 1
gene  1 36 67 0.1312583509621733 0 6965.0 0.1312583509621733 1
gene  1 37 67 0.5953115079019792 0 6966.0 0.5953115079019792 1
gene  1 39 67 -0.9339980621090627 0 6968.0 -0.9339980621090627 1
gene  1 40 67 -0.9363935108495819 0 6969.0 -0.9363935108495819 1
gene  1 41 67 -0.7833296851736978 0 6970.0 -0.7833296851736978 1
gene  1 44 67 -0.26942191863318954 0 6973.0 -0.26942191863318954 1
gene  1 45 67 -0.7131716587960689 0 6974.0 -0.7131716587960689 1
gene  1 46 67 0.10606935709995813 0 6975.0 0.10606935709995813 1
gene  1 47 67 0.07357487789106965 0 6976.0 0.07357487789106965 1
gene  1 48 67 -0.2456279101575255 0 6977.0 -0.2456279101575255 1
gene  1 50 67 -0.3227205310586352 0 6979.0 -0.3227205310586352 1
gene  1 51 67 0.3857808389017058 0 6980.0 0.3857808389017058 1
gene  1 52 67 0.7746542760063352 0 6981.0 0.7746542760063352 1
gene  1 53 67 0.8247589721385903 0 6982.0 0.8247589721385903 1
gene  1 55 67 0.22290380120007847 0 6984.0 0.22290380120007847 1
gene  1 56 67 0.9385643326296632 0 6985.0 0.9385643326296632 1
gene  1 57 67 -0.022388388180508034 0 6986.0 -0.022388388180508034 1
gene  1 60 67 0.1975728894340718 0 6989.0 0.1975728894340718 1
gene  1 61 67 0.974660454189386 0 6990.0 0.974660454189386 1
gene  1 63 67 -0.5763844572526354 0 6992.0 -0.5763844572526354 1
gene  1 64 67 -0.5463241717722592 0 6993.0 -0.5463241717722592 1
gene  1 65 67 -0.5686693754211213 0 6994.0 -0.5686693754211213 1
gene  1 66 67 -0.8067738911479901 0 6995.0 -0.8067738911479901 1
gene  1 5 68 0.6826841034188165 0 7039.0 0.6826841034188165 1
gene  1 6 68 0.7402843004752444 0 7040.0 0.7402843004752444 1
gene  1 7 68 0.024488433471812954 0 7041.0 0.024488433471812954 1
gene  1 8 68 -0.6769632368985837 0 7042.0 -0.6769632368985837 1
gene  1 10 68 0.8671679068169175 0 7044.0 0.8671679068169175 1
gene  1 12 68 0.4712610467936509 0 7046.0 0.4712610467936509 1
gene  1 14 68 0.7523906790660219 0 7048.0 0.7523906790660219 1
gene  1 18 68 -0.10624542466374443 0 7052.0 -0.10624542466374443 1
gene  1 19 68 0.3885063175910898 0 7053.0 0.3885063175910898 1
gene  1 20 68 0.6961462638502522 0 7054.0 0.6961462638502522 1
gene  1 22 68 -0.3683334964433642 0 7056.0 -0.3683334964433642 1
gene  1 23 68 -0.12580747902741463 0 7057.0 -0.12580747902741463 1
gene  1 24 68 0.9910941039442404 0 7058.0 0.9910941039442404 1
gene  1 25 68 -0.7318405236858474 0 7059.0 -0.7318405236858474 1
gene  1 27 68 -0.18909057741536694 0 7061.0 -0.18909057741536694 1
gene  1 28 68 0.876086018747033 0 7062.0 0.876086018747033 1
gene  1 30 68 -0.792022418302633 0 7064.0 -0.792022418302633 1
gene  1 32 68 0.19138683929047784 0 7066.0 0.19138683929047784 1
gene  1 33 68 -0.5813532628723048 0 7067.0 -0.5813532628723048 1
gene  1 34 68 -0.23584424091370682 0 7068.0 -0.23584424091370682 1
gene  1 35 68 -0.19375154042512632 0 7069.0 -0.19375154042512632 1
gene  1 40 68 -0.6774370798446706 0 7074.0 -0.6774370798446706 1
gene  1 42 68 -0.2463132079651752 0 7076.0 -0.2463132079651752 1
gene  1 44 68 -0.6912091761254522 0 7078.0 -0.6912091761254522 1
gene  1 45 68 -0.0032065441106755577 0 7079.0 -0.0032065441106755577 1
gene  1 46 68 0.819465510113398 0 7080.0 0.819465510113398 1
gene  1 47 68 0.8382462724831387 0 7081.0 0.8382462724831387 1
gene  1 51 68 0.9467038989347002 0 7085.0 0.9467038989347002 1
gene  1 52 68 -0.3226345413654407 0 7086.0 -0.3226345413654407 1
gene  1 54 68 0.8919498115612119 0 7088.0 0.8919498115612119 1
gene  1 56 68 0.4748628304317214 0 7090.0 0.4748628304317214 1
gene  1 57 68 -0.35747725440724165 0 7091.0 -0.35747725440724165 1
gene  1 58 68 -0.7019132469767037 0 7092.0 -0.7019132469767037 1
gene  1 59 68 -0.2808800137306966 0 7093.0 -0.2808800137306966 1
gene  1 60 68 0.9532962410564886 0 7094.0 0.9532962410564886 1
gene  1 61 68 -0.5587665045176894 0 7095.0 -0.5587665045176894 1
gene  1 62 68 -0.1633115710497911 0 7096.0 -0.1633115710497911 1
gene  1 63 68 -0.4334370162380099 0 7097.0 -0.4334370162380099 1
gene  1 67 68 0.23798598141445682 0 7101.0 0.23798598141445682 1
gene  1 2 69 0.9790721431093333 0 7141.0 0.9790721431093333 1
gene  1 3 69 -0.2320762399970574 0 7142.0 -0.2320762399970574 1
gene  1 4 69 0.5728879281862505 0 7143.0 0.5728879281862505 1
gene  1 5 69 -0.6066617170761652 0 7144.0 -0.6066617170761652 1
gene  1 9 69 0.650899458559769 0 7148.0 0.650899458559769 1
gene  1 11 69 0.030630058116144276 0 7150.0 0.030630058116144276 1
gene  1 12 69 -0.5644322227332855 0 7151.0 -0.5644322227332855 1
gene  1 17 69 -0.7213148571028667 0 7156.0 -0.7213148571028667 1
gene  1 18 69 0.6399224136726882 0 7157.0 0.6399224136726882 1
gene  1 20 69 0.8684697896921245 0 7159.0 0.8684697896921245 1
gene  1 21 69 0.5390353239124495 0 7160.0 0.5390353239124495 1
gene  1 24 69 0.4974931001582945 0 7163.0 0.4974931001582945 1
gene  1 26 69 0.8721242684376455 0 7165.0 0.8721242684376455 1
gene  1 27 69 0.9287696303928518 0 7166.0 0.9287696303928518 1
gene  1 29 69 0.6167103864199271 0 7168.0 0.6167103864199271 1
gene  1 31 69 0.5643859599998272 0 7170.0 0.5643859599998272 1
gene  1 33 69 -0.38030903231886093 0 7172.0 -0.38030903231886093 1
gene  1 34 69 0.5078333564507502 0 7173.0 0.5078333564507502 1
gene  1 35 69 -0.6981394154178512 0 7174.0 -0.6981394154178512 1
gene  1 36 69 0.09877332787134929 0 7175.0 0.09877332787134929 1
gene  1 37 69 -0.3571816755662358 0 7176.0 -0.3571816755662358 1
gene  1 38 69 0.493370465296334 0 7177.0 0.493370465296334 1
gene  1 39 69 0.4282174441775187 0 7178.0 0.4282174441775187 1
gene  1 41 69 -0.05864998434468838 0 7180.0 -0.05864998434468838 1
gene  1 48 69 0.5921539378788914 0 7187.0 0.5921539378788914 1
gene  1 49 69 0.10744864661788567 0 7188.0 0.10744864661788567 1
gene  1 50 69 -0.1756932642143496 0 7189.0 -0.1756932642143496 1
gene  1 53 69 -0.18975504203744076 0 7192.0 -0.18975504203744076 1
gene  1 55 69 0.1927228241815716 0 7194.0 0.1927228241815716 1
gene  1 61 69 0.422126872334631 0 7200.0 0.422126872334631 1
gene  1 62 69 -0.052572633098987964 0 7201.0 -0.052572633098987964 1
gene  1 67 69 0.4047400336004461 0 7206.0 0.4047400336004461 1
gene  1 1 105 -0.11762928562490549 0 10920.0 -0.11762928562490549 1
gene  1 3 105 -0.3592984866957376 0 10922.0 -0.3592984866957376 1
gene  1 4 105 0.43272984708963436 0 10923.0 0.43272984708963436 1
gene  1 7 105 -0.18659366137979183 0 10926.0 -0.18659366137979183 1
gene  1 8 105 -0.25636104719705977 0 10927.0 -0.25636104719705977 1
gene  1 9 105 0.18715053968886597 0 10928.0 0.18715053968886597 1
gene  1 12 105 0.17299732400857248 0 10931.0 0.17299732400857248 1
gene  1 13 105 0.9133672309510331 0 10932.0 0.9133672309510331 1
gene  1 15 105 0.2156073657553521 0 10934.0 0.2156073657553521 1
gene  1 18 105 -0.3467244832603835 0 10937.0 -0.3467244832603835 1
gene  1 20 105 0.3280040275279906 0 10939.0 0.3280040275279906 1
gene  1 21 105 0.48025208231524197 0 10940.0 0.48025208231524197 1
gene  1 23 105 0.8650777296818187 0 10942.0 0.8650777296818187 1
gene  1 25 105 0.5030722476852018 0 10944.0 0.5030722476852018 1
gene  1 27 105 0.8527203769485338 0 10946.0 0.8527203769485338 1
gene  1 28 105 -0.2695643187370841 0 10947.0 -0.2695643187370841 1
gene  1 30 105 0.15910443120657491 0 10949.0 0.15910443120657491 1
gene  1 32 105 0.2830407751042797 0 10951.0 0.2830407751042797 1
gene  1 33 105 -0.8589206509065674 0 10952.0 -0.8589206509065674 1
gene  1 35 105 0.5229797915687177 0 10954.0 0.5229797915687177 1
gene  1 36 105 -0.002482566323243729 0 10955.0 -0.002482566323243729 1
gene  1 38 105 0.2992642202416458 0 10957.0 0.2992642202416458 1
gene  1 39 105 -0.9228546441220385 0 10958.0 -0.9228546441220385 1
gene  1 40 105 0.05909878122875056 0 10959.0 0.05909878122875056 1
gene  1 42 105 0.5442541406482477 0 10961.0 0.5442541406482477 1
gene  1 46 105 0.8778494292194648 0 10965.0 0.8778494292194648 1
gene  1 47 105 0.7049577933529727 0 10966.0 0.7049577933529727 1
gene  1 48 105 0.28064512556249643 0 10967.0 0.28064512556249643 1
gene  1 51 105 0.44618703674998117 0 10970.0 0.44618703674998117 1
gene  1 54 105 -0.8127299160535953 0 10973.0 -0.8127299160535953 1
gene  1 57 105 -0.4464347446751109 0 10976.0 -0.4464347446751109 1
gene  1 58 105 0.6787296618710765 0 10977.0 0.6787296618710765 1
gene  1 60 105 0.42747961839116966 0 10979.0 0.42747961839116966 1
gene  1 61 105 0.41684263660592535 0 10980.0 0.41684263660592535 1
gene  1 62 105 -0.4444038350646099 0 10981.0 -0.4444038350646099 1
gene  1 63 105 0.8879266512937896 0 10982.0 0.8879266512937896 1
gene  1 64 105 0.8870572803877929 0 10983.0 0.8870572803877929 1
gene  1 68 105 0.8801222705380742 0 10987.0 0.8801222705380742 1
genomeend 14
