genomestart  18
trait 1 0.0 0.0 0.0 0.0 0.0 0.0 0.0 0.0 0.0 0.0 0.0 0.0 0.0 0.0 0.0 0.0 0.0 0.0 0.0 0.0 
node 1 1 1 1
node 2 1 1 1
node 3 1 1 1
node 4 1 1 1
node 5 1 1 3
node 6 1 0 0
node 7 1 0 0
node 8 1 0 0
node 9 1 0 0
node 10 1 0 0
node 11 1 0 0
node 12 1 0 0
node 13 1 0 0
node 14 1 0 0
node 15 1 0 0
node 16 1 0 2
gene  1 3 6 -0.8817247586398945 0 82.0 -0.8817247586398945 1
gene  1 4 6 0.8808368334851889 0 83.0 0.8808368334851889 1
gene  1 1 7 -0.4948129586962985 0 96.0 -0.4948129586962985 1
gene  1 6 7 0.19870923950037034 0 101.0 0.19870923950037034 1
gene  1 1 8 0.12983825670810878 0 112.0 0.12983825670810878 1
gene  1 2 8 -0.16423899902729477 0 113.0 -0.16423899902729477 1
gene  1 3 8 -0.9161595845154636 0 114.0 -0.9161595845154636 1
gene  1 4 8 0.2912042317549002 0 115.0 0.2912042317549002 1
gene  1 5 8 -0.6459962163066603 0 116.0 -0.6459962163066603 1
gene  1 6 8 0.7296338642635481 0 117.0 0.7296338642635481 1
gene  1 1 9 0.6276347206664653 0 128.0 0.6276347206664653 1
gene  1 2 9 0.582343169311781 0 129.0 0.582343169311781 1
gene  1 3 9 0.9161812118583491 0 130.0 0.9161812118583491 1
gene  1 7 9 0.7499122601306997 0 134.0 0.7499122601306997 1
gene  1 8 9 -0.8167852957644346 0 135.0 -0.8167852957644346 1
gene  1 3 10 0.3674807638392642 0 146.0 0.3674807638392642 1
gene  1 6 10 0.49638792282581 0 149.0 0.49638792282581 1
gene  1 8 10 0.5985431540103671 0 151.0 0.5985431540103671 1
gene  1 9 10 -0.7650613251862202 0 152.0 -0.7650613251862202 1
gene  1 1 11 0.6788096404033733 0 160.0 0.6788096404033733 1
gene  1 3 11 0.8851182017862961 0 162.0 0.8851182017862961 1
gene  1 5 11 -0.23662800581202137 0 164.0 -0.23662800581202137 1
gene  1 6 11 0.6433479945605272 0 165.0 0.6433479945605272 1
gene  1 1 12 -0.5947840338777425 0 176.0 -0.5947840338777425 1
gene  1 2 12 0.6453902676777944 0 177.0 0.6453902676777944 1
gene  1 3 12 0.036396611126178646 0 178.0 0.036396611126178646 1
gene  1 6 12 0.7407405730209344 0 181.0 0.7407405730209344 1
gene  1 7 12 -0.7017589657101749 0 182.0 -0.7017589657101749 1
gene  1 8 12 -0.7976663460205221 0 183.0 -0.7976663460205221 1
gene  1 9 12 0.9005537338543687 0 184.0 0.9005537338543687 1
gene  1 10 12 -0.7340515595831314 0 185.0 -0.7340515595831314 1
gene  1 3 13 -0.2676646892448298 0 194.0 -0.2676646892448298 1
gene  1 5 13 0.9300046740667721 0 196.0 0.9300046740667721 1
gene  1 10 13 -0.728951349707201 0 201.0 -0.728951349707201 1
gene  1 11 13 -0.9828017053883377 0 202.0 -0.9828017053883377 1
gene  1 2 14 0.975885841527838 0 209.0 0.975885841527838 1
gene  1 5 14 0.36996778999493984 0 212.0 0.36996778999493984 1
gene  1 6 14 -0.8359306274433372 0 213.0 -0.8359306274433372 1
gene  1 13 14 -0.773414763317773 0 220.0 -0.773414763317773 1
gene  1 4 15 0.21224719513896873 0 227.0 0.21224719513896873 1
gene  1 6 15 0.6041021734548467 0 229.0 0.6041021734548467 1
gene  1 12 15 -0.8538557844315682 0 235.0 -0.8538557844315682 1
gene  1 14 15 -0.6489255934175675 0 237.0 -0.6489255934175675 1
gene  1 1 16 0.7555722751914602 0 240.0 0.7555722751914602 1
gene  1 2 16 0.9317414285348653 0 241.0 0.9317414285348653 1
gene  1 3 16 -0.9757332681750399 0 242.0 -0.9757332681750399 1
gene  1 4 16 -0.3305097503426283 0 243.0 -0.3305097503426283 1
gene  1 5 16 -0.25849278598161385 0 244.0 -0.25849278598161385 1
gene  1 7 16 -0.9139552487601198 0 246.0 -0.9139552487601198 1
gene  1 10 16 0.3316320079586492 0 249.0 0.3316320079586492 1
gene  1 11 16 -0.5702156263405742 0 250.0 -0.5702156263405742 1
gene  1 12 16 0.44524560560072235 0 251.0 0.44524560560072235 1
gene  1 13 16 -0.3860201986344327 0 252.0 -0.3860201986344327 1
gene  1 15 16 -0.583525913219132 0 254.0 -0.583525913219132 1
genomeend 18
