genomestart  55
trait 1 0.0 0.0 0.0 0.0 0.0 0.0 0.0 0.0 0.0 0.0 0.0 0.0 0.0 0.0 0.0 0.0 0.0 0.0 0.0 0.0 
node 1 1 1 1
node 2 1 1 1
node 3 1 1 1
node 4 1 1 1
node 5 1 1 3
node 6 1 0 0
node 7 1 0 0
node 8 1 0 0
node 9 1 0 0
node 10 1 0 0
node 11 1 0 0
node 16 1 0 2
gene  1 3 6 -0.09910433208375047 0 82.0 -0.09910433208375047 1
gene  1 5 6 -0.41730739918818427 0 84.0 -0.41730739918818427 1
gene  1 4 7 -0.4755967094130059 0 99.0 -0.4755967094130059 1
gene  1 1 8 -0.8159223185118077 0 112.0 -0.8159223185118077 1
gene  1 3 8 0.5931052042186749 0 114.0 0.5931052042186749 1
gene  1 4 8 0.785637120452543 0 115.0 0.785637120452543 1
gene  1 6 8 0.4793146748027073 0 117.0 0.4793146748027073 1
gene  1 7 8 0.9442258933849541 0 118.0 0.9442258933849541 1
gene  1 4 9 0.5509958973363177 0 131.0 0.5509958973363177 1
gene  1 5 9 -0.05931409738824811 0 132.0 -0.05931409738824811 1
gene  1 6 9 -0.19349669085904753 0 133.0 -0.19349669085904753 1
gene  1 7 9 -0.5636211332782064 0 134.0 -0.5636211332782064 1
gene  1 8 9 -0.4868989235719845 0 135.0 -0.4868989235719845 1
gene  1 3 10 -0.6130496625933491 0 146.0 -0.6130496625933491 1
gene  1 8 10 0.615823479521024 0 151.0 0.615823479521024 1
gene  1 9 10 -0.16509198548597614 0 152.0 -0.16509198548597614 1
gene  1 1 11 -0.5029843879922348 0 160.0 -0.5029843879922348 1
gene  1 2 11 -0.81492089713853 0 161.0 -0.81492089713853 1
gene  1 4 11 0.9413836532242538 0 163.0 0.9413836532242538 1
gene  1 5 11 -0.5371449002800253 0 164.0 -0.5371449002800253 1
gene  1 7 11 -0.8726487577291263 0 166.0 -0.8726487577291263 1
gene  1 1 16 0.06019837424915275 0 240.0 0.06019837424915275 1
gene  1 5 16 -0.5502363841134251 0 244.0 -0.5502363841134251 1
gene  1 8 16 -0.936956973554527 0 247.0 -0.936956973554527 1
gene  1 9 16 -0.6037174303092284 0 248.0 -0.6037174303092284 1
gene  1 11 16 0.3544346070934967 0 250.0 0.3544346070934967 1
genomeend 55
