genomestart  45
trait 1 0.0 0.0 0.0 0.0 0.0 0.0 0.0 0.0 0.0 0.0 0.0 0.0 0.0 0.0 0.0 0.0 0.0 0.0 0.0 0.0 
node 1 1 1 1
node 2 1 1 1
node 3 1 1 1
node 4 1 1 1
node 5 1 1 3
node 6 1 0 0
node 7 1 0 0
node 8 1 0 0
node 9 1 0 0
node 10 1 0 0
node 11 1 0 0
node 12 1 0 0
node 13 1 0 0
node 14 1 0 0
node 16 1 0 2
gene  1 4 6 -0.2895121909067274 0 83.0 -0.2895121909067274 1
gene  1 3 7 -0.9080975365861941 0 98.0 -0.9080975365861941 1
gene  1 4 7 0.29637484702061945 0 99.0 0.29637484702061945 1
gene  1 5 7 -0.5712423371499379 0 100.0 -0.5712423371499379 1
gene  1 1 8 0.5865167477586647 0 112.0 0.5865167477586647 1
gene  1 3 8 -0.0381528254177369 0 114.0 -0.0381528254177369 1
gene  1 4 8 0.19257286489013214 0 115.0 0.19257286489013214 1
gene  1 5 8 0.9857378177269299 0 116.0 0.9857378177269299 1
gene  1 7 8 0.4898821675357965 0 118.0 0.4898821675357965 1
gene  1 1 9 0.2211332242851245 0 128.0 0.2211332242851245 1
gene  1 2 9 -0.8078175589054849 0 129.0 -0.8078175589054849 1
gene  1 5 9 0.10323268331194979 0 132.0 0.10323268331194979 1
gene  1 7 9 0.7320119039445306 0 134.0 0.7320119039445306 1
gene  1 8 9 0.9345284633507678 0 135.0 0.9345284633507678 1
gene  1 1 10 -0.7074484139249997 0 144.0 -0.7074484139249997 1
gene  1 3 10 0.08192922710568484 0 146.0 0.08192922710568484 1
gene  1 1 11 0.010124630301999393 0 160.0 0.010124630301999393 1
gene  1 2 11 0.003934381967021561 0 161.0 0.003934381967021561 1
gene  1 5 11 -0.7743332767649282 0 164.0 -0.7743332767649282 1
gene  1 8 11 -0.2683569871455116 0 167.0 -0.2683569871455116 1
gene  1 1 12 0.4751461515363268 0 176.0 0.4751461515363268 1
gene  1 4 12 0.49500265302429414 0 179.0 0.49500265302429414 1
gene  1 6 12 -0.2552125648914435 0 181.0 -0.2552125648914435 1
gene  1 7 12 -0.38336463405849297 0 182.0 -0.38336463405849297 1
gene  1 8 12 0.529527398186944 0 183.0 0.529527398186944 1
gene  1 9 12 0.22823713050582295 0 184.0 0.22823713050582295 1
gene  1 11 12 -0.503966857858584 0 186.0 -0.503966857858584 1
gene  1 1 13 0.43183440677218243 0 192.0 0.43183440677218243 1
gene  1 3 13 0.04326221559347743 0 194.0 0.04326221559347743 1
gene  1 5 13 -0.2046928690872829 0 196.0 -0.2046928690872829 1
gene  1 6 13 -0.533356555801007 0 197.0 -0.533356555801007 1
gene  1 7 13 -0.459862437806428 0 198.0 -0.459862437806428 1
gene  1 8 13 -0.07200684705503668 0 199.0 -0.07200684705503668 1
gene  1 9 13 0.09541446249318619 0 200.0 0.09541446249318619 1
gene  1 2 14 -0.734696293038526 0 209.0 -0.734696293038526 1
gene  1 7 14 0.9562486392199885 0 214.0 0.9562486392199885 1
gene  1 9 14 -0.9336224657314114 0 216.0 -0.9336224657314114 1
gene  1 10 14 -0.14981631734671697 0 217.0 -0.14981631734671697 1
gene  1 12 14 0.16330625509933383 0 219.0 0.16330625509933383 1
gene  1 13 14 -0.8801406727217372 0 220.0 -0.8801406727217372 1
gene  1 2 16 -0.113616663149529 0 241.0 -0.113616663149529 1
gene  1 3 16 0.37225969097757816 0 242.0 0.37225969097757816 1
gene  1 6 16 0.30881145346117767 0 245.0 0.30881145346117767 1
gene  1 8 16 -0.31486892518582 0 247.0 -0.31486892518582 1
gene  1 9 16 -0.07917048328606147 0 248.0 -0.07917048328606147 1
gene  1 12 16 0.3527989058947819 0 251.0 0.3527989058947819 1
gene  1 13 16 0.2001953348763108 0 252.0 0.2001953348763108 1
gene  1 14 16 0.34255666389747574 0 253.0 0.34255666389747574 1
genomeend 45
