genomestart  59
trait 1 0.0 0.0 0.0 0.0 0.0 0.0 0.0 0.0 0.0 0.0 0.0 0.0 0.0 0.0 0.0 0.0 0.0 0.0 0.0 0.0 
node 1 1 1 1
node 2 1 1 1
node 3 1 1 1
node 4 1 1 3
node 5 1 0 0
node 6 1 0 0
node 7 1 0 0
node 8 1 0 0
node 9 1 0 0
node 10 1 0 0
node 105 1 0 2
gene  1 1 5 0.39964568290025626 0 420.0 0.39964568290025626 1
gene  1 4 5 0.5153019028417418 0 423.0 0.5153019028417418 1
gene  1 2 6 -0.4440174506086766 0 526.0 -0.4440174506086766 1
gene  1 5 6 -0.7872909995564827 0 529.0 -0.7872909995564827 1
gene  1 4 7 -0.32611560516524163 0 633.0 -0.32611560516524163 1
gene  1 6 7 -0.06844142551885601 0 635.0 -0.06844142551885601 1
gene  1 2 8 -0.23182867620521175 0 736.0 -0.23182867620521175 1
gene  1 3 8 0.16504392446967753 0 737.0 0.16504392446967753 1
gene  1 4 8 -0.7650115575438524 0 738.0 -0.7650115575438524 1
gene  1 6 8 0.04181350884872226 0 740.0 0.04181350884872226 1
gene  1 1 9 -0.6559725498093789 0 840.0 -0.6559725498093789 1
gene  1 4 9 -0.6819224957809974 0 843.0 -0.6819224957809974 1
gene  1 5 9 0.27227567013645193 0 844.0 0.27227567013645193 1
gene  1 6 9 0.7827762765254815 0 845.0 0.7827762765254815 1
gene  1 8 9 -0.8042523663376367 0 847.0 -0.8042523663376367 1
gene  1 3 10 -0.2713663000637119 0 947.0 -0.2713663000637119 1
gene  1 4 10 -0.02024276926215096 0 948.0 -0.02024276926215096 1
gene  1 6 10 -0.961523366916635 0 950.0 -0.961523366916635 1
gene  1 7 10 -0.681144551652024 0 951.0 -0.681144551652024 1
gene  1 8 10 0.09360333365310214 0 952.0 0.09360333365310214 1
gene  1 1 105 0.93388848431732 0 10920.0 0.93388848431732 1
gene  1 3 105 -0.3687708863327851 0 10922.0 -0.3687708863327851 1
gene  1 7 105 -0.8120284950916674 0 10926.0 -0.8120284950916674 1
gene  1 10 105 0.2074018280584039 0 10929.0 0.2074018280584039 1
genomeend 59
