genomestart  51
trait 1 0.0 0.0 0.0 0.0 0.0 0.0 0.0 0.0 0.0 0.0 0.0 0.0 0.0 0.0 0.0 0.0 0.0 0.0 0.0 0.0 
node 1 1 1 1
node 2 1 1 1
node 3 1 1 1
node 4 1 1 3
node 5 1 0 0
node 6 1 0 0
node 7 1 0 0
node 8 1 0 0
node 9 1 0 0
node 10 1 0 0
node 105 1 0 2
gene  1 2 5 -0.3658459458138841 0 421.0 -0.3658459458138841 1
gene  1 3 5 0.24233318481315225 0 422.0 0.24233318481315225 1
gene  1 4 5 -0.42039248339613344 0 423.0 -0.42039248339613344 1
gene  1 1 6 0.7618647988051624 0 525.0 0.7618647988051624 1
gene  1 3 6 -0.4155860033189168 0 527.0 -0.4155860033189168 1
gene  1 4 6 0.22904031714649076 0 528.0 0.22904031714649076 1
gene  1 5 6 -0.12698735350867452 0 529.0 -0.12698735350867452 1
gene  1 1 7 -0.6239311481454962 0 630.0 -0.6239311481454962 1
gene  1 2 7 0.40041224872000614 0 631.0 0.40041224872000614 1
gene  1 3 7 -0.4470072505937359 0 632.0 -0.4470072505937359 1
gene  1 4 7 0.5957934647721778 0 633.0 0.5957934647721778 1
gene  1 6 7 -0.8177536882464271 0 635.0 -0.8177536882464271 1
gene  1 3 8 0.6108678323594647 0 737.0 0.6108678323594647 1
gene  1 4 8 -0.8488676359923759 0 738.0 -0.8488676359923759 1
gene  1 5 8 -0.9080986284743318 0 739.0 -0.9080986284743318 1
gene  1 1 9 0.4599298211530243 0 840.0 0.4599298211530243 1
gene  1 2 9 -0.9725861445702195 0 841.0 -0.9725861445702195 1
gene  1 3 9 0.2078496631138379 0 842.0 0.2078496631138379 1
gene  1 6 10 0.3637372250684697 0 950.0 0.3637372250684697 1
gene  1 8 10 -0.6382612745691717 0 952.0 -0.6382612745691717 1
gene  1 9 10 -0.8329588685481001 0 953.0 -0.8329588685481001 1
gene  1 3 105 0.49143246293403997 0 10922.0 0.49143246293403997 1
gene  1 5 105 -0.9433367520951195 0 10924.0 -0.9433367520951195 1
gene  1 6 105 0.630309334948171 0 10925.0 0.630309334948171 1
gene  1 10 105 -0.7827885445144838 0 10929.0 -0.7827885445144838 1
genomeend 51
