genomestart  27
trait 1 0.0 0.0 0.0 0.0 0.0 0.0 0.0 0.0 0.0 0.0 0.0 0.0 0.0 0.0 0.0 0.0 0.0 0.0 0.0 0.0 
node 1 1 1 1
node 2 1 1 1
node 3 1 1 1
node 4 1 1 3
node 5 1 0 0
node 6 1 0 0
node 7 1 0 0
node 8 1 0 0
node 9 1 0 0
node 10 1 0 0
node 11 1 0 0
node 12 1 0 0
node 13 1 0 0
node 14 1 0 0
node 15 1 0 0
node 16 1 0 0
node 17 1 0 0
node 18 1 0 0
node 19 1 0 0
node 20 1 0 0
node 21 1 0 0
node 22 1 0 0
node 23 1 0 0
node 24 1 0 0
node 25 1 0 0
node 26 1 0 0
node 27 1 0 0
node 28 1 0 0
node 29 1 0 0
node 30 1 0 0
node 31 1 0 0
node 32 1 0 0
node 33 1 0 0
node 34 1 0 0
node 35 1 0 0
node 36 1 0 0
node 37 1 0 0
node 38 1 0 0
node 39 1 0 0
node 40 1 0 0
node 41 1 0 0
node 42 1 0 0
node 43 1 0 0
node 44 1 0 0
node 45 1 0 0
node 46 1 0 0
node 47 1 0 0
node 48 1 0 0
node 49 1 0 0
node 50 1 0 0
node 51 1 0 0
node 52 1 0 0
node 53 1 0 0
node 54 1 0 0
node 55 1 0 0
node 56 1 0 0
node 105 1 0 2
gene  1 2 5 -0.1728244277964317 0 421.0 -0.1728244277964317 1
gene  1 1 6 -0.22457971697642987 0 525.0 -0.22457971697642987 1
gene  1 3 6 0.27110653554610953 0 527.0 0.27110653554610953 1
gene  1 4 6 0.22367047420591535 0 528.0 0.22367047420591535 1
gene  1 5 6 -0.3589811194972462 0 529.0 -0.3589811194972462 1
gene  1 2 7 -0.3300316244096293 0 631.0 -0.3300316244096293 1
gene  1 1 8 -0.3702660356147175 0 735.0 -0.3702660356147175 1
gene  1 2 8 0.5242295134492047 0 736.0 0.5242295134492047 1
gene  1 4 8 -0.9328770314582286 0 738.0 -0.9328770314582286 1
gene  1 3 9 0.7634163497890175 0 842.0 0.7634163497890175 1
gene  1 5 9 -0.19775580185983122 0 844.0 -0.19775580185983122 1
gene  1 2 10 -0.6025832571309194 0 946.0 -0.6025832571309194 1
gene  1 4 10 -0.7787174942815821 0 948.0 -0.7787174942815821 1
gene  1 5 10 0.34737064272840323 0 949.0 0.34737064272840323 1
gene  1 6 10 0.5150770966419559 0 950.0 0.5150770966419559 1
gene  1 7 10 -0.7197782584782979 0 951.0 -0.7197782584782979 1
gene  1 8 10 0.7266068303687137 0 952.0 0.7266068303687137 1
gene  1 9 10 0.07530088949381297 0 953.0 0.07530088949381297 1
gene  1 3 11 -0.1356665894085265 0 1052.0 -0.1356665894085265 1
gene  1 9 11 -0.31977297809853444 0 1058.0 -0.31977297809853444 1
gene  1 10 11 0.1928596734249185 0 1059.0 0.1928596734249185 1
gene  1 1 12 0.14812432795782438 0 1155.0 0.14812432795782438 1
gene  1 2 12 0.9847064461111958 0 1156.0 0.9847064461111958 1
gene  1 5 12 -0.5267857428787007 0 1159.0 -0.5267857428787007 1
gene  1 8 12 0.7603670820239673 0 1162.0 0.7603670820239673 1
gene  1 10 12 -0.7384142031022108 0 1164.0 -0.7384142031022108 1
gene  1 11 12 0.49252356926663055 0 1165.0 0.49252356926663055 1
gene  1 1 13 0.3858089202413343 0 1260.0 0.3858089202413343 1
gene  1 3 13 0.08854223881681234 0 1262.0 0.08854223881681234 1
gene  1 4 13 0.019940408219868644 0 1263.0 0.019940408219868644 1
gene  1 5 13 0.5905071114905569 0 1264.0 0.5905071114905569 1
gene  1 9 13 -0.7849337019372011 0 1268.0 -0.7849337019372011 1
gene  1 11 13 -0.30110288805628527 0 1270.0 -0.30110288805628527 1
gene  1 2 14 -0.9599681464213801 0 1366.0 -0.9599681464213801 1
gene  1 3 14 -0.05641320233723701 0 1367.0 -0.05641320233723701 1
gene  1 4 14 0.10285424832999701 0 1368.0 0.10285424832999701 1
gene  1 5 14 0.13093287478916737 0 1369.0 0.13093287478916737 1
gene  1 6 14 0.8964143380770753 0 1370.0 0.8964143380770753 1
gene  1 7 14 0.7030913525848392 0 1371.0 0.7030913525848392 1
gene  1 8 14 -0.14706477988525657 0 1372.0 -0.14706477988525657 1
gene  1 10 14 -0.2226676127752104 0 1374.0 -0.2226676127752104 1
gene  1 2 15 0.8997645599174143 0 1471.0 0.8997645599174143 1
gene  1 4 15 0.5939105220062438 0 1473.0 0.5939105220062438 1
gene  1 6 15 -0.6739594997831705 0 1475.0 -0.6739594997831705 1
gene  1 7 15 0.3955080577076091 0 1476.0 0.3955080577076091 1
gene  1 8 15 0.8475894836763957 0 1477.0 0.8475894836763957 1
gene  1 11 15 0.06920998286466573 0 1480.0 0.06920998286466573 1
gene  1 12 15 0.23180183441951607 0 1481.0 0.23180183441951607 1
gene  1 13 15 -0.562996976603941 0 1482.0 -0.562996976603941 1
gene  1 14 15 -0.3740157899557459 0 1483.0 -0.3740157899557459 1
gene  1 1 16 0.39755378264098507 0 1575.0 0.39755378264098507 1
gene  1 3 16 0.7462291478666244 0 1577.0 0.7462291478666244 1
gene  1 5 16 -0.7768817329819034 0 1579.0 -0.7768817329819034 1
gene  1 6 16 0.8634232045415823 0 1580.0 0.8634232045415823 1
gene  1 8 16 0.636902992494906 0 1582.0 0.636902992494906 1
gene  1 10 16 0.9148591589787878 0 1584.0 0.9148591589787878 1
gene  1 12 16 -0.314400209801886 0 1586.0 -0.314400209801886 1
gene  1 14 16 -0.26214978330076144 0 1588.0 -0.26214978330076144 1
gene  1 1 17 -0.1643896398641863 0 1680.0 -0.1643896398641863 1
gene  1 2 17 -0.31629772540727596 0 1681.0 -0.31629772540727596 1
gene  1 6 17 0.3399032171258046 0 1685.0 0.3399032171258046 1
gene  1 9 17 0.11866486566689594 0 1688.0 0.11866486566689594 1
gene  1 10 17 -0.9664054580601793 0 1689.0 -0.9664054580601793 1
gene  1 12 17 0.1274233713755043 0 1691.0 0.1274233713755043 1
gene  1 13 17 -0.8420793982566932 0 1692.0 -0.8420793982566932 1
gene  1 1 18 0.2254565493876477 0 1785.0 0.2254565493876477 1
gene  1 2 18 -0.37731195619290847 0 1786.0 -0.37731195619290847 1
gene  1 4 18 0.4236218804061058 0 1788.0 0.4236218804061058 1
gene  1 6 18 0.8484674781571488 0 1790.0 0.8484674781571488 1
gene  1 8 18 -0.9280995625167018 0 1792.0 -0.9280995625167018 1
gene  1 9 18 -0.5162069667689128 0 1793.0 -0.5162069667689128 1
gene  1 12 18 -0.3864267445603319 0 1796.0 -0.3864267445603319 1
gene  1 13 18 0.3425896606373837 0 1797.0 0.3425896606373837 1
gene  1 15 18 -0.3513142269528847 0 1799.0 -0.3513142269528847 1
gene  1 16 18 -0.2447052680566728 0 1800.0 -0.2447052680566728 1
gene  1 1 19 -0.022915461305002993 0 1890.0 -0.022915461305002993 1
gene  1 7 19 -0.5209577063615878 0 1896.0 -0.5209577063615878 1
gene  1 9 19 0.8403694904903504 0 1898.0 0.8403694904903504 1
gene  1 12 19 -0.39932697680667206 0 1901.0 -0.39932697680667206 1
gene  1 14 19 -0.6067315587365361 0 1903.0 -0.6067315587365361 1
gene  1 18 19 0.6143044075510099 0 1907.0 0.6143044075510099 1
gene  1 2 20 -0.06036737433421058 0 1996.0 -0.06036737433421058 1
gene  1 3 20 0.2314435797243405 0 1997.0 0.2314435797243405 1
gene  1 4 20 0.36162470492194165 0 1998.0 0.36162470492194165 1
gene  1 8 20 -0.21846607830046794 0 2002.0 -0.21846607830046794 1
gene  1 9 20 -0.7765920386604707 0 2003.0 -0.7765920386604707 1
gene  1 10 20 -0.10428208445784426 0 2004.0 -0.10428208445784426 1
gene  1 11 20 -0.5391889201025093 0 2005.0 -0.5391889201025093 1
gene  1 14 20 0.11605132071295265 0 2008.0 0.11605132071295265 1
gene  1 16 20 -0.05641154016765637 0 2010.0 -0.05641154016765637 1
gene  1 19 20 -0.28558399268278123 0 2013.0 -0.28558399268278123 1
gene  1 4 21 -0.09166129943155887 0 2103.0 -0.09166129943155887 1
gene  1 5 21 -0.7729157621748107 0 2104.0 -0.7729157621748107 1
gene  1 7 21 0.7967522938270132 0 2106.0 0.7967522938270132 1
gene  1 8 21 0.16838605447666521 0 2107.0 0.16838605447666521 1
gene  1 11 21 -0.44123099970957236 0 2110.0 -0.44123099970957236 1
gene  1 13 21 0.8379365985836542 0 2112.0 0.8379365985836542 1
gene  1 20 21 0.25987181912014945 0 2119.0 0.25987181912014945 1
gene  1 3 22 0.03013415113222817 0 2207.0 0.03013415113222817 1
gene  1 5 22 -0.2166806704901828 0 2209.0 -0.2166806704901828 1
gene  1 6 22 -0.00693341119939217 0 2210.0 -0.00693341119939217 1
gene  1 7 22 0.9723548292249834 0 2211.0 0.9723548292249834 1
gene  1 8 22 -0.8779364594120769 0 2212.0 -0.8779364594120769 1
gene  1 9 22 -0.3181010810220488 0 2213.0 -0.3181010810220488 1
gene  1 10 22 0.8999761480412195 0 2214.0 0.8999761480412195 1
gene  1 11 22 -0.5456456327422705 0 2215.0 -0.5456456327422705 1
gene  1 13 22 -0.44806073774948696 0 2217.0 -0.44806073774948696 1
gene  1 14 22 0.8170143007202145 0 2218.0 0.8170143007202145 1
gene  1 16 22 0.18579820811550152 0 2220.0 0.18579820811550152 1
gene  1 17 22 0.958077687557278 0 2221.0 0.958077687557278 1
gene  1 20 22 0.7505070981057507 0 2224.0 0.7505070981057507 1
gene  1 1 23 0.2730207644263223 0 2310.0 0.2730207644263223 1
gene  1 6 23 0.02950433897300231 0 2315.0 0.02950433897300231 1
gene  1 7 23 -0.7047127694138489 0 2316.0 -0.7047127694138489 1
gene  1 8 23 0.9412462838542535 0 2317.0 0.9412462838542535 1
gene  1 9 23 0.30393394974407584 0 2318.0 0.30393394974407584 1
gene  1 10 23 0.17401970668051925 0 2319.0 0.17401970668051925 1
gene  1 12 23 -0.18817956063385588 0 2321.0 -0.18817956063385588 1
gene  1 16 23 0.8289781805114242 0 2325.0 0.8289781805114242 1
gene  1 19 23 0.17353932344569656 0 2328.0 0.17353932344569656 1
gene  1 21 23 -0.14743227947086035 0 2330.0 -0.14743227947086035 1
gene  1 22 23 -0.36629860577242224 0 2331.0 -0.36629860577242224 1
gene  1 1 24 -0.09038974361351881 0 2415.0 -0.09038974361351881 1
gene  1 2 24 -0.733246987658464 0 2416.0 -0.733246987658464 1
gene  1 3 24 -0.445073740131969 0 2417.0 -0.445073740131969 1
gene  1 4 24 0.17516820019754142 0 2418.0 0.17516820019754142 1
gene  1 8 24 0.6851012691922642 0 2422.0 0.6851012691922642 1
gene  1 9 24 -0.9790054529936206 0 2423.0 -0.9790054529936206 1
gene  1 10 24 0.21627916297041727 0 2424.0 0.21627916297041727 1
gene  1 12 24 -0.6535092063449157 0 2426.0 -0.6535092063449157 1
gene  1 14 24 -0.9828860800038008 0 2428.0 -0.9828860800038008 1
gene  1 20 24 -0.455291651050735 0 2434.0 -0.455291651050735 1
gene  1 21 24 -0.31255202721586917 0 2435.0 -0.31255202721586917 1
gene  1 1 25 0.15874707653962827 0 2520.0 0.15874707653962827 1
gene  1 2 25 0.49230959596374113 0 2521.0 0.49230959596374113 1
gene  1 4 25 0.6805467777612773 0 2523.0 0.6805467777612773 1
gene  1 5 25 0.26950190637046145 0 2524.0 0.26950190637046145 1
gene  1 7 25 0.10023977755549263 0 2526.0 0.10023977755549263 1
gene  1 11 25 -0.6095085555896697 0 2530.0 -0.6095085555896697 1
gene  1 12 25 0.09422179800844965 0 2531.0 0.09422179800844965 1
gene  1 17 25 0.31445738453934524 0 2536.0 0.31445738453934524 1
gene  1 18 25 0.3423138821160743 0 2537.0 0.3423138821160743 1
gene  1 19 25 -0.583148353697203 0 2538.0 -0.583148353697203 1
gene  1 21 25 0.8801380203273058 0 2540.0 0.8801380203273058 1
gene  1 24 25 0.1519997269801696 0 2543.0 0.1519997269801696 1
gene  1 1 26 -0.8307908560666947 0 2625.0 -0.8307908560666947 1
gene  1 2 26 -0.5582570171647924 0 2626.0 -0.5582570171647924 1
gene  1 5 26 -0.5340407697118351 0 2629.0 -0.5340407697118351 1
gene  1 6 26 0.5896036183310143 0 2630.0 0.5896036183310143 1
gene  1 8 26 0.16229311201462848 0 2632.0 0.16229311201462848 1
gene  1 10 26 0.5561140025920702 0 2634.0 0.5561140025920702 1
gene  1 11 26 0.579283874035994 0 2635.0 0.579283874035994 1
gene  1 13 26 0.9557720474121193 0 2637.0 0.9557720474121193 1
gene  1 18 26 -0.19600937130581775 0 2642.0 -0.19600937130581775 1
gene  1 19 26 -0.05502403436899883 0 2643.0 -0.05502403436899883 1
gene  1 21 26 0.24216451282468032 0 2645.0 0.24216451282468032 1
gene  1 22 26 0.3360552820186926 0 2646.0 0.3360552820186926 1
gene  1 23 26 0.4623426019578415 0 2647.0 0.4623426019578415 1
gene  1 24 26 0.23985527556482544 0 2648.0 0.23985527556482544 1
gene  1 1 27 -0.7605381152725318 0 2730.0 -0.7605381152725318 1
gene  1 5 27 -0.43255926229722474 0 2734.0 -0.43255926229722474 1
gene  1 8 27 -0.9709044423420821 0 2737.0 -0.9709044423420821 1
gene  1 9 27 -0.3157702654949225 0 2738.0 -0.3157702654949225 1
gene  1 10 27 -0.8833641061283853 0 2739.0 -0.8833641061283853 1
gene  1 11 27 -0.03626887456582528 0 2740.0 -0.03626887456582528 1
gene  1 13 27 -0.08998137221927949 0 2742.0 -0.08998137221927949 1
gene  1 18 27 0.659603102621934 0 2747.0 0.659603102621934 1
gene  1 19 27 -0.8265256380164512 0 2748.0 -0.8265256380164512 1
gene  1 21 27 -0.8068982072808131 0 2750.0 -0.8068982072808131 1
gene  1 22 27 0.848570762936953 0 2751.0 0.848570762936953 1
gene  1 24 27 -0.1836891055924269 0 2753.0 -0.1836891055924269 1
gene  1 26 27 0.767758577978713 0 2755.0 0.767758577978713 1
gene  1 1 28 0.07207446330377565 0 2835.0 0.07207446330377565 1
gene  1 2 28 0.29744448526399747 0 2836.0 0.29744448526399747 1
gene  1 4 28 0.5813599832166298 0 2838.0 0.5813599832166298 1
gene  1 5 28 0.9113295412271187 0 2839.0 0.9113295412271187 1
gene  1 7 28 -0.3983749569580327 0 2841.0 -0.3983749569580327 1
gene  1 8 28 -0.31388515914813087 0 2842.0 -0.31388515914813087 1
gene  1 9 28 -0.12738005748789305 0 2843.0 -0.12738005748789305 1
gene  1 10 28 -0.23609877397867296 0 2844.0 -0.23609877397867296 1
gene  1 14 28 0.6348623426384167 0 2848.0 0.6348623426384167 1
gene  1 15 28 0.41157795384962936 0 2849.0 0.41157795384962936 1
gene  1 18 28 -0.23379450317649575 0 2852.0 -0.23379450317649575 1
gene  1 20 28 0.4980504314523554 0 2854.0 0.4980504314523554 1
gene  1 26 28 -0.2909594519248758 0 2860.0 -0.2909594519248758 1
gene  1 27 28 -0.04782466935049201 0 2861.0 -0.04782466935049201 1
gene  1 1 29 -0.8723389845516786 0 2940.0 -0.8723389845516786 1
gene  1 2 29 -0.6139038099920834 0 2941.0 -0.6139038099920834 1
gene  1 4 29 -0.46231619653092015 0 2943.0 -0.46231619653092015 1
gene  1 6 29 0.5393446887702228 0 2945.0 0.5393446887702228 1
gene  1 7 29 -0.4259495167025016 0 2946.0 -0.4259495167025016 1
gene  1 9 29 0.664040926047 0 2948.0 0.664040926047 1
gene  1 10 29 0.9601584026793184 0 2949.0 0.9601584026793184 1
gene  1 11 29 0.7993873118457799 0 2950.0 0.7993873118457799 1
gene  1 15 29 -0.22811291528447086 0 2954.0 -0.22811291528447086 1
gene  1 16 29 0.8630812828116294 0 2955.0 0.8630812828116294 1
gene  1 20 29 -0.902761260071773 0 2959.0 -0.902761260071773 1
gene  1 21 29 -0.5960207384667959 0 2960.0 -0.5960207384667959 1
gene  1 24 29 0.49078764334293257 0 2963.0 0.49078764334293257 1
gene  1 25 29 0.631763242908958 0 2964.0 0.631763242908958 1
gene  1 28 29 -0.28532368800792085 0 2967.0 -0.28532368800792085 1
gene  1 2 30 -0.16697965977409523 0 3046.0 -0.16697965977409523 1
gene  1 7 30 0.05725557101133261 0 3051.0 0.05725557101133261 1
gene  1 8 30 0.5254836661574771 0 3052.0 0.5254836661574771 1
gene  1 9 30 0.12167183267937909 0 3053.0 0.12167183267937909 1
gene  1 10 30 0.682417888029495 0 3054.0 0.682417888029495 1
gene  1 14 30 -0.2902610371157923 0 3058.0 -0.2902610371157923 1
gene  1 18 30 -0.1284129029765686 0 3062.0 -0.1284129029765686 1
gene  1 19 30 -0.7348056356375535 0 3063.0 -0.7348056356375535 1
gene  1 21 30 0.9547678556689096 0 3065.0 0.9547678556689096 1
gene  1 22 30 0.8097594547405186 0 3066.0 0.8097594547405186 1
gene  1 23 30 -0.9874226169390334 0 3067.0 -0.9874226169390334 1
gene  1 27 30 0.9221094772389359 0 3071.0 0.9221094772389359 1
gene  1 29 30 0.795477643856043 0 3073.0 0.795477643856043 1
gene  1 2 31 -0.9170069546311674 0 3151.0 -0.9170069546311674 1
gene  1 4 31 -0.3513978161503277 0 3153.0 -0.3513978161503277 1
gene  1 5 31 -0.7157421018606421 0 3154.0 -0.7157421018606421 1
gene  1 6 31 -0.71187206511448 0 3155.0 -0.71187206511448 1
gene  1 13 31 0.6179288916849643 0 3162.0 0.6179288916849643 1
gene  1 14 31 0.4974842344733007 0 3163.0 0.4974842344733007 1
gene  1 15 31 0.6518398259351769 0 3164.0 0.6518398259351769 1
gene  1 17 31 -0.03333860478823936 0 3166.0 -0.03333860478823936 1
gene  1 19 31 -0.7209343949881206 0 3168.0 -0.7209343949881206 1
gene  1 20 31 -0.0994558680312374 0 3169.0 -0.0994558680312374 1
gene  1 22 31 -0.1281254227763714 0 3171.0 -0.1281254227763714 1
gene  1 24 31 -0.7234163404948012 0 3173.0 -0.7234163404948012 1
gene  1 25 31 -0.6116976530982052 0 3174.0 -0.6116976530982052 1
gene  1 30 31 -0.7420574216886713 0 3179.0 -0.7420574216886713 1
gene  1 1 32 -0.014602149327522018 0 3255.0 -0.014602149327522018 1
gene  1 3 32 0.8514872954629505 0 3257.0 0.8514872954629505 1
gene  1 5 32 -0.8758811835806872 0 3259.0 -0.8758811835806872 1
gene  1 9 32 0.8606410575346397 0 3263.0 0.8606410575346397 1
gene  1 10 32 0.05439126992136578 0 3264.0 0.05439126992136578 1
gene  1 11 32 0.10232952630699554 0 3265.0 0.10232952630699554 1
gene  1 12 32 -0.8731842183039163 0 3266.0 -0.8731842183039163 1
gene  1 14 32 0.12380930963615788 0 3268.0 0.12380930963615788 1
gene  1 16 32 0.2914827734494635 0 3270.0 0.2914827734494635 1
gene  1 17 32 -0.5408607294097082 0 3271.0 -0.5408607294097082 1
gene  1 18 32 -0.8821852651398167 0 3272.0 -0.8821852651398167 1
gene  1 21 32 -0.34860204025811015 0 3275.0 -0.34860204025811015 1
gene  1 22 32 0.25112489608931077 0 3276.0 0.25112489608931077 1
gene  1 28 32 0.7294252812228467 0 3282.0 0.7294252812228467 1
gene  1 31 32 0.3018159641924214 0 3285.0 0.3018159641924214 1
gene  1 2 33 0.19791063694548439 0 3361.0 0.19791063694548439 1
gene  1 4 33 -0.5105697539846092 0 3363.0 -0.5105697539846092 1
gene  1 5 33 -0.9317759668014972 0 3364.0 -0.9317759668014972 1
gene  1 6 33 -0.17542739176394995 0 3365.0 -0.17542739176394995 1
gene  1 10 33 0.14752352521583356 0 3369.0 0.14752352521583356 1
gene  1 13 33 -0.6885816947980942 0 3372.0 -0.6885816947980942 1
gene  1 14 33 0.6066716515083083 0 3373.0 0.6066716515083083 1
gene  1 15 33 0.6076436419541335 0 3374.0 0.6076436419541335 1
gene  1 16 33 -0.9991349415843894 0 3375.0 -0.9991349415843894 1
gene  1 17 33 -0.4790429799609981 0 3376.0 -0.4790429799609981 1
gene  1 21 33 -0.37932044672991927 0 3380.0 -0.37932044672991927 1
gene  1 23 33 0.37976725333844985 0 3382.0 0.37976725333844985 1
gene  1 25 33 0.763795361310857 0 3384.0 0.763795361310857 1
gene  1 28 33 0.8065708214867003 0 3387.0 0.8065708214867003 1
gene  1 30 33 0.7246946638892606 0 3389.0 0.7246946638892606 1
gene  1 31 33 -0.6905055927217004 0 3390.0 -0.6905055927217004 1
gene  1 2 34 -0.24002589020849963 0 3466.0 -0.24002589020849963 1
gene  1 5 34 0.3115800984364441 0 3469.0 0.3115800984364441 1
gene  1 7 34 0.3563446265529969 0 3471.0 0.3563446265529969 1
gene  1 8 34 0.7062084650845598 0 3472.0 0.7062084650845598 1
gene  1 13 34 0.4889198662759201 0 3477.0 0.4889198662759201 1
gene  1 14 34 0.42185173342633475 0 3478.0 0.42185173342633475 1
gene  1 18 34 -0.8004416729365319 0 3482.0 -0.8004416729365319 1
gene  1 19 34 0.7964909774887573 0 3483.0 0.7964909774887573 1
gene  1 20 34 -0.5761470554273801 0 3484.0 -0.5761470554273801 1
gene  1 21 34 0.15243568232643545 0 3485.0 0.15243568232643545 1
gene  1 31 34 -0.4694557045731681 0 3495.0 -0.4694557045731681 1
gene  1 33 34 0.5517921438023891 0 3497.0 0.5517921438023891 1
gene  1 1 35 0.053363340744299714 0 3570.0 0.053363340744299714 1
gene  1 2 35 0.3325457164527803 0 3571.0 0.3325457164527803 1
gene  1 3 35 0.2145642715685161 0 3572.0 0.2145642715685161 1
gene  1 5 35 -0.0706900507453474 0 3574.0 -0.0706900507453474 1
gene  1 7 35 -0.31899866871560645 0 3576.0 -0.31899866871560645 1
gene  1 11 35 -0.19577720712013302 0 3580.0 -0.19577720712013302 1
gene  1 12 35 0.4214197102827104 0 3581.0 0.4214197102827104 1
gene  1 13 35 0.5051331319064533 0 3582.0 0.5051331319064533 1
gene  1 14 35 0.09500277361428955 0 3583.0 0.09500277361428955 1
gene  1 15 35 0.6191654255862975 0 3584.0 0.6191654255862975 1
gene  1 17 35 0.17046281907448668 0 3586.0 0.17046281907448668 1
gene  1 20 35 -0.44650841361347027 0 3589.0 -0.44650841361347027 1
gene  1 22 35 -0.13050657978565616 0 3591.0 -0.13050657978565616 1
gene  1 24 35 0.8598382382623584 0 3593.0 0.8598382382623584 1
gene  1 25 35 -0.3701366642804418 0 3594.0 -0.3701366642804418 1
gene  1 26 35 -0.7068765662419673 0 3595.0 -0.7068765662419673 1
gene  1 27 35 0.9785141673979632 0 3596.0 0.9785141673979632 1
gene  1 28 35 0.43971724466290296 0 3597.0 0.43971724466290296 1
gene  1 29 35 0.5080674284305451 0 3598.0 0.5080674284305451 1
gene  1 31 35 0.2268614196947889 0 3600.0 0.2268614196947889 1
gene  1 32 35 0.35505876912849266 0 3601.0 0.35505876912849266 1
gene  1 33 35 0.06517568656654738 0 3602.0 0.06517568656654738 1
gene  1 34 35 0.2798614023390088 0 3603.0 0.2798614023390088 1
gene  1 1 36 0.8505667184152456 0 3675.0 0.8505667184152456 1
gene  1 2 36 -0.48349436597120565 0 3676.0 -0.48349436597120565 1
gene  1 3 36 0.7579331520008493 0 3677.0 0.7579331520008493 1
gene  1 4 36 -0.7353131663805524 0 3678.0 -0.7353131663805524 1
gene  1 7 36 0.22135420713537357 0 3681.0 0.22135420713537357 1
gene  1 11 36 0.7358849298678364 0 3685.0 0.7358849298678364 1
gene  1 13 36 0.005794451595635408 0 3687.0 0.005794451595635408 1
gene  1 14 36 -0.22460038423645645 0 3688.0 -0.22460038423645645 1
gene  1 15 36 0.040084258925779714 0 3689.0 0.040084258925779714 1
gene  1 16 36 0.3293032305270043 0 3690.0 0.3293032305270043 1
gene  1 22 36 0.9290396621826529 0 3696.0 0.9290396621826529 1
gene  1 23 36 0.6889002855886819 0 3697.0 0.6889002855886819 1
gene  1 26 36 -0.9060913442032944 0 3700.0 -0.9060913442032944 1
gene  1 29 36 0.32214518589083196 0 3703.0 0.32214518589083196 1
gene  1 30 36 0.5841295852314732 0 3704.0 0.5841295852314732 1
gene  1 32 36 0.18662311291713551 0 3706.0 0.18662311291713551 1
gene  1 33 36 -0.24422187171597987 0 3707.0 -0.24422187171597987 1
gene  1 34 36 0.4235587044728687 0 3708.0 0.4235587044728687 1
gene  1 3 37 0.3965737122341956 0 3782.0 0.3965737122341956 1
gene  1 6 37 -0.8033125446617706 0 3785.0 -0.8033125446617706 1
gene  1 7 37 -0.7690495613009102 0 3786.0 -0.7690495613009102 1
gene  1 10 37 0.40141427485887793 0 3789.0 0.40141427485887793 1
gene  1 16 37 0.8068524351835903 0 3795.0 0.8068524351835903 1
gene  1 22 37 0.6947835871527819 0 3801.0 0.6947835871527819 1
gene  1 23 37 -0.20713240763036378 0 3802.0 -0.20713240763036378 1
gene  1 25 37 0.1089124977096414 0 3804.0 0.1089124977096414 1
gene  1 26 37 -0.926606332014598 0 3805.0 -0.926606332014598 1
gene  1 27 37 0.2532000906451982 0 3806.0 0.2532000906451982 1
gene  1 28 37 -0.7939860841845383 0 3807.0 -0.7939860841845383 1
gene  1 30 37 -0.2893175418712651 0 3809.0 -0.2893175418712651 1
gene  1 31 37 -0.908194024639269 0 3810.0 -0.908194024639269 1
gene  1 32 37 -0.6678562264250882 0 3811.0 -0.6678562264250882 1
gene  1 33 37 -0.3852977845422322 0 3812.0 -0.3852977845422322 1
gene  1 35 37 0.5391790734037505 0 3814.0 0.5391790734037505 1
gene  1 1 38 0.8223368037667412 0 3885.0 0.8223368037667412 1
gene  1 3 38 -0.23911567003558853 0 3887.0 -0.23911567003558853 1
gene  1 4 38 0.9196438451525857 0 3888.0 0.9196438451525857 1
gene  1 5 38 -0.7738960543438712 0 3889.0 -0.7738960543438712 1
gene  1 9 38 -0.7809550571406957 0 3893.0 -0.7809550571406957 1
gene  1 10 38 0.06734751460141308 0 3894.0 0.06734751460141308 1
gene  1 11 38 0.7873308718823402 0 3895.0 0.7873308718823402 1
gene  1 12 38 -0.6410867665296267 0 3896.0 -0.6410867665296267 1
gene  1 13 38 -0.4223716867337387 0 3897.0 -0.4223716867337387 1
gene  1 14 38 -0.4102262739967626 0 3898.0 -0.4102262739967626 1
gene  1 15 38 0.28855418045537307 0 3899.0 0.28855418045537307 1
gene  1 17 38 -0.9468476619885235 0 3901.0 -0.9468476619885235 1
gene  1 22 38 -0.4525990442191604 0 3906.0 -0.4525990442191604 1
gene  1 23 38 -0.42225324734011926 0 3907.0 -0.42225324734011926 1
gene  1 26 38 -0.49233666779307683 0 3910.0 -0.49233666779307683 1
gene  1 27 38 0.9118639844627434 0 3911.0 0.9118639844627434 1
gene  1 28 38 0.8901042614981042 0 3912.0 0.8901042614981042 1
gene  1 31 38 -0.860004669852972 0 3915.0 -0.860004669852972 1
gene  1 35 38 -0.17102682282121973 0 3919.0 -0.17102682282121973 1
gene  1 3 39 -0.05711164435060301 0 3992.0 -0.05711164435060301 1
gene  1 4 39 -0.8448014236873415 0 3993.0 -0.8448014236873415 1
gene  1 5 39 0.9649882054661918 0 3994.0 0.9649882054661918 1
gene  1 8 39 0.11572317323203563 0 3997.0 0.11572317323203563 1
gene  1 9 39 -0.5655702743157881 0 3998.0 -0.5655702743157881 1
gene  1 12 39 -0.8494617081314301 0 4001.0 -0.8494617081314301 1
gene  1 14 39 0.2920382035886083 0 4003.0 0.2920382035886083 1
gene  1 16 39 -0.6149553525281253 0 4005.0 -0.6149553525281253 1
gene  1 18 39 0.8943350581541082 0 4007.0 0.8943350581541082 1
gene  1 19 39 0.8995536009223041 0 4008.0 0.8995536009223041 1
gene  1 20 39 -0.013223814574151782 0 4009.0 -0.013223814574151782 1
gene  1 21 39 -0.57826632514783 0 4010.0 -0.57826632514783 1
gene  1 22 39 0.2725254800547626 0 4011.0 0.2725254800547626 1
gene  1 23 39 0.813889284922892 0 4012.0 0.813889284922892 1
gene  1 24 39 -0.8329753895761156 0 4013.0 -0.8329753895761156 1
gene  1 26 39 0.13085655049458067 0 4015.0 0.13085655049458067 1
gene  1 27 39 0.05057852597643153 0 4016.0 0.05057852597643153 1
gene  1 29 39 0.34339845170796823 0 4018.0 0.34339845170796823 1
gene  1 30 39 -0.3466263582686323 0 4019.0 -0.3466263582686323 1
gene  1 31 39 -0.2148977514938618 0 4020.0 -0.2148977514938618 1
gene  1 32 39 0.9363876307831179 0 4021.0 0.9363876307831179 1
gene  1 33 39 -0.5907914153675554 0 4022.0 -0.5907914153675554 1
gene  1 36 39 -0.5682631506070982 0 4025.0 -0.5682631506070982 1
gene  1 38 39 0.07409957874856066 0 4027.0 0.07409957874856066 1
gene  1 3 40 0.2181901422967122 0 4097.0 0.2181901422967122 1
gene  1 4 40 0.893599173450332 0 4098.0 0.893599173450332 1
gene  1 5 40 0.6604967775918327 0 4099.0 0.6604967775918327 1
gene  1 7 40 0.5340974195128837 0 4101.0 0.5340974195128837 1
gene  1 10 40 -0.6223735086098283 0 4104.0 -0.6223735086098283 1
gene  1 11 40 0.9227521239899235 0 4105.0 0.9227521239899235 1
gene  1 12 40 0.19371063853289505 0 4106.0 0.19371063853289505 1
gene  1 17 40 -0.8325717366390072 0 4111.0 -0.8325717366390072 1
gene  1 19 40 -0.4600963861739158 0 4113.0 -0.4600963861739158 1
gene  1 21 40 -0.5860210364881839 0 4115.0 -0.5860210364881839 1
gene  1 22 40 -0.7300702555965821 0 4116.0 -0.7300702555965821 1
gene  1 23 40 -0.8069384903523411 0 4117.0 -0.8069384903523411 1
gene  1 24 40 0.88781272922079 0 4118.0 0.88781272922079 1
gene  1 26 40 -0.549708303890854 0 4120.0 -0.549708303890854 1
gene  1 27 40 0.2120484146570173 0 4121.0 0.2120484146570173 1
gene  1 30 40 -0.4680649401519221 0 4124.0 -0.4680649401519221 1
gene  1 33 40 0.13582879424276706 0 4127.0 0.13582879424276706 1
gene  1 37 40 0.12423132196544207 0 4131.0 0.12423132196544207 1
gene  1 2 41 -0.6897423508141031 0 4201.0 -0.6897423508141031 1
gene  1 5 41 -0.12674436750693485 0 4204.0 -0.12674436750693485 1
gene  1 6 41 0.3726703721643625 0 4205.0 0.3726703721643625 1
gene  1 7 41 -0.6428508324913177 0 4206.0 -0.6428508324913177 1
gene  1 8 41 -0.8585344739686495 0 4207.0 -0.8585344739686495 1
gene  1 9 41 -0.09345739457822277 0 4208.0 -0.09345739457822277 1
gene  1 13 41 0.8824262726927448 0 4212.0 0.8824262726927448 1
gene  1 14 41 -0.7127997261571203 0 4213.0 -0.7127997261571203 1
gene  1 15 41 -0.8207454710080205 0 4214.0 -0.8207454710080205 1
gene  1 17 41 -0.6359832045335694 0 4216.0 -0.6359832045335694 1
gene  1 20 41 -0.5828693552024219 0 4219.0 -0.5828693552024219 1
gene  1 27 41 0.17138044269401953 0 4226.0 0.17138044269401953 1
gene  1 28 41 0.41329130737547515 0 4227.0 0.41329130737547515 1
gene  1 29 41 -0.9953032154660919 0 4228.0 -0.9953032154660919 1
gene  1 30 41 -0.7339221831736878 0 4229.0 -0.7339221831736878 1
gene  1 32 41 0.7450080794180387 0 4231.0 0.7450080794180387 1
gene  1 33 41 -0.4488080238387485 0 4232.0 -0.4488080238387485 1
gene  1 35 41 0.26643845918950226 0 4234.0 0.26643845918950226 1
gene  1 36 41 0.3431884306008578 0 4235.0 0.3431884306008578 1
gene  1 37 41 0.21734632740193327 0 4236.0 0.21734632740193327 1
gene  1 39 41 0.7504413434191101 0 4238.0 0.7504413434191101 1
gene  1 1 42 0.3327323371367865 0 4305.0 0.3327323371367865 1
gene  1 3 42 -0.11644683787163657 0 4307.0 -0.11644683787163657 1
gene  1 4 42 0.9661544604587117 0 4308.0 0.9661544604587117 1
gene  1 6 42 0.9800855295424183 0 4310.0 0.9800855295424183 1
gene  1 7 42 -0.5818585162462985 0 4311.0 -0.5818585162462985 1
gene  1 8 42 0.4092072900249938 0 4312.0 0.4092072900249938 1
gene  1 9 42 0.5516478368873453 0 4313.0 0.5516478368873453 1
gene  1 15 42 0.8852406226537849 0 4319.0 0.8852406226537849 1
gene  1 16 42 -0.15860165217209143 0 4320.0 -0.15860165217209143 1
gene  1 17 42 -0.07804534277432851 0 4321.0 -0.07804534277432851 1
gene  1 18 42 -0.32836386063811773 0 4322.0 -0.32836386063811773 1
gene  1 19 42 -0.7491620428451313 0 4323.0 -0.7491620428451313 1
gene  1 21 42 0.14920207218381132 0 4325.0 0.14920207218381132 1
gene  1 29 42 0.20921556196955493 0 4333.0 0.20921556196955493 1
gene  1 31 42 0.9258799383324853 0 4335.0 0.9258799383324853 1
gene  1 32 42 -0.9102934174152617 0 4336.0 -0.9102934174152617 1
gene  1 34 42 0.5176276032227093 0 4338.0 0.5176276032227093 1
gene  1 35 42 -0.7031314861817494 0 4339.0 -0.7031314861817494 1
gene  1 38 42 0.6912934567415093 0 4342.0 0.6912934567415093 1
gene  1 40 42 0.217176564209128 0 4344.0 0.217176564209128 1
gene  1 41 42 -0.2952605357987492 0 4345.0 -0.2952605357987492 1
gene  1 1 43 -0.6371977247092917 0 4410.0 -0.6371977247092917 1
gene  1 3 43 0.5200560835324977 0 4412.0 0.5200560835324977 1
gene  1 5 43 -0.060563523387195395 0 4414.0 -0.060563523387195395 1
gene  1 7 43 0.47876990850154644 0 4416.0 0.47876990850154644 1
gene  1 9 43 -0.2210688085751532 0 4418.0 -0.2210688085751532 1
gene  1 13 43 -0.8053478472827836 0 4422.0 -0.8053478472827836 1
gene  1 14 43 0.1411381183628263 0 4423.0 0.1411381183628263 1
gene  1 15 43 0.12985252524487256 0 4424.0 0.12985252524487256 1
gene  1 16 43 0.23695140682609206 0 4425.0 0.23695140682609206 1
gene  1 17 43 -0.8153425737581139 0 4426.0 -0.8153425737581139 1
gene  1 19 43 -0.7142803572270473 0 4428.0 -0.7142803572270473 1
gene  1 20 43 -0.1554240754840317 0 4429.0 -0.1554240754840317 1
gene  1 21 43 0.8466899461252119 0 4430.0 0.8466899461252119 1
gene  1 22 43 0.6399955996250328 0 4431.0 0.6399955996250328 1
gene  1 23 43 0.637250445059034 0 4432.0 0.637250445059034 1
gene  1 27 43 0.33494931960991914 0 4436.0 0.33494931960991914 1
gene  1 28 43 0.005091550800286004 0 4437.0 0.005091550800286004 1
gene  1 29 43 0.8337906967521962 0 4438.0 0.8337906967521962 1
gene  1 31 43 0.9229714654732656 0 4440.0 0.9229714654732656 1
gene  1 35 43 -0.057020896755138106 0 4444.0 -0.057020896755138106 1
gene  1 36 43 0.8876361246986404 0 4445.0 0.8876361246986404 1
gene  1 38 43 -0.08950521441113068 0 4447.0 -0.08950521441113068 1
gene  1 39 43 -0.5815751077161369 0 4448.0 -0.5815751077161369 1
gene  1 1 44 0.43100473099648084 0 4515.0 0.43100473099648084 1
gene  1 10 44 -0.3971387097442487 0 4524.0 -0.3971387097442487 1
gene  1 11 44 -0.20365417247347373 0 4525.0 -0.20365417247347373 1
gene  1 12 44 -0.5687349167119294 0 4526.0 -0.5687349167119294 1
gene  1 15 44 -0.49941862478305576 0 4529.0 -0.49941862478305576 1
gene  1 16 44 0.11921817824786396 0 4530.0 0.11921817824786396 1
gene  1 18 44 0.4018953501770496 0 4532.0 0.4018953501770496 1
gene  1 19 44 -0.5306196690780896 0 4533.0 -0.5306196690780896 1
gene  1 22 44 0.03742652797207746 0 4536.0 0.03742652797207746 1
gene  1 23 44 0.946084500262505 0 4537.0 0.946084500262505 1
gene  1 25 44 -0.8692312567172515 0 4539.0 -0.8692312567172515 1
gene  1 29 44 0.47049899212121005 0 4543.0 0.47049899212121005 1
gene  1 31 44 0.27901412794089653 0 4545.0 0.27901412794089653 1
gene  1 34 44 0.8620720277013262 0 4548.0 0.8620720277013262 1
gene  1 37 44 -0.33412032814222714 0 4551.0 -0.33412032814222714 1
gene  1 38 44 -0.3024455880945336 0 4552.0 -0.3024455880945336 1
gene  1 39 44 -0.04354081290834855 0 4553.0 -0.04354081290834855 1
gene  1 41 44 0.19677313611503622 0 4555.0 0.19677313611503622 1
gene  1 42 44 -0.468272097549536 0 4556.0 -0.468272097549536 1
gene  1 43 44 -0.7033982578967662 0 4557.0 -0.7033982578967662 1
gene  1 1 45 0.3867869735678011 0 4620.0 0.3867869735678011 1
gene  1 2 45 0.6012004155412969 0 4621.0 0.6012004155412969 1
gene  1 3 45 0.037488896138234584 0 4622.0 0.037488896138234584 1
gene  1 10 45 -0.5356478393084588 0 4629.0 -0.5356478393084588 1
gene  1 12 45 -0.5995645761581764 0 4631.0 -0.5995645761581764 1
gene  1 14 45 -0.42213267835707424 0 4633.0 -0.42213267835707424 1
gene  1 15 45 -0.4478438553842873 0 4634.0 -0.4478438553842873 1
gene  1 16 45 -0.05652904154474536 0 4635.0 -0.05652904154474536 1
gene  1 19 45 0.20353048928203077 0 4638.0 0.20353048928203077 1
gene  1 20 45 0.3570643158876792 0 4639.0 0.3570643158876792 1
gene  1 21 45 -0.02204051113543437 0 4640.0 -0.02204051113543437 1
gene  1 22 45 -0.9390668077906718 0 4641.0 -0.9390668077906718 1
gene  1 26 45 0.42401604740277576 0 4645.0 0.42401604740277576 1
gene  1 30 45 -0.8187355123128057 0 4649.0 -0.8187355123128057 1
gene  1 34 45 0.8811473126065288 0 4653.0 0.8811473126065288 1
gene  1 36 45 0.9342288636467565 0 4655.0 0.9342288636467565 1
gene  1 37 45 0.3763124276198605 0 4656.0 0.3763124276198605 1
gene  1 41 45 0.3602068829148347 0 4660.0 0.3602068829148347 1
gene  1 43 45 -0.23708013434550246 0 4662.0 -0.23708013434550246 1
gene  1 44 45 -0.5593496994387253 0 4663.0 -0.5593496994387253 1
gene  1 1 46 0.10465629144893862 0 4725.0 0.10465629144893862 1
gene  1 2 46 0.5793623947402553 0 4726.0 0.5793623947402553 1
gene  1 3 46 0.6831306285071476 0 4727.0 0.6831306285071476 1
gene  1 4 46 0.10465869795831417 0 4728.0 0.10465869795831417 1
gene  1 5 46 0.4287469875379296 0 4729.0 0.4287469875379296 1
gene  1 6 46 -0.8904633698716053 0 4730.0 -0.8904633698716053 1
gene  1 7 46 -0.33729899125873786 0 4731.0 -0.33729899125873786 1
gene  1 9 46 0.22648802841357607 0 4733.0 0.22648802841357607 1
gene  1 10 46 -0.8444694377231026 0 4734.0 -0.8444694377231026 1
gene  1 12 46 -0.40919014301111 0 4736.0 -0.40919014301111 1
gene  1 13 46 0.5018470498322721 0 4737.0 0.5018470498322721 1
gene  1 14 46 0.5168483533552067 0 4738.0 0.5168483533552067 1
gene  1 18 46 0.10394906313899843 0 4742.0 0.10394906313899843 1
gene  1 19 46 0.42013111867241615 0 4743.0 0.42013111867241615 1
gene  1 20 46 -0.5798853931549837 0 4744.0 -0.5798853931549837 1
gene  1 24 46 0.38921406798114666 0 4748.0 0.38921406798114666 1
gene  1 25 46 0.4723536155425111 0 4749.0 0.4723536155425111 1
gene  1 26 46 0.6899179633300243 0 4750.0 0.6899179633300243 1
gene  1 27 46 -0.9853552863795726 0 4751.0 -0.9853552863795726 1
gene  1 28 46 -0.9434988873881853 0 4752.0 -0.9434988873881853 1
gene  1 30 46 -0.479080561051379 0 4754.0 -0.479080561051379 1
gene  1 31 46 -0.44754323428202825 0 4755.0 -0.44754323428202825 1
gene  1 34 46 -0.5177560995708995 0 4758.0 -0.5177560995708995 1
gene  1 40 46 -0.8226478275750386 0 4764.0 -0.8226478275750386 1
gene  1 41 46 -0.5001077365609637 0 4765.0 -0.5001077365609637 1
gene  1 42 46 -0.6025930419702813 0 4766.0 -0.6025930419702813 1
gene  1 45 46 0.39056271270278364 0 4769.0 0.39056271270278364 1
gene  1 1 47 0.46171862890025506 0 4830.0 0.46171862890025506 1
gene  1 2 47 0.024188049257091615 0 4831.0 0.024188049257091615 1
gene  1 3 47 0.6233107203465005 0 4832.0 0.6233107203465005 1
gene  1 9 47 -0.7175156424781283 0 4838.0 -0.7175156424781283 1
gene  1 10 47 0.17984398845470417 0 4839.0 0.17984398845470417 1
gene  1 12 47 -0.5629643723720232 0 4841.0 -0.5629643723720232 1
gene  1 16 47 -0.09509121971833223 0 4845.0 -0.09509121971833223 1
gene  1 17 47 0.6107630677536936 0 4846.0 0.6107630677536936 1
gene  1 18 47 -0.757502030174695 0 4847.0 -0.757502030174695 1
gene  1 19 47 0.0055692624976309 0 4848.0 0.0055692624976309 1
gene  1 20 47 -0.9560677421006043 0 4849.0 -0.9560677421006043 1
gene  1 21 47 -0.13797711691627212 0 4850.0 -0.13797711691627212 1
gene  1 22 47 -0.06689517369113973 0 4851.0 -0.06689517369113973 1
gene  1 23 47 -0.7303320659901966 0 4852.0 -0.7303320659901966 1
gene  1 24 47 0.6241537226288791 0 4853.0 0.6241537226288791 1
gene  1 29 47 0.6527218494942832 0 4858.0 0.6527218494942832 1
gene  1 30 47 -0.9321434705377935 0 4859.0 -0.9321434705377935 1
gene  1 31 47 0.9551960878225241 0 4860.0 0.9551960878225241 1
gene  1 32 47 0.03787483432692895 0 4861.0 0.03787483432692895 1
gene  1 33 47 0.5560548533627466 0 4862.0 0.5560548533627466 1
gene  1 35 47 -0.24800720872392912 0 4864.0 -0.24800720872392912 1
gene  1 39 47 0.9165755439363937 0 4868.0 0.9165755439363937 1
gene  1 41 47 -0.11457661294010202 0 4870.0 -0.11457661294010202 1
gene  1 43 47 0.39201436466805684 0 4872.0 0.39201436466805684 1
gene  1 44 47 -0.8999111740288656 0 4873.0 -0.8999111740288656 1
gene  1 45 47 0.3427598630943093 0 4874.0 0.3427598630943093 1
gene  1 2 48 0.3515056734844041 0 4936.0 0.3515056734844041 1
gene  1 5 48 -0.5215658278075029 0 4939.0 -0.5215658278075029 1
gene  1 6 48 -0.7324679988591298 0 4940.0 -0.7324679988591298 1
gene  1 7 48 -0.9585751842946217 0 4941.0 -0.9585751842946217 1
gene  1 8 48 -0.5595944220738733 0 4942.0 -0.5595944220738733 1
gene  1 9 48 -0.07692281388360078 0 4943.0 -0.07692281388360078 1
gene  1 12 48 -0.5961886448982713 0 4946.0 -0.5961886448982713 1
gene  1 13 48 0.09569440467847701 0 4947.0 0.09569440467847701 1
gene  1 14 48 -0.8126628002327321 0 4948.0 -0.8126628002327321 1
gene  1 16 48 -0.7609532770842156 0 4950.0 -0.7609532770842156 1
gene  1 17 48 -0.8596913133628343 0 4951.0 -0.8596913133628343 1
gene  1 19 48 0.8574720816203036 0 4953.0 0.8574720816203036 1
gene  1 20 48 -0.13669537450744418 0 4954.0 -0.13669537450744418 1
gene  1 26 48 -0.5365502116617293 0 4960.0 -0.5365502116617293 1
gene  1 28 48 0.06392455246444595 0 4962.0 0.06392455246444595 1
gene  1 31 48 0.21507073904132812 0 4965.0 0.21507073904132812 1
gene  1 34 48 -0.7597385274191681 0 4968.0 -0.7597385274191681 1
gene  1 35 48 -0.7321723075548392 0 4969.0 -0.7321723075548392 1
gene  1 36 48 0.08152311870448792 0 4970.0 0.08152311870448792 1
gene  1 37 48 0.20641882390903077 0 4971.0 0.20641882390903077 1
gene  1 41 48 -0.6320502929630105 0 4975.0 -0.6320502929630105 1
gene  1 43 48 0.3779109710778591 0 4977.0 0.3779109710778591 1
gene  1 46 48 0.05361426315481177 0 4980.0 0.05361426315481177 1
gene  1 47 48 0.4315474009360969 0 4981.0 0.4315474009360969 1
gene  1 3 49 -0.632057068299138 0 5042.0 -0.632057068299138 1
gene  1 5 49 -0.15895441743736838 0 5044.0 -0.15895441743736838 1
gene  1 6 49 0.9427567786561265 0 5045.0 0.9427567786561265 1
gene  1 7 49 0.9443197775650677 0 5046.0 0.9443197775650677 1
gene  1 11 49 -0.35443288229046765 0 5050.0 -0.35443288229046765 1
gene  1 12 49 -0.6296088051518093 0 5051.0 -0.6296088051518093 1
gene  1 13 49 -0.05816917442499392 0 5052.0 -0.05816917442499392 1
gene  1 14 49 0.63559821923188 0 5053.0 0.63559821923188 1
gene  1 16 49 -0.5746046968902918 0 5055.0 -0.5746046968902918 1
gene  1 17 49 -0.8423937107446183 0 5056.0 -0.8423937107446183 1
gene  1 18 49 0.7813110239927163 0 5057.0 0.7813110239927163 1
gene  1 19 49 -0.2874594853367246 0 5058.0 -0.2874594853367246 1
gene  1 21 49 0.5759546828433842 0 5060.0 0.5759546828433842 1
gene  1 23 49 -0.3063151030233371 0 5062.0 -0.3063151030233371 1
gene  1 24 49 -0.7089131013530383 0 5063.0 -0.7089131013530383 1
gene  1 25 49 -0.7000293314107555 0 5064.0 -0.7000293314107555 1
gene  1 26 49 0.17307461446325811 0 5065.0 0.17307461446325811 1
gene  1 27 49 -0.8612745481506803 0 5066.0 -0.8612745481506803 1
gene  1 29 49 0.9087820878425121 0 5068.0 0.9087820878425121 1
gene  1 31 49 0.9965810969064502 0 5070.0 0.9965810969064502 1
gene  1 32 49 -0.8621325656909745 0 5071.0 -0.8621325656909745 1
gene  1 37 49 -0.22861153702353854 0 5076.0 -0.22861153702353854 1
gene  1 43 49 -0.1825772185636907 0 5082.0 -0.1825772185636907 1
gene  1 44 49 -0.29033593300650407 0 5083.0 -0.29033593300650407 1
gene  1 48 49 0.45762393139095203 0 5087.0 0.45762393139095203 1
gene  1 3 50 0.42978708621455475 0 5147.0 0.42978708621455475 1
gene  1 4 50 0.49008972817681395 0 5148.0 0.49008972817681395 1
gene  1 12 50 0.03639140345778258 0 5156.0 0.03639140345778258 1
gene  1 13 50 -0.447752804471662 0 5157.0 -0.447752804471662 1
gene  1 14 50 -0.13686290838729032 0 5158.0 -0.13686290838729032 1
gene  1 16 50 -0.7115485092113302 0 5160.0 -0.7115485092113302 1
gene  1 17 50 -0.32973815597528955 0 5161.0 -0.32973815597528955 1
gene  1 20 50 -0.21706027689450846 0 5164.0 -0.21706027689450846 1
gene  1 21 50 0.1822532436394667 0 5165.0 0.1822532436394667 1
gene  1 22 50 -0.017694422081432237 0 5166.0 -0.017694422081432237 1
gene  1 24 50 0.17763266680451084 0 5168.0 0.17763266680451084 1
gene  1 27 50 -0.07769041753635164 0 5171.0 -0.07769041753635164 1
gene  1 31 50 -0.6856375666493069 0 5175.0 -0.6856375666493069 1
gene  1 32 50 0.4507590093588629 0 5176.0 0.4507590093588629 1
gene  1 34 50 0.9507752252325825 0 5178.0 0.9507752252325825 1
gene  1 35 50 -0.537245616684209 0 5179.0 -0.537245616684209 1
gene  1 37 50 0.499212576846476 0 5181.0 0.499212576846476 1
gene  1 42 50 0.17137071138725057 0 5186.0 0.17137071138725057 1
gene  1 43 50 0.1787757639954004 0 5187.0 0.1787757639954004 1
gene  1 45 50 -0.46328795383289123 0 5189.0 -0.46328795383289123 1
gene  1 48 50 0.29679415400508413 0 5192.0 0.29679415400508413 1
gene  1 1 51 0.8344860142626784 0 5250.0 0.8344860142626784 1
gene  1 4 51 0.02412493844901331 0 5253.0 0.02412493844901331 1
gene  1 5 51 0.31832594808060066 0 5254.0 0.31832594808060066 1
gene  1 6 51 0.677694035790026 0 5255.0 0.677694035790026 1
gene  1 8 51 -0.9687797145707511 0 5257.0 -0.9687797145707511 1
gene  1 12 51 0.8650532113228198 0 5261.0 0.8650532113228198 1
gene  1 13 51 0.7050937050091072 0 5262.0 0.7050937050091072 1
gene  1 16 51 -0.08470536323168121 0 5265.0 -0.08470536323168121 1
gene  1 17 51 0.15496651988625554 0 5266.0 0.15496651988625554 1
gene  1 18 51 0.7078558571063094 0 5267.0 0.7078558571063094 1
gene  1 20 51 -0.33496470348443297 0 5269.0 -0.33496470348443297 1
gene  1 21 51 0.2807259622688919 0 5270.0 0.2807259622688919 1
gene  1 22 51 -0.4450915399161549 0 5271.0 -0.4450915399161549 1
gene  1 24 51 -0.6969645065748666 0 5273.0 -0.6969645065748666 1
gene  1 25 51 -0.7017036316174007 0 5274.0 -0.7017036316174007 1
gene  1 27 51 -0.14619041073932082 0 5276.0 -0.14619041073932082 1
gene  1 30 51 0.41211180806260517 0 5279.0 0.41211180806260517 1
gene  1 33 51 0.9066077823141994 0 5282.0 0.9066077823141994 1
gene  1 34 51 -0.1820792920843206 0 5283.0 -0.1820792920843206 1
gene  1 36 51 0.8771135681338947 0 5285.0 0.8771135681338947 1
gene  1 38 51 0.651665993078666 0 5287.0 0.651665993078666 1
gene  1 39 51 -0.28855053122457786 0 5288.0 -0.28855053122457786 1
gene  1 41 51 0.7021476991702047 0 5290.0 0.7021476991702047 1
gene  1 44 51 0.43058020543384856 0 5293.0 0.43058020543384856 1
gene  1 48 51 0.5197405898351641 0 5297.0 0.5197405898351641 1
gene  1 49 51 0.07023536543328379 0 5298.0 0.07023536543328379 1
gene  1 2 52 0.195649224756821 0 5356.0 0.195649224756821 1
gene  1 5 52 0.6022393125719822 0 5359.0 0.6022393125719822 1
gene  1 6 52 0.5343082836589255 0 5360.0 0.5343082836589255 1
gene  1 7 52 0.7976477250872898 0 5361.0 0.7976477250872898 1
gene  1 10 52 0.7657057919079469 0 5364.0 0.7657057919079469 1
gene  1 11 52 -0.1719399825973812 0 5365.0 -0.1719399825973812 1
gene  1 15 52 0.7086325417092836 0 5369.0 0.7086325417092836 1
gene  1 17 52 -0.39523904295727075 0 5371.0 -0.39523904295727075 1
gene  1 20 52 -0.15398583912554187 0 5374.0 -0.15398583912554187 1
gene  1 21 52 0.5341184420605363 0 5375.0 0.5341184420605363 1
gene  1 22 52 0.24087338853543272 0 5376.0 0.24087338853543272 1
gene  1 24 52 -0.16599654871098013 0 5378.0 -0.16599654871098013 1
gene  1 26 52 -0.9682341122491921 0 5380.0 -0.9682341122491921 1
gene  1 27 52 -0.47582634586408634 0 5381.0 -0.47582634586408634 1
gene  1 29 52 -0.440336302778369 0 5383.0 -0.440336302778369 1
gene  1 30 52 0.21984620192722593 0 5384.0 0.21984620192722593 1
gene  1 32 52 -0.2494228086172594 0 5386.0 -0.2494228086172594 1
gene  1 34 52 -0.7861684801593919 0 5388.0 -0.7861684801593919 1
gene  1 37 52 0.6160016772656274 0 5391.0 0.6160016772656274 1
gene  1 38 52 0.8364934413769023 0 5392.0 0.8364934413769023 1
gene  1 47 52 0.7380284322755885 0 5401.0 0.7380284322755885 1
gene  1 48 52 0.10705690989999417 0 5402.0 0.10705690989999417 1
gene  1 50 52 -0.3380494609381286 0 5404.0 -0.3380494609381286 1
gene  1 2 53 -0.2248945151537557 0 5461.0 -0.2248945151537557 1
gene  1 7 53 0.4737079855426599 0 5466.0 0.4737079855426599 1
gene  1 13 53 -0.46912795506427485 0 5472.0 -0.46912795506427485 1
gene  1 15 53 -0.06752496591616919 0 5474.0 -0.06752496591616919 1
gene  1 18 53 0.8180388448060055 0 5477.0 0.8180388448060055 1
gene  1 20 53 -0.7169450399075358 0 5479.0 -0.7169450399075358 1
gene  1 21 53 0.8228224175957162 0 5480.0 0.8228224175957162 1
gene  1 23 53 -0.5520198081405281 0 5482.0 -0.5520198081405281 1
gene  1 24 53 0.9677091072393529 0 5483.0 0.9677091072393529 1
gene  1 27 53 -0.18244626809232956 0 5486.0 -0.18244626809232956 1
gene  1 29 53 -0.2692860711795444 0 5488.0 -0.2692860711795444 1
gene  1 31 53 -0.6345910191833121 0 5490.0 -0.6345910191833121 1
gene  1 33 53 -0.8053482935774756 0 5492.0 -0.8053482935774756 1
gene  1 34 53 0.023946830992826018 0 5493.0 0.023946830992826018 1
gene  1 36 53 -0.7370726329955166 0 5495.0 -0.7370726329955166 1
gene  1 37 53 -0.6068014197957045 0 5496.0 -0.6068014197957045 1
gene  1 39 53 0.2849531343285726 0 5498.0 0.2849531343285726 1
gene  1 42 53 0.19476493755241064 0 5501.0 0.19476493755241064 1
gene  1 43 53 -0.3286620523336665 0 5502.0 -0.3286620523336665 1
gene  1 44 53 0.9518118966213647 0 5503.0 0.9518118966213647 1
gene  1 45 53 -0.49175777646819474 0 5504.0 -0.49175777646819474 1
gene  1 46 53 0.7484360752964141 0 5505.0 0.7484360752964141 1
gene  1 47 53 -0.18745914046644285 0 5506.0 -0.18745914046644285 1
gene  1 49 53 0.12633045818026556 0 5508.0 0.12633045818026556 1
gene  1 50 53 -0.20297162519107548 0 5509.0 -0.20297162519107548 1
gene  1 51 53 -0.34394169707345235 0 5510.0 -0.34394169707345235 1
gene  1 2 54 0.3949988099253795 0 5566.0 0.3949988099253795 1
gene  1 5 54 0.8867490763387903 0 5569.0 0.8867490763387903 1
gene  1 6 54 -0.2374680715788633 0 5570.0 -0.2374680715788633 1
gene  1 8 54 0.9196815785072644 0 5572.0 0.9196815785072644 1
gene  1 9 54 0.40521927926892354 0 5573.0 0.40521927926892354 1
gene  1 10 54 0.9001696466930278 0 5574.0 0.9001696466930278 1
gene  1 11 54 -0.19043650870888573 0 5575.0 -0.19043650870888573 1
gene  1 14 54 0.9230571492140007 0 5578.0 0.9230571492140007 1
gene  1 18 54 -0.8354127736355068 0 5582.0 -0.8354127736355068 1
gene  1 19 54 -0.9298068082113935 0 5583.0 -0.9298068082113935 1
gene  1 20 54 -0.873837623485343 0 5584.0 -0.873837623485343 1
gene  1 22 54 -0.08634254857757462 0 5586.0 -0.08634254857757462 1
gene  1 26 54 0.9612377627775041 0 5590.0 0.9612377627775041 1
gene  1 27 54 0.5404020744218345 0 5591.0 0.5404020744218345 1
gene  1 29 54 -0.8781404875940354 0 5593.0 -0.8781404875940354 1
gene  1 30 54 -0.9668031909778747 0 5594.0 -0.9668031909778747 1
gene  1 32 54 0.07726788549116181 0 5596.0 0.07726788549116181 1
gene  1 33 54 -0.9361121898086716 0 5597.0 -0.9361121898086716 1
gene  1 35 54 0.6362467825102407 0 5599.0 0.6362467825102407 1
gene  1 36 54 -0.9965377163349155 0 5600.0 -0.9965377163349155 1
gene  1 38 54 0.4781230779838007 0 5602.0 0.4781230779838007 1
gene  1 39 54 -0.4835388539971749 0 5603.0 -0.4835388539971749 1
gene  1 41 54 0.7545762919098769 0 5605.0 0.7545762919098769 1
gene  1 42 54 0.7763990322461902 0 5606.0 0.7763990322461902 1
gene  1 44 54 0.3533183156359897 0 5608.0 0.3533183156359897 1
gene  1 45 54 -0.5582189126580431 0 5609.0 -0.5582189126580431 1
gene  1 46 54 0.023720770276281944 0 5610.0 0.023720770276281944 1
gene  1 49 54 0.6941023873651552 0 5613.0 0.6941023873651552 1
gene  1 50 54 0.45848827378478973 0 5614.0 0.45848827378478973 1
gene  1 2 55 0.31543704248823745 0 5671.0 0.31543704248823745 1
gene  1 3 55 -0.8234764845575011 0 5672.0 -0.8234764845575011 1
gene  1 4 55 0.5291375394941052 0 5673.0 0.5291375394941052 1
gene  1 7 55 -0.28539130583397565 0 5676.0 -0.28539130583397565 1
gene  1 10 55 -0.6664790503918753 0 5679.0 -0.6664790503918753 1
gene  1 14 55 0.7829129328518957 0 5683.0 0.7829129328518957 1
gene  1 17 55 -0.6406224955948489 0 5686.0 -0.6406224955948489 1
gene  1 18 55 0.28372684335460185 0 5687.0 0.28372684335460185 1
gene  1 19 55 -0.33960779592927115 0 5688.0 -0.33960779592927115 1
gene  1 20 55 -0.7807788695328659 0 5689.0 -0.7807788695328659 1
gene  1 22 55 0.21740376377474024 0 5691.0 0.21740376377474024 1
gene  1 24 55 -0.8418580437652808 0 5693.0 -0.8418580437652808 1
gene  1 29 55 0.2306849799373567 0 5698.0 0.2306849799373567 1
gene  1 30 55 0.20721330560045115 0 5699.0 0.20721330560045115 1
gene  1 31 55 -0.2355294996030094 0 5700.0 -0.2355294996030094 1
gene  1 32 55 0.4854258151517762 0 5701.0 0.4854258151517762 1
gene  1 37 55 -0.9704269529141353 0 5706.0 -0.9704269529141353 1
gene  1 39 55 0.9335208263386234 0 5708.0 0.9335208263386234 1
gene  1 40 55 -0.5340790769797263 0 5709.0 -0.5340790769797263 1
gene  1 42 55 0.5488664834501017 0 5711.0 0.5488664834501017 1
gene  1 44 55 0.5320920637599452 0 5713.0 0.5320920637599452 1
gene  1 45 55 -0.5286620453382677 0 5714.0 -0.5286620453382677 1
gene  1 47 55 0.33798524132985996 0 5716.0 0.33798524132985996 1
gene  1 49 55 0.2831602613554596 0 5718.0 0.2831602613554596 1
gene  1 50 55 0.9126434561458391 0 5719.0 0.9126434561458391 1
gene  1 51 55 0.8419555257783191 0 5720.0 0.8419555257783191 1
gene  1 52 55 0.6620638429989941 0 5721.0 0.6620638429989941 1
gene  1 53 55 -0.5237877153290528 0 5722.0 -0.5237877153290528 1
gene  1 54 55 0.18918942285067342 0 5723.0 0.18918942285067342 1
gene  1 2 56 -0.3610114103778852 0 5776.0 -0.3610114103778852 1
gene  1 4 56 0.09448142020459471 0 5778.0 0.09448142020459471 1
gene  1 6 56 0.11776439381166026 0 5780.0 0.11776439381166026 1
gene  1 9 56 0.18721364335262036 0 5783.0 0.18721364335262036 1
gene  1 10 56 0.5187215594815046 0 5784.0 0.5187215594815046 1
gene  1 12 56 0.23522195593280726 0 5786.0 0.23522195593280726 1
gene  1 13 56 -0.9315525472004702 0 5787.0 -0.9315525472004702 1
gene  1 14 56 -0.3135949454637268 0 5788.0 -0.3135949454637268 1
gene  1 16 56 -0.926693642778673 0 5790.0 -0.926693642778673 1
gene  1 19 56 -0.5450236171458278 0 5793.0 -0.5450236171458278 1
gene  1 20 56 0.4882765406832009 0 5794.0 0.4882765406832009 1
gene  1 21 56 -0.8808723050477089 0 5795.0 -0.8808723050477089 1
gene  1 24 56 -0.9651871836735653 0 5798.0 -0.9651871836735653 1
gene  1 28 56 0.016371304811391707 0 5802.0 0.016371304811391707 1
gene  1 30 56 -0.8405332703249856 0 5804.0 -0.8405332703249856 1
gene  1 32 56 -0.16420786537196885 0 5806.0 -0.16420786537196885 1
gene  1 33 56 -0.16861650683838147 0 5807.0 -0.16861650683838147 1
gene  1 35 56 -0.11846489200196697 0 5809.0 -0.11846489200196697 1
gene  1 37 56 0.8236063318591177 0 5811.0 0.8236063318591177 1
gene  1 38 56 -0.03298420329199314 0 5812.0 -0.03298420329199314 1
gene  1 45 56 0.8651287378267779 0 5819.0 0.8651287378267779 1
gene  1 49 56 0.08501400675310022 0 5823.0 0.08501400675310022 1
gene  1 52 56 -0.17435034372506564 0 5826.0 -0.17435034372506564 1
gene  1 55 56 0.938260368614191 0 5829.0 0.938260368614191 1
gene  1 1 105 0.809622096938022 0 10920.0 0.809622096938022 1
gene  1 2 105 -0.23399961985223894 0 10921.0 -0.23399961985223894 1
gene  1 5 105 -0.38657446885466284 0 10924.0 -0.38657446885466284 1
gene  1 8 105 0.3281025921266303 0 10927.0 0.3281025921266303 1
gene  1 12 105 0.38969238410666096 0 10931.0 0.38969238410666096 1
gene  1 14 105 -0.5433210550941703 0 10933.0 -0.5433210550941703 1
gene  1 16 105 0.519461952478882 0 10935.0 0.519461952478882 1
gene  1 18 105 0.8271673188473501 0 10937.0 0.8271673188473501 1
gene  1 19 105 -0.978108680763507 0 10938.0 -0.978108680763507 1
gene  1 20 105 -0.8010232489908093 0 10939.0 -0.8010232489908093 1
gene  1 21 105 0.3183265186661691 0 10940.0 0.3183265186661691 1
gene  1 22 105 0.23629396805997016 0 10941.0 0.23629396805997016 1
gene  1 23 105 0.29512729111726244 0 10942.0 0.29512729111726244 1
gene  1 25 105 0.9334557546880492 0 10944.0 0.9334557546880492 1
gene  1 27 105 0.9556195112217658 0 10946.0 0.9556195112217658 1
gene  1 28 105 -0.1730812672630605 0 10947.0 -0.1730812672630605 1
gene  1 30 105 -0.16772952244990447 0 10949.0 -0.16772952244990447 1
gene  1 31 105 0.4535092186569373 0 10950.0 0.4535092186569373 1
gene  1 34 105 0.8852243966030542 0 10953.0 0.8852243966030542 1
gene  1 35 105 0.9356713592629516 0 10954.0 0.9356713592629516 1
gene  1 37 105 -0.8160671576819692 0 10956.0 -0.8160671576819692 1
gene  1 38 105 -0.7126414517938889 0 10957.0 -0.7126414517938889 1
gene  1 41 105 0.8272498843682005 0 10960.0 0.8272498843682005 1
gene  1 43 105 -0.48881718188261325 0 10962.0 -0.48881718188261325 1
gene  1 44 105 -0.04224638729311336 0 10963.0 -0.04224638729311336 1
gene  1 45 105 0.8677492649674577 0 10964.0 0.8677492649674577 1
gene  1 46 105 -0.7881698486885136 0 10965.0 -0.7881698486885136 1
gene  1 48 105 -0.7627109365715937 0 10967.0 -0.7627109365715937 1
gene  1 51 105 0.2721762843308084 0 10970.0 0.2721762843308084 1
gene  1 52 105 0.25444834739786226 0 10971.0 0.25444834739786226 1
gene  1 54 105 -0.46855098391026573 0 10973.0 -0.46855098391026573 1
gene  1 56 105 -0.2493198939725042 0 10975.0 -0.2493198939725042 1
genomeend 27
