genomestart  25
trait 1 0.0 0.0 0.0 0.0 0.0 0.0 0.0 0.0 0.0 0.0 0.0 0.0 0.0 0.0 0.0 0.0 0.0 0.0 0.0 0.0 
node 1 1 1 1
node 2 1 1 1
node 3 1 1 1
node 4 1 1 1
node 5 1 1 3
node 6 1 0 0
node 7 1 0 0
node 16 1 0 2
gene  1 1 6 0.8997151006737872 0 80.0 0.8997151006737872 1
gene  1 2 6 0.31306785956031347 0 81.0 0.31306785956031347 1
gene  1 3 6 -0.2735264067373159 0 82.0 -0.2735264067373159 1
gene  1 4 6 -0.6556049563127967 0 83.0 -0.6556049563127967 1
gene  1 5 6 0.6270792274151148 0 84.0 0.6270792274151148 1
gene  1 1 7 -0.20461675320126083 0 96.0 -0.20461675320126083 1
gene  1 2 7 0.5131955016510471 0 97.0 0.5131955016510471 1
gene  1 5 7 0.22455469421799867 0 100.0 0.22455469421799867 1
gene  1 6 7 0.15045551173969363 0 101.0 0.15045551173969363 1
gene  1 2 16 -0.07715120808031661 0 241.0 -0.07715120808031661 1
gene  1 4 16 -0.0685906060422905 0 243.0 -0.0685906060422905 1
gene  1 5 16 0.04196420178986027 0 244.0 0.04196420178986027 1
gene  1 7 16 0.24949302714293264 0 246.0 0.24949302714293264 1
genomeend 25
