genomestart  39
trait 1 0.0 0.0 0.0 0.0 0.0 0.0 0.0 0.0 0.0 0.0 0.0 0.0 0.0 0.0 0.0 0.0 0.0 0.0 0.0 0.0 
node 1 1 1 1
node 2 1 1 1
node 3 1 1 1
node 4 1 1 1
node 5 1 1 3
node 6 1 0 0
node 7 1 0 0
node 8 1 0 0
node 9 1 0 0
node 10 1 0 0
node 11 1 0 0
node 12 1 0 0
node 16 1 0 2
gene  1 1 6 0.25610632431487146 0 80.0 0.25610632431487146 1
gene  1 2 6 0.2470313750227221 0 81.0 0.2470313750227221 1
gene  1 3 6 0.4887928606256271 0 82.0 0.4887928606256271 1
gene  1 3 7 -0.617304725623842 0 98.0 -0.617304725623842 1
gene  1 1 8 0.42789296907040963 0 112.0 0.42789296907040963 1
gene  1 2 8 0.6117875381983255 0 113.0 0.6117875381983255 1
gene  1 5 8 0.08346205542536766 0 116.0 0.08346205542536766 1
gene  1 7 8 0.27776756762209887 0 118.0 0.27776756762209887 1
gene  1 4 9 -0.5153587479163352 0 131.0 -0.5153587479163352 1
gene  1 6 9 -0.04299691372102987 0 133.0 -0.04299691372102987 1
gene  1 8 9 0.9342212397745072 0 135.0 0.9342212397745072 1
gene  1 1 10 -0.23671610641655583 0 144.0 -0.23671610641655583 1
gene  1 4 10 -0.38327803453391296 0 147.0 -0.38327803453391296 1
gene  1 6 10 -0.23232985144658058 0 149.0 -0.23232985144658058 1
gene  1 9 10 -0.455490058881609 0 152.0 -0.455490058881609 1
gene  1 1 11 -0.3639806389562078 0 160.0 -0.3639806389562078 1
gene  1 3 11 0.12253991716730672 0 162.0 0.12253991716730672 1
gene  1 4 11 0.7439066566077186 0 163.0 0.7439066566077186 1
gene  1 6 11 -0.7950512464210794 0 165.0 -0.7950512464210794 1
gene  1 8 11 -0.17380827218610684 0 167.0 -0.17380827218610684 1
gene  1 9 11 -0.9668311587173894 0 168.0 -0.9668311587173894 1
gene  1 2 12 0.21981768385481604 0 177.0 0.21981768385481604 1
gene  1 5 12 0.2402123406449399 0 180.0 0.2402123406449399 1
gene  1 6 12 -0.06346620465901631 0 181.0 -0.06346620465901631 1
gene  1 8 12 0.18499925345961432 0 183.0 0.18499925345961432 1
gene  1 9 12 0.7621597252209734 0 184.0 0.7621597252209734 1
gene  1 10 12 0.3501464919219093 0 185.0 0.3501464919219093 1
gene  1 11 12 0.7223902306279646 0 186.0 0.7223902306279646 1
gene  1 2 16 -0.8110906748433269 0 241.0 -0.8110906748433269 1
gene  1 6 16 -0.34064733046470563 0 245.0 -0.34064733046470563 1
gene  1 9 16 0.0905024935250418 0 248.0 0.0905024935250418 1
gene  1 10 16 -0.3890715871017246 0 249.0 -0.3890715871017246 1
gene  1 11 16 -0.10902190433194259 0 250.0 -0.10902190433194259 1
gene  1 12 16 -0.14120717277629857 0 251.0 -0.14120717277629857 1
genomeend 39
